~o
<STREAMINFO> 1 26
<VECSIZE> 26<NULLD><MFCC_E_D><DIAGC>
~h "L"
<BEGINHMM>
<NUMSTATES> 5
<STATE> 2
<MEAN> 26
 1.987175e+00 -2.352508e+00 -7.526436e+00 -1.300703e+01 -1.165009e+01 1.018564e-01 -9.053732e+00 -2.704081e+00 -3.974730e+00 -7.636938e-01 -2.390881e+00 -8.547315e-01 6.965476e-01 6.109053e-01 -1.619341e-01 -1.032366e-01 -6.861306e-01 -2.692958e-01 1.760103e-01 -6.985615e-01 3.700103e-01 -1.802174e-01 -2.838027e-01 2.977088e-01 1.288669e-01 2.011033e-02
<VARIANCE> 26
 1.260738e+01 4.584381e+01 4.617097e+01 8.045242e+01 4.076424e+01 6.941742e+01 3.911658e+01 3.813475e+01 4.623542e+01 4.405792e+01 3.113058e+01 1.739586e+01 1.409135e-02 1.820634e+00 2.725696e+00 3.651283e+00 2.605652e+00 4.297141e+00 4.585667e+00 2.770704e+00 3.642840e+00 2.533803e+00 2.904605e+00 3.285111e+00 8.811034e-01 1.000000e-02
<GCONST> 9.487254e+01
<STATE> 3
<MEAN> 26
 2.870952e+00 -9.795765e+00 -7.762750e+00 -8.526178e+00 -1.405007e+01 -3.593357e+00 -1.116397e+01 4.810228e+00 -1.836592e+00 -8.206324e-01 -8.484716e-01 -2.074310e+00 7.914670e-01 -4.577560e-01 -5.973899e-02 2.904595e-01 2.276097e-01 -3.030611e-02 9.103888e-02 7.768406e-01 -4.173152e-01 -2.662061e-01 2.853496e-01 -2.298561e-02 -3.116461e-01 -4.172692e-03
<VARIANCE> 26
 8.995222e+00 4.313441e+01 9.017573e+01 5.810987e+01 2.975045e+01 7.913451e+01 3.553170e+01 6.266539e+01 4.328497e+01 2.830638e+01 1.748534e+01 1.096197e+01 1.037596e-02 3.747330e-01 2.469962e+00 2.193457e+00 2.252267e+00 3.533349e+00 3.423205e+00 2.544096e+00 1.885653e+00 1.907466e+00 1.212362e+00 1.827076e+00 1.703305e+00 1.000000e-02
<GCONST> 8.852998e+01
<STATE> 4
<MEAN> 26
 -2.097554e+00 -4.936176e+00 -3.528714e+00 -8.881397e+00 -1.065297e+01 -3.384001e+00 -8.478927e+00 -2.174866e+00 -4.017367e+00 1.393549e+00 -2.514522e+00 -1.152184e+00 6.927427e-01 -1.857922e+00 -3.395897e-02 9.499036e-01 1.016558e+00 2.815860e-01 -7.877102e-01 8.196799e-01 8.773766e-03 2.488336e-01 1.534215e-01 -3.220156e-01 2.938136e-01 -2.646288e-02
<VARIANCE> 26
 3.145816e+01 5.137146e+01 1.061244e+02 6.315361e+01 7.538988e+01 8.751305e+01 4.713251e+01 6.435435e+01 6.074418e+01 1.919231e+01 3.415688e+01 2.359936e+01 2.303618e-02 4.987121e+00 5.222386e+00 2.372970e+00 4.496640e+00 7.440400e+00 6.466990e+00 5.835975e+00 4.458094e+00 4.381414e+00 2.440934e+00 2.873488e+00 2.174802e+00 1.000000e-02
<GCONST> 1.031340e+02
<TRANSP> 5
 0.000000e+00 1.000000e+00 0.000000e+00 0.000000e+00 0.000000e+00
 0.000000e+00 6.031746e-01 3.968254e-01 0.000000e+00 0.000000e+00
 0.000000e+00 0.000000e+00 5.614035e-01 4.385965e-01 0.000000e+00
 0.000000e+00 0.000000e+00 0.000000e+00 5.192308e-01 4.807692e-01
 0.000000e+00 0.000000e+00 0.000000e+00 0.000000e+00 0.000000e+00
<ENDHMM>
