~o
<STREAMINFO> 1 20
<VECSIZE> 20<NULLD><USER><DIAGC>
~h "a"
<BEGINHMM>
<NUMSTATES> 14
<STATE> 2
<MEAN> 20
 4.288622e+03 3.401483e+00 0.000000e+00 0.000000e+00 0.000000e+00 0.000000e+00 0.000000e+00 0.000000e+00 0.000000e+00 4.999606e+01 1.910823e+01 6.522809e+01 2.009551e+03 1.103163e+03 5.959058e+02 2.965726e+02 2.389891e+02 1.160202e+01 1.900824e+00 0.000000e+00
<VARIANCE> 20
 1.451829e+07 4.625513e+01 1.000000e-02 1.000000e-02 1.000000e-02 1.000000e-02 1.000000e-02 1.000000e-02 1.000000e-02 4.751022e+03 2.503018e+03 5.129137e+03 9.006217e+06 3.064953e+06 1.109190e+06 1.864938e+05 1.968698e+05 4.686335e+02 3.250253e+01 1.000000e-02
<GCONST> 1.239010e+02
<STATE> 3
<MEAN> 20
 3.882097e+03 8.723804e+00 0.000000e+00 0.000000e+00 0.000000e+00 0.000000e+00 0.000000e+00 0.000000e+00 0.000000e+00 7.838626e+00 6.497355e+01 4.252826e+01 1.248047e+03 8.027847e+02 5.749056e+02 7.776510e+02 3.512364e+02 3.626088e+01 2.726163e-01 0.000000e+00
<VARIANCE> 20
 9.033084e+06 4.153339e+02 1.000000e-02 1.000000e-02 1.000000e-02 1.000000e-02 1.000000e-02 1.000000e-02 1.000000e-02 2.865592e+02 3.838083e+04 6.760772e+03 6.708017e+06 1.158564e+06 1.213720e+06 1.141178e+06 2.914722e+05 8.576153e+03 7.435293e-01 1.000000e-02
<GCONST> 1.259752e+02
<STATE> 4
<MEAN> 20
 4.004860e+03 1.273129e+02 0.000000e+00 0.000000e+00 1.875017e-01 2.062519e+00 2.125017e+01 1.875004e+01 1.762493e+01 8.187469e+01 1.122500e+02 1.895626e+02 1.074929e+03 1.191691e+03 1.048115e+03 4.613118e+02 1.603755e+02 3.287523e+01 2.812526e+00 0.000000e+00
<VARIANCE> 20
 1.135034e+07 7.833969e+04 1.000000e-02 1.000000e-02 5.273483e-01 6.380914e+01 6.164114e+03 2.953085e+03 1.729979e+03 1.520972e+04 3.281976e+04 1.615414e+05 5.106194e+06 1.953619e+06 5.159640e+06 2.927046e+05 6.100947e+04 9.465438e+03 1.186534e+02 1.000000e-02
<GCONST> 1.930904e+02
<STATE> 5
<MEAN> 20
 7.611792e+03 9.210560e-01 0.000000e+00 0.000000e+00 0.000000e+00 0.000000e+00 0.000000e+00 0.000000e+00 0.000000e+00 2.254198e+02 5.263118e-02 1.829991e+02 5.127470e+03 1.947765e+03 5.426611e+02 3.486871e+01 2.236853e+00 7.894678e-02 0.000000e+00 0.000000e+00
<VARIANCE> 20
 7.774887e+06 9.441189e+00 1.000000e-02 1.000000e-02 1.000000e-02 1.000000e-02 1.000000e-02 1.000000e-02 1.000000e-02 1.157572e+05 4.986115e-02 5.670283e+04 1.230731e+07 1.654705e+06 9.622068e+05 4.730419e+03 3.028640e+01 7.271422e-02 1.000000e-02 1.000000e-02
<GCONST> 8.670188e+01
<STATE> 6
<MEAN> 20
 2.561939e+03 1.924792e+02 1.565178e+00 0.000000e+00 0.000000e+00 0.000000e+00 2.521758e+00 2.130451e+00 4.043402e+00 3.604318e+01 4.643452e+01 9.330323e+01 1.767368e+02 8.331641e+02 1.000905e+03 3.912636e+02 1.721317e+02 6.126133e+01 2.178277e+01 3.739159e+00
<VARIANCE> 20
 5.515274e+06 5.238511e+04 5.389663e+01 1.000000e-02 1.000000e-02 1.000000e-02 1.088590e+02 4.872247e+01 1.476906e+02 7.196989e+03 6.732675e+03 3.591857e+04 1.319547e+05 1.215493e+06 1.972631e+06 2.788185e+05 3.393736e+04 9.154406e+03 1.699048e+03 1.125414e+02
<GCONST> 1.796244e+02
<STATE> 7
<MEAN> 20
 3.164857e+03 8.471500e+01 0.000000e+00 0.000000e+00 2.142862e-01 0.000000e+00 0.000000e+00 1.357122e+00 1.642843e+00 1.635700e+01 3.599977e+01 5.092854e+01 2.117840e+02 6.458580e+02 1.113363e+03 9.194984e+02 2.793547e+02 1.035710e+01 1.999961e+00 0.000000e+00
<VARIANCE> 20
 2.590914e+06 1.891207e+04 1.000000e-02 1.000000e-02 3.112265e-01 1.000000e-02 1.000000e-02 8.800888e+00 1.694368e+01 5.259388e+02 3.551993e+03 2.321648e+03 1.585242e+05 5.189863e+05 1.326856e+06 1.116584e+06 1.567858e+05 2.880870e+02 5.199905e+01 1.000000e-02
<GCONST> 1.391093e+02
<STATE> 8
<MEAN> 20
 4.136447e+03 2.276891e+01 0.000000e+00 0.000000e+00 0.000000e+00 0.000000e+00 3.076877e-01 3.615330e+00 2.130738e+01 1.293836e+02 2.760736e+02 1.598454e+02 4.165382e+02 1.064161e+03 7.046918e+02 1.298215e+03 3.457651e+02 2.776945e+01 1.869250e+01 2.076946e+00
<VARIANCE> 20
 3.345160e+06 2.224458e+03 1.000000e-02 1.000000e-02 1.000000e-02 1.000000e-02 1.136079e+00 4.762078e+01 2.372645e+03 2.564576e+04 2.056747e+05 4.438577e+04 2.510514e+05 1.213117e+06 3.731042e+05 2.334447e+06 2.503898e+05 3.471437e+03 3.094548e+03 3.484054e+01
<GCONST> 1.720229e+02
<STATE> 9
<MEAN> 20
 2.300387e+03 1.587012e+02 4.000030e-01 0.000000e+00 8.000060e-01 0.000000e+00 1.900014e+01 8.290063e+01 1.440011e+01 3.909992e+01 1.777014e+02 8.110012e+01 8.724923e+02 9.093964e+02 4.302988e+02 2.569971e+01 3.389972e+01 6.710017e+01 1.800005e+01 0.000000e+00
<VARIANCE> 20
 4.234920e+06 6.528070e+04 1.440010e+00 1.000000e-02 5.760039e+00 1.000000e-02 1.876211e+03 1.813418e+04 4.972422e+02 1.499483e+03 8.039777e+04 8.472523e+03 1.352186e+06 6.952004e+05 2.535253e+05 1.736578e+03 2.428651e+03 1.885921e+04 1.207008e+03 1.000000e-02
<GCONST> 1.748146e+02
<STATE> 10
<MEAN> 20
 4.802479e+03 3.611948e+00 0.000000e+00 0.000000e+00 0.000000e+00 0.000000e+00 0.000000e+00 0.000000e+00 9.230534e-01 7.657262e+01 6.541660e+00 1.116310e+02 8.634201e+02 1.754250e+03 1.946277e+03 1.743137e+02 1.587569e+01 1.127729e+01 0.000000e+00 0.000000e+00
<VARIANCE> 20
 4.181600e+06 3.120292e+02 1.000000e-02 1.000000e-02 1.000000e-02 1.000000e-02 1.000000e-02 1.000000e-02 6.251471e+00 5.826805e+04 7.143917e+02 1.077885e+05 2.205366e+06 2.245052e+06 2.007626e+06 6.147997e+04 1.879930e+03 3.019266e+03 1.000000e-02 1.000000e-02
<GCONST> 1.221918e+02
<STATE> 11
<MEAN> 20
 9.343071e+03 1.695408e+00 0.000000e+00 0.000000e+00 0.000000e+00 0.000000e+00 0.000000e+00 0.000000e+00 0.000000e+00 1.767898e+02 0.000000e+00 3.928354e+02 5.337250e+03 2.894294e+03 3.396074e+02 1.098465e+02 2.050884e+02 1.939681e+02 4.533562e+01 3.330151e+00
<VARIANCE> 20
 5.636049e+06 6.140597e+01 1.000000e-02 1.000000e-02 1.000000e-02 1.000000e-02 1.000000e-02 1.000000e-02 1.000000e-02 3.302474e+04 1.000000e-02 9.066799e+05 4.714010e+06 1.259511e+06 6.397133e+04 4.794802e+03 1.505691e+04 1.610157e+04 3.869814e+03 5.701080e+01
<GCONST> 1.242652e+02
<STATE> 12
<MEAN> 20
 1.159238e+04 9.988533e-01 0.000000e+00 0.000000e+00 0.000000e+00 0.000000e+00 0.000000e+00 0.000000e+00 4.175199e-01 2.329807e+02 1.031367e+01 8.370539e+02 6.681730e+03 3.187914e+03 3.606674e+02 1.569600e+02 3.504351e+02 1.935535e+02 4.357384e+01 4.573008e+00
<VARIANCE> 20
 2.873454e+06 1.098853e+01 1.000000e-02 1.000000e-02 1.000000e-02 1.000000e-02 1.000000e-02 1.000000e-02 1.909246e+00 3.298305e+04 9.598494e+02 7.982377e+05 4.378909e+06 2.236307e+06 3.337231e+04 2.954232e+03 2.733962e+04 3.556645e+03 2.550541e+03 1.007042e+02
<GCONST> 1.370698e+02
<STATE> 13
<MEAN> 20
 1.573460e+04 8.162486e+03 6.249884e+01 0.000000e+00 0.000000e+00 0.000000e+00 3.999925e+00 7.099867e+01 1.643699e+02 1.155865e+03 1.877108e+03 1.233770e+04 7.043061e+03 3.183001e+03 2.997455e+02 1.145184e+02 2.334841e+02 2.172272e+02 4.503347e+01 3.939037e+00
<VARIANCE> 20
 1.761291e+08 4.607488e+08 2.672307e+04 1.000000e-02 1.000000e-02 1.000000e-02 1.119982e+02 3.528643e+04 1.884751e+05 7.861242e+06 2.435808e+07 9.457622e+08 1.811739e+07 4.638463e+06 6.080301e+04 7.689680e+03 2.251483e+04 3.763182e+04 1.966939e+03 4.079105e+01
<GCONST> 2.368357e+02
<TRANSP> 14
 0.000000e+00 1.000000e+00 0.000000e+00 0.000000e+00 0.000000e+00 0.000000e+00 0.000000e+00 0.000000e+00 0.000000e+00 0.000000e+00 0.000000e+00 0.000000e+00 0.000000e+00 0.000000e+00
 0.000000e+00 1.996567e-01 8.003433e-01 0.000000e+00 0.000000e+00 0.000000e+00 0.000000e+00 0.000000e+00 0.000000e+00 0.000000e+00 0.000000e+00 0.000000e+00 0.000000e+00 0.000000e+00
 0.000000e+00 0.000000e+00 2.730070e-01 7.269930e-01 0.000000e+00 0.000000e+00 0.000000e+00 0.000000e+00 0.000000e+00 0.000000e+00 0.000000e+00 0.000000e+00 0.000000e+00 0.000000e+00
 0.000000e+00 0.000000e+00 0.000000e+00 4.999976e-01 5.000024e-01 0.000000e+00 0.000000e+00 0.000000e+00 0.000000e+00 0.000000e+00 0.000000e+00 0.000000e+00 0.000000e+00 0.000000e+00
 0.000000e+00 0.000000e+00 0.000000e+00 0.000000e+00 7.894708e-01 2.105292e-01 0.000000e+00 0.000000e+00 0.000000e+00 0.000000e+00 0.000000e+00 0.000000e+00 0.000000e+00 0.000000e+00
 0.000000e+00 0.000000e+00 0.000000e+00 0.000000e+00 0.000000e+00 6.521746e-01 3.478254e-01 0.000000e+00 0.000000e+00 0.000000e+00 0.000000e+00 0.000000e+00 0.000000e+00 0.000000e+00
 0.000000e+00 0.000000e+00 0.000000e+00 0.000000e+00 0.000000e+00 0.000000e+00 4.285695e-01 5.714306e-01 0.000000e+00 0.000000e+00 0.000000e+00 0.000000e+00 0.000000e+00 0.000000e+00
 0.000000e+00 0.000000e+00 0.000000e+00 0.000000e+00 0.000000e+00 0.000000e+00 0.000000e+00 3.846115e-01 6.153885e-01 0.000000e+00 0.000000e+00 0.000000e+00 0.000000e+00 0.000000e+00
 0.000000e+00 0.000000e+00 0.000000e+00 0.000000e+00 0.000000e+00 0.000000e+00 0.000000e+00 0.000000e+00 2.000015e-01 7.999985e-01 0.000000e+00 0.000000e+00 0.000000e+00 0.000000e+00
 0.000000e+00 0.000000e+00 0.000000e+00 0.000000e+00 0.000000e+00 0.000000e+00 0.000000e+00 0.000000e+00 0.000000e+00 6.789311e-01 3.210689e-01 0.000000e+00 0.000000e+00 0.000000e+00
 0.000000e+00 0.000000e+00 0.000000e+00 0.000000e+00 0.000000e+00 0.000000e+00 0.000000e+00 0.000000e+00 0.000000e+00 0.000000e+00 9.446396e-01 5.536041e-02 0.000000e+00 0.000000e+00
 0.000000e+00 0.000000e+00 0.000000e+00 0.000000e+00 0.000000e+00 0.000000e+00 0.000000e+00 0.000000e+00 0.000000e+00 0.000000e+00 0.000000e+00 3.341081e-01 6.658919e-01 0.000000e+00
 0.000000e+00 0.000000e+00 0.000000e+00 0.000000e+00 0.000000e+00 0.000000e+00 0.000000e+00 0.000000e+00 0.000000e+00 0.000000e+00 0.000000e+00 0.000000e+00 0.000000e+00 1.000000e+00
 0.000000e+00 0.000000e+00 0.000000e+00 0.000000e+00 0.000000e+00 0.000000e+00 0.000000e+00 0.000000e+00 0.000000e+00 0.000000e+00 0.000000e+00 0.000000e+00 0.000000e+00 0.000000e+00
<ENDHMM>
~h "b"
<BEGINHMM>
<NUMSTATES> 14
<STATE> 2
<MEAN> 20
 3.089827e+03 1.643635e+01 9.122746e+00 1.231762e+00 1.023903e+01 5.979103e+02 3.574257e+02 6.739037e+01 4.648943e+01 1.166773e+02 3.563609e+02 3.289066e+02 5.355192e+02 7.170443e+02 1.805960e+03 4.211861e+02 1.364178e+02 1.077793e+01 5.773890e-01 0.000000e+00
<VARIANCE> 20
 3.869742e+06 7.467834e+02 8.528775e+02 1.919176e+01 6.814121e+02 7.191729e+05 1.749357e+05 3.661773e+03 7.902062e+02 5.079444e+03 3.023275e+05 1.756292e+05 1.874193e+06 4.591826e+05 1.149436e+06 1.650724e+05 7.327652e+04 7.633922e+02 3.862316e+00 1.000000e-02
<GCONST> 2.164694e+02
<STATE> 3
<MEAN> 20
 5.540306e+03 1.105256e+00 0.000000e+00 0.000000e+00 2.105270e-01 4.789489e+01 1.193161e+02 2.321058e+01 1.436845e+01 4.494688e+01 8.142132e+01 2.101530e+02 4.562999e+02 1.296423e+03 3.470744e+03 2.763164e+02 0.000000e+00 0.000000e+00 0.000000e+00 0.000000e+00
<VARIANCE> 20
 6.831070e+06 7.252073e+00 1.000000e-02 1.000000e-02 7.977864e-01 2.012605e+04 1.254357e+05 1.100272e+03 4.378120e+02 3.952068e+03 1.007162e+05 2.631465e+05 2.508697e+06 1.755029e+06 3.227704e+06 1.335118e+05 1.000000e-02 1.000000e-02 1.000000e-02 1.000000e-02
<GCONST> 1.495384e+02
<STATE> 4
<MEAN> 20
 4.056117e+03 1.600002e+01 0.000000e+00 0.000000e+00 3.333337e-01 4.918760e+02 1.963754e+02 6.566680e+01 6.475014e+01 1.874168e+02 5.854178e+01 3.493314e+02 1.088281e+03 1.193751e+03 1.858504e+03 4.200425e+02 1.070002e+02 3.083339e+00 0.000000e+00 0.000000e+00
<VARIANCE> 20
 6.371258e+06 1.779252e+03 1.000000e-02 1.000000e-02 1.055556e+00 3.632315e+05 4.621168e+04 6.039060e+03 5.461274e+03 4.300049e+04 6.664088e+03 1.348460e+05 3.874456e+06 9.731914e+05 1.924142e+06 2.061689e+05 4.008450e+04 3.932647e+01 1.000000e-02 1.000000e-02
<GCONST> 1.836181e+02
<STATE> 5
<MEAN> 20
 7.798772e+03 1.720560e+02 6.666684e+00 1.777783e+00 5.055570e+00 9.233912e+02 2.323895e+02 7.966688e+01 7.905576e+01 3.722775e+02 2.140561e+02 6.769391e+02 2.681433e+03 2.175004e+03 3.010452e+03 5.650015e+02 3.132230e+02 3.077786e+01 3.055563e+00 1.166669e+00
<VARIANCE> 20
 2.155065e+07 3.986932e+04 1.493336e+02 4.406184e+01 5.427478e+01 1.174561e+06 9.461569e+04 1.017890e+04 1.446852e+04 2.907782e+05 5.010640e+04 5.693361e+05 1.190292e+07 2.812970e+06 1.581519e+07 1.302414e+05 1.546724e+05 2.598178e+03 2.838585e+01 6.916674e+00
<GCONST> 2.425060e+02
<STATE> 6
<MEAN> 20
 8.900901e+03 3.442861e+01 0.000000e+00 0.000000e+00 0.000000e+00 1.025834e+03 1.849042e+02 1.005236e+02 1.039760e+02 6.753093e+02 7.690494e+00 4.968301e+02 5.495371e+03 2.364122e+03 1.763838e+03 6.214529e+02 2.725484e+02 3.952394e+00 7.142873e-02 0.000000e+00
<VARIANCE> 20
 6.246092e+06 2.172107e+03 1.000000e-02 1.000000e-02 1.000000e-02 8.959880e+05 5.607062e+04 1.287434e+04 9.268527e+03 2.982072e+05 2.218334e+02 2.885589e+05 1.767503e+07 1.831576e+06 5.513254e+06 2.314649e+05 2.125451e+05 2.291888e+02 2.091841e-01 1.000000e-02
<GCONST> 1.906054e+02
<STATE> 7
<MEAN> 20
 7.927970e+03 2.937505e+01 5.750057e+00 1.125011e+00 3.500035e+00 5.644991e+02 3.338774e+02 1.036255e+02 1.072505e+02 5.414994e+02 2.138772e+02 8.914928e+02 5.268589e+03 2.197508e+03 6.197554e+02 3.422484e+02 7.387553e+01 1.112511e+01 0.000000e+00 0.000000e+00
<VARIANCE> 20
 1.319258e+07 1.319989e+03 1.286884e+02 8.859448e+00 3.650024e+01 4.637688e+05 2.272894e+05 2.238237e+04 2.408684e+04 2.589875e+05 1.385634e+05 6.304743e+05 1.208997e+07 2.066226e+06 4.470950e+05 1.966062e+05 2.102754e+04 8.228666e+02 1.000000e-02 1.000000e-02
<GCONST> 2.176234e+02
<STATE> 8
<MEAN> 20
 8.687845e+03 1.932586e+01 0.000000e+00 0.000000e+00 5.021554e-02 1.494258e+03 2.325606e+02 1.382141e+02 1.494711e+02 8.488313e+02 8.908173e+01 9.690757e+02 6.474771e+03 2.408223e+03 3.697915e+02 6.925242e+02 4.855854e+02 4.969420e+01 2.062867e+01 1.118092e+01
<VARIANCE> 20
 6.346547e+06 5.429436e+03 1.000000e-02 1.000000e-02 4.769393e-02 6.356849e+05 1.328086e+04 4.483775e+03 4.000228e+03 1.006706e+05 5.746053e+04 4.255313e+05 5.764181e+06 1.033121e+06 5.610393e+04 1.570079e+05 1.767270e+05 4.426696e+03 2.107137e+03 9.022550e+02
<GCONST> 2.110157e+02
<STATE> 9
<MEAN> 20
 9.621324e+03 3.013894e+01 2.500013e-01 0.000000e+00 2.125013e+00 1.866715e+03 3.303460e+02 1.766174e+02 1.803007e+02 1.128188e+03 1.190725e+02 1.276477e+03 7.647274e+03 2.182124e+03 5.148503e+02 1.028193e+03 5.367903e+02 3.122281e+01 0.000000e+00 0.000000e+00
<VARIANCE> 20
 8.427019e+06 1.423073e+03 4.375019e-01 1.000000e-02 1.410944e+01 1.733281e+06 2.540027e+04 1.081523e+04 1.404037e+04 4.983058e+05 3.474155e+04 6.248388e+05 1.043240e+07 1.312535e+06 2.542802e+05 6.879929e+05 2.967397e+05 2.244748e+03 1.000000e-02 1.000000e-02
<GCONST> 2.046887e+02
<STATE> 10
<MEAN> 20
 8.891659e+03 1.369254e+01 6.044943e-02 0.000000e+00 0.000000e+00 1.503873e+03 2.243274e+02 1.224900e+02 1.326564e+02 8.041182e+02 2.519013e+01 4.465262e+02 5.213082e+03 4.069790e+03 6.671531e+02 6.070159e+02 5.174365e+02 8.280353e+01 5.238533e+01 1.149570e+01
<VARIANCE> 20
 4.172751e+06 8.436717e+02 1.172446e-01 1.000000e-02 1.000000e-02 6.526148e+05 1.859033e+04 5.014863e+03 4.756894e+03 1.599000e+05 5.601716e+03 5.280714e+05 5.741680e+06 2.948634e+06 2.835009e+05 9.202818e+04 1.651030e+05 7.717311e+03 5.604556e+03 7.441779e+02
<GCONST> 2.120364e+02
<STATE> 11
<MEAN> 20
 7.857396e+03 6.168565e+01 1.415362e+01 2.923079e+00 4.537307e+00 1.810215e+03 4.718929e+02 2.242420e+02 1.915839e+02 1.156215e+03 1.772347e+02 1.468530e+03 6.479510e+03 1.896863e+03 4.202837e+02 7.119405e+02 5.486013e+02 7.642744e+01 1.530086e+01 1.537775e-01
<VARIANCE> 20
 1.145654e+07 5.989814e+03 5.220533e+02 4.235989e+01 6.314645e+01 1.232931e+06 1.378768e+05 2.701834e+04 1.810132e+04 4.817066e+05 4.809363e+04 1.578101e+06 9.741438e+06 2.115989e+06 1.234322e+05 4.237105e+05 2.288708e+05 2.016601e+04 2.046789e+03 2.839075e-01
<GCONST> 2.438184e+02
<STATE> 12
<MEAN> 20
 9.902889e+03 2.165679e+01 2.062170e+00 5.990961e-01 1.199702e+00 1.452065e+03 4.044640e+02 2.097165e+02 2.155017e+02 1.303321e+03 1.993563e+01 9.967976e+02 8.166810e+03 2.782910e+03 5.462654e+02 9.408004e+02 4.681780e+01 9.536963e+00 3.534679e+00 6.669205e-02
<VARIANCE> 20
 4.377958e+06 1.977510e+03 1.534764e+01 1.171604e+00 7.229168e+00 1.033916e+06 1.688394e+05 3.034067e+04 2.403849e+04 3.121132e+05 6.939114e+02 1.347716e+06 3.478647e+06 2.522506e+06 2.390899e+05 4.421192e+05 1.118745e+04 1.272832e+03 1.748440e+02 6.224423e-02
<GCONST> 2.181529e+02
<STATE> 13
<MEAN> 20
 1.000283e+04 1.169869e+00 0.000000e+00 0.000000e+00 1.949783e-01 6.084845e+02 1.355353e+02 8.571716e+01 1.053898e+02 8.396494e+02 1.419986e+00 8.566686e+02 8.123717e+03 2.090288e+03 2.326797e+02 3.334048e+02 1.182569e+02 9.783563e+00 1.093811e+01 1.814669e+00
<VARIANCE> 20
 6.960099e+06 7.210445e+00 1.000000e-02 1.000000e-02 5.469185e-01 3.318175e+05 1.124168e+04 3.410886e+03 5.020097e+03 1.632169e+05 1.287814e+01 1.640398e+06 6.352026e+06 1.513656e+06 2.771546e+04 1.149375e+05 2.694279e+04 2.098374e+02 7.233141e+02 1.839912e+01
<GCONST> 1.890596e+02
<TRANSP> 14
 0.000000e+00 1.000000e+00 0.000000e+00 0.000000e+00 0.000000e+00 0.000000e+00 0.000000e+00 0.000000e+00 0.000000e+00 0.000000e+00 0.000000e+00 0.000000e+00 0.000000e+00 0.000000e+00
 0.000000e+00 6.920597e-01 3.079403e-01 0.000000e+00 0.000000e+00 0.000000e+00 0.000000e+00 0.000000e+00 0.000000e+00 0.000000e+00 0.000000e+00 0.000000e+00 0.000000e+00 0.000000e+00
 0.000000e+00 0.000000e+00 5.789473e-01 4.210527e-01 0.000000e+00 0.000000e+00 0.000000e+00 0.000000e+00 0.000000e+00 0.000000e+00 0.000000e+00 0.000000e+00 0.000000e+00 0.000000e+00
 0.000000e+00 0.000000e+00 0.000000e+00 6.666667e-01 3.333333e-01 0.000000e+00 0.000000e+00 0.000000e+00 0.000000e+00 0.000000e+00 0.000000e+00 0.000000e+00 0.000000e+00 0.000000e+00
 0.000000e+00 0.000000e+00 0.000000e+00 0.000000e+00 5.555556e-01 4.444444e-01 0.000000e+00 0.000000e+00 0.000000e+00 0.000000e+00 0.000000e+00 0.000000e+00 0.000000e+00 0.000000e+00
 0.000000e+00 0.000000e+00 0.000000e+00 0.000000e+00 0.000000e+00 8.095234e-01 1.904767e-01 0.000000e+00 0.000000e+00 0.000000e+00 0.000000e+00 0.000000e+00 0.000000e+00 0.000000e+00
 0.000000e+00 0.000000e+00 0.000000e+00 0.000000e+00 0.000000e+00 0.000000e+00 0.000000e+00 1.000000e+00 0.000000e+00 0.000000e+00 0.000000e+00 0.000000e+00 0.000000e+00 0.000000e+00
 0.000000e+00 0.000000e+00 0.000000e+00 0.000000e+00 0.000000e+00 0.000000e+00 0.000000e+00 5.982785e-01 4.017215e-01 0.000000e+00 0.000000e+00 0.000000e+00 0.000000e+00 0.000000e+00
 0.000000e+00 0.000000e+00 0.000000e+00 0.000000e+00 0.000000e+00 0.000000e+00 0.000000e+00 0.000000e+00 0.000000e+00 1.000000e+00 0.000000e+00 0.000000e+00 0.000000e+00 0.000000e+00
 0.000000e+00 0.000000e+00 0.000000e+00 0.000000e+00 0.000000e+00 0.000000e+00 0.000000e+00 0.000000e+00 0.000000e+00 7.582028e-01 2.417972e-01 0.000000e+00 0.000000e+00 0.000000e+00
 0.000000e+00 0.000000e+00 0.000000e+00 0.000000e+00 0.000000e+00 0.000000e+00 0.000000e+00 0.000000e+00 0.000000e+00 0.000000e+00 3.848925e-01 6.151075e-01 0.000000e+00 0.000000e+00
 0.000000e+00 0.000000e+00 0.000000e+00 0.000000e+00 0.000000e+00 0.000000e+00 0.000000e+00 0.000000e+00 0.000000e+00 0.000000e+00 0.000000e+00 4.664654e-01 5.335345e-01 0.000000e+00
 0.000000e+00 0.000000e+00 0.000000e+00 0.000000e+00 0.000000e+00 0.000000e+00 0.000000e+00 0.000000e+00 0.000000e+00 0.000000e+00 0.000000e+00 0.000000e+00 4.800600e-01 5.199401e-01
 0.000000e+00 0.000000e+00 0.000000e+00 0.000000e+00 0.000000e+00 0.000000e+00 0.000000e+00 0.000000e+00 0.000000e+00 0.000000e+00 0.000000e+00 0.000000e+00 0.000000e+00 0.000000e+00
<ENDHMM>
~h "c"
<BEGINHMM>
<NUMSTATES> 14
<STATE> 2
<MEAN> 20
 6.547227e+03 4.775469e+00 3.673438e-01 0.000000e+00 0.000000e+00 0.000000e+00 0.000000e+00 0.000000e+00 0.000000e+00 1.249374e+02 9.734612e+00 2.441251e+01 2.912934e+03 3.187835e+03 5.123115e+02 2.843253e+01 1.646896e+00 0.000000e+00 0.000000e+00 0.000000e+00
<VARIANCE> 20
 5.244450e+06 2.255193e+02 1.334434e+00 1.000000e-02 1.000000e-02 1.000000e-02 1.000000e-02 1.000000e-02 1.000000e-02 8.966657e+04 9.371062e+02 4.590826e+03 2.014460e+06 1.508599e+06 7.862087e+04 8.990228e+02 6.440614e+00 1.000000e-02 1.000000e-02 1.000000e-02
<GCONST> 9.184794e+01
<STATE> 3
<MEAN> 20
 5.222506e+03 8.475508e+01 2.418042e+02 0.000000e+00 0.000000e+00 0.000000e+00 0.000000e+00 0.000000e+00 0.000000e+00 2.745149e+01 0.000000e+00 1.995089e+00 1.894811e+03 2.568372e+03 9.291190e+02 1.763783e+02 5.050605e+00 7.912046e-01 0.000000e+00 0.000000e+00
<VARIANCE> 20
 6.651357e+06 4.144691e+04 3.567045e+05 1.000000e-02 1.000000e-02 1.000000e-02 1.000000e-02 1.000000e-02 1.000000e-02 2.695188e+03 1.000000e-02 3.311440e+01 1.583284e+06 1.675063e+06 1.358690e+05 1.179413e+05 3.218380e+01 2.341012e+00 1.000000e-02 1.000000e-02
<GCONST> 1.022632e+02
<STATE> 4
<MEAN> 20
 2.580762e+03 1.354190e+02 0.000000e+00 0.000000e+00 0.000000e+00 0.000000e+00 0.000000e+00 0.000000e+00 0.000000e+00 4.291122e+01 2.195430e+00 1.107707e+01 4.096597e+02 6.727315e+02 3.385477e+02 1.042069e+03 2.672440e+02 1.297299e+01 2.594598e+00 0.000000e+00
<VARIANCE> 20
 6.169865e+06 6.727538e+04 1.000000e-02 1.000000e-02 1.000000e-02 1.000000e-02 1.000000e-02 1.000000e-02 1.000000e-02 7.753546e+03 4.347954e+01 2.945350e+02 1.373082e+06 1.890549e+06 1.949605e+05 1.197929e+06 3.906229e+04 5.935154e+02 2.779618e+01 1.000000e-02
<GCONST> 1.201270e+02
<STATE> 5
<MEAN> 20
 3.678214e+03 1.082947e+02 2.732443e+01 9.108140e-02 0.000000e+00 0.000000e+00 0.000000e+00 0.000000e+00 0.000000e+00 3.278936e+00 4.098627e+00 3.543015e+01 2.715134e+02 1.036483e+03 1.996633e+03 3.704880e+02 1.005538e+02 1.457302e+00 5.464883e-01 0.000000e+00
<VARIANCE> 20
 5.674859e+06 1.516647e+04 4.860529e+03 8.278556e-02 1.000000e-02 1.000000e-02 1.000000e-02 1.000000e-02 1.000000e-02 1.009146e+02 6.726891e+01 3.525015e+03 4.469612e+05 1.711812e+06 3.886278e+06 1.249057e+05 3.336006e+04 1.408876e+01 2.980280e+00 1.000000e-02
<GCONST> 1.257170e+02
<STATE> 6
<MEAN> 20
 3.096795e+03 2.990895e+01 0.000000e+00 0.000000e+00 0.000000e+00 0.000000e+00 0.000000e+00 0.000000e+00 1.272721e+00 8.590875e+01 2.545443e+00 1.872716e+01 3.086349e+02 9.208107e+02 1.417166e+03 3.025426e+02 1.709998e+02 4.064080e+01 1.845466e+01 1.336359e+01
<VARIANCE> 20
 9.201410e+06 3.121164e+03 1.000000e-02 1.000000e-02 1.000000e-02 1.000000e-02 1.000000e-02 1.000000e-02 8.925585e+00 2.242147e+04 6.479311e+01 6.849249e+02 5.095463e+05 1.259076e+06 3.872186e+06 6.113204e+04 9.371771e+04 6.999605e+03 1.406787e+03 1.656769e+03
<GCONST> 1.444552e+02
<STATE> 7
<MEAN> 20
 3.042586e+03 1.608596e+02 4.285774e-01 0.000000e+00 0.000000e+00 0.000000e+00 5.428648e+00 1.671452e+01 4.428633e+00 4.285779e+01 3.200045e+01 7.114387e+01 2.807186e+02 9.821469e+02 1.309294e+03 1.495729e+02 1.630016e+02 2.318537e+02 5.200055e+01 1.571432e+00
<VARIANCE> 20
 3.679156e+06 9.404292e+04 1.102054e+00 1.000000e-02 1.000000e-02 1.000000e-02 7.367409e+01 1.578508e+03 1.011032e+02 3.352718e+03 2.652594e+03 1.576941e+04 2.132432e+05 1.278361e+06 1.432356e+06 1.849290e+04 7.606446e+04 7.482959e+04 6.134648e+03 7.387859e+00
<GCONST> 1.750707e+02
<STATE> 8
<MEAN> 20
 2.492609e+03 5.383763e+02 3.425014e+01 2.500011e-01 1.225005e+01 7.500033e-01 2.797512e+02 7.262525e+01 1.387503e+01 6.687479e+01 6.228759e+02 1.159995e+02 3.178747e+02 9.787437e+02 6.166149e+02 3.238760e+02 2.683761e+02 2.183759e+02 4.850021e+01 3.750016e-01
<VARIANCE> 20
 4.516462e+06 2.676554e+05 6.674211e+03 4.375016e-01 4.164386e+02 3.937515e+00 1.489690e+05 6.369996e+03 9.246130e+02 3.116613e+03 3.581882e+05 9.576738e+03 3.930703e+05 1.944435e+06 1.119257e+06 1.840289e+05 9.072506e+04 3.399718e+04 2.261750e+03 9.843787e-01
<GCONST> 2.204315e+02
<STATE> 9
<MEAN> 20
 7.419493e+03 3.945512e+02 1.685722e+03 7.241277e-01 0.000000e+00 0.000000e+00 0.000000e+00 0.000000e+00 0.000000e+00 8.627644e+01 0.000000e+00 3.815870e+02 6.586037e+03 2.023623e+03 5.753817e+02 1.982771e+01 3.103479e-01 0.000000e+00 0.000000e+00 0.000000e+00
<VARIANCE> 20
 6.299373e+06 4.212084e+04 9.049439e+05 9.992681e+00 1.000000e-02 1.000000e-02 1.000000e-02 1.000000e-02 1.000000e-02 2.625833e+04 1.000000e-02 1.203727e+05 1.587881e+07 5.955730e+05 8.774508e+05 8.825641e+02 6.967958e-01 1.000000e-02 1.000000e-02 1.000000e-02
<GCONST> 1.094909e+02
<STATE> 10
<MEAN> 20
 6.685742e+03 2.400596e+02 8.436647e+02 1.339229e+01 3.754967e-01 0.000000e+00 4.255629e+00 1.264172e+01 8.135760e+00 2.271707e+02 1.364297e+01 4.838318e+02 4.217302e+03 1.316127e+03 1.854824e+03 1.489602e+02 7.496651e-01 0.000000e+00 0.000000e+00 0.000000e+00
<VARIANCE> 20
 5.663589e+06 5.060254e+04 8.241679e+05 1.253621e+03 9.854922e-01 1.000000e-02 7.926842e+01 1.019872e+03 4.015531e+02 7.691591e+04 5.109149e+02 3.659791e+05 2.174678e+07 4.014414e+05 3.674646e+06 2.982404e+04 1.188968e+00 1.000000e-02 1.000000e-02 1.000000e-02
<GCONST> 1.684430e+02
<STATE> 11
<MEAN> 20
 5.265756e+03 2.696387e+02 9.906058e+02 5.987442e-01 0.000000e+00 0.000000e+00 1.995818e+00 1.995818e+00 8.981179e+00 2.127536e+02 2.454856e+01 5.006223e+02 4.377677e+03 9.793157e+02 2.361104e+02 5.069165e+02 1.251399e+02 1.397072e+00 3.991635e-01 1.995818e-01
<VARIANCE> 20
 1.410159e+07 4.997186e+04 7.977476e+05 1.437738e+00 1.000000e-02 1.000000e-02 6.394963e+00 5.995800e+00 2.731969e+02 9.507796e+04 1.230527e+03 3.998064e+05 2.180935e+07 1.178208e+06 1.473713e+05 8.143911e+05 4.665842e+04 2.239406e+00 6.389955e-01 1.597489e-01
<GCONST> 1.751770e+02
<STATE> 12
<MEAN> 20
 7.208685e+03 4.204318e+02 1.822049e+03 3.729733e+00 0.000000e+00 0.000000e+00 0.000000e+00 0.000000e+00 0.000000e+00 1.080817e+02 0.000000e+00 2.830541e+02 6.552707e+03 2.326266e+03 1.622168e+02 1.184612e+02 1.172453e+02 3.000041e+00 2.702667e-02 0.000000e+00
<VARIANCE> 20
 6.947847e+06 7.295730e+03 3.752839e+05 9.981927e+01 1.000000e-02 1.000000e-02 1.000000e-02 1.000000e-02 1.000000e-02 3.106927e+04 1.000000e-02 7.334087e+04 9.797214e+06 1.441770e+06 2.342094e+04 7.689911e+04 1.099407e+05 9.459620e+01 2.629624e-02 1.000000e-02
<GCONST> 1.322656e+02
<STATE> 13
<MEAN> 20
 3.583426e+03 1.685542e+02 6.554387e+02 0.000000e+00 0.000000e+00 0.000000e+00 3.333346e-01 5.555576e-01 0.000000e+00 3.455566e+01 3.888903e+00 1.076665e+02 2.113091e+03 1.380881e+03 5.465569e+02 1.202223e+02 6.455572e+01 7.422246e+01 3.066678e+01 1.111112e+00
<VARIANCE> 20
 1.059372e+07 4.375681e+04 8.803798e+05 1.000000e-02 1.000000e-02 1.000000e-02 8.888918e-01 2.469144e+00 1.000000e-02 1.456916e+03 1.209881e+02 1.510648e+04 9.429865e+06 2.453886e+06 5.612761e+05 1.886446e+04 5.560927e+03 1.669066e+04 2.241561e+03 3.432111e+00
<GCONST> 1.625257e+02
<TRANSP> 14
 0.000000e+00 1.000000e+00 0.000000e+00 0.000000e+00 0.000000e+00 0.000000e+00 0.000000e+00 0.000000e+00 0.000000e+00 0.000000e+00 0.000000e+00 0.000000e+00 0.000000e+00 0.000000e+00
 0.000000e+00 6.326476e-01 3.673525e-01 0.000000e+00 0.000000e+00 0.000000e+00 0.000000e+00 0.000000e+00 0.000000e+00 0.000000e+00 0.000000e+00 0.000000e+00 0.000000e+00 0.000000e+00
 0.000000e+00 0.000000e+00 6.044011e-01 3.955989e-01 0.000000e+00 0.000000e+00 0.000000e+00 0.000000e+00 0.000000e+00 0.000000e+00 0.000000e+00 0.000000e+00 0.000000e+00 0.000000e+00
 0.000000e+00 0.000000e+00 0.000000e+00 6.008219e-01 3.991781e-01 0.000000e+00 0.000000e+00 0.000000e+00 0.000000e+00 0.000000e+00 0.000000e+00 0.000000e+00 0.000000e+00 0.000000e+00
 0.000000e+00 0.000000e+00 0.000000e+00 0.000000e+00 6.356768e-01 3.643232e-01 0.000000e+00 0.000000e+00 0.000000e+00 0.000000e+00 0.000000e+00 0.000000e+00 0.000000e+00 0.000000e+00
 0.000000e+00 0.000000e+00 0.000000e+00 0.000000e+00 0.000000e+00 6.363678e-01 3.636322e-01 0.000000e+00 0.000000e+00 0.000000e+00 0.000000e+00 0.000000e+00 0.000000e+00 0.000000e+00
 0.000000e+00 0.000000e+00 0.000000e+00 0.000000e+00 0.000000e+00 0.000000e+00 4.285672e-01 5.714328e-01 0.000000e+00 0.000000e+00 0.000000e+00 0.000000e+00 0.000000e+00 0.000000e+00
 0.000000e+00 0.000000e+00 0.000000e+00 0.000000e+00 0.000000e+00 0.000000e+00 0.000000e+00 5.000021e-01 4.999979e-01 0.000000e+00 0.000000e+00 0.000000e+00 0.000000e+00 0.000000e+00
 0.000000e+00 0.000000e+00 0.000000e+00 0.000000e+00 0.000000e+00 0.000000e+00 0.000000e+00 0.000000e+00 8.620685e-01 1.379315e-01 0.000000e+00 0.000000e+00 0.000000e+00 0.000000e+00
 0.000000e+00 0.000000e+00 0.000000e+00 0.000000e+00 0.000000e+00 0.000000e+00 0.000000e+00 0.000000e+00 0.000000e+00 4.993423e-01 5.006577e-01 0.000000e+00 0.000000e+00 0.000000e+00
 0.000000e+00 0.000000e+00 0.000000e+00 0.000000e+00 0.000000e+00 0.000000e+00 0.000000e+00 0.000000e+00 0.000000e+00 0.000000e+00 2.016804e-01 7.983197e-01 0.000000e+00 0.000000e+00
 0.000000e+00 0.000000e+00 0.000000e+00 0.000000e+00 0.000000e+00 0.000000e+00 0.000000e+00 0.000000e+00 0.000000e+00 0.000000e+00 0.000000e+00 8.918907e-01 1.081092e-01 0.000000e+00
 0.000000e+00 0.000000e+00 0.000000e+00 0.000000e+00 0.000000e+00 0.000000e+00 0.000000e+00 0.000000e+00 0.000000e+00 0.000000e+00 0.000000e+00 0.000000e+00 5.555577e-01 4.444424e-01
 0.000000e+00 0.000000e+00 0.000000e+00 0.000000e+00 0.000000e+00 0.000000e+00 0.000000e+00 0.000000e+00 0.000000e+00 0.000000e+00 0.000000e+00 0.000000e+00 0.000000e+00 0.000000e+00
<ENDHMM>
~h "d"
<BEGINHMM>
<NUMSTATES> 14
<STATE> 2
<MEAN> 20
 1.153129e+04 1.658320e+01 0.000000e+00 0.000000e+00 0.000000e+00 0.000000e+00 0.000000e+00 0.000000e+00 0.000000e+00 1.332032e+02 1.902963e+00 2.466645e+02 5.365493e+03 4.682641e+03 5.460771e+02 1.888086e+02 3.183644e+02 2.467129e+02 7.438068e+01 1.003728e+01
<VARIANCE> 20
 4.809591e+06 1.741796e+03 1.000000e-02 1.000000e-02 1.000000e-02 1.000000e-02 1.000000e-02 1.000000e-02 1.000000e-02 1.514241e+04 3.265969e+01 1.986275e+05 6.435150e+06 4.469421e+06 1.163514e+05 7.562363e+03 1.568410e+04 2.254980e+04 5.788854e+03 4.180195e+02
<GCONST> 1.386492e+02
<STATE> 3
<MEAN> 20
 1.292251e+04 1.703853e+01 1.521598e-02 0.000000e+00 0.000000e+00 0.000000e+00 0.000000e+00 0.000000e+00 0.000000e+00 1.923453e+02 0.000000e+00 8.602095e+01 6.953899e+03 4.921201e+03 3.836180e+02 1.777744e+02 2.452757e+02 2.827130e+02 7.071218e+01 1.069074e+01
<VARIANCE> 20
 3.647439e+06 1.231162e+03 1.498445e-02 1.000000e-02 1.000000e-02 1.000000e-02 1.000000e-02 1.000000e-02 1.000000e-02 1.677174e+04 1.000000e-02 3.567942e+04 3.849474e+06 1.744478e+06 1.523831e+04 4.973514e+03 1.827194e+04 2.462129e+04 4.848284e+03 1.622137e+02
<GCONST> 1.239343e+02
<STATE> 4
<MEAN> 20
 1.294557e+04 2.475498e+01 0.000000e+00 0.000000e+00 0.000000e+00 0.000000e+00 0.000000e+00 0.000000e+00 5.547804e-02 2.270017e+02 6.100133e+00 2.541549e+02 9.184794e+03 2.885449e+03 3.101821e+02 1.191179e+02 1.639232e+02 2.249869e+02 4.776944e+01 9.039381e-01
<VARIANCE> 20
 3.190683e+06 9.138846e+02 1.000000e-02 1.000000e-02 1.000000e-02 1.000000e-02 1.000000e-02 1.000000e-02 5.240022e-02 2.698233e+04 2.766782e+02 6.473313e+04 5.311414e+06 1.475694e+06 6.767706e+03 1.758314e+03 1.098083e+04 7.522536e+03 1.491754e+03 5.571127e+00
<GCONST> 1.281118e+02
<STATE> 5
<MEAN> 20
 1.153871e+04 1.339751e+00 0.000000e+00 0.000000e+00 0.000000e+00 0.000000e+00 0.000000e+00 0.000000e+00 0.000000e+00 2.502167e+02 0.000000e+00 1.879709e+02 8.138837e+03 2.785386e+03 2.373998e+02 1.124796e+02 1.373305e+02 1.666561e+02 2.332483e+01 8.830684e-01
<VARIANCE> 20
 4.581750e+06 1.463665e+01 1.000000e-02 1.000000e-02 1.000000e-02 1.000000e-02 1.000000e-02 1.000000e-02 1.000000e-02 2.936082e+04 1.000000e-02 5.185084e+04 4.758919e+06 1.698796e+06 1.342556e+04 3.793261e+03 1.289239e+04 1.649518e+04 1.046154e+03 7.693715e+00
<GCONST> 1.147162e+02
<STATE> 6
<MEAN> 20
 1.229786e+04 2.759934e+01 0.000000e+00 0.000000e+00 0.000000e+00 0.000000e+00 0.000000e+00 0.000000e+00 1.199999e+00 3.999894e+02 2.399998e+00 5.735626e+02 9.548117e+03 1.921219e+03 2.525146e+02 1.164657e+02 1.276392e+02 1.644503e+02 1.938159e+01 8.999971e-01
<VARIANCE> 20
 2.652914e+06 1.216626e+03 1.000000e-02 1.000000e-02 1.000000e-02 1.000000e-02 1.000000e-02 1.000000e-02 5.959996e+00 2.296509e+03 4.303996e+01 1.495367e+05 3.446004e+06 1.763712e+06 8.822740e+03 9.507003e+03 4.848851e+03 5.842271e+03 3.418883e+02 7.289980e+00
<GCONST> 1.288840e+02
<STATE> 7
<MEAN> 20
 1.109958e+04 1.257217e+00 0.000000e+00 0.000000e+00 0.000000e+00 0.000000e+00 0.000000e+00 1.142796e-01 2.856990e-02 3.952111e+02 2.285592e-01 4.492535e+02 7.725907e+03 2.511038e+03 2.739288e+02 1.273649e+02 1.788419e+02 1.865266e+02 4.084872e+01 2.257094e+00
<VARIANCE> 20
 1.937980e+06 9.106063e+00 1.000000e-02 1.000000e-02 1.000000e-02 1.000000e-02 1.000000e-02 4.440585e-01 2.775366e-02 4.421204e+04 1.090556e+00 5.860458e+05 2.241411e+06 1.411740e+06 8.414487e+03 2.940397e+03 1.015955e+04 1.042952e+04 1.468226e+03 2.847610e+01
<GCONST> 1.250126e+02
<STATE> 8
<MEAN> 20
 1.111311e+04 1.307294e+00 0.000000e+00 0.000000e+00 0.000000e+00 0.000000e+00 0.000000e+00 0.000000e+00 3.946823e-01 5.237073e+02 0.000000e+00 1.071246e+03 8.948859e+03 1.018634e+03 2.049678e+02 1.121565e+02 1.460468e+02 1.325614e+02 4.043100e+00 0.000000e+00
<VARIANCE> 20
 2.137582e+06 1.183249e+01 1.000000e-02 1.000000e-02 1.000000e-02 1.000000e-02 1.000000e-02 1.000000e-02 6.159141e+00 4.412123e+04 1.000000e-02 7.335580e+05 1.500323e+06 5.437869e+05 1.996201e+04 8.028879e+03 1.891186e+04 1.442186e+04 7.228200e+01 1.000000e-02
<GCONST> 1.130050e+02
<STATE> 9
<MEAN> 20
 1.083936e+04 1.163913e+01 0.000000e+00 0.000000e+00 0.000000e+00 0.000000e+00 0.000000e+00 0.000000e+00 0.000000e+00 8.413548e+02 2.127774e-01 1.574066e+03 8.441697e+03 8.974000e+02 2.155600e+02 1.283022e+02 2.192187e+02 2.020696e+02 1.189384e+01 1.936464e+00
<VARIANCE> 20
 1.782530e+06 5.741782e+02 1.000000e-02 1.000000e-02 1.000000e-02 1.000000e-02 1.000000e-02 1.000000e-02 1.000000e-02 1.504226e+05 1.018612e+00 1.088630e+06 1.476263e+06 3.997544e+05 7.191722e+03 3.804737e+03 1.983239e+04 1.278269e+04 2.978755e+02 1.661412e+01
<GCONST> 1.231941e+02
<STATE> 10
<MEAN> 20
 8.993814e+03 3.229392e-01 0.000000e+00 0.000000e+00 0.000000e+00 0.000000e+00 0.000000e+00 0.000000e+00 0.000000e+00 3.822829e+02 0.000000e+00 9.209478e+02 6.934143e+03 9.353832e+02 1.699940e+02 9.149664e+01 1.148649e+02 1.755358e+02 3.141281e+01 2.642005e+00
<VARIANCE> 20
 6.798990e+06 1.686555e+00 1.000000e-02 1.000000e-02 1.000000e-02 1.000000e-02 1.000000e-02 1.000000e-02 1.000000e-02 8.261016e+04 1.000000e-02 5.472454e+05 6.043618e+06 7.499656e+05 9.919723e+03 2.187237e+03 8.327495e+03 2.064257e+04 5.151406e+03 3.911080e+01
<GCONST> 1.179165e+02
<STATE> 11
<MEAN> 20
 5.503114e+03 5.988219e+01 7.646992e-01 1.176456e-01 8.235191e-01 5.764756e+00 1.117648e+01 8.470556e+00 7.117622e+00 2.775886e+02 1.129410e+01 4.859420e+02 2.347060e+03 1.673882e+03 1.151936e+03 1.042943e+02 4.735321e+01 4.105911e+01 1.200006e+01 0.000000e+00
<VARIANCE> 20
 9.279111e+06 2.315942e+04 6.650443e+00 2.214507e-01 1.085108e+01 4.763021e+02 9.793251e+02 5.682459e+02 3.955135e+02 1.642277e+05 4.492649e+02 7.675382e+05 1.006143e+07 7.531951e+05 1.016140e+06 6.774206e+03 4.208147e+03 3.349258e+03 7.052993e+02 1.000000e-02
<GCONST> 1.933890e+02
<STATE> 12
<MEAN> 20
 3.766625e+03 6.985692e+01 2.807137e+01 9.857139e+00 8.507162e+01 9.007142e+01 4.276445e+02 2.564299e+01 1.250008e+01 3.968559e+02 6.813582e+02 6.442134e+02 2.413058e+03 5.437130e+02 4.787129e+02 9.257123e+01 2.735705e+01 3.085692e+01 7.142898e-02 2.857159e-01
<VARIANCE> 20
 1.451432e+07 1.202448e+04 1.690631e+03 4.335519e+02 1.035496e+04 1.114606e+04 2.157859e+05 8.475190e+02 2.045362e+02 2.111690e+05 3.433691e+05 6.271260e+05 1.100233e+07 2.956132e+05 2.718155e+05 8.749255e+03 3.208371e+03 5.373940e+03 6.632689e-02 1.061230e+00
<GCONST> 2.218219e+02
<STATE> 13
<MEAN> 20
 5.665366e+03 1.300019e+01 0.000000e+00 0.000000e+00 8.909192e+00 1.081830e+01 2.700031e+01 1.909112e+00 0.000000e+00 3.714546e+02 7.409175e+01 5.710914e+02 2.794722e+03 7.192782e+02 9.291884e+02 8.656304e+02 7.609116e+01 5.754560e+01 9.090997e+00 1.727292e+00
<VARIANCE> 20
 1.117314e+07 8.678294e+02 1.000000e-02 1.000000e-02 7.937272e+02 1.170343e+03 7.290074e+03 3.644665e+01 1.000000e-02 2.859609e+05 5.299952e+04 7.565876e+05 1.361080e+07 6.671113e+05 1.128069e+06 1.177331e+06 5.033764e+03 7.097875e+03 3.213584e+02 2.983501e+01
<GCONST> 1.934587e+02
<TRANSP> 14
 0.000000e+00 1.000000e+00 0.000000e+00 0.000000e+00 0.000000e+00 0.000000e+00 0.000000e+00 0.000000e+00 0.000000e+00 0.000000e+00 0.000000e+00 0.000000e+00 0.000000e+00 0.000000e+00
 0.000000e+00 7.657513e-01 2.342487e-01 0.000000e+00 0.000000e+00 0.000000e+00 0.000000e+00 0.000000e+00 0.000000e+00 0.000000e+00 0.000000e+00 0.000000e+00 0.000000e+00 0.000000e+00
 0.000000e+00 0.000000e+00 8.782731e-01 1.217269e-01 0.000000e+00 0.000000e+00 0.000000e+00 0.000000e+00 0.000000e+00 0.000000e+00 0.000000e+00 0.000000e+00 0.000000e+00 0.000000e+00
 0.000000e+00 0.000000e+00 0.000000e+00 5.561691e-01 4.438308e-01 0.000000e+00 0.000000e+00 0.000000e+00 0.000000e+00 0.000000e+00 0.000000e+00 0.000000e+00 0.000000e+00 0.000000e+00
 0.000000e+00 0.000000e+00 0.000000e+00 0.000000e+00 8.889901e-01 1.110099e-01 0.000000e+00 0.000000e+00 0.000000e+00 0.000000e+00 0.000000e+00 0.000000e+00 0.000000e+00 0.000000e+00
 0.000000e+00 0.000000e+00 0.000000e+00 0.000000e+00 0.000000e+00 2.000127e-01 7.999873e-01 0.000000e+00 0.000000e+00 0.000000e+00 0.000000e+00 0.000000e+00 0.000000e+00 0.000000e+00
 0.000000e+00 0.000000e+00 0.000000e+00 0.000000e+00 0.000000e+00 0.000000e+00 7.714373e-01 2.285627e-01 0.000000e+00 0.000000e+00 0.000000e+00 0.000000e+00 0.000000e+00 0.000000e+00
 0.000000e+00 0.000000e+00 0.000000e+00 0.000000e+00 0.000000e+00 0.000000e+00 0.000000e+00 8.026558e-01 1.973441e-01 0.000000e+00 0.000000e+00 0.000000e+00 0.000000e+00 0.000000e+00
 0.000000e+00 0.000000e+00 0.000000e+00 0.000000e+00 0.000000e+00 0.000000e+00 0.000000e+00 0.000000e+00 8.297756e-01 1.702244e-01 0.000000e+00 0.000000e+00 0.000000e+00 0.000000e+00
 0.000000e+00 0.000000e+00 0.000000e+00 0.000000e+00 0.000000e+00 0.000000e+00 0.000000e+00 0.000000e+00 0.000000e+00 7.651377e-01 2.348622e-01 0.000000e+00 0.000000e+00 0.000000e+00
 0.000000e+00 0.000000e+00 0.000000e+00 0.000000e+00 0.000000e+00 0.000000e+00 0.000000e+00 0.000000e+00 0.000000e+00 0.000000e+00 5.294105e-01 4.705895e-01 0.000000e+00 0.000000e+00
 0.000000e+00 0.000000e+00 0.000000e+00 0.000000e+00 0.000000e+00 0.000000e+00 0.000000e+00 0.000000e+00 0.000000e+00 0.000000e+00 0.000000e+00 4.285722e-01 5.714278e-01 0.000000e+00
 0.000000e+00 0.000000e+00 0.000000e+00 0.000000e+00 0.000000e+00 0.000000e+00 0.000000e+00 0.000000e+00 0.000000e+00 0.000000e+00 0.000000e+00 0.000000e+00 2.727242e-01 7.272758e-01
 0.000000e+00 0.000000e+00 0.000000e+00 0.000000e+00 0.000000e+00 0.000000e+00 0.000000e+00 0.000000e+00 0.000000e+00 0.000000e+00 0.000000e+00 0.000000e+00 0.000000e+00 0.000000e+00
<ENDHMM>
~h "e"
<BEGINHMM>
<NUMSTATES> 14
<STATE> 2
<MEAN> 20
 8.142671e+03 7.289432e-02 0.000000e+00 0.000000e+00 0.000000e+00 1.348009e+03 1.953268e+02 1.156364e+02 1.285933e+02 9.558688e+02 1.285151e+00 5.033427e+02 6.549108e+03 2.344461e+03 3.652795e+02 6.854273e+02 3.088751e+02 6.717166e+01 5.191103e+01 9.317048e+00
<VARIANCE> 20
 6.163868e+06 1.842118e-01 1.000000e-02 1.000000e-02 1.000000e-02 4.324620e+05 1.800289e+04 4.323396e+03 3.056102e+03 1.189865e+05 8.682302e+00 2.615602e+05 3.640993e+06 2.946722e+06 3.544488e+04 1.258493e+05 5.072833e+04 4.195995e+03 6.213621e+03 3.665841e+02
<GCONST> 1.884167e+02
<STATE> 3
<MEAN> 20
 1.022789e+04 2.469464e+01 4.875546e-02 0.000000e+00 2.437772e-02 8.837515e+02 2.155642e+02 1.247249e+02 1.425832e+02 1.071533e+03 6.191942e+00 5.706861e+02 9.084928e+03 2.052621e+03 3.714552e+02 5.430869e+02 6.167483e+01 1.706441e-01 0.000000e+00 0.000000e+00
<VARIANCE> 20
 6.250910e+06 2.046444e+03 4.637834e-02 1.000000e-02 2.378344e-02 3.755915e+05 3.186630e+04 6.534634e+03 5.252765e+03 1.605743e+05 1.020755e+02 3.539126e+05 3.362576e+06 1.582960e+06 3.816993e+04 1.660834e+05 1.097975e+04 3.365464e-01 1.000000e-02 1.000000e-02
<GCONST> 1.694383e+02
<STATE> 4
<MEAN> 20
 1.259304e+04 2.836982e+01 0.000000e+00 0.000000e+00 0.000000e+00 8.234796e+02 1.366559e+02 8.180756e+01 1.039662e+02 1.127967e+03 8.842335e+00 4.009525e+02 1.092411e+04 2.537584e+03 3.514389e+02 4.860002e+02 1.187529e+02 4.746582e+01 1.893927e+01 1.195958e+00
<VARIANCE> 20
 5.634574e+06 2.064268e+03 1.000000e-02 1.000000e-02 1.000000e-02 2.441536e+05 5.554301e+03 1.304703e+03 1.660237e+03 1.943824e+05 4.884078e+02 1.872730e+05 6.662214e+06 2.173916e+06 1.996700e+04 6.743949e+04 1.484955e+04 3.600196e+03 8.502421e+02 6.706121e+00
<GCONST> 1.900122e+02
<STATE> 5
<MEAN> 20
 1.051237e+04 3.726161e+01 3.249778e-01 2.323322e-02 1.393993e-01 1.284903e+03 3.013302e+02 1.611649e+02 1.780532e+02 1.515793e+03 1.739456e+01 1.024251e+03 9.735819e+03 1.837405e+03 5.282100e+02 6.715081e+02 1.723826e+02 4.390915e+00 0.000000e+00 0.000000e+00
<VARIANCE> 20
 5.637144e+06 8.099794e+03 1.009009e+00 2.269344e-02 4.452322e-01 4.861142e+05 5.718298e+04 1.030166e+04 7.675470e+03 3.728842e+05 6.186406e+02 8.379835e+05 6.472882e+06 3.480906e+06 4.932503e+04 1.948112e+05 4.561910e+04 1.204210e+02 1.000000e-02 1.000000e-02
<GCONST> 1.918862e+02
<STATE> 6
<MEAN> 20
 1.137168e+04 2.804736e+01 7.041349e-01 0.000000e+00 0.000000e+00 1.115766e+03 1.930980e+02 1.122606e+02 1.366084e+02 1.585151e+03 8.596378e+00 9.282104e+02 1.035339e+04 1.912749e+03 4.684894e+02 6.321038e+02 1.529970e+02 6.588963e+01 1.925856e+01 1.629571e+00
<VARIANCE> 20
 3.459808e+06 7.513163e+02 8.430699e+00 1.000000e-02 1.000000e-02 3.272919e+05 1.658131e+04 3.460231e+03 3.694693e+03 6.824711e+05 1.148654e+02 8.172984e+05 3.079690e+06 1.984833e+06 2.072259e+04 1.137065e+05 1.192676e+04 4.754573e+03 1.001206e+03 2.512129e+01
<GCONST> 2.009348e+02
<STATE> 7
<MEAN> 20
 7.802357e+03 2.690123e+00 0.000000e+00 0.000000e+00 8.596900e-02 9.891075e+02 2.026613e+02 1.238721e+02 1.423229e+02 1.630572e+03 2.613132e+00 1.393224e+03 7.996161e+03 4.910699e+02 3.295121e+02 5.903519e+02 8.297839e+01 7.617574e+00 1.401126e-01 0.000000e+00
<VARIANCE> 20
 8.208250e+06 4.454309e+01 1.000000e-02 1.000000e-02 2.505166e-01 3.487459e+05 3.091921e+04 7.781213e+03 7.261106e+03 4.401443e+05 2.527345e+01 9.311649e+05 6.219126e+06 1.058951e+05 3.938457e+04 1.727925e+05 1.602517e+04 3.926569e+02 2.319375e-01 1.000000e-02
<GCONST> 1.762426e+02
<STATE> 8
<MEAN> 20
 9.877822e+03 3.851330e+01 3.700448e-02 0.000000e+00 0.000000e+00 1.035292e+03 1.510388e+02 9.577864e+01 1.245200e+02 2.222779e+03 1.187603e+01 2.407021e+03 9.373932e+03 5.696501e+02 3.871607e+02 5.679109e+02 1.611568e+02 5.289961e+01 1.349019e+01 6.845837e-01
<VARIANCE> 20
 3.749642e+06 3.271896e+03 7.263964e-02 1.000000e-02 1.000000e-02 1.855293e+05 1.125148e+04 2.579634e+03 3.486623e+03 6.448139e+05 4.577939e+02 1.294409e+06 3.761021e+06 6.597048e+04 1.929232e+04 6.352857e+04 1.402443e+04 3.311952e+03 5.151284e+02 4.767483e+00
<GCONST> 1.918272e+02
<STATE> 9
<MEAN> 20
 8.687559e+03 7.065636e+01 4.423504e+00 0.000000e+00 2.823514e-01 1.211660e+03 2.477179e+02 1.659899e+02 1.807298e+02 2.248439e+03 2.273235e+01 2.791549e+03 7.753579e+03 7.583394e+02 5.575245e+02 6.484561e+02 2.046447e+02 4.402145e+01 3.454098e+01 2.070578e+00
<VARIANCE> 20
 8.706436e+06 8.361493e+03 1.057025e+02 1.000000e-02 8.614485e-01 4.521931e+05 4.393821e+04 1.210047e+04 8.756830e+03 6.501041e+05 1.146334e+03 2.434712e+06 8.236976e+06 1.393105e+05 1.127528e+05 9.709286e+04 4.730879e+04 4.433774e+03 9.070391e+03 3.825366e+01
<GCONST> 2.218038e+02
<STATE> 10
<MEAN> 20
 4.406433e+03 2.045820e+01 1.136567e+01 3.997581e+00 6.474513e+01 2.863248e+02 3.909612e+02 1.061189e+02 8.597351e+01 7.507112e+02 5.594312e+02 9.808734e+02 3.126249e+03 7.932486e+02 4.775631e+02 1.646931e+02 2.255795e+01 1.375279e+00 3.135358e-01 7.838394e-01
<VARIANCE> 20
 1.027204e+07 1.171009e+03 1.245127e+03 1.653214e+02 2.052581e+04 1.378240e+05 2.106699e+05 1.123850e+04 8.255514e+03 5.364833e+05 7.397291e+05 1.052902e+06 1.060589e+07 4.367502e+05 2.336018e+05 6.263714e+04 1.336839e+03 6.908969e+00 5.287668e-01 3.461560e+00
<GCONST> 2.274498e+02
<STATE> 11
<MEAN> 20
 6.018794e+03 1.430921e+02 3.319758e+01 0.000000e+00 8.999341e-01 2.491820e+02 3.119781e+02 9.929433e+01 8.009616e+01 9.140400e+02 1.611899e+02 1.210019e+03 3.894630e+03 1.030738e+03 5.908644e+02 3.143800e+02 3.400753e+02 2.315830e+02 6.429529e+01 1.279906e+01
<VARIANCE> 20
 9.068830e+06 1.117700e+05 4.565507e+03 1.000000e-02 5.689641e+00 1.078339e+05 1.677541e+05 1.433762e+04 7.942327e+03 1.128630e+06 9.720680e+04 1.631350e+06 1.311880e+07 1.214115e+06 4.427396e+05 5.417917e+04 2.981867e+05 2.053165e+05 1.329074e+04 3.455466e+02
<GCONST> 2.463347e+02
<STATE> 12
<MEAN> 20
 4.803540e+03 1.065040e+02 9.929099e+01 5.285993e+00 2.021533e+01 4.255939e+02 1.391496e+02 6.014492e+01 6.921652e+01 8.918951e+02 1.400062e+02 8.618812e+02 2.833874e+03 1.012697e+03 1.395860e+03 2.976565e+02 6.578900e+01 1.264351e+01 4.285941e-01 0.000000e+00
<VARIANCE> 20
 8.379301e+06 2.374106e+04 2.825632e+04 8.334985e+01 3.803201e+03 5.933746e+05 4.396611e+04 8.051607e+03 1.213585e+04 1.396812e+06 1.234527e+05 1.400974e+06 1.364480e+07 8.014991e+05 1.126140e+06 1.324129e+05 1.057124e+04 1.068278e+03 8.163601e-01 1.000000e-02
<GCONST> 2.352805e+02
<STATE> 13
<MEAN> 20
 3.810392e+03 1.708340e+01 0.000000e+00 0.000000e+00 0.000000e+00 7.966703e+01 2.183342e+01 2.750010e+01 2.450009e+01 4.401676e+02 2.750009e+00 7.363230e+02 2.017898e+03 4.450850e+02 9.909199e+02 1.664173e+02 3.258347e+01 1.208338e+01 6.500026e+00 1.058338e+01
<VARIANCE> 20
 9.291070e+06 1.223913e+03 1.000000e-02 1.000000e-02 1.000000e-02 6.777166e+04 1.836478e+03 2.041588e+03 1.555421e+03 4.474986e+05 3.885428e+01 1.465417e+06 9.311435e+06 1.002336e+05 1.172418e+06 2.018155e+04 4.752927e+03 3.992441e+02 1.587505e+02 1.033247e+03
<GCONST> 1.884888e+02
<TRANSP> 14
 0.000000e+00 1.000000e+00 0.000000e+00 0.000000e+00 0.000000e+00 0.000000e+00 0.000000e+00 0.000000e+00 0.000000e+00 0.000000e+00 0.000000e+00 0.000000e+00 0.000000e+00 0.000000e+00
 0.000000e+00 8.833692e-01 1.166308e-01 0.000000e+00 0.000000e+00 0.000000e+00 0.000000e+00 0.000000e+00 0.000000e+00 0.000000e+00 0.000000e+00 0.000000e+00 0.000000e+00 0.000000e+00
 0.000000e+00 0.000000e+00 8.049784e-01 1.950216e-01 0.000000e+00 0.000000e+00 0.000000e+00 0.000000e+00 0.000000e+00 0.000000e+00 0.000000e+00 0.000000e+00 0.000000e+00 0.000000e+00
 0.000000e+00 0.000000e+00 0.000000e+00 8.431532e-01 1.568469e-01 0.000000e+00 0.000000e+00 0.000000e+00 0.000000e+00 0.000000e+00 0.000000e+00 0.000000e+00 0.000000e+00 0.000000e+00
 0.000000e+00 0.000000e+00 0.000000e+00 0.000000e+00 8.141346e-01 1.858654e-01 0.000000e+00 0.000000e+00 0.000000e+00 0.000000e+00 0.000000e+00 0.000000e+00 0.000000e+00 0.000000e+00
 0.000000e+00 0.000000e+00 0.000000e+00 0.000000e+00 0.000000e+00 7.037152e-01 2.962848e-01 0.000000e+00 0.000000e+00 0.000000e+00 0.000000e+00 0.000000e+00 0.000000e+00 0.000000e+00
 0.000000e+00 0.000000e+00 0.000000e+00 0.000000e+00 0.000000e+00 0.000000e+00 7.707496e-01 2.292504e-01 0.000000e+00 0.000000e+00 0.000000e+00 0.000000e+00 0.000000e+00 0.000000e+00
 0.000000e+00 0.000000e+00 0.000000e+00 0.000000e+00 0.000000e+00 0.000000e+00 0.000000e+00 8.519820e-01 1.480180e-01 0.000000e+00 0.000000e+00 0.000000e+00 0.000000e+00 0.000000e+00
 0.000000e+00 0.000000e+00 0.000000e+00 0.000000e+00 0.000000e+00 0.000000e+00 0.000000e+00 0.000000e+00 6.235324e-01 3.764676e-01 0.000000e+00 0.000000e+00 0.000000e+00 0.000000e+00
 0.000000e+00 0.000000e+00 0.000000e+00 0.000000e+00 0.000000e+00 0.000000e+00 0.000000e+00 0.000000e+00 0.000000e+00 3.729307e-01 6.270693e-01 0.000000e+00 0.000000e+00 0.000000e+00
 0.000000e+00 0.000000e+00 0.000000e+00 0.000000e+00 0.000000e+00 0.000000e+00 0.000000e+00 0.000000e+00 0.000000e+00 0.000000e+00 2.000617e-01 7.999383e-01 0.000000e+00 0.000000e+00
 0.000000e+00 0.000000e+00 0.000000e+00 0.000000e+00 0.000000e+00 0.000000e+00 0.000000e+00 0.000000e+00 0.000000e+00 0.000000e+00 0.000000e+00 4.285432e-01 5.714568e-01 0.000000e+00
 0.000000e+00 0.000000e+00 0.000000e+00 0.000000e+00 0.000000e+00 0.000000e+00 0.000000e+00 0.000000e+00 0.000000e+00 0.000000e+00 0.000000e+00 0.000000e+00 3.333338e-01 6.666663e-01
 0.000000e+00 0.000000e+00 0.000000e+00 0.000000e+00 0.000000e+00 0.000000e+00 0.000000e+00 0.000000e+00 0.000000e+00 0.000000e+00 0.000000e+00 0.000000e+00 0.000000e+00 0.000000e+00
<ENDHMM>
~h "f"
<BEGINHMM>
<NUMSTATES> 14
<STATE> 2
<MEAN> 20
 6.536501e+03 4.876251e+02 7.703695e+02 0.000000e+00 0.000000e+00 0.000000e+00 0.000000e+00 0.000000e+00 1.250003e-01 1.870006e+02 3.837515e+01 4.626262e+02 3.078240e+03 2.478374e+03 1.835632e+03 8.450031e+01 3.500015e+00 3.750016e-01 0.000000e+00 0.000000e+00
<VARIANCE> 20
 7.309578e+06 1.542851e+05 7.784431e+05 1.000000e-02 1.000000e-02 1.000000e-02 1.000000e-02 1.000000e-02 1.093752e-01 7.800433e+04 3.192742e+03 1.699319e+05 1.169146e+07 2.555461e+06 3.329203e+06 1.530429e+04 4.075012e+01 9.843786e-01 1.000000e-02 1.000000e-02
<GCONST> 1.343750e+02
<STATE> 3
<MEAN> 20
 6.245614e+03 3.607292e+02 1.536511e+03 1.081089e-01 0.000000e+00 0.000000e+00 0.000000e+00 0.000000e+00 0.000000e+00 1.593244e+02 0.000000e+00 4.885688e+02 4.750753e+03 2.797615e+03 2.519449e+02 1.270248e+01 7.026716e-01 0.000000e+00 0.000000e+00 0.000000e+00
<VARIANCE> 20
 3.803835e+06 2.433703e+04 3.709071e+05 2.045302e-01 1.000000e-02 1.000000e-02 1.000000e-02 1.000000e-02 1.000000e-02 3.749665e+04 1.000000e-02 1.707610e+05 1.617687e+06 1.141564e+06 1.154443e+05 2.550664e+02 4.695202e+00 1.000000e-02 1.000000e-02 1.000000e-02
<GCONST> 1.013680e+02
<STATE> 4
<MEAN> 20
 8.761649e+03 3.511099e+02 1.097675e+03 1.111096e-01 0.000000e+00 0.000000e+00 0.000000e+00 0.000000e+00 0.000000e+00 1.315580e+02 2.122190e+01 3.152227e+02 5.597878e+03 3.881225e+03 4.665562e+02 4.300008e+01 1.033321e+01 6.110930e+00 5.555447e-01 0.000000e+00
<VARIANCE> 20
 5.288792e+06 1.373944e+05 7.561660e+05 9.876428e-02 1.000000e-02 1.000000e-02 1.000000e-02 1.000000e-02 1.000000e-02 2.395497e+04 3.560792e+03 6.612546e+04 2.276189e+06 4.578784e+05 1.801907e+04 6.639878e+02 6.466542e+01 7.631889e+01 1.580230e+00 1.000000e-02
<GCONST> 1.299517e+02
<STATE> 5
<MEAN> 20
 6.604265e+03 3.396939e+02 1.578388e+03 0.000000e+00 0.000000e+00 0.000000e+00 0.000000e+00 0.000000e+00 0.000000e+00 1.315598e+02 0.000000e+00 1.934689e+02 4.471814e+03 3.636349e+03 3.234287e+02 2.734851e+01 1.498263e+00 0.000000e+00 0.000000e+00 0.000000e+00
<VARIANCE> 20
 8.739983e+05 1.284460e+04 1.884785e+05 1.000000e-02 1.000000e-02 1.000000e-02 1.000000e-02 1.000000e-02 1.000000e-02 1.381162e+04 1.000000e-02 1.356454e+04 9.719091e+05 2.648308e+05 3.054457e+04 8.568166e+02 6.617111e+00 1.000000e-02 1.000000e-02 1.000000e-02
<GCONST> 9.028625e+01
<STATE> 6
<MEAN> 20
 9.124733e+03 1.377802e+02 5.274612e+02 0.000000e+00 0.000000e+00 0.000000e+00 0.000000e+00 0.000000e+00 0.000000e+00 1.742120e+02 0.000000e+00 2.541970e+02 5.875384e+03 3.480742e+03 3.063407e+02 3.772791e+01 9.120872e+00 6.528292e-01 2.040094e-02 0.000000e+00
<VARIANCE> 20
 1.872714e+06 2.871341e+04 5.771658e+05 1.000000e-02 1.000000e-02 1.000000e-02 1.000000e-02 1.000000e-02 1.000000e-02 3.411729e+04 1.000000e-02 1.467030e+05 1.804565e+06 1.439250e+06 5.863172e+04 1.721037e+03 2.521103e+02 1.491501e+00 1.998475e-02 1.000000e-02
<GCONST> 1.092558e+02
<STATE> 7
<MEAN> 20
 8.197623e+03 3.173911e+02 1.465894e+03 8.999668e+00 0.000000e+00 0.000000e+00 0.000000e+00 0.000000e+00 0.000000e+00 1.594431e+02 0.000000e+00 5.426189e+02 6.812810e+03 2.599203e+03 1.336093e+02 4.077744e+01 1.233315e+01 5.166588e+00 1.944418e+00 8.888762e-01
<VARIANCE> 20
 1.955056e+06 2.615667e+04 6.082131e+05 3.225459e+02 1.000000e-02 1.000000e-02 1.000000e-02 1.000000e-02 1.000000e-02 5.759181e+04 1.000000e-02 1.170677e+05 9.161059e+05 1.238243e+06 2.113781e+03 1.838047e+03 2.009993e+02 6.080513e+01 2.127448e+01 6.876469e+00
<GCONST> 1.328368e+02
<STATE> 8
<MEAN> 20
 9.640760e+03 2.874996e+02 1.353995e+03 1.049983e+01 0.000000e+00 0.000000e+00 0.000000e+00 0.000000e+00 0.000000e+00 2.507504e+02 0.000000e+00 9.587483e+02 8.348249e+03 2.093757e+03 1.067501e+02 2.700014e+01 7.000032e+00 1.500012e+00 5.000035e-01 0.000000e+00
<VARIANCE> 20
 3.131328e+06 1.832238e+04 5.650475e+05 1.822477e+02 1.000000e-02 1.000000e-02 1.000000e-02 1.000000e-02 1.000000e-02 6.474543e+04 1.000000e-02 3.305792e+05 1.846270e+05 2.598436e+06 5.886920e+02 5.994995e+02 1.095002e+02 2.750008e+00 2.500000e-01 1.000000e-02
<GCONST> 1.155228e+02
<STATE> 9
<MEAN> 20
 8.404671e+03 3.287897e+02 1.393676e+03 1.330812e+00 0.000000e+00 0.000000e+00 0.000000e+00 0.000000e+00 0.000000e+00 3.210161e+02 0.000000e+00 1.195410e+03 7.905672e+03 1.239463e+03 8.974270e+01 1.513791e+01 3.765308e+00 2.921375e-01 0.000000e+00 0.000000e+00
<VARIANCE> 20
 3.844474e+06 4.802254e+04 8.259598e+05 1.565928e+01 1.000000e-02 1.000000e-02 1.000000e-02 1.000000e-02 1.000000e-02 6.193646e+04 1.000000e-02 6.244647e+05 1.522739e+06 8.969866e+05 2.743222e+03 3.575338e+02 5.294882e+01 9.209081e-01 1.000000e-02 1.000000e-02
<GCONST> 1.122375e+02
<STATE> 10
<MEAN> 20
 9.516683e+03 3.808163e+02 1.629794e+03 5.383747e+01 0.000000e+00 0.000000e+00 0.000000e+00 0.000000e+00 0.000000e+00 7.206946e+02 7.034687e+00 2.504707e+03 9.181440e+03 5.321110e+02 6.260571e+01 1.218030e+01 1.684216e+00 6.225237e-02 0.000000e+00 0.000000e+00
<VARIANCE> 20
 2.001450e+06 1.221052e+04 2.330494e+05 2.110242e+03 1.000000e-02 1.000000e-02 1.000000e-02 1.000000e-02 1.000000e-02 5.581054e+04 2.547492e+02 3.494292e+05 1.022812e+06 1.084901e+05 2.680942e+03 4.686449e+02 2.687140e+01 5.837700e-02 1.000000e-02 1.000000e-02
<GCONST> 1.176149e+02
<STATE> 11
<MEAN> 20
 8.464095e+03 3.506903e+02 1.593673e+03 1.038839e+02 0.000000e+00 0.000000e+00 0.000000e+00 0.000000e+00 0.000000e+00 9.017560e+02 2.095529e-01 3.203198e+03 7.647520e+03 4.326132e+02 9.099284e+01 3.435618e+01 4.582335e+00 5.217986e-01 1.047757e-01 0.000000e+00
<VARIANCE> 20
 1.184062e+06 1.184652e+04 2.466256e+05 1.974244e+04 1.000000e-02 1.000000e-02 1.000000e-02 1.000000e-02 1.000000e-02 1.590152e+05 2.704162e-01 1.021457e+06 6.645152e+05 3.495771e+04 1.105525e+03 7.957917e+02 5.172028e+01 1.192506e+00 1.985734e-01 1.000000e-02
<GCONST> 1.193640e+02
<STATE> 12
<MEAN> 20
 8.546022e+03 3.097845e+02 8.773690e+02 3.426307e+02 0.000000e+00 0.000000e+00 0.000000e+00 0.000000e+00 0.000000e+00 8.562624e+02 2.987841e-01 3.521519e+03 6.801392e+03 5.053416e+02 6.211684e+01 2.601239e+01 1.170010e+01 3.390182e+00 1.991894e-01 9.959470e-02
<VARIANCE> 20
 2.968481e+06 1.567266e+04 1.680164e+05 7.785566e+04 1.000000e-02 1.000000e-02 1.000000e-02 1.000000e-02 1.000000e-02 7.931030e+04 8.070804e-01 1.775865e+06 1.904368e+06 1.182045e+05 1.229529e+03 7.137422e+02 2.185338e+02 2.735258e+01 3.587023e-01 8.967561e-02
<GCONST> 1.321296e+02
<STATE> 13
<MEAN> 20
 9.499101e+03 1.661594e+02 5.138323e+02 2.700185e+00 0.000000e+00 0.000000e+00 0.000000e+00 0.000000e+00 0.000000e+00 5.954536e+02 1.000085e+00 1.591932e+03 8.196848e+03 8.550748e+02 8.384312e+01 2.939901e+01 1.324935e+01 4.950001e+00 8.000559e-01 1.500097e-01
<VARIANCE> 20
 3.333070e+06 3.319719e+04 4.961644e+05 5.601309e+01 1.000000e-02 1.000000e-02 1.000000e-02 1.000000e-02 1.000000e-02 1.559505e+05 1.900152e+01 8.818475e+05 2.924717e+06 4.036421e+05 4.597353e+03 4.800377e+02 1.975594e+02 4.044854e+01 3.460183e+00 2.275122e-01
<GCONST> 1.360441e+02
<TRANSP> 14
 0.000000e+00 1.000000e+00 0.000000e+00 0.000000e+00 0.000000e+00 0.000000e+00 0.000000e+00 0.000000e+00 0.000000e+00 0.000000e+00 0.000000e+00 0.000000e+00 0.000000e+00 0.000000e+00
 0.000000e+00 5.000023e-01 4.999978e-01 0.000000e+00 0.000000e+00 0.000000e+00 0.000000e+00 0.000000e+00 0.000000e+00 0.000000e+00 0.000000e+00 0.000000e+00 0.000000e+00 0.000000e+00
 0.000000e+00 0.000000e+00 8.918920e-01 1.081080e-01 0.000000e+00 0.000000e+00 0.000000e+00 0.000000e+00 0.000000e+00 0.000000e+00 0.000000e+00 0.000000e+00 0.000000e+00 0.000000e+00
 0.000000e+00 0.000000e+00 0.000000e+00 5.555652e-01 4.444347e-01 0.000000e+00 0.000000e+00 0.000000e+00 0.000000e+00 0.000000e+00 0.000000e+00 0.000000e+00 0.000000e+00 0.000000e+00
 0.000000e+00 0.000000e+00 0.000000e+00 0.000000e+00 8.749310e-01 1.250691e-01 0.000000e+00 0.000000e+00 0.000000e+00 0.000000e+00 0.000000e+00 0.000000e+00 0.000000e+00 0.000000e+00
 0.000000e+00 0.000000e+00 0.000000e+00 0.000000e+00 0.000000e+00 9.183969e-01 8.160307e-02 0.000000e+00 0.000000e+00 0.000000e+00 0.000000e+00 0.000000e+00 0.000000e+00 0.000000e+00
 0.000000e+00 0.000000e+00 0.000000e+00 0.000000e+00 0.000000e+00 0.000000e+00 7.777824e-01 2.222177e-01 0.000000e+00 0.000000e+00 0.000000e+00 0.000000e+00 0.000000e+00 0.000000e+00
 0.000000e+00 0.000000e+00 0.000000e+00 0.000000e+00 0.000000e+00 0.000000e+00 0.000000e+00 0.000000e+00 1.000000e+00 0.000000e+00 0.000000e+00 0.000000e+00 0.000000e+00 0.000000e+00
 0.000000e+00 0.000000e+00 0.000000e+00 0.000000e+00 0.000000e+00 0.000000e+00 0.000000e+00 0.000000e+00 8.701620e-01 1.298380e-01 0.000000e+00 0.000000e+00 0.000000e+00 0.000000e+00
 0.000000e+00 0.000000e+00 0.000000e+00 0.000000e+00 0.000000e+00 0.000000e+00 0.000000e+00 0.000000e+00 0.000000e+00 7.509848e-01 2.490152e-01 0.000000e+00 0.000000e+00 0.000000e+00
 0.000000e+00 0.000000e+00 0.000000e+00 0.000000e+00 0.000000e+00 0.000000e+00 0.000000e+00 0.000000e+00 0.000000e+00 0.000000e+00 7.904438e-01 2.095563e-01 0.000000e+00 0.000000e+00
 0.000000e+00 0.000000e+00 0.000000e+00 0.000000e+00 0.000000e+00 0.000000e+00 0.000000e+00 0.000000e+00 0.000000e+00 0.000000e+00 0.000000e+00 6.016261e-01 3.983739e-01 0.000000e+00
 0.000000e+00 0.000000e+00 0.000000e+00 0.000000e+00 0.000000e+00 0.000000e+00 0.000000e+00 0.000000e+00 0.000000e+00 0.000000e+00 0.000000e+00 0.000000e+00 7.999845e-01 2.000155e-01
 0.000000e+00 0.000000e+00 0.000000e+00 0.000000e+00 0.000000e+00 0.000000e+00 0.000000e+00 0.000000e+00 0.000000e+00 0.000000e+00 0.000000e+00 0.000000e+00 0.000000e+00 0.000000e+00
<ENDHMM>
~h "g"
<BEGINHMM>
<NUMSTATES> 14
<STATE> 2
<MEAN> 20
 6.291535e+03 3.696947e+01 3.573972e+00 0.000000e+00 3.842981e-02 1.055690e+03 1.744077e+02 1.116886e+02 1.310647e+02 1.791659e+03 4.117774e+00 1.431019e+03 5.436969e+03 1.271001e+03 6.171816e+02 6.417291e+02 1.150973e+02 5.264884e+01 2.378805e+01 3.074385e+00
<VARIANCE> 20
 9.180971e+06 8.306732e+03 3.196061e+02 1.000000e-02 3.695298e-02 9.087360e+05 4.866288e+04 1.348915e+04 1.373574e+04 1.460536e+06 1.168586e+02 1.281596e+06 9.224512e+06 2.162467e+06 3.248678e+05 2.232061e+05 1.266542e+04 4.246997e+03 1.645342e+03 4.304328e+01
<GCONST> 2.208473e+02
<STATE> 3
<MEAN> 20
 4.645585e+03 9.274859e+01 6.762154e+01 0.000000e+00 0.000000e+00 1.771824e+00 8.337048e-01 9.359664e-01 3.228779e+00 2.094256e+01 4.196940e+00 3.137215e+01 5.498461e+02 2.771309e+03 1.398848e+03 5.712434e+01 1.856963e+01 2.352485e+00 5.005286e-02 0.000000e+00
<VARIANCE> 20
 5.668674e+06 3.375888e+04 5.487989e+04 1.000000e-02 1.000000e-02 3.846299e+01 1.189340e+01 9.574613e+00 8.856392e+01 1.542563e+03 9.695441e+01 5.128471e+03 1.313965e+06 2.752589e+06 1.139544e+06 1.140119e+04 3.581566e+03 3.676049e+01 4.754758e-02 1.000000e-02
<GCONST> 1.541051e+02
<STATE> 4
<MEAN> 20
 4.068922e+03 2.871667e+02 3.642503e+02 1.090836e+02 7.108343e+01 1.911666e+02 1.296669e+02 6.733347e+01 3.616672e+01 9.650011e+01 2.375835e+02 2.568339e+02 4.963345e+02 2.056505e+03 1.724752e+03 5.350805e+02 9.866680e+01 1.141669e+01 3.000010e+00 1.166670e+00
<VARIANCE> 20
 1.657413e+06 3.116940e+04 1.576680e+05 4.292252e+04 1.442478e+04 9.107816e+04 3.206164e+04 9.261579e+03 2.920481e+03 1.339896e+04 9.714086e+04 1.040359e+05 2.975419e+05 3.204140e+06 1.268041e+06 2.988909e+05 2.160909e+04 9.019124e+02 6.316684e+01 6.972241e+00
<GCONST> 2.422021e+02
<STATE> 5
<MEAN> 20
 3.881065e+03 1.529997e+02 1.230711e+02 5.285643e+00 5.714314e+00 5.928576e+00 6.400052e+01 2.649999e+01 2.521416e+01 3.392878e+01 1.340010e+02 5.214323e+01 8.307162e+01 6.171481e+02 2.815989e+03 5.996411e+02 1.899992e+01 1.142842e+00 7.857037e-01 7.857037e-01
<VARIANCE> 20
 5.325142e+06 6.726973e+04 7.758843e+04 3.631996e+02 2.010626e+02 1.677795e+02 2.701819e+04 2.133103e+03 2.468003e+03 2.516224e+03 1.037762e+05 4.806280e+03 1.579694e+04 7.998941e+05 5.097680e+06 3.242385e+05 1.128417e+03 1.297943e+01 5.454016e+00 4.596886e+00
<GCONST> 2.086883e+02
<STATE> 6
<MEAN> 20
 2.115189e+03 1.276692e+02 2.134990e+02 6.091562e+01 4.499922e+01 2.241632e+02 3.408392e+01 1.033341e+01 6.833387e+00 4.208278e+01 2.683342e+01 9.116658e+01 1.368330e+02 4.184140e+02 1.420026e+03 6.306647e+02 1.290819e+02 2.374952e+01 1.916596e+00 1.083288e+00
<VARIANCE> 20
 1.415210e+06 1.327850e+04 1.520838e+05 6.028037e+03 3.324478e+03 6.553353e+04 3.824519e+03 2.155515e+02 6.997107e+01 5.271183e+03 1.355449e+03 1.086406e+04 1.382995e+04 1.366509e+05 4.348126e+05 3.653782e+05 5.395209e+04 3.196144e+03 1.640912e+01 7.909397e+00
<GCONST> 2.141781e+02
<STATE> 7
<MEAN> 20
 3.293919e+03 1.171406e+02 5.885596e+01 8.428731e+00 6.928700e+00 8.999823e+00 2.971386e+01 1.735719e+01 5.907245e+01 5.057166e+01 1.632884e+02 4.142755e+01 3.147813e+02 5.034958e+02 1.743201e+03 8.089357e+02 7.364345e+01 2.214329e+00 0.000000e+00 0.000000e+00
<VARIANCE> 20
 4.036826e+06 4.382802e+04 1.252012e+04 5.085391e+02 3.037855e+02 2.201447e+02 3.308824e+03 6.859567e+02 3.511185e+04 5.326201e+03 1.289171e+05 1.892636e+03 8.023025e+05 1.091786e+06 2.592164e+06 6.097732e+05 1.903016e+04 3.474039e+01 1.000000e-02 1.000000e-02
<GCONST> 2.022070e+02
<STATE> 8
<MEAN> 20
 3.966608e+03 7.477794e+01 2.888895e+00 1.666670e-01 6.111124e-01 0.000000e+00 1.666670e-01 5.555568e-02 3.888896e-01 2.311115e+01 1.405558e+01 4.055564e+01 3.010535e+02 8.223276e+02 1.943781e+03 8.967236e+02 4.983343e+01 4.444453e-01 0.000000e+00 0.000000e+00
<VARIANCE> 20
 2.779708e+06 7.237187e+04 8.554337e+01 4.722231e-01 6.348779e+00 1.000000e-02 4.722231e-01 5.246925e-02 1.904323e+00 1.865546e+03 2.183390e+03 2.417941e+04 3.619392e+05 1.110836e+06 3.694424e+06 8.581346e+05 8.166929e+03 1.024693e+00 1.000000e-02 1.000000e-02
<GCONST> 1.413129e+02
<STATE> 9
<MEAN> 20
 7.127481e+03 7.639565e+00 0.000000e+00 0.000000e+00 0.000000e+00 0.000000e+00 0.000000e+00 0.000000e+00 0.000000e+00 7.555578e+01 0.000000e+00 3.900507e+01 3.043578e+03 1.953087e+03 1.850468e+03 3.136418e+02 1.006580e+01 7.623588e-01 6.924079e-02 0.000000e+00
<VARIANCE> 20
 1.738559e+07 6.089565e+02 1.000000e-02 1.000000e-02 1.000000e-02 1.000000e-02 1.000000e-02 1.000000e-02 1.000000e-02 2.117928e+04 1.000000e-02 1.804571e+04 1.480791e+07 5.821048e+06 3.255296e+06 1.403401e+05 3.554765e+02 6.093266e+00 6.444652e-02 1.000000e-02
<GCONST> 1.020293e+02
<STATE> 10
<MEAN> 20
 8.498282e+03 1.537115e+00 0.000000e+00 0.000000e+00 0.000000e+00 0.000000e+00 0.000000e+00 0.000000e+00 0.000000e+00 5.445015e+01 7.123185e-01 3.928982e+01 4.706285e+03 3.664226e+03 1.214234e+02 1.247841e+01 6.106533e+00 2.923140e+00 7.498218e-01 7.498253e-02
<VARIANCE> 20
 3.868042e+06 2.406805e+01 1.000000e-02 1.000000e-02 1.000000e-02 1.000000e-02 1.000000e-02 1.000000e-02 1.000000e-02 4.835665e+03 7.178111e+00 2.822150e+04 5.366319e+06 4.692470e+06 2.010920e+04 2.312236e+02 7.343315e+01 2.638999e+01 2.587024e+00 6.936017e-02
<GCONST> 9.563400e+01
<STATE> 11
<MEAN> 20
 9.700777e+03 0.000000e+00 0.000000e+00 0.000000e+00 0.000000e+00 0.000000e+00 0.000000e+00 0.000000e+00 0.000000e+00 1.157409e+02 0.000000e+00 4.406129e+02 7.422683e+03 1.843301e+03 1.012182e+02 7.808614e+00 8.410955e-01 5.336120e-02 0.000000e+00 0.000000e+00
<VARIANCE> 20
 5.448699e+06 1.000000e-02 1.000000e-02 1.000000e-02 1.000000e-02 1.000000e-02 1.000000e-02 1.000000e-02 1.000000e-02 2.528196e+04 1.000000e-02 5.833384e+05 6.085675e+06 3.052150e+06 2.435866e+04 1.656298e+02 6.140755e+00 7.719432e-02 1.000000e-02 1.000000e-02
<GCONST> 7.004263e+01
<STATE> 12
<MEAN> 20
 1.017293e+04 4.000002e+00 0.000000e+00 0.000000e+00 0.000000e+00 0.000000e+00 0.000000e+00 0.000000e+00 0.000000e+00 4.504960e+01 1.428579e+00 2.474439e+02 6.524104e+03 3.216141e+03 1.669116e+02 4.957410e+01 1.452337e+01 1.857151e+00 0.000000e+00 0.000000e+00
<VARIANCE> 20
 1.453309e+06 5.600027e+01 1.000000e-02 1.000000e-02 1.000000e-02 1.000000e-02 1.000000e-02 1.000000e-02 1.000000e-02 3.219122e+03 1.224495e+01 2.558672e+05 5.101140e+06 4.857200e+06 2.120651e+04 2.081931e+03 5.544820e+02 9.265334e+00 1.000000e-02 1.000000e-02
<GCONST> 9.354848e+01
<STATE> 13
<MEAN> 20
 9.155203e+03 0.000000e+00 0.000000e+00 0.000000e+00 0.000000e+00 0.000000e+00 0.000000e+00 0.000000e+00 0.000000e+00 3.510738e+01 0.000000e+00 2.787566e+02 7.049040e+03 1.728878e+03 1.053949e+02 2.441947e+01 3.595797e+00 1.610305e-01 6.441911e-02 0.000000e+00
<VARIANCE> 20
 1.777746e+06 1.000000e-02 1.000000e-02 1.000000e-02 1.000000e-02 1.000000e-02 1.000000e-02 1.000000e-02 1.000000e-02 5.064493e+03 1.000000e-02 3.712280e+05 3.512573e+06 2.381624e+06 6.121142e+03 7.496066e+02 5.723133e+01 5.215625e-01 2.535264e-01 1.000000e-02
<GCONST> 7.356937e+01
<TRANSP> 14
 0.000000e+00 1.000000e+00 0.000000e+00 0.000000e+00 0.000000e+00 0.000000e+00 0.000000e+00 0.000000e+00 0.000000e+00 0.000000e+00 0.000000e+00 0.000000e+00 0.000000e+00 0.000000e+00
 0.000000e+00 7.309927e-01 2.690073e-01 0.000000e+00 0.000000e+00 0.000000e+00 0.000000e+00 0.000000e+00 0.000000e+00 0.000000e+00 0.000000e+00 0.000000e+00 0.000000e+00 0.000000e+00
 0.000000e+00 0.000000e+00 6.496205e-01 3.503795e-01 0.000000e+00 0.000000e+00 0.000000e+00 0.000000e+00 0.000000e+00 0.000000e+00 0.000000e+00 0.000000e+00 0.000000e+00 0.000000e+00
 0.000000e+00 0.000000e+00 0.000000e+00 4.166678e-01 5.833322e-01 0.000000e+00 0.000000e+00 0.000000e+00 0.000000e+00 0.000000e+00 0.000000e+00 0.000000e+00 0.000000e+00 0.000000e+00
 0.000000e+00 0.000000e+00 0.000000e+00 0.000000e+00 4.999933e-01 5.000067e-01 0.000000e+00 0.000000e+00 0.000000e+00 0.000000e+00 0.000000e+00 0.000000e+00 0.000000e+00 0.000000e+00
 0.000000e+00 0.000000e+00 0.000000e+00 0.000000e+00 0.000000e+00 4.166797e-01 5.833203e-01 0.000000e+00 0.000000e+00 0.000000e+00 0.000000e+00 0.000000e+00 0.000000e+00 0.000000e+00
 0.000000e+00 0.000000e+00 0.000000e+00 0.000000e+00 0.000000e+00 0.000000e+00 4.999926e-01 5.000074e-01 0.000000e+00 0.000000e+00 0.000000e+00 0.000000e+00 0.000000e+00 0.000000e+00
 0.000000e+00 0.000000e+00 0.000000e+00 0.000000e+00 0.000000e+00 0.000000e+00 0.000000e+00 6.111123e-01 3.888877e-01 0.000000e+00 0.000000e+00 0.000000e+00 0.000000e+00 0.000000e+00
 0.000000e+00 0.000000e+00 0.000000e+00 0.000000e+00 0.000000e+00 0.000000e+00 0.000000e+00 0.000000e+00 8.384389e-01 1.615611e-01 0.000000e+00 0.000000e+00 0.000000e+00 0.000000e+00
 0.000000e+00 0.000000e+00 0.000000e+00 0.000000e+00 0.000000e+00 0.000000e+00 0.000000e+00 0.000000e+00 0.000000e+00 7.375628e-01 2.624372e-01 0.000000e+00 0.000000e+00 0.000000e+00
 0.000000e+00 0.000000e+00 0.000000e+00 0.000000e+00 0.000000e+00 0.000000e+00 0.000000e+00 0.000000e+00 0.000000e+00 0.000000e+00 9.066184e-01 9.338158e-02 0.000000e+00 0.000000e+00
 0.000000e+00 0.000000e+00 0.000000e+00 0.000000e+00 0.000000e+00 0.000000e+00 0.000000e+00 0.000000e+00 0.000000e+00 0.000000e+00 0.000000e+00 0.000000e+00 1.000000e+00 0.000000e+00
 0.000000e+00 0.000000e+00 0.000000e+00 0.000000e+00 0.000000e+00 0.000000e+00 0.000000e+00 0.000000e+00 0.000000e+00 0.000000e+00 0.000000e+00 0.000000e+00 8.872673e-01 1.127328e-01
 0.000000e+00 0.000000e+00 0.000000e+00 0.000000e+00 0.000000e+00 0.000000e+00 0.000000e+00 0.000000e+00 0.000000e+00 0.000000e+00 0.000000e+00 0.000000e+00 0.000000e+00 0.000000e+00
<ENDHMM>
~h "h"
<BEGINHMM>
<NUMSTATES> 14
<STATE> 2
<MEAN> 20
 5.488261e+03 4.000051e+00 5.714359e-01 0.000000e+00 3.285756e+00 1.028585e+01 1.115729e+02 8.100103e+01 8.671421e+01 1.557267e+03 8.284218e+02 9.939858e+02 2.673100e+03 1.054862e+03 1.646162e+03 6.985704e+01 2.628544e+01 4.485646e+01 4.857101e+00 5.714320e-01
<VARIANCE> 20
 1.133059e+07 3.114305e+01 1.959205e+00 1.000000e-02 1.734702e+01 2.990637e+02 2.870045e+04 9.381464e+03 1.015836e+04 7.771176e+06 2.436892e+06 1.948708e+06 1.373297e+07 6.138715e+05 2.259760e+06 4.090736e+03 1.028195e+03 5.481195e+03 4.783635e+01 1.102051e+00
<GCONST> 2.069724e+02
<STATE> 3
<MEAN> 20
 7.648525e+03 0.000000e+00 0.000000e+00 0.000000e+00 0.000000e+00 0.000000e+00 0.000000e+00 0.000000e+00 0.000000e+00 4.320757e+02 0.000000e+00 8.104594e+02 4.060220e+03 2.098533e+03 9.070043e+02 1.023847e+02 2.423070e+01 7.046134e+01 7.307673e+00 0.000000e+00
<VARIANCE> 20
 7.486670e+06 1.000000e-02 1.000000e-02 1.000000e-02 1.000000e-02 1.000000e-02 1.000000e-02 1.000000e-02 1.000000e-02 2.198232e+05 1.000000e-02 7.310814e+05 1.371562e+07 3.118488e+06 8.626821e+05 3.074503e+04 1.373714e+03 1.188208e+04 2.279049e+02 1.000000e-02
<GCONST> 1.097625e+02
<STATE> 4
<MEAN> 20
 4.439546e+03 8.482822e+01 1.600017e+01 0.000000e+00 3.466707e+01 2.483362e+01 2.178343e+02 7.000066e+01 3.166704e+01 1.881686e+02 1.099977e+02 3.148347e+02 2.285023e+03 1.369846e+03 7.293408e+02 2.596697e+02 2.466697e+01 1.300015e+01 1.166680e+00 0.000000e+00
<VARIANCE> 20
 1.601192e+07 1.758789e+04 7.483397e+02 1.000000e-02 6.008945e+03 3.083501e+03 2.003738e+05 2.285923e+04 4.826934e+03 8.256141e+04 2.932559e+04 1.194684e+05 1.504557e+07 2.715157e+06 9.289691e+05 1.517620e+05 1.145894e+03 7.233395e+02 6.805617e+00 1.000000e-02
<GCONST> 2.138475e+02
<STATE> 5
<MEAN> 20
 4.135760e+03 2.926653e+02 1.916614e+01 1.549956e+01 6.183157e+01 5.466521e+01 1.824966e+02 8.483126e+01 2.383298e+01 1.708298e+02 5.956561e+02 3.514941e+02 1.884616e+03 3.561646e+02 1.442150e+03 3.746654e+02 1.499970e+01 8.666435e+00 6.666487e+00 6.499830e+00
<VARIANCE> 20
 8.233036e+06 1.852654e+05 7.647936e+02 6.205725e+02 8.530672e+03 5.038488e+03 6.323921e+04 1.397156e+04 6.431417e+02 2.050642e+04 4.499507e+05 8.280652e+04 1.267208e+07 3.713973e+04 7.445756e+05 1.359644e+05 2.543304e+02 2.532169e+02 1.515524e+02 1.422470e+02
<GCONST> 2.300622e+02
<STATE> 6
<MEAN> 20
 3.419857e+03 4.939993e+01 0.000000e+00 0.000000e+00 0.000000e+00 0.000000e+00 1.333341e-01 2.000012e-01 6.666707e-02 2.633272e+01 6.000037e-01 6.666510e+01 7.854500e+02 5.555975e+02 1.675676e+03 3.729352e+02 2.780011e+01 8.800018e+00 1.600010e+00 8.666719e-01
<VARIANCE> 20
 4.856364e+06 1.499242e+04 1.000000e-02 1.000000e-02 1.000000e-02 1.000000e-02 2.488903e-01 5.600030e-01 6.222257e-02 8.268827e+03 2.373345e+00 4.780071e+04 4.987552e+06 6.437081e+05 1.313302e+06 1.112453e+05 3.943781e+03 3.778951e+02 2.317345e+01 6.515590e+00
<GCONST> 1.329964e+02
<STATE> 7
<MEAN> 20
 6.941918e+03 1.538431e-01 0.000000e+00 0.000000e+00 0.000000e+00 0.000000e+00 0.000000e+00 0.000000e+00 0.000000e+00 1.320718e+02 0.000000e+00 2.729967e+02 3.682986e+03 1.175183e+03 1.886904e+03 4.253636e+01 9.384160e+00 3.769045e+00 3.076838e-01 7.691947e-02
<VARIANCE> 20
 8.162998e+06 2.840185e-01 1.000000e-02 1.000000e-02 1.000000e-02 1.000000e-02 1.000000e-02 1.000000e-02 1.000000e-02 6.387791e+04 1.000000e-02 2.402246e+05 1.534834e+07 3.831818e+05 4.425200e+06 4.757170e+03 6.474387e+02 1.290947e+02 6.745439e-01 7.100286e-02
<GCONST> 9.949447e+01
<STATE> 8
<MEAN> 20
 1.079129e+04 0.000000e+00 0.000000e+00 0.000000e+00 0.000000e+00 0.000000e+00 0.000000e+00 0.000000e+00 0.000000e+00 2.507089e+02 0.000000e+00 6.408428e+02 7.820910e+03 2.390466e+03 1.512995e+02 3.296313e+01 4.592589e+00 8.518495e-01 7.407457e-02 0.000000e+00
<VARIANCE> 20
 7.298798e+06 1.000000e-02 1.000000e-02 1.000000e-02 1.000000e-02 1.000000e-02 1.000000e-02 1.000000e-02 1.000000e-02 6.658759e+04 1.000000e-02 4.673901e+05 6.171074e+06 2.512420e+06 2.130426e+04 1.512759e+03 7.750046e+01 8.348360e+00 6.858754e-02 1.000000e-02
<GCONST> 8.212344e+01
<STATE> 9
<MEAN> 20
 9.585111e+03 0.000000e+00 0.000000e+00 0.000000e+00 0.000000e+00 0.000000e+00 0.000000e+00 0.000000e+00 0.000000e+00 3.822003e+02 0.000000e+00 6.339130e+02 8.370649e+03 9.140721e+02 4.463100e+01 4.045711e+00 0.000000e+00 0.000000e+00 0.000000e+00 0.000000e+00
<VARIANCE> 20
 5.397482e+06 1.000000e-02 1.000000e-02 1.000000e-02 1.000000e-02 1.000000e-02 1.000000e-02 1.000000e-02 1.000000e-02 6.989928e+04 1.000000e-02 2.338867e+05 3.291261e+06 5.891307e+05 2.814554e+03 3.608086e+01 1.000000e-02 1.000000e-02 1.000000e-02 1.000000e-02
<GCONST> 5.573067e+01
<STATE> 10
<MEAN> 20
 9.886786e+03 0.000000e+00 0.000000e+00 0.000000e+00 0.000000e+00 0.000000e+00 0.000000e+00 0.000000e+00 0.000000e+00 1.982528e+02 0.000000e+00 9.435928e+02 8.157482e+03 8.036389e+02 1.336229e+02 3.540008e+01 4.772123e+00 6.530251e+00 0.000000e+00 0.000000e+00
<VARIANCE> 20
 1.242662e+06 1.000000e-02 1.000000e-02 1.000000e-02 1.000000e-02 1.000000e-02 1.000000e-02 1.000000e-02 1.000000e-02 4.643980e+04 1.000000e-02 2.392443e+05 1.460052e+05 2.240082e+05 5.782261e+03 1.256674e+03 1.161203e+02 2.969289e+02 1.000000e-02 1.000000e-02
<GCONST> 7.372230e+01
<STATE> 11
<MEAN> 20
 1.162624e+04 1.449993e+01 0.000000e+00 0.000000e+00 0.000000e+00 0.000000e+00 0.000000e+00 0.000000e+00 0.000000e+00 2.902482e+02 2.299990e+01 9.592448e+02 1.010324e+04 6.657540e+02 1.272500e+02 5.074988e+01 1.749992e+00 0.000000e+00 0.000000e+00 0.000000e+00
<VARIANCE> 20
 5.522991e+06 6.307480e+02 1.000000e-02 1.000000e-02 1.000000e-02 1.000000e-02 1.000000e-02 1.000000e-02 1.000000e-02 9.371426e+04 1.586995e+03 5.633463e+05 3.126250e+06 1.672675e+05 1.984053e+04 3.769657e+03 3.687475e+00 1.000000e-02 1.000000e-02 1.000000e-02
<GCONST> 9.115428e+01
<STATE> 12
<MEAN> 20
 1.054745e+04 0.000000e+00 0.000000e+00 0.000000e+00 0.000000e+00 0.000000e+00 0.000000e+00 0.000000e+00 0.000000e+00 6.542460e+01 0.000000e+00 1.488246e+03 8.247464e+03 8.018146e+02 6.447194e+01 1.082337e+01 5.850428e-02 0.000000e+00 0.000000e+00 0.000000e+00
<VARIANCE> 20
 7.070033e+06 1.000000e-02 1.000000e-02 1.000000e-02 1.000000e-02 1.000000e-02 1.000000e-02 1.000000e-02 1.000000e-02 1.208131e+04 1.000000e-02 7.616992e+05 3.783630e+06 1.619579e+05 3.440067e+03 3.104666e+02 5.508151e-02 1.000000e-02 1.000000e-02 1.000000e-02
<GCONST> 5.833326e+01
<STATE> 13
<MEAN> 20
 1.040044e+04 0.000000e+00 0.000000e+00 0.000000e+00 0.000000e+00 0.000000e+00 0.000000e+00 0.000000e+00 0.000000e+00 4.388081e+02 0.000000e+00 1.859365e+03 8.606225e+03 3.552546e+02 1.723912e+01 1.159982e+00 0.000000e+00 0.000000e+00 0.000000e+00 0.000000e+00
<VARIANCE> 20
 1.809843e+06 1.000000e-02 1.000000e-02 1.000000e-02 1.000000e-02 1.000000e-02 1.000000e-02 1.000000e-02 1.000000e-02 7.831574e+04 1.000000e-02 9.333364e+05 8.541911e+05 4.572029e+04 5.303073e+02 1.231443e+01 1.000000e-02 1.000000e-02 1.000000e-02 1.000000e-02
<GCONST> 4.948653e+01
<TRANSP> 14
 0.000000e+00 1.000000e+00 0.000000e+00 0.000000e+00 0.000000e+00 0.000000e+00 0.000000e+00 0.000000e+00 0.000000e+00 0.000000e+00 0.000000e+00 0.000000e+00 0.000000e+00 0.000000e+00
 0.000000e+00 4.285769e-01 5.714231e-01 0.000000e+00 0.000000e+00 0.000000e+00 0.000000e+00 0.000000e+00 0.000000e+00 0.000000e+00 0.000000e+00 0.000000e+00 0.000000e+00 0.000000e+00
 0.000000e+00 0.000000e+00 6.923058e-01 3.076942e-01 0.000000e+00 0.000000e+00 0.000000e+00 0.000000e+00 0.000000e+00 0.000000e+00 0.000000e+00 0.000000e+00 0.000000e+00 0.000000e+00
 0.000000e+00 0.000000e+00 0.000000e+00 3.333197e-01 6.666803e-01 0.000000e+00 0.000000e+00 0.000000e+00 0.000000e+00 0.000000e+00 0.000000e+00 0.000000e+00 0.000000e+00 0.000000e+00
 0.000000e+00 0.000000e+00 0.000000e+00 0.000000e+00 3.333465e-01 6.666535e-01 0.000000e+00 0.000000e+00 0.000000e+00 0.000000e+00 0.000000e+00 0.000000e+00 0.000000e+00 0.000000e+00
 0.000000e+00 0.000000e+00 0.000000e+00 0.000000e+00 0.000000e+00 7.333377e-01 2.666623e-01 0.000000e+00 0.000000e+00 0.000000e+00 0.000000e+00 0.000000e+00 0.000000e+00 0.000000e+00
 0.000000e+00 0.000000e+00 0.000000e+00 0.000000e+00 0.000000e+00 0.000000e+00 6.923208e-01 3.076793e-01 0.000000e+00 0.000000e+00 0.000000e+00 0.000000e+00 0.000000e+00 0.000000e+00
 0.000000e+00 0.000000e+00 0.000000e+00 0.000000e+00 0.000000e+00 0.000000e+00 0.000000e+00 8.518519e-01 1.481482e-01 0.000000e+00 0.000000e+00 0.000000e+00 0.000000e+00 0.000000e+00
 0.000000e+00 0.000000e+00 0.000000e+00 0.000000e+00 0.000000e+00 0.000000e+00 0.000000e+00 0.000000e+00 8.098549e-01 1.901451e-01 0.000000e+00 0.000000e+00 0.000000e+00 0.000000e+00
 0.000000e+00 0.000000e+00 0.000000e+00 0.000000e+00 0.000000e+00 0.000000e+00 0.000000e+00 0.000000e+00 0.000000e+00 4.976687e-01 5.023313e-01 0.000000e+00 0.000000e+00 0.000000e+00
 0.000000e+00 0.000000e+00 0.000000e+00 0.000000e+00 0.000000e+00 0.000000e+00 0.000000e+00 0.000000e+00 0.000000e+00 0.000000e+00 0.000000e+00 1.000000e+00 0.000000e+00 0.000000e+00
 0.000000e+00 0.000000e+00 0.000000e+00 0.000000e+00 0.000000e+00 0.000000e+00 0.000000e+00 0.000000e+00 0.000000e+00 0.000000e+00 0.000000e+00 7.659819e-01 2.340181e-01 0.000000e+00
 0.000000e+00 0.000000e+00 0.000000e+00 0.000000e+00 0.000000e+00 0.000000e+00 0.000000e+00 0.000000e+00 0.000000e+00 0.000000e+00 0.000000e+00 0.000000e+00 9.213025e-01 7.869753e-02
 0.000000e+00 0.000000e+00 0.000000e+00 0.000000e+00 0.000000e+00 0.000000e+00 0.000000e+00 0.000000e+00 0.000000e+00 0.000000e+00 0.000000e+00 0.000000e+00 0.000000e+00 0.000000e+00
<ENDHMM>
~h "i"
<BEGINHMM>
<NUMSTATES> 14
<STATE> 2
<MEAN> 20
 5.147837e+03 6.013951e+01 0.000000e+00 0.000000e+00 0.000000e+00 0.000000e+00 0.000000e+00 5.819824e-01 0.000000e+00 1.799222e+02 1.842945e+00 4.829433e+02 2.079517e+03 1.168029e+03 1.417483e+03 1.472446e+02 4.675416e+01 2.963296e+01 8.341747e+00 6.692798e+00
<VARIANCE> 20
 6.995848e+06 6.159082e+04 1.000000e-02 1.000000e-02 1.000000e-02 1.000000e-02 1.000000e-02 6.645084e+00 1.000000e-02 1.718954e+05 6.663542e+01 1.053386e+06 9.080638e+06 1.280002e+06 1.432791e+06 6.002415e+04 1.076672e+04 4.477635e+03 5.458616e+02 8.788124e+02
<GCONST> 1.539645e+02
<STATE> 3
<MEAN> 20
 4.263498e+03 7.156291e+01 1.218757e+01 1.375008e+00 2.856265e+01 3.587519e+01 1.764384e+02 4.512525e+01 1.775010e+01 2.329072e+02 3.271268e+02 6.089916e+02 1.874557e+03 7.115952e+02 1.050615e+03 1.663958e+02 6.962540e+01 4.950028e+01 2.068761e+01 6.187533e+00
<VARIANCE> 20
 1.073338e+07 1.692344e+04 8.425309e+02 2.835951e+01 5.356521e+03 9.850653e+03 1.153618e+05 7.838889e+03 1.727445e+03 2.126392e+05 3.453025e+05 8.813849e+05 8.747915e+06 1.702817e+06 1.249425e+06 3.188729e+04 1.196265e+04 1.340918e+04 4.716613e+03 2.279033e+02
<GCONST> 2.448528e+02
<STATE> 4
<MEAN> 20
 5.839344e+03 1.808345e+01 0.000000e+00 0.000000e+00 0.000000e+00 0.000000e+00 2.200017e+01 3.883363e+01 4.208366e+01 3.952394e+02 1.471678e+02 9.011810e+02 2.627946e+03 1.064199e+03 1.356652e+03 1.032247e+02 1.002711e+02 4.610960e+01 7.333392e+00 1.500012e+00
<VARIANCE> 20
 8.495089e+06 2.765764e+03 1.000000e-02 1.000000e-02 1.000000e-02 1.000000e-02 3.306523e+03 7.644188e+03 8.114793e+03 2.442256e+05 8.085760e+04 1.604207e+06 1.200396e+07 1.183163e+06 1.800002e+06 1.552219e+04 4.028994e+04 5.231349e+03 3.317245e+02 2.191683e+01
<GCONST> 1.886538e+02
<STATE> 5
<MEAN> 20
 5.574315e+03 2.500024e+00 0.000000e+00 0.000000e+00 3.200030e+00 1.000009e+00 5.380051e+01 1.830017e+01 8.300078e+00 3.137077e+02 8.410080e+01 9.130232e+02 2.799608e+03 7.587401e+02 1.328935e+03 4.899771e+01 2.534958e+01 1.586907e+01 5.000048e-01 0.000000e+00
<VARIANCE> 20
 9.999971e+06 5.625049e+01 1.000000e-02 1.000000e-02 9.216077e+01 5.800045e+00 1.395407e+04 1.432020e+03 2.796120e+02 1.423430e+05 3.229593e+04 1.561895e+06 1.175897e+07 1.078771e+06 1.737154e+06 7.938501e+03 5.269376e+03 2.244734e+03 2.250019e+00 1.000000e-02
<GCONST> 1.789409e+02
<STATE> 6
<MEAN> 20
 7.587008e+03 2.948316e+02 6.104200e+01 1.220834e-01 0.000000e+00 0.000000e+00 7.325035e-01 7.325033e-01 5.249587e+00 3.676203e+02 1.733584e+01 1.031773e+03 5.372736e+03 8.785688e+02 9.169213e+02 9.388350e+01 5.937134e+00 1.831256e-01 0.000000e+00 0.000000e+00
<VARIANCE> 20
 1.700396e+07 6.682910e+05 2.454499e+04 2.292624e-01 1.000000e-02 1.000000e-02 8.253482e+00 6.910559e+00 3.231874e+02 2.057998e+05 3.106206e+03 1.380448e+06 2.330424e+07 5.873994e+05 1.475590e+06 2.914780e+04 7.382250e+01 1.495906e-01 1.000000e-02 1.000000e-02
<GCONST> 1.584035e+02
<STATE> 7
<MEAN> 20
 6.598719e+03 4.040008e+00 0.000000e+00 0.000000e+00 0.000000e+00 0.000000e+00 0.000000e+00 0.000000e+00 0.000000e+00 3.250003e+02 0.000000e+00 8.689970e+02 3.839038e+03 1.155763e+03 9.079218e+02 8.992020e+01 4.988012e+01 1.620004e+01 4.000010e-02 0.000000e+00
<VARIANCE> 20
 5.108897e+06 1.328386e+02 1.000000e-02 1.000000e-02 1.000000e-02 1.000000e-02 1.000000e-02 1.000000e-02 1.000000e-02 1.928097e+05 1.000000e-02 1.048260e+06 1.132862e+07 1.190032e+06 1.421349e+06 2.746924e+04 8.899642e+03 1.335362e+03 3.840011e-02 1.000000e-02
<GCONST> 1.093300e+02
<STATE> 8
<MEAN> 20
 5.434759e+03 6.666701e-01 0.000000e+00 0.000000e+00 0.000000e+00 0.000000e+00 0.000000e+00 6.666707e+00 1.600010e+01 1.985519e+02 2.611127e+01 7.396506e+02 2.488870e+03 1.281451e+03 1.024783e+03 8.244491e+01 9.555610e+00 3.666687e+00 1.111117e-01 0.000000e+00
<VARIANCE> 20
 9.124533e+06 1.777784e+00 1.000000e-02 1.000000e-02 1.000000e-02 1.000000e-02 1.000000e-02 3.555574e+02 2.048010e+03 8.789890e+04 2.420999e+03 1.620120e+06 1.039037e+07 1.542699e+06 1.236500e+06 5.194250e+04 7.304727e+02 1.075561e+02 9.876590e-02 1.000000e-02
<GCONST> 1.369484e+02
<STATE> 9
<MEAN> 20
 4.785875e+03 2.375561e+02 6.322241e+01 3.555566e+00 5.933351e+01 3.155565e+01 4.734459e+02 9.166693e+01 5.566682e+01 3.205554e+02 7.895579e+02 6.086614e+02 1.670929e+03 1.490448e+03 9.957250e+02 2.388340e+02 1.588338e+02 1.046114e+02 6.266685e+01 2.166673e+00
<VARIANCE> 20
 7.430088e+06 3.649882e+05 2.300479e+04 9.102492e+01 1.384759e+04 5.897816e+03 6.017366e+05 1.869647e+04 5.256562e+03 6.221795e+04 1.647773e+06 8.335438e+05 7.248965e+06 1.544369e+06 7.179701e+05 6.120482e+04 9.487380e+04 7.354754e+04 2.358840e+04 2.347228e+01
<GCONST> 2.592997e+02
<STATE> 10
<MEAN> 20
 5.209284e+03 0.000000e+00 0.000000e+00 0.000000e+00 0.000000e+00 0.000000e+00 0.000000e+00 6.411785e+00 3.941189e+00 1.677050e+02 4.117660e+00 3.557590e+02 1.972338e+03 1.043885e+03 1.761358e+03 9.670620e+01 5.347077e+01 6.505904e+01 3.247070e+01 2.176478e+00
<VARIANCE> 20
 5.136774e+06 1.000000e-02 1.000000e-02 1.000000e-02 1.000000e-02 1.000000e-02 1.000000e-02 5.413024e+02 1.066439e+02 5.968905e+04 1.389278e+02 5.859741e+05 9.554663e+06 1.396102e+06 2.202320e+06 6.180766e+04 2.404408e+04 3.274074e+04 9.658632e+03 7.579264e+01
<GCONST> 1.546000e+02
<STATE> 11
<MEAN> 20
 5.447896e+03 7.272760e+00 0.000000e+00 0.000000e+00 1.045460e+01 5.636393e+00 1.530917e+02 2.127284e+01 1.418189e+01 2.544544e+02 1.820919e+02 5.214479e+02 2.880346e+03 5.624565e+02 1.244279e+03 2.040919e+02 1.694554e+02 9.990961e+01 4.772751e+01 2.454558e+00
<VARIANCE> 20
 7.587316e+06 1.974717e+02 1.000000e-02 1.000000e-02 1.092980e+03 1.436865e+02 2.005082e+05 2.396027e+03 7.319697e+02 4.683678e+04 2.520048e+05 4.761459e+05 1.027041e+07 6.628014e+05 3.337129e+06 9.430125e+04 1.515958e+05 2.309215e+04 8.326226e+03 6.024820e+01
<GCONST> 2.146158e+02
<STATE> 12
<MEAN> 20
 5.128984e+03 1.280005e+01 1.000003e+00 0.000000e+00 0.000000e+00 0.000000e+00 4.800019e+00 1.446672e+01 6.466689e+00 3.390655e+02 4.733345e+00 6.216618e+02 2.902781e+03 3.907340e+02 8.751366e+02 3.977349e+02 1.177338e+02 7.106694e+01 1.137338e+02 1.226671e+01
<VARIANCE> 20
 8.572657e+06 2.169100e+03 1.400005e+01 1.000000e-02 1.000000e-02 1.000000e-02 2.142941e+02 1.218520e+03 1.301159e+02 1.165647e+05 1.736625e+02 6.257662e+05 1.195926e+07 3.866190e+05 1.375512e+06 3.028464e+05 2.983319e+04 1.558183e+04 6.393918e+04 6.597975e+02
<GCONST> 1.901708e+02
<STATE> 13
<MEAN> 20
 7.131652e+03 0.000000e+00 0.000000e+00 0.000000e+00 0.000000e+00 0.000000e+00 0.000000e+00 0.000000e+00 0.000000e+00 2.093208e+02 0.000000e+00 1.158151e+03 5.599472e+03 2.966893e+02 2.784206e+02 8.240239e+00 0.000000e+00 0.000000e+00 0.000000e+00 0.000000e+00
<VARIANCE> 20
 4.610904e+06 1.000000e-02 1.000000e-02 1.000000e-02 1.000000e-02 1.000000e-02 1.000000e-02 1.000000e-02 1.000000e-02 6.356934e+04 1.000000e-02 8.041192e+05 6.301224e+06 1.766962e+05 6.587241e+05 1.310925e+03 1.000000e-02 1.000000e-02 1.000000e-02 1.000000e-02
<GCONST> 6.520663e+01
<TRANSP> 14
 0.000000e+00 1.000000e+00 0.000000e+00 0.000000e+00 0.000000e+00 0.000000e+00 0.000000e+00 0.000000e+00 0.000000e+00 0.000000e+00 0.000000e+00 0.000000e+00 0.000000e+00 0.000000e+00
 0.000000e+00 5.635139e-01 4.364860e-01 0.000000e+00 0.000000e+00 0.000000e+00 0.000000e+00 0.000000e+00 0.000000e+00 0.000000e+00 0.000000e+00 0.000000e+00 0.000000e+00 0.000000e+00
 0.000000e+00 0.000000e+00 4.374999e-01 5.625002e-01 0.000000e+00 0.000000e+00 0.000000e+00 0.000000e+00 0.000000e+00 0.000000e+00 0.000000e+00 0.000000e+00 0.000000e+00 0.000000e+00
 0.000000e+00 0.000000e+00 0.000000e+00 2.500001e-01 7.499999e-01 0.000000e+00 0.000000e+00 0.000000e+00 0.000000e+00 0.000000e+00 0.000000e+00 0.000000e+00 0.000000e+00 0.000000e+00
 0.000000e+00 0.000000e+00 0.000000e+00 0.000000e+00 1.000002e-01 8.999998e-01 0.000000e+00 0.000000e+00 0.000000e+00 0.000000e+00 0.000000e+00 0.000000e+00 0.000000e+00 0.000000e+00
 0.000000e+00 0.000000e+00 0.000000e+00 0.000000e+00 0.000000e+00 4.506257e-01 5.493743e-01 0.000000e+00 0.000000e+00 0.000000e+00 0.000000e+00 0.000000e+00 0.000000e+00 0.000000e+00
 0.000000e+00 0.000000e+00 0.000000e+00 0.000000e+00 0.000000e+00 0.000000e+00 6.400001e-01 3.599999e-01 0.000000e+00 0.000000e+00 0.000000e+00 0.000000e+00 0.000000e+00 0.000000e+00
 0.000000e+00 0.000000e+00 0.000000e+00 0.000000e+00 0.000000e+00 0.000000e+00 0.000000e+00 0.000000e+00 1.000000e+00 0.000000e+00 0.000000e+00 0.000000e+00 0.000000e+00 0.000000e+00
 0.000000e+00 0.000000e+00 0.000000e+00 0.000000e+00 0.000000e+00 0.000000e+00 0.000000e+00 0.000000e+00 5.000002e-01 4.999998e-01 0.000000e+00 0.000000e+00 0.000000e+00 0.000000e+00
 0.000000e+00 0.000000e+00 0.000000e+00 0.000000e+00 0.000000e+00 0.000000e+00 0.000000e+00 0.000000e+00 0.000000e+00 4.705885e-01 5.294116e-01 0.000000e+00 0.000000e+00 0.000000e+00
 0.000000e+00 0.000000e+00 0.000000e+00 0.000000e+00 0.000000e+00 0.000000e+00 0.000000e+00 0.000000e+00 0.000000e+00 0.000000e+00 1.818184e-01 8.181816e-01 0.000000e+00 0.000000e+00
 0.000000e+00 0.000000e+00 0.000000e+00 0.000000e+00 0.000000e+00 0.000000e+00 0.000000e+00 0.000000e+00 0.000000e+00 0.000000e+00 0.000000e+00 4.000002e-01 5.999998e-01 0.000000e+00
 0.000000e+00 0.000000e+00 0.000000e+00 0.000000e+00 0.000000e+00 0.000000e+00 0.000000e+00 0.000000e+00 0.000000e+00 0.000000e+00 0.000000e+00 0.000000e+00 8.731148e-01 1.268852e-01
 0.000000e+00 0.000000e+00 0.000000e+00 0.000000e+00 0.000000e+00 0.000000e+00 0.000000e+00 0.000000e+00 0.000000e+00 0.000000e+00 0.000000e+00 0.000000e+00 0.000000e+00 0.000000e+00
<ENDHMM>
~h "j"
<BEGINHMM>
<NUMSTATES> 14
<STATE> 2
<MEAN> 20
 8.232018e+03 0.000000e+00 0.000000e+00 0.000000e+00 0.000000e+00 0.000000e+00 0.000000e+00 0.000000e+00 0.000000e+00 4.076781e+02 0.000000e+00 1.188187e+03 6.412228e+03 6.414818e+02 2.598706e+02 8.586380e+01 3.448712e+01 1.728841e+01 2.894583e-01 0.000000e+00
<VARIANCE> 20
 5.375363e+06 1.000000e-02 1.000000e-02 1.000000e-02 1.000000e-02 1.000000e-02 1.000000e-02 1.000000e-02 1.000000e-02 1.319420e+05 1.000000e-02 9.651844e+05 6.507004e+06 2.480914e+05 4.063101e+05 3.337290e+04 3.290013e+03 1.334566e+03 1.100356e+00 1.000000e-02
<GCONST> 9.860431e+01
<STATE> 3
<MEAN> 20
 1.028368e+04 5.003867e+01 4.000039e-01 0.000000e+00 0.000000e+00 0.000000e+00 0.000000e+00 0.000000e+00 0.000000e+00 2.499720e+02 6.500060e-01 1.146903e+03 8.291430e+03 9.224271e+02 1.127260e+02 6.878316e+01 2.867104e+01 1.160003e+01 8.999922e-01 0.000000e+00
<VARIANCE> 20
 8.121669e+06 3.195025e+04 3.040029e+00 1.000000e-02 1.000000e-02 1.000000e-02 1.000000e-02 1.000000e-02 1.000000e-02 7.260209e+04 4.027535e+00 1.069478e+06 4.707973e+06 8.092202e+05 7.132029e+04 4.455779e+04 8.031642e+03 1.209323e+03 6.489977e+00 1.000000e-02
<GCONST> 1.271911e+02
<STATE> 4
<MEAN> 20
 1.017313e+04 1.753729e+00 0.000000e+00 0.000000e+00 0.000000e+00 0.000000e+00 0.000000e+00 0.000000e+00 0.000000e+00 2.267451e+02 0.000000e+00 1.130699e+03 8.518113e+03 6.766723e+02 5.553186e+01 1.507388e+01 4.247355e+00 1.290752e+00 0.000000e+00 0.000000e+00
<VARIANCE> 20
 2.927073e+06 7.203304e+01 1.000000e-02 1.000000e-02 1.000000e-02 1.000000e-02 1.000000e-02 1.000000e-02 1.000000e-02 5.716512e+04 1.000000e-02 7.112732e+05 2.930179e+06 2.004551e+05 2.297948e+03 3.615130e+02 8.859345e+01 2.689707e+01 1.000000e-02 1.000000e-02
<GCONST> 8.280604e+01
<STATE> 5
<MEAN> 20
 9.219844e+03 0.000000e+00 0.000000e+00 0.000000e+00 0.000000e+00 0.000000e+00 0.000000e+00 0.000000e+00 0.000000e+00 1.587114e+02 1.497281e-01 9.004052e+02 7.692146e+03 7.461602e+02 3.705920e+01 2.634117e+00 0.000000e+00 0.000000e+00 0.000000e+00 0.000000e+00
<VARIANCE> 20
 2.834399e+06 1.000000e-02 1.000000e-02 1.000000e-02 1.000000e-02 1.000000e-02 1.000000e-02 1.000000e-02 1.000000e-02 3.091962e+04 4.267659e-01 9.527062e+05 1.904372e+06 3.219848e+05 1.354776e+03 4.192880e+01 1.000000e-02 1.000000e-02 1.000000e-02 1.000000e-02
<GCONST> 5.769680e+01
<STATE> 6
<MEAN> 20
 9.196765e+03 0.000000e+00 0.000000e+00 0.000000e+00 0.000000e+00 0.000000e+00 0.000000e+00 0.000000e+00 0.000000e+00 2.450063e+02 0.000000e+00 9.805128e+02 7.760479e+03 6.448851e+02 4.933381e+01 6.289915e+00 2.542796e-01 3.096187e-03 3.096187e-03 9.288555e-03
<VARIANCE> 20
 2.064528e+06 1.000000e-02 1.000000e-02 1.000000e-02 1.000000e-02 1.000000e-02 1.000000e-02 1.000000e-02 1.000000e-02 4.878795e+04 1.000000e-02 6.255874e+05 1.257331e+06 2.099477e+05 3.018039e+03 1.569326e+02 1.709198e+00 1.000000e-02 1.000000e-02 2.777928e-02
<GCONST> 6.110261e+01
<STATE> 7
<MEAN> 20
 1.173100e+04 1.991841e+01 0.000000e+00 0.000000e+00 0.000000e+00 0.000000e+00 0.000000e+00 0.000000e+00 2.001853e-01 5.133012e+02 1.211141e+01 1.685843e+03 9.649894e+03 8.432397e+02 5.550742e+01 1.525764e+01 2.395594e+00 1.668190e-01 0.000000e+00 0.000000e+00
<VARIANCE> 20
 8.144218e+06 2.289445e+03 1.000000e-02 1.000000e-02 1.000000e-02 1.000000e-02 1.000000e-02 1.000000e-02 1.161037e+00 2.008045e+05 2.201791e+03 2.041932e+06 6.641180e+06 4.638449e+05 4.144784e+03 6.183197e+02 2.538867e+01 2.724453e-01 1.000000e-02 1.000000e-02
<GCONST> 1.035976e+02
<STATE> 8
<MEAN> 20
 9.665357e+03 0.000000e+00 0.000000e+00 0.000000e+00 0.000000e+00 0.000000e+00 0.000000e+00 0.000000e+00 0.000000e+00 3.038795e+02 1.186540e-02 9.694698e+02 8.065324e+03 8.275980e+02 8.990994e+01 1.554640e+01 1.354087e+00 2.373078e-02 0.000000e+00 0.000000e+00
<VARIANCE> 20
 1.709902e+06 1.000000e-02 1.000000e-02 1.000000e-02 1.000000e-02 1.000000e-02 1.000000e-02 1.000000e-02 1.000000e-02 1.062314e+05 2.358997e-02 7.681656e+05 1.656200e+06 2.743945e+05 8.179833e+04 6.552433e+02 7.923193e+00 3.503303e-02 1.000000e-02 1.000000e-02
<GCONST> 6.979369e+01
<STATE> 9
<MEAN> 20
 1.072565e+04 2.020265e+00 0.000000e+00 0.000000e+00 0.000000e+00 0.000000e+00 0.000000e+00 0.000000e+00 0.000000e+00 2.423118e+02 0.000000e+00 4.498517e+02 7.897002e+03 2.342775e+03 2.239440e+02 4.592511e+01 9.237502e+00 1.130603e+00 1.112069e-01 0.000000e+00
<VARIANCE> 20
 3.185776e+06 6.392176e+01 1.000000e-02 1.000000e-02 1.000000e-02 1.000000e-02 1.000000e-02 1.000000e-02 1.000000e-02 5.803052e+04 1.000000e-02 2.638386e+05 4.596259e+06 2.042762e+06 1.032165e+05 1.156924e+03 7.855927e+01 3.522169e+00 2.100466e-01 1.000000e-02
<GCONST> 9.042587e+01
<STATE> 10
<MEAN> 20
 9.114195e+03 0.000000e+00 0.000000e+00 0.000000e+00 0.000000e+00 0.000000e+00 0.000000e+00 0.000000e+00 0.000000e+00 1.899409e+02 0.000000e+00 2.990043e+02 6.290679e+03 2.531079e+03 1.601039e+02 2.183990e+01 1.430021e+00 0.000000e+00 0.000000e+00 0.000000e+00
<VARIANCE> 20
 3.159366e+06 1.000000e-02 1.000000e-02 1.000000e-02 1.000000e-02 1.000000e-02 1.000000e-02 1.000000e-02 1.000000e-02 5.184232e+04 1.000000e-02 1.564000e+05 4.576046e+06 2.610122e+06 2.050456e+04 6.100351e+02 1.019579e+01 1.000000e-02 1.000000e-02 1.000000e-02
<GCONST> 6.805265e+01
<STATE> 11
<MEAN> 20
 8.783807e+03 4.135293e+00 0.000000e+00 0.000000e+00 0.000000e+00 0.000000e+00 0.000000e+00 2.702750e-02 8.108249e-02 1.951238e+02 3.513592e-01 2.440883e+02 4.234895e+03 3.928228e+03 5.380194e+02 3.302853e+01 4.017604e+00 4.928114e-01 2.702837e-02 2.702837e-02
<VARIANCE> 20
 1.496685e+07 1.237963e+02 1.000000e-02 1.000000e-02 1.000000e-02 1.000000e-02 1.000000e-02 2.629702e-02 2.366732e-01 6.665984e+04 3.254988e+00 3.691866e+05 1.097709e+07 7.564238e+06 3.179032e+05 1.489896e+03 6.042654e+01 2.965387e+00 2.629784e-02 2.629784e-02
<GCONST> 1.050370e+02
<STATE> 12
<MEAN> 20
 4.806293e+03 6.979015e+01 1.591365e+01 2.607906e+00 2.232684e+01 1.997110e+02 1.593540e+02 4.162134e+01 1.486578e+01 1.327697e+02 3.664721e+02 2.849373e+02 1.855979e+03 1.458062e+03 1.081946e+03 3.446663e+02 6.433990e+01 8.851372e+00 0.000000e+00 0.000000e+00
<VARIANCE> 20
 1.332633e+07 3.280174e+04 1.929374e+03 1.125232e+02 4.816076e+03 9.104258e+05 1.760397e+05 6.937542e+03 1.127344e+03 3.800066e+04 4.035922e+05 2.893137e+05 9.410527e+06 2.437666e+06 1.541658e+06 3.629404e+05 4.621902e+04 1.925818e+03 1.000000e-02 1.000000e-02
<GCONST> 2.289383e+02
<STATE> 13
<MEAN> 20
 9.296775e+03 1.671865e+01 4.798859e-01 3.621778e-02 5.251585e-01 4.833562e+02 1.264660e+02 6.964882e+01 7.589100e+01 6.703090e+02 5.149157e+01 9.315295e+02 6.561726e+03 1.705720e+03 9.418787e+02 4.363692e+02 8.955952e+01 1.613643e+01 5.713358e+00 8.149002e-02
<VARIANCE> 20
 1.720099e+07 3.879232e+03 5.736593e+00 8.923271e-02 8.199167e+00 3.786617e+05 3.706467e+04 4.954771e+03 4.511032e+03 4.777553e+05 3.462462e+04 1.725972e+06 2.173733e+07 1.726844e+06 1.966783e+06 1.609934e+05 8.182788e+04 8.874508e+03 2.424507e+03 2.559381e-01
<GCONST> 2.258647e+02
<TRANSP> 14
 0.000000e+00 1.000000e+00 0.000000e+00 0.000000e+00 0.000000e+00 0.000000e+00 0.000000e+00 0.000000e+00 0.000000e+00 0.000000e+00 0.000000e+00 0.000000e+00 0.000000e+00 0.000000e+00
 0.000000e+00 4.737033e-01 5.262967e-01 0.000000e+00 0.000000e+00 0.000000e+00 0.000000e+00 0.000000e+00 0.000000e+00 0.000000e+00 0.000000e+00 0.000000e+00 0.000000e+00 0.000000e+00
 0.000000e+00 0.000000e+00 0.000000e+00 1.000000e+00 0.000000e+00 0.000000e+00 0.000000e+00 0.000000e+00 0.000000e+00 0.000000e+00 0.000000e+00 0.000000e+00 0.000000e+00 0.000000e+00
 0.000000e+00 0.000000e+00 0.000000e+00 5.836187e-01 4.163813e-01 0.000000e+00 0.000000e+00 0.000000e+00 0.000000e+00 0.000000e+00 0.000000e+00 0.000000e+00 0.000000e+00 0.000000e+00
 0.000000e+00 0.000000e+00 0.000000e+00 0.000000e+00 0.000000e+00 1.000000e+00 0.000000e+00 0.000000e+00 0.000000e+00 0.000000e+00 0.000000e+00 0.000000e+00 0.000000e+00 0.000000e+00
 0.000000e+00 0.000000e+00 0.000000e+00 0.000000e+00 0.000000e+00 9.380748e-01 6.192515e-02 0.000000e+00 0.000000e+00 0.000000e+00 0.000000e+00 0.000000e+00 0.000000e+00 0.000000e+00
 0.000000e+00 0.000000e+00 0.000000e+00 0.000000e+00 0.000000e+00 0.000000e+00 3.327219e-01 6.672781e-01 0.000000e+00 0.000000e+00 0.000000e+00 0.000000e+00 0.000000e+00 0.000000e+00
 0.000000e+00 0.000000e+00 0.000000e+00 0.000000e+00 0.000000e+00 0.000000e+00 0.000000e+00 8.813434e-01 1.186566e-01 0.000000e+00 0.000000e+00 0.000000e+00 0.000000e+00 0.000000e+00
 0.000000e+00 0.000000e+00 0.000000e+00 0.000000e+00 0.000000e+00 0.000000e+00 0.000000e+00 0.000000e+00 6.293153e-01 3.706847e-01 0.000000e+00 0.000000e+00 0.000000e+00 0.000000e+00
 0.000000e+00 0.000000e+00 0.000000e+00 0.000000e+00 0.000000e+00 0.000000e+00 0.000000e+00 0.000000e+00 0.000000e+00 8.802566e-01 1.197434e-01 0.000000e+00 0.000000e+00 0.000000e+00
 0.000000e+00 0.000000e+00 0.000000e+00 0.000000e+00 0.000000e+00 0.000000e+00 0.000000e+00 0.000000e+00 0.000000e+00 0.000000e+00 4.594388e-01 5.405613e-01 0.000000e+00 0.000000e+00
 0.000000e+00 0.000000e+00 0.000000e+00 0.000000e+00 0.000000e+00 0.000000e+00 0.000000e+00 0.000000e+00 0.000000e+00 0.000000e+00 0.000000e+00 4.677691e-01 5.322309e-01 0.000000e+00
 0.000000e+00 0.000000e+00 0.000000e+00 0.000000e+00 0.000000e+00 0.000000e+00 0.000000e+00 0.000000e+00 0.000000e+00 0.000000e+00 0.000000e+00 0.000000e+00 8.189123e-01 1.810877e-01
 0.000000e+00 0.000000e+00 0.000000e+00 0.000000e+00 0.000000e+00 0.000000e+00 0.000000e+00 0.000000e+00 0.000000e+00 0.000000e+00 0.000000e+00 0.000000e+00 0.000000e+00 0.000000e+00
<ENDHMM>
~h "sil"
<BEGINHMM>
<NUMSTATES> 14
<STATE> 2
<MEAN> 20
 8.787401e+03 4.382328e-02 0.000000e+00 0.000000e+00 0.000000e+00 0.000000e+00 0.000000e+00 0.000000e+00 0.000000e+00 5.851036e+01 0.000000e+00 2.354335e+01 2.800105e+03 4.529267e+03 1.290042e+03 1.408560e+02 3.914251e+01 1.665252e+01 5.645393e+00 7.011724e-01
<VARIANCE> 20
 3.449179e+06 4.190279e-02 1.000000e-02 1.000000e-02 1.000000e-02 1.000000e-02 1.000000e-02 1.000000e-02 1.000000e-02 4.140191e+03 1.000000e-02 4.260718e+03 5.528190e+06 3.433852e+06 8.267515e+05 8.057830e+03 6.893116e+02 1.171474e+02 3.373191e+01 2.225400e+00
<GCONST> 9.729485e+01
<STATE> 3
<MEAN> 20
 8.471425e+03 0.000000e+00 0.000000e+00 0.000000e+00 0.000000e+00 0.000000e+00 0.000000e+00 0.000000e+00 0.000000e+00 2.077023e+01 0.000000e+00 3.495792e+01 3.498999e+03 3.929794e+03 9.055989e+02 8.024226e+01 3.133410e+01 9.981313e+00 1.175703e+00 1.126285e-01
<VARIANCE> 20
 5.427211e+06 1.000000e-02 1.000000e-02 1.000000e-02 1.000000e-02 1.000000e-02 1.000000e-02 1.000000e-02 1.000000e-02 6.711447e+02 1.000000e-02 5.649227e+03 6.409848e+06 3.036953e+06 8.069904e+05 1.983048e+03 5.010727e+02 7.837211e+01 3.223779e+00 9.994332e-02
<GCONST> 8.720499e+01
<STATE> 4
<MEAN> 20
 8.119978e+03 0.000000e+00 0.000000e+00 0.000000e+00 0.000000e+00 0.000000e+00 0.000000e+00 0.000000e+00 0.000000e+00 2.540521e+01 0.000000e+00 0.000000e+00 4.208648e+03 3.443247e+03 4.040013e+02 6.241896e+01 2.145951e+01 5.218917e+00 3.883770e-01 0.000000e+00
<VARIANCE> 20
 1.921133e+06 1.000000e-02 1.000000e-02 1.000000e-02 1.000000e-02 1.000000e-02 1.000000e-02 1.000000e-02 1.000000e-02 2.132377e+03 1.000000e-02 1.000000e-02 1.821354e+06 1.002317e+06 1.453851e+05 6.670442e+02 1.232556e+02 2.600942e+01 5.680119e-01 1.000000e-02
<GCONST> 6.236411e+01
<STATE> 5
<MEAN> 20
 8.927229e+03 0.000000e+00 0.000000e+00 0.000000e+00 0.000000e+00 0.000000e+00 0.000000e+00 0.000000e+00 0.000000e+00 4.687285e+01 0.000000e+00 3.849268e+01 5.856952e+03 2.733241e+03 2.739428e+02 5.769157e+01 1.193813e+01 1.811517e+00 3.121557e-02 0.000000e+00
<VARIANCE> 20
 3.582733e+06 1.000000e-02 1.000000e-02 1.000000e-02 1.000000e-02 1.000000e-02 1.000000e-02 1.000000e-02 1.000000e-02 3.178448e+03 1.000000e-02 3.454349e+03 3.345172e+06 8.715421e+05 2.392572e+05 7.423431e+03 8.011832e+01 6.959438e+00 3.024115e-02 1.000000e-02
<GCONST> 7.483280e+01
<STATE> 6
<MEAN> 20
 8.053982e+03 2.483282e+01 0.000000e+00 0.000000e+00 0.000000e+00 0.000000e+00 0.000000e+00 0.000000e+00 0.000000e+00 3.665611e+01 0.000000e+00 6.367369e+01 5.465830e+03 2.334751e+03 1.960226e+02 4.261109e+01 1.083301e+01 1.749587e+00 0.000000e+00 0.000000e+00
<VARIANCE> 20
 4.916494e+06 6.394847e+03 1.000000e-02 1.000000e-02 1.000000e-02 1.000000e-02 1.000000e-02 1.000000e-02 1.000000e-02 2.228336e+03 1.000000e-02 1.341096e+04 3.915565e+06 1.349989e+06 4.386656e+04 2.012849e+03 2.106347e+02 1.285478e+01 1.000000e-02 1.000000e-02
<GCONST> 8.758617e+01
<STATE> 7
<MEAN> 20
 8.454948e+03 0.000000e+00 0.000000e+00 0.000000e+00 0.000000e+00 0.000000e+00 0.000000e+00 0.000000e+00 0.000000e+00 4.275600e+01 0.000000e+00 1.495252e+02 5.806847e+03 2.390897e+03 1.177715e+02 2.986583e+01 2.797676e+00 -8.509703e-12 0.000000e+00 0.000000e+00
<VARIANCE> 20
 1.670546e+06 1.000000e-02 1.000000e-02 1.000000e-02 1.000000e-02 1.000000e-02 1.000000e-02 1.000000e-02 1.000000e-02 2.142790e+03 1.000000e-02 5.485305e+04 2.011878e+06 8.330282e+05 3.453022e+03 4.520812e+02 1.294482e+01 1.000000e-02 1.000000e-02 1.000000e-02
<GCONST> 5.937540e+01
<STATE> 8
<MEAN> 20
 9.767546e+03 0.000000e+00 0.000000e+00 0.000000e+00 0.000000e+00 0.000000e+00 0.000000e+00 0.000000e+00 0.000000e+00 2.142296e+02 0.000000e+00 4.526243e+02 7.028769e+03 2.347610e+03 1.183156e+02 2.998523e+01 4.158737e+00 2.960628e-01 1.742133e-02 0.000000e+00
<VARIANCE> 20
 2.122736e+06 1.000000e-02 1.000000e-02 1.000000e-02 1.000000e-02 1.000000e-02 1.000000e-02 1.000000e-02 1.000000e-02 2.715913e+04 1.000000e-02 2.015902e+05 1.210077e+06 5.356866e+05 2.075756e+03 2.985060e+02 2.630845e+01 7.310702e-01 1.711784e-02 1.000000e-02
<GCONST> 6.712089e+01
<STATE> 9
<MEAN> 20
 9.824775e+03 4.030482e-02 0.000000e+00 0.000000e+00 0.000000e+00 0.000000e+00 0.000000e+00 0.000000e+00 0.000000e+00 3.696642e+02 0.000000e+00 1.544938e+03 8.085403e+03 5.093571e+02 4.618448e+01 8.016118e+00 4.933650e-01 5.643110e-02 2.418296e-02 8.060827e-03
<VARIANCE> 20
