~o
<STREAMINFO> 1 1
<VECSIZE> 1<NULLD><USER><DIAGC>
~h "a"
<BEGINHMM>
<NUMSTATES> 8
<STATE> 2
<MEAN> 1
 -9.486012e-01
<VARIANCE> 1
 4.541376e-01
<GCONST> 1.048522e+00
<STATE> 3
<MEAN> 1
 3.008132e-01
<VARIANCE> 1
 2.127950e-01
<GCONST> 2.904510e-01
<STATE> 4
<MEAN> 1
 1.383916e-01
<VARIANCE> 1
 5.998541e-02
<GCONST> -9.757769e-01
<STATE> 5
<MEAN> 1
 1.528782e+00
<VARIANCE> 1
 3.014251e-01
<GCONST> 6.386433e-01
<STATE> 6
<MEAN> 1
 3.403681e+00
<VARIANCE> 1
 4.587428e-01
<GCONST> 1.058612e+00
<STATE> 7
<MEAN> 1
 7.768021e+00
<VARIANCE> 1
 3.224485e+00
<GCONST> 3.008650e+00
<TRANSP> 8
 0.000000e+00 1.000000e+00 0.000000e+00 0.000000e+00 0.000000e+00 0.000000e+00 0.000000e+00 0.000000e+00
 0.000000e+00 9.108001e-01 8.919991e-02 0.000000e+00 0.000000e+00 0.000000e+00 0.000000e+00 0.000000e+00
 0.000000e+00 0.000000e+00 7.154477e-02 9.284552e-01 0.000000e+00 0.000000e+00 0.000000e+00 0.000000e+00
 0.000000e+00 0.000000e+00 0.000000e+00 9.628181e-01 3.718186e-02 0.000000e+00 0.000000e+00 0.000000e+00
 0.000000e+00 0.000000e+00 0.000000e+00 0.000000e+00 9.804767e-01 1.952331e-02 0.000000e+00 0.000000e+00
 0.000000e+00 0.000000e+00 0.000000e+00 0.000000e+00 0.000000e+00 9.793172e-01 2.068280e-02 0.000000e+00
 0.000000e+00 0.000000e+00 0.000000e+00 0.000000e+00 0.000000e+00 0.000000e+00 9.898011e-01 1.019890e-02
 0.000000e+00 0.000000e+00 0.000000e+00 0.000000e+00 0.000000e+00 0.000000e+00 0.000000e+00 0.000000e+00
<ENDHMM>
~h "e"
<BEGINHMM>
<NUMSTATES> 8
<STATE> 2
<MEAN> 1
 2.840682e+00
<VARIANCE> 1
 2.048073e+00
<GCONST> 2.554776e+00
<STATE> 3
<MEAN> 1
 7.214408e+00
<VARIANCE> 1
 1.253980e+01
<GCONST> 4.366785e+00
<STATE> 4
<MEAN> 1
 -1.054644e-03
<VARIANCE> 1
 3.156543e-02
<GCONST> -1.617816e+00
<STATE> 5
<MEAN> 1
 -8.389259e-01
<VARIANCE> 1
 8.591563e-02
<GCONST> -6.165125e-01
<STATE> 6
<MEAN> 1
 -2.145135e+00
<VARIANCE> 1
 2.133626e-01
<GCONST> 2.931149e-01
<STATE> 7
<MEAN> 1
 -3.961489e+00
<VARIANCE> 1
 3.148824e-01
<GCONST> 6.823208e-01
<TRANSP> 8
 0.000000e+00 1.000000e+00 0.000000e+00 0.000000e+00 0.000000e+00 0.000000e+00 0.000000e+00 0.000000e+00
 0.000000e+00 9.798300e-01 2.016999e-02 0.000000e+00 0.000000e+00 0.000000e+00 0.000000e+00 0.000000e+00
 0.000000e+00 0.000000e+00 9.540362e-01 4.596381e-02 0.000000e+00 0.000000e+00 0.000000e+00 0.000000e+00
 0.000000e+00 0.000000e+00 0.000000e+00 9.824969e-01 1.750317e-02 0.000000e+00 0.000000e+00 0.000000e+00
 0.000000e+00 0.000000e+00 0.000000e+00 0.000000e+00 9.610402e-01 3.895982e-02 0.000000e+00 0.000000e+00
 0.000000e+00 0.000000e+00 0.000000e+00 0.000000e+00 0.000000e+00 9.748562e-01 2.514374e-02 0.000000e+00
 0.000000e+00 0.000000e+00 0.000000e+00 0.000000e+00 0.000000e+00 0.000000e+00 9.678425e-01 3.215751e-02
 0.000000e+00 0.000000e+00 0.000000e+00 0.000000e+00 0.000000e+00 0.000000e+00 0.000000e+00 0.000000e+00
<ENDHMM>
~h "i"
<BEGINHMM>
<NUMSTATES> 8
<STATE> 2
<MEAN> 1
 -5.659222e+00
<VARIANCE> 1
 3.530173e-01
<GCONST> 7.966388e-01
<STATE> 3
<MEAN> 1
 -5.398725e+00
<VARIANCE> 1
 2.536345e+00
<GCONST> 2.768601e+00
<STATE> 4
<MEAN> 1
 -7.980095e+00
<VARIANCE> 1
 1.008065e+00
<GCONST> 1.845910e+00
<STATE> 5
<MEAN> 1
 -5.023520e+00
<VARIANCE> 1
 2.440567e+00
<GCONST> 2.730107e+00
<STATE> 6
<MEAN> 1
 -5.860203e+00
<VARIANCE> 1
 5.429828e-01
<GCONST> 1.227199e+00
<STATE> 7
<MEAN> 1
 -3.482952e+00
<VARIANCE> 1
 4.490913e-01
<GCONST> 1.037348e+00
<TRANSP> 8
 0.000000e+00 1.000000e+00 0.000000e+00 0.000000e+00 0.000000e+00 0.000000e+00 0.000000e+00 0.000000e+00
 0.000000e+00 9.627132e-01 3.728677e-02 0.000000e+00 0.000000e+00 0.000000e+00 0.000000e+00 0.000000e+00
 0.000000e+00 0.000000e+00 0.000000e+00 1.000000e+00 0.000000e+00 0.000000e+00 0.000000e+00 0.000000e+00
 0.000000e+00 0.000000e+00 0.000000e+00 9.843453e-01 1.565462e-02 0.000000e+00 0.000000e+00 0.000000e+00
 0.000000e+00 0.000000e+00 0.000000e+00 0.000000e+00 4.945675e-01 5.054325e-01 0.000000e+00 0.000000e+00
 0.000000e+00 0.000000e+00 0.000000e+00 0.000000e+00 0.000000e+00 9.699076e-01 3.009242e-02 0.000000e+00
 0.000000e+00 0.000000e+00 0.000000e+00 0.000000e+00 0.000000e+00 0.000000e+00 9.647833e-01 3.521670e-02
 0.000000e+00 0.000000e+00 0.000000e+00 0.000000e+00 0.000000e+00 0.000000e+00 0.000000e+00 0.000000e+00
<ENDHMM>
~h "m"
<BEGINHMM>
<NUMSTATES> 8
<STATE> 2
<MEAN> 1
 -1.345403e+00
<VARIANCE> 1
 3.514628e-01
<GCONST> 7.922256e-01
<STATE> 3
<MEAN> 1
 -7.022720e-03
<VARIANCE> 1
 1.000000e-02
<GCONST> -2.767293e+00
<STATE> 4
<MEAN> 1
 -2.407824e-02
<VARIANCE> 1
 3.052619e-02
<GCONST> -1.651293e+00
<STATE> 5
<MEAN> 1
 2.640918e-02
<VARIANCE> 1
 2.606029e-02
<GCONST> -1.809465e+00
<STATE> 6
<MEAN> 1
 7.660295e-02
<VARIANCE> 1
 2.531563e-02
<GCONST> -1.838456e+00
<STATE> 7
<MEAN> 1
 -1.234206e-01
<VARIANCE> 1
 1.252545e-01
<GCONST> -2.395308e-01
<TRANSP> 8
 0.000000e+00 1.000000e+00 0.000000e+00 0.000000e+00 0.000000e+00 0.000000e+00 0.000000e+00 0.000000e+00
 0.000000e+00 9.637592e-01 3.624085e-02 0.000000e+00 0.000000e+00 0.000000e+00 0.000000e+00 0.000000e+00
 0.000000e+00 0.000000e+00 9.785115e-01 2.148856e-02 0.000000e+00 0.000000e+00 0.000000e+00 0.000000e+00
 0.000000e+00 0.000000e+00 0.000000e+00 0.000000e+00 1.000000e+00 0.000000e+00 0.000000e+00 0.000000e+00
 0.000000e+00 0.000000e+00 0.000000e+00 0.000000e+00 0.000000e+00 1.000000e+00 0.000000e+00 0.000000e+00
 0.000000e+00 0.000000e+00 0.000000e+00 0.000000e+00 0.000000e+00 0.000000e+00 1.000000e+00 0.000000e+00
 0.000000e+00 0.000000e+00 0.000000e+00 0.000000e+00 0.000000e+00 0.000000e+00 7.074028e-01 2.925971e-01
 0.000000e+00 0.000000e+00 0.000000e+00 0.000000e+00 0.000000e+00 0.000000e+00 0.000000e+00 0.000000e+00
<ENDHMM>
~h "sil"
<BEGINHMM>
<NUMSTATES> 8
<STATE> 2
<MEAN> 1
 2.653938e-01
<VARIANCE> 1
 2.080992e+00
<GCONST> 2.570722e+00
<STATE> 3
<MEAN> 1
 -3.334818e+00
<VARIANCE> 1
 1.026438e+00
<GCONST> 1.863971e+00
<STATE> 4
<MEAN> 1
 3.029365e-01
<VARIANCE> 1
 4.241513e+00
<GCONST> 3.282797e+00
<STATE> 5
<MEAN> 1
 9.203284e+00
<VARIANCE> 1
 1.030427e+01
<GCONST> 4.170435e+00
<STATE> 6
<MEAN> 1
 1.459885e+00
<VARIANCE> 1
 1.071815e+00
<GCONST> 1.907231e+00
<STATE> 7
<MEAN> 1
 1.811298e-01
<VARIANCE> 1
 1.476800e+00
<GCONST> 2.227755e+00
<TRANSP> 8
 0.000000e+00 1.000000e+00 0.000000e+00 0.000000e+00 0.000000e+00 0.000000e+00 0.000000e+00 0.000000e+00
 0.000000e+00 9.630979e-01 3.690215e-02 0.000000e+00 0.000000e+00 0.000000e+00 0.000000e+00 0.000000e+00
 0.000000e+00 0.000000e+00 9.786229e-01 2.137713e-02 0.000000e+00 0.000000e+00 0.000000e+00 0.000000e+00
 0.000000e+00 0.000000e+00 0.000000e+00 0.000000e+00 1.000000e+00 0.000000e+00 0.000000e+00 0.000000e+00
 0.000000e+00 0.000000e+00 0.000000e+00 0.000000e+00 9.413676e-01 5.863243e-02 0.000000e+00 0.000000e+00
 0.000000e+00 0.000000e+00 0.000000e+00 0.000000e+00 0.000000e+00 9.391353e-01 6.086466e-02 0.000000e+00
 0.000000e+00 0.000000e+00 0.000000e+00 0.000000e+00 0.000000e+00 0.000000e+00 0.000000e+00 1.000000e+00
 0.000000e+00 0.000000e+00 0.000000e+00 0.000000e+00 0.000000e+00 0.000000e+00 0.000000e+00 0.000000e+00
<ENDHMM>
