~o
<STREAMINFO> 1 1
<VECSIZE> 1<NULLD><USER><DIAGC>
~h "a"
<BEGINHMM>
<NUMSTATES> 8
<STATE> 2
<MEAN> 1
 3.282853e+00
<VARIANCE> 1
 2.606905e+00
<GCONST> 2.796041e+00
<STATE> 3
<MEAN> 1
 9.284053e+00
<VARIANCE> 1
 2.805415e+00
<GCONST> 2.869429e+00
<STATE> 4
<MEAN> 1
 5.381731e+00
<VARIANCE> 1
 1.645632e+00
<GCONST> 2.336002e+00
<STATE> 5
<MEAN> 1
 2.182400e+00
<VARIANCE> 1
 2.621079e-01
<GCONST> 4.988779e-01
<STATE> 6
<MEAN> 1
 3.175680e+00
<VARIANCE> 1
 7.270969e-01
<GCONST> 1.519181e+00
<STATE> 7
<MEAN> 1
 8.209425e-01
<VARIANCE> 1
 1.503226e-01
<GCONST> -5.709434e-02
<TRANSP> 8
 0.000000e+00 1.000000e+00 0.000000e+00 0.000000e+00 0.000000e+00 0.000000e+00 0.000000e+00 0.000000e+00
 0.000000e+00 9.518827e-01 4.811733e-02 0.000000e+00 0.000000e+00 0.000000e+00 0.000000e+00 0.000000e+00
 0.000000e+00 0.000000e+00 9.829074e-01 1.709265e-02 0.000000e+00 0.000000e+00 0.000000e+00 0.000000e+00
 0.000000e+00 0.000000e+00 0.000000e+00 9.737926e-01 2.620741e-02 0.000000e+00 0.000000e+00 0.000000e+00
 0.000000e+00 0.000000e+00 0.000000e+00 0.000000e+00 9.473909e-01 5.260906e-02 0.000000e+00 0.000000e+00
 0.000000e+00 0.000000e+00 0.000000e+00 0.000000e+00 0.000000e+00 9.167684e-01 8.323156e-02 0.000000e+00
 0.000000e+00 0.000000e+00 0.000000e+00 0.000000e+00 0.000000e+00 0.000000e+00 9.322059e-01 6.779410e-02
 0.000000e+00 0.000000e+00 0.000000e+00 0.000000e+00 0.000000e+00 0.000000e+00 0.000000e+00 0.000000e+00
<ENDHMM>
~h "e"
<BEGINHMM>
<NUMSTATES> 8
<STATE> 2
<MEAN> 1
 -1.653268e-03
<VARIANCE> 1
 1.000000e-02
<GCONST> -2.767293e+00
<STATE> 3
<MEAN> 1
 5.582669e+00
<VARIANCE> 1
 1.673852e+01
<GCONST> 4.655590e+00
<STATE> 4
<MEAN> 1
 -8.836879e-01
<VARIANCE> 1
 1.911670e-01
<GCONST> 1.832693e-01
<STATE> 5
<MEAN> 1
 -1.745066e+00
<VARIANCE> 1
 3.403768e-02
<GCONST> -1.542410e+00
<STATE> 6
<MEAN> 1
 -2.910990e+00
<VARIANCE> 1
 6.060110e-01
<GCONST> 1.337020e+00
<STATE> 7
<MEAN> 1
 -5.758215e+00
<VARIANCE> 1
 6.298020e-01
<GCONST> 1.375527e+00
<TRANSP> 8
 0.000000e+00 1.000000e+00 0.000000e+00 0.000000e+00 0.000000e+00 0.000000e+00 0.000000e+00 0.000000e+00
 0.000000e+00 9.930934e-01 6.906664e-03 0.000000e+00 0.000000e+00 0.000000e+00 0.000000e+00 0.000000e+00
 0.000000e+00 0.000000e+00 8.757767e-01 1.242232e-01 0.000000e+00 0.000000e+00 0.000000e+00 0.000000e+00
 0.000000e+00 0.000000e+00 0.000000e+00 9.669032e-01 3.309685e-02 0.000000e+00 0.000000e+00 0.000000e+00
 0.000000e+00 0.000000e+00 0.000000e+00 0.000000e+00 0.000000e+00 1.000000e+00 0.000000e+00 0.000000e+00
 0.000000e+00 0.000000e+00 0.000000e+00 0.000000e+00 0.000000e+00 9.697981e-01 3.020185e-02 0.000000e+00
 0.000000e+00 0.000000e+00 0.000000e+00 0.000000e+00 0.000000e+00 0.000000e+00 9.694046e-01 3.059544e-02
 0.000000e+00 0.000000e+00 0.000000e+00 0.000000e+00 0.000000e+00 0.000000e+00 0.000000e+00 0.000000e+00
<ENDHMM>
~h "i"
<BEGINHMM>
<NUMSTATES> 8
<STATE> 2
<MEAN> 1
 -7.278135e+00
<VARIANCE> 1
 3.585519e+00
<GCONST> 3.114780e+00
<STATE> 3
<MEAN> 1
 -9.855329e+00
<VARIANCE> 1
 9.866076e-01
<GCONST> 1.824394e+00
<STATE> 4
<MEAN> 1
 -7.425431e+00
<VARIANCE> 1
 7.767627e-01
<GCONST> 1.585257e+00
<STATE> 5
<MEAN> 1
 -4.358025e+00
<VARIANCE> 1
 5.001295e-01
<GCONST> 1.144989e+00
<STATE> 6
<MEAN> 1
 -2.296522e+00
<VARIANCE> 1
 2.253270e-01
<GCONST> 3.476744e-01
<STATE> 7
<MEAN> 1
 -1.010983e+00
<VARIANCE> 1
 7.819790e-02
<GCONST> -7.106354e-01
<TRANSP> 8
 0.000000e+00 1.000000e+00 0.000000e+00 0.000000e+00 0.000000e+00 0.000000e+00 0.000000e+00 0.000000e+00
 0.000000e+00 9.189265e-01 8.107349e-02 0.000000e+00 0.000000e+00 0.000000e+00 0.000000e+00 0.000000e+00
 0.000000e+00 0.000000e+00 9.830478e-01 1.695219e-02 0.000000e+00 0.000000e+00 0.000000e+00 0.000000e+00
 0.000000e+00 0.000000e+00 0.000000e+00 9.766733e-01 2.332665e-02 0.000000e+00 0.000000e+00 0.000000e+00
 0.000000e+00 0.000000e+00 0.000000e+00 0.000000e+00 9.518449e-01 4.815509e-02 0.000000e+00 0.000000e+00
 0.000000e+00 0.000000e+00 0.000000e+00 0.000000e+00 0.000000e+00 9.342442e-01 6.575580e-02 0.000000e+00
 0.000000e+00 0.000000e+00 0.000000e+00 0.000000e+00 0.000000e+00 0.000000e+00 8.775337e-01 1.224663e-01
 0.000000e+00 0.000000e+00 0.000000e+00 0.000000e+00 0.000000e+00 0.000000e+00 0.000000e+00 0.000000e+00
<ENDHMM>
~h "m"
<BEGINHMM>
<NUMSTATES> 8
<STATE> 2
<MEAN> 1
 -3.400484e-01
<VARIANCE> 1
 1.515426e-02
<GCONST> -2.351597e+00
<STATE> 3
<MEAN> 1
 1.569625e-03
<VARIANCE> 1
 1.000000e-02
<GCONST> -2.767293e+00
<STATE> 4
<MEAN> 1
 7.316987e-01
<VARIANCE> 1
 1.138210e-01
<GCONST> -3.352516e-01
<STATE> 5
<MEAN> 1
 1.754661e+00
<VARIANCE> 1
 1.216448e-01
<GCONST> -2.687731e-01
<STATE> 6
<MEAN> 1
 3.206046e+00
<VARIANCE> 1
 3.591032e-01
<GCONST> 8.137317e-01
<STATE> 7
<MEAN> 1
 6.524088e+00
<VARIANCE> 1
 2.331808e+00
<GCONST> 2.684521e+00
<TRANSP> 8
 0.000000e+00 1.000000e+00 0.000000e+00 0.000000e+00 0.000000e+00 0.000000e+00 0.000000e+00 0.000000e+00
 0.000000e+00 7.045020e-01 2.954980e-01 0.000000e+00 0.000000e+00 0.000000e+00 0.000000e+00 0.000000e+00
 0.000000e+00 0.000000e+00 9.931982e-01 6.801801e-03 0.000000e+00 0.000000e+00 0.000000e+00 0.000000e+00
 0.000000e+00 0.000000e+00 0.000000e+00 9.528051e-01 4.719493e-02 0.000000e+00 0.000000e+00 0.000000e+00
 0.000000e+00 0.000000e+00 0.000000e+00 0.000000e+00 9.346374e-01 6.536260e-02 0.000000e+00 0.000000e+00
 0.000000e+00 0.000000e+00 0.000000e+00 0.000000e+00 0.000000e+00 9.534949e-01 4.650516e-02 0.000000e+00
 0.000000e+00 0.000000e+00 0.000000e+00 0.000000e+00 0.000000e+00 0.000000e+00 9.583289e-01 4.167113e-02
 0.000000e+00 0.000000e+00 0.000000e+00 0.000000e+00 0.000000e+00 0.000000e+00 0.000000e+00 0.000000e+00
<ENDHMM>
~h "sil"
<BEGINHMM>
<NUMSTATES> 8
<STATE> 2
<MEAN> 1
 -2.896600e+00
<VARIANCE> 1
 3.026280e+00
<GCONST> 2.945211e+00
<STATE> 3
<MEAN> 1
 3.070546e+00
<VARIANCE> 1
 1.582375e+01
<GCONST> 4.599389e+00
<STATE> 4
<MEAN> 1
 1.071814e+01
<VARIANCE> 1
 4.598253e+00
<GCONST> 3.363554e+00
<STATE> 5
<MEAN> 1
 6.044467e+00
<VARIANCE> 1
 4.093070e+00
<GCONST> 3.247172e+00
<STATE> 6
<MEAN> 1
 2.385655e+00
<VARIANCE> 1
 5.070520e+00
<GCONST> 3.461320e+00
<STATE> 7
<MEAN> 1
 1.473481e-01
<VARIANCE> 1
 9.466484e-01
<GCONST> 1.783049e+00
<TRANSP> 8
 0.000000e+00 1.000000e+00 0.000000e+00 0.000000e+00 0.000000e+00 0.000000e+00 0.000000e+00 0.000000e+00
 0.000000e+00 9.689778e-01 3.102221e-02 0.000000e+00 0.000000e+00 0.000000e+00 0.000000e+00 0.000000e+00
 0.000000e+00 0.000000e+00 0.000000e+00 1.000000e+00 0.000000e+00 0.000000e+00 0.000000e+00 0.000000e+00
 0.000000e+00 0.000000e+00 0.000000e+00 9.776269e-01 2.237315e-02 0.000000e+00 0.000000e+00 0.000000e+00
 0.000000e+00 0.000000e+00 0.000000e+00 0.000000e+00 9.106764e-01 8.932366e-02 0.000000e+00 0.000000e+00
 0.000000e+00 0.000000e+00 0.000000e+00 0.000000e+00 0.000000e+00 4.416275e-01 5.583725e-01 0.000000e+00
 0.000000e+00 0.000000e+00 0.000000e+00 0.000000e+00 0.000000e+00 0.000000e+00 9.641438e-01 3.585628e-02
 0.000000e+00 0.000000e+00 0.000000e+00 0.000000e+00 0.000000e+00 0.000000e+00 0.000000e+00 0.000000e+00
<ENDHMM>
