~o
<STREAMINFO> 1 20
<VECSIZE> 20<NULLD><USER><DIAGC>
~h "a"
<BEGINHMM>
<NUMSTATES> 14
<STATE> 2
<MEAN> 20
 4.358806e+03 4.015738e+00 0.000000e+00 0.000000e+00 0.000000e+00 0.000000e+00 0.000000e+00 0.000000e+00 0.000000e+00 3.510950e+01 1.917730e+01 7.208997e+01 2.360234e+03 8.653222e+02 5.292767e+02 2.985755e+02 2.397296e+02 1.161865e+01 1.907692e+00 0.000000e+00
<VARIANCE> 20
 1.595605e+07 4.551990e+01 1.000000e-02 1.000000e-02 1.000000e-02 1.000000e-02 1.000000e-02 1.000000e-02 1.000000e-02 1.220537e+03 2.510737e+03 4.074872e+03 1.196364e+07 1.772809e+06 1.149757e+06 1.862625e+05 1.974287e+05 4.702501e+02 3.260685e+01 1.000000e-02
<GCONST> 1.221740e+02
<STATE> 3
<MEAN> 20
 4.216685e+03 8.695381e+00 0.000000e+00 0.000000e+00 0.000000e+00 0.000000e+00 -6.577885e-16 -2.623602e-14 -2.739943e-14 2.902176e+01 6.476239e+01 7.888940e+01 1.700768e+03 7.206514e+02 5.275068e+02 7.750012e+02 3.503853e+02 3.616575e+01 2.717303e-01 0.000000e+00
<VARIANCE> 20
 9.597912e+06 4.142298e+02 1.000000e-02 1.000000e-02 1.000000e-02 1.000000e-02 1.000000e-02 1.000000e-02 1.000000e-02 4.391042e+03 3.826977e+04 1.702690e+04 7.541544e+06 1.173549e+06 1.234265e+06 1.139252e+06 2.907249e+05 8.551053e+03 7.413536e-01 1.000000e-02
<GCONST> 1.298200e+02
<STATE> 4
<MEAN> 20
 4.134522e+03 1.273130e+02 0.000000e+00 0.000000e+00 1.875015e-01 2.062516e+00 2.125015e+01 1.875007e+01 1.762499e+01 1.008210e+02 1.122502e+02 2.266866e+02 1.330604e+03 1.071497e+03 1.023123e+03 4.617463e+02 1.609372e+02 3.287520e+01 2.812522e+00 0.000000e+00
<VARIANCE> 20
 1.192992e+07 7.833957e+04 1.000000e-02 1.000000e-02 5.273477e-01 6.380907e+01 6.164107e+03 2.953083e+03 1.729985e+03 2.222260e+04 3.281971e+04 1.708306e+05 6.007482e+06 1.709030e+06 5.199758e+06 2.921668e+05 6.083504e+04 9.465426e+03 1.186532e+02 1.000000e-02
<GCONST> 1.936071e+02
<STATE> 5
<MEAN> 20
 7.385307e+03 7.144620e-01 0.000000e+00 0.000000e+00 0.000000e+00 0.000000e+00 0.000000e+00 0.000000e+00 0.000000e+00 1.876201e+02 4.082606e-02 1.214549e+02 4.430045e+03 2.575532e+03 4.203008e+02 2.510372e+01 1.142830e+00 2.041555e-02 0.000000e+00 0.000000e+00
<VARIANCE> 20
 5.852982e+06 7.471120e+00 1.000000e-02 1.000000e-02 1.000000e-02 1.000000e-02 1.000000e-02 1.000000e-02 1.000000e-02 9.471145e+04 3.915929e-02 4.413433e+04 8.627401e+06 1.835016e+06 6.460451e+05 3.024229e+03 6.530808e+00 1.999875e-02 1.000000e-02 1.000000e-02
<GCONST> 8.156847e+01
<STATE> 6
<MEAN> 20
 2.589194e+03 1.844592e+02 1.499973e+00 0.000000e+00 0.000000e+00 0.000000e+00 2.416683e+00 2.041680e+00 3.874949e+00 3.454149e+01 4.449986e+01 8.941595e+01 1.693734e+02 8.003669e+02 1.080326e+03 3.847104e+02 1.661678e+02 5.870872e+01 2.087514e+01 3.583357e+00
<VARIANCE> 20
 5.302552e+06 5.168174e+04 5.174912e+01 1.000000e-02 1.000000e-02 1.000000e-02 1.045770e+02 4.687356e+01 1.421906e+02 6.948999e+03 6.538251e+03 3.476977e+04 1.277046e+05 1.189591e+06 2.035514e+06 2.681887e+05 3.334134e+04 8.922828e+03 1.647201e+03 1.084104e+02
<GCONST> 1.791438e+02
<STATE> 7
<MEAN> 20
 3.268194e+03 7.931167e+01 0.000000e+00 0.000000e+00 2.006192e-01 0.000000e+00 0.000000e+00 1.270565e+00 1.538058e+00 2.277626e+01 3.370374e+01 4.768026e+01 2.751982e+02 7.514250e+02 1.093818e+03 8.757152e+02 2.734019e+02 1.837094e+01 3.977231e+00 0.000000e+00
<VARIANCE> 20
 2.582406e+06 1.813435e+04 1.000000e-02 1.000000e-02 2.941183e-01 1.000000e-02 1.000000e-02 8.349566e+00 1.602420e+01 1.097240e+03 3.402837e+03 2.328449e+03 2.074394e+05 6.494719e+05 1.247829e+06 1.073510e+06 1.473068e+05 1.212368e+03 1.060682e+02 1.000000e-02
<GCONST> 1.420745e+02
<STATE> 8
<MEAN> 20
 4.085100e+03 2.457186e+01 0.000000e+00 0.000000e+00 -1.836695e-38 0.000000e+00 3.320518e-01 3.901610e+00 2.299460e+01 1.303646e+02 2.979342e+02 1.725023e+02 3.540305e+02 9.662256e+02 6.965901e+02 1.382565e+03 3.584169e+02 1.919987e+01 1.755953e+01 2.241381e+00
<VARIANCE> 20
 3.574086e+06 2.356301e+03 1.000000e-02 1.000000e-02 1.000000e-02 1.000000e-02 1.217949e+00 5.027468e+01 2.521726e+03 2.766330e+04 2.154480e+05 4.571687e+04 2.176746e+05 1.178451e+06 4.017513e+05 2.422334e+06 2.680352e+05 2.745365e+03 3.322056e+03 3.723033e+01
<GCONST> 1.723932e+02
<STATE> 9
<MEAN> 20
 2.300387e+03 1.587014e+02 4.000035e-01 0.000000e+00 8.000070e-01 0.000000e+00 1.900016e+01 8.290073e+01 1.440013e+01 3.910002e+01 1.777015e+02 8.110026e+01 8.724938e+02 9.093957e+02 4.302985e+02 2.569981e+01 3.389988e+01 6.710033e+01 1.800009e+01 0.000000e+00
<VARIANCE> 20
 4.234938e+06 6.528077e+04 1.440011e+00 1.000000e-02 5.760045e+00 1.000000e-02 1.876213e+03 1.813419e+04 4.972426e+02 1.499486e+03 8.039783e+04 8.472527e+03 1.352194e+06 6.952019e+05 2.535260e+05 1.736590e+03 2.428664e+03 1.885922e+04 1.207009e+03 1.000000e-02
<GCONST> 1.748147e+02
<STATE> 10
<MEAN> 20
 4.761544e+03 3.707033e+00 0.000000e+00 0.000000e+00 -5.662479e-16 0.000000e+00 0.000000e+00 4.954142e-29 9.473528e-01 7.550133e+01 6.713864e+00 1.135246e+02 7.842809e+02 1.738045e+03 1.993149e+03 1.783329e+02 1.607931e+01 1.157416e+01 -3.066041e-41 0.000000e+00
<VARIANCE> 20
 4.225634e+06 3.198908e+02 1.000000e-02 1.000000e-02 1.000000e-02 1.000000e-02 1.000000e-02 1.000000e-02 6.393021e+00 5.973299e+04 7.320419e+02 1.104757e+05 2.018926e+06 2.293891e+06 1.973931e+06 6.246783e+04 1.926835e+03 3.095312e+03 1.000000e-02 1.000000e-02
<GCONST> 1.223051e+02
<STATE> 11
<MEAN> 20
 9.359002e+03 1.662872e+00 0.000000e+00 0.000000e+00 0.000000e+00 0.000000e+00 0.000000e+00 0.000000e+00 0.000000e+00 1.749315e+02 0.000000e+00 3.856248e+02 5.363871e+03 2.898786e+03 3.362832e+02 1.090997e+02 2.027382e+02 1.929572e+02 4.295291e+01 3.283284e+00
<VARIANCE> 20
 5.634186e+06 6.017728e+01 1.000000e-02 1.000000e-02 1.000000e-02 1.000000e-02 1.000000e-02 1.000000e-02 1.000000e-02 3.251617e+04 1.000000e-02 8.893398e+05 4.723013e+06 1.250808e+06 6.244747e+04 4.741048e+03 1.480378e+04 1.591983e+04 3.494743e+03 5.201288e+01
<GCONST> 1.239474e+02
<STATE> 12
<MEAN> 20
 1.170583e+04 1.763422e+00 0.000000e+00 0.000000e+00 0.000000e+00 0.000000e+00 0.000000e+00 -3.259663e-17 4.447833e-01 2.040949e+02 1.304043e+01 5.932124e+02 6.058356e+03 3.997984e+03 4.152288e+02 1.604554e+02 3.171533e+02 2.768105e+02 7.029445e+01 9.603743e+00
<VARIANCE> 20
 2.794240e+06 1.593650e+01 1.000000e-02 1.000000e-02 1.000000e-02 1.000000e-02 1.000000e-02 1.000000e-02 2.014838e+00 2.202661e+04 1.016931e+03 8.559784e+05 5.432366e+06 2.416610e+06 4.055163e+04 1.961698e+03 1.702617e+04 2.661566e+04 5.936947e+03 2.115103e+02
<GCONST> 1.403959e+02
<STATE> 13
<MEAN> 20
 1.609183e+04 8.148025e+03 6.250010e+01 0.000000e+00 0.000000e+00 0.000000e+00 4.000006e+00 7.100011e+01 1.643699e+02 1.181453e+03 1.873614e+03 1.224425e+04 7.349129e+03 3.331593e+03 3.030800e+02 1.301325e+02 2.488964e+02 1.935479e+02 4.449733e+01 4.446924e+00
<VARIANCE> 20
 1.713948e+08 4.609925e+08 2.672354e+04 1.000000e-02 1.000000e-02 1.000000e-02 1.120002e+02 3.528705e+04 1.884795e+05 7.831680e+06 2.437168e+07 9.477597e+08 1.783654e+07 3.603480e+06 4.912004e+04 7.069693e+03 2.539054e+04 1.691143e+04 1.855309e+03 5.284264e+01
<GCONST> 2.357632e+02
<TRANSP> 14
 0.000000e+00 1.000000e+00 0.000000e+00 0.000000e+00 0.000000e+00 0.000000e+00 0.000000e+00 0.000000e+00 0.000000e+00 0.000000e+00 0.000000e+00 0.000000e+00 0.000000e+00 0.000000e+00
 0.000000e+00 1.967638e-01 8.032362e-01 0.000000e+00 0.000000e+00 0.000000e+00 0.000000e+00 0.000000e+00 0.000000e+00 0.000000e+00 0.000000e+00 0.000000e+00 0.000000e+00 0.000000e+00
 0.000000e+00 0.000000e+00 2.753781e-01 7.246218e-01 0.000000e+00 0.000000e+00 0.000000e+00 0.000000e+00 0.000000e+00 0.000000e+00 0.000000e+00 0.000000e+00 0.000000e+00 0.000000e+00
 0.000000e+00 0.000000e+00 0.000000e+00 4.999985e-01 5.000015e-01 0.000000e+00 0.000000e+00 0.000000e+00 0.000000e+00 0.000000e+00 0.000000e+00 0.000000e+00 0.000000e+00 0.000000e+00
 0.000000e+00 0.000000e+00 0.000000e+00 0.000000e+00 8.366938e-01 1.633062e-01 0.000000e+00 0.000000e+00 0.000000e+00 0.000000e+00 0.000000e+00 0.000000e+00 0.000000e+00 0.000000e+00
 0.000000e+00 0.000000e+00 0.000000e+00 0.000000e+00 0.000000e+00 6.666682e-01 3.333319e-01 0.000000e+00 0.000000e+00 0.000000e+00 0.000000e+00 0.000000e+00 0.000000e+00 0.000000e+00
 0.000000e+00 0.000000e+00 0.000000e+00 0.000000e+00 0.000000e+00 0.000000e+00 4.650172e-01 5.349827e-01 0.000000e+00 0.000000e+00 0.000000e+00 0.000000e+00 0.000000e+00 0.000000e+00
 0.000000e+00 0.000000e+00 0.000000e+00 0.000000e+00 0.000000e+00 0.000000e+00 0.000000e+00 3.358883e-01 6.641117e-01 0.000000e+00 0.000000e+00 0.000000e+00 0.000000e+00 0.000000e+00
 0.000000e+00 0.000000e+00 0.000000e+00 0.000000e+00 0.000000e+00 0.000000e+00 0.000000e+00 0.000000e+00 2.000018e-01 7.999983e-01 0.000000e+00 0.000000e+00 0.000000e+00 0.000000e+00
 0.000000e+00 0.000000e+00 0.000000e+00 0.000000e+00 0.000000e+00 0.000000e+00 0.000000e+00 0.000000e+00 0.000000e+00 6.704821e-01 3.295179e-01 0.000000e+00 0.000000e+00 0.000000e+00
 0.000000e+00 0.000000e+00 0.000000e+00 0.000000e+00 0.000000e+00 0.000000e+00 0.000000e+00 0.000000e+00 0.000000e+00 0.000000e+00 9.458447e-01 5.415533e-02 0.000000e+00 0.000000e+00
 0.000000e+00 0.000000e+00 0.000000e+00 0.000000e+00 0.000000e+00 0.000000e+00 0.000000e+00 0.000000e+00 0.000000e+00 0.000000e+00 0.000000e+00 2.943455e-01 7.056546e-01 0.000000e+00
 0.000000e+00 0.000000e+00 0.000000e+00 0.000000e+00 0.000000e+00 0.000000e+00 0.000000e+00 0.000000e+00 0.000000e+00 0.000000e+00 0.000000e+00 0.000000e+00 1.410950e-33 1.000000e+00
 0.000000e+00 0.000000e+00 0.000000e+00 0.000000e+00 0.000000e+00 0.000000e+00 0.000000e+00 0.000000e+00 0.000000e+00 0.000000e+00 0.000000e+00 0.000000e+00 0.000000e+00 0.000000e+00
<ENDHMM>
~h "b"
<BEGINHMM>
<NUMSTATES> 14
<STATE> 2
<MEAN> 20
 3.049124e+03 1.891344e+01 1.064410e+01 1.478194e+00 1.238560e+01 6.593503e+02 3.907030e+02 6.986299e+01 4.703570e+01 1.183891e+02 4.071136e+02 3.502729e+02 5.804914e+02 7.298527e+02 1.718426e+03 4.265938e+02 1.523745e+02 1.210596e+01 6.552811e-01 0.000000e+00
<VARIANCE> 20
 4.275676e+06 9.299459e+02 9.816703e+02 2.386225e+01 9.658478e+02 7.820696e+05 1.909552e+05 3.951398e+03 7.924724e+02 4.978583e+03 3.378353e+05 1.939267e+05 2.108477e+06 4.903247e+05 1.202523e+06 1.804385e+05 8.084926e+04 8.510222e+02 4.332311e+00 1.000000e-02
<GCONST> 2.185757e+02
<STATE> 3
<MEAN> 20
 5.578508e+03 1.103473e+00 -2.872512e-14 0.000000e+00 2.105307e-01 4.652903e+01 1.209091e+02 2.400640e+01 1.479283e+01 4.664749e+01 8.239092e+01 2.122587e+02 4.588504e+02 1.301555e+03 3.495838e+03 2.816946e+02 1.193877e-01 -2.249705e-17 0.000000e+00 0.000000e+00
<VARIANCE> 20
 6.663617e+06 7.248887e+00 1.000000e-02 1.000000e-02 7.977995e-01 1.984409e+04 1.255233e+05 1.178893e+03 4.789163e+02 4.432950e+03 1.006513e+05 2.626995e+05 2.509227e+06 1.748018e+06 3.173130e+06 1.353172e+05 1.060236e+00 1.000000e-02 1.000000e-02 1.000000e-02
<GCONST> 1.544272e+02
<STATE> 4
<MEAN> 20
 4.013195e+03 1.578525e+01 1.028564e-02 1.028564e-02 3.470462e-01 4.882378e+02 1.942800e+02 6.510789e+01 6.419987e+01 1.855992e+02 5.767687e+01 3.444416e+02 1.070298e+03 1.178760e+03 1.850327e+03 4.160612e+02 1.061159e+02 3.091923e+00 -5.636647e-17 -9.741095e-18
<VARIANCE> 20
 6.334712e+06 1.745438e+03 1.017984e-02 1.017985e-02 1.063359e+00 3.566527e+05 4.547131e+04 5.930093e+03 5.365000e+03 4.229435e+04 6.563214e+03 1.343412e+05 3.812745e+06 9.638816e+05 1.887673e+06 2.026876e+05 3.938174e+04 3.877330e+01 1.000000e-02 1.000000e-02
<GCONST> 1.834365e+02
<STATE> 5
<MEAN> 20
 7.797970e+03 1.720550e+02 6.666644e+00 1.777774e+00 5.055537e+00 9.233858e+02 2.323884e+02 7.966642e+01 7.905530e+01 3.721005e+02 2.140550e+02 6.762849e+02 2.681227e+03 2.174944e+03 3.010391e+03 5.649973e+02 3.132208e+02 3.077792e+01 3.055541e+00 1.166659e+00
<VARIANCE> 20
 2.154879e+07 3.986927e+04 1.493330e+02 4.406162e+01 5.427461e+01 1.174552e+06 9.461509e+04 1.017887e+04 1.446847e+04 2.907980e+05 5.010634e+04 5.674676e+05 1.190114e+07 2.813152e+06 1.581543e+07 1.302436e+05 1.546715e+05 2.598187e+03 2.838572e+01 6.916620e+00
<GCONST> 2.425026e+02
<STATE> 6
<MEAN> 20
 8.906712e+03 3.448085e+01 -1.050916e-16 0.000000e+00 3.356513e-16 1.027439e+03 1.851944e+02 1.006813e+02 1.041390e+02 6.762802e+02 7.659426e+00 4.975080e+02 5.501771e+03 2.364632e+03 1.764173e+03 6.221823e+02 2.729713e+02 3.958586e+00 7.154030e-02 1.356006e-15
<VARIANCE> 20
 6.231098e+06 2.173741e+03 1.000000e-02 1.000000e-02 1.000000e-02 8.957388e+05 5.610547e+04 1.287878e+04 9.266141e+03 2.980713e+05 2.203785e+02 2.885236e+05 1.767318e+07 1.833569e+06 5.518056e+06 2.314499e+05 2.127625e+05 2.295236e+02 2.095030e-01 1.000000e-02
<GCONST> 1.906028e+02
<STATE> 7
<MEAN> 20
 7.940567e+03 2.938348e+01 5.750003e+00 1.124996e+00 3.500018e+00 5.644968e+02 3.338769e+02 1.036247e+02 1.072495e+02 5.413588e+02 2.141043e+02 8.923846e+02 5.255913e+03 2.207383e+03 6.326055e+02 3.435260e+02 7.389127e+01 1.112499e+01 0.000000e+00 0.000000e+00
<VARIANCE> 20
 1.311379e+07 1.319547e+03 1.286871e+02 8.859346e+00 3.650000e+01 4.637676e+05 2.272893e+05 2.238211e+04 2.408656e+04 2.592217e+05 1.384804e+05 6.324417e+05 1.217711e+07 2.052612e+06 4.704720e+05 1.961174e+05 2.102499e+04 8.228587e+02 1.000000e-02 1.000000e-02
<GCONST> 2.176693e+02
<STATE> 8
<MEAN> 20
 8.650389e+03 1.952534e+01 2.245781e-36 0.000000e+00 5.080003e-02 1.492170e+03 2.329260e+02 1.382154e+02 1.493274e+02 8.467235e+02 8.994907e+01 9.684961e+02 6.437114e+03 2.406342e+03 3.690914e+02 6.915776e+02 4.859348e+02 4.923714e+01 2.039520e+01 1.118968e+01
<VARIANCE> 20
 6.375106e+06 5.488988e+03 1.000000e-02 1.000000e-02 4.821939e-02 6.458435e+05 1.346703e+04 4.562916e+03 4.081400e+03 1.024088e+05 5.805003e+04 4.240598e+05 5.771418e+06 1.040099e+06 5.690216e+04 1.590645e+05 1.784715e+05 4.352068e+03 2.105294e+03 9.024948e+02
<GCONST> 2.111606e+02
<STATE> 9
<MEAN> 20
 9.600000e+03 2.996487e+01 2.499993e-01 0.000000e+00 2.125030e+00 1.856341e+03 3.283986e+02 1.755878e+02 1.793190e+02 1.117709e+03 1.188285e+02 1.262967e+03 7.623477e+03 2.183505e+03 5.135715e+02 1.020969e+03 5.352174e+02 3.116021e+01 1.821688e-44 0.000000e+00
<VARIANCE> 20
 8.595656e+06 1.424094e+03 4.374989e-01 1.000000e-02 1.410956e+01 1.744400e+06 2.589745e+04 1.094258e+04 1.418913e+04 5.018112e+05 3.479420e+04 6.241053e+05 1.048174e+07 1.327753e+06 2.552302e+05 6.882365e+05 2.982457e+05 2.247907e+03 1.000000e-02 1.000000e-02
<GCONST> 2.047914e+02
<STATE> 10
<MEAN> 20
 8.903649e+03 1.357125e+01 6.003291e-02 0.000000e+00 0.000000e+00 1.503074e+03 2.238434e+02 1.224216e+02 1.327111e+02 8.058546e+02 2.496760e+01 4.473941e+02 5.238649e+03 4.058694e+03 6.650124e+02 6.068514e+02 5.169688e+02 8.285622e+01 5.230277e+01 1.148781e+01
<VARIANCE> 20
 4.171018e+06 8.353970e+02 1.164618e-01 1.000000e-02 1.000000e-02 6.485736e+05 1.846197e+04 4.975991e+03 4.724495e+03 1.601078e+05 5.553386e+03 5.212015e+05 5.803388e+06 2.947036e+06 2.822526e+05 9.154305e+04 1.640801e+05 7.726147e+03 5.579614e+03 7.450951e+02
<GCONST> 2.119634e+02
<STATE> 11
<MEAN> 20
 7.852770e+03 6.186440e+01 1.415372e+01 2.923233e+00 4.529036e+00 1.810512e+03 4.703178e+02 2.237794e+02 1.913361e+02 1.154718e+03 1.766295e+02 1.461831e+03 6.479250e+03 1.895642e+03 4.187942e+02 7.141408e+02 5.488461e+02 7.633268e+01 1.528153e+01 1.535857e-01
<VARIANCE> 20
 1.144740e+07 5.975425e+03 5.213797e+02 4.230543e+01 6.310917e+01 1.230448e+06 1.369637e+05 2.687092e+04 1.802521e+04 4.795265e+05 4.808950e+04 1.550082e+06 9.736257e+06 2.114707e+06 1.223119e+05 4.263386e+05 2.283206e+05 2.014725e+04 2.044470e+03 2.835775e-01
<GCONST> 2.437614e+02
<STATE> 12
<MEAN> 20
 9.911646e+03 2.154750e+01 2.039657e+00 5.937675e-01 1.197917e+00 1.454757e+03 4.057131e+02 2.101063e+02 2.156302e+02 1.304217e+03 2.065648e+01 1.011055e+03 8.170118e+03 2.777097e+03 5.470028e+02 9.417084e+02 4.671503e+01 9.505432e+00 3.522947e+00 6.647071e-02
<VARIANCE> 20
 4.352436e+06 1.971741e+03 1.515518e+01 1.162843e+00 7.209468e+00 1.034765e+06 1.691028e+05 3.035198e+04 2.399668e+04 3.121571e+05 8.225414e+02 1.389615e+06 3.469646e+06 2.524425e+06 2.389491e+05 4.409542e+05 1.115575e+04 1.268909e+03 1.743051e+02 6.205234e-02
<GCONST> 2.183060e+02
<STATE> 13
<MEAN> 20
 9.971487e+03 1.186562e+00 0.000000e+00 0.000000e+00 1.977783e-01 6.134669e+02 1.359236e+02 8.588724e+01 1.055221e+02 8.392338e+02 1.410790e+00 8.431148e+02 8.100440e+03 2.095296e+03 2.343542e+02 3.375150e+02 1.179222e+02 9.962150e+00 1.105523e+01 1.834677e+00
<VARIANCE> 20
 6.949894e+06 7.293451e+00 1.000000e-02 1.000000e-02 5.542187e-01 3.345872e+05 1.139317e+04 3.460129e+03 5.089791e+03 1.651894e+05 1.295959e+01 1.620949e+06 6.361990e+06 1.509303e+06 2.798692e+04 1.166716e+05 2.708792e+04 2.160055e+02 7.318138e+02 1.867112e+01
<GCONST> 1.892232e+02
<TRANSP> 14
 0.000000e+00 1.000000e+00 0.000000e+00 0.000000e+00 0.000000e+00 0.000000e+00 0.000000e+00 0.000000e+00 0.000000e+00 0.000000e+00 0.000000e+00 0.000000e+00 0.000000e+00 0.000000e+00
 0.000000e+00 6.505135e-01 3.494865e-01 0.000000e+00 0.000000e+00 0.000000e+00 0.000000e+00 0.000000e+00 0.000000e+00 0.000000e+00 0.000000e+00 0.000000e+00 0.000000e+00 0.000000e+00
 0.000000e+00 0.000000e+00 5.789461e-01 4.210539e-01 0.000000e+00 0.000000e+00 0.000000e+00 0.000000e+00 0.000000e+00 0.000000e+00 0.000000e+00 0.000000e+00 0.000000e+00 0.000000e+00
 0.000000e+00 0.000000e+00 0.000000e+00 6.735235e-01 3.264765e-01 0.000000e+00 0.000000e+00 0.000000e+00 0.000000e+00 0.000000e+00 0.000000e+00 0.000000e+00 0.000000e+00 0.000000e+00
 0.000000e+00 0.000000e+00 0.000000e+00 0.000000e+00 5.555544e-01 4.444456e-01 0.000000e+00 0.000000e+00 0.000000e+00 0.000000e+00 0.000000e+00 0.000000e+00 0.000000e+00 0.000000e+00
 0.000000e+00 0.000000e+00 0.000000e+00 0.000000e+00 0.000000e+00 8.092237e-01 1.907763e-01 0.000000e+00 0.000000e+00 0.000000e+00 0.000000e+00 0.000000e+00 0.000000e+00 0.000000e+00
 0.000000e+00 0.000000e+00 0.000000e+00 0.000000e+00 0.000000e+00 0.000000e+00 0.000000e+00 1.000000e+00 0.000000e+00 0.000000e+00 0.000000e+00 0.000000e+00 0.000000e+00 0.000000e+00
 0.000000e+00 0.000000e+00 0.000000e+00 0.000000e+00 0.000000e+00 0.000000e+00 0.000000e+00 5.936075e-01 4.063924e-01 0.000000e+00 0.000000e+00 0.000000e+00 0.000000e+00 0.000000e+00
 0.000000e+00 0.000000e+00 0.000000e+00 0.000000e+00 0.000000e+00 0.000000e+00 0.000000e+00 0.000000e+00 0.000000e+00 1.000000e+00 0.000000e+00 0.000000e+00 0.000000e+00 0.000000e+00
 0.000000e+00 0.000000e+00 0.000000e+00 0.000000e+00 0.000000e+00 0.000000e+00 0.000000e+00 0.000000e+00 0.000000e+00 7.598731e-01 2.401269e-01 0.000000e+00 0.000000e+00 0.000000e+00
 0.000000e+00 0.000000e+00 0.000000e+00 0.000000e+00 0.000000e+00 0.000000e+00 0.000000e+00 0.000000e+00 0.000000e+00 0.000000e+00 3.856913e-01 6.143087e-01 0.000000e+00 0.000000e+00
 0.000000e+00 0.000000e+00 0.000000e+00 0.000000e+00 0.000000e+00 0.000000e+00 0.000000e+00 0.000000e+00 0.000000e+00 0.000000e+00 0.000000e+00 4.681957e-01 5.318043e-01 0.000000e+00
 0.000000e+00 0.000000e+00 0.000000e+00 0.000000e+00 0.000000e+00 0.000000e+00 0.000000e+00 0.000000e+00 0.000000e+00 0.000000e+00 0.000000e+00 0.000000e+00 4.726008e-01 5.273991e-01
 0.000000e+00 0.000000e+00 0.000000e+00 0.000000e+00 0.000000e+00 0.000000e+00 0.000000e+00 0.000000e+00 0.000000e+00 0.000000e+00 0.000000e+00 0.000000e+00 0.000000e+00 0.000000e+00
<ENDHMM>
~h "c"
<BEGINHMM>
<NUMSTATES> 14
<STATE> 2
<MEAN> 20
 6.709994e+03 5.182599e+00 3.986615e-01 0.000000e+00 0.000000e+00 0.000000e+00 0.000000e+00 0.000000e+00 0.000000e+00 1.307427e+02 1.056453e+01 2.545468e+01 3.027886e+03 3.303028e+03 4.563842e+02 2.189834e+01 1.101879e+00 2.696540e-28 0.000000e+00 0.000000e+00
<VARIANCE> 20
 4.426442e+06 2.426359e+02 1.435715e+00 1.000000e-02 1.000000e-02 1.000000e-02 1.000000e-02 1.000000e-02 1.000000e-02 9.700035e+04 1.008231e+03 4.968584e+03 1.498965e+06 1.428027e+06 5.112683e+04 5.558599e+02 3.907686e+00 1.000000e-02 1.000000e-02 1.000000e-02
<GCONST> 9.029427e+01
<STATE> 3
<MEAN> 20
 3.652849e+03 7.692318e+01 1.749555e+02 0.000000e+00 0.000000e+00 0.000000e+00 0.000000e+00 0.000000e+00 0.000000e+00 3.912842e+01 0.000000e+00 5.113073e+00 1.051102e+03 1.511134e+03 7.848874e+02 4.577336e+02 1.282321e+02 4.866415e+00 7.871209e-01 0.000000e+00
<VARIANCE> 20
 7.427582e+06 3.149103e+04 2.697864e+05 1.000000e-02 1.000000e-02 1.000000e-02 1.000000e-02 1.000000e-02 1.000000e-02 5.738773e+03 1.000000e-02 1.297391e+02 1.856295e+06 2.203271e+06 2.593634e+05 3.499973e+05 3.792657e+04 1.839754e+02 8.038771e+00 1.000000e-02
<GCONST> 1.242340e+02
<STATE> 4
<MEAN> 20
 3.565951e+03 2.277880e+02 0.000000e+00 0.000000e+00 0.000000e+00 0.000000e+00 1.240315e-02 4.156880e-02 1.743175e-02 3.465434e+01 4.432521e+00 1.406683e+01 7.981348e+02 1.235351e+03 4.131924e+02 1.160723e+03 1.857637e+02 1.380002e+01 3.000004e+00 0.000000e+00
<VARIANCE> 20
 9.964061e+06 1.134751e+05 1.000000e-02 1.000000e-02 1.000000e-02 1.000000e-02 4.587514e-01 5.152585e+00 9.061226e-01 4.770922e+03 8.030690e+01 3.069578e+02 2.457426e+06 3.119220e+06 1.746425e+05 1.965108e+06 3.504886e+04 7.617607e+02 3.600003e+01 1.000000e-02
<GCONST> 1.377430e+02
<STATE> 5
<MEAN> 20
 3.674997e+03 1.079726e+02 2.724153e+01 9.080509e-02 0.000000e+00 0.000000e+00 0.000000e+00 0.000000e+00 0.000000e+00 3.268983e+00 4.086201e+00 3.532277e+01 2.707070e+02 1.037055e+03 1.994026e+03 3.701076e+02 1.002678e+02 1.452881e+00 5.448305e-01 0.000000e+00
<VARIANCE> 20
 5.663635e+06 1.515940e+04 4.848042e+03 8.255952e-02 1.000000e-02 1.000000e-02 1.000000e-02 1.000000e-02 1.000000e-02 1.006408e+02 6.711570e+01 3.518130e+03 4.458164e+05 1.711788e+06 3.878614e+06 1.254407e+05 3.328841e+04 1.405244e+01 2.972143e+00 1.000000e-02
<GCONST> 1.256945e+02
<STATE> 6
<MEAN> 20
 3.096793e+03 2.990897e+01 0.000000e+00 0.000000e+00 0.000000e+00 0.000000e+00 0.000000e+00 0.000000e+00 1.272722e+00 8.590869e+01 2.545444e+00 1.872716e+01 3.086330e+02 9.208087e+02 1.417167e+03 3.025430e+02 1.709999e+02 4.064078e+01 1.845465e+01 1.336360e+01
<VARIANCE> 20
 9.201398e+06 3.121165e+03 1.000000e-02 1.000000e-02 1.000000e-02 1.000000e-02 1.000000e-02 1.000000e-02 8.925590e+00 2.242148e+04 6.479316e+01 6.849250e+02 5.095424e+05 1.259070e+06 3.872191e+06 6.113205e+04 9.371777e+04 6.999602e+03 1.406787e+03 1.656771e+03
<GCONST> 1.444552e+02
<STATE> 7
<MEAN> 20
 3.042585e+03 1.608596e+02 4.285780e-01 0.000000e+00 0.000000e+00 0.000000e+00 5.428654e+00 1.671454e+01 4.428639e+00 4.285780e+01 3.200049e+01 7.114395e+01 2.807170e+02 9.821461e+02 1.309296e+03 1.495730e+02 1.630015e+02 2.318535e+02 5.200053e+01 1.571431e+00
<VARIANCE> 20
 3.679152e+06 9.404291e+04 1.102055e+00 1.000000e-02 1.000000e-02 1.000000e-02 7.367415e+01 1.578510e+03 1.011033e+02 3.352718e+03 2.652596e+03 1.576943e+04 2.132419e+05 1.278358e+06 1.432358e+06 1.849288e+04 7.606444e+04 7.482959e+04 6.134647e+03 7.387857e+00
<GCONST> 1.750707e+02
<STATE> 8
<MEAN> 20
 2.492611e+03 5.383765e+02 3.425014e+01 2.500010e-01 1.225005e+01 7.500030e-01 2.797511e+02 7.262526e+01 1.387504e+01 6.687478e+01 6.228763e+02 1.159998e+02 3.178753e+02 9.787423e+02 6.166166e+02 3.238760e+02 2.683761e+02 2.183759e+02 4.850020e+01 3.750015e-01
<VARIANCE> 20
 4.516468e+06 2.676552e+05 6.674210e+03 4.375015e-01 4.164386e+02 3.937514e+00 1.489690e+05 6.369994e+03 9.246128e+02 3.116609e+03 3.581878e+05 9.576738e+03 3.930709e+05 1.944428e+06 1.119263e+06 1.840288e+05 9.072507e+04 3.399718e+04 2.261750e+03 9.843785e-01
<GCONST> 2.204315e+02
<STATE> 9
<MEAN> 20
 7.419493e+03 3.945515e+02 1.685723e+03 7.241300e-01 0.000000e+00 0.000000e+00 0.000000e+00 0.000000e+00 0.000000e+00 8.627636e+01 0.000000e+00 3.815870e+02 6.586041e+03 2.023623e+03 5.753802e+02 1.982765e+01 3.103474e-01 0.000000e+00 0.000000e+00 0.000000e+00
<VARIANCE> 20
 6.299362e+06 4.212081e+04 9.049424e+05 9.992728e+00 1.000000e-02 1.000000e-02 1.000000e-02 1.000000e-02 1.000000e-02 2.625829e+04 1.000000e-02 1.203725e+05 1.587878e+07 5.955714e+05 8.774483e+05 8.825585e+02 6.967946e-01 1.000000e-02 1.000000e-02 1.000000e-02
<GCONST> 1.094909e+02
<STATE> 10
<MEAN> 20
 6.685749e+03 2.400603e+02 8.436678e+02 1.339237e+01 3.754962e-01 0.000000e+00 4.255624e+00 1.264171e+01 8.135752e+00 2.271717e+02 1.364297e+01 4.838341e+02 4.217318e+03 1.316127e+03 1.854818e+03 1.489597e+02 7.496672e-01 -4.500901e-36 0.000000e+00 0.000000e+00
<VARIANCE> 20
 5.663592e+06 5.060250e+04 8.241689e+05 1.253629e+03 9.854913e-01 1.000000e-02 7.926836e+01 1.019872e+03 4.015527e+02 7.691608e+04 5.109145e+02 3.659801e+05 2.174680e+07 4.014408e+05 3.674643e+06 2.982402e+04 1.188972e+00 1.000000e-02 1.000000e-02 1.000000e-02
<GCONST> 1.684431e+02
<STATE> 11
<MEAN> 20
 5.265772e+03 2.696399e+02 9.906108e+02 5.987461e-01 0.000000e+00 0.000000e+00 1.995811e+00 1.995812e+00 8.981125e+00 2.127539e+02 2.454845e+01 5.006239e+02 4.377698e+03 9.793182e+02 2.361106e+02 5.069134e+02 1.251390e+02 1.397065e+00 3.991609e-01 1.995804e-01
<VARIANCE> 20
 1.410158e+07 4.997175e+04 7.977476e+05 1.437741e+00 1.000000e-02 1.000000e-02 6.394948e+00 5.995795e+00 2.731955e+02 9.507820e+04 1.230522e+03 3.998069e+05 2.180937e+07 1.178207e+06 1.473715e+05 8.143873e+05 4.665822e+04 2.239401e+00 6.389924e-01 1.597481e-01
<GCONST> 1.751770e+02
<STATE> 12
<MEAN> 20
 7.198760e+03 4.198196e+02 1.815571e+03 3.826842e+00 0.000000e+00 0.000000e+00 0.000000e+00 0.000000e+00 0.000000e+00 1.081092e+02 0.000000e+00 2.875069e+02 6.544073e+03 2.308955e+03 1.619873e+02 1.205542e+02 1.199579e+02 3.026057e+00 2.773044e-02 0.000000e+00
<VARIANCE> 20
 7.124796e+06 7.470750e+03 3.833945e+05 1.020465e+02 1.000000e-02 1.000000e-02 1.000000e-02 1.000000e-02 1.000000e-02 3.187683e+04 1.000000e-02 7.446895e+04 1.004928e+07 1.467485e+06 2.402854e+04 7.872748e+04 1.125115e+05 9.703127e+01 2.696146e-02 1.000000e-02
<GCONST> 1.325645e+02
<STATE> 13
<MEAN> 20
 3.480657e+03 1.595838e+02 6.431376e+02 0.000000e+00 0.000000e+00 0.000000e+00 3.333333e-01 5.555556e-01 0.000000e+00 4.519314e+01 3.888889e+00 1.039151e+02 2.052406e+03 1.343588e+03 5.439521e+02 1.135529e+02 6.351362e+01 7.307542e+01 3.056241e+01 1.006856e+00
<VARIANCE> 20
 9.658211e+06 3.796362e+04 8.439469e+05 1.000000e-02 1.000000e-02 1.000000e-02 8.888889e-01 2.469136e+00 1.000000e-02 1.805456e+03 1.209876e+02 1.492443e+04 8.811591e+06 2.319032e+06 5.631581e+05 1.948975e+04 5.656845e+03 1.684234e+04 2.247835e+03 3.548653e+00
<GCONST> 1.624253e+02
<TRANSP> 14
 0.000000e+00 1.000000e+00 0.000000e+00 0.000000e+00 0.000000e+00 0.000000e+00 0.000000e+00 0.000000e+00 0.000000e+00 0.000000e+00 0.000000e+00 0.000000e+00 0.000000e+00 0.000000e+00
 0.000000e+00 6.013321e-01 3.986679e-01 0.000000e+00 0.000000e+00 0.000000e+00 0.000000e+00 0.000000e+00 0.000000e+00 0.000000e+00 0.000000e+00 0.000000e+00 0.000000e+00 0.000000e+00
 0.000000e+00 0.000000e+00 7.137696e-01 2.862304e-01 0.000000e+00 0.000000e+00 0.000000e+00 0.000000e+00 0.000000e+00 0.000000e+00 0.000000e+00 0.000000e+00 0.000000e+00 0.000000e+00
 0.000000e+00 0.000000e+00 0.000000e+00 1.999861e-01 8.000140e-01 0.000000e+00 0.000000e+00 0.000000e+00 0.000000e+00 0.000000e+00 0.000000e+00 0.000000e+00 0.000000e+00 0.000000e+00
 0.000000e+00 0.000000e+00 0.000000e+00 0.000000e+00 6.367825e-01 3.632175e-01 0.000000e+00 0.000000e+00 0.000000e+00 0.000000e+00 0.000000e+00 0.000000e+00 0.000000e+00 0.000000e+00
 0.000000e+00 0.000000e+00 0.000000e+00 0.000000e+00 0.000000e+00 6.363680e-01 3.636320e-01 0.000000e+00 0.000000e+00 0.000000e+00 0.000000e+00 0.000000e+00 0.000000e+00 0.000000e+00
 0.000000e+00 0.000000e+00 0.000000e+00 0.000000e+00 0.000000e+00 0.000000e+00 4.285672e-01 5.714328e-01 0.000000e+00 0.000000e+00 0.000000e+00 0.000000e+00 0.000000e+00 0.000000e+00
 0.000000e+00 0.000000e+00 0.000000e+00 0.000000e+00 0.000000e+00 0.000000e+00 0.000000e+00 5.000020e-01 4.999979e-01 0.000000e+00 0.000000e+00 0.000000e+00 0.000000e+00 0.000000e+00
 0.000000e+00 0.000000e+00 0.000000e+00 0.000000e+00 0.000000e+00 0.000000e+00 0.000000e+00 0.000000e+00 8.620689e-01 1.379311e-01 0.000000e+00 0.000000e+00 0.000000e+00 0.000000e+00
 0.000000e+00 0.000000e+00 0.000000e+00 0.000000e+00 0.000000e+00 0.000000e+00 0.000000e+00 0.000000e+00 0.000000e+00 4.993427e-01 5.006573e-01 0.000000e+00 0.000000e+00 0.000000e+00
 0.000000e+00 0.000000e+00 0.000000e+00 0.000000e+00 0.000000e+00 0.000000e+00 0.000000e+00 0.000000e+00 0.000000e+00 0.000000e+00 2.016790e-01 7.983210e-01 0.000000e+00 0.000000e+00
 0.000000e+00 0.000000e+00 0.000000e+00 0.000000e+00 0.000000e+00 0.000000e+00 0.000000e+00 0.000000e+00 0.000000e+00 0.000000e+00 0.000000e+00 8.890765e-01 1.109235e-01 0.000000e+00
 0.000000e+00 0.000000e+00 0.000000e+00 0.000000e+00 0.000000e+00 0.000000e+00 0.000000e+00 0.000000e+00 0.000000e+00 0.000000e+00 0.000000e+00 0.000000e+00 5.555556e-01 4.444444e-01
 0.000000e+00 0.000000e+00 0.000000e+00 0.000000e+00 0.000000e+00 0.000000e+00 0.000000e+00 0.000000e+00 0.000000e+00 0.000000e+00 0.000000e+00 0.000000e+00 0.000000e+00 0.000000e+00
<ENDHMM>
~h "d"
<BEGINHMM>
<NUMSTATES> 14
<STATE> 2
<MEAN> 20
 1.226439e+04 1.832291e+01 -1.772646e-31 0.000000e+00 0.000000e+00 0.000000e+00 0.000000e+00 0.000000e+00 0.000000e+00 1.446708e+02 9.274698e-01 1.331981e+02 6.163423e+03 4.866642e+03 4.642002e+02 1.873777e+02 2.968848e+02 2.431635e+02 6.165599e+01 9.906700e+00
<VARIANCE> 20
 3.914984e+06 1.592330e+03 1.000000e-02 1.000000e-02 1.000000e-02 1.000000e-02 1.000000e-02 1.000000e-02 1.000000e-02 1.222956e+04 1.541355e+01 9.762405e+04 5.047613e+06 2.912349e+06 6.238722e+04 5.329690e+03 1.626195e+04 1.952994e+04 3.556527e+03 2.803669e+02
<GCONST> 1.340403e+02
<STATE> 3
<MEAN> 20
 1.318974e+04 2.554220e+01 3.964931e-02 0.000000e+00 0.000000e+00 0.000000e+00 0.000000e+00 0.000000e+00 0.000000e+00 2.626559e+02 2.099255e-01 3.522137e+02 7.963214e+03 4.094726e+03 3.407623e+02 1.393597e+02 1.720740e+02 3.107195e+02 9.756905e+01 7.126939e+00
<VARIANCE> 20
 6.547322e+06 1.787761e+03 3.807726e-02 1.000000e-02 1.000000e-02 1.000000e-02 1.000000e-02 1.000000e-02 1.000000e-02 2.218563e+04 1.396698e+00 2.726111e+05 5.754653e+06 2.798286e+06 1.705828e+04 5.515285e+03 2.260312e+04 3.008817e+04 8.570243e+03 9.038837e+01
<GCONST> 1.345664e+02
<STATE> 4
<MEAN> 20
 1.267528e+04 1.187664e+01 0.000000e+00 0.000000e+00 0.000000e+00 0.000000e+00 0.000000e+00 0.000000e+00 8.629683e-02 2.609283e+02 8.615333e+00 2.857801e+02 9.047925e+03 2.806169e+03 2.608396e+02 1.025465e+02 1.413793e+02 2.353401e+02 5.682637e+01 2.754053e+00
<VARIANCE> 20
 3.238140e+06 1.609047e+02 1.000000e-02 1.000000e-02 1.000000e-02 1.000000e-02 1.000000e-02 1.000000e-02 7.884969e-02 2.477419e+04 4.081466e+02 8.465260e+04 5.519450e+06 1.767068e+06 5.803395e+03 8.404093e+02 8.539410e+03 9.910280e+03 1.993402e+03 4.860247e+01
<GCONST> 1.291769e+02
<STATE> 5
<MEAN> 20
 1.154209e+04 1.246346e+00 -6.065265e-15 0.000000e+00 0.000000e+00 0.000000e+00 0.000000e+00 0.000000e+00 0.000000e+00 2.662077e+02 2.181968e-14 1.944921e+02 8.204880e+03 2.714048e+03 2.415914e+02 1.211316e+02 1.446065e+02 1.661644e+02 2.183735e+01 7.899954e-01
<VARIANCE> 20
 4.401876e+06 1.306387e+01 1.000000e-02 1.000000e-02 1.000000e-02 1.000000e-02 1.000000e-02 1.000000e-02 1.000000e-02 3.102394e+04 1.000000e-02 5.190147e+04 4.264062e+06 1.538379e+06 1.349721e+04 5.774905e+03 1.379651e+04 1.610140e+04 9.908253e+02 7.224920e+00
<GCONST> 1.147616e+02
<STATE> 6
<MEAN> 20
 1.212053e+04 2.721320e+01 0.000000e+00 0.000000e+00 0.000000e+00 0.000000e+00 0.000000e+00 0.000000e+00 1.191582e+00 3.882313e+02 2.397519e+00 6.218964e+02 9.429966e+03 1.796641e+03 2.620207e+02 1.158365e+02 1.309406e+02 1.577471e+02 1.882099e+01 8.999661e-01
<VARIANCE> 20
 2.462791e+06 1.236202e+03 1.000000e-02 1.000000e-02 1.000000e-02 1.000000e-02 1.000000e-02 1.000000e-02 5.921242e+00 1.760589e+03 4.304533e+01 1.915656e+05 3.270813e+06 1.570280e+06 1.798185e+04 7.668330e+03 4.735340e+03 6.468920e+03 3.600217e+02 7.289755e+00
<GCONST> 1.292598e+02
<STATE> 7
<MEAN> 20
 1.114707e+04 1.620483e+00 0.000000e+00 0.000000e+00 0.000000e+00 0.000000e+00 0.000000e+00 1.188615e-01 2.971537e-02 3.844588e+02 2.377229e-01 4.682675e+02 7.758783e+03 2.483421e+03 2.786902e+02 1.329714e+02 1.817498e+02 1.870783e+02 3.969041e+01 2.404835e+00
<VARIANCE> 20
 2.309060e+06 1.194970e+01 1.000000e-02 1.000000e-02 1.000000e-02 1.000000e-02 1.000000e-02 4.613177e-01 2.883236e-02 4.779126e+04 1.132102e+00 6.187403e+05 2.469152e+06 1.513815e+06 1.014030e+04 4.292906e+03 1.043677e+04 1.117769e+04 1.576401e+03 2.942889e+01
<GCONST> 1.266371e+02
<STATE> 8
<MEAN> 20
 1.155522e+04 1.416217e+00 0.000000e+00 0.000000e+00 0.000000e+00 0.000000e+00 0.000000e+00 0.000000e+00 6.318461e-01 5.049256e+02 9.384165e-04 9.405544e+02 9.236624e+03 1.198000e+03 2.282827e+02 1.242201e+02 1.757117e+02 1.504710e+02 8.325731e+00 1.061392e-03
<VARIANCE> 20
 1.500351e+06 1.302689e+01 1.000000e-02 1.000000e-02 1.000000e-02 1.000000e-02 1.000000e-02 1.000000e-02 9.680749e+00 4.174123e+04 1.000000e-02 8.555656e+05 1.634280e+06 5.386059e+05 1.104605e+04 4.186835e+03 2.154778e+04 1.188142e+04 1.808161e+02 1.000000e-02
<GCONST> 1.129845e+02
<STATE> 9
<MEAN> 20
 1.060757e+04 7.190850e+00 0.000000e+00 0.000000e+00 0.000000e+00 0.000000e+00 0.000000e+00 0.000000e+00 0.000000e+00 6.944053e+02 1.287713e-01 1.395670e+03 8.465060e+03 8.053845e+02 1.773953e+02 1.034552e+02 1.708705e+02 1.800959e+02 9.352890e+00 1.754542e+00
<VARIANCE> 20
 1.451190e+06 3.787237e+02 1.000000e-02 1.000000e-02 1.000000e-02 1.000000e-02 1.000000e-02 1.000000e-02 1.000000e-02 1.486582e+05 6.272740e-01 9.070664e+05 1.100248e+06 3.620641e+05 8.070340e+03 3.867295e+03 1.837383e+04 1.578716e+04 2.260194e+02 1.845949e+01
<GCONST> 1.215958e+02
<STATE> 10
<MEAN> 20
 7.297702e+03 3.910303e-01 0.000000e+00 0.000000e+00 0.000000e+00 0.000000e+00 0.000000e+00 0.000000e+00 0.000000e+00 3.917287e+02 5.572432e-16 9.422501e+02 4.967331e+03 1.087670e+03 2.203626e+02 1.120193e+02 1.211066e+02 1.765216e+02 5.977145e+01 2.788836e+00
<VARIANCE> 20
 9.279598e+06 2.193277e+00 1.000000e-02 1.000000e-02 1.000000e-02 1.000000e-02 1.000000e-02 1.000000e-02 1.000000e-02 1.094955e+05 1.000000e-02 6.107434e+05 5.949753e+06 1.167344e+06 1.588132e+04 3.509410e+03 1.218865e+04 2.578780e+04 9.817498e+03 4.725525e+01
<GCONST> 1.216896e+02
<STATE> 11
<MEAN> 20
 5.503104e+03 5.988227e+01 7.647055e-01 1.176471e-01 8.235297e-01 5.764709e+00 1.117648e+01 8.470592e+00 7.117649e+00 2.775868e+02 1.129409e+01 4.859321e+02 2.347047e+03 1.673885e+03 1.151943e+03 1.042941e+02 4.735285e+01 4.106001e+01 1.200021e+01 0.000000e+00
<VARIANCE> 20
 9.279029e+06 2.315962e+04 6.650519e+00 2.214533e-01 1.085121e+01 4.762977e+02 9.793221e+02 5.682492e+02 3.955156e+02 1.642262e+05 4.492656e+02 7.675118e+05 1.006137e+07 7.531904e+05 1.016144e+06 6.774224e+03 4.208122e+03 3.349499e+03 7.053013e+02 1.000000e-02
<GCONST> 1.933891e+02
<STATE> 12
<MEAN> 20
 3.766623e+03 6.985733e+01 2.807147e+01 9.857155e+00 8.507154e+01 9.007154e+01 4.276434e+02 2.564296e+01 1.250005e+01 3.968510e+02 6.813582e+02 6.442089e+02 2.413043e+03 5.437213e+02 4.787168e+02 9.257127e+01 2.735625e+01 3.085560e+01 7.142866e-02 2.857147e-01
<VARIANCE> 20
 1.451424e+07 1.202456e+04 1.690638e+03 4.335515e+02 1.035493e+04 1.114607e+04 2.157853e+05 8.475201e+02 2.045364e+02 2.111639e+05 3.433686e+05 6.271151e+05 1.100221e+07 2.956315e+05 2.718171e+05 8.749289e+03 3.208295e+03 5.373712e+03 6.632660e-02 1.061226e+00
<GCONST> 2.218219e+02
<STATE> 13
<MEAN> 20
 5.665329e+03 1.300013e+01 0.000000e+00 0.000000e+00 8.909105e+00 1.081820e+01 2.700005e+01 1.909094e+00 -7.875866e-10 3.714467e+02 7.409105e+01 5.710780e+02 2.794683e+03 7.192890e+02 9.291818e+02 8.656370e+02 7.609058e+01 5.754363e+01 9.090851e+00 1.727276e+00
<VARIANCE> 20
 1.117300e+07 8.678267e+02 1.000000e-02 1.000000e-02 7.937203e+02 1.170332e+03 7.290010e+03 3.644633e+01 1.000000e-02 2.859542e+05 5.299908e+04 7.565606e+05 1.361056e+07 6.671417e+05 1.128047e+06 1.177341e+06 5.033792e+03 7.097646e+03 3.213568e+02 2.983476e+01
<GCONST> 1.934586e+02
<TRANSP> 14
 0.000000e+00 1.000000e+00 0.000000e+00 0.000000e+00 0.000000e+00 0.000000e+00 0.000000e+00 0.000000e+00 0.000000e+00 0.000000e+00 0.000000e+00 0.000000e+00 0.000000e+00 0.000000e+00
 0.000000e+00 8.999309e-01 1.000691e-01 0.000000e+00 0.000000e+00 0.000000e+00 0.000000e+00 0.000000e+00 0.000000e+00 0.000000e+00 0.000000e+00 0.000000e+00 0.000000e+00 0.000000e+00
 0.000000e+00 0.000000e+00 6.828070e-01 3.171930e-01 0.000000e+00 0.000000e+00 0.000000e+00 0.000000e+00 0.000000e+00 0.000000e+00 0.000000e+00 0.000000e+00 0.000000e+00 0.000000e+00
 0.000000e+00 0.000000e+00 0.000000e+00 3.096280e-01 6.903720e-01 0.000000e+00 0.000000e+00 0.000000e+00 0.000000e+00 0.000000e+00 0.000000e+00 0.000000e+00 0.000000e+00 0.000000e+00
 0.000000e+00 0.000000e+00 0.000000e+00 0.000000e+00 8.944584e-01 1.055416e-01 0.000000e+00 0.000000e+00 0.000000e+00 0.000000e+00 0.000000e+00 0.000000e+00 0.000000e+00 0.000000e+00
 0.000000e+00 0.000000e+00 0.000000e+00 0.000000e+00 0.000000e+00 2.000406e-01 7.999595e-01 0.000000e+00 0.000000e+00 0.000000e+00 0.000000e+00 0.000000e+00 0.000000e+00 0.000000e+00
 0.000000e+00 0.000000e+00 0.000000e+00 0.000000e+00 0.000000e+00 0.000000e+00 7.622772e-01 2.377228e-01 0.000000e+00 0.000000e+00 0.000000e+00 0.000000e+00 0.000000e+00 0.000000e+00
 0.000000e+00 0.000000e+00 0.000000e+00 0.000000e+00 0.000000e+00 0.000000e+00 0.000000e+00 6.857194e-01 3.142806e-01 0.000000e+00 0.000000e+00 0.000000e+00 0.000000e+00 0.000000e+00
 0.000000e+00 0.000000e+00 0.000000e+00 0.000000e+00 0.000000e+00 0.000000e+00 0.000000e+00 0.000000e+00 8.969830e-01 1.030170e-01 0.000000e+00 0.000000e+00 0.000000e+00 0.000000e+00
 0.000000e+00 0.000000e+00 0.000000e+00 0.000000e+00 0.000000e+00 0.000000e+00 0.000000e+00 0.000000e+00 0.000000e+00 4.786337e-01 5.213663e-01 0.000000e+00 0.000000e+00 0.000000e+00
 0.000000e+00 0.000000e+00 0.000000e+00 0.000000e+00 0.000000e+00 0.000000e+00 0.000000e+00 0.000000e+00 0.000000e+00 0.000000e+00 5.294121e-01 4.705879e-01 0.000000e+00 0.000000e+00
 0.000000e+00 0.000000e+00 0.000000e+00 0.000000e+00 0.000000e+00 0.000000e+00 0.000000e+00 0.000000e+00 0.000000e+00 0.000000e+00 0.000000e+00 4.285715e-01 5.714285e-01 0.000000e+00
 0.000000e+00 0.000000e+00 0.000000e+00 0.000000e+00 0.000000e+00 0.000000e+00 0.000000e+00 0.000000e+00 0.000000e+00 0.000000e+00 0.000000e+00 0.000000e+00 2.727273e-01 7.272727e-01
 0.000000e+00 0.000000e+00 0.000000e+00 0.000000e+00 0.000000e+00 0.000000e+00 0.000000e+00 0.000000e+00 0.000000e+00 0.000000e+00 0.000000e+00 0.000000e+00 0.000000e+00 0.000000e+00
<ENDHMM>
~h "e"
<BEGINHMM>
<NUMSTATES> 14
<STATE> 2
<MEAN> 20
 8.276186e+03 2.795354e-01 0.000000e+00 0.000000e+00 0.000000e+00 1.335895e+03 1.951013e+02 1.151534e+02 1.287250e+02 9.649559e+02 1.253008e+00 4.889984e+02 6.527342e+03 2.518563e+03 3.705802e+02 6.760560e+02 3.088632e+02 6.526875e+01 5.048904e+01 8.882568e+00
<VARIANCE> 20
 6.277763e+06 3.884749e+00 1.000000e-02 1.000000e-02 1.000000e-02 4.156667e+05 1.724213e+04 4.137358e+03 2.921572e+03 1.157936e+05 8.347705e+00 2.611309e+05 3.508033e+06 3.435050e+06 3.469011e+04 1.217305e+05 4.897916e+04 4.110850e+03 6.028367e+03 3.527230e+02
<GCONST> 1.911807e+02
<STATE> 3
<MEAN> 20
 1.029568e+04 2.412874e+01 4.763836e-02 7.686862e-11 2.381909e-02 9.083049e+02 2.301171e+02 1.307988e+02 1.468014e+02 1.071835e+03 6.470811e+00 5.829139e+02 9.054763e+03 2.158168e+03 3.806592e+02 5.514461e+02 7.314590e+01 1.667347e-01 -4.292952e-32 0.000000e+00
<VARIANCE> 20
 6.170958e+06 2.013203e+03 4.536894e-02 1.000000e-02 2.325173e-02 3.951229e+05 3.725046e+04 7.424554e+03 5.697924e+03 1.578519e+05 1.026399e+02 3.513802e+05 3.317102e+06 2.092281e+06 4.013641e+04 1.669963e+05 1.710166e+04 3.294888e-01 1.000000e-02 1.000000e-02
<GCONST> 1.705045e+02
<STATE> 4
<MEAN> 20
 1.252869e+04 2.676685e+01 5.958769e-38 0.000000e+00 0.000000e+00 8.315439e+02 1.347532e+02 8.159525e+01 1.027236e+02 1.040154e+03 8.233366e+00 3.596631e+02 1.075104e+04 2.592747e+03 3.519964e+02 4.928337e+02 1.203397e+02 4.946704e+01 1.860509e+01 1.295933e+00
<VARIANCE> 20
 6.150914e+06 1.974550e+03 1.000000e-02 1.000000e-02 1.000000e-02 2.565889e+05 5.592194e+03 1.382692e+03 1.741449e+03 1.342465e+05 5.059247e+02 1.601830e+05 6.520897e+06 1.718955e+06 2.097780e+04 7.225807e+04 1.437331e+04 3.787751e+03 8.176785e+02 7.242313e+00
<GCONST> 1.896448e+02
<STATE> 5
<MEAN> 20
 1.055648e+04 3.840345e+01 3.322631e-01 2.373388e-02 1.424016e-01 1.244817e+03 2.890990e+02 1.556478e+02 1.755331e+02 1.588395e+03 1.854658e+01 1.030508e+03 1.024349e+04 1.430856e+03 5.113997e+02 6.640948e+02 1.464895e+02 3.497163e+00 7.560588e-35 0.000000e+00
<VARIANCE> 20
 6.039590e+06 8.210512e+03 1.028796e+00 2.317058e-02 4.543961e-01 5.110689e+05 5.435139e+04 9.918268e+03 7.494361e+03 3.680582e+05 6.286364e+02 8.105592e+05 5.986284e+06 2.022464e+06 5.271510e+04 1.998098e+05 4.169688e+04 1.033526e+02 1.000000e-02 1.000000e-02
<GCONST> 1.911644e+02
<STATE> 6
<MEAN> 20
 1.153660e+04 3.268879e+01 6.553383e-01 0.000000e+00 0.000000e+00 1.080793e+03 1.845137e+02 1.080449e+02 1.326952e+02 1.622087e+03 8.588139e+00 9.944533e+02 1.055151e+04 1.839023e+03 4.598463e+02 6.127078e+02 1.477883e+02 6.381816e+01 1.882517e+01 1.517651e+00
<VARIANCE> 20
 3.474479e+06 1.115220e+03 7.882900e+00 1.000000e-02 1.000000e-02 3.187797e+05 1.603816e+04 3.300956e+03 3.510392e+03 6.538648e+05 1.237399e+02 8.074684e+05 3.455384e+06 1.924279e+06 2.047489e+04 1.086400e+05 1.147498e+04 4.548392e+03 9.465949e+02 2.356580e+01
<GCONST> 2.009520e+02
<STATE> 7
<MEAN> 20
 7.706438e+03 2.225764e+00 0.000000e+00 0.000000e+00 8.512737e-02 1.027628e+03 2.046384e+02 1.257245e+02 1.450719e+02 1.644752e+03 2.581965e+00 1.405460e+03 7.921990e+03 4.875626e+02 3.318706e+02 6.056998e+02 8.852658e+01 1.267300e+01 1.984425e-01 0.000000e+00
<VARIANCE> 20
 8.157392e+06 3.667131e+01 1.000000e-02 1.000000e-02 2.481354e-01 3.884644e+05 3.052825e+04 7.738448e+03 7.507489e+03 4.524230e+05 2.502965e+01 9.208484e+05 6.074700e+06 1.042560e+05 3.949359e+04 1.801792e+05 1.641496e+04 1.196838e+03 3.291298e-01 1.000000e-02
<GCONST> 1.776561e+02
<STATE> 8
<MEAN> 20
 9.991232e+03 3.964084e+01 3.920592e-02 0.000000e+00 0.000000e+00 1.015505e+03 1.519164e+02 9.598457e+01 1.242580e+02 2.190994e+03 1.244648e+01 2.418748e+03 9.433932e+03 5.747720e+02 3.842690e+02 5.581941e+02 1.627395e+02 5.069817e+01 1.304562e+01 7.253135e-01
<VARIANCE> 20
 3.601908e+06 3.418411e+03 7.687471e-02 1.000000e-02 1.000000e-02 1.667642e+05 1.167706e+04 2.565655e+03 3.280185e+03 6.595826e+05 4.790628e+02 1.353189e+06 3.865552e+06 6.919143e+04 2.017040e+04 6.019350e+04 1.450467e+04 3.112766e+03 4.935503e+02 5.021581e+00
<GCONST> 1.919105e+02
<STATE> 9
<MEAN> 20
 8.762152e+03 5.389861e+01 3.281728e+00 0.000000e+00 1.990089e-01 1.203174e+03 2.442086e+02 1.649403e+02 1.784822e+02 2.310939e+03 2.076199e+01 2.783486e+03 7.845276e+03 7.730241e+02 5.672849e+02 6.429619e+02 1.980798e+02 4.879560e+01 3.942549e+01 2.180632e+00
<VARIANCE> 20
 8.921624e+06 6.570034e+03 8.260539e+01 1.000000e-02 7.548870e-01 4.743495e+05 4.704278e+04 1.312227e+04 9.711482e+03 7.034948e+05 1.112657e+03 2.551972e+06 8.651732e+06 1.422799e+05 1.162191e+05 1.015542e+05 5.056872e+04 4.657377e+03 9.443600e+03 4.004692e+01
<GCONST> 2.219527e+02
<STATE> 10
<MEAN> 20
 4.428759e+03 2.164531e+01 1.129515e+01 3.972776e+00 6.434338e+01 2.683648e+02 3.842877e+02 1.008002e+02 7.917902e+01 8.112640e+02 5.549268e+02 9.954741e+02 3.164211e+03 7.985027e+02 4.893785e+02 1.462202e+02 2.262589e+01 1.481186e+00 3.115903e-01 7.789756e-01
<VARIANCE> 20
 1.050929e+07 1.217599e+03 1.238198e+03 1.643941e+02 2.042430e+04 1.097151e+05 2.122798e+05 1.133175e+04 7.728666e+03 7.267688e+05 7.381931e+05 1.088723e+06 1.095744e+07 4.298855e+05 2.292607e+05 4.372593e+04 1.306478e+03 6.852022e+00 5.260919e-01 3.443870e+00
<GCONST> 2.271494e+02
<STATE> 11
<MEAN> 20
 5.955153e+03 1.656116e+02 3.597489e+01 0.000000e+00 1.098343e+00 2.715811e+02 3.148579e+02 1.028695e+02 8.466544e+01 8.280655e+02 1.676361e+02 1.141554e+03 3.846045e+03 1.035435e+03 5.983008e+02 3.216559e+02 3.478130e+02 2.272206e+02 6.161548e+01 1.260036e+01
<VARIANCE> 20
 8.614973e+06 1.106939e+05 4.451057e+03 1.000000e-02 5.689875e+00 1.408355e+05 1.666967e+05 1.427946e+04 8.340544e+03 8.456176e+05 9.550351e+04 1.324976e+06 1.267440e+07 1.208938e+06 4.401759e+05 5.756961e+04 2.954095e+05 2.067725e+05 1.355543e+04 3.501854e+02
<GCONST> 2.460864e+02
<STATE> 12
<MEAN> 20
 4.630645e+03 1.167812e+02 9.929124e+01 5.285995e+00 2.021530e+01 4.464913e+02 1.492118e+02 6.475000e+01 7.360805e+01 8.524602e+02 1.400060e+02 7.968655e+02 2.730026e+03 1.010836e+03 1.395209e+03 3.067248e+02 6.628416e+01 1.243039e+01 3.577149e-01 0.000000e+00
<VARIANCE> 20
 7.069686e+06 2.373822e+04 2.825639e+04 8.334991e+01 3.803195e+03 6.240052e+05 4.492896e+04 8.457557e+03 1.255412e+04 1.290227e+06 1.234525e+05 1.134982e+06 1.258275e+07 8.035394e+05 1.127488e+06 1.388336e+05 1.071771e+04 1.072551e+03 8.012084e-01 1.000000e-02
<GCONST> 2.349447e+02
<STATE> 13
<MEAN> 20
 3.716574e+03 1.881860e+01 -9.938191e-16 0.000000e+00 0.000000e+00 9.803211e+01 2.439793e+01 2.973279e+01 3.062002e+01 4.670125e+02 4.238058e+00 7.398244e+02 1.978229e+03 4.382571e+02 9.802725e+02 1.968381e+02 2.026398e+01 1.026428e+01 6.499592e+00 1.050000e+01
<VARIANCE> 20
 8.229638e+06 1.236178e+03 1.000000e-02 1.000000e-02 1.000000e-02 1.032038e+05 2.535667e+03 2.398198e+03 2.784586e+03 5.279836e+05 5.524073e+01 1.477554e+06 8.768023e+06 1.001234e+05 1.186524e+06 4.594504e+04 1.030399e+03 3.998579e+02 1.587428e+02 1.034846e+03
<GCONST> 1.896371e+02
<TRANSP> 14
 0.000000e+00 1.000000e+00 0.000000e+00 0.000000e+00 0.000000e+00 0.000000e+00 0.000000e+00 0.000000e+00 0.000000e+00 0.000000e+00 0.000000e+00 0.000000e+00 0.000000e+00 0.000000e+00
 0.000000e+00 8.889709e-01 1.110292e-01 0.000000e+00 0.000000e+00 0.000000e+00 0.000000e+00 0.000000e+00 0.000000e+00 0.000000e+00 0.000000e+00 0.000000e+00 0.000000e+00 0.000000e+00
 0.000000e+00 0.000000e+00 8.094438e-01 1.905562e-01 0.000000e+00 0.000000e+00 0.000000e+00 0.000000e+00 0.000000e+00 0.000000e+00 0.000000e+00 0.000000e+00 0.000000e+00 0.000000e+00
 0.000000e+00 0.000000e+00 0.000000e+00 8.276643e-01 1.723358e-01 0.000000e+00 0.000000e+00 0.000000e+00 0.000000e+00 0.000000e+00 0.000000e+00 0.000000e+00 0.000000e+00 0.000000e+00
 0.000000e+00 0.000000e+00 0.000000e+00 0.000000e+00 8.101323e-01 1.898677e-01 0.000000e+00 0.000000e+00 0.000000e+00 0.000000e+00 0.000000e+00 0.000000e+00 0.000000e+00 0.000000e+00
 0.000000e+00 0.000000e+00 0.000000e+00 0.000000e+00 0.000000e+00 7.240683e-01 2.759316e-01 0.000000e+00 0.000000e+00 0.000000e+00 0.000000e+00 0.000000e+00 0.000000e+00 0.000000e+00
 0.000000e+00 0.000000e+00 0.000000e+00 0.000000e+00 0.000000e+00 0.000000e+00 7.729916e-01 2.270084e-01 0.000000e+00 0.000000e+00 0.000000e+00 0.000000e+00 0.000000e+00 0.000000e+00
 0.000000e+00 0.000000e+00 0.000000e+00 0.000000e+00 0.000000e+00 0.000000e+00 0.000000e+00 8.431748e-01 1.568253e-01 0.000000e+00 0.000000e+00 0.000000e+00 0.000000e+00 0.000000e+00
 0.000000e+00 0.000000e+00 0.000000e+00 0.000000e+00 0.000000e+00 0.000000e+00 0.000000e+00 0.000000e+00 6.035195e-01 3.964805e-01 0.000000e+00 0.000000e+00 0.000000e+00 0.000000e+00
 0.000000e+00 0.000000e+00 0.000000e+00 0.000000e+00 0.000000e+00 0.000000e+00 0.000000e+00 0.000000e+00 0.000000e+00 3.768129e-01 6.231871e-01 0.000000e+00 0.000000e+00 0.000000e+00
 0.000000e+00 0.000000e+00 0.000000e+00 0.000000e+00 0.000000e+00 0.000000e+00 0.000000e+00 0.000000e+00 0.000000e+00 0.000000e+00 2.000679e-01 7.999321e-01 0.000000e+00 0.000000e+00
 0.000000e+00 0.000000e+00 0.000000e+00 0.000000e+00 0.000000e+00 0.000000e+00 0.000000e+00 0.000000e+00 0.000000e+00 0.000000e+00 0.000000e+00 4.285362e-01 5.714638e-01 0.000000e+00
 0.000000e+00 0.000000e+00 0.000000e+00 0.000000e+00 0.000000e+00 0.000000e+00 0.000000e+00 0.000000e+00 0.000000e+00 0.000000e+00 0.000000e+00 0.000000e+00 3.333713e-01 6.666287e-01
 0.000000e+00 0.000000e+00 0.000000e+00 0.000000e+00 0.000000e+00 0.000000e+00 0.000000e+00 0.000000e+00 0.000000e+00 0.000000e+00 0.000000e+00 0.000000e+00 0.000000e+00 0.000000e+00
<ENDHMM>
~h "f"
<BEGINHMM>
<NUMSTATES> 14
<STATE> 2
<MEAN> 20
 6.849618e+03 4.970052e+02 7.830189e+02 0.000000e+00 0.000000e+00 0.000000e+00 0.000000e+00 0.000000e+00 1.249918e-01 1.875806e+02 3.837223e+01 4.644801e+02 3.329046e+03 2.552545e+03 1.829170e+03 9.540276e+01 6.197869e+00 1.899686e+00 1.172766e-01 1.172766e-01
<VARIANCE> 20
 7.652520e+06 1.542300e+05 8.126146e+05 1.000000e-02 1.000000e-02 1.000000e-02 1.000000e-02 1.000000e-02 1.093689e-01 7.778295e+04 3.192607e+03 1.687125e+05 1.329258e+07 2.632024e+06 3.349544e+06 1.455190e+04 7.663179e+01 1.733609e+01 1.035228e-01 1.035228e-01
<GCONST> 1.427413e+02
<STATE> 3
<MEAN> 20
 6.259901e+03 3.655925e+02 1.562130e+03 1.007344e-01 0.000000e+00 0.000000e+00 0.000000e+00 0.000000e+00 0.000000e+00 1.560805e+02 1.423377e-34 4.769970e+02 4.757143e+03 2.830281e+03 2.648747e+02 1.347547e+01 9.891223e-01 4.458096e-02 0.000000e+00 0.000000e+00
<VARIANCE> 20
 3.558378e+06 2.379438e+04 3.556491e+05 1.913213e-01 1.000000e-02 1.000000e-02 1.000000e-02 1.000000e-02 1.000000e-02 3.565021e+04 1.000000e-02 1.622728e+05 1.518805e+06 1.089769e+06 1.121418e+05 2.996534e+02 8.872155e+00 8.717446e-02 1.000000e-02 1.000000e-02
<GCONST> 1.038928e+02
<STATE> 4
<MEAN> 20
 9.255357e+03 3.336312e+02 9.203049e+02 1.383180e-01 0.000000e+00 0.000000e+00 0.000000e+00 0.000000e+00 0.000000e+00 1.218979e+02 2.641894e+01 2.900568e+02 5.845544e+03 3.956697e+03 4.478379e+02 4.569341e+01 1.102709e+01 7.362569e+00 6.915877e-01 0.000000e+00
<VARIANCE> 20
 5.342755e+06 1.651882e+05 7.812096e+05 1.191861e-01 1.000000e-02 1.000000e-02 1.000000e-02 1.000000e-02 1.000000e-02 2.870967e+04 4.295497e+03 7.872638e+04 2.508878e+06 5.400450e+05 1.535922e+04 5.389676e+02 6.428035e+01 8.680042e+01 1.873110e+00 1.000000e-02
<GCONST> 1.310965e+02
<STATE> 5
<MEAN> 20
 6.604267e+03 3.396940e+02 1.578389e+03 0.000000e+00 0.000000e+00 0.000000e+00 0.000000e+00 0.000000e+00 0.000000e+00 1.315595e+02 0.000000e+00 1.934687e+02 4.471814e+03 3.636351e+03 3.234291e+02 2.734872e+01 1.498276e+00 -1.431556e-22 0.000000e+00 0.000000e+00
<VARIANCE> 20
 8.739973e+05 1.284456e+04 1.884777e+05 1.000000e-02 1.000000e-02 1.000000e-02 1.000000e-02 1.000000e-02 1.000000e-02 1.381160e+04 1.000000e-02 1.356456e+04 9.719084e+05 2.648326e+05 3.054456e+04 8.568318e+02 6.617159e+00 1.000000e-02 1.000000e-02 1.000000e-02
<GCONST> 9.028627e+01
<STATE> 6
<MEAN> 20
 9.124733e+03 1.377807e+02 5.274630e+02 -2.517565e-29 0.000000e+00 0.000000e+00 0.000000e+00 0.000000e+00 0.000000e+00 1.742124e+02 0.000000e+00 2.541984e+02 5.875391e+03 3.480739e+03 3.063400e+02 3.772786e+01 9.120898e+00 6.528302e-01 2.040091e-02 0.000000e+00
<VARIANCE> 20
 1.872714e+06 2.871350e+04 5.771676e+05 1.000000e-02 1.000000e-02 1.000000e-02 1.000000e-02 1.000000e-02 1.000000e-02 3.411735e+04 1.000000e-02 1.467036e+05 1.804564e+06 1.439253e+06 5.863170e+04 1.721038e+03 2.521120e+02 1.491501e+00 1.998472e-02 1.000000e-02
<GCONST> 1.092559e+02
<STATE> 7
<MEAN> 20
 8.197618e+03 3.173918e+02 1.465897e+03 8.999722e+00 0.000000e+00 0.000000e+00 0.000000e+00 0.000000e+00 0.000000e+00 1.594432e+02 0.000000e+00 5.426198e+02 6.812812e+03 2.599199e+03 1.336093e+02 4.077748e+01 1.233316e+01 5.166586e+00 1.944417e+00 8.888773e-01
<VARIANCE> 20
 1.955050e+06 2.615653e+04 6.082096e+05 3.225475e+02 1.000000e-02 1.000000e-02 1.000000e-02 1.000000e-02 1.000000e-02 5.759180e+04 1.000000e-02 1.170673e+05 9.161033e+05 1.238237e+06 2.113777e+03 1.838046e+03 2.009994e+02 6.080516e+01 2.127450e+01 6.876472e+00
<GCONST> 1.328368e+02
<STATE> 8
<MEAN> 20
 9.640752e+03 2.875000e+02 1.353999e+03 1.049989e+01 0.000000e+00 0.000000e+00 0.000000e+00 0.000000e+00 0.000000e+00 2.507510e+02 0.000000e+00 9.587509e+02 8.348251e+03 2.093750e+03 1.067500e+02 2.700017e+01 7.000050e+00 1.500012e+00 5.000039e-01 3.713441e-43
<VARIANCE> 20
 3.131314e+06 1.832231e+04 5.650450e+05 1.822483e+02 1.000000e-02 1.000000e-02 1.000000e-02 1.000000e-02 1.000000e-02 6.474550e+04 1.000000e-02 3.305781e+05 1.846261e+05 2.598422e+06 5.886885e+02 5.995005e+02 1.095004e+02 2.750005e+00 2.500000e-01 1.000000e-02
<GCONST> 1.155228e+02
<STATE> 9
<MEAN> 20
 8.591739e+03 3.057496e+02 1.317933e+03 1.468160e+00 0.000000e+00 0.000000e+00 0.000000e+00 0.000000e+00 0.000000e+00 3.169767e+02 0.000000e+00 1.090180e+03 8.015806e+03 1.317131e+03 9.010908e+01 1.616505e+01 4.153879e+00 3.222847e-01 0.000000e+00 0.000000e+00
<VARIANCE> 20
 3.825386e+06 4.721447e+04 8.496546e+05 1.707377e+01 1.000000e-02 1.000000e-02 1.000000e-02 1.000000e-02 1.000000e-02 5.910159e+04 1.000000e-02 5.506194e+05 1.517096e+06 9.238861e+05 3.008162e+03 3.824792e+02 5.679904e+01 1.006222e+00 1.000000e-02 1.000000e-02
<GCONST> 1.125019e+02
<STATE> 10
<MEAN> 20
 9.426954e+03 3.847798e+02 1.625862e+03 5.374143e+01 0.000000e+00 0.000000e+00 0.000000e+00 0.000000e+00 0.000000e+00 6.521351e+02 7.086195e+00 2.437927e+03 9.092508e+03 5.246724e+02 6.689768e+01 1.261884e+01 1.699220e+00 6.270862e-02 0.000000e+00 0.000000e+00
<VARIANCE> 20
 2.471204e+06 1.375122e+04 2.324412e+05 2.150528e+03 1.000000e-02 1.000000e-02 1.000000e-02 1.000000e-02 1.000000e-02 5.101346e+04 2.562495e+02 3.416884e+05 1.382724e+06 1.072060e+05 2.484799e+03 4.677442e+02 2.704901e+01 5.877624e-02 1.000000e-02 1.000000e-02
<GCONST> 1.180795e+02
<STATE> 11
<MEAN> 20
 8.442081e+03 3.470997e+02 1.603726e+03 1.042903e+02 0.000000e+00 0.000000e+00 0.000000e+00 0.000000e+00 0.000000e+00 8.816438e+02 2.093871e-01 3.179755e+03 7.636285e+03 4.270539e+02 9.590533e+01 3.441867e+01 4.587022e+00 5.222644e-01 1.046929e-01 0.000000e+00
<VARIANCE> 20
 1.292945e+06 1.012646e+04 2.568243e+05 1.986338e+04 1.000000e-02 1.000000e-02 1.000000e-02 1.000000e-02 1.000000e-02 1.806279e+05 2.702371e-01 1.078428e+06 6.863954e+05 3.283936e+04 7.571942e+02 7.926346e+02 5.173731e+01 1.191741e+00 1.984252e-01 1.000000e-02
<GCONST> 1.191092e+02
<STATE> 12
<MEAN> 20
 8.625959e+03 3.221964e+02 9.465905e+02 3.419738e+02 0.000000e+00 0.000000e+00 0.000000e+00 0.000000e+00 0.000000e+00 8.237200e+02 2.989523e-01 3.544876e+03 6.929362e+03 4.795594e+02 6.622154e+01 2.532337e+01 1.120774e+01 3.291833e+00 1.993015e-01 9.965075e-02
<VARIANCE> 20
 2.747853e+06 1.942156e+04 2.879809e+05 7.798334e+04 1.000000e-02 1.000000e-02 1.000000e-02 1.000000e-02 1.000000e-02 7.059611e+04 8.074844e-01 1.740247e+06 1.966683e+06 1.207911e+05 1.157321e+03 7.267672e+02 2.276294e+02 2.793124e+01 3.588820e-01 8.972049e-02
<GCONST> 1.327453e+02
<STATE> 13
<MEAN> 20
 9.570805e+03 1.598884e+02 5.558346e+02 2.946426e+00 0.000000e+00 0.000000e+00 0.000000e+00 0.000000e+00 0.000000e+00 6.225933e+02 1.052308e+00 1.672045e+03 8.370255e+03 7.466457e+02 7.627250e+01 2.565870e+01 1.393029e+01 5.207703e+00 8.418348e-01 1.578437e-01
<VARIANCE> 20
 3.408342e+06 3.375261e+04 5.700554e+05 5.919138e+01 1.000000e-02 1.000000e-02 1.000000e-02 1.000000e-02 1.000000e-02 1.399760e+05 1.993881e+01 8.391498e+05 2.695548e+06 2.973616e+05 5.046755e+03 4.692662e+02 1.983887e+02 4.122340e+01 3.605708e+00 2.381573e-01
<GCONST> 1.359609e+02
<TRANSP> 14
 0.000000e+00 1.000000e+00 0.000000e+00 0.000000e+00 0.000000e+00 0.000000e+00 0.000000e+00 0.000000e+00 0.000000e+00 0.000000e+00 0.000000e+00 0.000000e+00 0.000000e+00 0.000000e+00
 0.000000e+00 5.000368e-01 4.999633e-01 0.000000e+00 0.000000e+00 0.000000e+00 0.000000e+00 0.000000e+00 0.000000e+00 0.000000e+00 0.000000e+00 0.000000e+00 0.000000e+00 0.000000e+00
 0.000000e+00 0.000000e+00 8.992665e-01 1.007335e-01 0.000000e+00 0.000000e+00 0.000000e+00 0.000000e+00 0.000000e+00 0.000000e+00 0.000000e+00 0.000000e+00 0.000000e+00 0.000000e+00
 0.000000e+00 0.000000e+00 0.000000e+00 4.467283e-01 5.532718e-01 0.000000e+00 0.000000e+00 0.000000e+00 0.000000e+00 0.000000e+00 0.000000e+00 0.000000e+00 0.000000e+00 0.000000e+00
 0.000000e+00 0.000000e+00 0.000000e+00 0.000000e+00 8.749315e-01 1.250685e-01 0.000000e+00 0.000000e+00 0.000000e+00 0.000000e+00 0.000000e+00 0.000000e+00 0.000000e+00 0.000000e+00
 0.000000e+00 0.000000e+00 0.000000e+00 0.000000e+00 0.000000e+00 9.183964e-01 8.160363e-02 0.000000e+00 0.000000e+00 0.000000e+00 0.000000e+00 0.000000e+00 0.000000e+00 0.000000e+00
 0.000000e+00 0.000000e+00 0.000000e+00 0.000000e+00 0.000000e+00 0.000000e+00 7.777824e-01 2.222176e-01 0.000000e+00 0.000000e+00 0.000000e+00 0.000000e+00 0.000000e+00 0.000000e+00
 0.000000e+00 0.000000e+00 0.000000e+00 0.000000e+00 0.000000e+00 0.000000e+00 0.000000e+00 0.000000e+00 1.000000e+00 0.000000e+00 0.000000e+00 0.000000e+00 0.000000e+00 0.000000e+00
 0.000000e+00 0.000000e+00 0.000000e+00 0.000000e+00 0.000000e+00 0.000000e+00 0.000000e+00 0.000000e+00 8.567628e-01 1.432372e-01 0.000000e+00 0.000000e+00 0.000000e+00 0.000000e+00
 0.000000e+00 0.000000e+00 0.000000e+00 0.000000e+00 0.000000e+00 0.000000e+00 0.000000e+00 0.000000e+00 0.000000e+00 7.491616e-01 2.508384e-01 0.000000e+00 0.000000e+00 0.000000e+00
 0.000000e+00 0.000000e+00 0.000000e+00 0.000000e+00 0.000000e+00 0.000000e+00 0.000000e+00 0.000000e+00 0.000000e+00 0.000000e+00 7.906108e-01 2.093892e-01 0.000000e+00 0.000000e+00
 0.000000e+00 0.000000e+00 0.000000e+00 0.000000e+00 0.000000e+00 0.000000e+00 0.000000e+00 0.000000e+00 0.000000e+00 0.000000e+00 0.000000e+00 6.014017e-01 3.985983e-01 0.000000e+00
 0.000000e+00 0.000000e+00 0.000000e+00 0.000000e+00 0.000000e+00 0.000000e+00 0.000000e+00 0.000000e+00 0.000000e+00 0.000000e+00 0.000000e+00 0.000000e+00 7.895401e-01 2.104600e-01
 0.000000e+00 0.000000e+00 0.000000e+00 0.000000e+00 0.000000e+00 0.000000e+00 0.000000e+00 0.000000e+00 0.000000e+00 0.000000e+00 0.000000e+00 0.000000e+00 0.000000e+00 0.000000e+00
<ENDHMM>
~h "g"
<BEGINHMM>
<NUMSTATES> 14
<STATE> 2
<MEAN> 20
 6.474067e+03 5.207749e+01 8.279697e+01 0.000000e+00 4.000957e-02 1.191626e+03 1.907709e+02 1.205863e+02 1.404318e+02 2.043587e+03 2.040563e+00 1.887379e+03 6.266629e+03 6.316616e+02 6.030009e+02 6.911671e+02 1.296495e+02 5.621959e+01 2.507726e+01 3.159813e+00
<VARIANCE> 20
 8.957685e+06 1.716250e+04 1.477077e+05 1.000000e-02 3.840881e-02 7.851398e+05 4.742462e+04 1.303595e+04 1.298919e+04 1.265663e+06 9.718876e+00 1.304719e+06 8.027624e+06 2.078746e+05 3.458088e+05 2.042480e+05 1.370238e+04 4.370808e+03 1.694379e+03 4.446698e+01
<GCONST> 2.225106e+02
<STATE> 3
<MEAN> 20
 4.843273e+03 1.221756e+02 1.378161e+02 1.488637e-15 0.000000e+00 2.743481e+01 8.251212e+00 6.062660e+00 1.110073e+01 2.033605e+02 4.302281e+00 2.256692e+02 1.520389e+03 2.266837e+03 1.241850e+03 7.185675e+01 2.531856e+01 3.152310e+00 1.000739e-01 6.536886e-16
<VARIANCE> 20
 7.051398e+06 3.710068e+04 1.389355e+05 1.000000e-02 1.000000e-02 1.051997e+04 5.099875e+02 2.385400e+02 6.139754e+02 2.023092e+05 9.617311e+01 3.395940e+05 5.366136e+06 2.089436e+06 1.268176e+06 1.614433e+04 4.130958e+03 4.365215e+01 9.005911e-02 1.000000e-02
<GCONST> 1.814687e+02
<STATE> 4
<MEAN> 20
 4.246757e+03 2.679171e+02 4.834184e+02 1.067506e+02 7.025034e+01 1.902507e+02 1.229172e+02 5.891695e+01 3.200014e+01 2.030844e+02 2.358342e+02 4.796693e+02 1.062589e+03 1.708009e+03 1.645998e+03 5.359139e+02 9.866689e+01 1.141670e+01 3.000012e+00 1.166673e+00
<VARIANCE> 20
 2.666501e+06 1.765746e+04 2.957033e+05 4.333754e+04 1.453425e+04 9.141788e+04 3.321987e+04 9.474116e+03 2.996180e+03 1.310053e+05 9.793266e+04 6.329330e+05 3.704164e+06 2.103750e+06 1.439066e+06 2.980987e+05 2.160915e+04 9.019144e+02 6.316700e+01 6.972254e+00
<GCONST> 2.491615e+02
<STATE> 5
<MEAN> 20
 3.782130e+03 2.282767e+02 1.690324e+02 7.234410e+00 7.821001e+00 8.114314e+00 8.759525e+01 3.939839e+01 3.656329e+01 1.082247e+02 1.887797e+02 1.444951e+02 8.145165e+02 1.066868e+03 1.693917e+03 5.306872e+02 3.048951e+01 2.284799e+00 1.259872e+00 1.092730e+00
<VARIANCE> 20
 1.141156e+07 8.428393e+04 9.845888e+04 4.830096e+02 2.587109e+02 2.119015e+02 3.491186e+04 2.428560e+03 2.962527e+03 3.631079e+04 1.312790e+05 4.982439e+04 4.153650e+06 2.066113e+06 4.269360e+06 3.332748e+05 1.387373e+03 2.215771e+01 7.253892e+00 5.959933e+00
<GCONST> 2.241539e+02
<STATE> 6
<MEAN> 20
 3.365846e+03 9.134905e+01 1.527632e+02 4.358661e+01 3.219802e+01 1.603942e+02 2.438754e+01 7.393734e+00 4.889409e+00 3.011120e+01 1.919979e+01 6.523144e+01 1.885728e+02 6.988378e+02 2.162817e+03 6.530034e+02 1.017898e+02 2.007185e+01 2.391756e+00 1.003047e+00
<VARIANCE> 20
 4.218882e+06 1.281873e+04 1.180982e+05 5.068520e+03 2.790913e+03 5.711902e+04 2.972988e+03 1.759668e+02 5.957067e+01 4.132174e+03 1.116416e+03 9.465278e+03 1.059032e+05 1.376479e+06 2.980600e+06 3.216593e+05 4.102626e+04 2.382612e+03 1.995212e+01 6.078670e+00
<GCONST> 2.188132e+02
<STATE> 7
<MEAN> 20
 4.257585e+03 1.342617e+02 6.299916e+01 7.947373e+00 5.631581e+00 7.210400e+00 2.615747e+01 1.810524e+01 4.526362e+01 4.405273e+01 1.158947e+02 4.257843e+01 3.348929e+02 1.857751e+03 1.639519e+03 5.635782e+02 5.336856e+01 1.631598e+00 0.000000e+00 0.000000e+00
<VARIANCE> 20
 4.944930e+06 5.606987e+04 1.257238e+04 4.212061e+02 2.327583e+02 1.762709e+02 2.749691e+03 9.365200e+02 2.650691e+04 4.365782e+03 1.006362e+05 3.380449e+03 6.775550e+05 4.937637e+06 2.209628e+06 5.810975e+05 1.514767e+04 2.654877e+01 1.000000e-02 1.000000e-02
<GCONST> 2.025972e+02
<STATE> 8
<MEAN> 20
 3.780554e+03 7.040049e+01 2.700021e+00 1.500012e-01 5.500043e-01 0.000000e+00 1.500012e-01 5.000039e-02 1.300004e+00 2.504994e+01 1.795014e+01 3.800030e+01 2.752967e+02 7.698951e+02 1.878909e+03 8.545526e+02 4.590024e+01 3.999987e-01 0.000000e+00 0.000000e+00
<VARIANCE> 20
 2.877957e+06 6.540361e+04 7.741055e+01 4.275031e-01 5.747544e+00 1.000000e-02 4.275031e-01 4.750034e-02 1.821010e+01 1.893436e+03 2.382464e+03 2.184286e+04 3.317137e+05 1.025386e+06 3.396748e+06 7.985064e+05 7.500532e+03 9.400031e-01 1.000000e-02 1.000000e-02
<GCONST> 1.425122e+02
<STATE> 9
<MEAN> 20
 7.127444e+03 7.639567e+00 0.000000e+00 0.000000e+00 0.000000e+00 0.000000e+00 0.000000e+00 0.000000e+00 0.000000e+00 7.555476e+01 0.000000e+00 3.900452e+01 3.043554e+03 1.953071e+03 1.850468e+03 3.136431e+02 1.006579e+01 7.623461e-01 6.924041e-02 0.000000e+00
<VARIANCE> 20
 1.738552e+07 6.089571e+02 1.000000e-02 1.000000e-02 1.000000e-02 1.000000e-02 1.000000e-02 1.000000e-02 1.000000e-02 2.117903e+04 1.000000e-02 1.804545e+04 1.480783e+07 5.821008e+06 3.255296e+06 1.403409e+05 3.554767e+02 6.093188e+00 6.444619e-02 1.000000e-02
<GCONST> 1.020293e+02
<STATE> 10
<MEAN> 20
 8.498283e+03 1.537133e+00 0.000000e+00 0.000000e+00 0.000000e+00 0.000000e+00 0.000000e+00 0.000000e+00 0.000000e+00 5.445056e+01 7.123274e-01 3.928924e+01 4.706272e+03 3.664241e+03 1.214237e+02 1.247830e+01 6.106541e+00 2.923154e+00 7.498249e-01 7.498232e-02
<VARIANCE> 20
 3.867988e+06 2.406833e+01 1.000000e-02 1.000000e-02 1.000000e-02 1.000000e-02 1.000000e-02 1.000000e-02 1.000000e-02 4.835679e+03 7.178204e+00 2.822100e+04 5.366340e+06 4.692482e+06 2.010931e+04 2.312198e+02 7.343336e+01 2.639006e+01 2.587038e+00 6.935999e-02
<GCONST> 9.563401e+01
<STATE> 11
<MEAN> 20
 9.700398e+03 0.000000e+00 0.000000e+00 0.000000e+00 0.000000e+00 0.000000e+00 0.000000e+00 0.000000e+00 0.000000e+00 1.157003e+02 0.000000e+00 4.404452e+02 7.421492e+03 1.844196e+03 1.012381e+02 7.830903e+00 8.439885e-01 5.334173e-02 0.000000e+00 0.000000e+00
<VARIANCE> 20
 5.447069e+06 1.000000e-02 1.000000e-02 1.000000e-02 1.000000e-02 1.000000e-02 1.000000e-02 1.000000e-02 1.000000e-02 2.527685e+04 1.000000e-02 5.831858e+05 6.086419e+06 3.052342e+06 2.434904e+04 1.664737e+02 6.155776e+00 7.716723e-02 1.000000e-02 1.000000e-02
<GCONST> 7.004884e+01
<STATE> 12
<MEAN> 20
 1.018357e+04 3.999979e+00 0.000000e+00 0.000000e+00 0.000000e+00 0.000000e+00 0.000000e+00 0.000000e+00 0.000000e+00 4.507666e+01 1.428564e+00 2.474767e+02 6.535078e+03 3.215887e+03 1.671774e+02 4.925703e+01 1.448048e+01 1.857174e+00 0.000000e+00 0.000000e+00
<VARIANCE> 20
 1.443471e+06 5.599979e+01 1.000000e-02 1.000000e-02 1.000000e-02 1.000000e-02 1.000000e-02 1.000000e-02 1.000000e-02 3.220712e+03 1.224484e+01 2.558491e+05 5.086168e+06 4.865564e+06 2.123218e+04 2.097002e+03 5.554313e+02 9.265407e+00 1.000000e-02 1.000000e-02
<GCONST> 9.355101e+01
<STATE> 13
<MEAN> 20
 9.242706e+03 0.000000e+00 0.000000e+00 0.000000e+00 0.000000e+00 0.000000e+00 0.000000e+00 0.000000e+00 0.000000e+00 5.653594e+01 -3.373123e-15 3.460384e+02 6.600897e+03 2.202791e+03 1.200538e+02 2.497151e+01 4.129689e+00 2.488671e-01 1.106089e-01 0.000000e+00
<VARIANCE> 20
 2.019981e+06 1.000000e-02 1.000000e-02 1.000000e-02 1.000000e-02 1.000000e-02 1.000000e-02 1.000000e-02 1.000000e-02 7.469726e+03 1.000000e-02 5.771964e+05 4.671198e+06 3.452686e+06 8.736805e+03 9.128425e+02 7.788155e+01 8.505786e-01 4.302010e-01 1.000000e-02
<GCONST> 7.706228e+01
<TRANSP> 14
 0.000000e+00 1.000000e+00 0.000000e+00 0.000000e+00 0.000000e+00 0.000000e+00 0.000000e+00 0.000000e+00 0.000000e+00 0.000000e+00 0.000000e+00 0.000000e+00 0.000000e+00 0.000000e+00
 0.000000e+00 7.199357e-01 2.800643e-01 0.000000e+00 0.000000e+00 0.000000e+00 0.000000e+00 0.000000e+00 0.000000e+00 0.000000e+00 0.000000e+00 0.000000e+00 0.000000e+00 0.000000e+00
 0.000000e+00 0.000000e+00 6.497405e-01 3.502595e-01 0.000000e+00 0.000000e+00 0.000000e+00 0.000000e+00 0.000000e+00 0.000000e+00 0.000000e+00 0.000000e+00 0.000000e+00 0.000000e+00
 0.000000e+00 0.000000e+00 0.000000e+00 4.166697e-01 5.833303e-01 0.000000e+00 0.000000e+00 0.000000e+00 0.000000e+00 0.000000e+00 0.000000e+00 0.000000e+00 0.000000e+00 0.000000e+00
 0.000000e+00 0.000000e+00 0.000000e+00 0.000000e+00 3.156556e-01 6.843444e-01 0.000000e+00 0.000000e+00 0.000000e+00 0.000000e+00 0.000000e+00 0.000000e+00 0.000000e+00 0.000000e+00
 0.000000e+00 0.000000e+00 0.000000e+00 0.000000e+00 0.000000e+00 5.826213e-01 4.173788e-01 0.000000e+00 0.000000e+00 0.000000e+00 0.000000e+00 0.000000e+00 0.000000e+00 0.000000e+00
 0.000000e+00 0.000000e+00 0.000000e+00 0.000000e+00 0.000000e+00 0.000000e+00 6.315781e-01 3.684219e-01 0.000000e+00 0.000000e+00 0.000000e+00 0.000000e+00 0.000000e+00 0.000000e+00
 0.000000e+00 0.000000e+00 0.000000e+00 0.000000e+00 0.000000e+00 0.000000e+00 0.000000e+00 6.500006e-01 3.499993e-01 0.000000e+00 0.000000e+00 0.000000e+00 0.000000e+00 0.000000e+00
 0.000000e+00 0.000000e+00 0.000000e+00 0.000000e+00 0.000000e+00 0.000000e+00 0.000000e+00 0.000000e+00 8.384381e-01 1.615619e-01 0.000000e+00 0.000000e+00 0.000000e+00 0.000000e+00
 0.000000e+00 0.000000e+00 0.000000e+00 0.000000e+00 0.000000e+00 0.000000e+00 0.000000e+00 0.000000e+00 0.000000e+00 7.375622e-01 2.624377e-01 0.000000e+00 0.000000e+00 0.000000e+00
 0.000000e+00 0.000000e+00 0.000000e+00 0.000000e+00 0.000000e+00 0.000000e+00 0.000000e+00 0.000000e+00 0.000000e+00 0.000000e+00 9.066529e-01 9.334706e-02 0.000000e+00 0.000000e+00
 0.000000e+00 0.000000e+00 0.000000e+00 0.000000e+00 0.000000e+00 0.000000e+00 0.000000e+00 0.000000e+00 0.000000e+00 0.000000e+00 0.000000e+00 0.000000e+00 1.000000e+00 0.000000e+00
 0.000000e+00 0.000000e+00 0.000000e+00 0.000000e+00 0.000000e+00 0.000000e+00 0.000000e+00 0.000000e+00 0.000000e+00 0.000000e+00 0.000000e+00 0.000000e+00 8.064369e-01 1.935631e-01
 0.000000e+00 0.000000e+00 0.000000e+00 0.000000e+00 0.000000e+00 0.000000e+00 0.000000e+00 0.000000e+00 0.000000e+00 0.000000e+00 0.000000e+00 0.000000e+00 0.000000e+00 0.000000e+00
<ENDHMM>
~h "h"
<BEGINHMM>
<NUMSTATES> 14
<STATE> 2
<MEAN> 20
 5.488209e+03 3.999999e+00 5.714285e-01 0.000000e+00 3.285713e+00 1.028571e+01 1.115714e+02 8.099998e+01 8.671487e+01 1.557288e+03 8.284373e+02 9.939802e+02 2.673053e+03 1.054878e+03 1.646153e+03 6.985708e+01 2.628491e+01 4.485458e+01 4.857105e+00 5.714304e-01
<VARIANCE> 20
 1.133052e+07 3.114285e+01 1.959183e+00 1.000000e-02 1.734694e+01 2.990612e+02 2.870024e+04 9.381429e+03 1.015857e+04 7.771374e+06 2.436945e+06 1.948735e+06 1.373282e+07 6.138919e+05 2.259740e+06 4.090701e+03 1.028187e+03 5.480929e+03 4.783742e+01 1.102040e+00
<GCONST> 2.069724e+02
<STATE> 3
<MEAN> 20
 7.648472e+03 0.000000e+00 0.000000e+00 0.000000e+00 0.000000e+00 0.000000e+00 0.000000e+00 0.000000e+00 0.000000e+00 4.320640e+02 0.000000e+00 8.104337e+02 4.060134e+03 2.098557e+03 9.070269e+02 1.023877e+02 2.422978e+01 7.045861e+01 7.307389e+00 0.000000e+00
<VARIANCE> 20
 7.486756e+06 1.000000e-02 1.000000e-02 1.000000e-02 1.000000e-02 1.000000e-02 1.000000e-02 1.000000e-02 1.000000e-02 2.198212e+05 1.000000e-02 7.310738e+05 1.371578e+07 3.118583e+06 8.626971e+05 3.074660e+04 1.373683e+03 1.188181e+04 2.278981e+02 1.000000e-02
<GCONST> 1.097625e+02
<STATE> 4
<MEAN> 20
 4.439568e+03 8.482812e+01 1.600023e+01 0.000000e+00 3.466721e+01 2.483372e+01 2.178351e+02 7.000093e+01 3.166716e+01 1.881693e+02 1.099981e+02 3.148358e+02 2.285032e+03 1.369850e+03 7.293472e+02 2.596719e+02 2.466705e+01 1.300020e+01 1.166684e+00 0.000000e+00
<VARIANCE> 20
 1.601189e+07 1.758797e+04 7.483416e+02 1.000000e-02 6.008963e+03 3.083511e+03 2.003744e+05 2.285930e+04 4.826948e+03 8.256159e+04 2.932565e+04 1.194686e+05 1.504561e+07 2.715162e+06 9.289769e+05 1.517635e+05 1.145897e+03 7.233417e+02 6.805637e+00 1.000000e-02
<GCONST> 2.138475e+02
<STATE> 5
<MEAN> 20
 4.135768e+03 2.926675e+02 1.916632e+01 1.549970e+01 6.183214e+01 5.466561e+01 1.824981e+02 8.483185e+01 2.383286e+01 1.708302e+02 5.956587e+02 3.514955e+02 1.884632e+03 3.561639e+02 1.442147e+03 3.746614e+02 1.499971e+01 8.666499e+00 6.666538e+00 6.499874e+00
<VARIANCE> 20
 8.233107e+06 1.852666e+05 7.647974e+02 6.205760e+02 8.530716e+03 5.038517e+03 6.323958e+04 1.397165e+04 6.431373e+02 2.050658e+04 4.499543e+05 8.280705e+04 1.267217e+07 3.714026e+04 7.445811e+05 1.359629e+05 2.543329e+02 2.532188e+02 1.515535e+02 1.422481e+02
<GCONST> 2.300623e+02
<STATE> 6
<MEAN> 20
 3.423273e+03 4.931500e+01 0.000000e+00 0.000000e+00 0.000000e+00 0.000000e+00 1.331039e-01 1.996558e-01 6.655194e-02 2.628803e+01 5.989675e-01 6.657604e+01 7.841938e+02 5.557711e+02 1.680400e+03 3.727061e+02 2.777796e+01 8.788296e+00 1.597247e+00 8.651752e-01
<VARIANCE> 20
 4.854824e+06 1.497077e+04 1.000000e-02 1.000000e-02 1.000000e-02 1.000000e-02 2.484911e-01 5.591049e-01 6.212277e-02 8.255987e+03 2.369868e+00 4.772435e+04 4.980026e+06 6.426252e+05 1.324067e+06 1.110839e+05 3.937255e+03 3.773225e+02 2.313785e+01 6.505634e+00
<GCONST> 1.329825e+02
<STATE> 7
<MEAN> 20
 9.427562e+03 7.173740e-02 0.000000e+00 0.000000e+00 0.000000e+00 0.000000e+00 0.000000e+00 0.000000e+00 0.000000e+00 1.858177e+02 0.000000e+00 2.932874e+02 5.877455e+03 2.408450e+03 9.811360e+02 4.409881e+01 6.944661e+00 1.899191e+00 1.434748e-01 3.586920e-02
<VARIANCE> 20
 1.283851e+07 1.383286e-01 1.000000e-02 1.000000e-02 1.000000e-02 1.000000e-02 1.000000e-02 1.000000e-02 1.000000e-02 4.894320e+04 1.000000e-02 1.487426e+05 1.552373e+07 2.294520e+06 2.779643e+06 3.305861e+03 3.508544e+02 6.357148e+01 3.381020e-01 3.458260e-02
<GCONST> 9.672334e+01
<STATE> 8
<MEAN> 20
 9.808797e+03 0.000000e+00 0.000000e+00 0.000000e+00 0.000000e+00 0.000000e+00 0.000000e+00 0.000000e+00 0.000000e+00 2.732874e+02 0.000000e+00 1.047895e+03 7.869525e+03 1.046564e+03 9.492848e+01 1.713895e+01 4.297945e+00 1.570403e+00 1.653055e-01 0.000000e+00
<VARIANCE> 20
 6.087232e+06 1.000000e-02 1.000000e-02 1.000000e-02 1.000000e-02 1.000000e-02 1.000000e-02 1.000000e-02 1.000000e-02 1.092356e+05 1.000000e-02 6.590625e+05 4.056911e+06 5.055475e+05 5.224414e+03 3.400707e+02 7.178448e+01 1.695724e+01 1.379796e-01 1.000000e-02
<GCONST> 7.919067e+01
<STATE> 9
<MEAN> 20
 9.584095e+03 0.000000e+00 0.000000e+00 0.000000e+00 0.000000e+00 0.000000e+00 0.000000e+00 0.000000e+00 0.000000e+00 3.824187e+02 0.000000e+00 6.334227e+02 8.370700e+03 9.138134e+02 4.454609e+01 4.031620e+00 -2.079143e-35 0.000000e+00 0.000000e+00 0.000000e+00
<VARIANCE> 20
 5.398278e+06 1.000000e-02 1.000000e-02 1.000000e-02 1.000000e-02 1.000000e-02 1.000000e-02 1.000000e-02 1.000000e-02 6.986995e+04 1.000000e-02 2.336139e+05 3.293162e+06 5.893654e+05 2.803869e+03 3.574582e+01 1.000000e-02 1.000000e-02 1.000000e-02 1.000000e-02
<GCONST> 5.571707e+01
<STATE> 10
<MEAN> 20
 9.888990e+03 0.000000e+00 0.000000e+00 0.000000e+00 0.000000e+00 0.000000e+00 0.000000e+00 0.000000e+00 0.000000e+00 1.980498e+02 0.000000e+00 9.441906e+02 8.158008e+03 8.044760e+02 1.336895e+02 3.539186e+01 4.764424e+00 6.519593e+00 0.000000e+00 0.000000e+00
<VARIANCE> 20
 1.243855e+06 1.000000e-02 1.000000e-02 1.000000e-02 1.000000e-02 1.000000e-02 1.000000e-02 1.000000e-02 1.000000e-02 4.645025e+04 1.000000e-02 2.393070e+05 1.459949e+05 2.240803e+05 5.778339e+03 1.254789e+03 1.159671e+02 2.965137e+02 1.000000e-02 1.000000e-02
<GCONST> 7.371910e+01
<STATE> 11
<MEAN> 20
 1.162660e+04 1.450017e+01 0.000000e+00 0.000000e+00 0.000000e+00 0.000000e+00 0.000000e+00 0.000000e+00 0.000000e+00 2.903560e+02 2.300027e+01 9.595417e+02 1.010352e+04 6.656792e+02 1.272269e+02 5.074305e+01 1.749789e+00 0.000000e+00 0.000000e+00 0.000000e+00
<VARIANCE> 20
 5.522566e+06 6.307549e+02 1.000000e-02 1.000000e-02 1.000000e-02 1.000000e-02 1.000000e-02 1.000000e-02 1.000000e-02 9.373943e+04 1.587012e+03 5.633571e+05 3.125871e+06 1.672178e+05 1.984320e+04 3.770088e+03 3.688019e+00 1.000000e-02 1.000000e-02 1.000000e-02
<GCONST> 9.115449e+01
<STATE> 12
<MEAN> 20
 1.054267e+04 0.000000e+00 0.000000e+00 0.000000e+00 0.000000e+00 0.000000e+00 0.000000e+00 0.000000e+00 0.000000e+00 6.559368e+01 0.000000e+00 1.487267e+03 8.243121e+03 8.023517e+02 6.461665e+01 1.084580e+01 5.863711e-02 0.000000e+00 0.000000e+00 0.000000e+00
<VARIANCE> 20
 7.078444e+06 1.000000e-02 1.000000e-02 1.000000e-02 1.000000e-02 1.000000e-02 1.000000e-02 1.000000e-02 1.000000e-02 1.210696e+04 1.000000e-02 7.632095e+05 3.784824e+06 1.621752e+05 3.437846e+03 3.108304e+02 5.519882e-02 1.000000e-02 1.000000e-02 1.000000e-02
<GCONST> 5.834286e+01
<STATE> 13
<MEAN> 20
 1.038862e+04 0.000000e+00 0.000000e+00 0.000000e+00 0.000000e+00 0.000000e+00 0.000000e+00 0.000000e+00 0.000000e+00 4.419636e+02 0.000000e+00 1.855468e+03 8.604091e+03 3.532899e+02 1.673554e+01 1.002045e+00 -3.584534e-38 0.000000e+00 0.000000e+00 0.000000e+00
<VARIANCE> 20
 1.808093e+06 1.000000e-02 1.000000e-02 1.000000e-02 1.000000e-02 1.000000e-02 1.000000e-02 1.000000e-02 1.000000e-02 7.768602e+04 1.000000e-02 9.392478e+05 8.613761e+05 4.572729e+04 5.112270e+02 9.923182e+00 1.000000e-02 1.000000e-02 1.000000e-02 1.000000e-02
<GCONST> 4.923979e+01
<TRANSP> 14
 0.000000e+00 1.000000e+00 0.000000e+00 0.000000e+00 0.000000e+00 0.000000e+00 0.000000e+00 0.000000e+00 0.000000e+00 0.000000e+00 0.000000e+00 0.000000e+00 0.000000e+00 0.000000e+00
 0.000000e+00 4.285705e-01 5.714295e-01 0.000000e+00 0.000000e+00 0.000000e+00 0.000000e+00 0.000000e+00 0.000000e+00 0.000000e+00 0.000000e+00 0.000000e+00 0.000000e+00 0.000000e+00
 0.000000e+00 0.000000e+00 6.922918e-01 3.077082e-01 0.000000e+00 0.000000e+00 0.000000e+00 0.000000e+00 0.000000e+00 0.000000e+00 0.000000e+00 0.000000e+00 0.000000e+00 0.000000e+00
 0.000000e+00 0.000000e+00 0.000000e+00 3.333210e-01 6.666790e-01 0.000000e+00 0.000000e+00 0.000000e+00 0.000000e+00 0.000000e+00 0.000000e+00 0.000000e+00 0.000000e+00 0.000000e+00
 0.000000e+00 0.000000e+00 0.000000e+00 0.000000e+00 3.333443e-01 6.666558e-01 0.000000e+00 0.000000e+00 0.000000e+00 0.000000e+00 0.000000e+00 0.000000e+00 0.000000e+00 0.000000e+00
 0.000000e+00 0.000000e+00 0.000000e+00 0.000000e+00 0.000000e+00 7.337912e-01 2.662088e-01 0.000000e+00 0.000000e+00 0.000000e+00 0.000000e+00 0.000000e+00 0.000000e+00 0.000000e+00
 0.000000e+00 0.000000e+00 0.000000e+00 0.000000e+00 0.000000e+00 0.000000e+00 8.565246e-01 1.434754e-01 0.000000e+00 0.000000e+00 0.000000e+00 0.000000e+00 0.000000e+00 0.000000e+00
 0.000000e+00 0.000000e+00 0.000000e+00 0.000000e+00 0.000000e+00 0.000000e+00 0.000000e+00 6.693879e-01 3.306122e-01 0.000000e+00 0.000000e+00 0.000000e+00 0.000000e+00 0.000000e+00
 0.000000e+00 0.000000e+00 0.000000e+00 0.000000e+00 0.000000e+00 0.000000e+00 0.000000e+00 0.000000e+00 8.097267e-01 1.902734e-01 0.000000e+00 0.000000e+00 0.000000e+00 0.000000e+00
 0.000000e+00 0.000000e+00 0.000000e+00 0.000000e+00 0.000000e+00 0.000000e+00 0.000000e+00 0.000000e+00 0.000000e+00 4.984936e-01 5.015064e-01 0.000000e+00 0.000000e+00 0.000000e+00
 0.000000e+00 0.000000e+00 0.000000e+00 0.000000e+00 0.000000e+00 0.000000e+00 0.000000e+00 0.000000e+00 0.000000e+00 0.000000e+00 0.000000e+00 1.000000e+00 0.000000e+00 0.000000e+00
 0.000000e+00 0.000000e+00 0.000000e+00 0.000000e+00 0.000000e+00 0.000000e+00 0.000000e+00 0.000000e+00 0.000000e+00 0.000000e+00 0.000000e+00 7.654541e-01 2.345460e-01 0.000000e+00
 0.000000e+00 0.000000e+00 0.000000e+00 0.000000e+00 0.000000e+00 0.000000e+00 0.000000e+00 0.000000e+00 0.000000e+00 0.000000e+00 0.000000e+00 0.000000e+00 9.206683e-01 7.933173e-02
 0.000000e+00 0.000000e+00 0.000000e+00 0.000000e+00 0.000000e+00 0.000000e+00 0.000000e+00 0.000000e+00 0.000000e+00 0.000000e+00 0.000000e+00 0.000000e+00 0.000000e+00 0.000000e+00
<ENDHMM>
~h "i"
<BEGINHMM>
<NUMSTATES> 14
<STATE> 2
<MEAN> 20
 5.179333e+03 6.535374e+01 -2.698635e-16 0.000000e+00 0.000000e+00 -2.632042e-12 -1.092654e-13 6.324562e-01 1.726194e-14 1.861534e+02 2.002779e+00 5.165881e+02 2.034805e+03 1.251521e+03 1.367193e+03 1.600130e+02 5.080825e+01 3.220319e+01 9.065299e+00 7.273249e+00
<VARIANCE> 20
 7.444677e+06 6.659172e+04 1.000000e-02 1.000000e-02 1.000000e-02 1.000000e-02 1.000000e-02 7.189474e+00 1.000000e-02 1.848870e+05 7.209445e+01 1.131180e+06 9.042744e+06 1.298853e+06 1.270802e+06 6.318730e+04 1.149471e+04 4.783300e+03 5.866462e+02 9.508080e+02
<GCONST> 1.546305e+02
<STATE> 3
<MEAN> 20
 4.194630e+03 7.156261e+01 1.218756e+01 1.375007e+00 2.856264e+01 3.587518e+01 1.764383e+02 4.512509e+01 1.775005e+01 2.107879e+02 3.271266e+02 5.781506e+02 1.858621e+03 7.058548e+02 1.021043e+03 1.574980e+02 6.962543e+01 4.950032e+01 2.068761e+01 6.187531e+00
<VARIANCE> 20
 1.064626e+07 1.692336e+04 8.425309e+02 2.835951e+01 5.356521e+03 9.850651e+03 1.153618e+05 7.838895e+03 1.727445e+03 1.974216e+05 3.453026e+05 8.783237e+05 8.605990e+06 1.707316e+06 1.089283e+06 3.342593e+04 1.196265e+04 1.340919e+04 4.716612e+03 2.279033e+02
<GCONST> 2.446631e+02
<STATE> 4
<MEAN> 20
 5.841702e+03 1.808303e+01 0.000000e+00 0.000000e+00 5.408745e-17 -5.869631e-13 2.199978e+01 3.883296e+01 4.208298e+01 4.048528e+02 1.471653e+02 8.901818e+02 2.596400e+03 1.026690e+03 1.440351e+03 1.120393e+02 9.988072e+01 4.601181e+01 7.333221e+00 1.499979e+00
<VARIANCE> 20
 8.103696e+06 2.765705e+03 1.000000e-02 1.000000e-02 1.000000e-02 1.000000e-02 3.306457e+03 7.644045e+03 8.114656e+03 2.518962e+05 8.085630e+04 1.600977e+06 1.175466e+07 1.224143e+06 2.149995e+06 1.532868e+04 4.036391e+04 5.240059e+03 3.317178e+02 2.191635e+01
<GCONST> 1.888171e+02
<STATE> 5
<MEAN> 20
 5.615169e+03 2.500115e+00 0.000000e+00 0.000000e+00 3.199931e+00 9.999785e-01 5.379884e+01 1.829961e+01 8.299821e+00 3.314604e+02 8.409819e+01 9.496929e+02 2.813192e+03 8.052039e+02 1.302531e+03 3.746753e+01 2.507686e+01 1.596585e+01 5.000069e-01 -0.000000e+00
<VARIANCE> 20
 1.017371e+07 5.625092e+01 1.000000e-02 1.000000e-02 9.215824e+01 5.799897e+00 1.395372e+04 1.431986e+03 2.796055e+02 1.481218e+05 3.229515e+04 1.558580e+06 1.184924e+07 1.050104e+06 1.637792e+06 6.625396e+03 5.281630e+03 2.241858e+03 2.250028e+00 1.000000e-02
<GCONST> 1.787377e+02
<STATE> 6
<MEAN> 20
 7.371548e+03 2.682306e+02 5.553390e+01 1.110688e-01 0.000000e+00 0.000000e+00 6.663969e-01 6.663982e-01 4.775945e+00 3.475299e+02 1.577175e+01 9.615685e+02 5.150730e+03 8.196669e+02 1.001489e+03 9.384692e+01 5.811915e+00 1.776369e-01 -0.000000e+00 0.000000e+00
<VARIANCE> 20
 1.621571e+07 6.151322e+05 2.263606e+04 2.098014e-01 1.000000e-02 1.000000e-02 7.552679e+00 6.330950e+00 2.962910e+02 1.942880e+05 2.850628e+03 1.314138e+06 2.275659e+07 5.714608e+05 1.638234e+06 2.707005e+04 6.837015e+01 1.571162e-01 1.000000e-02 1.000000e-02
<GCONST> 1.575992e+02
<STATE> 7
<MEAN> 20
 6.621183e+03 4.039728e+00 0.000000e+00 0.000000e+00 0.000000e+00 0.000000e+00 0.000000e+00 0.000000e+00 0.000000e+00 3.255323e+02 1.945327e-14 8.659086e+02 3.866640e+03 1.159980e+03 9.031769e+02 8.934948e+01 4.956321e+01 1.609718e+01 3.974826e-02 -9.446398e-16
<VARIANCE> 20
 5.151482e+06 1.319927e+02 1.000000e-02 1.000000e-02 1.000000e-02 1.000000e-02 1.000000e-02 1.000000e-02 1.000000e-02 1.916190e+05 1.000000e-02 1.045245e+06 1.137222e+07 1.185223e+06 1.415820e+06 2.734619e+04 8.858806e+03 1.328538e+03 3.816832e-02 1.000000e-02
<GCONST> 1.092985e+02
<STATE> 8
<MEAN> 20
 5.413526e+03 5.955282e-01 -6.640389e-07 0.000000e+00 0.000000e+00 0.000000e+00 0.000000e+00 6.666763e+00 1.600023e+01 1.992906e+02 2.611119e+01 7.440752e+02 2.482322e+03 1.263258e+03 1.024238e+03 8.270618e+01 9.590549e+00 3.666385e+00 1.111026e-01 0.000000e+00
<VARIANCE> 20
 8.960286e+06 1.583053e+00 1.000000e-02 1.000000e-02 1.000000e-02 1.000000e-02 1.000000e-02 3.555601e+02 2.048026e+03 8.805911e+04 2.420990e+03 1.611028e+06 1.032736e+07 1.541468e+06 1.237451e+06 5.189874e+04 7.298113e+02 1.075483e+02 9.875880e-02 1.000000e-02
<GCONST> 1.368024e+02
<STATE> 9
<MEAN> 20
 4.788141e+03 2.375565e+02 6.322267e+01 3.555581e+00 5.933376e+01 3.155576e+01 4.734476e+02 9.166721e+01 5.566692e+01 3.227862e+02 7.895610e+02 6.092732e+02 1.674877e+03 1.490543e+03 9.956282e+02 2.387887e+02 1.588163e+02 1.046118e+02 6.266710e+01 2.166675e+00
<VARIANCE> 20
 7.449578e+06 3.649883e+05 2.300487e+04 9.102525e+01 1.384763e+04 5.897840e+03 6.017384e+05 1.869653e+04 5.256576e+03 6.340650e+04 1.647778e+06 8.368886e+05 7.301696e+06 1.544247e+06 7.181278e+05 6.122527e+04 9.487978e+04 7.354782e+04 2.358847e+04 2.347235e+01
<GCONST> 2.593330e+02
<STATE> 10
<MEAN> 20
 5.222346e+03 3.012631e-01 0.000000e+00 0.000000e+00 0.000000e+00 0.000000e+00 0.000000e+00 6.411863e+00 3.941262e+00 1.662684e+02 4.117678e+00 3.632146e+02 1.979427e+03 1.042342e+03 1.760380e+03 9.661175e+01 5.347026e+01 6.505854e+01 3.247036e+01 2.176443e+00
<VARIANCE> 20
 5.257690e+06 9.549658e+00 1.000000e-02 1.000000e-02 1.000000e-02 1.000000e-02 1.000000e-02 5.413049e+02 1.066448e+02 5.841860e+04 1.389282e+02 5.960969e+05 9.648775e+06 1.397098e+06 2.205716e+06 6.182503e+04 2.404381e+04 3.274046e+04 9.658507e+03 7.579147e+01
<GCONST> 1.614928e+02
<STATE> 11
<MEAN> 20
 5.429981e+03 6.879823e+00 0.000000e+00 0.000000e+00 1.045449e+01 5.636335e+00 1.530901e+02 2.127254e+01 1.418166e+01 2.555090e+02 1.820900e+02 5.245434e+02 2.861269e+03 5.605533e+02 1.244898e+03 2.041059e+02 1.694540e+02 9.990900e+01 4.772759e+01 2.454533e+00
<VARIANCE> 20
 7.426114e+06 1.884944e+02 1.000000e-02 1.000000e-02 1.092970e+03 1.436854e+02 2.005065e+05 2.396009e+03 7.319652e+02 4.747353e+04 2.520026e+05 4.825185e+05 1.005962e+07 6.627551e+05 3.335442e+06 9.429497e+04 1.515945e+05 2.309203e+04 8.326283e+03 6.024766e+01
<GCONST> 2.145532e+02
<STATE> 12
<MEAN> 20
 5.083067e+03 1.288434e+01 1.010803e+00 0.000000e+00 0.000000e+00 0.000000e+00 4.851753e+00 1.462271e+01 6.536411e+00 3.359817e+02 4.784368e+00 6.109443e+02 2.849728e+03 3.893820e+02 8.839087e+02 4.020119e+02 1.190030e+02 7.183321e+01 1.149602e+02 1.239895e+01
<VARIANCE> 20
 8.467893e+06 2.191859e+03 1.414032e+01 1.000000e-02 1.000000e-02 1.000000e-02 2.163527e+02 1.229374e+03 1.310629e+02 1.169786e+05 1.752896e+02 6.217366e+05 1.182512e+07 3.906341e+05 1.383107e+06 3.043954e+05 3.000371e+04 1.569479e+04 6.448756e+04 6.652693e+02
<GCONST> 1.902505e+02
<STATE> 13
<MEAN> 20
 7.253984e+03 -5.758476e-15 0.000000e+00 0.000000e+00 0.000000e+00 0.000000e+00 0.000000e+00 0.000000e+00 0.000000e+00 2.143094e+02 0.000000e+00 1.193434e+03 5.785064e+03 2.695864e+02 2.135772e+02 6.631838e+00 -1.687567e-14 0.000000e+00 0.000000e+00 0.000000e+00
<VARIANCE> 20
 4.447760e+06 1.000000e-02 1.000000e-02 1.000000e-02 1.000000e-02 1.000000e-02 1.000000e-02 1.000000e-02 1.000000e-02 6.336552e+04 1.000000e-02 7.776363e+05 5.670942e+06 1.276667e+05 5.105507e+05 1.142078e+03 1.000000e-02 1.000000e-02 1.000000e-02 1.000000e-02
<GCONST> 6.431081e+01
<TRANSP> 14
 0.000000e+00 1.000000e+00 0.000000e+00 0.000000e+00 0.000000e+00 0.000000e+00 0.000000e+00 0.000000e+00 0.000000e+00 0.000000e+00 0.000000e+00 0.000000e+00 0.000000e+00 0.000000e+00
 0.000000e+00 5.256509e-01 4.743491e-01 0.000000e+00 0.000000e+00 0.000000e+00 0.000000e+00 0.000000e+00 0.000000e+00 0.000000e+00 0.000000e+00 0.000000e+00 0.000000e+00 0.000000e+00
 0.000000e+00 0.000000e+00 4.375022e-01 5.624978e-01 0.000000e+00 0.000000e+00 0.000000e+00 0.000000e+00 0.000000e+00 0.000000e+00 0.000000e+00 0.000000e+00 0.000000e+00 0.000000e+00
 0.000000e+00 0.000000e+00 0.000000e+00 2.499961e-01 7.500039e-01 0.000000e+00 0.000000e+00 0.000000e+00 0.000000e+00 0.000000e+00 0.000000e+00 0.000000e+00 0.000000e+00 0.000000e+00
 0.000000e+00 0.000000e+00 0.000000e+00 0.000000e+00 1.000006e-01 8.999994e-01 0.000000e+00 0.000000e+00 0.000000e+00 0.000000e+00 0.000000e+00 0.000000e+00 0.000000e+00 0.000000e+00
 0.000000e+00 0.000000e+00 0.000000e+00 0.000000e+00 0.000000e+00 5.001919e-01 4.998081e-01 0.000000e+00 0.000000e+00 0.000000e+00 0.000000e+00 0.000000e+00 0.000000e+00 0.000000e+00
 0.000000e+00 0.000000e+00 0.000000e+00 0.000000e+00 0.000000e+00 0.000000e+00 6.422911e-01 3.577090e-01 0.000000e+00 0.000000e+00 0.000000e+00 0.000000e+00 0.000000e+00 0.000000e+00
 0.000000e+00 0.000000e+00 0.000000e+00 0.000000e+00 0.000000e+00 0.000000e+00 0.000000e+00 4.580341e-09 1.000000e+00 0.000000e+00 0.000000e+00 0.000000e+00 0.000000e+00 0.000000e+00
 0.000000e+00 0.000000e+00 0.000000e+00 0.000000e+00 0.000000e+00 0.000000e+00 0.000000e+00 0.000000e+00 5.000036e-01 4.999964e-01 0.000000e+00 0.000000e+00 0.000000e+00 0.000000e+00
 0.000000e+00 0.000000e+00 0.000000e+00 0.000000e+00 0.000000e+00 0.000000e+00 0.000000e+00 0.000000e+00 0.000000e+00 4.705919e-01 5.294082e-01 0.000000e+00 0.000000e+00 0.000000e+00
 0.000000e+00 0.000000e+00 0.000000e+00 0.000000e+00 0.000000e+00 0.000000e+00 0.000000e+00 0.000000e+00 0.000000e+00 0.000000e+00 1.818173e-01 8.181827e-01 0.000000e+00 0.000000e+00
 0.000000e+00 0.000000e+00 0.000000e+00 0.000000e+00 0.000000e+00 0.000000e+00 0.000000e+00 0.000000e+00 0.000000e+00 0.000000e+00 0.000000e+00 3.935272e-01 6.064728e-01 0.000000e+00
 0.000000e+00 0.000000e+00 0.000000e+00 0.000000e+00 0.000000e+00 0.000000e+00 0.000000e+00 0.000000e+00 0.000000e+00 0.000000e+00 0.000000e+00 0.000000e+00 8.710292e-01 1.289708e-01
 0.000000e+00 0.000000e+00 0.000000e+00 0.000000e+00 0.000000e+00 0.000000e+00 0.000000e+00 0.000000e+00 0.000000e+00 0.000000e+00 0.000000e+00 0.000000e+00 0.000000e+00 0.000000e+00
<ENDHMM>
~h "j"
<BEGINHMM>
<NUMSTATES> 14
<STATE> 2
<MEAN> 20
 8.132910e+03 7.426371e-02 0.000000e+00 0.000000e+00 0.000000e+00 0.000000e+00 0.000000e+00 0.000000e+00 0.000000e+00 3.925264e+02 5.393923e-11 1.143847e+03 6.151922e+03 7.234688e+02 3.720103e+02 8.522383e+01 3.236669e+01 1.639452e+01 2.765947e-01 0.000000e+00
<VARIANCE> 20
 7.667515e+06 2.915399e-01 1.000000e-02 1.000000e-02 1.000000e-02 1.000000e-02 1.000000e-02 1.000000e-02 1.000000e-02 1.325014e+05 1.000000e-02 1.016474e+06 8.759569e+06 4.928357e+05 6.518519e+05 3.205940e+04 3.219385e+03 1.291465e+03 1.055019e+00 1.000000e-02
<GCONST> 1.037077e+02
<STATE> 3
<MEAN> 20
 1.003633e+04 4.973289e+01 4.000021e-01 0.000000e+00 0.000000e+00 0.000000e+00 0.000000e+00 0.000000e+00 0.000000e+00 2.511203e+02 6.499969e-01 1.085324e+03 8.138225e+03 8.850142e+02 1.163230e+02 7.023930e+01 2.930678e+01 1.160003e+01 9.000023e-01 0.000000e+00
<VARIANCE> 20
 5.807732e+06 3.197890e+04 3.040015e+00 1.000000e-02 1.000000e-02 1.000000e-02 1.000000e-02 1.000000e-02 1.000000e-02 7.694601e+04 4.027460e+00 1.103584e+06 3.600932e+06 5.426404e+05 7.129100e+04 4.453664e+04 8.005657e+03 1.209342e+03 6.490020e+00 1.000000e-02
<GCONST> 1.262743e+02
<STATE> 4
<MEAN> 20
 1.009584e+04 1.887635e+00 0.000000e+00 0.000000e+00 0.000000e+00 0.000000e+00 0.000000e+00 0.000000e+00 0.000000e+00 2.039555e+02 0.000000e+00 1.114310e+03 8.446577e+03 6.685164e+02 5.342939e+01 1.370942e+01 3.886463e+00 1.252720e+00 0.000000e+00 0.000000e+00
<VARIANCE> 20
 3.435603e+06 7.483516e+01 1.000000e-02 1.000000e-02 1.000000e-02 1.000000e-02 1.000000e-02 1.000000e-02 1.000000e-02 5.381607e+04 1.000000e-02 7.581579e+05 3.316027e+06 2.041829e+05 2.311164e+03 3.434470e+02 9.099637e+01 2.784799e+01 1.000000e-02 1.000000e-02
<GCONST> 8.316596e+01
<STATE> 5
<MEAN> 20
 9.172929e+03 0.000000e+00 0.000000e+00 0.000000e+00 0.000000e+00 0.000000e+00 0.000000e+00 0.000000e+00 0.000000e+00 1.555251e+02 1.500041e-01 8.881777e+02 7.655389e+03 7.448498e+02 3.725952e+01 2.628115e+00 -4.926056e-10 0.000000e+00 0.000000e+00 0.000000e+00
<VARIANCE> 20
 3.234293e+06 1.000000e-02 1.000000e-02 1.000000e-02 1.000000e-02 1.000000e-02 1.000000e-02 1.000000e-02 1.000000e-02 3.062801e+04 4.275111e-01 9.794060e+05 2.169308e+06 3.273459e+05 1.438402e+03 4.308218e+01 1.000000e-02 1.000000e-02 1.000000e-02 1.000000e-02
<GCONST> 5.808249e+01
<STATE> 6
<MEAN> 20
 9.206556e+03 0.000000e+00 0.000000e+00 0.000000e+00 0.000000e+00 0.000000e+00 0.000000e+00 0.000000e+00 0.000000e+00 2.413028e+02 0.000000e+00 9.699980e+02 7.765954e+03 6.554069e+02 4.972589e+01 6.497007e+00 2.615019e-01 3.056501e-03 3.056501e-03 9.169498e-03
<VARIANCE> 20
 2.028204e+06 1.000000e-02 1.000000e-02 1.000000e-02 1.000000e-02 1.000000e-02 1.000000e-02 1.000000e-02 1.000000e-02 4.898996e+04 1.000000e-02 6.248592e+05 1.242760e+06 2.133668e+05 3.002810e+03 1.587794e+02 1.725867e+00 1.000000e-02 1.000000e-02 2.742441e-02
<GCONST> 6.109581e+01
<STATE> 7
<MEAN> 20
 1.169935e+04 2.057952e+01 0.000000e+00 0.000000e+00 0.000000e+00 0.000000e+00 0.000000e+00 0.000000e+00 2.068269e-01 4.755720e+02 1.251312e+01 1.669292e+03 9.592457e+03 8.534818e+02 5.212818e+01 1.391615e+01 1.820939e+00 9.878466e-02 0.000000e+00 0.000000e+00
<VARIANCE> 20
 8.318406e+06 2.351827e+03 1.000000e-02 1.000000e-02 1.000000e-02 1.000000e-02 1.000000e-02 1.000000e-02 1.198184e+00 2.036534e+05 2.269831e+03 2.155800e+06 6.764601e+06 4.807814e+05 4.105050e+03 6.020849e+02 1.914135e+01 1.579688e-01 1.000000e-02 1.000000e-02
<GCONST> 1.029665e+02
<STATE> 8
<MEAN> 20
 9.697164e+03 0.000000e+00 0.000000e+00 0.000000e+00 0.000000e+00 0.000000e+00 0.000000e+00 0.000000e+00 0.000000e+00 2.749851e+02 1.183699e-02 9.613607e+02 8.089408e+03 8.128242e+02 8.912590e+01 1.739489e+01 1.916103e+00 1.070793e-01 -0.000000e+00 0.000000e+00
<VARIANCE> 20
 1.904288e+06 1.000000e-02 1.000000e-02 1.000000e-02 1.000000e-02 1.000000e-02 1.000000e-02 1.000000e-02 1.000000e-02 1.145686e+05 2.353391e-02 7.859627e+05 1.837939e+06 2.535371e+05 8.141888e+04 6.955780e+02 1.570319e+01 2.817732e-01 1.000000e-02 1.000000e-02
<GCONST> 7.284647e+01
<STATE> 9
<MEAN> 20
 1.089010e+04 1.083113e+00 0.000000e+00 0.000000e+00 0.000000e+00 0.000000e+00 0.000000e+00 0.000000e+00 0.000000e+00 2.630371e+02 1.520468e-09 5.067237e+02 8.152517e+03 2.221149e+03 2.207511e+02 4.336015e+01 8.556349e+00 1.056681e+00 1.048188e-01 0.000000e+00
<VARIANCE> 20
 3.020454e+06 1.447961e+01 1.000000e-02 1.000000e-02 1.000000e-02 1.000000e-02 1.000000e-02 1.000000e-02 1.000000e-02 6.309142e+04 1.000000e-02 3.032807e+05 4.543074e+06 2.019146e+06 9.781622e+04 1.100971e+03 7.709727e+01 3.449892e+00 1.986507e-01 1.000000e-02
<GCONST> 8.888872e+01
<STATE> 10
<MEAN> 20
 9.225471e+03 0.000000e+00 0.000000e+00 0.000000e+00 0.000000e+00 0.000000e+00 0.000000e+00 0.000000e+00 0.000000e+00 1.822641e+02 0.000000e+00 3.258207e+02 6.698384e+03 2.230393e+03 1.311365e+02 2.044041e+01 1.561276e+00 -1.695571e-43 0.000000e+00 0.000000e+00
<VARIANCE> 20
 2.425412e+06 1.000000e-02 1.000000e-02 1.000000e-02 1.000000e-02 1.000000e-02 1.000000e-02 1.000000e-02 1.000000e-02 4.721702e+04 1.000000e-02 1.506453e+05 3.515347e+06 2.185642e+06 9.791163e+03 5.390527e+02 1.001456e+01 1.000000e-02 1.000000e-02 1.000000e-02
<GCONST> 6.633534e+01
<STATE> 11
<MEAN> 20
 8.595022e+03 3.683128e+00 0.000000e+00 0.000000e+00 0.000000e+00 0.000000e+00 0.000000e+00 1.681788e-02 5.045366e-02 1.720183e+02 2.522683e-01 1.430044e+02 4.289206e+03 3.839077e+03 4.619905e+02 3.403189e+01 3.065126e+00 1.636513e-01 0.000000e+00 0.000000e+00
<VARIANCE> 20
 1.160242e+07 1.268135e+02 1.000000e-02 1.000000e-02 1.000000e-02 1.000000e-02 1.000000e-02 1.653503e-02 1.488153e-01 6.070652e+04 2.105867e+00 1.992927e+05 8.494339e+06 5.256502e+06 2.252599e+05 1.539587e+03 4.249635e+01 2.712459e-01 1.000000e-02 1.000000e-02
<GCONST> 9.712337e+01
<STATE> 12
<MEAN> 20
 5.067942e+03 7.228139e+01 1.759955e+01 2.858369e+00 2.441710e+01 2.216809e+02 1.746281e+02 4.598378e+01 1.633769e+01 1.573719e+02 4.012573e+02 2.802542e+02 2.043798e+03 1.545028e+03 1.085762e+03 3.734184e+02 6.249864e+01 9.085166e+00 0.000000e+00 0.000000e+00
<VARIANCE> 20
 1.333866e+07 3.631396e+04 2.112365e+03 1.237201e+02 5.200673e+03 1.014116e+06 1.921029e+05 7.558386e+03 1.233932e+03 4.160477e+04 4.295439e+05 2.983626e+05 9.156656e+06 2.658155e+06 1.563691e+06 3.969679e+05 4.969903e+04 2.134379e+03 1.000000e-02 1.000000e-02
<GCONST> 2.301966e+02
<STATE> 13
<MEAN> 20
 8.819638e+03 1.679552e+01 4.461407e-01 3.331914e-02 4.971158e-01 4.477813e+02 1.196160e+02 6.522307e+01 7.076827e+01 6.236330e+02 4.918049e+01 8.545832e+02 6.040810e+03 1.740437e+03 9.591204e+02 4.141977e+02 8.557820e+01 1.517771e+01 5.264420e+00 8.329831e-02
<VARIANCE> 20
 1.805822e+07 3.697138e+03 5.294943e+00 8.218741e-02 7.591516e+00 3.636259e+05 3.521227e+04 4.843342e+03 4.493756e+03 4.662153e+05 3.205376e+04 1.651804e+06 2.234671e+07 1.840313e+06 1.923303e+06 1.566949e+05 7.613131e+04 8.181992e+03 2.232786e+03 2.429557e-01
<GCONST> 2.251161e+02
<TRANSP> 14
 0.000000e+00 1.000000e+00 0.000000e+00 0.000000e+00 0.000000e+00 0.000000e+00 0.000000e+00 0.000000e+00 0.000000e+00 0.000000e+00 0.000000e+00 0.000000e+00 0.000000e+00 0.000000e+00
 0.000000e+00 4.971002e-01 5.028998e-01 0.000000e+00 0.000000e+00 0.000000e+00 0.000000e+00 0.000000e+00 0.000000e+00 0.000000e+00 0.000000e+00 0.000000e+00 0.000000e+00 0.000000e+00
 0.000000e+00 0.000000e+00 0.000000e+00 1.000000e+00 0.000000e+00 0.000000e+00 0.000000e+00 0.000000e+00 0.000000e+00 0.000000e+00 0.000000e+00 0.000000e+00 0.000000e+00 0.000000e+00
 0.000000e+00 0.000000e+00 0.000000e+00 5.680279e-01 4.319721e-01 0.000000e+00 0.000000e+00 0.000000e+00 0.000000e+00 0.000000e+00 0.000000e+00 0.000000e+00 0.000000e+00 0.000000e+00
 0.000000e+00 0.000000e+00 0.000000e+00 0.000000e+00 0.000000e+00 1.000000e+00 0.000000e+00 0.000000e+00 0.000000e+00 0.000000e+00 0.000000e+00 0.000000e+00 0.000000e+00 0.000000e+00
 0.000000e+00 0.000000e+00 0.000000e+00 0.000000e+00 0.000000e+00 9.388699e-01 6.113010e-02 0.000000e+00 0.000000e+00 0.000000e+00 0.000000e+00 0.000000e+00 0.000000e+00 0.000000e+00
 0.000000e+00 0.000000e+00 0.000000e+00 0.000000e+00 0.000000e+00 0.000000e+00 3.105774e-01 6.894227e-01 0.000000e+00 0.000000e+00 0.000000e+00 0.000000e+00 0.000000e+00 0.000000e+00
 0.000000e+00 0.000000e+00 0.000000e+00 0.000000e+00 0.000000e+00 0.000000e+00 0.000000e+00 8.816299e-01 1.183702e-01 0.000000e+00 0.000000e+00 0.000000e+00 0.000000e+00 0.000000e+00
 0.000000e+00 0.000000e+00 0.000000e+00 0.000000e+00 0.000000e+00 0.000000e+00 0.000000e+00 0.000000e+00 6.506086e-01 3.493915e-01 0.000000e+00 0.000000e+00 0.000000e+00 0.000000e+00
 0.000000e+00 0.000000e+00 0.000000e+00 0.000000e+00 0.000000e+00 0.000000e+00 0.000000e+00 0.000000e+00 0.000000e+00 8.932840e-01 1.067160e-01 0.000000e+00 0.000000e+00 0.000000e+00
 0.000000e+00 0.000000e+00 0.000000e+00 0.000000e+00 0.000000e+00 0.000000e+00 0.000000e+00 0.000000e+00 0.000000e+00 0.000000e+00 6.636427e-01 3.363572e-01 0.000000e+00 0.000000e+00
 0.000000e+00 0.000000e+00 0.000000e+00 0.000000e+00 0.000000e+00 0.000000e+00 0.000000e+00 0.000000e+00 0.000000e+00 0.000000e+00 0.000000e+00 4.039514e-01 5.960486e-01 0.000000e+00
 0.000000e+00 0.000000e+00 0.000000e+00 0.000000e+00 0.000000e+00 0.000000e+00 0.000000e+00 0.000000e+00 0.000000e+00 0.000000e+00 0.000000e+00 0.000000e+00 8.334021e-01 1.665979e-01
 0.000000e+00 0.000000e+00 0.000000e+00 0.000000e+00 0.000000e+00 0.000000e+00 0.000000e+00 0.000000e+00 0.000000e+00 0.000000e+00 0.000000e+00 0.000000e+00 0.000000e+00 0.000000e+00
<ENDHMM>
~h "sil"
<BEGINHMM>
<NUMSTATES> 14
<STATE> 2
<MEAN> 20
 8.562639e+03 4.467276e-02 0.000000e+00 0.000000e+00 0.000000e+00 0.000000e+00 0.000000e+00 0.000000e+00 0.000000e+00 5.934006e+01 0.000000e+00 2.034773e+01 2.521734e+03 4.588507e+03 1.296014e+03 1.358195e+02 3.713958e+01 1.614096e+01 5.605627e+00 7.155108e-01
<VARIANCE> 20
 3.653078e+06 4.267711e-02 1.000000e-02 1.000000e-02 1.000000e-02 1.000000e-02 1.000000e-02 1.000000e-02 1.000000e-02 4.113117e+03 1.000000e-02 3.911446e+03 4.013806e+06 3.243157e+06 8.498252e+05 9.258951e+03 7.953156e+02 1.237360e+02 3.466815e+01 2.258502e+00
<GCONST> 9.730762e+01
<STATE> 3
<MEAN> 20
 8.119603e+03 -0.000000e+00 0.000000e+00 0.000000e+00 0.000000e+00 0.000000e+00 0.000000e+00 0.000000e+00 0.000000e+00 2.034565e+01 0.000000e+00 3.120547e+00 2.975855e+03 4.237987e+03 7.970519e+02 8.079045e+01 3.278645e+01 1.123898e+01 1.060383e+00 5.838795e-02
<VARIANCE> 20
 2.937889e+06 1.000000e-02 1.000000e-02 1.000000e-02 1.000000e-02 1.000000e-02 1.000000e-02 1.000000e-02 1.000000e-02 9.050452e+02 1.000000e-02 3.210402e+02 2.003389e+06 1.757151e+06 4.660287e+05 1.428888e+03 3.161448e+02 5.639814e+01 2.415543e+00 5.497878e-02
<GCONST> 7.975971e+01
<STATE> 4
<MEAN> 20
 8.025526e+03 0.000000e+00 0.000000e+00 0.000000e+00 0.000000e+00 0.000000e+00 0.000000e+00 0.000000e+00 0.000000e+00 2.670496e+01 0.000000e+00 1.320919e-01 4.450531e+03 3.196070e+03 3.290385e+02 5.479488e+01 1.792439e+01 3.447992e+00 2.923361e-01 -1.333616e-41
<VARIANCE> 20
 2.214976e+06 1.000000e-02 1.000000e-02 1.000000e-02 1.000000e-02 1.000000e-02 1.000000e-02 1.000000e-02 1.000000e-02 2.394775e+03 1.000000e-02 8.162649e-01 1.784228e+06 8.263052e+05 1.412902e+05 5.825355e+02 8.334696e+01 1.095712e+01 4.709134e-01 1.000000e-02
<GCONST> 6.520371e+01
<STATE> 5
<MEAN> 20
 8.360697e+03 0.000000e+00 0.000000e+00 0.000000e+00 0.000000e+00 0.000000e+00 0.000000e+00 0.000000e+00 0.000000e+00 3.772758e+01 0.000000e+00 1.712292e+01 5.087678e+03 2.881668e+03 3.295304e+02 6.701591e+01 1.347704e+01 1.886221e+00 4.644095e-02 0.000000e+00
<VARIANCE> 20
 4.945742e+06 1.000000e-02 1.000000e-02 1.000000e-02 1.000000e-02 1.000000e-02 1.000000e-02 1.000000e-02 1.000000e-02 3.001344e+03 1.000000e-02 1.631052e+03 3.884086e+06 1.017220e+06 3.463892e+05 1.067362e+04 1.062176e+02 6.981678e+00 4.428418e-02 1.000000e-02
<GCONST> 7.605115e+01
<STATE> 6
<MEAN> 20
 7.877672e+03 2.494509e+01 0.000000e+00 0.000000e+00 0.000000e+00 0.000000e+00 0.000000e+00 0.000000e+00 0.000000e+00 5.728515e+01 0.000000e+00 8.798142e+01 5.076503e+03 2.551824e+03 1.873685e+02 4.345171e+01 1.038648e+01 2.386594e+00 0.000000e+00 0.000000e+00
<VARIANCE> 20
 4.392078e+06 6.383479e+03 1.000000e-02 1.000000e-02 1.000000e-02 1.000000e-02 1.000000e-02 1.000000e-02 1.000000e-02 4.698846e+03 1.000000e-02 1.860298e+04 3.051008e+06 1.498371e+06 4.292209e+04 1.830377e+03 2.147348e+02 1.604557e+01 1.000000e-02 1.000000e-02
<GCONST> 8.852390e+01
<STATE> 7
<MEAN> 20
 9.023097e+03 0.000000e+00 0.000000e+00 0.000000e+00 0.000000e+00 0.000000e+00 0.000000e+00 0.000000e+00 0.000000e+00 8.830009e+01 0.000000e+00 2.037923e+02 6.305123e+03 2.431443e+03 1.290278e+02 3.711370e+01 4.793232e+00 1.037992e-01 0.000000e+00 0.000000e+00
<VARIANCE> 20
 1.471971e+06 1.000000e-02 1.000000e-02 1.000000e-02 1.000000e-02 1.000000e-02 1.000000e-02 1.000000e-02 1.000000e-02 9.723018e+03 1.000000e-02 7.937156e+04 1.177750e+06 6.933708e+05 2.565920e+03 3.328088e+02 2.104185e+01 1.352136e-01 1.000000e-02 1.000000e-02
<GCONST> 6.289861e+01
<STATE> 8
<MEAN> 20
 9.374276e+03 0.000000e+00 0.000000e+00 0.000000e+00 0.000000e+00 0.000000e+00 0.000000e+00 0.000000e+00 0.000000e+00 1.622924e+02 0.000000e+00 4.827957e+02 6.711592e+03 2.199689e+03 1.049535e+02 3.086002e+01 6.248899e+00 3.711402e-01 5.841845e-02 0.000000e+00
<VARIANCE> 20
 3.069138e+06 1.000000e-02 1.000000e-02 1.000000e-02 1.000000e-02 1.000000e-02 1.000000e-02 1.000000e-02 1.000000e-02 3.907051e+04 1.000000e-02 3.501076e+05 2.426766e+06 9.692590e+05 1.891679e+03 3.395065e+02 3.391159e+01 6.206917e-01 5.500573e-02 1.000000e-02
<GCONST> 7.098745e+01
<STATE> 9
<MEAN> 20
