~o
<STREAMINFO> 1 20
<VECSIZE> 20<NULLD><USER><DIAGC>
~h "a"
<BEGINHMM>
<NUMSTATES> 14
<STATE> 2
<MEAN> 20
 7.984784e+03 3.625221e+00 0.000000e+00 0.000000e+00 0.000000e+00 0.000000e+00 0.000000e+00 0.000000e+00 0.000000e+00 1.243790e+02 1.181311e+01 2.323679e+02 3.638492e+03 3.473602e+03 5.780033e+02 9.062946e+01 8.219240e+01 4.500270e+00 1.187571e+00 0.000000e+00
<VARIANCE> 20
 8.246660e+06 6.273740e+01 1.000000e-02 1.000000e-02 1.000000e-02 1.000000e-02 1.000000e-02 1.000000e-02 1.000000e-02 2.820978e+04 1.652118e+03 1.847615e+05 8.360354e+06 9.263926e+06 9.822084e+05 7.436922e+04 9.969148e+04 3.037670e+02 2.115353e+01 1.000000e-02
<GCONST> 1.270374e+02
<STATE> 3
<MEAN> 20
 5.233560e+03 7.928782e+00 0.000000e+00 0.000000e+00 0.000000e+00 0.000000e+00 2.142994e-01 9.286307e-01 5.000319e-01 7.314072e+01 7.614462e+01 2.618446e+02 2.571833e+03 6.057582e+02 7.716664e+02 7.435218e+02 2.550748e+02 3.021478e+01 2.142863e-01 0.000000e+00
<VARIANCE> 20
 1.240482e+07 3.995009e+02 1.000000e-02 1.000000e-02 1.000000e-02 1.000000e-02 5.969741e-01 1.120984e+01 3.250191e+00 9.273194e+03 3.648965e+04 2.481391e+05 1.106252e+07 6.375392e+05 2.341922e+06 1.212893e+06 2.554012e+05 6.909896e+03 5.969403e-01 1.000000e-02
<GCONST> 1.502313e+02
<STATE> 4
<MEAN> 20
 5.288280e+03 1.276935e+02 0.000000e+00 0.000000e+00 1.875114e-01 2.062625e+00 2.125123e+01 1.875084e+01 1.762553e+01 1.153721e+02 1.122545e+02 4.022402e+02 2.483400e+03 1.101927e+03 1.007951e+03 3.283192e+02 1.195044e+02 3.281432e+01 2.812670e+00 0.000000e+00
<VARIANCE> 20
 1.588928e+07 7.824953e+04 1.000000e-02 1.000000e-02 5.273736e-01 6.381220e+01 6.164410e+03 2.953219e+03 1.730030e+03 2.441992e+04 3.282081e+04 5.032878e+05 1.141485e+07 1.543935e+06 5.225930e+06 2.523250e+05 5.773108e+04 9.469917e+03 1.186591e+02 1.000000e-02
<GCONST> 1.954145e+02
<STATE> 5
<MEAN> 20
 7.920844e+03 2.095184e-01 0.000000e+00 0.000000e+00 0.000000e+00 0.000000e+00 0.000000e+00 0.000000e+00 0.000000e+00 2.238084e+02 3.809445e-02 3.205408e+02 4.914367e+03 2.584155e+03 3.011608e+02 2.286697e+01 1.723817e+00 9.523548e-03 0.000000e+00 0.000000e+00
<VARIANCE> 20
 3.559026e+06 2.070334e+00 1.000000e-02 1.000000e-02 1.000000e-02 1.000000e-02 1.000000e-02 1.000000e-02 1.000000e-02 6.679582e+04 5.569061e-02 2.186351e+05 6.297447e+06 2.137240e+06 3.418944e+05 7.301714e+02 1.461922e+01 1.000000e-02 1.000000e-02 1.000000e-02
<GCONST> 7.928370e+01
<STATE> 6
<MEAN> 20
 2.843666e+03 1.852460e+02 1.500076e+00 0.000000e+00 0.000000e+00 0.000000e+00 2.416592e+00 2.041607e+00 3.875116e+00 3.795808e+01 5.724924e+01 1.017508e+02 2.534650e+02 9.767488e+02 1.044628e+03 4.001588e+02 1.595378e+02 5.870673e+01 2.087443e+01 3.583254e+00
<VARIANCE> 20
 6.034566e+06 5.140320e+04 5.175250e+01 1.000000e-02 1.000000e-02 1.000000e-02 1.045733e+02 4.687198e+01 1.421989e+02 6.855352e+03 9.142296e+03 3.606446e+04 2.273693e+05 1.866578e+06 1.996948e+06 2.901421e+05 3.228584e+04 8.922604e+03 1.647155e+03 1.084074e+02
<GCONST> 1.806806e+02
<STATE> 7
<MEAN> 20
 3.067502e+03 8.171355e+01 0.000000e+00 0.000000e+00 7.142369e-02 0.000000e+00 0.000000e+00 1.214198e+00 1.142779e+00 3.592845e+01 2.271268e+01 3.528497e+01 3.321554e+02 8.652593e+02 9.927045e+02 6.508277e+02 2.680560e+02 1.621492e+01 4.357383e+00 0.000000e+00
<VARIANCE> 20
 2.957366e+06 1.928528e+04 1.000000e-02 1.000000e-02 6.632234e-02 1.000000e-02 1.000000e-02 8.882114e+00 1.483581e+01 3.882386e+03 2.204796e+03 1.857919e+03 2.318154e+05 8.335905e+05 1.409611e+06 7.986062e+05 1.483057e+05 1.245396e+03 1.148066e+02 1.000000e-02
<GCONST> 1.416704e+02
<STATE> 8
<MEAN> 20
 4.036015e+03 2.466564e+01 0.000000e+00 0.000000e+00 2.727469e-24 0.000000e+00 3.250052e+00 2.550032e+01 4.033276e+01 1.654997e+02 3.374900e+02 1.559968e+02 3.550183e+02 8.708876e+02 7.729346e+02 1.396528e+03 3.649873e+02 2.166821e+01 1.750192e+01 2.250196e+00
<VARIANCE> 20
 3.965934e+06 2.362979e+03 1.000000e-02 1.000000e-02 1.000000e-02 1.000000e-02 9.285609e+01 5.005691e+03 5.109722e+03 3.287931e+04 2.351282e+05 1.937109e+04 2.112970e+05 1.063754e+06 4.840021e+05 2.400412e+06 2.650827e+05 2.687647e+03 3.334250e+03 3.735769e+01
<GCONST> 1.815622e+02
<STATE> 9
<MEAN> 20
 2.286171e+03 1.756947e+02 3.999887e-01 0.000000e+00 1.599936e+00 0.000000e+00 1.979942e+01 8.319765e+01 1.439959e+01 4.000036e+01 2.080934e+02 1.031994e+02 7.907451e+02 6.415296e+02 5.957032e+02 1.342952e+02 6.159881e+01 6.809814e+01 1.799979e+01 0.000000e+00
<VARIANCE> 20
 4.490069e+06 6.196460e+04 1.439964e+00 1.000000e-02 1.023969e+01 1.000000e-02 1.851519e+03 1.808484e+04 4.972319e+02 1.436390e+03 7.790980e+04 7.039783e+03 1.427142e+06 5.055057e+05 1.144546e+06 1.049017e+05 7.456052e+03 1.873317e+04 1.206970e+03 1.000000e-02
<GCONST> 1.815793e+02
<STATE> 10
<MEAN> 20
 3.498331e+03 4.942014e+00 0.000000e+00 0.000000e+00 5.713563e-02 0.000000e+00 0.000000e+00 3.002161e-15 7.427201e-01 5.291588e+01 1.996861e+01 1.044789e+02 3.720435e+02 1.111136e+03 1.485567e+03 3.803182e+02 7.367760e+01 9.798962e+00 3.314979e-26 0.000000e+00
<VARIANCE> 20
 5.369956e+06 2.845780e+02 1.000000e-02 1.000000e-02 1.110068e-01 1.000000e-02 1.000000e-02 1.000000e-02 4.761650e+00 4.245849e+04 4.770481e+03 9.101795e+04 9.848066e+05 2.100486e+06 2.047767e+06 3.408384e+05 1.896679e+04 2.228519e+03 1.000000e-02 1.000000e-02
<GCONST> 1.287653e+02
<STATE> 11
<MEAN> 20
 9.219471e+03 1.831633e+00 0.000000e+00 0.000000e+00 0.000000e+00 0.000000e+00 0.000000e+00 0.000000e+00 0.000000e+00 1.962710e+02 0.000000e+00 4.956263e+02 5.259170e+03 2.782153e+03 3.548763e+02 1.104139e+02 1.797312e+02 1.791358e+02 5.441415e+01 2.052769e+00
<VARIANCE> 20
 7.385461e+06 6.651980e+01 1.000000e-02 1.000000e-02 1.000000e-02 1.000000e-02 1.000000e-02 1.000000e-02 1.000000e-02 3.643375e+04 1.000000e-02 1.307696e+06 5.535903e+06 1.471516e+06 9.835649e+04 4.404774e+03 1.174563e+04 1.443686e+04 4.559604e+03 3.544419e+01
<GCONST> 1.250728e+02
<STATE> 12
<MEAN> 20
 1.079865e+04 1.099993e+01 0.000000e+00 0.000000e+00 0.000000e+00 0.000000e+00 0.000000e+00 3.999380e-02 2.799621e-01 1.541973e+02 2.719596e+00 1.426426e+02 5.022607e+03 4.537752e+03 5.212604e+02 1.533840e+02 2.967085e+02 2.053683e+02 7.328257e+01 8.439919e+00
<VARIANCE> 20
 1.029902e+07 1.190913e+03 1.000000e-02 1.000000e-02 1.000000e-02 1.000000e-02 1.000000e-02 7.838811e-02 1.481389e+00 1.435862e+04 2.527624e+02 2.133037e+05 6.005292e+06 2.805133e+06 9.119755e+04 6.759244e+03 2.210131e+04 1.993001e+04 5.228624e+03 2.865595e+02
<GCONST> 1.470014e+02
<STATE> 13
<MEAN> 20
 1.363338e+04 4.656383e+03 3.557271e+01 0.000000e+00 0.000000e+00 0.000000e+00 2.285798e+00 4.057291e+01 9.378915e+01 7.348120e+02 1.070110e+03 7.185793e+03 7.392026e+03 2.853217e+03 2.302960e+02 8.578490e+01 2.068539e+02 1.305009e+02 3.578798e+01 6.428872e+00
<VARIANCE> 20
 1.079674e+08 2.796896e+08 1.623765e+04 1.000000e-02 1.000000e-02 1.000000e-02 6.792065e+01 2.139925e+04 1.143487e+05 4.738794e+06 1.478804e+07 5.757190e+08 1.167614e+07 3.177201e+06 1.149856e+05 2.901170e+03 2.200711e+04 1.136155e+04 4.376947e+03 2.298292e+02
<GCONST> 2.325004e+02
<TRANSP> 14
 0.000000e+00 1.000000e+00 0.000000e+00 0.000000e+00 0.000000e+00 0.000000e+00 0.000000e+00 0.000000e+00 0.000000e+00 0.000000e+00 0.000000e+00 0.000000e+00 0.000000e+00 0.000000e+00
 0.000000e+00 5.000146e-01 4.999854e-01 0.000000e+00 0.000000e+00 0.000000e+00 0.000000e+00 0.000000e+00 0.000000e+00 0.000000e+00 0.000000e+00 0.000000e+00 0.000000e+00 0.000000e+00
 0.000000e+00 0.000000e+00 4.285865e-01 5.714135e-01 0.000000e+00 0.000000e+00 0.000000e+00 0.000000e+00 0.000000e+00 0.000000e+00 0.000000e+00 0.000000e+00 0.000000e+00 0.000000e+00
 0.000000e+00 0.000000e+00 0.000000e+00 5.000149e-01 4.999851e-01 0.000000e+00 0.000000e+00 0.000000e+00 0.000000e+00 0.000000e+00 0.000000e+00 0.000000e+00 0.000000e+00 0.000000e+00
 0.000000e+00 0.000000e+00 0.000000e+00 0.000000e+00 9.238067e-01 7.619332e-02 0.000000e+00 0.000000e+00 0.000000e+00 0.000000e+00 0.000000e+00 0.000000e+00 0.000000e+00 0.000000e+00
 0.000000e+00 0.000000e+00 0.000000e+00 0.000000e+00 0.000000e+00 6.666595e-01 3.333405e-01 0.000000e+00 0.000000e+00 0.000000e+00 0.000000e+00 0.000000e+00 0.000000e+00 0.000000e+00
 0.000000e+00 0.000000e+00 0.000000e+00 0.000000e+00 0.000000e+00 0.000000e+00 4.285741e-01 5.714259e-01 0.000000e+00 0.000000e+00 0.000000e+00 0.000000e+00 0.000000e+00 0.000000e+00
 0.000000e+00 0.000000e+00 0.000000e+00 0.000000e+00 0.000000e+00 0.000000e+00 0.000000e+00 3.333194e-01 6.666806e-01 0.000000e+00 0.000000e+00 0.000000e+00 0.000000e+00 0.000000e+00
 0.000000e+00 0.000000e+00 0.000000e+00 0.000000e+00 0.000000e+00 0.000000e+00 0.000000e+00 0.000000e+00 1.999944e-01 8.000057e-01 0.000000e+00 0.000000e+00 0.000000e+00 0.000000e+00
 0.000000e+00 0.000000e+00 0.000000e+00 0.000000e+00 0.000000e+00 0.000000e+00 0.000000e+00 0.000000e+00 0.000000e+00 7.714580e-01 2.285421e-01 0.000000e+00 0.000000e+00 0.000000e+00
 0.000000e+00 0.000000e+00 0.000000e+00 0.000000e+00 0.000000e+00 0.000000e+00 0.000000e+00 0.000000e+00 0.000000e+00 0.000000e+00 9.157842e-01 8.421580e-02 0.000000e+00 0.000000e+00
 0.000000e+00 0.000000e+00 0.000000e+00 0.000000e+00 0.000000e+00 0.000000e+00 0.000000e+00 0.000000e+00 0.000000e+00 0.000000e+00 0.000000e+00 8.400154e-01 1.599847e-01 0.000000e+00
 0.000000e+00 0.000000e+00 0.000000e+00 0.000000e+00 0.000000e+00 0.000000e+00 0.000000e+00 0.000000e+00 0.000000e+00 0.000000e+00 0.000000e+00 0.000000e+00 4.285672e-01 5.714328e-01
 0.000000e+00 0.000000e+00 0.000000e+00 0.000000e+00 0.000000e+00 0.000000e+00 0.000000e+00 0.000000e+00 0.000000e+00 0.000000e+00 0.000000e+00 0.000000e+00 0.000000e+00 0.000000e+00
<ENDHMM>
