~o
<STREAMINFO> 1 20
<VECSIZE> 20<NULLD><USER><DIAGC>
~h "b"
<BEGINHMM>
<NUMSTATES> 14
<STATE> 2
<MEAN> 20
 4.774226e+03 2.568384e+01 9.409510e+00 2.727330e+00 1.895522e+01 5.581808e+02 2.937487e+02 4.191183e+01 2.450157e+01 1.340459e+02 3.079692e+02 3.410873e+02 1.837488e+03 1.625862e+03 1.224613e+03 3.910127e+02 1.480406e+02 5.909038e+00 1.409256e+00 0.000000e+00
<VARIANCE> 20
 1.291326e+07 3.162805e+03 6.702654e+02 5.283636e+01 3.337712e+03 8.175076e+05 1.593223e+05 2.789284e+03 8.535555e+02 1.521633e+04 3.771830e+05 2.146690e+05 6.437696e+06 3.524767e+06 1.127551e+06 2.064535e+05 9.290554e+04 2.044234e+02 1.915403e+01 1.000000e-02
<GCONST> 2.268348e+02
<STATE> 3
<MEAN> 20
 8.302412e+03 1.936173e+00 1.551434e+00 0.000000e+00 1.201486e+00 1.539827e+01 6.106165e+01 5.770877e+00 3.949454e+00 2.957969e+02 6.321764e+01 3.964742e+02 5.479457e+03 2.011829e+03 6.502390e+02 8.674194e+01 1.049600e+00 6.997184e-02 0.000000e+00 0.000000e+00
<VARIANCE> 20
 9.330275e+06 1.039349e+02 2.039337e+02 1.000000e-02 9.986621e+01 5.716357e+03 7.363404e+04 3.837101e+02 1.859427e+02 1.116278e+05 8.502508e+04 3.227818e+05 1.231558e+07 1.623793e+06 1.826138e+06 5.324980e+04 7.365077e+00 1.350475e-01 1.000000e-02 1.000000e-02
<GCONST> 1.761696e+02
<STATE> 4
<MEAN> 20
 4.724961e+03 1.484202e+01 1.015249e-01 6.089988e-02 4.466639e-01 3.124769e+02 1.337344e+02 5.329638e+01 4.735047e+01 1.319850e+02 7.237312e+01 1.971093e+02 7.016135e+02 1.633419e+03 2.447163e+03 3.024522e+02 6.279085e+01 2.273744e+00 4.060927e-02 2.030111e-02
<VARIANCE> 20
 6.347606e+06 1.442604e+03 3.348524e-01 9.779303e-02 2.927009e+00 2.679689e+05 3.482571e+04 5.256657e+03 3.558309e+03 2.807888e+04 1.561533e+04 5.787791e+04 2.076499e+06 1.421360e+06 3.184250e+06 1.355969e+05 2.228724e+04 2.771800e+01 3.896016e-02 1.988899e-02
<GCONST> 1.895918e+02
<STATE> 5
<MEAN> 20
 8.161571e+03 1.614640e+02 5.868930e+00 1.434520e+00 4.086259e+00 1.236628e+03 2.701089e+02 9.617216e+01 9.399871e+01 3.919934e+02 1.864021e+02 9.326363e+02 3.663980e+03 1.994539e+03 2.494372e+03 6.955130e+02 4.217975e+02 3.108672e+01 2.260601e+00 7.391111e-01
<VARIANCE> 20
 2.253704e+07 4.006403e+04 1.222702e+02 3.493488e+01 4.598694e+01 1.075047e+06 7.559977e+04 8.561751e+03 1.170655e+04 2.423805e+05 4.306876e+04 8.810611e+05 1.601182e+07 2.390676e+06 1.333311e+07 1.320219e+05 2.308090e+05 2.587441e+03 2.305953e+01 5.236558e+00
<GCONST> 2.412502e+02
<STATE> 6
<MEAN> 20
 1.024173e+04 2.320441e+01 2.739863e-02 0.000000e+00 1.369932e-02 7.550251e+02 1.690378e+02 9.146442e+01 9.895874e+01 6.544657e+02 8.684978e+00 7.821992e+02 7.178878e+03 2.276369e+03 1.151435e+03 4.449024e+02 1.877448e+02 3.533884e+00 1.232813e-01 5.478890e-02
<VARIANCE> 20
 1.034776e+07 1.511248e+03 5.404658e-02 1.000000e-02 1.351165e-02 7.640798e+05 5.289275e+04 1.157562e+04 9.258780e+03 2.156972e+05 2.394150e+02 7.443152e+05 1.775330e+07 1.452088e+06 3.801259e+06 2.179040e+05 1.589160e+05 1.814585e+02 6.011955e-01 2.161536e-01
<GCONST> 1.960555e+02
<STATE> 7
<MEAN> 20
 9.325346e+03 2.887321e+01 5.499841e+00 1.124915e+00 3.375084e+00 5.587876e+02 2.246646e+02 6.275636e+01 6.912462e+01 4.551047e+02 2.090195e+02 4.497311e+02 5.759862e+03 2.677809e+03 1.132205e+03 4.216732e+02 7.048432e+01 1.387280e+01 0.000000e+00 0.000000e+00
<VARIANCE> 20
 1.343699e+07 1.321003e+03 1.309917e+02 8.858799e+00 3.723352e+01 3.222462e+05 1.422381e+05 2.358033e+03 3.341185e+03 1.629997e+05 1.404576e+05 2.015439e+05 1.996682e+07 8.080739e+05 1.908094e+06 1.441337e+05 2.108308e+04 8.144897e+02 1.000000e-02 1.000000e-02
<GCONST> 2.117274e+02
<STATE> 8
<MEAN> 20
 1.033535e+04 1.775903e+01 2.619404e-22 0.000000e+00 3.127155e-02 1.109109e+03 1.848472e+02 1.116453e+02 1.230157e+02 8.919633e+02 5.587231e+01 5.463582e+02 8.308670e+03 2.505257e+03 4.288430e+02 5.778516e+02 2.882315e+02 3.943072e+01 1.614298e+01 7.064385e+00
<VARIANCE> 20
 9.253614e+06 3.759531e+03 1.000000e-02 1.000000e-02 3.029365e-02 5.725131e+05 1.381071e+04 4.424100e+03 4.194485e+03 1.548864e+05 3.743341e+04 1.591214e+05 1.201976e+07 5.851241e+05 2.678257e+05 1.303311e+05 1.186128e+05 3.333084e+03 1.451146e+03 5.907863e+02
<GCONST> 2.096229e+02
<STATE> 9
<MEAN> 20
 9.723694e+03 2.912842e+01 2.499960e-01 0.000000e+00 2.125231e+00 1.558619e+03 2.752495e+02 1.522483e+02 1.702321e+02 1.125320e+03 1.148640e+02 6.106853e+02 8.049671e+03 2.473590e+03 4.729702e+02 8.532628e+02 4.363321e+02 2.549148e+01 4.172523e-30 0.000000e+00
<VARIANCE> 20
 1.531998e+07 1.524927e+03 4.374939e-01 1.000000e-02 1.411074e+01 1.815027e+06 3.028075e+04 1.164031e+04 1.456200e+04 5.134282e+05 3.559415e+04 2.599022e+05 1.599290e+07 6.847651e+05 2.800653e+05 6.016514e+05 3.370212e+05 2.192677e+03 1.000000e-02 1.000000e-02
<GCONST> 2.047073e+02
<STATE> 10
<MEAN> 20
 8.612559e+03 1.194367e+01 9.514974e-02 0.000000e+00 0.000000e+00 1.422466e+03 1.922642e+02 1.057258e+02 1.204515e+02 8.323557e+02 2.345882e+01 2.784645e+02 5.875657e+03 3.298348e+03 5.947484e+02 5.763745e+02 4.904561e+02 8.710619e+01 6.268478e+01 1.056209e+01
<VARIANCE> 20
 8.787864e+06 4.994758e+02 1.812459e-01 1.000000e-02 1.000000e-02 8.527711e+05 1.706515e+04 5.071922e+03 5.443211e+03 2.019437e+05 6.490665e+03 6.378936e+04 9.778304e+06 2.401486e+06 4.095038e+05 1.005054e+05 1.958237e+05 8.260357e+03 6.532271e+03 5.934139e+02
<GCONST> 2.122361e+02
<STATE> 11
<MEAN> 20
 8.799027e+03 6.858473e+01 1.415349e+01 2.923514e+00 4.372208e+00 1.853514e+03 4.074211e+02 2.068657e+02 1.972261e+02 1.102079e+03 1.736270e+02 1.042748e+03 7.219380e+03 2.351414e+03 3.969555e+02 7.088649e+02 6.438723e+02 1.035383e+02 1.561386e+01 1.530826e-01
<VARIANCE> 20
 1.860529e+07 5.316359e+03 5.196179e+02 4.216231e+01 6.392988e+01 6.749286e+05 9.703275e+04 1.924785e+04 1.076473e+04 3.682024e+05 4.641444e+04 4.733778e+05 1.293919e+07 2.840850e+06 6.262920e+04 2.061163e+05 2.106684e+05 2.204767e+04 2.027661e+03 2.827191e-01
<GCONST> 2.400381e+02
<STATE> 12
<MEAN> 20
 1.005893e+04 2.022758e+01 1.619979e+00 4.347939e-01 1.051914e+00 1.669784e+03 4.215943e+02 2.135996e+02 2.177281e+02 1.298127e+03 3.579760e+01 1.214143e+03 8.346044e+03 2.569971e+03 5.575926e+02 1.059005e+03 1.075562e+02 8.976974e+00 3.735136e+00 2.788079e-01
<VARIANCE> 20
 5.546003e+06 6.489126e+02 1.303032e+01 1.003814e+00 6.294624e+00 8.391942e+05 1.420354e+05 2.328673e+04 1.757308e+04 3.341607e+05 3.613092e+03 2.178964e+06 4.221749e+06 1.686021e+06 1.775543e+05 3.606117e+05 7.793523e+04 1.067612e+03 1.535616e+02 8.702685e-01
<GCONST> 2.216203e+02
<STATE> 13
<MEAN> 20
 9.945399e+03 1.416896e+00 0.000000e+00 0.000000e+00 6.250169e-02 1.150065e+03 1.816871e+02 1.103745e+02 1.284566e+02 9.572301e+02 1.583420e+00 6.580109e+02 7.663983e+03 2.802470e+03 3.962899e+02 5.749504e+02 2.809585e+02 4.260582e+01 4.386030e+01 9.980048e+00
<VARIANCE> 20
 5.917262e+06 3.654133e+01 1.000000e-02 1.000000e-02 1.835987e-01 4.060412e+05 1.040117e+04 2.215062e+03 1.769150e+03 1.016926e+05 1.249425e+01 7.221779e+05 5.074384e+06 2.274396e+06 5.030487e+04 1.201621e+05 5.805525e+04 2.182971e+03 5.581905e+03 4.191296e+02
<GCONST> 1.958566e+02
<TRANSP> 14
 0.000000e+00 1.000000e+00 0.000000e+00 0.000000e+00 0.000000e+00 0.000000e+00 0.000000e+00 0.000000e+00 0.000000e+00 0.000000e+00 0.000000e+00 0.000000e+00 0.000000e+00 0.000000e+00
 0.000000e+00 6.363752e-01 3.636248e-01 0.000000e+00 0.000000e+00 0.000000e+00 0.000000e+00 0.000000e+00 0.000000e+00 0.000000e+00 0.000000e+00 0.000000e+00 0.000000e+00 0.000000e+00
 0.000000e+00 0.000000e+00 9.066989e-01 9.330110e-02 0.000000e+00 0.000000e+00 0.000000e+00 0.000000e+00 0.000000e+00 0.000000e+00 0.000000e+00 0.000000e+00 0.000000e+00 0.000000e+00
 0.000000e+00 0.000000e+00 0.000000e+00 8.375788e-01 1.624212e-01 0.000000e+00 0.000000e+00 0.000000e+00 0.000000e+00 0.000000e+00 0.000000e+00 0.000000e+00 0.000000e+00 0.000000e+00
 0.000000e+00 0.000000e+00 0.000000e+00 0.000000e+00 6.521773e-01 3.478227e-01 0.000000e+00 0.000000e+00 0.000000e+00 0.000000e+00 0.000000e+00 0.000000e+00 0.000000e+00 0.000000e+00
 0.000000e+00 0.000000e+00 0.000000e+00 0.000000e+00 0.000000e+00 8.904127e-01 1.095873e-01 0.000000e+00 0.000000e+00 0.000000e+00 0.000000e+00 0.000000e+00 0.000000e+00 0.000000e+00
 0.000000e+00 0.000000e+00 0.000000e+00 0.000000e+00 0.000000e+00 0.000000e+00 0.000000e+00 1.000000e+00 0.000000e+00 0.000000e+00 0.000000e+00 0.000000e+00 0.000000e+00 0.000000e+00
 0.000000e+00 0.000000e+00 0.000000e+00 0.000000e+00 0.000000e+00 0.000000e+00 0.000000e+00 7.498765e-01 2.501235e-01 0.000000e+00 0.000000e+00 0.000000e+00 0.000000e+00 0.000000e+00
 0.000000e+00 0.000000e+00 0.000000e+00 0.000000e+00 0.000000e+00 0.000000e+00 0.000000e+00 0.000000e+00 0.000000e+00 1.000000e+00 0.000000e+00 0.000000e+00 0.000000e+00 0.000000e+00
 0.000000e+00 0.000000e+00 0.000000e+00 0.000000e+00 0.000000e+00 0.000000e+00 0.000000e+00 0.000000e+00 0.000000e+00 6.193720e-01 3.806280e-01 0.000000e+00 0.000000e+00 0.000000e+00
 0.000000e+00 0.000000e+00 0.000000e+00 0.000000e+00 0.000000e+00 0.000000e+00 0.000000e+00 0.000000e+00 0.000000e+00 0.000000e+00 3.878364e-01 6.121635e-01 0.000000e+00 0.000000e+00
 0.000000e+00 0.000000e+00 0.000000e+00 0.000000e+00 0.000000e+00 0.000000e+00 0.000000e+00 0.000000e+00 0.000000e+00 0.000000e+00 0.000000e+00 5.539027e-01 4.460972e-01 0.000000e+00
 0.000000e+00 0.000000e+00 0.000000e+00 0.000000e+00 0.000000e+00 0.000000e+00 0.000000e+00 0.000000e+00 0.000000e+00 0.000000e+00 0.000000e+00 0.000000e+00 8.333161e-01 1.666839e-01
 0.000000e+00 0.000000e+00 0.000000e+00 0.000000e+00 0.000000e+00 0.000000e+00 0.000000e+00 0.000000e+00 0.000000e+00 0.000000e+00 0.000000e+00 0.000000e+00 0.000000e+00 0.000000e+00
<ENDHMM>
