~o
<STREAMINFO> 1 20
<VECSIZE> 20<NULLD><USER><DIAGC>
~h "c"
<BEGINHMM>
<NUMSTATES> 14
<STATE> 2
<MEAN> 20
 8.091516e+03 1.129767e+00 7.408314e-02 0.000000e+00 0.000000e+00 0.000000e+00 0.000000e+00 0.000000e+00 0.000000e+00 1.245379e+02 1.963204e+00 1.363146e+02 4.889150e+03 3.002963e+03 1.691068e+02 1.651814e+01 1.240694e+00 7.347646e-14 0.000000e+00 0.000000e+00
<VARIANCE> 20
 1.483116e+06 5.030405e+01 2.908444e-01 1.000000e-02 1.000000e-02 1.000000e-02 1.000000e-02 1.000000e-02 1.000000e-02 3.131769e+04 2.042454e+02 4.404484e+04 1.090499e+06 1.194194e+06 3.030414e+04 3.483462e+02 6.404753e+00 1.000000e-02 1.000000e-02 1.000000e-02
<GCONST> 8.449240e+01
<STATE> 3
<MEAN> 20
 4.461889e+03 6.305909e+01 1.434228e+02 0.000000e+00 0.000000e+00 0.000000e+00 0.000000e+00 0.000000e+00 0.000000e+00 2.869556e+01 0.000000e+00 3.162238e+00 1.320007e+03 2.293514e+03 6.590323e+02 3.098300e+02 1.066514e+02 4.223431e+00 6.452558e-01 0.000000e+00
<VARIANCE> 20
 8.030745e+06 2.668956e+04 2.256844e+05 1.000000e-02 1.000000e-02 1.000000e-02 1.000000e-02 1.000000e-02 1.000000e-02 4.738519e+03 1.000000e-02 9.806632e+01 1.743779e+06 3.266539e+06 2.140799e+05 2.849423e+05 3.322534e+04 1.529792e+02 6.681458e+00 1.000000e-02
<GCONST> 1.229287e+02
<STATE> 4
<MEAN> 20
 5.512589e+03 2.278030e+02 0.000000e+00 0.000000e+00 0.000000e+00 0.000000e+00 7.400764e+00 2.480256e+01 1.040107e+01 1.229617e+02 2.380227e+01 4.022005e+01 1.451588e+03 2.861259e+03 6.098760e+02 7.374360e+02 1.649763e+02 1.380085e+01 3.000185e+00 0.000000e+00
<VARIANCE> 20
 1.007589e+07 1.134794e+05 1.000000e-02 1.000000e-02 1.000000e-02 1.000000e-02 2.190569e+02 2.460350e+03 4.326735e+02 1.805021e+04 1.412252e+03 1.505137e+03 2.346262e+06 5.827688e+06 2.183023e+05 1.811796e+06 4.005986e+04 7.617953e+02 3.600166e+01 1.000000e-02
<GCONST> 1.629019e+02
<STATE> 5
<MEAN> 20
 3.218015e+03 7.952702e+01 2.006453e+01 6.688412e-02 0.000000e+00 0.000000e+00 0.000000e+00 0.000000e+00 0.000000e+00 2.407397e+00 3.009750e+00 2.601733e+01 2.077098e+02 9.201576e+02 1.584094e+03 4.965555e+02 8.106525e+01 1.070146e+00 4.013047e-01 0.000000e+00
<VARIANCE> 20
 4.800272e+06 1.342775e+04 3.714893e+03 6.241064e-02 1.000000e-02 1.000000e-02 1.000000e-02 1.000000e-02 1.000000e-02 7.618970e+01 5.267499e+01 2.833414e+03 3.401822e+05 1.403892e+06 3.374253e+06 3.555842e+05 2.611725e+04 1.076016e+01 2.246783e+00 1.000000e-02
<GCONST> 1.237694e+02
<STATE> 6
<MEAN> 20
 3.096800e+03 2.991049e+01 0.000000e+00 0.000000e+00 0.000000e+00 0.000000e+00 0.000000e+00 0.000000e+00 1.272787e+00 8.590675e+01 2.545573e+00 1.872724e+01 3.086028e+02 9.207869e+02 1.417208e+03 3.025562e+02 1.710071e+02 4.063816e+01 1.845387e+01 1.336427e+01
<VARIANCE> 20
 9.201212e+06 3.121278e+03 1.000000e-02 1.000000e-02 1.000000e-02 1.000000e-02 1.000000e-02 1.000000e-02 8.925960e+00 2.242168e+04 6.479612e+01 6.849430e+02 5.094828e+05 1.258966e+06 3.872316e+06 6.113124e+04 9.372144e+04 6.998916e+03 1.406722e+03 1.656845e+03
<GCONST> 1.444551e+02
<STATE> 7
<MEAN> 20
 3.042665e+03 1.608539e+02 4.286231e-01 0.000000e+00 0.000000e+00 0.000000e+00 5.429226e+00 1.671630e+01 4.429105e+00 4.285826e+01 3.200386e+01 7.115028e+01 2.807081e+02 9.821607e+02 1.309390e+03 1.495732e+02 1.629899e+02 2.318366e+02 5.199683e+01 1.571341e+00
<VARIANCE> 20
 3.679012e+06 9.403719e+04 1.102152e+00 1.000000e-02 1.000000e-02 1.000000e-02 7.367880e+01 1.578646e+03 1.011119e+02 3.352579e+03 2.652768e+03 1.577067e+04 2.132278e+05 1.278319e+06 1.432380e+06 1.849153e+04 7.606068e+04 7.482798e+04 6.134381e+03 7.387440e+00
<GCONST> 1.750707e+02
<STATE> 8
<MEAN> 20
 2.492709e+03 5.383724e+02 3.424903e+01 2.499905e-01 1.224962e+01 7.499716e-01 2.797394e+02 7.262434e+01 1.387459e+01 6.687709e+01 6.228729e+02 1.160051e+02 3.179115e+02 9.787775e+02 6.166588e+02 3.238645e+02 2.683649e+02 2.183667e+02 4.849816e+01 3.749858e-01
<VARIANCE> 20
 4.516598e+06 2.676461e+05 6.673960e+03 4.374857e-01 4.164255e+02 3.937372e+00 1.489660e+05 6.369805e+03 9.245790e+02 3.116608e+03 3.581736e+05 9.576980e+03 3.931147e+05 1.944392e+06 1.119352e+06 1.840243e+05 9.072423e+04 3.399775e+04 2.261753e+03 9.843430e-01
<GCONST> 2.204314e+02
<STATE> 9
<MEAN> 20
 7.419600e+03 3.945601e+02 1.685774e+03 7.241467e-01 0.000000e+00 0.000000e+00 0.000000e+00 0.000000e+00 0.000000e+00 8.627937e+01 0.000000e+00 3.815989e+02 6.586244e+03 2.023624e+03 5.753323e+02 1.982723e+01 3.103589e-01 0.000000e+00 0.000000e+00 0.000000e+00
<VARIANCE> 20
 6.299178e+06 4.211841e+04 9.048852e+05 9.992918e+00 1.000000e-02 1.000000e-02 1.000000e-02 1.000000e-02 1.000000e-02 2.625898e+04 1.000000e-02 1.203725e+05 1.587799e+07 5.955578e+05 8.773729e+05 8.824991e+02 6.968164e-01 1.000000e-02 1.000000e-02 1.000000e-02
<GCONST> 1.094906e+02
<STATE> 10
<MEAN> 20
 6.685918e+03 2.400721e+02 8.437396e+02 1.339369e+01 3.754724e-01 0.000000e+00 4.255353e+00 1.264090e+01 8.135235e+00 2.271932e+02 1.364247e+01 4.838811e+02 4.217697e+03 1.316100e+03 1.854702e+03 1.489508e+02 7.496801e-01 4.181350e-21 0.000000e+00 0.000000e+00
<VARIANCE> 20
 5.663720e+06 5.060142e+04 8.241968e+05 1.253734e+03 9.854375e-01 1.000000e-02 7.926445e+01 1.019817e+03 4.015313e+02 7.691937e+04 5.108903e+02 3.659960e+05 2.174765e+07 4.014311e+05 3.674614e+06 2.982333e+04 1.189022e+00 1.000000e-02 1.000000e-02 1.000000e-02
<GCONST> 1.684430e+02
<STATE> 11
<MEAN> 20
 5.266061e+03 2.696508e+02 9.906820e+02 5.988127e-01 0.000000e+00 0.000000e+00 1.995671e+00 1.995674e+00 8.980483e+00 2.127709e+02 2.454679e+01 5.006697e+02 4.378097e+03 9.793203e+02 2.360977e+02 5.068773e+02 1.251301e+02 1.397001e+00 3.991323e-01 1.995661e-01
<VARIANCE> 20
 1.410212e+07 4.997000e+04 7.977624e+05 1.437862e+00 1.000000e-02 1.000000e-02 6.394775e+00 5.995656e+00 2.731816e+02 9.508588e+04 1.230473e+03 3.998335e+05 2.181029e+07 1.178134e+06 1.473641e+05 8.143471e+05 4.665600e+04 2.239315e+00 6.389580e-01 1.597395e-01
<GCONST> 1.751768e+02
<STATE> 12
<MEAN> 20
 6.833450e+03 4.145261e+02 1.830003e+03 3.285906e+00 0.000000e+00 0.000000e+00 0.000000e+00 0.000000e+00 0.000000e+00 1.017885e+02 0.000000e+00 3.271239e+02 6.209690e+03 2.286572e+03 1.528294e+02 1.018251e+02 1.024424e+02 2.547416e+00 2.381064e-02 0.000000e+00
<VARIANCE> 20
 6.641086e+06 7.374465e+03 3.268071e+05 8.940018e+01 1.000000e-02 1.000000e-02 1.000000e-02 1.000000e-02 1.000000e-02 2.230304e+04 1.000000e-02 7.289102e+04 9.136085e+06 1.313881e+06 2.216475e+04 6.950027e+04 9.843598e+04 8.457304e+01 2.324370e-02 1.000000e-02
<GCONST> 1.309800e+02
<STATE> 13
<MEAN> 20
 3.356969e+03 1.355629e+02 6.132662e+02 0.000000e+00 0.000000e+00 0.000000e+00 3.333202e-01 5.555338e-01 0.000000e+00 1.106776e+02 3.888736e+00 1.662244e+02 2.059514e+03 1.168980e+03 5.259878e+02 1.233306e+02 6.488678e+01 7.299717e+01 3.055436e+01 9.999608e-01
<VARIANCE> 20
 9.066129e+06 2.465929e+04 7.891295e+05 1.000000e-02 1.000000e-02 1.000000e-02 8.888583e-01 2.469051e+00 1.000000e-02 4.580745e+04 1.209835e+02 7.221589e+04 8.261496e+06 1.912245e+06 5.753270e+05 1.794618e+04 5.528445e+03 1.685177e+04 2.248195e+03 3.555455e+00
<GCONST> 1.663348e+02
<TRANSP> 14
 0.000000e+00 1.000000e+00 0.000000e+00 0.000000e+00 0.000000e+00 0.000000e+00 0.000000e+00 0.000000e+00 0.000000e+00 0.000000e+00 0.000000e+00 0.000000e+00 0.000000e+00 0.000000e+00
 0.000000e+00 9.259214e-01 7.407857e-02 0.000000e+00 0.000000e+00 0.000000e+00 0.000000e+00 0.000000e+00 0.000000e+00 0.000000e+00 0.000000e+00 0.000000e+00 0.000000e+00 0.000000e+00
 0.000000e+00 0.000000e+00 7.653759e-01 2.346241e-01 0.000000e+00 0.000000e+00 0.000000e+00 0.000000e+00 0.000000e+00 0.000000e+00 0.000000e+00 0.000000e+00 0.000000e+00 0.000000e+00
 0.000000e+00 0.000000e+00 0.000000e+00 1.999997e-01 8.000004e-01 0.000000e+00 0.000000e+00 0.000000e+00 0.000000e+00 0.000000e+00 0.000000e+00 0.000000e+00 0.000000e+00 0.000000e+00
 0.000000e+00 0.000000e+00 0.000000e+00 0.000000e+00 7.324910e-01 2.675090e-01 0.000000e+00 0.000000e+00 0.000000e+00 0.000000e+00 0.000000e+00 0.000000e+00 0.000000e+00 0.000000e+00
 0.000000e+00 0.000000e+00 0.000000e+00 0.000000e+00 0.000000e+00 6.363840e-01 3.636160e-01 0.000000e+00 0.000000e+00 0.000000e+00 0.000000e+00 0.000000e+00 0.000000e+00 0.000000e+00
 0.000000e+00 0.000000e+00 0.000000e+00 0.000000e+00 0.000000e+00 0.000000e+00 4.285612e-01 5.714388e-01 0.000000e+00 0.000000e+00 0.000000e+00 0.000000e+00 0.000000e+00 0.000000e+00
 0.000000e+00 0.000000e+00 0.000000e+00 0.000000e+00 0.000000e+00 0.000000e+00 0.000000e+00 4.999810e-01 5.000190e-01 0.000000e+00 0.000000e+00 0.000000e+00 0.000000e+00 0.000000e+00
 0.000000e+00 0.000000e+00 0.000000e+00 0.000000e+00 0.000000e+00 0.000000e+00 0.000000e+00 0.000000e+00 8.620769e-01 1.379231e-01 0.000000e+00 0.000000e+00 0.000000e+00 0.000000e+00
 0.000000e+00 0.000000e+00 0.000000e+00 0.000000e+00 0.000000e+00 0.000000e+00 0.000000e+00 0.000000e+00 0.000000e+00 4.993321e-01 5.006679e-01 0.000000e+00 0.000000e+00 0.000000e+00
 0.000000e+00 0.000000e+00 0.000000e+00 0.000000e+00 0.000000e+00 0.000000e+00 0.000000e+00 0.000000e+00 0.000000e+00 0.000000e+00 2.016650e-01 7.983350e-01 0.000000e+00 0.000000e+00
 0.000000e+00 0.000000e+00 0.000000e+00 0.000000e+00 0.000000e+00 0.000000e+00 0.000000e+00 0.000000e+00 0.000000e+00 0.000000e+00 0.000000e+00 9.047633e-01 9.523670e-02 0.000000e+00
 0.000000e+00 0.000000e+00 0.000000e+00 0.000000e+00 0.000000e+00 0.000000e+00 0.000000e+00 0.000000e+00 0.000000e+00 0.000000e+00 0.000000e+00 0.000000e+00 5.555338e-01 4.444663e-01
 0.000000e+00 0.000000e+00 0.000000e+00 0.000000e+00 0.000000e+00 0.000000e+00 0.000000e+00 0.000000e+00 0.000000e+00 0.000000e+00 0.000000e+00 0.000000e+00 0.000000e+00 0.000000e+00
<ENDHMM>
