~o
<STREAMINFO> 1 20
<VECSIZE> 20<NULLD><USER><DIAGC>
~h "d"
<BEGINHMM>
<NUMSTATES> 14
<STATE> 2
<MEAN> 20
 1.251482e+04 1.776544e+01 7.654921e-19 0.000000e+00 0.000000e+00 0.000000e+00 0.000000e+00 0.000000e+00 0.000000e+00 1.438171e+02 6.728270e-01 1.742256e+02 6.635421e+03 4.709693e+03 4.078622e+02 1.816745e+02 2.371140e+02 2.690432e+02 5.134395e+01 9.353412e+00
<VARIANCE> 20
 3.021134e+06 1.184228e+03 1.000000e-02 1.000000e-02 1.000000e-02 1.000000e-02 1.000000e-02 1.000000e-02 1.000000e-02 1.111823e+04 8.453019e+00 1.393828e+05 4.632863e+06 3.463506e+06 5.707837e+04 5.924215e+03 1.322207e+04 2.318125e+04 2.369679e+03 1.650184e+02
<GCONST> 1.322780e+02
<STATE> 3
<MEAN> 20
 1.263641e+04 2.251167e+01 3.409532e-02 0.000000e+00 0.000000e+00 0.000000e+00 0.000000e+00 0.000000e+00 0.000000e+00 3.108737e+02 3.985187e-01 5.412963e+02 7.873065e+03 3.464062e+03 3.042147e+02 1.508241e+02 2.300051e+02 3.053918e+02 9.451052e+01 6.058635e+00
<VARIANCE> 20
 7.104374e+06 1.914398e+03 3.293284e-02 1.000000e-02 1.000000e-02 1.000000e-02 1.000000e-02 1.000000e-02 1.000000e-02 4.023207e+04 2.131616e+00 3.558972e+05 4.731580e+06 3.039984e+06 1.394955e+04 5.330786e+03 3.101425e+04 2.451303e+04 7.729123e+03 8.088087e+01
<GCONST> 1.354048e+02
<STATE> 4
<MEAN> 20
 1.258624e+04 1.011473e+01 0.000000e+00 0.000000e+00 0.000000e+00 0.000000e+00 0.000000e+00 0.000000e+00 7.860196e-02 2.443316e+02 7.814409e+00 3.350961e+02 9.292182e+03 2.433349e+03 2.241771e+02 9.935544e+01 1.691952e+02 2.222639e+02 5.338309e+01 3.946173e+00
<VARIANCE> 20
 4.132652e+06 1.044163e+02 1.000000e-02 1.000000e-02 1.000000e-02 1.000000e-02 1.000000e-02 1.000000e-02 7.242370e-02 2.900703e+04 3.782284e+02 8.290822e+04 4.334708e+06 1.215504e+06 5.064440e+03 9.369274e+02 9.822063e+03 9.528630e+03 1.891438e+03 7.574649e+01
<GCONST> 1.288127e+02
<STATE> 5
<MEAN> 20
 1.091413e+04 1.044922e+00 2.278157e-02 0.000000e+00 0.000000e+00 0.000000e+00 0.000000e+00 0.000000e+00 0.000000e+00 2.046830e+02 6.834468e-02 1.766755e+02 7.556777e+03 2.576924e+03 2.650726e+02 1.280999e+02 2.022919e+02 1.864955e+02 2.457001e+01 2.906470e+00
<VARIANCE> 20
 3.974470e+06 1.066987e+01 4.504408e-02 1.000000e-02 1.000000e-02 1.000000e-02 1.000000e-02 1.000000e-02 1.000000e-02 3.244504e+04 2.231448e-01 4.797661e+04 4.248094e+06 9.687056e+05 1.557031e+04 6.879295e+03 1.867136e+04 1.305876e+04 8.679939e+02 4.441953e+01
<GCONST> 1.206620e+02
<STATE> 6
<MEAN> 20
 1.229477e+04 4.480317e+01 0.000000e+00 0.000000e+00 0.000000e+00 0.000000e+00 0.000000e+00 0.000000e+00 4.532749e-01 2.967748e+02 5.801551e+00 5.822893e+02 8.965854e+03 2.249413e+03 3.002257e+02 1.507601e+02 1.712806e+02 1.868844e+02 2.347253e+01 8.158621e-01
<VARIANCE> 20
 2.596623e+06 2.421869e+03 1.000000e-02 1.000000e-02 1.000000e-02 1.000000e-02 1.000000e-02 1.000000e-02 2.060916e+00 2.873391e+04 9.306964e+01 1.539245e+05 3.940272e+06 1.565734e+06 1.523230e+04 8.529076e+03 1.154199e+04 1.402405e+04 5.283432e+02 6.677034e+00
<GCONST> 1.343588e+02
<STATE> 7
<MEAN> 20
 1.174935e+04 3.820756e+00 0.000000e+00 0.000000e+00 0.000000e+00 0.000000e+00 0.000000e+00 1.537877e-01 3.844692e-02 3.222232e+02 3.075753e-01 5.645673e+02 7.717723e+03 2.848148e+03 3.284321e+02 1.423731e+02 2.150214e+02 2.075901e+02 4.189622e+01 9.532720e+00
<VARIANCE> 20
 2.838464e+06 1.146863e+02 1.000000e-02 1.000000e-02 1.000000e-02 1.000000e-02 1.000000e-02 5.914999e-01 3.696874e-02 7.427729e+04 1.443273e+00 7.357341e+05 2.840242e+06 2.711046e+06 1.833164e+04 5.180113e+03 1.305280e+04 7.111767e+03 1.263731e+03 2.262511e+02
<GCONST> 1.335519e+02
<STATE> 8
<MEAN> 20
 1.208346e+04 2.089700e+00 0.000000e+00 0.000000e+00 0.000000e+00 0.000000e+00 0.000000e+00 0.000000e+00 8.304903e-01 3.630604e+02 7.220599e-02 7.204429e+02 8.535762e+03 2.555437e+03 2.492243e+02 1.290064e+02 1.275552e+02 1.232302e+02 8.455969e+00 2.530082e-01
<VARIANCE> 20
 2.449374e+06 2.970522e+01 1.000000e-02 1.000000e-02 1.000000e-02 1.000000e-02 1.000000e-02 1.000000e-02 1.032364e+01 5.459853e+04 1.391982e-01 8.655655e+05 4.008433e+06 2.903233e+06 9.905307e+03 3.740446e+03 1.515156e+04 1.535468e+04 1.999132e+02 9.832627e-01
<GCONST> 1.242297e+02
<STATE> 9
<MEAN> 20
 1.043125e+04 3.514091e+00 0.000000e+00 0.000000e+00 0.000000e+00 0.000000e+00 0.000000e+00 0.000000e+00 0.000000e+00 6.515900e+02 1.347835e-01 1.519454e+03 8.056438e+03 8.427556e+02 1.942013e+02 1.091624e+02 1.725468e+02 1.810032e+02 8.725493e+00 1.926979e+00
<VARIANCE> 20
 3.411691e+06 1.446810e+02 1.000000e-02 1.000000e-02 1.000000e-02 1.000000e-02 1.000000e-02 1.000000e-02 1.000000e-02 1.003219e+05 6.557514e-01 9.877754e+05 2.843171e+06 4.818506e+05 1.692540e+04 4.699837e+03 2.293085e+04 2.094131e+04 2.059457e+02 2.392443e+01
<GCONST> 1.240659e+02
<STATE> 10
<MEAN> 20
 9.687308e+03 6.103016e-01 0.000000e+00 0.000000e+00 0.000000e+00 0.000000e+00 0.000000e+00 0.000000e+00 0.000000e+00 2.772432e+02 6.102678e-01 1.855849e+02 5.410268e+03 3.556086e+03 3.618223e+02 1.022630e+02 1.300152e+02 1.942793e+02 2.319178e+01 1.039769e+00
<VARIANCE> 20
 5.680656e+06 4.216071e+00 1.000000e-02 1.000000e-02 1.000000e-02 1.000000e-02 1.000000e-02 1.000000e-02 1.000000e-02 3.634341e+04 1.610480e+01 1.954950e+05 6.802534e+06 1.867277e+06 3.812977e+04 3.538777e+03 1.028336e+04 2.615632e+04 1.178310e+03 4.976713e+00
<GCONST> 1.239558e+02
<STATE> 11
<MEAN> 20
 5.957625e+03 3.974043e+01 6.316494e-01 1.052773e-01 7.369410e-01 5.157259e+00 9.999716e+00 7.631795e+00 6.526464e+00 1.896315e+02 7.947928e+00 2.752682e+02 2.543648e+03 1.975136e+03 1.266998e+03 8.615824e+01 3.389423e+01 2.247296e+01 6.262468e+00 8.407791e-44
<VARIANCE> 20
 1.011927e+07 1.939182e+04 6.022919e+00 1.994712e-01 9.774092e+00 4.292352e+02 8.879531e+02 5.144722e+02 3.571089e+02 6.424597e+04 3.060842e+02 4.190549e+05 1.359657e+07 1.537280e+06 1.388335e+06 7.395696e+03 2.722023e+03 1.843764e+03 5.457027e+02 1.000000e-02
<GCONST> 1.907842e+02
<STATE> 12
<MEAN> 20
 3.812771e+03 5.077993e+01 3.088909e+01 1.099990e+01 8.560806e+01 8.516546e+01 4.188674e+02 3.705487e+01 2.027727e+01 2.231214e+02 6.422071e+02 4.076791e+02 2.511066e+03 5.524478e+02 5.025171e+02 7.922469e+01 4.116836e+01 3.794650e+01 5.000004e-01 7.777648e-01
<VARIANCE> 20
 1.739053e+07 9.614859e+03 2.575040e+03 4.917657e+02 1.232052e+04 1.063619e+04 2.326852e+05 2.860408e+03 1.795325e+03 1.000019e+05 4.253279e+05 2.654644e+05 1.402143e+07 3.995270e+05 2.140075e+05 7.387351e+03 4.984381e+03 5.797778e+03 3.361149e+00 5.839516e+00
<GCONST> 2.308063e+02
<STATE> 13
<MEAN> 20
 5.987759e+03 3.922615e+00 0.000000e+00 0.000000e+00 7.537376e+00 9.152529e+00 2.653498e+01 5.230352e+00 2.692170e+00 2.767675e+02 8.152856e+01 4.731491e+02 3.390764e+03 3.918343e+02 1.034877e+03 8.217508e+02 6.261686e+01 5.076901e+01 1.069168e+01 1.615176e+00
<VARIANCE> 20
 1.464715e+07 9.805907e+01 1.000000e-02 1.000000e-02 6.818508e+02 1.005382e+03 6.257448e+03 1.764760e+02 8.697819e+01 1.496716e+05 4.794326e+04 5.461362e+05 1.829671e+07 2.193231e+05 1.048687e+06 1.013095e+06 2.645897e+03 4.752936e+03 4.021903e+02 2.546414e+01
<GCONST> 1.986490e+02
<TRANSP> 14
 0.000000e+00 1.000000e+00 0.000000e+00 0.000000e+00 0.000000e+00 0.000000e+00 0.000000e+00 0.000000e+00 0.000000e+00 0.000000e+00 0.000000e+00 0.000000e+00 0.000000e+00 0.000000e+00
 0.000000e+00 7.998895e-01 2.001105e-01 0.000000e+00 0.000000e+00 0.000000e+00 0.000000e+00 0.000000e+00 0.000000e+00 0.000000e+00 0.000000e+00 0.000000e+00 0.000000e+00 0.000000e+00
 0.000000e+00 0.000000e+00 7.272045e-01 2.727955e-01 0.000000e+00 0.000000e+00 0.000000e+00 0.000000e+00 0.000000e+00 0.000000e+00 0.000000e+00 0.000000e+00 0.000000e+00 0.000000e+00
 0.000000e+00 0.000000e+00 0.000000e+00 3.712787e-01 6.287214e-01 0.000000e+00 0.000000e+00 0.000000e+00 0.000000e+00 0.000000e+00 0.000000e+00 0.000000e+00 0.000000e+00 0.000000e+00
 0.000000e+00 0.000000e+00 0.000000e+00 0.000000e+00 9.088683e-01 9.113172e-02 0.000000e+00 0.000000e+00 0.000000e+00 0.000000e+00 0.000000e+00 0.000000e+00 0.000000e+00 0.000000e+00
 0.000000e+00 0.000000e+00 0.000000e+00 0.000000e+00 0.000000e+00 2.747867e-01 7.252133e-01 0.000000e+00 0.000000e+00 0.000000e+00 0.000000e+00 0.000000e+00 0.000000e+00 0.000000e+00
 0.000000e+00 0.000000e+00 0.000000e+00 0.000000e+00 0.000000e+00 0.000000e+00 6.924708e-01 3.075292e-01 0.000000e+00 0.000000e+00 0.000000e+00 0.000000e+00 0.000000e+00 0.000000e+00
 0.000000e+00 0.000000e+00 0.000000e+00 0.000000e+00 0.000000e+00 0.000000e+00 0.000000e+00 7.111588e-01 2.888412e-01 0.000000e+00 0.000000e+00 0.000000e+00 0.000000e+00 0.000000e+00
 0.000000e+00 0.000000e+00 0.000000e+00 0.000000e+00 0.000000e+00 0.000000e+00 0.000000e+00 0.000000e+00 8.921894e-01 1.078106e-01 0.000000e+00 0.000000e+00 0.000000e+00 0.000000e+00
 0.000000e+00 0.000000e+00 0.000000e+00 0.000000e+00 0.000000e+00 0.000000e+00 0.000000e+00 0.000000e+00 0.000000e+00 8.191717e-01 1.808283e-01 0.000000e+00 0.000000e+00 0.000000e+00
 0.000000e+00 0.000000e+00 0.000000e+00 0.000000e+00 0.000000e+00 0.000000e+00 0.000000e+00 0.000000e+00 0.000000e+00 0.000000e+00 5.789542e-01 4.210459e-01 0.000000e+00 0.000000e+00
 0.000000e+00 0.000000e+00 0.000000e+00 0.000000e+00 0.000000e+00 0.000000e+00 0.000000e+00 0.000000e+00 0.000000e+00 0.000000e+00 0.000000e+00 5.555416e-01 4.444584e-01 0.000000e+00
 0.000000e+00 0.000000e+00 0.000000e+00 0.000000e+00 0.000000e+00 0.000000e+00 0.000000e+00 0.000000e+00 0.000000e+00 0.000000e+00 0.000000e+00 0.000000e+00 3.846297e-01 6.153703e-01
 0.000000e+00 0.000000e+00 0.000000e+00 0.000000e+00 0.000000e+00 0.000000e+00 0.000000e+00 0.000000e+00 0.000000e+00 0.000000e+00 0.000000e+00 0.000000e+00 0.000000e+00 0.000000e+00
<ENDHMM>
