~o
<STREAMINFO> 1 20
<VECSIZE> 20<NULLD><USER><DIAGC>
~h "e"
<BEGINHMM>
<NUMSTATES> 14
<STATE> 2
<MEAN> 20
 7.996734e+03 7.347202e-01 0.000000e+00 0.000000e+00 0.000000e+00 1.299864e+03 1.962638e+02 1.152849e+02 1.287346e+02 9.610080e+02 9.183652e-01 3.981897e+02 6.253657e+03 2.592314e+03 3.811492e+02 6.622972e+02 2.981005e+02 6.432635e+01 4.106030e+01 6.612088e+00
<VARIANCE> 20
 7.038463e+06 1.137903e+01 1.000000e-02 1.000000e-02 1.000000e-02 4.645154e+05 1.969429e+04 4.909197e+03 3.405349e+03 1.302038e+05 7.625983e+00 1.812093e+05 3.675836e+06 4.120046e+06 4.990822e+04 1.298043e+05 5.495721e+04 4.892368e+03 4.616305e+03 3.572563e+02
<GCONST> 1.932913e+02
<STATE> 3
<MEAN> 20
 1.013105e+04 2.643250e+01 5.882757e-02 1.960973e-02 3.921831e-02 1.028638e+03 2.692105e+02 1.486344e+02 1.610651e+02 1.039065e+03 7.000440e+00 4.423342e+02 8.550406e+03 2.642983e+03 4.463110e+02 6.269712e+02 8.790863e+01 2.941317e-01 6.302469e-18 4.136633e-42
<VARIANCE> 20
 6.092066e+06 2.248251e+03 5.536690e-02 1.922520e-02 3.768025e-02 4.956094e+05 4.542886e+04 8.944809e+03 6.040975e+03 1.540307e+05 1.482427e+02 1.510575e+05 4.661893e+06 2.887858e+06 6.238736e+04 1.856198e+05 2.605737e+04 9.135551e-01 1.000000e-02 1.000000e-02
<GCONST> 1.747567e+02
<STATE> 4
<MEAN> 20
 1.123460e+04 2.086289e+01 2.552553e-24 0.000000e+00 0.000000e+00 1.011354e+03 1.512613e+02 8.846500e+01 1.074641e+02 9.671985e+02 4.265006e+00 2.699853e+02 8.951181e+03 3.059896e+03 4.501832e+02 5.765685e+02 1.755848e+02 6.677515e+01 2.455167e+01 2.218841e+00
<VARIANCE> 20
 8.246086e+06 2.056288e+03 1.000000e-02 1.000000e-02 1.000000e-02 2.637184e+05 6.702217e+03 1.550205e+03 1.643138e+03 1.304607e+05 1.650332e+02 6.037427e+04 1.296912e+07 3.370214e+06 2.902656e+04 6.058595e+04 2.011543e+04 4.703397e+03 1.350865e+03 3.614029e+01
<GCONST> 1.922901e+02
<STATE> 5
<MEAN> 20
 1.053754e+04 3.928869e+01 3.466148e-01 2.475944e-02 1.485487e-01 1.213904e+03 2.868745e+02 1.537565e+02 1.711468e+02 1.558503e+03 1.854293e+01 9.522574e+02 1.031056e+04 1.387421e+03 5.051495e+02 6.381627e+02 1.457801e+02 3.658488e+00 1.120828e-20 0.000000e+00
<VARIANCE> 20
 6.185099e+06 8.533190e+03 1.068262e+00 2.414641e-02 4.731061e-01 5.123408e+05 5.572584e+04 1.014534e+04 6.758874e+03 3.214201e+05 6.571729e+02 7.296209e+05 5.629244e+06 1.729106e+06 5.325082e+04 1.862878e+05 4.180642e+04 1.073873e+02 1.000000e-02 1.000000e-02
<GCONST> 1.908593e+02
<STATE> 6
<MEAN> 20
 1.169368e+04 3.321458e+01 6.550096e-01 0.000000e+00 0.000000e+00 1.129165e+03 1.915003e+02 1.122904e+02 1.417089e+02 1.680260e+03 9.377845e+00 9.389821e+02 1.080360e+04 1.880416e+03 4.716001e+02 6.450685e+02 1.493048e+02 6.378502e+01 1.882517e+01 1.517118e+00
<VARIANCE> 20
 3.310402e+06 1.109746e+03 7.879192e+00 1.000000e-02 1.000000e-02 3.496067e+05 1.576106e+04 3.184095e+03 4.475284e+03 6.263284e+05 1.323605e+02 8.020208e+05 3.418460e+06 1.858046e+06 2.271672e+04 1.366153e+05 1.111386e+04 4.550221e+03 9.462942e+02 2.355844e+01
<GCONST> 2.014525e+02
<STATE> 7
<MEAN> 20
 8.254926e+03 1.701166e+00 0.000000e+00 0.000000e+00 5.565957e-02 9.926013e+02 1.803896e+02 1.119208e+02 1.325503e+02 1.728655e+03 2.244650e+00 1.495905e+03 8.365427e+03 5.118894e+02 3.162963e+02 6.320132e+02 6.553687e+01 1.317158e+01 3.153947e-01 0.000000e+00
<VARIANCE> 20
 8.852169e+06 2.632546e+01 1.000000e-02 1.000000e-02 1.638806e-01 3.601057e+05 2.380063e+04 6.279101e+03 6.227142e+03 4.447567e+05 2.206637e+01 1.460177e+06 6.837846e+06 9.001168e+04 3.530746e+04 1.725497e+05 1.230391e+04 1.681918e+03 1.996933e+00 1.000000e-02
<GCONST> 1.782598e+02
<STATE> 8
<MEAN> 20
 9.995523e+03 4.231955e+01 3.999653e-02 0.000000e+00 0.000000e+00 1.082440e+03 1.585351e+02 1.006167e+02 1.300560e+02 2.166204e+03 1.199907e+01 2.534589e+03 9.311960e+03 5.821046e+02 3.927326e+02 6.201170e+02 1.608529e+02 4.746049e+01 1.317991e+01 7.399971e-01
<VARIANCE> 20
 4.371381e+06 3.413695e+03 7.839337e-02 1.000000e-02 1.000000e-02 1.525751e+05 1.130912e+04 2.423390e+03 3.158897e+03 5.724251e+05 4.711559e+02 1.623594e+06 4.750433e+06 7.283893e+04 1.768986e+04 7.556595e+04 1.508433e+04 3.214569e+03 5.021458e+02 5.112345e+00
<GCONST> 1.923906e+02
<STATE> 9
<MEAN> 20
 8.855202e+03 4.276031e+01 2.495432e+00 0.000000e+00 1.053621e+00 1.129909e+03 2.273778e+02 1.579905e+02 1.781632e+02 2.279415e+03 1.730680e+01 2.852454e+03 7.735655e+03 7.847109e+02 5.528544e+02 6.242544e+02 2.083452e+02 5.192375e+01 4.436581e+01 2.495717e+00
<VARIANCE> 20
 9.895459e+06 3.685092e+03 5.660170e+01 1.000000e-02 1.890870e+01 3.542910e+05 2.754957e+04 8.165135e+03 6.592370e+03 6.462748e+05 7.866873e+02 2.769734e+06 8.913880e+06 1.467882e+05 8.542571e+04 7.510256e+04 5.483625e+04 4.398145e+03 1.039499e+04 4.396369e+01
<GCONST> 2.219470e+02
<STATE> 10
<MEAN> 20
 4.297591e+03 1.719285e+01 1.117938e+01 3.932074e+00 6.368412e+01 2.289948e+02 3.823820e+02 1.049722e+02 8.734015e+01 9.171481e+02 5.526457e+02 8.350852e+02 3.106463e+03 9.475519e+02 5.217274e+02 1.166044e+02 2.803825e+01 5.221253e+00 3.083979e-01 7.709948e-01
<VARIANCE> 20
 9.975759e+06 1.185227e+03 1.226806e+03 1.628699e+02 2.025704e+04 6.643500e+04 2.106772e+05 1.074955e+04 7.414055e+03 9.835661e+05 7.301347e+05 6.658373e+05 1.217028e+07 6.310441e+05 2.309119e+05 1.959890e+04 2.265349e+03 1.670748e+02 5.216866e-01 3.414740e+00
<GCONST> 2.296608e+02
<STATE> 11
<MEAN> 20
 4.718867e+03 1.159343e+02 2.201520e+01 0.000000e+00 7.956946e-01 3.967512e+02 3.709405e+02 1.319546e+02 1.016039e+02 9.373736e+02 2.406293e+02 7.246290e+02 2.607888e+03 1.209500e+03 8.888662e+02 4.131403e+02 3.628705e+02 2.594629e+02 8.043110e+01 8.819057e+00
<VARIANCE> 20
 6.217932e+06 8.147324e+04 3.273789e+03 1.000000e-02 4.273603e+00 5.058085e+05 2.214304e+05 2.152984e+04 1.320050e+04 1.673434e+06 2.040476e+05 9.556556e+05 1.362379e+07 1.299507e+06 3.354788e+05 7.105783e+04 2.359342e+05 1.710411e+05 2.300132e+04 2.613900e+02
<GCONST> 2.483128e+02
<STATE> 12
<MEAN> 20
 4.340705e+03 1.282928e+02 1.017331e+02 4.741643e+00 2.140768e+01 5.283558e+02 1.688179e+02 7.981452e+01 7.699291e+01 8.292564e+02 1.597000e+02 6.378423e+02 2.372304e+03 1.024168e+03 1.590195e+03 3.953666e+02 6.972102e+01 2.629393e+01 4.526532e+00 0.000000e+00
<VARIANCE> 20
 5.998914e+06 2.527803e+04 2.803794e+04 8.484950e+01 3.807254e+03 7.418566e+05 4.483898e+04 8.350202e+03 9.597904e+03 1.474037e+06 1.222386e+05 8.077089e+05 1.303696e+07 7.299625e+05 1.074029e+06 1.819127e+05 1.384187e+04 2.490268e+03 2.557734e+02 1.000000e-02
<GCONST> 2.415525e+02
<STATE> 13
<MEAN> 20
 3.664298e+03 1.497080e+01 6.060418e-02 0.000000e+00 0.000000e+00 1.318171e+02 5.051368e+01 3.627179e+01 3.181746e+01 3.014880e+02 4.424107e+00 2.325506e+02 1.069020e+03 5.946104e+02 2.093631e+03 2.147276e+02 1.048560e+01 4.909398e+00 2.757780e+00 4.121569e+00
<VARIANCE> 20
 3.302836e+06 1.358370e+03 1.175355e-01 1.000000e-02 1.000000e-02 2.097026e+05 3.327973e+04 8.776610e+03 7.094640e+03 6.933899e+05 1.273305e+02 4.678498e+05 6.023778e+06 5.641630e+05 1.721590e+06 6.912970e+04 5.519926e+02 1.968230e+02 7.061339e+01 4.019592e+02
<GCONST> 1.958019e+02
<TRANSP> 14
 0.000000e+00 1.000000e+00 0.000000e+00 0.000000e+00 0.000000e+00 0.000000e+00 0.000000e+00 0.000000e+00 0.000000e+00 0.000000e+00 0.000000e+00 0.000000e+00 0.000000e+00 0.000000e+00
 0.000000e+00 8.367355e-01 1.632644e-01 0.000000e+00 0.000000e+00 0.000000e+00 0.000000e+00 0.000000e+00 0.000000e+00 0.000000e+00 0.000000e+00 0.000000e+00 0.000000e+00 0.000000e+00
 0.000000e+00 0.000000e+00 8.431251e-01 1.568749e-01 0.000000e+00 0.000000e+00 0.000000e+00 0.000000e+00 0.000000e+00 0.000000e+00 0.000000e+00 0.000000e+00 0.000000e+00 0.000000e+00
 0.000000e+00 0.000000e+00 0.000000e+00 7.694707e-01 2.305293e-01 0.000000e+00 0.000000e+00 0.000000e+00 0.000000e+00 0.000000e+00 0.000000e+00 0.000000e+00 0.000000e+00 0.000000e+00
 0.000000e+00 0.000000e+00 0.000000e+00 0.000000e+00 8.019484e-01 1.980516e-01 0.000000e+00 0.000000e+00 0.000000e+00 0.000000e+00 0.000000e+00 0.000000e+00 0.000000e+00 0.000000e+00
 0.000000e+00 0.000000e+00 0.000000e+00 0.000000e+00 0.000000e+00 7.241922e-01 2.758078e-01 0.000000e+00 0.000000e+00 0.000000e+00 0.000000e+00 0.000000e+00 0.000000e+00 0.000000e+00
 0.000000e+00 0.000000e+00 0.000000e+00 0.000000e+00 0.000000e+00 0.000000e+00 8.515736e-01 1.484264e-01 0.000000e+00 0.000000e+00 0.000000e+00 0.000000e+00 0.000000e+00 0.000000e+00
 0.000000e+00 0.000000e+00 0.000000e+00 0.000000e+00 0.000000e+00 0.000000e+00 0.000000e+00 8.400045e-01 1.599955e-01 0.000000e+00 0.000000e+00 0.000000e+00 0.000000e+00 0.000000e+00
 0.000000e+00 0.000000e+00 0.000000e+00 0.000000e+00 0.000000e+00 0.000000e+00 0.000000e+00 0.000000e+00 5.563463e-01 4.436537e-01 0.000000e+00 0.000000e+00 0.000000e+00 0.000000e+00
 0.000000e+00 0.000000e+00 0.000000e+00 0.000000e+00 0.000000e+00 0.000000e+00 0.000000e+00 0.000000e+00 0.000000e+00 3.832006e-01 6.167994e-01 0.000000e+00 0.000000e+00 0.000000e+00
 0.000000e+00 0.000000e+00 0.000000e+00 0.000000e+00 0.000000e+00 0.000000e+00 0.000000e+00 0.000000e+00 0.000000e+00 0.000000e+00 4.695126e-01 5.304874e-01 0.000000e+00 0.000000e+00
 0.000000e+00 0.000000e+00 0.000000e+00 0.000000e+00 0.000000e+00 0.000000e+00 0.000000e+00 0.000000e+00 0.000000e+00 0.000000e+00 0.000000e+00 4.252700e-01 5.747300e-01 0.000000e+00
 0.000000e+00 0.000000e+00 0.000000e+00 0.000000e+00 0.000000e+00 0.000000e+00 0.000000e+00 0.000000e+00 0.000000e+00 0.000000e+00 0.000000e+00 0.000000e+00 7.575735e-01 2.424265e-01
 0.000000e+00 0.000000e+00 0.000000e+00 0.000000e+00 0.000000e+00 0.000000e+00 0.000000e+00 0.000000e+00 0.000000e+00 0.000000e+00 0.000000e+00 0.000000e+00 0.000000e+00 0.000000e+00
<ENDHMM>
