~o
<STREAMINFO> 1 20
<VECSIZE> 20<NULLD><USER><DIAGC>
~h "f"
<BEGINHMM>
<NUMSTATES> 14
<STATE> 2
<MEAN> 20
 6.599160e+03 4.368462e+02 1.098929e+03 0.000000e+00 0.000000e+00 0.000000e+00 0.000000e+00 0.000000e+00 7.692284e-02 1.688458e+02 2.361524e+01 3.876921e+02 4.129478e+03 2.466927e+03 1.194147e+03 8.184597e+01 1.153847e+01 4.999992e+00 3.538439e+00 7.692402e-02
<VARIANCE> 20
 8.893501e+06 1.136750e+05 9.317583e+05 1.000000e-02 1.000000e-02 1.000000e-02 1.000000e-02 1.000000e-02 7.100572e-02 7.217503e+04 2.313302e+03 1.500419e+05 1.227287e+07 2.345103e+06 2.708122e+06 1.000608e+04 2.782475e+02 1.450761e+02 1.433246e+02 7.100671e-02
<GCONST> 1.512648e+02
<STATE> 3
<MEAN> 20
 6.504219e+03 3.603606e+02 1.479620e+03 1.212195e-01 0.000000e+00 0.000000e+00 0.000000e+00 0.000000e+00 0.000000e+00 1.663332e+02 3.516923e-21 4.562459e+02 4.732308e+03 3.001448e+03 3.047732e+02 1.469602e+01 1.120860e+00 6.055399e-02 0.000000e+00 0.000000e+00
<VARIANCE> 20
 3.829840e+06 2.767163e+04 3.868662e+05 2.277449e-01 1.000000e-02 1.000000e-02 1.000000e-02 1.000000e-02 1.000000e-02 3.944521e+04 1.000000e-02 1.857070e+05 1.794840e+06 1.101518e+06 1.267254e+05 3.537945e+02 1.119270e+01 1.174411e-01 1.000000e-02 1.000000e-02
<GCONST> 1.056081e+02
<STATE> 4
<MEAN> 20
 9.337017e+03 3.307393e+02 8.909653e+02 1.428187e-01 0.000000e+00 0.000000e+00 0.000000e+00 0.000000e+00 0.000000e+00 1.202986e+02 2.727847e+01 2.858923e+02 5.886508e+03 3.969178e+03 4.447402e+02 4.613921e+01 1.114191e+01 7.569731e+00 7.140962e-01 0.000000e+00
<VARIANCE> 20
 5.304719e+06 1.697262e+05 7.792883e+05 1.224215e-01 1.000000e-02 1.000000e-02 1.000000e-02 1.000000e-02 1.000000e-02 2.947828e+04 4.411801e+03 8.068819e+04 2.535554e+06 5.525399e+05 1.485139e+04 5.168809e+02 6.412406e+01 8.823404e+01 1.917987e+00 1.000000e-02
<GCONST> 1.312142e+02
<STATE> 5
<MEAN> 20
 6.604362e+03 3.396924e+02 1.578375e+03 0.000000e+00 0.000000e+00 0.000000e+00 0.000000e+00 0.000000e+00 0.000000e+00 1.315541e+02 0.000000e+00 1.934627e+02 4.471814e+03 3.636414e+03 3.234387e+02 2.735594e+01 1.498749e+00 5.658988e-09 0.000000e+00 0.000000e+00
<VARIANCE> 20
 8.739986e+05 1.284330e+04 1.884627e+05 1.000000e-02 1.000000e-02 1.000000e-02 1.000000e-02 1.000000e-02 1.000000e-02 1.381157e+04 1.000000e-02 1.356627e+04 9.718861e+05 2.649084e+05 3.054543e+04 8.574097e+02 6.619233e+00 1.000000e-02 1.000000e-02 1.000000e-02
<GCONST> 9.028750e+01
<STATE> 6
<MEAN> 20
 9.175864e+03 1.453391e+02 5.557099e+02 1.090843e-15 0.000000e+00 0.000000e+00 0.000000e+00 0.000000e+00 0.000000e+00 1.853609e+02 0.000000e+00 2.673968e+02 6.046551e+03 3.385083e+03 3.125378e+02 4.056788e+01 9.486692e+00 6.277004e-01 2.324819e-02 0.000000e+00
<VARIANCE> 20
 1.690335e+06 2.810588e+04 5.776816e+05 1.000000e-02 1.000000e-02 1.000000e-02 1.000000e-02 1.000000e-02 1.000000e-02 3.739755e+04 1.000000e-02 1.496461e+05 1.754228e+06 1.334478e+06 6.463716e+04 1.878438e+03 2.803107e+02 1.582088e+00 2.270770e-02 1.000000e-02
<GCONST> 1.096184e+02
<STATE> 7
<MEAN> 20
 7.754648e+03 3.505860e+02 1.682249e+03 1.349981e+01 0.000000e+00 0.000000e+00 0.000000e+00 0.000000e+00 0.000000e+00 1.750010e+02 0.000000e+00 6.166766e+02 6.758502e+03 2.383308e+03 1.442482e+02 4.941601e+01 1.449969e+01 5.916526e+00 2.083280e+00 1.333299e+00
<VARIANCE> 20
 1.148195e+06 1.607961e+04 3.008444e+05 4.230805e+02 1.000000e-02 1.000000e-02 1.000000e-02 1.000000e-02 1.000000e-02 5.686849e+04 1.000000e-02 8.830243e+04 1.170504e+06 6.545880e+05 6.457024e+03 2.374903e+03 2.477476e+02 7.990844e+01 3.007570e+01 9.722009e+00
<GCONST> 1.332462e+02
<STATE> 8
<MEAN> 20
 8.937486e+03 2.695015e+02 1.343256e+03 1.050005e+01 0.000000e+00 0.000000e+00 0.000000e+00 0.000000e+00 0.000000e+00 2.307490e+02 0.000000e+00 9.002511e+02 7.296253e+03 2.366489e+03 1.724993e+02 3.749994e+01 1.524999e+01 1.750003e+00 1.500009e+00 2.831387e-29
<VARIANCE> 20
 2.914035e+06 3.312820e+04 6.654558e+05 1.822509e+02 1.000000e-02 1.000000e-02 1.000000e-02 1.000000e-02 1.000000e-02 7.110088e+04 1.000000e-02 3.640544e+05 1.855160e+06 3.065876e+06 1.306016e+04 5.522515e+02 1.176880e+02 2.187516e+00 4.250025e+00 1.000000e-02
<GCONST> 1.245634e+02
<STATE> 9
<MEAN> 20
 8.026864e+03 3.680959e+02 1.690665e+03 3.637089e+00 0.000000e+00 0.000000e+00 0.000000e+00 0.000000e+00 0.000000e+00 3.659917e+02 0.000000e+00 1.121270e+03 7.960467e+03 1.237700e+03 1.017233e+02 2.681991e+01 6.819480e+00 4.546294e-01 1.401298e-45 0.000000e+00
<VARIANCE> 20
 1.058892e+06 1.772426e+04 3.319289e+05 3.550863e+01 1.000000e-02 1.000000e-02 1.000000e-02 1.000000e-02 1.000000e-02 7.930752e+04 1.000000e-02 2.323816e+05 2.355421e+06 1.511006e+06 4.616452e+03 5.824136e+02 8.815645e+01 6.116449e-01 1.000000e-02 1.000000e-02
<GCONST> 1.111839e+02
<STATE> 10
<MEAN> 20
 9.367449e+03 3.700901e+02 1.606603e+03 5.395626e+01 0.000000e+00 0.000000e+00 0.000000e+00 0.000000e+00 0.000000e+00 6.627139e+02 5.491750e+00 2.332917e+03 8.770133e+03 8.427296e+02 9.057932e+01 1.580530e+01 2.967999e+00 1.893703e-01 0.000000e+00 0.000000e+00
<VARIANCE> 20
 7.498179e+05 1.284701e+04 2.293677e+05 2.152611e+03 1.000000e-02 1.000000e-02 1.000000e-02 1.000000e-02 1.000000e-02 4.950477e+04 2.356531e+02 6.191329e+05 1.663178e+06 1.330600e+06 6.883896e+03 4.768195e+02 4.201034e+01 2.797553e-01 1.000000e-02 1.000000e-02
<GCONST> 1.230291e+02
<STATE> 11
<MEAN> 20
 8.256464e+03 3.440880e+02 1.597641e+03 1.044583e+02 0.000000e+00 0.000000e+00 0.000000e+00 0.000000e+00 0.000000e+00 8.668713e+02 2.088927e-01 3.095921e+03 7.317825e+03 6.098419e+02 1.057988e+02 3.481771e+01 4.482849e+00 5.216194e-01 1.044468e-01 0.000000e+00
<VARIANCE> 20
 9.433637e+05 9.011124e+03 2.506815e+05 1.991322e+04 1.000000e-02 1.000000e-02 1.000000e-02 1.000000e-02 1.000000e-02 2.018176e+05 2.697033e-01 1.446542e+06 1.043648e+06 5.847508e+05 8.121235e+02 7.825695e+02 5.240199e+01 1.189554e+00 1.979846e-01 1.000000e-02
<GCONST> 1.224228e+02
<STATE> 12
<MEAN> 20
 8.668000e+03 3.005421e+02 8.617429e+02 3.112050e+02 0.000000e+00 0.000000e+00 0.000000e+00 0.000000e+00 0.000000e+00 6.661640e+02 2.725096e-01 3.015302e+03 6.449764e+03 1.222848e+03 8.448772e+01 2.261299e+01 8.914777e+00 2.817002e+00 5.450196e-01 9.083653e-02
<VARIANCE> 20
 2.000737e+06 1.870272e+04 2.660931e+05 8.057562e+04 1.000000e-02 1.000000e-02 1.000000e-02 1.000000e-02 1.000000e-02 1.688769e+05 7.432673e-01 3.224840e+06 1.206582e+06 2.843515e+06 3.889042e+03 6.936124e+02 1.980950e+02 1.904403e+01 9.746631e-01 8.258525e-02
<GCONST> 1.379799e+02
<STATE> 13
<MEAN> 20
 8.545010e+03 2.919560e+02 1.021848e+03 5.442668e+00 0.000000e+00 0.000000e+00 0.000000e+00 0.000000e+00 0.000000e+00 4.788715e+02 2.221477e+00 1.974076e+03 7.062378e+03 1.166687e+03 8.944827e+01 2.465858e+01 1.543939e+01 6.553416e+00 1.332900e+00 3.332250e-01
<VARIANCE> 20
 9.029766e+05 4.697156e+04 6.600333e+05 1.082214e+02 1.000000e-02 1.000000e-02 1.000000e-02 1.000000e-02 1.000000e-02 8.430505e+04 3.949459e+01 9.794508e+05 8.810271e+05 1.312380e+06 8.535445e+03 7.890493e+02 3.195536e+02 5.513194e+01 5.554337e+00 4.443372e-01
<GCONST> 1.392788e+02
<TRANSP> 14
 0.000000e+00 1.000000e+00 0.000000e+00 0.000000e+00 0.000000e+00 0.000000e+00 0.000000e+00 0.000000e+00 0.000000e+00 0.000000e+00 0.000000e+00 0.000000e+00 0.000000e+00 0.000000e+00
 0.000000e+00 6.923066e-01 3.076935e-01 0.000000e+00 0.000000e+00 0.000000e+00 0.000000e+00 0.000000e+00 0.000000e+00 0.000000e+00 0.000000e+00 0.000000e+00 0.000000e+00 0.000000e+00
 0.000000e+00 0.000000e+00 8.787816e-01 1.212184e-01 0.000000e+00 0.000000e+00 0.000000e+00 0.000000e+00 0.000000e+00 0.000000e+00 0.000000e+00 0.000000e+00 0.000000e+00 0.000000e+00
 0.000000e+00 0.000000e+00 0.000000e+00 4.287193e-01 5.712807e-01 0.000000e+00 0.000000e+00 0.000000e+00 0.000000e+00 0.000000e+00 0.000000e+00 0.000000e+00 0.000000e+00 0.000000e+00
 0.000000e+00 0.000000e+00 0.000000e+00 0.000000e+00 8.749452e-01 1.250548e-01 0.000000e+00 0.000000e+00 0.000000e+00 0.000000e+00 0.000000e+00 0.000000e+00 0.000000e+00 0.000000e+00
 0.000000e+00 0.000000e+00 0.000000e+00 0.000000e+00 0.000000e+00 9.070063e-01 9.299371e-02 0.000000e+00 0.000000e+00 0.000000e+00 0.000000e+00 0.000000e+00 0.000000e+00 0.000000e+00
 0.000000e+00 0.000000e+00 0.000000e+00 0.000000e+00 0.000000e+00 0.000000e+00 6.666734e-01 3.333267e-01 0.000000e+00 0.000000e+00 0.000000e+00 0.000000e+00 0.000000e+00 0.000000e+00
 0.000000e+00 0.000000e+00 0.000000e+00 0.000000e+00 0.000000e+00 0.000000e+00 0.000000e+00 0.000000e+00 1.000000e+00 0.000000e+00 0.000000e+00 0.000000e+00 0.000000e+00 0.000000e+00
 0.000000e+00 0.000000e+00 0.000000e+00 0.000000e+00 0.000000e+00 0.000000e+00 0.000000e+00 0.000000e+00 6.362935e-01 3.637065e-01 0.000000e+00 0.000000e+00 0.000000e+00 0.000000e+00
 0.000000e+00 0.000000e+00 0.000000e+00 0.000000e+00 0.000000e+00 0.000000e+00 0.000000e+00 0.000000e+00 0.000000e+00 7.475051e-01 2.524949e-01 0.000000e+00 0.000000e+00 0.000000e+00
 0.000000e+00 0.000000e+00 0.000000e+00 0.000000e+00 0.000000e+00 0.000000e+00 0.000000e+00 0.000000e+00 0.000000e+00 0.000000e+00 7.911083e-01 2.088918e-01 0.000000e+00 0.000000e+00
 0.000000e+00 0.000000e+00 0.000000e+00 0.000000e+00 0.000000e+00 0.000000e+00 0.000000e+00 0.000000e+00 0.000000e+00 0.000000e+00 0.000000e+00 6.366514e-01 3.633486e-01 0.000000e+00
 0.000000e+00 0.000000e+00 0.000000e+00 0.000000e+00 0.000000e+00 0.000000e+00 0.000000e+00 0.000000e+00 0.000000e+00 0.000000e+00 0.000000e+00 0.000000e+00 5.557016e-01 4.442984e-01
 0.000000e+00 0.000000e+00 0.000000e+00 0.000000e+00 0.000000e+00 0.000000e+00 0.000000e+00 0.000000e+00 0.000000e+00 0.000000e+00 0.000000e+00 0.000000e+00 0.000000e+00 0.000000e+00
<ENDHMM>
