~o
<STREAMINFO> 1 20
<VECSIZE> 20<NULLD><USER><DIAGC>
~h "g"
<BEGINHMM>
<NUMSTATES> 14
<STATE> 2
<MEAN> 20
 8.084904e+03 7.296074e+01 1.267284e+02 0.000000e+00 1.111178e-01 9.625249e+02 1.572889e+02 9.769955e+01 1.154399e+02 1.828278e+03 4.592716e+00 2.035523e+03 7.666205e+03 5.671092e+02 3.683713e+02 5.797624e+02 1.437801e+02 5.585191e+01 2.185071e+01 2.888742e+00
<VARIANCE> 20
 8.708330e+06 2.156631e+04 2.063359e+05 1.000000e-02 1.728491e-01 6.539389e+05 4.126000e+04 1.094554e+04 1.072130e+04 1.052497e+06 1.566943e+02 9.294140e+05 4.438248e+06 4.281871e+04 4.447298e+04 1.917158e+05 1.191517e+04 3.271727e+03 1.506445e+03 4.202075e+01
<GCONST> 2.212266e+02
<STATE> 3
<MEAN> 20
 6.865750e+03 1.692307e+02 5.645585e+02 2.082974e-02 0.000000e+00 1.058402e+01 2.145975e+00 1.541767e+00 3.271053e+00 3.005621e+02 1.770851e+00 1.062377e+03 4.938975e+03 1.302520e+03 5.309971e+02 4.939847e+01 2.295975e+01 8.542300e+00 1.041739e-01 2.083504e-02
<VARIANCE> 20
 7.486503e+06 5.105818e+04 7.887691e+05 2.039585e-02 1.000000e-02 4.547293e+03 1.548430e+02 6.508585e+01 2.070858e+02 1.112985e+05 4.459422e+01 8.260026e+05 1.113318e+07 1.733094e+06 7.409762e+05 8.133389e+03 2.335041e+03 5.404529e+02 1.349918e-01 2.040093e-02
<GCONST> 1.817867e+02
<STATE> 4
<MEAN> 20
 5.070218e+03 2.204163e+02 3.957582e+02 7.577951e+01 3.899652e+01 9.406323e+01 1.024190e+02 5.720998e+01 2.921202e+01 2.597742e+02 2.356328e+02 6.209694e+02 2.102562e+03 1.730923e+03 1.050091e+03 3.765145e+02 9.435897e+01 7.693438e+01 5.336189e+01 2.500121e+00
<VARIANCE> 20
 2.990832e+06 2.647621e+04 3.886737e+05 3.868829e+04 1.099550e+04 4.774988e+04 3.086666e+04 8.618688e+03 2.716661e+03 9.949995e+04 9.208629e+04 6.098361e+05 5.726079e+06 1.685393e+06 1.110124e+06 2.386900e+05 1.417819e+04 1.810790e+04 1.070517e+04 2.696594e+01
<GCONST> 2.570686e+02
<STATE> 5
<MEAN> 20
 4.658752e+03 2.769991e+02 5.165876e+02 6.015654e+00 2.589049e+00 5.253963e+00 2.467208e+01 2.299591e+01 2.756448e+01 3.080396e+02 7.081752e+01 7.151278e+02 2.296663e+03 1.163616e+03 1.302031e+03 2.762895e+02 2.150976e+01 1.647550e+00 9.265320e-01 8.401867e-01
<VARIANCE> 20
 9.939714e+06 8.648402e+04 4.996652e+05 3.827044e+02 8.132448e+01 1.738021e+02 5.033132e+03 1.579706e+03 2.567048e+03 1.967996e+05 2.339105e+04 1.100909e+06 9.085569e+06 1.360387e+06 3.778704e+06 1.409266e+05 1.262968e+03 1.473121e+01 5.754122e+00 4.855480e+00
<GCONST> 2.230712e+02
<STATE> 6
<MEAN> 20
 3.827853e+03 8.250177e+01 1.534256e+02 4.796824e+01 4.212983e+01 1.840212e+02 2.269962e+01 6.845333e+00 5.083758e+00 2.924422e+01 1.887486e+01 6.201069e+01 2.015827e+02 8.678944e+02 2.533698e+03 5.922406e+02 1.053795e+02 1.718256e+01 2.055147e+00 8.539781e-01
<VARIANCE> 20
 3.837806e+06 1.124655e+04 1.067091e+05 5.329262e+03 4.395034e+03 7.326271e+04 2.540941e+03 1.518486e+02 5.433512e+01 3.522115e+03 9.782396e+02 8.241615e+03 1.022399e+05 1.389746e+06 2.460756e+06 3.300795e+05 3.955983e+04 2.059112e+03 1.762823e+01 5.258874e+00
<GCONST> 2.177703e+02
<STATE> 7
<MEAN> 20
 3.692521e+03 1.324072e+02 5.477737e+01 5.592929e+00 5.667224e+00 5.592691e+00 4.070607e+01 1.700035e+01 3.252098e+01 3.611103e+01 1.249387e+02 3.651777e+01 2.663701e+02 1.516031e+03 1.488560e+03 5.495507e+02 3.978099e+01 1.148233e+00 0.000000e+00 0.000000e+00
<VARIANCE> 20
 5.062374e+06 4.392029e+04 9.612223e+03 3.095999e+02 2.323934e+02 1.366203e+02 1.418354e+04 1.090557e+03 1.905096e+04 3.839427e+03 1.151155e+05 3.057411e+03 4.942759e+05 4.032477e+06 1.833790e+06 5.127751e+05 1.112424e+04 1.923913e+01 1.000000e-02 1.000000e-02
<GCONST> 2.014517e+02
<STATE> 8
<MEAN> 20
 3.780510e+03 7.039474e+01 2.699866e+00 1.500152e-01 5.500557e-01 0.000000e+00 1.500152e-01 5.000507e-02 1.299896e+00 2.504988e+01 1.794819e+01 3.799662e+01 2.753145e+02 7.699063e+02 1.878789e+03 8.545956e+02 4.590390e+01 4.000359e-01 0.000000e+00 0.000000e+00
<VARIANCE> 20
 2.877752e+06 6.539732e+04 7.740431e+01 4.275410e-01 5.748053e+00 1.000000e-02 4.275410e-01 4.750457e-02 1.820790e+01 1.893478e+03 2.382232e+03 2.184075e+04 3.317377e+05 1.025423e+06 3.396556e+06 7.985512e+05 7.501076e+03 9.400758e-01 1.000000e-02 1.000000e-02
<GCONST> 1.425123e+02
<STATE> 9
<MEAN> 20
 7.127488e+03 7.639504e+00 0.000000e+00 0.000000e+00 0.000000e+00 0.000000e+00 0.000000e+00 0.000000e+00 0.000000e+00 7.555737e+01 0.000000e+00 3.900587e+01 3.043613e+03 1.953135e+03 1.850400e+03 3.136330e+02 1.006623e+01 7.623775e-01 6.924339e-02 4.391857e-36
<VARIANCE> 20
 1.738598e+07 6.089569e+02 1.000000e-02 1.000000e-02 1.000000e-02 1.000000e-02 1.000000e-02 1.000000e-02 1.000000e-02 2.117964e+04 1.000000e-02 1.804608e+04 1.480787e+07 5.821120e+06 3.255190e+06 1.403348e+05 3.554888e+02 6.093401e+00 6.444871e-02 1.000000e-02
<GCONST> 1.020294e+02
<STATE> 10
<MEAN> 20
 8.498220e+03 1.537068e+00 0.000000e+00 0.000000e+00 0.000000e+00 0.000000e+00 0.000000e+00 0.000000e+00 0.000000e+00 5.444849e+01 7.122989e-01 3.929092e+01 4.706215e+03 3.664230e+03 1.214240e+02 1.247812e+01 6.106413e+00 2.923144e+00 7.498333e-01 7.498663e-02
<VARIANCE> 20
 3.868126e+06 2.406772e+01 1.000000e-02 1.000000e-02 1.000000e-02 1.000000e-02 1.000000e-02 1.000000e-02 1.000000e-02 4.836281e+03 7.178184e+00 2.822292e+04 5.366294e+06 4.692561e+06 2.010994e+04 2.312163e+02 7.343269e+01 2.638920e+01 2.587084e+00 6.936362e-02
<GCONST> 9.563425e+01
<STATE> 11
<MEAN> 20
 9.692427e+03 0.000000e+00 0.000000e+00 0.000000e+00 0.000000e+00 0.000000e+00 0.000000e+00 0.000000e+00 0.000000e+00 1.066698e+02 0.000000e+00 4.091164e+02 7.422497e+03 1.858813e+03 9.938453e+01 8.392444e+00 8.451798e-01 4.761477e-02 0.000000e+00 0.000000e+00
<VARIANCE> 20
 4.973648e+06 1.000000e-02 1.000000e-02 1.000000e-02 1.000000e-02 1.000000e-02 1.000000e-02 1.000000e-02 1.000000e-02 2.356412e+04 1.000000e-02 5.318017e+05 5.584622e+06 2.854612e+06 2.219676e+04 1.843816e+02 5.987496e+00 6.915355e-02 1.000000e-02 1.000000e-02
<GCONST> 6.951476e+01
<STATE> 12
<MEAN> 20
 1.029443e+04 4.000180e+00 0.000000e+00 0.000000e+00 0.000000e+00 0.000000e+00 0.000000e+00 0.000000e+00 0.000000e+00 4.713971e+01 1.428635e+00 2.760274e+02 6.971638e+03 2.870672e+03 1.678131e+02 4.256268e+01 1.356872e+01 1.857003e+00 0.000000e+00 0.000000e+00
<VARIANCE> 20
 1.166967e+06 5.600174e+01 1.000000e-02 1.000000e-02 1.000000e-02 1.000000e-02 1.000000e-02 1.000000e-02 1.000000e-02 3.089783e+03 1.224535e+01 2.465530e+05 5.004778e+06 5.448649e+06 2.115523e+04 2.361142e+03 5.744752e+02 9.264533e+00 1.000000e-02 1.000000e-02
<GCONST> 9.350561e+01
<STATE> 13
<MEAN> 20
 8.795180e+03 0.000000e+00 0.000000e+00 0.000000e+00 0.000000e+00 0.000000e+00 0.000000e+00 0.000000e+00 0.000000e+00 1.254132e+02 2.352894e-01 5.625464e+02 6.046540e+03 2.157327e+03 1.236794e+02 2.544185e+01 4.352830e+00 3.235040e-01 1.470312e-01 0.000000e+00
<VARIANCE> 20
 1.263328e+06 1.000000e-02 1.000000e-02 1.000000e-02 1.000000e-02 1.000000e-02 1.000000e-02 1.000000e-02 1.000000e-02 2.894245e+04 1.826954e+00 8.556506e+05 3.200883e+06 3.494276e+06 8.832446e+03 1.017696e+03 7.827992e+01 9.834764e-01 4.782704e-01 1.000000e-02
<GCONST> 8.355869e+01
<TRANSP> 14
 0.000000e+00 1.000000e+00 0.000000e+00 0.000000e+00 0.000000e+00 0.000000e+00 0.000000e+00 0.000000e+00 0.000000e+00 0.000000e+00 0.000000e+00 0.000000e+00 0.000000e+00 0.000000e+00
 0.000000e+00 7.407425e-01 2.592575e-01 0.000000e+00 0.000000e+00 0.000000e+00 0.000000e+00 0.000000e+00 0.000000e+00 0.000000e+00 0.000000e+00 0.000000e+00 0.000000e+00 0.000000e+00
 0.000000e+00 0.000000e+00 8.541666e-01 1.458334e-01 0.000000e+00 0.000000e+00 0.000000e+00 0.000000e+00 0.000000e+00 0.000000e+00 0.000000e+00 0.000000e+00 0.000000e+00 0.000000e+00
 0.000000e+00 0.000000e+00 0.000000e+00 4.999897e-01 5.000103e-01 0.000000e+00 0.000000e+00 0.000000e+00 0.000000e+00 0.000000e+00 0.000000e+00 0.000000e+00 0.000000e+00 0.000000e+00
 0.000000e+00 0.000000e+00 0.000000e+00 0.000000e+00 4.669780e-01 5.330220e-01 0.000000e+00 0.000000e+00 0.000000e+00 0.000000e+00 0.000000e+00 0.000000e+00 0.000000e+00 0.000000e+00
 0.000000e+00 0.000000e+00 0.000000e+00 0.000000e+00 0.000000e+00 6.476623e-01 3.523378e-01 0.000000e+00 0.000000e+00 0.000000e+00 0.000000e+00 0.000000e+00 0.000000e+00 0.000000e+00
 0.000000e+00 0.000000e+00 0.000000e+00 0.000000e+00 0.000000e+00 0.000000e+00 7.407312e-01 2.592689e-01 0.000000e+00 0.000000e+00 0.000000e+00 0.000000e+00 0.000000e+00 0.000000e+00
 0.000000e+00 0.000000e+00 0.000000e+00 0.000000e+00 0.000000e+00 0.000000e+00 0.000000e+00 6.499881e-01 3.500119e-01 0.000000e+00 0.000000e+00 0.000000e+00 0.000000e+00 0.000000e+00
 0.000000e+00 0.000000e+00 0.000000e+00 0.000000e+00 0.000000e+00 0.000000e+00 0.000000e+00 0.000000e+00 8.384413e-01 1.615588e-01 0.000000e+00 0.000000e+00 0.000000e+00 0.000000e+00
 0.000000e+00 0.000000e+00 0.000000e+00 0.000000e+00 0.000000e+00 0.000000e+00 0.000000e+00 0.000000e+00 0.000000e+00 7.375657e-01 2.624343e-01 0.000000e+00 0.000000e+00 0.000000e+00
 0.000000e+00 0.000000e+00 0.000000e+00 0.000000e+00 0.000000e+00 0.000000e+00 0.000000e+00 0.000000e+00 0.000000e+00 0.000000e+00 9.166648e-01 8.333528e-02 0.000000e+00 0.000000e+00
 0.000000e+00 0.000000e+00 0.000000e+00 0.000000e+00 0.000000e+00 0.000000e+00 0.000000e+00 0.000000e+00 0.000000e+00 0.000000e+00 0.000000e+00 0.000000e+00 1.000000e+00 0.000000e+00
 0.000000e+00 0.000000e+00 0.000000e+00 0.000000e+00 0.000000e+00 0.000000e+00 0.000000e+00 0.000000e+00 0.000000e+00 0.000000e+00 0.000000e+00 0.000000e+00 7.941309e-01 2.058691e-01
 0.000000e+00 0.000000e+00 0.000000e+00 0.000000e+00 0.000000e+00 0.000000e+00 0.000000e+00 0.000000e+00 0.000000e+00 0.000000e+00 0.000000e+00 0.000000e+00 0.000000e+00 0.000000e+00
<ENDHMM>
