~o
<STREAMINFO> 1 20
<VECSIZE> 20<NULLD><USER><DIAGC>
~h "h"
<BEGINHMM>
<NUMSTATES> 14
<STATE> 2
<MEAN> 20
 4.020384e+03 3.111007e+00 4.444296e-01 0.000000e+00 2.555470e+00 7.999732e+00 9.499682e+01 7.655299e+01 7.777784e+01 1.194589e+03 6.443510e+02 7.542339e+02 1.207417e+03 7.345332e+02 1.794532e+03 2.700112e+02 3.122257e+01 3.733305e+01 4.333374e+00 4.444382e-01
<VARIANCE> 20
 8.026022e+06 2.698707e+01 1.580201e+00 1.000000e-02 1.535773e+01 2.508826e+02 2.358729e+04 8.192613e+03 8.661381e+03 6.532693e+06 2.014074e+06 1.844330e+06 7.218186e+06 6.546262e+05 1.604279e+06 2.115396e+05 1.295514e+03 5.529462e+03 4.622330e+01 9.135572e-01
<GCONST> 2.081036e+02
<STATE> 3
<MEAN> 20
 7.234583e+03 0.000000e+00 0.000000e+00 0.000000e+00 0.000000e+00 0.000000e+00 0.000000e+00 0.000000e+00 0.000000e+00 4.259944e+02 0.000000e+00 8.472745e+02 3.650452e+03 1.915760e+03 1.000158e+03 1.312912e+02 2.778535e+01 8.064180e+01 7.214190e+00 0.000000e+00
<VARIANCE> 20
 8.273984e+06 1.000000e-02 1.000000e-02 1.000000e-02 1.000000e-02 1.000000e-02 1.000000e-02 1.000000e-02 1.000000e-02 2.406393e+05 1.000000e-02 8.523873e+05 1.262871e+07 3.260360e+06 9.043548e+05 3.556630e+04 1.439874e+03 1.238086e+04 2.117376e+02 1.000000e-02
<GCONST> 1.102758e+02
<STATE> 4
<MEAN> 20
 2.722750e+03 8.862321e+01 1.787477e+01 0.000000e+00 5.200044e+01 3.875042e+01 2.337461e+02 1.043758e+02 3.062420e+01 1.121274e+02 3.875172e+02 1.657460e+02 3.869818e+02 1.008831e+03 1.109412e+03 3.325104e+02 9.249493e+00 6.249660e-01 0.000000e+00 0.000000e+00
<VARIANCE> 20
 3.455705e+06 1.530486e+04 7.098464e+02 1.000000e-02 5.507860e+03 4.513735e+03 1.522049e+05 2.830173e+04 3.785821e+03 1.652414e+04 2.531682e+05 4.522662e+04 4.777074e+05 2.358167e+06 1.325926e+06 1.324882e+05 5.456625e+02 2.734247e+00 1.000000e-02 1.000000e-02
<GCONST> 1.954738e+02
<STATE> 5
<MEAN> 20
 3.592236e+03 2.926580e+02 1.916611e+01 1.549955e+01 6.183153e+01 5.466504e+01 1.824946e+02 8.866451e+01 3.099990e+01 1.335006e+02 5.956484e+02 2.193264e+02 2.519928e+02 5.896834e+02 2.399573e+03 3.786592e+02 1.499952e+01 8.666409e+00 6.666469e+00 6.499805e+00
<VARIANCE> 20
 2.850928e+06 1.852671e+05 7.647939e+02 6.205723e+02 8.530668e+03 5.038499e+03 6.323973e+04 1.339466e+04 5.583278e+02 6.257792e+03 4.499576e+05 5.344452e+04 6.599145e+04 2.699993e+05 2.581210e+06 1.330526e+05 2.543332e+02 2.532171e+02 1.515525e+02 1.422471e+02
<GCONST> 2.251410e+02
<STATE> 6
<MEAN> 20
 3.185467e+03 5.155690e+01 0.000000e+00 0.000000e+00 0.000000e+00 0.000000e+00 1.000094e-01 1.500141e-01 5.000470e-02 7.851605e+00 4.500423e-01 8.999332e+00 1.841725e+02 6.652684e+02 2.027830e+03 3.272539e+02 2.280049e+01 6.550437e+00 1.200113e+00 6.500612e-01
<VARIANCE> 20
 1.596586e+06 1.462364e+04 1.000000e-02 1.000000e-02 1.000000e-02 1.000000e-02 1.900169e-01 4.275381e-01 4.750423e-02 7.817925e+02 1.847654e+00 3.325419e+02 1.419490e+05 5.741250e+05 1.317831e+06 9.853628e+04 3.122767e+03 2.944740e+02 1.786155e+01 5.027932e+00
<GCONST> 1.186785e+02
<STATE> 7
<MEAN> 20
 9.359858e+03 1.249643e-01 0.000000e+00 0.000000e+00 0.000000e+00 0.000000e+00 0.000000e+00 0.000000e+00 0.000000e+00 2.107323e+02 0.000000e+00 4.319857e+02 6.217833e+03 2.164853e+03 7.207413e+02 3.164310e+01 3.065332e+00 3.442509e-01 1.874422e-01 6.248457e-02
<VARIANCE> 20
 1.172778e+07 2.343125e-01 1.000000e-02 1.000000e-02 1.000000e-02 1.000000e-02 1.000000e-02 1.000000e-02 1.000000e-02 6.353631e+04 1.000000e-02 3.695818e+05 1.344030e+07 2.498200e+06 2.143864e+06 1.573223e+03 4.564863e+01 6.641388e-01 3.397414e-01 5.858028e-02
<GCONST> 9.120068e+01
<STATE> 8
<MEAN> 20
 1.009134e+04 0.000000e+00 0.000000e+00 0.000000e+00 0.000000e+00 0.000000e+00 0.000000e+00 0.000000e+00 0.000000e+00 3.526602e+02 0.000000e+00 8.248259e+02 8.777407e+03 7.540196e+02 7.346745e+01 1.224912e+01 1.734531e+00 2.952173e-01 3.558271e-15 0.000000e+00
<VARIANCE> 20
 1.651877e+06 1.000000e-02 1.000000e-02 1.000000e-02 1.000000e-02 1.000000e-02 1.000000e-02 1.000000e-02 1.000000e-02 1.101020e+05 1.000000e-02 3.910882e+05 9.283341e+05 2.437611e+05 3.142489e+03 1.603050e+02 1.405722e+01 6.506352e-01 1.000000e-02 1.000000e-02
<GCONST> 6.639220e+01
<STATE> 9
<MEAN> 20
 9.710352e+03 0.000000e+00 0.000000e+00 0.000000e+00 0.000000e+00 0.000000e+00 0.000000e+00 0.000000e+00 0.000000e+00 3.101251e+02 0.000000e+00 5.503299e+02 8.568171e+03 8.512598e+02 4.640193e+01 4.314790e+00 3.542105e-21 1.063056e-38 0.000000e+00 0.000000e+00
<VARIANCE> 20
 4.075488e+06 1.000000e-02 1.000000e-02 1.000000e-02 1.000000e-02 1.000000e-02 1.000000e-02 1.000000e-02 1.000000e-02 5.700081e+04 1.000000e-02 1.393940e+05 2.508015e+06 4.560448e+05 2.707856e+03 5.528534e+01 1.000000e-02 1.000000e-02 1.000000e-02 1.000000e-02
<GCONST> 5.458846e+01
<STATE> 10
<MEAN> 20
 1.002644e+04 0.000000e+00 0.000000e+00 0.000000e+00 0.000000e+00 0.000000e+00 0.000000e+00 0.000000e+00 0.000000e+00 2.537522e+02 0.000000e+00 7.485203e+02 8.530307e+03 8.681907e+02 1.062853e+02 2.547115e+01 1.331262e+00 8.320835e-02 0.000000e+00 0.000000e+00
<VARIANCE> 20
 5.623974e+05 1.000000e-02 1.000000e-02 1.000000e-02 1.000000e-02 1.000000e-02 1.000000e-02 1.000000e-02 1.000000e-02 7.295848e+04 1.000000e-02 1.345515e+05 2.621360e+05 1.915836e+05 5.344352e+03 3.876556e+02 6.548371e+00 7.628474e-02 1.000000e-02 1.000000e-02
<GCONST> 6.083752e+01
<STATE> 11
<MEAN> 20
 1.157442e+04 1.450032e+01 0.000000e+00 0.000000e+00 0.000000e+00 0.000000e+00 0.000000e+00 0.000000e+00 0.000000e+00 4.343300e+02 2.300051e+01 1.476066e+03 1.012193e+04 3.843036e+02 1.376312e+01 4.182825e+00 3.700347e-20 0.000000e+00 0.000000e+00 0.000000e+00
<VARIANCE> 20
 7.316076e+06 6.307592e+02 1.000000e-02 1.000000e-02 1.000000e-02 1.000000e-02 1.000000e-02 1.000000e-02 1.000000e-02 1.067388e+05 1.587023e+03 3.259351e+05 3.594795e+06 6.917709e+04 5.251768e+02 5.330947e+01 1.000000e-02 1.000000e-02 1.000000e-02 1.000000e-02
<GCONST> 7.647464e+01
<STATE> 12
<MEAN> 20
 9.926075e+03 0.000000e+00 0.000000e+00 0.000000e+00 0.000000e+00 0.000000e+00 0.000000e+00 0.000000e+00 0.000000e+00 1.102379e+02 0.000000e+00 1.301898e+03 8.171029e+03 5.068903e+02 4.867525e+01 7.622068e+00 1.974730e-01 0.000000e+00 0.000000e+00 0.000000e+00
<VARIANCE> 20
 2.073288e+06 1.000000e-02 1.000000e-02 1.000000e-02 1.000000e-02 1.000000e-02 1.000000e-02 1.000000e-02 1.000000e-02 1.421562e+04 1.000000e-02 5.550725e+05 6.275638e+05 8.117095e+04 2.461727e+03 1.592347e+02 3.954478e-01 1.000000e-02 1.000000e-02 1.000000e-02
<GCONST> 5.543427e+01
<STATE> 13
<MEAN> 20
 1.057170e+04 0.000000e+00 0.000000e+00 0.000000e+00 0.000000e+00 0.000000e+00 0.000000e+00 0.000000e+00 0.000000e+00 4.360129e+02 0.000000e+00 1.690359e+03 8.973387e+03 3.286364e+02 1.454027e+01 7.944149e-01 9.960886e-25 0.000000e+00 0.000000e+00 0.000000e+00
<VARIANCE> 20
 1.226682e+06 1.000000e-02 1.000000e-02 1.000000e-02 1.000000e-02 1.000000e-02 1.000000e-02 1.000000e-02 1.000000e-02 7.325328e+04 1.000000e-02 7.738046e+05 4.663849e+05 3.165527e+04 2.094353e+02 4.311016e+00 1.000000e-02 1.000000e-02 1.000000e-02 1.000000e-02
<GCONST> 4.589191e+01
<TRANSP> 14
 0.000000e+00 1.000000e+00 0.000000e+00 0.000000e+00 0.000000e+00 0.000000e+00 0.000000e+00 0.000000e+00 0.000000e+00 0.000000e+00 0.000000e+00 0.000000e+00 0.000000e+00 0.000000e+00
 0.000000e+00 5.555457e-01 4.444544e-01 0.000000e+00 0.000000e+00 0.000000e+00 0.000000e+00 0.000000e+00 0.000000e+00 0.000000e+00 0.000000e+00 0.000000e+00 0.000000e+00 0.000000e+00
 0.000000e+00 0.000000e+00 7.142763e-01 2.857237e-01 0.000000e+00 0.000000e+00 0.000000e+00 0.000000e+00 0.000000e+00 0.000000e+00 0.000000e+00 0.000000e+00 0.000000e+00 0.000000e+00
 0.000000e+00 0.000000e+00 0.000000e+00 5.000042e-01 4.999958e-01 0.000000e+00 0.000000e+00 0.000000e+00 0.000000e+00 0.000000e+00 0.000000e+00 0.000000e+00 0.000000e+00 0.000000e+00
 0.000000e+00 0.000000e+00 0.000000e+00 0.000000e+00 3.333220e-01 6.666780e-01 0.000000e+00 0.000000e+00 0.000000e+00 0.000000e+00 0.000000e+00 0.000000e+00 0.000000e+00 0.000000e+00
 0.000000e+00 0.000000e+00 0.000000e+00 0.000000e+00 0.000000e+00 7.999700e-01 2.000300e-01 0.000000e+00 0.000000e+00 0.000000e+00 0.000000e+00 0.000000e+00 0.000000e+00 0.000000e+00
 0.000000e+00 0.000000e+00 0.000000e+00 0.000000e+00 0.000000e+00 0.000000e+00 8.750372e-01 1.249628e-01 0.000000e+00 0.000000e+00 0.000000e+00 0.000000e+00 0.000000e+00 0.000000e+00
 0.000000e+00 0.000000e+00 0.000000e+00 0.000000e+00 0.000000e+00 0.000000e+00 0.000000e+00 8.521384e-01 1.478616e-01 0.000000e+00 0.000000e+00 0.000000e+00 0.000000e+00 0.000000e+00
 0.000000e+00 0.000000e+00 0.000000e+00 0.000000e+00 0.000000e+00 0.000000e+00 0.000000e+00 0.000000e+00 8.568318e-01 1.431682e-01 0.000000e+00 0.000000e+00 0.000000e+00 0.000000e+00
 0.000000e+00 0.000000e+00 0.000000e+00 0.000000e+00 0.000000e+00 0.000000e+00 0.000000e+00 0.000000e+00 0.000000e+00 6.671931e-01 3.328069e-01 0.000000e+00 0.000000e+00 0.000000e+00
 0.000000e+00 0.000000e+00 0.000000e+00 0.000000e+00 0.000000e+00 0.000000e+00 0.000000e+00 0.000000e+00 0.000000e+00 0.000000e+00 0.000000e+00 1.000000e+00 0.000000e+00 0.000000e+00
 0.000000e+00 0.000000e+00 0.000000e+00 0.000000e+00 0.000000e+00 0.000000e+00 0.000000e+00 0.000000e+00 0.000000e+00 0.000000e+00 0.000000e+00 8.420324e-01 1.579676e-01 0.000000e+00
 0.000000e+00 0.000000e+00 0.000000e+00 0.000000e+00 0.000000e+00 0.000000e+00 0.000000e+00 0.000000e+00 0.000000e+00 0.000000e+00 0.000000e+00 0.000000e+00 8.234944e-01 1.765056e-01
 0.000000e+00 0.000000e+00 0.000000e+00 0.000000e+00 0.000000e+00 0.000000e+00 0.000000e+00 0.000000e+00 0.000000e+00 0.000000e+00 0.000000e+00 0.000000e+00 0.000000e+00 0.000000e+00
<ENDHMM>
