~o
<STREAMINFO> 1 20
<VECSIZE> 20<NULLD><USER><DIAGC>
~h "i"
<BEGINHMM>
<NUMSTATES> 14
<STATE> 2
<MEAN> 20
 6.556312e+03 6.589783e+01 1.052516e-01 0.000000e+00 0.000000e+00 1.449841e+02 2.136608e+01 1.773500e+01 2.289223e+01 5.174861e+02 2.894751e+00 5.503788e+02 3.726139e+03 1.759753e+03 9.865092e+02 2.244166e+02 4.879049e+01 2.894817e+01 1.157947e+01 7.368838e+00
<VARIANCE> 20
 7.910810e+06 6.645667e+04 1.994253e-01 1.000000e-02 1.000000e-02 1.140604e+05 2.457382e+03 1.645309e+03 2.980457e+03 7.932806e+05 8.283353e+01 8.818452e+05 1.318128e+07 1.557171e+06 9.394604e+05 8.609034e+04 1.055311e+04 3.938199e+03 6.841683e+02 9.482826e+02
<GCONST> 2.061647e+02
<STATE> 3
<MEAN> 20
 4.373767e+03 5.252921e+01 1.982351e+01 1.764647e+00 2.747034e+01 2.903254e+02 2.102293e+02 6.740831e+01 5.234885e+01 4.228494e+02 3.068211e+02 3.726277e+02 3.138713e+03 6.307081e+02 7.217184e+02 2.050454e+02 7.311668e+01 4.458858e+01 1.970577e+01 5.470551e+00
<VARIANCE> 20
 1.438952e+07 1.429829e+04 1.415336e+03 2.912071e+01 5.059516e+03 4.899994e+05 1.125502e+05 1.294668e+04 1.167683e+04 6.952922e+05 3.315426e+05 2.112009e+05 1.434579e+07 1.227909e+06 6.470744e+05 1.200573e+05 1.099161e+04 1.205833e+04 4.453238e+03 2.195419e+02
<GCONST> 2.520255e+02
<STATE> 4
<MEAN> 20
 7.923605e+03 3.254449e+01 0.000000e+00 0.000000e+00 3.702203e-02 4.812922e-01 1.121835e+01 2.165858e+01 2.228789e+01 6.191556e+02 6.827102e+01 7.892814e+02 5.673234e+03 1.127344e+03 6.050203e+02 1.215840e+02 1.514152e+02 8.676692e+01 7.368037e+00 7.034297e-01
<VARIANCE> 20
 9.956983e+06 3.871192e+03 1.000000e-02 1.000000e-02 3.565141e-02 6.025093e+00 1.614531e+03 3.963219e+03 4.215997e+03 3.388418e+05 4.096479e+04 7.050392e+05 1.318522e+07 1.311502e+06 1.026962e+06 1.071800e+04 2.861927e+04 7.837988e+03 1.907014e+02 1.027861e+01
<GCONST> 1.916347e+02
<STATE> 5
<MEAN> 20
 6.419314e+03 2.273975e+00 0.000000e+00 0.000000e+00 2.907893e+00 9.087019e-01 4.888778e+01 1.662868e+01 7.542007e+00 3.502322e+02 7.642101e+01 6.522452e+02 4.420322e+03 8.219216e+02 7.535748e+02 4.709017e+01 3.815646e+01 3.841939e+01 5.457609e-01 2.646449e-38
<VARIANCE> 20
 1.187999e+07 5.164210e+01 1.000000e-02 1.000000e-02 8.459675e+01 5.353504e+00 1.292022e+04 1.329004e+03 2.597902e+02 1.397146e+05 2.993406e+04 7.930386e+05 1.251138e+07 1.046719e+06 9.787191e+05 6.335543e+03 5.643577e+03 6.901738e+03 2.065702e+00 1.000000e-02
<GCONST> 1.782033e+02
<STATE> 6
<MEAN> 20
 9.541511e+03 1.103408e+02 8.859333e+00 4.763284e-02 0.000000e+00 0.000000e+00 2.857455e-01 3.095658e-01 2.453037e+00 4.272574e+02 8.573798e+00 7.944545e+02 7.949482e+03 9.729165e+02 3.105225e+02 4.416141e+01 6.833167e+00 4.119890e+00 4.303669e-33 0.000000e+00
<VARIANCE> 20
 1.002645e+07 2.802064e+05 2.151771e+03 9.299674e-02 1.000000e-02 1.000000e-02 3.347299e+00 2.833069e+00 1.377139e+02 1.342147e+05 1.331322e+03 6.015266e+05 1.167876e+07 4.581468e+05 4.995571e+05 1.263633e+04 3.097274e+02 5.094396e+02 1.000000e-02 1.000000e-02
<GCONST> 1.556258e+02
<STATE> 7
<MEAN> 20
 8.449006e+03 3.859622e+00 0.000000e+00 0.000000e+00 0.000000e+00 0.000000e+00 0.000000e+00 0.000000e+00 0.000000e+00 5.656646e+02 4.385792e-01 1.108920e+03 6.371280e+03 9.449139e+02 4.280871e+02 7.055831e+01 4.796473e+01 4.582349e+01 4.210414e-01 1.228021e-01
<VARIANCE> 20
 5.391808e+06 2.318343e+02 1.000000e-02 1.000000e-02 1.000000e-02 1.000000e-02 1.000000e-02 1.000000e-02 1.000000e-02 2.859361e+05 1.077212e+01 9.167798e+05 1.084621e+07 9.200718e+05 5.841573e+05 1.640586e+04 5.889854e+03 5.711200e+03 1.436711e+00 3.533259e-01
<GCONST> 1.237049e+02
<STATE> 8
<MEAN> 20
 7.189662e+03 1.429990e+01 6.399912e+00 0.000000e+00 0.000000e+00 0.000000e+00 0.000000e+00 5.999630e+00 1.439911e+01 3.228977e+02 1.049935e+01 1.073215e+03 4.693469e+03 9.664609e+02 7.168147e+02 7.930032e+01 1.049945e+01 3.299512e+00 9.998514e-02 0.000000e+00
<VARIANCE> 20
 8.890409e+06 6.096027e+02 3.206362e+02 1.000000e-02 1.000000e-02 1.000000e-02 1.000000e-02 3.239823e+02 1.866138e+03 9.024981e+04 9.921956e+02 1.059812e+06 1.409794e+07 1.481513e+06 1.132770e+06 4.670532e+04 6.477765e+02 9.799704e+01 8.998811e-02 1.000000e-02
<GCONST> 1.514238e+02
<STATE> 9
<MEAN> 20
 5.248108e+03 2.448449e+02 1.022482e+02 3.200078e+00 5.340008e+01 2.765062e+01 4.185551e+02 7.930199e+01 4.640048e+01 3.483085e+02 7.102557e+02 7.319158e+02 2.661307e+03 1.154442e+03 8.435450e+02 1.909552e+02 1.324000e+02 8.994850e+01 5.559980e+01 1.650033e+00
<VARIANCE> 20
 8.501732e+06 3.266211e+05 3.679912e+04 8.306353e+01 1.277972e+04 5.428630e+03 5.669787e+05 1.789657e+04 5.093117e+03 1.322689e+05 1.539606e+06 1.050371e+06 1.064601e+07 1.020181e+06 7.067711e+05 5.752342e+04 8.824905e+04 6.759466e+04 2.165593e+04 2.082818e+01
<GCONST> 2.598513e+02
<STATE> 10
<MEAN> 20
 4.644206e+03 6.206902e-01 0.000000e+00 0.000000e+00 0.000000e+00 0.000000e+00 0.000000e+00 5.724477e+00 3.379428e+00 1.807667e+02 7.482668e+00 3.059108e+02 1.483116e+03 1.118115e+03 1.627820e+03 1.297645e+02 5.662222e+01 5.724348e+01 4.651938e+01 2.103491e+00
<VARIANCE> 20
 7.119176e+06 8.580271e+00 1.000000e-02 1.000000e-02 1.000000e-02 1.000000e-02 1.000000e-02 3.909131e+02 7.885944e+01 1.122021e+05 6.281099e+02 6.713998e+05 9.129619e+06 1.362721e+06 1.782323e+06 5.842583e+04 1.727119e+04 2.213729e+04 1.511870e+04 5.519681e+01
<GCONST> 1.624009e+02
<STATE> 11
<MEAN> 20
 6.158749e+03 4.363676e+00 0.000000e+00 0.000000e+00 1.045464e+01 5.636416e+00 1.530923e+02 2.045455e+01 1.327264e+01 2.594593e+02 1.820926e+02 7.294957e+02 3.408619e+03 7.012576e+02 1.199105e+03 1.479097e+02 1.540014e+02 8.027347e+01 2.027291e+01 2.454568e+00
<VARIANCE> 20
 1.049523e+07 1.382325e+02 1.000000e-02 1.000000e-02 1.092984e+03 1.436870e+02 2.005090e+05 2.422817e+03 7.478420e+02 1.270760e+05 2.520057e+05 1.209047e+06 1.273960e+07 6.248219e+05 3.421125e+06 7.935727e+04 1.539679e+05 2.238889e+04 1.901848e+03 6.024843e+01
<GCONST> 2.150630e+02
<STATE> 12
<MEAN> 20
 5.360426e+03 2.171433e+01 1.071385e+00 0.000000e+00 0.000000e+00 0.000000e+00 5.142892e+00 1.200008e+01 4.214308e+00 2.345078e+02 1.999957e+00 7.569052e+02 2.966922e+03 4.252697e+02 8.256901e+02 3.884306e+02 1.145009e+02 5.971470e+01 8.778632e+01 1.185723e+01
<VARIANCE> 20
 9.450627e+06 2.971167e+03 1.492290e+01 1.000000e-02 1.000000e-02 1.000000e-02 2.278381e+02 1.221150e+03 1.143119e+02 7.311759e+04 3.099901e+01 1.621646e+06 1.132846e+07 4.178819e+05 1.417918e+06 3.139571e+05 3.107436e+04 1.466285e+04 5.840723e+04 7.044121e+02
<GCONST> 1.893883e+02
<STATE> 13
<MEAN> 20
 8.602798e+03 3.208267e-02 0.000000e+00 0.000000e+00 0.000000e+00 0.000000e+00 0.000000e+00 0.000000e+00 0.000000e+00 2.604691e+02 0.000000e+00 1.062249e+03 7.250274e+03 4.703739e+02 7.412350e+01 6.181874e+00 9.625194e-02 0.000000e+00 0.000000e+00 0.000000e+00
<VARIANCE> 20
 3.918966e+06 1.914674e-01 1.000000e-02 1.000000e-02 1.000000e-02 1.000000e-02 1.000000e-02 1.000000e-02 1.000000e-02 6.601971e+04 1.000000e-02 1.010501e+06 3.004352e+06 1.602864e+05 1.216318e+05 1.232900e+03 2.687936e-01 1.000000e-02 1.000000e-02 1.000000e-02
<GCONST> 6.896499e+01
<TRANSP> 14
 0.000000e+00 1.000000e+00 0.000000e+00 0.000000e+00 0.000000e+00 0.000000e+00 0.000000e+00 0.000000e+00 0.000000e+00 0.000000e+00 0.000000e+00 0.000000e+00 0.000000e+00 0.000000e+00
 0.000000e+00 5.263092e-01 4.736908e-01 0.000000e+00 0.000000e+00 0.000000e+00 0.000000e+00 0.000000e+00 0.000000e+00 0.000000e+00 0.000000e+00 0.000000e+00 0.000000e+00 0.000000e+00
 0.000000e+00 0.000000e+00 4.705793e-01 5.294208e-01 0.000000e+00 0.000000e+00 0.000000e+00 0.000000e+00 0.000000e+00 0.000000e+00 0.000000e+00 0.000000e+00 0.000000e+00 0.000000e+00
 0.000000e+00 0.000000e+00 0.000000e+00 6.667606e-01 3.332395e-01 0.000000e+00 0.000000e+00 0.000000e+00 0.000000e+00 0.000000e+00 0.000000e+00 0.000000e+00 0.000000e+00 0.000000e+00
 0.000000e+00 0.000000e+00 0.000000e+00 0.000000e+00 1.820539e-01 8.179461e-01 0.000000e+00 0.000000e+00 0.000000e+00 0.000000e+00 0.000000e+00 0.000000e+00 0.000000e+00 0.000000e+00
 0.000000e+00 0.000000e+00 0.000000e+00 0.000000e+00 0.000000e+00 7.856644e-01 2.143357e-01 0.000000e+00 0.000000e+00 0.000000e+00 0.000000e+00 0.000000e+00 0.000000e+00 0.000000e+00
 0.000000e+00 0.000000e+00 0.000000e+00 0.000000e+00 0.000000e+00 0.000000e+00 8.421057e-01 1.578943e-01 0.000000e+00 0.000000e+00 0.000000e+00 0.000000e+00 0.000000e+00 0.000000e+00
 0.000000e+00 0.000000e+00 0.000000e+00 0.000000e+00 0.000000e+00 0.000000e+00 0.000000e+00 1.000225e-01 8.999776e-01 0.000000e+00 0.000000e+00 0.000000e+00 0.000000e+00 0.000000e+00
 0.000000e+00 0.000000e+00 0.000000e+00 0.000000e+00 0.000000e+00 0.000000e+00 0.000000e+00 0.000000e+00 5.500084e-01 4.499917e-01 0.000000e+00 0.000000e+00 0.000000e+00 0.000000e+00
 0.000000e+00 0.000000e+00 0.000000e+00 0.000000e+00 0.000000e+00 0.000000e+00 0.000000e+00 0.000000e+00 0.000000e+00 6.896583e-01 3.103417e-01 0.000000e+00 0.000000e+00 0.000000e+00
 0.000000e+00 0.000000e+00 0.000000e+00 0.000000e+00 0.000000e+00 0.000000e+00 0.000000e+00 0.000000e+00 0.000000e+00 0.000000e+00 1.818199e-01 8.181801e-01 0.000000e+00 0.000000e+00
 0.000000e+00 0.000000e+00 0.000000e+00 0.000000e+00 0.000000e+00 0.000000e+00 0.000000e+00 0.000000e+00 0.000000e+00 0.000000e+00 0.000000e+00 3.571457e-01 6.428544e-01 0.000000e+00
 0.000000e+00 0.000000e+00 0.000000e+00 0.000000e+00 0.000000e+00 0.000000e+00 0.000000e+00 0.000000e+00 0.000000e+00 0.000000e+00 0.000000e+00 0.000000e+00 9.518712e-01 4.812881e-02
 0.000000e+00 0.000000e+00 0.000000e+00 0.000000e+00 0.000000e+00 0.000000e+00 0.000000e+00 0.000000e+00 0.000000e+00 0.000000e+00 0.000000e+00 0.000000e+00 0.000000e+00 0.000000e+00
<ENDHMM>
