~o
<STREAMINFO> 1 20
<VECSIZE> 20<NULLD><USER><DIAGC>
~h "j"
<BEGINHMM>
<NUMSTATES> 14
<STATE> 2
<MEAN> 20
 9.227683e+03 4.324370e-01 0.000000e+00 0.000000e+00 0.000000e+00 0.000000e+00 0.000000e+00 0.000000e+00 0.000000e+00 2.354868e+02 2.162384e-01 9.453872e+02 7.254007e+03 9.290598e+02 2.600697e+02 6.656466e+01 8.188818e+00 1.081020e-01 0.000000e+00 0.000000e+00
<VARIANCE> 20
 9.389768e+06 2.191408e+00 1.000000e-02 1.000000e-02 1.000000e-02 1.000000e-02 1.000000e-02 1.000000e-02 1.000000e-02 1.169008e+05 1.683148e+00 1.322110e+06 8.995535e+06 8.242141e+05 4.185400e+05 3.529556e+04 1.787078e+03 4.207212e-01 1.000000e-02 1.000000e-02
<GCONST> 9.810818e+01
<STATE> 3
<MEAN> 20
 1.031243e+04 4.614685e+01 3.999690e-01 0.000000e+00 0.000000e+00 0.000000e+00 0.000000e+00 0.000000e+00 0.000000e+00 3.061924e+02 8.999258e-01 1.421093e+03 8.159096e+03 8.601934e+02 1.310448e+02 6.474551e+01 2.304831e+01 4.599646e+00 4.499651e-01 0.000000e+00
<VARIANCE> 20
 6.776028e+06 3.183040e+04 3.039777e+00 1.000000e-02 1.000000e-02 1.000000e-02 1.000000e-02 1.000000e-02 1.000000e-02 1.736026e+05 1.538880e+01 2.549535e+06 3.494859e+06 5.259129e+05 7.081633e+04 4.480009e+04 7.565798e+03 3.840118e+02 3.847216e+00 1.000000e-02
<GCONST> 1.276267e+02
<STATE> 4
<MEAN> 20
 1.008181e+04 1.597048e+00 0.000000e+00 0.000000e+00 0.000000e+00 0.000000e+00 0.000000e+00 0.000000e+00 0.000000e+00 1.810959e+02 0.000000e+00 1.339925e+03 8.291646e+03 5.672457e+02 5.372280e+01 1.063030e+01 1.298309e+00 3.446821e-02 0.000000e+00 0.000000e+00
<VARIANCE> 20
 2.394434e+06 4.617556e+01 1.000000e-02 1.000000e-02 1.000000e-02 1.000000e-02 1.000000e-02 1.000000e-02 1.000000e-02 5.604006e+04 1.000000e-02 1.373634e+06 2.026959e+06 1.970740e+05 2.974650e+03 2.208386e+02 1.094127e+01 3.328018e-02 1.000000e-02 1.000000e-02
<GCONST> 7.339217e+01
<STATE> 5
<MEAN> 20
 9.786303e+03 0.000000e+00 0.000000e+00 0.000000e+00 0.000000e+00 0.000000e+00 0.000000e+00 0.000000e+00 0.000000e+00 1.482221e+02 9.999087e-02 1.173407e+03 7.971094e+03 7.233711e+02 5.831106e+01 8.141019e+00 9.999594e-02 0.000000e+00 0.000000e+00 0.000000e+00
<VARIANCE> 20
 3.789831e+06 1.000000e-02 1.000000e-02 1.000000e-02 1.000000e-02 1.000000e-02 1.000000e-02 1.000000e-02 1.000000e-02 2.091243e+04 1.899836e-01 7.519940e+05 3.390568e+06 3.538877e+05 2.767652e+03 1.473275e+02 8.999675e-02 1.000000e-02 1.000000e-02 1.000000e-02
<GCONST> 6.138992e+01
<STATE> 6
<MEAN> 20
 9.450619e+03 0.000000e+00 0.000000e+00 0.000000e+00 0.000000e+00 0.000000e+00 0.000000e+00 0.000000e+00 0.000000e+00 2.364843e+02 0.000000e+00 1.231872e+03 7.740377e+03 6.593687e+02 4.781628e+01 7.332926e+00 3.371675e-01 9.052192e-19 0.000000e+00 0.000000e+00
<VARIANCE> 20
 2.189826e+06 1.000000e-02 1.000000e-02 1.000000e-02 1.000000e-02 1.000000e-02 1.000000e-02 1.000000e-02 1.000000e-02 5.738188e+04 1.000000e-02 8.348533e+05 1.471065e+06 2.234889e+05 1.857055e+03 1.808944e+02 2.487703e+00 1.000000e-02 1.000000e-02 1.000000e-02
<GCONST> 6.084195e+01
<STATE> 7
<MEAN> 20
 1.172309e+04 1.977979e+01 0.000000e+00 0.000000e+00 0.000000e+00 0.000000e+00 0.000000e+00 0.000000e+00 4.062227e-01 4.077737e+02 1.712351e+01 1.702148e+03 9.528015e+03 8.631089e+02 3.622923e+01 4.337017e+00 9.377208e-02 0.000000e+00 0.000000e+00 0.000000e+00
<VARIANCE> 20
 4.319367e+06 2.518548e+03 1.000000e-02 1.000000e-02 1.000000e-02 1.000000e-02 1.000000e-02 1.000000e-02 2.116073e+00 1.659142e+05 3.214382e+03 1.267382e+06 3.331650e+06 8.066534e+05 2.088057e+03 1.229590e+02 1.474819e-01 1.000000e-02 1.000000e-02 1.000000e-02
<GCONST> 9.247912e+01
<STATE> 8
<MEAN> 20
 9.877624e+03 0.000000e+00 0.000000e+00 0.000000e+00 0.000000e+00 0.000000e+00 0.000000e+00 0.000000e+00 0.000000e+00 3.135588e+02 1.596295e-02 1.089502e+03 8.240272e+03 7.816917e+02 6.388645e+01 1.388701e+01 1.826286e+00 1.011353e-01 5.452240e-37 0.000000e+00
<VARIANCE> 20
 1.660570e+06 1.000000e-02 1.000000e-02 1.000000e-02 1.000000e-02 1.000000e-02 1.000000e-02 1.000000e-02 1.000000e-02 1.170269e+05 2.635022e-02 9.029932e+05 1.424921e+06 2.040091e+05 1.964037e+03 2.706732e+02 1.600874e+01 3.037584e-01 1.000000e-02 1.000000e-02
<GCONST> 6.793668e+01
<STATE> 9
<MEAN> 20
 1.076616e+04 2.158309e-01 0.000000e+00 0.000000e+00 0.000000e+00 0.000000e+00 0.000000e+00 0.000000e+00 0.000000e+00 2.841613e+02 0.000000e+00 5.205311e+02 7.964373e+03 2.319270e+03 1.886939e+02 4.727480e+01 9.078259e+00 1.197011e+00 1.177102e-01 0.000000e+00
<VARIANCE> 20
 2.560866e+06 1.150296e+00 1.000000e-02 1.000000e-02 1.000000e-02 1.000000e-02 1.000000e-02 1.000000e-02 1.000000e-02 7.892007e+04 1.000000e-02 3.664888e+05 3.414328e+06 2.055896e+06 8.474217e+03 9.747537e+02 7.950258e+01 3.727255e+00 2.215592e-01 1.000000e-02
<GCONST> 8.398588e+01
<STATE> 10
<MEAN> 20
 9.141626e+03 0.000000e+00 0.000000e+00 0.000000e+00 0.000000e+00 0.000000e+00 0.000000e+00 0.000000e+00 0.000000e+00 9.804904e+01 0.000000e+00 3.801215e+02 6.650013e+03 2.093833e+03 9.769245e+01 1.680406e+01 1.211003e+00 4.480893e-31 0.000000e+00 0.000000e+00
<VARIANCE> 20
 3.237879e+06 1.000000e-02 1.000000e-02 1.000000e-02 1.000000e-02 1.000000e-02 1.000000e-02 1.000000e-02 1.000000e-02 3.013679e+04 1.000000e-02 2.015312e+05 3.979334e+06 1.353772e+06 4.077666e+03 3.657520e+02 6.409947e+00 1.000000e-02 1.000000e-02 1.000000e-02
<GCONST> 6.440123e+01
<STATE> 11
<MEAN> 20
 8.876214e+03 1.853691e+00 0.000000e+00 0.000000e+00 0.000000e+00 0.000000e+00 0.000000e+00 0.000000e+00 0.000000e+00 1.725846e+02 0.000000e+00 2.152447e+02 5.692667e+03 2.859819e+03 2.520638e+02 2.828181e+01 2.484248e+00 9.115577e-02 0.000000e+00 0.000000e+00
<VARIANCE> 20
 7.363916e+06 6.917181e+01 1.000000e-02 1.000000e-02 1.000000e-02 1.000000e-02 1.000000e-02 1.000000e-02 1.000000e-02 5.042672e+04 1.000000e-02 1.970190e+05 6.340512e+06 3.241610e+06 1.117153e+05 1.214991e+03 3.237273e+01 8.284643e-02 1.000000e-02 1.000000e-02
<GCONST> 8.414066e+01
<STATE> 12
<MEAN> 20
 7.695677e+03 8.458437e+01 1.268084e+01 4.545103e-01 7.726675e-01 2.686218e+02 1.004193e+02 2.254502e+01 5.681915e+00 2.163109e+02 2.358986e+02 5.120381e+02 4.843894e+03 1.962321e+03 5.099083e+02 2.518658e+02 7.814140e+01 1.368105e+01 0.000000e+00 0.000000e+00
<VARIANCE> 20
 1.145620e+07 5.246328e+04 1.698370e+03 4.338524e+00 7.084209e+00 1.515124e+06 1.842052e+05 3.738396e+03 1.967693e+02 6.566854e+04 2.980191e+05 3.632666e+05 1.095296e+07 2.810837e+06 6.373953e+05 3.232667e+05 7.204596e+04 3.186623e+03 1.000000e-02 1.000000e-02
<GCONST> 2.182567e+02
<STATE> 13
<MEAN> 20
 6.457978e+03 9.276662e+00 3.448736e-01 1.034626e-01 3.103798e-01 1.555338e+02 6.911088e+01 1.845016e+01 1.413936e+01 1.288617e+02 4.124477e+01 4.249588e+02 3.620578e+03 1.547218e+03 7.505714e+02 2.577900e+02 2.025751e+02 7.137922e+00 1.965547e+00 6.895888e-02
<VARIANCE> 20
 1.353269e+07 1.178828e+03 2.709037e+00 2.996832e-01 9.037822e-01 1.574289e+05 2.539070e+04 1.330709e+03 7.410762e+02 2.191540e+04 9.035146e+03 2.792759e+05 1.157537e+07 2.743586e+06 1.043628e+06 1.360278e+05 1.840199e+05 2.768027e+02 2.727513e+01 1.331624e-01
<GCONST> 2.032990e+02
<TRANSP> 14
 0.000000e+00 1.000000e+00 0.000000e+00 0.000000e+00 0.000000e+00 0.000000e+00 0.000000e+00 0.000000e+00 0.000000e+00 0.000000e+00 0.000000e+00 0.000000e+00 0.000000e+00 0.000000e+00
 0.000000e+00 4.594498e-01 5.405502e-01 0.000000e+00 0.000000e+00 0.000000e+00 0.000000e+00 0.000000e+00 0.000000e+00 0.000000e+00 0.000000e+00 0.000000e+00 0.000000e+00 0.000000e+00
 0.000000e+00 0.000000e+00 0.000000e+00 1.000000e+00 0.000000e+00 0.000000e+00 0.000000e+00 0.000000e+00 0.000000e+00 0.000000e+00 0.000000e+00 0.000000e+00 0.000000e+00 0.000000e+00
 0.000000e+00 0.000000e+00 0.000000e+00 7.702002e-01 2.297998e-01 0.000000e+00 0.000000e+00 0.000000e+00 0.000000e+00 0.000000e+00 0.000000e+00 0.000000e+00 0.000000e+00 0.000000e+00
 0.000000e+00 0.000000e+00 0.000000e+00 0.000000e+00 0.000000e+00 1.000000e+00 0.000000e+00 0.000000e+00 0.000000e+00 0.000000e+00 0.000000e+00 0.000000e+00 0.000000e+00 0.000000e+00
 0.000000e+00 0.000000e+00 0.000000e+00 0.000000e+00 0.000000e+00 9.316477e-01 6.835236e-02 0.000000e+00 0.000000e+00 0.000000e+00 0.000000e+00 0.000000e+00 0.000000e+00 0.000000e+00
 0.000000e+00 0.000000e+00 0.000000e+00 0.000000e+00 0.000000e+00 0.000000e+00 3.750117e-01 6.249883e-01 0.000000e+00 0.000000e+00 0.000000e+00 0.000000e+00 0.000000e+00 0.000000e+00
 0.000000e+00 0.000000e+00 0.000000e+00 0.000000e+00 0.000000e+00 0.000000e+00 0.000000e+00 8.935741e-01 1.064260e-01 0.000000e+00 0.000000e+00 0.000000e+00 0.000000e+00 0.000000e+00
 0.000000e+00 0.000000e+00 0.000000e+00 0.000000e+00 0.000000e+00 0.000000e+00 0.000000e+00 0.000000e+00 6.076183e-01 3.923818e-01 0.000000e+00 0.000000e+00 0.000000e+00 0.000000e+00
 0.000000e+00 0.000000e+00 0.000000e+00 0.000000e+00 0.000000e+00 0.000000e+00 0.000000e+00 0.000000e+00 0.000000e+00 8.691679e-01 1.308321e-01 0.000000e+00 0.000000e+00 0.000000e+00
 0.000000e+00 0.000000e+00 0.000000e+00 0.000000e+00 0.000000e+00 0.000000e+00 0.000000e+00 0.000000e+00 0.000000e+00 0.000000e+00 7.389120e-01 2.610880e-01 0.000000e+00 0.000000e+00
 0.000000e+00 0.000000e+00 0.000000e+00 0.000000e+00 0.000000e+00 0.000000e+00 0.000000e+00 0.000000e+00 0.000000e+00 0.000000e+00 0.000000e+00 9.090304e-02 9.090970e-01 0.000000e+00
 0.000000e+00 0.000000e+00 0.000000e+00 0.000000e+00 0.000000e+00 0.000000e+00 0.000000e+00 0.000000e+00 0.000000e+00 0.000000e+00 0.000000e+00 0.000000e+00 3.103533e-01 6.896468e-01
 0.000000e+00 0.000000e+00 0.000000e+00 0.000000e+00 0.000000e+00 0.000000e+00 0.000000e+00 0.000000e+00 0.000000e+00 0.000000e+00 0.000000e+00 0.000000e+00 0.000000e+00 0.000000e+00
<ENDHMM>
