~o
<STREAMINFO> 1 20
<VECSIZE> 20<NULLD><USER><DIAGC>
~h "sil"
<BEGINHMM>
<NUMSTATES> 14
<STATE> 2
<MEAN> 20
 9.140171e+03 6.240519e-02 0.000000e+00 0.000000e+00 0.000000e+00 0.000000e+00 0.000000e+00 0.000000e+00 0.000000e+00 7.559560e+01 0.000000e+00 6.240519e-02 2.006143e+03 5.563455e+03 1.388463e+03 1.749276e+02 5.155104e+01 2.242465e+01 7.803913e+00 9.985303e-01
<VARIANCE> 20
 8.298758e+05 5.851079e-02 1.000000e-02 1.000000e-02 1.000000e-02 1.000000e-02 1.000000e-02 1.000000e-02 1.000000e-02 4.605545e+03 1.000000e-02 5.851079e-02 7.676637e+05 3.316083e+05 3.139502e+05 6.263128e+03 3.722755e+02 3.094875e+01 3.128065e+01 2.872294e+00
<GCONST> 7.781546e+01
<STATE> 3
<MEAN> 20
 8.473867e+03 6.277278e-36 0.000000e+00 0.000000e+00 0.000000e+00 0.000000e+00 0.000000e+00 0.000000e+00 0.000000e+00 1.947497e+01 0.000000e+00 6.277278e-36 3.059394e+03 4.586121e+03 7.048802e+02 9.277721e+01 3.687484e+01 1.212231e+01 1.114778e+00 5.774753e-02
<VARIANCE> 20
 1.372653e+06 1.000000e-02 1.000000e-02 1.000000e-02 1.000000e-02 1.000000e-02 1.000000e-02 1.000000e-02 1.000000e-02 8.695574e+02 1.000000e-02 1.000000e-02 8.235883e+05 4.518468e+05 7.163720e+04 4.932709e+02 1.343920e+02 4.234002e+01 2.400958e+00 5.441277e-02
<GCONST> 6.224023e+01
<STATE> 4
<MEAN> 20
 8.241724e+03 0.000000e+00 0.000000e+00 0.000000e+00 0.000000e+00 0.000000e+00 0.000000e+00 0.000000e+00 0.000000e+00 3.226966e+01 0.000000e+00 0.000000e+00 4.788832e+03 3.170527e+03 2.349875e+02 5.659969e+01 1.916674e+01 3.561727e+00 3.196000e-01 2.401443e-28
<VARIANCE> 20
 1.091878e+06 1.000000e-02 1.000000e-02 1.000000e-02 1.000000e-02 1.000000e-02 1.000000e-02 1.000000e-02 1.000000e-02 2.759483e+03 1.000000e-02 1.000000e-02 7.681549e+05 4.345023e+05 1.218021e+04 3.075435e+02 4.896618e+01 9.521323e+00 5.165380e-01 1.000000e-02
<GCONST> 5.508081e+01
<STATE> 5
<MEAN> 20
 9.144818e+03 0.000000e+00 0.000000e+00 0.000000e+00 0.000000e+00 0.000000e+00 0.000000e+00 0.000000e+00 0.000000e+00 5.402282e+01 0.000000e+00 1.289328e+01 5.753386e+03 3.174937e+03 1.788318e+02 5.715040e+01 1.846519e+01 3.119765e+00 5.793517e-02 0.000000e+00
<VARIANCE> 20
 1.461592e+06 1.000000e-02 1.000000e-02 1.000000e-02 1.000000e-02 1.000000e-02 1.000000e-02 1.000000e-02 1.000000e-02 3.946551e+03 1.000000e-02 3.265040e+02 6.358628e+05 3.317633e+05 1.842995e+03 1.941563e+02 5.406805e+01 8.596982e+00 5.457869e-02 1.000000e-02
<GCONST> 6.106618e+01
<STATE> 6
<MEAN> 20
 9.232344e+03 5.927971e-01 0.000000e+00 0.000000e+00 0.000000e+00 0.000000e+00 0.000000e+00 0.000000e+00 0.000000e+00 6.366831e+01 0.000000e+00 4.114208e+01 5.922873e+03 3.078476e+03 1.913238e+02 5.562178e+01 7.068831e+00 9.880870e-02 0.000000e+00 0.000000e+00
<VARIANCE> 20
 8.877310e+05 3.205374e+00 1.000000e-02 1.000000e-02 1.000000e-02 1.000000e-02 1.000000e-02 1.000000e-02 1.000000e-02 6.104383e+03 1.000000e-02 1.648404e+03 5.141282e+05 5.866281e+05 5.250774e+03 4.169388e+02 2.642186e+01 8.904555e-02 1.000000e-02 1.000000e-02
<GCONST> 6.357843e+01
<STATE> 7
<MEAN> 20
 9.336479e+03 0.000000e+00 0.000000e+00 0.000000e+00 0.000000e+00 0.000000e+00 0.000000e+00 0.000000e+00 0.000000e+00 1.299051e+02 0.000000e+00 5.277573e+01 6.385243e+03 2.831469e+03 1.410973e+02 4.663867e+01 8.903173e+00 2.563144e-01 0.000000e+00 0.000000e+00
<VARIANCE> 20
 6.229731e+05 1.000000e-02 1.000000e-02 1.000000e-02 1.000000e-02 1.000000e-02 1.000000e-02 1.000000e-02 1.000000e-02 1.629204e+04 1.000000e-02 1.552060e+03 4.021801e+05 3.898758e+05 9.534304e+02 1.042203e+02 2.382240e+01 3.188877e-01 1.000000e-02 1.000000e-02
<GCONST> 5.580121e+01
<STATE> 8
<MEAN> 20
 9.881518e+03 0.000000e+00 0.000000e+00 0.000000e+00 0.000000e+00 0.000000e+00 0.000000e+00 0.000000e+00 0.000000e+00 5.941126e+01 0.000000e+00 1.607018e+02 7.024849e+03 2.567268e+03 1.356743e+02 4.136650e+01 1.030931e+01 7.598525e-01 0.000000e+00 0.000000e+00
<VARIANCE> 20
 1.219238e+06 1.000000e-02 1.000000e-02 1.000000e-02 1.000000e-02 1.000000e-02 1.000000e-02 1.000000e-02 1.000000e-02 6.672536e+02 1.000000e-02 1.050272e+04 4.767626e+05 3.671660e+05 3.288003e+02 4.124671e+01 1.778521e+01 1.051622e+00 1.000000e-02 1.000000e-02
<GCONST> 5.420902e+01
<STATE> 9
<MEAN> 20
 8.766353e+03 0.000000e+00 0.000000e+00 0.000000e+00 0.000000e+00 0.000000e+00 0.000000e+00 0.000000e+00 0.000000e+00 9.290309e+01 0.000000e+00 2.129057e+02 6.570449e+03 1.928355e+03 1.111741e+02 3.205959e+01 4.270776e+00 4.190713e-02 0.000000e+00 0.000000e+00
<VARIANCE> 20
 1.440876e+06 1.000000e-02 1.000000e-02 1.000000e-02 1.000000e-02 1.000000e-02 1.000000e-02 1.000000e-02 1.000000e-02 1.240241e+04 1.000000e-02 6.884370e+04 5.399863e+05 2.604845e+05 6.789158e+02 1.011487e+02 1.514822e+01 4.015091e-02 1.000000e-02 1.000000e-02
<GCONST> 5.715612e+01
<STATE> 10
<MEAN> 20
 9.191884e+03 2.489620e-01 0.000000e+00 0.000000e+00 0.000000e+00 0.000000e+00 0.000000e+00 0.000000e+00 0.000000e+00 6.762295e+01 0.000000e+00 1.067699e+02 7.128476e+03 1.871631e+03 1.140955e+02 3.348363e+01 4.427269e+00 8.719645e-01 0.000000e+00 0.000000e+00
<VARIANCE> 20
 1.526629e+06 4.359419e-01 1.000000e-02 1.000000e-02 1.000000e-02 1.000000e-02 1.000000e-02 1.000000e-02 1.000000e-02 6.870904e+03 1.000000e-02 3.523914e+03 8.407061e+05 1.870186e+05 1.481130e+03 1.808858e+02 1.780821e+01 2.601533e+00 1.000000e-02 1.000000e-02
<GCONST> 6.323169e+01
<STATE> 11
<MEAN> 20
 9.191782e+03 0.000000e+00 0.000000e+00 0.000000e+00 0.000000e+00 0.000000e+00 0.000000e+00 0.000000e+00 0.000000e+00 1.547314e+02 0.000000e+00 5.508616e+02 7.345167e+03 1.351679e+03 7.935384e+01 1.814252e+01 1.310507e+00 2.699934e-16 0.000000e+00 0.000000e+00
<VARIANCE> 20
 8.057071e+05 1.000000e-02 1.000000e-02 1.000000e-02 1.000000e-02 1.000000e-02 1.000000e-02 1.000000e-02 1.000000e-02 1.655776e+04 1.000000e-02 8.582283e+04 3.982762e+05 3.527830e+05 1.328467e+03 1.477354e+02 3.769454e+00 1.000000e-02 1.000000e-02 1.000000e-02
<GCONST> 5.535226e+01
<STATE> 12
<MEAN> 20
 9.242624e+03 0.000000e+00 0.000000e+00 0.000000e+00 0.000000e+00 0.000000e+00 0.000000e+00 0.000000e+00 0.000000e+00 1.208711e+02 0.000000e+00 2.710844e+02 6.508638e+03 2.409805e+03 1.405031e+02 3.144316e+01 2.021227e+00 9.508168e-19 0.000000e+00 0.000000e+00
<VARIANCE> 20
 1.047079e+06 1.000000e-02 1.000000e-02 1.000000e-02 1.000000e-02 1.000000e-02 1.000000e-02 1.000000e-02 1.000000e-02 1.057459e+04 1.000000e-02 6.139626e+04 4.377733e+05 1.796591e+05 1.749643e+03 2.782038e+02 1.029305e+01 1.000000e-02 1.000000e-02 1.000000e-02
<GCONST> 5.616357e+01
<STATE> 13
<MEAN> 20
 8.996097e+03 0.000000e+00 0.000000e+00 0.000000e+00 0.000000e+00 0.000000e+00 0.000000e+00 0.000000e+00 0.000000e+00 1.213764e+02 0.000000e+00 2.938050e+02 6.248618e+03 2.430060e+03 1.212360e+02 2.107011e+01 2.252460e+00 4.310077e-01 0.000000e+00 0.000000e+00
<VARIANCE> 20
 2.602791e+06 1.000000e-02 1.000000e-02 1.000000e-02 1.000000e-02 1.000000e-02 1.000000e-02 1.000000e-02 1.000000e-02 2.265667e+04 1.000000e-02 1.735766e+05 1.423578e+06 2.310749e+05 2.191247e+03 1.786586e+02 1.541192e+01 1.193444e+00 1.000000e-02 1.000000e-02
<GCONST> 6.527420e+01
<TRANSP> 14
 0.000000e+00 1.000000e+00 0.000000e+00 0.000000e+00 0.000000e+00 0.000000e+00 0.000000e+00 0.000000e+00 0.000000e+00 0.000000e+00 0.000000e+00 0.000000e+00 0.000000e+00 0.000000e+00
 0.000000e+00 6.255558e-01 3.744442e-01 0.000000e+00 0.000000e+00 0.000000e+00 0.000000e+00 0.000000e+00 0.000000e+00 0.000000e+00 0.000000e+00 0.000000e+00 0.000000e+00 0.000000e+00
 0.000000e+00 0.000000e+00 8.267540e-01 1.732460e-01 0.000000e+00 0.000000e+00 0.000000e+00 0.000000e+00 0.000000e+00 0.000000e+00 0.000000e+00 0.000000e+00 0.000000e+00 0.000000e+00
 0.000000e+00 0.000000e+00 0.000000e+00 8.750199e-01 1.249801e-01 0.000000e+00 0.000000e+00 0.000000e+00 0.000000e+00 0.000000e+00 0.000000e+00 0.000000e+00 0.000000e+00 0.000000e+00
 0.000000e+00 0.000000e+00 0.000000e+00 0.000000e+00 6.523750e-01 3.476250e-01 0.000000e+00 0.000000e+00 0.000000e+00 0.000000e+00 0.000000e+00 0.000000e+00 0.000000e+00 0.000000e+00
 0.000000e+00 0.000000e+00 0.000000e+00 0.000000e+00 0.000000e+00 4.071799e-01 5.928201e-01 0.000000e+00 0.000000e+00 0.000000e+00 0.000000e+00 0.000000e+00 0.000000e+00 0.000000e+00
 0.000000e+00 0.000000e+00 0.000000e+00 0.000000e+00 0.000000e+00 0.000000e+00 6.165177e-01 3.834823e-01 0.000000e+00 0.000000e+00 0.000000e+00 0.000000e+00 0.000000e+00 0.000000e+00
 0.000000e+00 0.000000e+00 0.000000e+00 0.000000e+00 0.000000e+00 0.000000e+00 0.000000e+00 3.473740e-01 6.526260e-01 0.000000e+00 0.000000e+00 0.000000e+00 0.000000e+00 0.000000e+00
 0.000000e+00 0.000000e+00 0.000000e+00 0.000000e+00 0.000000e+00 0.000000e+00 0.000000e+00 0.000000e+00 7.482842e-01 2.517158e-01 0.000000e+00 0.000000e+00 0.000000e+00 0.000000e+00
 0.000000e+00 0.000000e+00 0.000000e+00 0.000000e+00 0.000000e+00 0.000000e+00 0.000000e+00 0.000000e+00 0.000000e+00 2.531110e-01 7.468890e-01 0.000000e+00 0.000000e+00 0.000000e+00
 0.000000e+00 0.000000e+00 0.000000e+00 0.000000e+00 0.000000e+00 0.000000e+00 0.000000e+00 0.000000e+00 0.000000e+00 0.000000e+00 9.153978e-01 8.460219e-02 0.000000e+00 0.000000e+00
 0.000000e+00 0.000000e+00 0.000000e+00 0.000000e+00 0.000000e+00 0.000000e+00 0.000000e+00 0.000000e+00 0.000000e+00 0.000000e+00 0.000000e+00 7.703281e-01 2.296719e-01 0.000000e+00
 0.000000e+00 0.000000e+00 0.000000e+00 0.000000e+00 0.000000e+00 0.000000e+00 0.000000e+00 0.000000e+00 0.000000e+00 0.000000e+00 0.000000e+00 0.000000e+00 7.413896e-01 2.586104e-01
 0.000000e+00 0.000000e+00 0.000000e+00 0.000000e+00 0.000000e+00 0.000000e+00 0.000000e+00 0.000000e+00 0.000000e+00 0.000000e+00 0.000000e+00 0.000000e+00 0.000000e+00 0.000000e+00
<ENDHMM>
