~o
<STREAMINFO> 1 1
<VECSIZE> 1<NULLD><USER><DIAGC>
~h "a"
<BEGINHMM>
<NUMSTATES> 8
<STATE> 2
<MEAN> 1
 6.655141e+00
<VARIANCE> 1
 8.175980e+00
<GCONST> 3.939078e+00
<STATE> 3
<MEAN> 1
 1.447257e+01
<VARIANCE> 1
 4.242927e+00
<GCONST> 3.283130e+00
<STATE> 4
<MEAN> 1
 1.066506e+01
<VARIANCE> 1
 1.949665e+00
<GCONST> 2.505534e+00
<STATE> 5
<MEAN> 1
 8.269737e+00
<VARIANCE> 1
 1.726499e+00
<GCONST> 2.383972e+00
<STATE> 6
<MEAN> 1
 6.125555e+00
<VARIANCE> 1
 2.571635e+00
<GCONST> 2.782419e+00
<STATE> 7
<MEAN> 1
 1.510952e+00
<VARIANCE> 1
 7.381458e+00
<GCONST> 3.836848e+00
<TRANSP> 8
 0.000000e+00 1.000000e+00 0.000000e+00 0.000000e+00 0.000000e+00 0.000000e+00 0.000000e+00 0.000000e+00
 0.000000e+00 8.761015e-01 1.238986e-01 0.000000e+00 0.000000e+00 0.000000e+00 0.000000e+00 0.000000e+00
 0.000000e+00 0.000000e+00 9.702252e-01 2.977482e-02 0.000000e+00 0.000000e+00 0.000000e+00 0.000000e+00
 0.000000e+00 0.000000e+00 0.000000e+00 9.560782e-01 4.392182e-02 0.000000e+00 0.000000e+00 0.000000e+00
 0.000000e+00 0.000000e+00 0.000000e+00 0.000000e+00 0.000000e+00 1.000000e+00 0.000000e+00 0.000000e+00
 0.000000e+00 0.000000e+00 0.000000e+00 0.000000e+00 0.000000e+00 9.456030e-01 5.439707e-02 0.000000e+00
 0.000000e+00 0.000000e+00 0.000000e+00 0.000000e+00 0.000000e+00 0.000000e+00 7.289587e-01 2.710413e-01
 0.000000e+00 0.000000e+00 0.000000e+00 0.000000e+00 0.000000e+00 0.000000e+00 0.000000e+00 0.000000e+00
<ENDHMM>
~h "e"
<BEGINHMM>
<NUMSTATES> 8
<STATE> 2
<MEAN> 1
 7.668868e+00
<VARIANCE> 1
 2.193674e+01
<GCONST> 4.926040e+00
<STATE> 3
<MEAN> 1
 -4.493261e-01
<VARIANCE> 1
 1.152299e+00
<GCONST> 1.979636e+00
<STATE> 4
<MEAN> 1
 -2.895313e+00
<VARIANCE> 1
 5.301340e-01
<GCONST> 1.203252e+00
<STATE> 5
<MEAN> 1
 -3.359034e+00
<VARIANCE> 1
 6.590453e-01
<GCONST> 1.420914e+00
<STATE> 6
<MEAN> 1
 -6.804149e+00
<VARIANCE> 1
 2.359990e+00
<GCONST> 2.696534e+00
<STATE> 7
<MEAN> 1
 -3.407237e+00
<VARIANCE> 1
 2.779881e+00
<GCONST> 2.860285e+00
<TRANSP> 8
 0.000000e+00 1.000000e+00 0.000000e+00 0.000000e+00 0.000000e+00 0.000000e+00 0.000000e+00 0.000000e+00
 0.000000e+00 7.698272e-01 2.301728e-01 0.000000e+00 0.000000e+00 0.000000e+00 0.000000e+00 0.000000e+00
 0.000000e+00 0.000000e+00 9.624155e-01 3.758455e-02 0.000000e+00 0.000000e+00 0.000000e+00 0.000000e+00
 0.000000e+00 0.000000e+00 0.000000e+00 0.000000e+00 1.000000e+00 0.000000e+00 0.000000e+00 0.000000e+00
 0.000000e+00 0.000000e+00 0.000000e+00 0.000000e+00 0.000000e+00 1.000000e+00 0.000000e+00 0.000000e+00
 0.000000e+00 0.000000e+00 0.000000e+00 0.000000e+00 0.000000e+00 9.739954e-01 2.600459e-02 0.000000e+00
 0.000000e+00 0.000000e+00 0.000000e+00 0.000000e+00 0.000000e+00 0.000000e+00 8.221087e-01 1.778913e-01
 0.000000e+00 0.000000e+00 0.000000e+00 0.000000e+00 0.000000e+00 0.000000e+00 0.000000e+00 0.000000e+00
<ENDHMM>
~h "i"
<BEGINHMM>
<NUMSTATES> 8
<STATE> 2
<MEAN> 1
 -7.173060e+00
<VARIANCE> 1
 3.669813e+00
<GCONST> 3.138018e+00
<STATE> 3
<MEAN> 1
 -3.131836e+00
<VARIANCE> 1
 1.152031e+00
<GCONST> 1.979404e+00
<STATE> 4
<MEAN> 1
 2.377967e+00
<VARIANCE> 1
 8.633556e+00
<GCONST> 3.993534e+00
<STATE> 5
<MEAN> 1
 -2.559220e-01
<VARIANCE> 1
 8.075908e-01
<GCONST> 1.624177e+00
<STATE> 6
<MEAN> 1
 -5.072594e+00
<VARIANCE> 1
 4.737035e+00
<GCONST> 3.393288e+00
<STATE> 7
<MEAN> 1
 3.542345e+00
<VARIANCE> 1
 1.437508e+01
<GCONST> 4.503373e+00
<TRANSP> 8
 0.000000e+00 1.000000e+00 0.000000e+00 0.000000e+00 0.000000e+00 0.000000e+00 0.000000e+00 0.000000e+00
 0.000000e+00 9.487099e-01 5.129008e-02 0.000000e+00 0.000000e+00 0.000000e+00 0.000000e+00 0.000000e+00
 0.000000e+00 0.000000e+00 9.467781e-01 5.322185e-02 0.000000e+00 0.000000e+00 0.000000e+00 0.000000e+00
 0.000000e+00 0.000000e+00 0.000000e+00 7.558123e-01 2.441877e-01 0.000000e+00 0.000000e+00 0.000000e+00
 0.000000e+00 0.000000e+00 0.000000e+00 0.000000e+00 9.479778e-01 5.202227e-02 0.000000e+00 0.000000e+00
 0.000000e+00 0.000000e+00 0.000000e+00 0.000000e+00 0.000000e+00 9.048505e-01 9.514949e-02 0.000000e+00
 0.000000e+00 0.000000e+00 0.000000e+00 0.000000e+00 0.000000e+00 0.000000e+00 7.562236e-01 2.437764e-01
 0.000000e+00 0.000000e+00 0.000000e+00 0.000000e+00 0.000000e+00 0.000000e+00 0.000000e+00 0.000000e+00
<ENDHMM>
~h "m"
<BEGINHMM>
<NUMSTATES> 8
<STATE> 2
<MEAN> 1
 -2.040331e+00
<VARIANCE> 1
 9.913035e+00
<GCONST> 4.131728e+00
<STATE> 3
<MEAN> 1
 4.691525e-01
<VARIANCE> 1
 1.299476e+00
<GCONST> 2.099838e+00
<STATE> 4
<MEAN> 1
 2.462713e+00
<VARIANCE> 1
 2.574854e+00
<GCONST> 2.783670e+00
<STATE> 5
<MEAN> 1
 3.140675e+00
<VARIANCE> 1
 3.746963e+00
<GCONST> 3.158823e+00
<STATE> 6
<MEAN> 1
 9.951372e+00
<VARIANCE> 1
 1.388233e+01
<GCONST> 4.468493e+00
<STATE> 7
<MEAN> 1
 5.509522e+00
<VARIANCE> 1
 4.355686e+00
<GCONST> 3.309359e+00
<TRANSP> 8
 0.000000e+00 1.000000e+00 0.000000e+00 0.000000e+00 0.000000e+00 0.000000e+00 0.000000e+00 0.000000e+00
 0.000000e+00 5.850410e-01 4.149589e-01 0.000000e+00 0.000000e+00 0.000000e+00 0.000000e+00 0.000000e+00
 0.000000e+00 0.000000e+00 9.568608e-01 4.313919e-02 0.000000e+00 0.000000e+00 0.000000e+00 0.000000e+00
 0.000000e+00 0.000000e+00 0.000000e+00 0.000000e+00 1.000000e+00 0.000000e+00 0.000000e+00 0.000000e+00
 0.000000e+00 0.000000e+00 0.000000e+00 0.000000e+00 0.000000e+00 1.000000e+00 0.000000e+00 0.000000e+00
 0.000000e+00 0.000000e+00 0.000000e+00 0.000000e+00 0.000000e+00 8.507003e-01 1.492997e-01 0.000000e+00
 0.000000e+00 0.000000e+00 0.000000e+00 0.000000e+00 0.000000e+00 0.000000e+00 9.220763e-01 7.792367e-02
 0.000000e+00 0.000000e+00 0.000000e+00 0.000000e+00 0.000000e+00 0.000000e+00 0.000000e+00 0.000000e+00
<ENDHMM>
~h "sil"
<BEGINHMM>
<NUMSTATES> 8
<STATE> 2
<MEAN> 1
 8.897537e-01
<VARIANCE> 1
 8.985853e-01
<GCONST> 1.730943e+00
<STATE> 3
<MEAN> 1
 3.679587e+00
<VARIANCE> 1
 1.493713e+00
<GCONST> 2.239142e+00
<STATE> 4
<MEAN> 1
 6.095282e+00
<VARIANCE> 1
 2.349390e+00
<GCONST> 2.692033e+00
<STATE> 5
<MEAN> 1
 8.678643e+00
<VARIANCE> 1
 3.769928e+00
<GCONST> 3.164933e+00
<STATE> 6
<MEAN> 1
 6.018974e+00
<VARIANCE> 1
 2.510733e+01
<GCONST> 5.061037e+00
<STATE> 7
<MEAN> 1
 1.195266e+01
<VARIANCE> 1
 8.100590e+00
<GCONST> 3.929814e+00
<TRANSP> 8
 0.000000e+00 1.000000e+00 0.000000e+00 0.000000e+00 0.000000e+00 0.000000e+00 0.000000e+00 0.000000e+00
 0.000000e+00 9.422168e-01 5.778322e-02 0.000000e+00 0.000000e+00 0.000000e+00 0.000000e+00 0.000000e+00
 0.000000e+00 0.000000e+00 9.139869e-01 8.601311e-02 0.000000e+00 0.000000e+00 0.000000e+00 0.000000e+00
 0.000000e+00 0.000000e+00 0.000000e+00 8.898471e-01 1.101529e-01 0.000000e+00 0.000000e+00 0.000000e+00
 0.000000e+00 0.000000e+00 0.000000e+00 0.000000e+00 9.177176e-01 8.228240e-02 0.000000e+00 0.000000e+00
 0.000000e+00 0.000000e+00 0.000000e+00 0.000000e+00 0.000000e+00 0.000000e+00 1.000000e+00 0.000000e+00
 0.000000e+00 0.000000e+00 0.000000e+00 0.000000e+00 0.000000e+00 0.000000e+00 9.139277e-01 8.607227e-02
 0.000000e+00 0.000000e+00 0.000000e+00 0.000000e+00 0.000000e+00 0.000000e+00 0.000000e+00 0.000000e+00
<ENDHMM>
