~o
<STREAMINFO> 1 26
<VECSIZE> 26<NULLD><MFCC_E_D><DIAGC>
~h "C"
<BEGINHMM>
<NUMSTATES> 5
<STATE> 2
<MEAN> 26
 -1.362503e+01 -3.853103e+00 -1.929425e+00 -4.469196e+00 -5.273647e+00 -4.006740e+00 -2.730230e+00 -1.377050e+00 -1.271744e+00 -1.182839e+00 -3.121917e+00 -3.865954e-01 3.369403e-01 -2.138790e+00 1.343051e-01 -1.177271e+00 -2.942874e-01 1.649997e+00 5.606436e-01 5.954497e-01 -1.590508e-01 3.252531e-01 -4.197117e-02 1.934263e-01 6.849714e-03 -3.717498e-02
<VARIANCE> 26
 4.189642e+01 5.344756e+01 3.734537e+01 4.565220e+01 3.882027e+01 3.536911e+01 3.227436e+01 3.479501e+01 2.397399e+01 1.943503e+01 2.217437e+01 1.627112e+01 5.763407e-02 5.997054e+00 5.971262e+00 4.398798e+00 6.386828e+00 6.288950e+00 3.951210e+00 4.799508e+00 4.395461e+00 3.426674e+00 2.360661e+00 2.425647e+00 1.845477e+00 1.000000e-02
<GCONST> 9.852714e+01
<STATE> 3
<MEAN> 26
 -2.177685e+01 -4.282345e+00 -6.351747e+00 -8.812062e+00 -2.161859e+00 -5.015990e+00 -4.961659e-01 -1.411401e+00 -2.054624e-01 -1.499507e+00 -1.979944e+00 1.826201e-02 4.518027e-01 9.373771e-02 -4.558511e-01 -1.709359e-01 -3.407757e-01 -2.502547e-01 -7.688364e-02 -1.777686e-02 6.739575e-02 8.001441e-02 -1.039334e-01 -7.647625e-02 5.898939e-03 1.084806e-02
<VARIANCE> 26
 3.543683e+01 2.446918e+01 2.908985e+01 3.185474e+01 2.758618e+01 3.562225e+01 2.162923e+01 1.644559e+01 1.713527e+01 1.547085e+01 1.198620e+01 1.077593e+01 6.851978e-02 3.229170e+00 1.732454e+00 1.955349e+00 2.674780e+00 1.585558e+00 2.043590e+00 2.017591e+00 1.740713e+00 1.802042e+00 1.894791e+00 1.578649e+00 1.193739e+00 1.000000e-02
<GCONST> 8.497102e+01
<STATE> 4
<MEAN> 26
 -9.094798e+00 -8.376288e+00 -3.535721e+00 -7.117938e+00 -8.548685e+00 -4.029931e+00 -4.489839e+00 8.805080e-01 -1.321294e+00 -1.349874e+00 -3.460406e+00 -8.609385e-01 5.495582e-01 2.873743e+00 -7.298836e-01 6.136526e-01 -3.379046e-01 -1.772944e+00 1.925121e-01 -1.649560e+00 3.604008e-01 -4.784015e-01 1.950847e-01 2.624713e-03 -4.570634e-01 5.675241e-02
<VARIANCE> 26
 7.191366e+01 3.992178e+01 6.985438e+01 3.548960e+01 5.836275e+01 5.231523e+01 5.288073e+01 3.490634e+01 3.438856e+01 2.616576e+01 2.368104e+01 1.669147e+01 4.186240e-02 4.721776e+00 3.813252e+00 4.862651e+00 4.400242e+00 4.658333e+00 5.313652e+00 5.033780e+00 2.840947e+00 3.133693e+00 2.388751e+00 2.480276e+00 2.088931e+00 1.000000e-02
<GCONST> 9.959190e+01
<TRANSP> 5
 0.000000e+00 1.000000e+00 0.000000e+00 0.000000e+00 0.000000e+00
 0.000000e+00 5.263158e-01 4.736842e-01 0.000000e+00 0.000000e+00
 0.000000e+00 0.000000e+00 7.413793e-01 2.586207e-01 0.000000e+00
 0.000000e+00 0.000000e+00 0.000000e+00 6.442688e-01 3.557312e-01
 0.000000e+00 0.000000e+00 0.000000e+00 0.000000e+00 0.000000e+00
<ENDHMM>
