~o
<STREAMINFO> 1 1
<VECSIZE> 1<NULLD><USER><DIAGC>
~h "a"
<BEGINHMM>
<NUMSTATES> 8
<STATE> 2
<MEAN> 1
 -9.527612e-01
<VARIANCE> 1
 3.586142e-01
<GCONST> 8.123689e-01
<STATE> 3
<MEAN> 1
 -2.862399e-02
<VARIANCE> 1
 2.278353e-01
<GCONST> 3.587449e-01
<STATE> 4
<MEAN> 1
 9.207700e-02
<VARIANCE> 1
 4.162379e-02
<GCONST> -1.341207e+00
<STATE> 5
<MEAN> 1
 1.536371e+00
<VARIANCE> 1
 3.121468e-01
<GCONST> 6.735953e-01
<STATE> 6
<MEAN> 1
 3.373919e+00
<VARIANCE> 1
 4.212659e-01
<GCONST> 9.733860e-01
<STATE> 7
<MEAN> 1
 7.479935e+00
<VARIANCE> 1
 2.897967e+00
<GCONST> 2.901886e+00
<TRANSP> 8
 0.000000e+00 1.000000e+00 0.000000e+00 0.000000e+00 0.000000e+00 0.000000e+00 0.000000e+00 0.000000e+00
 0.000000e+00 9.181465e-01 8.185353e-02 0.000000e+00 0.000000e+00 0.000000e+00 0.000000e+00 0.000000e+00
 0.000000e+00 0.000000e+00 1.667295e-01 8.332705e-01 0.000000e+00 0.000000e+00 0.000000e+00 0.000000e+00
 0.000000e+00 0.000000e+00 0.000000e+00 9.757993e-01 2.420074e-02 0.000000e+00 0.000000e+00 0.000000e+00
 0.000000e+00 0.000000e+00 0.000000e+00 0.000000e+00 9.807968e-01 1.920327e-02 0.000000e+00 0.000000e+00
 0.000000e+00 0.000000e+00 0.000000e+00 0.000000e+00 0.000000e+00 9.783101e-01 2.168988e-02 0.000000e+00
 0.000000e+00 0.000000e+00 0.000000e+00 0.000000e+00 0.000000e+00 0.000000e+00 9.883556e-01 1.164435e-02
 0.000000e+00 0.000000e+00 0.000000e+00 0.000000e+00 0.000000e+00 0.000000e+00 0.000000e+00 0.000000e+00
<ENDHMM>
~h "e"
<BEGINHMM>
<NUMSTATES> 8
<STATE> 2
<MEAN> 1
 3.080913e+00
<VARIANCE> 1
 1.993475e+00
<GCONST> 2.527756e+00
<STATE> 3
<MEAN> 1
 8.316567e+00
<VARIANCE> 1
 8.694950e+00
<GCONST> 4.000619e+00
<STATE> 4
<MEAN> 1
 -4.329326e-02
<VARIANCE> 1
 1.229560e-01
<GCONST> -2.580516e-01
<STATE> 5
<MEAN> 1
 -2.682455e-01
<VARIANCE> 1
 8.635527e-01
<GCONST> 1.691177e+00
<STATE> 6
<MEAN> 1
 -1.943346e+00
<VARIANCE> 1
 3.358578e-01
<GCONST> 7.468097e-01
<STATE> 7
<MEAN> 1
 -4.254850e+00
<VARIANCE> 1
 5.146797e-01
<GCONST> 1.173666e+00
<TRANSP> 8
 0.000000e+00 1.000000e+00 0.000000e+00 0.000000e+00 0.000000e+00 0.000000e+00 0.000000e+00 0.000000e+00
 0.000000e+00 9.786754e-01 2.132468e-02 0.000000e+00 0.000000e+00 0.000000e+00 0.000000e+00 0.000000e+00
 0.000000e+00 0.000000e+00 9.697586e-01 3.024143e-02 0.000000e+00 0.000000e+00 0.000000e+00 0.000000e+00
 0.000000e+00 0.000000e+00 0.000000e+00 9.845868e-01 1.541322e-02 0.000000e+00 0.000000e+00 0.000000e+00
 0.000000e+00 0.000000e+00 0.000000e+00 0.000000e+00 8.491704e-01 1.508296e-01 0.000000e+00 0.000000e+00
 0.000000e+00 0.000000e+00 0.000000e+00 0.000000e+00 0.000000e+00 9.794541e-01 2.054589e-02 0.000000e+00
 0.000000e+00 0.000000e+00 0.000000e+00 0.000000e+00 0.000000e+00 0.000000e+00 9.750684e-01 2.493148e-02
 0.000000e+00 0.000000e+00 0.000000e+00 0.000000e+00 0.000000e+00 0.000000e+00 0.000000e+00 0.000000e+00
<ENDHMM>
~h "i"
<BEGINHMM>
<NUMSTATES> 8
<STATE> 2
<MEAN> 1
 -4.967157e+00
<VARIANCE> 1
 1.273961e+00
<GCONST> 2.080008e+00
<STATE> 3
<MEAN> 1
 -4.788882e+00
<VARIANCE> 1
 1.617055e+00
<GCONST> 2.318484e+00
<STATE> 4
<MEAN> 1
 -7.936607e+00
<VARIANCE> 1
 1.302663e+00
<GCONST> 2.102288e+00
<STATE> 5
<MEAN> 1
 -5.026435e+00
<VARIANCE> 1
 2.334816e+00
<GCONST> 2.685810e+00
<STATE> 6
<MEAN> 1
 -6.156265e+00
<VARIANCE> 1
 6.706195e-01
<GCONST> 1.438324e+00
<STATE> 7
<MEAN> 1
 -3.466361e+00
<VARIANCE> 1
 4.788857e-01
<GCONST> 1.101584e+00
<TRANSP> 8
 0.000000e+00 1.000000e+00 0.000000e+00 0.000000e+00 0.000000e+00 0.000000e+00 0.000000e+00 0.000000e+00
 0.000000e+00 2.917445e-01 7.082555e-01 0.000000e+00 0.000000e+00 0.000000e+00 0.000000e+00 0.000000e+00
 0.000000e+00 0.000000e+00 0.000000e+00 1.000000e+00 0.000000e+00 0.000000e+00 0.000000e+00 0.000000e+00
 0.000000e+00 0.000000e+00 0.000000e+00 9.830816e-01 1.691848e-02 0.000000e+00 0.000000e+00 0.000000e+00
 0.000000e+00 0.000000e+00 0.000000e+00 0.000000e+00 4.504083e-01 5.495917e-01 0.000000e+00 0.000000e+00
 0.000000e+00 0.000000e+00 0.000000e+00 0.000000e+00 0.000000e+00 9.813814e-01 1.861863e-02 0.000000e+00
 0.000000e+00 0.000000e+00 0.000000e+00 0.000000e+00 0.000000e+00 0.000000e+00 9.667988e-01 3.320117e-02
 0.000000e+00 0.000000e+00 0.000000e+00 0.000000e+00 0.000000e+00 0.000000e+00 0.000000e+00 0.000000e+00
<ENDHMM>
~h "m"
<BEGINHMM>
<NUMSTATES> 8
<STATE> 2
<MEAN> 1
 -1.529573e+00
<VARIANCE> 1
 2.281289e-01
<GCONST> 3.600324e-01
<STATE> 3
<MEAN> 1
 -1.375421e-02
<VARIANCE> 1
 1.993147e-02
<GCONST> -2.077579e+00
<STATE> 4
<MEAN> 1
 -4.216748e-01
<VARIANCE> 1
 1.422644e-01
<GCONST> -1.121910e-01
<STATE> 5
<MEAN> 1
 -3.615124e-01
<VARIANCE> 1
 1.206924e-01
<GCONST> -2.766333e-01
<STATE> 6
<MEAN> 1
 -3.009259e-01
<VARIANCE> 1
 1.030658e-01
<GCONST> -4.345107e-01
<STATE> 7
<MEAN> 1
 -4.401070e-01
<VARIANCE> 1
 6.472760e-02
<GCONST> -8.996906e-01
<TRANSP> 8
 0.000000e+00 1.000000e+00 0.000000e+00 0.000000e+00 0.000000e+00 0.000000e+00 0.000000e+00 0.000000e+00
 0.000000e+00 9.544039e-01 4.559607e-02 0.000000e+00 0.000000e+00 0.000000e+00 0.000000e+00 0.000000e+00
 0.000000e+00 0.000000e+00 9.777293e-01 2.227067e-02 0.000000e+00 0.000000e+00 0.000000e+00 0.000000e+00
 0.000000e+00 0.000000e+00 0.000000e+00 0.000000e+00 1.000000e+00 0.000000e+00 0.000000e+00 0.000000e+00
 0.000000e+00 0.000000e+00 0.000000e+00 0.000000e+00 0.000000e+00 1.000000e+00 0.000000e+00 0.000000e+00
 0.000000e+00 0.000000e+00 0.000000e+00 0.000000e+00 0.000000e+00 0.000000e+00 1.000000e+00 0.000000e+00
 0.000000e+00 0.000000e+00 0.000000e+00 0.000000e+00 0.000000e+00 0.000000e+00 6.658699e-01 3.341301e-01
 0.000000e+00 0.000000e+00 0.000000e+00 0.000000e+00 0.000000e+00 0.000000e+00 0.000000e+00 0.000000e+00
<ENDHMM>
~h "sil"
<BEGINHMM>
<NUMSTATES> 8
<STATE> 2
<MEAN> 1
 3.111175e-01
<VARIANCE> 1
 2.143213e+00
<GCONST> 2.600183e+00
<STATE> 3
<MEAN> 1
 -3.309031e+00
<VARIANCE> 1
 1.065740e+00
<GCONST> 1.901546e+00
<STATE> 4
<MEAN> 1
 3.402704e-01
<VARIANCE> 1
 4.228057e+00
<GCONST> 3.279620e+00
<STATE> 5
<MEAN> 1
 9.253985e+00
<VARIANCE> 1
 1.009619e+01
<GCONST> 4.150035e+00
<STATE> 6
<MEAN> 1
 1.662429e+00
<VARIANCE> 1
 1.087891e+00
<GCONST> 1.922118e+00
<STATE> 7
<MEAN> 1
 1.756414e-01
<VARIANCE> 1
 1.419556e+00
<GCONST> 2.188221e+00
<TRANSP> 8
 0.000000e+00 1.000000e+00 0.000000e+00 0.000000e+00 0.000000e+00 0.000000e+00 0.000000e+00 0.000000e+00
 0.000000e+00 9.623465e-01 3.765354e-02 0.000000e+00 0.000000e+00 0.000000e+00 0.000000e+00 0.000000e+00
 0.000000e+00 0.000000e+00 9.789242e-01 2.107580e-02 0.000000e+00 0.000000e+00 0.000000e+00 0.000000e+00
 0.000000e+00 0.000000e+00 0.000000e+00 0.000000e+00 1.000000e+00 0.000000e+00 0.000000e+00 0.000000e+00
 0.000000e+00 0.000000e+00 0.000000e+00 0.000000e+00 9.408387e-01 5.916127e-02 0.000000e+00 0.000000e+00
 0.000000e+00 0.000000e+00 0.000000e+00 0.000000e+00 0.000000e+00 9.280347e-01 7.196531e-02 0.000000e+00
 0.000000e+00 0.000000e+00 0.000000e+00 0.000000e+00 0.000000e+00 0.000000e+00 0.000000e+00 1.000000e+00
 0.000000e+00 0.000000e+00 0.000000e+00 0.000000e+00 0.000000e+00 0.000000e+00 0.000000e+00 0.000000e+00
<ENDHMM>
