~o
<STREAMINFO> 1 1
<VECSIZE> 1<NULLD><USER><DIAGC>
~h "a"
<BEGINHMM>
<NUMSTATES> 8
<STATE> 2
<MEAN> 1
 3.431361e+00
<VARIANCE> 1
 2.490915e+00
<GCONST> 2.750527e+00
<STATE> 3
<MEAN> 1
 9.307732e+00
<VARIANCE> 1
 2.786898e+00
<GCONST> 2.862806e+00
<STATE> 4
<MEAN> 1
 5.443871e+00
<VARIANCE> 1
 1.625872e+00
<GCONST> 2.323921e+00
<STATE> 5
<MEAN> 1
 2.143528e+00
<VARIANCE> 1
 2.798191e-01
<GCONST> 5.642650e-01
<STATE> 6
<MEAN> 1
 3.361947e+00
<VARIANCE> 1
 9.743941e-01
<GCONST> 1.811938e+00
<STATE> 7
<MEAN> 1
 7.888803e-01
<VARIANCE> 1
 1.387370e-01
<GCONST> -1.372980e-01
<TRANSP> 8
 0.000000e+00 1.000000e+00 0.000000e+00 0.000000e+00 0.000000e+00 0.000000e+00 0.000000e+00 0.000000e+00
 0.000000e+00 9.478707e-01 5.212925e-02 0.000000e+00 0.000000e+00 0.000000e+00 0.000000e+00 0.000000e+00
 0.000000e+00 0.000000e+00 9.827253e-01 1.727476e-02 0.000000e+00 0.000000e+00 0.000000e+00 0.000000e+00
 0.000000e+00 0.000000e+00 0.000000e+00 9.725412e-01 2.745879e-02 0.000000e+00 0.000000e+00 0.000000e+00
 0.000000e+00 0.000000e+00 0.000000e+00 0.000000e+00 9.570427e-01 4.295730e-02 0.000000e+00 0.000000e+00
 0.000000e+00 0.000000e+00 0.000000e+00 0.000000e+00 0.000000e+00 9.238734e-01 7.612657e-02 0.000000e+00
 0.000000e+00 0.000000e+00 0.000000e+00 0.000000e+00 0.000000e+00 0.000000e+00 9.291711e-01 7.082885e-02
 0.000000e+00 0.000000e+00 0.000000e+00 0.000000e+00 0.000000e+00 0.000000e+00 0.000000e+00 0.000000e+00
<ENDHMM>
~h "e"
<BEGINHMM>
<NUMSTATES> 8
<STATE> 2
<MEAN> 1
 -1.814377e-03
<VARIANCE> 1
 1.000000e-02
<GCONST> -2.767293e+00
<STATE> 3
<MEAN> 1
 5.581409e+00
<VARIANCE> 1
 1.674479e+01
<GCONST> 4.655964e+00
<STATE> 4
<MEAN> 1
 -9.257672e-01
<VARIANCE> 1
 2.148130e-01
<GCONST> 2.998896e-01
<STATE> 5
<MEAN> 1
 -1.800475e+00
<VARIANCE> 1
 3.874443e-02
<GCONST> -1.412891e+00
<STATE> 6
<MEAN> 1
 -3.035126e+00
<VARIANCE> 1
 6.485246e-01
<GCONST> 1.404822e+00
<STATE> 7
<MEAN> 1
 -6.127333e+00
<VARIANCE> 1
 9.906383e-01
<GCONST> 1.828471e+00
<TRANSP> 8
 0.000000e+00 1.000000e+00 0.000000e+00 0.000000e+00 0.000000e+00 0.000000e+00 0.000000e+00 0.000000e+00
 0.000000e+00 9.930930e-01 6.906983e-03 0.000000e+00 0.000000e+00 0.000000e+00 0.000000e+00 0.000000e+00
 0.000000e+00 0.000000e+00 8.758031e-01 1.241969e-01 0.000000e+00 0.000000e+00 0.000000e+00 0.000000e+00
 0.000000e+00 0.000000e+00 0.000000e+00 9.681478e-01 3.185217e-02 0.000000e+00 0.000000e+00 0.000000e+00
 0.000000e+00 0.000000e+00 0.000000e+00 0.000000e+00 0.000000e+00 1.000000e+00 0.000000e+00 0.000000e+00
 0.000000e+00 0.000000e+00 0.000000e+00 0.000000e+00 0.000000e+00 9.704421e-01 2.955790e-02 0.000000e+00
 0.000000e+00 0.000000e+00 0.000000e+00 0.000000e+00 0.000000e+00 0.000000e+00 9.714231e-01 2.857694e-02
 0.000000e+00 0.000000e+00 0.000000e+00 0.000000e+00 0.000000e+00 0.000000e+00 0.000000e+00 0.000000e+00
<ENDHMM>
~h "i"
<BEGINHMM>
<NUMSTATES> 8
<STATE> 2
<MEAN> 1
 -5.647825e+00
<VARIANCE> 1
 5.079616e+00
<GCONST> 3.463113e+00
<STATE> 3
<MEAN> 1
 -9.766630e+00
<VARIANCE> 1
 1.079523e+00
<GCONST> 1.914396e+00
<STATE> 4
<MEAN> 1
 -7.304017e+00
<VARIANCE> 1
 8.837556e-01
<GCONST> 1.714302e+00
<STATE> 5
<MEAN> 1
 -4.339335e+00
<VARIANCE> 1
 4.766787e-01
<GCONST> 1.096964e+00
<STATE> 6
<MEAN> 1
 -2.207644e+00
<VARIANCE> 1
 2.610884e-01
<GCONST> 4.949808e-01
<STATE> 7
<MEAN> 1
 -8.560867e-01
<VARIANCE> 1
 6.697750e-02
<GCONST> -8.655214e-01
<TRANSP> 8
 0.000000e+00 1.000000e+00 0.000000e+00 0.000000e+00 0.000000e+00 0.000000e+00 0.000000e+00 0.000000e+00
 0.000000e+00 7.519935e-01 2.480065e-01 0.000000e+00 0.000000e+00 0.000000e+00 0.000000e+00 0.000000e+00
 0.000000e+00 0.000000e+00 9.842904e-01 1.570954e-02 0.000000e+00 0.000000e+00 0.000000e+00 0.000000e+00
 0.000000e+00 0.000000e+00 0.000000e+00 9.766839e-01 2.331610e-02 0.000000e+00 0.000000e+00 0.000000e+00
 0.000000e+00 0.000000e+00 0.000000e+00 0.000000e+00 9.507391e-01 4.926092e-02 0.000000e+00 0.000000e+00
 0.000000e+00 0.000000e+00 0.000000e+00 0.000000e+00 0.000000e+00 9.390094e-01 6.099060e-02 0.000000e+00
 0.000000e+00 0.000000e+00 0.000000e+00 0.000000e+00 0.000000e+00 0.000000e+00 8.692864e-01 1.307136e-01
 0.000000e+00 0.000000e+00 0.000000e+00 0.000000e+00 0.000000e+00 0.000000e+00 0.000000e+00 0.000000e+00
<ENDHMM>
~h "m"
<BEGINHMM>
<NUMSTATES> 8
<STATE> 2
<MEAN> 1
 -2.840247e-01
<VARIANCE> 1
 1.040699e-02
<GCONST> -2.727401e+00
<STATE> 3
<MEAN> 1
 1.977705e-03
<VARIANCE> 1
 1.000000e-02
<GCONST> -2.767293e+00
<STATE> 4
<MEAN> 1
 9.109887e-01
<VARIANCE> 1
 2.149901e-01
<GCONST> 3.007139e-01
<STATE> 5
<MEAN> 1
 1.671435e+00
<VARIANCE> 1
 1.889045e-01
<GCONST> 1.713634e-01
<STATE> 6
<MEAN> 1
 2.939217e+00
<VARIANCE> 1
 5.276597e-01
<GCONST> 1.198573e+00
<STATE> 7
<MEAN> 1
 6.516168e+00
<VARIANCE> 1
 2.273143e+00
<GCONST> 2.659040e+00
<TRANSP> 8
 0.000000e+00 1.000000e+00 0.000000e+00 0.000000e+00 0.000000e+00 0.000000e+00 0.000000e+00 0.000000e+00
 0.000000e+00 6.360027e-01 3.639973e-01 0.000000e+00 0.000000e+00 0.000000e+00 0.000000e+00 0.000000e+00
 0.000000e+00 0.000000e+00 9.931971e-01 6.802905e-03 0.000000e+00 0.000000e+00 0.000000e+00 0.000000e+00
 0.000000e+00 0.000000e+00 0.000000e+00 9.637604e-01 3.623955e-02 0.000000e+00 0.000000e+00 0.000000e+00
 0.000000e+00 0.000000e+00 0.000000e+00 0.000000e+00 5.345526e-01 4.654474e-01 0.000000e+00 0.000000e+00
 0.000000e+00 0.000000e+00 0.000000e+00 0.000000e+00 0.000000e+00 9.625872e-01 3.741281e-02 0.000000e+00
 0.000000e+00 0.000000e+00 0.000000e+00 0.000000e+00 0.000000e+00 0.000000e+00 9.594074e-01 4.059252e-02
 0.000000e+00 0.000000e+00 0.000000e+00 0.000000e+00 0.000000e+00 0.000000e+00 0.000000e+00 0.000000e+00
<ENDHMM>
~h "sil"
<BEGINHMM>
<NUMSTATES> 8
<STATE> 2
<MEAN> 1
 -2.900438e+00
<VARIANCE> 1
 3.021179e+00
<GCONST> 2.943524e+00
<STATE> 3
<MEAN> 1
 3.059166e+00
<VARIANCE> 1
 1.581504e+01
<GCONST> 4.598839e+00
<STATE> 4
<MEAN> 1
 1.072834e+01
<VARIANCE> 1
 4.594780e+00
<GCONST> 3.362798e+00
<STATE> 5
<MEAN> 1
 6.176014e+00
<VARIANCE> 1
 4.118210e+00
<GCONST> 3.253296e+00
<STATE> 6
<MEAN> 1
 2.728940e+00
<VARIANCE> 1
 3.358813e+00
<GCONST> 3.049465e+00
<STATE> 7
<MEAN> 1
 8.241443e-02
<VARIANCE> 1
 8.931320e-01
<GCONST> 1.724856e+00
<TRANSP> 8
 0.000000e+00 1.000000e+00 0.000000e+00 0.000000e+00 0.000000e+00 0.000000e+00 0.000000e+00 0.000000e+00
 0.000000e+00 9.689171e-01 3.108296e-02 0.000000e+00 0.000000e+00 0.000000e+00 0.000000e+00 0.000000e+00
 0.000000e+00 0.000000e+00 0.000000e+00 1.000000e+00 0.000000e+00 0.000000e+00 0.000000e+00 0.000000e+00
 0.000000e+00 0.000000e+00 0.000000e+00 9.775300e-01 2.247000e-02 0.000000e+00 0.000000e+00 0.000000e+00
 0.000000e+00 0.000000e+00 0.000000e+00 0.000000e+00 9.086856e-01 9.131444e-02 0.000000e+00 0.000000e+00
 0.000000e+00 0.000000e+00 0.000000e+00 0.000000e+00 0.000000e+00 6.850874e-01 3.149125e-01 0.000000e+00
 0.000000e+00 0.000000e+00 0.000000e+00 0.000000e+00 0.000000e+00 0.000000e+00 9.628248e-01 3.717519e-02
 0.000000e+00 0.000000e+00 0.000000e+00 0.000000e+00 0.000000e+00 0.000000e+00 0.000000e+00 0.000000e+00
<ENDHMM>
