~o
<STREAMINFO> 1 20
<VECSIZE> 20<NULLD><USER><DIAGC>
~h "a"
<BEGINHMM>
<NUMSTATES> 14
<STATE> 2
<MEAN> 20
 4.345846e+03 3.999941e+00 0.000000e+00 0.000000e+00 0.000000e+00 0.000000e+00 0.000000e+00 0.000000e+00 0.000000e+00 3.644501e+01 1.909771e+01 7.353719e+01 2.336949e+03 8.782394e+02 5.279991e+02 2.979670e+02 2.389931e+02 1.160919e+01 1.899906e+00 0.000000e+00
<VARIANCE> 20
 1.598994e+07 4.539939e+01 1.000000e-02 1.000000e-02 1.000000e-02 1.000000e-02 1.000000e-02 1.000000e-02 1.000000e-02 1.758003e+03 2.502034e+03 5.245741e+03 1.183504e+07 1.829633e+06 1.145561e+06 1.855754e+05 1.967468e+05 4.682074e+02 3.248857e+01 1.000000e-02
<GCONST> 1.227894e+02
<STATE> 3
<MEAN> 20
 4.228140e+03 8.727127e+00 0.000000e+00 0.000000e+00 0.000000e+00 0.000000e+00 4.194452e-08 2.273663e-07 1.570240e-07 2.735427e+01 6.499998e+01 7.613416e+01 1.687224e+03 7.414529e+02 5.293550e+02 7.771180e+02 3.514029e+02 3.626165e+01 2.727217e-01 0.000000e+00
<VARIANCE> 20
 9.545388e+06 4.154644e+02 1.000000e-02 1.000000e-02 1.000000e-02 1.000000e-02 1.000000e-02 1.000000e-02 1.000000e-02 4.075598e+03 3.839385e+04 1.626422e+04 7.377050e+06 1.247105e+06 1.237869e+06 1.142231e+06 2.915121e+05 8.579864e+03 7.437878e-01 1.000000e-02
<GCONST> 1.297539e+02
<STATE> 4
<MEAN> 20
 4.111410e+03 1.273391e+02 0.000000e+00 0.000000e+00 1.874973e-01 2.062470e+00 2.124972e+01 1.874982e+01 1.762490e+01 9.811876e+01 1.122485e+02 2.224999e+02 1.297467e+03 1.082220e+03 1.024104e+03 4.616269e+02 1.608960e+02 3.286731e+01 2.812460e+00 0.000000e+00
<VARIANCE> 20
 1.179542e+07 7.833099e+04 1.000000e-02 1.000000e-02 5.273367e-01 6.380774e+01 6.163980e+03 2.953026e+03 1.729976e+03 2.146795e+04 3.281915e+04 1.698892e+05 5.771722e+06 1.725962e+06 5.198113e+06 2.922777e+05 6.084719e+04 9.465697e+03 1.186507e+02 1.000000e-02
<GCONST> 1.935256e+02
<STATE> 5
<MEAN> 20
 7.341985e+03 7.052960e-01 0.000000e+00 0.000000e+00 0.000000e+00 0.000000e+00 0.000000e+00 0.000000e+00 0.000000e+00 1.830020e+02 3.928011e-02 1.179884e+02 4.352371e+03 2.598846e+03 4.299085e+02 2.538918e+01 1.130098e+00 1.964007e-02 0.000000e+00 0.000000e+00
<VARIANCE> 20
 5.921330e+06 7.414294e+00 1.000000e-02 1.000000e-02 1.000000e-02 1.000000e-02 1.000000e-02 1.000000e-02 1.000000e-02 9.214427e+04 3.773718e-02 4.303060e+04 8.559587e+06 1.828150e+06 6.617221e+05 3.105535e+03 6.448130e+00 1.925434e-02 1.000000e-02 1.000000e-02
<GCONST> 8.147084e+01
<STATE> 6
<MEAN> 20
 2.589185e+03 1.844592e+02 1.499981e+00 0.000000e+00 0.000000e+00 0.000000e+00 2.416678e+00 2.041677e+00 3.874970e+00 3.454186e+01 4.450010e+01 8.941651e+01 1.693737e+02 8.003651e+02 1.080319e+03 3.847104e+02 1.661679e+02 5.870866e+01 2.087512e+01 3.583362e+00
<VARIANCE> 20
 5.302493e+06 5.168168e+04 5.174938e+01 1.000000e-02 1.000000e-02 1.000000e-02 1.045769e+02 4.687351e+01 1.421912e+02 6.949061e+03 6.538265e+03 3.476993e+04 1.277051e+05 1.189583e+06 2.035487e+06 2.681888e+05 3.334138e+04 8.922820e+03 1.647199e+03 1.084104e+02
<GCONST> 1.791438e+02
<STATE> 7
<MEAN> 20
 3.272846e+03 7.906727e+01 0.000000e+00 0.000000e+00 2.000044e-01 0.000000e+00 0.000000e+00 1.266689e+00 1.533362e+00 2.306662e+01 3.360068e+01 4.753392e+01 2.780628e+02 7.561836e+02 1.092912e+03 8.737482e+02 2.731384e+02 1.873311e+01 4.066573e+00 0.000000e+00
<VARIANCE> 20
 2.581542e+06 1.809771e+04 1.000000e-02 1.000000e-02 2.933389e-01 1.000000e-02 1.000000e-02 8.329011e+00 1.598251e+01 1.121107e+03 3.395887e+03 2.328250e+03 2.094599e+05 6.548405e+05 1.244217e+06 1.071484e+06 1.468793e+05 1.251092e+03 1.083265e+02 1.000000e-02
<GCONST> 1.421465e+02
<STATE> 8
<MEAN> 20
 4.082411e+03 2.466697e+01 0.000000e+00 0.000000e+00 3.428043e-31 0.000000e+00 3.333375e-01 3.916715e+00 2.308361e+01 1.304166e+02 2.990870e+02 1.731683e+02 3.507442e+02 9.610674e+02 6.961610e+02 1.387015e+03 3.590866e+02 1.874926e+01 1.749915e+01 2.249915e+00
<VARIANCE> 20
 3.585970e+06 2.363077e+03 1.000000e-02 1.000000e-02 1.000000e-02 1.000000e-02 1.222236e+00 5.041014e+01 2.529434e+03 2.776934e+04 2.159373e+05 4.577770e+04 2.157048e+05 1.176083e+06 4.032472e+05 2.426572e+06 2.689562e+05 2.703070e+03 3.333767e+03 3.735260e+01
<GCONST> 1.724051e+02
<STATE> 9
<MEAN> 20
 2.300379e+03 1.587023e+02 4.000057e-01 0.000000e+00 8.000115e-01 0.000000e+00 1.900027e+01 8.290118e+01 1.440021e+01 3.909993e+01 1.777025e+02 8.110015e+01 8.724861e+02 9.093930e+02 4.303011e+02 2.569979e+01 3.389996e+01 6.710035e+01 1.800013e+01 0.000000e+00
<VARIANCE> 20
 4.234950e+06 6.528098e+04 1.440019e+00 1.000000e-02 5.760073e+00 1.000000e-02 1.876222e+03 1.813425e+04 4.972441e+02 1.499496e+03 8.039811e+04 8.472583e+03 1.352198e+06 6.952049e+05 2.535287e+05 1.736596e+03 2.428676e+03 1.885922e+04 1.207015e+03 1.000000e-02
<GCONST> 1.748147e+02
<STATE> 10
<MEAN> 20
 4.667568e+03 3.912175e+00 0.000000e+00 0.000000e+00 4.324581e-09 0.000000e+00 0.000000e+00 -6.277867e-22 9.997780e-01 7.426094e+01 7.085383e+00 1.169025e+02 6.170043e+02 1.702419e+03 2.087891e+03 1.869202e+02 1.630437e+01 1.221439e+01 -5.214027e-33 0.000000e+00
<VARIANCE> 20
 4.289333e+06 3.367906e+02 1.000000e-02 1.000000e-02 1.000000e-02 1.000000e-02 1.000000e-02 1.000000e-02 6.694388e+00 6.295376e+04 7.699198e+02 1.163474e+05 1.596218e+06 2.396559e+06 1.909924e+06 6.451581e+04 2.030240e+03 3.258710e+03 1.000000e-02 1.000000e-02
<GCONST> 1.224843e+02
<STATE> 11
<MEAN> 20
 9.308630e+03 1.662195e+00 0.000000e+00 0.000000e+00 0.000000e+00 0.000000e+00 0.000000e+00 0.000000e+00 0.000000e+00 1.751090e+02 0.000000e+00 3.861403e+02 5.325411e+03 2.892377e+03 3.366727e+02 1.082489e+02 2.003403e+02 1.903725e+02 4.276054e+01 3.077060e+00
<VARIANCE> 20
 5.654128e+06 6.025828e+01 1.000000e-02 1.000000e-02 1.000000e-02 1.000000e-02 1.000000e-02 1.000000e-02 1.000000e-02 3.253658e+04 1.000000e-02 8.912115e+05 4.699692e+06 1.256300e+06 6.291235e+04 4.802523e+03 1.506669e+04 1.613998e+04 3.507502e+03 4.916122e+01
<GCONST> 1.239533e+02
<STATE> 12
<MEAN> 20
 1.163608e+04 2.028430e+00 0.000000e+00 0.000000e+00 0.000000e+00 0.000000e+00 0.000000e+00 2.225002e-10 4.905852e-01 1.901761e+02 1.469292e+01 4.900973e+02 5.811377e+03 4.251389e+03 4.324064e+02 1.531098e+02 2.877491e+02 2.997378e+02 7.771802e+01 1.049589e+01
<VARIANCE> 20
 3.063046e+06 1.763796e+01 1.000000e-02 1.000000e-02 1.000000e-02 1.000000e-02 1.000000e-02 1.000000e-02 2.209273e+00 1.516273e+04 1.107240e+03 8.788325e+05 5.738392e+06 2.137828e+06 4.142481e+04 2.113859e+03 1.195910e+04 2.981683e+04 6.177963e+03 2.094739e+02
<GCONST> 1.402381e+02
<STATE> 13
<MEAN> 20
 1.621768e+04 8.138929e+03 6.250019e+01 0.000000e+00 0.000000e+00 0.000000e+00 4.000011e+00 7.100020e+01 1.643742e+02 1.207549e+03 1.873043e+03 1.219786e+04 7.476363e+03 3.350761e+03 3.107650e+02 1.347721e+02 2.741192e+02 1.977710e+02 4.601244e+01 4.563437e+00
<VARIANCE> 20
 1.688697e+08 4.611398e+08 2.672356e+04 1.000000e-02 1.000000e-02 1.000000e-02 1.120003e+02 3.528708e+04 1.884783e+05 7.788863e+06 2.437383e+07 9.487250e+08 1.726423e+07 3.136610e+06 4.482312e+04 6.529518e+03 2.446261e+04 1.316417e+04 1.833587e+03 5.824480e+01
<GCONST> 2.351997e+02
<TRANSP> 14
 0.000000e+00 1.000000e+00 0.000000e+00 0.000000e+00 0.000000e+00 0.000000e+00 0.000000e+00 0.000000e+00 0.000000e+00 0.000000e+00 0.000000e+00 0.000000e+00 0.000000e+00 0.000000e+00
 0.000000e+00 2.000064e-01 7.999936e-01 0.000000e+00 0.000000e+00 0.000000e+00 0.000000e+00 0.000000e+00 0.000000e+00 0.000000e+00 0.000000e+00 0.000000e+00 0.000000e+00 0.000000e+00
 0.000000e+00 0.000000e+00 2.727388e-01 7.272612e-01 0.000000e+00 0.000000e+00 0.000000e+00 0.000000e+00 0.000000e+00 0.000000e+00 0.000000e+00 0.000000e+00 0.000000e+00 0.000000e+00
 0.000000e+00 0.000000e+00 0.000000e+00 4.999957e-01 5.000043e-01 0.000000e+00 0.000000e+00 0.000000e+00 0.000000e+00 0.000000e+00 0.000000e+00 0.000000e+00 0.000000e+00 0.000000e+00
 0.000000e+00 0.000000e+00 0.000000e+00 0.000000e+00 8.318856e-01 1.681143e-01 0.000000e+00 0.000000e+00 0.000000e+00 0.000000e+00 0.000000e+00 0.000000e+00 0.000000e+00 0.000000e+00
 0.000000e+00 0.000000e+00 0.000000e+00 0.000000e+00 0.000000e+00 6.666690e-01 3.333310e-01 0.000000e+00 0.000000e+00 0.000000e+00 0.000000e+00 0.000000e+00 0.000000e+00 0.000000e+00
 0.000000e+00 0.000000e+00 0.000000e+00 0.000000e+00 0.000000e+00 0.000000e+00 4.666643e-01 5.333357e-01 0.000000e+00 0.000000e+00 0.000000e+00 0.000000e+00 0.000000e+00 0.000000e+00
 0.000000e+00 0.000000e+00 0.000000e+00 0.000000e+00 0.000000e+00 0.000000e+00 0.000000e+00 3.333376e-01 6.666625e-01 0.000000e+00 0.000000e+00 0.000000e+00 0.000000e+00 0.000000e+00
 0.000000e+00 0.000000e+00 0.000000e+00 0.000000e+00 0.000000e+00 0.000000e+00 0.000000e+00 0.000000e+00 2.000028e-01 7.999972e-01 0.000000e+00 0.000000e+00 0.000000e+00 0.000000e+00
 0.000000e+00 0.000000e+00 0.000000e+00 0.000000e+00 0.000000e+00 0.000000e+00 0.000000e+00 0.000000e+00 0.000000e+00 6.522579e-01 3.477422e-01 0.000000e+00 0.000000e+00 0.000000e+00
 0.000000e+00 0.000000e+00 0.000000e+00 0.000000e+00 0.000000e+00 0.000000e+00 0.000000e+00 0.000000e+00 0.000000e+00 0.000000e+00 9.457247e-01 5.427526e-02 0.000000e+00 0.000000e+00
 0.000000e+00 0.000000e+00 0.000000e+00 0.000000e+00 0.000000e+00 0.000000e+00 0.000000e+00 0.000000e+00 0.000000e+00 0.000000e+00 0.000000e+00 2.166770e-01 7.833230e-01 0.000000e+00
 0.000000e+00 0.000000e+00 0.000000e+00 0.000000e+00 0.000000e+00 0.000000e+00 0.000000e+00 0.000000e+00 0.000000e+00 0.000000e+00 0.000000e+00 0.000000e+00 7.459320e-15 1.000000e+00
 0.000000e+00 0.000000e+00 0.000000e+00 0.000000e+00 0.000000e+00 0.000000e+00 0.000000e+00 0.000000e+00 0.000000e+00 0.000000e+00 0.000000e+00 0.000000e+00 0.000000e+00 0.000000e+00
<ENDHMM>
~h "b"
<BEGINHMM>
<NUMSTATES> 14
<STATE> 2
<MEAN> 20
 3.139950e+03 2.918752e+01 1.595154e+01 2.809363e+00 2.499590e+01 6.876853e+02 4.366608e+02 6.343063e+01 3.932718e+01 1.276340e+02 5.166652e+02 3.704582e+02 9.773425e+02 7.914770e+02 1.326993e+03 4.114699e+02 1.596441e+02 1.288220e+01 7.006727e-01 0.000000e+00
<VARIANCE> 20
 7.473634e+06 2.414814e+03 1.379607e+03 5.500866e+01 3.665864e+03 8.425177e+05 2.269748e+05 4.660219e+03 1.012311e+03 1.711237e+04 5.028321e+05 2.070165e+05 5.234398e+06 6.450471e+05 9.369743e+05 2.110367e+05 8.731492e+04 9.191997e+02 4.563529e+00 1.000000e-02
<GCONST> 2.262491e+02
<STATE> 3
<MEAN> 20
 5.421870e+03 1.233892e+00 -1.147424e-07 0.000000e+00 2.173314e-01 4.221058e+01 1.080117e+02 1.770241e+01 1.129161e+01 6.682584e+01 8.879263e+01 2.049657e+02 6.600477e+02 1.275438e+03 3.140423e+03 2.992079e+02 4.889693e-01 -1.873009e-10 0.000000e+00 0.000000e+00
<VARIANCE> 20
 5.610042e+06 7.410871e+00 1.000000e-02 1.000000e-02 8.220928e-01 1.963803e+04 1.270320e+05 9.803203e+02 4.308770e+02 9.437853e+03 1.033651e+05 2.661454e+05 2.792400e+06 1.384796e+06 3.500759e+06 1.403940e+05 4.161633e+00 1.000000e-02 1.000000e-02 1.000000e-02
<GCONST> 1.561903e+02
<STATE> 4
<MEAN> 20
 4.200004e+03 1.317447e+01 3.338533e-02 3.334726e-02 3.335424e-01 4.176739e+02 1.806627e+02 6.257545e+01 6.003626e+01 1.703178e+02 5.587142e+01 3.117259e+02 9.092697e+02 1.255608e+03 2.120651e+03 3.591093e+02 8.990858e+01 2.701254e+00 -5.170457e-10 4.130844e-11
<VARIANCE> 20
 6.645640e+06 1.459509e+03 3.230886e-02 3.223523e-02 9.560755e-01 3.175535e+05 4.073792e+04 5.059399e+03 4.535582e+03 3.607646e+04 6.335900e+03 1.177955e+05 3.230163e+06 1.275459e+06 2.526698e+06 1.831256e+05 3.370890e+04 3.342229e+01 1.000000e-02 1.000000e-02
<GCONST> 1.846286e+02
<STATE> 5
<MEAN> 20
 7.798911e+03 1.720533e+02 6.666593e+00 1.777779e+00 5.055454e+00 9.233666e+02 2.323695e+02 7.966495e+01 7.905461e+01 3.722733e+02 2.140374e+02 6.769326e+02 2.681419e+03 2.175080e+03 3.010520e+03 5.649833e+02 3.132207e+02 3.077799e+01 3.055557e+00 1.166666e+00
<VARIANCE> 20
 2.155018e+07 3.986989e+04 1.493340e+02 4.406175e+01 5.427538e+01 1.174585e+06 9.461267e+04 1.017907e+04 1.446860e+04 2.907797e+05 5.010388e+04 5.693586e+05 1.190293e+07 2.812888e+06 1.581538e+07 1.302502e+05 1.546717e+05 2.598190e+03 2.838582e+01 6.916672e+00
<GCONST> 2.425060e+02
<STATE> 6
<MEAN> 20
 9.126631e+03 3.692308e+01 1.695121e-09 0.000000e+00 3.378599e-09 1.104766e+03 1.991319e+02 1.082585e+02 1.119767e+02 7.242695e+02 6.872191e+00 5.319600e+02 5.845993e+03 2.372746e+03 1.706363e+03 6.502625e+02 2.934270e+02 4.256706e+00 7.692857e-02 7.509609e-09
<VARIANCE> 20
 5.833444e+06 2.251564e+03 1.000000e-02 1.000000e-02 1.000000e-02 8.777523e+05 5.755445e+04 1.302815e+04 9.086161e+03 2.874431e+05 1.778120e+02 2.934697e+05 1.719793e+07 1.940894e+06 5.625919e+06 2.351023e+05 2.228085e+05 2.455401e+02 2.248676e-01 1.000000e-02
<GCONST> 1.905843e+02
<STATE> 7
<MEAN> 20
 8.474627e+03 3.012381e+01 5.749966e+00 1.124989e+00 3.499993e+00 5.644604e+02 3.338836e+02 1.036289e+02 1.072493e+02 5.314929e+02 2.138758e+02 8.933776e+02 4.899418e+03 2.493819e+03 1.173892e+03 3.964639e+02 7.386966e+01 1.112501e+01 0.000000e+00 0.000000e+00
<VARIANCE> 20
 1.018439e+07 1.279809e+03 1.286864e+02 8.859300e+00 3.649984e+01 4.637124e+05 2.272863e+05 2.238217e+04 2.408650e+04 2.689121e+05 1.385642e+05 6.272289e+05 1.470247e+07 1.559317e+06 1.909620e+06 1.800321e+05 2.102782e+04 8.228602e+02 1.000000e-02 1.000000e-02
<GCONST> 2.186439e+02
<STATE> 8
<MEAN> 20
 8.581857e+03 1.890634e+01 4.141527e-29 0.000000e+00 4.794474e-02 1.412761e+03 2.256073e+02 1.331797e+02 1.428850e+02 8.087296e+02 8.356967e+01 8.275774e+02 6.149088e+03 2.550987e+03 5.039159e+02 6.616178e+02 4.666070e+02 5.010003e+01 1.982066e+01 1.069109e+01
<VARIANCE> 20
 6.353870e+06 5.190002e+03 1.000000e-02 1.000000e-02 4.564603e-02 7.119804e+05 1.555383e+04 5.145655e+03 4.827339e+03 1.288848e+05 5.513941e+04 2.566898e+05 7.354282e+06 9.141822e+05 3.919647e+05 1.590539e+05 1.800064e+05 4.269053e+03 2.035041e+03 8.679264e+02
<GCONST> 2.132119e+02
<STATE> 9
<MEAN> 20
 9.048258e+03 2.271575e+01 2.499982e-01 0.000000e+00 2.125016e+00 1.396835e+03 2.481138e+02 1.350435e+02 1.461313e+02 1.000517e+03 1.136130e+02 8.850413e+02 7.201343e+03 2.171753e+03 4.391582e+02 7.391154e+02 4.249302e+02 2.503534e+01 -5.073721e-37 0.000000e+00
<VARIANCE> 20
 1.205096e+07 1.509007e+03 4.374973e-01 1.000000e-02 1.410949e+01 2.172618e+06 4.078435e+04 1.487925e+04 1.880510e+04 6.327911e+05 3.586746e+04 4.201862e+05 1.316724e+07 1.117412e+06 3.008813e+05 7.114334e+05 3.489408e+05 2.252137e+03 1.000000e-02 1.000000e-02
<GCONST> 2.067287e+02
<STATE> 10
<MEAN> 20
 8.557480e+03 1.376016e+01 6.143549e-02 0.000000e+00 0.000000e+00 1.448499e+03 2.110329e+02 1.154179e+02 1.255384e+02 7.628486e+02 2.194134e+01 3.436840e+02 4.980646e+03 4.001979e+03 6.520330e+02 5.711780e+02 5.163638e+02 8.273035e+01 5.260976e+01 1.147339e+01
<VARIANCE> 20
 4.773864e+06 8.547647e+02 1.190966e-01 1.000000e-02 1.000000e-02 7.290326e+05 1.971983e+04 5.471724e+03 5.424652e+03 1.788892e+05 5.370646e+03 2.529231e+05 5.251692e+06 3.165693e+06 2.992745e+05 9.552338e+04 1.664009e+05 7.736570e+03 5.639663e+03 7.402015e+02
<GCONST> 2.120064e+02
<STATE> 11
<MEAN> 20
 8.029024e+03 6.155891e+01 1.415254e+01 2.923445e+00 4.371911e+00 1.707095e+03 4.168308e+02 2.051132e+02 1.792030e+02 1.057644e+03 1.654746e+02 1.329090e+03 6.577111e+03 1.916222e+03 3.621832e+02 6.516343e+02 5.838466e+02 7.697686e+01 1.522659e+01 1.530353e-01
<VARIANCE> 20
 1.194627e+07 5.977751e+03 5.195059e+02 4.215278e+01 6.392433e+01 1.062301e+06 1.109370e+05 2.212987e+04 1.490184e+04 3.655966e+05 4.804132e+04 7.447002e+05 9.542716e+06 2.215912e+06 8.873705e+04 3.448656e+05 2.061406e+05 2.022472e+04 2.037937e+03 2.826416e-01
<GCONST> 2.414515e+02
<STATE> 12
<MEAN> 20
 9.890502e+03 2.063822e+01 1.672416e+00 4.879767e-01 1.105252e+00 1.607134e+03 4.310271e+02 2.174184e+02 2.157741e+02 1.319003e+03 3.830635e+01 1.427304e+03 8.148344e+03 2.430706e+03 5.515199e+02 1.034674e+03 6.284582e+01 8.050645e+00 2.955271e+00 5.575978e-02
<VARIANCE> 20
 3.859478e+06 1.667357e+03 1.289641e+01 1.007470e+00 6.233260e+00 1.098233e+06 1.641157e+05 2.939647e+04 2.243189e+04 3.367938e+05 3.611325e+03 2.356621e+06 3.121411e+06 2.503561e+06 2.194026e+05 4.507327e+05 1.890682e+04 1.075668e+03 1.478957e+02 5.265064e-02
<GCONST> 2.194378e+02
<STATE> 13
<MEAN> 20
 9.912396e+03 1.101664e+00 0.000000e+00 0.000000e+00 1.912132e-01 7.406424e+02 1.527490e+02 9.555799e+01 1.158902e+02 8.957412e+02 1.564400e+00 8.876614e+02 8.042469e+03 2.126066e+03 2.724618e+02 3.965641e+02 1.484765e+02 1.513111e+01 1.851348e+01 5.362304e+00
<VARIANCE> 20
 6.889499e+06 6.816470e+00 1.000000e-02 1.000000e-02 5.370772e-01 3.814631e+05 1.132813e+04 3.102633e+03 4.242888e+03 1.353133e+05 1.346044e+01 1.622395e+06 6.214233e+06 1.593336e+06 3.140021e+04 1.270294e+05 3.682226e+04 5.164470e+02 1.734108e+03 2.154388e+02
<GCONST> 1.935070e+02
<TRANSP> 14
 0.000000e+00 1.000000e+00 0.000000e+00 0.000000e+00 0.000000e+00 0.000000e+00 0.000000e+00 0.000000e+00 0.000000e+00 0.000000e+00 0.000000e+00 0.000000e+00 0.000000e+00 0.000000e+00
 0.000000e+00 6.190709e-01 3.809290e-01 0.000000e+00 0.000000e+00 0.000000e+00 0.000000e+00 0.000000e+00 0.000000e+00 0.000000e+00 0.000000e+00 0.000000e+00 0.000000e+00 0.000000e+00
 0.000000e+00 0.000000e+00 5.653425e-01 4.346575e-01 0.000000e+00 0.000000e+00 0.000000e+00 0.000000e+00 0.000000e+00 0.000000e+00 0.000000e+00 0.000000e+00 0.000000e+00 0.000000e+00
 0.000000e+00 0.000000e+00 0.000000e+00 7.332103e-01 2.667897e-01 0.000000e+00 0.000000e+00 0.000000e+00 0.000000e+00 0.000000e+00 0.000000e+00 0.000000e+00 0.000000e+00 0.000000e+00
 0.000000e+00 0.000000e+00 0.000000e+00 0.000000e+00 5.555552e-01 4.444448e-01 0.000000e+00 0.000000e+00 0.000000e+00 0.000000e+00 0.000000e+00 0.000000e+00 0.000000e+00 0.000000e+00
 0.000000e+00 0.000000e+00 0.000000e+00 0.000000e+00 0.000000e+00 7.948576e-01 2.051424e-01 0.000000e+00 0.000000e+00 0.000000e+00 0.000000e+00 0.000000e+00 0.000000e+00 0.000000e+00
 0.000000e+00 0.000000e+00 0.000000e+00 0.000000e+00 0.000000e+00 0.000000e+00 0.000000e+00 1.000000e+00 0.000000e+00 0.000000e+00 0.000000e+00 0.000000e+00 0.000000e+00 0.000000e+00
 0.000000e+00 0.000000e+00 0.000000e+00 0.000000e+00 0.000000e+00 0.000000e+00 0.000000e+00 6.164471e-01 3.835529e-01 0.000000e+00 0.000000e+00 0.000000e+00 0.000000e+00 0.000000e+00
 0.000000e+00 0.000000e+00 0.000000e+00 0.000000e+00 0.000000e+00 0.000000e+00 0.000000e+00 0.000000e+00 0.000000e+00 1.000000e+00 0.000000e+00 0.000000e+00 0.000000e+00 0.000000e+00
 0.000000e+00 0.000000e+00 0.000000e+00 0.000000e+00 0.000000e+00 0.000000e+00 0.000000e+00 0.000000e+00 0.000000e+00 7.542613e-01 2.457387e-01 0.000000e+00 0.000000e+00 0.000000e+00
 0.000000e+00 0.000000e+00 0.000000e+00 0.000000e+00 0.000000e+00 0.000000e+00 0.000000e+00 0.000000e+00 0.000000e+00 0.000000e+00 3.879050e-01 6.120950e-01 0.000000e+00 0.000000e+00
 0.000000e+00 0.000000e+00 0.000000e+00 0.000000e+00 0.000000e+00 0.000000e+00 0.000000e+00 0.000000e+00 0.000000e+00 0.000000e+00 0.000000e+00 5.538706e-01 4.461294e-01 0.000000e+00
 0.000000e+00 0.000000e+00 0.000000e+00 0.000000e+00 0.000000e+00 0.000000e+00 0.000000e+00 0.000000e+00 0.000000e+00 0.000000e+00 0.000000e+00 0.000000e+00 4.901049e-01 5.098951e-01
 0.000000e+00 0.000000e+00 0.000000e+00 0.000000e+00 0.000000e+00 0.000000e+00 0.000000e+00 0.000000e+00 0.000000e+00 0.000000e+00 0.000000e+00 0.000000e+00 0.000000e+00 0.000000e+00
<ENDHMM>
~h "c"
<BEGINHMM>
<NUMSTATES> 14
<STATE> 2
<MEAN> 20
 7.368664e+03 5.194315e+00 3.995627e-01 0.000000e+00 0.000000e+00 0.000000e+00 0.000000e+00 0.000000e+00 0.000000e+00 1.338094e+02 1.058841e+01 2.547310e+01 3.258609e+03 3.700558e+03 4.829350e+02 2.828256e+01 1.620596e+00 -1.063355e-20 0.000000e+00 0.000000e+00
<VARIANCE> 20
 1.119682e+06 2.431235e+02 1.438601e+00 1.000000e-02 1.000000e-02 1.000000e-02 1.000000e-02 1.000000e-02 1.000000e-02 9.660507e+04 1.010257e+03 4.979861e+03 8.221932e+05 9.282406e+05 4.657913e+04 8.411657e+02 6.120924e+00 1.000000e-02 1.000000e-02 1.000000e-02
<GCONST> 8.866248e+01
<STATE> 3
<MEAN> 20
 3.972935e+03 7.272206e+01 1.654004e+02 0.000000e+00 0.000000e+00 0.000000e+00 0.000000e+00 0.000000e+00 0.000000e+00 3.294126e+01 0.000000e+00 3.957176e+00 1.173479e+03 1.888646e+03 6.968096e+02 3.542269e+02 1.214858e+02 4.650585e+00 7.441327e-01 0.000000e+00
<VARIANCE> 20
 7.121538e+06 3.007668e+04 2.566325e+05 1.000000e-02 1.000000e-02 1.000000e-02 1.000000e-02 1.000000e-02 1.000000e-02 5.420013e+03 1.000000e-02 1.148635e+02 1.730352e+06 2.449614e+06 2.429247e+05 3.137674e+05 3.664464e+04 1.747383e+02 7.631726e+00 1.000000e-02
<GCONST> 1.236401e+02
<STATE> 4
<MEAN> 20
 5.235184e+03 2.277923e+02 0.000000e+00 0.000000e+00 0.000000e+00 0.000000e+00 7.396620e+00 2.478867e+01 1.039525e+01 1.186765e+02 2.379120e+01 3.929065e+01 1.329765e+03 2.747985e+03 5.670114e+02 7.347563e+02 1.648337e+02 1.380020e+01 3.000044e+00 0.000000e+00
<VARIANCE> 20
 1.049600e+07 1.134765e+05 1.000000e-02 1.000000e-02 1.000000e-02 1.000000e-02 2.189649e+02 2.459317e+03 4.324918e+02 1.869796e+04 1.411721e+03 1.560200e+03 2.378007e+06 5.862020e+06 2.079808e+05 1.815908e+06 4.010433e+04 7.617683e+02 3.600039e+01 1.000000e-02
<GCONST> 1.629865e+02
<STATE> 5
<MEAN> 20
 3.242407e+03 8.083633e+01 2.039510e+01 6.798359e-02 0.000000e+00 0.000000e+00 0.000000e+00 0.000000e+00 0.000000e+00 2.447425e+00 3.059266e+00 2.644568e+01 2.111533e+02 9.110225e+02 1.605964e+03 5.046191e+02 8.239442e+01 1.087737e+00 4.079015e-01 0.000000e+00
<VARIANCE> 20
 4.843540e+06 1.354275e+04 3.769247e+03 6.336182e-02 1.000000e-02 1.000000e-02 1.000000e-02 1.000000e-02 1.000000e-02 7.735854e+01 5.338980e+01 2.868757e+03 3.451141e+05 1.421782e+06 3.401020e+06 3.572177e+05 2.643697e+04 1.091790e+01 2.281025e+00 1.000000e-02
<GCONST> 1.239390e+02
<STATE> 6
<MEAN> 20
 3.096800e+03 2.990883e+01 0.000000e+00 0.000000e+00 0.000000e+00 0.000000e+00 0.000000e+00 0.000000e+00 1.272716e+00 8.590855e+01 2.545433e+00 1.872714e+01 3.086339e+02 9.208110e+02 1.417171e+03 3.025432e+02 1.709992e+02 4.064075e+01 1.845463e+01 1.336353e+01
<VARIANCE> 20
 9.201401e+06 3.121155e+03 1.000000e-02 1.000000e-02 1.000000e-02 1.000000e-02 1.000000e-02 1.000000e-02 8.925557e+00 2.242143e+04 6.479290e+01 6.849227e+02 5.095437e+05 1.259072e+06 3.872188e+06 6.113210e+04 9.371746e+04 6.999604e+03 1.406786e+03 1.656763e+03
<GCONST> 1.444552e+02
<STATE> 7
<MEAN> 20
 3.042592e+03 1.608592e+02 4.285745e-01 0.000000e+00 0.000000e+00 0.000000e+00 5.428610e+00 1.671441e+01 4.428604e+00 4.285760e+01 3.200023e+01 7.114341e+01 2.807164e+02 9.821520e+02 1.309297e+03 1.495730e+02 1.630013e+02 2.318532e+02 5.200044e+01 1.571428e+00
<VARIANCE> 20
 3.679160e+06 9.404280e+04 1.102047e+00 1.000000e-02 1.000000e-02 1.000000e-02 7.367379e+01 1.578499e+03 1.011026e+02 3.352716e+03 2.652583e+03 1.576934e+04 2.132420e+05 1.278364e+06 1.432357e+06 1.849286e+04 7.606435e+04 7.482955e+04 6.134642e+03 7.387850e+00
<GCONST> 1.750706e+02
<STATE> 8
<MEAN> 20
 2.492621e+03 5.383754e+02 3.425005e+01 2.500005e-01 1.225002e+01 7.500014e-01 2.797505e+02 7.262506e+01 1.387503e+01 6.687487e+01 6.228755e+02 1.160000e+02 3.178738e+02 9.787471e+02 6.166243e+02 3.238756e+02 2.683755e+02 2.183754e+02 4.850009e+01 3.750007e-01
<VARIANCE> 20
 4.516502e+06 2.676550e+05 6.674198e+03 4.375007e-01 4.164380e+02 3.937507e+00 1.489688e+05 6.369991e+03 9.246108e+02 3.116606e+03 3.581872e+05 9.576739e+03 3.930678e+05 1.944432e+06 1.119279e+06 1.840285e+05 9.072502e+04 3.399721e+04 2.261750e+03 9.843767e-01
<GCONST> 2.204315e+02
<STATE> 9
<MEAN> 20
 7.419478e+03 3.945515e+02 1.685723e+03 7.241389e-01 0.000000e+00 0.000000e+00 0.000000e+00 0.000000e+00 0.000000e+00 8.627568e+01 0.000000e+00 3.815857e+02 6.586028e+03 2.023621e+03 5.753804e+02 1.982756e+01 3.103440e-01 0.000000e+00 0.000000e+00 0.000000e+00
<VARIANCE> 20
 6.299354e+06 4.212104e+04 9.049448e+05 9.992892e+00 1.000000e-02 1.000000e-02 1.000000e-02 1.000000e-02 1.000000e-02 2.625809e+04 1.000000e-02 1.203720e+05 1.587876e+07 5.955699e+05 8.774489e+05 8.825554e+02 6.967880e-01 1.000000e-02 1.000000e-02 1.000000e-02
<GCONST> 1.094909e+02
<STATE> 10
<MEAN> 20
 6.685759e+03 2.400610e+02 8.436726e+02 1.339261e+01 3.754944e-01 0.000000e+00 4.255604e+00 1.264165e+01 8.135712e+00 2.271734e+02 1.364296e+01 4.838383e+02 4.217343e+03 1.316123e+03 1.854810e+03 1.489591e+02 7.496719e-01 7.333982e-29 0.000000e+00 0.000000e+00
<VARIANCE> 20
 5.663582e+06 5.060238e+04 8.241701e+05 1.253647e+03 9.854872e-01 1.000000e-02 7.926806e+01 1.019867e+03 4.015511e+02 7.691645e+04 5.109124e+02 3.659825e+05 2.174683e+07 4.014411e+05 3.674640e+06 2.982396e+04 1.188981e+00 1.000000e-02 1.000000e-02 1.000000e-02
<GCONST> 1.684431e+02
<STATE> 11
<MEAN> 20
 5.265767e+03 2.696403e+02 9.906124e+02 5.987404e-01 0.000000e+00 0.000000e+00 1.995807e+00 1.995808e+00 8.981111e+00 2.127524e+02 2.454840e+01 5.006220e+02 4.377699e+03 9.793165e+02 2.361102e+02 5.069127e+02 1.251389e+02 1.397061e+00 3.991603e-01 1.995801e-01
<VARIANCE> 20
 1.410151e+07 4.997177e+04 7.977482e+05 1.437731e+00 1.000000e-02 1.000000e-02 6.394944e+00 5.995791e+00 2.731953e+02 9.507759e+04 1.230521e+03 3.998041e+05 2.180930e+07 1.178205e+06 1.473712e+05 8.143864e+05 4.665817e+04 2.239403e+00 6.389917e-01 1.597479e-01
<GCONST> 1.751770e+02
<STATE> 12
<MEAN> 20
 7.186391e+03 4.209687e+02 1.818411e+03 3.862203e+00 0.000000e+00 0.000000e+00 0.000000e+00 0.000000e+00 0.000000e+00 1.035994e+02 0.000000e+00 2.882992e+02 6.540595e+03 2.297387e+03 1.614592e+02 1.213773e+02 1.210360e+02 3.050601e+00 2.798704e-02 0.000000e+00
<VARIANCE> 20
 7.171976e+06 7.349608e+03 3.853989e+05 1.028525e+02 1.000000e-02 1.000000e-02 1.000000e-02 1.000000e-02 1.000000e-02 2.945482e+04 1.000000e-02 7.507136e+04 1.014076e+07 1.465748e+06 2.421512e+04 7.938028e+04 1.134230e+05 9.785571e+01 2.720378e-02 1.000000e-02
<GCONST> 1.325462e+02
<STATE> 13
<MEAN> 20
 3.465943e+03 1.513357e+02 6.209493e+02 0.000000e+00 0.000000e+00 0.000000e+00 3.333339e-01 5.555565e-01 0.000000e+00 6.616354e+01 3.888896e+00 1.001040e+02 2.032804e+03 1.340682e+03 5.457870e+02 1.139836e+02 6.347504e+01 7.300075e+01 3.055564e+01 1.000060e+00
<VARIANCE> 20
 9.509753e+06 3.398140e+04 7.941949e+05 1.000000e-02 1.000000e-02 1.000000e-02 8.888903e-01 2.469140e+00 1.000000e-02 1.444835e+04 1.209878e+02 1.363133e+04 8.609903e+06 2.307936e+06 5.618853e+05 1.935745e+04 5.659319e+03 1.685216e+04 2.248246e+03 3.555502e+00
<GCONST> 1.641935e+02
<TRANSP> 14
 0.000000e+00 1.000000e+00 0.000000e+00 0.000000e+00 0.000000e+00 0.000000e+00 0.000000e+00 0.000000e+00 0.000000e+00 0.000000e+00 0.000000e+00 0.000000e+00 0.000000e+00 0.000000e+00
 0.000000e+00 6.004382e-01 3.995618e-01 0.000000e+00 0.000000e+00 0.000000e+00 0.000000e+00 0.000000e+00 0.000000e+00 0.000000e+00 0.000000e+00 0.000000e+00 0.000000e+00 0.000000e+00
 0.000000e+00 0.000000e+00 7.294069e-01 2.705931e-01 0.000000e+00 0.000000e+00 0.000000e+00 0.000000e+00 0.000000e+00 0.000000e+00 0.000000e+00 0.000000e+00 0.000000e+00 0.000000e+00
 0.000000e+00 0.000000e+00 0.000000e+00 1.999902e-01 8.000098e-01 0.000000e+00 0.000000e+00 0.000000e+00 0.000000e+00 0.000000e+00 0.000000e+00 0.000000e+00 0.000000e+00 0.000000e+00
 0.000000e+00 0.000000e+00 0.000000e+00 0.000000e+00 7.280649e-01 2.719352e-01 0.000000e+00 0.000000e+00 0.000000e+00 0.000000e+00 0.000000e+00 0.000000e+00 0.000000e+00 0.000000e+00
 0.000000e+00 0.000000e+00 0.000000e+00 0.000000e+00 0.000000e+00 6.363657e-01 3.636343e-01 0.000000e+00 0.000000e+00 0.000000e+00 0.000000e+00 0.000000e+00 0.000000e+00 0.000000e+00
 0.000000e+00 0.000000e+00 0.000000e+00 0.000000e+00 0.000000e+00 0.000000e+00 4.285656e-01 5.714344e-01 0.000000e+00 0.000000e+00 0.000000e+00 0.000000e+00 0.000000e+00 0.000000e+00
 0.000000e+00 0.000000e+00 0.000000e+00 0.000000e+00 0.000000e+00 0.000000e+00 0.000000e+00 5.000010e-01 4.999991e-01 0.000000e+00 0.000000e+00 0.000000e+00 0.000000e+00 0.000000e+00
 0.000000e+00 0.000000e+00 0.000000e+00 0.000000e+00 0.000000e+00 0.000000e+00 0.000000e+00 0.000000e+00 8.620689e-01 1.379311e-01 0.000000e+00 0.000000e+00 0.000000e+00 0.000000e+00
 0.000000e+00 0.000000e+00 0.000000e+00 0.000000e+00 0.000000e+00 0.000000e+00 0.000000e+00 0.000000e+00 0.000000e+00 4.993434e-01 5.006567e-01 0.000000e+00 0.000000e+00 0.000000e+00
 0.000000e+00 0.000000e+00 0.000000e+00 0.000000e+00 0.000000e+00 0.000000e+00 0.000000e+00 0.000000e+00 0.000000e+00 0.000000e+00 2.016788e-01 7.983212e-01 0.000000e+00 0.000000e+00
 0.000000e+00 0.000000e+00 0.000000e+00 0.000000e+00 0.000000e+00 0.000000e+00 0.000000e+00 0.000000e+00 0.000000e+00 0.000000e+00 0.000000e+00 8.880520e-01 1.119479e-01 0.000000e+00
 0.000000e+00 0.000000e+00 0.000000e+00 0.000000e+00 0.000000e+00 0.000000e+00 0.000000e+00 0.000000e+00 0.000000e+00 0.000000e+00 0.000000e+00 0.000000e+00 5.555546e-01 4.444454e-01
 0.000000e+00 0.000000e+00 0.000000e+00 0.000000e+00 0.000000e+00 0.000000e+00 0.000000e+00 0.000000e+00 0.000000e+00 0.000000e+00 0.000000e+00 0.000000e+00 0.000000e+00 0.000000e+00
<ENDHMM>
~h "d"
<BEGINHMM>
<NUMSTATES> 14
<STATE> 2
<MEAN> 20
 1.228906e+04 1.788580e+01 3.061414e-25 0.000000e+00 0.000000e+00 0.000000e+00 0.000000e+00 0.000000e+00 0.000000e+00 1.431494e+02 8.951983e-01 1.313565e+02 6.210496e+03 4.855439e+03 4.594161e+02 1.855460e+02 2.929072e+02 2.432357e+02 6.076235e+01 1.004192e+01
<VARIANCE> 20
 3.853398e+06 1.546204e+03 1.000000e-02 1.000000e-02 1.000000e-02 1.000000e-02 1.000000e-02 1.000000e-02 1.000000e-02 1.192988e+04 1.492864e+01 9.487843e+04 5.001919e+06 2.842028e+06 6.134915e+04 5.290080e+03 1.639668e+04 1.947573e+04 3.529884e+03 2.758727e+02
<GCONST> 1.338338e+02
<STATE> 3
<MEAN> 20
 1.302986e+04 2.788290e+01 3.856255e-02 0.000000e+00 0.000000e+00 0.000000e+00 0.000000e+00 0.000000e+00 0.000000e+00 2.591047e+02 3.168835e-01 4.276407e+02 7.953626e+03 3.875408e+03 3.324977e+02 1.398594e+02 1.870701e+02 3.000150e+02 9.372592e+01 6.723834e+00
<VARIANCE> 20
 7.022492e+06 2.098541e+03 3.707547e-02 1.000000e-02 1.000000e-02 1.000000e-02 1.000000e-02 1.000000e-02 1.000000e-02 2.306957e+04 2.008552e+00 3.471060e+05 5.629901e+06 3.080798e+06 1.814620e+04 5.740914e+03 2.764804e+04 2.984578e+04 8.591000e+03 8.738686e+01
<GCONST> 1.357522e+02
<STATE> 4
<MEAN> 20
 1.272155e+04 1.025409e+01 0.000000e+00 0.000000e+00 0.000000e+00 0.000000e+00 0.000000e+00 0.000000e+00 7.856015e-02 2.517734e+02 7.811074e+00 3.020107e+02 9.170868e+03 2.719260e+03 2.514254e+02 1.010568e+02 1.440052e+02 2.274489e+02 5.716529e+01 2.602281e+00
<VARIANCE> 20
 3.391236e+06 1.090639e+02 1.000000e-02 1.000000e-02 1.000000e-02 1.000000e-02 1.000000e-02 1.000000e-02 7.238845e-02 2.365542e+04 3.780485e+02 9.358681e+04 5.409195e+06 1.563618e+06 6.258183e+03 8.643223e+02 8.437168e+03 9.298959e+03 1.760115e+03 4.526987e+01
<GCONST> 1.284160e+02
<STATE> 5
<MEAN> 20
 1.130740e+04 1.130834e+00 -6.041981e-09 0.000000e+00 0.000000e+00 0.000000e+00 0.000000e+00 0.000000e+00 0.000000e+00 2.662217e+02 4.518840e-08 1.813904e+02 7.999001e+03 2.687567e+03 2.365825e+02 1.204709e+02 1.519827e+02 1.742776e+02 2.263764e+01 8.394292e-01
<VARIANCE> 20
 4.218384e+06 1.172178e+01 1.000000e-02 1.000000e-02 1.000000e-02 1.000000e-02 1.000000e-02 1.000000e-02 1.000000e-02 3.165327e+04 1.000000e-02 4.795275e+04 4.112364e+06 1.564456e+06 1.400143e+04 6.070781e+03 1.472284e+04 1.672763e+04 1.029157e+03 7.929809e+00
<GCONST> 1.148529e+02
<STATE> 6
<MEAN> 20
 1.230961e+04 2.843066e+01 0.000000e+00 0.000000e+00 0.000000e+00 0.000000e+00 0.000000e+00 0.000000e+00 5.020033e-01 3.874258e+02 2.194247e+00 5.604545e+02 9.260770e+03 2.182646e+03 2.867110e+02 1.221064e+02 1.206260e+02 1.692320e+02 2.030245e+01 9.286171e-01
<VARIANCE> 20
 2.800336e+06 1.240772e+03 1.000000e-02 1.000000e-02 1.000000e-02 1.000000e-02 1.000000e-02 1.000000e-02 2.265090e+00 9.054770e+03 4.343849e+01 2.042059e+05 3.408952e+06 2.145832e+06 1.612452e+04 8.346845e+03 4.764164e+03 5.911950e+03 3.558037e+02 7.368104e+00
<GCONST> 1.303860e+02
<STATE> 7
<MEAN> 20
 1.117585e+04 1.681594e+00 0.000000e+00 0.000000e+00 0.000000e+00 0.000000e+00 0.000000e+00 1.296741e-01 3.241853e-02 3.941447e+02 2.593483e-01 4.906874e+02 7.650785e+03 2.605469e+03 2.819877e+02 1.316477e+02 1.788554e+02 1.879305e+02 4.162338e+01 2.589721e+00
<VARIANCE> 20
 2.392229e+06 1.282093e+01 1.000000e-02 1.000000e-02 1.000000e-02 1.000000e-02 1.000000e-02 5.018807e-01 3.136754e-02 5.151836e+04 1.229478e+00 6.554511e+05 2.365852e+06 1.592336e+06 1.068183e+04 4.585255e+03 1.015532e+04 1.042796e+04 1.657344e+03 3.165972e+01
<GCONST> 1.272788e+02
<STATE> 8
<MEAN> 20
 1.204730e+04 1.543020e+00 0.000000e+00 0.000000e+00 0.000000e+00 0.000000e+00 0.000000e+00 0.000000e+00 9.449582e-01 4.444617e+02 8.188319e-02 8.215059e+02 9.379394e+03 1.623392e+03 2.407387e+02 1.341913e+02 1.584970e+02 1.275725e+02 8.832405e+00 4.356012e-02
<VARIANCE> 20
 1.946393e+06 1.272576e+01 1.000000e-02 1.000000e-02 1.000000e-02 1.000000e-02 1.000000e-02 1.000000e-02 1.164706e+01 4.412716e+04 1.570615e-01 9.161389e+05 2.086585e+06 9.666307e+05 9.514211e+03 3.784721e+03 1.718500e+04 1.135310e+04 2.235641e+02 4.411612e-02
<GCONST> 1.182880e+02
<STATE> 9
<MEAN> 20
 1.058241e+04 5.960562e+00 0.000000e+00 0.000000e+00 0.000000e+00 0.000000e+00 0.000000e+00 0.000000e+00 0.000000e+00 6.653802e+02 1.077830e-01 1.316594e+03 8.474744e+03 8.222060e+02 1.801510e+02 1.026858e+02 1.670761e+02 1.792617e+02 9.202183e+00 1.723939e+00
<VARIANCE> 20
 1.918752e+06 3.170422e+02 1.000000e-02 1.000000e-02 1.000000e-02 1.000000e-02 1.000000e-02 1.000000e-02 1.000000e-02 1.381706e+05 5.272971e-01 8.738773e+05 1.469419e+06 3.402131e+05 8.589794e+03 3.794310e+03 1.842215e+04 1.643495e+04 2.155190e+02 2.033010e+01
<GCONST> 1.217754e+02
<STATE> 10
<MEAN> 20
 7.245254e+03 4.426794e-01 0.000000e+00 0.000000e+00 0.000000e+00 0.000000e+00 0.000000e+00 0.000000e+00 0.000000e+00 3.442400e+02 4.622115e-09 7.913780e+02 4.805092e+03 1.258431e+03 2.483333e+02 1.228959e+02 1.241837e+02 1.659071e+02 7.200201e+01 1.714255e+00
<VARIANCE> 20
 1.071640e+07 2.460111e+00 1.000000e-02 1.000000e-02 1.000000e-02 1.000000e-02 1.000000e-02 1.000000e-02 1.000000e-02 1.209231e+05 1.000000e-02 5.789384e+05 7.037422e+06 1.297102e+06 1.409776e+04 2.877607e+03 1.240797e+04 2.095280e+04 1.148097e+04 2.685672e+01
<GCONST> 1.213515e+02
<STATE> 11
<MEAN> 20
 5.491623e+03 5.991566e+01 7.646885e-01 1.176438e-01 8.235064e-01 5.764596e+00 1.117622e+01 8.470381e+00 7.117474e+00 2.719725e+02 1.129400e+01 4.701283e+02 2.331033e+03 1.687562e+03 1.153833e+03 1.038084e+02 4.772665e+01 4.035485e+01 1.200566e+01 -0.000000e+00
<VARIANCE> 20
 9.180883e+06 2.315530e+04 6.650348e+00 2.214474e-01 1.085093e+01 4.762893e+02 9.793036e+02 5.682364e+02 3.955068e+02 1.602488e+05 4.492632e+02 7.270409e+05 9.931262e+06 7.440465e+05 1.012644e+06 6.833158e+03 4.829352e+03 3.255039e+03 7.052357e+02 1.000000e-02
<GCONST> 1.933884e+02
<STATE> 12
<MEAN> 20
 3.764202e+03 6.982849e+01 2.807077e+01 9.856905e+00 8.506947e+01 9.006927e+01 4.276334e+02 2.564275e+01 1.247245e+01 3.849959e+02 6.813162e+02 6.352139e+02 2.389359e+03 5.639705e+02 4.795041e+02 9.255566e+01 2.656927e+01 2.894694e+01 1.195229e-01 2.857081e-01
<VARIANCE> 20
 1.448300e+07 1.202807e+04 1.690612e+03 4.335433e+02 1.035487e+04 1.114599e+04 2.157847e+05 8.475326e+02 2.051136e+02 2.001445e+05 3.434069e+05 6.103418e+05 1.082351e+07 3.443634e+05 2.713623e+05 8.927760e+03 3.248133e+03 5.043129e+03 3.938127e-01 1.061204e+00
<GCONST> 2.236270e+02
<STATE> 13
<MEAN> 20
 5.590005e+03 1.216083e+01 0.000000e+00 0.000000e+00 8.908925e+00 1.081798e+01 2.699949e+01 1.909055e+00 3.497889e-02 3.550048e+02 7.401089e+01 5.386260e+02 2.709064e+03 7.398036e+02 9.396259e+02 8.646942e+02 7.476261e+01 5.480351e+01 8.722844e+00 1.727240e+00
<VARIANCE> 20
 1.082035e+07 8.016593e+02 1.000000e-02 1.000000e-02 7.937056e+02 1.170311e+03 7.289876e+03 3.644566e+01 1.386918e-01 2.725673e+05 5.300841e+04 7.045798e+05 1.323088e+07 7.021424e+05 1.121616e+06 1.178596e+06 4.986918e+03 6.710722e+03 3.192957e+02 2.983421e+01
<GCONST> 1.958042e+02
<TRANSP> 14
 0.000000e+00 1.000000e+00 0.000000e+00 0.000000e+00 0.000000e+00 0.000000e+00 0.000000e+00 0.000000e+00 0.000000e+00 0.000000e+00 0.000000e+00 0.000000e+00 0.000000e+00 0.000000e+00
 0.000000e+00 9.032212e-01 9.677882e-02 0.000000e+00 0.000000e+00 0.000000e+00 0.000000e+00 0.000000e+00 0.000000e+00 0.000000e+00 0.000000e+00 0.000000e+00 0.000000e+00 0.000000e+00
 0.000000e+00 0.000000e+00 6.914884e-01 3.085116e-01 0.000000e+00 0.000000e+00 0.000000e+00 0.000000e+00 0.000000e+00 0.000000e+00 0.000000e+00 0.000000e+00 0.000000e+00 0.000000e+00
 0.000000e+00 0.000000e+00 0.000000e+00 3.714927e-01 6.285073e-01 0.000000e+00 0.000000e+00 0.000000e+00 0.000000e+00 0.000000e+00 0.000000e+00 0.000000e+00 0.000000e+00 0.000000e+00
 0.000000e+00 0.000000e+00 0.000000e+00 0.000000e+00 8.800237e-01 1.199763e-01 0.000000e+00 0.000000e+00 0.000000e+00 0.000000e+00 0.000000e+00 0.000000e+00 0.000000e+00 0.000000e+00
 0.000000e+00 0.000000e+00 0.000000e+00 0.000000e+00 0.000000e+00 2.024821e-01 7.975179e-01 0.000000e+00 0.000000e+00 0.000000e+00 0.000000e+00 0.000000e+00 0.000000e+00 0.000000e+00
 0.000000e+00 0.000000e+00 0.000000e+00 0.000000e+00 0.000000e+00 0.000000e+00 7.406398e-01 2.593601e-01 0.000000e+00 0.000000e+00 0.000000e+00 0.000000e+00 0.000000e+00 0.000000e+00
 0.000000e+00 0.000000e+00 0.000000e+00 0.000000e+00 0.000000e+00 0.000000e+00 0.000000e+00 6.708010e-01 3.291990e-01 0.000000e+00 0.000000e+00 0.000000e+00 0.000000e+00 0.000000e+00
 0.000000e+00 0.000000e+00 0.000000e+00 0.000000e+00 0.000000e+00 0.000000e+00 0.000000e+00 0.000000e+00 9.137695e-01 8.623052e-02 0.000000e+00 0.000000e+00 0.000000e+00 0.000000e+00
 0.000000e+00 0.000000e+00 0.000000e+00 0.000000e+00 0.000000e+00 0.000000e+00 0.000000e+00 0.000000e+00 0.000000e+00 3.469577e-01 6.530423e-01 0.000000e+00 0.000000e+00 0.000000e+00
 0.000000e+00 0.000000e+00 0.000000e+00 0.000000e+00 0.000000e+00 0.000000e+00 0.000000e+00 0.000000e+00 0.000000e+00 0.000000e+00 5.294023e-01 4.705977e-01 0.000000e+00 0.000000e+00
 0.000000e+00 0.000000e+00 0.000000e+00 0.000000e+00 0.000000e+00 0.000000e+00 0.000000e+00 0.000000e+00 0.000000e+00 0.000000e+00 0.000000e+00 4.285615e-01 5.714386e-01 0.000000e+00
 0.000000e+00 0.000000e+00 0.000000e+00 0.000000e+00 0.000000e+00 0.000000e+00 0.000000e+00 0.000000e+00 0.000000e+00 0.000000e+00 0.000000e+00 0.000000e+00 2.727126e-01 7.272874e-01
 0.000000e+00 0.000000e+00 0.000000e+00 0.000000e+00 0.000000e+00 0.000000e+00 0.000000e+00 0.000000e+00 0.000000e+00 0.000000e+00 0.000000e+00 0.000000e+00 0.000000e+00 0.000000e+00
<ENDHMM>
~h "e"
<BEGINHMM>
<NUMSTATES> 14
<STATE> 2
<MEAN> 20
 8.297054e+03 3.307782e-01 0.000000e+00 0.000000e+00 0.000000e+00 1.326351e+03 1.940534e+02 1.145540e+02 1.281787e+02 9.625451e+02 1.218766e+00 4.807129e+02 6.513217e+03 2.556732e+03 3.698745e+02 6.709177e+02 3.076871e+02 6.493401e+01 4.952888e+01 8.244078e+00
<VARIANCE> 20
 6.390400e+06 4.686910e+00 1.000000e-02 1.000000e-02 1.000000e-02 4.206432e+05 1.726863e+04 4.168508e+03 2.970314e+03 1.190114e+05 8.154443e+00 2.483787e+05 3.550780e+06 3.558630e+06 3.546944e+04 1.221924e+05 4.850405e+04 4.146697e+03 5.960527e+03 3.258882e+02
<GCONST> 1.913596e+02
<STATE> 3
<MEAN> 20
 1.029580e+04 2.422604e+01 4.846054e-02 9.753088e-04 2.471813e-02 9.212750e+02 2.349181e+02 1.328527e+02 1.483861e+02 1.073900e+03 6.599631e+00 5.786119e+02 9.030054e+03 2.196068e+03 3.855134e+02 5.575919e+02 7.681901e+01 1.701716e-01 2.904084e-25 -0.000000e+00
<VARIANCE> 20
 6.162788e+06 2.031437e+03 4.611213e-02 1.000000e-02 2.410713e-02 4.040356e+05 3.874101e+04 7.692243e+03 5.816814e+03 1.565066e+05 1.054687e+02 3.402904e+05 3.394552e+06 2.227267e+06 4.111863e+04 1.686635e+05 1.874220e+04 3.550696e-01 1.000000e-02 1.000000e-02
<GCONST> 1.709548e+02
<STATE> 4
<MEAN> 20
 1.248591e+04 2.683219e+01 -1.942678e-31 0.000000e+00 0.000000e+00 8.390684e+02 1.354076e+02 8.204235e+01 1.025527e+02 1.029843e+03 8.072322e+00 3.594712e+02 1.068091e+04 2.611342e+03 3.530799e+02 4.969855e+02 1.218784e+02 4.995297e+01 1.863479e+01 1.332901e+00
<VARIANCE> 20
 6.326333e+06 1.988033e+03 1.000000e-02 1.000000e-02 1.000000e-02 2.560708e+05 5.652090e+03 1.389688e+03 1.745850e+03 1.346980e+05 5.034328e+02 1.609844e+05 6.758874e+06 1.696013e+06 2.165226e+04 7.230209e+04 1.435694e+04 3.820453e+03 8.175177e+02 8.188995e+00
<GCONST> 1.898841e+02
<STATE> 5
<MEAN> 20
 1.058776e+04 3.847014e+01 3.319302e-01 2.370972e-02 1.422580e-01 1.230185e+03 2.848682e+02 1.537075e+02 1.745226e+02 1.597486e+03 1.875073e+01 1.029339e+03 1.035177e+04 1.356278e+03 5.078006e+02 6.592297e+02 1.408256e+02 3.503535e+00 1.464882e-27 0.000000e+00
<VARIANCE> 20
 6.149842e+06 8.196832e+03 1.027873e+00 2.314758e-02 4.539566e-01 5.199232e+05 5.391488e+04 9.897571e+03 7.465945e+03 3.617345e+05 6.302800e+02 8.110889e+05 5.813983e+06 1.689800e+06 5.297368e+04 2.011944e+05 4.063787e+04 1.033803e+02 1.000000e-02 1.000000e-02
<GCONST> 1.909446e+02
<STATE> 6
<MEAN> 20
 1.154188e+04 3.278262e+01 6.550736e-01 0.000000e+00 0.000000e+00 1.079872e+03 1.840475e+02 1.077596e+02 1.325703e+02 1.622007e+03 8.517077e+00 9.961562e+02 1.055410e+04 1.838927e+03 4.597823e+02 6.121374e+02 1.478003e+02 6.381543e+01 1.882471e+01 1.517013e+00
<VARIANCE> 20
 3.458788e+06 1.116112e+03 7.879920e+00 1.000000e-02 1.000000e-02 3.193218e+05 1.604964e+04 3.295906e+03 3.510240e+03 6.537790e+05 1.238857e+02 8.055141e+05 3.460673e+06 1.921060e+06 2.050051e+04 1.087116e+05 1.144582e+04 4.546386e+03 9.462593e+02 2.355686e+01
<GCONST> 2.009454e+02
<STATE> 7
<MEAN> 20
 7.663797e+03 2.125305e+00 0.000000e+00 0.000000e+00 8.435087e-02 1.022340e+03 2.032506e+02 1.248608e+02 1.440208e+02 1.645181e+03 2.561548e+00 1.403080e+03 7.884567e+03 4.834043e+02 3.294846e+02 6.008916e+02 8.826134e+01 1.318786e+01 2.220240e-01 0.000000e+00
<VARIANCE> 20
 8.175834e+06 3.494099e+01 1.000000e-02 1.000000e-02 2.459374e-01 3.972260e+05 3.055737e+04 7.781742e+03 7.592568e+03 4.536448e+05 2.489726e+01 9.162300e+05 6.076226e+06 1.044105e+05 4.029831e+04 1.821284e+05 1.633267e+04 1.303401e+03 5.695419e-01 1.000000e-02
<GCONST> 1.782949e+02
<STATE> 8
<MEAN> 20
 9.986016e+03 3.964715e+01 3.921684e-02 0.000000e+00 0.000000e+00 1.015551e+03 1.519129e+02 9.597675e+01 1.242415e+02 2.190909e+03 1.245042e+01 2.421277e+03 9.426392e+03 5.744427e+02 3.842560e+02 5.582169e+02 1.628045e+02 5.068950e+01 1.303953e+01 7.255058e-01
<VARIANCE> 20
 3.661936e+06 3.419635e+03 7.689577e-02 1.000000e-02 1.000000e-02 1.668292e+05 1.169028e+04 2.570351e+03 3.287809e+03 6.594524e+05 4.791648e+02 1.349424e+06 3.946368e+06 6.949748e+04 2.018890e+04 6.018571e+04 1.452509e+04 3.112451e+03 4.932988e+02 5.022768e+00
<GCONST> 1.919574e+02
<STATE> 9
<MEAN> 20
 8.794247e+03 5.411661e+01 3.294746e+00 0.000000e+00 1.996820e-01 1.207587e+03 2.440198e+02 1.651546e+02 1.785291e+02 2.321241e+03 2.085261e+01 2.800714e+03 7.866562e+03 7.747192e+02 5.708170e+02 6.449877e+02 1.985254e+02 4.900425e+01 4.000554e+01 2.200993e+00
<VARIANCE> 20
 8.789015e+06 6.577302e+03 8.289516e+01 1.000000e-02 7.588544e-01 4.687015e+05 4.717170e+04 1.314696e+04 9.761030e+03 7.101826e+05 1.117937e+03 2.544072e+06 8.591639e+06 1.415192e+05 1.157218e+05 9.973827e+04 5.080560e+04 4.634921e+03 9.500540e+03 4.028799e+01
<GCONST> 2.219336e+02
<STATE> 10
<MEAN> 20
 4.416899e+03 2.143355e+01 1.117928e+01 3.932019e+00 6.368331e+01 2.680034e+02 3.828420e+02 1.011179e+02 8.024906e+01 8.262244e+02 5.493231e+02 1.008374e+03 3.165249e+03 7.959841e+02 4.856491e+02 1.453601e+02 2.302542e+01 1.520009e+00 3.083937e-01 7.709842e-01
<VARIANCE> 20
 1.050312e+07 1.210259e+03 1.226790e+03 1.628678e+02 2.025681e+04 1.083914e+05 2.106556e+05 1.133197e+04 7.812931e+03 7.407778e+05 7.336496e+05 1.089830e+06 1.093140e+07 4.279336e+05 2.283668e+05 4.318083e+04 1.314096e+03 6.963812e+00 5.216807e-01 3.414701e+00
<GCONST> 2.271026e+02
<STATE> 11
<MEAN> 20
 5.957726e+03 1.649544e+02 3.576676e+01 0.000000e+00 1.092875e+00 2.893546e+02 3.160555e+02 1.044727e+02 8.658122e+01 8.437802e+02 1.667791e+02 1.153267e+03 3.843128e+03 1.050445e+03 6.094218e+02 3.302789e+02 3.469618e+02 2.257807e+02 6.120318e+01 1.251836e+01
<VARIANCE> 20
 8.532533e+06 1.100831e+05 4.429907e+03 1.000000e-02 5.660926e+00 1.700299e+05 1.653068e+05 1.427260e+04 8.473066e+03 9.052434e+05 9.501614e+04 1.333817e+06 1.271605e+07 1.224322e+06 4.384004e+05 6.266252e+04 2.935455e+05 2.057812e+05 1.349477e+04 3.489929e+02
<GCONST> 2.464040e+02
<STATE> 12
<MEAN> 20
 4.621396e+03 1.164825e+02 9.910700e+01 5.276207e+00 2.017794e+01 4.712138e+02 1.530001e+02 6.713255e+01 7.612133e+01 8.622818e+02 1.396935e+02 7.983913e+02 2.760208e+03 9.999810e+02 1.392917e+03 3.194277e+02 6.804678e+01 1.316074e+01 3.629334e-01 0.000000e+00
<VARIANCE> 20
 7.052720e+06 2.374988e+04 2.822220e+04 8.324718e+01 3.796924e+03 6.619351e+05 4.548039e+04 8.817699e+03 1.299852e+04 1.287651e+06 1.232674e+05 1.126470e+06 1.260994e+07 7.816092e+05 1.123436e+06 1.471139e+05 1.114857e+04 1.174453e+03 8.016200e-01 1.000000e-02
<GCONST> 2.352348e+02
<STATE> 13
<MEAN> 20
 3.548865e+03 1.329088e+01 -3.576181e-09 0.000000e+00 0.000000e+00 8.179469e+01 2.284502e+01 2.371506e+01 2.404840e+01 3.396632e+02 2.999284e+00 5.200727e+02 1.420451e+03 4.585464e+02 1.454310e+03 1.643492e+02 1.426073e+01 7.236473e+00 4.587112e+00 7.409948e+00
<VARIANCE> 20
 5.997276e+06 9.461365e+02 1.000000e-02 1.000000e-02 1.000000e-02 1.024117e+05 7.608827e+03 3.142490e+03 3.137537e+03 4.570119e+05 4.281548e+01 1.150055e+06 7.128170e+06 1.508632e+05 1.480018e+06 4.352480e+04 7.898564e+02 3.040229e+02 1.208060e+02 7.532477e+02
<GCONST> 1.891236e+02
<TRANSP> 14
 0.000000e+00 1.000000e+00 0.000000e+00 0.000000e+00 0.000000e+00 0.000000e+00 0.000000e+00 0.000000e+00 0.000000e+00 0.000000e+00 0.000000e+00 0.000000e+00 0.000000e+00 0.000000e+00
 0.000000e+00 8.880274e-01 1.119726e-01 0.000000e+00 0.000000e+00 0.000000e+00 0.000000e+00 0.000000e+00 0.000000e+00 0.000000e+00 0.000000e+00 0.000000e+00 0.000000e+00 0.000000e+00
 0.000000e+00 0.000000e+00 8.100580e-01 1.899420e-01 0.000000e+00 0.000000e+00 0.000000e+00 0.000000e+00 0.000000e+00 0.000000e+00 0.000000e+00 0.000000e+00 0.000000e+00 0.000000e+00
 0.000000e+00 0.000000e+00 0.000000e+00 8.262060e-01 1.737940e-01 0.000000e+00 0.000000e+00 0.000000e+00 0.000000e+00 0.000000e+00 0.000000e+00 0.000000e+00 0.000000e+00 0.000000e+00
 0.000000e+00 0.000000e+00 0.000000e+00 0.000000e+00 8.103240e-01 1.896760e-01 0.000000e+00 0.000000e+00 0.000000e+00 0.000000e+00 0.000000e+00 0.000000e+00 0.000000e+00 0.000000e+00
 0.000000e+00 0.000000e+00 0.000000e+00 0.000000e+00 0.000000e+00 7.241818e-01 2.758182e-01 0.000000e+00 0.000000e+00 0.000000e+00 0.000000e+00 0.000000e+00 0.000000e+00 0.000000e+00
 0.000000e+00 0.000000e+00 0.000000e+00 0.000000e+00 0.000000e+00 0.000000e+00 7.750613e-01 2.249387e-01 0.000000e+00 0.000000e+00 0.000000e+00 0.000000e+00 0.000000e+00 0.000000e+00
 0.000000e+00 0.000000e+00 0.000000e+00 0.000000e+00 0.000000e+00 0.000000e+00 0.000000e+00 8.431329e-01 1.568671e-01 0.000000e+00 0.000000e+00 0.000000e+00 0.000000e+00 0.000000e+00
 0.000000e+00 0.000000e+00 0.000000e+00 0.000000e+00 0.000000e+00 0.000000e+00 0.000000e+00 0.000000e+00 6.006375e-01 3.993625e-01 0.000000e+00 0.000000e+00 0.000000e+00 0.000000e+00
 0.000000e+00 0.000000e+00 0.000000e+00 0.000000e+00 0.000000e+00 0.000000e+00 0.000000e+00 0.000000e+00 0.000000e+00 3.832041e-01 6.167960e-01 0.000000e+00 0.000000e+00 0.000000e+00
 0.000000e+00 0.000000e+00 0.000000e+00 0.000000e+00 0.000000e+00 0.000000e+00 0.000000e+00 0.000000e+00 0.000000e+00 0.000000e+00 2.051835e-01 7.948165e-01 0.000000e+00 0.000000e+00
 0.000000e+00 0.000000e+00 0.000000e+00 0.000000e+00 0.000000e+00 0.000000e+00 0.000000e+00 0.000000e+00 0.000000e+00 0.000000e+00 0.000000e+00 4.295990e-01 5.704010e-01 0.000000e+00
 0.000000e+00 0.000000e+00 0.000000e+00 0.000000e+00 0.000000e+00 0.000000e+00 0.000000e+00 0.000000e+00 0.000000e+00 0.000000e+00 0.000000e+00 0.000000e+00 5.295262e-01 4.704738e-01
 0.000000e+00 0.000000e+00 0.000000e+00 0.000000e+00 0.000000e+00 0.000000e+00 0.000000e+00 0.000000e+00 0.000000e+00 0.000000e+00 0.000000e+00 0.000000e+00 0.000000e+00 0.000000e+00
<ENDHMM>
~h "f"
<BEGINHMM>
<NUMSTATES> 14
<STATE> 2
<MEAN> 20
 6.940017e+03 4.982841e+02 8.265258e+02 0.000000e+00 0.000000e+00 0.000000e+00 0.000000e+00 0.000000e+00 1.209252e-01 1.824540e+02 3.712389e+01 4.605942e+02 3.479006e+03 2.594752e+03 1.774566e+03 9.301761e+01 6.165666e+00 1.933952e+00 1.208597e-01 1.208598e-01
<VARIANCE> 20
 7.564198e+06 1.492168e+05 8.425131e+05 1.000000e-02 1.000000e-02 1.000000e-02 1.000000e-02 1.000000e-02 1.063023e-01 7.603155e+04 3.135089e+03 1.636218e+05 1.348792e+07 2.592381e+06 3.329192e+06 1.430813e+04 7.719147e+01 1.777346e+01 1.062516e-01 1.062527e-01
<GCONST> 1.426934e+02
<STATE> 3
<MEAN> 20
 6.262126e+03 3.660460e+02 1.564406e+03 1.000064e-01 0.000000e+00 0.000000e+00 0.000000e+00 0.000000e+00 0.000000e+00 1.559268e+02 -1.108482e-27 4.761335e+02 4.757047e+03 2.834339e+03 2.664366e+02 1.357419e+01 1.024712e+00 4.995709e-02 0.000000e+00 0.000000e+00
<VARIANCE> 20
 3.534229e+06 2.375154e+04 3.538752e+05 1.900115e-01 1.000000e-02 1.000000e-02 1.000000e-02 1.000000e-02 1.000000e-02 3.544588e+04 1.000000e-02 1.613098e+05 1.508794e+06 1.085062e+06 1.118929e+05 3.052991e+02 9.370358e+00 9.741849e-02 1.000000e-02 1.000000e-02
<GCONST> 1.040318e+02
<STATE> 4
<MEAN> 20
 9.337033e+03 3.307386e+02 8.909590e+02 1.428195e-01 0.000000e+00 0.000000e+00 0.000000e+00 0.000000e+00 0.000000e+00 1.202991e+02 2.727865e+01 2.858923e+02 5.886514e+03 3.969183e+03 4.447405e+02 4.613905e+01 1.114186e+01 7.569648e+00 7.140958e-01 0.000000e+00
<VARIANCE> 20
 5.304706e+06 1.697271e+05 7.792859e+05 1.224221e-01 1.000000e-02 1.000000e-02 1.000000e-02 1.000000e-02 1.000000e-02 2.947836e+04 4.411826e+03 8.068871e+04 2.535560e+06 5.525403e+05 1.485140e+04 5.168795e+02 6.412366e+01 8.823262e+01 1.917997e+00 1.000000e-02
<GCONST> 1.312142e+02
<STATE> 5
<MEAN> 20
 6.604362e+03 3.396917e+02 1.578372e+03 0.000000e+00 0.000000e+00 0.000000e+00 0.000000e+00 0.000000e+00 0.000000e+00 1.315543e+02 0.000000e+00 1.934621e+02 4.471808e+03 3.636416e+03 3.234393e+02 2.735600e+01 1.498747e+00 -1.256872e-15 0.000000e+00 0.000000e+00
<VARIANCE> 20
 8.739979e+05 1.284332e+04 1.884632e+05 1.000000e-02 1.000000e-02 1.000000e-02 1.000000e-02 1.000000e-02 1.000000e-02 1.381156e+04 1.000000e-02 1.356625e+04 9.718821e+05 2.649087e+05 3.054547e+04 8.574148e+02 6.619221e+00 1.000000e-02 1.000000e-02 1.000000e-02
<GCONST> 9.028750e+01
<STATE> 6
<MEAN> 20
 9.124885e+03 1.377645e+02 5.273843e+02 -1.233081e-22 0.000000e+00 0.000000e+00 0.000000e+00 0.000000e+00 0.000000e+00 1.742202e+02 0.000000e+00 2.542008e+02 5.875497e+03 3.480703e+03 3.063344e+02 3.772392e+01 9.121201e+00 6.528826e-01 2.040259e-02 0.000000e+00
<VARIANCE> 20
 1.872552e+06 2.871240e+04 5.771348e+05 1.000000e-02 1.000000e-02 1.000000e-02 1.000000e-02 1.000000e-02 1.000000e-02 3.411870e+04 1.000000e-02 1.467087e+05 1.804505e+06 1.439252e+06 5.863288e+04 1.720818e+03 2.521303e+02 1.491590e+00 1.998634e-02 1.000000e-02
<GCONST> 1.092558e+02
<STATE> 7
<MEAN> 20
 8.198187e+03 3.173534e+02 1.465684e+03 8.998011e+00 0.000000e+00 0.000000e+00 0.000000e+00 0.000000e+00 0.000000e+00 1.594340e+02 0.000000e+00 5.425545e+02 6.812906e+03 2.599481e+03 1.336118e+02 4.077347e+01 1.233099e+01 5.165588e+00 1.944041e+00 8.887041e-01
<VARIANCE> 20
 1.957352e+06 2.616381e+04 6.084192e+05 3.225017e+02 1.000000e-02 1.000000e-02 1.000000e-02 1.000000e-02 1.000000e-02 5.758200e+04 1.000000e-02 1.170843e+05 9.160583e+05 1.238648e+06 2.113743e+03 1.837818e+03 2.009850e+02 6.079847e+01 2.127108e+01 6.875285e+00
<GCONST> 1.328381e+02
<STATE> 8
<MEAN> 20
 9.640034e+03 2.874632e+02 1.353958e+03 1.049991e+01 0.000000e+00 0.000000e+00 0.000000e+00 0.000000e+00 0.000000e+00 2.508373e+02 0.000000e+00 9.587168e+02 8.347878e+03 2.093381e+03 1.068003e+02 2.700779e+01 7.006938e+00 1.501829e+00 5.000047e-01 -3.052001e-36
<VARIANCE> 20
 3.128665e+06 1.833992e+04 5.651560e+05 1.822486e+02 1.000000e-02 1.000000e-02 1.000000e-02 1.000000e-02 1.000000e-02 6.473182e+04 1.000000e-02 3.306408e+05 1.855440e+05 2.596765e+06 5.998514e+02 5.993553e+02 1.095347e+02 2.753634e+00 2.500000e-01 1.000000e-02
<GCONST> 1.155476e+02
<STATE> 9
<MEAN> 20
 8.594943e+03 3.054309e+02 1.316371e+03 1.471081e+00 0.000000e+00 0.000000e+00 0.000000e+00 0.000000e+00 0.000000e+00 3.169449e+02 0.000000e+00 1.087357e+03 8.018147e+03 1.318848e+03 9.013530e+01 1.619129e+01 4.161036e+00 3.226643e-01 -0.000000e+00 0.000000e+00
<VARIANCE> 20
 3.826250e+06 4.724220e+04 8.497992e+05 1.710347e+01 1.000000e-02 1.000000e-02 1.000000e-02 1.000000e-02 1.000000e-02 5.938000e+04 1.000000e-02 5.474971e+05 1.517916e+06 9.230126e+05 3.013634e+03 3.829573e+02 5.686757e+01 1.006880e+00 1.000000e-02 1.000000e-02
<GCONST> 1.125081e+02
<STATE> 10
<MEAN> 20
 9.438791e+03 3.838357e+02 1.624432e+03 5.395153e+01 0.000000e+00 0.000000e+00 0.000000e+00 0.000000e+00 0.000000e+00 6.540406e+02 7.132458e+00 2.439083e+03 9.104472e+03 5.234008e+02 6.661704e+01 1.257738e+01 1.705375e+00 6.311829e-02 0.000000e+00 0.000000e+00
<VARIANCE> 20
 2.445144e+06 1.362208e+04 2.331138e+05 2.152662e+03 1.000000e-02 1.000000e-02 1.000000e-02 1.000000e-02 1.000000e-02 4.999595e+04 2.575921e+02 3.397898e+05 1.362805e+06 1.077300e+05 2.478748e+03 4.654662e+02 2.720385e+01 5.913438e-02 1.000000e-02 1.000000e-02
<GCONST> 1.180377e+02
<STATE> 11
<MEAN> 20
 8.433742e+03 3.484505e+02 1.606317e+03 1.037924e+02 0.000000e+00 0.000000e+00 0.000000e+00 0.000000e+00 0.000000e+00 8.776017e+02 2.075568e-01 3.174161e+03 7.632062e+03 4.281101e+02 9.591167e+01 3.427037e+01 4.557989e+00 5.182827e-01 1.037780e-01 0.000000e+00
<VARIANCE> 20
 1.311117e+06 1.032790e+04 2.563500e+05 1.985554e+04 1.000000e-02 1.000000e-02 1.000000e-02 1.000000e-02 1.000000e-02 1.818173e+05 2.682549e-01 1.077977e+06 6.882899e+05 3.276998e+04 7.587692e+02 7.951642e+02 5.146688e+01 1.183667e+00 1.967860e-01 1.000000e-02
<GCONST> 1.191250e+02
<STATE> 12
<MEAN> 20
 8.622218e+03 3.225284e+02 9.475265e+02 3.421983e+02 0.000000e+00 0.000000e+00 0.000000e+00 0.000000e+00 0.000000e+00 8.236169e+02 2.996498e-01 3.547056e+03 6.925685e+03 4.788206e+02 6.616370e+01 2.526442e+01 1.120098e+01 3.297315e+00 1.997665e-01 9.988328e-02
<VARIANCE> 20
 2.745235e+06 1.936761e+04 2.876390e+05 7.799466e+04 1.000000e-02 1.000000e-02 1.000000e-02 1.000000e-02 1.000000e-02 7.033227e+04 8.091595e-01 1.733293e+06 1.962369e+06 1.203067e+05 1.156654e+03 7.250240e+02 2.280936e+02 2.798342e+01 3.596264e-01 8.990663e-02
<GCONST> 1.327337e+02
<STATE> 13
<MEAN> 20
 8.298423e+03 2.442760e+02 9.276488e+02 5.606223e+00 0.000000e+00 0.000000e+00 0.000000e+00 0.000000e+00 0.000000e+00 5.823420e+02 2.002239e+00 2.019000e+03 6.902949e+03 9.814425e+02 1.048486e+02 2.482764e+01 1.571743e+01 6.006655e+00 1.201329e+00 3.003323e-01
<VARIANCE> 20
 2.573236e+06 3.822711e+04 7.033912e+05 9.771322e+01 1.000000e-02 1.000000e-02 1.000000e-02 1.000000e-02 1.000000e-02 1.207682e+05 3.603582e+01 1.122222e+06 3.387606e+06 5.732208e+05 1.377380e+04 7.104643e+02 2.882560e+02 5.241802e+01 5.164109e+00 4.103532e-01
<GCONST> 1.410715e+02
<TRANSP> 14
 0.000000e+00 1.000000e+00 0.000000e+00 0.000000e+00 0.000000e+00 0.000000e+00 0.000000e+00 0.000000e+00 0.000000e+00 0.000000e+00 0.000000e+00 0.000000e+00 0.000000e+00 0.000000e+00
 0.000000e+00 5.163011e-01 4.836989e-01 0.000000e+00 0.000000e+00 0.000000e+00 0.000000e+00 0.000000e+00 0.000000e+00 0.000000e+00 0.000000e+00 0.000000e+00 0.000000e+00 0.000000e+00
 0.000000e+00 0.000000e+00 8.999947e-01 1.000053e-01 0.000000e+00 0.000000e+00 0.000000e+00 0.000000e+00 0.000000e+00 0.000000e+00 0.000000e+00 0.000000e+00 0.000000e+00 0.000000e+00
 0.000000e+00 0.000000e+00 0.000000e+00 4.287217e-01 5.712783e-01 0.000000e+00 0.000000e+00 0.000000e+00 0.000000e+00 0.000000e+00 0.000000e+00 0.000000e+00 0.000000e+00 0.000000e+00
 0.000000e+00 0.000000e+00 0.000000e+00 0.000000e+00 8.749452e-01 1.250548e-01 0.000000e+00 0.000000e+00 0.000000e+00 0.000000e+00 0.000000e+00 0.000000e+00 0.000000e+00 0.000000e+00
 0.000000e+00 0.000000e+00 0.000000e+00 0.000000e+00 0.000000e+00 9.183896e-01 8.161044e-02 0.000000e+00 0.000000e+00 0.000000e+00 0.000000e+00 0.000000e+00 0.000000e+00 0.000000e+00
 0.000000e+00 0.000000e+00 0.000000e+00 0.000000e+00 0.000000e+00 0.000000e+00 7.778246e-01 2.221754e-01 0.000000e+00 0.000000e+00 0.000000e+00 0.000000e+00 0.000000e+00 0.000000e+00
 0.000000e+00 0.000000e+00 0.000000e+00 0.000000e+00 0.000000e+00 0.000000e+00 0.000000e+00 0.000000e+00 1.000000e+00 0.000000e+00 0.000000e+00 0.000000e+00 0.000000e+00 0.000000e+00
 0.000000e+00 0.000000e+00 0.000000e+00 0.000000e+00 0.000000e+00 0.000000e+00 0.000000e+00 0.000000e+00 8.564782e-01 1.435218e-01 0.000000e+00 0.000000e+00 0.000000e+00 0.000000e+00
 0.000000e+00 0.000000e+00 0.000000e+00 0.000000e+00 0.000000e+00 0.000000e+00 0.000000e+00 0.000000e+00 0.000000e+00 7.475234e-01 2.524767e-01 0.000000e+00 0.000000e+00 0.000000e+00
 0.000000e+00 0.000000e+00 0.000000e+00 0.000000e+00 0.000000e+00 0.000000e+00 0.000000e+00 0.000000e+00 0.000000e+00 0.000000e+00 7.924413e-01 2.075587e-01 0.000000e+00 0.000000e+00
 0.000000e+00 0.000000e+00 0.000000e+00 0.000000e+00 0.000000e+00 0.000000e+00 0.000000e+00 0.000000e+00 0.000000e+00 0.000000e+00 0.000000e+00 6.004688e-01 3.995312e-01 0.000000e+00
 0.000000e+00 0.000000e+00 0.000000e+00 0.000000e+00 0.000000e+00 0.000000e+00 0.000000e+00 0.000000e+00 0.000000e+00 0.000000e+00 0.000000e+00 0.000000e+00 5.995538e-01 4.004462e-01
 0.000000e+00 0.000000e+00 0.000000e+00 0.000000e+00 0.000000e+00 0.000000e+00 0.000000e+00 0.000000e+00 0.000000e+00 0.000000e+00 0.000000e+00 0.000000e+00 0.000000e+00 0.000000e+00
<ENDHMM>
~h "g"
<BEGINHMM>
<NUMSTATES> 14
<STATE> 2
<MEAN> 20
 6.395620e+03 5.341943e+01 1.162658e+02 0.000000e+00 3.927921e-02 1.134304e+03 1.815777e+02 1.154867e+02 1.353786e+02 1.997312e+03 1.982289e+00 1.879218e+03 6.235536e+03 5.669764e+02 5.783138e+02 6.597827e+02 1.259354e+02 5.418262e+01 2.437654e+01 3.099515e+00
<VARIANCE> 20
 8.672595e+06 1.799468e+04 1.768071e+05 1.000000e-02 3.773637e-02 7.970038e+05 4.394356e+04 1.224089e+04 1.235681e+04 1.229153e+06 9.325172e+00 1.231238e+06 7.898694e+06 9.564655e+04 3.529584e+05 2.137424e+05 1.363505e+04 4.251402e+03 1.669485e+03 4.384854e+01
<GCONST> 2.215971e+02
<STATE> 3
<MEAN> 20
 4.976054e+03 1.352997e+02 1.429504e+02 5.267901e-09 0.000000e+00 2.540032e+01 5.150066e+00 3.700047e+00 7.850094e+00 1.474519e+02 4.249985e+00 1.940520e+02 1.556260e+03 2.342297e+03 1.244947e+03 7.349995e+01 2.529992e+01 3.149989e+00 1.000002e-01 2.582837e-09
<VARIANCE> 20
 7.487970e+06 3.718497e+04 1.379275e+05 1.000000e-02 1.000000e-02 1.053656e+04 3.561316e+02 1.482117e+02 4.610325e+02 1.582322e+05 9.648682e+01 3.204132e+05 5.624434e+06 1.966474e+06 1.258964e+06 1.595082e+04 4.128387e+03 4.362733e+01 9.000011e-02 1.000000e-02
<GCONST> 1.800684e+02
<STATE> 4
<MEAN> 20
 4.246757e+03 2.679170e+02 4.834179e+02 1.067504e+02 7.025016e+01 1.902502e+02 1.229172e+02 5.891692e+01 3.200011e+01 2.030842e+02 2.358340e+02 4.796689e+02 1.062589e+03 1.708007e+03 1.645998e+03 5.359138e+02 9.866673e+01 1.141670e+01 3.000014e+00 1.166672e+00
<VARIANCE> 20
 2.666503e+06 1.765746e+04 2.957033e+05 4.333753e+04 1.453424e+04 9.141768e+04 3.321988e+04 9.474115e+03 2.996180e+03 1.310053e+05 9.793266e+04 6.329330e+05 3.704164e+06 2.103751e+06 1.439066e+06 2.980988e+05 2.160910e+04 9.019132e+02 6.316709e+01 6.972248e+00
<GCONST> 2.491615e+02
<STATE> 5
<MEAN> 20
 3.740389e+03 2.317749e+02 1.716225e+02 7.345268e+00 7.940889e+00 8.238685e+00 8.893809e+01 4.000225e+01 3.712364e+01 1.098833e+02 1.916736e+02 1.467096e+02 8.061503e+02 1.018468e+03 1.709466e+03 5.360825e+02 3.034457e+01 2.058003e+00 1.210281e+00 1.095695e+00
<VARIANCE> 20
 1.146484e+07 8.476465e+04 9.952305e+04 4.895969e+02 2.617249e+02 2.141243e+02 3.532771e+04 2.441626e+03 2.987124e+03 3.668497e+04 1.327371e+05 5.026305e+04 4.209483e+06 1.912405e+06 4.285117e+06 3.358495e+05 1.404965e+03 1.858784e+01 7.167386e+00 6.049291e+00
<GCONST> 2.240533e+02
<STATE> 6
<MEAN> 20
 3.394487e+03 9.051557e+01 1.513694e+02 4.318902e+01 3.190434e+01 1.589310e+02 2.416509e+01 7.326286e+00 4.844805e+00 2.983647e+01 1.902467e+01 6.463641e+01 1.992616e+02 7.310020e+02 2.149286e+03 6.486761e+02 1.012253e+02 2.004454e+01 2.410945e+00 1.002100e+00
<VARIANCE> 20
 4.273180e+06 1.277719e+04 1.172315e+05 5.039456e+03 2.774831e+03 5.683057e+04 2.951258e+03 1.748563e+02 5.924352e+01 4.102673e+03 1.109569e+03 9.417421e+03 1.192421e+05 1.494267e+06 2.993333e+06 3.211189e+05 4.068784e+04 2.361250e+03 1.983079e+01 6.024143e+00
<GCONST> 2.189322e+02
<STATE> 7
<MEAN> 20
 4.257585e+03 1.342621e+02 6.299939e+01 7.947394e+00 5.631591e+00 7.210414e+00 2.615759e+01 1.810526e+01 4.526348e+01 4.405270e+01 1.158950e+02 4.257849e+01 3.348927e+02 1.857749e+03 1.639521e+03 5.635787e+02 5.336845e+01 1.631593e+00 0.000000e+00 0.000000e+00
<VARIANCE> 20
 4.944922e+06 5.607005e+04 1.257243e+04 4.212081e+02 2.327591e+02 1.762710e+02 2.749708e+03 9.365215e+02 2.650684e+04 4.365771e+03 1.006364e+05 3.380452e+03 6.775544e+05 4.937634e+06 2.209626e+06 5.810969e+05 1.514763e+04 2.654870e+01 1.000000e-02 1.000000e-02
<GCONST> 2.025972e+02
<STATE> 8
<MEAN> 20
 3.780552e+03 7.040036e+01 2.700014e+00 1.500005e-01 5.500020e-01 0.000000e+00 1.500005e-01 5.000018e-02 1.300003e+00 2.504998e+01 1.795010e+01 3.800020e+01 2.752976e+02 7.698959e+02 1.878907e+03 8.545509e+02 4.590010e+01 3.999993e-01 0.000000e+00 0.000000e+00
<VARIANCE> 20
 2.877954e+06 6.540349e+04 7.741039e+01 4.275016e-01 5.747519e+00 1.000000e-02 4.275016e-01 4.750017e-02 1.821008e+01 1.893442e+03 2.382459e+03 2.184282e+04 3.317149e+05 1.025385e+06 3.396744e+06 7.985044e+05 7.500511e+03 9.400011e-01 1.000000e-02 1.000000e-02
<GCONST> 1.425122e+02
<STATE> 9
<MEAN> 20
 7.124544e+03 7.643784e+00 0.000000e+00 0.000000e+00 0.000000e+00 0.000000e+00 0.000000e+00 0.000000e+00 0.000000e+00 7.539980e+01 0.000000e+00 3.884507e+01 3.040433e+03 1.952260e+03 1.851364e+03 3.137896e+02 1.006501e+01 7.616731e-01 6.927879e-02 -1.535823e-42
<VARIANCE> 20
 1.737907e+07 6.092606e+02 1.000000e-02 1.000000e-02 1.000000e-02 1.000000e-02 1.000000e-02 1.000000e-02 1.000000e-02 2.111446e+04 1.000000e-02 1.795654e+04 1.479676e+07 5.822672e+06 3.255645e+06 1.403786e+05 3.556399e+02 6.093824e+00 6.447923e-02 1.000000e-02
<GCONST> 1.020224e+02
<STATE> 10
<MEAN> 20
 8.497926e+03 1.537129e+00 0.000000e+00 0.000000e+00 0.000000e+00 0.000000e+00 0.000000e+00 0.000000e+00 0.000000e+00 5.444733e+01 7.123263e-01 3.909138e+01 4.705536e+03 3.664800e+03 1.214306e+02 1.248258e+01 6.108969e+00 2.923374e+00 7.498243e-01 7.498246e-02
<VARIANCE> 20
 3.865962e+06 2.406829e+01 1.000000e-02 1.000000e-02 1.000000e-02 1.000000e-02 1.000000e-02 1.000000e-02 1.000000e-02 4.834834e+03 7.178192e+00 2.806123e+04 5.361770e+06 4.692046e+06 2.011034e+04 2.312561e+02 7.343052e+01 2.638898e+01 2.587032e+00 6.936010e-02
<GCONST> 9.562682e+01
<STATE> 11
<MEAN> 20
 9.695771e+03 0.000000e+00 0.000000e+00 0.000000e+00 0.000000e+00 0.000000e+00 0.000000e+00 0.000000e+00 0.000000e+00 1.152502e+02 0.000000e+00 4.377094e+02 7.410778e+03 1.852178e+03 1.014351e+02 8.001421e+00 8.655216e-01 5.327244e-02 0.000000e+00 0.000000e+00
<VARIANCE> 20
 5.433202e+06 1.000000e-02 1.000000e-02 1.000000e-02 1.000000e-02 1.000000e-02 1.000000e-02 1.000000e-02 1.000000e-02 2.518886e+04 1.000000e-02 5.801380e+05 6.091912e+06 3.056841e+06 2.430607e+04 1.727181e+02 6.269717e+00 7.707072e-02 1.000000e-02 1.000000e-02
<GCONST> 7.009208e+01
<STATE> 12
<MEAN> 20
 1.025830e+04 3.981243e+00 0.000000e+00 0.000000e+00 0.000000e+00 0.000000e+00 0.000000e+00 0.000000e+00 0.000000e+00 4.562796e+01 1.420049e+00 2.469464e+02 6.617748e+03 3.209704e+03 1.691035e+02 4.695852e+01 1.417307e+01 1.858864e+00 0.000000e+00 0.000000e+00
<VARIANCE> 20
 1.376937e+06 5.573718e+01 1.000000e-02 1.000000e-02 1.000000e-02 1.000000e-02 1.000000e-02 1.000000e-02 1.000000e-02 3.281392e+03 1.218395e+01 2.543849e+05 4.973018e+06 4.928580e+06 2.144693e+04 2.201427e+03 5.621428e+02 9.262443e+00 1.000000e-02 1.000000e-02
<GCONST> 9.356779e+01
<STATE> 13
<MEAN> 20
 9.138554e+03 0.000000e+00 0.000000e+00 0.000000e+00 0.000000e+00 0.000000e+00 0.000000e+00 0.000000e+00 0.000000e+00 6.314242e+01 -3.718193e-08 4.216748e+02 6.131746e+03 2.483531e+03 1.324983e+02 2.720658e+01 4.572541e+00 3.236946e-01 1.433900e-01 0.000000e+00
<VARIANCE> 20
 2.073653e+06 1.000000e-02 1.000000e-02 1.000000e-02 1.000000e-02 1.000000e-02 1.000000e-02 1.000000e-02 1.000000e-02 8.546287e+03 1.000000e-02 7.131019e+05 4.848290e+06 3.787878e+06 9.746294e+03 9.688532e+02 8.647430e+01 1.083528e+00 5.529995e-01 1.000000e-02
<GCONST> 7.833116e+01
<TRANSP> 14
 0.000000e+00 1.000000e+00 0.000000e+00 0.000000e+00 0.000000e+00 0.000000e+00 0.000000e+00 0.000000e+00 0.000000e+00 0.000000e+00 0.000000e+00 0.000000e+00 0.000000e+00 0.000000e+00
 0.000000e+00 7.250471e-01 2.749529e-01 0.000000e+00 0.000000e+00 0.000000e+00 0.000000e+00 0.000000e+00 0.000000e+00 0.000000e+00 0.000000e+00 0.000000e+00 0.000000e+00 0.000000e+00
 0.000000e+00 0.000000e+00 6.499978e-01 3.500022e-01 0.000000e+00 0.000000e+00 0.000000e+00 0.000000e+00 0.000000e+00 0.000000e+00 0.000000e+00 0.000000e+00 0.000000e+00 0.000000e+00
 0.000000e+00 0.000000e+00 0.000000e+00 4.166683e-01 5.833316e-01 0.000000e+00 0.000000e+00 0.000000e+00 0.000000e+00 0.000000e+00 0.000000e+00 0.000000e+00 0.000000e+00 0.000000e+00
 0.000000e+00 0.000000e+00 0.000000e+00 0.000000e+00 3.051665e-01 6.948335e-01 0.000000e+00 0.000000e+00 0.000000e+00 0.000000e+00 0.000000e+00 0.000000e+00 0.000000e+00 0.000000e+00
 0.000000e+00 0.000000e+00 0.000000e+00 0.000000e+00 0.000000e+00 5.864283e-01 4.135717e-01 0.000000e+00 0.000000e+00 0.000000e+00 0.000000e+00 0.000000e+00 0.000000e+00 0.000000e+00
 0.000000e+00 0.000000e+00 0.000000e+00 0.000000e+00 0.000000e+00 0.000000e+00 6.315779e-01 3.684221e-01 0.000000e+00 0.000000e+00 0.000000e+00 0.000000e+00 0.000000e+00 0.000000e+00
 0.000000e+00 0.000000e+00 0.000000e+00 0.000000e+00 0.000000e+00 0.000000e+00 0.000000e+00 6.500009e-01 3.499991e-01 0.000000e+00 0.000000e+00 0.000000e+00 0.000000e+00 0.000000e+00
 0.000000e+00 0.000000e+00 0.000000e+00 0.000000e+00 0.000000e+00 0.000000e+00 0.000000e+00 0.000000e+00 8.383490e-01 1.616510e-01 0.000000e+00 0.000000e+00 0.000000e+00 0.000000e+00
 0.000000e+00 0.000000e+00 0.000000e+00 0.000000e+00 0.000000e+00 0.000000e+00 0.000000e+00 0.000000e+00 0.000000e+00 7.375623e-01 2.624378e-01 0.000000e+00 0.000000e+00 0.000000e+00
 0.000000e+00 0.000000e+00 0.000000e+00 0.000000e+00 0.000000e+00 0.000000e+00 0.000000e+00 0.000000e+00 0.000000e+00 0.000000e+00 9.067740e-01 9.322599e-02 0.000000e+00 0.000000e+00
 0.000000e+00 0.000000e+00 0.000000e+00 0.000000e+00 0.000000e+00 0.000000e+00 0.000000e+00 0.000000e+00 0.000000e+00 0.000000e+00 0.000000e+00 0.000000e+00 1.000000e+00 0.000000e+00
 0.000000e+00 0.000000e+00 0.000000e+00 0.000000e+00 0.000000e+00 0.000000e+00 0.000000e+00 0.000000e+00 0.000000e+00 0.000000e+00 0.000000e+00 0.000000e+00 7.490698e-01 2.509301e-01
 0.000000e+00 0.000000e+00 0.000000e+00 0.000000e+00 0.000000e+00 0.000000e+00 0.000000e+00 0.000000e+00 0.000000e+00 0.000000e+00 0.000000e+00 0.000000e+00 0.000000e+00 0.000000e+00
<ENDHMM>
~h "h"
<BEGINHMM>
<NUMSTATES> 14
<STATE> 2
<MEAN> 20
 5.448742e+03 3.999972e+00 5.714246e-01 0.000000e+00 3.285691e+00 1.028564e+01 1.115706e+02 8.099944e+01 8.671158e+01 1.539652e+03 8.283919e+02 9.588186e+02 2.544192e+03 1.123293e+03 1.686298e+03 7.299732e+01 2.512467e+01 4.137261e+01 4.758841e+00 5.714177e-01
<VARIANCE> 20
 1.106388e+07 3.114275e+01 1.959172e+00 1.000000e-02 1.734689e+01 2.990598e+02 2.870013e+04 9.381408e+03 1.015819e+04 7.806458e+06 2.436819e+06 1.941768e+06 1.338837e+07 8.324672e+05 2.235351e+06 4.676929e+03 9.984967e+02 5.039618e+03 4.818999e+01 1.102036e+00
<GCONST> 2.072457e+02
<STATE> 3
<MEAN> 20
 7.563591e+03 0.000000e+00 0.000000e+00 0.000000e+00 0.000000e+00 0.000000e+00 0.000000e+00 0.000000e+00 0.000000e+00 4.184969e+02 0.000000e+00 7.799520e+02 3.966049e+03 2.105609e+03 9.287014e+02 1.046092e+02 2.308295e+01 6.712375e+01 6.961523e+00 0.000000e+00
<VARIANCE> 20
 7.697428e+06 1.000000e-02 1.000000e-02 1.000000e-02 1.000000e-02 1.000000e-02 1.000000e-02 1.000000e-02 1.000000e-02 2.171247e+05 1.000000e-02 7.202752e+05 1.391132e+07 3.216145e+06 8.723011e+05 3.258711e+04 1.335138e+03 1.154328e+04 2.195192e+02 1.000000e-02
<GCONST> 1.097824e+02
<STATE> 4
<MEAN> 20
 4.439491e+03 8.483465e+01 1.600030e+01 0.000000e+00 3.466732e+01 2.483380e+01 2.178374e+02 7.000132e+01 3.166726e+01 1.881673e+02 1.100021e+02 3.148358e+02 2.285002e+03 1.369856e+03 7.293134e+02 2.596580e+02 2.466684e+01 1.299997e+01 1.166662e+00 0.000000e+00
<VARIANCE> 20
 1.601193e+07 1.758936e+04 7.483426e+02 1.000000e-02 6.008980e+03 3.083518e+03 2.003743e+05 2.285934e+04 4.826961e+03 8.256054e+04 2.932566e+04 1.194667e+05 1.504538e+07 2.715161e+06 9.289210e+05 1.517543e+05 1.145893e+03 7.233307e+02 6.805534e+00 1.000000e-02
<GCONST> 2.138474e+02
<STATE> 5
<MEAN> 20
 4.135828e+03 2.926729e+02 1.916710e+01 1.550035e+01 6.183472e+01 5.466782e+01 1.825039e+02 8.483511e+01 2.383364e+01 1.708346e+02 5.956781e+02 3.515036e+02 1.884671e+03 3.561710e+02 1.442157e+03 3.746641e+02 1.500025e+01 8.666850e+00 6.666809e+00 6.500135e+00
<VARIANCE> 20
 8.233050e+06 1.852723e+05 7.648145e+02 6.205919e+02 8.530912e+03 5.038607e+03 6.324130e+04 1.397197e+04 6.431372e+02 2.050624e+04 4.499634e+05 8.280700e+04 1.267234e+07 3.713983e+04 7.445593e+05 1.359644e+05 2.543355e+02 2.532264e+02 1.515580e+02 1.422523e+02
<GCONST> 2.300626e+02
<STATE> 6
<MEAN> 20
 3.543312e+03 4.632050e+01 0.000000e+00 0.000000e+00 0.000000e+00 0.000000e+00 1.250209e-01 1.875314e-01 6.251047e-02 2.469160e+01 5.625943e-01 6.338329e+01 7.392992e+02 5.617279e+02 1.847326e+03 3.647088e+02 2.700204e+01 8.376070e+00 1.500252e+00 8.126362e-01
<VARIANCE> 20
 4.782899e+06 1.420038e+04 1.000000e-02 1.000000e-02 1.000000e-02 1.000000e-02 2.344117e-01 5.274262e-01 5.860292e-02 7.794034e+03 2.246418e+00 4.498380e+04 4.708764e+06 6.041354e+05 1.674584e+06 1.053271e+05 3.707471e+03 3.570373e+02 2.187829e+01 6.153264e+00
<GCONST> 1.324064e+02
<STATE> 7
<MEAN> 20
 9.326713e+03 6.664734e-02 0.000000e+00 0.000000e+00 0.000000e+00 0.000000e+00 0.000000e+00 0.000000e+00 0.000000e+00 1.903460e+02 0.000000e+00 3.404991e+02 6.058023e+03 2.306749e+03 7.697673e+02 3.408471e+01 6.102052e+00 1.700135e+00 1.666183e-01 3.332208e-02
<VARIANCE> 20
 1.249339e+07 1.288528e-01 1.000000e-02 1.000000e-02 1.000000e-02 1.000000e-02 1.000000e-02 1.000000e-02 1.000000e-02 4.980884e+04 1.000000e-02 2.150967e+05 1.392812e+07 2.348087e+06 2.249336e+06 1.870786e+03 3.268208e+02 5.939311e+01 3.387987e-01 3.221172e-02
<GCONST> 9.593719e+01
<STATE> 8
<MEAN> 20
 1.032717e+04 0.000000e+00 0.000000e+00 0.000000e+00 0.000000e+00 0.000000e+00 0.000000e+00 0.000000e+00 0.000000e+00 2.957828e+02 0.000000e+00 1.103087e+03 8.356805e+03 1.028075e+03 1.102796e+02 1.794520e+01 4.768392e+00 1.889197e+00 9.950356e-02 0.000000e+00
<VARIANCE> 20
 4.132260e+06 1.000000e-02 1.000000e-02 1.000000e-02 1.000000e-02 1.000000e-02 1.000000e-02 1.000000e-02 1.000000e-02 1.127999e+05 1.000000e-02 5.871599e+05 1.673867e+06 4.063625e+05 4.727277e+03 3.373055e+02 8.419617e+01 1.981016e+01 8.960260e-02 1.000000e-02
<GCONST> 7.739131e+01
<STATE> 9
<MEAN> 20
 9.644848e+03 0.000000e+00 0.000000e+00 0.000000e+00 0.000000e+00 0.000000e+00 0.000000e+00 0.000000e+00 0.000000e+00 3.895866e+02 0.000000e+00 6.416530e+02 8.443425e+03 9.012676e+02 4.409848e+01 3.989995e+00 -4.302095e-28 -0.000000e+00 0.000000e+00 0.000000e+00
<VARIANCE> 20
 5.112820e+06 1.000000e-02 1.000000e-02 1.000000e-02 1.000000e-02 1.000000e-02 1.000000e-02 1.000000e-02 1.000000e-02 6.796570e+04 1.000000e-02 2.292055e+05 3.103447e+06 6.050906e+05 2.752269e+03 3.506894e+01 1.000000e-02 1.000000e-02 1.000000e-02 1.000000e-02
<GCONST> 5.554536e+01
<STATE> 10
<MEAN> 20
 1.007302e+04 0.000000e+00 0.000000e+00 0.000000e+00 0.000000e+00 0.000000e+00 0.000000e+00 0.000000e+00 0.000000e+00 3.028655e+02 0.000000e+00 8.447579e+02 8.492254e+03 8.812032e+02 1.171471e+02 3.284932e+01 3.337369e+00 4.338582e+00 0.000000e+00 0.000000e+00
<VARIANCE> 20
 6.229306e+05 1.000000e-02 1.000000e-02 1.000000e-02 1.000000e-02 1.000000e-02 1.000000e-02 1.000000e-02 1.000000e-02 8.446055e+04 1.000000e-02 2.222465e+05 2.228047e+05 1.836386e+05 5.776974e+03 9.875728e+02 8.130714e+01 2.067830e+02 1.000000e-02 1.000000e-02
<GCONST> 7.281999e+01
<STATE> 11
<MEAN> 20
 1.173016e+04 1.449941e+01 0.000000e+00 0.000000e+00 0.000000e+00 0.000000e+00 0.000000e+00 0.000000e+00 0.000000e+00 4.454205e+02 2.299906e+01 1.342539e+03 1.020168e+04 4.949753e+02 8.834734e+01 3.828810e+01 1.250007e+00 0.000000e+00 0.000000e+00 0.000000e+00
<VARIANCE> 20
 7.214849e+06 6.307329e+02 1.000000e-02 1.000000e-02 1.000000e-02 1.000000e-02 1.000000e-02 1.000000e-02 1.000000e-02 1.005980e+05 1.586957e+03 4.609213e+05 3.515372e+06 1.138993e+05 2.299879e+04 4.386645e+03 4.687517e+00 1.000000e-02 1.000000e-02 1.000000e-02
<GCONST> 9.156396e+01
<STATE> 12
<MEAN> 20
 1.005481e+04 0.000000e+00 0.000000e+00 0.000000e+00 0.000000e+00 0.000000e+00 0.000000e+00 0.000000e+00 0.000000e+00 9.176459e+01 0.000000e+00 1.351602e+03 8.021055e+03 7.142554e+02 5.310432e+01 6.513236e+00 4.972083e-02 0.000000e+00 0.000000e+00 0.000000e+00
<VARIANCE> 20
 6.859810e+06 1.000000e-02 1.000000e-02 1.000000e-02 1.000000e-02 1.000000e-02 1.000000e-02 1.000000e-02 1.000000e-02 1.592092e+04 1.000000e-02 7.721445e+05 3.243675e+06 1.390927e+05 2.798657e+03 1.843543e+02 4.724866e-02 1.000000e-02 1.000000e-02 1.000000e-02
<GCONST> 5.740553e+01
<STATE> 13
<MEAN> 20
 1.062340e+04 0.000000e+00 0.000000e+00 0.000000e+00 0.000000e+00 0.000000e+00 0.000000e+00 0.000000e+00 0.000000e+00 4.445610e+02 0.000000e+00 2.052402e+03 8.684062e+03 3.147265e+02 1.593441e+01 8.390024e-01 -1.548008e-31 0.000000e+00 0.000000e+00 0.000000e+00
<VARIANCE> 20
 1.403680e+06 1.000000e-02 1.000000e-02 1.000000e-02 1.000000e-02 1.000000e-02 1.000000e-02 1.000000e-02 1.000000e-02 7.901809e+04 1.000000e-02 8.385931e+05 8.180283e+05 2.854004e+04 4.904101e+02 8.140612e+00 1.000000e-02 1.000000e-02 1.000000e-02 1.000000e-02
<GCONST> 4.812766e+01
<TRANSP> 14
 0.000000e+00 1.000000e+00 0.000000e+00 0.000000e+00 0.000000e+00 0.000000e+00 0.000000e+00 0.000000e+00 0.000000e+00 0.000000e+00 0.000000e+00 0.000000e+00 0.000000e+00 0.000000e+00
 0.000000e+00 4.285795e-01 5.714206e-01 0.000000e+00 0.000000e+00 0.000000e+00 0.000000e+00 0.000000e+00 0.000000e+00 0.000000e+00 0.000000e+00 0.000000e+00 0.000000e+00 0.000000e+00
 0.000000e+00 0.000000e+00 6.689887e-01 3.310113e-01 0.000000e+00 0.000000e+00 0.000000e+00 0.000000e+00 0.000000e+00 0.000000e+00 0.000000e+00 0.000000e+00 0.000000e+00 0.000000e+00
 0.000000e+00 0.000000e+00 0.000000e+00 3.333396e-01 6.666604e-01 0.000000e+00 0.000000e+00 0.000000e+00 0.000000e+00 0.000000e+00 0.000000e+00 0.000000e+00 0.000000e+00 0.000000e+00
 0.000000e+00 0.000000e+00 0.000000e+00 0.000000e+00 3.333372e-01 6.666628e-01 0.000000e+00 0.000000e+00 0.000000e+00 0.000000e+00 0.000000e+00 0.000000e+00 0.000000e+00 0.000000e+00
 0.000000e+00 0.000000e+00 0.000000e+00 0.000000e+00 0.000000e+00 7.499601e-01 2.500399e-01 0.000000e+00 0.000000e+00 0.000000e+00 0.000000e+00 0.000000e+00 0.000000e+00 0.000000e+00
 0.000000e+00 0.000000e+00 0.000000e+00 0.000000e+00 0.000000e+00 0.000000e+00 8.667064e-01 1.332937e-01 0.000000e+00 0.000000e+00 0.000000e+00 0.000000e+00 0.000000e+00 0.000000e+00
 0.000000e+00 0.000000e+00 0.000000e+00 0.000000e+00 0.000000e+00 0.000000e+00 0.000000e+00 6.019902e-01 3.980097e-01 0.000000e+00 0.000000e+00 0.000000e+00 0.000000e+00 0.000000e+00
 0.000000e+00 0.000000e+00 0.000000e+00 0.000000e+00 0.000000e+00 0.000000e+00 0.000000e+00 0.000000e+00 8.089844e-01 1.910155e-01 0.000000e+00 0.000000e+00 0.000000e+00 0.000000e+00
 0.000000e+00 0.000000e+00 0.000000e+00 0.000000e+00 0.000000e+00 0.000000e+00 0.000000e+00 0.000000e+00 0.000000e+00 6.662651e-01 3.337348e-01 0.000000e+00 0.000000e+00 0.000000e+00
 0.000000e+00 0.000000e+00 0.000000e+00 0.000000e+00 0.000000e+00 0.000000e+00 0.000000e+00 0.000000e+00 0.000000e+00 0.000000e+00 0.000000e+00 1.000000e+00 0.000000e+00 0.000000e+00
 0.000000e+00 0.000000e+00 0.000000e+00 0.000000e+00 0.000000e+00 0.000000e+00 0.000000e+00 0.000000e+00 0.000000e+00 0.000000e+00 0.000000e+00 8.011100e-01 1.988901e-01 0.000000e+00
 0.000000e+00 0.000000e+00 0.000000e+00 0.000000e+00 0.000000e+00 0.000000e+00 0.000000e+00 0.000000e+00 0.000000e+00 0.000000e+00 0.000000e+00 0.000000e+00 9.041286e-01 9.587149e-02
 0.000000e+00 0.000000e+00 0.000000e+00 0.000000e+00 0.000000e+00 0.000000e+00 0.000000e+00 0.000000e+00 0.000000e+00 0.000000e+00 0.000000e+00 0.000000e+00 0.000000e+00 0.000000e+00
<ENDHMM>
~h "i"
<BEGINHMM>
<NUMSTATES> 14
<STATE> 2
<MEAN> 20
 5.965882e+03 1.020441e+02 -1.327416e-08 0.000000e+00 0.000000e+00 -1.259035e-05 -1.914269e-06 9.990314e-01 -1.550764e-06 2.228739e+02 3.267708e+00 5.724046e+02 2.620993e+03 1.656675e+03 1.053289e+03 2.268089e+02 8.120723e+01 5.117693e+01 1.448767e+01 1.148888e+01
<VARIANCE> 20
 8.779075e+06 1.015137e+05 1.000000e-02 1.000000e-02 1.000000e-02 1.000000e-02 1.000000e-02 1.099027e+01 1.000000e-02 2.139996e+05 1.108924e+02 1.028816e+06 1.188210e+07 1.297225e+06 8.834273e+05 8.606417e+04 1.580207e+04 6.728013e+03 8.528078e+02 1.453471e+03
<GCONST> 1.577984e+02
<STATE> 3
<MEAN> 20
 4.205532e+03 7.186939e+01 1.218756e+01 1.375006e+00 2.856263e+01 3.587517e+01 1.764383e+02 4.512513e+01 1.775004e+01 2.009360e+02 3.271265e+02 4.600218e+02 1.908507e+03 7.665486e+02 1.026432e+03 1.599930e+02 7.028157e+01 4.988368e+01 2.067557e+01 6.181518e+00
<VARIANCE> 20
 1.104202e+07 1.689509e+04 8.425305e+02 2.835950e+01 5.356518e+03 9.850639e+03 1.153617e+05 7.838888e+03 1.727444e+03 1.908870e+05 3.453023e+05 6.419428e+05 9.485116e+06 1.681544e+06 1.074129e+06 3.256319e+04 1.182045e+04 1.335515e+04 4.716890e+03 2.279716e+02
<GCONST> 2.443770e+02
<STATE> 4
<MEAN> 20
 5.923672e+03 2.232174e+01 0.000000e+00 0.000000e+00 -1.201786e-09 1.345084e-05 2.182694e+01 3.852672e+01 4.175055e+01 3.768253e+02 1.460037e+02 7.506924e+02 2.766029e+03 1.064514e+03 1.429235e+03 1.119307e+02 1.006062e+02 4.706139e+01 7.354763e+00 1.496078e+00
<VARIANCE> 20
 9.176331e+06 2.872345e+03 1.000000e-02 1.000000e-02 1.000000e-02 1.000000e-02 3.284254e+03 7.595502e+03 8.064406e+03 2.519740e+05 8.038717e+04 1.512616e+06 1.387286e+07 1.171505e+06 2.160645e+06 1.566770e+04 4.016243e+04 5.340897e+03 3.291511e+02 2.174508e+01
<GCONST> 1.890446e+02
<STATE> 5
<MEAN> 20
 5.554244e+03 2.497431e+00 0.000000e+00 0.000000e+00 3.196458e+00 9.988768e-01 5.373914e+01 1.827882e+01 8.290438e+00 3.186198e+02 8.400463e+01 7.666707e+02 2.917807e+03 8.176830e+02 1.298975e+03 3.414565e+01 2.429069e+01 1.578964e+01 4.994952e-01 1.401298e-45
<VARIANCE> 20
 1.006443e+07 5.619476e+01 1.000000e-02 1.000000e-02 9.206931e+01 5.794685e+00 1.394164e+04 1.430725e+03 2.793656e+02 1.498688e+05 3.226751e+04 1.407756e+06 1.312301e+07 1.042473e+06 1.650372e+06 6.772630e+03 5.310564e+03 2.245422e+03 2.247798e+00 1.000000e-02
<GCONST> 1.787610e+02
<STATE> 6
<MEAN> 20
 7.665096e+03 2.862636e+02 2.214951e+01 1.334245e-01 0.000000e+00 0.000000e+00 8.005894e-01 8.005858e-01 5.737293e+00 3.844792e+02 1.894633e+01 8.895118e+02 5.350834e+03 8.867849e+02 1.121034e+03 9.261574e+01 5.398732e+00 3.335755e-01 -8.752650e-41 0.000000e+00
<VARIANCE> 20
 1.987766e+07 7.359351e+05 5.665244e+03 2.490469e-01 1.000000e-02 1.000000e-02 8.966128e+00 7.498385e+00 3.504125e+02 2.047287e+05 3.364248e+03 1.218414e+06 2.829396e+07 6.034051e+05 1.844608e+06 3.071150e+04 7.815914e+01 3.557352e-01 1.000000e-02 1.000000e-02
<GCONST> 1.588874e+02
<STATE> 7
<MEAN> 20
 7.839770e+03 4.121181e+00 0.000000e+00 0.000000e+00 0.000000e+00 0.000000e+00 0.000000e+00 0.000000e+00 0.000000e+00 4.835596e+02 -1.062854e-07 1.285234e+03 5.441727e+03 7.704172e+02 7.004083e+02 7.712862e+01 3.868274e+01 1.368783e+01 1.657112e-01 -1.887203e-08
<VARIANCE> 20
 6.257013e+06 1.321379e+02 1.000000e-02 1.000000e-02 1.000000e-02 1.000000e-02 1.000000e-02 1.000000e-02 1.000000e-02 2.309378e+05 1.000000e-02 1.121918e+06 1.233093e+07 7.743356e+05 1.313285e+06 2.330998e+04 7.204714e+03 1.133537e+03 5.359576e-01 1.000000e-02
<GCONST> 1.114485e+02
<STATE> 8
<MEAN> 20
 6.622713e+03 1.286492e+01 6.399756e+00 0.000000e+00 0.000000e+00 0.000000e+00 0.000000e+00 5.999837e+00 1.439961e+01 3.103055e+02 1.049971e+01 1.099767e+03 3.804106e+03 1.030091e+03 9.349246e+02 7.939482e+01 1.050034e+01 3.299884e+00 9.999647e-02 0.000000e+00
<VARIANCE> 20
 9.840651e+06 6.176254e+02 3.206293e+02 1.000000e-02 1.000000e-02 1.000000e-02 1.000000e-02 3.239922e+02 1.866195e+03 1.131143e+05 9.922258e+02 1.774026e+06 1.339782e+07 1.517792e+06 1.184999e+06 4.669717e+04 6.478403e+02 9.800693e+01 8.999717e-02 1.000000e-02
<GCONST> 1.522979e+02
<STATE> 9
<MEAN> 20
 5.087045e+03 2.448393e+02 1.022503e+02 3.200022e+00 5.340038e+01 2.840018e+01 4.261028e+02 8.250048e+01 5.010028e+01 2.844186e+02 7.106050e+02 6.291071e+02 2.243557e+03 1.340051e+03 9.436086e+02 2.154357e+02 1.327923e+02 8.995066e+01 5.550040e+01 1.650012e+00
<VARIANCE> 20
 7.424926e+06 3.266427e+05 3.679985e+04 8.306046e+01 1.277971e+04 5.397669e+03 5.617380e+05 1.758312e+04 5.009805e+03 6.513950e+04 1.539106e+06 7.968308e+05 8.865133e+06 1.460817e+06 7.027074e+05 5.933927e+04 8.815242e+04 6.759843e+04 2.166760e+04 2.082762e+01
<GCONST> 2.588826e+02
<STATE> 10
<MEAN> 20
 4.891250e+03 8.378602e-01 0.000000e+00 0.000000e+00 0.000000e+00 0.000000e+00 0.000000e+00 4.954578e+00 3.045477e+00 1.456759e+02 9.090920e+00 2.857254e+02 1.683228e+03 1.362172e+03 1.472219e+03 9.232842e+01 5.809089e+01 5.504551e+01 2.590908e+01 1.954541e+00
<VARIANCE> 20
 4.545976e+06 1.121455e+01 1.000000e-02 1.000000e-02 1.000000e-02 1.000000e-02 1.000000e-02 4.255006e+02 8.513481e+01 4.997944e+04 8.059907e+02 4.783608e+05 7.673798e+06 1.488601e+06 2.015393e+06 5.018914e+04 2.059334e+04 2.588106e+04 7.621617e+03 6.004325e+01
<GCONST> 1.611001e+02
<STATE> 11
<MEAN> 20
 5.437519e+03 7.020671e+00 0.000000e+00 0.000000e+00 1.045457e+01 5.636379e+00 1.530913e+02 2.128067e+01 1.431570e+01 2.597911e+02 1.824850e+02 5.263760e+02 2.870946e+03 5.610504e+02 1.244613e+03 2.040921e+02 1.694552e+02 9.990955e+01 4.772766e+01 2.454552e+00
<VARIANCE> 20
 7.494864e+06 1.930081e+02 1.000000e-02 1.000000e-02 1.092978e+03 1.436863e+02 2.005078e+05 2.395695e+03 7.304295e+02 5.350663e+04 2.518805e+05 4.880263e+05 1.016556e+07 6.628232e+05 3.336340e+06 9.430121e+04 1.515955e+05 2.309212e+04 8.326266e+03 6.024809e+01
<GCONST> 2.147253e+02
<STATE> 12
<MEAN> 20
 5.103561e+03 1.284554e+01 1.005823e+00 0.000000e+00 0.000000e+00 0.000000e+00 4.827901e+00 1.454498e+01 6.405493e+00 3.339056e+02 4.470346e+00 6.129012e+02 2.872689e+03 3.908383e+02 8.795262e+02 4.000399e+02 1.184178e+02 7.147990e+01 1.143947e+02 1.233798e+01
<VARIANCE> 20
 8.511142e+06 2.181366e+03 1.407567e+01 1.000000e-02 1.000000e-02 1.000000e-02 2.154042e+02 1.224538e+03 1.302234e+02 1.126772e+05 1.626969e+02 6.166442e+05 1.187290e+07 3.890209e+05 1.380213e+06 3.036858e+05 2.992549e+04 1.564285e+04 6.423509e+04 6.627509e+02
<GCONST> 1.900930e+02
<STATE> 13
<MEAN> 20
 7.306602e+03 -1.491757e-08 0.000000e+00 0.000000e+00 0.000000e+00 0.000000e+00 0.000000e+00 0.000000e+00 0.000000e+00 2.004862e+02 0.000000e+00 1.374060e+03 5.739930e+03 2.685141e+02 1.202061e+02 4.377450e+00 -4.740980e-08 0.000000e+00 0.000000e+00 0.000000e+00
<VARIANCE> 20
 3.529030e+06 1.000000e-02 1.000000e-02 1.000000e-02 1.000000e-02 1.000000e-02 1.000000e-02 1.000000e-02 1.000000e-02 4.504980e+04 1.000000e-02 7.320465e+05 4.252466e+06 1.512997e+05 2.928257e+05 7.556721e+02 1.000000e-02 1.000000e-02 1.000000e-02 1.000000e-02
<GCONST> 6.259094e+01
<TRANSP> 14
 0.000000e+00 1.000000e+00 0.000000e+00 0.000000e+00 0.000000e+00 0.000000e+00 0.000000e+00 0.000000e+00 0.000000e+00 0.000000e+00 0.000000e+00 0.000000e+00 0.000000e+00 0.000000e+00
 0.000000e+00 2.507287e-01 7.492713e-01 0.000000e+00 0.000000e+00 0.000000e+00 0.000000e+00 0.000000e+00 0.000000e+00 0.000000e+00 0.000000e+00 0.000000e+00 0.000000e+00 0.000000e+00
 0.000000e+00 0.000000e+00 4.375020e-01 5.624980e-01 0.000000e+00 0.000000e+00 0.000000e+00 0.000000e+00 0.000000e+00 0.000000e+00 0.000000e+00 0.000000e+00 0.000000e+00 0.000000e+00
 0.000000e+00 0.000000e+00 0.000000e+00 2.559416e-01 7.440584e-01 0.000000e+00 0.000000e+00 0.000000e+00 0.000000e+00 0.000000e+00 0.000000e+00 0.000000e+00 0.000000e+00 0.000000e+00
 0.000000e+00 0.000000e+00 0.000000e+00 0.000000e+00 1.010021e-01 8.989979e-01 0.000000e+00 0.000000e+00 0.000000e+00 0.000000e+00 0.000000e+00 0.000000e+00 0.000000e+00 0.000000e+00
 0.000000e+00 0.000000e+00 0.000000e+00 0.000000e+00 0.000000e+00 3.995619e-01 6.004382e-01 0.000000e+00 0.000000e+00 0.000000e+00 0.000000e+00 0.000000e+00 0.000000e+00 0.000000e+00
 0.000000e+00 0.000000e+00 0.000000e+00 0.000000e+00 0.000000e+00 0.000000e+00 7.017212e-01 2.982788e-01 0.000000e+00 0.000000e+00 0.000000e+00 0.000000e+00 0.000000e+00 0.000000e+00
 0.000000e+00 0.000000e+00 0.000000e+00 0.000000e+00 0.000000e+00 0.000000e+00 0.000000e+00 1.000394e-01 8.999605e-01 0.000000e+00 0.000000e+00 0.000000e+00 0.000000e+00 0.000000e+00
 0.000000e+00 0.000000e+00 0.000000e+00 0.000000e+00 0.000000e+00 0.000000e+00 0.000000e+00 0.000000e+00 5.500028e-01 4.499972e-01 0.000000e+00 0.000000e+00 0.000000e+00 0.000000e+00
 0.000000e+00 0.000000e+00 0.000000e+00 0.000000e+00 0.000000e+00 0.000000e+00 0.000000e+00 0.000000e+00 0.000000e+00 5.909116e-01 4.090885e-01 0.000000e+00 0.000000e+00 0.000000e+00
 0.000000e+00 0.000000e+00 0.000000e+00 0.000000e+00 0.000000e+00 0.000000e+00 0.000000e+00 0.000000e+00 0.000000e+00 0.000000e+00 1.818190e-01 8.181810e-01 0.000000e+00 0.000000e+00
 0.000000e+00 0.000000e+00 0.000000e+00 0.000000e+00 0.000000e+00 0.000000e+00 0.000000e+00 0.000000e+00 0.000000e+00 0.000000e+00 0.000000e+00 3.965145e-01 6.034855e-01 0.000000e+00
 0.000000e+00 0.000000e+00 0.000000e+00 0.000000e+00 0.000000e+00 0.000000e+00 0.000000e+00 0.000000e+00 0.000000e+00 0.000000e+00 0.000000e+00 0.000000e+00 8.244562e-01 1.755438e-01
 0.000000e+00 0.000000e+00 0.000000e+00 0.000000e+00 0.000000e+00 0.000000e+00 0.000000e+00 0.000000e+00 0.000000e+00 0.000000e+00 0.000000e+00 0.000000e+00 0.000000e+00 0.000000e+00
<ENDHMM>
~h "j"
<BEGINHMM>
<NUMSTATES> 14
<STATE> 2
<MEAN> 20
 7.908677e+03 1.176387e-01 0.000000e+00 0.000000e+00 0.000000e+00 0.000000e+00 0.000000e+00 0.000000e+00 0.000000e+00 3.259182e+02 2.753386e-04 1.038078e+03 5.765424e+03 7.826429e+02 5.242887e+02 8.062338e+01 2.893806e+01 1.447342e+01 2.441830e-01 0.000000e+00
<VARIANCE> 20
 9.077066e+06 7.739236e-01 1.000000e-02 1.000000e-02 1.000000e-02 1.000000e-02 1.000000e-02 1.000000e-02 1.000000e-02 1.302308e+05 1.000000e-02 1.032246e+06 1.022393e+07 6.887794e+05 9.353319e+05 2.922753e+04 2.938448e+03 1.167934e+03 9.393051e-01 1.000000e-02
<GCONST> 1.053008e+02
<STATE> 3
<MEAN> 20
 9.626498e+03 4.748576e+01 4.000058e-01 0.000000e+00 0.000000e+00 0.000000e+00 0.000000e+00 0.000000e+00 0.000000e+00 2.934417e+02 6.470057e-01 1.172337e+03 7.718807e+03 8.417019e+02 1.187448e+02 7.249899e+01 3.048952e+01 1.170004e+01 9.000080e-01 0.000000e+00
<VARIANCE> 20
 4.428422e+06 3.211918e+04 3.040042e+00 1.000000e-02 1.000000e-02 1.000000e-02 1.000000e-02 1.000000e-02 1.000000e-02 1.383933e+05 4.009270e+00 1.240750e+06 1.837210e+06 5.476961e+05 7.095341e+04 4.432362e+04 7.961228e+03 1.207217e+03 6.490050e+00 1.000000e-02
<GCONST> 1.260266e+02
<STATE> 4
<MEAN> 20
 9.582759e+03 1.978896e+00 0.000000e+00 0.000000e+00 0.000000e+00 0.000000e+00 0.000000e+00 0.000000e+00 0.000000e+00 1.603308e+02 0.000000e+00 9.898770e+02 8.060097e+03 6.319952e+02 4.900093e+01 1.013739e+01 2.725878e+00 1.235547e+00 0.000000e+00 0.000000e+00
<VARIANCE> 20
 2.729046e+06 8.156130e+01 1.000000e-02 1.000000e-02 1.000000e-02 1.000000e-02 1.000000e-02 1.000000e-02 1.000000e-02 4.555302e+04 1.000000e-02 8.422351e+05 2.209580e+06 2.221251e+05 2.589705e+03 2.858233e+02 8.599839e+01 3.036003e+01 1.000000e-02 1.000000e-02
<GCONST> 8.259853e+01
<STATE> 5
<MEAN> 20
 9.150400e+03 0.000000e+00 0.000000e+00 0.000000e+00 0.000000e+00 0.000000e+00 0.000000e+00 0.000000e+00 0.000000e+00 1.710108e+02 1.024830e-01 9.169261e+02 7.660853e+03 7.060949e+02 3.499488e+01 2.417672e+00 2.271295e-02 0.000000e+00 0.000000e+00 0.000000e+00
<VARIANCE> 20
 5.591250e+06 1.000000e-02 1.000000e-02 1.000000e-02 1.000000e-02 1.000000e-02 1.000000e-02 1.000000e-02 1.000000e-02 3.589381e+04 2.969461e-01 9.637632e+05 4.120965e+06 3.298303e+05 1.571834e+03 4.413984e+01 2.219708e-02 1.000000e-02 1.000000e-02 1.000000e-02
<GCONST> 5.996758e+01
<STATE> 6
<MEAN> 20
 9.135936e+03 0.000000e+00 0.000000e+00 0.000000e+00 0.000000e+00 0.000000e+00 0.000000e+00 0.000000e+00 0.000000e+00 2.393986e+02 0.000000e+00 9.635381e+02 7.708151e+03 6.481378e+02 4.854892e+01 6.633725e+00 3.089492e-01 3.051953e-03 3.051953e-03 9.155860e-03
<VARIANCE> 20
 2.161090e+06 1.000000e-02 1.000000e-02 1.000000e-02 1.000000e-02 1.000000e-02 1.000000e-02 1.000000e-02 1.000000e-02 4.918384e+04 1.000000e-02 6.412674e+05 1.275896e+06 2.170630e+05 2.980706e+03 1.681094e+02 2.225125e+00 1.000000e-02 1.000000e-02 2.738375e-02
<GCONST> 6.153495e+01
<STATE> 7
<MEAN> 20
 1.186557e+04 2.291383e+01 0.000000e+00 0.000000e+00 0.000000e+00 0.000000e+00 0.000000e+00 0.000000e+00 2.135342e-01 4.464581e+02 1.288528e+01 1.704553e+03 9.704746e+03 8.634735e+02 4.082548e+01 7.743552e+00 8.541475e-01 7.117709e-02 0.000000e+00 0.000000e+00
<VARIANCE> 20
 8.238744e+06 2.396548e+03 1.000000e-02 1.000000e-02 1.000000e-02 1.000000e-02 1.000000e-02 1.000000e-02 1.235609e+00 1.994619e+05 2.339038e+03 2.198101e+06 7.047032e+06 5.052994e+05 4.128169e+03 4.950419e+02 1.300763e+01 1.372880e-01 1.000000e-02 1.000000e-02
<GCONST> 1.024090e+02
<STATE> 8
<MEAN> 20
 9.770864e+03 0.000000e+00 0.000000e+00 0.000000e+00 0.000000e+00 0.000000e+00 0.000000e+00 0.000000e+00 0.000000e+00 2.859800e+02 1.971797e-02 9.531229e+02 8.223313e+03 7.780009e+02 8.394760e+01 1.646750e+01 1.859499e+00 1.133397e-01 4.203895e-44 0.000000e+00
<VARIANCE> 20
 1.974870e+06 1.000000e-02 1.000000e-02 1.000000e-02 1.000000e-02 1.000000e-02 1.000000e-02 1.000000e-02 1.000000e-02 1.037704e+05 3.904711e-02 6.875796e+05 1.960779e+06 2.086229e+05 6.803374e+04 6.058663e+02 1.514233e+01 3.173233e-01 1.000000e-02 1.000000e-02
<GCONST> 7.279095e+01
<STATE> 9
<MEAN> 20
 1.097211e+04 6.704143e-01 0.000000e+00 0.000000e+00 0.000000e+00 0.000000e+00 0.000000e+00 0.000000e+00 0.000000e+00 2.847275e+02 5.208979e-03 5.259069e+02 8.195964e+03 2.252219e+03 2.255725e+02 4.743570e+01 9.203979e+00 1.094410e+00 1.078672e-01 0.000000e+00
<VARIANCE> 20
 3.080024e+06 8.028865e+00 1.000000e-02 1.000000e-02 1.000000e-02 1.000000e-02 1.000000e-02 1.000000e-02 1.000000e-02 7.773380e+04 1.039083e-02 3.100394e+05 4.832178e+06 1.997346e+06 9.889829e+04 9.528323e+02 7.325113e+01 3.523063e+00 2.040980e-01 1.000000e-02
<GCONST> 8.850182e+01
<STATE> 10
<MEAN> 20
 9.078182e+03 0.000000e+00 0.000000e+00 0.000000e+00 0.000000e+00 0.000000e+00 0.000000e+00 0.000000e+00 0.000000e+00 1.611260e+02 0.000000e+00 3.084228e+02 6.674654e+03 2.125762e+03 1.108961e+02 1.825546e+01 1.316865e+00 -4.561280e-37 0.000000e+00 0.000000e+00
<VARIANCE> 20
 2.716510e+06 1.000000e-02 1.000000e-02 1.000000e-02 1.000000e-02 1.000000e-02 1.000000e-02 1.000000e-02 1.000000e-02 4.315868e+04 1.000000e-02 1.407587e+05 3.624960e+06 1.735336e+06 5.739682e+03 4.093457e+02 7.895944e+00 1.000000e-02 1.000000e-02 1.000000e-02
<GCONST> 6.504391e+01
<STATE> 11
<MEAN> 20
 8.855530e+03 2.715763e+00 0.000000e+00 0.000000e+00 0.000000e+00 0.000000e+00 0.000000e+00 1.212493e-02 3.637478e-02 1.748101e+02 1.341689e-01 1.489659e+02 4.828386e+03 3.619181e+03 4.000828e+02 3.347575e+01 2.790984e+00 8.810033e-02 0.000000e+00 0.000000e+00
<VARIANCE> 20
 8.515647e+06 9.469713e+01 1.000000e-02 1.000000e-02 1.000000e-02 1.000000e-02 1.000000e-02 1.197791e-02 1.078012e-01 4.920286e+04 1.449913e+00 1.580999e+05 7.595160e+06 4.752868e+06 1.752340e+05 1.469883e+03 3.311903e+01 1.082894e-01 1.000000e-02 1.000000e-02
<GCONST> 9.338474e+01
<STATE> 12
<MEAN> 20
 5.611355e+03 7.267352e+01 1.606382e+01 2.258001e+00 1.854795e+01 2.045759e+02 1.427708e+02 4.545015e+01 1.546061e+01 1.809428e+02 3.654910e+02 3.020163e+02 2.481413e+03 1.682903e+03 1.020464e+03 3.877509e+02 6.038338e+01 9.677406e+00 0.000000e+00 0.000000e+00
<VARIANCE> 20
 1.627562e+07 3.842152e+04 2.065013e+03 1.142534e+02 3.849909e+03 1.086980e+06 1.799645e+05 7.917356e+03 1.244858e+03 6.784277e+04 3.528309e+05 3.244805e+05 1.173336e+07 3.247446e+06 1.452387e+06 4.231741e+05 5.265535e+04 2.300592e+03 1.000000e-02 1.000000e-02
<GCONST> 2.310556e+02
<STATE> 13
<MEAN> 20
 8.794062e+03 1.618075e+01 4.319071e-01 3.199320e-02 4.883503e-01 4.403109e+02 1.214348e+02 6.364023e+01 6.886308e+01 6.019430e+02 4.864829e+01 8.291662e+02 5.987578e+03 1.751970e+03 9.791549e+02 4.066227e+02 8.446799e+01 1.464084e+01 5.057188e+00 7.998203e-02
<VARIANCE> 20
 1.801300e+07 3.559580e+03 5.092325e+00 7.895889e-02 7.320791e+00 3.539047e+05 3.520300e+04 4.758363e+03 4.446070e+03 4.594637e+05 3.105699e+04 1.602396e+06 2.194239e+07 1.851919e+06 1.924536e+06 1.517245e+05 7.343408e+04 7.864616e+03 2.144990e+03 2.335495e-01
<GCONST> 2.246292e+02
<TRANSP> 14
 0.000000e+00 1.000000e+00 0.000000e+00 0.000000e+00 0.000000e+00 0.000000e+00 0.000000e+00 0.000000e+00 0.000000e+00 0.000000e+00 0.000000e+00 0.000000e+00 0.000000e+00 0.000000e+00
 0.000000e+00 5.560303e-01 4.439697e-01 0.000000e+00 0.000000e+00 0.000000e+00 0.000000e+00 0.000000e+00 0.000000e+00 0.000000e+00 0.000000e+00 0.000000e+00 0.000000e+00 0.000000e+00
 0.000000e+00 0.000000e+00 0.000000e+00 1.000000e+00 0.000000e+00 0.000000e+00 0.000000e+00 0.000000e+00 0.000000e+00 0.000000e+00 0.000000e+00 0.000000e+00 0.000000e+00 0.000000e+00
 0.000000e+00 0.000000e+00 0.000000e+00 5.247895e-01 4.752105e-01 0.000000e+00 0.000000e+00 0.000000e+00 0.000000e+00 0.000000e+00 0.000000e+00 0.000000e+00 0.000000e+00 0.000000e+00
 0.000000e+00 0.000000e+00 0.000000e+00 0.000000e+00 0.000000e+00 1.000000e+00 0.000000e+00 0.000000e+00 0.000000e+00 0.000000e+00 0.000000e+00 0.000000e+00 0.000000e+00 0.000000e+00
 0.000000e+00 0.000000e+00 0.000000e+00 0.000000e+00 0.000000e+00 9.389607e-01 6.103927e-02 0.000000e+00 0.000000e+00 0.000000e+00 0.000000e+00 0.000000e+00 0.000000e+00 0.000000e+00
 0.000000e+00 0.000000e+00 0.000000e+00 0.000000e+00 0.000000e+00 0.000000e+00 2.882292e-01 7.117708e-01 0.000000e+00 0.000000e+00 0.000000e+00 0.000000e+00 0.000000e+00 0.000000e+00
 0.000000e+00 0.000000e+00 0.000000e+00 0.000000e+00 0.000000e+00 0.000000e+00 0.000000e+00 9.014077e-01 9.859233e-02 0.000000e+00 0.000000e+00 0.000000e+00 0.000000e+00 0.000000e+00
 0.000000e+00 0.000000e+00 0.000000e+00 0.000000e+00 0.000000e+00 0.000000e+00 0.000000e+00 0.000000e+00 6.404327e-01 3.595673e-01 0.000000e+00 0.000000e+00 0.000000e+00 0.000000e+00
 0.000000e+00 0.000000e+00 0.000000e+00 0.000000e+00 0.000000e+00 0.000000e+00 0.000000e+00 0.000000e+00 0.000000e+00 8.734005e-01 1.265995e-01 0.000000e+00 0.000000e+00 0.000000e+00
 0.000000e+00 0.000000e+00 0.000000e+00 0.000000e+00 0.000000e+00 0.000000e+00 0.000000e+00 0.000000e+00 0.000000e+00 0.000000e+00 7.575006e-01 2.424994e-01 0.000000e+00 0.000000e+00
 0.000000e+00 0.000000e+00 0.000000e+00 0.000000e+00 0.000000e+00 0.000000e+00 0.000000e+00 0.000000e+00 0.000000e+00 0.000000e+00 0.000000e+00 3.548530e-01 6.451470e-01 0.000000e+00
 0.000000e+00 0.000000e+00 0.000000e+00 0.000000e+00 0.000000e+00 0.000000e+00 0.000000e+00 0.000000e+00 0.000000e+00 0.000000e+00 0.000000e+00 0.000000e+00 8.400365e-01 1.599636e-01
 0.000000e+00 0.000000e+00 0.000000e+00 0.000000e+00 0.000000e+00 0.000000e+00 0.000000e+00 0.000000e+00 0.000000e+00 0.000000e+00 0.000000e+00 0.000000e+00 0.000000e+00 0.000000e+00
<ENDHMM>
~h "sil"
<BEGINHMM>
<NUMSTATES> 14
<STATE> 2
<MEAN> 20
 8.447985e+03 4.540551e-02 0.000000e+00 0.000000e+00 0.000000e+00 0.000000e+00 0.000000e+00 0.000000e+00 0.000000e+00 5.758970e+01 0.000000e+00 1.194151e+01 2.336049e+03 4.645438e+03 1.315578e+03 1.363415e+02 3.755280e+01 1.631564e+01 5.677923e+00 7.264882e-01
<VARIANCE> 20
 3.468104e+06 4.334385e-02 1.000000e-02 1.000000e-02 1.000000e-02 1.000000e-02 1.000000e-02 1.000000e-02 1.000000e-02 4.307947e+03 1.000000e-02 2.812130e+03 3.120668e+06 3.171801e+06 8.406666e+05 9.499761e+03 7.942463e+02 1.221902e+02 3.483004e+01 2.287357e+00
<GCONST> 9.673180e+01
<STATE> 3
<MEAN> 20
 8.180814e+03 6.445973e-43 0.000000e+00 0.000000e+00 0.000000e+00 0.000000e+00 0.000000e+00 0.000000e+00 0.000000e+00 1.837144e+01 0.000000e+00 2.780946e+00 3.071137e+03 4.239302e+03 7.628702e+02 8.033327e+01 3.142996e+01 1.033233e+01 9.501624e-01 4.922119e-02
<VARIANCE> 20
 2.515288e+06 1.000000e-02 1.000000e-02 1.000000e-02 1.000000e-02 1.000000e-02 1.000000e-02 1.000000e-02 1.000000e-02 8.476219e+02 1.000000e-02 2.699936e+02 1.739360e+06 1.505291e+06 3.970030e+05 1.319799e+03 2.856817e+02 5.458265e+01 2.202824e+00 4.679846e-02
<GCONST> 7.844262e+01
<STATE> 4
<MEAN> 20
 7.960123e+03 0.000000e+00 0.000000e+00 0.000000e+00 0.000000e+00 0.000000e+00 0.000000e+00 0.000000e+00 0.000000e+00 2.868559e+01 0.000000e+00 2.221667e-01 4.601623e+03 3.022137e+03 2.929522e+02 5.136767e+01 1.705606e+01 3.166038e+00 2.840921e-01 4.404734e-35
<VARIANCE> 20
 2.379069e+06 1.000000e-02 1.000000e-02 1.000000e-02 1.000000e-02 1.000000e-02 1.000000e-02 1.000000e-02 1.000000e-02 2.555838e+03 1.000000e-02 2.616643e+00 1.744238e+06 7.427182e+05 1.466032e+05 5.145084e+02 7.919214e+01 9.716406e+00 4.692375e-01 1.000000e-02
<GCONST> 6.611373e+01
<STATE> 5
<MEAN> 20
 8.384756e+03 0.000000e+00 0.000000e+00 0.000000e+00 0.000000e+00 0.000000e+00 0.000000e+00 0.000000e+00 0.000000e+00 4.257740e+01 0.000000e+00 3.183572e+01 5.115333e+03 2.875968e+03 3.209230e+02 6.721479e+01 1.370218e+01 2.315031e+00 4.299235e-02 0.000000e+00
<VARIANCE> 20
 4.970422e+06 1.000000e-02 1.000000e-02 1.000000e-02 1.000000e-02 1.000000e-02 1.000000e-02 1.000000e-02 1.000000e-02 3.354500e+03 1.000000e-02 5.552928e+03 3.757001e+06 9.770024e+05 3.211709e+05 9.812661e+03 1.053848e+02 8.242334e+00 4.114401e-02 1.000000e-02
<GCONST> 7.724374e+01
<STATE> 6
<MEAN> 20
 8.220858e+03 1.836064e+01 0.000000e+00 0.000000e+00 0.000000e+00 0.000000e+00 0.000000e+00 0.000000e+00 0.000000e+00 5.637954e+01 0.000000e+00 8.847697e+01 5.238212e+03 2.719155e+03 1.934028e+02 4.788175e+01 7.601517e+00 8.684097e-01 0.000000e+00 0.000000e+00
<VARIANCE> 20
 4.087218e+06 4.881771e+03 1.000000e-02 1.000000e-02 1.000000e-02 1.000000e-02 1.000000e-02 1.000000e-02 1.000000e-02 4.710858e+03 1.000000e-02 2.341099e+04 2.943650e+06 1.234678e+06 3.299836e+04 1.606501e+03 1.515148e+02 9.790821e+00 1.000000e-02 1.000000e-02
<GCONST> 8.695069e+01
<STATE> 7
<MEAN> 20
 8.879112e+03 0.000000e+00 0.000000e+00 0.000000e+00 0.000000e+00 0.000000e+00 0.000000e+00 0.000000e+00 0.000000e+00 9.935965e+01 0.000000e+00 1.888673e+02 6.128688e+03 2.496178e+03 1.209627e+02 3.701916e+01 6.571687e+00 1.852749e-01 0.000000e+00 0.000000e+00
<VARIANCE> 20
 2.108756e+06 1.000000e-02 1.000000e-02 1.000000e-02 1.000000e-02 1.000000e-02 1.000000e-02 1.000000e-02 1.000000e-02 1.428533e+04 1.000000e-02 1.092491e+05 1.984305e+06 1.012845e+06 2.893851e+03 3.440751e+02 3.146474e+01 2.436673e-01 1.000000e-02 1.000000e-02
<GCONST> 6.600782e+01
<STATE> 8
<MEAN> 20
 9.246253e+03 0.000000e+00 0.000000e+00 0.000000e+00 0.000000e+00 0.000000e+00 0.000000e+00 0.000000e+00 0.000000e+00 1.129637e+02 0.000000e+00 4.412470e+02 6.559301e+03 2.211277e+03 1.077379e+02 3.236045e+01 6.702297e+00 5.256053e-01 6.581570e-02 0.000000e+00
<VARIANCE> 20
 2.879802e+06 1.000000e-02 1.000000e-02 1.000000e-02 1.000000e-02 1.000000e-02 1.000000e-02 1.000000e-02 1.000000e-02 3.472323e+04 1.000000e-02 3.903706e+05 2.530679e+06 1.015584e+06 2.424237e+03 3.259838e+02 3.153906e+01 7.752783e-01 6.148399e-02 1.000000e-02
<GCONST> 7.147189e+01
<STATE> 9
<MEAN> 20
