~o
<STREAMINFO> 1 26
<VECSIZE> 26<NULLD><MFCC_E_D><DIAGC>
~h "C"
<BEGINHMM>
<NUMSTATES> 5
<STATE> 2
<MEAN> 26
 -1.375407e+01 -3.862777e+00 -1.929315e+00 -4.566510e+00 -5.211424e+00 -3.982231e+00 -2.750181e+00 -1.415401e+00 -1.330004e+00 -1.118208e+00 -3.098535e+00 -4.907037e-01 3.413758e-01 -2.155814e+00 9.255800e-02 -1.164918e+00 -2.919502e-01 1.594885e+00 5.282143e-01 5.917795e-01 -1.450301e-01 3.355447e-01 -5.356855e-02 1.823416e-01 4.382990e-02 -3.549461e-02
<VARIANCE> 26
 4.298635e+01 5.365331e+01 3.680460e+01 4.614632e+01 3.986458e+01 3.569157e+01 3.251485e+01 3.446555e+01 2.385500e+01 1.945025e+01 2.233382e+01 1.571765e+01 5.651619e-02 5.849442e+00 5.926056e+00 4.347320e+00 6.321072e+00 6.334537e+00 3.890674e+00 4.813678e+00 4.321627e+00 3.423357e+00 2.346628e+00 2.408567e+00 1.841320e+00 5.000000e-02
<GCONST> 1.000515e+02
<STATE> 3
<MEAN> 26
 -2.176262e+01 -4.235105e+00 -6.429973e+00 -8.805420e+00 -2.157653e+00 -5.123922e+00 -4.998632e-01 -1.407578e+00 -1.914827e-01 -1.530402e+00 -2.012523e+00 6.358700e-02 4.506471e-01 1.087660e-01 -4.200861e-01 -1.572856e-01 -3.343913e-01 -2.258036e-01 -5.091301e-02 -1.217849e-02 6.403547e-02 8.030528e-02 -9.689797e-02 -7.941779e-02 -1.140533e-02 9.889393e-03
<VARIANCE> 26
 3.564420e+01 2.347338e+01 2.895708e+01 3.164098e+01 2.656107e+01 3.550368e+01 2.100572e+01 1.647811e+01 1.714828e+01 1.559301e+01 1.191997e+01 1.092138e+01 6.834887e-02 3.229755e+00 1.761076e+00 2.025394e+00 2.594897e+00 1.678680e+00 2.077111e+00 1.964416e+00 1.789028e+00 1.770447e+00 1.856397e+00 1.581188e+00 1.164164e+00 5.000000e-02
<GCONST> 8.651278e+01
<STATE> 4
<MEAN> 26
 -9.248863e+00 -8.382851e+00 -3.504459e+00 -7.111923e+00 -8.492520e+00 -3.925145e+00 -4.399727e+00 8.742431e-01 -1.272984e+00 -1.361601e+00 -3.405767e+00 -8.287531e-01 5.474694e-01 2.849097e+00 -7.477652e-01 5.843968e-01 -3.486184e-01 -1.760465e+00 1.733173e-01 -1.638310e+00 3.524887e-01 -4.813340e-01 1.899920e-01 1.159263e-02 -4.556760e-01 5.658095e-02
<VARIANCE> 26
 7.311059e+01 4.038883e+01 6.939030e+01 3.565501e+01 5.885292e+01 5.172625e+01 5.343826e+01 3.468038e+01 3.416453e+01 2.578710e+01 2.357202e+01 1.675994e+01 5.000000e-02 4.726783e+00 3.766622e+00 4.796629e+00 4.502784e+00 4.552514e+00 5.291040e+00 5.034468e+00 2.803043e+00 3.135998e+00 2.443067e+00 2.473176e+00 2.111621e+00 5.000000e-02
<GCONST> 1.013732e+02
<TRANSP> 5
 0.000000e+00 1.000000e+00 0.000000e+00 0.000000e+00 0.000000e+00
 0.000000e+00 5.315819e-01 4.684181e-01 0.000000e+00 0.000000e+00
 0.000000e+00 0.000000e+00 7.372661e-01 2.627339e-01 0.000000e+00
 0.000000e+00 0.000000e+00 0.000000e+00 6.488658e-01 3.511342e-01
 0.000000e+00 0.000000e+00 0.000000e+00 0.000000e+00 0.000000e+00
<ENDHMM>
