~o
<STREAMINFO> 1 20
<VECSIZE> 20<NULLD><USER><DIAGC>
~h "a"
<BEGINHMM>
<NUMSTATES> 14
<STATE> 2
<MEAN> 20
 7.478701e+03 1.875580e+02 1.328395e+00 0.000000e+00 5.432099e-02 8.148148e-02 1.654321e+00 5.153086e+00 5.874074e+00 1.744543e+02 6.591111e+01 5.229358e+02 3.802741e+03 2.408531e+03 5.851852e+02 2.197605e+02 1.405951e+02 8.161234e+01 2.556296e+01 2.024691e+00
<VARIANCE> 20
 1.833092e+07 1.039454e+07 6.064971e+02 1.000000e-02 3.476665e-01 2.682250e+00 3.261768e+02 1.689458e+03 4.530471e+03 2.147924e+05 5.643829e+05 2.194867e+07 9.713570e+06 3.497697e+06 9.756491e+05 2.813867e+05 4.975496e+04 1.525745e+04 2.894147e+03 6.718951e+01
<GCONST> 2.255551e+02
<STATE> 3
<MEAN> 20
 7.478701e+03 1.875580e+02 1.328395e+00 0.000000e+00 5.432099e-02 8.148148e-02 1.654321e+00 5.153086e+00 5.874074e+00 1.744543e+02 6.591111e+01 5.229358e+02 3.802741e+03 2.408531e+03 5.851852e+02 2.197605e+02 1.405951e+02 8.161234e+01 2.556296e+01 2.024691e+00
<VARIANCE> 20
 1.833092e+07 1.039454e+07 6.064971e+02 1.000000e-02 3.476665e-01 2.682250e+00 3.261768e+02 1.689458e+03 4.530471e+03 2.147924e+05 5.643829e+05 2.194867e+07 9.713570e+06 3.497697e+06 9.756491e+05 2.813867e+05 4.975496e+04 1.525745e+04 2.894147e+03 6.718951e+01
<GCONST> 2.255551e+02
<STATE> 4
<MEAN> 20
 7.478701e+03 1.875580e+02 1.328395e+00 0.000000e+00 5.432099e-02 8.148148e-02 1.654321e+00 5.153086e+00 5.874074e+00 1.744543e+02 6.591111e+01 5.229358e+02 3.802741e+03 2.408531e+03 5.851852e+02 2.197605e+02 1.405951e+02 8.161234e+01 2.556296e+01 2.024691e+00
<VARIANCE> 20
 1.833092e+07 1.039454e+07 6.064971e+02 1.000000e-02 3.476665e-01 2.682250e+00 3.261768e+02 1.689458e+03 4.530471e+03 2.147924e+05 5.643829e+05 2.194867e+07 9.713570e+06 3.497697e+06 9.756491e+05 2.813867e+05 4.975496e+04 1.525745e+04 2.894147e+03 6.718951e+01
<GCONST> 2.255551e+02
<STATE> 5
<MEAN> 20
 7.478701e+03 1.875580e+02 1.328395e+00 0.000000e+00 5.432099e-02 8.148148e-02 1.654321e+00 5.153086e+00 5.874074e+00 1.744543e+02 6.591111e+01 5.229358e+02 3.802741e+03 2.408531e+03 5.851852e+02 2.197605e+02 1.405951e+02 8.161234e+01 2.556296e+01 2.024691e+00
<VARIANCE> 20
 1.833092e+07 1.039454e+07 6.064971e+02 1.000000e-02 3.476665e-01 2.682250e+00 3.261768e+02 1.689458e+03 4.530471e+03 2.147924e+05 5.643829e+05 2.194867e+07 9.713570e+06 3.497697e+06 9.756491e+05 2.813867e+05 4.975496e+04 1.525745e+04 2.894147e+03 6.718951e+01
<GCONST> 2.255551e+02
<STATE> 6
<MEAN> 20
 7.478701e+03 1.875580e+02 1.328395e+00 0.000000e+00 5.432099e-02 8.148148e-02 1.654321e+00 5.153086e+00 5.874074e+00 1.744543e+02 6.591111e+01 5.229358e+02 3.802741e+03 2.408531e+03 5.851852e+02 2.197605e+02 1.405951e+02 8.161234e+01 2.556296e+01 2.024691e+00
<VARIANCE> 20
 1.833092e+07 1.039454e+07 6.064971e+02 1.000000e-02 3.476665e-01 2.682250e+00 3.261768e+02 1.689458e+03 4.530471e+03 2.147924e+05 5.643829e+05 2.194867e+07 9.713570e+06 3.497697e+06 9.756491e+05 2.813867e+05 4.975496e+04 1.525745e+04 2.894147e+03 6.718951e+01
<GCONST> 2.255551e+02
<STATE> 7
<MEAN> 20
 7.478701e+03 1.875580e+02 1.328395e+00 0.000000e+00 5.432099e-02 8.148148e-02 1.654321e+00 5.153086e+00 5.874074e+00 1.744543e+02 6.591111e+01 5.229358e+02 3.802741e+03 2.408531e+03 5.851852e+02 2.197605e+02 1.405951e+02 8.161234e+01 2.556296e+01 2.024691e+00
<VARIANCE> 20
 1.833092e+07 1.039454e+07 6.064971e+02 1.000000e-02 3.476665e-01 2.682250e+00 3.261768e+02 1.689458e+03 4.530471e+03 2.147924e+05 5.643829e+05 2.194867e+07 9.713570e+06 3.497697e+06 9.756491e+05 2.813867e+05 4.975496e+04 1.525745e+04 2.894147e+03 6.718951e+01
<GCONST> 2.255551e+02
<STATE> 8
<MEAN> 20
 7.478701e+03 1.875580e+02 1.328395e+00 0.000000e+00 5.432099e-02 8.148148e-02 1.654321e+00 5.153086e+00 5.874074e+00 1.744543e+02 6.591111e+01 5.229358e+02 3.802741e+03 2.408531e+03 5.851852e+02 2.197605e+02 1.405951e+02 8.161234e+01 2.556296e+01 2.024691e+00
<VARIANCE> 20
 1.833092e+07 1.039454e+07 6.064971e+02 1.000000e-02 3.476665e-01 2.682250e+00 3.261768e+02 1.689458e+03 4.530471e+03 2.147924e+05 5.643829e+05 2.194867e+07 9.713570e+06 3.497697e+06 9.756491e+05 2.813867e+05 4.975496e+04 1.525745e+04 2.894147e+03 6.718951e+01
<GCONST> 2.255551e+02
<STATE> 9
<MEAN> 20
 7.478701e+03 1.875580e+02 1.328395e+00 0.000000e+00 5.432099e-02 8.148148e-02 1.654321e+00 5.153086e+00 5.874074e+00 1.744543e+02 6.591111e+01 5.229358e+02 3.802741e+03 2.408531e+03 5.851852e+02 2.197605e+02 1.405951e+02 8.161234e+01 2.556296e+01 2.024691e+00
<VARIANCE> 20
 1.833092e+07 1.039454e+07 6.064971e+02 1.000000e-02 3.476665e-01 2.682250e+00 3.261768e+02 1.689458e+03 4.530471e+03 2.147924e+05 5.643829e+05 2.194867e+07 9.713570e+06 3.497697e+06 9.756491e+05 2.813867e+05 4.975496e+04 1.525745e+04 2.894147e+03 6.718951e+01
<GCONST> 2.255551e+02
<STATE> 10
<MEAN> 20
 7.478701e+03 1.875580e+02 1.328395e+00 0.000000e+00 5.432099e-02 8.148148e-02 1.654321e+00 5.153086e+00 5.874074e+00 1.744543e+02 6.591111e+01 5.229358e+02 3.802741e+03 2.408531e+03 5.851852e+02 2.197605e+02 1.405951e+02 8.161234e+01 2.556296e+01 2.024691e+00
<VARIANCE> 20
 1.833092e+07 1.039454e+07 6.064971e+02 1.000000e-02 3.476665e-01 2.682250e+00 3.261768e+02 1.689458e+03 4.530471e+03 2.147924e+05 5.643829e+05 2.194867e+07 9.713570e+06 3.497697e+06 9.756491e+05 2.813867e+05 4.975496e+04 1.525745e+04 2.894147e+03 6.718951e+01
<GCONST> 2.255551e+02
<STATE> 11
<MEAN> 20
 7.478701e+03 1.875580e+02 1.328395e+00 0.000000e+00 5.432099e-02 8.148148e-02 1.654321e+00 5.153086e+00 5.874074e+00 1.744543e+02 6.591111e+01 5.229358e+02 3.802741e+03 2.408531e+03 5.851852e+02 2.197605e+02 1.405951e+02 8.161234e+01 2.556296e+01 2.024691e+00
<VARIANCE> 20
 1.833092e+07 1.039454e+07 6.064971e+02 1.000000e-02 3.476665e-01 2.682250e+00 3.261768e+02 1.689458e+03 4.530471e+03 2.147924e+05 5.643829e+05 2.194867e+07 9.713570e+06 3.497697e+06 9.756491e+05 2.813867e+05 4.975496e+04 1.525745e+04 2.894147e+03 6.718951e+01
<GCONST> 2.255551e+02
<STATE> 12
<MEAN> 20
 7.478701e+03 1.875580e+02 1.328395e+00 0.000000e+00 5.432099e-02 8.148148e-02 1.654321e+00 5.153086e+00 5.874074e+00 1.744543e+02 6.591111e+01 5.229358e+02 3.802741e+03 2.408531e+03 5.851852e+02 2.197605e+02 1.405951e+02 8.161234e+01 2.556296e+01 2.024691e+00
<VARIANCE> 20
 1.833092e+07 1.039454e+07 6.064971e+02 1.000000e-02 3.476665e-01 2.682250e+00 3.261768e+02 1.689458e+03 4.530471e+03 2.147924e+05 5.643829e+05 2.194867e+07 9.713570e+06 3.497697e+06 9.756491e+05 2.813867e+05 4.975496e+04 1.525745e+04 2.894147e+03 6.718951e+01
<GCONST> 2.255551e+02
<STATE> 13
<MEAN> 20
 7.478701e+03 1.875580e+02 1.328395e+00 0.000000e+00 5.432099e-02 8.148148e-02 1.654321e+00 5.153086e+00 5.874074e+00 1.744543e+02 6.591111e+01 5.229358e+02 3.802741e+03 2.408531e+03 5.851852e+02 2.197605e+02 1.405951e+02 8.161234e+01 2.556296e+01 2.024691e+00
<VARIANCE> 20
 1.833092e+07 1.039454e+07 6.064971e+02 1.000000e-02 3.476665e-01 2.682250e+00 3.261768e+02 1.689458e+03 4.530471e+03 2.147924e+05 5.643829e+05 2.194867e+07 9.713570e+06 3.497697e+06 9.756491e+05 2.813867e+05 4.975496e+04 1.525745e+04 2.894147e+03 6.718951e+01
<GCONST> 2.255551e+02
<TRANSP> 14
 0.000000e+00 1.000000e+00 0.000000e+00 0.000000e+00 0.000000e+00 0.000000e+00 0.000000e+00 0.000000e+00 0.000000e+00 0.000000e+00 0.000000e+00 0.000000e+00 0.000000e+00 0.000000e+00
 0.000000e+00 5.000000e-01 5.000000e-01 0.000000e+00 0.000000e+00 0.000000e+00 0.000000e+00 0.000000e+00 0.000000e+00 0.000000e+00 0.000000e+00 0.000000e+00 0.000000e+00 0.000000e+00
 0.000000e+00 0.000000e+00 5.000000e-01 5.000000e-01 0.000000e+00 0.000000e+00 0.000000e+00 0.000000e+00 0.000000e+00 0.000000e+00 0.000000e+00 0.000000e+00 0.000000e+00 0.000000e+00
 0.000000e+00 0.000000e+00 0.000000e+00 5.000000e-01 5.000000e-01 0.000000e+00 0.000000e+00 0.000000e+00 0.000000e+00 0.000000e+00 0.000000e+00 0.000000e+00 0.000000e+00 0.000000e+00
 0.000000e+00 0.000000e+00 0.000000e+00 0.000000e+00 5.000000e-01 5.000000e-01 0.000000e+00 0.000000e+00 0.000000e+00 0.000000e+00 0.000000e+00 0.000000e+00 0.000000e+00 0.000000e+00
 0.000000e+00 0.000000e+00 0.000000e+00 0.000000e+00 0.000000e+00 5.000000e-01 5.000000e-01 0.000000e+00 0.000000e+00 0.000000e+00 0.000000e+00 0.000000e+00 0.000000e+00 0.000000e+00
 0.000000e+00 0.000000e+00 0.000000e+00 0.000000e+00 0.000000e+00 0.000000e+00 5.000000e-01 5.000000e-01 0.000000e+00 0.000000e+00 0.000000e+00 0.000000e+00 0.000000e+00 0.000000e+00
 0.000000e+00 0.000000e+00 0.000000e+00 0.000000e+00 0.000000e+00 0.000000e+00 0.000000e+00 5.000000e-01 5.000000e-01 0.000000e+00 0.000000e+00 0.000000e+00 0.000000e+00 0.000000e+00
 0.000000e+00 0.000000e+00 0.000000e+00 0.000000e+00 0.000000e+00 0.000000e+00 0.000000e+00 0.000000e+00 5.000000e-01 5.000000e-01 0.000000e+00 0.000000e+00 0.000000e+00 0.000000e+00
 0.000000e+00 0.000000e+00 0.000000e+00 0.000000e+00 0.000000e+00 0.000000e+00 0.000000e+00 0.000000e+00 0.000000e+00 5.000000e-01 5.000000e-01 0.000000e+00 0.000000e+00 0.000000e+00
 0.000000e+00 0.000000e+00 0.000000e+00 0.000000e+00 0.000000e+00 0.000000e+00 0.000000e+00 0.000000e+00 0.000000e+00 0.000000e+00 5.000000e-01 5.000000e-01 0.000000e+00 0.000000e+00
 0.000000e+00 0.000000e+00 0.000000e+00 0.000000e+00 0.000000e+00 0.000000e+00 0.000000e+00 0.000000e+00 0.000000e+00 0.000000e+00 0.000000e+00 5.000000e-01 5.000000e-01 0.000000e+00
 0.000000e+00 0.000000e+00 0.000000e+00 0.000000e+00 0.000000e+00 0.000000e+00 0.000000e+00 0.000000e+00 0.000000e+00 0.000000e+00 0.000000e+00 0.000000e+00 5.000000e-01 5.000000e-01
 0.000000e+00 0.000000e+00 0.000000e+00 0.000000e+00 0.000000e+00 0.000000e+00 0.000000e+00 0.000000e+00 0.000000e+00 0.000000e+00 0.000000e+00 0.000000e+00 0.000000e+00 0.000000e+00
<ENDHMM>
