~o
<STREAMINFO> 1 20
<VECSIZE> 20<NULLD><USER><DIAGC>
~h "b"
<BEGINHMM>
<NUMSTATES> 14
<STATE> 2
<MEAN> 20
 8.532918e+03 2.364090e+01 1.855362e+00 3.765586e-01 1.897756e+00 7.586883e+02 1.805362e+02 8.048878e+01 8.385287e+01 5.832943e+02 7.116958e+01 5.699551e+02 5.647638e+03 2.251307e+03 1.042224e+03 4.390549e+02 1.926658e+02 2.041646e+01 1.073317e+01 2.384040e+00
<VARIANCE> 20
 1.374662e+07 4.872335e+03 1.187372e+02 7.207331e+00 2.292639e+02 8.197639e+05 6.793462e+04 9.353038e+03 8.780226e+03 2.790631e+05 5.791042e+04 5.722099e+05 1.683362e+07 1.952180e+06 2.924246e+06 2.148435e+05 1.219724e+05 2.734587e+03 1.552390e+03 1.448949e+02
<GCONST> 2.438404e+02
<STATE> 3
<MEAN> 20
 8.532918e+03 2.364090e+01 1.855362e+00 3.765586e-01 1.897756e+00 7.586883e+02 1.805362e+02 8.048878e+01 8.385287e+01 5.832943e+02 7.116958e+01 5.699551e+02 5.647638e+03 2.251307e+03 1.042224e+03 4.390549e+02 1.926658e+02 2.041646e+01 1.073317e+01 2.384040e+00
<VARIANCE> 20
 1.374662e+07 4.872335e+03 1.187372e+02 7.207331e+00 2.292639e+02 8.197639e+05 6.793462e+04 9.353038e+03 8.780226e+03 2.790631e+05 5.791042e+04 5.722099e+05 1.683362e+07 1.952180e+06 2.924246e+06 2.148435e+05 1.219724e+05 2.734587e+03 1.552390e+03 1.448949e+02
<GCONST> 2.438404e+02
<STATE> 4
<MEAN> 20
 8.532918e+03 2.364090e+01 1.855362e+00 3.765586e-01 1.897756e+00 7.586883e+02 1.805362e+02 8.048878e+01 8.385287e+01 5.832943e+02 7.116958e+01 5.699551e+02 5.647638e+03 2.251307e+03 1.042224e+03 4.390549e+02 1.926658e+02 2.041646e+01 1.073317e+01 2.384040e+00
<VARIANCE> 20
 1.374662e+07 4.872335e+03 1.187372e+02 7.207331e+00 2.292639e+02 8.197639e+05 6.793462e+04 9.353038e+03 8.780226e+03 2.790631e+05 5.791042e+04 5.722099e+05 1.683362e+07 1.952180e+06 2.924246e+06 2.148435e+05 1.219724e+05 2.734587e+03 1.552390e+03 1.448949e+02
<GCONST> 2.438404e+02
<STATE> 5
<MEAN> 20
 8.532918e+03 2.364090e+01 1.855362e+00 3.765586e-01 1.897756e+00 7.586883e+02 1.805362e+02 8.048878e+01 8.385287e+01 5.832943e+02 7.116958e+01 5.699551e+02 5.647638e+03 2.251307e+03 1.042224e+03 4.390549e+02 1.926658e+02 2.041646e+01 1.073317e+01 2.384040e+00
<VARIANCE> 20
 1.374662e+07 4.872335e+03 1.187372e+02 7.207331e+00 2.292639e+02 8.197639e+05 6.793462e+04 9.353038e+03 8.780226e+03 2.790631e+05 5.791042e+04 5.722099e+05 1.683362e+07 1.952180e+06 2.924246e+06 2.148435e+05 1.219724e+05 2.734587e+03 1.552390e+03 1.448949e+02
<GCONST> 2.438404e+02
<STATE> 6
<MEAN> 20
 8.532918e+03 2.364090e+01 1.855362e+00 3.765586e-01 1.897756e+00 7.586883e+02 1.805362e+02 8.048878e+01 8.385287e+01 5.832943e+02 7.116958e+01 5.699551e+02 5.647638e+03 2.251307e+03 1.042224e+03 4.390549e+02 1.926658e+02 2.041646e+01 1.073317e+01 2.384040e+00
<VARIANCE> 20
 1.374662e+07 4.872335e+03 1.187372e+02 7.207331e+00 2.292639e+02 8.197639e+05 6.793462e+04 9.353038e+03 8.780226e+03 2.790631e+05 5.791042e+04 5.722099e+05 1.683362e+07 1.952180e+06 2.924246e+06 2.148435e+05 1.219724e+05 2.734587e+03 1.552390e+03 1.448949e+02
<GCONST> 2.438404e+02
<STATE> 7
<MEAN> 20
 8.532918e+03 2.364090e+01 1.855362e+00 3.765586e-01 1.897756e+00 7.586883e+02 1.805362e+02 8.048878e+01 8.385287e+01 5.832943e+02 7.116958e+01 5.699551e+02 5.647638e+03 2.251307e+03 1.042224e+03 4.390549e+02 1.926658e+02 2.041646e+01 1.073317e+01 2.384040e+00
<VARIANCE> 20
 1.374662e+07 4.872335e+03 1.187372e+02 7.207331e+00 2.292639e+02 8.197639e+05 6.793462e+04 9.353038e+03 8.780226e+03 2.790631e+05 5.791042e+04 5.722099e+05 1.683362e+07 1.952180e+06 2.924246e+06 2.148435e+05 1.219724e+05 2.734587e+03 1.552390e+03 1.448949e+02
<GCONST> 2.438404e+02
<STATE> 8
<MEAN> 20
 8.532918e+03 2.364090e+01 1.855362e+00 3.765586e-01 1.897756e+00 7.586883e+02 1.805362e+02 8.048878e+01 8.385287e+01 5.832943e+02 7.116958e+01 5.699551e+02 5.647638e+03 2.251307e+03 1.042224e+03 4.390549e+02 1.926658e+02 2.041646e+01 1.073317e+01 2.384040e+00
<VARIANCE> 20
 1.374662e+07 4.872335e+03 1.187372e+02 7.207331e+00 2.292639e+02 8.197639e+05 6.793462e+04 9.353038e+03 8.780226e+03 2.790631e+05 5.791042e+04 5.722099e+05 1.683362e+07 1.952180e+06 2.924246e+06 2.148435e+05 1.219724e+05 2.734587e+03 1.552390e+03 1.448949e+02
<GCONST> 2.438404e+02
<STATE> 9
<MEAN> 20
 8.532918e+03 2.364090e+01 1.855362e+00 3.765586e-01 1.897756e+00 7.586883e+02 1.805362e+02 8.048878e+01 8.385287e+01 5.832943e+02 7.116958e+01 5.699551e+02 5.647638e+03 2.251307e+03 1.042224e+03 4.390549e+02 1.926658e+02 2.041646e+01 1.073317e+01 2.384040e+00
<VARIANCE> 20
 1.374662e+07 4.872335e+03 1.187372e+02 7.207331e+00 2.292639e+02 8.197639e+05 6.793462e+04 9.353038e+03 8.780226e+03 2.790631e+05 5.791042e+04 5.722099e+05 1.683362e+07 1.952180e+06 2.924246e+06 2.148435e+05 1.219724e+05 2.734587e+03 1.552390e+03 1.448949e+02
<GCONST> 2.438404e+02
<STATE> 10
<MEAN> 20
 8.532918e+03 2.364090e+01 1.855362e+00 3.765586e-01 1.897756e+00 7.586883e+02 1.805362e+02 8.048878e+01 8.385287e+01 5.832943e+02 7.116958e+01 5.699551e+02 5.647638e+03 2.251307e+03 1.042224e+03 4.390549e+02 1.926658e+02 2.041646e+01 1.073317e+01 2.384040e+00
<VARIANCE> 20
 1.374662e+07 4.872335e+03 1.187372e+02 7.207331e+00 2.292639e+02 8.197639e+05 6.793462e+04 9.353038e+03 8.780226e+03 2.790631e+05 5.791042e+04 5.722099e+05 1.683362e+07 1.952180e+06 2.924246e+06 2.148435e+05 1.219724e+05 2.734587e+03 1.552390e+03 1.448949e+02
<GCONST> 2.438404e+02
<STATE> 11
<MEAN> 20
 8.532918e+03 2.364090e+01 1.855362e+00 3.765586e-01 1.897756e+00 7.586883e+02 1.805362e+02 8.048878e+01 8.385287e+01 5.832943e+02 7.116958e+01 5.699551e+02 5.647638e+03 2.251307e+03 1.042224e+03 4.390549e+02 1.926658e+02 2.041646e+01 1.073317e+01 2.384040e+00
<VARIANCE> 20
 1.374662e+07 4.872335e+03 1.187372e+02 7.207331e+00 2.292639e+02 8.197639e+05 6.793462e+04 9.353038e+03 8.780226e+03 2.790631e+05 5.791042e+04 5.722099e+05 1.683362e+07 1.952180e+06 2.924246e+06 2.148435e+05 1.219724e+05 2.734587e+03 1.552390e+03 1.448949e+02
<GCONST> 2.438404e+02
<STATE> 12
<MEAN> 20
 8.532918e+03 2.364090e+01 1.855362e+00 3.765586e-01 1.897756e+00 7.586883e+02 1.805362e+02 8.048878e+01 8.385287e+01 5.832943e+02 7.116958e+01 5.699551e+02 5.647638e+03 2.251307e+03 1.042224e+03 4.390549e+02 1.926658e+02 2.041646e+01 1.073317e+01 2.384040e+00
<VARIANCE> 20
 1.374662e+07 4.872335e+03 1.187372e+02 7.207331e+00 2.292639e+02 8.197639e+05 6.793462e+04 9.353038e+03 8.780226e+03 2.790631e+05 5.791042e+04 5.722099e+05 1.683362e+07 1.952180e+06 2.924246e+06 2.148435e+05 1.219724e+05 2.734587e+03 1.552390e+03 1.448949e+02
<GCONST> 2.438404e+02
<STATE> 13
<MEAN> 20
 8.532918e+03 2.364090e+01 1.855362e+00 3.765586e-01 1.897756e+00 7.586883e+02 1.805362e+02 8.048878e+01 8.385287e+01 5.832943e+02 7.116958e+01 5.699551e+02 5.647638e+03 2.251307e+03 1.042224e+03 4.390549e+02 1.926658e+02 2.041646e+01 1.073317e+01 2.384040e+00
<VARIANCE> 20
 1.374662e+07 4.872335e+03 1.187372e+02 7.207331e+00 2.292639e+02 8.197639e+05 6.793462e+04 9.353038e+03 8.780226e+03 2.790631e+05 5.791042e+04 5.722099e+05 1.683362e+07 1.952180e+06 2.924246e+06 2.148435e+05 1.219724e+05 2.734587e+03 1.552390e+03 1.448949e+02
<GCONST> 2.438404e+02
<TRANSP> 14
 0.000000e+00 1.000000e+00 0.000000e+00 0.000000e+00 0.000000e+00 0.000000e+00 0.000000e+00 0.000000e+00 0.000000e+00 0.000000e+00 0.000000e+00 0.000000e+00 0.000000e+00 0.000000e+00
 0.000000e+00 5.000000e-01 5.000000e-01 0.000000e+00 0.000000e+00 0.000000e+00 0.000000e+00 0.000000e+00 0.000000e+00 0.000000e+00 0.000000e+00 0.000000e+00 0.000000e+00 0.000000e+00
 0.000000e+00 0.000000e+00 5.000000e-01 5.000000e-01 0.000000e+00 0.000000e+00 0.000000e+00 0.000000e+00 0.000000e+00 0.000000e+00 0.000000e+00 0.000000e+00 0.000000e+00 0.000000e+00
 0.000000e+00 0.000000e+00 0.000000e+00 5.000000e-01 5.000000e-01 0.000000e+00 0.000000e+00 0.000000e+00 0.000000e+00 0.000000e+00 0.000000e+00 0.000000e+00 0.000000e+00 0.000000e+00
 0.000000e+00 0.000000e+00 0.000000e+00 0.000000e+00 5.000000e-01 5.000000e-01 0.000000e+00 0.000000e+00 0.000000e+00 0.000000e+00 0.000000e+00 0.000000e+00 0.000000e+00 0.000000e+00
 0.000000e+00 0.000000e+00 0.000000e+00 0.000000e+00 0.000000e+00 5.000000e-01 5.000000e-01 0.000000e+00 0.000000e+00 0.000000e+00 0.000000e+00 0.000000e+00 0.000000e+00 0.000000e+00
 0.000000e+00 0.000000e+00 0.000000e+00 0.000000e+00 0.000000e+00 0.000000e+00 5.000000e-01 5.000000e-01 0.000000e+00 0.000000e+00 0.000000e+00 0.000000e+00 0.000000e+00 0.000000e+00
 0.000000e+00 0.000000e+00 0.000000e+00 0.000000e+00 0.000000e+00 0.000000e+00 0.000000e+00 5.000000e-01 5.000000e-01 0.000000e+00 0.000000e+00 0.000000e+00 0.000000e+00 0.000000e+00
 0.000000e+00 0.000000e+00 0.000000e+00 0.000000e+00 0.000000e+00 0.000000e+00 0.000000e+00 0.000000e+00 5.000000e-01 5.000000e-01 0.000000e+00 0.000000e+00 0.000000e+00 0.000000e+00
 0.000000e+00 0.000000e+00 0.000000e+00 0.000000e+00 0.000000e+00 0.000000e+00 0.000000e+00 0.000000e+00 0.000000e+00 5.000000e-01 5.000000e-01 0.000000e+00 0.000000e+00 0.000000e+00
 0.000000e+00 0.000000e+00 0.000000e+00 0.000000e+00 0.000000e+00 0.000000e+00 0.000000e+00 0.000000e+00 0.000000e+00 0.000000e+00 5.000000e-01 5.000000e-01 0.000000e+00 0.000000e+00
 0.000000e+00 0.000000e+00 0.000000e+00 0.000000e+00 0.000000e+00 0.000000e+00 0.000000e+00 0.000000e+00 0.000000e+00 0.000000e+00 0.000000e+00 5.000000e-01 5.000000e-01 0.000000e+00
 0.000000e+00 0.000000e+00 0.000000e+00 0.000000e+00 0.000000e+00 0.000000e+00 0.000000e+00 0.000000e+00 0.000000e+00 0.000000e+00 0.000000e+00 0.000000e+00 5.000000e-01 5.000000e-01
 0.000000e+00 0.000000e+00 0.000000e+00 0.000000e+00 0.000000e+00 0.000000e+00 0.000000e+00 0.000000e+00 0.000000e+00 0.000000e+00 0.000000e+00 0.000000e+00 0.000000e+00 0.000000e+00
<ENDHMM>
