~o
<STREAMINFO> 1 20
<VECSIZE> 20<NULLD><USER><DIAGC>
~h "c"
<BEGINHMM>
<NUMSTATES> 14
<STATE> 2
<MEAN> 20
 6.076976e+03 2.027000e+02 6.952095e+02 1.295238e+00 4.809524e-01 2.857143e-02 1.123810e+01 4.466667e+00 1.514286e+00 9.666190e+01 2.748571e+01 2.014857e+02 3.955914e+03 2.070562e+03 5.744381e+02 1.616333e+02 6.961905e+01 2.259524e+01 6.023809e+00 8.142857e-01
<VARIANCE> 20
 9.346848e+06 6.424873e+04 9.406026e+05 7.439855e+01 2.139249e+01 1.706122e-01 8.543991e+03 6.040298e+02 8.395456e+01 2.788008e+04 2.797707e+04 9.280478e+04 1.199350e+07 2.049285e+06 1.128908e+06 1.693906e+05 4.245942e+04 8.346869e+03 6.638423e+02 9.604646e+01
<GCONST> 2.225954e+02
<STATE> 3
<MEAN> 20
 6.076976e+03 2.027000e+02 6.952095e+02 1.295238e+00 4.809524e-01 2.857143e-02 1.123810e+01 4.466667e+00 1.514286e+00 9.666190e+01 2.748571e+01 2.014857e+02 3.955914e+03 2.070562e+03 5.744381e+02 1.616333e+02 6.961905e+01 2.259524e+01 6.023809e+00 8.142857e-01
<VARIANCE> 20
 9.346848e+06 6.424873e+04 9.406026e+05 7.439855e+01 2.139249e+01 1.706122e-01 8.543991e+03 6.040298e+02 8.395456e+01 2.788008e+04 2.797707e+04 9.280478e+04 1.199350e+07 2.049285e+06 1.128908e+06 1.693906e+05 4.245942e+04 8.346869e+03 6.638423e+02 9.604646e+01
<GCONST> 2.225954e+02
<STATE> 4
<MEAN> 20
 6.076976e+03 2.027000e+02 6.952095e+02 1.295238e+00 4.809524e-01 2.857143e-02 1.123810e+01 4.466667e+00 1.514286e+00 9.666190e+01 2.748571e+01 2.014857e+02 3.955914e+03 2.070562e+03 5.744381e+02 1.616333e+02 6.961905e+01 2.259524e+01 6.023809e+00 8.142857e-01
<VARIANCE> 20
 9.346848e+06 6.424873e+04 9.406026e+05 7.439855e+01 2.139249e+01 1.706122e-01 8.543991e+03 6.040298e+02 8.395456e+01 2.788008e+04 2.797707e+04 9.280478e+04 1.199350e+07 2.049285e+06 1.128908e+06 1.693906e+05 4.245942e+04 8.346869e+03 6.638423e+02 9.604646e+01
<GCONST> 2.225954e+02
<STATE> 5
<MEAN> 20
 6.076976e+03 2.027000e+02 6.952095e+02 1.295238e+00 4.809524e-01 2.857143e-02 1.123810e+01 4.466667e+00 1.514286e+00 9.666190e+01 2.748571e+01 2.014857e+02 3.955914e+03 2.070562e+03 5.744381e+02 1.616333e+02 6.961905e+01 2.259524e+01 6.023809e+00 8.142857e-01
<VARIANCE> 20
 9.346848e+06 6.424873e+04 9.406026e+05 7.439855e+01 2.139249e+01 1.706122e-01 8.543991e+03 6.040298e+02 8.395456e+01 2.788008e+04 2.797707e+04 9.280478e+04 1.199350e+07 2.049285e+06 1.128908e+06 1.693906e+05 4.245942e+04 8.346869e+03 6.638423e+02 9.604646e+01
<GCONST> 2.225954e+02
<STATE> 6
<MEAN> 20
 6.076976e+03 2.027000e+02 6.952095e+02 1.295238e+00 4.809524e-01 2.857143e-02 1.123810e+01 4.466667e+00 1.514286e+00 9.666190e+01 2.748571e+01 2.014857e+02 3.955914e+03 2.070562e+03 5.744381e+02 1.616333e+02 6.961905e+01 2.259524e+01 6.023809e+00 8.142857e-01
<VARIANCE> 20
 9.346848e+06 6.424873e+04 9.406026e+05 7.439855e+01 2.139249e+01 1.706122e-01 8.543991e+03 6.040298e+02 8.395456e+01 2.788008e+04 2.797707e+04 9.280478e+04 1.199350e+07 2.049285e+06 1.128908e+06 1.693906e+05 4.245942e+04 8.346869e+03 6.638423e+02 9.604646e+01
<GCONST> 2.225954e+02
<STATE> 7
<MEAN> 20
 6.076976e+03 2.027000e+02 6.952095e+02 1.295238e+00 4.809524e-01 2.857143e-02 1.123810e+01 4.466667e+00 1.514286e+00 9.666190e+01 2.748571e+01 2.014857e+02 3.955914e+03 2.070562e+03 5.744381e+02 1.616333e+02 6.961905e+01 2.259524e+01 6.023809e+00 8.142857e-01
<VARIANCE> 20
 9.346848e+06 6.424873e+04 9.406026e+05 7.439855e+01 2.139249e+01 1.706122e-01 8.543991e+03 6.040298e+02 8.395456e+01 2.788008e+04 2.797707e+04 9.280478e+04 1.199350e+07 2.049285e+06 1.128908e+06 1.693906e+05 4.245942e+04 8.346869e+03 6.638423e+02 9.604646e+01
<GCONST> 2.225954e+02
<STATE> 8
<MEAN> 20
 6.076976e+03 2.027000e+02 6.952095e+02 1.295238e+00 4.809524e-01 2.857143e-02 1.123810e+01 4.466667e+00 1.514286e+00 9.666190e+01 2.748571e+01 2.014857e+02 3.955914e+03 2.070562e+03 5.744381e+02 1.616333e+02 6.961905e+01 2.259524e+01 6.023809e+00 8.142857e-01
<VARIANCE> 20
 9.346848e+06 6.424873e+04 9.406026e+05 7.439855e+01 2.139249e+01 1.706122e-01 8.543991e+03 6.040298e+02 8.395456e+01 2.788008e+04 2.797707e+04 9.280478e+04 1.199350e+07 2.049285e+06 1.128908e+06 1.693906e+05 4.245942e+04 8.346869e+03 6.638423e+02 9.604646e+01
<GCONST> 2.225954e+02
<STATE> 9
<MEAN> 20
 6.076976e+03 2.027000e+02 6.952095e+02 1.295238e+00 4.809524e-01 2.857143e-02 1.123810e+01 4.466667e+00 1.514286e+00 9.666190e+01 2.748571e+01 2.014857e+02 3.955914e+03 2.070562e+03 5.744381e+02 1.616333e+02 6.961905e+01 2.259524e+01 6.023809e+00 8.142857e-01
<VARIANCE> 20
 9.346848e+06 6.424873e+04 9.406026e+05 7.439855e+01 2.139249e+01 1.706122e-01 8.543991e+03 6.040298e+02 8.395456e+01 2.788008e+04 2.797707e+04 9.280478e+04 1.199350e+07 2.049285e+06 1.128908e+06 1.693906e+05 4.245942e+04 8.346869e+03 6.638423e+02 9.604646e+01
<GCONST> 2.225954e+02
<STATE> 10
<MEAN> 20
 6.076976e+03 2.027000e+02 6.952095e+02 1.295238e+00 4.809524e-01 2.857143e-02 1.123810e+01 4.466667e+00 1.514286e+00 9.666190e+01 2.748571e+01 2.014857e+02 3.955914e+03 2.070562e+03 5.744381e+02 1.616333e+02 6.961905e+01 2.259524e+01 6.023809e+00 8.142857e-01
<VARIANCE> 20
 9.346848e+06 6.424873e+04 9.406026e+05 7.439855e+01 2.139249e+01 1.706122e-01 8.543991e+03 6.040298e+02 8.395456e+01 2.788008e+04 2.797707e+04 9.280478e+04 1.199350e+07 2.049285e+06 1.128908e+06 1.693906e+05 4.245942e+04 8.346869e+03 6.638423e+02 9.604646e+01
<GCONST> 2.225954e+02
<STATE> 11
<MEAN> 20
 6.076976e+03 2.027000e+02 6.952095e+02 1.295238e+00 4.809524e-01 2.857143e-02 1.123810e+01 4.466667e+00 1.514286e+00 9.666190e+01 2.748571e+01 2.014857e+02 3.955914e+03 2.070562e+03 5.744381e+02 1.616333e+02 6.961905e+01 2.259524e+01 6.023809e+00 8.142857e-01
<VARIANCE> 20
 9.346848e+06 6.424873e+04 9.406026e+05 7.439855e+01 2.139249e+01 1.706122e-01 8.543991e+03 6.040298e+02 8.395456e+01 2.788008e+04 2.797707e+04 9.280478e+04 1.199350e+07 2.049285e+06 1.128908e+06 1.693906e+05 4.245942e+04 8.346869e+03 6.638423e+02 9.604646e+01
<GCONST> 2.225954e+02
<STATE> 12
<MEAN> 20
 6.076976e+03 2.027000e+02 6.952095e+02 1.295238e+00 4.809524e-01 2.857143e-02 1.123810e+01 4.466667e+00 1.514286e+00 9.666190e+01 2.748571e+01 2.014857e+02 3.955914e+03 2.070562e+03 5.744381e+02 1.616333e+02 6.961905e+01 2.259524e+01 6.023809e+00 8.142857e-01
<VARIANCE> 20
 9.346848e+06 6.424873e+04 9.406026e+05 7.439855e+01 2.139249e+01 1.706122e-01 8.543991e+03 6.040298e+02 8.395456e+01 2.788008e+04 2.797707e+04 9.280478e+04 1.199350e+07 2.049285e+06 1.128908e+06 1.693906e+05 4.245942e+04 8.346869e+03 6.638423e+02 9.604646e+01
<GCONST> 2.225954e+02
<STATE> 13
<MEAN> 20
 6.076976e+03 2.027000e+02 6.952095e+02 1.295238e+00 4.809524e-01 2.857143e-02 1.123810e+01 4.466667e+00 1.514286e+00 9.666190e+01 2.748571e+01 2.014857e+02 3.955914e+03 2.070562e+03 5.744381e+02 1.616333e+02 6.961905e+01 2.259524e+01 6.023809e+00 8.142857e-01
<VARIANCE> 20
 9.346848e+06 6.424873e+04 9.406026e+05 7.439855e+01 2.139249e+01 1.706122e-01 8.543991e+03 6.040298e+02 8.395456e+01 2.788008e+04 2.797707e+04 9.280478e+04 1.199350e+07 2.049285e+06 1.128908e+06 1.693906e+05 4.245942e+04 8.346869e+03 6.638423e+02 9.604646e+01
<GCONST> 2.225954e+02
<TRANSP> 14
 0.000000e+00 1.000000e+00 0.000000e+00 0.000000e+00 0.000000e+00 0.000000e+00 0.000000e+00 0.000000e+00 0.000000e+00 0.000000e+00 0.000000e+00 0.000000e+00 0.000000e+00 0.000000e+00
 0.000000e+00 5.000000e-01 5.000000e-01 0.000000e+00 0.000000e+00 0.000000e+00 0.000000e+00 0.000000e+00 0.000000e+00 0.000000e+00 0.000000e+00 0.000000e+00 0.000000e+00 0.000000e+00
 0.000000e+00 0.000000e+00 5.000000e-01 5.000000e-01 0.000000e+00 0.000000e+00 0.000000e+00 0.000000e+00 0.000000e+00 0.000000e+00 0.000000e+00 0.000000e+00 0.000000e+00 0.000000e+00
 0.000000e+00 0.000000e+00 0.000000e+00 5.000000e-01 5.000000e-01 0.000000e+00 0.000000e+00 0.000000e+00 0.000000e+00 0.000000e+00 0.000000e+00 0.000000e+00 0.000000e+00 0.000000e+00
 0.000000e+00 0.000000e+00 0.000000e+00 0.000000e+00 5.000000e-01 5.000000e-01 0.000000e+00 0.000000e+00 0.000000e+00 0.000000e+00 0.000000e+00 0.000000e+00 0.000000e+00 0.000000e+00
 0.000000e+00 0.000000e+00 0.000000e+00 0.000000e+00 0.000000e+00 5.000000e-01 5.000000e-01 0.000000e+00 0.000000e+00 0.000000e+00 0.000000e+00 0.000000e+00 0.000000e+00 0.000000e+00
 0.000000e+00 0.000000e+00 0.000000e+00 0.000000e+00 0.000000e+00 0.000000e+00 5.000000e-01 5.000000e-01 0.000000e+00 0.000000e+00 0.000000e+00 0.000000e+00 0.000000e+00 0.000000e+00
 0.000000e+00 0.000000e+00 0.000000e+00 0.000000e+00 0.000000e+00 0.000000e+00 0.000000e+00 5.000000e-01 5.000000e-01 0.000000e+00 0.000000e+00 0.000000e+00 0.000000e+00 0.000000e+00
 0.000000e+00 0.000000e+00 0.000000e+00 0.000000e+00 0.000000e+00 0.000000e+00 0.000000e+00 0.000000e+00 5.000000e-01 5.000000e-01 0.000000e+00 0.000000e+00 0.000000e+00 0.000000e+00
 0.000000e+00 0.000000e+00 0.000000e+00 0.000000e+00 0.000000e+00 0.000000e+00 0.000000e+00 0.000000e+00 0.000000e+00 5.000000e-01 5.000000e-01 0.000000e+00 0.000000e+00 0.000000e+00
 0.000000e+00 0.000000e+00 0.000000e+00 0.000000e+00 0.000000e+00 0.000000e+00 0.000000e+00 0.000000e+00 0.000000e+00 0.000000e+00 5.000000e-01 5.000000e-01 0.000000e+00 0.000000e+00
 0.000000e+00 0.000000e+00 0.000000e+00 0.000000e+00 0.000000e+00 0.000000e+00 0.000000e+00 0.000000e+00 0.000000e+00 0.000000e+00 0.000000e+00 5.000000e-01 5.000000e-01 0.000000e+00
 0.000000e+00 0.000000e+00 0.000000e+00 0.000000e+00 0.000000e+00 0.000000e+00 0.000000e+00 0.000000e+00 0.000000e+00 0.000000e+00 0.000000e+00 0.000000e+00 5.000000e-01 5.000000e-01
 0.000000e+00 0.000000e+00 0.000000e+00 0.000000e+00 0.000000e+00 0.000000e+00 0.000000e+00 0.000000e+00 0.000000e+00 0.000000e+00 0.000000e+00 0.000000e+00 0.000000e+00 0.000000e+00
<ENDHMM>
