~o
<STREAMINFO> 1 20
<VECSIZE> 20<NULLD><USER><DIAGC>
~h "d"
<BEGINHMM>
<NUMSTATES> 14
<STATE> 2
<MEAN> 20
 1.048972e+04 1.054591e+01 1.416873e+00 4.962779e-01 4.101737e+00 4.342432e+00 2.003722e+01 2.193548e+00 1.374690e+00 3.213077e+02 3.232258e+01 5.542233e+02 6.919633e+03 2.454519e+03 3.650050e+02 1.476551e+02 1.685012e+02 1.825881e+02 2.775186e+01 3.337469e+00
<VARIANCE> 20
 1.018480e+07 1.920997e+03 1.559354e+02 2.713336e+01 8.851683e+02 8.368108e+02 1.810018e+04 2.178931e+02 1.193708e+02 8.416207e+04 3.817389e+04 6.566765e+05 8.896778e+06 3.137778e+06 1.920781e+05 5.377907e+04 1.928495e+04 2.124815e+04 1.937035e+03 6.456105e+01
<GCONST> 2.231616e+02
<STATE> 3
<MEAN> 20
 1.048972e+04 1.054591e+01 1.416873e+00 4.962779e-01 4.101737e+00 4.342432e+00 2.003722e+01 2.193548e+00 1.374690e+00 3.213077e+02 3.232258e+01 5.542233e+02 6.919633e+03 2.454519e+03 3.650050e+02 1.476551e+02 1.685012e+02 1.825881e+02 2.775186e+01 3.337469e+00
<VARIANCE> 20
 1.018480e+07 1.920997e+03 1.559354e+02 2.713336e+01 8.851683e+02 8.368108e+02 1.810018e+04 2.178931e+02 1.193708e+02 8.416207e+04 3.817389e+04 6.566765e+05 8.896778e+06 3.137778e+06 1.920781e+05 5.377907e+04 1.928495e+04 2.124815e+04 1.937035e+03 6.456105e+01
<GCONST> 2.231616e+02
<STATE> 4
<MEAN> 20
 1.048972e+04 1.054591e+01 1.416873e+00 4.962779e-01 4.101737e+00 4.342432e+00 2.003722e+01 2.193548e+00 1.374690e+00 3.213077e+02 3.232258e+01 5.542233e+02 6.919633e+03 2.454519e+03 3.650050e+02 1.476551e+02 1.685012e+02 1.825881e+02 2.775186e+01 3.337469e+00
<VARIANCE> 20
 1.018480e+07 1.920997e+03 1.559354e+02 2.713336e+01 8.851683e+02 8.368108e+02 1.810018e+04 2.178931e+02 1.193708e+02 8.416207e+04 3.817389e+04 6.566765e+05 8.896778e+06 3.137778e+06 1.920781e+05 5.377907e+04 1.928495e+04 2.124815e+04 1.937035e+03 6.456105e+01
<GCONST> 2.231616e+02
<STATE> 5
<MEAN> 20
 1.048972e+04 1.054591e+01 1.416873e+00 4.962779e-01 4.101737e+00 4.342432e+00 2.003722e+01 2.193548e+00 1.374690e+00 3.213077e+02 3.232258e+01 5.542233e+02 6.919633e+03 2.454519e+03 3.650050e+02 1.476551e+02 1.685012e+02 1.825881e+02 2.775186e+01 3.337469e+00
<VARIANCE> 20
 1.018480e+07 1.920997e+03 1.559354e+02 2.713336e+01 8.851683e+02 8.368108e+02 1.810018e+04 2.178931e+02 1.193708e+02 8.416207e+04 3.817389e+04 6.566765e+05 8.896778e+06 3.137778e+06 1.920781e+05 5.377907e+04 1.928495e+04 2.124815e+04 1.937035e+03 6.456105e+01
<GCONST> 2.231616e+02
<STATE> 6
<MEAN> 20
 1.048972e+04 1.054591e+01 1.416873e+00 4.962779e-01 4.101737e+00 4.342432e+00 2.003722e+01 2.193548e+00 1.374690e+00 3.213077e+02 3.232258e+01 5.542233e+02 6.919633e+03 2.454519e+03 3.650050e+02 1.476551e+02 1.685012e+02 1.825881e+02 2.775186e+01 3.337469e+00
<VARIANCE> 20
 1.018480e+07 1.920997e+03 1.559354e+02 2.713336e+01 8.851683e+02 8.368108e+02 1.810018e+04 2.178931e+02 1.193708e+02 8.416207e+04 3.817389e+04 6.566765e+05 8.896778e+06 3.137778e+06 1.920781e+05 5.377907e+04 1.928495e+04 2.124815e+04 1.937035e+03 6.456105e+01
<GCONST> 2.231616e+02
<STATE> 7
<MEAN> 20
 1.048972e+04 1.054591e+01 1.416873e+00 4.962779e-01 4.101737e+00 4.342432e+00 2.003722e+01 2.193548e+00 1.374690e+00 3.213077e+02 3.232258e+01 5.542233e+02 6.919633e+03 2.454519e+03 3.650050e+02 1.476551e+02 1.685012e+02 1.825881e+02 2.775186e+01 3.337469e+00
<VARIANCE> 20
 1.018480e+07 1.920997e+03 1.559354e+02 2.713336e+01 8.851683e+02 8.368108e+02 1.810018e+04 2.178931e+02 1.193708e+02 8.416207e+04 3.817389e+04 6.566765e+05 8.896778e+06 3.137778e+06 1.920781e+05 5.377907e+04 1.928495e+04 2.124815e+04 1.937035e+03 6.456105e+01
<GCONST> 2.231616e+02
<STATE> 8
<MEAN> 20
 1.048972e+04 1.054591e+01 1.416873e+00 4.962779e-01 4.101737e+00 4.342432e+00 2.003722e+01 2.193548e+00 1.374690e+00 3.213077e+02 3.232258e+01 5.542233e+02 6.919633e+03 2.454519e+03 3.650050e+02 1.476551e+02 1.685012e+02 1.825881e+02 2.775186e+01 3.337469e+00
<VARIANCE> 20
 1.018480e+07 1.920997e+03 1.559354e+02 2.713336e+01 8.851683e+02 8.368108e+02 1.810018e+04 2.178931e+02 1.193708e+02 8.416207e+04 3.817389e+04 6.566765e+05 8.896778e+06 3.137778e+06 1.920781e+05 5.377907e+04 1.928495e+04 2.124815e+04 1.937035e+03 6.456105e+01
<GCONST> 2.231616e+02
<STATE> 9
<MEAN> 20
 1.048972e+04 1.054591e+01 1.416873e+00 4.962779e-01 4.101737e+00 4.342432e+00 2.003722e+01 2.193548e+00 1.374690e+00 3.213077e+02 3.232258e+01 5.542233e+02 6.919633e+03 2.454519e+03 3.650050e+02 1.476551e+02 1.685012e+02 1.825881e+02 2.775186e+01 3.337469e+00
<VARIANCE> 20
 1.018480e+07 1.920997e+03 1.559354e+02 2.713336e+01 8.851683e+02 8.368108e+02 1.810018e+04 2.178931e+02 1.193708e+02 8.416207e+04 3.817389e+04 6.566765e+05 8.896778e+06 3.137778e+06 1.920781e+05 5.377907e+04 1.928495e+04 2.124815e+04 1.937035e+03 6.456105e+01
<GCONST> 2.231616e+02
<STATE> 10
<MEAN> 20
 1.048972e+04 1.054591e+01 1.416873e+00 4.962779e-01 4.101737e+00 4.342432e+00 2.003722e+01 2.193548e+00 1.374690e+00 3.213077e+02 3.232258e+01 5.542233e+02 6.919633e+03 2.454519e+03 3.650050e+02 1.476551e+02 1.685012e+02 1.825881e+02 2.775186e+01 3.337469e+00
<VARIANCE> 20
 1.018480e+07 1.920997e+03 1.559354e+02 2.713336e+01 8.851683e+02 8.368108e+02 1.810018e+04 2.178931e+02 1.193708e+02 8.416207e+04 3.817389e+04 6.566765e+05 8.896778e+06 3.137778e+06 1.920781e+05 5.377907e+04 1.928495e+04 2.124815e+04 1.937035e+03 6.456105e+01
<GCONST> 2.231616e+02
<STATE> 11
<MEAN> 20
 1.048972e+04 1.054591e+01 1.416873e+00 4.962779e-01 4.101737e+00 4.342432e+00 2.003722e+01 2.193548e+00 1.374690e+00 3.213077e+02 3.232258e+01 5.542233e+02 6.919633e+03 2.454519e+03 3.650050e+02 1.476551e+02 1.685012e+02 1.825881e+02 2.775186e+01 3.337469e+00
<VARIANCE> 20
 1.018480e+07 1.920997e+03 1.559354e+02 2.713336e+01 8.851683e+02 8.368108e+02 1.810018e+04 2.178931e+02 1.193708e+02 8.416207e+04 3.817389e+04 6.566765e+05 8.896778e+06 3.137778e+06 1.920781e+05 5.377907e+04 1.928495e+04 2.124815e+04 1.937035e+03 6.456105e+01
<GCONST> 2.231616e+02
<STATE> 12
<MEAN> 20
 1.048972e+04 1.054591e+01 1.416873e+00 4.962779e-01 4.101737e+00 4.342432e+00 2.003722e+01 2.193548e+00 1.374690e+00 3.213077e+02 3.232258e+01 5.542233e+02 6.919633e+03 2.454519e+03 3.650050e+02 1.476551e+02 1.685012e+02 1.825881e+02 2.775186e+01 3.337469e+00
<VARIANCE> 20
 1.018480e+07 1.920997e+03 1.559354e+02 2.713336e+01 8.851683e+02 8.368108e+02 1.810018e+04 2.178931e+02 1.193708e+02 8.416207e+04 3.817389e+04 6.566765e+05 8.896778e+06 3.137778e+06 1.920781e+05 5.377907e+04 1.928495e+04 2.124815e+04 1.937035e+03 6.456105e+01
<GCONST> 2.231616e+02
<STATE> 13
<MEAN> 20
 1.048972e+04 1.054591e+01 1.416873e+00 4.962779e-01 4.101737e+00 4.342432e+00 2.003722e+01 2.193548e+00 1.374690e+00 3.213077e+02 3.232258e+01 5.542233e+02 6.919633e+03 2.454519e+03 3.650050e+02 1.476551e+02 1.685012e+02 1.825881e+02 2.775186e+01 3.337469e+00
<VARIANCE> 20
 1.018480e+07 1.920997e+03 1.559354e+02 2.713336e+01 8.851683e+02 8.368108e+02 1.810018e+04 2.178931e+02 1.193708e+02 8.416207e+04 3.817389e+04 6.566765e+05 8.896778e+06 3.137778e+06 1.920781e+05 5.377907e+04 1.928495e+04 2.124815e+04 1.937035e+03 6.456105e+01
<GCONST> 2.231616e+02
<TRANSP> 14
 0.000000e+00 1.000000e+00 0.000000e+00 0.000000e+00 0.000000e+00 0.000000e+00 0.000000e+00 0.000000e+00 0.000000e+00 0.000000e+00 0.000000e+00 0.000000e+00 0.000000e+00 0.000000e+00
 0.000000e+00 5.000000e-01 5.000000e-01 0.000000e+00 0.000000e+00 0.000000e+00 0.000000e+00 0.000000e+00 0.000000e+00 0.000000e+00 0.000000e+00 0.000000e+00 0.000000e+00 0.000000e+00
 0.000000e+00 0.000000e+00 5.000000e-01 5.000000e-01 0.000000e+00 0.000000e+00 0.000000e+00 0.000000e+00 0.000000e+00 0.000000e+00 0.000000e+00 0.000000e+00 0.000000e+00 0.000000e+00
 0.000000e+00 0.000000e+00 0.000000e+00 5.000000e-01 5.000000e-01 0.000000e+00 0.000000e+00 0.000000e+00 0.000000e+00 0.000000e+00 0.000000e+00 0.000000e+00 0.000000e+00 0.000000e+00
 0.000000e+00 0.000000e+00 0.000000e+00 0.000000e+00 5.000000e-01 5.000000e-01 0.000000e+00 0.000000e+00 0.000000e+00 0.000000e+00 0.000000e+00 0.000000e+00 0.000000e+00 0.000000e+00
 0.000000e+00 0.000000e+00 0.000000e+00 0.000000e+00 0.000000e+00 5.000000e-01 5.000000e-01 0.000000e+00 0.000000e+00 0.000000e+00 0.000000e+00 0.000000e+00 0.000000e+00 0.000000e+00
 0.000000e+00 0.000000e+00 0.000000e+00 0.000000e+00 0.000000e+00 0.000000e+00 5.000000e-01 5.000000e-01 0.000000e+00 0.000000e+00 0.000000e+00 0.000000e+00 0.000000e+00 0.000000e+00
 0.000000e+00 0.000000e+00 0.000000e+00 0.000000e+00 0.000000e+00 0.000000e+00 0.000000e+00 5.000000e-01 5.000000e-01 0.000000e+00 0.000000e+00 0.000000e+00 0.000000e+00 0.000000e+00
 0.000000e+00 0.000000e+00 0.000000e+00 0.000000e+00 0.000000e+00 0.000000e+00 0.000000e+00 0.000000e+00 5.000000e-01 5.000000e-01 0.000000e+00 0.000000e+00 0.000000e+00 0.000000e+00
 0.000000e+00 0.000000e+00 0.000000e+00 0.000000e+00 0.000000e+00 0.000000e+00 0.000000e+00 0.000000e+00 0.000000e+00 5.000000e-01 5.000000e-01 0.000000e+00 0.000000e+00 0.000000e+00
 0.000000e+00 0.000000e+00 0.000000e+00 0.000000e+00 0.000000e+00 0.000000e+00 0.000000e+00 0.000000e+00 0.000000e+00 0.000000e+00 5.000000e-01 5.000000e-01 0.000000e+00 0.000000e+00
 0.000000e+00 0.000000e+00 0.000000e+00 0.000000e+00 0.000000e+00 0.000000e+00 0.000000e+00 0.000000e+00 0.000000e+00 0.000000e+00 0.000000e+00 5.000000e-01 5.000000e-01 0.000000e+00
 0.000000e+00 0.000000e+00 0.000000e+00 0.000000e+00 0.000000e+00 0.000000e+00 0.000000e+00 0.000000e+00 0.000000e+00 0.000000e+00 0.000000e+00 0.000000e+00 5.000000e-01 5.000000e-01
 0.000000e+00 0.000000e+00 0.000000e+00 0.000000e+00 0.000000e+00 0.000000e+00 0.000000e+00 0.000000e+00 0.000000e+00 0.000000e+00 0.000000e+00 0.000000e+00 0.000000e+00 0.000000e+00
<ENDHMM>
