~o
<STREAMINFO> 1 20
<VECSIZE> 20<NULLD><USER><DIAGC>
~h "e"
<BEGINHMM>
<NUMSTATES> 14
<STATE> 2
<MEAN> 20
 8.667848e+03 2.964589e+01 4.932668e+00 2.967581e-01 2.907731e+00 9.518354e+02 2.046309e+02 1.130623e+02 1.269850e+02 1.335269e+03 3.932668e+01 1.033030e+03 7.448464e+03 1.530723e+03 6.214290e+02 5.625486e+02 1.443541e+02 3.992519e+01 1.560349e+01 2.009975e+00
<VARIANCE> 20
 1.249802e+07 6.984887e+03 1.496731e+03 9.410687e+00 9.271710e+02 4.859288e+05 4.670992e+04 7.836871e+03 6.935167e+03 7.967201e+05 4.722857e+04 1.492471e+06 1.519324e+07 2.520654e+06 4.830726e+05 1.469205e+05 4.059283e+04 1.128762e+04 2.554713e+03 1.007031e+02
<GCONST> 2.472212e+02
<STATE> 3
<MEAN> 20
 8.667848e+03 2.964589e+01 4.932668e+00 2.967581e-01 2.907731e+00 9.518354e+02 2.046309e+02 1.130623e+02 1.269850e+02 1.335269e+03 3.932668e+01 1.033030e+03 7.448464e+03 1.530723e+03 6.214290e+02 5.625486e+02 1.443541e+02 3.992519e+01 1.560349e+01 2.009975e+00
<VARIANCE> 20
 1.249802e+07 6.984887e+03 1.496731e+03 9.410687e+00 9.271710e+02 4.859288e+05 4.670992e+04 7.836871e+03 6.935167e+03 7.967201e+05 4.722857e+04 1.492471e+06 1.519324e+07 2.520654e+06 4.830726e+05 1.469205e+05 4.059283e+04 1.128762e+04 2.554713e+03 1.007031e+02
<GCONST> 2.472212e+02
<STATE> 4
<MEAN> 20
 8.667848e+03 2.964589e+01 4.932668e+00 2.967581e-01 2.907731e+00 9.518354e+02 2.046309e+02 1.130623e+02 1.269850e+02 1.335269e+03 3.932668e+01 1.033030e+03 7.448464e+03 1.530723e+03 6.214290e+02 5.625486e+02 1.443541e+02 3.992519e+01 1.560349e+01 2.009975e+00
<VARIANCE> 20
 1.249802e+07 6.984887e+03 1.496731e+03 9.410687e+00 9.271710e+02 4.859288e+05 4.670992e+04 7.836871e+03 6.935167e+03 7.967201e+05 4.722857e+04 1.492471e+06 1.519324e+07 2.520654e+06 4.830726e+05 1.469205e+05 4.059283e+04 1.128762e+04 2.554713e+03 1.007031e+02
<GCONST> 2.472212e+02
<STATE> 5
<MEAN> 20
 8.667848e+03 2.964589e+01 4.932668e+00 2.967581e-01 2.907731e+00 9.518354e+02 2.046309e+02 1.130623e+02 1.269850e+02 1.335269e+03 3.932668e+01 1.033030e+03 7.448464e+03 1.530723e+03 6.214290e+02 5.625486e+02 1.443541e+02 3.992519e+01 1.560349e+01 2.009975e+00
<VARIANCE> 20
 1.249802e+07 6.984887e+03 1.496731e+03 9.410687e+00 9.271710e+02 4.859288e+05 4.670992e+04 7.836871e+03 6.935167e+03 7.967201e+05 4.722857e+04 1.492471e+06 1.519324e+07 2.520654e+06 4.830726e+05 1.469205e+05 4.059283e+04 1.128762e+04 2.554713e+03 1.007031e+02
<GCONST> 2.472212e+02
<STATE> 6
<MEAN> 20
 8.667848e+03 2.964589e+01 4.932668e+00 2.967581e-01 2.907731e+00 9.518354e+02 2.046309e+02 1.130623e+02 1.269850e+02 1.335269e+03 3.932668e+01 1.033030e+03 7.448464e+03 1.530723e+03 6.214290e+02 5.625486e+02 1.443541e+02 3.992519e+01 1.560349e+01 2.009975e+00
<VARIANCE> 20
 1.249802e+07 6.984887e+03 1.496731e+03 9.410687e+00 9.271710e+02 4.859288e+05 4.670992e+04 7.836871e+03 6.935167e+03 7.967201e+05 4.722857e+04 1.492471e+06 1.519324e+07 2.520654e+06 4.830726e+05 1.469205e+05 4.059283e+04 1.128762e+04 2.554713e+03 1.007031e+02
<GCONST> 2.472212e+02
<STATE> 7
<MEAN> 20
 8.667848e+03 2.964589e+01 4.932668e+00 2.967581e-01 2.907731e+00 9.518354e+02 2.046309e+02 1.130623e+02 1.269850e+02 1.335269e+03 3.932668e+01 1.033030e+03 7.448464e+03 1.530723e+03 6.214290e+02 5.625486e+02 1.443541e+02 3.992519e+01 1.560349e+01 2.009975e+00
<VARIANCE> 20
 1.249802e+07 6.984887e+03 1.496731e+03 9.410687e+00 9.271710e+02 4.859288e+05 4.670992e+04 7.836871e+03 6.935167e+03 7.967201e+05 4.722857e+04 1.492471e+06 1.519324e+07 2.520654e+06 4.830726e+05 1.469205e+05 4.059283e+04 1.128762e+04 2.554713e+03 1.007031e+02
<GCONST> 2.472212e+02
<STATE> 8
<MEAN> 20
 8.667848e+03 2.964589e+01 4.932668e+00 2.967581e-01 2.907731e+00 9.518354e+02 2.046309e+02 1.130623e+02 1.269850e+02 1.335269e+03 3.932668e+01 1.033030e+03 7.448464e+03 1.530723e+03 6.214290e+02 5.625486e+02 1.443541e+02 3.992519e+01 1.560349e+01 2.009975e+00
<VARIANCE> 20
 1.249802e+07 6.984887e+03 1.496731e+03 9.410687e+00 9.271710e+02 4.859288e+05 4.670992e+04 7.836871e+03 6.935167e+03 7.967201e+05 4.722857e+04 1.492471e+06 1.519324e+07 2.520654e+06 4.830726e+05 1.469205e+05 4.059283e+04 1.128762e+04 2.554713e+03 1.007031e+02
<GCONST> 2.472212e+02
<STATE> 9
<MEAN> 20
 8.667848e+03 2.964589e+01 4.932668e+00 2.967581e-01 2.907731e+00 9.518354e+02 2.046309e+02 1.130623e+02 1.269850e+02 1.335269e+03 3.932668e+01 1.033030e+03 7.448464e+03 1.530723e+03 6.214290e+02 5.625486e+02 1.443541e+02 3.992519e+01 1.560349e+01 2.009975e+00
<VARIANCE> 20
 1.249802e+07 6.984887e+03 1.496731e+03 9.410687e+00 9.271710e+02 4.859288e+05 4.670992e+04 7.836871e+03 6.935167e+03 7.967201e+05 4.722857e+04 1.492471e+06 1.519324e+07 2.520654e+06 4.830726e+05 1.469205e+05 4.059283e+04 1.128762e+04 2.554713e+03 1.007031e+02
<GCONST> 2.472212e+02
<STATE> 10
<MEAN> 20
 8.667848e+03 2.964589e+01 4.932668e+00 2.967581e-01 2.907731e+00 9.518354e+02 2.046309e+02 1.130623e+02 1.269850e+02 1.335269e+03 3.932668e+01 1.033030e+03 7.448464e+03 1.530723e+03 6.214290e+02 5.625486e+02 1.443541e+02 3.992519e+01 1.560349e+01 2.009975e+00
<VARIANCE> 20
 1.249802e+07 6.984887e+03 1.496731e+03 9.410687e+00 9.271710e+02 4.859288e+05 4.670992e+04 7.836871e+03 6.935167e+03 7.967201e+05 4.722857e+04 1.492471e+06 1.519324e+07 2.520654e+06 4.830726e+05 1.469205e+05 4.059283e+04 1.128762e+04 2.554713e+03 1.007031e+02
<GCONST> 2.472212e+02
<STATE> 11
<MEAN> 20
 8.667848e+03 2.964589e+01 4.932668e+00 2.967581e-01 2.907731e+00 9.518354e+02 2.046309e+02 1.130623e+02 1.269850e+02 1.335269e+03 3.932668e+01 1.033030e+03 7.448464e+03 1.530723e+03 6.214290e+02 5.625486e+02 1.443541e+02 3.992519e+01 1.560349e+01 2.009975e+00
<VARIANCE> 20
 1.249802e+07 6.984887e+03 1.496731e+03 9.410687e+00 9.271710e+02 4.859288e+05 4.670992e+04 7.836871e+03 6.935167e+03 7.967201e+05 4.722857e+04 1.492471e+06 1.519324e+07 2.520654e+06 4.830726e+05 1.469205e+05 4.059283e+04 1.128762e+04 2.554713e+03 1.007031e+02
<GCONST> 2.472212e+02
<STATE> 12
<MEAN> 20
 8.667848e+03 2.964589e+01 4.932668e+00 2.967581e-01 2.907731e+00 9.518354e+02 2.046309e+02 1.130623e+02 1.269850e+02 1.335269e+03 3.932668e+01 1.033030e+03 7.448464e+03 1.530723e+03 6.214290e+02 5.625486e+02 1.443541e+02 3.992519e+01 1.560349e+01 2.009975e+00
<VARIANCE> 20
 1.249802e+07 6.984887e+03 1.496731e+03 9.410687e+00 9.271710e+02 4.859288e+05 4.670992e+04 7.836871e+03 6.935167e+03 7.967201e+05 4.722857e+04 1.492471e+06 1.519324e+07 2.520654e+06 4.830726e+05 1.469205e+05 4.059283e+04 1.128762e+04 2.554713e+03 1.007031e+02
<GCONST> 2.472212e+02
<STATE> 13
<MEAN> 20
 8.667848e+03 2.964589e+01 4.932668e+00 2.967581e-01 2.907731e+00 9.518354e+02 2.046309e+02 1.130623e+02 1.269850e+02 1.335269e+03 3.932668e+01 1.033030e+03 7.448464e+03 1.530723e+03 6.214290e+02 5.625486e+02 1.443541e+02 3.992519e+01 1.560349e+01 2.009975e+00
<VARIANCE> 20
 1.249802e+07 6.984887e+03 1.496731e+03 9.410687e+00 9.271710e+02 4.859288e+05 4.670992e+04 7.836871e+03 6.935167e+03 7.967201e+05 4.722857e+04 1.492471e+06 1.519324e+07 2.520654e+06 4.830726e+05 1.469205e+05 4.059283e+04 1.128762e+04 2.554713e+03 1.007031e+02
<GCONST> 2.472212e+02
<TRANSP> 14
 0.000000e+00 1.000000e+00 0.000000e+00 0.000000e+00 0.000000e+00 0.000000e+00 0.000000e+00 0.000000e+00 0.000000e+00 0.000000e+00 0.000000e+00 0.000000e+00 0.000000e+00 0.000000e+00
 0.000000e+00 5.000000e-01 5.000000e-01 0.000000e+00 0.000000e+00 0.000000e+00 0.000000e+00 0.000000e+00 0.000000e+00 0.000000e+00 0.000000e+00 0.000000e+00 0.000000e+00 0.000000e+00
 0.000000e+00 0.000000e+00 5.000000e-01 5.000000e-01 0.000000e+00 0.000000e+00 0.000000e+00 0.000000e+00 0.000000e+00 0.000000e+00 0.000000e+00 0.000000e+00 0.000000e+00 0.000000e+00
 0.000000e+00 0.000000e+00 0.000000e+00 5.000000e-01 5.000000e-01 0.000000e+00 0.000000e+00 0.000000e+00 0.000000e+00 0.000000e+00 0.000000e+00 0.000000e+00 0.000000e+00 0.000000e+00
 0.000000e+00 0.000000e+00 0.000000e+00 0.000000e+00 5.000000e-01 5.000000e-01 0.000000e+00 0.000000e+00 0.000000e+00 0.000000e+00 0.000000e+00 0.000000e+00 0.000000e+00 0.000000e+00
 0.000000e+00 0.000000e+00 0.000000e+00 0.000000e+00 0.000000e+00 5.000000e-01 5.000000e-01 0.000000e+00 0.000000e+00 0.000000e+00 0.000000e+00 0.000000e+00 0.000000e+00 0.000000e+00
 0.000000e+00 0.000000e+00 0.000000e+00 0.000000e+00 0.000000e+00 0.000000e+00 5.000000e-01 5.000000e-01 0.000000e+00 0.000000e+00 0.000000e+00 0.000000e+00 0.000000e+00 0.000000e+00
 0.000000e+00 0.000000e+00 0.000000e+00 0.000000e+00 0.000000e+00 0.000000e+00 0.000000e+00 5.000000e-01 5.000000e-01 0.000000e+00 0.000000e+00 0.000000e+00 0.000000e+00 0.000000e+00
 0.000000e+00 0.000000e+00 0.000000e+00 0.000000e+00 0.000000e+00 0.000000e+00 0.000000e+00 0.000000e+00 5.000000e-01 5.000000e-01 0.000000e+00 0.000000e+00 0.000000e+00 0.000000e+00
 0.000000e+00 0.000000e+00 0.000000e+00 0.000000e+00 0.000000e+00 0.000000e+00 0.000000e+00 0.000000e+00 0.000000e+00 5.000000e-01 5.000000e-01 0.000000e+00 0.000000e+00 0.000000e+00
 0.000000e+00 0.000000e+00 0.000000e+00 0.000000e+00 0.000000e+00 0.000000e+00 0.000000e+00 0.000000e+00 0.000000e+00 0.000000e+00 5.000000e-01 5.000000e-01 0.000000e+00 0.000000e+00
 0.000000e+00 0.000000e+00 0.000000e+00 0.000000e+00 0.000000e+00 0.000000e+00 0.000000e+00 0.000000e+00 0.000000e+00 0.000000e+00 0.000000e+00 5.000000e-01 5.000000e-01 0.000000e+00
 0.000000e+00 0.000000e+00 0.000000e+00 0.000000e+00 0.000000e+00 0.000000e+00 0.000000e+00 0.000000e+00 0.000000e+00 0.000000e+00 0.000000e+00 0.000000e+00 5.000000e-01 5.000000e-01
 0.000000e+00 0.000000e+00 0.000000e+00 0.000000e+00 0.000000e+00 0.000000e+00 0.000000e+00 0.000000e+00 0.000000e+00 0.000000e+00 0.000000e+00 0.000000e+00 0.000000e+00 0.000000e+00
<ENDHMM>
