~o
<STREAMINFO> 1 20
<VECSIZE> 20<NULLD><USER><DIAGC>
~h "f"
<BEGINHMM>
<NUMSTATES> 14
<STATE> 2
<MEAN> 20
 7.941271e+03 3.082143e+02 1.250581e+03 3.132857e+01 0.000000e+00 0.000000e+00 0.000000e+00 0.000000e+00 4.761905e-03 3.166571e+02 2.914286e+00 1.001557e+03 6.026957e+03 2.483314e+03 2.915238e+02 3.294286e+01 6.671429e+00 1.585714e+00 4.904762e-01 1.000000e-01
<VARIANCE> 20
 3.583822e+06 3.981304e+04 6.020557e+05 1.156101e+04 1.000000e-02 1.000000e-02 1.000000e-02 1.000000e-02 1.000000e-02 1.252980e+05 3.631736e+02 1.580896e+06 4.068278e+06 2.432014e+06 2.730457e+05 1.833568e+03 1.552016e+02 2.577599e+01 1.198324e+01 6.804762e-01
<GCONST> 1.543330e+02
<STATE> 3
<MEAN> 20
 7.941271e+03 3.082143e+02 1.250581e+03 3.132857e+01 0.000000e+00 0.000000e+00 0.000000e+00 0.000000e+00 4.761905e-03 3.166571e+02 2.914286e+00 1.001557e+03 6.026957e+03 2.483314e+03 2.915238e+02 3.294286e+01 6.671429e+00 1.585714e+00 4.904762e-01 1.000000e-01
<VARIANCE> 20
 3.583822e+06 3.981304e+04 6.020557e+05 1.156101e+04 1.000000e-02 1.000000e-02 1.000000e-02 1.000000e-02 1.000000e-02 1.252980e+05 3.631736e+02 1.580896e+06 4.068278e+06 2.432014e+06 2.730457e+05 1.833568e+03 1.552016e+02 2.577599e+01 1.198324e+01 6.804762e-01
<GCONST> 1.543330e+02
<STATE> 4
<MEAN> 20
 7.941271e+03 3.082143e+02 1.250581e+03 3.132857e+01 0.000000e+00 0.000000e+00 0.000000e+00 0.000000e+00 4.761905e-03 3.166571e+02 2.914286e+00 1.001557e+03 6.026957e+03 2.483314e+03 2.915238e+02 3.294286e+01 6.671429e+00 1.585714e+00 4.904762e-01 1.000000e-01
<VARIANCE> 20
 3.583822e+06 3.981304e+04 6.020557e+05 1.156101e+04 1.000000e-02 1.000000e-02 1.000000e-02 1.000000e-02 1.000000e-02 1.252980e+05 3.631736e+02 1.580896e+06 4.068278e+06 2.432014e+06 2.730457e+05 1.833568e+03 1.552016e+02 2.577599e+01 1.198324e+01 6.804762e-01
<GCONST> 1.543330e+02
<STATE> 5
<MEAN> 20
 7.941271e+03 3.082143e+02 1.250581e+03 3.132857e+01 0.000000e+00 0.000000e+00 0.000000e+00 0.000000e+00 4.761905e-03 3.166571e+02 2.914286e+00 1.001557e+03 6.026957e+03 2.483314e+03 2.915238e+02 3.294286e+01 6.671429e+00 1.585714e+00 4.904762e-01 1.000000e-01
<VARIANCE> 20
 3.583822e+06 3.981304e+04 6.020557e+05 1.156101e+04 1.000000e-02 1.000000e-02 1.000000e-02 1.000000e-02 1.000000e-02 1.252980e+05 3.631736e+02 1.580896e+06 4.068278e+06 2.432014e+06 2.730457e+05 1.833568e+03 1.552016e+02 2.577599e+01 1.198324e+01 6.804762e-01
<GCONST> 1.543330e+02
<STATE> 6
<MEAN> 20
 7.941271e+03 3.082143e+02 1.250581e+03 3.132857e+01 0.000000e+00 0.000000e+00 0.000000e+00 0.000000e+00 4.761905e-03 3.166571e+02 2.914286e+00 1.001557e+03 6.026957e+03 2.483314e+03 2.915238e+02 3.294286e+01 6.671429e+00 1.585714e+00 4.904762e-01 1.000000e-01
<VARIANCE> 20
 3.583822e+06 3.981304e+04 6.020557e+05 1.156101e+04 1.000000e-02 1.000000e-02 1.000000e-02 1.000000e-02 1.000000e-02 1.252980e+05 3.631736e+02 1.580896e+06 4.068278e+06 2.432014e+06 2.730457e+05 1.833568e+03 1.552016e+02 2.577599e+01 1.198324e+01 6.804762e-01
<GCONST> 1.543330e+02
<STATE> 7
<MEAN> 20
 7.941271e+03 3.082143e+02 1.250581e+03 3.132857e+01 0.000000e+00 0.000000e+00 0.000000e+00 0.000000e+00 4.761905e-03 3.166571e+02 2.914286e+00 1.001557e+03 6.026957e+03 2.483314e+03 2.915238e+02 3.294286e+01 6.671429e+00 1.585714e+00 4.904762e-01 1.000000e-01
<VARIANCE> 20
 3.583822e+06 3.981304e+04 6.020557e+05 1.156101e+04 1.000000e-02 1.000000e-02 1.000000e-02 1.000000e-02 1.000000e-02 1.252980e+05 3.631736e+02 1.580896e+06 4.068278e+06 2.432014e+06 2.730457e+05 1.833568e+03 1.552016e+02 2.577599e+01 1.198324e+01 6.804762e-01
<GCONST> 1.543330e+02
<STATE> 8
<MEAN> 20
 7.941271e+03 3.082143e+02 1.250581e+03 3.132857e+01 0.000000e+00 0.000000e+00 0.000000e+00 0.000000e+00 4.761905e-03 3.166571e+02 2.914286e+00 1.001557e+03 6.026957e+03 2.483314e+03 2.915238e+02 3.294286e+01 6.671429e+00 1.585714e+00 4.904762e-01 1.000000e-01
<VARIANCE> 20
 3.583822e+06 3.981304e+04 6.020557e+05 1.156101e+04 1.000000e-02 1.000000e-02 1.000000e-02 1.000000e-02 1.000000e-02 1.252980e+05 3.631736e+02 1.580896e+06 4.068278e+06 2.432014e+06 2.730457e+05 1.833568e+03 1.552016e+02 2.577599e+01 1.198324e+01 6.804762e-01
<GCONST> 1.543330e+02
<STATE> 9
<MEAN> 20
 7.941271e+03 3.082143e+02 1.250581e+03 3.132857e+01 0.000000e+00 0.000000e+00 0.000000e+00 0.000000e+00 4.761905e-03 3.166571e+02 2.914286e+00 1.001557e+03 6.026957e+03 2.483314e+03 2.915238e+02 3.294286e+01 6.671429e+00 1.585714e+00 4.904762e-01 1.000000e-01
<VARIANCE> 20
 3.583822e+06 3.981304e+04 6.020557e+05 1.156101e+04 1.000000e-02 1.000000e-02 1.000000e-02 1.000000e-02 1.000000e-02 1.252980e+05 3.631736e+02 1.580896e+06 4.068278e+06 2.432014e+06 2.730457e+05 1.833568e+03 1.552016e+02 2.577599e+01 1.198324e+01 6.804762e-01
<GCONST> 1.543330e+02
<STATE> 10
<MEAN> 20
 7.941271e+03 3.082143e+02 1.250581e+03 3.132857e+01 0.000000e+00 0.000000e+00 0.000000e+00 0.000000e+00 4.761905e-03 3.166571e+02 2.914286e+00 1.001557e+03 6.026957e+03 2.483314e+03 2.915238e+02 3.294286e+01 6.671429e+00 1.585714e+00 4.904762e-01 1.000000e-01
<VARIANCE> 20
 3.583822e+06 3.981304e+04 6.020557e+05 1.156101e+04 1.000000e-02 1.000000e-02 1.000000e-02 1.000000e-02 1.000000e-02 1.252980e+05 3.631736e+02 1.580896e+06 4.068278e+06 2.432014e+06 2.730457e+05 1.833568e+03 1.552016e+02 2.577599e+01 1.198324e+01 6.804762e-01
<GCONST> 1.543330e+02
<STATE> 11
<MEAN> 20
 7.941271e+03 3.082143e+02 1.250581e+03 3.132857e+01 0.000000e+00 0.000000e+00 0.000000e+00 0.000000e+00 4.761905e-03 3.166571e+02 2.914286e+00 1.001557e+03 6.026957e+03 2.483314e+03 2.915238e+02 3.294286e+01 6.671429e+00 1.585714e+00 4.904762e-01 1.000000e-01
<VARIANCE> 20
 3.583822e+06 3.981304e+04 6.020557e+05 1.156101e+04 1.000000e-02 1.000000e-02 1.000000e-02 1.000000e-02 1.000000e-02 1.252980e+05 3.631736e+02 1.580896e+06 4.068278e+06 2.432014e+06 2.730457e+05 1.833568e+03 1.552016e+02 2.577599e+01 1.198324e+01 6.804762e-01
<GCONST> 1.543330e+02
<STATE> 12
<MEAN> 20
 7.941271e+03 3.082143e+02 1.250581e+03 3.132857e+01 0.000000e+00 0.000000e+00 0.000000e+00 0.000000e+00 4.761905e-03 3.166571e+02 2.914286e+00 1.001557e+03 6.026957e+03 2.483314e+03 2.915238e+02 3.294286e+01 6.671429e+00 1.585714e+00 4.904762e-01 1.000000e-01
<VARIANCE> 20
 3.583822e+06 3.981304e+04 6.020557e+05 1.156101e+04 1.000000e-02 1.000000e-02 1.000000e-02 1.000000e-02 1.000000e-02 1.252980e+05 3.631736e+02 1.580896e+06 4.068278e+06 2.432014e+06 2.730457e+05 1.833568e+03 1.552016e+02 2.577599e+01 1.198324e+01 6.804762e-01
<GCONST> 1.543330e+02
<STATE> 13
<MEAN> 20
 7.941271e+03 3.082143e+02 1.250581e+03 3.132857e+01 0.000000e+00 0.000000e+00 0.000000e+00 0.000000e+00 4.761905e-03 3.166571e+02 2.914286e+00 1.001557e+03 6.026957e+03 2.483314e+03 2.915238e+02 3.294286e+01 6.671429e+00 1.585714e+00 4.904762e-01 1.000000e-01
<VARIANCE> 20
 3.583822e+06 3.981304e+04 6.020557e+05 1.156101e+04 1.000000e-02 1.000000e-02 1.000000e-02 1.000000e-02 1.000000e-02 1.252980e+05 3.631736e+02 1.580896e+06 4.068278e+06 2.432014e+06 2.730457e+05 1.833568e+03 1.552016e+02 2.577599e+01 1.198324e+01 6.804762e-01
<GCONST> 1.543330e+02
<TRANSP> 14
 0.000000e+00 1.000000e+00 0.000000e+00 0.000000e+00 0.000000e+00 0.000000e+00 0.000000e+00 0.000000e+00 0.000000e+00 0.000000e+00 0.000000e+00 0.000000e+00 0.000000e+00 0.000000e+00
 0.000000e+00 5.000000e-01 5.000000e-01 0.000000e+00 0.000000e+00 0.000000e+00 0.000000e+00 0.000000e+00 0.000000e+00 0.000000e+00 0.000000e+00 0.000000e+00 0.000000e+00 0.000000e+00
 0.000000e+00 0.000000e+00 5.000000e-01 5.000000e-01 0.000000e+00 0.000000e+00 0.000000e+00 0.000000e+00 0.000000e+00 0.000000e+00 0.000000e+00 0.000000e+00 0.000000e+00 0.000000e+00
 0.000000e+00 0.000000e+00 0.000000e+00 5.000000e-01 5.000000e-01 0.000000e+00 0.000000e+00 0.000000e+00 0.000000e+00 0.000000e+00 0.000000e+00 0.000000e+00 0.000000e+00 0.000000e+00
 0.000000e+00 0.000000e+00 0.000000e+00 0.000000e+00 5.000000e-01 5.000000e-01 0.000000e+00 0.000000e+00 0.000000e+00 0.000000e+00 0.000000e+00 0.000000e+00 0.000000e+00 0.000000e+00
 0.000000e+00 0.000000e+00 0.000000e+00 0.000000e+00 0.000000e+00 5.000000e-01 5.000000e-01 0.000000e+00 0.000000e+00 0.000000e+00 0.000000e+00 0.000000e+00 0.000000e+00 0.000000e+00
 0.000000e+00 0.000000e+00 0.000000e+00 0.000000e+00 0.000000e+00 0.000000e+00 5.000000e-01 5.000000e-01 0.000000e+00 0.000000e+00 0.000000e+00 0.000000e+00 0.000000e+00 0.000000e+00
 0.000000e+00 0.000000e+00 0.000000e+00 0.000000e+00 0.000000e+00 0.000000e+00 0.000000e+00 5.000000e-01 5.000000e-01 0.000000e+00 0.000000e+00 0.000000e+00 0.000000e+00 0.000000e+00
 0.000000e+00 0.000000e+00 0.000000e+00 0.000000e+00 0.000000e+00 0.000000e+00 0.000000e+00 0.000000e+00 5.000000e-01 5.000000e-01 0.000000e+00 0.000000e+00 0.000000e+00 0.000000e+00
 0.000000e+00 0.000000e+00 0.000000e+00 0.000000e+00 0.000000e+00 0.000000e+00 0.000000e+00 0.000000e+00 0.000000e+00 5.000000e-01 5.000000e-01 0.000000e+00 0.000000e+00 0.000000e+00
 0.000000e+00 0.000000e+00 0.000000e+00 0.000000e+00 0.000000e+00 0.000000e+00 0.000000e+00 0.000000e+00 0.000000e+00 0.000000e+00 5.000000e-01 5.000000e-01 0.000000e+00 0.000000e+00
 0.000000e+00 0.000000e+00 0.000000e+00 0.000000e+00 0.000000e+00 0.000000e+00 0.000000e+00 0.000000e+00 0.000000e+00 0.000000e+00 0.000000e+00 5.000000e-01 5.000000e-01 0.000000e+00
 0.000000e+00 0.000000e+00 0.000000e+00 0.000000e+00 0.000000e+00 0.000000e+00 0.000000e+00 0.000000e+00 0.000000e+00 0.000000e+00 0.000000e+00 0.000000e+00 5.000000e-01 5.000000e-01
 0.000000e+00 0.000000e+00 0.000000e+00 0.000000e+00 0.000000e+00 0.000000e+00 0.000000e+00 0.000000e+00 0.000000e+00 0.000000e+00 0.000000e+00 0.000000e+00 0.000000e+00 0.000000e+00
<ENDHMM>
