~o
<STREAMINFO> 1 20
<VECSIZE> 20<NULLD><USER><DIAGC>
~h "g"
<BEGINHMM>
<NUMSTATES> 14
<STATE> 2
<MEAN> 20
 7.286039e+03 6.549451e+01 1.303077e+02 6.175824e+00 4.351648e+00 8.706044e+01 2.104670e+01 1.211813e+01 1.387363e+01 2.522280e+02 2.357692e+01 5.087363e+02 4.548445e+03 1.711184e+03 8.035192e+02 2.373846e+02 3.182967e+01 9.714286e+00 3.909341e+00 3.956044e-01
<VARIANCE> 20
 1.111883e+07 2.648420e+04 2.022687e+05 2.127793e+03 8.224038e+02 1.183134e+05 7.610188e+03 2.028758e+03 3.374369e+03 3.228045e+05 1.608415e+04 7.554944e+05 1.329445e+07 3.459874e+06 1.759105e+06 2.169924e+05 7.054696e+03 1.519050e+03 6.548297e+02 5.392948e+00
<GCONST> 2.445057e+02
<STATE> 3
<MEAN> 20
 7.286039e+03 6.549451e+01 1.303077e+02 6.175824e+00 4.351648e+00 8.706044e+01 2.104670e+01 1.211813e+01 1.387363e+01 2.522280e+02 2.357692e+01 5.087363e+02 4.548445e+03 1.711184e+03 8.035192e+02 2.373846e+02 3.182967e+01 9.714286e+00 3.909341e+00 3.956044e-01
<VARIANCE> 20
 1.111883e+07 2.648420e+04 2.022687e+05 2.127793e+03 8.224038e+02 1.183134e+05 7.610188e+03 2.028758e+03 3.374369e+03 3.228045e+05 1.608415e+04 7.554944e+05 1.329445e+07 3.459874e+06 1.759105e+06 2.169924e+05 7.054696e+03 1.519050e+03 6.548297e+02 5.392948e+00
<GCONST> 2.445057e+02
<STATE> 4
<MEAN> 20
 7.286039e+03 6.549451e+01 1.303077e+02 6.175824e+00 4.351648e+00 8.706044e+01 2.104670e+01 1.211813e+01 1.387363e+01 2.522280e+02 2.357692e+01 5.087363e+02 4.548445e+03 1.711184e+03 8.035192e+02 2.373846e+02 3.182967e+01 9.714286e+00 3.909341e+00 3.956044e-01
<VARIANCE> 20
 1.111883e+07 2.648420e+04 2.022687e+05 2.127793e+03 8.224038e+02 1.183134e+05 7.610188e+03 2.028758e+03 3.374369e+03 3.228045e+05 1.608415e+04 7.554944e+05 1.329445e+07 3.459874e+06 1.759105e+06 2.169924e+05 7.054696e+03 1.519050e+03 6.548297e+02 5.392948e+00
<GCONST> 2.445057e+02
<STATE> 5
<MEAN> 20
 7.286039e+03 6.549451e+01 1.303077e+02 6.175824e+00 4.351648e+00 8.706044e+01 2.104670e+01 1.211813e+01 1.387363e+01 2.522280e+02 2.357692e+01 5.087363e+02 4.548445e+03 1.711184e+03 8.035192e+02 2.373846e+02 3.182967e+01 9.714286e+00 3.909341e+00 3.956044e-01
<VARIANCE> 20
 1.111883e+07 2.648420e+04 2.022687e+05 2.127793e+03 8.224038e+02 1.183134e+05 7.610188e+03 2.028758e+03 3.374369e+03 3.228045e+05 1.608415e+04 7.554944e+05 1.329445e+07 3.459874e+06 1.759105e+06 2.169924e+05 7.054696e+03 1.519050e+03 6.548297e+02 5.392948e+00
<GCONST> 2.445057e+02
<STATE> 6
<MEAN> 20
 7.286039e+03 6.549451e+01 1.303077e+02 6.175824e+00 4.351648e+00 8.706044e+01 2.104670e+01 1.211813e+01 1.387363e+01 2.522280e+02 2.357692e+01 5.087363e+02 4.548445e+03 1.711184e+03 8.035192e+02 2.373846e+02 3.182967e+01 9.714286e+00 3.909341e+00 3.956044e-01
<VARIANCE> 20
 1.111883e+07 2.648420e+04 2.022687e+05 2.127793e+03 8.224038e+02 1.183134e+05 7.610188e+03 2.028758e+03 3.374369e+03 3.228045e+05 1.608415e+04 7.554944e+05 1.329445e+07 3.459874e+06 1.759105e+06 2.169924e+05 7.054696e+03 1.519050e+03 6.548297e+02 5.392948e+00
<GCONST> 2.445057e+02
<STATE> 7
<MEAN> 20
 7.286039e+03 6.549451e+01 1.303077e+02 6.175824e+00 4.351648e+00 8.706044e+01 2.104670e+01 1.211813e+01 1.387363e+01 2.522280e+02 2.357692e+01 5.087363e+02 4.548445e+03 1.711184e+03 8.035192e+02 2.373846e+02 3.182967e+01 9.714286e+00 3.909341e+00 3.956044e-01
<VARIANCE> 20
 1.111883e+07 2.648420e+04 2.022687e+05 2.127793e+03 8.224038e+02 1.183134e+05 7.610188e+03 2.028758e+03 3.374369e+03 3.228045e+05 1.608415e+04 7.554944e+05 1.329445e+07 3.459874e+06 1.759105e+06 2.169924e+05 7.054696e+03 1.519050e+03 6.548297e+02 5.392948e+00
<GCONST> 2.445057e+02
<STATE> 8
<MEAN> 20
 7.286039e+03 6.549451e+01 1.303077e+02 6.175824e+00 4.351648e+00 8.706044e+01 2.104670e+01 1.211813e+01 1.387363e+01 2.522280e+02 2.357692e+01 5.087363e+02 4.548445e+03 1.711184e+03 8.035192e+02 2.373846e+02 3.182967e+01 9.714286e+00 3.909341e+00 3.956044e-01
<VARIANCE> 20
 1.111883e+07 2.648420e+04 2.022687e+05 2.127793e+03 8.224038e+02 1.183134e+05 7.610188e+03 2.028758e+03 3.374369e+03 3.228045e+05 1.608415e+04 7.554944e+05 1.329445e+07 3.459874e+06 1.759105e+06 2.169924e+05 7.054696e+03 1.519050e+03 6.548297e+02 5.392948e+00
<GCONST> 2.445057e+02
<STATE> 9
<MEAN> 20
 7.286039e+03 6.549451e+01 1.303077e+02 6.175824e+00 4.351648e+00 8.706044e+01 2.104670e+01 1.211813e+01 1.387363e+01 2.522280e+02 2.357692e+01 5.087363e+02 4.548445e+03 1.711184e+03 8.035192e+02 2.373846e+02 3.182967e+01 9.714286e+00 3.909341e+00 3.956044e-01
<VARIANCE> 20
 1.111883e+07 2.648420e+04 2.022687e+05 2.127793e+03 8.224038e+02 1.183134e+05 7.610188e+03 2.028758e+03 3.374369e+03 3.228045e+05 1.608415e+04 7.554944e+05 1.329445e+07 3.459874e+06 1.759105e+06 2.169924e+05 7.054696e+03 1.519050e+03 6.548297e+02 5.392948e+00
<GCONST> 2.445057e+02
<STATE> 10
<MEAN> 20
 7.286039e+03 6.549451e+01 1.303077e+02 6.175824e+00 4.351648e+00 8.706044e+01 2.104670e+01 1.211813e+01 1.387363e+01 2.522280e+02 2.357692e+01 5.087363e+02 4.548445e+03 1.711184e+03 8.035192e+02 2.373846e+02 3.182967e+01 9.714286e+00 3.909341e+00 3.956044e-01
<VARIANCE> 20
 1.111883e+07 2.648420e+04 2.022687e+05 2.127793e+03 8.224038e+02 1.183134e+05 7.610188e+03 2.028758e+03 3.374369e+03 3.228045e+05 1.608415e+04 7.554944e+05 1.329445e+07 3.459874e+06 1.759105e+06 2.169924e+05 7.054696e+03 1.519050e+03 6.548297e+02 5.392948e+00
<GCONST> 2.445057e+02
<STATE> 11
<MEAN> 20
 7.286039e+03 6.549451e+01 1.303077e+02 6.175824e+00 4.351648e+00 8.706044e+01 2.104670e+01 1.211813e+01 1.387363e+01 2.522280e+02 2.357692e+01 5.087363e+02 4.548445e+03 1.711184e+03 8.035192e+02 2.373846e+02 3.182967e+01 9.714286e+00 3.909341e+00 3.956044e-01
<VARIANCE> 20
 1.111883e+07 2.648420e+04 2.022687e+05 2.127793e+03 8.224038e+02 1.183134e+05 7.610188e+03 2.028758e+03 3.374369e+03 3.228045e+05 1.608415e+04 7.554944e+05 1.329445e+07 3.459874e+06 1.759105e+06 2.169924e+05 7.054696e+03 1.519050e+03 6.548297e+02 5.392948e+00
<GCONST> 2.445057e+02
<STATE> 12
<MEAN> 20
 7.286039e+03 6.549451e+01 1.303077e+02 6.175824e+00 4.351648e+00 8.706044e+01 2.104670e+01 1.211813e+01 1.387363e+01 2.522280e+02 2.357692e+01 5.087363e+02 4.548445e+03 1.711184e+03 8.035192e+02 2.373846e+02 3.182967e+01 9.714286e+00 3.909341e+00 3.956044e-01
<VARIANCE> 20
 1.111883e+07 2.648420e+04 2.022687e+05 2.127793e+03 8.224038e+02 1.183134e+05 7.610188e+03 2.028758e+03 3.374369e+03 3.228045e+05 1.608415e+04 7.554944e+05 1.329445e+07 3.459874e+06 1.759105e+06 2.169924e+05 7.054696e+03 1.519050e+03 6.548297e+02 5.392948e+00
<GCONST> 2.445057e+02
<STATE> 13
<MEAN> 20
 7.286039e+03 6.549451e+01 1.303077e+02 6.175824e+00 4.351648e+00 8.706044e+01 2.104670e+01 1.211813e+01 1.387363e+01 2.522280e+02 2.357692e+01 5.087363e+02 4.548445e+03 1.711184e+03 8.035192e+02 2.373846e+02 3.182967e+01 9.714286e+00 3.909341e+00 3.956044e-01
<VARIANCE> 20
 1.111883e+07 2.648420e+04 2.022687e+05 2.127793e+03 8.224038e+02 1.183134e+05 7.610188e+03 2.028758e+03 3.374369e+03 3.228045e+05 1.608415e+04 7.554944e+05 1.329445e+07 3.459874e+06 1.759105e+06 2.169924e+05 7.054696e+03 1.519050e+03 6.548297e+02 5.392948e+00
<GCONST> 2.445057e+02
<TRANSP> 14
 0.000000e+00 1.000000e+00 0.000000e+00 0.000000e+00 0.000000e+00 0.000000e+00 0.000000e+00 0.000000e+00 0.000000e+00 0.000000e+00 0.000000e+00 0.000000e+00 0.000000e+00 0.000000e+00
 0.000000e+00 5.000000e-01 5.000000e-01 0.000000e+00 0.000000e+00 0.000000e+00 0.000000e+00 0.000000e+00 0.000000e+00 0.000000e+00 0.000000e+00 0.000000e+00 0.000000e+00 0.000000e+00
 0.000000e+00 0.000000e+00 5.000000e-01 5.000000e-01 0.000000e+00 0.000000e+00 0.000000e+00 0.000000e+00 0.000000e+00 0.000000e+00 0.000000e+00 0.000000e+00 0.000000e+00 0.000000e+00
 0.000000e+00 0.000000e+00 0.000000e+00 5.000000e-01 5.000000e-01 0.000000e+00 0.000000e+00 0.000000e+00 0.000000e+00 0.000000e+00 0.000000e+00 0.000000e+00 0.000000e+00 0.000000e+00
 0.000000e+00 0.000000e+00 0.000000e+00 0.000000e+00 5.000000e-01 5.000000e-01 0.000000e+00 0.000000e+00 0.000000e+00 0.000000e+00 0.000000e+00 0.000000e+00 0.000000e+00 0.000000e+00
 0.000000e+00 0.000000e+00 0.000000e+00 0.000000e+00 0.000000e+00 5.000000e-01 5.000000e-01 0.000000e+00 0.000000e+00 0.000000e+00 0.000000e+00 0.000000e+00 0.000000e+00 0.000000e+00
 0.000000e+00 0.000000e+00 0.000000e+00 0.000000e+00 0.000000e+00 0.000000e+00 5.000000e-01 5.000000e-01 0.000000e+00 0.000000e+00 0.000000e+00 0.000000e+00 0.000000e+00 0.000000e+00
 0.000000e+00 0.000000e+00 0.000000e+00 0.000000e+00 0.000000e+00 0.000000e+00 0.000000e+00 5.000000e-01 5.000000e-01 0.000000e+00 0.000000e+00 0.000000e+00 0.000000e+00 0.000000e+00
 0.000000e+00 0.000000e+00 0.000000e+00 0.000000e+00 0.000000e+00 0.000000e+00 0.000000e+00 0.000000e+00 5.000000e-01 5.000000e-01 0.000000e+00 0.000000e+00 0.000000e+00 0.000000e+00
 0.000000e+00 0.000000e+00 0.000000e+00 0.000000e+00 0.000000e+00 0.000000e+00 0.000000e+00 0.000000e+00 0.000000e+00 5.000000e-01 5.000000e-01 0.000000e+00 0.000000e+00 0.000000e+00
 0.000000e+00 0.000000e+00 0.000000e+00 0.000000e+00 0.000000e+00 0.000000e+00 0.000000e+00 0.000000e+00 0.000000e+00 0.000000e+00 5.000000e-01 5.000000e-01 0.000000e+00 0.000000e+00
 0.000000e+00 0.000000e+00 0.000000e+00 0.000000e+00 0.000000e+00 0.000000e+00 0.000000e+00 0.000000e+00 0.000000e+00 0.000000e+00 0.000000e+00 5.000000e-01 5.000000e-01 0.000000e+00
 0.000000e+00 0.000000e+00 0.000000e+00 0.000000e+00 0.000000e+00 0.000000e+00 0.000000e+00 0.000000e+00 0.000000e+00 0.000000e+00 0.000000e+00 0.000000e+00 5.000000e-01 5.000000e-01
 0.000000e+00 0.000000e+00 0.000000e+00 0.000000e+00 0.000000e+00 0.000000e+00 0.000000e+00 0.000000e+00 0.000000e+00 0.000000e+00 0.000000e+00 0.000000e+00 0.000000e+00 0.000000e+00
<ENDHMM>
