~o
<STREAMINFO> 1 20
<VECSIZE> 20<NULLD><USER><DIAGC>
~h "h"
<BEGINHMM>
<NUMSTATES> 14
<STATE> 2
<MEAN> 20
 8.394783e+03 1.724039e+01 1.259615e+00 4.471154e-01 3.894231e+00 3.413461e+00 1.837500e+01 9.899038e+00 5.442307e+00 2.931731e+02 6.045192e+01 7.652019e+02 6.247077e+03 9.811298e+02 5.924327e+02 8.530289e+01 7.000000e+00 8.043269e+00 1.009615e+00 2.788461e-01
<VARIANCE> 20
 1.172960e+07 1.008792e+04 7.074030e+01 2.463182e+01 6.579984e+02 4.648771e+02 1.181431e+04 2.630841e+03 8.324102e+02 4.019556e+05 1.402214e+05 6.725354e+05 1.478496e+07 1.286024e+06 1.260148e+06 4.621154e+04 5.976635e+02 1.548176e+03 2.711529e+01 5.826091e+00
<GCONST> 2.186628e+02
<STATE> 3
<MEAN> 20
 8.394783e+03 1.724039e+01 1.259615e+00 4.471154e-01 3.894231e+00 3.413461e+00 1.837500e+01 9.899038e+00 5.442307e+00 2.931731e+02 6.045192e+01 7.652019e+02 6.247077e+03 9.811298e+02 5.924327e+02 8.530289e+01 7.000000e+00 8.043269e+00 1.009615e+00 2.788461e-01
<VARIANCE> 20
 1.172960e+07 1.008792e+04 7.074030e+01 2.463182e+01 6.579984e+02 4.648771e+02 1.181431e+04 2.630841e+03 8.324102e+02 4.019556e+05 1.402214e+05 6.725354e+05 1.478496e+07 1.286024e+06 1.260148e+06 4.621154e+04 5.976635e+02 1.548176e+03 2.711529e+01 5.826091e+00
<GCONST> 2.186628e+02
<STATE> 4
<MEAN> 20
 8.394783e+03 1.724039e+01 1.259615e+00 4.471154e-01 3.894231e+00 3.413461e+00 1.837500e+01 9.899038e+00 5.442307e+00 2.931731e+02 6.045192e+01 7.652019e+02 6.247077e+03 9.811298e+02 5.924327e+02 8.530289e+01 7.000000e+00 8.043269e+00 1.009615e+00 2.788461e-01
<VARIANCE> 20
 1.172960e+07 1.008792e+04 7.074030e+01 2.463182e+01 6.579984e+02 4.648771e+02 1.181431e+04 2.630841e+03 8.324102e+02 4.019556e+05 1.402214e+05 6.725354e+05 1.478496e+07 1.286024e+06 1.260148e+06 4.621154e+04 5.976635e+02 1.548176e+03 2.711529e+01 5.826091e+00
<GCONST> 2.186628e+02
<STATE> 5
<MEAN> 20
 8.394783e+03 1.724039e+01 1.259615e+00 4.471154e-01 3.894231e+00 3.413461e+00 1.837500e+01 9.899038e+00 5.442307e+00 2.931731e+02 6.045192e+01 7.652019e+02 6.247077e+03 9.811298e+02 5.924327e+02 8.530289e+01 7.000000e+00 8.043269e+00 1.009615e+00 2.788461e-01
<VARIANCE> 20
 1.172960e+07 1.008792e+04 7.074030e+01 2.463182e+01 6.579984e+02 4.648771e+02 1.181431e+04 2.630841e+03 8.324102e+02 4.019556e+05 1.402214e+05 6.725354e+05 1.478496e+07 1.286024e+06 1.260148e+06 4.621154e+04 5.976635e+02 1.548176e+03 2.711529e+01 5.826091e+00
<GCONST> 2.186628e+02
<STATE> 6
<MEAN> 20
 8.394783e+03 1.724039e+01 1.259615e+00 4.471154e-01 3.894231e+00 3.413461e+00 1.837500e+01 9.899038e+00 5.442307e+00 2.931731e+02 6.045192e+01 7.652019e+02 6.247077e+03 9.811298e+02 5.924327e+02 8.530289e+01 7.000000e+00 8.043269e+00 1.009615e+00 2.788461e-01
<VARIANCE> 20
 1.172960e+07 1.008792e+04 7.074030e+01 2.463182e+01 6.579984e+02 4.648771e+02 1.181431e+04 2.630841e+03 8.324102e+02 4.019556e+05 1.402214e+05 6.725354e+05 1.478496e+07 1.286024e+06 1.260148e+06 4.621154e+04 5.976635e+02 1.548176e+03 2.711529e+01 5.826091e+00
<GCONST> 2.186628e+02
<STATE> 7
<MEAN> 20
 8.394783e+03 1.724039e+01 1.259615e+00 4.471154e-01 3.894231e+00 3.413461e+00 1.837500e+01 9.899038e+00 5.442307e+00 2.931731e+02 6.045192e+01 7.652019e+02 6.247077e+03 9.811298e+02 5.924327e+02 8.530289e+01 7.000000e+00 8.043269e+00 1.009615e+00 2.788461e-01
<VARIANCE> 20
 1.172960e+07 1.008792e+04 7.074030e+01 2.463182e+01 6.579984e+02 4.648771e+02 1.181431e+04 2.630841e+03 8.324102e+02 4.019556e+05 1.402214e+05 6.725354e+05 1.478496e+07 1.286024e+06 1.260148e+06 4.621154e+04 5.976635e+02 1.548176e+03 2.711529e+01 5.826091e+00
<GCONST> 2.186628e+02
<STATE> 8
<MEAN> 20
 8.394783e+03 1.724039e+01 1.259615e+00 4.471154e-01 3.894231e+00 3.413461e+00 1.837500e+01 9.899038e+00 5.442307e+00 2.931731e+02 6.045192e+01 7.652019e+02 6.247077e+03 9.811298e+02 5.924327e+02 8.530289e+01 7.000000e+00 8.043269e+00 1.009615e+00 2.788461e-01
<VARIANCE> 20
 1.172960e+07 1.008792e+04 7.074030e+01 2.463182e+01 6.579984e+02 4.648771e+02 1.181431e+04 2.630841e+03 8.324102e+02 4.019556e+05 1.402214e+05 6.725354e+05 1.478496e+07 1.286024e+06 1.260148e+06 4.621154e+04 5.976635e+02 1.548176e+03 2.711529e+01 5.826091e+00
<GCONST> 2.186628e+02
<STATE> 9
<MEAN> 20
 8.394783e+03 1.724039e+01 1.259615e+00 4.471154e-01 3.894231e+00 3.413461e+00 1.837500e+01 9.899038e+00 5.442307e+00 2.931731e+02 6.045192e+01 7.652019e+02 6.247077e+03 9.811298e+02 5.924327e+02 8.530289e+01 7.000000e+00 8.043269e+00 1.009615e+00 2.788461e-01
<VARIANCE> 20
 1.172960e+07 1.008792e+04 7.074030e+01 2.463182e+01 6.579984e+02 4.648771e+02 1.181431e+04 2.630841e+03 8.324102e+02 4.019556e+05 1.402214e+05 6.725354e+05 1.478496e+07 1.286024e+06 1.260148e+06 4.621154e+04 5.976635e+02 1.548176e+03 2.711529e+01 5.826091e+00
<GCONST> 2.186628e+02
<STATE> 10
<MEAN> 20
 8.394783e+03 1.724039e+01 1.259615e+00 4.471154e-01 3.894231e+00 3.413461e+00 1.837500e+01 9.899038e+00 5.442307e+00 2.931731e+02 6.045192e+01 7.652019e+02 6.247077e+03 9.811298e+02 5.924327e+02 8.530289e+01 7.000000e+00 8.043269e+00 1.009615e+00 2.788461e-01
<VARIANCE> 20
 1.172960e+07 1.008792e+04 7.074030e+01 2.463182e+01 6.579984e+02 4.648771e+02 1.181431e+04 2.630841e+03 8.324102e+02 4.019556e+05 1.402214e+05 6.725354e+05 1.478496e+07 1.286024e+06 1.260148e+06 4.621154e+04 5.976635e+02 1.548176e+03 2.711529e+01 5.826091e+00
<GCONST> 2.186628e+02
<STATE> 11
<MEAN> 20
 8.394783e+03 1.724039e+01 1.259615e+00 4.471154e-01 3.894231e+00 3.413461e+00 1.837500e+01 9.899038e+00 5.442307e+00 2.931731e+02 6.045192e+01 7.652019e+02 6.247077e+03 9.811298e+02 5.924327e+02 8.530289e+01 7.000000e+00 8.043269e+00 1.009615e+00 2.788461e-01
<VARIANCE> 20
 1.172960e+07 1.008792e+04 7.074030e+01 2.463182e+01 6.579984e+02 4.648771e+02 1.181431e+04 2.630841e+03 8.324102e+02 4.019556e+05 1.402214e+05 6.725354e+05 1.478496e+07 1.286024e+06 1.260148e+06 4.621154e+04 5.976635e+02 1.548176e+03 2.711529e+01 5.826091e+00
<GCONST> 2.186628e+02
<STATE> 12
<MEAN> 20
 8.394783e+03 1.724039e+01 1.259615e+00 4.471154e-01 3.894231e+00 3.413461e+00 1.837500e+01 9.899038e+00 5.442307e+00 2.931731e+02 6.045192e+01 7.652019e+02 6.247077e+03 9.811298e+02 5.924327e+02 8.530289e+01 7.000000e+00 8.043269e+00 1.009615e+00 2.788461e-01
<VARIANCE> 20
 1.172960e+07 1.008792e+04 7.074030e+01 2.463182e+01 6.579984e+02 4.648771e+02 1.181431e+04 2.630841e+03 8.324102e+02 4.019556e+05 1.402214e+05 6.725354e+05 1.478496e+07 1.286024e+06 1.260148e+06 4.621154e+04 5.976635e+02 1.548176e+03 2.711529e+01 5.826091e+00
<GCONST> 2.186628e+02
<STATE> 13
<MEAN> 20
 8.394783e+03 1.724039e+01 1.259615e+00 4.471154e-01 3.894231e+00 3.413461e+00 1.837500e+01 9.899038e+00 5.442307e+00 2.931731e+02 6.045192e+01 7.652019e+02 6.247077e+03 9.811298e+02 5.924327e+02 8.530289e+01 7.000000e+00 8.043269e+00 1.009615e+00 2.788461e-01
<VARIANCE> 20
 1.172960e+07 1.008792e+04 7.074030e+01 2.463182e+01 6.579984e+02 4.648771e+02 1.181431e+04 2.630841e+03 8.324102e+02 4.019556e+05 1.402214e+05 6.725354e+05 1.478496e+07 1.286024e+06 1.260148e+06 4.621154e+04 5.976635e+02 1.548176e+03 2.711529e+01 5.826091e+00
<GCONST> 2.186628e+02
<TRANSP> 14
 0.000000e+00 1.000000e+00 0.000000e+00 0.000000e+00 0.000000e+00 0.000000e+00 0.000000e+00 0.000000e+00 0.000000e+00 0.000000e+00 0.000000e+00 0.000000e+00 0.000000e+00 0.000000e+00
 0.000000e+00 5.000000e-01 5.000000e-01 0.000000e+00 0.000000e+00 0.000000e+00 0.000000e+00 0.000000e+00 0.000000e+00 0.000000e+00 0.000000e+00 0.000000e+00 0.000000e+00 0.000000e+00
 0.000000e+00 0.000000e+00 5.000000e-01 5.000000e-01 0.000000e+00 0.000000e+00 0.000000e+00 0.000000e+00 0.000000e+00 0.000000e+00 0.000000e+00 0.000000e+00 0.000000e+00 0.000000e+00
 0.000000e+00 0.000000e+00 0.000000e+00 5.000000e-01 5.000000e-01 0.000000e+00 0.000000e+00 0.000000e+00 0.000000e+00 0.000000e+00 0.000000e+00 0.000000e+00 0.000000e+00 0.000000e+00
 0.000000e+00 0.000000e+00 0.000000e+00 0.000000e+00 5.000000e-01 5.000000e-01 0.000000e+00 0.000000e+00 0.000000e+00 0.000000e+00 0.000000e+00 0.000000e+00 0.000000e+00 0.000000e+00
 0.000000e+00 0.000000e+00 0.000000e+00 0.000000e+00 0.000000e+00 5.000000e-01 5.000000e-01 0.000000e+00 0.000000e+00 0.000000e+00 0.000000e+00 0.000000e+00 0.000000e+00 0.000000e+00
 0.000000e+00 0.000000e+00 0.000000e+00 0.000000e+00 0.000000e+00 0.000000e+00 5.000000e-01 5.000000e-01 0.000000e+00 0.000000e+00 0.000000e+00 0.000000e+00 0.000000e+00 0.000000e+00
 0.000000e+00 0.000000e+00 0.000000e+00 0.000000e+00 0.000000e+00 0.000000e+00 0.000000e+00 5.000000e-01 5.000000e-01 0.000000e+00 0.000000e+00 0.000000e+00 0.000000e+00 0.000000e+00
 0.000000e+00 0.000000e+00 0.000000e+00 0.000000e+00 0.000000e+00 0.000000e+00 0.000000e+00 0.000000e+00 5.000000e-01 5.000000e-01 0.000000e+00 0.000000e+00 0.000000e+00 0.000000e+00
 0.000000e+00 0.000000e+00 0.000000e+00 0.000000e+00 0.000000e+00 0.000000e+00 0.000000e+00 0.000000e+00 0.000000e+00 5.000000e-01 5.000000e-01 0.000000e+00 0.000000e+00 0.000000e+00
 0.000000e+00 0.000000e+00 0.000000e+00 0.000000e+00 0.000000e+00 0.000000e+00 0.000000e+00 0.000000e+00 0.000000e+00 0.000000e+00 5.000000e-01 5.000000e-01 0.000000e+00 0.000000e+00
 0.000000e+00 0.000000e+00 0.000000e+00 0.000000e+00 0.000000e+00 0.000000e+00 0.000000e+00 0.000000e+00 0.000000e+00 0.000000e+00 0.000000e+00 5.000000e-01 5.000000e-01 0.000000e+00
 0.000000e+00 0.000000e+00 0.000000e+00 0.000000e+00 0.000000e+00 0.000000e+00 0.000000e+00 0.000000e+00 0.000000e+00 0.000000e+00 0.000000e+00 0.000000e+00 5.000000e-01 5.000000e-01
 0.000000e+00 0.000000e+00 0.000000e+00 0.000000e+00 0.000000e+00 0.000000e+00 0.000000e+00 0.000000e+00 0.000000e+00 0.000000e+00 0.000000e+00 0.000000e+00 0.000000e+00 0.000000e+00
<ENDHMM>
