~o
<STREAMINFO> 1 20
<VECSIZE> 20<NULLD><USER><DIAGC>
~h "i"
<BEGINHMM>
<NUMSTATES> 14
<STATE> 2
<MEAN> 20
 7.722590e+03 2.999549e+01 6.385135e+00 2.162162e-01 3.790540e+00 1.875901e+01 3.369370e+01 1.006532e+01 7.855856e+00 3.559910e+02 5.607883e+01 8.859122e+02 5.858025e+03 7.774099e+02 4.570788e+02 7.663063e+01 3.921171e+01 2.718468e+01 1.058108e+01 1.229730e+00
<VARIANCE> 20
 9.063484e+06 4.831079e+04 2.376642e+03 5.399197e+00 9.444493e+02 2.770388e+04 4.446343e+04 2.200602e+03 1.354524e+03 2.008218e+05 1.161640e+05 9.666844e+05 1.200192e+07 7.606917e+05 8.261917e+05 4.010516e+04 1.595285e+04 8.558898e+03 4.509099e+03 8.488416e+01
<GCONST> 2.390207e+02
<STATE> 3
<MEAN> 20
 7.722590e+03 2.999549e+01 6.385135e+00 2.162162e-01 3.790540e+00 1.875901e+01 3.369370e+01 1.006532e+01 7.855856e+00 3.559910e+02 5.607883e+01 8.859122e+02 5.858025e+03 7.774099e+02 4.570788e+02 7.663063e+01 3.921171e+01 2.718468e+01 1.058108e+01 1.229730e+00
<VARIANCE> 20
 9.063484e+06 4.831079e+04 2.376642e+03 5.399197e+00 9.444493e+02 2.770388e+04 4.446343e+04 2.200602e+03 1.354524e+03 2.008218e+05 1.161640e+05 9.666844e+05 1.200192e+07 7.606917e+05 8.261917e+05 4.010516e+04 1.595285e+04 8.558898e+03 4.509099e+03 8.488416e+01
<GCONST> 2.390207e+02
<STATE> 4
<MEAN> 20
 7.722590e+03 2.999549e+01 6.385135e+00 2.162162e-01 3.790540e+00 1.875901e+01 3.369370e+01 1.006532e+01 7.855856e+00 3.559910e+02 5.607883e+01 8.859122e+02 5.858025e+03 7.774099e+02 4.570788e+02 7.663063e+01 3.921171e+01 2.718468e+01 1.058108e+01 1.229730e+00
<VARIANCE> 20
 9.063484e+06 4.831079e+04 2.376642e+03 5.399197e+00 9.444493e+02 2.770388e+04 4.446343e+04 2.200602e+03 1.354524e+03 2.008218e+05 1.161640e+05 9.666844e+05 1.200192e+07 7.606917e+05 8.261917e+05 4.010516e+04 1.595285e+04 8.558898e+03 4.509099e+03 8.488416e+01
<GCONST> 2.390207e+02
<STATE> 5
<MEAN> 20
 7.722590e+03 2.999549e+01 6.385135e+00 2.162162e-01 3.790540e+00 1.875901e+01 3.369370e+01 1.006532e+01 7.855856e+00 3.559910e+02 5.607883e+01 8.859122e+02 5.858025e+03 7.774099e+02 4.570788e+02 7.663063e+01 3.921171e+01 2.718468e+01 1.058108e+01 1.229730e+00
<VARIANCE> 20
 9.063484e+06 4.831079e+04 2.376642e+03 5.399197e+00 9.444493e+02 2.770388e+04 4.446343e+04 2.200602e+03 1.354524e+03 2.008218e+05 1.161640e+05 9.666844e+05 1.200192e+07 7.606917e+05 8.261917e+05 4.010516e+04 1.595285e+04 8.558898e+03 4.509099e+03 8.488416e+01
<GCONST> 2.390207e+02
<STATE> 6
<MEAN> 20
 7.722590e+03 2.999549e+01 6.385135e+00 2.162162e-01 3.790540e+00 1.875901e+01 3.369370e+01 1.006532e+01 7.855856e+00 3.559910e+02 5.607883e+01 8.859122e+02 5.858025e+03 7.774099e+02 4.570788e+02 7.663063e+01 3.921171e+01 2.718468e+01 1.058108e+01 1.229730e+00
<VARIANCE> 20
 9.063484e+06 4.831079e+04 2.376642e+03 5.399197e+00 9.444493e+02 2.770388e+04 4.446343e+04 2.200602e+03 1.354524e+03 2.008218e+05 1.161640e+05 9.666844e+05 1.200192e+07 7.606917e+05 8.261917e+05 4.010516e+04 1.595285e+04 8.558898e+03 4.509099e+03 8.488416e+01
<GCONST> 2.390207e+02
<STATE> 7
<MEAN> 20
 7.722590e+03 2.999549e+01 6.385135e+00 2.162162e-01 3.790540e+00 1.875901e+01 3.369370e+01 1.006532e+01 7.855856e+00 3.559910e+02 5.607883e+01 8.859122e+02 5.858025e+03 7.774099e+02 4.570788e+02 7.663063e+01 3.921171e+01 2.718468e+01 1.058108e+01 1.229730e+00
<VARIANCE> 20
 9.063484e+06 4.831079e+04 2.376642e+03 5.399197e+00 9.444493e+02 2.770388e+04 4.446343e+04 2.200602e+03 1.354524e+03 2.008218e+05 1.161640e+05 9.666844e+05 1.200192e+07 7.606917e+05 8.261917e+05 4.010516e+04 1.595285e+04 8.558898e+03 4.509099e+03 8.488416e+01
<GCONST> 2.390207e+02
<STATE> 8
<MEAN> 20
 7.722590e+03 2.999549e+01 6.385135e+00 2.162162e-01 3.790540e+00 1.875901e+01 3.369370e+01 1.006532e+01 7.855856e+00 3.559910e+02 5.607883e+01 8.859122e+02 5.858025e+03 7.774099e+02 4.570788e+02 7.663063e+01 3.921171e+01 2.718468e+01 1.058108e+01 1.229730e+00
<VARIANCE> 20
 9.063484e+06 4.831079e+04 2.376642e+03 5.399197e+00 9.444493e+02 2.770388e+04 4.446343e+04 2.200602e+03 1.354524e+03 2.008218e+05 1.161640e+05 9.666844e+05 1.200192e+07 7.606917e+05 8.261917e+05 4.010516e+04 1.595285e+04 8.558898e+03 4.509099e+03 8.488416e+01
<GCONST> 2.390207e+02
<STATE> 9
<MEAN> 20
 7.722590e+03 2.999549e+01 6.385135e+00 2.162162e-01 3.790540e+00 1.875901e+01 3.369370e+01 1.006532e+01 7.855856e+00 3.559910e+02 5.607883e+01 8.859122e+02 5.858025e+03 7.774099e+02 4.570788e+02 7.663063e+01 3.921171e+01 2.718468e+01 1.058108e+01 1.229730e+00
<VARIANCE> 20
 9.063484e+06 4.831079e+04 2.376642e+03 5.399197e+00 9.444493e+02 2.770388e+04 4.446343e+04 2.200602e+03 1.354524e+03 2.008218e+05 1.161640e+05 9.666844e+05 1.200192e+07 7.606917e+05 8.261917e+05 4.010516e+04 1.595285e+04 8.558898e+03 4.509099e+03 8.488416e+01
<GCONST> 2.390207e+02
<STATE> 10
<MEAN> 20
 7.722590e+03 2.999549e+01 6.385135e+00 2.162162e-01 3.790540e+00 1.875901e+01 3.369370e+01 1.006532e+01 7.855856e+00 3.559910e+02 5.607883e+01 8.859122e+02 5.858025e+03 7.774099e+02 4.570788e+02 7.663063e+01 3.921171e+01 2.718468e+01 1.058108e+01 1.229730e+00
<VARIANCE> 20
 9.063484e+06 4.831079e+04 2.376642e+03 5.399197e+00 9.444493e+02 2.770388e+04 4.446343e+04 2.200602e+03 1.354524e+03 2.008218e+05 1.161640e+05 9.666844e+05 1.200192e+07 7.606917e+05 8.261917e+05 4.010516e+04 1.595285e+04 8.558898e+03 4.509099e+03 8.488416e+01
<GCONST> 2.390207e+02
<STATE> 11
<MEAN> 20
 7.722590e+03 2.999549e+01 6.385135e+00 2.162162e-01 3.790540e+00 1.875901e+01 3.369370e+01 1.006532e+01 7.855856e+00 3.559910e+02 5.607883e+01 8.859122e+02 5.858025e+03 7.774099e+02 4.570788e+02 7.663063e+01 3.921171e+01 2.718468e+01 1.058108e+01 1.229730e+00
<VARIANCE> 20
 9.063484e+06 4.831079e+04 2.376642e+03 5.399197e+00 9.444493e+02 2.770388e+04 4.446343e+04 2.200602e+03 1.354524e+03 2.008218e+05 1.161640e+05 9.666844e+05 1.200192e+07 7.606917e+05 8.261917e+05 4.010516e+04 1.595285e+04 8.558898e+03 4.509099e+03 8.488416e+01
<GCONST> 2.390207e+02
<STATE> 12
<MEAN> 20
 7.722590e+03 2.999549e+01 6.385135e+00 2.162162e-01 3.790540e+00 1.875901e+01 3.369370e+01 1.006532e+01 7.855856e+00 3.559910e+02 5.607883e+01 8.859122e+02 5.858025e+03 7.774099e+02 4.570788e+02 7.663063e+01 3.921171e+01 2.718468e+01 1.058108e+01 1.229730e+00
<VARIANCE> 20
 9.063484e+06 4.831079e+04 2.376642e+03 5.399197e+00 9.444493e+02 2.770388e+04 4.446343e+04 2.200602e+03 1.354524e+03 2.008218e+05 1.161640e+05 9.666844e+05 1.200192e+07 7.606917e+05 8.261917e+05 4.010516e+04 1.595285e+04 8.558898e+03 4.509099e+03 8.488416e+01
<GCONST> 2.390207e+02
<STATE> 13
<MEAN> 20
 7.722590e+03 2.999549e+01 6.385135e+00 2.162162e-01 3.790540e+00 1.875901e+01 3.369370e+01 1.006532e+01 7.855856e+00 3.559910e+02 5.607883e+01 8.859122e+02 5.858025e+03 7.774099e+02 4.570788e+02 7.663063e+01 3.921171e+01 2.718468e+01 1.058108e+01 1.229730e+00
<VARIANCE> 20
 9.063484e+06 4.831079e+04 2.376642e+03 5.399197e+00 9.444493e+02 2.770388e+04 4.446343e+04 2.200602e+03 1.354524e+03 2.008218e+05 1.161640e+05 9.666844e+05 1.200192e+07 7.606917e+05 8.261917e+05 4.010516e+04 1.595285e+04 8.558898e+03 4.509099e+03 8.488416e+01
<GCONST> 2.390207e+02
<TRANSP> 14
 0.000000e+00 1.000000e+00 0.000000e+00 0.000000e+00 0.000000e+00 0.000000e+00 0.000000e+00 0.000000e+00 0.000000e+00 0.000000e+00 0.000000e+00 0.000000e+00 0.000000e+00 0.000000e+00
 0.000000e+00 5.000000e-01 5.000000e-01 0.000000e+00 0.000000e+00 0.000000e+00 0.000000e+00 0.000000e+00 0.000000e+00 0.000000e+00 0.000000e+00 0.000000e+00 0.000000e+00 0.000000e+00
 0.000000e+00 0.000000e+00 5.000000e-01 5.000000e-01 0.000000e+00 0.000000e+00 0.000000e+00 0.000000e+00 0.000000e+00 0.000000e+00 0.000000e+00 0.000000e+00 0.000000e+00 0.000000e+00
 0.000000e+00 0.000000e+00 0.000000e+00 5.000000e-01 5.000000e-01 0.000000e+00 0.000000e+00 0.000000e+00 0.000000e+00 0.000000e+00 0.000000e+00 0.000000e+00 0.000000e+00 0.000000e+00
 0.000000e+00 0.000000e+00 0.000000e+00 0.000000e+00 5.000000e-01 5.000000e-01 0.000000e+00 0.000000e+00 0.000000e+00 0.000000e+00 0.000000e+00 0.000000e+00 0.000000e+00 0.000000e+00
 0.000000e+00 0.000000e+00 0.000000e+00 0.000000e+00 0.000000e+00 5.000000e-01 5.000000e-01 0.000000e+00 0.000000e+00 0.000000e+00 0.000000e+00 0.000000e+00 0.000000e+00 0.000000e+00
 0.000000e+00 0.000000e+00 0.000000e+00 0.000000e+00 0.000000e+00 0.000000e+00 5.000000e-01 5.000000e-01 0.000000e+00 0.000000e+00 0.000000e+00 0.000000e+00 0.000000e+00 0.000000e+00
 0.000000e+00 0.000000e+00 0.000000e+00 0.000000e+00 0.000000e+00 0.000000e+00 0.000000e+00 5.000000e-01 5.000000e-01 0.000000e+00 0.000000e+00 0.000000e+00 0.000000e+00 0.000000e+00
 0.000000e+00 0.000000e+00 0.000000e+00 0.000000e+00 0.000000e+00 0.000000e+00 0.000000e+00 0.000000e+00 5.000000e-01 5.000000e-01 0.000000e+00 0.000000e+00 0.000000e+00 0.000000e+00
 0.000000e+00 0.000000e+00 0.000000e+00 0.000000e+00 0.000000e+00 0.000000e+00 0.000000e+00 0.000000e+00 0.000000e+00 5.000000e-01 5.000000e-01 0.000000e+00 0.000000e+00 0.000000e+00
 0.000000e+00 0.000000e+00 0.000000e+00 0.000000e+00 0.000000e+00 0.000000e+00 0.000000e+00 0.000000e+00 0.000000e+00 0.000000e+00 5.000000e-01 5.000000e-01 0.000000e+00 0.000000e+00
 0.000000e+00 0.000000e+00 0.000000e+00 0.000000e+00 0.000000e+00 0.000000e+00 0.000000e+00 0.000000e+00 0.000000e+00 0.000000e+00 0.000000e+00 5.000000e-01 5.000000e-01 0.000000e+00
 0.000000e+00 0.000000e+00 0.000000e+00 0.000000e+00 0.000000e+00 0.000000e+00 0.000000e+00 0.000000e+00 0.000000e+00 0.000000e+00 0.000000e+00 0.000000e+00 5.000000e-01 5.000000e-01
 0.000000e+00 0.000000e+00 0.000000e+00 0.000000e+00 0.000000e+00 0.000000e+00 0.000000e+00 0.000000e+00 0.000000e+00 0.000000e+00 0.000000e+00 0.000000e+00 0.000000e+00 0.000000e+00
<ENDHMM>
