~o
<STREAMINFO> 1 20
<VECSIZE> 20<NULLD><USER><DIAGC>
~h "j"
<BEGINHMM>
<NUMSTATES> 14
<STATE> 2
<MEAN> 20
 9.524067e+03 3.962301e+00 2.946429e-01 1.289683e-02 2.579365e-02 1.033631e+01 4.179564e+00 1.022817e+00 5.436508e-01 2.241310e+02 6.909722e+00 9.403482e+02 7.441586e+03 1.218510e+03 1.211171e+02 2.966468e+01 9.678572e+00 6.884921e-01 7.142857e-02 1.984127e-03
<VARIANCE> 20
 4.360552e+06 2.098084e+03 4.063839e+01 1.079686e-01 1.957633e-01 3.975688e+04 5.090294e+03 1.397148e+02 3.184532e+01 7.726404e+04 8.092235e+03 9.384037e+05 4.541388e+06 1.463939e+06 9.141784e+04 1.642132e+04 8.333673e+03 9.098035e+01 9.829932e-01 1.000000e-02
<GCONST> 1.806454e+02
<STATE> 3
<MEAN> 20
 9.524067e+03 3.962301e+00 2.946429e-01 1.289683e-02 2.579365e-02 1.033631e+01 4.179564e+00 1.022817e+00 5.436508e-01 2.241310e+02 6.909722e+00 9.403482e+02 7.441586e+03 1.218510e+03 1.211171e+02 2.966468e+01 9.678572e+00 6.884921e-01 7.142857e-02 1.984127e-03
<VARIANCE> 20
 4.360552e+06 2.098084e+03 4.063839e+01 1.079686e-01 1.957633e-01 3.975688e+04 5.090294e+03 1.397148e+02 3.184532e+01 7.726404e+04 8.092235e+03 9.384037e+05 4.541388e+06 1.463939e+06 9.141784e+04 1.642132e+04 8.333673e+03 9.098035e+01 9.829932e-01 1.000000e-02
<GCONST> 1.806454e+02
<STATE> 4
<MEAN> 20
 9.524067e+03 3.962301e+00 2.946429e-01 1.289683e-02 2.579365e-02 1.033631e+01 4.179564e+00 1.022817e+00 5.436508e-01 2.241310e+02 6.909722e+00 9.403482e+02 7.441586e+03 1.218510e+03 1.211171e+02 2.966468e+01 9.678572e+00 6.884921e-01 7.142857e-02 1.984127e-03
<VARIANCE> 20
 4.360552e+06 2.098084e+03 4.063839e+01 1.079686e-01 1.957633e-01 3.975688e+04 5.090294e+03 1.397148e+02 3.184532e+01 7.726404e+04 8.092235e+03 9.384037e+05 4.541388e+06 1.463939e+06 9.141784e+04 1.642132e+04 8.333673e+03 9.098035e+01 9.829932e-01 1.000000e-02
<GCONST> 1.806454e+02
<STATE> 5
<MEAN> 20
 9.524067e+03 3.962301e+00 2.946429e-01 1.289683e-02 2.579365e-02 1.033631e+01 4.179564e+00 1.022817e+00 5.436508e-01 2.241310e+02 6.909722e+00 9.403482e+02 7.441586e+03 1.218510e+03 1.211171e+02 2.966468e+01 9.678572e+00 6.884921e-01 7.142857e-02 1.984127e-03
<VARIANCE> 20
 4.360552e+06 2.098084e+03 4.063839e+01 1.079686e-01 1.957633e-01 3.975688e+04 5.090294e+03 1.397148e+02 3.184532e+01 7.726404e+04 8.092235e+03 9.384037e+05 4.541388e+06 1.463939e+06 9.141784e+04 1.642132e+04 8.333673e+03 9.098035e+01 9.829932e-01 1.000000e-02
<GCONST> 1.806454e+02
<STATE> 6
<MEAN> 20
 9.524067e+03 3.962301e+00 2.946429e-01 1.289683e-02 2.579365e-02 1.033631e+01 4.179564e+00 1.022817e+00 5.436508e-01 2.241310e+02 6.909722e+00 9.403482e+02 7.441586e+03 1.218510e+03 1.211171e+02 2.966468e+01 9.678572e+00 6.884921e-01 7.142857e-02 1.984127e-03
<VARIANCE> 20
 4.360552e+06 2.098084e+03 4.063839e+01 1.079686e-01 1.957633e-01 3.975688e+04 5.090294e+03 1.397148e+02 3.184532e+01 7.726404e+04 8.092235e+03 9.384037e+05 4.541388e+06 1.463939e+06 9.141784e+04 1.642132e+04 8.333673e+03 9.098035e+01 9.829932e-01 1.000000e-02
<GCONST> 1.806454e+02
<STATE> 7
<MEAN> 20
 9.524067e+03 3.962301e+00 2.946429e-01 1.289683e-02 2.579365e-02 1.033631e+01 4.179564e+00 1.022817e+00 5.436508e-01 2.241310e+02 6.909722e+00 9.403482e+02 7.441586e+03 1.218510e+03 1.211171e+02 2.966468e+01 9.678572e+00 6.884921e-01 7.142857e-02 1.984127e-03
<VARIANCE> 20
 4.360552e+06 2.098084e+03 4.063839e+01 1.079686e-01 1.957633e-01 3.975688e+04 5.090294e+03 1.397148e+02 3.184532e+01 7.726404e+04 8.092235e+03 9.384037e+05 4.541388e+06 1.463939e+06 9.141784e+04 1.642132e+04 8.333673e+03 9.098035e+01 9.829932e-01 1.000000e-02
<GCONST> 1.806454e+02
<STATE> 8
<MEAN> 20
 9.524067e+03 3.962301e+00 2.946429e-01 1.289683e-02 2.579365e-02 1.033631e+01 4.179564e+00 1.022817e+00 5.436508e-01 2.241310e+02 6.909722e+00 9.403482e+02 7.441586e+03 1.218510e+03 1.211171e+02 2.966468e+01 9.678572e+00 6.884921e-01 7.142857e-02 1.984127e-03
<VARIANCE> 20
 4.360552e+06 2.098084e+03 4.063839e+01 1.079686e-01 1.957633e-01 3.975688e+04 5.090294e+03 1.397148e+02 3.184532e+01 7.726404e+04 8.092235e+03 9.384037e+05 4.541388e+06 1.463939e+06 9.141784e+04 1.642132e+04 8.333673e+03 9.098035e+01 9.829932e-01 1.000000e-02
<GCONST> 1.806454e+02
<STATE> 9
<MEAN> 20
 9.524067e+03 3.962301e+00 2.946429e-01 1.289683e-02 2.579365e-02 1.033631e+01 4.179564e+00 1.022817e+00 5.436508e-01 2.241310e+02 6.909722e+00 9.403482e+02 7.441586e+03 1.218510e+03 1.211171e+02 2.966468e+01 9.678572e+00 6.884921e-01 7.142857e-02 1.984127e-03
<VARIANCE> 20
 4.360552e+06 2.098084e+03 4.063839e+01 1.079686e-01 1.957633e-01 3.975688e+04 5.090294e+03 1.397148e+02 3.184532e+01 7.726404e+04 8.092235e+03 9.384037e+05 4.541388e+06 1.463939e+06 9.141784e+04 1.642132e+04 8.333673e+03 9.098035e+01 9.829932e-01 1.000000e-02
<GCONST> 1.806454e+02
<STATE> 10
<MEAN> 20
 9.524067e+03 3.962301e+00 2.946429e-01 1.289683e-02 2.579365e-02 1.033631e+01 4.179564e+00 1.022817e+00 5.436508e-01 2.241310e+02 6.909722e+00 9.403482e+02 7.441586e+03 1.218510e+03 1.211171e+02 2.966468e+01 9.678572e+00 6.884921e-01 7.142857e-02 1.984127e-03
<VARIANCE> 20
 4.360552e+06 2.098084e+03 4.063839e+01 1.079686e-01 1.957633e-01 3.975688e+04 5.090294e+03 1.397148e+02 3.184532e+01 7.726404e+04 8.092235e+03 9.384037e+05 4.541388e+06 1.463939e+06 9.141784e+04 1.642132e+04 8.333673e+03 9.098035e+01 9.829932e-01 1.000000e-02
<GCONST> 1.806454e+02
<STATE> 11
<MEAN> 20
 9.524067e+03 3.962301e+00 2.946429e-01 1.289683e-02 2.579365e-02 1.033631e+01 4.179564e+00 1.022817e+00 5.436508e-01 2.241310e+02 6.909722e+00 9.403482e+02 7.441586e+03 1.218510e+03 1.211171e+02 2.966468e+01 9.678572e+00 6.884921e-01 7.142857e-02 1.984127e-03
<VARIANCE> 20
 4.360552e+06 2.098084e+03 4.063839e+01 1.079686e-01 1.957633e-01 3.975688e+04 5.090294e+03 1.397148e+02 3.184532e+01 7.726404e+04 8.092235e+03 9.384037e+05 4.541388e+06 1.463939e+06 9.141784e+04 1.642132e+04 8.333673e+03 9.098035e+01 9.829932e-01 1.000000e-02
<GCONST> 1.806454e+02
<STATE> 12
<MEAN> 20
 9.524067e+03 3.962301e+00 2.946429e-01 1.289683e-02 2.579365e-02 1.033631e+01 4.179564e+00 1.022817e+00 5.436508e-01 2.241310e+02 6.909722e+00 9.403482e+02 7.441586e+03 1.218510e+03 1.211171e+02 2.966468e+01 9.678572e+00 6.884921e-01 7.142857e-02 1.984127e-03
<VARIANCE> 20
 4.360552e+06 2.098084e+03 4.063839e+01 1.079686e-01 1.957633e-01 3.975688e+04 5.090294e+03 1.397148e+02 3.184532e+01 7.726404e+04 8.092235e+03 9.384037e+05 4.541388e+06 1.463939e+06 9.141784e+04 1.642132e+04 8.333673e+03 9.098035e+01 9.829932e-01 1.000000e-02
<GCONST> 1.806454e+02
<STATE> 13
<MEAN> 20
 9.524067e+03 3.962301e+00 2.946429e-01 1.289683e-02 2.579365e-02 1.033631e+01 4.179564e+00 1.022817e+00 5.436508e-01 2.241310e+02 6.909722e+00 9.403482e+02 7.441586e+03 1.218510e+03 1.211171e+02 2.966468e+01 9.678572e+00 6.884921e-01 7.142857e-02 1.984127e-03
<VARIANCE> 20
 4.360552e+06 2.098084e+03 4.063839e+01 1.079686e-01 1.957633e-01 3.975688e+04 5.090294e+03 1.397148e+02 3.184532e+01 7.726404e+04 8.092235e+03 9.384037e+05 4.541388e+06 1.463939e+06 9.141784e+04 1.642132e+04 8.333673e+03 9.098035e+01 9.829932e-01 1.000000e-02
<GCONST> 1.806454e+02
<TRANSP> 14
 0.000000e+00 1.000000e+00 0.000000e+00 0.000000e+00 0.000000e+00 0.000000e+00 0.000000e+00 0.000000e+00 0.000000e+00 0.000000e+00 0.000000e+00 0.000000e+00 0.000000e+00 0.000000e+00
 0.000000e+00 5.000000e-01 5.000000e-01 0.000000e+00 0.000000e+00 0.000000e+00 0.000000e+00 0.000000e+00 0.000000e+00 0.000000e+00 0.000000e+00 0.000000e+00 0.000000e+00 0.000000e+00
 0.000000e+00 0.000000e+00 5.000000e-01 5.000000e-01 0.000000e+00 0.000000e+00 0.000000e+00 0.000000e+00 0.000000e+00 0.000000e+00 0.000000e+00 0.000000e+00 0.000000e+00 0.000000e+00
 0.000000e+00 0.000000e+00 0.000000e+00 5.000000e-01 5.000000e-01 0.000000e+00 0.000000e+00 0.000000e+00 0.000000e+00 0.000000e+00 0.000000e+00 0.000000e+00 0.000000e+00 0.000000e+00
 0.000000e+00 0.000000e+00 0.000000e+00 0.000000e+00 5.000000e-01 5.000000e-01 0.000000e+00 0.000000e+00 0.000000e+00 0.000000e+00 0.000000e+00 0.000000e+00 0.000000e+00 0.000000e+00
 0.000000e+00 0.000000e+00 0.000000e+00 0.000000e+00 0.000000e+00 5.000000e-01 5.000000e-01 0.000000e+00 0.000000e+00 0.000000e+00 0.000000e+00 0.000000e+00 0.000000e+00 0.000000e+00
 0.000000e+00 0.000000e+00 0.000000e+00 0.000000e+00 0.000000e+00 0.000000e+00 5.000000e-01 5.000000e-01 0.000000e+00 0.000000e+00 0.000000e+00 0.000000e+00 0.000000e+00 0.000000e+00
 0.000000e+00 0.000000e+00 0.000000e+00 0.000000e+00 0.000000e+00 0.000000e+00 0.000000e+00 5.000000e-01 5.000000e-01 0.000000e+00 0.000000e+00 0.000000e+00 0.000000e+00 0.000000e+00
 0.000000e+00 0.000000e+00 0.000000e+00 0.000000e+00 0.000000e+00 0.000000e+00 0.000000e+00 0.000000e+00 5.000000e-01 5.000000e-01 0.000000e+00 0.000000e+00 0.000000e+00 0.000000e+00
 0.000000e+00 0.000000e+00 0.000000e+00 0.000000e+00 0.000000e+00 0.000000e+00 0.000000e+00 0.000000e+00 0.000000e+00 5.000000e-01 5.000000e-01 0.000000e+00 0.000000e+00 0.000000e+00
 0.000000e+00 0.000000e+00 0.000000e+00 0.000000e+00 0.000000e+00 0.000000e+00 0.000000e+00 0.000000e+00 0.000000e+00 0.000000e+00 5.000000e-01 5.000000e-01 0.000000e+00 0.000000e+00
 0.000000e+00 0.000000e+00 0.000000e+00 0.000000e+00 0.000000e+00 0.000000e+00 0.000000e+00 0.000000e+00 0.000000e+00 0.000000e+00 0.000000e+00 5.000000e-01 5.000000e-01 0.000000e+00
 0.000000e+00 0.000000e+00 0.000000e+00 0.000000e+00 0.000000e+00 0.000000e+00 0.000000e+00 0.000000e+00 0.000000e+00 0.000000e+00 0.000000e+00 0.000000e+00 5.000000e-01 5.000000e-01
 0.000000e+00 0.000000e+00 0.000000e+00 0.000000e+00 0.000000e+00 0.000000e+00 0.000000e+00 0.000000e+00 0.000000e+00 0.000000e+00 0.000000e+00 0.000000e+00 0.000000e+00 0.000000e+00
<ENDHMM>
