~o
<STREAMINFO> 1 20
<VECSIZE> 20<NULLD><USER><DIAGC>
~h "sil"
<BEGINHMM>
<NUMSTATES> 14
<STATE> 2
<MEAN> 20
 8.939498e+03 2.970297e-02 0.000000e+00 0.000000e+00 0.000000e+00 0.000000e+00 0.000000e+00 0.000000e+00 0.000000e+00 9.008581e+01 0.000000e+00 2.040957e+02 5.747673e+03 2.740102e+03 2.709505e+02 4.958086e+01 1.314521e+01 3.412541e+00 5.940594e-01 5.940594e-02
<VARIANCE> 20
 1.359376e+06 1.344313e-01 1.000000e-02 1.000000e-02 1.000000e-02 1.000000e-02 1.000000e-02 1.000000e-02 1.000000e-02 1.221781e+04 1.000000e-02 9.182977e+04 3.203594e+06 1.745148e+06 1.321114e+05 1.964897e+03 2.660317e+02 4.305423e+01 5.039833e+00 2.076921e-01
<GCONST> 9.098883e+01
<STATE> 3
<MEAN> 20
 8.939498e+03 2.970297e-02 0.000000e+00 0.000000e+00 0.000000e+00 0.000000e+00 0.000000e+00 0.000000e+00 0.000000e+00 9.008581e+01 0.000000e+00 2.040957e+02 5.747673e+03 2.740102e+03 2.709505e+02 4.958086e+01 1.314521e+01 3.412541e+00 5.940594e-01 5.940594e-02
<VARIANCE> 20
 1.359376e+06 1.344313e-01 1.000000e-02 1.000000e-02 1.000000e-02 1.000000e-02 1.000000e-02 1.000000e-02 1.000000e-02 1.221781e+04 1.000000e-02 9.182977e+04 3.203594e+06 1.745148e+06 1.321114e+05 1.964897e+03 2.660317e+02 4.305423e+01 5.039833e+00 2.076921e-01
<GCONST> 9.098883e+01
<STATE> 4
<MEAN> 20
 8.939498e+03 2.970297e-02 0.000000e+00 0.000000e+00 0.000000e+00 0.000000e+00 0.000000e+00 0.000000e+00 0.000000e+00 9.008581e+01 0.000000e+00 2.040957e+02 5.747673e+03 2.740102e+03 2.709505e+02 4.958086e+01 1.314521e+01 3.412541e+00 5.940594e-01 5.940594e-02
<VARIANCE> 20
 1.359376e+06 1.344313e-01 1.000000e-02 1.000000e-02 1.000000e-02 1.000000e-02 1.000000e-02 1.000000e-02 1.000000e-02 1.221781e+04 1.000000e-02 9.182977e+04 3.203594e+06 1.745148e+06 1.321114e+05 1.964897e+03 2.660317e+02 4.305423e+01 5.039833e+00 2.076921e-01
<GCONST> 9.098883e+01
<STATE> 5
<MEAN> 20
 8.939498e+03 2.970297e-02 0.000000e+00 0.000000e+00 0.000000e+00 0.000000e+00 0.000000e+00 0.000000e+00 0.000000e+00 9.008581e+01 0.000000e+00 2.040957e+02 5.747673e+03 2.740102e+03 2.709505e+02 4.958086e+01 1.314521e+01 3.412541e+00 5.940594e-01 5.940594e-02
<VARIANCE> 20
 1.359376e+06 1.344313e-01 1.000000e-02 1.000000e-02 1.000000e-02 1.000000e-02 1.000000e-02 1.000000e-02 1.000000e-02 1.221781e+04 1.000000e-02 9.182977e+04 3.203594e+06 1.745148e+06 1.321114e+05 1.964897e+03 2.660317e+02 4.305423e+01 5.039833e+00 2.076921e-01
<GCONST> 9.098883e+01
<STATE> 6
<MEAN> 20
 8.939498e+03 2.970297e-02 0.000000e+00 0.000000e+00 0.000000e+00 0.000000e+00 0.000000e+00 0.000000e+00 0.000000e+00 9.008581e+01 0.000000e+00 2.040957e+02 5.747673e+03 2.740102e+03 2.709505e+02 4.958086e+01 1.314521e+01 3.412541e+00 5.940594e-01 5.940594e-02
<VARIANCE> 20
 1.359376e+06 1.344313e-01 1.000000e-02 1.000000e-02 1.000000e-02 1.000000e-02 1.000000e-02 1.000000e-02 1.000000e-02 1.221781e+04 1.000000e-02 9.182977e+04 3.203594e+06 1.745148e+06 1.321114e+05 1.964897e+03 2.660317e+02 4.305423e+01 5.039833e+00 2.076921e-01
<GCONST> 9.098883e+01
<STATE> 7
<MEAN> 20
 8.939498e+03 2.970297e-02 0.000000e+00 0.000000e+00 0.000000e+00 0.000000e+00 0.000000e+00 0.000000e+00 0.000000e+00 9.008581e+01 0.000000e+00 2.040957e+02 5.747673e+03 2.740102e+03 2.709505e+02 4.958086e+01 1.314521e+01 3.412541e+00 5.940594e-01 5.940594e-02
<VARIANCE> 20
 1.359376e+06 1.344313e-01 1.000000e-02 1.000000e-02 1.000000e-02 1.000000e-02 1.000000e-02 1.000000e-02 1.000000e-02 1.221781e+04 1.000000e-02 9.182977e+04 3.203594e+06 1.745148e+06 1.321114e+05 1.964897e+03 2.660317e+02 4.305423e+01 5.039833e+00 2.076921e-01
<GCONST> 9.098883e+01
<STATE> 8
<MEAN> 20
 8.939498e+03 2.970297e-02 0.000000e+00 0.000000e+00 0.000000e+00 0.000000e+00 0.000000e+00 0.000000e+00 0.000000e+00 9.008581e+01 0.000000e+00 2.040957e+02 5.747673e+03 2.740102e+03 2.709505e+02 4.958086e+01 1.314521e+01 3.412541e+00 5.940594e-01 5.940594e-02
<VARIANCE> 20
 1.359376e+06 1.344313e-01 1.000000e-02 1.000000e-02 1.000000e-02 1.000000e-02 1.000000e-02 1.000000e-02 1.000000e-02 1.221781e+04 1.000000e-02 9.182977e+04 3.203594e+06 1.745148e+06 1.321114e+05 1.964897e+03 2.660317e+02 4.305423e+01 5.039833e+00 2.076921e-01
<GCONST> 9.098883e+01
<STATE> 9
<MEAN> 20
 8.939498e+03 2.970297e-02 0.000000e+00 0.000000e+00 0.000000e+00 0.000000e+00 0.000000e+00 0.000000e+00 0.000000e+00 9.008581e+01 0.000000e+00 2.040957e+02 5.747673e+03 2.740102e+03 2.709505e+02 4.958086e+01 1.314521e+01 3.412541e+00 5.940594e-01 5.940594e-02
<VARIANCE> 20
 1.359376e+06 1.344313e-01 1.000000e-02 1.000000e-02 1.000000e-02 1.000000e-02 1.000000e-02 1.000000e-02 1.000000e-02 1.221781e+04 1.000000e-02 9.182977e+04 3.203594e+06 1.745148e+06 1.321114e+05 1.964897e+03 2.660317e+02 4.305423e+01 5.039833e+00 2.076921e-01
<GCONST> 9.098883e+01
<STATE> 10
<MEAN> 20
 8.939498e+03 2.970297e-02 0.000000e+00 0.000000e+00 0.000000e+00 0.000000e+00 0.000000e+00 0.000000e+00 0.000000e+00 9.008581e+01 0.000000e+00 2.040957e+02 5.747673e+03 2.740102e+03 2.709505e+02 4.958086e+01 1.314521e+01 3.412541e+00 5.940594e-01 5.940594e-02
<VARIANCE> 20
 1.359376e+06 1.344313e-01 1.000000e-02 1.000000e-02 1.000000e-02 1.000000e-02 1.000000e-02 1.000000e-02 1.000000e-02 1.221781e+04 1.000000e-02 9.182977e+04 3.203594e+06 1.745148e+06 1.321114e+05 1.964897e+03 2.660317e+02 4.305423e+01 5.039833e+00 2.076921e-01
<GCONST> 9.098883e+01
<STATE> 11
<MEAN> 20
 8.939498e+03 2.970297e-02 0.000000e+00 0.000000e+00 0.000000e+00 0.000000e+00 0.000000e+00 0.000000e+00 0.000000e+00 9.008581e+01 0.000000e+00 2.040957e+02 5.747673e+03 2.740102e+03 2.709505e+02 4.958086e+01 1.314521e+01 3.412541e+00 5.940594e-01 5.940594e-02
<VARIANCE> 20
 1.359376e+06 1.344313e-01 1.000000e-02 1.000000e-02 1.000000e-02 1.000000e-02 1.000000e-02 1.000000e-02 1.000000e-02 1.221781e+04 1.000000e-02 9.182977e+04 3.203594e+06 1.745148e+06 1.321114e+05 1.964897e+03 2.660317e+02 4.305423e+01 5.039833e+00 2.076921e-01
<GCONST> 9.098883e+01
<STATE> 12
<MEAN> 20
 8.939498e+03 2.970297e-02 0.000000e+00 0.000000e+00 0.000000e+00 0.000000e+00 0.000000e+00 0.000000e+00 0.000000e+00 9.008581e+01 0.000000e+00 2.040957e+02 5.747673e+03 2.740102e+03 2.709505e+02 4.958086e+01 1.314521e+01 3.412541e+00 5.940594e-01 5.940594e-02
<VARIANCE> 20
 1.359376e+06 1.344313e-01 1.000000e-02 1.000000e-02 1.000000e-02 1.000000e-02 1.000000e-02 1.000000e-02 1.000000e-02 1.221781e+04 1.000000e-02 9.182977e+04 3.203594e+06 1.745148e+06 1.321114e+05 1.964897e+03 2.660317e+02 4.305423e+01 5.039833e+00 2.076921e-01
<GCONST> 9.098883e+01
<STATE> 13
<MEAN> 20
 8.939498e+03 2.970297e-02 0.000000e+00 0.000000e+00 0.000000e+00 0.000000e+00 0.000000e+00 0.000000e+00 0.000000e+00 9.008581e+01 0.000000e+00 2.040957e+02 5.747673e+03 2.740102e+03 2.709505e+02 4.958086e+01 1.314521e+01 3.412541e+00 5.940594e-01 5.940594e-02
<VARIANCE> 20
 1.359376e+06 1.344313e-01 1.000000e-02 1.000000e-02 1.000000e-02 1.000000e-02 1.000000e-02 1.000000e-02 1.000000e-02 1.221781e+04 1.000000e-02 9.182977e+04 3.203594e+06 1.745148e+06 1.321114e+05 1.964897e+03 2.660317e+02 4.305423e+01 5.039833e+00 2.076921e-01
<GCONST> 9.098883e+01
<TRANSP> 14
 0.000000e+00 1.000000e+00 0.000000e+00 0.000000e+00 0.000000e+00 0.000000e+00 0.000000e+00 0.000000e+00 0.000000e+00 0.000000e+00 0.000000e+00 0.000000e+00 0.000000e+00 0.000000e+00
 0.000000e+00 5.000000e-01 5.000000e-01 0.000000e+00 0.000000e+00 0.000000e+00 0.000000e+00 0.000000e+00 0.000000e+00 0.000000e+00 0.000000e+00 0.000000e+00 0.000000e+00 0.000000e+00
 0.000000e+00 0.000000e+00 5.000000e-01 5.000000e-01 0.000000e+00 0.000000e+00 0.000000e+00 0.000000e+00 0.000000e+00 0.000000e+00 0.000000e+00 0.000000e+00 0.000000e+00 0.000000e+00
 0.000000e+00 0.000000e+00 0.000000e+00 5.000000e-01 5.000000e-01 0.000000e+00 0.000000e+00 0.000000e+00 0.000000e+00 0.000000e+00 0.000000e+00 0.000000e+00 0.000000e+00 0.000000e+00
 0.000000e+00 0.000000e+00 0.000000e+00 0.000000e+00 5.000000e-01 5.000000e-01 0.000000e+00 0.000000e+00 0.000000e+00 0.000000e+00 0.000000e+00 0.000000e+00 0.000000e+00 0.000000e+00
 0.000000e+00 0.000000e+00 0.000000e+00 0.000000e+00 0.000000e+00 5.000000e-01 5.000000e-01 0.000000e+00 0.000000e+00 0.000000e+00 0.000000e+00 0.000000e+00 0.000000e+00 0.000000e+00
 0.000000e+00 0.000000e+00 0.000000e+00 0.000000e+00 0.000000e+00 0.000000e+00 5.000000e-01 5.000000e-01 0.000000e+00 0.000000e+00 0.000000e+00 0.000000e+00 0.000000e+00 0.000000e+00
 0.000000e+00 0.000000e+00 0.000000e+00 0.000000e+00 0.000000e+00 0.000000e+00 0.000000e+00 5.000000e-01 5.000000e-01 0.000000e+00 0.000000e+00 0.000000e+00 0.000000e+00 0.000000e+00
 0.000000e+00 0.000000e+00 0.000000e+00 0.000000e+00 0.000000e+00 0.000000e+00 0.000000e+00 0.000000e+00 5.000000e-01 5.000000e-01 0.000000e+00 0.000000e+00 0.000000e+00 0.000000e+00
 0.000000e+00 0.000000e+00 0.000000e+00 0.000000e+00 0.000000e+00 0.000000e+00 0.000000e+00 0.000000e+00 0.000000e+00 5.000000e-01 5.000000e-01 0.000000e+00 0.000000e+00 0.000000e+00
 0.000000e+00 0.000000e+00 0.000000e+00 0.000000e+00 0.000000e+00 0.000000e+00 0.000000e+00 0.000000e+00 0.000000e+00 0.000000e+00 5.000000e-01 5.000000e-01 0.000000e+00 0.000000e+00
 0.000000e+00 0.000000e+00 0.000000e+00 0.000000e+00 0.000000e+00 0.000000e+00 0.000000e+00 0.000000e+00 0.000000e+00 0.000000e+00 0.000000e+00 5.000000e-01 5.000000e-01 0.000000e+00
 0.000000e+00 0.000000e+00 0.000000e+00 0.000000e+00 0.000000e+00 0.000000e+00 0.000000e+00 0.000000e+00 0.000000e+00 0.000000e+00 0.000000e+00 0.000000e+00 5.000000e-01 5.000000e-01
 0.000000e+00 0.000000e+00 0.000000e+00 0.000000e+00 0.000000e+00 0.000000e+00 0.000000e+00 0.000000e+00 0.000000e+00 0.000000e+00 0.000000e+00 0.000000e+00 0.000000e+00 0.000000e+00
<ENDHMM>
