~o
<STREAMINFO> 1 1
<VECSIZE> 1<NULLD><USER><DIAGC>
~h "a"
<BEGINHMM>
<NUMSTATES> 8
<STATE> 2
<MEAN> 1
 3.185994e+00
<VARIANCE> 1
 2.689558e+00
<GCONST> 2.827254e+00
<STATE> 3
<MEAN> 1
 9.276524e+00
<VARIANCE> 1
 2.815876e+00
<GCONST> 2.873150e+00
<STATE> 4
<MEAN> 1
 5.351166e+00
<VARIANCE> 1
 1.611433e+00
<GCONST> 2.315001e+00
<STATE> 5
<MEAN> 1
 2.188256e+00
<VARIANCE> 1
 2.589308e-01
<GCONST> 4.866827e-01
<STATE> 6
<MEAN> 1
 3.173371e+00
<VARIANCE> 1
 7.184177e-01
<GCONST> 1.507173e+00
<STATE> 7
<MEAN> 1
 8.268599e-01
<VARIANCE> 1
 1.526813e-01
<GCONST> -4.152572e-02
<TRANSP> 8
 0.000000e+00 1.000000e+00 0.000000e+00 0.000000e+00 0.000000e+00 0.000000e+00 0.000000e+00 0.000000e+00
 0.000000e+00 9.514188e-01 4.858118e-02 0.000000e+00 0.000000e+00 0.000000e+00 0.000000e+00 0.000000e+00
 0.000000e+00 0.000000e+00 9.829242e-01 1.707583e-02 0.000000e+00 0.000000e+00 0.000000e+00 0.000000e+00
 0.000000e+00 0.000000e+00 0.000000e+00 9.736491e-01 2.635086e-02 0.000000e+00 0.000000e+00 0.000000e+00
 0.000000e+00 0.000000e+00 0.000000e+00 0.000000e+00 9.468105e-01 5.318949e-02 0.000000e+00 0.000000e+00
 0.000000e+00 0.000000e+00 0.000000e+00 0.000000e+00 0.000000e+00 9.176119e-01 8.238810e-02 0.000000e+00
 0.000000e+00 0.000000e+00 0.000000e+00 0.000000e+00 0.000000e+00 0.000000e+00 9.327351e-01 6.726487e-02
 0.000000e+00 0.000000e+00 0.000000e+00 0.000000e+00 0.000000e+00 0.000000e+00 0.000000e+00 0.000000e+00
<ENDHMM>
~h "e"
<BEGINHMM>
<NUMSTATES> 8
<STATE> 2
<MEAN> 1
 -1.599782e-03
<VARIANCE> 1
 1.000000e-02
<GCONST> -2.767293e+00
<STATE> 3
<MEAN> 1
 5.413927e+00
<VARIANCE> 1
 1.807847e+01
<GCONST> 4.732598e+00
<STATE> 4
<MEAN> 1
 -8.704470e-01
<VARIANCE> 1
 1.860058e-01
<GCONST> 1.558994e-01
<STATE> 5
<MEAN> 1
 -1.719414e+00
<VARIANCE> 1
 3.306229e-02
<GCONST> -1.571485e+00
<STATE> 6
<MEAN> 1
 -2.869379e+00
<VARIANCE> 1
 5.991667e-01
<GCONST> 1.325662e+00
<STATE> 7
<MEAN> 1
 -5.679112e+00
<VARIANCE> 1
 5.921510e-01
<GCONST> 1.313883e+00
<TRANSP> 8
 0.000000e+00 1.000000e+00 0.000000e+00 0.000000e+00 0.000000e+00 0.000000e+00 0.000000e+00 0.000000e+00
 0.000000e+00 9.930925e-01 6.907499e-03 0.000000e+00 0.000000e+00 0.000000e+00 0.000000e+00 0.000000e+00
 0.000000e+00 0.000000e+00 8.779376e-01 1.220623e-01 0.000000e+00 0.000000e+00 0.000000e+00 0.000000e+00
 0.000000e+00 0.000000e+00 0.000000e+00 9.664080e-01 3.359205e-02 0.000000e+00 0.000000e+00 0.000000e+00
 0.000000e+00 0.000000e+00 0.000000e+00 0.000000e+00 0.000000e+00 1.000000e+00 0.000000e+00 0.000000e+00
 0.000000e+00 0.000000e+00 0.000000e+00 0.000000e+00 0.000000e+00 9.693285e-01 3.067149e-02 0.000000e+00
 0.000000e+00 0.000000e+00 0.000000e+00 0.000000e+00 0.000000e+00 0.000000e+00 9.675562e-01 3.244385e-02
 0.000000e+00 0.000000e+00 0.000000e+00 0.000000e+00 0.000000e+00 0.000000e+00 0.000000e+00 0.000000e+00
<ENDHMM>
~h "i"
<BEGINHMM>
<NUMSTATES> 8
<STATE> 2
<MEAN> 1
 -7.338301e+00
<VARIANCE> 1
 2.966132e+00
<GCONST> 2.925136e+00
<STATE> 3
<MEAN> 1
 -9.867275e+00
<VARIANCE> 1
 9.742485e-01
<GCONST> 1.811788e+00
<STATE> 4
<MEAN> 1
 -7.411955e+00
<VARIANCE> 1
 7.745658e-01
<GCONST> 1.582424e+00
<STATE> 5
<MEAN> 1
 -4.347064e+00
<VARIANCE> 1
 5.064732e-01
<GCONST> 1.157593e+00
<STATE> 6
<MEAN> 1
 -2.323982e+00
<VARIANCE> 1
 2.130666e-01
<GCONST> 2.917265e-01
<STATE> 7
<MEAN> 1
 -1.058855e+00
<VARIANCE> 1
 8.065562e-02
<GCONST> -6.796896e-01
<TRANSP> 8
 0.000000e+00 1.000000e+00 0.000000e+00 0.000000e+00 0.000000e+00 0.000000e+00 0.000000e+00 0.000000e+00
 0.000000e+00 9.287559e-01 7.124416e-02 0.000000e+00 0.000000e+00 0.000000e+00 0.000000e+00 0.000000e+00
 0.000000e+00 0.000000e+00 9.828872e-01 1.711279e-02 0.000000e+00 0.000000e+00 0.000000e+00 0.000000e+00
 0.000000e+00 0.000000e+00 0.000000e+00 9.770885e-01 2.291153e-02 0.000000e+00 0.000000e+00 0.000000e+00
 0.000000e+00 0.000000e+00 0.000000e+00 0.000000e+00 9.531657e-01 4.683422e-02 0.000000e+00 0.000000e+00
 0.000000e+00 0.000000e+00 0.000000e+00 0.000000e+00 0.000000e+00 9.323061e-01 6.769390e-02 0.000000e+00
 0.000000e+00 0.000000e+00 0.000000e+00 0.000000e+00 0.000000e+00 0.000000e+00 8.804055e-01 1.195945e-01
 0.000000e+00 0.000000e+00 0.000000e+00 0.000000e+00 0.000000e+00 0.000000e+00 0.000000e+00 0.000000e+00
<ENDHMM>
~h "m"
<BEGINHMM>
<NUMSTATES> 8
<STATE> 2
<MEAN> 1
 -3.650491e-01
<VARIANCE> 1
 1.755932e-02
<GCONST> -2.204293e+00
<STATE> 3
<MEAN> 1
 1.474997e-03
<VARIANCE> 1
 1.000000e-02
<GCONST> -2.767293e+00
<STATE> 4
<MEAN> 1
 7.164752e-01
<VARIANCE> 1
 1.031787e-01
<GCONST> -4.334157e-01
<STATE> 5
<MEAN> 1
 1.754393e+00
<VARIANCE> 1
 1.271300e-01
<GCONST> -2.246683e-01
<STATE> 6
<MEAN> 1
 3.239857e+00
<VARIANCE> 1
 3.598821e-01
<GCONST> 8.158984e-01
<STATE> 7
<MEAN> 1
 6.544390e+00
<VARIANCE> 1
 2.359828e+00
<GCONST> 2.696466e+00
<TRANSP> 8
 0.000000e+00 1.000000e+00 0.000000e+00 0.000000e+00 0.000000e+00 0.000000e+00 0.000000e+00 0.000000e+00
 0.000000e+00 7.308778e-01 2.691223e-01 0.000000e+00 0.000000e+00 0.000000e+00 0.000000e+00 0.000000e+00
 0.000000e+00 0.000000e+00 9.932002e-01 6.799757e-03 0.000000e+00 0.000000e+00 0.000000e+00 0.000000e+00
 0.000000e+00 0.000000e+00 0.000000e+00 9.515557e-01 4.844431e-02 0.000000e+00 0.000000e+00 0.000000e+00
 0.000000e+00 0.000000e+00 0.000000e+00 0.000000e+00 9.372111e-01 6.278890e-02 0.000000e+00 0.000000e+00
 0.000000e+00 0.000000e+00 0.000000e+00 0.000000e+00 0.000000e+00 9.534633e-01 4.653678e-02 0.000000e+00
 0.000000e+00 0.000000e+00 0.000000e+00 0.000000e+00 0.000000e+00 0.000000e+00 9.592443e-01 4.075565e-02
 0.000000e+00 0.000000e+00 0.000000e+00 0.000000e+00 0.000000e+00 0.000000e+00 0.000000e+00 0.000000e+00
<ENDHMM>
~h "sil"
<BEGINHMM>
<NUMSTATES> 8
<STATE> 2
<MEAN> 1
 -2.895062e+00
<VARIANCE> 1
 3.027941e+00
<GCONST> 2.945760e+00
<STATE> 3
<MEAN> 1
 3.074582e+00
<VARIANCE> 1
 1.583815e+01
<GCONST> 4.600299e+00
<STATE> 4
<MEAN> 1
 1.071051e+01
<VARIANCE> 1
 4.603652e+00
<GCONST> 3.364727e+00
<STATE> 5
<MEAN> 1
 6.001994e+00
<VARIANCE> 1
 4.078647e+00
<GCONST> 3.243642e+00
<STATE> 6
<MEAN> 1
 2.278296e+00
<VARIANCE> 1
 6.080854e+00
<GCONST> 3.643022e+00
<STATE> 7
<MEAN> 1
 1.456885e-01
<VARIANCE> 1
 9.565194e-01
<GCONST> 1.793423e+00
<TRANSP> 8
 0.000000e+00 1.000000e+00 0.000000e+00 0.000000e+00 0.000000e+00 0.000000e+00 0.000000e+00 0.000000e+00
 0.000000e+00 9.690043e-01 3.099562e-02 0.000000e+00 0.000000e+00 0.000000e+00 0.000000e+00 0.000000e+00
 0.000000e+00 0.000000e+00 0.000000e+00 1.000000e+00 0.000000e+00 0.000000e+00 0.000000e+00 0.000000e+00
 0.000000e+00 0.000000e+00 0.000000e+00 9.776981e-01 2.230198e-02 0.000000e+00 0.000000e+00 0.000000e+00
 0.000000e+00 0.000000e+00 0.000000e+00 0.000000e+00 9.098642e-01 9.013572e-02 0.000000e+00 0.000000e+00
 0.000000e+00 0.000000e+00 0.000000e+00 0.000000e+00 0.000000e+00 3.098756e-01 6.901243e-01 0.000000e+00
 0.000000e+00 0.000000e+00 0.000000e+00 0.000000e+00 0.000000e+00 0.000000e+00 9.638394e-01 3.616066e-02
 0.000000e+00 0.000000e+00 0.000000e+00 0.000000e+00 0.000000e+00 0.000000e+00 0.000000e+00 0.000000e+00
<ENDHMM>
