~o
<STREAMINFO> 1 1
<VECSIZE> 1<NULLD><USER><DIAGC>
~h "a"
<BEGINHMM>
<NUMSTATES> 8
<STATE> 2
<MEAN> 1
 -9.422272e-01
<VARIANCE> 1
 4.736321e-01
<GCONST> 1.090553e+00
<STATE> 3
<MEAN> 1
 3.793695e-01
<VARIANCE> 1
 2.065648e-01
<GCONST> 2.607358e-01
<STATE> 4
<MEAN> 1
 1.612046e-01
<VARIANCE> 1
 7.161366e-02
<GCONST> -7.985923e-01
<STATE> 5
<MEAN> 1
 1.555387e+00
<VARIANCE> 1
 2.857419e-01
<GCONST> 5.852106e-01
<STATE> 6
<MEAN> 1
 3.417596e+00
<VARIANCE> 1
 4.690659e-01
<GCONST> 1.080865e+00
<STATE> 7
<MEAN> 1
 7.805834e+00
<VARIANCE> 1
 3.273318e+00
<GCONST> 3.023681e+00
<TRANSP> 8
 0.000000e+00 1.000000e+00 0.000000e+00 0.000000e+00 0.000000e+00 0.000000e+00 0.000000e+00 0.000000e+00
 0.000000e+00 9.109986e-01 8.900142e-02 0.000000e+00 0.000000e+00 0.000000e+00 0.000000e+00 0.000000e+00
 0.000000e+00 0.000000e+00 6.406108e-02 9.359389e-01 0.000000e+00 0.000000e+00 0.000000e+00 0.000000e+00
 0.000000e+00 0.000000e+00 0.000000e+00 9.630051e-01 3.699492e-02 0.000000e+00 0.000000e+00 0.000000e+00
 0.000000e+00 0.000000e+00 0.000000e+00 0.000000e+00 9.799107e-01 2.008934e-02 0.000000e+00 0.000000e+00
 0.000000e+00 0.000000e+00 0.000000e+00 0.000000e+00 0.000000e+00 9.794095e-01 2.059055e-02 0.000000e+00
 0.000000e+00 0.000000e+00 0.000000e+00 0.000000e+00 0.000000e+00 0.000000e+00 9.899651e-01 1.003486e-02
 0.000000e+00 0.000000e+00 0.000000e+00 0.000000e+00 0.000000e+00 0.000000e+00 0.000000e+00 0.000000e+00
<ENDHMM>
~h "e"
<BEGINHMM>
<NUMSTATES> 8
<STATE> 2
<MEAN> 1
 2.746826e+00
<VARIANCE> 1
 2.051382e+00
<GCONST> 2.556391e+00
<STATE> 3
<MEAN> 1
 6.861864e+00
<VARIANCE> 1
 1.284953e+01
<GCONST> 4.391184e+00
<STATE> 4
<MEAN> 1
 -8.598810e-03
<VARIANCE> 1
 2.262514e-02
<GCONST> -1.950817e+00
<STATE> 5
<MEAN> 1
 -8.333837e-01
<VARIANCE> 1
 9.688704e-02
<GCONST> -4.963324e-01
<STATE> 6
<MEAN> 1
 -2.154774e+00
<VARIANCE> 1
 2.022405e-01
<GCONST> 2.395794e-01
<STATE> 7
<MEAN> 1
 -3.901555e+00
<VARIANCE> 1
 2.797944e-01
<GCONST> 5.641768e-01
<TRANSP> 8
 0.000000e+00 1.000000e+00 0.000000e+00 0.000000e+00 0.000000e+00 0.000000e+00 0.000000e+00 0.000000e+00
 0.000000e+00 9.799762e-01 2.002379e-02 0.000000e+00 0.000000e+00 0.000000e+00 0.000000e+00 0.000000e+00
 0.000000e+00 0.000000e+00 9.522280e-01 4.777204e-02 0.000000e+00 0.000000e+00 0.000000e+00 0.000000e+00
 0.000000e+00 0.000000e+00 0.000000e+00 9.816519e-01 1.834810e-02 0.000000e+00 0.000000e+00 0.000000e+00
 0.000000e+00 0.000000e+00 0.000000e+00 0.000000e+00 9.638720e-01 3.612800e-02 0.000000e+00 0.000000e+00
 0.000000e+00 0.000000e+00 0.000000e+00 0.000000e+00 0.000000e+00 9.742776e-01 2.572240e-02 0.000000e+00
 0.000000e+00 0.000000e+00 0.000000e+00 0.000000e+00 0.000000e+00 0.000000e+00 9.668007e-01 3.319929e-02
 0.000000e+00 0.000000e+00 0.000000e+00 0.000000e+00 0.000000e+00 0.000000e+00 0.000000e+00 0.000000e+00
<ENDHMM>
~h "i"
<BEGINHMM>
<NUMSTATES> 8
<STATE> 2
<MEAN> 1
 -5.661235e+00
<VARIANCE> 1
 3.721154e-01
<GCONST> 8.493259e-01
<STATE> 3
<MEAN> 1
 -5.444077e+00
<VARIANCE> 1
 2.625090e+00
<GCONST> 2.802992e+00
<STATE> 4
<MEAN> 1
 -7.973953e+00
<VARIANCE> 1
 1.003544e+00
<GCONST> 1.841414e+00
<STATE> 5
<MEAN> 1
 -4.851079e+00
<VARIANCE> 1
 1.899662e+00
<GCONST> 2.479553e+00
<STATE> 6
<MEAN> 1
 -5.796990e+00
<VARIANCE> 1
 5.411513e-01
<GCONST> 1.223821e+00
<STATE> 7
<MEAN> 1
 -3.434901e+00
<VARIANCE> 1
 4.267194e-01
<GCONST> 9.862484e-01
<TRANSP> 8
 0.000000e+00 1.000000e+00 0.000000e+00 0.000000e+00 0.000000e+00 0.000000e+00 0.000000e+00 0.000000e+00
 0.000000e+00 9.656063e-01 3.439366e-02 0.000000e+00 0.000000e+00 0.000000e+00 0.000000e+00 0.000000e+00
 0.000000e+00 0.000000e+00 0.000000e+00 1.000000e+00 0.000000e+00 0.000000e+00 0.000000e+00 0.000000e+00
 0.000000e+00 0.000000e+00 0.000000e+00 9.844685e-01 1.553159e-02 0.000000e+00 0.000000e+00 0.000000e+00
 0.000000e+00 0.000000e+00 0.000000e+00 0.000000e+00 6.508487e-01 3.491513e-01 0.000000e+00 0.000000e+00
 0.000000e+00 0.000000e+00 0.000000e+00 0.000000e+00 0.000000e+00 9.689211e-01 3.107888e-02 0.000000e+00
 0.000000e+00 0.000000e+00 0.000000e+00 0.000000e+00 0.000000e+00 0.000000e+00 9.632686e-01 3.673141e-02
 0.000000e+00 0.000000e+00 0.000000e+00 0.000000e+00 0.000000e+00 0.000000e+00 0.000000e+00 0.000000e+00
<ENDHMM>
~h "m"
<BEGINHMM>
<NUMSTATES> 8
<STATE> 2
<MEAN> 1
 -1.317182e+00
<VARIANCE> 1
 3.572522e-01
<GCONST> 8.085637e-01
<STATE> 3
<MEAN> 1
 -6.977470e-03
<VARIANCE> 1
 1.000000e-02
<GCONST> -2.767293e+00
<STATE> 4
<MEAN> 1
 4.913999e-02
<VARIANCE> 1
 1.493458e-02
<GCONST> -2.366199e+00
<STATE> 5
<MEAN> 1
 9.998120e-02
<VARIANCE> 1
 1.395654e-02
<GCONST> -2.433930e+00
<STATE> 6
<MEAN> 1
 1.497048e-01
<VARIANCE> 1
 1.644052e-02
<GCONST> -2.270129e+00
<STATE> 7
<MEAN> 1
 1.017925e-01
<VARIANCE> 1
 9.880751e-02
<GCONST> -4.767046e-01
<TRANSP> 8
 0.000000e+00 1.000000e+00 0.000000e+00 0.000000e+00 0.000000e+00 0.000000e+00 0.000000e+00 0.000000e+00
 0.000000e+00 9.640054e-01 3.599466e-02 0.000000e+00 0.000000e+00 0.000000e+00 0.000000e+00 0.000000e+00
 0.000000e+00 0.000000e+00 9.788411e-01 2.115893e-02 0.000000e+00 0.000000e+00 0.000000e+00 0.000000e+00
 0.000000e+00 0.000000e+00 0.000000e+00 0.000000e+00 1.000000e+00 0.000000e+00 0.000000e+00 0.000000e+00
 0.000000e+00 0.000000e+00 0.000000e+00 0.000000e+00 0.000000e+00 1.000000e+00 0.000000e+00 0.000000e+00
 0.000000e+00 0.000000e+00 0.000000e+00 0.000000e+00 0.000000e+00 0.000000e+00 1.000000e+00 0.000000e+00
 0.000000e+00 0.000000e+00 0.000000e+00 0.000000e+00 0.000000e+00 0.000000e+00 8.204431e-01 1.795570e-01
 0.000000e+00 0.000000e+00 0.000000e+00 0.000000e+00 0.000000e+00 0.000000e+00 0.000000e+00 0.000000e+00
<ENDHMM>
~h "sil"
<BEGINHMM>
<NUMSTATES> 8
<STATE> 2
<MEAN> 1
 2.507827e-01
<VARIANCE> 1
 2.411798e+00
<GCONST> 2.718250e+00
<STATE> 3
<MEAN> 1
 -3.336378e+00
<VARIANCE> 1
 1.025608e+00
<GCONST> 1.863162e+00
<STATE> 4
<MEAN> 1
 3.053917e-01
<VARIANCE> 1
 4.246882e+00
<GCONST> 3.284062e+00
<STATE> 5
<MEAN> 1
 9.197203e+00
<VARIANCE> 1
 1.032437e+01
<GCONST> 4.172384e+00
<STATE> 6
<MEAN> 1
 1.456320e+00
<VARIANCE> 1
 1.068238e+00
<GCONST> 1.903888e+00
<STATE> 7
<MEAN> 1
 1.823927e-01
<VARIANCE> 1
 1.484010e+00
<GCONST> 2.232625e+00
<TRANSP> 8
 0.000000e+00 1.000000e+00 0.000000e+00 0.000000e+00 0.000000e+00 0.000000e+00 0.000000e+00 0.000000e+00
 0.000000e+00 9.573378e-01 4.266225e-02 0.000000e+00 0.000000e+00 0.000000e+00 0.000000e+00 0.000000e+00
 0.000000e+00 0.000000e+00 9.785994e-01 2.140065e-02 0.000000e+00 0.000000e+00 0.000000e+00 0.000000e+00
 0.000000e+00 0.000000e+00 0.000000e+00 0.000000e+00 1.000000e+00 0.000000e+00 0.000000e+00 0.000000e+00
 0.000000e+00 0.000000e+00 0.000000e+00 0.000000e+00 9.414352e-01 5.856483e-02 0.000000e+00 0.000000e+00
 0.000000e+00 0.000000e+00 0.000000e+00 0.000000e+00 0.000000e+00 9.390081e-01 6.099190e-02 0.000000e+00
 0.000000e+00 0.000000e+00 0.000000e+00 0.000000e+00 0.000000e+00 0.000000e+00 0.000000e+00 1.000000e+00
 0.000000e+00 0.000000e+00 0.000000e+00 0.000000e+00 0.000000e+00 0.000000e+00 0.000000e+00 0.000000e+00
<ENDHMM>
