~o
<STREAMINFO> 1 1
<VECSIZE> 1<NULLD><USER><DIAGC>
~h "a"
<BEGINHMM>
<NUMSTATES> 8
<STATE> 2
<MEAN> 1
 5.140631e+00
<VARIANCE> 1
 1.504395e+01
<GCONST> 4.548853e+00
<STATE> 3
<MEAN> 1
 1.425415e+01
<VARIANCE> 1
 5.260678e+00
<GCONST> 3.498137e+00
<STATE> 4
<MEAN> 1
 1.066764e+01
<VARIANCE> 1
 2.895675e+00
<GCONST> 2.901095e+00
<STATE> 5
<MEAN> 1
 8.843903e+00
<VARIANCE> 1
 1.431221e+01
<GCONST> 4.498990e+00
<STATE> 6
<MEAN> 1
 6.303123e+00
<VARIANCE> 1
 4.780540e+00
<GCONST> 3.402431e+00
<STATE> 7
<MEAN> 1
 -1.585424e+00
<VARIANCE> 1
 1.599535e+01
<GCONST> 4.610175e+00
<TRANSP> 8
 0.000000e+00 1.000000e+00 0.000000e+00 0.000000e+00 0.000000e+00 0.000000e+00 0.000000e+00 0.000000e+00
 0.000000e+00 9.180038e-01 8.199622e-02 0.000000e+00 0.000000e+00 0.000000e+00 0.000000e+00 0.000000e+00
 0.000000e+00 0.000000e+00 9.473161e-01 5.268396e-02 0.000000e+00 0.000000e+00 0.000000e+00 0.000000e+00
 0.000000e+00 0.000000e+00 0.000000e+00 9.361145e-01 6.388550e-02 0.000000e+00 0.000000e+00 0.000000e+00
 0.000000e+00 0.000000e+00 0.000000e+00 0.000000e+00 0.000000e+00 1.000000e+00 0.000000e+00 0.000000e+00
 0.000000e+00 0.000000e+00 0.000000e+00 0.000000e+00 0.000000e+00 9.229054e-01 7.709466e-02 0.000000e+00
 0.000000e+00 0.000000e+00 0.000000e+00 0.000000e+00 0.000000e+00 0.000000e+00 9.359223e-01 6.407774e-02
 0.000000e+00 0.000000e+00 0.000000e+00 0.000000e+00 0.000000e+00 0.000000e+00 0.000000e+00 0.000000e+00
<ENDHMM>
