~o
<STREAMINFO> 1 1
<VECSIZE> 1<NULLD><USER><DIAGC>
~h "i"
<BEGINHMM>
<NUMSTATES> 8
<STATE> 2
<MEAN> 1
 -6.714212e+00
<VARIANCE> 1
 4.951224e+00
<GCONST> 3.437512e+00
<STATE> 3
<MEAN> 1
 -2.852651e+00
<VARIANCE> 1
 2.831107e+00
<GCONST> 2.878545e+00
<STATE> 4
<MEAN> 1
 4.577152e+00
<VARIANCE> 1
 2.375847e+01
<GCONST> 5.005816e+00
<STATE> 5
<MEAN> 1
 -8.739585e-02
<VARIANCE> 1
 1.459844e+00
<GCONST> 2.216207e+00
<STATE> 6
<MEAN> 1
 -5.297936e+00
<VARIANCE> 1
 5.576369e+00
<GCONST> 3.556415e+00
<STATE> 7
<MEAN> 1
 5.898038e+00
<VARIANCE> 1
 2.661119e+01
<GCONST> 5.119209e+00
<TRANSP> 8
 0.000000e+00 1.000000e+00 0.000000e+00 0.000000e+00 0.000000e+00 0.000000e+00 0.000000e+00 0.000000e+00
 0.000000e+00 9.439924e-01 5.600763e-02 0.000000e+00 0.000000e+00 0.000000e+00 0.000000e+00 0.000000e+00
 0.000000e+00 0.000000e+00 9.262925e-01 7.370751e-02 0.000000e+00 0.000000e+00 0.000000e+00 0.000000e+00
 0.000000e+00 0.000000e+00 0.000000e+00 7.988212e-01 2.011788e-01 0.000000e+00 0.000000e+00 0.000000e+00
 0.000000e+00 0.000000e+00 0.000000e+00 0.000000e+00 9.406653e-01 5.933469e-02 0.000000e+00 0.000000e+00
 0.000000e+00 0.000000e+00 0.000000e+00 0.000000e+00 0.000000e+00 9.276556e-01 7.234445e-02 0.000000e+00
 0.000000e+00 0.000000e+00 0.000000e+00 0.000000e+00 0.000000e+00 0.000000e+00 8.929115e-01 1.070886e-01
 0.000000e+00 0.000000e+00 0.000000e+00 0.000000e+00 0.000000e+00 0.000000e+00 0.000000e+00 0.000000e+00
<ENDHMM>
