~o
<STREAMINFO> 1 1
<VECSIZE> 1<NULLD><USER><DIAGC>
~h "m"
<BEGINHMM>
<NUMSTATES> 8
<STATE> 2
<MEAN> 1
 -3.723646e+00
<VARIANCE> 1
 1.859505e+01
<GCONST> 4.760772e+00
<STATE> 3
<MEAN> 1
 2.638576e-01
<VARIANCE> 1
 1.796729e+00
<GCONST> 2.423845e+00
<STATE> 4
<MEAN> 1
 3.223805e+00
<VARIANCE> 1
 1.356990e+01
<GCONST> 4.445731e+00
<STATE> 5
<MEAN> 1
 3.763006e+00
<VARIANCE> 1
 1.433634e+01
<GCONST> 4.500675e+00
<STATE> 6
<MEAN> 1
 1.185678e+01
<VARIANCE> 1
 1.342562e+01
<GCONST> 4.435042e+00
<STATE> 7
<MEAN> 1
 5.084564e+00
<VARIANCE> 1
 1.335249e+01
<GCONST> 4.429580e+00
<TRANSP> 8
 0.000000e+00 1.000000e+00 0.000000e+00 0.000000e+00 0.000000e+00 0.000000e+00 0.000000e+00 0.000000e+00
 0.000000e+00 9.146636e-01 8.533644e-02 0.000000e+00 0.000000e+00 0.000000e+00 0.000000e+00 0.000000e+00
 0.000000e+00 0.000000e+00 9.614933e-01 3.850676e-02 0.000000e+00 0.000000e+00 0.000000e+00 0.000000e+00
 0.000000e+00 0.000000e+00 0.000000e+00 0.000000e+00 1.000000e+00 0.000000e+00 0.000000e+00 0.000000e+00
 0.000000e+00 0.000000e+00 0.000000e+00 0.000000e+00 0.000000e+00 1.000000e+00 0.000000e+00 0.000000e+00
 0.000000e+00 0.000000e+00 0.000000e+00 0.000000e+00 0.000000e+00 9.525850e-01 4.741504e-02 0.000000e+00
 0.000000e+00 0.000000e+00 0.000000e+00 0.000000e+00 0.000000e+00 0.000000e+00 9.353530e-01 6.464706e-02
 0.000000e+00 0.000000e+00 0.000000e+00 0.000000e+00 0.000000e+00 0.000000e+00 0.000000e+00 0.000000e+00
<ENDHMM>
