~o
<STREAMINFO> 1 1
<VECSIZE> 1<NULLD><USER><DIAGC>
~h "a"
<BEGINHMM>
<NUMSTATES> 8
<STATE> 2
<MEAN> 1
 -4.247177e+00
<VARIANCE> 1
 6.787000e+00
<GCONST> 3.752886e+00
<STATE> 3
<MEAN> 1
 5.023414e+00
<VARIANCE> 1
 7.601997e+00
<GCONST> 3.866288e+00
<STATE> 4
<MEAN> 1
 7.595357e-02
<VARIANCE> 1
 2.556850e-01
<GCONST> 4.740680e-01
<STATE> 5
<MEAN> 1
 1.573935e+00
<VARIANCE> 1
 3.807974e-01
<GCONST> 8.723894e-01
<STATE> 6
<MEAN> 1
 3.265746e+00
<VARIANCE> 1
 7.465243e-01
<GCONST> 1.545550e+00
<STATE> 7
<MEAN> 1
 7.139162e+00
<VARIANCE> 1
 7.370035e+00
<GCONST> 3.835299e+00
<TRANSP> 8
 0.000000e+00 1.000000e+00 0.000000e+00 0.000000e+00 0.000000e+00 0.000000e+00 0.000000e+00 0.000000e+00
 0.000000e+00 9.678858e-01 3.211419e-02 0.000000e+00 0.000000e+00 0.000000e+00 0.000000e+00 0.000000e+00
 0.000000e+00 0.000000e+00 9.624609e-01 3.753910e-02 0.000000e+00 0.000000e+00 0.000000e+00 0.000000e+00
 0.000000e+00 0.000000e+00 0.000000e+00 9.749443e-01 2.505568e-02 0.000000e+00 0.000000e+00 0.000000e+00
 0.000000e+00 0.000000e+00 0.000000e+00 0.000000e+00 9.590630e-01 4.093700e-02 0.000000e+00 0.000000e+00
 0.000000e+00 0.000000e+00 0.000000e+00 0.000000e+00 0.000000e+00 9.623903e-01 3.760969e-02 0.000000e+00
 0.000000e+00 0.000000e+00 0.000000e+00 0.000000e+00 0.000000e+00 0.000000e+00 9.629782e-01 3.702180e-02
 0.000000e+00 0.000000e+00 0.000000e+00 0.000000e+00 0.000000e+00 0.000000e+00 0.000000e+00 0.000000e+00
<ENDHMM>
