~o
<STREAMINFO> 1 1
<VECSIZE> 1<NULLD><USER><DIAGC>
~h "a"
<BEGINHMM>
<NUMSTATES> 8
<STATE> 2
<MEAN> 1
 -1.622285e+00
<VARIANCE> 1
 1.259354e+01
<GCONST> 4.371060e+00
<STATE> 3
<MEAN> 1
 8.939248e+00
<VARIANCE> 1
 5.049014e+00
<GCONST> 3.457070e+00
<STATE> 4
<MEAN> 1
 5.448877e+00
<VARIANCE> 1
 2.283826e+00
<GCONST> 2.663729e+00
<STATE> 5
<MEAN> 1
 1.937648e+00
<VARIANCE> 1
 7.380915e-01
<GCONST> 1.534190e+00
<STATE> 6
<MEAN> 1
 3.560890e+00
<VARIANCE> 1
 1.247157e+00
<GCONST> 2.058743e+00
<STATE> 7
<MEAN> 1
 4.734973e-02
<VARIANCE> 1
 2.409074e-01
<GCONST> 4.145346e-01
<TRANSP> 8
 0.000000e+00 1.000000e+00 0.000000e+00 0.000000e+00 0.000000e+00 0.000000e+00 0.000000e+00 0.000000e+00
 0.000000e+00 9.710534e-01 2.894658e-02 0.000000e+00 0.000000e+00 0.000000e+00 0.000000e+00 0.000000e+00
 0.000000e+00 0.000000e+00 9.720085e-01 2.799154e-02 0.000000e+00 0.000000e+00 0.000000e+00 0.000000e+00
 0.000000e+00 0.000000e+00 0.000000e+00 9.627019e-01 3.729813e-02 0.000000e+00 0.000000e+00 0.000000e+00
 0.000000e+00 0.000000e+00 0.000000e+00 0.000000e+00 9.567993e-01 4.320071e-02 0.000000e+00 0.000000e+00
 0.000000e+00 0.000000e+00 0.000000e+00 0.000000e+00 0.000000e+00 9.385687e-01 6.143129e-02 0.000000e+00
 0.000000e+00 0.000000e+00 0.000000e+00 0.000000e+00 0.000000e+00 0.000000e+00 9.852179e-01 1.478208e-02
 0.000000e+00 0.000000e+00 0.000000e+00 0.000000e+00 0.000000e+00 0.000000e+00 0.000000e+00 0.000000e+00
<ENDHMM>
