~o
<STREAMINFO> 1 1
<VECSIZE> 1<NULLD><USER><DIAGC>
~h "e"
<BEGINHMM>
<NUMSTATES> 8
<STATE> 2
<MEAN> 1
 3.169545e+00
<VARIANCE> 1
 2.643169e+00
<GCONST> 2.809855e+00
<STATE> 3
<MEAN> 1
 8.295534e+00
<VARIANCE> 1
 4.446561e+00
<GCONST> 3.330008e+00
<STATE> 4
<MEAN> 1
 -1.022895e-02
<VARIANCE> 1
 5.470878e-01
<GCONST> 1.234731e+00
<STATE> 5
<MEAN> 1
 4.366108e+00
<VARIANCE> 1
 5.256629e+00
<GCONST> 3.497367e+00
<STATE> 6
<MEAN> 1
 -2.138511e+00
<VARIANCE> 1
 2.068089e+00
<GCONST> 2.564502e+00
<STATE> 7
<MEAN> 1
 -6.268815e+00
<VARIANCE> 1
 8.810187e+00
<GCONST> 4.013786e+00
<TRANSP> 8
 0.000000e+00 1.000000e+00 0.000000e+00 0.000000e+00 0.000000e+00 0.000000e+00 0.000000e+00 0.000000e+00
 0.000000e+00 9.596865e-01 4.031355e-02 0.000000e+00 0.000000e+00 0.000000e+00 0.000000e+00 0.000000e+00
 0.000000e+00 0.000000e+00 9.765625e-01 2.343750e-02 0.000000e+00 0.000000e+00 0.000000e+00 0.000000e+00
 0.000000e+00 0.000000e+00 0.000000e+00 9.774125e-01 2.258753e-02 0.000000e+00 0.000000e+00 0.000000e+00
 0.000000e+00 0.000000e+00 0.000000e+00 0.000000e+00 9.370849e-01 6.291506e-02 0.000000e+00 0.000000e+00
 0.000000e+00 0.000000e+00 0.000000e+00 0.000000e+00 0.000000e+00 9.648438e-01 3.515625e-02 0.000000e+00
 0.000000e+00 0.000000e+00 0.000000e+00 0.000000e+00 0.000000e+00 0.000000e+00 9.488345e-01 5.116544e-02
 0.000000e+00 0.000000e+00 0.000000e+00 0.000000e+00 0.000000e+00 0.000000e+00 0.000000e+00 0.000000e+00
<ENDHMM>
