~o
<STREAMINFO> 1 1
<VECSIZE> 1<NULLD><USER><DIAGC>
~h "e"
<BEGINHMM>
<NUMSTATES> 8
<STATE> 2
<MEAN> 1
 2.921860e-03
<VARIANCE> 1
 1.921598e-01
<GCONST> 1.884493e-01
<STATE> 3
<MEAN> 1
 6.608811e+00
<VARIANCE> 1
 8.031740e+00
<GCONST> 3.921278e+00
<STATE> 4
<MEAN> 1
 2.869949e-02
<VARIANCE> 1
 1.421523e+00
<GCONST> 2.189606e+00
<STATE> 5
<MEAN> 1
 -3.199939e-01
<VARIANCE> 1
 9.288371e+00
<GCONST> 4.066640e+00
<STATE> 6
<MEAN> 1
 -3.182384e+00
<VARIANCE> 1
 3.482019e+00
<GCONST> 3.085489e+00
<STATE> 7
<MEAN> 1
 -8.419382e+00
<VARIANCE> 1
 5.412254e+00
<GCONST> 3.526543e+00
<TRANSP> 8
 0.000000e+00 1.000000e+00 0.000000e+00 0.000000e+00 0.000000e+00 0.000000e+00 0.000000e+00 0.000000e+00
 0.000000e+00 9.869507e-01 1.304933e-02 0.000000e+00 0.000000e+00 0.000000e+00 0.000000e+00 0.000000e+00
 0.000000e+00 0.000000e+00 9.754720e-01 2.452799e-02 0.000000e+00 0.000000e+00 0.000000e+00 0.000000e+00
 0.000000e+00 0.000000e+00 0.000000e+00 9.616550e-01 3.834498e-02 0.000000e+00 0.000000e+00 0.000000e+00
 0.000000e+00 0.000000e+00 0.000000e+00 0.000000e+00 0.000000e+00 1.000000e+00 0.000000e+00 0.000000e+00
 0.000000e+00 0.000000e+00 0.000000e+00 0.000000e+00 0.000000e+00 9.587293e-01 4.127074e-02 0.000000e+00
 0.000000e+00 0.000000e+00 0.000000e+00 0.000000e+00 0.000000e+00 0.000000e+00 9.717723e-01 2.822776e-02
 0.000000e+00 0.000000e+00 0.000000e+00 0.000000e+00 0.000000e+00 0.000000e+00 0.000000e+00 0.000000e+00
<ENDHMM>
