~o
<STREAMINFO> 1 1
<VECSIZE> 1<NULLD><USER><DIAGC>
~h "i"
<BEGINHMM>
<NUMSTATES> 8
<STATE> 2
<MEAN> 1
 1.835071e+00
<VARIANCE> 1
 2.402355e+01
<GCONST> 5.016912e+00
<STATE> 3
<MEAN> 1
 -9.614902e+00
<VARIANCE> 1
 1.969834e+00
<GCONST> 2.515826e+00
<STATE> 4
<MEAN> 1
 -6.786376e+00
<VARIANCE> 1
 1.665328e+00
<GCONST> 2.347899e+00
<STATE> 5
<MEAN> 1
 -4.296615e+00
<VARIANCE> 1
 1.523204e+00
<GCONST> 2.258693e+00
<STATE> 6
<MEAN> 1
 -1.969851e+00
<VARIANCE> 1
 1.022827e+00
<GCONST> 1.860447e+00
<STATE> 7
<MEAN> 1
 -5.394635e-02
<VARIANCE> 1
 2.214699e-01
<GCONST> 3.304085e-01
<TRANSP> 8
 0.000000e+00 1.000000e+00 0.000000e+00 0.000000e+00 0.000000e+00 0.000000e+00 0.000000e+00 0.000000e+00
 0.000000e+00 9.721318e-01 2.786822e-02 0.000000e+00 0.000000e+00 0.000000e+00 0.000000e+00 0.000000e+00
 0.000000e+00 0.000000e+00 9.766752e-01 2.332478e-02 0.000000e+00 0.000000e+00 0.000000e+00 0.000000e+00
 0.000000e+00 0.000000e+00 0.000000e+00 9.676487e-01 3.235131e-02 0.000000e+00 0.000000e+00 0.000000e+00
 0.000000e+00 0.000000e+00 0.000000e+00 0.000000e+00 9.372845e-01 6.271552e-02 0.000000e+00 0.000000e+00
 0.000000e+00 0.000000e+00 0.000000e+00 0.000000e+00 0.000000e+00 9.414722e-01 5.852775e-02 0.000000e+00
 0.000000e+00 0.000000e+00 0.000000e+00 0.000000e+00 0.000000e+00 0.000000e+00 9.837267e-01 1.627335e-02
 0.000000e+00 0.000000e+00 0.000000e+00 0.000000e+00 0.000000e+00 0.000000e+00 0.000000e+00 0.000000e+00
<ENDHMM>
