~o
<STREAMINFO> 1 1
<VECSIZE> 1<NULLD><USER><DIAGC>
~h "i"
<BEGINHMM>
<NUMSTATES> 8
<STATE> 2
<MEAN> 1
 5.923073e+00
<VARIANCE> 1
 1.292595e+01
<GCONST> 4.397114e+00
<STATE> 3
<MEAN> 1
 -1.894994e+00
<VARIANCE> 1
 1.226166e+01
<GCONST> 4.344354e+00
<STATE> 4
<MEAN> 1
 -6.815485e+00
<VARIANCE> 1
 6.285114e+00
<GCONST> 3.676061e+00
<STATE> 5
<MEAN> 1
 -9.639376e-01
<VARIANCE> 1
 1.323896e+00
<GCONST> 2.118456e+00
<STATE> 6
<MEAN> 1
 -6.218550e+00
<VARIANCE> 1
 2.161372e+00
<GCONST> 2.608620e+00
<STATE> 7
<MEAN> 1
 -3.160338e+00
<VARIANCE> 1
 1.550862e+00
<GCONST> 2.276688e+00
<TRANSP> 8
 0.000000e+00 1.000000e+00 0.000000e+00 0.000000e+00 0.000000e+00 0.000000e+00 0.000000e+00 0.000000e+00
 0.000000e+00 9.667467e-01 3.325328e-02 0.000000e+00 0.000000e+00 0.000000e+00 0.000000e+00 0.000000e+00
 0.000000e+00 0.000000e+00 0.000000e+00 1.000000e+00 0.000000e+00 0.000000e+00 0.000000e+00 0.000000e+00
 0.000000e+00 0.000000e+00 0.000000e+00 9.463007e-01 5.369929e-02 0.000000e+00 0.000000e+00 0.000000e+00
 0.000000e+00 0.000000e+00 0.000000e+00 0.000000e+00 9.814853e-01 1.851471e-02 0.000000e+00 0.000000e+00
 0.000000e+00 0.000000e+00 0.000000e+00 0.000000e+00 0.000000e+00 9.780059e-01 2.199414e-02 0.000000e+00
 0.000000e+00 0.000000e+00 0.000000e+00 0.000000e+00 0.000000e+00 0.000000e+00 9.623116e-01 3.768844e-02
 0.000000e+00 0.000000e+00 0.000000e+00 0.000000e+00 0.000000e+00 0.000000e+00 0.000000e+00 0.000000e+00
<ENDHMM>
