~o
<STREAMINFO> 1 1
<VECSIZE> 1<NULLD><USER><DIAGC>
~h "m"
<BEGINHMM>
<NUMSTATES> 8
<STATE> 2
<MEAN> 1
 -5.163245e+00
<VARIANCE> 1
 4.987328e+00
<GCONST> 3.444777e+00
<STATE> 3
<MEAN> 1
 5.117216e-02
<VARIANCE> 1
 3.779529e-01
<GCONST> 8.648913e-01
<STATE> 4
<MEAN> 1
 -2.909791e-01
<VARIANCE> 1
 9.146946e+00
<GCONST> 4.051297e+00
<STATE> 5
<MEAN> 1
 -2.569306e-01
<VARIANCE> 1
 9.187684e+00
<GCONST> 4.055741e+00
<STATE> 6
<MEAN> 1
 -2.230473e-01
<VARIANCE> 1
 9.230226e+00
<GCONST> 4.060360e+00
<STATE> 7
<MEAN> 1
 4.028390e+00
<VARIANCE> 1
 1.054258e+01
<GCONST> 4.193299e+00
<TRANSP> 8
 0.000000e+00 1.000000e+00 0.000000e+00 0.000000e+00 0.000000e+00 0.000000e+00 0.000000e+00 0.000000e+00
 0.000000e+00 9.864784e-01 1.352163e-02 0.000000e+00 0.000000e+00 0.000000e+00 0.000000e+00 0.000000e+00
 0.000000e+00 0.000000e+00 9.844734e-01 1.552661e-02 0.000000e+00 0.000000e+00 0.000000e+00 0.000000e+00
 0.000000e+00 0.000000e+00 0.000000e+00 0.000000e+00 1.000000e+00 0.000000e+00 0.000000e+00 0.000000e+00
 0.000000e+00 0.000000e+00 0.000000e+00 0.000000e+00 0.000000e+00 1.000000e+00 0.000000e+00 0.000000e+00
 0.000000e+00 0.000000e+00 0.000000e+00 0.000000e+00 0.000000e+00 0.000000e+00 1.000000e+00 0.000000e+00
 0.000000e+00 0.000000e+00 0.000000e+00 0.000000e+00 0.000000e+00 0.000000e+00 9.706649e-01 2.933507e-02
 0.000000e+00 0.000000e+00 0.000000e+00 0.000000e+00 0.000000e+00 0.000000e+00 0.000000e+00 0.000000e+00
<ENDHMM>
