~o
<STREAMINFO> 1 1
<VECSIZE> 1<NULLD><USER><DIAGC>
~h "m"
<BEGINHMM>
<NUMSTATES> 8
<STATE> 2
<MEAN> 1
 -3.261991e+00
<VARIANCE> 1
 1.708604e+01
<GCONST> 4.676139e+00
<STATE> 3
<MEAN> 1
 -1.944234e-03
<VARIANCE> 1
 1.155496e-02
<GCONST> -2.622763e+00
<STATE> 4
<MEAN> 1
 8.423120e-01
<VARIANCE> 1
 3.154646e-01
<GCONST> 6.841681e-01
<STATE> 5
<MEAN> 1
 -5.230060e+00
<VARIANCE> 1
 6.618349e+00
<GCONST> 3.727723e+00
<STATE> 6
<MEAN> 1
 2.890246e+00
<VARIANCE> 1
 1.844756e+00
<GCONST> 2.450224e+00
<STATE> 7
<MEAN> 1
 7.189895e+00
<VARIANCE> 1
 7.828498e+00
<GCONST> 3.895648e+00
<TRANSP> 8
 0.000000e+00 1.000000e+00 0.000000e+00 0.000000e+00 0.000000e+00 0.000000e+00 0.000000e+00 0.000000e+00
 0.000000e+00 9.714538e-01 2.854620e-02 0.000000e+00 0.000000e+00 0.000000e+00 0.000000e+00 0.000000e+00
 0.000000e+00 0.000000e+00 9.887853e-01 1.121474e-02 0.000000e+00 0.000000e+00 0.000000e+00 0.000000e+00
 0.000000e+00 0.000000e+00 0.000000e+00 9.524432e-01 4.755679e-02 0.000000e+00 0.000000e+00 0.000000e+00
 0.000000e+00 0.000000e+00 0.000000e+00 0.000000e+00 9.404177e-01 5.958230e-02 0.000000e+00 0.000000e+00
 0.000000e+00 0.000000e+00 0.000000e+00 0.000000e+00 0.000000e+00 9.577404e-01 4.225966e-02 0.000000e+00
 0.000000e+00 0.000000e+00 0.000000e+00 0.000000e+00 0.000000e+00 0.000000e+00 9.453931e-01 5.460687e-02
 0.000000e+00 0.000000e+00 0.000000e+00 0.000000e+00 0.000000e+00 0.000000e+00 0.000000e+00 0.000000e+00
<ENDHMM>
