~o
<STREAMINFO> 1 1
<VECSIZE> 1<NULLD><USER><DIAGC>
~h "sil"
<BEGINHMM>
<NUMSTATES> 8
<STATE> 2
<MEAN> 1
 1.120098e-01
<VARIANCE> 1
 2.036905e+00
<GCONST> 2.549308e+00
<STATE> 3
<MEAN> 1
 -3.079105e+00
<VARIANCE> 1
 1.149539e+00
<GCONST> 1.977238e+00
<STATE> 4
<MEAN> 1
 6.807921e-01
<VARIANCE> 1
 9.792298e+00
<GCONST> 4.119473e+00
<STATE> 5
<MEAN> 1
 9.700392e+00
<VARIANCE> 1
 7.892519e+00
<GCONST> 3.903792e+00
<STATE> 6
<MEAN> 1
 3.274773e+00
<VARIANCE> 1
 2.237400e+00
<GCONST> 2.643192e+00
<STATE> 7
<MEAN> 1
 1.499604e+00
<VARIANCE> 1
 1.558640e+01
<GCONST> 4.584276e+00
<TRANSP> 8
 0.000000e+00 1.000000e+00 0.000000e+00 0.000000e+00 0.000000e+00 0.000000e+00 0.000000e+00 0.000000e+00
 0.000000e+00 9.908575e-01 9.142440e-03 0.000000e+00 0.000000e+00 0.000000e+00 0.000000e+00 0.000000e+00
 0.000000e+00 0.000000e+00 9.813780e-01 1.862197e-02 0.000000e+00 0.000000e+00 0.000000e+00 0.000000e+00
 0.000000e+00 0.000000e+00 0.000000e+00 0.000000e+00 1.000000e+00 0.000000e+00 0.000000e+00 0.000000e+00
 0.000000e+00 0.000000e+00 0.000000e+00 0.000000e+00 9.575912e-01 4.240882e-02 0.000000e+00 0.000000e+00
 0.000000e+00 0.000000e+00 0.000000e+00 0.000000e+00 0.000000e+00 9.627699e-01 3.723008e-02 0.000000e+00
 0.000000e+00 0.000000e+00 0.000000e+00 0.000000e+00 0.000000e+00 0.000000e+00 0.000000e+00 1.000000e+00
 0.000000e+00 0.000000e+00 0.000000e+00 0.000000e+00 0.000000e+00 0.000000e+00 0.000000e+00 0.000000e+00
<ENDHMM>
