~o
<STREAMINFO> 1 1
<VECSIZE> 1<NULLD><USER><DIAGC>
~h "sil"
<BEGINHMM>
<NUMSTATES> 8
<STATE> 2
<MEAN> 1
 -2.666695e+00
<VARIANCE> 1
 3.268947e+00
<GCONST> 3.022345e+00
<STATE> 3
<MEAN> 1
 3.818570e+00
<VARIANCE> 1
 2.600315e+01
<GCONST> 5.096095e+00
<STATE> 4
<MEAN> 1
 1.100638e+01
<VARIANCE> 1
 3.370521e+00
<GCONST> 3.052944e+00
<STATE> 5
<MEAN> 1
 7.682013e+00
<VARIANCE> 1
 5.885314e+00
<GCONST> 3.610337e+00
<STATE> 6
<MEAN> 1
 3.216647e+00
<VARIANCE> 1
 3.641488e+00
<GCONST> 3.130270e+00
<STATE> 7
<MEAN> 1
 1.401421e-01
<VARIANCE> 1
 1.250881e+00
<GCONST> 2.061725e+00
<TRANSP> 8
 0.000000e+00 1.000000e+00 0.000000e+00 0.000000e+00 0.000000e+00 0.000000e+00 0.000000e+00 0.000000e+00
 0.000000e+00 9.713832e-01 2.861685e-02 0.000000e+00 0.000000e+00 0.000000e+00 0.000000e+00 0.000000e+00
 0.000000e+00 0.000000e+00 0.000000e+00 1.000000e+00 0.000000e+00 0.000000e+00 0.000000e+00 0.000000e+00
 0.000000e+00 0.000000e+00 0.000000e+00 9.858016e-01 1.419838e-02 0.000000e+00 0.000000e+00 0.000000e+00
 0.000000e+00 0.000000e+00 0.000000e+00 0.000000e+00 9.667129e-01 3.328710e-02 0.000000e+00 0.000000e+00
 0.000000e+00 0.000000e+00 0.000000e+00 0.000000e+00 0.000000e+00 9.620653e-01 3.793466e-02 0.000000e+00
 0.000000e+00 0.000000e+00 0.000000e+00 0.000000e+00 0.000000e+00 0.000000e+00 9.747280e-01 2.527203e-02
 0.000000e+00 0.000000e+00 0.000000e+00 0.000000e+00 0.000000e+00 0.000000e+00 0.000000e+00 0.000000e+00
<ENDHMM>
