~o
<STREAMINFO> 1 26
<VECSIZE> 26<NULLD><MFCC_E_D><DIAGC>
~h "N"
<BEGINHMM>
<NUMSTATES> 5
<STATE> 2
<MEAN> 26
 -3.084116e+00 -5.774346e+00 3.201287e+00 -7.999323e-01 -1.159772e+01 1.192105e+00 -9.859351e+00 -6.297814e+00 -4.863788e+00 -3.132178e-01 -5.821282e+00 4.141153e-02 4.697403e-01 -3.462547e-02 6.175496e-01 1.481930e-01 1.108236e+00 1.230464e-02 7.648613e-01 -1.248587e-01 -2.309635e+00 -1.249974e+00 3.922065e-01 2.332124e-01 9.159306e-01 -2.088293e-02
<VARIANCE> 26
 3.376224e+00 1.535502e+01 1.415988e+01 2.534108e+01 2.823644e+01 1.926218e+01 2.626197e+01 5.285860e+01 2.823023e+01 2.757769e+01 1.376516e+01 1.754283e+01 1.000000e-02 1.746893e+00 1.792173e+00 1.936922e+00 2.645687e+00 3.324870e+00 2.087436e+00 3.857654e+00 3.570296e+00 4.275734e+00 2.742915e+00 2.851103e+00 1.963937e+00 1.000000e-02
<GCONST> 8.560420e+01
<STATE> 3
<MEAN> 26
 -3.904511e+00 -3.198472e+00 2.403259e+00 -1.129978e+00 -1.189292e+01 1.312968e+00 -7.815717e+00 -8.544507e+00 -5.204221e+00 -1.472553e+00 -7.330842e+00 3.977338e+00 4.357010e-01 -3.906983e-01 5.416948e-01 -1.157705e+00 -1.209107e+00 6.048223e-01 -6.117654e-01 8.283567e-01 1.367473e+00 1.318261e+00 -1.244598e+00 3.116676e-01 9.601294e-02 4.859906e-03
<VARIANCE> 26
 2.545111e+00 3.235877e+01 1.354234e+01 1.896713e+01 1.950327e+01 1.553932e+01 2.687304e+01 3.758331e+01 2.531183e+01 2.261325e+01 1.516572e+01 1.242772e+01 1.000000e-02 2.277418e+00 2.419277e+00 2.214655e+00 3.677406e+00 3.641899e+00 2.505067e+00 2.273336e+00 4.468790e+00 1.463054e+00 1.153469e+00 1.909886e+00 1.690542e+00 1.000000e-02
<GCONST> 8.278285e+01
<STATE> 4
<MEAN> 26
 -4.963441e+00 -4.369182e+00 -3.638051e+00 -6.699743e+00 -9.524833e+00 -8.495390e-01 -5.309373e+00 -2.083546e+00 -8.129451e-01 -3.752186e+00 -3.880829e+00 3.254020e-01 5.050020e-01 -5.163373e-01 -8.661124e-01 -2.662965e+00 -2.476517e+00 4.009065e-01 -2.479554e-01 5.728623e-01 1.649553e+00 2.315167e+00 -4.911116e-01 5.804424e-01 -1.222487e+00 5.005846e-02
<VARIANCE> 26
 4.928988e+01 3.437424e+01 4.830040e+01 4.648362e+01 3.120954e+01 2.452496e+01 2.412282e+01 4.226108e+01 2.205208e+01 2.326402e+01 1.626410e+01 8.387040e+00 2.869630e-02 7.253625e+00 2.664890e+00 4.056534e+00 2.945515e+00 5.833045e+00 4.349903e+00 2.272769e+00 5.306715e+00 3.398602e+00 1.079537e+00 2.862965e+00 1.935794e+00 1.000000e-02
<GCONST> 9.368184e+01
<TRANSP> 5
 0.000000e+00 1.000000e+00 0.000000e+00 0.000000e+00 0.000000e+00
 0.000000e+00 6.923077e-01 3.076923e-01 0.000000e+00 0.000000e+00
 0.000000e+00 0.000000e+00 5.151515e-01 4.848485e-01 0.000000e+00
 0.000000e+00 0.000000e+00 0.000000e+00 4.074074e-01 5.925926e-01
 0.000000e+00 0.000000e+00 0.000000e+00 0.000000e+00 0.000000e+00
<ENDHMM>
