~o
<STREAMINFO> 1 26
<VECSIZE> 26<NULLD><MFCC_E_D><DIAGC>
~h "V"
<BEGINHMM>
<NUMSTATES> 5
<STATE> 2
<MEAN> 26
 5.289332e-01 -8.100727e+00 -4.283133e+00 -1.291715e+01 -1.319254e+01 2.382013e+00 -1.178240e+01 -1.060726e+00 -3.512919e+00 8.774632e-01 -1.295436e+00 -3.529012e+00 7.975477e-01 5.137921e-01 -5.848840e-01 -6.620416e-02 -9.348565e-02 -4.237737e-01 3.711821e-01 -5.236992e-01 2.249199e-01 3.503911e-01 1.681264e-01 -1.780483e-01 -3.216990e-01 1.635115e-02
<VARIANCE> 26
 1.737189e+01 3.305225e+01 1.256645e+02 4.684319e+01 5.614876e+01 1.047635e+02 5.358356e+01 3.331782e+01 4.426960e+01 3.398802e+01 2.383267e+01 2.532559e+01 1.299620e-02 1.440597e+00 1.700203e+00 2.305448e+00 1.769097e+00 2.903163e+00 2.370805e+00 2.298165e+00 2.077281e+00 2.566434e+00 1.755058e+00 1.652057e+00 1.581678e+00 1.000000e-02
<GCONST> 9.201540e+01
<STATE> 3
<MEAN> 26
 1.399918e+00 -1.484184e+01 -6.490230e+00 -8.918731e+00 -1.455984e+01 1.698610e+00 -8.473542e+00 4.481647e+00 6.906849e-01 -8.732807e-01 -6.716586e+00 -6.554895e+00 8.419684e-01 -3.879867e-01 4.386553e-01 8.694999e-01 2.394587e-01 -1.276597e-01 -9.105119e-01 4.545654e-01 2.676769e-01 -2.160955e-01 6.323868e-02 -1.751397e-01 5.170645e-01 -1.662839e-02
<VARIANCE> 26
 1.152510e+01 3.622554e+01 7.139577e+01 1.755926e+01 3.851470e+01 5.918654e+01 3.235697e+01 3.399163e+01 3.881528e+01 2.118391e+01 2.750620e+01 2.309939e+01 1.666013e-02 6.612135e-01 1.984577e+00 2.980729e+00 1.786544e+00 2.498937e+00 2.721837e+00 2.271636e+00 2.767424e+00 2.004332e+00 1.775455e+00 1.977481e+00 1.940493e+00 1.000000e-02
<GCONST> 8.846786e+01
<STATE> 4
<MEAN> 26
 -5.511600e+00 -5.037577e+00 2.215810e+00 -7.861517e+00 -1.214170e+01 -4.576877e+00 -5.414907e+00 8.916925e-01 -3.259422e+00 -1.781138e-01 -3.940091e+00 -1.000577e+00 6.129322e-01 -2.314113e+00 1.835597e+00 -9.080844e-01 1.079808e+00 2.423233e+00 8.144624e-02 1.392077e+00 -1.191974e+00 3.209093e-01 -3.074696e-02 2.408687e-01 2.549060e-01 -7.501199e-02
<VARIANCE> 26
 3.805185e+01 3.635051e+01 6.108884e+01 3.691819e+01 6.814503e+01 5.066834e+01 4.633210e+01 4.121314e+01 4.564182e+01 3.590320e+01 2.598843e+01 1.843169e+01 3.386825e-02 4.912889e+00 3.288002e+00 5.305735e+00 3.773801e+00 5.640666e+00 4.464944e+00 5.059400e+00 3.892915e+00 6.194972e+00 3.124333e+00 2.495779e+00 1.718309e+00 1.000000e-02
<GCONST> 1.004270e+02
<TRANSP> 5
 0.000000e+00 1.000000e+00 0.000000e+00 0.000000e+00 0.000000e+00
 0.000000e+00 7.354085e-01 2.645914e-01 0.000000e+00 0.000000e+00
 0.000000e+00 0.000000e+00 7.224490e-01 2.775510e-01 0.000000e+00
 0.000000e+00 0.000000e+00 0.000000e+00 6.046512e-01 3.953488e-01
 0.000000e+00 0.000000e+00 0.000000e+00 0.000000e+00 0.000000e+00
<ENDHMM>
