~o
<STREAMINFO> 1 1
<VECSIZE> 1<NULLD><USER><DIAGC>
~h "a"
<BEGINHMM>
<NUMSTATES> 8
<STATE> 2
<MEAN> 1
 5.149294e+00
<VARIANCE> 1
 1.504045e+01
<GCONST> 4.548620e+00
<STATE> 3
<MEAN> 1
 1.400895e+01
<VARIANCE> 1
 5.092957e+00
<GCONST> 3.465736e+00
<STATE> 4
<MEAN> 1
 1.001955e+01
<VARIANCE> 1
 2.833399e+00
<GCONST> 2.879354e+00
<STATE> 5
<MEAN> 1
 8.553898e+00
<VARIANCE> 1
 1.438241e+01
<GCONST> 4.503883e+00
<STATE> 6
<MEAN> 1
 5.677875e+00
<VARIANCE> 1
 4.517431e+00
<GCONST> 3.345820e+00
<STATE> 7
<MEAN> 1
 -1.760154e+00
<VARIANCE> 1
 1.567478e+01
<GCONST> 4.589930e+00
<TRANSP> 8
 0.000000e+00 1.000000e+00 0.000000e+00 0.000000e+00 0.000000e+00 0.000000e+00 0.000000e+00 0.000000e+00
 0.000000e+00 9.188905e-01 8.110955e-02 0.000000e+00 0.000000e+00 0.000000e+00 0.000000e+00 0.000000e+00
 0.000000e+00 0.000000e+00 9.539474e-01 4.605263e-02 0.000000e+00 0.000000e+00 0.000000e+00 0.000000e+00
 0.000000e+00 0.000000e+00 0.000000e+00 9.352216e-01 6.477846e-02 0.000000e+00 0.000000e+00 0.000000e+00
 0.000000e+00 0.000000e+00 0.000000e+00 0.000000e+00 0.000000e+00 1.000000e+00 0.000000e+00 0.000000e+00
 0.000000e+00 0.000000e+00 0.000000e+00 0.000000e+00 0.000000e+00 9.079681e-01 9.203187e-02 0.000000e+00
 0.000000e+00 0.000000e+00 0.000000e+00 0.000000e+00 0.000000e+00 0.000000e+00 9.336016e-01 6.639840e-02
 0.000000e+00 0.000000e+00 0.000000e+00 0.000000e+00 0.000000e+00 0.000000e+00 0.000000e+00 0.000000e+00
<ENDHMM>
