~o
<STREAMINFO> 1 1
<VECSIZE> 1<NULLD><USER><DIAGC>
~h "i"
<BEGINHMM>
<NUMSTATES> 8
<STATE> 2
<MEAN> 1
 -6.799714e+00
<VARIANCE> 1
 4.922649e+00
<GCONST> 3.431724e+00
<STATE> 3
<MEAN> 1
 -2.867221e+00
<VARIANCE> 1
 2.719648e+00
<GCONST> 2.838379e+00
<STATE> 4
<MEAN> 1
 4.814626e+00
<VARIANCE> 1
 2.392391e+01
<GCONST> 5.012755e+00
<STATE> 5
<MEAN> 1
 -7.095463e-02
<VARIANCE> 1
 1.460822e+00
<GCONST> 2.216877e+00
<STATE> 6
<MEAN> 1
 -5.239687e+00
<VARIANCE> 1
 5.156209e+00
<GCONST> 3.478079e+00
<STATE> 7
<MEAN> 1
 6.038737e+00
<VARIANCE> 1
 2.608164e+01
<GCONST> 5.099109e+00
<TRANSP> 8
 0.000000e+00 1.000000e+00 0.000000e+00 0.000000e+00 0.000000e+00 0.000000e+00 0.000000e+00 0.000000e+00
 0.000000e+00 9.437546e-01 5.624544e-02 0.000000e+00 0.000000e+00 0.000000e+00 0.000000e+00 0.000000e+00
 0.000000e+00 0.000000e+00 9.269450e-01 7.305503e-02 0.000000e+00 0.000000e+00 0.000000e+00 0.000000e+00
 0.000000e+00 0.000000e+00 0.000000e+00 7.872928e-01 2.127072e-01 0.000000e+00 0.000000e+00 0.000000e+00
 0.000000e+00 0.000000e+00 0.000000e+00 0.000000e+00 9.422933e-01 5.770672e-02 0.000000e+00 0.000000e+00
 0.000000e+00 0.000000e+00 0.000000e+00 0.000000e+00 0.000000e+00 9.272670e-01 7.273301e-02 0.000000e+00
 0.000000e+00 0.000000e+00 0.000000e+00 0.000000e+00 0.000000e+00 0.000000e+00 8.908318e-01 1.091682e-01
 0.000000e+00 0.000000e+00 0.000000e+00 0.000000e+00 0.000000e+00 0.000000e+00 0.000000e+00 0.000000e+00
<ENDHMM>
