~o
<STREAMINFO> 1 1
<VECSIZE> 1<NULLD><USER><DIAGC>
~h "a"
<BEGINHMM>
<NUMSTATES> 8
<STATE> 2
<MEAN> 1
 8.704027e+00
<VARIANCE> 1
 1.780542e+00
<GCONST> 2.414795e+00
<STATE> 3
<MEAN> 1
 1.442600e+01
<VARIANCE> 1
 3.627238e+00
<GCONST> 3.126348e+00
<STATE> 4
<MEAN> 1
 1.084171e+01
<VARIANCE> 1
 1.543368e+00
<GCONST> 2.271844e+00
<STATE> 5
<MEAN> 1
 8.279963e+00
<VARIANCE> 1
 1.088085e+00
<GCONST> 1.922296e+00
<STATE> 6
<MEAN> 1
 6.482082e+00
<VARIANCE> 1
 1.303259e+00
<GCONST> 2.102746e+00
<STATE> 7
<MEAN> 1
 3.059813e+00
<VARIANCE> 1
 1.229813e+00
<GCONST> 2.044739e+00
<TRANSP> 8
 0.000000e+00 1.000000e+00 0.000000e+00 0.000000e+00 0.000000e+00 0.000000e+00 0.000000e+00 0.000000e+00
 0.000000e+00 9.467124e-01 5.328757e-02 0.000000e+00 0.000000e+00 0.000000e+00 0.000000e+00 0.000000e+00
 0.000000e+00 0.000000e+00 9.719661e-01 2.803380e-02 0.000000e+00 0.000000e+00 0.000000e+00 0.000000e+00
 0.000000e+00 0.000000e+00 0.000000e+00 9.472353e-01 5.276463e-02 0.000000e+00 0.000000e+00 0.000000e+00
 0.000000e+00 0.000000e+00 0.000000e+00 0.000000e+00 0.000000e+00 1.000000e+00 0.000000e+00 0.000000e+00
 0.000000e+00 0.000000e+00 0.000000e+00 0.000000e+00 0.000000e+00 9.112532e-01 8.874678e-02 0.000000e+00
 0.000000e+00 0.000000e+00 0.000000e+00 0.000000e+00 0.000000e+00 0.000000e+00 8.761601e-01 1.238399e-01
 0.000000e+00 0.000000e+00 0.000000e+00 0.000000e+00 0.000000e+00 0.000000e+00 0.000000e+00 0.000000e+00
<ENDHMM>
~h "e"
<BEGINHMM>
<NUMSTATES> 8
<STATE> 2
<MEAN> 1
 5.092103e+00
<VARIANCE> 1
 3.491729e+01
<GCONST> 5.390859e+00
<STATE> 3
<MEAN> 1
 -3.315405e-01
<VARIANCE> 1
 4.463133e-01
<GCONST> 1.031143e+00
<STATE> 4
<MEAN> 1
 -2.019490e+00
<VARIANCE> 1
 5.351022e-02
<GCONST> -1.090006e+00
<STATE> 5
<MEAN> 1
 -2.485483e+00
<VARIANCE> 1
 1.118271e-01
<GCONST> -3.529246e-01
<STATE> 6
<MEAN> 1
 -5.953713e+00
<VARIANCE> 1
 2.258218e+00
<GCONST> 2.652453e+00
<STATE> 7
<MEAN> 1
 -3.953295e+00
<VARIANCE> 1
 1.043532e+00
<GCONST> 1.880488e+00
<TRANSP> 8
 0.000000e+00 1.000000e+00 0.000000e+00 0.000000e+00 0.000000e+00 0.000000e+00 0.000000e+00 0.000000e+00
 0.000000e+00 7.801911e-01 2.198090e-01 0.000000e+00 0.000000e+00 0.000000e+00 0.000000e+00 0.000000e+00
 0.000000e+00 0.000000e+00 9.539941e-01 4.600591e-02 0.000000e+00 0.000000e+00 0.000000e+00 0.000000e+00
 0.000000e+00 0.000000e+00 0.000000e+00 0.000000e+00 1.000000e+00 0.000000e+00 0.000000e+00 0.000000e+00
 0.000000e+00 0.000000e+00 0.000000e+00 0.000000e+00 0.000000e+00 1.000000e+00 0.000000e+00 0.000000e+00
 0.000000e+00 0.000000e+00 0.000000e+00 0.000000e+00 0.000000e+00 9.489867e-01 5.101330e-02 0.000000e+00
 0.000000e+00 0.000000e+00 0.000000e+00 0.000000e+00 0.000000e+00 0.000000e+00 9.511548e-01 4.884515e-02
 0.000000e+00 0.000000e+00 0.000000e+00 0.000000e+00 0.000000e+00 0.000000e+00 0.000000e+00 0.000000e+00
<ENDHMM>
~h "i"
<BEGINHMM>
<NUMSTATES> 8
<STATE> 2
<MEAN> 1
 -7.713930e+00
<VARIANCE> 1
 1.939249e+00
<GCONST> 2.500178e+00
<STATE> 3
<MEAN> 1
 -3.065969e+00
<VARIANCE> 1
 1.312050e+00
<GCONST> 2.109468e+00
<STATE> 4
<MEAN> 1
 1.576792e+00
<VARIANCE> 1
 3.586307e+00
<GCONST> 3.115000e+00
<STATE> 5
<MEAN> 1
 -1.154397e-01
<VARIANCE> 1
 1.280020e-01
<GCONST> -2.178326e-01
<STATE> 6
<MEAN> 1
 -3.966679e+00
<VARIANCE> 1
 6.273432e+00
<GCONST> 3.674201e+00
<STATE> 7
<MEAN> 1
 3.359303e+00
<VARIANCE> 1
 8.974886e+00
<GCONST> 4.032307e+00
<TRANSP> 8
 0.000000e+00 1.000000e+00 0.000000e+00 0.000000e+00 0.000000e+00 0.000000e+00 0.000000e+00 0.000000e+00
 0.000000e+00 9.720500e-01 2.795004e-02 0.000000e+00 0.000000e+00 0.000000e+00 0.000000e+00 0.000000e+00
 0.000000e+00 0.000000e+00 9.210501e-01 7.894994e-02 0.000000e+00 0.000000e+00 0.000000e+00 0.000000e+00
 0.000000e+00 0.000000e+00 0.000000e+00 8.775248e-01 1.224752e-01 0.000000e+00 0.000000e+00 0.000000e+00
 0.000000e+00 0.000000e+00 0.000000e+00 0.000000e+00 9.354934e-01 6.450661e-02 0.000000e+00 0.000000e+00
 0.000000e+00 0.000000e+00 0.000000e+00 0.000000e+00 0.000000e+00 8.886215e-01 1.113785e-01 0.000000e+00
 0.000000e+00 0.000000e+00 0.000000e+00 0.000000e+00 0.000000e+00 0.000000e+00 8.388926e-01 1.611074e-01
 0.000000e+00 0.000000e+00 0.000000e+00 0.000000e+00 0.000000e+00 0.000000e+00 0.000000e+00 0.000000e+00
<ENDHMM>
~h "m"
<BEGINHMM>
<NUMSTATES> 8
<STATE> 2
<MEAN> 1
 -9.153724e-01
<VARIANCE> 1
 8.186237e-01
<GCONST> 1.637746e+00
<STATE> 3
<MEAN> 1
 1.342471e+00
<VARIANCE> 1
 4.535936e-01
<GCONST> 1.047323e+00
<STATE> 4
<MEAN> 1
 2.221884e+00
<VARIANCE> 1
 1.201091e+00
<GCONST> 2.021107e+00
<STATE> 5
<MEAN> 1
 2.877752e+00
<VARIANCE> 1
 1.868722e+00
<GCONST> 2.463132e+00
<STATE> 6
<MEAN> 1
 9.502199e+00
<VARIANCE> 1
 1.342664e+01
<GCONST> 4.435118e+00
<STATE> 7
<MEAN> 1
 4.933006e+00
<VARIANCE> 1
 1.912455e+00
<GCONST> 2.486265e+00
<TRANSP> 8
 0.000000e+00 1.000000e+00 0.000000e+00 0.000000e+00 0.000000e+00 0.000000e+00 0.000000e+00 0.000000e+00
 0.000000e+00 9.165397e-01 8.346032e-02 0.000000e+00 0.000000e+00 0.000000e+00 0.000000e+00 0.000000e+00
 0.000000e+00 0.000000e+00 8.971602e-01 1.028397e-01 0.000000e+00 0.000000e+00 0.000000e+00 0.000000e+00
 0.000000e+00 0.000000e+00 0.000000e+00 0.000000e+00 1.000000e+00 0.000000e+00 0.000000e+00 0.000000e+00
 0.000000e+00 0.000000e+00 0.000000e+00 0.000000e+00 0.000000e+00 1.000000e+00 0.000000e+00 0.000000e+00
 0.000000e+00 0.000000e+00 0.000000e+00 0.000000e+00 0.000000e+00 8.879210e-01 1.120790e-01 0.000000e+00
 0.000000e+00 0.000000e+00 0.000000e+00 0.000000e+00 0.000000e+00 0.000000e+00 9.149720e-01 8.502802e-02
 0.000000e+00 0.000000e+00 0.000000e+00 0.000000e+00 0.000000e+00 0.000000e+00 0.000000e+00 0.000000e+00
<ENDHMM>
~h "sil"
<BEGINHMM>
<NUMSTATES> 8
<STATE> 2
<MEAN> 1
 4.100863e-01
<VARIANCE> 1
 5.712741e-01
<GCONST> 1.277991e+00
<STATE> 3
<MEAN> 1
 2.959683e+00
<VARIANCE> 1
 1.304075e+00
<GCONST> 2.103371e+00
<STATE> 4
<MEAN> 1
 5.778735e+00
<VARIANCE> 1
 2.400140e+00
<GCONST> 2.713404e+00
<STATE> 5
<MEAN> 1
 2.791465e+00
<VARIANCE> 1
 2.020938e+01
<GCONST> 4.844024e+00
<STATE> 6
<MEAN> 1
 4.684322e+00
<VARIANCE> 1
 1.588170e+01
<GCONST> 4.603045e+00
<STATE> 7
<MEAN> 1
 1.063880e+01
<VARIANCE> 1
 1.348245e+01
<GCONST> 4.439266e+00
<TRANSP> 8
 0.000000e+00 1.000000e+00 0.000000e+00 0.000000e+00 0.000000e+00 0.000000e+00 0.000000e+00 0.000000e+00
 0.000000e+00 9.347245e-01 6.527553e-02 0.000000e+00 0.000000e+00 0.000000e+00 0.000000e+00 0.000000e+00
 0.000000e+00 0.000000e+00 9.141722e-01 8.582781e-02 0.000000e+00 0.000000e+00 0.000000e+00 0.000000e+00
 0.000000e+00 0.000000e+00 0.000000e+00 9.134213e-01 8.657865e-02 0.000000e+00 0.000000e+00 0.000000e+00
 0.000000e+00 0.000000e+00 0.000000e+00 0.000000e+00 5.714518e-01 4.285482e-01 0.000000e+00 0.000000e+00
 0.000000e+00 0.000000e+00 0.000000e+00 0.000000e+00 0.000000e+00 0.000000e+00 1.000000e+00 0.000000e+00
 0.000000e+00 0.000000e+00 0.000000e+00 0.000000e+00 0.000000e+00 0.000000e+00 9.008687e-01 9.913129e-02
 0.000000e+00 0.000000e+00 0.000000e+00 0.000000e+00 0.000000e+00 0.000000e+00 0.000000e+00 0.000000e+00
<ENDHMM>
