~o
<STREAMINFO> 1 20
<VECSIZE> 20<NULLD><USER><DIAGC>
~h "a"
<BEGINHMM>
<NUMSTATES> 14
<STATE> 2
<MEAN> 20
 4.288638e+03 3.401464e+00 0.000000e+00 0.000000e+00 0.000000e+00 0.000000e+00 0.000000e+00 0.000000e+00 0.000000e+00 4.999579e+01 1.910817e+01 6.522810e+01 2.009563e+03 1.103168e+03 5.959064e+02 2.965709e+02 2.389877e+02 1.160195e+01 1.900813e+00 0.000000e+00
<VARIANCE> 20
 1.451832e+07 4.625493e+01 1.000000e-02 1.000000e-02 1.000000e-02 1.000000e-02 1.000000e-02 1.000000e-02 1.000000e-02 4.751010e+03 2.503004e+03 5.129135e+03 9.006274e+06 3.064942e+06 1.109184e+06 1.864932e+05 1.968690e+05 4.686316e+02 3.250236e+01 1.000000e-02
<GCONST> 1.239010e+02
<STATE> 3
<MEAN> 20
 3.882119e+03 8.723862e+00 0.000000e+00 0.000000e+00 0.000000e+00 0.000000e+00 0.000000e+00 0.000000e+00 0.000000e+00 7.838600e+00 6.497450e+01 4.252878e+01 1.248054e+03 8.027838e+02 5.749117e+02 7.776556e+02 3.512392e+02 3.626123e+01 2.726203e-01 0.000000e+00
<VARIANCE> 20
 9.033117e+06 4.153381e+02 1.000000e-02 1.000000e-02 1.000000e-02 1.000000e-02 1.000000e-02 1.000000e-02 1.000000e-02 2.865566e+02 3.838132e+04 6.760848e+03 6.708070e+06 1.158558e+06 1.213735e+06 1.141188e+06 2.914754e+05 8.576260e+03 7.435391e-01 1.000000e-02
<GCONST> 1.259753e+02
<STATE> 4
<MEAN> 20
 4.004873e+03 1.273123e+02 0.000000e+00 0.000000e+00 1.874997e-01 2.062498e+00 2.124998e+01 1.874998e+01 1.762498e+01 8.187503e+01 1.122499e+02 1.895623e+02 1.074936e+03 1.191688e+03 1.048124e+03 4.613127e+02 1.603750e+02 3.287496e+01 2.812497e+00 0.000000e+00
<VARIANCE> 20
 1.135044e+07 7.833901e+04 1.000000e-02 1.000000e-02 5.273433e-01 6.380851e+01 6.164056e+03 2.953059e+03 1.729983e+03 1.520985e+04 3.281954e+04 1.615399e+05 5.106246e+06 1.953608e+06 5.159716e+06 2.927061e+05 6.100945e+04 9.465347e+03 1.186522e+02 1.000000e-02
<GCONST> 1.930904e+02
<STATE> 5
<MEAN> 20
 7.611813e+03 9.210533e-01 0.000000e+00 0.000000e+00 0.000000e+00 0.000000e+00 0.000000e+00 0.000000e+00 0.000000e+00 2.254210e+02 5.263156e-02 1.830000e+02 5.127498e+03 1.947763e+03 5.426576e+02 3.486845e+01 2.236845e+00 7.894734e-02 0.000000e+00 0.000000e+00
<VARIANCE> 20
 7.774817e+06 9.441147e+00 1.000000e-02 1.000000e-02 1.000000e-02 1.000000e-02 1.000000e-02 1.000000e-02 1.000000e-02 1.157576e+05 4.986148e-02 5.670300e+04 1.230727e+07 1.654697e+06 9.622019e+05 4.730337e+03 3.028608e+01 7.271466e-02 1.000000e-02 1.000000e-02
<GCONST> 8.670184e+01
<STATE> 6
<MEAN> 20
 2.561951e+03 1.924785e+02 1.565211e+00 0.000000e+00 0.000000e+00 0.000000e+00 2.521744e+00 2.130438e+00 4.043467e+00 3.604345e+01 4.643476e+01 9.330421e+01 1.767387e+02 8.331715e+02 1.000910e+03 3.912614e+02 1.721307e+02 6.126097e+01 2.178264e+01 3.739137e+00
<VARIANCE> 20
 5.515274e+06 5.238498e+04 5.389771e+01 1.000000e-02 1.000000e-02 1.000000e-02 1.088584e+02 4.872219e+01 1.476933e+02 7.197001e+03 6.732682e+03 3.591915e+04 1.319570e+05 1.215496e+06 1.972632e+06 2.788178e+05 3.393734e+04 9.154378e+03 1.699042e+03 1.125408e+02
<GCONST> 1.796245e+02
<STATE> 7
<MEAN> 20
 3.164855e+03 8.471439e+01 0.000000e+00 0.000000e+00 2.142861e-01 0.000000e+00 0.000000e+00 1.357142e+00 1.642858e+00 1.635715e+01 3.600002e+01 5.092859e+01 2.117854e+02 6.458562e+02 1.113356e+03 9.195009e+02 2.793573e+02 1.035715e+01 1.999996e+00 0.000000e+00
<VARIANCE> 20
 2.590922e+06 1.891194e+04 1.000000e-02 1.000000e-02 3.112251e-01 1.000000e-02 1.000000e-02 8.801011e+00 1.694388e+01 5.259437e+02 3.552002e+03 2.321638e+03 1.585263e+05 5.189882e+05 1.326850e+06 1.116587e+06 1.567874e+05 2.880869e+02 5.199989e+01 1.000000e-02
<GCONST> 1.391094e+02
<STATE> 8
<MEAN> 20
 4.136458e+03 2.276922e+01 0.000000e+00 0.000000e+00 0.000000e+00 0.000000e+00 3.076921e-01 3.615383e+00 2.130768e+01 1.293845e+02 2.760769e+02 1.598462e+02 4.165377e+02 1.064153e+03 7.046916e+02 1.298231e+03 3.457690e+02 2.776916e+01 1.869226e+01 2.076920e+00
<VARIANCE> 20
 3.345157e+06 2.224484e+03 1.000000e-02 1.000000e-02 1.000000e-02 1.000000e-02 1.136094e+00 4.762128e+01 2.372674e+03 2.564592e+04 2.056768e+05 4.438543e+04 2.510520e+05 1.213111e+06 3.731029e+05 2.334462e+06 2.503923e+05 3.471400e+03 3.094513e+03 3.484015e+01
<GCONST> 1.720230e+02
<STATE> 9
<MEAN> 20
 2.300396e+03 1.587004e+02 4.000009e-01 0.000000e+00 8.000018e-01 0.000000e+00 1.900004e+01 8.290018e+01 1.440003e+01 3.909999e+01 1.777004e+02 8.110004e+01 8.724977e+02 9.093988e+02 4.302999e+02 2.569995e+01 3.389997e+01 6.710008e+01 1.800002e+01 0.000000e+00
<VARIANCE> 20
 4.234947e+06 6.528050e+04 1.440003e+00 1.000000e-02 5.760012e+00 1.000000e-02 1.876204e+03 1.813412e+04 4.972407e+02 1.499490e+03 8.039753e+04 8.472503e+03 1.352204e+06 6.952015e+05 2.535258e+05 1.736605e+03 2.428685e+03 1.885913e+04 1.207002e+03 1.000000e-02
<GCONST> 1.748147e+02
<STATE> 10
<MEAN> 20
 4.802490e+03 3.612014e+00 0.000000e+00 0.000000e+00 0.000000e+00 0.000000e+00 0.000000e+00 0.000000e+00 9.230700e-01 7.657391e+01 6.541759e+00 1.116326e+02 8.634291e+02 1.754261e+03 1.946269e+03 1.743124e+02 1.587580e+01 1.127749e+01 0.000000e+00 0.000000e+00
<VARIANCE> 20
 4.181627e+06 3.120345e+02 1.000000e-02 1.000000e-02 1.000000e-02 1.000000e-02 1.000000e-02 1.000000e-02 6.251568e+00 5.826900e+04 7.144038e+02 1.077903e+05 2.205387e+06 2.245068e+06 2.007630e+06 6.147962e+04 1.879957e+03 3.019318e+03 1.000000e-02 1.000000e-02
<GCONST> 1.221919e+02
<STATE> 11
<MEAN> 20
 9.342906e+03 1.696051e+00 0.000000e+00 0.000000e+00 0.000000e+00 0.000000e+00 0.000000e+00 0.000000e+00 0.000000e+00 1.768188e+02 0.000000e+00 3.929813e+02 5.336743e+03 2.894456e+03 3.396585e+02 1.098460e+02 2.051092e+02 1.939593e+02 4.533754e+01 3.329942e+00
<VARIANCE> 20
 5.637610e+06 6.142809e+01 1.000000e-02 1.000000e-02 1.000000e-02 1.000000e-02 1.000000e-02 1.000000e-02 1.000000e-02 3.303471e+04 1.000000e-02 9.069862e+05 4.714594e+06 1.259701e+06 6.398484e+04 4.795861e+03 1.506009e+04 1.610444e+04 3.871011e+03 5.700164e+01
<GCONST> 1.242677e+02
<STATE> 12
<MEAN> 20
 1.158634e+04 9.987912e-01 0.000000e+00 0.000000e+00 0.000000e+00 0.000000e+00 0.000000e+00 0.000000e+00 4.173768e-01 2.328377e+02 1.031268e+01 8.367859e+02 6.677673e+03 3.186246e+03 3.606358e+02 1.570810e+02 3.503485e+02 1.933947e+02 4.357911e+01 4.539795e+00
<VARIANCE> 20
 2.890136e+06 1.098791e+01 1.000000e-02 1.000000e-02 1.000000e-02 1.000000e-02 1.000000e-02 1.000000e-02 1.909035e+00 3.300407e+04 9.598301e+02 7.985860e+05 4.377811e+06 2.238297e+06 3.338183e+04 2.945471e+03 2.736254e+04 3.515804e+03 2.550355e+03 1.003005e+02
<GCONST> 1.370596e+02
<STATE> 13
<MEAN> 20
 1.573191e+04 8.162651e+03 6.250010e+01 0.000000e+00 0.000000e+00 0.000000e+00 4.000007e+00 7.100011e+01 1.643734e+02 1.155968e+03 1.877148e+03 1.233774e+04 7.042994e+03 3.181724e+03 2.994128e+02 1.144223e+02 2.330333e+02 2.168980e+02 4.513809e+01 3.894193e+00
<VARIANCE> 20
 1.761598e+08 4.607568e+08 2.672354e+04 1.000000e-02 1.000000e-02 1.000000e-02 1.120002e+02 3.528705e+04 1.884783e+05 7.861197e+06 2.435850e+07 9.457836e+08 1.811585e+07 4.640441e+06 6.088277e+04 7.694242e+03 2.255742e+04 3.765377e+04 1.965524e+03 4.046913e+01
<GCONST> 2.368321e+02
<TRANSP> 14
 0.000000e+00 1.000000e+00 0.000000e+00 0.000000e+00 0.000000e+00 0.000000e+00 0.000000e+00 0.000000e+00 0.000000e+00 0.000000e+00 0.000000e+00 0.000000e+00 0.000000e+00 0.000000e+00
 0.000000e+00 1.996556e-01 8.003444e-01 0.000000e+00 0.000000e+00 0.000000e+00 0.000000e+00 0.000000e+00 0.000000e+00 0.000000e+00 0.000000e+00 0.000000e+00 0.000000e+00 0.000000e+00
 0.000000e+00 0.000000e+00 2.730110e-01 7.269890e-01 0.000000e+00 0.000000e+00 0.000000e+00 0.000000e+00 0.000000e+00 0.000000e+00 0.000000e+00 0.000000e+00 0.000000e+00 0.000000e+00
 0.000000e+00 0.000000e+00 0.000000e+00 4.999992e-01 5.000008e-01 0.000000e+00 0.000000e+00 0.000000e+00 0.000000e+00 0.000000e+00 0.000000e+00 0.000000e+00 0.000000e+00 0.000000e+00
 0.000000e+00 0.000000e+00 0.000000e+00 0.000000e+00 7.894735e-01 2.105265e-01 0.000000e+00 0.000000e+00 0.000000e+00 0.000000e+00 0.000000e+00 0.000000e+00 0.000000e+00 0.000000e+00
 0.000000e+00 0.000000e+00 0.000000e+00 0.000000e+00 0.000000e+00 6.521743e-01 3.478256e-01 0.000000e+00 0.000000e+00 0.000000e+00 0.000000e+00 0.000000e+00 0.000000e+00 0.000000e+00
 0.000000e+00 0.000000e+00 0.000000e+00 0.000000e+00 0.000000e+00 0.000000e+00 4.285711e-01 5.714290e-01 0.000000e+00 0.000000e+00 0.000000e+00 0.000000e+00 0.000000e+00 0.000000e+00
 0.000000e+00 0.000000e+00 0.000000e+00 0.000000e+00 0.000000e+00 0.000000e+00 0.000000e+00 3.846150e-01 6.153850e-01 0.000000e+00 0.000000e+00 0.000000e+00 0.000000e+00 0.000000e+00
 0.000000e+00 0.000000e+00 0.000000e+00 0.000000e+00 0.000000e+00 0.000000e+00 0.000000e+00 0.000000e+00 2.000005e-01 7.999995e-01 0.000000e+00 0.000000e+00 0.000000e+00 0.000000e+00
 0.000000e+00 0.000000e+00 0.000000e+00 0.000000e+00 0.000000e+00 0.000000e+00 0.000000e+00 0.000000e+00 0.000000e+00 6.789318e-01 3.210681e-01 0.000000e+00 0.000000e+00 0.000000e+00
 0.000000e+00 0.000000e+00 0.000000e+00 0.000000e+00 0.000000e+00 0.000000e+00 0.000000e+00 0.000000e+00 0.000000e+00 0.000000e+00 9.446186e-01 5.538142e-02 0.000000e+00 0.000000e+00
 0.000000e+00 0.000000e+00 0.000000e+00 0.000000e+00 0.000000e+00 0.000000e+00 0.000000e+00 0.000000e+00 0.000000e+00 0.000000e+00 0.000000e+00 3.341453e-01 6.658548e-01 0.000000e+00
 0.000000e+00 0.000000e+00 0.000000e+00 0.000000e+00 0.000000e+00 0.000000e+00 0.000000e+00 0.000000e+00 0.000000e+00 0.000000e+00 0.000000e+00 0.000000e+00 0.000000e+00 1.000000e+00
 0.000000e+00 0.000000e+00 0.000000e+00 0.000000e+00 0.000000e+00 0.000000e+00 0.000000e+00 0.000000e+00 0.000000e+00 0.000000e+00 0.000000e+00 0.000000e+00 0.000000e+00 0.000000e+00
<ENDHMM>
~h "b"
<BEGINHMM>
<NUMSTATES> 14
<STATE> 2
<MEAN> 20
 3.089107e+03 1.646083e+01 9.136328e+00 1.233596e+00 1.025427e+01 5.987977e+02 3.579521e+02 6.747906e+01 4.653535e+01 1.167138e+02 3.568912e+02 3.293439e+02 5.360358e+02 7.160325e+02 1.806184e+03 4.211896e+02 1.366208e+02 1.079397e+01 5.782483e-01 0.000000e+00
<VARIANCE> 20
 3.874050e+06 7.474918e+02 8.540231e+02 1.921807e+01 6.822701e+02 7.197128e+05 1.750092e+05 3.661807e+03 7.895428e+02 5.071643e+03 3.025884e+05 1.757706e+05 1.876826e+06 4.562612e+05 1.151023e+06 1.650932e+05 7.335785e+04 7.643552e+02 3.867566e+00 1.000000e-02
<GCONST> 2.164761e+02
<STATE> 3
<MEAN> 20
 5.540305e+03 1.105236e+00 0.000000e+00 0.000000e+00 2.105266e-01 4.789479e+01 1.193159e+02 2.321053e+01 1.436842e+01 4.494655e+01 8.142113e+01 2.101520e+02 4.563125e+02 1.296420e+03 3.470736e+03 2.763156e+02 0.000000e+00 0.000000e+00 0.000000e+00 0.000000e+00
<VARIANCE> 20
 6.831030e+06 7.252030e+00 1.000000e-02 1.000000e-02 7.977849e-01 2.012601e+04 1.254355e+05 1.100271e+03 4.378115e+02 3.951924e+03 1.007161e+05 2.631364e+05 2.508752e+06 1.755028e+06 3.227727e+06 1.335117e+05 1.000000e-02 1.000000e-02 1.000000e-02 1.000000e-02
<GCONST> 1.495383e+02
<STATE> 4
<MEAN> 20
 4.056133e+03 1.599998e+01 0.000000e+00 0.000000e+00 3.333331e-01 4.918751e+02 1.963750e+02 6.566668e+01 6.475002e+01 1.874187e+02 5.854167e+01 3.493408e+02 1.088294e+03 1.193750e+03 1.858501e+03 4.200417e+02 1.070000e+02 3.083334e+00 0.000000e+00 0.000000e+00
<VARIANCE> 20
 6.371364e+06 1.779248e+03 1.000000e-02 1.000000e-02 1.055554e+00 3.632312e+05 4.621165e+04 6.039056e+03 5.461271e+03 4.300091e+04 6.664082e+03 1.348740e+05 3.874533e+06 9.731902e+05 1.924143e+06 2.061688e+05 4.008444e+04 3.932642e+01 1.000000e-02 1.000000e-02
<GCONST> 1.836183e+02
<STATE> 5
<MEAN> 20
 7.798781e+03 1.720556e+02 6.666667e+00 1.777779e+00 5.055556e+00 9.233889e+02 2.323889e+02 7.966667e+01 7.905556e+01 3.722776e+02 2.140556e+02 6.769458e+02 2.681446e+03 2.175000e+03 3.010445e+03 5.650002e+02 3.132221e+02 3.077779e+01 3.055555e+00 1.166666e+00
<VARIANCE> 20
 2.155062e+07 3.986927e+04 1.493334e+02 4.406176e+01 5.427471e+01 1.174560e+06 9.461559e+04 1.017889e+04 1.446850e+04 2.907775e+05 5.010639e+04 5.693517e+05 1.190296e+07 2.812972e+06 1.581517e+07 1.302418e+05 1.546723e+05 2.598174e+03 2.838581e+01 6.916660e+00
<GCONST> 2.425060e+02
<STATE> 6
<MEAN> 20
 8.900902e+03 3.442855e+01 0.000000e+00 0.000000e+00 0.000000e+00 1.025833e+03 1.849039e+02 1.005234e+02 1.039759e+02 6.753086e+02 7.690485e+00 4.968309e+02 5.495374e+03 2.364120e+03 1.763836e+03 6.214521e+02 2.725481e+02 3.952391e+00 7.142866e-02 0.000000e+00
<VARIANCE> 20
 6.246086e+06 2.172106e+03 1.000000e-02 1.000000e-02 1.000000e-02 8.959877e+05 5.607056e+04 1.287433e+04 9.268525e+03 2.982070e+05 2.218331e+02 2.885570e+05 1.767502e+07 1.831578e+06 5.513250e+06 2.314650e+05 2.125448e+05 2.291886e+02 2.091839e-01 1.000000e-02
<GCONST> 1.906054e+02
<STATE> 7
<MEAN> 20
 7.927978e+03 2.937487e+01 5.750021e+00 1.125004e+00 3.500014e+00 5.644959e+02 3.338756e+02 1.036250e+02 1.072499e+02 5.414978e+02 2.138761e+02 8.915001e+02 5.268599e+03 2.197497e+03 6.197536e+02 3.422465e+02 7.387512e+01 1.112505e+01 0.000000e+00 0.000000e+00
<VARIANCE> 20
 1.319252e+07 1.319987e+03 1.286878e+02 8.859402e+00 3.650009e+01 4.637679e+05 2.272888e+05 2.238231e+04 2.408677e+04 2.589865e+05 1.385629e+05 6.304797e+05 1.208992e+07 2.066238e+06 4.470928e+05 1.966058e+05 2.102746e+04 8.228629e+02 1.000000e-02 1.000000e-02
<GCONST> 2.176233e+02
<STATE> 8
<MEAN> 20
 8.687849e+03 1.932581e+01 0.000000e+00 0.000000e+00 5.021542e-02 1.494254e+03 2.325601e+02 1.382138e+02 1.494708e+02 8.488298e+02 8.908154e+01 9.690775e+02 6.474773e+03 2.408219e+03 3.697914e+02 6.925226e+02 4.855843e+02 4.969409e+01 2.062863e+01 1.118089e+01
<VARIANCE> 20
 6.346538e+06 5.429421e+03 1.000000e-02 1.000000e-02 4.769384e-02 6.356884e+05 1.328096e+04 4.483807e+03 4.000269e+03 1.006713e+05 5.746043e+04 4.255312e+05 5.764170e+06 1.033125e+06 5.610375e+04 1.570086e+05 1.767271e+05 4.426691e+03 2.107133e+03 9.022533e+02
<GCONST> 2.110157e+02
<STATE> 9
<MEAN> 20
 9.621380e+03 3.014091e+01 2.499997e-01 0.000000e+00 2.125000e+00 1.866704e+03 3.303441e+02 1.766164e+02 1.802997e+02 1.128201e+03 1.190751e+02 1.276494e+03 7.647337e+03 2.182112e+03 5.148455e+02 1.028187e+03 5.367872e+02 3.122262e+01 0.000000e+00 0.000000e+00
<VARIANCE> 20
 8.427195e+06 1.423225e+03 4.374996e-01 1.000000e-02 1.410938e+01 1.733291e+06 2.540074e+04 1.081535e+04 1.404044e+04 4.982970e+05 3.474132e+04 6.248708e+05 1.043259e+07 1.312552e+06 2.542819e+05 6.879952e+05 2.967396e+05 2.244740e+03 1.000000e-02 1.000000e-02
<GCONST> 2.046889e+02
<STATE> 10
<MEAN> 20
 8.891657e+03 1.369219e+01 6.044939e-02 0.000000e+00 0.000000e+00 1.503871e+03 2.243271e+02 1.224898e+02 1.326562e+02 8.041179e+02 2.518958e+01 4.465318e+02 5.213078e+03 4.069785e+03 6.671522e+02 6.070151e+02 5.174357e+02 8.280341e+01 5.238526e+01 1.149568e+01
<VARIANCE> 20
 4.172714e+06 8.436351e+02 1.172445e-01 1.000000e-02 1.000000e-02 6.526170e+05 1.859037e+04 5.014876e+03 4.756916e+03 1.598992e+05 5.601634e+03 5.280909e+05 5.741608e+06 2.948646e+06 2.835012e+05 9.202855e+04 1.651031e+05 7.717308e+03 5.604549e+03 7.441768e+02
<GCONST> 2.120364e+02
<STATE> 11
<MEAN> 20
 7.857413e+03 6.168543e+01 1.415358e+01 2.923069e+00 4.537292e+00 1.810209e+03 4.718912e+02 2.242412e+02 1.915832e+02 1.156214e+03 1.772341e+02 1.468538e+03 6.479518e+03 1.896858e+03 4.202832e+02 7.119379e+02 5.485994e+02 7.642719e+01 1.530081e+01 1.537770e-01
<VARIANCE> 20
 1.145658e+07 5.989807e+03 5.220522e+02 4.235978e+01 6.314631e+01 1.232938e+06 1.378771e+05 2.701841e+04 1.810138e+04 4.817052e+05 4.809358e+04 1.578115e+06 9.741421e+06 2.115986e+06 1.234316e+05 4.237107e+05 2.288711e+05 2.016596e+04 2.046783e+03 2.839067e-01
<GCONST> 2.438184e+02
<STATE> 12
<MEAN> 20
 9.902885e+03 2.165672e+01 2.062163e+00 5.990940e-01 1.199697e+00 1.452061e+03 4.044627e+02 2.097159e+02 2.155011e+02 1.303320e+03 1.993557e+01 9.968022e+02 8.166805e+03 2.782903e+03 5.462644e+02 9.407974e+02 4.681766e+01 9.536939e+00 3.534670e+00 6.669188e-02
<VARIANCE> 20
 4.377934e+06 1.977505e+03 1.534760e+01 1.171601e+00 7.229148e+00 1.033920e+06 1.688394e+05 3.034071e+04 2.403857e+04 3.121129e+05 6.939104e+02 1.347716e+06 3.478639e+06 2.522514e+06 2.390895e+05 4.421207e+05 1.118742e+04 1.272829e+03 1.748436e+02 6.224409e-02
<GCONST> 2.181529e+02
<STATE> 13
<MEAN> 20
 1.000282e+04 1.169866e+00 0.000000e+00 0.000000e+00 1.949779e-01 6.084828e+02 1.355349e+02 8.571690e+01 1.053895e+02 8.396457e+02 1.419981e+00 8.566663e+02 8.123707e+03 2.090284e+03 2.326787e+02 3.334039e+02 1.182565e+02 9.783538e+00 1.093808e+01 1.814665e+00
<VARIANCE> 20
 6.960084e+06 7.210430e+00 1.000000e-02 1.000000e-02 5.469173e-01 3.318176e+05 1.124170e+04 3.410899e+03 5.020117e+03 1.632175e+05 1.287811e+01 1.640377e+06 6.352024e+06 1.513658e+06 2.771559e+04 1.149374e+05 2.694276e+04 2.098372e+02 7.233126e+02 1.839909e+01
<GCONST> 1.890596e+02
<TRANSP> 14
 0.000000e+00 1.000000e+00 0.000000e+00 0.000000e+00 0.000000e+00 0.000000e+00 0.000000e+00 0.000000e+00 0.000000e+00 0.000000e+00 0.000000e+00 0.000000e+00 0.000000e+00 0.000000e+00
 0.000000e+00 6.916007e-01 3.083993e-01 0.000000e+00 0.000000e+00 0.000000e+00 0.000000e+00 0.000000e+00 0.000000e+00 0.000000e+00 0.000000e+00 0.000000e+00 0.000000e+00 0.000000e+00
 0.000000e+00 0.000000e+00 5.789472e-01 4.210528e-01 0.000000e+00 0.000000e+00 0.000000e+00 0.000000e+00 0.000000e+00 0.000000e+00 0.000000e+00 0.000000e+00 0.000000e+00 0.000000e+00
 0.000000e+00 0.000000e+00 0.000000e+00 6.666667e-01 3.333333e-01 0.000000e+00 0.000000e+00 0.000000e+00 0.000000e+00 0.000000e+00 0.000000e+00 0.000000e+00 0.000000e+00 0.000000e+00
 0.000000e+00 0.000000e+00 0.000000e+00 0.000000e+00 5.555556e-01 4.444444e-01 0.000000e+00 0.000000e+00 0.000000e+00 0.000000e+00 0.000000e+00 0.000000e+00 0.000000e+00 0.000000e+00
 0.000000e+00 0.000000e+00 0.000000e+00 0.000000e+00 0.000000e+00 8.095233e-01 1.904767e-01 0.000000e+00 0.000000e+00 0.000000e+00 0.000000e+00 0.000000e+00 0.000000e+00 0.000000e+00
 0.000000e+00 0.000000e+00 0.000000e+00 0.000000e+00 0.000000e+00 0.000000e+00 0.000000e+00 1.000000e+00 0.000000e+00 0.000000e+00 0.000000e+00 0.000000e+00 0.000000e+00 0.000000e+00
 0.000000e+00 0.000000e+00 0.000000e+00 0.000000e+00 0.000000e+00 0.000000e+00 0.000000e+00 5.982786e-01 4.017214e-01 0.000000e+00 0.000000e+00 0.000000e+00 0.000000e+00 0.000000e+00
 0.000000e+00 0.000000e+00 0.000000e+00 0.000000e+00 0.000000e+00 0.000000e+00 0.000000e+00 0.000000e+00 0.000000e+00 1.000000e+00 0.000000e+00 0.000000e+00 0.000000e+00 0.000000e+00
 0.000000e+00 0.000000e+00 0.000000e+00 0.000000e+00 0.000000e+00 0.000000e+00 0.000000e+00 0.000000e+00 0.000000e+00 7.582028e-01 2.417973e-01 0.000000e+00 0.000000e+00 0.000000e+00
 0.000000e+00 0.000000e+00 0.000000e+00 0.000000e+00 0.000000e+00 0.000000e+00 0.000000e+00 0.000000e+00 0.000000e+00 0.000000e+00 3.848926e-01 6.151074e-01 0.000000e+00 0.000000e+00
 0.000000e+00 0.000000e+00 0.000000e+00 0.000000e+00 0.000000e+00 0.000000e+00 0.000000e+00 0.000000e+00 0.000000e+00 0.000000e+00 0.000000e+00 4.664653e-01 5.335346e-01 0.000000e+00
 0.000000e+00 0.000000e+00 0.000000e+00 0.000000e+00 0.000000e+00 0.000000e+00 0.000000e+00 0.000000e+00 0.000000e+00 0.000000e+00 0.000000e+00 0.000000e+00 4.800598e-01 5.199402e-01
 0.000000e+00 0.000000e+00 0.000000e+00 0.000000e+00 0.000000e+00 0.000000e+00 0.000000e+00 0.000000e+00 0.000000e+00 0.000000e+00 0.000000e+00 0.000000e+00 0.000000e+00 0.000000e+00
<ENDHMM>
~h "c"
<BEGINHMM>
<NUMSTATES> 14
<STATE> 2
<MEAN> 20
 6.547131e+03 4.775416e+00 3.673397e-01 0.000000e+00 0.000000e+00 0.000000e+00 0.000000e+00 0.000000e+00 0.000000e+00 1.249358e+02 9.734502e+00 2.441256e+01 2.912854e+03 3.187802e+03 5.123279e+02 2.843167e+01 1.646837e+00 0.000000e+00 0.000000e+00 0.000000e+00
<VARIANCE> 20
 5.244686e+06 2.255170e+02 1.334420e+00 1.000000e-02 1.000000e-02 1.000000e-02 1.000000e-02 1.000000e-02 1.000000e-02 8.966573e+04 9.370967e+02 4.590769e+03 2.014635e+06 1.508628e+06 7.862965e+04 8.990226e+02 6.440469e+00 1.000000e-02 1.000000e-02 1.000000e-02
<GCONST> 9.184812e+01
<STATE> 3
<MEAN> 20
 5.222552e+03 8.475947e+01 2.418167e+02 0.000000e+00 0.000000e+00 0.000000e+00 0.000000e+00 0.000000e+00 0.000000e+00 2.745170e+01 0.000000e+00 1.994780e+00 1.894856e+03 2.568389e+03 9.291154e+02 1.763838e+02 5.050730e+00 7.912243e-01 0.000000e+00 0.000000e+00
<VARIANCE> 20
 6.651456e+06 4.144868e+04 3.567200e+05 1.000000e-02 1.000000e-02 1.000000e-02 1.000000e-02 1.000000e-02 1.000000e-02 2.695255e+03 1.000000e-02 3.311225e+01 1.583242e+06 1.675097e+06 1.358724e+05 1.179435e+05 3.218398e+01 2.341055e+00 1.000000e-02 1.000000e-02
<GCONST> 1.022633e+02
<STATE> 4
<MEAN> 20
 2.580746e+03 1.354201e+02 0.000000e+00 0.000000e+00 0.000000e+00 0.000000e+00 0.000000e+00 0.000000e+00 0.000000e+00 4.291110e+01 2.195447e+00 1.107705e+01 4.096525e+02 6.727206e+02 3.385464e+02 1.042072e+03 2.672458e+02 1.297310e+01 2.594620e+00 0.000000e+00
<VARIANCE> 20
 6.169784e+06 6.727577e+04 1.000000e-02 1.000000e-02 1.000000e-02 1.000000e-02 1.000000e-02 1.000000e-02 1.000000e-02 7.753555e+03 4.347985e+01 2.945346e+02 1.373059e+06 1.890521e+06 1.949600e+05 1.197930e+06 3.906215e+04 5.935189e+02 2.779635e+01 1.000000e-02
<GCONST> 1.201270e+02
<STATE> 5
<MEAN> 20
 3.678213e+03 1.082942e+02 2.732423e+01 9.108073e-02 0.000000e+00 0.000000e+00 0.000000e+00 0.000000e+00 0.000000e+00 3.278913e+00 4.098629e+00 3.543035e+01 2.715120e+02 1.036487e+03 1.996630e+03 3.704871e+02 1.005531e+02 1.457291e+00 5.464844e-01 0.000000e+00
<VARIANCE> 20
 5.674824e+06 1.516642e+04 4.860499e+03 8.278503e-02 1.000000e-02 1.000000e-02 1.000000e-02 1.000000e-02 1.000000e-02 1.009139e+02 6.726869e+01 3.525051e+03 4.469584e+05 1.711814e+06 3.886252e+06 1.249053e+05 3.335989e+04 1.408867e+01 2.980261e+00 1.000000e-02
<GCONST> 1.257170e+02
<STATE> 6
<MEAN> 20
 3.096801e+03 2.990888e+01 0.000000e+00 0.000000e+00 0.000000e+00 0.000000e+00 0.000000e+00 0.000000e+00 1.272718e+00 8.590855e+01 2.545436e+00 1.872714e+01 3.086346e+02 9.208118e+02 1.417171e+03 3.025432e+02 1.709994e+02 4.064070e+01 1.845461e+01 1.336355e+01
<VARIANCE> 20
 9.201407e+06 3.121158e+03 1.000000e-02 1.000000e-02 1.000000e-02 1.000000e-02 1.000000e-02 1.000000e-02 8.925567e+00 2.242144e+04 6.479298e+01 6.849233e+02 5.095452e+05 1.259074e+06 3.872188e+06 6.113206e+04 9.371756e+04 6.999593e+03 1.406785e+03 1.656766e+03
<GCONST> 1.444552e+02
<STATE> 7
<MEAN> 20
 3.042594e+03 1.608590e+02 4.285758e-01 0.000000e+00 0.000000e+00 0.000000e+00 5.428627e+00 1.671446e+01 4.428617e+00 4.285762e+01 3.200032e+01 7.114360e+01 2.807176e+02 9.821526e+02 1.309298e+03 1.495730e+02 1.630010e+02 2.318528e+02 5.200035e+01 1.571426e+00
<VARIANCE> 20
 3.679158e+06 9.404267e+04 1.102050e+00 1.000000e-02 1.000000e-02 1.000000e-02 7.367392e+01 1.578503e+03 1.011029e+02 3.352712e+03 2.652588e+03 1.576937e+04 2.132427e+05 1.278364e+06 1.432356e+06 1.849283e+04 7.606427e+04 7.482952e+04 6.134635e+03 7.387840e+00
<GCONST> 1.750706e+02
<STATE> 8
<MEAN> 20
 2.492622e+03 5.383752e+02 3.425003e+01 2.500002e-01 1.225001e+01 7.500007e-01 2.797502e+02 7.262504e+01 1.387501e+01 6.687495e+01 6.228751e+02 1.159999e+02 3.178746e+02 9.787488e+02 6.166234e+02 3.238752e+02 2.683752e+02 2.183752e+02 4.850004e+01 3.750004e-01
<VARIANCE> 20
 4.516497e+06 2.676549e+05 6.674192e+03 4.375003e-01 4.164378e+02 3.937503e+00 1.489688e+05 6.369987e+03 9.246101e+02 3.116610e+03 3.581872e+05 9.576746e+03 3.930690e+05 1.944436e+06 1.119275e+06 1.840285e+05 9.072501e+04 3.399722e+04 2.261750e+03 9.843758e-01
<GCONST> 2.204315e+02
<STATE> 9
<MEAN> 20
 7.419483e+03 3.945516e+02 1.685724e+03 7.241367e-01 0.000000e+00 0.000000e+00 0.000000e+00 0.000000e+00 0.000000e+00 8.627589e+01 0.000000e+00 3.815862e+02 6.586033e+03 2.023621e+03 5.753801e+02 1.982760e+01 3.103451e-01 0.000000e+00 0.000000e+00 0.000000e+00
<VARIANCE> 20
 6.299354e+06 4.212096e+04 9.049434e+05 9.992848e+00 1.000000e-02 1.000000e-02 1.000000e-02 1.000000e-02 1.000000e-02 2.625815e+04 1.000000e-02 1.203721e+05 1.587875e+07 5.955708e+05 8.774481e+05 8.825580e+02 6.967899e-01 1.000000e-02 1.000000e-02 1.000000e-02
<GCONST> 1.094909e+02
<STATE> 10
<MEAN> 20
 6.685757e+03 2.400608e+02 8.436716e+02 1.339255e+01 3.754942e-01 0.000000e+00 4.255600e+00 1.264164e+01 8.135707e+00 2.271730e+02 1.364294e+01 4.838374e+02 4.217339e+03 1.316123e+03 1.854812e+03 1.489593e+02 7.496701e-01 0.000000e+00 0.000000e+00 0.000000e+00
<VARIANCE> 20
 5.663586e+06 5.060240e+04 8.241700e+05 1.253643e+03 9.854866e-01 1.000000e-02 7.926801e+01 1.019866e+03 4.015508e+02 7.691638e+04 5.109122e+02 3.659820e+05 2.174683e+07 4.014413e+05 3.674642e+06 2.982396e+04 1.188979e+00 1.000000e-02 1.000000e-02 1.000000e-02
<GCONST> 1.684431e+02
<STATE> 11
<MEAN> 20
 5.265765e+03 2.696397e+02 9.906114e+02 5.987410e-01 0.000000e+00 0.000000e+00 1.995807e+00 1.995807e+00 8.981131e+00 2.127527e+02 2.454843e+01 5.006223e+02 4.377697e+03 9.793138e+02 2.361094e+02 5.069138e+02 1.251392e+02 1.397064e+00 3.991614e-01 1.995807e-01
<VARIANCE> 20
 1.410153e+07 4.997177e+04 7.977491e+05 1.437732e+00 1.000000e-02 1.000000e-02 6.394950e+00 5.995789e+00 2.731958e+02 9.507762e+04 1.230524e+03 3.998043e+05 2.180932e+07 1.178203e+06 1.473708e+05 8.143881e+05 4.665825e+04 2.239405e+00 6.389930e-01 1.597482e-01
<GCONST> 1.751770e+02
<STATE> 12
<MEAN> 20
 7.208699e+03 4.204323e+02 1.822053e+03 3.729729e+00 0.000000e+00 0.000000e+00 0.000000e+00 0.000000e+00 0.000000e+00 1.080811e+02 0.000000e+00 2.830539e+02 6.552725e+03 2.326270e+03 1.622163e+02 1.184598e+02 1.172436e+02 3.000008e+00 2.702698e-02 0.000000e+00
<VARIANCE> 20
 6.947768e+06 7.295710e+03 3.752796e+05 9.981889e+01 1.000000e-02 1.000000e-02 1.000000e-02 1.000000e-02 1.000000e-02 3.106911e+04 1.000000e-02 7.334071e+04 9.797118e+06 1.441768e+06 2.342067e+04 7.689809e+04 1.099391e+05 9.459492e+01 2.629653e-02 1.000000e-02
<GCONST> 1.322655e+02
<STATE> 13
<MEAN> 20
 3.583440e+03 1.685553e+02 6.554433e+02 0.000000e+00 0.000000e+00 0.000000e+00 3.333336e-01 5.555560e-01 0.000000e+00 3.455557e+01 3.888892e+00 1.076666e+02 2.113107e+03 1.380887e+03 5.465558e+02 1.202223e+02 6.455560e+01 7.422227e+01 3.066669e+01 1.111111e+00
<VARIANCE> 20
 1.059377e+07 4.375707e+04 8.803841e+05 1.000000e-02 1.000000e-02 1.000000e-02 8.888896e-01 2.469138e+00 1.000000e-02 1.456914e+03 1.209878e+02 1.510645e+04 9.429923e+06 2.453891e+06 5.612748e+05 1.886441e+04 5.560917e+03 1.669063e+04 2.241557e+03 3.432101e+00
<GCONST> 1.625257e+02
<TRANSP> 14
 0.000000e+00 1.000000e+00 0.000000e+00 0.000000e+00 0.000000e+00 0.000000e+00 0.000000e+00 0.000000e+00 0.000000e+00 0.000000e+00 0.000000e+00 0.000000e+00 0.000000e+00 0.000000e+00
 0.000000e+00 6.326590e-01 3.673410e-01 0.000000e+00 0.000000e+00 0.000000e+00 0.000000e+00 0.000000e+00 0.000000e+00 0.000000e+00 0.000000e+00 0.000000e+00 0.000000e+00 0.000000e+00
 0.000000e+00 0.000000e+00 6.043885e-01 3.956115e-01 0.000000e+00 0.000000e+00 0.000000e+00 0.000000e+00 0.000000e+00 0.000000e+00 0.000000e+00 0.000000e+00 0.000000e+00 0.000000e+00
 0.000000e+00 0.000000e+00 0.000000e+00 6.008267e-01 3.991733e-01 0.000000e+00 0.000000e+00 0.000000e+00 0.000000e+00 0.000000e+00 0.000000e+00 0.000000e+00 0.000000e+00 0.000000e+00
 0.000000e+00 0.000000e+00 0.000000e+00 0.000000e+00 6.356770e-01 3.643230e-01 0.000000e+00 0.000000e+00 0.000000e+00 0.000000e+00 0.000000e+00 0.000000e+00 0.000000e+00 0.000000e+00
 0.000000e+00 0.000000e+00 0.000000e+00 0.000000e+00 0.000000e+00 6.363662e-01 3.636338e-01 0.000000e+00 0.000000e+00 0.000000e+00 0.000000e+00 0.000000e+00 0.000000e+00 0.000000e+00
 0.000000e+00 0.000000e+00 0.000000e+00 0.000000e+00 0.000000e+00 0.000000e+00 4.285655e-01 5.714345e-01 0.000000e+00 0.000000e+00 0.000000e+00 0.000000e+00 0.000000e+00 0.000000e+00
 0.000000e+00 0.000000e+00 0.000000e+00 0.000000e+00 0.000000e+00 0.000000e+00 0.000000e+00 5.000005e-01 4.999996e-01 0.000000e+00 0.000000e+00 0.000000e+00 0.000000e+00 0.000000e+00
 0.000000e+00 0.000000e+00 0.000000e+00 0.000000e+00 0.000000e+00 0.000000e+00 0.000000e+00 0.000000e+00 8.620689e-01 1.379312e-01 0.000000e+00 0.000000e+00 0.000000e+00 0.000000e+00
 0.000000e+00 0.000000e+00 0.000000e+00 0.000000e+00 0.000000e+00 0.000000e+00 0.000000e+00 0.000000e+00 0.000000e+00 4.993423e-01 5.006577e-01 0.000000e+00 0.000000e+00 0.000000e+00
 0.000000e+00 0.000000e+00 0.000000e+00 0.000000e+00 0.000000e+00 0.000000e+00 0.000000e+00 0.000000e+00 0.000000e+00 0.000000e+00 2.016793e-01 7.983208e-01 0.000000e+00 0.000000e+00
 0.000000e+00 0.000000e+00 0.000000e+00 0.000000e+00 0.000000e+00 0.000000e+00 0.000000e+00 0.000000e+00 0.000000e+00 0.000000e+00 0.000000e+00 8.918917e-01 1.081083e-01 0.000000e+00
 0.000000e+00 0.000000e+00 0.000000e+00 0.000000e+00 0.000000e+00 0.000000e+00 0.000000e+00 0.000000e+00 0.000000e+00 0.000000e+00 0.000000e+00 0.000000e+00 5.555560e-01 4.444440e-01
 0.000000e+00 0.000000e+00 0.000000e+00 0.000000e+00 0.000000e+00 0.000000e+00 0.000000e+00 0.000000e+00 0.000000e+00 0.000000e+00 0.000000e+00 0.000000e+00 0.000000e+00 0.000000e+00
<ENDHMM>
~h "d"
<BEGINHMM>
<NUMSTATES> 14
<STATE> 2
<MEAN> 20
 1.153110e+04 1.658011e+01 0.000000e+00 0.000000e+00 0.000000e+00 0.000000e+00 0.000000e+00 0.000000e+00 0.000000e+00 1.332823e+02 1.902478e+00 2.468175e+02 5.366366e+03 4.681588e+03 5.459929e+02 1.887612e+02 3.183099e+02 2.468036e+02 7.438293e+01 1.003786e+01
<VARIANCE> 20
 4.808538e+06 1.741451e+03 1.000000e-02 1.000000e-02 1.000000e-02 1.000000e-02 1.000000e-02 1.000000e-02 1.000000e-02 1.514131e+04 3.265265e+01 1.986525e+05 6.438354e+06 4.471830e+06 1.163590e+05 7.567489e+03 1.569635e+04 2.255653e+04 5.788228e+03 4.179531e+02
<GCONST> 1.386512e+02
<STATE> 3
<MEAN> 20
 1.292210e+04 1.702922e+01 1.520671e-02 0.000000e+00 0.000000e+00 0.000000e+00 0.000000e+00 0.000000e+00 0.000000e+00 1.922696e+02 0.000000e+00 8.599305e+01 6.954904e+03 4.919920e+03 3.834991e+02 1.777400e+02 2.453149e+02 2.826667e+02 7.068150e+01 1.069738e+01
<VARIANCE> 20
 3.644666e+06 1.230585e+03 1.497547e-02 1.000000e-02 1.000000e-02 1.000000e-02 1.000000e-02 1.000000e-02 1.000000e-02 1.677400e+04 1.000000e-02 3.562417e+04 3.845226e+06 1.745484e+06 1.523530e+04 4.972460e+03 1.825502e+04 2.460662e+04 4.846662e+03 1.621548e+02
<GCONST> 1.239279e+02
<STATE> 4
<MEAN> 20
 1.294535e+04 2.475141e+01 0.000000e+00 0.000000e+00 0.000000e+00 0.000000e+00 0.000000e+00 0.000000e+00 5.547818e-02 2.269348e+02 6.100004e+00 2.541298e+02 9.184340e+03 2.885577e+03 3.102022e+02 1.191203e+02 1.639294e+02 2.250216e+02 4.776785e+01 9.040650e-01
<VARIANCE> 20
 3.193608e+06 9.139448e+02 1.000000e-02 1.000000e-02 1.000000e-02 1.000000e-02 1.000000e-02 1.000000e-02 5.240035e-02 2.698425e+04 2.766804e+02 6.471351e+04 5.317829e+06 1.475771e+06 6.765967e+03 1.758397e+03 1.098182e+04 7.533236e+03 1.490944e+03 5.573147e+00
<GCONST> 1.281150e+02
<STATE> 5
<MEAN> 20
 1.153849e+04 1.339375e+00 0.000000e+00 0.000000e+00 0.000000e+00 0.000000e+00 0.000000e+00 0.000000e+00 0.000000e+00 2.501957e+02 0.000000e+00 1.879222e+02 8.138218e+03 2.785768e+03 2.374442e+02 1.124803e+02 1.373134e+02 1.666780e+02 2.332177e+01 8.829567e-01
<VARIANCE> 20
 4.581570e+06 1.463202e+01 1.000000e-02 1.000000e-02 1.000000e-02 1.000000e-02 1.000000e-02 1.000000e-02 1.000000e-02 2.935594e+04 1.000000e-02 5.184034e+04 4.760682e+06 1.699407e+06 1.343830e+04 3.792983e+03 1.288995e+04 1.649641e+04 1.046090e+03 7.692940e+00
<GCONST> 1.147168e+02
<STATE> 6
<MEAN> 20
 1.229801e+04 2.759943e+01 0.000000e+00 0.000000e+00 0.000000e+00 0.000000e+00 0.000000e+00 0.000000e+00 1.199993e+00 4.000022e+02 2.399986e+00 5.735579e+02 9.548076e+03 1.921427e+03 2.525181e+02 1.164611e+02 1.276336e+02 1.644578e+02 1.938169e+01 8.999923e-01
<VARIANCE> 20
 2.652602e+06 1.216632e+03 1.000000e-02 1.000000e-02 1.000000e-02 1.000000e-02 1.000000e-02 1.000000e-02 5.959974e+00 2.296965e+03 4.303978e+01 1.495397e+05 3.446108e+06 1.764056e+06 8.821771e+03 9.507409e+03 4.848563e+03 5.841251e+03 3.418863e+02 7.289943e+00
<GCONST> 1.288840e+02
<STATE> 7
<MEAN> 20
 1.109972e+04 1.257215e+00 0.000000e+00 0.000000e+00 0.000000e+00 0.000000e+00 0.000000e+00 1.142793e-01 2.856982e-02 3.952231e+02 2.285586e-01 4.492626e+02 7.725948e+03 2.511133e+03 2.739320e+02 1.273643e+02 1.788403e+02 1.865297e+02 4.084883e+01 2.257092e+00
<VARIANCE> 20
 1.937608e+06 9.106035e+00 1.000000e-02 1.000000e-02 1.000000e-02 1.000000e-02 1.000000e-02 4.440573e-01 2.775358e-02 4.420854e+04 1.090554e+00 5.860379e+05 2.241388e+06 1.411649e+06 8.413978e+03 2.940444e+03 1.015962e+04 1.042893e+04 1.468221e+03 2.847607e+01
<GCONST> 1.250121e+02
<STATE> 8
<MEAN> 20
 1.111292e+04 1.307129e+00 0.000000e+00 0.000000e+00 0.000000e+00 0.000000e+00 0.000000e+00 0.000000e+00 3.946324e-01 5.236926e+02 0.000000e+00 1.071123e+03 8.948714e+03 1.018728e+03 2.049612e+02 1.121514e+02 1.460427e+02 1.325520e+02 4.042692e+00 0.000000e+00
<VARIANCE> 20
 2.137719e+06 1.183121e+01 1.000000e-02 1.000000e-02 1.000000e-02 1.000000e-02 1.000000e-02 1.000000e-02 6.158385e+00 4.412324e+04 1.000000e-02 7.335858e+05 1.500374e+06 5.438553e+05 1.995998e+04 8.028144e+03 1.891024e+04 1.442125e+04 7.227469e+01 1.000000e-02
<GCONST> 1.130047e+02
<STATE> 9
<MEAN> 20
 1.083936e+04 1.163910e+01 0.000000e+00 0.000000e+00 0.000000e+00 0.000000e+00 0.000000e+00 0.000000e+00 0.000000e+00 8.413556e+02 2.127766e-01 1.574068e+03 8.441696e+03 8.974012e+02 2.155599e+02 1.283022e+02 2.192185e+02 2.020696e+02 1.189385e+01 1.936458e+00
<VARIANCE> 20
 1.782537e+06 5.741769e+02 1.000000e-02 1.000000e-02 1.000000e-02 1.000000e-02 1.000000e-02 1.000000e-02 1.000000e-02 1.504222e+05 1.018609e+00 1.088637e+06 1.476263e+06 3.997613e+05 7.191680e+03 3.804714e+03 1.983236e+04 1.278268e+04 2.978752e+02 1.661409e+01
<GCONST> 1.231941e+02
<STATE> 10
<MEAN> 20
 8.993819e+03 3.229397e-01 0.000000e+00 0.000000e+00 0.000000e+00 0.000000e+00 0.000000e+00 0.000000e+00 0.000000e+00 3.822831e+02 0.000000e+00 9.209467e+02 6.934143e+03 9.353872e+02 1.699945e+02 9.149687e+01 1.148653e+02 1.755365e+02 3.141294e+01 2.642009e+00
<VARIANCE> 20
 6.799016e+06 1.686558e+00 1.000000e-02 1.000000e-02 1.000000e-02 1.000000e-02 1.000000e-02 1.000000e-02 1.000000e-02 8.261047e+04 1.000000e-02 5.472479e+05 6.043630e+06 7.499719e+05 9.919726e+03 2.187230e+03 8.327474e+03 2.064254e+04 5.151416e+03 3.911086e+01
<GCONST> 1.179165e+02
<STATE> 11
<MEAN> 20
 5.503133e+03 5.988199e+01 7.646964e-01 1.176451e-01 8.235158e-01 5.764739e+00 1.117644e+01 8.470526e+00 7.117597e+00 2.775904e+02 1.129406e+01 4.859456e+02 2.347078e+03 1.673883e+03 1.151933e+03 1.042942e+02 4.735334e+01 4.105920e+01 1.200009e+01 0.000000e+00
<VARIANCE> 20
 9.279180e+06 2.315935e+04 6.650418e+00 2.214499e-01 1.085105e+01 4.763008e+02 9.793223e+02 5.682441e+02 3.955123e+02 1.642282e+05 4.492637e+02 7.675454e+05 1.006150e+07 7.531999e+05 1.016139e+06 6.774186e+03 4.208141e+03 3.349254e+03 7.052985e+02 1.000000e-02
<GCONST> 1.933890e+02
<STATE> 12
<MEAN> 20
 3.766653e+03 6.985662e+01 2.807125e+01 9.857098e+00 8.507128e+01 9.007104e+01 4.276428e+02 2.564289e+01 1.250003e+01 3.968583e+02 6.813555e+02 6.442165e+02 2.413082e+03 5.437161e+02 4.787115e+02 9.257114e+01 2.735726e+01 3.085729e+01 7.142870e-02 2.857148e-01
<VARIANCE> 20
 1.451446e+07 1.202444e+04 1.690627e+03 4.335505e+02 1.035495e+04 1.114604e+04 2.157858e+05 8.475183e+02 2.045360e+02 2.111701e+05 3.433696e+05 6.271282e+05 1.100244e+07 2.956158e+05 2.718148e+05 8.749222e+03 3.208387e+03 5.373999e+03 6.632665e-02 1.061226e+00
<GCONST> 2.218219e+02
<STATE> 13
<MEAN> 20
 5.665392e+03 1.300014e+01 0.000000e+00 0.000000e+00 8.909151e+00 1.081825e+01 2.700018e+01 1.909104e+00 0.000000e+00 3.714580e+02 7.409141e+01 5.710964e+02 2.794753e+03 7.192800e+02 9.291845e+02 8.656259e+02 7.609102e+01 5.754593e+01 9.090982e+00 1.727284e+00
<VARIANCE> 20
 1.117321e+07 8.678264e+02 1.000000e-02 1.000000e-02 7.937239e+02 1.170338e+03 7.290044e+03 3.644649e+01 1.000000e-02 2.859620e+05 5.299931e+04 7.565929e+05 1.361092e+07 6.671099e+05 1.128068e+06 1.177328e+06 5.033754e+03 7.097929e+03 3.213571e+02 2.983489e+01
<GCONST> 1.934588e+02
<TRANSP> 14
 0.000000e+00 1.000000e+00 0.000000e+00 0.000000e+00 0.000000e+00 0.000000e+00 0.000000e+00 0.000000e+00 0.000000e+00 0.000000e+00 0.000000e+00 0.000000e+00 0.000000e+00 0.000000e+00
 0.000000e+00 7.658066e-01 2.341934e-01 0.000000e+00 0.000000e+00 0.000000e+00 0.000000e+00 0.000000e+00 0.000000e+00 0.000000e+00 0.000000e+00 0.000000e+00 0.000000e+00 0.000000e+00
 0.000000e+00 0.000000e+00 8.783464e-01 1.216537e-01 0.000000e+00 0.000000e+00 0.000000e+00 0.000000e+00 0.000000e+00 0.000000e+00 0.000000e+00 0.000000e+00 0.000000e+00 0.000000e+00
 0.000000e+00 0.000000e+00 0.000000e+00 5.561644e-01 4.438356e-01 0.000000e+00 0.000000e+00 0.000000e+00 0.000000e+00 0.000000e+00 0.000000e+00 0.000000e+00 0.000000e+00 0.000000e+00
 0.000000e+00 0.000000e+00 0.000000e+00 0.000000e+00 8.889926e-01 1.110074e-01 0.000000e+00 0.000000e+00 0.000000e+00 0.000000e+00 0.000000e+00 0.000000e+00 0.000000e+00 0.000000e+00
 0.000000e+00 0.000000e+00 0.000000e+00 0.000000e+00 0.000000e+00 2.000115e-01 7.999885e-01 0.000000e+00 0.000000e+00 0.000000e+00 0.000000e+00 0.000000e+00 0.000000e+00 0.000000e+00
 0.000000e+00 0.000000e+00 0.000000e+00 0.000000e+00 0.000000e+00 0.000000e+00 7.714362e-01 2.285638e-01 0.000000e+00 0.000000e+00 0.000000e+00 0.000000e+00 0.000000e+00 0.000000e+00
 0.000000e+00 0.000000e+00 0.000000e+00 0.000000e+00 0.000000e+00 0.000000e+00 0.000000e+00 8.026794e-01 1.973207e-01 0.000000e+00 0.000000e+00 0.000000e+00 0.000000e+00 0.000000e+00
 0.000000e+00 0.000000e+00 0.000000e+00 0.000000e+00 0.000000e+00 0.000000e+00 0.000000e+00 0.000000e+00 8.297749e-01 1.702251e-01 0.000000e+00 0.000000e+00 0.000000e+00 0.000000e+00
 0.000000e+00 0.000000e+00 0.000000e+00 0.000000e+00 0.000000e+00 0.000000e+00 0.000000e+00 0.000000e+00 0.000000e+00 7.651358e-01 2.348642e-01 0.000000e+00 0.000000e+00 0.000000e+00
 0.000000e+00 0.000000e+00 0.000000e+00 0.000000e+00 0.000000e+00 0.000000e+00 0.000000e+00 0.000000e+00 0.000000e+00 0.000000e+00 5.294086e-01 4.705913e-01 0.000000e+00 0.000000e+00
 0.000000e+00 0.000000e+00 0.000000e+00 0.000000e+00 0.000000e+00 0.000000e+00 0.000000e+00 0.000000e+00 0.000000e+00 0.000000e+00 0.000000e+00 4.285705e-01 5.714295e-01 0.000000e+00
 0.000000e+00 0.000000e+00 0.000000e+00 0.000000e+00 0.000000e+00 0.000000e+00 0.000000e+00 0.000000e+00 0.000000e+00 0.000000e+00 0.000000e+00 0.000000e+00 2.727227e-01 7.272773e-01
 0.000000e+00 0.000000e+00 0.000000e+00 0.000000e+00 0.000000e+00 0.000000e+00 0.000000e+00 0.000000e+00 0.000000e+00 0.000000e+00 0.000000e+00 0.000000e+00 0.000000e+00 0.000000e+00
<ENDHMM>
~h "e"
<BEGINHMM>
<NUMSTATES> 14
<STATE> 2
<MEAN> 20
 8.142674e+03 7.289424e-02 0.000000e+00 0.000000e+00 0.000000e+00 1.348008e+03 1.953266e+02 1.156363e+02 1.285932e+02 9.558689e+02 1.285150e+00 5.033448e+02 6.549110e+03 2.344460e+03 3.652792e+02 6.854269e+02 3.088749e+02 6.717162e+01 5.191100e+01 9.317043e+00
<VARIANCE> 20
 6.163873e+06 1.842116e-01 1.000000e-02 1.000000e-02 1.000000e-02 4.324629e+05 1.800290e+04 4.323401e+03 3.056111e+03 1.189863e+05 8.682297e+00 2.615657e+05 3.640992e+06 2.946720e+06 3.544498e+04 1.258495e+05 5.072836e+04 4.195995e+03 6.213619e+03 3.665840e+02
<GCONST> 1.884167e+02
<STATE> 3
<MEAN> 20
 1.022789e+04 2.469461e+01 4.875538e-02 0.000000e+00 2.437771e-02 8.837504e+02 2.155639e+02 1.247248e+02 1.425830e+02 1.071533e+03 6.191935e+00 5.706883e+02 9.084927e+03 2.052620e+03 3.714548e+02 5.430861e+02 6.167476e+01 1.706438e-01 0.000000e+00 0.000000e+00
<VARIANCE> 20
 6.250902e+06 2.046443e+03 4.637827e-02 1.000000e-02 2.378341e-02 3.755918e+05 3.186630e+04 6.534643e+03 5.252781e+03 1.605743e+05 1.020754e+02 3.539163e+05 3.362573e+06 1.582959e+06 3.817000e+04 1.660835e+05 1.097974e+04 3.365458e-01 1.000000e-02 1.000000e-02
<GCONST> 1.694383e+02
<STATE> 4
<MEAN> 20
 1.259304e+04 2.836983e+01 0.000000e+00 0.000000e+00 0.000000e+00 8.234785e+02 1.366557e+02 8.180746e+01 1.039661e+02 1.127966e+03 8.842334e+00 4.009564e+02 1.092411e+04 2.537584e+03 3.514385e+02 4.859997e+02 1.187529e+02 4.746581e+01 1.893927e+01 1.195958e+00
<VARIANCE> 20
 5.634550e+06 2.064268e+03 1.000000e-02 1.000000e-02 1.000000e-02 2.441541e+05 5.554311e+03 1.304708e+03 1.660244e+03 1.943827e+05 4.884078e+02 1.872872e+05 6.662212e+06 2.173918e+06 1.996692e+04 6.743968e+04 1.484955e+04 3.600194e+03 8.502417e+02 6.706125e+00
<GCONST> 1.900123e+02
<STATE> 5
<MEAN> 20
 1.051205e+04 3.725711e+01 3.249518e-01 2.322748e-02 1.393648e-01 1.284882e+03 3.013135e+02 1.611627e+02 1.780576e+02 1.515960e+03 1.739465e+01 1.024202e+03 9.735982e+03 1.837112e+03 5.281868e+02 6.715500e+02 1.723488e+02 4.389855e+00 0.000000e+00 0.000000e+00
<VARIANCE> 20
 5.636610e+06 8.097968e+03 1.008859e+00 2.268795e-02 4.451267e-01 4.860321e+05 5.717027e+04 1.029919e+04 7.674295e+03 3.729312e+05 6.184902e+02 8.378022e+05 6.471812e+06 3.480418e+06 4.931748e+04 1.947852e+05 4.561396e+04 1.203957e+02 1.000000e-02 1.000000e-02
<GCONST> 1.918832e+02
<STATE> 6
<MEAN> 20
 1.137194e+04 2.804834e+01 7.040467e-01 0.000000e+00 0.000000e+00 1.115616e+03 1.930566e+02 1.122365e+02 1.365878e+02 1.585098e+03 8.590032e+00 9.283306e+02 1.035338e+04 1.912744e+03 4.684672e+02 6.320068e+02 1.529924e+02 6.588977e+01 1.925852e+01 1.629568e+00
<VARIANCE> 20
 3.458434e+06 7.511561e+02 8.430631e+00 1.000000e-02 1.000000e-02 3.272687e+05 1.658210e+04 3.459846e+03 3.692542e+03 6.823892e+05 1.148563e+02 8.173689e+05 3.079080e+06 1.984794e+06 2.072221e+04 1.136681e+05 1.192563e+04 4.754536e+03 1.001205e+03 2.512123e+01
<GCONST> 2.009327e+02
<STATE> 7
<MEAN> 20
 7.801700e+03 2.683363e+00 0.000000e+00 0.000000e+00 8.596481e-02 9.889766e+02 2.026312e+02 1.238553e+02 1.422931e+02 1.630265e+03 2.612477e+00 1.393729e+03 7.994855e+03 4.908787e+02 3.294257e+02 5.902288e+02 8.298322e+01 7.636591e+00 1.408070e-01 0.000000e+00
<VARIANCE> 20
 8.206248e+06 4.442410e+01 1.000000e-02 1.000000e-02 2.505043e-01 3.488121e+05 3.092354e+04 7.782403e+03 7.263013e+03 4.401443e+05 2.526634e+01 9.315406e+05 6.217966e+06 1.059357e+05 3.939584e+04 1.728237e+05 1.602362e+04 3.934438e+02 2.331326e-01 1.000000e-02
<GCONST> 1.762482e+02
<STATE> 8
<MEAN> 20
 9.878309e+03 3.852210e+01 3.701278e-02 0.000000e+00 0.000000e+00 1.035419e+03 1.510606e+02 9.578928e+01 1.245346e+02 2.223025e+03 1.187872e+01 2.406983e+03 9.374613e+03 5.697591e+02 3.872194e+02 5.679828e+02 1.611831e+02 5.289879e+01 1.349276e+01 6.847368e-01
<VARIANCE> 20
 3.749468e+06 3.272318e+03 7.265562e-02 1.000000e-02 1.000000e-02 1.855024e+05 1.125194e+04 2.579728e+03 3.486477e+03 6.446939e+05 4.578648e+02 1.294701e+06 3.759814e+06 6.593312e+04 1.928160e+04 6.352038e+04 1.402492e+04 3.312698e+03 5.152144e+02 4.768446e+00
<GCONST> 1.918267e+02
<STATE> 9
<MEAN> 20
 8.687649e+03 7.065720e+01 4.423581e+00 0.000000e+00 2.823563e-01 1.211670e+03 2.477184e+02 1.659906e+02 1.807296e+02 2.248442e+03 2.273256e+01 2.791564e+03 7.753647e+03 7.583464e+02 5.575308e+02 6.484627e+02 2.046448e+02 4.402210e+01 3.454156e+01 2.070613e+00
<VARIANCE> 20
 8.706070e+06 8.361528e+03 1.057039e+02 1.000000e-02 8.614622e-01 4.521882e+05 4.393905e+04 1.210068e+04 8.757065e+03 6.501181e+05 1.146352e+03 2.434709e+06 8.236784e+06 1.393099e+05 1.127516e+05 9.709027e+04 4.730888e+04 4.433826e+03 9.070523e+03 3.825425e+01
<GCONST> 2.218039e+02
<STATE> 10
<MEAN> 20
 4.406409e+03 2.045758e+01 1.136532e+01 3.997458e+00 6.474314e+01 2.863223e+02 3.909538e+02 1.061182e+02 8.597523e+01 7.507302e+02 5.594141e+02 9.808774e+02 3.126276e+03 7.932319e+02 4.775501e+02 1.646901e+02 2.255916e+01 1.375398e+00 3.135261e-01 7.838153e-01
<VARIANCE> 20
 1.027182e+07 1.170986e+03 1.245093e+03 1.653168e+02 2.052531e+04 1.378202e+05 2.106653e+05 1.123820e+04 8.255445e+03 5.364870e+05 7.397156e+05 1.052847e+06 1.060570e+07 4.367458e+05 2.336002e+05 6.263557e+04 1.336864e+03 6.909338e+00 5.287535e-01 3.461473e+00
<GCONST> 2.274494e+02
<STATE> 11
<MEAN> 20
 6.018829e+03 1.430914e+02 3.319744e+01 0.000000e+00 8.999302e-01 2.491810e+02 3.119767e+02 9.929388e+01 8.009579e+01 9.140479e+02 1.611891e+02 1.210041e+03 3.894660e+03 1.030733e+03 5.908618e+02 3.143786e+02 3.400739e+02 2.315820e+02 6.429501e+01 1.279901e+01
<VARIANCE> 20
 9.069018e+06 1.117695e+05 4.565492e+03 1.000000e-02 5.689620e+00 1.078337e+05 1.677538e+05 1.433760e+04 7.942319e+03 1.128622e+06 9.720648e+04 1.631400e+06 1.311892e+07 1.214116e+06 4.427393e+05 5.417939e+04 2.981859e+05 2.053158e+05 1.329070e+04 3.455459e+02
<GCONST> 2.463347e+02
<STATE> 12
<MEAN> 20
 4.803551e+03 1.065036e+02 9.929068e+01 5.285976e+00 2.021527e+01 4.255925e+02 1.391492e+02 6.014474e+01 6.921631e+01 8.918879e+02 1.400058e+02 8.618909e+02 2.833875e+03 1.012693e+03 1.395855e+03 2.976556e+02 6.578880e+01 1.264347e+01 4.285928e-01 0.000000e+00
<VARIANCE> 20
 8.379298e+06 2.374103e+04 2.825627e+04 8.334968e+01 3.803190e+03 5.933732e+05 4.396604e+04 8.051593e+03 1.213583e+04 1.396811e+06 1.234524e+05 1.400998e+06 1.364468e+07 8.015006e+05 1.126143e+06 1.324128e+05 1.057122e+04 1.068276e+03 8.163580e-01 1.000000e-02
<GCONST> 2.352805e+02
<STATE> 13
<MEAN> 20
 3.810413e+03 1.708334e+01 0.000000e+00 0.000000e+00 0.000000e+00 7.966673e+01 2.183334e+01 2.750000e+01 2.450000e+01 4.401671e+02 2.749999e+00 7.363264e+02 2.017921e+03 4.450836e+02 9.909160e+02 1.664167e+02 3.258335e+01 1.208334e+01 6.500002e+00 1.058334e+01
<VARIANCE> 20
 9.291145e+06 1.223910e+03 1.000000e-02 1.000000e-02 1.000000e-02 6.777144e+04 1.836473e+03 2.041583e+03 1.555417e+03 4.474969e+05 3.885416e+01 1.465405e+06 9.311531e+06 1.002338e+05 1.172418e+06 2.018158e+04 4.752914e+03 3.992431e+02 1.587501e+02 1.033243e+03
<GCONST> 1.884888e+02
<TRANSP> 14
 0.000000e+00 1.000000e+00 0.000000e+00 0.000000e+00 0.000000e+00 0.000000e+00 0.000000e+00 0.000000e+00 0.000000e+00 0.000000e+00 0.000000e+00 0.000000e+00 0.000000e+00 0.000000e+00
 0.000000e+00 8.833693e-01 1.166308e-01 0.000000e+00 0.000000e+00 0.000000e+00 0.000000e+00 0.000000e+00 0.000000e+00 0.000000e+00 0.000000e+00 0.000000e+00 0.000000e+00 0.000000e+00
 0.000000e+00 0.000000e+00 8.049785e-01 1.950216e-01 0.000000e+00 0.000000e+00 0.000000e+00 0.000000e+00 0.000000e+00 0.000000e+00 0.000000e+00 0.000000e+00 0.000000e+00 0.000000e+00
 0.000000e+00 0.000000e+00 0.000000e+00 8.431531e-01 1.568470e-01 0.000000e+00 0.000000e+00 0.000000e+00 0.000000e+00 0.000000e+00 0.000000e+00 0.000000e+00 0.000000e+00 0.000000e+00
 0.000000e+00 0.000000e+00 0.000000e+00 0.000000e+00 8.141804e-01 1.858195e-01 0.000000e+00 0.000000e+00 0.000000e+00 0.000000e+00 0.000000e+00 0.000000e+00 0.000000e+00 0.000000e+00
 0.000000e+00 0.000000e+00 0.000000e+00 0.000000e+00 0.000000e+00 7.037154e-01 2.962846e-01 0.000000e+00 0.000000e+00 0.000000e+00 0.000000e+00 0.000000e+00 0.000000e+00 0.000000e+00
 0.000000e+00 0.000000e+00 0.000000e+00 0.000000e+00 0.000000e+00 0.000000e+00 7.707603e-01 2.292396e-01 0.000000e+00 0.000000e+00 0.000000e+00 0.000000e+00 0.000000e+00 0.000000e+00
 0.000000e+00 0.000000e+00 0.000000e+00 0.000000e+00 0.000000e+00 0.000000e+00 0.000000e+00 8.519487e-01 1.480513e-01 0.000000e+00 0.000000e+00 0.000000e+00 0.000000e+00 0.000000e+00
 0.000000e+00 0.000000e+00 0.000000e+00 0.000000e+00 0.000000e+00 0.000000e+00 0.000000e+00 0.000000e+00 6.235251e-01 3.764749e-01 0.000000e+00 0.000000e+00 0.000000e+00 0.000000e+00
 0.000000e+00 0.000000e+00 0.000000e+00 0.000000e+00 0.000000e+00 0.000000e+00 0.000000e+00 0.000000e+00 0.000000e+00 3.729475e-01 6.270525e-01 0.000000e+00 0.000000e+00 0.000000e+00
 0.000000e+00 0.000000e+00 0.000000e+00 0.000000e+00 0.000000e+00 0.000000e+00 0.000000e+00 0.000000e+00 0.000000e+00 0.000000e+00 2.000617e-01 7.999383e-01 0.000000e+00 0.000000e+00
 0.000000e+00 0.000000e+00 0.000000e+00 0.000000e+00 0.000000e+00 0.000000e+00 0.000000e+00 0.000000e+00 0.000000e+00 0.000000e+00 0.000000e+00 4.285432e-01 5.714568e-01 0.000000e+00
 0.000000e+00 0.000000e+00 0.000000e+00 0.000000e+00 0.000000e+00 0.000000e+00 0.000000e+00 0.000000e+00 0.000000e+00 0.000000e+00 0.000000e+00 0.000000e+00 3.333338e-01 6.666662e-01
 0.000000e+00 0.000000e+00 0.000000e+00 0.000000e+00 0.000000e+00 0.000000e+00 0.000000e+00 0.000000e+00 0.000000e+00 0.000000e+00 0.000000e+00 0.000000e+00 0.000000e+00 0.000000e+00
<ENDHMM>
~h "f"
<BEGINHMM>
<NUMSTATES> 14
<STATE> 2
<MEAN> 20
 6.536499e+03 4.876250e+02 7.703739e+02 0.000000e+00 0.000000e+00 0.000000e+00 0.000000e+00 0.000000e+00 1.249999e-01 1.870000e+02 3.837502e+01 4.626251e+02 3.078247e+03 2.478374e+03 1.835626e+03 8.450007e+01 3.500003e+00 3.750003e-01 0.000000e+00 0.000000e+00
<VARIANCE> 20
 7.309556e+06 1.542846e+05 7.784462e+05 1.000000e-02 1.000000e-02 1.000000e-02 1.000000e-02 1.000000e-02 1.093749e-01 7.800419e+04 3.192736e+03 1.699317e+05 1.169144e+07 2.555453e+06 3.329200e+06 1.530426e+04 4.075002e+01 9.843757e-01 1.000000e-02 1.000000e-02
<GCONST> 1.343749e+02
<STATE> 3
<MEAN> 20
 6.245616e+03 3.607297e+02 1.536512e+03 1.081086e-01 0.000000e+00 0.000000e+00 0.000000e+00 0.000000e+00 0.000000e+00 1.593240e+02 0.000000e+00 4.885683e+02 4.750755e+03 2.797616e+03 2.519449e+02 1.270252e+01 7.026789e-01 0.000000e+00 0.000000e+00 0.000000e+00
<VARIANCE> 20
 3.803833e+06 2.433713e+04 3.709068e+05 2.045298e-01 1.000000e-02 1.000000e-02 1.000000e-02 1.000000e-02 1.000000e-02 3.749663e+04 1.000000e-02 1.707608e+05 1.617685e+06 1.141565e+06 1.154441e+05 2.550675e+02 4.695285e+00 1.000000e-02 1.000000e-02 1.000000e-02
<GCONST> 1.013680e+02
<STATE> 4
<MEAN> 20
 8.761645e+03 3.511105e+02 1.097678e+03 1.111093e-01 0.000000e+00 0.000000e+00 0.000000e+00 0.000000e+00 0.000000e+00 1.315576e+02 2.122184e+01 3.152227e+02 5.597878e+03 3.881223e+03 4.665559e+02 4.300019e+01 1.033325e+01 6.110995e+00 5.555459e-01 0.000000e+00
<VARIANCE> 20
 5.288785e+06 1.373941e+05 7.561664e+05 9.876402e-02 1.000000e-02 1.000000e-02 1.000000e-02 1.000000e-02 1.000000e-02 2.395495e+04 3.560783e+03 6.612526e+04 2.276182e+06 4.578784e+05 1.801906e+04 6.639897e+02 6.466578e+01 7.632010e+01 1.580226e+00 1.000000e-02
<GCONST> 1.299518e+02
<STATE> 5
<MEAN> 20
 6.604266e+03 3.396944e+02 1.578391e+03 0.000000e+00 0.000000e+00 0.000000e+00 0.000000e+00 0.000000e+00 0.000000e+00 1.315595e+02 0.000000e+00 1.934693e+02 4.471819e+03 3.636347e+03 3.234284e+02 2.734852e+01 1.498269e+00 0.000000e+00 0.000000e+00 0.000000e+00
<VARIANCE> 20
 8.739992e+05 1.284461e+04 1.884787e+05 1.000000e-02 1.000000e-02 1.000000e-02 1.000000e-02 1.000000e-02 1.000000e-02 1.381161e+04 1.000000e-02 1.356457e+04 9.719132e+05 2.648310e+05 3.054452e+04 8.568143e+02 6.617139e+00 1.000000e-02 1.000000e-02 1.000000e-02
<GCONST> 9.028625e+01
<STATE> 6
<MEAN> 20
 9.124732e+03 1.377804e+02 5.274617e+02 0.000000e+00 0.000000e+00 0.000000e+00 0.000000e+00 0.000000e+00 0.000000e+00 1.742119e+02 0.000000e+00 2.541970e+02 5.875385e+03 3.480742e+03 3.063406e+02 3.772790e+01 9.120868e+00 6.528289e-01 2.040093e-02 0.000000e+00
<VARIANCE> 20
 1.872714e+06 2.871343e+04 5.771662e+05 1.000000e-02 1.000000e-02 1.000000e-02 1.000000e-02 1.000000e-02 1.000000e-02 3.411727e+04 1.000000e-02 1.467029e+05 1.804564e+06 1.439249e+06 5.863170e+04 1.721036e+03 2.521102e+02 1.491500e+00 1.998474e-02 1.000000e-02
<GCONST> 1.092558e+02
<STATE> 7
<MEAN> 20
 8.197618e+03 3.173918e+02 1.465898e+03 8.999797e+00 0.000000e+00 0.000000e+00 0.000000e+00 0.000000e+00 0.000000e+00 1.594424e+02 0.000000e+00 5.426185e+02 6.812810e+03 2.599202e+03 1.336094e+02 4.077731e+01 1.233311e+01 5.166565e+00 1.944407e+00 8.888711e-01
<VARIANCE> 20
 1.955051e+06 2.615654e+04 6.082108e+05 3.225500e+02 1.000000e-02 1.000000e-02 1.000000e-02 1.000000e-02 1.000000e-02 5.759148e+04 1.000000e-02 1.170670e+05 9.161016e+05 1.238237e+06 2.113782e+03 1.838037e+03 2.009986e+02 6.080488e+01 2.127435e+01 6.876423e+00
<GCONST> 1.328368e+02
<STATE> 8
<MEAN> 20
 9.640750e+03 2.875001e+02 1.354000e+03 1.049998e+01 0.000000e+00 0.000000e+00 0.000000e+00 0.000000e+00 0.000000e+00 2.507496e+02 0.000000e+00 9.587491e+02 8.348250e+03 2.093751e+03 1.067500e+02 2.699998e+01 6.999986e+00 1.500002e+00 5.000002e-01 0.000000e+00
<VARIANCE> 20
 3.131319e+06 1.832228e+04 5.650466e+05 1.822499e+02 1.000000e-02 1.000000e-02 1.000000e-02 1.000000e-02 1.000000e-02 6.474508e+04 1.000000e-02 3.305770e+05 1.846258e+05 2.598424e+06 5.886883e+02 5.994989e+02 1.094998e+02 2.750005e+00 2.500000e-01 1.000000e-02
<GCONST> 1.155228e+02
<STATE> 9
<MEAN> 20
 8.404670e+03 3.287902e+02 1.393679e+03 1.330837e+00 0.000000e+00 0.000000e+00 0.000000e+00 0.000000e+00 0.000000e+00 3.210162e+02 0.000000e+00 1.195409e+03 7.905678e+03 1.239461e+03 8.974254e+01 1.513792e+01 3.765307e+00 2.921362e-01 0.000000e+00 0.000000e+00
<VARIANCE> 20
 3.844461e+06 4.802239e+04 8.259574e+05 1.565959e+01 1.000000e-02 1.000000e-02 1.000000e-02 1.000000e-02 1.000000e-02 6.193628e+04 1.000000e-02 6.244606e+05 1.522742e+06 8.969839e+05 2.743222e+03 3.575336e+02 5.294873e+01 9.209044e-01 1.000000e-02 1.000000e-02
<GCONST> 1.122375e+02
<STATE> 10
<MEAN> 20
 9.516676e+03 3.808166e+02 1.629797e+03 5.383759e+01 0.000000e+00 0.000000e+00 0.000000e+00 0.000000e+00 0.000000e+00 7.206935e+02 7.034589e+00 2.504708e+03 9.181438e+03 5.321075e+02 6.260573e+01 1.218036e+01 1.684228e+00 6.225282e-02 0.000000e+00 0.000000e+00
<VARIANCE> 20
 2.001434e+06 1.221042e+04 2.330464e+05 2.110251e+03 1.000000e-02 1.000000e-02 1.000000e-02 1.000000e-02 1.000000e-02 5.581018e+04 2.547451e+02 3.494250e+05 1.022805e+06 1.084887e+05 2.680924e+03 4.686473e+02 2.687158e+01 5.837740e-02 1.000000e-02 1.000000e-02
<GCONST> 1.176148e+02
<STATE> 11
<MEAN> 20
 8.464093e+03 3.506906e+02 1.593678e+03 1.038826e+02 0.000000e+00 0.000000e+00 0.000000e+00 0.000000e+00 0.000000e+00 9.017569e+02 2.095539e-01 3.203201e+03 7.647521e+03 4.326115e+02 9.099287e+01 3.435611e+01 4.582331e+00 5.218017e-01 1.047769e-01 0.000000e+00
<VARIANCE> 20
 1.184053e+06 1.184638e+04 2.466235e+05 1.974223e+04 1.000000e-02 1.000000e-02 1.000000e-02 1.000000e-02 1.000000e-02 1.590159e+05 2.704180e-01 1.021451e+06 6.645098e+05 3.495752e+04 1.105518e+03 7.957885e+02 5.172042e+01 1.192516e+00 1.985756e-01 1.000000e-02
<GCONST> 1.193640e+02
<STATE> 12
<MEAN> 20
 8.546014e+03 3.097842e+02 8.773690e+02 3.426291e+02 0.000000e+00 0.000000e+00 0.000000e+00 0.000000e+00 0.000000e+00 8.562617e+02 2.987826e-01 3.521516e+03 6.801385e+03 5.053396e+02 6.211672e+01 2.601232e+01 1.170004e+01 3.390164e+00 1.991884e-01 9.959417e-02
<VARIANCE> 20
 2.968493e+06 1.567268e+04 1.680169e+05 7.785570e+04 1.000000e-02 1.000000e-02 1.000000e-02 1.000000e-02 1.000000e-02 7.931020e+04 8.070764e-01 1.775862e+06 1.904374e+06 1.182047e+05 1.229533e+03 7.137402e+02 2.185334e+02 2.735250e+01 3.587007e-01 8.967517e-02
<GCONST> 1.321296e+02
<STATE> 13
<MEAN> 20
 9.499085e+03 1.661610e+02 5.138382e+02 2.700202e+00 0.000000e+00 0.000000e+00 0.000000e+00 0.000000e+00 0.000000e+00 5.954517e+02 1.000076e+00 1.591933e+03 8.196838e+03 8.550732e+02 8.384294e+01 2.939899e+01 1.324936e+01 4.950013e+00 8.000601e-01 1.500111e-01
<VARIANCE> 20
 3.333084e+06 3.319727e+04 4.961678e+05 5.601362e+01 1.000000e-02 1.000000e-02 1.000000e-02 1.000000e-02 1.000000e-02 1.559503e+05 1.900138e+01 8.818457e+05 2.924713e+06 4.036435e+05 4.597325e+03 4.800364e+02 1.975599e+02 4.044870e+01 3.460211e+00 2.275151e-01
<GCONST> 1.360441e+02
<TRANSP> 14
 0.000000e+00 1.000000e+00 0.000000e+00 0.000000e+00 0.000000e+00 0.000000e+00 0.000000e+00 0.000000e+00 0.000000e+00 0.000000e+00 0.000000e+00 0.000000e+00 0.000000e+00 0.000000e+00
 0.000000e+00 5.000006e-01 4.999994e-01 0.000000e+00 0.000000e+00 0.000000e+00 0.000000e+00 0.000000e+00 0.000000e+00 0.000000e+00 0.000000e+00 0.000000e+00 0.000000e+00 0.000000e+00
 0.000000e+00 0.000000e+00 8.918915e-01 1.081085e-01 0.000000e+00 0.000000e+00 0.000000e+00 0.000000e+00 0.000000e+00 0.000000e+00 0.000000e+00 0.000000e+00 0.000000e+00 0.000000e+00
 0.000000e+00 0.000000e+00 0.000000e+00 5.555636e-01 4.444364e-01 0.000000e+00 0.000000e+00 0.000000e+00 0.000000e+00 0.000000e+00 0.000000e+00 0.000000e+00 0.000000e+00 0.000000e+00
 0.000000e+00 0.000000e+00 0.000000e+00 0.000000e+00 8.749306e-01 1.250694e-01 0.000000e+00 0.000000e+00 0.000000e+00 0.000000e+00 0.000000e+00 0.000000e+00 0.000000e+00 0.000000e+00
 0.000000e+00 0.000000e+00 0.000000e+00 0.000000e+00 0.000000e+00 9.183964e-01 8.160358e-02 0.000000e+00 0.000000e+00 0.000000e+00 0.000000e+00 0.000000e+00 0.000000e+00 0.000000e+00
 0.000000e+00 0.000000e+00 0.000000e+00 0.000000e+00 0.000000e+00 0.000000e+00 7.777826e-01 2.222175e-01 0.000000e+00 0.000000e+00 0.000000e+00 0.000000e+00 0.000000e+00 0.000000e+00
 0.000000e+00 0.000000e+00 0.000000e+00 0.000000e+00 0.000000e+00 0.000000e+00 0.000000e+00 0.000000e+00 1.000000e+00 0.000000e+00 0.000000e+00 0.000000e+00 0.000000e+00 0.000000e+00
 0.000000e+00 0.000000e+00 0.000000e+00 0.000000e+00 0.000000e+00 0.000000e+00 0.000000e+00 0.000000e+00 8.701618e-01 1.298383e-01 0.000000e+00 0.000000e+00 0.000000e+00 0.000000e+00
 0.000000e+00 0.000000e+00 0.000000e+00 0.000000e+00 0.000000e+00 0.000000e+00 0.000000e+00 0.000000e+00 0.000000e+00 7.509879e-01 2.490120e-01 0.000000e+00 0.000000e+00 0.000000e+00
 0.000000e+00 0.000000e+00 0.000000e+00 0.000000e+00 0.000000e+00 0.000000e+00 0.000000e+00 0.000000e+00 0.000000e+00 0.000000e+00 7.904456e-01 2.095544e-01 0.000000e+00 0.000000e+00
 0.000000e+00 0.000000e+00 0.000000e+00 0.000000e+00 0.000000e+00 0.000000e+00 0.000000e+00 0.000000e+00 0.000000e+00 0.000000e+00 0.000000e+00 6.016256e-01 3.983745e-01 0.000000e+00
 0.000000e+00 0.000000e+00 0.000000e+00 0.000000e+00 0.000000e+00 0.000000e+00 0.000000e+00 0.000000e+00 0.000000e+00 0.000000e+00 0.000000e+00 0.000000e+00 7.999847e-01 2.000153e-01
 0.000000e+00 0.000000e+00 0.000000e+00 0.000000e+00 0.000000e+00 0.000000e+00 0.000000e+00 0.000000e+00 0.000000e+00 0.000000e+00 0.000000e+00 0.000000e+00 0.000000e+00 0.000000e+00
<ENDHMM>
~h "g"
<BEGINHMM>
<NUMSTATES> 14
<STATE> 2
<MEAN> 20
 6.291506e+03 3.697010e+01 3.574033e+00 0.000000e+00 3.843046e-02 1.055707e+03 1.744104e+02 1.116902e+02 1.310665e+02 1.791688e+03 4.117718e+00 1.431043e+03 5.437009e+03 1.270948e+03 6.171826e+02 6.417393e+02 1.150992e+02 5.264973e+01 2.378846e+01 3.074437e+00
<VARIANCE> 20
 9.181078e+06 8.306849e+03 3.196114e+02 1.000000e-02 3.695356e-02 9.087334e+05 4.866329e+04 1.348922e+04 1.373578e+04 1.460514e+06 1.168605e+02 1.281586e+06 9.224576e+06 2.162340e+06 3.248732e+05 2.232037e+05 1.266541e+04 4.247022e+03 1.645360e+03 4.304384e+01
<GCONST> 2.208473e+02
<STATE> 3
<MEAN> 20
 4.645661e+03 9.274736e+01 6.762093e+01 0.000000e+00 0.000000e+00 1.772420e+00 8.340516e-01 9.362628e-01 3.229214e+00 2.094480e+01 4.197045e+00 3.137301e+01 5.499015e+02 2.771345e+03 1.398833e+03 5.712424e+01 1.856948e+01 2.352467e+00 5.005250e-02 0.000000e+00
<VARIANCE> 20
 5.668774e+06 3.375863e+04 5.487951e+04 1.000000e-02 1.000000e-02 3.847785e+01 1.189839e+01 9.578298e+00 8.857020e+01 1.542754e+03 9.695351e+01 5.128432e+03 1.314071e+06 2.752571e+06 1.139538e+06 1.140109e+04 3.581542e+03 3.676026e+01 4.754724e-02 1.000000e-02
<GCONST> 1.541065e+02
<STATE> 4
<MEAN> 20
 4.068918e+03 2.871667e+02 3.642501e+02 1.090834e+02 7.108332e+01 1.911665e+02 1.296668e+02 6.733339e+01 3.616669e+01 9.650005e+01 2.375835e+02 2.568335e+02 4.963337e+02 2.056502e+03 1.724750e+03 5.350827e+02 9.866665e+01 1.141668e+01 3.000003e+00 1.166668e+00
<VARIANCE> 20
 1.657418e+06 3.116933e+04 1.576677e+05 4.292245e+04 1.442475e+04 9.107793e+04 3.206158e+04 9.261562e+03 2.920475e+03 1.339893e+04 9.714064e+04 1.040357e+05 2.975416e+05 3.204139e+06 1.268041e+06 2.988924e+05 2.160905e+04 9.019106e+02 6.316672e+01 6.972228e+00
<GCONST> 2.422021e+02
<STATE> 5
<MEAN> 20
 3.881071e+03 1.530000e+02 1.230714e+02 5.285704e+00 5.714291e+00 5.928574e+00 6.400010e+01 2.650000e+01 2.521427e+01 3.392861e+01 1.340002e+02 5.214293e+01 8.307148e+01 6.171439e+02 2.815998e+03 5.996423e+02 1.899998e+01 1.142855e+00 7.857127e-01 7.857128e-01
<VARIANCE> 20
 5.325164e+06 6.727033e+04 7.758899e+04 3.632034e+02 2.010614e+02 1.677805e+02 2.701792e+04 2.133107e+03 2.468022e+03 2.516212e+03 1.037752e+05 4.806269e+03 1.579705e+04 7.998876e+05 5.097708e+06 3.242371e+05 1.128427e+03 1.297957e+01 5.454072e+00 4.596931e+00
<GCONST> 2.086884e+02
<STATE> 6
<MEAN> 20
 2.115190e+03 1.276694e+02 2.134986e+02 6.091548e+01 4.499912e+01 2.241627e+02 3.408385e+01 1.033346e+01 6.833381e+00 4.208329e+01 2.683341e+01 9.116691e+01 1.368335e+02 4.184137e+02 1.420026e+03 6.306641e+02 1.290818e+02 2.374953e+01 1.916623e+00 1.083308e+00
<VARIANCE> 20
 1.415207e+06 1.327848e+04 1.520835e+05 6.028030e+03 3.324475e+03 6.553350e+04 3.824513e+03 2.155520e+02 6.997093e+01 5.271284e+03 1.355446e+03 1.086408e+04 1.383001e+04 1.366507e+05 4.348118e+05 3.653775e+05 5.395198e+04 3.196136e+03 1.640941e+01 7.909554e+00
<GCONST> 2.141782e+02
<STATE> 7
<MEAN> 20
 3.293928e+03 1.171404e+02 5.885585e+01 8.428714e+00 6.928686e+00 8.999804e+00 2.971380e+01 1.735715e+01 5.907234e+01 5.057157e+01 1.632881e+02 4.142747e+01 3.147875e+02 5.035029e+02 1.743198e+03 8.089342e+02 7.364330e+01 2.214325e+00 0.000000e+00 0.000000e+00
<VARIANCE> 20
 4.036856e+06 4.382796e+04 1.252010e+04 5.085381e+02 3.037849e+02 2.201443e+02 3.308820e+03 6.859559e+02 3.511179e+04 5.326197e+03 1.289169e+05 1.892636e+03 8.023208e+05 1.091810e+06 2.592165e+06 6.097733e+05 1.903013e+04 3.474033e+01 1.000000e-02 1.000000e-02
<GCONST> 2.022071e+02
<STATE> 8
<MEAN> 20
 3.966611e+03 7.477782e+01 2.888891e+00 1.666668e-01 6.111115e-01 0.000000e+00 1.666668e-01 5.555559e-02 3.888890e-01 2.311112e+01 1.405556e+01 4.055558e+01 3.010552e+02 8.223325e+02 1.943779e+03 8.967223e+02 4.983335e+01 4.444446e-01 0.000000e+00 0.000000e+00
<VARIANCE> 20
 2.779708e+06 7.237177e+04 8.554327e+01 4.722225e-01 6.348771e+00 1.000000e-02 4.722225e-01 5.246918e-02 1.904321e+00 1.865544e+03 2.183387e+03 2.417937e+04 3.619408e+05 1.110850e+06 3.694424e+06 8.581346e+05 8.166921e+03 1.024692e+00 1.000000e-02 1.000000e-02
<GCONST> 1.413129e+02
<STATE> 9
<MEAN> 20
 7.127483e+03 7.639560e+00 0.000000e+00 0.000000e+00 0.000000e+00 0.000000e+00 0.000000e+00 0.000000e+00 0.000000e+00 7.555576e+01 0.000000e+00 3.900505e+01 3.043578e+03 1.953089e+03 1.850467e+03 3.136416e+02 1.006580e+01 7.623585e-01 6.924073e-02 0.000000e+00
<VARIANCE> 20
 1.738559e+07 6.089563e+02 1.000000e-02 1.000000e-02 1.000000e-02 1.000000e-02 1.000000e-02 1.000000e-02 1.000000e-02 2.117927e+04 1.000000e-02 1.804570e+04 1.480790e+07 5.821054e+06 3.255296e+06 1.403401e+05 3.554764e+02 6.093263e+00 6.444648e-02 1.000000e-02
<GCONST> 1.020293e+02
<STATE> 10
<MEAN> 20
 8.498286e+03 1.537117e+00 0.000000e+00 0.000000e+00 0.000000e+00 0.000000e+00 0.000000e+00 0.000000e+00 0.000000e+00 5.445007e+01 7.123224e-01 3.928934e+01 4.706268e+03 3.664248e+03 1.214242e+02 1.247838e+01 6.106494e+00 2.923119e+00 7.498151e-01 7.498156e-02
<VARIANCE> 20
 3.868040e+06 2.406818e+01 1.000000e-02 1.000000e-02 1.000000e-02 1.000000e-02 1.000000e-02 1.000000e-02 1.000000e-02 4.835664e+03 7.178175e+00 2.822113e+04 5.366318e+06 4.692482e+06 2.010939e+04 2.312243e+02 7.343280e+01 2.638980e+01 2.587002e+00 6.935932e-02
<GCONST> 9.563399e+01
<STATE> 11
<MEAN> 20
 9.700785e+03 0.000000e+00 0.000000e+00 0.000000e+00 0.000000e+00 0.000000e+00 0.000000e+00 0.000000e+00 0.000000e+00 1.157406e+02 0.000000e+00 4.406115e+02 7.422690e+03 1.843302e+03 1.012182e+02 7.808655e+00 8.410972e-01 5.336094e-02 0.000000e+00 0.000000e+00
<VARIANCE> 20
 5.448691e+06 1.000000e-02 1.000000e-02 1.000000e-02 1.000000e-02 1.000000e-02 1.000000e-02 1.000000e-02 1.000000e-02 2.528189e+04 1.000000e-02 5.833363e+05 6.085665e+06 3.052142e+06 2.435855e+04 1.656311e+02 6.140765e+00 7.719395e-02 1.000000e-02 1.000000e-02
<GCONST> 7.004263e+01
<STATE> 12
<MEAN> 20
 1.017294e+04 4.000002e+00 0.000000e+00 0.000000e+00 0.000000e+00 0.000000e+00 0.000000e+00 0.000000e+00 0.000000e+00 4.504945e+01 1.428573e+00 2.474430e+02 6.524115e+03 3.216133e+03 1.669112e+02 4.957391e+01 1.452332e+01 1.857144e+00 0.000000e+00 0.000000e+00
<VARIANCE> 20
 1.453304e+06 5.600007e+01 1.000000e-02 1.000000e-02 1.000000e-02 1.000000e-02 1.000000e-02 1.000000e-02 1.000000e-02 3.219119e+03 1.224491e+01 2.558666e+05 5.101152e+06 4.857196e+06 2.120647e+04 2.081932e+03 5.544809e+02 9.265312e+00 1.000000e-02 1.000000e-02
<GCONST> 9.354846e+01
<STATE> 13
<MEAN> 20
 9.155206e+03 0.000000e+00 0.000000e+00 0.000000e+00 0.000000e+00 0.000000e+00 0.000000e+00 0.000000e+00 0.000000e+00 3.510735e+01 0.000000e+00 2.787560e+02 7.049044e+03 1.728878e+03 1.053949e+02 2.441949e+01 3.595790e+00 1.610301e-01 6.441896e-02 0.000000e+00
<VARIANCE> 20
 1.777748e+06 1.000000e-02 1.000000e-02 1.000000e-02 1.000000e-02 1.000000e-02 1.000000e-02 1.000000e-02 1.000000e-02 5.064485e+03 1.000000e-02 3.712272e+05 3.512575e+06 2.381620e+06 6.121138e+03 7.496055e+02 5.723124e+01 5.215617e-01 2.535259e-01 1.000000e-02
<GCONST> 7.356935e+01
<TRANSP> 14
 0.000000e+00 1.000000e+00 0.000000e+00 0.000000e+00 0.000000e+00 0.000000e+00 0.000000e+00 0.000000e+00 0.000000e+00 0.000000e+00 0.000000e+00 0.000000e+00 0.000000e+00 0.000000e+00
 0.000000e+00 7.309871e-01 2.690129e-01 0.000000e+00 0.000000e+00 0.000000e+00 0.000000e+00 0.000000e+00 0.000000e+00 0.000000e+00 0.000000e+00 0.000000e+00 0.000000e+00 0.000000e+00
 0.000000e+00 0.000000e+00 6.496311e-01 3.503689e-01 0.000000e+00 0.000000e+00 0.000000e+00 0.000000e+00 0.000000e+00 0.000000e+00 0.000000e+00 0.000000e+00 0.000000e+00 0.000000e+00
 0.000000e+00 0.000000e+00 0.000000e+00 4.166669e-01 5.833332e-01 0.000000e+00 0.000000e+00 0.000000e+00 0.000000e+00 0.000000e+00 0.000000e+00 0.000000e+00 0.000000e+00 0.000000e+00
 0.000000e+00 0.000000e+00 0.000000e+00 0.000000e+00 4.999990e-01 5.000010e-01 0.000000e+00 0.000000e+00 0.000000e+00 0.000000e+00 0.000000e+00 0.000000e+00 0.000000e+00 0.000000e+00
 0.000000e+00 0.000000e+00 0.000000e+00 0.000000e+00 0.000000e+00 4.166788e-01 5.833212e-01 0.000000e+00 0.000000e+00 0.000000e+00 0.000000e+00 0.000000e+00 0.000000e+00 0.000000e+00
 0.000000e+00 0.000000e+00 0.000000e+00 0.000000e+00 0.000000e+00 0.000000e+00 4.999917e-01 5.000083e-01 0.000000e+00 0.000000e+00 0.000000e+00 0.000000e+00 0.000000e+00 0.000000e+00
 0.000000e+00 0.000000e+00 0.000000e+00 0.000000e+00 0.000000e+00 0.000000e+00 0.000000e+00 6.111114e-01 3.888886e-01 0.000000e+00 0.000000e+00 0.000000e+00 0.000000e+00 0.000000e+00
 0.000000e+00 0.000000e+00 0.000000e+00 0.000000e+00 0.000000e+00 0.000000e+00 0.000000e+00 0.000000e+00 8.384383e-01 1.615617e-01 0.000000e+00 0.000000e+00 0.000000e+00 0.000000e+00
 0.000000e+00 0.000000e+00 0.000000e+00 0.000000e+00 0.000000e+00 0.000000e+00 0.000000e+00 0.000000e+00 0.000000e+00 7.375653e-01 2.624348e-01 0.000000e+00 0.000000e+00 0.000000e+00
 0.000000e+00 0.000000e+00 0.000000e+00 0.000000e+00 0.000000e+00 0.000000e+00 0.000000e+00 0.000000e+00 0.000000e+00 0.000000e+00 9.066185e-01 9.338146e-02 0.000000e+00 0.000000e+00
 0.000000e+00 0.000000e+00 0.000000e+00 0.000000e+00 0.000000e+00 0.000000e+00 0.000000e+00 0.000000e+00 0.000000e+00 0.000000e+00 0.000000e+00 0.000000e+00 1.000000e+00 0.000000e+00
 0.000000e+00 0.000000e+00 0.000000e+00 0.000000e+00 0.000000e+00 0.000000e+00 0.000000e+00 0.000000e+00 0.000000e+00 0.000000e+00 0.000000e+00 0.000000e+00 8.872671e-01 1.127329e-01
 0.000000e+00 0.000000e+00 0.000000e+00 0.000000e+00 0.000000e+00 0.000000e+00 0.000000e+00 0.000000e+00 0.000000e+00 0.000000e+00 0.000000e+00 0.000000e+00 0.000000e+00 0.000000e+00
<ENDHMM>
~h "h"
<BEGINHMM>
<NUMSTATES> 14
<STATE> 2
<MEAN> 20
 5.488300e+03 4.000020e+00 5.714314e-01 0.000000e+00 3.285731e+00 1.028577e+01 1.115720e+02 8.100040e+01 8.671350e+01 1.557260e+03 8.284149e+02 9.939880e+02 2.673146e+03 1.054861e+03 1.646151e+03 6.985696e+01 2.628552e+01 4.485693e+01 4.857085e+00 5.714275e-01
<VARIANCE> 20
 1.133068e+07 3.114293e+01 1.959192e+00 1.000000e-02 1.734697e+01 2.990622e+02 2.870033e+04 9.381443e+03 1.015834e+04 7.771117e+06 2.436877e+06 1.948698e+06 1.373314e+07 6.138676e+05 2.259761e+06 4.090705e+03 1.028199e+03 5.481272e+03 4.783606e+01 1.102045e+00
<GCONST> 2.069723e+02
<STATE> 3
<MEAN> 20
 7.648546e+03 0.000000e+00 0.000000e+00 0.000000e+00 0.000000e+00 0.000000e+00 0.000000e+00 0.000000e+00 0.000000e+00 4.320776e+02 0.000000e+00 8.104628e+02 4.060237e+03 2.098542e+03 9.069983e+02 1.023836e+02 2.423081e+01 7.046165e+01 7.307704e+00 0.000000e+00
<VARIANCE> 20
 7.486600e+06 1.000000e-02 1.000000e-02 1.000000e-02 1.000000e-02 1.000000e-02 1.000000e-02 1.000000e-02 1.000000e-02 2.198234e+05 1.000000e-02 7.310817e+05 1.371560e+07 3.118485e+06 8.626772e+05 3.074447e+04 1.373717e+03 1.188210e+04 2.279057e+02 1.000000e-02
<GCONST> 1.097625e+02
<STATE> 4
<MEAN> 20
 4.439567e+03 8.482863e+01 1.600032e+01 0.000000e+00 3.466739e+01 2.483385e+01 2.178363e+02 7.000132e+01 3.166733e+01 1.881704e+02 1.099987e+02 3.148376e+02 2.285045e+03 1.369858e+03 7.293337e+02 2.596665e+02 2.466718e+01 1.300027e+01 1.166691e+00 0.000000e+00
<VARIANCE> 20
 1.601199e+07 1.758802e+04 7.483444e+02 1.000000e-02 6.008989e+03 3.083524e+03 2.003752e+05 2.285940e+04 4.826969e+03 8.256184e+04 2.932574e+04 1.194687e+05 1.504566e+07 2.715167e+06 9.289547e+05 1.517598e+05 1.145900e+03 7.233448e+02 6.805668e+00 1.000000e-02
<GCONST> 2.138475e+02
<STATE> 5
<MEAN> 20
 4.135773e+03 2.926690e+02 1.916640e+01 1.549977e+01 6.183243e+01 5.466588e+01 1.824990e+02 8.483228e+01 2.383302e+01 1.708311e+02 5.956619e+02 3.514974e+02 1.884641e+03 3.561661e+02 1.442141e+03 3.746613e+02 1.499979e+01 8.666542e+00 6.666571e+00 6.499907e+00
<VARIANCE> 20
 8.233138e+06 1.852670e+05 7.647990e+02 6.205778e+02 8.530736e+03 5.038524e+03 6.323970e+04 1.397168e+04 6.431383e+02 2.050650e+04 4.499543e+05 8.280673e+04 1.267221e+07 3.713965e+04 7.445777e+05 1.359638e+05 2.543326e+02 2.532196e+02 1.515540e+02 1.422485e+02
<GCONST> 2.300623e+02
<STATE> 6
<MEAN> 20
 3.419865e+03 4.940007e+01 0.000000e+00 0.000000e+00 0.000000e+00 0.000000e+00 1.333337e-01 2.000005e-01 6.666681e-02 2.633330e+01 6.000014e-01 6.666657e+01 7.854636e+02 5.555964e+02 1.675670e+03 3.729342e+02 2.780006e+01 8.800015e+00 1.600004e+00 8.666688e-01
<VARIANCE> 20
 4.856445e+06 1.499240e+04 1.000000e-02 1.000000e-02 1.000000e-02 1.000000e-02 2.488894e-01 5.600013e-01 6.222236e-02 8.269010e+03 2.373338e+00 4.780175e+04 4.987659e+06 6.437061e+05 1.313305e+06 1.112452e+05 3.943768e+03 3.778941e+02 2.317338e+01 6.515571e+00
<GCONST> 1.329965e+02
<STATE> 7
<MEAN> 20
 6.941908e+03 1.538409e-01 0.000000e+00 0.000000e+00 0.000000e+00 0.000000e+00 0.000000e+00 0.000000e+00 0.000000e+00 1.320708e+02 0.000000e+00 2.729960e+02 3.682952e+03 1.175182e+03 1.886928e+03 4.253683e+01 9.384256e+00 3.769085e+00 3.076814e-01 7.691829e-02
<VARIANCE> 20
 8.162978e+06 2.840147e-01 1.000000e-02 1.000000e-02 1.000000e-02 1.000000e-02 1.000000e-02 1.000000e-02 1.000000e-02 6.387743e+04 1.000000e-02 2.402257e+05 1.534836e+07 3.831795e+05 4.425213e+06 4.757212e+03 6.474460e+02 1.290962e+02 6.745362e-01 7.100188e-02
<GCONST> 9.949445e+01
<STATE> 8
<MEAN> 20
 1.079129e+04 0.000000e+00 0.000000e+00 0.000000e+00 0.000000e+00 0.000000e+00 0.000000e+00 0.000000e+00 0.000000e+00 2.507095e+02 0.000000e+00 6.408446e+02 7.820908e+03 2.390464e+03 1.512993e+02 3.296312e+01 4.592609e+00 8.518635e-01 7.407548e-02 0.000000e+00
<VARIANCE> 20
 7.298831e+06 1.000000e-02 1.000000e-02 1.000000e-02 1.000000e-02 1.000000e-02 1.000000e-02 1.000000e-02 1.000000e-02 6.658823e+04 1.000000e-02 4.673950e+05 6.171100e+06 2.512417e+06 2.130423e+04 1.512757e+03 7.750088e+01 8.348549e+00 6.858830e-02 1.000000e-02
<GCONST> 8.212350e+01
<STATE> 9
<MEAN> 20
 9.585104e+03 0.000000e+00 0.000000e+00 0.000000e+00 0.000000e+00 0.000000e+00 0.000000e+00 0.000000e+00 0.000000e+00 3.822021e+02 0.000000e+00 6.339156e+02 8.370652e+03 9.140629e+02 4.463040e+01 4.045661e+00 0.000000e+00 0.000000e+00 0.000000e+00 0.000000e+00
<VARIANCE> 20
 5.397478e+06 1.000000e-02 1.000000e-02 1.000000e-02 1.000000e-02 1.000000e-02 1.000000e-02 1.000000e-02 1.000000e-02 6.989954e+04 1.000000e-02 2.338868e+05 3.291268e+06 5.891286e+05 2.814535e+03 3.608049e+01 1.000000e-02 1.000000e-02 1.000000e-02 1.000000e-02
<GCONST> 5.573065e+01
<STATE> 10
<MEAN> 20
 9.886784e+03 0.000000e+00 0.000000e+00 0.000000e+00 0.000000e+00 0.000000e+00 0.000000e+00 0.000000e+00 0.000000e+00 1.982549e+02 0.000000e+00 9.435950e+02 8.157483e+03 8.036359e+02 1.336227e+02 3.540023e+01 4.772204e+00 6.530386e+00 0.000000e+00 0.000000e+00
<VARIANCE> 20
 1.242667e+06 1.000000e-02 1.000000e-02 1.000000e-02 1.000000e-02 1.000000e-02 1.000000e-02 1.000000e-02 1.000000e-02 4.644036e+04 1.000000e-02 2.392459e+05 1.460060e+05 2.240086e+05 5.782296e+03 1.256691e+03 1.161224e+02 2.969341e+02 1.000000e-02 1.000000e-02
<GCONST> 7.372240e+01
<STATE> 11
<MEAN> 20
 1.162623e+04 1.449973e+01 0.000000e+00 0.000000e+00 0.000000e+00 0.000000e+00 0.000000e+00 0.000000e+00 0.000000e+00 2.902511e+02 2.299957e+01 9.592421e+02 1.010323e+04 6.657529e+02 1.272508e+02 5.075029e+01 1.750010e+00 0.000000e+00 0.000000e+00 0.000000e+00
<VARIANCE> 20
 5.522948e+06 6.307421e+02 1.000000e-02 1.000000e-02 1.000000e-02 1.000000e-02 1.000000e-02 1.000000e-02 1.000000e-02 9.371494e+04 1.586980e+03 5.633392e+05 3.126215e+06 1.672664e+05 1.984069e+04 3.769691e+03 3.687500e+00 1.000000e-02 1.000000e-02 1.000000e-02
<GCONST> 9.115425e+01
<STATE> 12
<MEAN> 20
 1.054744e+04 0.000000e+00 0.000000e+00 0.000000e+00 0.000000e+00 0.000000e+00 0.000000e+00 0.000000e+00 0.000000e+00 6.542490e+01 0.000000e+00 1.488242e+03 8.247454e+03 8.018125e+02 6.447177e+01 1.082335e+01 5.850409e-02 0.000000e+00 0.000000e+00 0.000000e+00
<VARIANCE> 20
 7.070157e+06 1.000000e-02 1.000000e-02 1.000000e-02 1.000000e-02 1.000000e-02 1.000000e-02 1.000000e-02 1.000000e-02 1.208137e+04 1.000000e-02 7.617012e+05 3.783702e+06 1.619588e+05 3.440066e+03 3.104659e+02 5.508135e-02 1.000000e-02 1.000000e-02 1.000000e-02
<GCONST> 5.833330e+01
<STATE> 13
<MEAN> 20
 1.040043e+04 0.000000e+00 0.000000e+00 0.000000e+00 0.000000e+00 0.000000e+00 0.000000e+00 0.000000e+00 0.000000e+00 4.388095e+02 0.000000e+00 1.859369e+03 8.606223e+03 3.552528e+02 1.723912e+01 1.159982e+00 0.000000e+00 0.000000e+00 0.000000e+00 0.000000e+00
<VARIANCE> 20
 1.809841e+06 1.000000e-02 1.000000e-02 1.000000e-02 1.000000e-02 1.000000e-02 1.000000e-02 1.000000e-02 1.000000e-02 7.831563e+04 1.000000e-02 9.333384e+05 8.541916e+05 4.571996e+04 5.303085e+02 1.231440e+01 1.000000e-02 1.000000e-02 1.000000e-02 1.000000e-02
<GCONST> 4.948653e+01
<TRANSP> 14
 0.000000e+00 1.000000e+00 0.000000e+00 0.000000e+00 0.000000e+00 0.000000e+00 0.000000e+00 0.000000e+00 0.000000e+00 0.000000e+00 0.000000e+00 0.000000e+00 0.000000e+00 0.000000e+00
 0.000000e+00 4.285736e-01 5.714264e-01 0.000000e+00 0.000000e+00 0.000000e+00 0.000000e+00 0.000000e+00 0.000000e+00 0.000000e+00 0.000000e+00 0.000000e+00 0.000000e+00 0.000000e+00
 0.000000e+00 0.000000e+00 6.923088e-01 3.076912e-01 0.000000e+00 0.000000e+00 0.000000e+00 0.000000e+00 0.000000e+00 0.000000e+00 0.000000e+00 0.000000e+00 0.000000e+00 0.000000e+00
 0.000000e+00 0.000000e+00 0.000000e+00 3.333229e-01 6.666772e-01 0.000000e+00 0.000000e+00 0.000000e+00 0.000000e+00 0.000000e+00 0.000000e+00 0.000000e+00 0.000000e+00 0.000000e+00
 0.000000e+00 0.000000e+00 0.000000e+00 0.000000e+00 3.333466e-01 6.666535e-01 0.000000e+00 0.000000e+00 0.000000e+00 0.000000e+00 0.000000e+00 0.000000e+00 0.000000e+00 0.000000e+00
 0.000000e+00 0.000000e+00 0.000000e+00 0.000000e+00 0.000000e+00 7.333351e-01 2.666650e-01 0.000000e+00 0.000000e+00 0.000000e+00 0.000000e+00 0.000000e+00 0.000000e+00 0.000000e+00
 0.000000e+00 0.000000e+00 0.000000e+00 0.000000e+00 0.000000e+00 0.000000e+00 6.923211e-01 3.076790e-01 0.000000e+00 0.000000e+00 0.000000e+00 0.000000e+00 0.000000e+00 0.000000e+00
 0.000000e+00 0.000000e+00 0.000000e+00 0.000000e+00 0.000000e+00 0.000000e+00 0.000000e+00 8.518501e-01 1.481499e-01 0.000000e+00 0.000000e+00 0.000000e+00 0.000000e+00 0.000000e+00
 0.000000e+00 0.000000e+00 0.000000e+00 0.000000e+00 0.000000e+00 0.000000e+00 0.000000e+00 0.000000e+00 8.098550e-01 1.901450e-01 0.000000e+00 0.000000e+00 0.000000e+00 0.000000e+00
 0.000000e+00 0.000000e+00 0.000000e+00 0.000000e+00 0.000000e+00 0.000000e+00 0.000000e+00 0.000000e+00 0.000000e+00 4.976653e-01 5.023347e-01 0.000000e+00 0.000000e+00 0.000000e+00
 0.000000e+00 0.000000e+00 0.000000e+00 0.000000e+00 0.000000e+00 0.000000e+00 0.000000e+00 0.000000e+00 0.000000e+00 0.000000e+00 0.000000e+00 1.000000e+00 0.000000e+00 0.000000e+00
 0.000000e+00 0.000000e+00 0.000000e+00 0.000000e+00 0.000000e+00 0.000000e+00 0.000000e+00 0.000000e+00 0.000000e+00 0.000000e+00 0.000000e+00 7.659793e-01 2.340207e-01 0.000000e+00
 0.000000e+00 0.000000e+00 0.000000e+00 0.000000e+00 0.000000e+00 0.000000e+00 0.000000e+00 0.000000e+00 0.000000e+00 0.000000e+00 0.000000e+00 0.000000e+00 9.213027e-01 7.869729e-02
 0.000000e+00 0.000000e+00 0.000000e+00 0.000000e+00 0.000000e+00 0.000000e+00 0.000000e+00 0.000000e+00 0.000000e+00 0.000000e+00 0.000000e+00 0.000000e+00 0.000000e+00 0.000000e+00
<ENDHMM>
~h "i"
<BEGINHMM>
<NUMSTATES> 14
<STATE> 2
<MEAN> 20
 5.147836e+03 6.013963e+01 0.000000e+00 0.000000e+00 0.000000e+00 0.000000e+00 0.000000e+00 5.819836e-01 0.000000e+00 1.799206e+02 1.842948e+00 4.829467e+02 2.079505e+03 1.168032e+03 1.417485e+03 1.472449e+02 4.675426e+01 2.963302e+01 8.341764e+00 6.692810e+00
<VARIANCE> 20
 6.995844e+06 6.159096e+04 1.000000e-02 1.000000e-02 1.000000e-02 1.000000e-02 1.000000e-02 6.645098e+00 1.000000e-02 1.718959e+05 6.663557e+01 1.053388e+06 9.080578e+06 1.280001e+06 1.432789e+06 6.002423e+04 1.076674e+04 4.477641e+03 5.458626e+02 8.788142e+02
<GCONST> 1.539646e+02
<STATE> 3
<MEAN> 20
 4.263517e+03 7.156271e+01 1.218753e+01 1.375004e+00 2.856258e+01 3.587510e+01 1.764380e+02 4.512512e+01 1.775005e+01 2.329119e+02 3.271259e+02 6.090055e+02 1.874573e+03 7.115934e+02 1.050611e+03 1.663952e+02 6.962521e+01 4.950014e+01 2.068756e+01 6.187517e+00
<VARIANCE> 20
 1.073350e+07 1.692340e+04 8.425291e+02 2.835944e+01 5.356509e+03 9.850630e+03 1.153616e+05 7.838874e+03 1.727441e+03 2.126419e+05 3.453019e+05 8.814598e+05 8.747979e+06 1.702813e+06 1.249424e+06 3.188730e+04 1.196263e+04 1.340916e+04 4.716601e+03 2.279028e+02
<GCONST> 2.448528e+02
<STATE> 4
<MEAN> 20
 5.839325e+03 1.808338e+01 0.000000e+00 0.000000e+00 0.000000e+00 0.000000e+00 2.200009e+01 3.883350e+01 4.208351e+01 3.952414e+02 1.471673e+02 9.011826e+02 2.627939e+03 1.064194e+03 1.356647e+03 1.032243e+02 1.002706e+02 4.610942e+01 7.333365e+00 1.500006e+00
<VARIANCE> 20
 8.494939e+06 2.765754e+03 1.000000e-02 1.000000e-02 1.000000e-02 1.000000e-02 3.306512e+03 7.644166e+03 8.114771e+03 2.442248e+05 8.085739e+04 1.604185e+06 1.200383e+07 1.183166e+06 1.800005e+06 1.552218e+04 4.028985e+04 5.231339e+03 3.317234e+02 2.191675e+01
<GCONST> 1.886537e+02
<STATE> 5
<MEAN> 20
 5.574349e+03 2.500013e+00 0.000000e+00 0.000000e+00 3.200016e+00 1.000005e+00 5.380027e+01 1.830009e+01 8.300042e+00 3.137089e+02 8.410043e+01 9.130450e+02 2.799629e+03 7.587394e+02 1.328928e+03 4.899749e+01 2.534953e+01 1.586902e+01 5.000026e-01 0.000000e+00
<VARIANCE> 20
 1.000006e+07 5.625027e+01 1.000000e-02 1.000000e-02 9.216042e+01 5.800025e+00 1.395402e+04 1.432015e+03 2.796111e+02 1.423416e+05 3.229582e+04 1.561942e+06 1.175900e+07 1.078766e+06 1.737152e+06 7.938463e+03 5.269354e+03 2.244726e+03 2.250010e+00 1.000000e-02
<GCONST> 1.789408e+02
<STATE> 6
<MEAN> 20
 7.586989e+03 2.948292e+02 6.104152e+01 1.220823e-01 0.000000e+00 0.000000e+00 7.324978e-01 7.324975e-01 5.249544e+00 3.676173e+02 1.733570e+01 1.031768e+03 5.372730e+03 8.785621e+02 9.169152e+02 9.388278e+01 5.937088e+00 1.831241e-01 0.000000e+00 0.000000e+00
<VARIANCE> 20
 1.700383e+07 6.682861e+05 2.454482e+04 2.292606e-01 1.000000e-02 1.000000e-02 8.253421e+00 6.910508e+00 3.231849e+02 2.057983e+05 3.106181e+03 1.380420e+06 2.330409e+07 5.874002e+05 1.475586e+06 2.914762e+04 7.382217e+01 1.495896e-01 1.000000e-02 1.000000e-02
<GCONST> 1.584033e+02
<STATE> 7
<MEAN> 20
 6.598730e+03 4.040001e+00 0.000000e+00 0.000000e+00 0.000000e+00 0.000000e+00 0.000000e+00 0.000000e+00 0.000000e+00 3.250039e+02 0.000000e+00 8.690070e+02 3.839046e+03 1.155761e+03 9.079198e+02 8.992005e+01 4.988004e+01 1.620001e+01 4.000002e-02 0.000000e+00
<VARIANCE> 20
 5.108908e+06 1.328384e+02 1.000000e-02 1.000000e-02 1.000000e-02 1.000000e-02 1.000000e-02 1.000000e-02 1.000000e-02 1.928112e+05 1.000000e-02 1.048294e+06 1.132862e+07 1.190032e+06 1.421348e+06 2.746921e+04 8.899631e+03 1.335360e+03 3.840004e-02 1.000000e-02
<GCONST> 1.093301e+02
<STATE> 8
<MEAN> 20
 5.434784e+03 6.666668e-01 0.000000e+00 0.000000e+00 0.000000e+00 0.000000e+00 0.000000e+00 6.666674e+00 1.600002e+01 1.985474e+02 2.611114e+01 7.396459e+02 2.488906e+03 1.281446e+03 1.024778e+03 8.244450e+01 9.555563e+00 3.666670e+00 1.111112e-01 0.000000e+00
<VARIANCE> 20
 9.124598e+06 1.777778e+00 1.000000e-02 1.000000e-02 1.000000e-02 1.000000e-02 1.000000e-02 3.555558e+02 2.048002e+03 8.789378e+04 2.420990e+03 1.620064e+06 1.039052e+07 1.542698e+06 1.236499e+06 5.194228e+04 7.304696e+02 1.075556e+02 9.876548e-02 1.000000e-02
<GCONST> 1.369483e+02
<STATE> 9
<MEAN> 20
 4.785881e+03 2.375555e+02 6.322225e+01 3.555557e+00 5.933337e+01 3.155557e+01 4.734447e+02 9.166670e+01 5.566668e+01 3.205563e+02 7.895559e+02 6.086647e+02 1.670938e+03 1.490445e+03 9.957225e+02 2.388334e+02 1.588334e+02 1.046112e+02 6.266670e+01 2.166668e+00
<VARIANCE> 20
 7.430073e+06 3.649875e+05 2.300474e+04 9.102473e+01 1.384756e+04 5.897804e+03 6.017356e+05 1.869645e+04 5.256557e+03 6.221794e+04 1.647771e+06 8.335459e+05 7.248979e+06 1.544369e+06 7.179706e+05 6.120480e+04 9.487362e+04 7.354738e+04 2.358835e+04 2.347223e+01
<GCONST> 2.592997e+02
<STATE> 10
<MEAN> 20
 5.209292e+03 0.000000e+00 0.000000e+00 0.000000e+00 0.000000e+00 0.000000e+00 0.000000e+00 6.411768e+00 3.941179e+00 1.677047e+02 4.117650e+00 3.557621e+02 1.972351e+03 1.043883e+03 1.761354e+03 9.670595e+01 5.347063e+01 6.505888e+01 3.247061e+01 2.176473e+00
<VARIANCE> 20
 5.136788e+06 1.000000e-02 1.000000e-02 1.000000e-02 1.000000e-02 1.000000e-02 1.000000e-02 5.413012e+02 1.066436e+02 5.968864e+04 1.389275e+02 5.859754e+05 9.554697e+06 1.396101e+06 2.202322e+06 6.180753e+04 2.404403e+04 3.274066e+04 9.658611e+03 7.579247e+01
<GCONST> 1.546000e+02
<STATE> 11
<MEAN> 20
 5.447922e+03 7.272731e+00 0.000000e+00 0.000000e+00 1.045456e+01 5.636370e+00 1.530911e+02 2.127275e+01 1.418183e+01 2.544584e+02 1.820911e+02 5.214542e+02 2.880379e+03 5.624550e+02 1.244274e+03 2.040911e+02 1.694547e+02 9.990919e+01 4.772732e+01 2.454549e+00
<VARIANCE> 20
 7.587425e+06 1.974711e+02 1.000000e-02 1.000000e-02 1.092977e+03 1.436861e+02 2.005076e+05 2.396019e+03 7.319676e+02 4.683834e+04 2.520040e+05 4.761537e+05 1.027058e+07 6.627995e+05 3.337122e+06 9.430105e+04 1.515953e+05 2.309210e+04 8.326203e+03 6.024799e+01
<GCONST> 2.146159e+02
<STATE> 12
<MEAN> 20
 5.129008e+03 1.280001e+01 1.000001e+00 0.000000e+00 0.000000e+00 0.000000e+00 4.800005e+00 1.446668e+01 6.466671e+00 3.390654e+02 4.733332e+00 6.216639e+02 2.902808e+03 3.907330e+02 8.751340e+02 3.977337e+02 1.177335e+02 7.106673e+01 1.137334e+02 1.226668e+01
<VARIANCE> 20
 8.572799e+06 2.169094e+03 1.400001e+01 1.000000e-02 1.000000e-02 1.000000e-02 2.142936e+02 1.218517e+03 1.301156e+02 1.165642e+05 1.736621e+02 6.257649e+05 1.195945e+07 3.866182e+05 1.375510e+06 3.028459e+05 2.983315e+04 1.558181e+04 6.393904e+04 6.597960e+02
<GCONST> 1.901709e+02
<STATE> 13
<MEAN> 20
 7.131656e+03 0.000000e+00 0.000000e+00 0.000000e+00 0.000000e+00 0.000000e+00 0.000000e+00 0.000000e+00 0.000000e+00 2.093216e+02 0.000000e+00 1.158148e+03 5.599482e+03 2.966887e+02 2.784192e+02 8.240191e+00 0.000000e+00 0.000000e+00 0.000000e+00 0.000000e+00
<VARIANCE> 20
 4.610968e+06 1.000000e-02 1.000000e-02 1.000000e-02 1.000000e-02 1.000000e-02 1.000000e-02 1.000000e-02 1.000000e-02 6.356899e+04 1.000000e-02 8.041169e+05 6.301269e+06 1.766956e+05 6.587212e+05 1.310919e+03 1.000000e-02 1.000000e-02 1.000000e-02 1.000000e-02
<GCONST> 6.520663e+01
<TRANSP> 14
 0.000000e+00 1.000000e+00 0.000000e+00 0.000000e+00 0.000000e+00 0.000000e+00 0.000000e+00 0.000000e+00 0.000000e+00 0.000000e+00 0.000000e+00 0.000000e+00 0.000000e+00 0.000000e+00
 0.000000e+00 5.635121e-01 4.364879e-01 0.000000e+00 0.000000e+00 0.000000e+00 0.000000e+00 0.000000e+00 0.000000e+00 0.000000e+00 0.000000e+00 0.000000e+00 0.000000e+00 0.000000e+00
 0.000000e+00 0.000000e+00 4.374999e-01 5.625001e-01 0.000000e+00 0.000000e+00 0.000000e+00 0.000000e+00 0.000000e+00 0.000000e+00 0.000000e+00 0.000000e+00 0.000000e+00 0.000000e+00
 0.000000e+00 0.000000e+00 0.000000e+00 2.500001e-01 7.499999e-01 0.000000e+00 0.000000e+00 0.000000e+00 0.000000e+00 0.000000e+00 0.000000e+00 0.000000e+00 0.000000e+00 0.000000e+00
 0.000000e+00 0.000000e+00 0.000000e+00 0.000000e+00 1.000003e-01 8.999997e-01 0.000000e+00 0.000000e+00 0.000000e+00 0.000000e+00 0.000000e+00 0.000000e+00 0.000000e+00 0.000000e+00
 0.000000e+00 0.000000e+00 0.000000e+00 0.000000e+00 0.000000e+00 4.506286e-01 5.493714e-01 0.000000e+00 0.000000e+00 0.000000e+00 0.000000e+00 0.000000e+00 0.000000e+00 0.000000e+00
 0.000000e+00 0.000000e+00 0.000000e+00 0.000000e+00 0.000000e+00 0.000000e+00 6.400001e-01 3.599999e-01 0.000000e+00 0.000000e+00 0.000000e+00 0.000000e+00 0.000000e+00 0.000000e+00
 0.000000e+00 0.000000e+00 0.000000e+00 0.000000e+00 0.000000e+00 0.000000e+00 0.000000e+00 0.000000e+00 1.000000e+00 0.000000e+00 0.000000e+00 0.000000e+00 0.000000e+00 0.000000e+00
 0.000000e+00 0.000000e+00 0.000000e+00 0.000000e+00 0.000000e+00 0.000000e+00 0.000000e+00 0.000000e+00 5.000002e-01 4.999997e-01 0.000000e+00 0.000000e+00 0.000000e+00 0.000000e+00
 0.000000e+00 0.000000e+00 0.000000e+00 0.000000e+00 0.000000e+00 0.000000e+00 0.000000e+00 0.000000e+00 0.000000e+00 4.705885e-01 5.294115e-01 0.000000e+00 0.000000e+00 0.000000e+00
 0.000000e+00 0.000000e+00 0.000000e+00 0.000000e+00 0.000000e+00 0.000000e+00 0.000000e+00 0.000000e+00 0.000000e+00 0.000000e+00 1.818184e-01 8.181816e-01 0.000000e+00 0.000000e+00
 0.000000e+00 0.000000e+00 0.000000e+00 0.000000e+00 0.000000e+00 0.000000e+00 0.000000e+00 0.000000e+00 0.000000e+00 0.000000e+00 0.000000e+00 4.000002e-01 5.999998e-01 0.000000e+00
 0.000000e+00 0.000000e+00 0.000000e+00 0.000000e+00 0.000000e+00 0.000000e+00 0.000000e+00 0.000000e+00 0.000000e+00 0.000000e+00 0.000000e+00 0.000000e+00 8.731155e-01 1.268845e-01
 0.000000e+00 0.000000e+00 0.000000e+00 0.000000e+00 0.000000e+00 0.000000e+00 0.000000e+00 0.000000e+00 0.000000e+00 0.000000e+00 0.000000e+00 0.000000e+00 0.000000e+00 0.000000e+00
<ENDHMM>
~h "j"
<BEGINHMM>
<NUMSTATES> 14
<STATE> 2
<MEAN> 20
 8.232005e+03 0.000000e+00 0.000000e+00 0.000000e+00 0.000000e+00 0.000000e+00 0.000000e+00 0.000000e+00 0.000000e+00 4.076793e+02 0.000000e+00 1.188199e+03 6.412215e+03 6.414727e+02 2.598686e+02 8.586346e+01 3.448742e+01 1.728868e+01 2.894628e-01 0.000000e+00
<VARIANCE> 20
 5.375248e+06 1.000000e-02 1.000000e-02 1.000000e-02 1.000000e-02 1.000000e-02 1.000000e-02 1.000000e-02 1.000000e-02 1.319428e+05 1.000000e-02 9.651796e+05 6.506841e+06 2.480924e+05 4.063060e+05 3.337256e+04 3.290013e+03 1.334583e+03 1.100372e+00 1.000000e-02
<GCONST> 9.860429e+01
<STATE> 3
<MEAN> 20
 1.028382e+04 5.003848e+01 4.000024e-01 0.000000e+00 0.000000e+00 0.000000e+00 0.000000e+00 0.000000e+00 0.000000e+00 2.499801e+02 6.500036e-01 1.146928e+03 8.291547e+03 9.224353e+02 1.127260e+02 6.878309e+01 2.867111e+01 1.160017e+01 8.999994e-01 0.000000e+00
<VARIANCE> 20
 8.120975e+06 3.195012e+04 3.040018e+00 1.000000e-02 1.000000e-02 1.000000e-02 1.000000e-02 1.000000e-02 1.000000e-02 7.260616e+04 4.027521e+00 1.069471e+06 4.707674e+06 8.092210e+05 7.132001e+04 4.455763e+04 8.031627e+03 1.209339e+03 6.490022e+00 1.000000e-02
<GCONST> 1.271910e+02
<STATE> 4
<MEAN> 20
 1.017313e+04 1.753714e+00 0.000000e+00 0.000000e+00 0.000000e+00 0.000000e+00 0.000000e+00 0.000000e+00 0.000000e+00 2.267401e+02 0.000000e+00 1.130698e+03 8.518113e+03 6.766743e+02 5.553188e+01 1.507396e+01 4.247401e+00 1.290770e+00 0.000000e+00 0.000000e+00
<VARIANCE> 20
 2.927099e+06 7.203231e+01 1.000000e-02 1.000000e-02 1.000000e-02 1.000000e-02 1.000000e-02 1.000000e-02 1.000000e-02 5.716330e+04 1.000000e-02 7.112718e+05 2.930212e+06 2.004523e+05 2.297919e+03 3.615139e+02 8.859455e+01 2.689748e+01 1.000000e-02 1.000000e-02
<GCONST> 8.280602e+01
<STATE> 5
<MEAN> 20
 9.219754e+03 0.000000e+00 0.000000e+00 0.000000e+00 0.000000e+00 0.000000e+00 0.000000e+00 0.000000e+00 0.000000e+00 1.587075e+02 1.497305e-01 9.003813e+02 7.692089e+03 7.461485e+02 3.705869e+01 2.634012e+00 0.000000e+00 0.000000e+00 0.000000e+00 0.000000e+00
<VARIANCE> 20
 2.834632e+06 1.000000e-02 1.000000e-02 1.000000e-02 1.000000e-02 1.000000e-02 1.000000e-02 1.000000e-02 1.000000e-02 3.091887e+04 4.267723e-01 9.526995e+05 1.904473e+06 3.219861e+05 1.354795e+03 4.192731e+01 1.000000e-02 1.000000e-02 1.000000e-02 1.000000e-02
<GCONST> 5.769691e+01
<STATE> 6
<MEAN> 20
 9.196766e+03 0.000000e+00 0.000000e+00 0.000000e+00 0.000000e+00 0.000000e+00 0.000000e+00 0.000000e+00 0.000000e+00 2.450088e+02 0.000000e+00 9.805100e+02 7.760480e+03 6.448888e+02 4.933455e+01 6.290062e+00 2.542840e-01 3.096244e-03 3.096244e-03 9.288717e-03
<VARIANCE> 20
 2.064513e+06 1.000000e-02 1.000000e-02 1.000000e-02 1.000000e-02 1.000000e-02 1.000000e-02 1.000000e-02 1.000000e-02 4.878820e+04 1.000000e-02 6.255848e+05 1.257325e+06 2.099474e+05 3.018092e+03 1.569364e+02 1.709219e+00 1.000000e-02 1.000000e-02 2.777980e-02
<GCONST> 6.110266e+01
<STATE> 7
<MEAN> 20
 1.173100e+04 1.991838e+01 0.000000e+00 0.000000e+00 0.000000e+00 0.000000e+00 0.000000e+00 0.000000e+00 2.001848e-01 5.133133e+02 1.211138e+01 1.685842e+03 9.649905e+03 8.432427e+02 5.550861e+01 1.525825e+01 2.395603e+00 1.668204e-01 0.000000e+00 0.000000e+00
<VARIANCE> 20
 8.144197e+06 2.289440e+03 1.000000e-02 1.000000e-02 1.000000e-02 1.000000e-02 1.000000e-02 1.000000e-02 1.161035e+00 2.008118e+05 2.201787e+03 2.041923e+06 6.641176e+06 4.638463e+05 4.144854e+03 6.183367e+02 2.538884e+01 2.724477e-01 1.000000e-02 1.000000e-02
<GCONST> 1.035977e+02
<STATE> 8
<MEAN> 20
 9.663365e+03 0.000000e+00 0.000000e+00 0.000000e+00 0.000000e+00 0.000000e+00 0.000000e+00 0.000000e+00 0.000000e+00 3.041999e+02 1.188210e-02 9.698448e+02 8.063587e+03 8.273196e+02 8.988931e+01 1.553502e+01 1.354103e+00 2.376419e-02 0.000000e+00 0.000000e+00
<VARIANCE> 20
 1.706658e+06 1.000000e-02 1.000000e-02 1.000000e-02 1.000000e-02 1.000000e-02 1.000000e-02 1.000000e-02 1.000000e-02 1.063116e+05 2.362299e-02 7.689997e+05 1.653828e+06 2.745627e+05 8.191112e+04 6.555834e+02 7.929566e+00 3.508149e-02 1.000000e-02 1.000000e-02
<GCONST> 6.979829e+01
<STATE> 9
<MEAN> 20
 1.086425e+04 2.029091e+00 0.000000e+00 0.000000e+00 0.000000e+00 0.000000e+00 0.000000e+00 0.000000e+00 0.000000e+00 2.447258e+02 0.000000e+00 5.031416e+02 8.058076e+03 2.274131e+03 2.218917e+02 4.386678e+01 8.718400e+00 1.078174e+00 1.060498e-01 0.000000e+00
<VARIANCE> 20
 3.379928e+06 6.134755e+01 1.000000e-02 1.000000e-02 1.000000e-02 1.000000e-02 1.000000e-02 1.000000e-02 1.000000e-02 5.555198e+04 1.000000e-02 3.008952e+05 4.871580e+06 2.041076e+06 9.854385e+04 1.159146e+03 7.875735e+01 3.415362e+00 2.008529e-01 1.000000e-02
<GCONST> 9.047160e+01
<STATE> 10
<MEAN> 20
 9.188655e+03 0.000000e+00 0.000000e+00 0.000000e+00 0.000000e+00 0.000000e+00 0.000000e+00 0.000000e+00 0.000000e+00 1.785727e+02 0.000000e+00 2.891980e+02 6.355859e+03 2.536317e+03 1.611672e+02 2.311122e+01 1.576301e+00 0.000000e+00 0.000000e+00 0.000000e+00
<VARIANCE> 20
 3.175978e+06 1.000000e-02 1.000000e-02 1.000000e-02 1.000000e-02 1.000000e-02 1.000000e-02 1.000000e-02 1.000000e-02 5.063155e+04 1.000000e-02 1.434252e+05 4.454933e+06 2.466652e+06 1.952536e+04 6.662790e+02 1.136319e+01 1.000000e-02 1.000000e-02 1.000000e-02
<GCONST> 6.801197e+01
<STATE> 11
<MEAN> 20
 8.628067e+03 3.978390e+00 0.000000e+00 0.000000e+00 0.000000e+00 0.000000e+00 0.000000e+00 2.702704e-02 8.108112e-02 1.862473e+02 3.513518e-01 2.001363e+02 4.055233e+03 3.985108e+03 5.390145e+02 3.383032e+01 4.133216e+00 5.405435e-01 2.702719e-02 2.702719e-02
<VARIANCE> 20
 1.443331e+07 1.241242e+02 1.000000e-02 1.000000e-02 1.000000e-02 1.000000e-02 1.000000e-02 2.629659e-02 2.366693e-01 6.680369e+04 3.254933e+00 3.122255e+05 9.738743e+06 7.307019e+06 3.170626e+05 1.488314e+03 5.996730e+01 3.059183e+00 2.629673e-02 2.629673e-02
<GCONST> 1.047033e+02
<STATE> 12
<MEAN> 20
 4.565045e+03 6.964354e+01 1.585189e+01 2.597803e+00 2.224038e+01 1.989401e+02 1.587372e+02 4.146048e+01 1.481103e+01 1.318179e+02 3.650605e+02 2.568561e+02 1.616946e+03 1.483256e+03 1.082136e+03 3.438472e+02 6.424875e+01 8.794470e+00 0.000000e+00 0.000000e+00
<VARIANCE> 20
 1.085492e+07 3.269245e+04 1.922866e+03 1.121142e+02 4.799347e+03 9.070411e+05 1.754540e+05 6.917363e+03 1.123776e+03 3.804339e+04 4.025373e+05 2.727155e+05 6.918842e+06 2.466816e+06 1.545784e+06 3.617087e+05 4.606832e+04 1.919741e+03 1.000000e-02 1.000000e-02
<GCONST> 2.283428e+02
<STATE> 13
<MEAN> 20
 9.246141e+03 1.669231e+01 4.803536e-01 3.625313e-02 5.256701e-01 4.838260e+02 1.265900e+02 6.971928e+01 7.596947e+01 6.704872e+02 5.153825e+01 9.240165e+02 6.500532e+03 1.725187e+03 9.409496e+02 4.367343e+02 8.956585e+01 1.614382e+01 5.718930e+00 8.156946e-02
<VARIANCE> 20
 1.707692e+07 3.878427e+03 5.741954e+00 8.931828e-02 8.206891e+00 3.788026e+05 3.708499e+04 4.954547e+03 4.509300e+03 4.783826e+05 3.465608e+04 1.737279e+06 2.162964e+07 1.755027e+06 1.966881e+06 1.611053e+05 8.190271e+04 8.882881e+03 2.426840e+03 2.561811e-01
<GCONST> 2.258851e+02
<TRANSP> 14
 0.000000e+00 1.000000e+00 0.000000e+00 0.000000e+00 0.000000e+00 0.000000e+00 0.000000e+00 0.000000e+00 0.000000e+00 0.000000e+00 0.000000e+00 0.000000e+00 0.000000e+00 0.000000e+00
 0.000000e+00 4.737071e-01 5.262929e-01 0.000000e+00 0.000000e+00 0.000000e+00 0.000000e+00 0.000000e+00 0.000000e+00 0.000000e+00 0.000000e+00 0.000000e+00 0.000000e+00 0.000000e+00
 0.000000e+00 0.000000e+00 0.000000e+00 1.000000e+00 0.000000e+00 0.000000e+00 0.000000e+00 0.000000e+00 0.000000e+00 0.000000e+00 0.000000e+00 0.000000e+00 0.000000e+00 0.000000e+00
 0.000000e+00 0.000000e+00 0.000000e+00 5.836215e-01 4.163785e-01 0.000000e+00 0.000000e+00 0.000000e+00 0.000000e+00 0.000000e+00 0.000000e+00 0.000000e+00 0.000000e+00 0.000000e+00
 0.000000e+00 0.000000e+00 0.000000e+00 0.000000e+00 0.000000e+00 1.000000e+00 0.000000e+00 0.000000e+00 0.000000e+00 0.000000e+00 0.000000e+00 0.000000e+00 0.000000e+00 0.000000e+00
 0.000000e+00 0.000000e+00 0.000000e+00 0.000000e+00 0.000000e+00 9.380751e-01 6.192491e-02 0.000000e+00 0.000000e+00 0.000000e+00 0.000000e+00 0.000000e+00 0.000000e+00 0.000000e+00
 0.000000e+00 0.000000e+00 0.000000e+00 0.000000e+00 0.000000e+00 0.000000e+00 3.327208e-01 6.672791e-01 0.000000e+00 0.000000e+00 0.000000e+00 0.000000e+00 0.000000e+00 0.000000e+00
 0.000000e+00 0.000000e+00 0.000000e+00 0.000000e+00 0.000000e+00 0.000000e+00 0.000000e+00 8.811789e-01 1.188211e-01 0.000000e+00 0.000000e+00 0.000000e+00 0.000000e+00 0.000000e+00
 0.000000e+00 0.000000e+00 0.000000e+00 0.000000e+00 0.000000e+00 0.000000e+00 0.000000e+00 0.000000e+00 6.465015e-01 3.534985e-01 0.000000e+00 0.000000e+00 0.000000e+00 0.000000e+00
 0.000000e+00 0.000000e+00 0.000000e+00 0.000000e+00 0.000000e+00 0.000000e+00 0.000000e+00 0.000000e+00 0.000000e+00 8.868880e-01 1.131120e-01 0.000000e+00 0.000000e+00 0.000000e+00
 0.000000e+00 0.000000e+00 0.000000e+00 0.000000e+00 0.000000e+00 0.000000e+00 0.000000e+00 0.000000e+00 0.000000e+00 0.000000e+00 4.594589e-01 5.405410e-01 0.000000e+00 0.000000e+00
 0.000000e+00 0.000000e+00 0.000000e+00 0.000000e+00 0.000000e+00 0.000000e+00 0.000000e+00 0.000000e+00 0.000000e+00 0.000000e+00 0.000000e+00 4.698362e-01 5.301638e-01 0.000000e+00
 0.000000e+00 0.000000e+00 0.000000e+00 0.000000e+00 0.000000e+00 0.000000e+00 0.000000e+00 0.000000e+00 0.000000e+00 0.000000e+00 0.000000e+00 0.000000e+00 8.187348e-01 1.812652e-01
 0.000000e+00 0.000000e+00 0.000000e+00 0.000000e+00 0.000000e+00 0.000000e+00 0.000000e+00 0.000000e+00 0.000000e+00 0.000000e+00 0.000000e+00 0.000000e+00 0.000000e+00 0.000000e+00
<ENDHMM>
~h "sil"
<BEGINHMM>
<NUMSTATES> 14
<STATE> 2
<MEAN> 20
 8.742911e+03 4.472010e-02 0.000000e+00 0.000000e+00 0.000000e+00 0.000000e+00 0.000000e+00 0.000000e+00 0.000000e+00 5.994518e+01 0.000000e+00 2.849324e+01 2.675320e+03 4.598146e+03 1.301299e+03 1.379337e+02 3.880628e+01 1.652729e+01 5.658988e+00 7.155212e-01
<VARIANCE> 20
 3.764136e+06 4.272021e-02 1.000000e-02 1.000000e-02 1.000000e-02 1.000000e-02 1.000000e-02 1.000000e-02 1.000000e-02 4.107200e+03 1.000000e-02 5.166734e+03 5.154673e+06 3.211514e+06 8.417224e+05 8.954402e+03 7.245645e+02 1.185769e+02 3.435238e+01 2.260675e+00
<GCONST> 9.766885e+01
<STATE> 3
<MEAN> 20
 8.071011e+03 0.000000e+00 0.000000e+00 0.000000e+00 0.000000e+00 0.000000e+00 0.000000e+00 0.000000e+00 0.000000e+00 1.968571e+01 0.000000e+00 1.292554e+01 3.015938e+03 4.050428e+03 8.921381e+02 7.605894e+01 3.137038e+01 1.048233e+01 1.248739e+00 1.071292e-01
<VARIANCE> 20
 3.901864e+06 1.000000e-02 1.000000e-02 1.000000e-02 1.000000e-02 1.000000e-02 1.000000e-02 1.000000e-02 1.000000e-02 6.880205e+02 1.000000e-02 1.406174e+03 3.252098e+06 2.835070e+06 7.845599e+05 2.167015e+03 5.144001e+02 8.031934e+01 3.534441e+00 9.565254e-02
<GCONST> 8.492133e+01
<STATE> 4
<MEAN> 20
 8.111345e+03 0.000000e+00 0.000000e+00 0.000000e+00 0.000000e+00 0.000000e+00 0.000000e+00 0.000000e+00 0.000000e+00 2.566858e+01 0.000000e+00 0.000000e+00 4.175071e+03 3.471372e+03 4.022263e+02 6.139449e+01 2.134652e+01 5.207821e+00 3.957421e-01 0.000000e+00
<VARIANCE> 20
 1.956300e+06 1.000000e-02 1.000000e-02 1.000000e-02 1.000000e-02 1.000000e-02 1.000000e-02 1.000000e-02 1.000000e-02 2.178870e+03 1.000000e-02 1.000000e-02 1.774056e+06 9.832558e+05 1.462410e+05 7.179079e+02 1.252091e+02 2.533196e+01 5.717028e-01 1.000000e-02
<GCONST> 6.243346e+01
<STATE> 5
<MEAN> 20
 8.843183e+03 0.000000e+00 0.000000e+00 0.000000e+00 0.000000e+00 0.000000e+00 0.000000e+00 0.000000e+00 0.000000e+00 4.991138e+01 0.000000e+00 3.871506e+01 5.734376e+03 2.772205e+03 2.754526e+02 5.841847e+01 1.199088e+01 1.904022e+00 3.206184e-02 0.000000e+00
<VARIANCE> 20
 3.676896e+06 1.000000e-02 1.000000e-02 1.000000e-02 1.000000e-02 1.000000e-02 1.000000e-02 1.000000e-02 1.000000e-02 3.259498e+03 1.000000e-02 3.547584e+03 3.519381e+06 8.855910e+05 2.460634e+05 7.627028e+03 8.083881e+01 7.019354e+00 3.103387e-02 1.000000e-02
<GCONST> 7.507581e+01
<STATE> 6
<MEAN> 20
 7.646938e+03 2.483342e+01 0.000000e+00 0.000000e+00 0.000000e+00 0.000000e+00 0.000000e+00 0.000000e+00 0.000000e+00 3.565825e+01 0.000000e+00 6.256453e+01 5.087394e+03 2.322663e+03 1.801756e+02 4.188613e+01 1.098190e+01 1.764247e+00 0.000000e+00 0.000000e+00
<VARIANCE> 20
 5.067986e+06 6.394990e+03 1.000000e-02 1.000000e-02 1.000000e-02 1.000000e-02 1.000000e-02 1.000000e-02 1.000000e-02 2.175293e+03 1.000000e-02 1.352525e+04 4.186246e+06 1.223824e+06 4.494696e+04 2.024042e+03 2.090629e+02 1.288614e+01 1.000000e-02 1.000000e-02
<GCONST> 8.759447e+01
<STATE> 7
<MEAN> 20
 8.747155e+03 0.000000e+00 0.000000e+00 0.000000e+00 0.000000e+00 0.000000e+00 0.000000e+00 0.000000e+00 0.000000e+00 6.185506e+01 0.000000e+00 1.806119e+02 6.224185e+03 2.245432e+03 1.222640e+02 3.317608e+01 3.318260e+00 2.259386e-02 0.000000e+00 0.000000e+00
<VARIANCE> 20
 1.376184e+06 1.000000e-02 1.000000e-02 1.000000e-02 1.000000e-02 1.000000e-02 1.000000e-02 1.000000e-02 1.000000e-02 4.165788e+03 1.000000e-02 6.458277e+04 1.244702e+06 6.861554e+05 2.938353e+03 3.639184e+02 1.426346e+01 2.208336e-02 1.000000e-02 1.000000e-02
<GCONST> 5.984641e+01
<STATE> 8
<MEAN> 20
 9.751933e+03 0.000000e+00 0.000000e+00 0.000000e+00 0.000000e+00 0.000000e+00 0.000000e+00 0.000000e+00 0.000000e+00 2.398309e+02 0.000000e+00 4.702159e+02 7.004027e+03 2.364980e+03 1.171174e+02 3.016109e+01 4.840842e+00 3.963259e-01 2.479747e-02 0.000000e+00
<VARIANCE> 20
 2.716074e+06 1.000000e-02 1.000000e-02 1.000000e-02 1.000000e-02 1.000000e-02 1.000000e-02 1.000000e-02 1.000000e-02 3.164482e+04 1.000000e-02 2.504215e+05 1.702295e+06 7.445243e+05 2.315685e+03 3.537352e+02 3.338485e+01 9.831985e-01 2.418255e-02 1.000000e-02
<GCONST> 6.956679e+01
<STATE> 9
<MEAN> 20
 9.826904e+03 4.027063e-02 0.000000e+00 0.000000e+00 0.000000e+00 0.000000e+00 0.000000e+00 0.000000e+00 0.000000e+00 3.699806e+02 0.000000e+00 1.544722e+03 8.079029e+03 5.181307e+02 4.633771e+01 8.105108e+00 5.124683e-01 5.638568e-02 2.416238e-02 8.054120e-03
<VARIANCE> 20
