~o
<STREAMINFO> 1 1
<VECSIZE> 1<NULLD><USER><DIAGC>
~h "a"
<BEGINHMM>
<NUMSTATES> 8
<STATE> 2
<MEAN> 1
 -9.691979e-01
<VARIANCE> 1
 5.701979e-01
<GCONST> 1.276105e+00
<STATE> 3
<MEAN> 1
 7.717808e-01
<VARIANCE> 1
 9.066095e-02
<GCONST> -5.627515e-01
<STATE> 4
<MEAN> 1
 8.212868e-02
<VARIANCE> 1
 8.398513e-02
<GCONST> -6.392384e-01
<STATE> 5
<MEAN> 1
 1.666659e+00
<VARIANCE> 1
 2.109138e-01
<GCONST> 2.815711e-01
<STATE> 6
<MEAN> 1
 3.608411e+00
<VARIANCE> 1
 5.561580e-01
<GCONST> 1.251174e+00
<STATE> 7
<MEAN> 1
 7.851328e+00
<VARIANCE> 1
 3.835167e+00
<GCONST> 3.182090e+00
<TRANSP> 8
 0.000000e+00 1.000000e+00 0.000000e+00 0.000000e+00 0.000000e+00 0.000000e+00 0.000000e+00 0.000000e+00
 0.000000e+00 9.047131e-01 9.528691e-02 0.000000e+00 0.000000e+00 0.000000e+00 0.000000e+00 0.000000e+00
 0.000000e+00 0.000000e+00 6.836346e-01 3.163654e-01 0.000000e+00 0.000000e+00 0.000000e+00 0.000000e+00
 0.000000e+00 0.000000e+00 0.000000e+00 9.539152e-01 4.608476e-02 0.000000e+00 0.000000e+00 0.000000e+00
 0.000000e+00 0.000000e+00 0.000000e+00 0.000000e+00 9.753417e-01 2.465834e-02 0.000000e+00 0.000000e+00
 0.000000e+00 0.000000e+00 0.000000e+00 0.000000e+00 0.000000e+00 9.804654e-01 1.953466e-02 0.000000e+00
 0.000000e+00 0.000000e+00 0.000000e+00 0.000000e+00 0.000000e+00 0.000000e+00 9.905885e-01 9.411504e-03
 0.000000e+00 0.000000e+00 0.000000e+00 0.000000e+00 0.000000e+00 0.000000e+00 0.000000e+00 0.000000e+00
<ENDHMM>
~h "e"
<BEGINHMM>
<NUMSTATES> 8
<STATE> 2
<MEAN> 1
 2.014336e+00
<VARIANCE> 1
 1.140111e+00
<GCONST> 1.969002e+00
<STATE> 3
<MEAN> 1
 5.629080e+00
<VARIANCE> 1
 8.908984e+00
<GCONST> 4.024937e+00
<STATE> 4
<MEAN> 1
 -1.740250e-03
<VARIANCE> 1
 1.000000e-02
<GCONST> -2.767293e+00
<STATE> 5
<MEAN> 1
 -7.464775e-01
<VARIANCE> 1
 1.249821e-01
<GCONST> -2.417078e-01
<STATE> 6
<MEAN> 1
 -2.129762e+00
<VARIANCE> 1
 1.848760e-01
<GCONST> 1.498071e-01
<STATE> 7
<MEAN> 1
 -3.764868e+00
<VARIANCE> 1
 2.404720e-01
<GCONST> 4.127253e-01
<TRANSP> 8
 0.000000e+00 1.000000e+00 0.000000e+00 0.000000e+00 0.000000e+00 0.000000e+00 0.000000e+00 0.000000e+00
 0.000000e+00 9.793478e-01 2.065221e-02 0.000000e+00 0.000000e+00 0.000000e+00 0.000000e+00 0.000000e+00
 0.000000e+00 0.000000e+00 9.509702e-01 4.902971e-02 0.000000e+00 0.000000e+00 0.000000e+00 0.000000e+00
 0.000000e+00 0.000000e+00 0.000000e+00 9.779810e-01 2.201899e-02 0.000000e+00 0.000000e+00 0.000000e+00
 0.000000e+00 0.000000e+00 0.000000e+00 0.000000e+00 9.700881e-01 2.991199e-02 0.000000e+00 0.000000e+00
 0.000000e+00 0.000000e+00 0.000000e+00 0.000000e+00 0.000000e+00 9.731464e-01 2.685359e-02 0.000000e+00
 0.000000e+00 0.000000e+00 0.000000e+00 0.000000e+00 0.000000e+00 0.000000e+00 9.645347e-01 3.546533e-02
 0.000000e+00 0.000000e+00 0.000000e+00 0.000000e+00 0.000000e+00 0.000000e+00 0.000000e+00 0.000000e+00
<ENDHMM>
~h "i"
<BEGINHMM>
<NUMSTATES> 8
<STATE> 2
<MEAN> 1
 -5.637670e+00
<VARIANCE> 1
 4.002686e-01
<GCONST> 9.222576e-01
<STATE> 3
<MEAN> 1
 -5.428163e+00
<VARIANCE> 1
 2.589397e+00
<GCONST> 2.789302e+00
<STATE> 4
<MEAN> 1
 -7.940472e+00
<VARIANCE> 1
 1.015569e+00
<GCONST> 1.853326e+00
<STATE> 5
<MEAN> 1
 -4.641480e+00
<VARIANCE> 1
 6.411707e-01
<GCONST> 1.393418e+00
<STATE> 6
<MEAN> 1
 -5.689805e+00
<VARIANCE> 1
 5.848888e-01
<GCONST> 1.301543e+00
<STATE> 7
<MEAN> 1
 -3.186890e+00
<VARIANCE> 1
 3.710537e-01
<GCONST> 8.464686e-01
<TRANSP> 8
 0.000000e+00 1.000000e+00 0.000000e+00 0.000000e+00 0.000000e+00 0.000000e+00 0.000000e+00 0.000000e+00
 0.000000e+00 9.683573e-01 3.164269e-02 0.000000e+00 0.000000e+00 0.000000e+00 0.000000e+00 0.000000e+00
 0.000000e+00 0.000000e+00 0.000000e+00 1.000000e+00 0.000000e+00 0.000000e+00 0.000000e+00 0.000000e+00
 0.000000e+00 0.000000e+00 0.000000e+00 9.849012e-01 1.509878e-02 0.000000e+00 0.000000e+00 0.000000e+00
 0.000000e+00 0.000000e+00 0.000000e+00 0.000000e+00 8.806506e-01 1.193494e-01 0.000000e+00 0.000000e+00
 0.000000e+00 0.000000e+00 0.000000e+00 0.000000e+00 0.000000e+00 9.662477e-01 3.375231e-02 0.000000e+00
 0.000000e+00 0.000000e+00 0.000000e+00 0.000000e+00 0.000000e+00 0.000000e+00 9.604862e-01 3.951386e-02
 0.000000e+00 0.000000e+00 0.000000e+00 0.000000e+00 0.000000e+00 0.000000e+00 0.000000e+00 0.000000e+00
<ENDHMM>
~h "m"
<BEGINHMM>
<NUMSTATES> 8
<STATE> 2
<MEAN> 1
 -1.232679e+00
<VARIANCE> 1
 3.081513e-01
<GCONST> 6.607126e-01
<STATE> 3
<MEAN> 1
 -5.251956e-03
<VARIANCE> 1
 1.000000e-02
<GCONST> -2.767293e+00
<STATE> 4
<MEAN> 1
 9.524370e-02
<VARIANCE> 1
 1.000000e-02
<GCONST> -2.767293e+00
<STATE> 5
<MEAN> 1
 1.468823e-01
<VARIANCE> 1
 1.000000e-02
<GCONST> -2.767293e+00
<STATE> 6
<MEAN> 1
 1.964948e-01
<VARIANCE> 1
 1.468152e-02
<GCONST> -2.383289e+00
<STATE> 7
<MEAN> 1
 4.413869e-01
<VARIANCE> 1
 2.604713e-02
<GCONST> -1.809971e+00
<TRANSP> 8
 0.000000e+00 1.000000e+00 0.000000e+00 0.000000e+00 0.000000e+00 0.000000e+00 0.000000e+00 0.000000e+00
 0.000000e+00 9.613481e-01 3.865193e-02 0.000000e+00 0.000000e+00 0.000000e+00 0.000000e+00 0.000000e+00
 0.000000e+00 0.000000e+00 9.792405e-01 2.075942e-02 0.000000e+00 0.000000e+00 0.000000e+00 0.000000e+00
 0.000000e+00 0.000000e+00 0.000000e+00 0.000000e+00 1.000000e+00 0.000000e+00 0.000000e+00 0.000000e+00
 0.000000e+00 0.000000e+00 0.000000e+00 0.000000e+00 0.000000e+00 1.000000e+00 0.000000e+00 0.000000e+00
 0.000000e+00 0.000000e+00 0.000000e+00 0.000000e+00 0.000000e+00 0.000000e+00 1.000000e+00 0.000000e+00
 0.000000e+00 0.000000e+00 0.000000e+00 0.000000e+00 0.000000e+00 0.000000e+00 9.327598e-01 6.724014e-02
 0.000000e+00 0.000000e+00 0.000000e+00 0.000000e+00 0.000000e+00 0.000000e+00 0.000000e+00 0.000000e+00
<ENDHMM>
~h "sil"
<BEGINHMM>
<NUMSTATES> 8
<STATE> 2
<MEAN> 1
 1.631614e-01
<VARIANCE> 1
 2.317711e+00
<GCONST> 2.678457e+00
<STATE> 3
<MEAN> 1
 -3.341555e+00
<VARIANCE> 1
 1.029238e+00
<GCONST> 1.866696e+00
<STATE> 4
<MEAN> 1
 3.394066e-01
<VARIANCE> 1
 4.293678e+00
<GCONST> 3.295021e+00
<STATE> 5
<MEAN> 1
 9.225966e+00
<VARIANCE> 1
 1.019958e+01
<GCONST> 4.160223e+00
<STATE> 6
<MEAN> 1
 1.639748e+00
<VARIANCE> 1
 1.174330e+00
<GCONST> 1.998575e+00
<STATE> 7
<MEAN> 1
 1.857175e-01
<VARIANCE> 1
 1.505513e+00
<GCONST> 2.247011e+00
<TRANSP> 8
 0.000000e+00 1.000000e+00 0.000000e+00 0.000000e+00 0.000000e+00 0.000000e+00 0.000000e+00 0.000000e+00
 0.000000e+00 9.599984e-01 4.000159e-02 0.000000e+00 0.000000e+00 0.000000e+00 0.000000e+00 0.000000e+00
 0.000000e+00 0.000000e+00 9.784996e-01 2.150042e-02 0.000000e+00 0.000000e+00 0.000000e+00 0.000000e+00
 0.000000e+00 0.000000e+00 0.000000e+00 0.000000e+00 1.000000e+00 0.000000e+00 0.000000e+00 0.000000e+00
 0.000000e+00 0.000000e+00 0.000000e+00 0.000000e+00 9.411387e-01 5.886135e-02 0.000000e+00 0.000000e+00
 0.000000e+00 0.000000e+00 0.000000e+00 0.000000e+00 0.000000e+00 9.270431e-01 7.295684e-02 0.000000e+00
 0.000000e+00 0.000000e+00 0.000000e+00 0.000000e+00 0.000000e+00 0.000000e+00 0.000000e+00 1.000000e+00
 0.000000e+00 0.000000e+00 0.000000e+00 0.000000e+00 0.000000e+00 0.000000e+00 0.000000e+00 0.000000e+00
<ENDHMM>
