~o
<STREAMINFO> 1 1
<VECSIZE> 1<NULLD><USER><DIAGC>
~h "a"
<BEGINHMM>
<NUMSTATES> 8
<STATE> 2
<MEAN> 1
 3.102792e+00
<VARIANCE> 1
 2.673229e+00
<GCONST> 2.821164e+00
<STATE> 3
<MEAN> 1
 9.239909e+00
<VARIANCE> 1
 2.871738e+00
<GCONST> 2.892794e+00
<STATE> 4
<MEAN> 1
 5.283949e+00
<VARIANCE> 1
 1.554095e+00
<GCONST> 2.278770e+00
<STATE> 5
<MEAN> 1
 2.205937e+00
<VARIANCE> 1
 2.498995e-01
<GCONST> 4.511807e-01
<STATE> 6
<MEAN> 1
 3.179038e+00
<VARIANCE> 1
 7.228251e-01
<GCONST> 1.513289e+00
<STATE> 7
<MEAN> 1
 8.361970e-01
<VARIANCE> 1
 1.559834e-01
<GCONST> -2.012861e-02
<TRANSP> 8
 0.000000e+00 1.000000e+00 0.000000e+00 0.000000e+00 0.000000e+00 0.000000e+00 0.000000e+00 0.000000e+00
 0.000000e+00 9.495108e-01 5.048919e-02 0.000000e+00 0.000000e+00 0.000000e+00 0.000000e+00 0.000000e+00
 0.000000e+00 0.000000e+00 9.831718e-01 1.682825e-02 0.000000e+00 0.000000e+00 0.000000e+00 0.000000e+00
 0.000000e+00 0.000000e+00 0.000000e+00 9.729550e-01 2.704502e-02 0.000000e+00 0.000000e+00 0.000000e+00
 0.000000e+00 0.000000e+00 0.000000e+00 0.000000e+00 9.471486e-01 5.285140e-02 0.000000e+00 0.000000e+00
 0.000000e+00 0.000000e+00 0.000000e+00 0.000000e+00 0.000000e+00 9.135340e-01 8.646607e-02 0.000000e+00
 0.000000e+00 0.000000e+00 0.000000e+00 0.000000e+00 0.000000e+00 0.000000e+00 9.335642e-01 6.643576e-02
 0.000000e+00 0.000000e+00 0.000000e+00 0.000000e+00 0.000000e+00 0.000000e+00 0.000000e+00 0.000000e+00
<ENDHMM>
~h "e"
<BEGINHMM>
<NUMSTATES> 8
<STATE> 2
<MEAN> 1
 -1.440878e-03
<VARIANCE> 1
 1.000000e-02
<GCONST> -2.767293e+00
<STATE> 3
<MEAN> 1
 5.408968e+00
<VARIANCE> 1
 1.808720e+01
<GCONST> 4.733082e+00
<STATE> 4
<MEAN> 1
 -8.305174e-01
<VARIANCE> 1
 1.647858e-01
<GCONST> 3.476799e-02
<STATE> 5
<MEAN> 1
 -1.609390e+00
<VARIANCE> 1
 3.279829e-02
<GCONST> -1.579502e+00
<STATE> 6
<MEAN> 1
 -2.729630e+00
<VARIANCE> 1
 5.406580e-01
<GCONST> 1.222909e+00
<STATE> 7
<MEAN> 1
 -5.480178e+00
<VARIANCE> 1
 6.268876e-01
<GCONST> 1.370889e+00
<TRANSP> 8
 0.000000e+00 1.000000e+00 0.000000e+00 0.000000e+00 0.000000e+00 0.000000e+00 0.000000e+00 0.000000e+00
 0.000000e+00 9.930891e-01 6.910926e-03 0.000000e+00 0.000000e+00 0.000000e+00 0.000000e+00 0.000000e+00
 0.000000e+00 0.000000e+00 8.780556e-01 1.219444e-01 0.000000e+00 0.000000e+00 0.000000e+00 0.000000e+00
 0.000000e+00 0.000000e+00 0.000000e+00 9.641869e-01 3.581314e-02 0.000000e+00 0.000000e+00 0.000000e+00
 0.000000e+00 0.000000e+00 0.000000e+00 0.000000e+00 0.000000e+00 1.000000e+00 0.000000e+00 0.000000e+00
 0.000000e+00 0.000000e+00 0.000000e+00 0.000000e+00 0.000000e+00 9.685550e-01 3.144496e-02 0.000000e+00
 0.000000e+00 0.000000e+00 0.000000e+00 0.000000e+00 0.000000e+00 0.000000e+00 9.672726e-01 3.272738e-02
 0.000000e+00 0.000000e+00 0.000000e+00 0.000000e+00 0.000000e+00 0.000000e+00 0.000000e+00 0.000000e+00
<ENDHMM>
~h "i"
<BEGINHMM>
<NUMSTATES> 8
<STATE> 2
<MEAN> 1
 -7.389149e+00
<VARIANCE> 1
 2.593287e+00
<GCONST> 2.790803e+00
<STATE> 3
<MEAN> 1
 -9.867017e+00
<VARIANCE> 1
 9.665318e-01
<GCONST> 1.803836e+00
<STATE> 4
<MEAN> 1
 -7.320697e+00
<VARIANCE> 1
 7.708209e-01
<GCONST> 1.577578e+00
<STATE> 5
<MEAN> 1
 -4.306060e+00
<VARIANCE> 1
 4.706338e-01
<GCONST> 1.084202e+00
<STATE> 6
<MEAN> 1
 -2.435176e+00
<VARIANCE> 1
 1.716925e-01
<GCONST> 7.582664e-02
<STATE> 7
<MEAN> 1
 -1.266701e+00
<VARIANCE> 1
 8.367722e-02
<GCONST> -6.429114e-01
<TRANSP> 8
 0.000000e+00 1.000000e+00 0.000000e+00 0.000000e+00 0.000000e+00 0.000000e+00 0.000000e+00 0.000000e+00
 0.000000e+00 9.426623e-01 5.733770e-02 0.000000e+00 0.000000e+00 0.000000e+00 0.000000e+00 0.000000e+00
 0.000000e+00 0.000000e+00 9.829153e-01 1.708468e-02 0.000000e+00 0.000000e+00 0.000000e+00 0.000000e+00
 0.000000e+00 0.000000e+00 0.000000e+00 9.769886e-01 2.301136e-02 0.000000e+00 0.000000e+00 0.000000e+00
 0.000000e+00 0.000000e+00 0.000000e+00 0.000000e+00 9.507548e-01 4.924524e-02 0.000000e+00 0.000000e+00
 0.000000e+00 0.000000e+00 0.000000e+00 0.000000e+00 0.000000e+00 9.237561e-01 7.624389e-02 0.000000e+00
 0.000000e+00 0.000000e+00 0.000000e+00 0.000000e+00 0.000000e+00 0.000000e+00 8.849135e-01 1.150865e-01
 0.000000e+00 0.000000e+00 0.000000e+00 0.000000e+00 0.000000e+00 0.000000e+00 0.000000e+00 0.000000e+00
<ENDHMM>
~h "m"
<BEGINHMM>
<NUMSTATES> 8
<STATE> 2
<MEAN> 1
 -4.903941e-01
<VARIANCE> 1
 3.198106e-02
<GCONST> -1.604734e+00
<STATE> 3
<MEAN> 1
 1.054623e-03
<VARIANCE> 1
 1.000000e-02
<GCONST> -2.767293e+00
<STATE> 4
<MEAN> 1
 7.036844e-01
<VARIANCE> 1
 1.005405e-01
<GCONST> -4.593177e-01
<STATE> 5
<MEAN> 1
 1.751590e+00
<VARIANCE> 1
 1.367162e-01
<GCONST> -1.519713e-01
<STATE> 6
<MEAN> 1
 3.302284e+00
<VARIANCE> 1
 3.847564e-01
<GCONST> 8.827320e-01
<STATE> 7
<MEAN> 1
 6.575726e+00
<VARIANCE> 1
 2.306437e+00
<GCONST> 2.673581e+00
<TRANSP> 8
 0.000000e+00 1.000000e+00 0.000000e+00 0.000000e+00 0.000000e+00 0.000000e+00 0.000000e+00 0.000000e+00
 0.000000e+00 8.193646e-01 1.806354e-01 0.000000e+00 0.000000e+00 0.000000e+00 0.000000e+00 0.000000e+00
 0.000000e+00 0.000000e+00 9.932128e-01 6.787130e-03 0.000000e+00 0.000000e+00 0.000000e+00 0.000000e+00
 0.000000e+00 0.000000e+00 0.000000e+00 9.508871e-01 4.911290e-02 0.000000e+00 0.000000e+00 0.000000e+00
 0.000000e+00 0.000000e+00 0.000000e+00 0.000000e+00 9.398004e-01 6.019956e-02 0.000000e+00 0.000000e+00
 0.000000e+00 0.000000e+00 0.000000e+00 0.000000e+00 0.000000e+00 9.545825e-01 4.541748e-02 0.000000e+00
 0.000000e+00 0.000000e+00 0.000000e+00 0.000000e+00 0.000000e+00 0.000000e+00 9.599401e-01 4.005985e-02
 0.000000e+00 0.000000e+00 0.000000e+00 0.000000e+00 0.000000e+00 0.000000e+00 0.000000e+00 0.000000e+00
<ENDHMM>
~h "sil"
<BEGINHMM>
<NUMSTATES> 8
<STATE> 2
<MEAN> 1
 -2.896447e+00
<VARIANCE> 1
 3.035890e+00
<GCONST> 2.948382e+00
<STATE> 3
<MEAN> 1
 3.083369e+00
<VARIANCE> 1
 1.592362e+01
<GCONST> 4.605680e+00
<STATE> 4
<MEAN> 1
 1.069877e+01
<VARIANCE> 1
 4.611376e+00
<GCONST> 3.366403e+00
<STATE> 5
<MEAN> 1
 5.903528e+00
<VARIANCE> 1
 4.093705e+00
<GCONST> 3.247327e+00
<STATE> 6
<MEAN> 1
 2.108345e+00
<VARIANCE> 1
 7.797486e+00
<GCONST> 3.891678e+00
<STATE> 7
<MEAN> 1
 1.511880e-01
<VARIANCE> 1
 9.720539e-01
<GCONST> 1.809533e+00
<TRANSP> 8
 0.000000e+00 1.000000e+00 0.000000e+00 0.000000e+00 0.000000e+00 0.000000e+00 0.000000e+00 0.000000e+00
 0.000000e+00 9.689690e-01 3.103098e-02 0.000000e+00 0.000000e+00 0.000000e+00 0.000000e+00 0.000000e+00
 0.000000e+00 0.000000e+00 0.000000e+00 1.000000e+00 0.000000e+00 0.000000e+00 0.000000e+00 0.000000e+00
 0.000000e+00 0.000000e+00 0.000000e+00 9.778081e-01 2.219199e-02 0.000000e+00 0.000000e+00 0.000000e+00
 0.000000e+00 0.000000e+00 0.000000e+00 0.000000e+00 9.089601e-01 9.103987e-02 0.000000e+00 0.000000e+00
 0.000000e+00 0.000000e+00 0.000000e+00 0.000000e+00 0.000000e+00 6.065571e-03 9.939345e-01 0.000000e+00
 0.000000e+00 0.000000e+00 0.000000e+00 0.000000e+00 0.000000e+00 0.000000e+00 9.636583e-01 3.634166e-02
 0.000000e+00 0.000000e+00 0.000000e+00 0.000000e+00 0.000000e+00 0.000000e+00 0.000000e+00 0.000000e+00
<ENDHMM>
