~o
<STREAMINFO> 1 1
<VECSIZE> 1<NULLD><USER><DIAGC>
~h "a"
<BEGINHMM>
<NUMSTATES> 8
<STATE> 2
<MEAN> 1
 -9.616726e-01
<VARIANCE> 1
 5.612113e-01
<GCONST> 1.260219e+00
<STATE> 3
<MEAN> 1
 8.142921e-01
<VARIANCE> 1
 5.366730e-02
<GCONST> -1.087075e+00
<STATE> 4
<MEAN> 1
 7.079657e-02
<VARIANCE> 1
 8.910014e-02
<GCONST> -5.801175e-01
<STATE> 5
<MEAN> 1
 1.718005e+00
<VARIANCE> 1
 1.895638e-01
<GCONST> 1.748476e-01
<STATE> 6
<MEAN> 1
 3.609379e+00
<VARIANCE> 1
 5.561920e-01
<GCONST> 1.251235e+00
<STATE> 7
<MEAN> 1
 7.863314e+00
<VARIANCE> 1
 3.843258e+00
<GCONST> 3.184197e+00
<TRANSP> 8
 0.000000e+00 1.000000e+00 0.000000e+00 0.000000e+00 0.000000e+00 0.000000e+00 0.000000e+00 0.000000e+00
 0.000000e+00 9.069190e-01 9.308098e-02 0.000000e+00 0.000000e+00 0.000000e+00 0.000000e+00 0.000000e+00
 0.000000e+00 0.000000e+00 8.791890e-01 1.208110e-01 0.000000e+00 0.000000e+00 0.000000e+00 0.000000e+00
 0.000000e+00 0.000000e+00 0.000000e+00 9.510950e-01 4.890503e-02 0.000000e+00 0.000000e+00 0.000000e+00
 0.000000e+00 0.000000e+00 0.000000e+00 0.000000e+00 9.731776e-01 2.682244e-02 0.000000e+00 0.000000e+00
 0.000000e+00 0.000000e+00 0.000000e+00 0.000000e+00 0.000000e+00 9.804529e-01 1.954713e-02 0.000000e+00
 0.000000e+00 0.000000e+00 0.000000e+00 0.000000e+00 0.000000e+00 0.000000e+00 9.905251e-01 9.474961e-03
 0.000000e+00 0.000000e+00 0.000000e+00 0.000000e+00 0.000000e+00 0.000000e+00 0.000000e+00 0.000000e+00
<ENDHMM>
~h "e"
<BEGINHMM>
<NUMSTATES> 8
<STATE> 2
<MEAN> 1
 1.994289e+00
<VARIANCE> 1
 1.093606e+00
<GCONST> 1.927357e+00
<STATE> 3
<MEAN> 1
 5.556949e+00
<VARIANCE> 1
 8.423454e+00
<GCONST> 3.968897e+00
<STATE> 4
<MEAN> 1
 -1.797726e-03
<VARIANCE> 1
 1.000000e-02
<GCONST> -2.767293e+00
<STATE> 5
<MEAN> 1
 -7.422099e-01
<VARIANCE> 1
 1.232257e-01
<GCONST> -2.558608e-01
<STATE> 6
<MEAN> 1
 -2.118816e+00
<VARIANCE> 1
 1.836433e-01
<GCONST> 1.431172e-01
<STATE> 7
<MEAN> 1
 -3.747930e+00
<VARIANCE> 1
 2.401116e-01
<GCONST> 4.112256e-01
<TRANSP> 8
 0.000000e+00 1.000000e+00 0.000000e+00 0.000000e+00 0.000000e+00 0.000000e+00 0.000000e+00 0.000000e+00
 0.000000e+00 9.784111e-01 2.158887e-02 0.000000e+00 0.000000e+00 0.000000e+00 0.000000e+00 0.000000e+00
 0.000000e+00 0.000000e+00 9.546834e-01 4.531664e-02 0.000000e+00 0.000000e+00 0.000000e+00 0.000000e+00
 0.000000e+00 0.000000e+00 0.000000e+00 9.779560e-01 2.204403e-02 0.000000e+00 0.000000e+00 0.000000e+00
 0.000000e+00 0.000000e+00 0.000000e+00 0.000000e+00 9.699228e-01 3.007730e-02 0.000000e+00 0.000000e+00
 0.000000e+00 0.000000e+00 0.000000e+00 0.000000e+00 0.000000e+00 9.730212e-01 2.697878e-02 0.000000e+00
 0.000000e+00 0.000000e+00 0.000000e+00 0.000000e+00 0.000000e+00 0.000000e+00 9.643636e-01 3.563637e-02
 0.000000e+00 0.000000e+00 0.000000e+00 0.000000e+00 0.000000e+00 0.000000e+00 0.000000e+00 0.000000e+00
<ENDHMM>
~h "i"
<BEGINHMM>
<NUMSTATES> 8
<STATE> 2
<MEAN> 1
 -5.668030e+00
<VARIANCE> 1
 4.052328e-01
<GCONST> 9.345835e-01
<STATE> 3
<MEAN> 1
 -5.414592e+00
<VARIANCE> 1
 2.586196e+00
<GCONST> 2.788065e+00
<STATE> 4
<MEAN> 1
 -7.936888e+00
<VARIANCE> 1
 1.018843e+00
<GCONST> 1.856544e+00
<STATE> 5
<MEAN> 1
 -4.633009e+00
<VARIANCE> 1
 5.203669e-01
<GCONST> 1.184656e+00
<STATE> 6
<MEAN> 1
 -5.664809e+00
<VARIANCE> 1
 6.080415e-01
<GCONST> 1.340365e+00
<STATE> 7
<MEAN> 1
 -3.137681e+00
<VARIANCE> 1
 3.547310e-01
<GCONST> 8.014814e-01
<TRANSP> 8
 0.000000e+00 1.000000e+00 0.000000e+00 0.000000e+00 0.000000e+00 0.000000e+00 0.000000e+00 0.000000e+00
 0.000000e+00 9.692838e-01 3.071624e-02 0.000000e+00 0.000000e+00 0.000000e+00 0.000000e+00 0.000000e+00
 0.000000e+00 0.000000e+00 0.000000e+00 1.000000e+00 0.000000e+00 0.000000e+00 0.000000e+00 0.000000e+00
 0.000000e+00 0.000000e+00 0.000000e+00 9.849387e-01 1.506127e-02 0.000000e+00 0.000000e+00 0.000000e+00
 0.000000e+00 0.000000e+00 0.000000e+00 0.000000e+00 9.028429e-01 9.715712e-02 0.000000e+00 0.000000e+00
 0.000000e+00 0.000000e+00 0.000000e+00 0.000000e+00 0.000000e+00 9.640585e-01 3.594149e-02 0.000000e+00
 0.000000e+00 0.000000e+00 0.000000e+00 0.000000e+00 0.000000e+00 0.000000e+00 9.598416e-01 4.015843e-02
 0.000000e+00 0.000000e+00 0.000000e+00 0.000000e+00 0.000000e+00 0.000000e+00 0.000000e+00 0.000000e+00
<ENDHMM>
~h "m"
<BEGINHMM>
<NUMSTATES> 8
<STATE> 2
<MEAN> 1
 -1.220638e+00
<VARIANCE> 1
 3.007157e-01
<GCONST> 6.362871e-01
<STATE> 3
<MEAN> 1
 -5.004944e-03
<VARIANCE> 1
 1.000000e-02
<GCONST> -2.767293e+00
<STATE> 4
<MEAN> 1
 9.848183e-02
<VARIANCE> 1
 1.000000e-02
<GCONST> -2.767293e+00
<STATE> 5
<MEAN> 1
 1.500280e-01
<VARIANCE> 1
 1.013945e-02
<GCONST> -2.753445e+00
<STATE> 6
<MEAN> 1
 1.994890e-01
<VARIANCE> 1
 1.495140e-02
<GCONST> -2.365073e+00
<STATE> 7
<MEAN> 1
 4.249736e-01
<VARIANCE> 1
 2.337086e-02
<GCONST> -1.918388e+00
<TRANSP> 8
 0.000000e+00 1.000000e+00 0.000000e+00 0.000000e+00 0.000000e+00 0.000000e+00 0.000000e+00 0.000000e+00
 0.000000e+00 9.609026e-01 3.909738e-02 0.000000e+00 0.000000e+00 0.000000e+00 0.000000e+00 0.000000e+00
 0.000000e+00 0.000000e+00 9.792660e-01 2.073401e-02 0.000000e+00 0.000000e+00 0.000000e+00 0.000000e+00
 0.000000e+00 0.000000e+00 0.000000e+00 0.000000e+00 1.000000e+00 0.000000e+00 0.000000e+00 0.000000e+00
 0.000000e+00 0.000000e+00 0.000000e+00 0.000000e+00 0.000000e+00 1.000000e+00 0.000000e+00 0.000000e+00
 0.000000e+00 0.000000e+00 0.000000e+00 0.000000e+00 0.000000e+00 0.000000e+00 1.000000e+00 0.000000e+00
 0.000000e+00 0.000000e+00 0.000000e+00 0.000000e+00 0.000000e+00 0.000000e+00 9.271709e-01 7.282903e-02
 0.000000e+00 0.000000e+00 0.000000e+00 0.000000e+00 0.000000e+00 0.000000e+00 0.000000e+00 0.000000e+00
<ENDHMM>
~h "sil"
<BEGINHMM>
<NUMSTATES> 8
<STATE> 2
<MEAN> 1
 1.725545e-01
<VARIANCE> 1
 2.218746e+00
<GCONST> 2.634819e+00
<STATE> 3
<MEAN> 1
 -3.343657e+00
<VARIANCE> 1
 1.028597e+00
<GCONST> 1.866073e+00
<STATE> 4
<MEAN> 1
 3.389279e-01
<VARIANCE> 1
 4.302994e+00
<GCONST> 3.297188e+00
<STATE> 5
<MEAN> 1
 9.232686e+00
<VARIANCE> 1
 1.017782e+01
<GCONST> 4.158088e+00
<STATE> 6
<MEAN> 1
 1.700028e+00
<VARIANCE> 1
 1.097952e+00
<GCONST> 1.931323e+00
<STATE> 7
<MEAN> 1
 1.972890e-01
<VARIANCE> 1
 1.532114e+00
<GCONST> 2.264525e+00
<TRANSP> 8
 0.000000e+00 1.000000e+00 0.000000e+00 0.000000e+00 0.000000e+00 0.000000e+00 0.000000e+00 0.000000e+00
 0.000000e+00 9.617894e-01 3.821059e-02 0.000000e+00 0.000000e+00 0.000000e+00 0.000000e+00 0.000000e+00
 0.000000e+00 0.000000e+00 9.784631e-01 2.153697e-02 0.000000e+00 0.000000e+00 0.000000e+00 0.000000e+00
 0.000000e+00 0.000000e+00 0.000000e+00 0.000000e+00 1.000000e+00 0.000000e+00 0.000000e+00 0.000000e+00
 0.000000e+00 0.000000e+00 0.000000e+00 0.000000e+00 9.410633e-01 5.893662e-02 0.000000e+00 0.000000e+00
 0.000000e+00 0.000000e+00 0.000000e+00 0.000000e+00 0.000000e+00 9.342650e-01 6.573502e-02 0.000000e+00
 0.000000e+00 0.000000e+00 0.000000e+00 0.000000e+00 0.000000e+00 0.000000e+00 0.000000e+00 1.000000e+00
 0.000000e+00 0.000000e+00 0.000000e+00 0.000000e+00 0.000000e+00 0.000000e+00 0.000000e+00 0.000000e+00
<ENDHMM>
