~o
<STREAMINFO> 1 1
<VECSIZE> 1<NULLD><USER><DIAGC>
~h "a"
<BEGINHMM>
<NUMSTATES> 8
<STATE> 2
<MEAN> 1
 3.102467e+00
<VARIANCE> 1
 2.672627e+00
<GCONST> 2.820939e+00
<STATE> 3
<MEAN> 1
 9.239747e+00
<VARIANCE> 1
 2.872123e+00
<GCONST> 2.892929e+00
<STATE> 4
<MEAN> 1
 5.283565e+00
<VARIANCE> 1
 1.554093e+00
<GCONST> 2.278769e+00
<STATE> 5
<MEAN> 1
 2.206508e+00
<VARIANCE> 1
 2.497858e-01
<GCONST> 4.507254e-01
<STATE> 6
<MEAN> 1
 3.179343e+00
<VARIANCE> 1
 7.230569e-01
<GCONST> 1.513610e+00
<STATE> 7
<MEAN> 1
 8.364756e-01
<VARIANCE> 1
 1.560792e-01
<GCONST> -1.951480e-02
<TRANSP> 8
 0.000000e+00 1.000000e+00 0.000000e+00 0.000000e+00 0.000000e+00 0.000000e+00 0.000000e+00 0.000000e+00
 0.000000e+00 9.494980e-01 5.050198e-02 0.000000e+00 0.000000e+00 0.000000e+00 0.000000e+00 0.000000e+00
 0.000000e+00 0.000000e+00 9.831722e-01 1.682782e-02 0.000000e+00 0.000000e+00 0.000000e+00 0.000000e+00
 0.000000e+00 0.000000e+00 0.000000e+00 9.729497e-01 2.705029e-02 0.000000e+00 0.000000e+00 0.000000e+00
 0.000000e+00 0.000000e+00 0.000000e+00 0.000000e+00 9.471699e-01 5.283006e-02 0.000000e+00 0.000000e+00
 0.000000e+00 0.000000e+00 0.000000e+00 0.000000e+00 0.000000e+00 9.134086e-01 8.659139e-02 0.000000e+00
 0.000000e+00 0.000000e+00 0.000000e+00 0.000000e+00 0.000000e+00 0.000000e+00 9.335883e-01 6.641172e-02
 0.000000e+00 0.000000e+00 0.000000e+00 0.000000e+00 0.000000e+00 0.000000e+00 0.000000e+00 0.000000e+00
<ENDHMM>
~h "e"
<BEGINHMM>
<NUMSTATES> 8
<STATE> 2
<MEAN> 1
 -1.435656e-03
<VARIANCE> 1
 1.000000e-02
<GCONST> -2.767293e+00
<STATE> 3
<MEAN> 1
 5.408947e+00
<VARIANCE> 1
 1.808702e+01
<GCONST> 4.733071e+00
<STATE> 4
<MEAN> 1
 -8.256371e-01
<VARIANCE> 1
 1.617284e-01
<GCONST> 1.603985e-02
<STATE> 5
<MEAN> 1
 -1.599742e+00
<VARIANCE> 1
 3.292220e-02
<GCONST> -1.575731e+00
<STATE> 6
<MEAN> 1
 -2.709855e+00
<VARIANCE> 1
 5.343168e-01
<GCONST> 1.211111e+00
<STATE> 7
<MEAN> 1
 -5.460735e+00
<VARIANCE> 1
 6.368611e-01
<GCONST> 1.386673e+00
<TRANSP> 8
 0.000000e+00 1.000000e+00 0.000000e+00 0.000000e+00 0.000000e+00 0.000000e+00 0.000000e+00 0.000000e+00
 0.000000e+00 9.930890e-01 6.911064e-03 0.000000e+00 0.000000e+00 0.000000e+00 0.000000e+00 0.000000e+00
 0.000000e+00 0.000000e+00 8.780564e-01 1.219436e-01 0.000000e+00 0.000000e+00 0.000000e+00 0.000000e+00
 0.000000e+00 0.000000e+00 0.000000e+00 9.639395e-01 3.606056e-02 0.000000e+00 0.000000e+00 0.000000e+00
 0.000000e+00 0.000000e+00 0.000000e+00 0.000000e+00 0.000000e+00 1.000000e+00 0.000000e+00 0.000000e+00
 0.000000e+00 0.000000e+00 0.000000e+00 0.000000e+00 0.000000e+00 9.684477e-01 3.155222e-02 0.000000e+00
 0.000000e+00 0.000000e+00 0.000000e+00 0.000000e+00 0.000000e+00 0.000000e+00 9.673782e-01 3.262176e-02
 0.000000e+00 0.000000e+00 0.000000e+00 0.000000e+00 0.000000e+00 0.000000e+00 0.000000e+00 0.000000e+00
<ENDHMM>
~h "i"
<BEGINHMM>
<NUMSTATES> 8
<STATE> 2
<MEAN> 1
 -7.389021e+00
<VARIANCE> 1
 2.576757e+00
<GCONST> 2.784409e+00
<STATE> 3
<MEAN> 1
 -9.865589e+00
<VARIANCE> 1
 9.671410e-01
<GCONST> 1.804466e+00
<STATE> 4
<MEAN> 1
 -7.311748e+00
<VARIANCE> 1
 7.717595e-01
<GCONST> 1.578795e+00
<STATE> 5
<MEAN> 1
 -4.302026e+00
<VARIANCE> 1
 4.650850e-01
<GCONST> 1.072342e+00
<STATE> 6
<MEAN> 1
 -2.447429e+00
<VARIANCE> 1
 1.685406e-01
<GCONST> 5.729818e-02
<STATE> 7
<MEAN> 1
 -1.288062e+00
<VARIANCE> 1
 8.352628e-02
<GCONST> -6.447170e-01
<TRANSP> 8
 0.000000e+00 1.000000e+00 0.000000e+00 0.000000e+00 0.000000e+00 0.000000e+00 0.000000e+00 0.000000e+00
 0.000000e+00 9.431576e-01 5.684242e-02 0.000000e+00 0.000000e+00 0.000000e+00 0.000000e+00 0.000000e+00
 0.000000e+00 0.000000e+00 9.829363e-01 1.706368e-02 0.000000e+00 0.000000e+00 0.000000e+00 0.000000e+00
 0.000000e+00 0.000000e+00 0.000000e+00 9.770101e-01 2.298997e-02 0.000000e+00 0.000000e+00 0.000000e+00
 0.000000e+00 0.000000e+00 0.000000e+00 0.000000e+00 9.505342e-01 4.946586e-02 0.000000e+00 0.000000e+00
 0.000000e+00 0.000000e+00 0.000000e+00 0.000000e+00 0.000000e+00 9.228318e-01 7.716817e-02 0.000000e+00
 0.000000e+00 0.000000e+00 0.000000e+00 0.000000e+00 0.000000e+00 0.000000e+00 8.846498e-01 1.153502e-01
 0.000000e+00 0.000000e+00 0.000000e+00 0.000000e+00 0.000000e+00 0.000000e+00 0.000000e+00 0.000000e+00
<ENDHMM>
~h "m"
<BEGINHMM>
<NUMSTATES> 8
<STATE> 2
<MEAN> 1
 -5.034317e-01
<VARIANCE> 1
 3.390710e-02
<GCONST> -1.546254e+00
<STATE> 3
<MEAN> 1
 1.008055e-03
<VARIANCE> 1
 1.000000e-02
<GCONST> -2.767293e+00
<STATE> 4
<MEAN> 1
 7.035759e-01
<VARIANCE> 1
 1.005355e-01
<GCONST> -4.593675e-01
<STATE> 5
<MEAN> 1
 1.751707e+00
<VARIANCE> 1
 1.369437e-01
<GCONST> -1.503081e-01
<STATE> 6
<MEAN> 1
 3.303743e+00
<VARIANCE> 1
 3.854570e-01
<GCONST> 8.845515e-01
<STATE> 7
<MEAN> 1
 6.577106e+00
<VARIANCE> 1
 2.304726e+00
<GCONST> 2.672839e+00
<TRANSP> 8
 0.000000e+00 1.000000e+00 0.000000e+00 0.000000e+00 0.000000e+00 0.000000e+00 0.000000e+00 0.000000e+00
 0.000000e+00 8.249466e-01 1.750533e-01 0.000000e+00 0.000000e+00 0.000000e+00 0.000000e+00 0.000000e+00
 0.000000e+00 0.000000e+00 9.932144e-01 6.785593e-03 0.000000e+00 0.000000e+00 0.000000e+00 0.000000e+00
 0.000000e+00 0.000000e+00 0.000000e+00 9.508846e-01 4.911537e-02 0.000000e+00 0.000000e+00 0.000000e+00
 0.000000e+00 0.000000e+00 0.000000e+00 0.000000e+00 9.398378e-01 6.016229e-02 0.000000e+00 0.000000e+00
 0.000000e+00 0.000000e+00 0.000000e+00 0.000000e+00 0.000000e+00 9.546032e-01 4.539683e-02 0.000000e+00
 0.000000e+00 0.000000e+00 0.000000e+00 0.000000e+00 0.000000e+00 0.000000e+00 9.599316e-01 4.006844e-02
 0.000000e+00 0.000000e+00 0.000000e+00 0.000000e+00 0.000000e+00 0.000000e+00 0.000000e+00 0.000000e+00
<ENDHMM>
~h "sil"
<BEGINHMM>
<NUMSTATES> 8
<STATE> 2
<MEAN> 1
 -2.896327e+00
<VARIANCE> 1
 3.036064e+00
<GCONST> 2.948439e+00
<STATE> 3
<MEAN> 1
 3.083556e+00
<VARIANCE> 1
 1.592525e+01
<GCONST> 4.605783e+00
<STATE> 4
<MEAN> 1
 1.069874e+01
<VARIANCE> 1
 4.611375e+00
<GCONST> 3.366403e+00
<STATE> 5
<MEAN> 1
 5.903038e+00
<VARIANCE> 1
 4.094133e+00
<GCONST> 3.247432e+00
<STATE> 6
<MEAN> 1
 2.107489e+00
<VARIANCE> 1
 7.811058e+00
<GCONST> 3.893417e+00
<STATE> 7
<MEAN> 1
 1.517306e-01
<VARIANCE> 1
 9.722247e-01
<GCONST> 1.809709e+00
<TRANSP> 8
 0.000000e+00 1.000000e+00 0.000000e+00 0.000000e+00 0.000000e+00 0.000000e+00 0.000000e+00 0.000000e+00
 0.000000e+00 9.689710e-01 3.102906e-02 0.000000e+00 0.000000e+00 0.000000e+00 0.000000e+00 0.000000e+00
 0.000000e+00 0.000000e+00 0.000000e+00 1.000000e+00 0.000000e+00 0.000000e+00 0.000000e+00 0.000000e+00
 0.000000e+00 0.000000e+00 0.000000e+00 9.778083e-01 2.219169e-02 0.000000e+00 0.000000e+00 0.000000e+00
 0.000000e+00 0.000000e+00 0.000000e+00 0.000000e+00 9.089518e-01 9.104819e-02 0.000000e+00 0.000000e+00
 0.000000e+00 0.000000e+00 0.000000e+00 0.000000e+00 0.000000e+00 2.917290e-03 9.970827e-01 0.000000e+00
 0.000000e+00 0.000000e+00 0.000000e+00 0.000000e+00 0.000000e+00 0.000000e+00 9.636506e-01 3.634929e-02
 0.000000e+00 0.000000e+00 0.000000e+00 0.000000e+00 0.000000e+00 0.000000e+00 0.000000e+00 0.000000e+00
<ENDHMM>
