~o
<STREAMINFO> 1 1
<VECSIZE> 1<NULLD><USER><DIAGC>
~h "a"
<BEGINHMM>
<NUMSTATES> 8
<STATE> 2
<MEAN> 1
 8.486045e+00
<VARIANCE> 1
 2.576294e+00
<GCONST> 2.784229e+00
<STATE> 3
<MEAN> 1
 1.444387e+01
<VARIANCE> 1
 3.601856e+00
<GCONST> 3.119326e+00
<STATE> 4
<MEAN> 1
 1.069849e+01
<VARIANCE> 1
 1.546110e+00
<GCONST> 2.273619e+00
<STATE> 5
<MEAN> 1
 8.227952e+00
<VARIANCE> 1
 1.081420e+00
<GCONST> 1.916152e+00
<STATE> 6
<MEAN> 1
 6.244137e+00
<VARIANCE> 1
 1.661486e+00
<GCONST> 2.345590e+00
<STATE> 7
<MEAN> 1
 2.160652e+00
<VARIANCE> 1
 4.261639e+00
<GCONST> 3.287531e+00
<TRANSP> 8
 0.000000e+00 1.000000e+00 0.000000e+00 0.000000e+00 0.000000e+00 0.000000e+00 0.000000e+00 0.000000e+00
 0.000000e+00 9.269695e-01 7.303047e-02 0.000000e+00 0.000000e+00 0.000000e+00 0.000000e+00 0.000000e+00
 0.000000e+00 0.000000e+00 9.720064e-01 2.799356e-02 0.000000e+00 0.000000e+00 0.000000e+00 0.000000e+00
 0.000000e+00 0.000000e+00 0.000000e+00 9.492621e-01 5.073782e-02 0.000000e+00 0.000000e+00 0.000000e+00
 0.000000e+00 0.000000e+00 0.000000e+00 0.000000e+00 0.000000e+00 1.000000e+00 0.000000e+00 0.000000e+00
 0.000000e+00 0.000000e+00 0.000000e+00 0.000000e+00 0.000000e+00 9.219456e-01 7.805442e-02 0.000000e+00
 0.000000e+00 0.000000e+00 0.000000e+00 0.000000e+00 0.000000e+00 0.000000e+00 8.807362e-01 1.192638e-01
 0.000000e+00 0.000000e+00 0.000000e+00 0.000000e+00 0.000000e+00 0.000000e+00 0.000000e+00 0.000000e+00
<ENDHMM>
~h "e"
<BEGINHMM>
<NUMSTATES> 8
<STATE> 2
<MEAN> 1
 7.436183e+00
<VARIANCE> 1
 2.759269e+01
<GCONST> 5.155428e+00
<STATE> 3
<MEAN> 1
 -4.593996e-01
<VARIANCE> 1
 6.150464e-01
<GCONST> 1.351820e+00
<STATE> 4
<MEAN> 1
 -2.462643e+00
<VARIANCE> 1
 1.395929e-01
<GCONST> -1.311479e-01
<STATE> 5
<MEAN> 1
 -2.945429e+00
<VARIANCE> 1
 2.557506e-01
<GCONST> 4.743245e-01
<STATE> 6
<MEAN> 1
 -6.320119e+00
<VARIANCE> 1
 1.914547e+00
<GCONST> 2.487358e+00
<STATE> 7
<MEAN> 1
 -3.984190e+00
<VARIANCE> 1
 1.012357e+00
<GCONST> 1.850158e+00
<TRANSP> 8
 0.000000e+00 1.000000e+00 0.000000e+00 0.000000e+00 0.000000e+00 0.000000e+00 0.000000e+00 0.000000e+00
 0.000000e+00 7.396084e-01 2.603916e-01 0.000000e+00 0.000000e+00 0.000000e+00 0.000000e+00 0.000000e+00
 0.000000e+00 0.000000e+00 9.566327e-01 4.336736e-02 0.000000e+00 0.000000e+00 0.000000e+00 0.000000e+00
 0.000000e+00 0.000000e+00 0.000000e+00 0.000000e+00 1.000000e+00 0.000000e+00 0.000000e+00 0.000000e+00
 0.000000e+00 0.000000e+00 0.000000e+00 0.000000e+00 0.000000e+00 1.000000e+00 0.000000e+00 0.000000e+00
 0.000000e+00 0.000000e+00 0.000000e+00 0.000000e+00 0.000000e+00 9.541533e-01 4.584671e-02 0.000000e+00
 0.000000e+00 0.000000e+00 0.000000e+00 0.000000e+00 0.000000e+00 0.000000e+00 9.486744e-01 5.132562e-02
 0.000000e+00 0.000000e+00 0.000000e+00 0.000000e+00 0.000000e+00 0.000000e+00 0.000000e+00 0.000000e+00
<ENDHMM>
~h "i"
<BEGINHMM>
<NUMSTATES> 8
<STATE> 2
<MEAN> 1
 -7.692915e+00
<VARIANCE> 1
 2.188930e+00
<GCONST> 2.621290e+00
<STATE> 3
<MEAN> 1
 -3.089305e+00
<VARIANCE> 1
 1.003992e+00
<GCONST> 1.841861e+00
<STATE> 4
<MEAN> 1
 1.942652e+00
<VARIANCE> 1
 4.369684e+00
<GCONST> 3.312568e+00
<STATE> 5
<MEAN> 1
 -2.899442e-01
<VARIANCE> 1
 3.472716e-01
<GCONST> 7.802289e-01
<STATE> 6
<MEAN> 1
 -4.180660e+00
<VARIANCE> 1
 5.868511e+00
<GCONST> 3.607478e+00
<STATE> 7
<MEAN> 1
 3.635069e+00
<VARIANCE> 1
 1.218742e+01
<GCONST> 4.338281e+00
<TRANSP> 8
 0.000000e+00 1.000000e+00 0.000000e+00 0.000000e+00 0.000000e+00 0.000000e+00 0.000000e+00 0.000000e+00
 0.000000e+00 9.698713e-01 3.012866e-02 0.000000e+00 0.000000e+00 0.000000e+00 0.000000e+00 0.000000e+00
 0.000000e+00 0.000000e+00 9.153351e-01 8.466493e-02 0.000000e+00 0.000000e+00 0.000000e+00 0.000000e+00
 0.000000e+00 0.000000e+00 0.000000e+00 8.721368e-01 1.278632e-01 0.000000e+00 0.000000e+00 0.000000e+00
 0.000000e+00 0.000000e+00 0.000000e+00 0.000000e+00 9.513698e-01 4.863025e-02 0.000000e+00 0.000000e+00
 0.000000e+00 0.000000e+00 0.000000e+00 0.000000e+00 0.000000e+00 8.843526e-01 1.156474e-01 0.000000e+00
 0.000000e+00 0.000000e+00 0.000000e+00 0.000000e+00 0.000000e+00 0.000000e+00 7.637624e-01 2.362376e-01
 0.000000e+00 0.000000e+00 0.000000e+00 0.000000e+00 0.000000e+00 0.000000e+00 0.000000e+00 0.000000e+00
<ENDHMM>
~h "m"
<BEGINHMM>
<NUMSTATES> 8
<STATE> 2
<MEAN> 1
 -1.098311e+00
<VARIANCE> 1
 1.349703e+00
<GCONST> 2.137762e+00
<STATE> 3
<MEAN> 1
 8.194344e-01
<VARIANCE> 1
 1.013183e+00
<GCONST> 1.850974e+00
<STATE> 4
<MEAN> 1
 2.137171e+00
<VARIANCE> 1
 1.617485e+00
<GCONST> 2.318749e+00
<STATE> 5
<MEAN> 1
 2.802056e+00
<VARIANCE> 1
 2.274187e+00
<GCONST> 2.659499e+00
<STATE> 6
<MEAN> 1
 9.598520e+00
<VARIANCE> 1
 1.446553e+01
<GCONST> 4.509645e+00
<STATE> 7
<MEAN> 1
 5.105704e+00
<VARIANCE> 1
 2.296596e+00
<GCONST> 2.669305e+00
<TRANSP> 8
 0.000000e+00 1.000000e+00 0.000000e+00 0.000000e+00 0.000000e+00 0.000000e+00 0.000000e+00 0.000000e+00
 0.000000e+00 7.861208e-01 2.138792e-01 0.000000e+00 0.000000e+00 0.000000e+00 0.000000e+00 0.000000e+00
 0.000000e+00 0.000000e+00 9.303517e-01 6.964829e-02 0.000000e+00 0.000000e+00 0.000000e+00 0.000000e+00
 0.000000e+00 0.000000e+00 0.000000e+00 0.000000e+00 1.000000e+00 0.000000e+00 0.000000e+00 0.000000e+00
 0.000000e+00 0.000000e+00 0.000000e+00 0.000000e+00 0.000000e+00 1.000000e+00 0.000000e+00 0.000000e+00
 0.000000e+00 0.000000e+00 0.000000e+00 0.000000e+00 0.000000e+00 8.673278e-01 1.326722e-01 0.000000e+00
 0.000000e+00 0.000000e+00 0.000000e+00 0.000000e+00 0.000000e+00 0.000000e+00 9.199970e-01 8.000304e-02
 0.000000e+00 0.000000e+00 0.000000e+00 0.000000e+00 0.000000e+00 0.000000e+00 0.000000e+00 0.000000e+00
<ENDHMM>
~h "sil"
<BEGINHMM>
<NUMSTATES> 8
<STATE> 2
<MEAN> 1
 6.810877e-01
<VARIANCE> 1
 7.836490e-01
<GCONST> 1.594083e+00
<STATE> 3
<MEAN> 1
 3.310814e+00
<VARIANCE> 1
 1.845281e+00
<GCONST> 2.450508e+00
<STATE> 4
<MEAN> 1
 5.873784e+00
<VARIANCE> 1
 2.439774e+00
<GCONST> 2.729783e+00
<STATE> 5
<MEAN> 1
 8.373399e+00
<VARIANCE> 1
 4.439451e+00
<GCONST> 3.328408e+00
<STATE> 6
<MEAN> 1
 5.793271e+00
<VARIANCE> 1
 2.340497e+01
<GCONST> 4.990826e+00
<STATE> 7
<MEAN> 1
 1.121017e+01
<VARIANCE> 1
 9.371479e+00
<GCONST> 4.075548e+00
<TRANSP> 8
 0.000000e+00 1.000000e+00 0.000000e+00 0.000000e+00 0.000000e+00 0.000000e+00 0.000000e+00 0.000000e+00
 0.000000e+00 9.467121e-01 5.328795e-02 0.000000e+00 0.000000e+00 0.000000e+00 0.000000e+00 0.000000e+00
 0.000000e+00 0.000000e+00 9.136394e-01 8.636056e-02 0.000000e+00 0.000000e+00 0.000000e+00 0.000000e+00
 0.000000e+00 0.000000e+00 0.000000e+00 9.037632e-01 9.623688e-02 0.000000e+00 0.000000e+00 0.000000e+00
 0.000000e+00 0.000000e+00 0.000000e+00 0.000000e+00 8.951890e-01 1.048110e-01 0.000000e+00 0.000000e+00
 0.000000e+00 0.000000e+00 0.000000e+00 0.000000e+00 0.000000e+00 0.000000e+00 1.000000e+00 0.000000e+00
 0.000000e+00 0.000000e+00 0.000000e+00 0.000000e+00 0.000000e+00 0.000000e+00 8.968719e-01 1.031282e-01
 0.000000e+00 0.000000e+00 0.000000e+00 0.000000e+00 0.000000e+00 0.000000e+00 0.000000e+00 0.000000e+00
<ENDHMM>
