~o
<STREAMINFO> 1 1
<VECSIZE> 1<NULLD><USER><DIAGC>
~h "a"
<BEGINHMM>
<NUMSTATES> 8
<STATE> 2
<MEAN> 1
 8.744422e+00
<VARIANCE> 1
 1.781177e+00
<GCONST> 2.415151e+00
<STATE> 3
<MEAN> 1
 1.443130e+01
<VARIANCE> 1
 3.621685e+00
<GCONST> 3.124816e+00
<STATE> 4
<MEAN> 1
 1.087715e+01
<VARIANCE> 1
 1.482213e+00
<GCONST> 2.231414e+00
<STATE> 5
<MEAN> 1
 8.349422e+00
<VARIANCE> 1
 1.117278e+00
<GCONST> 1.948772e+00
<STATE> 6
<MEAN> 1
 6.583523e+00
<VARIANCE> 1
 1.419189e+00
<GCONST> 2.187963e+00
<STATE> 7
<MEAN> 1
 3.109717e+00
<VARIANCE> 1
 1.219695e+00
<GCONST> 2.036478e+00
<TRANSP> 8
 0.000000e+00 1.000000e+00 0.000000e+00 0.000000e+00 0.000000e+00 0.000000e+00 0.000000e+00 0.000000e+00
 0.000000e+00 9.467632e-01 5.323680e-02 0.000000e+00 0.000000e+00 0.000000e+00 0.000000e+00 0.000000e+00
 0.000000e+00 0.000000e+00 9.718912e-01 2.810879e-02 0.000000e+00 0.000000e+00 0.000000e+00 0.000000e+00
 0.000000e+00 0.000000e+00 0.000000e+00 9.463111e-01 5.368892e-02 0.000000e+00 0.000000e+00 0.000000e+00
 0.000000e+00 0.000000e+00 0.000000e+00 0.000000e+00 0.000000e+00 1.000000e+00 0.000000e+00 0.000000e+00
 0.000000e+00 0.000000e+00 0.000000e+00 0.000000e+00 0.000000e+00 9.142565e-01 8.574349e-02 0.000000e+00
 0.000000e+00 0.000000e+00 0.000000e+00 0.000000e+00 0.000000e+00 0.000000e+00 8.764284e-01 1.235716e-01
 0.000000e+00 0.000000e+00 0.000000e+00 0.000000e+00 0.000000e+00 0.000000e+00 0.000000e+00 0.000000e+00
<ENDHMM>
~h "e"
<BEGINHMM>
<NUMSTATES> 8
<STATE> 2
<MEAN> 1
 4.902603e+00
<VARIANCE> 1
 3.579914e+01
<GCONST> 5.415801e+00
<STATE> 3
<MEAN> 1
 -2.958321e-01
<VARIANCE> 1
 4.072570e-01
<GCONST> 9.395661e-01
<STATE> 4
<MEAN> 1
 -1.902338e+00
<VARIANCE> 1
 6.297440e-02
<GCONST> -9.271500e-01
<STATE> 5
<MEAN> 1
 -2.365280e+00
<VARIANCE> 1
 1.267234e-01
<GCONST> -2.278717e-01
<STATE> 6
<MEAN> 1
 -5.988481e+00
<VARIANCE> 1
 2.577417e+00
<GCONST> 2.784665e+00
<STATE> 7
<MEAN> 1
 -3.885595e+00
<VARIANCE> 1
 1.102138e+00
<GCONST> 1.935129e+00
<TRANSP> 8
 0.000000e+00 1.000000e+00 0.000000e+00 0.000000e+00 0.000000e+00 0.000000e+00 0.000000e+00 0.000000e+00
 0.000000e+00 7.694921e-01 2.305078e-01 0.000000e+00 0.000000e+00 0.000000e+00 0.000000e+00 0.000000e+00
 0.000000e+00 0.000000e+00 9.530684e-01 4.693161e-02 0.000000e+00 0.000000e+00 0.000000e+00 0.000000e+00
 0.000000e+00 0.000000e+00 0.000000e+00 0.000000e+00 1.000000e+00 0.000000e+00 0.000000e+00 0.000000e+00
 0.000000e+00 0.000000e+00 0.000000e+00 0.000000e+00 0.000000e+00 1.000000e+00 0.000000e+00 0.000000e+00
 0.000000e+00 0.000000e+00 0.000000e+00 0.000000e+00 0.000000e+00 9.503498e-01 4.965021e-02 0.000000e+00
 0.000000e+00 0.000000e+00 0.000000e+00 0.000000e+00 0.000000e+00 0.000000e+00 9.532601e-01 4.673991e-02
 0.000000e+00 0.000000e+00 0.000000e+00 0.000000e+00 0.000000e+00 0.000000e+00 0.000000e+00 0.000000e+00
<ENDHMM>
~h "i"
<BEGINHMM>
<NUMSTATES> 8
<STATE> 2
<MEAN> 1
 -7.677577e+00
<VARIANCE> 1
 1.921647e+00
<GCONST> 2.491060e+00
<STATE> 3
<MEAN> 1
 -3.011068e+00
<VARIANCE> 1
 1.452711e+00
<GCONST> 2.211309e+00
<STATE> 4
<MEAN> 1
 1.319030e+00
<VARIANCE> 1
 3.724989e+00
<GCONST> 3.152941e+00
<STATE> 5
<MEAN> 1
 -3.759395e-02
<VARIANCE> 1
 3.936396e-02
<GCONST> -1.397028e+00
<STATE> 6
<MEAN> 1
 -3.617414e+00
<VARIANCE> 1
 6.818395e+00
<GCONST> 3.757501e+00
<STATE> 7
<MEAN> 1
 3.432474e+00
<VARIANCE> 1
 8.281871e+00
<GCONST> 3.951946e+00
<TRANSP> 8
 0.000000e+00 1.000000e+00 0.000000e+00 0.000000e+00 0.000000e+00 0.000000e+00 0.000000e+00 0.000000e+00
 0.000000e+00 9.721746e-01 2.782536e-02 0.000000e+00 0.000000e+00 0.000000e+00 0.000000e+00 0.000000e+00
 0.000000e+00 0.000000e+00 9.269989e-01 7.300112e-02 0.000000e+00 0.000000e+00 0.000000e+00 0.000000e+00
 0.000000e+00 0.000000e+00 0.000000e+00 8.901023e-01 1.098977e-01 0.000000e+00 0.000000e+00 0.000000e+00
 0.000000e+00 0.000000e+00 0.000000e+00 0.000000e+00 9.316899e-01 6.831004e-02 0.000000e+00 0.000000e+00
 0.000000e+00 0.000000e+00 0.000000e+00 0.000000e+00 0.000000e+00 8.761308e-01 1.238692e-01 0.000000e+00
 0.000000e+00 0.000000e+00 0.000000e+00 0.000000e+00 0.000000e+00 0.000000e+00 8.442709e-01 1.557291e-01
 0.000000e+00 0.000000e+00 0.000000e+00 0.000000e+00 0.000000e+00 0.000000e+00 0.000000e+00 0.000000e+00
<ENDHMM>
~h "m"
<BEGINHMM>
<NUMSTATES> 8
<STATE> 2
<MEAN> 1
 -8.724536e-01
<VARIANCE> 1
 8.225896e-01
<GCONST> 1.642579e+00
<STATE> 3
<MEAN> 1
 1.371949e+00
<VARIANCE> 1
 4.429632e-01
<GCONST> 1.023609e+00
<STATE> 4
<MEAN> 1
 2.290331e+00
<VARIANCE> 1
 1.147140e+00
<GCONST> 1.975149e+00
<STATE> 5
<MEAN> 1
 2.947038e+00
<VARIANCE> 1
 1.882429e+00
<GCONST> 2.470440e+00
<STATE> 6
<MEAN> 1
 9.548373e+00
<VARIANCE> 1
 1.316114e+01
<GCONST> 4.415146e+00
<STATE> 7
<MEAN> 1
 4.978054e+00
<VARIANCE> 1
 1.929008e+00
<GCONST> 2.494883e+00
<TRANSP> 8
 0.000000e+00 1.000000e+00 0.000000e+00 0.000000e+00 0.000000e+00 0.000000e+00 0.000000e+00 0.000000e+00
 0.000000e+00 9.113849e-01 8.861512e-02 0.000000e+00 0.000000e+00 0.000000e+00 0.000000e+00 0.000000e+00
 0.000000e+00 0.000000e+00 8.957562e-01 1.042437e-01 0.000000e+00 0.000000e+00 0.000000e+00 0.000000e+00
 0.000000e+00 0.000000e+00 0.000000e+00 0.000000e+00 1.000000e+00 0.000000e+00 0.000000e+00 0.000000e+00
 0.000000e+00 0.000000e+00 0.000000e+00 0.000000e+00 0.000000e+00 1.000000e+00 0.000000e+00 0.000000e+00
 0.000000e+00 0.000000e+00 0.000000e+00 0.000000e+00 0.000000e+00 8.905576e-01 1.094424e-01 0.000000e+00
 0.000000e+00 0.000000e+00 0.000000e+00 0.000000e+00 0.000000e+00 0.000000e+00 9.143196e-01 8.568040e-02
 0.000000e+00 0.000000e+00 0.000000e+00 0.000000e+00 0.000000e+00 0.000000e+00 0.000000e+00 0.000000e+00
<ENDHMM>
~h "sil"
<BEGINHMM>
<NUMSTATES> 8
<STATE> 2
<MEAN> 1
 4.397592e-01
<VARIANCE> 1
 5.982926e-01
<GCONST> 1.324202e+00
<STATE> 3
<MEAN> 1
 2.942766e+00
<VARIANCE> 1
 1.280078e+00
<GCONST> 2.084798e+00
<STATE> 4
<MEAN> 1
 5.731905e+00
<VARIANCE> 1
 2.352334e+00
<GCONST> 2.693285e+00
<STATE> 5
<MEAN> 1
 1.083837e+00
<VARIANCE> 1
 2.236432e+01
<GCONST> 4.945344e+00
<STATE> 6
<MEAN> 1
 4.562295e+00
<VARIANCE> 1
 1.511000e+01
<GCONST> 4.553234e+00
<STATE> 7
<MEAN> 1
 1.052544e+01
<VARIANCE> 1
 1.420204e+01
<GCONST> 4.491262e+00
<TRANSP> 8
 0.000000e+00 1.000000e+00 0.000000e+00 0.000000e+00 0.000000e+00 0.000000e+00 0.000000e+00 0.000000e+00
 0.000000e+00 9.299123e-01 7.008772e-02 0.000000e+00 0.000000e+00 0.000000e+00 0.000000e+00 0.000000e+00
 0.000000e+00 0.000000e+00 9.129433e-01 8.705670e-02 0.000000e+00 0.000000e+00 0.000000e+00 0.000000e+00
 0.000000e+00 0.000000e+00 0.000000e+00 9.133549e-01 8.664516e-02 0.000000e+00 0.000000e+00 0.000000e+00
 0.000000e+00 0.000000e+00 0.000000e+00 0.000000e+00 5.686498e-01 4.313502e-01 0.000000e+00 0.000000e+00
 0.000000e+00 0.000000e+00 0.000000e+00 0.000000e+00 0.000000e+00 0.000000e+00 1.000000e+00 0.000000e+00
 0.000000e+00 0.000000e+00 0.000000e+00 0.000000e+00 0.000000e+00 0.000000e+00 9.004643e-01 9.953573e-02
 0.000000e+00 0.000000e+00 0.000000e+00 0.000000e+00 0.000000e+00 0.000000e+00 0.000000e+00 0.000000e+00
<ENDHMM>
