~o
<STREAMINFO> 1 1
<VECSIZE> 1<NULLD><USER><DIAGC>
~h "a"
<BEGINHMM>
<NUMSTATES> 8
<STATE> 2
<MEAN> 1
 8.598093e+00
<VARIANCE> 1
 2.057066e+00
<GCONST> 2.559158e+00
<STATE> 3
<MEAN> 1
 1.442929e+01
<VARIANCE> 1
 3.586099e+00
<GCONST> 3.114942e+00
<STATE> 4
<MEAN> 1
 1.075916e+01
<VARIANCE> 1
 1.543232e+00
<GCONST> 2.271756e+00
<STATE> 5
<MEAN> 1
 8.221481e+00
<VARIANCE> 1
 1.063489e+00
<GCONST> 1.899432e+00
<STATE> 6
<MEAN> 1
 6.276012e+00
<VARIANCE> 1
 1.455821e+00
<GCONST> 2.213447e+00
<STATE> 7
<MEAN> 1
 2.712812e+00
<VARIANCE> 1
 1.660751e+00
<GCONST> 2.345147e+00
<TRANSP> 8
 0.000000e+00 1.000000e+00 0.000000e+00 0.000000e+00 0.000000e+00 0.000000e+00 0.000000e+00 0.000000e+00
 0.000000e+00 9.428661e-01 5.713384e-02 0.000000e+00 0.000000e+00 0.000000e+00 0.000000e+00 0.000000e+00
 0.000000e+00 0.000000e+00 9.720312e-01 2.796884e-02 0.000000e+00 0.000000e+00 0.000000e+00 0.000000e+00
 0.000000e+00 0.000000e+00 0.000000e+00 9.475844e-01 5.241557e-02 0.000000e+00 0.000000e+00 0.000000e+00
 0.000000e+00 0.000000e+00 0.000000e+00 0.000000e+00 0.000000e+00 1.000000e+00 0.000000e+00 0.000000e+00
 0.000000e+00 0.000000e+00 0.000000e+00 0.000000e+00 0.000000e+00 9.171298e-01 8.287027e-02 0.000000e+00
 0.000000e+00 0.000000e+00 0.000000e+00 0.000000e+00 0.000000e+00 0.000000e+00 8.799173e-01 1.200827e-01
 0.000000e+00 0.000000e+00 0.000000e+00 0.000000e+00 0.000000e+00 0.000000e+00 0.000000e+00 0.000000e+00
<ENDHMM>
~h "e"
<BEGINHMM>
<NUMSTATES> 8
<STATE> 2
<MEAN> 1
 6.311431e+00
<VARIANCE> 1
 3.909896e+01
<GCONST> 5.503973e+00
<STATE> 3
<MEAN> 1
 -4.468758e-01
<VARIANCE> 1
 5.527124e-01
<GCONST> 1.244960e+00
<STATE> 4
<MEAN> 1
 -2.323611e+00
<VARIANCE> 1
 9.802747e-02
<GCONST> -4.846306e-01
<STATE> 5
<MEAN> 1
 -2.803376e+00
<VARIANCE> 1
 1.805439e-01
<GCONST> 1.260957e-01
<STATE> 6
<MEAN> 1
 -6.149618e+00
<VARIANCE> 1
 1.966008e+00
<GCONST> 2.513882e+00
<STATE> 7
<MEAN> 1
 -4.047591e+00
<VARIANCE> 1
 9.644093e-01
<GCONST> 1.801638e+00
<TRANSP> 8
 0.000000e+00 1.000000e+00 0.000000e+00 0.000000e+00 0.000000e+00 0.000000e+00 0.000000e+00 0.000000e+00
 0.000000e+00 7.968501e-01 2.031499e-01 0.000000e+00 0.000000e+00 0.000000e+00 0.000000e+00 0.000000e+00
 0.000000e+00 0.000000e+00 9.555237e-01 4.447634e-02 0.000000e+00 0.000000e+00 0.000000e+00 0.000000e+00
 0.000000e+00 0.000000e+00 0.000000e+00 0.000000e+00 1.000000e+00 0.000000e+00 0.000000e+00 0.000000e+00
 0.000000e+00 0.000000e+00 0.000000e+00 0.000000e+00 0.000000e+00 1.000000e+00 0.000000e+00 0.000000e+00
 0.000000e+00 0.000000e+00 0.000000e+00 0.000000e+00 0.000000e+00 9.481287e-01 5.187130e-02 0.000000e+00
 0.000000e+00 0.000000e+00 0.000000e+00 0.000000e+00 0.000000e+00 0.000000e+00 9.500206e-01 4.997935e-02
 0.000000e+00 0.000000e+00 0.000000e+00 0.000000e+00 0.000000e+00 0.000000e+00 0.000000e+00 0.000000e+00
<ENDHMM>
~h "i"
<BEGINHMM>
<NUMSTATES> 8
<STATE> 2
<MEAN> 1
 -7.700984e+00
<VARIANCE> 1
 2.060347e+00
<GCONST> 2.560751e+00
<STATE> 3
<MEAN> 1
 -3.061429e+00
<VARIANCE> 1
 1.008943e+00
<GCONST> 1.846781e+00
<STATE> 4
<MEAN> 1
 1.851131e+00
<VARIANCE> 1
 3.825438e+00
<GCONST> 3.179550e+00
<STATE> 5
<MEAN> 1
 -2.613257e-01
<VARIANCE> 1
 2.698921e-01
<GCONST> 5.281440e-01
<STATE> 6
<MEAN> 1
 -4.222547e+00
<VARIANCE> 1
 5.903286e+00
<GCONST> 3.613386e+00
<STATE> 7
<MEAN> 1
 3.577030e+00
<VARIANCE> 1
 1.124733e+01
<GCONST> 4.258008e+00
<TRANSP> 8
 0.000000e+00 1.000000e+00 0.000000e+00 0.000000e+00 0.000000e+00 0.000000e+00 0.000000e+00 0.000000e+00
 0.000000e+00 9.714706e-01 2.852935e-02 0.000000e+00 0.000000e+00 0.000000e+00 0.000000e+00 0.000000e+00
 0.000000e+00 0.000000e+00 9.126148e-01 8.738524e-02 0.000000e+00 0.000000e+00 0.000000e+00 0.000000e+00
 0.000000e+00 0.000000e+00 0.000000e+00 8.749420e-01 1.250580e-01 0.000000e+00 0.000000e+00 0.000000e+00
 0.000000e+00 0.000000e+00 0.000000e+00 0.000000e+00 9.466279e-01 5.337209e-02 0.000000e+00 0.000000e+00
 0.000000e+00 0.000000e+00 0.000000e+00 0.000000e+00 0.000000e+00 8.906773e-01 1.093227e-01 0.000000e+00
 0.000000e+00 0.000000e+00 0.000000e+00 0.000000e+00 0.000000e+00 0.000000e+00 7.889655e-01 2.110345e-01
 0.000000e+00 0.000000e+00 0.000000e+00 0.000000e+00 0.000000e+00 0.000000e+00 0.000000e+00 0.000000e+00
<ENDHMM>
~h "m"
<BEGINHMM>
<NUMSTATES> 8
<STATE> 2
<MEAN> 1
 -1.093900e+00
<VARIANCE> 1
 1.014275e+00
<GCONST> 1.852051e+00
<STATE> 3
<MEAN> 1
 1.040727e+00
<VARIANCE> 1
 7.924054e-01
<GCONST> 1.605195e+00
<STATE> 4
<MEAN> 1
 2.134202e+00
<VARIANCE> 1
 1.274790e+00
<GCONST> 2.080658e+00
<STATE> 5
<MEAN> 1
 2.785344e+00
<VARIANCE> 1
 1.946278e+00
<GCONST> 2.503796e+00
<STATE> 6
<MEAN> 1
 9.480667e+00
<VARIANCE> 1
 1.560850e+01
<GCONST> 4.585692e+00
<STATE> 7
<MEAN> 1
 4.933403e+00
<VARIANCE> 1
 2.033277e+00
<GCONST> 2.547526e+00
<TRANSP> 8
 0.000000e+00 1.000000e+00 0.000000e+00 0.000000e+00 0.000000e+00 0.000000e+00 0.000000e+00 0.000000e+00
 0.000000e+00 8.803622e-01 1.196379e-01 0.000000e+00 0.000000e+00 0.000000e+00 0.000000e+00 0.000000e+00
 0.000000e+00 0.000000e+00 9.181687e-01 8.183131e-02 0.000000e+00 0.000000e+00 0.000000e+00 0.000000e+00
 0.000000e+00 0.000000e+00 0.000000e+00 0.000000e+00 1.000000e+00 0.000000e+00 0.000000e+00 0.000000e+00
 0.000000e+00 0.000000e+00 0.000000e+00 0.000000e+00 0.000000e+00 1.000000e+00 0.000000e+00 0.000000e+00
 0.000000e+00 0.000000e+00 0.000000e+00 0.000000e+00 0.000000e+00 8.723574e-01 1.276425e-01 0.000000e+00
 0.000000e+00 0.000000e+00 0.000000e+00 0.000000e+00 0.000000e+00 0.000000e+00 9.154568e-01 8.454315e-02
 0.000000e+00 0.000000e+00 0.000000e+00 0.000000e+00 0.000000e+00 0.000000e+00 0.000000e+00 0.000000e+00
<ENDHMM>
~h "sil"
<BEGINHMM>
<NUMSTATES> 8
<STATE> 2
<MEAN> 1
 5.592638e-01
<VARIANCE> 1
 6.991575e-01
<GCONST> 1.479998e+00
<STATE> 3
<MEAN> 1
 3.165585e+00
<VARIANCE> 1
 1.831896e+00
<GCONST> 2.443228e+00
<STATE> 4
<MEAN> 1
 5.769021e+00
<VARIANCE> 1
 2.427501e+00
<GCONST> 2.724740e+00
<STATE> 5
<MEAN> 1
 7.733143e+00
<VARIANCE> 1
 6.623960e+00
<GCONST> 3.728570e+00
<STATE> 6
<MEAN> 1
 5.446270e+00
<VARIANCE> 1
 2.113043e+01
<GCONST> 4.888591e+00
<STATE> 7
<MEAN> 1
 1.107690e+01
<VARIANCE> 1
 1.044580e+01
<GCONST> 4.184077e+00
<TRANSP> 8
 0.000000e+00 1.000000e+00 0.000000e+00 0.000000e+00 0.000000e+00 0.000000e+00 0.000000e+00 0.000000e+00
 0.000000e+00 9.433854e-01 5.661465e-02 0.000000e+00 0.000000e+00 0.000000e+00 0.000000e+00 0.000000e+00
 0.000000e+00 0.000000e+00 9.192328e-01 8.076718e-02 0.000000e+00 0.000000e+00 0.000000e+00 0.000000e+00
 0.000000e+00 0.000000e+00 0.000000e+00 9.000429e-01 9.995711e-02 0.000000e+00 0.000000e+00 0.000000e+00
 0.000000e+00 0.000000e+00 0.000000e+00 0.000000e+00 8.199186e-01 1.800815e-01 0.000000e+00 0.000000e+00
 0.000000e+00 0.000000e+00 0.000000e+00 0.000000e+00 0.000000e+00 0.000000e+00 1.000000e+00 0.000000e+00
 0.000000e+00 0.000000e+00 0.000000e+00 0.000000e+00 0.000000e+00 0.000000e+00 8.889831e-01 1.110169e-01
 0.000000e+00 0.000000e+00 0.000000e+00 0.000000e+00 0.000000e+00 0.000000e+00 0.000000e+00 0.000000e+00
<ENDHMM>
