~o
<STREAMINFO> 1 1
<VECSIZE> 1<NULLD><USER><DIAGC>
~h "a"
<BEGINHMM>
<NUMSTATES> 8
<STATE> 2
<MEAN> 1
 8.935939e+00
<VARIANCE> 1
 1.663545e+00
<GCONST> 2.346828e+00
<STATE> 3
<MEAN> 1
 1.444622e+01
<VARIANCE> 1
 3.605731e+00
<GCONST> 3.120402e+00
<STATE> 4
<MEAN> 1
 1.096017e+01
<VARIANCE> 1
 1.418704e+00
<GCONST> 2.187621e+00
<STATE> 5
<MEAN> 1
 8.519715e+00
<VARIANCE> 1
 1.199486e+00
<GCONST> 2.019770e+00
<STATE> 6
<MEAN> 1
 6.745008e+00
<VARIANCE> 1
 1.591853e+00
<GCONST> 2.302776e+00
<STATE> 7
<MEAN> 1
 3.075403e+00
<VARIANCE> 1
 1.425617e+00
<GCONST> 2.192482e+00
<TRANSP> 8
 0.000000e+00 1.000000e+00 0.000000e+00 0.000000e+00 0.000000e+00 0.000000e+00 0.000000e+00 0.000000e+00
 0.000000e+00 9.442394e-01 5.576060e-02 0.000000e+00 0.000000e+00 0.000000e+00 0.000000e+00 0.000000e+00
 0.000000e+00 0.000000e+00 9.718845e-01 2.811551e-02 0.000000e+00 0.000000e+00 0.000000e+00 0.000000e+00
 0.000000e+00 0.000000e+00 0.000000e+00 9.438187e-01 5.618132e-02 0.000000e+00 0.000000e+00 0.000000e+00
 0.000000e+00 0.000000e+00 0.000000e+00 0.000000e+00 0.000000e+00 1.000000e+00 0.000000e+00 0.000000e+00
 0.000000e+00 0.000000e+00 0.000000e+00 0.000000e+00 0.000000e+00 9.192762e-01 8.072376e-02 0.000000e+00
 0.000000e+00 0.000000e+00 0.000000e+00 0.000000e+00 0.000000e+00 0.000000e+00 8.861986e-01 1.138014e-01
 0.000000e+00 0.000000e+00 0.000000e+00 0.000000e+00 0.000000e+00 0.000000e+00 0.000000e+00 0.000000e+00
<ENDHMM>
~h "e"
<BEGINHMM>
<NUMSTATES> 8
<STATE> 2
<MEAN> 1
 5.395884e+00
<VARIANCE> 1
 2.549788e+01
<GCONST> 5.076472e+00
<STATE> 3
<MEAN> 1
 -1.745646e-01
<VARIANCE> 1
 1.989471e-01
<GCONST> 2.231606e-01
<STATE> 4
<MEAN> 1
 -1.473373e+00
<VARIANCE> 1
 6.106046e-02
<GCONST> -9.580138e-01
<STATE> 5
<MEAN> 1
 -1.929502e+00
<VARIANCE> 1
 1.242469e-01
<GCONST> -2.476077e-01
<STATE> 6
<MEAN> 1
 -5.838817e+00
<VARIANCE> 1
 3.039176e+00
<GCONST> 2.949463e+00
<STATE> 7
<MEAN> 1
 -3.646610e+00
<VARIANCE> 1
 1.245811e+00
<GCONST> 2.057664e+00
<TRANSP> 8
 0.000000e+00 1.000000e+00 0.000000e+00 0.000000e+00 0.000000e+00 0.000000e+00 0.000000e+00 0.000000e+00
 0.000000e+00 6.276218e-01 3.723782e-01 0.000000e+00 0.000000e+00 0.000000e+00 0.000000e+00 0.000000e+00
 0.000000e+00 0.000000e+00 9.459274e-01 5.407263e-02 0.000000e+00 0.000000e+00 0.000000e+00 0.000000e+00
 0.000000e+00 0.000000e+00 0.000000e+00 0.000000e+00 1.000000e+00 0.000000e+00 0.000000e+00 0.000000e+00
 0.000000e+00 0.000000e+00 0.000000e+00 0.000000e+00 0.000000e+00 1.000000e+00 0.000000e+00 0.000000e+00
 0.000000e+00 0.000000e+00 0.000000e+00 0.000000e+00 0.000000e+00 9.507678e-01 4.923212e-02 0.000000e+00
 0.000000e+00 0.000000e+00 0.000000e+00 0.000000e+00 0.000000e+00 0.000000e+00 9.570258e-01 4.297429e-02
 0.000000e+00 0.000000e+00 0.000000e+00 0.000000e+00 0.000000e+00 0.000000e+00 0.000000e+00 0.000000e+00
<ENDHMM>
~h "i"
<BEGINHMM>
<NUMSTATES> 8
<STATE> 2
<MEAN> 1
 -7.607294e+00
<VARIANCE> 1
 1.987837e+00
<GCONST> 2.524924e+00
<STATE> 3
<MEAN> 1
 -2.689523e+00
<VARIANCE> 1
 2.257795e+00
<GCONST> 2.652266e+00
<STATE> 4
<MEAN> 1
 1.615283e+00
<VARIANCE> 1
 3.717740e+00
<GCONST> 3.150993e+00
<STATE> 5
<MEAN> 1
 -6.700287e-03
<VARIANCE> 1
 1.000000e-02
<GCONST> -2.767293e+00
<STATE> 6
<MEAN> 1
 -3.259132e+00
<VARIANCE> 1
 7.534197e+00
<GCONST> 3.857329e+00
<STATE> 7
<MEAN> 1
 3.593886e+00
<VARIANCE> 1
 7.861734e+00
<GCONST> 3.899884e+00
<TRANSP> 8
 0.000000e+00 1.000000e+00 0.000000e+00 0.000000e+00 0.000000e+00 0.000000e+00 0.000000e+00 0.000000e+00
 0.000000e+00 9.732788e-01 2.672115e-02 0.000000e+00 0.000000e+00 0.000000e+00 0.000000e+00 0.000000e+00
 0.000000e+00 0.000000e+00 9.426479e-01 5.735211e-02 0.000000e+00 0.000000e+00 0.000000e+00 0.000000e+00
 0.000000e+00 0.000000e+00 0.000000e+00 8.971094e-01 1.028906e-01 0.000000e+00 0.000000e+00 0.000000e+00
 0.000000e+00 0.000000e+00 0.000000e+00 0.000000e+00 9.338012e-01 6.619882e-02 0.000000e+00 0.000000e+00
 0.000000e+00 0.000000e+00 0.000000e+00 0.000000e+00 0.000000e+00 8.565862e-01 1.434138e-01 0.000000e+00
 0.000000e+00 0.000000e+00 0.000000e+00 0.000000e+00 0.000000e+00 0.000000e+00 8.324498e-01 1.675502e-01
 0.000000e+00 0.000000e+00 0.000000e+00 0.000000e+00 0.000000e+00 0.000000e+00 0.000000e+00 0.000000e+00
<ENDHMM>
~h "m"
<BEGINHMM>
<NUMSTATES> 8
<STATE> 2
<MEAN> 1
 -8.086196e-01
<VARIANCE> 1
 8.999772e-01
<GCONST> 1.732491e+00
<STATE> 3
<MEAN> 1
 1.428107e+00
<VARIANCE> 1
 4.711142e-01
<GCONST> 1.085222e+00
<STATE> 4
<MEAN> 1
 2.400429e+00
<VARIANCE> 1
 1.330860e+00
<GCONST> 2.123703e+00
<STATE> 5
<MEAN> 1
 3.056188e+00
<VARIANCE> 1
 2.176951e+00
<GCONST> 2.615803e+00
<STATE> 6
<MEAN> 1
 9.630964e+00
<VARIANCE> 1
 1.271462e+01
<GCONST> 4.380630e+00
<STATE> 7
<MEAN> 1
 5.177663e+00
<VARIANCE> 1
 1.984198e+00
<GCONST> 2.523092e+00
<TRANSP> 8
 0.000000e+00 1.000000e+00 0.000000e+00 0.000000e+00 0.000000e+00 0.000000e+00 0.000000e+00 0.000000e+00
 0.000000e+00 8.882242e-01 1.117758e-01 0.000000e+00 0.000000e+00 0.000000e+00 0.000000e+00 0.000000e+00
 0.000000e+00 0.000000e+00 8.928120e-01 1.071880e-01 0.000000e+00 0.000000e+00 0.000000e+00 0.000000e+00
 0.000000e+00 0.000000e+00 0.000000e+00 0.000000e+00 1.000000e+00 0.000000e+00 0.000000e+00 0.000000e+00
 0.000000e+00 0.000000e+00 0.000000e+00 0.000000e+00 0.000000e+00 1.000000e+00 0.000000e+00 0.000000e+00
 0.000000e+00 0.000000e+00 0.000000e+00 0.000000e+00 0.000000e+00 8.964244e-01 1.035757e-01 0.000000e+00
 0.000000e+00 0.000000e+00 0.000000e+00 0.000000e+00 0.000000e+00 0.000000e+00 9.153783e-01 8.462176e-02
 0.000000e+00 0.000000e+00 0.000000e+00 0.000000e+00 0.000000e+00 0.000000e+00 0.000000e+00 0.000000e+00
<ENDHMM>
~h "sil"
<BEGINHMM>
<NUMSTATES> 8
<STATE> 2
<MEAN> 1
 6.297338e-01
<VARIANCE> 1
 7.309077e-01
<GCONST> 1.524409e+00
<STATE> 3
<MEAN> 1
 3.084028e+00
<VARIANCE> 1
 1.209781e+00
<GCONST> 2.028316e+00
<STATE> 4
<MEAN> 1
 5.837582e+00
<VARIANCE> 1
 2.435356e+00
<GCONST> 2.727970e+00
<STATE> 5
<MEAN> 1
 1.091131e-01
<VARIANCE> 1
 2.210616e+01
<GCONST> 4.933733e+00
<STATE> 6
<MEAN> 1
 4.559896e+00
<VARIANCE> 1
 1.509321e+01
<GCONST> 4.552122e+00
<STATE> 7
<MEAN> 1
 1.054172e+01
<VARIANCE> 1
 1.519435e+01
<GCONST> 4.558801e+00
<TRANSP> 8
 0.000000e+00 1.000000e+00 0.000000e+00 0.000000e+00 0.000000e+00 0.000000e+00 0.000000e+00 0.000000e+00
 0.000000e+00 9.214774e-01 7.852262e-02 0.000000e+00 0.000000e+00 0.000000e+00 0.000000e+00 0.000000e+00
 0.000000e+00 0.000000e+00 9.064724e-01 9.352757e-02 0.000000e+00 0.000000e+00 0.000000e+00 0.000000e+00
 0.000000e+00 0.000000e+00 0.000000e+00 9.165719e-01 8.342809e-02 0.000000e+00 0.000000e+00 0.000000e+00
 0.000000e+00 0.000000e+00 0.000000e+00 0.000000e+00 7.865602e-01 2.134398e-01 0.000000e+00 0.000000e+00
 0.000000e+00 0.000000e+00 0.000000e+00 0.000000e+00 0.000000e+00 0.000000e+00 1.000000e+00 0.000000e+00
 0.000000e+00 0.000000e+00 0.000000e+00 0.000000e+00 0.000000e+00 0.000000e+00 8.927138e-01 1.072862e-01
 0.000000e+00 0.000000e+00 0.000000e+00 0.000000e+00 0.000000e+00 0.000000e+00 0.000000e+00 0.000000e+00
<ENDHMM>
