~o
<STREAMINFO> 1 1
<VECSIZE> 1<NULLD><USER><DIAGC>
~h "a"
<BEGINHMM>
<NUMSTATES> 8
<STATE> 2
<MEAN> 1
 -9.472452e-01
<VARIANCE> 1
 3.219756e-01
<GCONST> 7.045974e-01
<STATE> 3
<MEAN> 1
 -1.161153e-01
<VARIANCE> 1
 2.403439e-01
<GCONST> 4.121923e-01
<STATE> 4
<MEAN> 1
 8.489049e-02
<VARIANCE> 1
 4.229603e-02
<GCONST> -1.325185e+00
<STATE> 5
<MEAN> 1
 1.563738e+00
<VARIANCE> 1
 2.978516e-01
<GCONST> 6.267171e-01
<STATE> 6
<MEAN> 1
 3.365129e+00
<VARIANCE> 1
 4.115839e-01
<GCONST> 9.501346e-01
<STATE> 7
<MEAN> 1
 7.380200e+00
<VARIANCE> 1
 2.779578e+00
<GCONST> 2.860176e+00
<TRANSP> 8
 0.000000e+00 1.000000e+00 0.000000e+00 0.000000e+00 0.000000e+00 0.000000e+00 0.000000e+00 0.000000e+00
 0.000000e+00 9.240315e-01 7.596847e-02 0.000000e+00 0.000000e+00 0.000000e+00 0.000000e+00 0.000000e+00
 0.000000e+00 0.000000e+00 1.855711e-01 8.144289e-01 0.000000e+00 0.000000e+00 0.000000e+00 0.000000e+00
 0.000000e+00 0.000000e+00 0.000000e+00 9.805695e-01 1.943048e-02 0.000000e+00 0.000000e+00 0.000000e+00
 0.000000e+00 0.000000e+00 0.000000e+00 0.000000e+00 9.803037e-01 1.969627e-02 0.000000e+00 0.000000e+00
 0.000000e+00 0.000000e+00 0.000000e+00 0.000000e+00 0.000000e+00 9.780979e-01 2.190218e-02 0.000000e+00
 0.000000e+00 0.000000e+00 0.000000e+00 0.000000e+00 0.000000e+00 0.000000e+00 9.876710e-01 1.232899e-02
 0.000000e+00 0.000000e+00 0.000000e+00 0.000000e+00 0.000000e+00 0.000000e+00 0.000000e+00 0.000000e+00
<ENDHMM>
~h "e"
<BEGINHMM>
<NUMSTATES> 8
<STATE> 2
<MEAN> 1
 3.147573e+00
<VARIANCE> 1
 1.949513e+00
<GCONST> 2.505456e+00
<STATE> 3
<MEAN> 1
 8.491293e+00
<VARIANCE> 1
 7.483068e+00
<GCONST> 3.850520e+00
<STATE> 4
<MEAN> 1
 -4.134607e-02
<VARIANCE> 1
 1.602927e-01
<GCONST> 7.123113e-03
<STATE> 5
<MEAN> 1
 4.135245e-01
<VARIANCE> 1
 1.618309e+00
<GCONST> 2.319259e+00
<STATE> 6
<MEAN> 1
 -1.936139e+00
<VARIANCE> 1
 3.543105e-01
<GCONST> 8.002954e-01
<STATE> 7
<MEAN> 1
 -4.224039e+00
<VARIANCE> 1
 4.648776e-01
<GCONST> 1.071896e+00
<TRANSP> 8
 0.000000e+00 1.000000e+00 0.000000e+00 0.000000e+00 0.000000e+00 0.000000e+00 0.000000e+00 0.000000e+00
 0.000000e+00 9.779658e-01 2.203426e-02 0.000000e+00 0.000000e+00 0.000000e+00 0.000000e+00 0.000000e+00
 0.000000e+00 0.000000e+00 9.733518e-01 2.664817e-02 0.000000e+00 0.000000e+00 0.000000e+00 0.000000e+00
 0.000000e+00 0.000000e+00 0.000000e+00 9.854137e-01 1.458627e-02 0.000000e+00 0.000000e+00 0.000000e+00
 0.000000e+00 0.000000e+00 0.000000e+00 0.000000e+00 8.177117e-01 1.822883e-01 0.000000e+00 0.000000e+00
 0.000000e+00 0.000000e+00 0.000000e+00 0.000000e+00 0.000000e+00 9.798971e-01 2.010292e-02 0.000000e+00
 0.000000e+00 0.000000e+00 0.000000e+00 0.000000e+00 0.000000e+00 0.000000e+00 9.746546e-01 2.534544e-02
 0.000000e+00 0.000000e+00 0.000000e+00 0.000000e+00 0.000000e+00 0.000000e+00 0.000000e+00 0.000000e+00
<ENDHMM>
~h "i"
<BEGINHMM>
<NUMSTATES> 8
<STATE> 2
<MEAN> 1
 -4.778472e+00
<VARIANCE> 1
 1.367499e+00
<GCONST> 2.150861e+00
<STATE> 3
<MEAN> 1
 -4.727250e+00
<VARIANCE> 1
 1.540766e+00
<GCONST> 2.270157e+00
<STATE> 4
<MEAN> 1
 -7.987231e+00
<VARIANCE> 1
 1.396382e+00
<GCONST> 2.171762e+00
<STATE> 5
<MEAN> 1
 -4.948700e+00
<VARIANCE> 1
 2.373517e+00
<GCONST> 2.702250e+00
<STATE> 6
<MEAN> 1
 -6.257693e+00
<VARIANCE> 1
 7.486210e-01
<GCONST> 1.548355e+00
<STATE> 7
<MEAN> 1
 -3.430554e+00
<VARIANCE> 1
 5.060902e-01
<GCONST> 1.156837e+00
<TRANSP> 8
 0.000000e+00 1.000000e+00 0.000000e+00 0.000000e+00 0.000000e+00 0.000000e+00 0.000000e+00 0.000000e+00
 0.000000e+00 1.311468e-01 8.688532e-01 0.000000e+00 0.000000e+00 0.000000e+00 0.000000e+00 0.000000e+00
 0.000000e+00 0.000000e+00 0.000000e+00 1.000000e+00 0.000000e+00 0.000000e+00 0.000000e+00 0.000000e+00
 0.000000e+00 0.000000e+00 0.000000e+00 9.813789e-01 1.862117e-02 0.000000e+00 0.000000e+00 0.000000e+00
 0.000000e+00 0.000000e+00 0.000000e+00 0.000000e+00 4.330099e-01 5.669901e-01 0.000000e+00 0.000000e+00
 0.000000e+00 0.000000e+00 0.000000e+00 0.000000e+00 0.000000e+00 9.834880e-01 1.651193e-02 0.000000e+00
 0.000000e+00 0.000000e+00 0.000000e+00 0.000000e+00 0.000000e+00 0.000000e+00 9.665537e-01 3.344621e-02
 0.000000e+00 0.000000e+00 0.000000e+00 0.000000e+00 0.000000e+00 0.000000e+00 0.000000e+00 0.000000e+00
<ENDHMM>
~h "m"
<BEGINHMM>
<NUMSTATES> 8
<STATE> 2
<MEAN> 1
 -1.577170e+00
<VARIANCE> 1
 1.864873e-01
<GCONST> 1.584849e-01
<STATE> 3
<MEAN> 1
 -2.010422e-02
<VARIANCE> 1
 3.468885e-02
<GCONST> -1.523460e+00
<STATE> 4
<MEAN> 1
 -5.545757e-01
<VARIANCE> 1
 1.922828e-01
<GCONST> 1.890888e-01
<STATE> 5
<MEAN> 1
 -4.904197e-01
<VARIANCE> 1
 1.692543e-01
<GCONST> 6.152439e-02
<STATE> 6
<MEAN> 1
 -4.258203e-01
<VARIANCE> 1
 1.494766e-01
<GCONST> -6.273806e-02
<STATE> 7
<MEAN> 1
 -4.313092e-01
<VARIANCE> 1
 1.089054e-01
<GCONST> -3.793986e-01
<TRANSP> 8
 0.000000e+00 1.000000e+00 0.000000e+00 0.000000e+00 0.000000e+00 0.000000e+00 0.000000e+00 0.000000e+00
 0.000000e+00 9.481117e-01 5.188832e-02 0.000000e+00 0.000000e+00 0.000000e+00 0.000000e+00 0.000000e+00
 0.000000e+00 0.000000e+00 9.737750e-01 2.622498e-02 0.000000e+00 0.000000e+00 0.000000e+00 0.000000e+00
 0.000000e+00 0.000000e+00 0.000000e+00 0.000000e+00 1.000000e+00 0.000000e+00 0.000000e+00 0.000000e+00
 0.000000e+00 0.000000e+00 0.000000e+00 0.000000e+00 0.000000e+00 1.000000e+00 0.000000e+00 0.000000e+00
 0.000000e+00 0.000000e+00 0.000000e+00 0.000000e+00 0.000000e+00 0.000000e+00 1.000000e+00 0.000000e+00
 0.000000e+00 0.000000e+00 0.000000e+00 0.000000e+00 0.000000e+00 0.000000e+00 3.421781e-01 6.578219e-01
 0.000000e+00 0.000000e+00 0.000000e+00 0.000000e+00 0.000000e+00 0.000000e+00 0.000000e+00 0.000000e+00
<ENDHMM>
~h "sil"
<BEGINHMM>
<NUMSTATES> 8
<STATE> 2
<MEAN> 1
 3.218984e-01
<VARIANCE> 1
 2.157169e+00
<GCONST> 2.606674e+00
<STATE> 3
<MEAN> 1
 -3.299574e+00
<VARIANCE> 1
 1.077799e+00
<GCONST> 1.912798e+00
<STATE> 4
<MEAN> 1
 3.656761e-01
<VARIANCE> 1
 4.228313e+00
<GCONST> 3.279680e+00
<STATE> 5
<MEAN> 1
 9.286448e+00
<VARIANCE> 1
 9.970993e+00
<GCONST> 4.137557e+00
<STATE> 6
<MEAN> 1
 1.759963e+00
<VARIANCE> 1
 1.144377e+00
<GCONST> 1.972737e+00
<STATE> 7
<MEAN> 1
 1.843842e-01
<VARIANCE> 1
 1.403884e+00
<GCONST> 2.177120e+00
<TRANSP> 8
 0.000000e+00 1.000000e+00 0.000000e+00 0.000000e+00 0.000000e+00 0.000000e+00 0.000000e+00 0.000000e+00
 0.000000e+00 9.624206e-01 3.757945e-02 0.000000e+00 0.000000e+00 0.000000e+00 0.000000e+00 0.000000e+00
 0.000000e+00 0.000000e+00 9.790467e-01 2.095328e-02 0.000000e+00 0.000000e+00 0.000000e+00 0.000000e+00
 0.000000e+00 0.000000e+00 0.000000e+00 0.000000e+00 1.000000e+00 0.000000e+00 0.000000e+00 0.000000e+00
 0.000000e+00 0.000000e+00 0.000000e+00 0.000000e+00 9.404779e-01 5.952210e-02 0.000000e+00 0.000000e+00
 0.000000e+00 0.000000e+00 0.000000e+00 0.000000e+00 0.000000e+00 9.218195e-01 7.818052e-02 0.000000e+00
 0.000000e+00 0.000000e+00 0.000000e+00 0.000000e+00 0.000000e+00 0.000000e+00 0.000000e+00 1.000000e+00
 0.000000e+00 0.000000e+00 0.000000e+00 0.000000e+00 0.000000e+00 0.000000e+00 0.000000e+00 0.000000e+00
<ENDHMM>
