~o
<STREAMINFO> 1 1
<VECSIZE> 1<NULLD><USER><DIAGC>
~h "a"
<BEGINHMM>
<NUMSTATES> 8
<STATE> 2
<MEAN> 1
 3.423045e+00
<VARIANCE> 1
 2.693652e+00
<GCONST> 2.828775e+00
<STATE> 3
<MEAN> 1
 9.300276e+00
<VARIANCE> 1
 2.769689e+00
<GCONST> 2.856612e+00
<STATE> 4
<MEAN> 1
 5.474687e+00
<VARIANCE> 1
 1.608343e+00
<GCONST> 2.313081e+00
<STATE> 5
<MEAN> 1
 2.125293e+00
<VARIANCE> 1
 3.006387e-01
<GCONST> 6.360310e-01
<STATE> 6
<MEAN> 1
 3.429431e+00
<VARIANCE> 1
 1.102739e+00
<GCONST> 1.935674e+00
<STATE> 7
<MEAN> 1
 7.663459e-01
<VARIANCE> 1
 1.322458e-01
<GCONST> -1.852162e-01
<TRANSP> 8
 0.000000e+00 1.000000e+00 0.000000e+00 0.000000e+00 0.000000e+00 0.000000e+00 0.000000e+00 0.000000e+00
 0.000000e+00 9.394560e-01 6.054395e-02 0.000000e+00 0.000000e+00 0.000000e+00 0.000000e+00 0.000000e+00
 0.000000e+00 0.000000e+00 9.828706e-01 1.712945e-02 0.000000e+00 0.000000e+00 0.000000e+00 0.000000e+00
 0.000000e+00 0.000000e+00 0.000000e+00 9.725056e-01 2.749440e-02 0.000000e+00 0.000000e+00 0.000000e+00
 0.000000e+00 0.000000e+00 0.000000e+00 0.000000e+00 9.589530e-01 4.104701e-02 0.000000e+00 0.000000e+00
 0.000000e+00 0.000000e+00 0.000000e+00 0.000000e+00 0.000000e+00 9.283556e-01 7.164440e-02 0.000000e+00
 0.000000e+00 0.000000e+00 0.000000e+00 0.000000e+00 0.000000e+00 0.000000e+00 9.270696e-01 7.293040e-02
 0.000000e+00 0.000000e+00 0.000000e+00 0.000000e+00 0.000000e+00 0.000000e+00 0.000000e+00 0.000000e+00
<ENDHMM>
~h "e"
<BEGINHMM>
<NUMSTATES> 8
<STATE> 2
<MEAN> 1
 -1.961638e-03
<VARIANCE> 1
 1.000000e-02
<GCONST> -2.767293e+00
<STATE> 3
<MEAN> 1
 5.587654e+00
<VARIANCE> 1
 1.672716e+01
<GCONST> 4.654911e+00
<STATE> 4
<MEAN> 1
 -9.339618e-01
<VARIANCE> 1
 2.195353e-01
<GCONST> 3.216348e-01
<STATE> 5
<MEAN> 1
 -1.811411e+00
<VARIANCE> 1
 4.174455e-02
<GCONST> -1.338309e+00
<STATE> 6
<MEAN> 1
 -3.093403e+00
<VARIANCE> 1
 6.988882e-01
<GCONST> 1.479613e+00
<STATE> 7
<MEAN> 1
 -6.379395e+00
<VARIANCE> 1
 1.309547e+00
<GCONST> 2.107558e+00
<TRANSP> 8
 0.000000e+00 1.000000e+00 0.000000e+00 0.000000e+00 0.000000e+00 0.000000e+00 0.000000e+00 0.000000e+00
 0.000000e+00 9.930911e-01 6.908898e-03 0.000000e+00 0.000000e+00 0.000000e+00 0.000000e+00 0.000000e+00
 0.000000e+00 0.000000e+00 8.756690e-01 1.243310e-01 0.000000e+00 0.000000e+00 0.000000e+00 0.000000e+00
 0.000000e+00 0.000000e+00 0.000000e+00 9.683329e-01 3.166709e-02 0.000000e+00 0.000000e+00 0.000000e+00
 0.000000e+00 0.000000e+00 0.000000e+00 0.000000e+00 0.000000e+00 1.000000e+00 0.000000e+00 0.000000e+00
 0.000000e+00 0.000000e+00 0.000000e+00 0.000000e+00 0.000000e+00 9.711038e-01 2.889619e-02 0.000000e+00
 0.000000e+00 0.000000e+00 0.000000e+00 0.000000e+00 0.000000e+00 0.000000e+00 9.693407e-01 3.065932e-02
 0.000000e+00 0.000000e+00 0.000000e+00 0.000000e+00 0.000000e+00 0.000000e+00 0.000000e+00 0.000000e+00
<ENDHMM>
~h "i"
<BEGINHMM>
<NUMSTATES> 8
<STATE> 2
<MEAN> 1
 -5.266069e+00
<VARIANCE> 1
 3.512814e+00
<GCONST> 3.094295e+00
<STATE> 3
<MEAN> 1
 -9.750116e+00
<VARIANCE> 1
 1.081856e+00
<GCONST> 1.916555e+00
<STATE> 4
<MEAN> 1
 -7.130149e+00
<VARIANCE> 1
 8.601432e-01
<GCONST> 1.687221e+00
<STATE> 5
<MEAN> 1
 -4.327309e+00
<VARIANCE> 1
 4.741550e-01
<GCONST> 1.091656e+00
<STATE> 6
<MEAN> 1
 -2.171786e+00
<VARIANCE> 1
 2.771118e-01
<GCONST> 5.545429e-01
<STATE> 7
<MEAN> 1
 -7.988634e-01
<VARIANCE> 1
 6.411095e-02
<GCONST> -9.092631e-01
<TRANSP> 8
 0.000000e+00 1.000000e+00 0.000000e+00 0.000000e+00 0.000000e+00 0.000000e+00 0.000000e+00 0.000000e+00
 0.000000e+00 7.758800e-01 2.241200e-01 0.000000e+00 0.000000e+00 0.000000e+00 0.000000e+00 0.000000e+00
 0.000000e+00 0.000000e+00 9.845446e-01 1.545535e-02 0.000000e+00 0.000000e+00 0.000000e+00 0.000000e+00
 0.000000e+00 0.000000e+00 0.000000e+00 9.766496e-01 2.335043e-02 0.000000e+00 0.000000e+00 0.000000e+00
 0.000000e+00 0.000000e+00 0.000000e+00 0.000000e+00 9.507560e-01 4.924400e-02 0.000000e+00 0.000000e+00
 0.000000e+00 0.000000e+00 0.000000e+00 0.000000e+00 0.000000e+00 9.407401e-01 5.925985e-02 0.000000e+00
 0.000000e+00 0.000000e+00 0.000000e+00 0.000000e+00 0.000000e+00 0.000000e+00 8.682297e-01 1.317702e-01
 0.000000e+00 0.000000e+00 0.000000e+00 0.000000e+00 0.000000e+00 0.000000e+00 0.000000e+00 0.000000e+00
<ENDHMM>
~h "m"
<BEGINHMM>
<NUMSTATES> 8
<STATE> 2
<MEAN> 1
 -2.656128e-01
<VARIANCE> 1
 1.000000e-02
<GCONST> -2.767293e+00
<STATE> 3
<MEAN> 1
 1.852216e-03
<VARIANCE> 1
 1.000000e-02
<GCONST> -2.767293e+00
<STATE> 4
<MEAN> 1
 9.168998e-01
<VARIANCE> 1
 2.184963e-01
<GCONST> 3.168907e-01
<STATE> 5
<MEAN> 1
 1.592312e+00
<VARIANCE> 1
 2.728053e-01
<GCONST> 5.388801e-01
<STATE> 6
<MEAN> 1
 2.956084e+00
<VARIANCE> 1
 5.716524e-01
<GCONST> 1.278653e+00
<STATE> 7
<MEAN> 1
 6.460167e+00
<VARIANCE> 1
 2.279920e+00
<GCONST> 2.662017e+00
<TRANSP> 8
 0.000000e+00 1.000000e+00 0.000000e+00 0.000000e+00 0.000000e+00 0.000000e+00 0.000000e+00 0.000000e+00
 0.000000e+00 5.493960e-01 4.506041e-01 0.000000e+00 0.000000e+00 0.000000e+00 0.000000e+00 0.000000e+00
 0.000000e+00 0.000000e+00 9.932009e-01 6.799141e-03 0.000000e+00 0.000000e+00 0.000000e+00 0.000000e+00
 0.000000e+00 0.000000e+00 0.000000e+00 9.641793e-01 3.582066e-02 0.000000e+00 0.000000e+00 0.000000e+00
 0.000000e+00 0.000000e+00 0.000000e+00 0.000000e+00 2.183436e-01 7.816564e-01 0.000000e+00 0.000000e+00
 0.000000e+00 0.000000e+00 0.000000e+00 0.000000e+00 0.000000e+00 9.646522e-01 3.534773e-02 0.000000e+00
 0.000000e+00 0.000000e+00 0.000000e+00 0.000000e+00 0.000000e+00 0.000000e+00 9.579480e-01 4.205190e-02
 0.000000e+00 0.000000e+00 0.000000e+00 0.000000e+00 0.000000e+00 0.000000e+00 0.000000e+00 0.000000e+00
<ENDHMM>
~h "sil"
<BEGINHMM>
<NUMSTATES> 8
<STATE> 2
<MEAN> 1
 -2.898960e+00
<VARIANCE> 1
 3.018141e+00
<GCONST> 2.942518e+00
<STATE> 3
<MEAN> 1
 3.058637e+00
<VARIANCE> 1
 1.579494e+01
<GCONST> 4.597567e+00
<STATE> 4
<MEAN> 1
 1.073462e+01
<VARIANCE> 1
 4.592124e+00
<GCONST> 3.362220e+00
<STATE> 5
<MEAN> 1
 6.235241e+00
<VARIANCE> 1
 4.129181e+00
<GCONST> 3.255956e+00
<STATE> 6
<MEAN> 1
 2.852299e+00
<VARIANCE> 1
 2.441551e+00
<GCONST> 2.730511e+00
<STATE> 7
<MEAN> 1
 7.756281e-02
<VARIANCE> 1
 8.921893e-01
<GCONST> 1.723800e+00
<TRANSP> 8
 0.000000e+00 1.000000e+00 0.000000e+00 0.000000e+00 0.000000e+00 0.000000e+00 0.000000e+00 0.000000e+00
 0.000000e+00 9.689464e-01 3.105360e-02 0.000000e+00 0.000000e+00 0.000000e+00 0.000000e+00 0.000000e+00
 0.000000e+00 0.000000e+00 0.000000e+00 1.000000e+00 0.000000e+00 0.000000e+00 0.000000e+00 0.000000e+00
 0.000000e+00 0.000000e+00 0.000000e+00 9.774665e-01 2.253355e-02 0.000000e+00 0.000000e+00 0.000000e+00
 0.000000e+00 0.000000e+00 0.000000e+00 0.000000e+00 9.091238e-01 9.087618e-02 0.000000e+00 0.000000e+00
 0.000000e+00 0.000000e+00 0.000000e+00 0.000000e+00 0.000000e+00 7.895213e-01 2.104787e-01 0.000000e+00
 0.000000e+00 0.000000e+00 0.000000e+00 0.000000e+00 0.000000e+00 0.000000e+00 9.624667e-01 3.753332e-02
 0.000000e+00 0.000000e+00 0.000000e+00 0.000000e+00 0.000000e+00 0.000000e+00 0.000000e+00 0.000000e+00
<ENDHMM>
