~o
<STREAMINFO> 1 1
<VECSIZE> 1<NULLD><USER><DIAGC>
~h "a"
<BEGINHMM>
<NUMSTATES> 8
<STATE> 2
<MEAN> 1
 8.690109e+00
<VARIANCE> 1
 1.791482e+00
<GCONST> 2.420920e+00
<STATE> 3
<MEAN> 1
 1.442414e+01
<VARIANCE> 1
 3.627840e+00
<GCONST> 3.126514e+00
<STATE> 4
<MEAN> 1
 1.082745e+01
<VARIANCE> 1
 1.568048e+00
<GCONST> 2.287709e+00
<STATE> 5
<MEAN> 1
 8.250799e+00
<VARIANCE> 1
 1.077859e+00
<GCONST> 1.912854e+00
<STATE> 6
<MEAN> 1
 6.428936e+00
<VARIANCE> 1
 1.313089e+00
<GCONST> 2.110259e+00
<STATE> 7
<MEAN> 1
 3.002525e+00
<VARIANCE> 1
 1.264358e+00
<GCONST> 2.072441e+00
<TRANSP> 8
 0.000000e+00 1.000000e+00 0.000000e+00 0.000000e+00 0.000000e+00 0.000000e+00 0.000000e+00 0.000000e+00
 0.000000e+00 9.470489e-01 5.295111e-02 0.000000e+00 0.000000e+00 0.000000e+00 0.000000e+00 0.000000e+00
 0.000000e+00 0.000000e+00 9.720002e-01 2.799980e-02 0.000000e+00 0.000000e+00 0.000000e+00 0.000000e+00
 0.000000e+00 0.000000e+00 0.000000e+00 9.475503e-01 5.244972e-02 0.000000e+00 0.000000e+00 0.000000e+00
 0.000000e+00 0.000000e+00 0.000000e+00 0.000000e+00 0.000000e+00 1.000000e+00 0.000000e+00 0.000000e+00
 0.000000e+00 0.000000e+00 0.000000e+00 0.000000e+00 0.000000e+00 9.125261e-01 8.747390e-02 0.000000e+00
 0.000000e+00 0.000000e+00 0.000000e+00 0.000000e+00 0.000000e+00 0.000000e+00 8.766288e-01 1.233713e-01
 0.000000e+00 0.000000e+00 0.000000e+00 0.000000e+00 0.000000e+00 0.000000e+00 0.000000e+00 0.000000e+00
<ENDHMM>
~h "e"
<BEGINHMM>
<NUMSTATES> 8
<STATE> 2
<MEAN> 1
 5.248175e+00
<VARIANCE> 1
 3.544744e+01
<GCONST> 5.405928e+00
<STATE> 3
<MEAN> 1
 -3.673830e-01
<VARIANCE> 1
 4.794194e-01
<GCONST> 1.102697e+00
<STATE> 4
<MEAN> 1
 -2.080138e+00
<VARIANCE> 1
 5.981606e-02
<GCONST> -9.786041e-01
<STATE> 5
<MEAN> 1
 -2.548853e+00
<VARIANCE> 1
 1.171136e-01
<GCONST> -3.067336e-01
<STATE> 6
<MEAN> 1
 -5.969521e+00
<VARIANCE> 1
 2.168859e+00
<GCONST> 2.612078e+00
<STATE> 7
<MEAN> 1
 -3.999304e+00
<VARIANCE> 1
 1.007717e+00
<GCONST> 1.845564e+00
<TRANSP> 8
 0.000000e+00 1.000000e+00 0.000000e+00 0.000000e+00 0.000000e+00 0.000000e+00 0.000000e+00 0.000000e+00
 0.000000e+00 7.819977e-01 2.180023e-01 0.000000e+00 0.000000e+00 0.000000e+00 0.000000e+00 0.000000e+00
 0.000000e+00 0.000000e+00 9.545724e-01 4.542760e-02 0.000000e+00 0.000000e+00 0.000000e+00 0.000000e+00
 0.000000e+00 0.000000e+00 0.000000e+00 0.000000e+00 1.000000e+00 0.000000e+00 0.000000e+00 0.000000e+00
 0.000000e+00 0.000000e+00 0.000000e+00 0.000000e+00 0.000000e+00 1.000000e+00 0.000000e+00 0.000000e+00
 0.000000e+00 0.000000e+00 0.000000e+00 0.000000e+00 0.000000e+00 9.488328e-01 5.116726e-02 0.000000e+00
 0.000000e+00 0.000000e+00 0.000000e+00 0.000000e+00 0.000000e+00 0.000000e+00 9.497793e-01 5.022075e-02
 0.000000e+00 0.000000e+00 0.000000e+00 0.000000e+00 0.000000e+00 0.000000e+00 0.000000e+00 0.000000e+00
<ENDHMM>
~h "i"
<BEGINHMM>
<NUMSTATES> 8
<STATE> 2
<MEAN> 1
 -7.724916e+00
<VARIANCE> 1
 1.955584e+00
<GCONST> 2.508566e+00
<STATE> 3
<MEAN> 1
 -3.080103e+00
<VARIANCE> 1
 1.217803e+00
<GCONST> 2.034926e+00
<STATE> 4
<MEAN> 1
 1.635566e+00
<VARIANCE> 1
 3.591964e+00
<GCONST> 3.116576e+00
<STATE> 5
<MEAN> 1
 -1.408282e-01
<VARIANCE> 1
 1.582626e-01
<GCONST> -5.622387e-03
<STATE> 6
<MEAN> 1
 -4.065387e+00
<VARIANCE> 1
 6.042678e+00
<GCONST> 3.636724e+00
<STATE> 7
<MEAN> 1
 3.333163e+00
<VARIANCE> 1
 9.280247e+00
<GCONST> 4.065765e+00
<TRANSP> 8
 0.000000e+00 1.000000e+00 0.000000e+00 0.000000e+00 0.000000e+00 0.000000e+00 0.000000e+00 0.000000e+00
 0.000000e+00 9.718636e-01 2.813648e-02 0.000000e+00 0.000000e+00 0.000000e+00 0.000000e+00 0.000000e+00
 0.000000e+00 0.000000e+00 9.193623e-01 8.063767e-02 0.000000e+00 0.000000e+00 0.000000e+00 0.000000e+00
 0.000000e+00 0.000000e+00 0.000000e+00 8.742502e-01 1.257499e-01 0.000000e+00 0.000000e+00 0.000000e+00
 0.000000e+00 0.000000e+00 0.000000e+00 0.000000e+00 9.370553e-01 6.294468e-02 0.000000e+00 0.000000e+00
 0.000000e+00 0.000000e+00 0.000000e+00 0.000000e+00 0.000000e+00 8.917084e-01 1.082916e-01 0.000000e+00
 0.000000e+00 0.000000e+00 0.000000e+00 0.000000e+00 0.000000e+00 0.000000e+00 8.362293e-01 1.637708e-01
 0.000000e+00 0.000000e+00 0.000000e+00 0.000000e+00 0.000000e+00 0.000000e+00 0.000000e+00 0.000000e+00
<ENDHMM>
~h "m"
<BEGINHMM>
<NUMSTATES> 8
<STATE> 2
<MEAN> 1
 -9.292877e-01
<VARIANCE> 1
 8.015883e-01
<GCONST> 1.616717e+00
<STATE> 3
<MEAN> 1
 1.317965e+00
<VARIANCE> 1
 4.612508e-01
<GCONST> 1.064064e+00
<STATE> 4
<MEAN> 1
 2.186529e+00
<VARIANCE> 1
 1.151685e+00
<GCONST> 1.979104e+00
<STATE> 5
<MEAN> 1
 2.839564e+00
<VARIANCE> 1
 1.801158e+00
<GCONST> 2.426307e+00
<STATE> 6
<MEAN> 1
 9.505258e+00
<VARIANCE> 1
 1.364230e+01
<GCONST> 4.451053e+00
<STATE> 7
<MEAN> 1
 4.904456e+00
<VARIANCE> 1
 1.899044e+00
<GCONST> 2.479228e+00
<TRANSP> 8
 0.000000e+00 1.000000e+00 0.000000e+00 0.000000e+00 0.000000e+00 0.000000e+00 0.000000e+00 0.000000e+00
 0.000000e+00 9.168569e-01 8.314310e-02 0.000000e+00 0.000000e+00 0.000000e+00 0.000000e+00 0.000000e+00
 0.000000e+00 0.000000e+00 8.988767e-01 1.011233e-01 0.000000e+00 0.000000e+00 0.000000e+00 0.000000e+00
 0.000000e+00 0.000000e+00 0.000000e+00 0.000000e+00 1.000000e+00 0.000000e+00 0.000000e+00 0.000000e+00
 0.000000e+00 0.000000e+00 0.000000e+00 0.000000e+00 0.000000e+00 1.000000e+00 0.000000e+00 0.000000e+00
 0.000000e+00 0.000000e+00 0.000000e+00 0.000000e+00 0.000000e+00 8.843684e-01 1.156316e-01 0.000000e+00
 0.000000e+00 0.000000e+00 0.000000e+00 0.000000e+00 0.000000e+00 0.000000e+00 9.154168e-01 8.458319e-02
 0.000000e+00 0.000000e+00 0.000000e+00 0.000000e+00 0.000000e+00 0.000000e+00 0.000000e+00 0.000000e+00
<ENDHMM>
~h "sil"
<BEGINHMM>
<NUMSTATES> 8
<STATE> 2
<MEAN> 1
 4.125606e-01
<VARIANCE> 1
 5.743099e-01
<GCONST> 1.283291e+00
<STATE> 3
<MEAN> 1
 3.003817e+00
<VARIANCE> 1
 1.373483e+00
<GCONST> 2.155227e+00
<STATE> 4
<MEAN> 1
 5.801221e+00
<VARIANCE> 1
 2.365909e+00
<GCONST> 2.699039e+00
<STATE> 5
<MEAN> 1
 4.165974e+00
<VARIANCE> 1
 2.187488e+01
<GCONST> 4.923216e+00
<STATE> 6
<MEAN> 1
 4.698251e+00
<VARIANCE> 1
 1.610110e+01
<GCONST> 4.616765e+00
<STATE> 7
<MEAN> 1
 1.087397e+01
<VARIANCE> 1
 1.287024e+01
<GCONST> 4.392795e+00
<TRANSP> 8
 0.000000e+00 1.000000e+00 0.000000e+00 0.000000e+00 0.000000e+00 0.000000e+00 0.000000e+00 0.000000e+00
 0.000000e+00 9.351715e-01 6.482846e-02 0.000000e+00 0.000000e+00 0.000000e+00 0.000000e+00 0.000000e+00
 0.000000e+00 0.000000e+00 9.164496e-01 8.355044e-02 0.000000e+00 0.000000e+00 0.000000e+00 0.000000e+00
 0.000000e+00 0.000000e+00 0.000000e+00 9.088616e-01 9.113837e-02 0.000000e+00 0.000000e+00 0.000000e+00
 0.000000e+00 0.000000e+00 0.000000e+00 0.000000e+00 6.898736e-01 3.101264e-01 0.000000e+00 0.000000e+00
 0.000000e+00 0.000000e+00 0.000000e+00 0.000000e+00 0.000000e+00 0.000000e+00 1.000000e+00 0.000000e+00
 0.000000e+00 0.000000e+00 0.000000e+00 0.000000e+00 0.000000e+00 0.000000e+00 8.933033e-01 1.066967e-01
 0.000000e+00 0.000000e+00 0.000000e+00 0.000000e+00 0.000000e+00 0.000000e+00 0.000000e+00 0.000000e+00
<ENDHMM>
