~o
<STREAMINFO> 1 26
<VECSIZE> 26<NULLD><MFCC_E_D><DIAGC>
~h "C"
<BEGINHMM>
<NUMSTATES> 5
<STATE> 2
<MEAN> 26
 -1.535936e+01 -3.834702e+00 -2.268058e+00 -4.954307e+00 -4.339819e+00 -3.480193e+00 -2.358941e+00 -1.574599e+00 -9.066418e-01 -1.631974e+00 -3.100598e+00 -2.284739e-01 3.273414e-01 -2.208257e+00 -8.960570e-02 -9.901492e-01 -2.064442e-01 1.361806e+00 5.323849e-01 6.201472e-01 -1.974851e-02 2.307677e-01 -6.318451e-02 3.472566e-01 3.992525e-02 -3.211652e-02
<VARIANCE> 26
 3.613010e+01 4.462661e+01 3.806485e+01 3.816423e+01 3.154110e+01 3.213308e+01 2.645540e+01 3.052287e+01 1.853684e+01 1.884150e+01 2.077972e+01 1.544471e+01 6.227477e-02 6.256481e+00 5.581312e+00 4.839515e+00 5.981883e+00 5.829751e+00 4.114037e+00 4.750547e+00 4.241479e+00 3.513271e+00 2.261784e+00 2.567157e+00 1.718580e+00 5.000000e-02
<GCONST> 9.857785e+01
<STATE> 3
<MEAN> 26
 -2.208464e+01 -3.912693e+00 -6.208614e+00 -8.636293e+00 -2.361543e+00 -5.314494e+00 -1.919638e-01 -1.244305e+00 -3.348502e-01 -1.423939e+00 -2.040083e+00 1.892043e-01 4.537418e-01 1.158882e-01 -4.134787e-01 -1.420849e-01 -2.926120e-01 -2.235626e-01 -7.329516e-02 5.922762e-02 7.004233e-02 1.193071e-01 -3.685778e-02 -6.606136e-02 -4.887422e-03 8.621456e-03
<VARIANCE> 26
 3.535790e+01 2.409023e+01 3.053106e+01 3.109136e+01 3.020435e+01 3.399017e+01 1.990858e+01 1.663639e+01 1.641544e+01 1.482384e+01 1.167097e+01 1.074653e+01 6.984702e-02 3.178873e+00 1.496942e+00 1.997698e+00 2.461871e+00 1.582731e+00 1.954980e+00 1.842491e+00 1.557141e+00 1.561410e+00 1.903234e+00 1.537185e+00 1.111395e+00 5.000000e-02
<GCONST> 8.575466e+01
<STATE> 4
<MEAN> 26
 -1.109816e+01 -7.741318e+00 -2.833050e+00 -6.752809e+00 -7.596253e+00 -4.517460e+00 -3.180068e+00 5.028812e-01 -9.552773e-01 -1.772255e+00 -3.482886e+00 -2.532148e-01 5.004981e-01 3.043517e+00 -6.417941e-01 7.308910e-01 -2.396807e-01 -1.700142e+00 9.089310e-02 -1.721417e+00 4.525722e-01 -5.517657e-01 1.576058e-01 5.757283e-02 -4.868016e-01 5.352819e-02
<VARIANCE> 26
 5.589749e+01 3.823470e+01 6.138299e+01 3.897730e+01 5.831423e+01 4.630154e+01 4.620509e+01 3.575935e+01 3.284775e+01 2.568542e+01 2.151573e+01 1.510104e+01 5.000000e-02 5.293000e+00 3.992439e+00 4.864931e+00 4.735412e+00 4.608617e+00 5.683920e+00 5.141362e+00 3.432252e+00 3.189415e+00 2.422459e+00 2.555548e+00 2.184204e+00 5.000000e-02
<GCONST> 1.011611e+02
<TRANSP> 5
 0.000000e+00 1.000000e+00 0.000000e+00 0.000000e+00 0.000000e+00
 0.000000e+00 4.169917e-01 5.830084e-01 0.000000e+00 0.000000e+00
 0.000000e+00 0.000000e+00 7.041473e-01 2.958527e-01 0.000000e+00
 0.000000e+00 0.000000e+00 0.000000e+00 5.637109e-01 4.362891e-01
 0.000000e+00 0.000000e+00 0.000000e+00 0.000000e+00 0.000000e+00
<ENDHMM>
