~o
<STREAMINFO> 1 26
<VECSIZE> 26<NULLD><MFCC_E_D><DIAGC>
~h "S"
<BEGINHMM>
<NUMSTATES> 5
<STATE> 2
<MEAN> 26
 -1.383485e+01 -4.976659e+00 -9.043140e+00 -8.776995e+00 -1.704183e+00 -1.778535e+00 -2.705832e+00 1.470271e+00 1.488029e+00 -4.668281e-01 -5.587890e+00 -1.620714e+00 1.437509e-01 -4.754864e-02 4.358229e-02 -3.814667e-01 4.802282e-01 4.603184e-02 1.211401e+00 -1.125601e-01 -3.779626e-01 -5.484444e-01 3.872889e-02 1.309785e-01 -1.769506e-01 -4.477295e-02
<VARIANCE> 26
 2.690813e+01 1.478785e+01 1.698456e+01 2.593739e+01 2.487734e+01 2.527304e+01 2.320989e+01 2.051476e+01 1.275702e+01 1.055727e+01 2.361775e+01 5.142017e+01 2.868534e-02 2.842307e+00 1.338056e+00 1.082552e+00 2.353417e+00 1.912106e+00 2.719269e+00 1.844419e+00 3.045482e+00 8.086911e-01 1.150527e+00 2.680046e+00 2.811013e+00 1.000000e-02
<GCONST> 8.390951e+01
<STATE> 3
<MEAN> 26
 -1.671031e+01 -1.815261e+00 -7.134048e+00 -5.332903e+00 -3.110151e+00 1.847059e-01 -8.103685e-01 1.392777e+00 -1.290081e+00 -5.348893e-01 -1.498396e+00 -4.899577e-01 -8.297081e-02 8.594972e-02 2.111582e-01 1.528493e-01 -6.926977e-03 -2.979282e-01 2.390394e-02 5.082878e-02 -2.316257e-02 -5.681012e-02 -8.887494e-02 4.010477e-02 -2.444881e-02 -2.076464e-03
<VARIANCE> 26
 6.711286e+00 6.690197e+00 1.059262e+01 1.803819e+01 1.623392e+01 1.295103e+01 1.484050e+01 1.851673e+01 1.254149e+01 1.547352e+01 1.778301e+01 1.160713e+01 1.073845e-02 4.471266e-01 5.941945e-01 9.355249e-01 1.281176e+00 1.199881e+00 1.081114e+00 1.338675e+00 1.925394e+00 1.309347e+00 1.568903e+00 1.850823e+00 1.398724e+00 1.000000e-02
<GCONST> 7.099894e+01
<STATE> 4
<MEAN> 26
 -1.194106e+01 -3.996316e+00 -3.805767e+00 -1.075460e+01 -7.725782e+00 2.120156e+00 -2.609599e+00 2.187106e+00 -2.939585e+00 -1.820662e+00 -3.329406e+00 -2.889205e+00 2.100020e-01 6.438572e-01 -4.495059e-01 5.566753e-01 -6.026410e-01 -8.502845e-02 4.251374e-01 -6.693499e-01 3.930190e-02 -4.119689e-01 -4.873813e-01 -1.809644e-01 -1.336209e-01 7.428712e-02
<VARIANCE> 26
 4.127508e+01 4.210017e+01 6.419318e+01 2.821550e+01 4.645282e+01 3.863097e+01 2.858929e+01 3.719587e+01 4.614665e+01 1.978203e+01 1.757372e+01 2.439608e+01 6.929990e-02 5.206977e+00 2.921713e+00 4.077347e+00 2.703291e+00 2.708522e+00 1.795997e+00 2.500186e+00 3.234168e+00 2.461359e+00 1.815869e+00 1.395402e+00 2.204358e+00 1.000000e-02
<GCONST> 9.422664e+01
<TRANSP> 5
 0.000000e+00 1.000000e+00 0.000000e+00 0.000000e+00 0.000000e+00
 0.000000e+00 6.734694e-01 3.265306e-01 0.000000e+00 0.000000e+00
 0.000000e+00 0.000000e+00 8.805970e-01 1.194030e-01 0.000000e+00
 0.000000e+00 0.000000e+00 0.000000e+00 7.142857e-01 2.857143e-01
 0.000000e+00 0.000000e+00 0.000000e+00 0.000000e+00 0.000000e+00
<ENDHMM>
