~o
<STREAMINFO> 1 1
<VECSIZE> 1<NULLD><USER><DIAGC>
~h "a"
<BEGINHMM>
<NUMSTATES> 8
<STATE> 2
<MEAN> 1
 8.645084e+00
<VARIANCE> 1
 1.889522e+00
<GCONST> 2.474201e+00
<STATE> 3
<MEAN> 1
 1.442315e+01
<VARIANCE> 1
 3.626305e+00
<GCONST> 3.126091e+00
<STATE> 4
<MEAN> 1
 1.079799e+01
<VARIANCE> 1
 1.574820e+00
<GCONST> 2.292018e+00
<STATE> 5
<MEAN> 1
 8.214834e+00
<VARIANCE> 1
 1.059876e+00
<GCONST> 1.896029e+00
<STATE> 6
<MEAN> 1
 6.318789e+00
<VARIANCE> 1
 1.374659e+00
<GCONST> 2.156083e+00
<STATE> 7
<MEAN> 1
 2.812447e+00
<VARIANCE> 1
 1.453316e+00
<GCONST> 2.211725e+00
<TRANSP> 8
 0.000000e+00 1.000000e+00 0.000000e+00 0.000000e+00 0.000000e+00 0.000000e+00 0.000000e+00 0.000000e+00
 0.000000e+00 9.467635e-01 5.323657e-02 0.000000e+00 0.000000e+00 0.000000e+00 0.000000e+00 0.000000e+00
 0.000000e+00 0.000000e+00 9.719821e-01 2.801790e-02 0.000000e+00 0.000000e+00 0.000000e+00 0.000000e+00
 0.000000e+00 0.000000e+00 0.000000e+00 9.477376e-01 5.226239e-02 0.000000e+00 0.000000e+00 0.000000e+00
 0.000000e+00 0.000000e+00 0.000000e+00 0.000000e+00 0.000000e+00 1.000000e+00 0.000000e+00 0.000000e+00
 0.000000e+00 0.000000e+00 0.000000e+00 0.000000e+00 0.000000e+00 9.143274e-01 8.567262e-02 0.000000e+00
 0.000000e+00 0.000000e+00 0.000000e+00 0.000000e+00 0.000000e+00 0.000000e+00 8.816460e-01 1.183540e-01
 0.000000e+00 0.000000e+00 0.000000e+00 0.000000e+00 0.000000e+00 0.000000e+00 0.000000e+00 0.000000e+00
<ENDHMM>
~h "e"
<BEGINHMM>
<NUMSTATES> 8
<STATE> 2
<MEAN> 1
 6.205291e+00
<VARIANCE> 1
 3.889021e+01
<GCONST> 5.498620e+00
<STATE> 3
<MEAN> 1
 -4.254459e-01
<VARIANCE> 1
 5.228679e-01
<GCONST> 1.189451e+00
<STATE> 4
<MEAN> 1
 -2.224452e+00
<VARIANCE> 1
 7.729057e-02
<GCONST> -7.223063e-01
<STATE> 5
<MEAN> 1
 -2.699291e+00
<VARIANCE> 1
 1.446039e-01
<GCONST> -9.587979e-02
<STATE> 6
<MEAN> 1
 -6.039158e+00
<VARIANCE> 1
 1.992130e+00
<GCONST> 2.527081e+00
<STATE> 7
<MEAN> 1
 -4.049385e+00
<VARIANCE> 1
 9.722666e-01
<GCONST> 1.809752e+00
<TRANSP> 8
 0.000000e+00 1.000000e+00 0.000000e+00 0.000000e+00 0.000000e+00 0.000000e+00 0.000000e+00 0.000000e+00
 0.000000e+00 8.041296e-01 1.958704e-01 0.000000e+00 0.000000e+00 0.000000e+00 0.000000e+00 0.000000e+00
 0.000000e+00 0.000000e+00 9.551592e-01 4.484079e-02 0.000000e+00 0.000000e+00 0.000000e+00 0.000000e+00
 0.000000e+00 0.000000e+00 0.000000e+00 0.000000e+00 1.000000e+00 0.000000e+00 0.000000e+00 0.000000e+00
 0.000000e+00 0.000000e+00 0.000000e+00 0.000000e+00 0.000000e+00 1.000000e+00 0.000000e+00 0.000000e+00
 0.000000e+00 0.000000e+00 0.000000e+00 0.000000e+00 0.000000e+00 9.467899e-01 5.321007e-02 0.000000e+00
 0.000000e+00 0.000000e+00 0.000000e+00 0.000000e+00 0.000000e+00 0.000000e+00 9.497567e-01 5.024332e-02
 0.000000e+00 0.000000e+00 0.000000e+00 0.000000e+00 0.000000e+00 0.000000e+00 0.000000e+00 0.000000e+00
<ENDHMM>
~h "i"
<BEGINHMM>
<NUMSTATES> 8
<STATE> 2
<MEAN> 1
 -7.717535e+00
<VARIANCE> 1
 2.015324e+00
<GCONST> 2.538657e+00
<STATE> 3
<MEAN> 1
 -3.075306e+00
<VARIANCE> 1
 1.084618e+00
<GCONST> 1.919105e+00
<STATE> 4
<MEAN> 1
 1.720713e+00
<VARIANCE> 1
 3.581540e+00
<GCONST> 3.113670e+00
<STATE> 5
<MEAN> 1
 -2.005292e-01
<VARIANCE> 1
 2.187745e-01
<GCONST> 3.181634e-01
<STATE> 6
<MEAN> 1
 -4.217339e+00
<VARIANCE> 1
 5.839863e+00
<GCONST> 3.602584e+00
<STATE> 7
<MEAN> 1
 3.436892e+00
<VARIANCE> 1
 1.068352e+01
<GCONST> 4.206580e+00
<TRANSP> 8
 0.000000e+00 1.000000e+00 0.000000e+00 0.000000e+00 0.000000e+00 0.000000e+00 0.000000e+00 0.000000e+00
 0.000000e+00 9.718754e-01 2.812460e-02 0.000000e+00 0.000000e+00 0.000000e+00 0.000000e+00 0.000000e+00
 0.000000e+00 0.000000e+00 9.142330e-01 8.576693e-02 0.000000e+00 0.000000e+00 0.000000e+00 0.000000e+00
 0.000000e+00 0.000000e+00 0.000000e+00 8.784099e-01 1.215901e-01 0.000000e+00 0.000000e+00 0.000000e+00
 0.000000e+00 0.000000e+00 0.000000e+00 0.000000e+00 9.416224e-01 5.837757e-02 0.000000e+00 0.000000e+00
 0.000000e+00 0.000000e+00 0.000000e+00 0.000000e+00 0.000000e+00 8.936726e-01 1.063274e-01 0.000000e+00
 0.000000e+00 0.000000e+00 0.000000e+00 0.000000e+00 0.000000e+00 0.000000e+00 8.091996e-01 1.908004e-01
 0.000000e+00 0.000000e+00 0.000000e+00 0.000000e+00 0.000000e+00 0.000000e+00 0.000000e+00 0.000000e+00
<ENDHMM>
~h "m"
<BEGINHMM>
<NUMSTATES> 8
<STATE> 2
<MEAN> 1
 -1.047138e+00
<VARIANCE> 1
 8.509541e-01
<GCONST> 1.676480e+00
<STATE> 3
<MEAN> 1
 1.166979e+00
<VARIANCE> 1
 6.299532e-01
<GCONST> 1.375767e+00
<STATE> 4
<MEAN> 1
 2.146117e+00
<VARIANCE> 1
 1.161880e+00
<GCONST> 1.987916e+00
<STATE> 5
<MEAN> 1
 2.795681e+00
<VARIANCE> 1
 1.805711e+00
<GCONST> 2.428832e+00
<STATE> 6
<MEAN> 1
 9.501310e+00
<VARIANCE> 1
 1.547762e+01
<GCONST> 4.577272e+00
<STATE> 7
<MEAN> 1
 4.880158e+00
<VARIANCE> 1
 1.968844e+00
<GCONST> 2.515323e+00
<TRANSP> 8
 0.000000e+00 1.000000e+00 0.000000e+00 0.000000e+00 0.000000e+00 0.000000e+00 0.000000e+00 0.000000e+00
 0.000000e+00 9.049909e-01 9.500907e-02 0.000000e+00 0.000000e+00 0.000000e+00 0.000000e+00 0.000000e+00
 0.000000e+00 0.000000e+00 9.091204e-01 9.087955e-02 0.000000e+00 0.000000e+00 0.000000e+00 0.000000e+00
 0.000000e+00 0.000000e+00 0.000000e+00 0.000000e+00 1.000000e+00 0.000000e+00 0.000000e+00 0.000000e+00
 0.000000e+00 0.000000e+00 0.000000e+00 0.000000e+00 0.000000e+00 1.000000e+00 0.000000e+00 0.000000e+00
 0.000000e+00 0.000000e+00 0.000000e+00 0.000000e+00 0.000000e+00 8.772154e-01 1.227846e-01 0.000000e+00
 0.000000e+00 0.000000e+00 0.000000e+00 0.000000e+00 0.000000e+00 0.000000e+00 9.160166e-01 8.398340e-02
 0.000000e+00 0.000000e+00 0.000000e+00 0.000000e+00 0.000000e+00 0.000000e+00 0.000000e+00 0.000000e+00
<ENDHMM>
~h "sil"
<BEGINHMM>
<NUMSTATES> 8
<STATE> 2
<MEAN> 1
 4.962493e-01
<VARIANCE> 1
 6.650306e-01
<GCONST> 1.429955e+00
<STATE> 3
<MEAN> 1
 3.097675e+00
<VARIANCE> 1
 1.823224e+00
<GCONST> 2.438483e+00
<STATE> 4
<MEAN> 1
 5.719530e+00
<VARIANCE> 1
 2.409288e+00
<GCONST> 2.717208e+00
<STATE> 5
<MEAN> 1
 6.958471e+00
<VARIANCE> 1
 8.203975e+00
<GCONST> 3.942496e+00
<STATE> 6
<MEAN> 1
 5.029026e+00
<VARIANCE> 1
 1.825524e+01
<GCONST> 4.742330e+00
<STATE> 7
<MEAN> 1
 1.092125e+01
<VARIANCE> 1
 1.147972e+01
<GCONST> 4.278459e+00
<TRANSP> 8
 0.000000e+00 1.000000e+00 0.000000e+00 0.000000e+00 0.000000e+00 0.000000e+00 0.000000e+00 0.000000e+00
 0.000000e+00 9.397587e-01 6.024135e-02 0.000000e+00 0.000000e+00 0.000000e+00 0.000000e+00 0.000000e+00
 0.000000e+00 0.000000e+00 9.196641e-01 8.033595e-02 0.000000e+00 0.000000e+00 0.000000e+00 0.000000e+00
 0.000000e+00 0.000000e+00 0.000000e+00 8.983553e-01 1.016447e-01 0.000000e+00 0.000000e+00 0.000000e+00
 0.000000e+00 0.000000e+00 0.000000e+00 0.000000e+00 7.341658e-01 2.658342e-01 0.000000e+00 0.000000e+00
 0.000000e+00 0.000000e+00 0.000000e+00 0.000000e+00 0.000000e+00 0.000000e+00 1.000000e+00 0.000000e+00
 0.000000e+00 0.000000e+00 0.000000e+00 0.000000e+00 0.000000e+00 0.000000e+00 8.832721e-01 1.167279e-01
 0.000000e+00 0.000000e+00 0.000000e+00 0.000000e+00 0.000000e+00 0.000000e+00 0.000000e+00 0.000000e+00
<ENDHMM>
