~o
<STREAMINFO> 1 1
<VECSIZE> 1<NULLD><USER><DIAGC>
~h "a"
<BEGINHMM>
<NUMSTATES> 8
<STATE> 2
<MEAN> 1
 8.813582e+00
<VARIANCE> 1
 1.769405e+00
<GCONST> 2.408520e+00
<STATE> 3
<MEAN> 1
 1.443818e+01
<VARIANCE> 1
 3.618062e+00
<GCONST> 3.123816e+00
<STATE> 4
<MEAN> 1
 1.091980e+01
<VARIANCE> 1
 1.428479e+00
<GCONST> 2.194487e+00
<STATE> 5
<MEAN> 1
 8.472087e+00
<VARIANCE> 1
 1.175378e+00
<GCONST> 1.999467e+00
<STATE> 6
<MEAN> 1
 6.679204e+00
<VARIANCE> 1
 1.498239e+00
<GCONST> 2.242167e+00
<STATE> 7
<MEAN> 1
 3.149633e+00
<VARIANCE> 1
 1.278902e+00
<GCONST> 2.083879e+00
<TRANSP> 8
 0.000000e+00 1.000000e+00 0.000000e+00 0.000000e+00 0.000000e+00 0.000000e+00 0.000000e+00 0.000000e+00
 0.000000e+00 9.460724e-01 5.392762e-02 0.000000e+00 0.000000e+00 0.000000e+00 0.000000e+00 0.000000e+00
 0.000000e+00 0.000000e+00 9.719715e-01 2.802857e-02 0.000000e+00 0.000000e+00 0.000000e+00 0.000000e+00
 0.000000e+00 0.000000e+00 0.000000e+00 9.451760e-01 5.482400e-02 0.000000e+00 0.000000e+00 0.000000e+00
 0.000000e+00 0.000000e+00 0.000000e+00 0.000000e+00 0.000000e+00 1.000000e+00 0.000000e+00 0.000000e+00
 0.000000e+00 0.000000e+00 0.000000e+00 0.000000e+00 0.000000e+00 9.175723e-01 8.242766e-02 0.000000e+00
 0.000000e+00 0.000000e+00 0.000000e+00 0.000000e+00 0.000000e+00 0.000000e+00 8.787078e-01 1.212922e-01
 0.000000e+00 0.000000e+00 0.000000e+00 0.000000e+00 0.000000e+00 0.000000e+00 0.000000e+00 0.000000e+00
<ENDHMM>
~h "e"
<BEGINHMM>
<NUMSTATES> 8
<STATE> 2
<MEAN> 1
 5.667794e+00
<VARIANCE> 1
 2.396993e+01
<GCONST> 5.014677e+00
<STATE> 3
<MEAN> 1
 -1.945543e-01
<VARIANCE> 1
 2.760634e-01
<GCONST> 5.507522e-01
<STATE> 4
<MEAN> 1
 -1.719940e+00
<VARIANCE> 1
 7.366773e-02
<GCONST> -7.703135e-01
<STATE> 5
<MEAN> 1
 -2.177072e+00
<VARIANCE> 1
 1.413705e-01
<GCONST> -1.184942e-01
<STATE> 6
<MEAN> 1
 -5.933559e+00
<VARIANCE> 1
 2.885276e+00
<GCONST> 2.897498e+00
<STATE> 7
<MEAN> 1
 -3.737490e+00
<VARIANCE> 1
 1.289717e+00
<GCONST> 2.092300e+00
<TRANSP> 8
 0.000000e+00 1.000000e+00 0.000000e+00 0.000000e+00 0.000000e+00 0.000000e+00 0.000000e+00 0.000000e+00
 0.000000e+00 6.563466e-01 3.436534e-01 0.000000e+00 0.000000e+00 0.000000e+00 0.000000e+00 0.000000e+00
 0.000000e+00 0.000000e+00 9.490904e-01 5.090968e-02 0.000000e+00 0.000000e+00 0.000000e+00 0.000000e+00
 0.000000e+00 0.000000e+00 0.000000e+00 0.000000e+00 1.000000e+00 0.000000e+00 0.000000e+00 0.000000e+00
 0.000000e+00 0.000000e+00 0.000000e+00 0.000000e+00 0.000000e+00 1.000000e+00 0.000000e+00 0.000000e+00
 0.000000e+00 0.000000e+00 0.000000e+00 0.000000e+00 0.000000e+00 9.499438e-01 5.005620e-02 0.000000e+00
 0.000000e+00 0.000000e+00 0.000000e+00 0.000000e+00 0.000000e+00 0.000000e+00 9.562816e-01 4.371838e-02
 0.000000e+00 0.000000e+00 0.000000e+00 0.000000e+00 0.000000e+00 0.000000e+00 0.000000e+00 0.000000e+00
<ENDHMM>
~h "i"
<BEGINHMM>
<NUMSTATES> 8
<STATE> 2
<MEAN> 1
 -7.644116e+00
<VARIANCE> 1
 1.939629e+00
<GCONST> 2.500374e+00
<STATE> 3
<MEAN> 1
 -2.822953e+00
<VARIANCE> 1
 2.107875e+00
<GCONST> 2.583557e+00
<STATE> 4
<MEAN> 1
 1.397189e+00
<VARIANCE> 1
 3.751365e+00
<GCONST> 3.159997e+00
<STATE> 5
<MEAN> 1
 -7.419382e-03
<VARIANCE> 1
 1.000000e-02
<GCONST> -2.767293e+00
<STATE> 6
<MEAN> 1
 -3.246833e+00
<VARIANCE> 1
 7.337303e+00
<GCONST> 3.830848e+00
<STATE> 7
<MEAN> 1
 3.575438e+00
<VARIANCE> 1
 7.655499e+00
<GCONST> 3.873301e+00
<TRANSP> 8
 0.000000e+00 1.000000e+00 0.000000e+00 0.000000e+00 0.000000e+00 0.000000e+00 0.000000e+00 0.000000e+00
 0.000000e+00 9.726521e-01 2.734791e-02 0.000000e+00 0.000000e+00 0.000000e+00 0.000000e+00 0.000000e+00
 0.000000e+00 0.000000e+00 9.422531e-01 5.774688e-02 0.000000e+00 0.000000e+00 0.000000e+00 0.000000e+00
 0.000000e+00 0.000000e+00 0.000000e+00 9.015697e-01 9.843026e-02 0.000000e+00 0.000000e+00 0.000000e+00
 0.000000e+00 0.000000e+00 0.000000e+00 0.000000e+00 9.330640e-01 6.693599e-02 0.000000e+00 0.000000e+00
 0.000000e+00 0.000000e+00 0.000000e+00 0.000000e+00 0.000000e+00 8.611287e-01 1.388714e-01 0.000000e+00
 0.000000e+00 0.000000e+00 0.000000e+00 0.000000e+00 0.000000e+00 0.000000e+00 8.389541e-01 1.610459e-01
 0.000000e+00 0.000000e+00 0.000000e+00 0.000000e+00 0.000000e+00 0.000000e+00 0.000000e+00 0.000000e+00
<ENDHMM>
~h "m"
<BEGINHMM>
<NUMSTATES> 8
<STATE> 2
<MEAN> 1
 -7.998090e-01
<VARIANCE> 1
 8.702985e-01
<GCONST> 1.698958e+00
<STATE> 3
<MEAN> 1
 1.409597e+00
<VARIANCE> 1
 4.635248e-01
<GCONST> 1.068982e+00
<STATE> 4
<MEAN> 1
 2.354694e+00
<VARIANCE> 1
 1.304942e+00
<GCONST> 2.104035e+00
<STATE> 5
<MEAN> 1
 3.009302e+00
<VARIANCE> 1
 2.134150e+00
<GCONST> 2.595945e+00
<STATE> 6
<MEAN> 1
 9.651044e+00
<VARIANCE> 1
 1.302927e+01
<GCONST> 4.405075e+00
<STATE> 7
<MEAN> 1
 5.084985e+00
<VARIANCE> 1
 1.929179e+00
<GCONST> 2.494972e+00
<TRANSP> 8
 0.000000e+00 1.000000e+00 0.000000e+00 0.000000e+00 0.000000e+00 0.000000e+00 0.000000e+00 0.000000e+00
 0.000000e+00 8.894395e-01 1.105605e-01 0.000000e+00 0.000000e+00 0.000000e+00 0.000000e+00 0.000000e+00
 0.000000e+00 0.000000e+00 8.931226e-01 1.068774e-01 0.000000e+00 0.000000e+00 0.000000e+00 0.000000e+00
 0.000000e+00 0.000000e+00 0.000000e+00 0.000000e+00 1.000000e+00 0.000000e+00 0.000000e+00 0.000000e+00
 0.000000e+00 0.000000e+00 0.000000e+00 0.000000e+00 0.000000e+00 1.000000e+00 0.000000e+00 0.000000e+00
 0.000000e+00 0.000000e+00 0.000000e+00 0.000000e+00 0.000000e+00 8.936048e-01 1.063953e-01 0.000000e+00
 0.000000e+00 0.000000e+00 0.000000e+00 0.000000e+00 0.000000e+00 0.000000e+00 9.125236e-01 8.747634e-02
 0.000000e+00 0.000000e+00 0.000000e+00 0.000000e+00 0.000000e+00 0.000000e+00 0.000000e+00 0.000000e+00
<ENDHMM>
~h "sil"
<BEGINHMM>
<NUMSTATES> 8
<STATE> 2
<MEAN> 1
 5.602922e-01
<VARIANCE> 1
 6.899602e-01
<GCONST> 1.466756e+00
<STATE> 3
<MEAN> 1
 2.964027e+00
<VARIANCE> 1
 1.268367e+00
<GCONST> 2.075608e+00
<STATE> 4
<MEAN> 1
 5.737718e+00
<VARIANCE> 1
 2.366472e+00
<GCONST> 2.699277e+00
<STATE> 5
<MEAN> 1
 8.540987e-02
<VARIANCE> 1
 2.245221e+01
<GCONST> 4.949266e+00
<STATE> 6
<MEAN> 1
 4.533950e+00
<VARIANCE> 1
 1.491992e+01
<GCONST> 4.540574e+00
<STATE> 7
<MEAN> 1
 1.053212e+01
<VARIANCE> 1
 1.493011e+01
<GCONST> 4.541257e+00
<TRANSP> 8
 0.000000e+00 1.000000e+00 0.000000e+00 0.000000e+00 0.000000e+00 0.000000e+00 0.000000e+00 0.000000e+00
 0.000000e+00 9.168966e-01 8.310328e-02 0.000000e+00 0.000000e+00 0.000000e+00 0.000000e+00 0.000000e+00
 0.000000e+00 0.000000e+00 9.111971e-01 8.880293e-02 0.000000e+00 0.000000e+00 0.000000e+00 0.000000e+00
 0.000000e+00 0.000000e+00 0.000000e+00 9.134552e-01 8.654477e-02 0.000000e+00 0.000000e+00 0.000000e+00
 0.000000e+00 0.000000e+00 0.000000e+00 0.000000e+00 7.819766e-01 2.180233e-01 0.000000e+00 0.000000e+00
 0.000000e+00 0.000000e+00 0.000000e+00 0.000000e+00 0.000000e+00 0.000000e+00 1.000000e+00 0.000000e+00
 0.000000e+00 0.000000e+00 0.000000e+00 0.000000e+00 0.000000e+00 0.000000e+00 8.949031e-01 1.050969e-01
 0.000000e+00 0.000000e+00 0.000000e+00 0.000000e+00 0.000000e+00 0.000000e+00 0.000000e+00 0.000000e+00
<ENDHMM>
