~o
<STREAMINFO> 1 1
<VECSIZE> 1<NULLD><USER><DIAGC>
~h "a"
<BEGINHMM>
<NUMSTATES> 8
<STATE> 2
<MEAN> 1
 8.791048e+00
<VARIANCE> 1
 1.779765e+00
<GCONST> 2.414358e+00
<STATE> 3
<MEAN> 1
 1.443537e+01
<VARIANCE> 1
 3.622708e+00
<GCONST> 3.125099e+00
<STATE> 4
<MEAN> 1
 1.090785e+01
<VARIANCE> 1
 1.436965e+00
<GCONST> 2.200410e+00
<STATE> 5
<MEAN> 1
 8.443294e+00
<VARIANCE> 1
 1.161537e+00
<GCONST> 1.987621e+00
<STATE> 6
<MEAN> 1
 6.661571e+00
<VARIANCE> 1
 1.489293e+00
<GCONST> 2.236178e+00
<STATE> 7
<MEAN> 1
 3.138634e+00
<VARIANCE> 1
 1.245923e+00
<GCONST> 2.057754e+00
<TRANSP> 8
 0.000000e+00 1.000000e+00 0.000000e+00 0.000000e+00 0.000000e+00 0.000000e+00 0.000000e+00 0.000000e+00
 0.000000e+00 9.462952e-01 5.370487e-02 0.000000e+00 0.000000e+00 0.000000e+00 0.000000e+00 0.000000e+00
 0.000000e+00 0.000000e+00 9.720019e-01 2.799813e-02 0.000000e+00 0.000000e+00 0.000000e+00 0.000000e+00
 0.000000e+00 0.000000e+00 0.000000e+00 9.455370e-01 5.446295e-02 0.000000e+00 0.000000e+00 0.000000e+00
 0.000000e+00 0.000000e+00 0.000000e+00 0.000000e+00 0.000000e+00 1.000000e+00 0.000000e+00 0.000000e+00
 0.000000e+00 0.000000e+00 0.000000e+00 0.000000e+00 0.000000e+00 9.172877e-01 8.271234e-02 0.000000e+00
 0.000000e+00 0.000000e+00 0.000000e+00 0.000000e+00 0.000000e+00 0.000000e+00 8.772847e-01 1.227153e-01
 0.000000e+00 0.000000e+00 0.000000e+00 0.000000e+00 0.000000e+00 0.000000e+00 0.000000e+00 0.000000e+00
<ENDHMM>
~h "e"
<BEGINHMM>
<NUMSTATES> 8
<STATE> 2
<MEAN> 1
 5.647146e+00
<VARIANCE> 1
 2.362047e+01
<GCONST> 4.999991e+00
<STATE> 3
<MEAN> 1
 -2.369550e-01
<VARIANCE> 1
 3.385758e-01
<GCONST> 7.548697e-01
<STATE> 4
<MEAN> 1
 -1.795775e+00
<VARIANCE> 1
 6.382362e-02
<GCONST> -9.137549e-01
<STATE> 5
<MEAN> 1
 -2.255872e+00
<VARIANCE> 1
 1.248286e-01
<GCONST> -2.429366e-01
<STATE> 6
<MEAN> 1
 -5.971461e+00
<VARIANCE> 1
 2.775366e+00
<GCONST> 2.858660e+00
<STATE> 7
<MEAN> 1
 -3.771826e+00
<VARIANCE> 1
 1.282109e+00
<GCONST> 2.086384e+00
<TRANSP> 8
 0.000000e+00 1.000000e+00 0.000000e+00 0.000000e+00 0.000000e+00 0.000000e+00 0.000000e+00 0.000000e+00
 0.000000e+00 6.625807e-01 3.374193e-01 0.000000e+00 0.000000e+00 0.000000e+00 0.000000e+00 0.000000e+00
 0.000000e+00 0.000000e+00 9.513226e-01 4.867739e-02 0.000000e+00 0.000000e+00 0.000000e+00 0.000000e+00
 0.000000e+00 0.000000e+00 0.000000e+00 0.000000e+00 1.000000e+00 0.000000e+00 0.000000e+00 0.000000e+00
 0.000000e+00 0.000000e+00 0.000000e+00 0.000000e+00 0.000000e+00 1.000000e+00 0.000000e+00 0.000000e+00
 0.000000e+00 0.000000e+00 0.000000e+00 0.000000e+00 0.000000e+00 9.506112e-01 4.938882e-02 0.000000e+00
 0.000000e+00 0.000000e+00 0.000000e+00 0.000000e+00 0.000000e+00 0.000000e+00 9.558529e-01 4.414711e-02
 0.000000e+00 0.000000e+00 0.000000e+00 0.000000e+00 0.000000e+00 0.000000e+00 0.000000e+00 0.000000e+00
<ENDHMM>
~h "i"
<BEGINHMM>
<NUMSTATES> 8
<STATE> 2
<MEAN> 1
 -7.654041e+00
<VARIANCE> 1
 1.924269e+00
<GCONST> 2.492424e+00
<STATE> 3
<MEAN> 1
 -2.908408e+00
<VARIANCE> 1
 1.874623e+00
<GCONST> 2.466285e+00
<STATE> 4
<MEAN> 1
 1.273029e+00
<VARIANCE> 1
 3.643563e+00
<GCONST> 3.130839e+00
<STATE> 5
<MEAN> 1
 -1.216397e-02
<VARIANCE> 1
 1.000000e-02
<GCONST> -2.767293e+00
<STATE> 6
<MEAN> 1
 -3.204281e+00
<VARIANCE> 1
 7.164762e+00
<GCONST> 3.807052e+00
<STATE> 7
<MEAN> 1
 3.552422e+00
<VARIANCE> 1
 7.846307e+00
<GCONST> 3.897920e+00
<TRANSP> 8
 0.000000e+00 1.000000e+00 0.000000e+00 0.000000e+00 0.000000e+00 0.000000e+00 0.000000e+00 0.000000e+00
 0.000000e+00 9.724793e-01 2.752067e-02 0.000000e+00 0.000000e+00 0.000000e+00 0.000000e+00 0.000000e+00
 0.000000e+00 0.000000e+00 9.373015e-01 6.269856e-02 0.000000e+00 0.000000e+00 0.000000e+00 0.000000e+00
 0.000000e+00 0.000000e+00 0.000000e+00 9.000090e-01 9.999104e-02 0.000000e+00 0.000000e+00 0.000000e+00
 0.000000e+00 0.000000e+00 0.000000e+00 0.000000e+00 9.333378e-01 6.666219e-02 0.000000e+00 0.000000e+00
 0.000000e+00 0.000000e+00 0.000000e+00 0.000000e+00 0.000000e+00 8.590941e-01 1.409059e-01 0.000000e+00
 0.000000e+00 0.000000e+00 0.000000e+00 0.000000e+00 0.000000e+00 0.000000e+00 8.397642e-01 1.602358e-01
 0.000000e+00 0.000000e+00 0.000000e+00 0.000000e+00 0.000000e+00 0.000000e+00 0.000000e+00 0.000000e+00
<ENDHMM>
~h "m"
<BEGINHMM>
<NUMSTATES> 8
<STATE> 2
<MEAN> 1
 -8.197128e-01
<VARIANCE> 1
 8.430878e-01
<GCONST> 1.667193e+00
<STATE> 3
<MEAN> 1
 1.397044e+00
<VARIANCE> 1
 4.592611e-01
<GCONST> 1.059741e+00
<STATE> 4
<MEAN> 1
 2.335879e+00
<VARIANCE> 1
 1.259768e+00
<GCONST> 2.068805e+00
<STATE> 5
<MEAN> 1
 2.993542e+00
<VARIANCE> 1
 2.043319e+00
<GCONST> 2.552452e+00
<STATE> 6
<MEAN> 1
 9.647446e+00
<VARIANCE> 1
 1.313562e+01
<GCONST> 4.413204e+00
<STATE> 7
<MEAN> 1
 5.052933e+00
<VARIANCE> 1
 1.907846e+00
<GCONST> 2.483852e+00
<TRANSP> 8
 0.000000e+00 1.000000e+00 0.000000e+00 0.000000e+00 0.000000e+00 0.000000e+00 0.000000e+00 0.000000e+00
 0.000000e+00 8.947648e-01 1.052352e-01 0.000000e+00 0.000000e+00 0.000000e+00 0.000000e+00 0.000000e+00
 0.000000e+00 0.000000e+00 8.933138e-01 1.066862e-01 0.000000e+00 0.000000e+00 0.000000e+00 0.000000e+00
 0.000000e+00 0.000000e+00 0.000000e+00 0.000000e+00 1.000000e+00 0.000000e+00 0.000000e+00 0.000000e+00
 0.000000e+00 0.000000e+00 0.000000e+00 0.000000e+00 0.000000e+00 1.000000e+00 0.000000e+00 0.000000e+00
 0.000000e+00 0.000000e+00 0.000000e+00 0.000000e+00 0.000000e+00 8.926342e-01 1.073658e-01 0.000000e+00
 0.000000e+00 0.000000e+00 0.000000e+00 0.000000e+00 0.000000e+00 0.000000e+00 9.136713e-01 8.632877e-02
 0.000000e+00 0.000000e+00 0.000000e+00 0.000000e+00 0.000000e+00 0.000000e+00 0.000000e+00 0.000000e+00
<ENDHMM>
~h "sil"
<BEGINHMM>
<NUMSTATES> 8
<STATE> 2
<MEAN> 1
 5.395733e-01
<VARIANCE> 1
 6.740524e-01
<GCONST> 1.443430e+00
<STATE> 3
<MEAN> 1
 2.951054e+00
<VARIANCE> 1
 1.272696e+00
<GCONST> 2.079015e+00
<STATE> 4
<MEAN> 1
 5.723896e+00
<VARIANCE> 1
 2.349602e+00
<GCONST> 2.692123e+00
<STATE> 5
<MEAN> 1
 8.514372e-02
<VARIANCE> 1
 2.252047e+01
<GCONST> 4.952302e+00
<STATE> 6
<MEAN> 1
 4.528691e+00
<VARIANCE> 1
 1.489303e+01
<GCONST> 4.538770e+00
<STATE> 7
<MEAN> 1
 1.051156e+01
<VARIANCE> 1
 1.475127e+01
<GCONST> 4.529206e+00
<TRANSP> 8
 0.000000e+00 1.000000e+00 0.000000e+00 0.000000e+00 0.000000e+00 0.000000e+00 0.000000e+00 0.000000e+00
 0.000000e+00 9.172491e-01 8.275091e-02 0.000000e+00 0.000000e+00 0.000000e+00 0.000000e+00 0.000000e+00
 0.000000e+00 0.000000e+00 9.117496e-01 8.825038e-02 0.000000e+00 0.000000e+00 0.000000e+00 0.000000e+00
 0.000000e+00 0.000000e+00 0.000000e+00 9.130810e-01 8.691898e-02 0.000000e+00 0.000000e+00 0.000000e+00
 0.000000e+00 0.000000e+00 0.000000e+00 0.000000e+00 7.812702e-01 2.187298e-01 0.000000e+00 0.000000e+00
 0.000000e+00 0.000000e+00 0.000000e+00 0.000000e+00 0.000000e+00 0.000000e+00 1.000000e+00 0.000000e+00
 0.000000e+00 0.000000e+00 0.000000e+00 0.000000e+00 0.000000e+00 0.000000e+00 8.967583e-01 1.032417e-01
 0.000000e+00 0.000000e+00 0.000000e+00 0.000000e+00 0.000000e+00 0.000000e+00 0.000000e+00 0.000000e+00
<ENDHMM>
