~o
<STREAMINFO> 1 1
<VECSIZE> 1<NULLD><USER><DIAGC>
~h "a"
<BEGINHMM>
<NUMSTATES> 8
<STATE> 2
<MEAN> 1
 -9.559878e-01
<VARIANCE> 1
 2.607328e-01
<GCONST> 4.936180e-01
<STATE> 3
<MEAN> 1
 -1.946833e-01
<VARIANCE> 1
 2.699797e-01
<GCONST> 5.284684e-01
<STATE> 4
<MEAN> 1
 8.834486e-02
<VARIANCE> 1
 5.332224e-02
<GCONST> -1.093525e+00
<STATE> 5
<MEAN> 1
 1.599141e+00
<VARIANCE> 1
 2.743254e-01
<GCONST> 5.444367e-01
<STATE> 6
<MEAN> 1
 3.351595e+00
<VARIANCE> 1
 4.065268e-01
<GCONST> 9.377716e-01
<STATE> 7
<MEAN> 1
 7.316739e+00
<VARIANCE> 1
 2.757037e+00
<GCONST> 2.852034e+00
<TRANSP> 8
 0.000000e+00 1.000000e+00 0.000000e+00 0.000000e+00 0.000000e+00 0.000000e+00 0.000000e+00 0.000000e+00
 0.000000e+00 9.303116e-01 6.968843e-02 0.000000e+00 0.000000e+00 0.000000e+00 0.000000e+00 0.000000e+00
 0.000000e+00 0.000000e+00 1.716498e-01 8.283502e-01 0.000000e+00 0.000000e+00 0.000000e+00 0.000000e+00
 0.000000e+00 0.000000e+00 0.000000e+00 9.825382e-01 1.746181e-02 0.000000e+00 0.000000e+00 0.000000e+00
 0.000000e+00 0.000000e+00 0.000000e+00 0.000000e+00 9.794384e-01 2.056163e-02 0.000000e+00 0.000000e+00
 0.000000e+00 0.000000e+00 0.000000e+00 0.000000e+00 0.000000e+00 9.780000e-01 2.199993e-02 0.000000e+00
 0.000000e+00 0.000000e+00 0.000000e+00 0.000000e+00 0.000000e+00 0.000000e+00 9.872945e-01 1.270553e-02
 0.000000e+00 0.000000e+00 0.000000e+00 0.000000e+00 0.000000e+00 0.000000e+00 0.000000e+00 0.000000e+00
<ENDHMM>
~h "e"
<BEGINHMM>
<NUMSTATES> 8
<STATE> 2
<MEAN> 1
 3.207474e+00
<VARIANCE> 1
 1.886879e+00
<GCONST> 2.472801e+00
<STATE> 3
<MEAN> 1
 8.671790e+00
<VARIANCE> 1
 6.448979e+00
<GCONST> 3.701799e+00
<STATE> 4
<MEAN> 1
 -2.296489e-02
<VARIANCE> 1
 1.996018e-01
<GCONST> 2.264459e-01
<STATE> 5
<MEAN> 1
 1.135363e+00
<VARIANCE> 1
 2.366946e+00
<GCONST> 2.699477e+00
<STATE> 6
<MEAN> 1
 -1.946732e+00
<VARIANCE> 1
 3.736859e-01
<GCONST> 8.535374e-01
<STATE> 7
<MEAN> 1
 -4.201073e+00
<VARIANCE> 1
 4.126818e-01
<GCONST> 9.527985e-01
<TRANSP> 8
 0.000000e+00 1.000000e+00 0.000000e+00 0.000000e+00 0.000000e+00 0.000000e+00 0.000000e+00 0.000000e+00
 0.000000e+00 9.772977e-01 2.270233e-02 0.000000e+00 0.000000e+00 0.000000e+00 0.000000e+00 0.000000e+00
 0.000000e+00 0.000000e+00 9.744295e-01 2.557050e-02 0.000000e+00 0.000000e+00 0.000000e+00 0.000000e+00
 0.000000e+00 0.000000e+00 0.000000e+00 9.857414e-01 1.425853e-02 0.000000e+00 0.000000e+00 0.000000e+00
 0.000000e+00 0.000000e+00 0.000000e+00 0.000000e+00 8.362511e-01 1.637489e-01 0.000000e+00 0.000000e+00
 0.000000e+00 0.000000e+00 0.000000e+00 0.000000e+00 0.000000e+00 9.811820e-01 1.881803e-02 0.000000e+00
 0.000000e+00 0.000000e+00 0.000000e+00 0.000000e+00 0.000000e+00 0.000000e+00 9.739940e-01 2.600597e-02
 0.000000e+00 0.000000e+00 0.000000e+00 0.000000e+00 0.000000e+00 0.000000e+00 0.000000e+00 0.000000e+00
<ENDHMM>
~h "i"
<BEGINHMM>
<NUMSTATES> 8
<STATE> 2
<MEAN> 1
 -4.613742e+00
<VARIANCE> 1
 1.453573e+00
<GCONST> 2.211902e+00
<STATE> 3
<MEAN> 1
 -4.608792e+00
<VARIANCE> 1
 1.589917e+00
<GCONST> 2.301559e+00
<STATE> 4
<MEAN> 1
 -8.062386e+00
<VARIANCE> 1
 1.528417e+00
<GCONST> 2.262110e+00
<STATE> 5
<MEAN> 1
 -4.520061e+00
<VARIANCE> 1
 2.822858e+00
<GCONST> 2.875627e+00
<STATE> 6
<MEAN> 1
 -6.347476e+00
<VARIANCE> 1
 8.323954e-01
<GCONST> 1.654429e+00
<STATE> 7
<MEAN> 1
 -3.328103e+00
<VARIANCE> 1
 5.912763e-01
<GCONST> 1.312405e+00
<TRANSP> 8
 0.000000e+00 1.000000e+00 0.000000e+00 0.000000e+00 0.000000e+00 0.000000e+00 0.000000e+00 0.000000e+00
 0.000000e+00 6.453808e-02 9.354619e-01 0.000000e+00 0.000000e+00 0.000000e+00 0.000000e+00 0.000000e+00
 0.000000e+00 0.000000e+00 0.000000e+00 1.000000e+00 0.000000e+00 0.000000e+00 0.000000e+00 0.000000e+00
 0.000000e+00 0.000000e+00 0.000000e+00 9.787825e-01 2.121746e-02 0.000000e+00 0.000000e+00 0.000000e+00
 0.000000e+00 0.000000e+00 0.000000e+00 0.000000e+00 4.085937e-01 5.914063e-01 0.000000e+00 0.000000e+00
 0.000000e+00 0.000000e+00 0.000000e+00 0.000000e+00 0.000000e+00 9.855005e-01 1.449954e-02 0.000000e+00
 0.000000e+00 0.000000e+00 0.000000e+00 0.000000e+00 0.000000e+00 0.000000e+00 9.666821e-01 3.331789e-02
 0.000000e+00 0.000000e+00 0.000000e+00 0.000000e+00 0.000000e+00 0.000000e+00 0.000000e+00 0.000000e+00
<ENDHMM>
~h "m"
<BEGINHMM>
<NUMSTATES> 8
<STATE> 2
<MEAN> 1
 -1.601224e+00
<VARIANCE> 1
 1.754791e-01
<GCONST> 9.764183e-02
<STATE> 3
<MEAN> 1
 -2.849034e-02
<VARIANCE> 1
 5.358208e-02
<GCONST> -1.088664e+00
<STATE> 4
<MEAN> 1
 -7.907396e-01
<VARIANCE> 1
 3.519255e-01
<GCONST> 7.935413e-01
<STATE> 5
<MEAN> 1
 -7.270947e-01
<VARIANCE> 1
 3.226577e-01
<GCONST> 7.067137e-01
<STATE> 6
<MEAN> 1
 -6.631342e-01
<VARIANCE> 1
 2.963638e-01
<GCONST> 6.217096e-01
<STATE> 7
<MEAN> 1
 -6.229903e-01
<VARIANCE> 1
 2.263222e-01
<GCONST> 3.520817e-01
<TRANSP> 8
 0.000000e+00 1.000000e+00 0.000000e+00 0.000000e+00 0.000000e+00 0.000000e+00 0.000000e+00 0.000000e+00
 0.000000e+00 9.181497e-01 8.185032e-02 0.000000e+00 0.000000e+00 0.000000e+00 0.000000e+00 0.000000e+00
 0.000000e+00 0.000000e+00 9.726018e-01 2.739824e-02 0.000000e+00 0.000000e+00 0.000000e+00 0.000000e+00
 0.000000e+00 0.000000e+00 0.000000e+00 0.000000e+00 1.000000e+00 0.000000e+00 0.000000e+00 0.000000e+00
 0.000000e+00 0.000000e+00 0.000000e+00 0.000000e+00 0.000000e+00 1.000000e+00 0.000000e+00 0.000000e+00
 0.000000e+00 0.000000e+00 0.000000e+00 0.000000e+00 0.000000e+00 0.000000e+00 1.000000e+00 0.000000e+00
 0.000000e+00 0.000000e+00 0.000000e+00 0.000000e+00 0.000000e+00 0.000000e+00 2.597542e-01 7.402458e-01
 0.000000e+00 0.000000e+00 0.000000e+00 0.000000e+00 0.000000e+00 0.000000e+00 0.000000e+00 0.000000e+00
<ENDHMM>
~h "sil"
<BEGINHMM>
<NUMSTATES> 8
<STATE> 2
<MEAN> 1
 3.561840e-01
<VARIANCE> 1
 2.099939e+00
<GCONST> 2.579785e+00
<STATE> 3
<MEAN> 1
 -3.282079e+00
<VARIANCE> 1
 1.094464e+00
<GCONST> 1.928142e+00
<STATE> 4
<MEAN> 1
 3.941789e-01
<VARIANCE> 1
 4.194571e+00
<GCONST> 3.271668e+00
<STATE> 5
<MEAN> 1
 9.332533e+00
<VARIANCE> 1
 9.810328e+00
<GCONST> 4.121313e+00
<STATE> 6
<MEAN> 1
 1.903514e+00
<VARIANCE> 1
 1.273709e+00
<GCONST> 2.079810e+00
<STATE> 7
<MEAN> 1
 2.013779e-01
<VARIANCE> 1
 1.363500e+00
<GCONST> 2.147932e+00
<TRANSP> 8
 0.000000e+00 1.000000e+00 0.000000e+00 0.000000e+00 0.000000e+00 0.000000e+00 0.000000e+00 0.000000e+00
 0.000000e+00 9.639131e-01 3.608682e-02 0.000000e+00 0.000000e+00 0.000000e+00 0.000000e+00 0.000000e+00
 0.000000e+00 0.000000e+00 9.792873e-01 2.071271e-02 0.000000e+00 0.000000e+00 0.000000e+00 0.000000e+00
 0.000000e+00 0.000000e+00 0.000000e+00 0.000000e+00 1.000000e+00 0.000000e+00 0.000000e+00 0.000000e+00
 0.000000e+00 0.000000e+00 0.000000e+00 0.000000e+00 9.399386e-01 6.006138e-02 0.000000e+00 0.000000e+00
 0.000000e+00 0.000000e+00 0.000000e+00 0.000000e+00 0.000000e+00 9.113602e-01 8.863977e-02 0.000000e+00
 0.000000e+00 0.000000e+00 0.000000e+00 0.000000e+00 0.000000e+00 0.000000e+00 0.000000e+00 1.000000e+00
 0.000000e+00 0.000000e+00 0.000000e+00 0.000000e+00 0.000000e+00 0.000000e+00 0.000000e+00 0.000000e+00
<ENDHMM>
