~o
<STREAMINFO> 1 1
<VECSIZE> 1<NULLD><USER><DIAGC>
~h "a"
<BEGINHMM>
<NUMSTATES> 8
<STATE> 2
<MEAN> 1
 3.374815e+00
<VARIANCE> 1
 2.988324e+00
<GCONST> 2.932590e+00
<STATE> 3
<MEAN> 1
 9.273664e+00
<VARIANCE> 1
 2.748295e+00
<GCONST> 2.848858e+00
<STATE> 4
<MEAN> 1
 5.498358e+00
<VARIANCE> 1
 1.570001e+00
<GCONST> 2.288954e+00
<STATE> 5
<MEAN> 1
 2.094517e+00
<VARIANCE> 1
 3.232333e-01
<GCONST> 7.084962e-01
<STATE> 6
<MEAN> 1
 3.452061e+00
<VARIANCE> 1
 1.178212e+00
<GCONST> 2.001875e+00
<STATE> 7
<MEAN> 1
 7.279470e-01
<VARIANCE> 1
 1.234647e-01
<GCONST> -2.539229e-01
<TRANSP> 8
 0.000000e+00 1.000000e+00 0.000000e+00 0.000000e+00 0.000000e+00 0.000000e+00 0.000000e+00 0.000000e+00
 0.000000e+00 9.242848e-01 7.571524e-02 0.000000e+00 0.000000e+00 0.000000e+00 0.000000e+00 0.000000e+00
 0.000000e+00 0.000000e+00 9.832132e-01 1.678673e-02 0.000000e+00 0.000000e+00 0.000000e+00 0.000000e+00
 0.000000e+00 0.000000e+00 0.000000e+00 9.726438e-01 2.735624e-02 0.000000e+00 0.000000e+00 0.000000e+00
 0.000000e+00 0.000000e+00 0.000000e+00 0.000000e+00 9.614175e-01 3.858251e-02 0.000000e+00 0.000000e+00
 0.000000e+00 0.000000e+00 0.000000e+00 0.000000e+00 0.000000e+00 9.277124e-01 7.228765e-02 0.000000e+00
 0.000000e+00 0.000000e+00 0.000000e+00 0.000000e+00 0.000000e+00 0.000000e+00 9.235924e-01 7.640760e-02
 0.000000e+00 0.000000e+00 0.000000e+00 0.000000e+00 0.000000e+00 0.000000e+00 0.000000e+00 0.000000e+00
<ENDHMM>
~h "e"
<BEGINHMM>
<NUMSTATES> 8
<STATE> 2
<MEAN> 1
 -2.805717e-03
<VARIANCE> 1
 1.000000e-02
<GCONST> -2.767293e+00
<STATE> 3
<MEAN> 1
 5.749210e+00
<VARIANCE> 1
 1.621795e+01
<GCONST> 4.623996e+00
<STATE> 4
<MEAN> 1
 -9.416543e-01
<VARIANCE> 1
 2.213213e-01
<GCONST> 3.297373e-01
<STATE> 5
<MEAN> 1
 -1.812360e+00
<VARIANCE> 1
 4.688861e-02
<GCONST> -1.222104e+00
<STATE> 6
<MEAN> 1
 -3.164513e+00
<VARIANCE> 1
 7.859081e-01
<GCONST> 1.596962e+00
<STATE> 7
<MEAN> 1
 -6.646279e+00
<VARIANCE> 1
 1.590406e+00
<GCONST> 2.301867e+00
<TRANSP> 8
 0.000000e+00 1.000000e+00 0.000000e+00 0.000000e+00 0.000000e+00 0.000000e+00 0.000000e+00 0.000000e+00
 0.000000e+00 9.930999e-01 6.900063e-03 0.000000e+00 0.000000e+00 0.000000e+00 0.000000e+00 0.000000e+00
 0.000000e+00 0.000000e+00 8.722365e-01 1.277635e-01 0.000000e+00 0.000000e+00 0.000000e+00 0.000000e+00
 0.000000e+00 0.000000e+00 0.000000e+00 9.682756e-01 3.172445e-02 0.000000e+00 0.000000e+00 0.000000e+00
 0.000000e+00 0.000000e+00 0.000000e+00 0.000000e+00 0.000000e+00 1.000000e+00 0.000000e+00 0.000000e+00
 0.000000e+00 0.000000e+00 0.000000e+00 0.000000e+00 0.000000e+00 9.721090e-01 2.789104e-02 0.000000e+00
 0.000000e+00 0.000000e+00 0.000000e+00 0.000000e+00 0.000000e+00 0.000000e+00 9.670262e-01 3.297381e-02
 0.000000e+00 0.000000e+00 0.000000e+00 0.000000e+00 0.000000e+00 0.000000e+00 0.000000e+00 0.000000e+00
<ENDHMM>
~h "i"
<BEGINHMM>
<NUMSTATES> 8
<STATE> 2
<MEAN> 1
 -5.258336e+00
<VARIANCE> 1
 3.978479e+00
<GCONST> 3.218777e+00
<STATE> 3
<MEAN> 1
 -9.770635e+00
<VARIANCE> 1
 1.056825e+00
<GCONST> 1.893146e+00
<STATE> 4
<MEAN> 1
 -6.995961e+00
<VARIANCE> 1
 8.736848e-01
<GCONST> 1.702841e+00
<STATE> 5
<MEAN> 1
 -4.310378e+00
<VARIANCE> 1
 4.722572e-01
<GCONST> 1.087646e+00
<STATE> 6
<MEAN> 1
 -2.131445e+00
<VARIANCE> 1
 2.978891e-01
<GCONST> 6.268432e-01
<STATE> 7
<MEAN> 1
 -7.313107e-01
<VARIANCE> 1
 6.246299e-02
<GCONST> -9.353039e-01
<TRANSP> 8
 0.000000e+00 1.000000e+00 0.000000e+00 0.000000e+00 0.000000e+00 0.000000e+00 0.000000e+00 0.000000e+00
 0.000000e+00 7.295305e-01 2.704695e-01 0.000000e+00 0.000000e+00 0.000000e+00 0.000000e+00 0.000000e+00
 0.000000e+00 0.000000e+00 9.842736e-01 1.572643e-02 0.000000e+00 0.000000e+00 0.000000e+00 0.000000e+00
 0.000000e+00 0.000000e+00 0.000000e+00 9.780685e-01 2.193149e-02 0.000000e+00 0.000000e+00 0.000000e+00
 0.000000e+00 0.000000e+00 0.000000e+00 0.000000e+00 9.509994e-01 4.900067e-02 0.000000e+00 0.000000e+00
 0.000000e+00 0.000000e+00 0.000000e+00 0.000000e+00 0.000000e+00 9.426056e-01 5.739449e-02 0.000000e+00
 0.000000e+00 0.000000e+00 0.000000e+00 0.000000e+00 0.000000e+00 0.000000e+00 8.677993e-01 1.322006e-01
 0.000000e+00 0.000000e+00 0.000000e+00 0.000000e+00 0.000000e+00 0.000000e+00 0.000000e+00 0.000000e+00
<ENDHMM>
~h "m"
<BEGINHMM>
<NUMSTATES> 8
<STATE> 2
<MEAN> 1
 -2.455849e-01
<VARIANCE> 1
 1.000000e-02
<GCONST> -2.767293e+00
<STATE> 3
<MEAN> 1
 1.650338e-03
<VARIANCE> 1
 1.000000e-02
<GCONST> -2.767293e+00
<STATE> 4
<MEAN> 1
 9.105293e-01
<VARIANCE> 1
 2.169799e-01
<GCONST> 3.099266e-01
<STATE> 5
<MEAN> 1
 1.548736e+00
<VARIANCE> 1
 3.004426e-01
<GCONST> 6.353785e-01
<STATE> 6
<MEAN> 1
 2.996886e+00
<VARIANCE> 1
 6.662113e-01
<GCONST> 1.431729e+00
<STATE> 7
<MEAN> 1
 6.339989e+00
<VARIANCE> 1
 2.357066e+00
<GCONST> 2.695295e+00
<TRANSP> 8
 0.000000e+00 1.000000e+00 0.000000e+00 0.000000e+00 0.000000e+00 0.000000e+00 0.000000e+00 0.000000e+00
 0.000000e+00 3.364016e-01 6.635984e-01 0.000000e+00 0.000000e+00 0.000000e+00 0.000000e+00 0.000000e+00
 0.000000e+00 0.000000e+00 9.932084e-01 6.791623e-03 0.000000e+00 0.000000e+00 0.000000e+00 0.000000e+00
 0.000000e+00 0.000000e+00 0.000000e+00 9.641094e-01 3.589061e-02 0.000000e+00 0.000000e+00 0.000000e+00
 0.000000e+00 0.000000e+00 0.000000e+00 0.000000e+00 8.962343e-02 9.103765e-01 0.000000e+00 0.000000e+00
 0.000000e+00 0.000000e+00 0.000000e+00 0.000000e+00 0.000000e+00 9.672185e-01 3.278149e-02 0.000000e+00
 0.000000e+00 0.000000e+00 0.000000e+00 0.000000e+00 0.000000e+00 0.000000e+00 9.543694e-01 4.563066e-02
 0.000000e+00 0.000000e+00 0.000000e+00 0.000000e+00 0.000000e+00 0.000000e+00 0.000000e+00 0.000000e+00
<ENDHMM>
~h "sil"
<BEGINHMM>
<NUMSTATES> 8
<STATE> 2
<MEAN> 1
 -2.858026e+00
<VARIANCE> 1
 3.079410e+00
<GCONST> 2.962615e+00
<STATE> 3
<MEAN> 1
 3.079841e+00
<VARIANCE> 1
 1.562747e+01
<GCONST> 4.586907e+00
<STATE> 4
<MEAN> 1
 1.076476e+01
<VARIANCE> 1
 4.572717e+00
<GCONST> 3.357985e+00
<STATE> 5
<MEAN> 1
 6.362526e+00
<VARIANCE> 1
 4.089801e+00
<GCONST> 3.246373e+00
<STATE> 6
<MEAN> 1
 2.973803e+00
<VARIANCE> 1
 2.005277e+00
<GCONST> 2.533659e+00
<STATE> 7
<MEAN> 1
 7.102044e-02
<VARIANCE> 1
 9.206429e-01
<GCONST> 1.755194e+00
<TRANSP> 8
 0.000000e+00 1.000000e+00 0.000000e+00 0.000000e+00 0.000000e+00 0.000000e+00 0.000000e+00 0.000000e+00
 0.000000e+00 9.694525e-01 3.054754e-02 0.000000e+00 0.000000e+00 0.000000e+00 0.000000e+00 0.000000e+00
 0.000000e+00 0.000000e+00 0.000000e+00 1.000000e+00 0.000000e+00 0.000000e+00 0.000000e+00 0.000000e+00
 0.000000e+00 0.000000e+00 0.000000e+00 9.771491e-01 2.285095e-02 0.000000e+00 0.000000e+00 0.000000e+00
 0.000000e+00 0.000000e+00 0.000000e+00 0.000000e+00 9.227745e-01 7.722548e-02 0.000000e+00 0.000000e+00
 0.000000e+00 0.000000e+00 0.000000e+00 0.000000e+00 0.000000e+00 8.435488e-01 1.564511e-01 0.000000e+00
 0.000000e+00 0.000000e+00 0.000000e+00 0.000000e+00 0.000000e+00 0.000000e+00 9.608302e-01 3.916980e-02
 0.000000e+00 0.000000e+00 0.000000e+00 0.000000e+00 0.000000e+00 0.000000e+00 0.000000e+00 0.000000e+00
<ENDHMM>
