~o
<STREAMINFO> 1 1
<VECSIZE> 1<NULLD><USER><DIAGC>
~h "a"
<BEGINHMM>
<NUMSTATES> 8
<STATE> 2
<MEAN> 1
 8.673236e+00
<VARIANCE> 1
 1.815106e+00
<GCONST> 2.434021e+00
<STATE> 3
<MEAN> 1
 1.442325e+01
<VARIANCE> 1
 3.627516e+00
<GCONST> 3.126425e+00
<STATE> 4
<MEAN> 1
 1.081500e+01
<VARIANCE> 1
 1.581475e+00
<GCONST> 2.296235e+00
<STATE> 5
<MEAN> 1
 8.228329e+00
<VARIANCE> 1
 1.067917e+00
<GCONST> 1.903587e+00
<STATE> 6
<MEAN> 1
 6.364913e+00
<VARIANCE> 1
 1.361304e+00
<GCONST> 2.146320e+00
<STATE> 7
<MEAN> 1
 2.915952e+00
<VARIANCE> 1
 1.326284e+00
<GCONST> 2.120258e+00
<TRANSP> 8
 0.000000e+00 1.000000e+00 0.000000e+00 0.000000e+00 0.000000e+00 0.000000e+00 0.000000e+00 0.000000e+00
 0.000000e+00 9.470431e-01 5.295692e-02 0.000000e+00 0.000000e+00 0.000000e+00 0.000000e+00 0.000000e+00
 0.000000e+00 0.000000e+00 9.720205e-01 2.797953e-02 0.000000e+00 0.000000e+00 0.000000e+00 0.000000e+00
 0.000000e+00 0.000000e+00 0.000000e+00 9.476376e-01 5.236235e-02 0.000000e+00 0.000000e+00 0.000000e+00
 0.000000e+00 0.000000e+00 0.000000e+00 0.000000e+00 0.000000e+00 1.000000e+00 0.000000e+00 0.000000e+00
 0.000000e+00 0.000000e+00 0.000000e+00 0.000000e+00 0.000000e+00 9.146370e-01 8.536293e-02 0.000000e+00
 0.000000e+00 0.000000e+00 0.000000e+00 0.000000e+00 0.000000e+00 0.000000e+00 8.787727e-01 1.212273e-01
 0.000000e+00 0.000000e+00 0.000000e+00 0.000000e+00 0.000000e+00 0.000000e+00 0.000000e+00 0.000000e+00
<ENDHMM>
~h "e"
<BEGINHMM>
<NUMSTATES> 8
<STATE> 2
<MEAN> 1
 5.496721e+00
<VARIANCE> 1
 3.648097e+01
<GCONST> 5.434668e+00
<STATE> 3
<MEAN> 1
 -4.008819e-01
<VARIANCE> 1
 5.032305e-01
<GCONST> 1.151170e+00
<STATE> 4
<MEAN> 1
 -2.147047e+00
<VARIANCE> 1
 6.727130e-02
<GCONST> -8.611445e-01
<STATE> 5
<MEAN> 1
 -2.618537e+00
<VARIANCE> 1
 1.272733e-01
<GCONST> -2.235415e-01
<STATE> 6
<MEAN> 1
 -5.989477e+00
<VARIANCE> 1
 2.059071e+00
<GCONST> 2.560132e+00
<STATE> 7
<MEAN> 1
 -4.032555e+00
<VARIANCE> 1
 9.807649e-01
<GCONST> 1.818455e+00
<TRANSP> 8
 0.000000e+00 1.000000e+00 0.000000e+00 0.000000e+00 0.000000e+00 0.000000e+00 0.000000e+00 0.000000e+00
 0.000000e+00 7.802550e-01 2.197450e-01 0.000000e+00 0.000000e+00 0.000000e+00 0.000000e+00 0.000000e+00
 0.000000e+00 0.000000e+00 9.549018e-01 4.509824e-02 0.000000e+00 0.000000e+00 0.000000e+00 0.000000e+00
 0.000000e+00 0.000000e+00 0.000000e+00 0.000000e+00 1.000000e+00 0.000000e+00 0.000000e+00 0.000000e+00
 0.000000e+00 0.000000e+00 0.000000e+00 0.000000e+00 0.000000e+00 1.000000e+00 0.000000e+00 0.000000e+00
 0.000000e+00 0.000000e+00 0.000000e+00 0.000000e+00 0.000000e+00 9.475371e-01 5.246283e-02 0.000000e+00
 0.000000e+00 0.000000e+00 0.000000e+00 0.000000e+00 0.000000e+00 0.000000e+00 9.494992e-01 5.050080e-02
 0.000000e+00 0.000000e+00 0.000000e+00 0.000000e+00 0.000000e+00 0.000000e+00 0.000000e+00 0.000000e+00
<ENDHMM>
~h "i"
<BEGINHMM>
<NUMSTATES> 8
<STATE> 2
<MEAN> 1
 -7.727693e+00
<VARIANCE> 1
 1.983683e+00
<GCONST> 2.522832e+00
<STATE> 3
<MEAN> 1
 -3.079646e+00
<VARIANCE> 1
 1.149892e+00
<GCONST> 1.977545e+00
<STATE> 4
<MEAN> 1
 1.670608e+00
<VARIANCE> 1
 3.604887e+00
<GCONST> 3.120167e+00
<STATE> 5
<MEAN> 1
 -1.601969e-01
<VARIANCE> 1
 1.834548e-01
<GCONST> 1.420902e-01
<STATE> 6
<MEAN> 1
 -4.169416e+00
<VARIANCE> 1
 5.896364e+00
<GCONST> 3.612213e+00
<STATE> 7
<MEAN> 1
 3.347160e+00
<VARIANCE> 1
 9.813483e+00
<GCONST> 4.121634e+00
<TRANSP> 8
 0.000000e+00 1.000000e+00 0.000000e+00 0.000000e+00 0.000000e+00 0.000000e+00 0.000000e+00 0.000000e+00
 0.000000e+00 9.718579e-01 2.814209e-02 0.000000e+00 0.000000e+00 0.000000e+00 0.000000e+00 0.000000e+00
 0.000000e+00 0.000000e+00 9.169930e-01 8.300700e-02 0.000000e+00 0.000000e+00 0.000000e+00 0.000000e+00
 0.000000e+00 0.000000e+00 0.000000e+00 8.751383e-01 1.248618e-01 0.000000e+00 0.000000e+00 0.000000e+00
 0.000000e+00 0.000000e+00 0.000000e+00 0.000000e+00 9.383205e-01 6.167953e-02 0.000000e+00 0.000000e+00
 0.000000e+00 0.000000e+00 0.000000e+00 0.000000e+00 0.000000e+00 8.946316e-01 1.053685e-01 0.000000e+00
 0.000000e+00 0.000000e+00 0.000000e+00 0.000000e+00 0.000000e+00 0.000000e+00 8.274610e-01 1.725391e-01
 0.000000e+00 0.000000e+00 0.000000e+00 0.000000e+00 0.000000e+00 0.000000e+00 0.000000e+00 0.000000e+00
<ENDHMM>
~h "m"
<BEGINHMM>
<NUMSTATES> 8
<STATE> 2
<MEAN> 1
 -9.675814e-01
<VARIANCE> 1
 7.976179e-01
<GCONST> 1.611751e+00
<STATE> 3
<MEAN> 1
 1.266339e+00
<VARIANCE> 1
 5.057302e-01
<GCONST> 1.156125e+00
<STATE> 4
<MEAN> 1
 2.158737e+00
<VARIANCE> 1
 1.123998e+00
<GCONST> 1.954769e+00
<STATE> 5
<MEAN> 1
 2.807596e+00
<VARIANCE> 1
 1.750822e+00
<GCONST> 2.397963e+00
<STATE> 6
<MEAN> 1
 9.538158e+00
<VARIANCE> 1
 1.391889e+01
<GCONST> 4.471124e+00
<STATE> 7
<MEAN> 1
 4.886208e+00
<VARIANCE> 1
 1.900163e+00
<GCONST> 2.479817e+00
<TRANSP> 8
 0.000000e+00 1.000000e+00 0.000000e+00 0.000000e+00 0.000000e+00 0.000000e+00 0.000000e+00 0.000000e+00
 0.000000e+00 9.146777e-01 8.532225e-02 0.000000e+00 0.000000e+00 0.000000e+00 0.000000e+00 0.000000e+00
 0.000000e+00 0.000000e+00 9.019877e-01 9.801233e-02 0.000000e+00 0.000000e+00 0.000000e+00 0.000000e+00
 0.000000e+00 0.000000e+00 0.000000e+00 0.000000e+00 1.000000e+00 0.000000e+00 0.000000e+00 0.000000e+00
 0.000000e+00 0.000000e+00 0.000000e+00 0.000000e+00 0.000000e+00 1.000000e+00 0.000000e+00 0.000000e+00
 0.000000e+00 0.000000e+00 0.000000e+00 0.000000e+00 0.000000e+00 8.791116e-01 1.208884e-01 0.000000e+00
 0.000000e+00 0.000000e+00 0.000000e+00 0.000000e+00 0.000000e+00 0.000000e+00 9.156076e-01 8.439233e-02
 0.000000e+00 0.000000e+00 0.000000e+00 0.000000e+00 0.000000e+00 0.000000e+00 0.000000e+00 0.000000e+00
<ENDHMM>
~h "sil"
<BEGINHMM>
<NUMSTATES> 8
<STATE> 2
<MEAN> 1
 4.335499e-01
<VARIANCE> 1
 5.924092e-01
<GCONST> 1.314319e+00
<STATE> 3
<MEAN> 1
 3.018150e+00
<VARIANCE> 1
 1.791671e+00
<GCONST> 2.421026e+00
<STATE> 4
<MEAN> 1
 5.752722e+00
<VARIANCE> 1
 2.395011e+00
<GCONST> 2.711265e+00
<STATE> 5
<MEAN> 1
 5.645008e+00
<VARIANCE> 1
 1.830882e+01
<GCONST> 4.745260e+00
<STATE> 6
<MEAN> 1
 4.818341e+00
<VARIANCE> 1
 1.685209e+01
<GCONST> 4.662352e+00
<STATE> 7
<MEAN> 1
 1.097361e+01
<VARIANCE> 1
 1.281349e+01
<GCONST> 4.388376e+00
<TRANSP> 8
 0.000000e+00 1.000000e+00 0.000000e+00 0.000000e+00 0.000000e+00 0.000000e+00 0.000000e+00 0.000000e+00
 0.000000e+00 9.366682e-01 6.333178e-02 0.000000e+00 0.000000e+00 0.000000e+00 0.000000e+00 0.000000e+00
 0.000000e+00 0.000000e+00 9.220313e-01 7.796872e-02 0.000000e+00 0.000000e+00 0.000000e+00 0.000000e+00
 0.000000e+00 0.000000e+00 0.000000e+00 9.012468e-01 9.875310e-02 0.000000e+00 0.000000e+00 0.000000e+00
 0.000000e+00 0.000000e+00 0.000000e+00 0.000000e+00 7.262853e-01 2.737147e-01 0.000000e+00 0.000000e+00
 0.000000e+00 0.000000e+00 0.000000e+00 0.000000e+00 0.000000e+00 0.000000e+00 1.000000e+00 0.000000e+00
 0.000000e+00 0.000000e+00 0.000000e+00 0.000000e+00 0.000000e+00 0.000000e+00 8.916721e-01 1.083279e-01
 0.000000e+00 0.000000e+00 0.000000e+00 0.000000e+00 0.000000e+00 0.000000e+00 0.000000e+00 0.000000e+00
<ENDHMM>
