~o
<STREAMINFO> 1 26
<VECSIZE> 26<NULLD><MFCC_E_D><DIAGC>
~h "L"
<BEGINHMM>
<NUMSTATES> 5
<STATE> 2
<MEAN> 26
 1.981930e+00 -1.977892e+00 -7.621824e+00 -1.385178e+01 -1.195659e+01 8.702354e-01 -8.771096e+00 -2.782668e+00 -4.542891e+00 -6.403825e-01 -2.144215e+00 -1.131863e+00 7.019417e-01 5.946880e-01 -1.325066e-01 -1.012206e-01 -6.999946e-01 -2.453657e-01 1.955619e-01 -6.655180e-01 3.249784e-01 -1.955927e-01 -2.518205e-01 2.362643e-01 1.033556e-01 1.907237e-02
<VARIANCE> 26
 1.291565e+01 4.451275e+01 4.557944e+01 7.377132e+01 4.266235e+01 6.362458e+01 3.814077e+01 3.811499e+01 4.568747e+01 4.476873e+01 3.173985e+01 1.585182e+01 5.000000e-02 1.880503e+00 2.807219e+00 3.556749e+00 2.683345e+00 4.275252e+00 4.740196e+00 2.892751e+00 3.718677e+00 2.476738e+00 2.908322e+00 3.248648e+00 9.032291e-01 5.000000e-02
<GCONST> 9.765550e+01
<STATE> 3
<MEAN> 26
 2.836073e+00 -9.933936e+00 -7.693208e+00 -7.716917e+00 -1.367352e+01 -4.473687e+00 -1.131288e+01 4.709805e+00 -1.292442e+00 -1.188595e+00 -9.693558e-01 -1.697484e+00 7.847993e-01 -3.677259e-01 -1.951599e-01 2.103957e-01 1.675666e-01 -1.854229e-01 2.027299e-01 6.463656e-01 -2.924671e-01 -1.671501e-01 2.681926e-01 2.536050e-02 -2.699799e-01 -2.058280e-04
<VARIANCE> 26
 9.260255e+00 4.124241e+01 9.072836e+01 5.755199e+01 3.089672e+01 7.680695e+01 3.179099e+01 6.330888e+01 4.321214e+01 2.583138e+01 1.732714e+01 1.370696e+01 5.000000e-02 3.948508e-01 2.405410e+00 2.273469e+00 2.188559e+00 3.378742e+00 2.866233e+00 2.390139e+00 1.924109e+00 2.174467e+00 1.376373e+00 1.930489e+00 1.570231e+00 5.000000e-02
<GCONST> 9.172072e+01
<STATE> 4
<MEAN> 26
 -1.889235e+00 -5.153368e+00 -3.652716e+00 -8.912801e+00 -1.075351e+01 -3.212692e+00 -8.676349e+00 -1.960798e+00 -3.932117e+00 1.554291e+00 -2.653344e+00 -1.228714e+00 6.942989e-01 -1.842436e+00 7.017330e-02 9.921324e-01 1.032982e+00 3.966353e-01 -8.892781e-01 8.672449e-01 -6.117755e-02 1.450586e-01 1.211188e-01 -2.805556e-01 2.700883e-01 -2.774234e-02
<VARIANCE> 26
 3.113780e+01 5.116027e+01 1.044566e+02 6.245452e+01 7.244110e+01 8.830107e+01 5.124525e+01 6.439021e+01 5.776443e+01 2.077018e+01 3.370559e+01 2.286943e+01 5.000000e-02 4.800716e+00 5.068799e+00 2.364119e+00 4.344148e+00 7.399189e+00 6.559095e+00 5.895915e+00 4.420506e+00 4.168296e+00 2.314400e+00 2.875458e+00 2.285843e+00 5.000000e-02
<GCONST> 1.053658e+02
<TRANSP> 5
 0.000000e+00 1.000000e+00 0.000000e+00 0.000000e+00 0.000000e+00
 0.000000e+00 5.912483e-01 4.087518e-01 0.000000e+00 0.000000e+00
 0.000000e+00 0.000000e+00 5.591201e-01 4.408800e-01 0.000000e+00
 0.000000e+00 0.000000e+00 0.000000e+00 5.381805e-01 4.618195e-01
 0.000000e+00 0.000000e+00 0.000000e+00 0.000000e+00 0.000000e+00
<ENDHMM>
