~o
<STREAMINFO> 1 1
<VECSIZE> 1<NULLD><USER><DIAGC>
~h "a"
<BEGINHMM>
<NUMSTATES> 8
<STATE> 2
<MEAN> 1
 -7.237048e-01
<VARIANCE> 1
 5.783986e-01
<GCONST> 1.290385e+00
<STATE> 3
<MEAN> 1
 2.287501e+00
<VARIANCE> 1
 9.734611e+00
<GCONST> 4.113564e+00
<STATE> 4
<MEAN> 1
 5.497112e-02
<VARIANCE> 1
 1.124837e-01
<GCONST> -3.470702e-01
<STATE> 5
<MEAN> 1
 1.635335e+00
<VARIANCE> 1
 2.434811e-01
<GCONST> 4.251612e-01
<STATE> 6
<MEAN> 1
 3.329983e+00
<VARIANCE> 1
 4.775752e-01
<GCONST> 1.098843e+00
<STATE> 7
<MEAN> 1
 7.168332e+00
<VARIANCE> 1
 3.368764e+00
<GCONST> 3.052423e+00
<TRANSP> 8
 0.000000e+00 1.000000e+00 0.000000e+00 0.000000e+00 0.000000e+00 0.000000e+00 0.000000e+00 0.000000e+00
 0.000000e+00 3.957812e-01 6.042188e-01 0.000000e+00 0.000000e+00 0.000000e+00 0.000000e+00 0.000000e+00
 0.000000e+00 0.000000e+00 5.137835e-01 4.862164e-01 0.000000e+00 0.000000e+00 0.000000e+00 0.000000e+00
 0.000000e+00 0.000000e+00 0.000000e+00 9.850540e-01 1.494609e-02 0.000000e+00 0.000000e+00 0.000000e+00
 0.000000e+00 0.000000e+00 0.000000e+00 0.000000e+00 9.779052e-01 2.209478e-02 0.000000e+00 0.000000e+00
 0.000000e+00 0.000000e+00 0.000000e+00 0.000000e+00 0.000000e+00 9.806150e-01 1.938503e-02 0.000000e+00
 0.000000e+00 0.000000e+00 0.000000e+00 0.000000e+00 0.000000e+00 0.000000e+00 9.818694e-01 1.813060e-02
 0.000000e+00 0.000000e+00 0.000000e+00 0.000000e+00 0.000000e+00 0.000000e+00 0.000000e+00 0.000000e+00
<ENDHMM>
~h "e"
<BEGINHMM>
<NUMSTATES> 8
<STATE> 2
<MEAN> 1
 3.344634e+00
<VARIANCE> 1
 1.821806e+00
<GCONST> 2.437706e+00
<STATE> 3
<MEAN> 1
 8.617237e+00
<VARIANCE> 1
 3.766891e+00
<GCONST> 3.164127e+00
<STATE> 4
<MEAN> 1
 1.463431e-02
<VARIANCE> 1
 3.049742e-01
<GCONST> 6.503490e-01
<STATE> 5
<MEAN> 1
 3.149886e+00
<VARIANCE> 1
 3.629899e+00
<GCONST> 3.127082e+00
<STATE> 6
<MEAN> 1
 -2.197740e+00
<VARIANCE> 1
 8.649568e-01
<GCONST> 1.692801e+00
<STATE> 7
<MEAN> 1
 -3.893593e+00
<VARIANCE> 1
 1.167469e+00
<GCONST> 1.992715e+00
<TRANSP> 8
 0.000000e+00 1.000000e+00 0.000000e+00 0.000000e+00 0.000000e+00 0.000000e+00 0.000000e+00 0.000000e+00
 0.000000e+00 9.695700e-01 3.042996e-02 0.000000e+00 0.000000e+00 0.000000e+00 0.000000e+00 0.000000e+00
 0.000000e+00 0.000000e+00 9.825481e-01 1.745193e-02 0.000000e+00 0.000000e+00 0.000000e+00 0.000000e+00
 0.000000e+00 0.000000e+00 0.000000e+00 9.858302e-01 1.416978e-02 0.000000e+00 0.000000e+00 0.000000e+00
 0.000000e+00 0.000000e+00 0.000000e+00 0.000000e+00 9.137191e-01 8.628096e-02 0.000000e+00 0.000000e+00
 0.000000e+00 0.000000e+00 0.000000e+00 0.000000e+00 0.000000e+00 9.810176e-01 1.898233e-02 0.000000e+00
 0.000000e+00 0.000000e+00 0.000000e+00 0.000000e+00 0.000000e+00 0.000000e+00 7.116837e-01 2.883163e-01
 0.000000e+00 0.000000e+00 0.000000e+00 0.000000e+00 0.000000e+00 0.000000e+00 0.000000e+00 0.000000e+00
<ENDHMM>
~h "i"
<BEGINHMM>
<NUMSTATES> 8
<STATE> 2
<MEAN> 1
 -3.099741e+00
<VARIANCE> 1
 2.884186e+00
<GCONST> 2.897120e+00
<STATE> 3
<MEAN> 1
 -3.287756e+00
<VARIANCE> 1
 2.474832e+00
<GCONST> 2.744050e+00
<STATE> 4
<MEAN> 1
 -8.051133e+00
<VARIANCE> 1
 3.232415e+00
<GCONST> 3.011106e+00
<STATE> 5
<MEAN> 1
 -1.609431e+00
<VARIANCE> 1
 1.089431e+00
<GCONST> 1.923532e+00
<STATE> 6
<MEAN> 1
 -6.403214e+00
<VARIANCE> 1
 1.320285e+00
<GCONST> 2.115725e+00
<STATE> 7
<MEAN> 1
 -3.155056e+00
<VARIANCE> 1
 8.199196e-01
<GCONST> 1.639328e+00
<TRANSP> 8
 0.000000e+00 1.000000e+00 0.000000e+00 0.000000e+00 0.000000e+00 0.000000e+00 0.000000e+00 0.000000e+00
 0.000000e+00 4.939431e-02 9.506056e-01 0.000000e+00 0.000000e+00 0.000000e+00 0.000000e+00 0.000000e+00
 0.000000e+00 0.000000e+00 0.000000e+00 1.000000e+00 0.000000e+00 0.000000e+00 0.000000e+00 0.000000e+00
 0.000000e+00 0.000000e+00 0.000000e+00 9.662021e-01 3.379796e-02 0.000000e+00 0.000000e+00 0.000000e+00
 0.000000e+00 0.000000e+00 0.000000e+00 0.000000e+00 9.126359e-01 8.736412e-02 0.000000e+00 0.000000e+00
 0.000000e+00 0.000000e+00 0.000000e+00 0.000000e+00 0.000000e+00 9.901640e-01 9.835962e-03 0.000000e+00
 0.000000e+00 0.000000e+00 0.000000e+00 0.000000e+00 0.000000e+00 0.000000e+00 9.795970e-01 2.040298e-02
 0.000000e+00 0.000000e+00 0.000000e+00 0.000000e+00 0.000000e+00 0.000000e+00 0.000000e+00 0.000000e+00
<ENDHMM>
~h "m"
<BEGINHMM>
<NUMSTATES> 8
<STATE> 2
<MEAN> 1
 -3.737406e+00
<VARIANCE> 1
 2.955851e+00
<GCONST> 2.921664e+00
<STATE> 3
<MEAN> 1
 -3.282483e-02
<VARIANCE> 1
 1.415538e-01
<GCONST> -1.171986e-01
<STATE> 4
<MEAN> 1
 -8.034493e-01
<VARIANCE> 1
 5.957757e-01
<GCONST> 1.319986e+00
<STATE> 5
<MEAN> 1
 -7.410378e-01
<VARIANCE> 1
 5.529222e-01
<GCONST> 1.245339e+00
<STATE> 6
<MEAN> 1
 -6.784410e-01
<VARIANCE> 1
 5.128714e-01
<GCONST> 1.170147e+00
<STATE> 7
<MEAN> 1
 -4.133620e-01
<VARIANCE> 1
 9.814162e-01
<GCONST> 1.819118e+00
<TRANSP> 8
 0.000000e+00 1.000000e+00 0.000000e+00 0.000000e+00 0.000000e+00 0.000000e+00 0.000000e+00 0.000000e+00
 0.000000e+00 8.051527e-01 1.948473e-01 0.000000e+00 0.000000e+00 0.000000e+00 0.000000e+00 0.000000e+00
 0.000000e+00 0.000000e+00 9.767850e-01 2.321497e-02 0.000000e+00 0.000000e+00 0.000000e+00 0.000000e+00
 0.000000e+00 0.000000e+00 0.000000e+00 0.000000e+00 1.000000e+00 0.000000e+00 0.000000e+00 0.000000e+00
 0.000000e+00 0.000000e+00 0.000000e+00 0.000000e+00 0.000000e+00 1.000000e+00 0.000000e+00 0.000000e+00
 0.000000e+00 0.000000e+00 0.000000e+00 0.000000e+00 0.000000e+00 0.000000e+00 1.000000e+00 0.000000e+00
 0.000000e+00 0.000000e+00 0.000000e+00 0.000000e+00 0.000000e+00 0.000000e+00 2.259665e-01 7.740335e-01
 0.000000e+00 0.000000e+00 0.000000e+00 0.000000e+00 0.000000e+00 0.000000e+00 0.000000e+00 0.000000e+00
<ENDHMM>
~h "sil"
<BEGINHMM>
<NUMSTATES> 8
<STATE> 2
<MEAN> 1
 9.758148e-02
<VARIANCE> 1
 2.534937e+00
<GCONST> 2.768046e+00
<STATE> 3
<MEAN> 1
 -3.126324e+00
<VARIANCE> 1
 1.246344e+00
<GCONST> 2.058091e+00
<STATE> 4
<MEAN> 1
 5.252904e-01
<VARIANCE> 1
 3.961752e+00
<GCONST> 3.214563e+00
<STATE> 5
<MEAN> 1
 9.493393e+00
<VARIANCE> 1
 9.337703e+00
<GCONST> 4.071938e+00
<STATE> 6
<MEAN> 1
 2.585661e+00
<VARIANCE> 1
 2.149757e+00
<GCONST> 2.603232e+00
<STATE> 7
<MEAN> 1
 3.515650e-01
<VARIANCE> 1
 1.308740e+00
<GCONST> 2.106942e+00
<TRANSP> 8
 0.000000e+00 1.000000e+00 0.000000e+00 0.000000e+00 0.000000e+00 0.000000e+00 0.000000e+00 0.000000e+00
 0.000000e+00 9.676045e-01 3.239549e-02 0.000000e+00 0.000000e+00 0.000000e+00 0.000000e+00 0.000000e+00
 0.000000e+00 0.000000e+00 9.810176e-01 1.898238e-02 0.000000e+00 0.000000e+00 0.000000e+00 0.000000e+00
 0.000000e+00 0.000000e+00 0.000000e+00 0.000000e+00 1.000000e+00 0.000000e+00 0.000000e+00 0.000000e+00
 0.000000e+00 0.000000e+00 0.000000e+00 0.000000e+00 9.377431e-01 6.225692e-02 0.000000e+00 0.000000e+00
 0.000000e+00 0.000000e+00 0.000000e+00 0.000000e+00 0.000000e+00 8.791421e-01 1.208580e-01 0.000000e+00
 0.000000e+00 0.000000e+00 0.000000e+00 0.000000e+00 0.000000e+00 0.000000e+00 0.000000e+00 1.000000e+00
 0.000000e+00 0.000000e+00 0.000000e+00 0.000000e+00 0.000000e+00 0.000000e+00 0.000000e+00 0.000000e+00
<ENDHMM>
