~o
<STREAMINFO> 1 1
<VECSIZE> 1<NULLD><USER><DIAGC>
~h "a"
<BEGINHMM>
<NUMSTATES> 8
<STATE> 2
<MEAN> 1
 -2.696806e-01
<VARIANCE> 1
 1.705750e+01
<GCONST> 4.674467e+00
<STATE> 3
<MEAN> 1
 9.124326e+00
<VARIANCE> 1
 3.176236e+00
<GCONST> 2.993574e+00
<STATE> 4
<MEAN> 1
 5.529627e+00
<VARIANCE> 1
 1.588538e+00
<GCONST> 2.300691e+00
<STATE> 5
<MEAN> 1
 2.009493e+00
<VARIANCE> 1
 4.340224e-01
<GCONST> 1.003218e+00
<STATE> 6
<MEAN> 1
 3.507406e+00
<VARIANCE> 1
 1.359880e+00
<GCONST> 2.145274e+00
<STATE> 7
<MEAN> 1
 3.945861e-01
<VARIANCE> 1
 1.690955e-01
<GCONST> 6.058526e-02
<TRANSP> 8
 0.000000e+00 1.000000e+00 0.000000e+00 0.000000e+00 0.000000e+00 0.000000e+00 0.000000e+00 0.000000e+00
 0.000000e+00 8.482892e-01 1.517108e-01 0.000000e+00 0.000000e+00 0.000000e+00 0.000000e+00 0.000000e+00
 0.000000e+00 0.000000e+00 9.844720e-01 1.552804e-02 0.000000e+00 0.000000e+00 0.000000e+00 0.000000e+00
 0.000000e+00 0.000000e+00 0.000000e+00 9.745653e-01 2.543466e-02 0.000000e+00 0.000000e+00 0.000000e+00
 0.000000e+00 0.000000e+00 0.000000e+00 0.000000e+00 9.694413e-01 3.055868e-02 0.000000e+00 0.000000e+00
 0.000000e+00 0.000000e+00 0.000000e+00 0.000000e+00 0.000000e+00 9.427302e-01 5.726978e-02 0.000000e+00
 0.000000e+00 0.000000e+00 0.000000e+00 0.000000e+00 0.000000e+00 0.000000e+00 9.202566e-01 7.974347e-02
 0.000000e+00 0.000000e+00 0.000000e+00 0.000000e+00 0.000000e+00 0.000000e+00 0.000000e+00 0.000000e+00
<ENDHMM>
~h "e"
<BEGINHMM>
<NUMSTATES> 8
<STATE> 2
<MEAN> 1
 -2.619610e-02
<VARIANCE> 1
 1.870879e-02
<GCONST> -2.140885e+00
<STATE> 3
<MEAN> 1
 6.092998e+00
<VARIANCE> 1
 1.172622e+01
<GCONST> 4.299704e+00
<STATE> 4
<MEAN> 1
 -9.066186e-01
<VARIANCE> 1
 3.351580e-01
<GCONST> 7.447238e-01
<STATE> 5
<MEAN> 1
 -1.523258e+00
<VARIANCE> 1
 1.934649e-01
<GCONST> 1.952181e-01
<STATE> 6
<MEAN> 1
 -3.145857e+00
<VARIANCE> 1
 1.363664e+00
<GCONST> 2.148052e+00
<STATE> 7
<MEAN> 1
 -7.141084e+00
<VARIANCE> 1
 2.163566e+00
<GCONST> 2.609635e+00
<TRANSP> 8
 0.000000e+00 1.000000e+00 0.000000e+00 0.000000e+00 0.000000e+00 0.000000e+00 0.000000e+00 0.000000e+00
 0.000000e+00 9.932851e-01 6.714982e-03 0.000000e+00 0.000000e+00 0.000000e+00 0.000000e+00 0.000000e+00
 0.000000e+00 0.000000e+00 8.866703e-01 1.133297e-01 0.000000e+00 0.000000e+00 0.000000e+00 0.000000e+00
 0.000000e+00 0.000000e+00 0.000000e+00 9.395711e-01 6.042891e-02 0.000000e+00 0.000000e+00 0.000000e+00
 0.000000e+00 0.000000e+00 0.000000e+00 0.000000e+00 0.000000e+00 1.000000e+00 0.000000e+00 0.000000e+00
 0.000000e+00 0.000000e+00 0.000000e+00 0.000000e+00 0.000000e+00 9.756356e-01 2.436437e-02 0.000000e+00
 0.000000e+00 0.000000e+00 0.000000e+00 0.000000e+00 0.000000e+00 0.000000e+00 9.363924e-01 6.360754e-02
 0.000000e+00 0.000000e+00 0.000000e+00 0.000000e+00 0.000000e+00 0.000000e+00 0.000000e+00 0.000000e+00
<ENDHMM>
~h "i"
<BEGINHMM>
<NUMSTATES> 8
<STATE> 2
<MEAN> 1
 -4.916312e+00
<VARIANCE> 1
 6.292577e+00
<GCONST> 3.677248e+00
<STATE> 3
<MEAN> 1
 -9.726125e+00
<VARIANCE> 1
 1.167598e+00
<GCONST> 1.992826e+00
<STATE> 4
<MEAN> 1
 -6.896964e+00
<VARIANCE> 1
 9.927974e-01
<GCONST> 1.830648e+00
<STATE> 5
<MEAN> 1
 -4.313087e+00
<VARIANCE> 1
 5.550275e-01
<GCONST> 1.249140e+00
<STATE> 6
<MEAN> 1
 -2.001745e+00
<VARIANCE> 1
 4.427118e-01
<GCONST> 1.023041e+00
<STATE> 7
<MEAN> 1
 -4.064667e-01
<VARIANCE> 1
 1.446557e-01
<GCONST> -9.552181e-02
<TRANSP> 8
 0.000000e+00 1.000000e+00 0.000000e+00 0.000000e+00 0.000000e+00 0.000000e+00 0.000000e+00 0.000000e+00
 0.000000e+00 4.107820e-01 5.892180e-01 0.000000e+00 0.000000e+00 0.000000e+00 0.000000e+00 0.000000e+00
 0.000000e+00 0.000000e+00 9.843552e-01 1.564486e-02 0.000000e+00 0.000000e+00 0.000000e+00 0.000000e+00
 0.000000e+00 0.000000e+00 0.000000e+00 9.822794e-01 1.772063e-02 0.000000e+00 0.000000e+00 0.000000e+00
 0.000000e+00 0.000000e+00 0.000000e+00 0.000000e+00 9.567048e-01 4.329521e-02 0.000000e+00 0.000000e+00
 0.000000e+00 0.000000e+00 0.000000e+00 0.000000e+00 0.000000e+00 9.554541e-01 4.454597e-02 0.000000e+00
 0.000000e+00 0.000000e+00 0.000000e+00 0.000000e+00 0.000000e+00 0.000000e+00 8.324808e-01 1.675192e-01
 0.000000e+00 0.000000e+00 0.000000e+00 0.000000e+00 0.000000e+00 0.000000e+00 0.000000e+00 0.000000e+00
<ENDHMM>
~h "m"
<BEGINHMM>
<NUMSTATES> 8
<STATE> 2
<MEAN> 1
 -2.275361e-01
<VARIANCE> 1
 2.343236e-02
<GCONST> -1.915760e+00
<STATE> 3
<MEAN> 1
 1.163884e-03
<VARIANCE> 1
 1.000000e-02
<GCONST> -2.767293e+00
<STATE> 4
<MEAN> 1
 9.015012e-01
<VARIANCE> 1
 2.104539e-01
<GCONST> 2.793884e-01
<STATE> 5
<MEAN> 1
 1.457682e+00
<VARIANCE> 1
 3.539626e-01
<GCONST> 7.993131e-01
<STATE> 6
<MEAN> 1
 3.042964e+00
<VARIANCE> 1
 1.035307e+00
<GCONST> 1.872575e+00
<STATE> 7
<MEAN> 1
 6.362450e+00
<VARIANCE> 1
 3.808667e+00
<GCONST> 3.175156e+00
<TRANSP> 8
 0.000000e+00 1.000000e+00 0.000000e+00 0.000000e+00 0.000000e+00 0.000000e+00 0.000000e+00 0.000000e+00
 0.000000e+00 8.346667e-02 9.165334e-01 0.000000e+00 0.000000e+00 0.000000e+00 0.000000e+00 0.000000e+00
 0.000000e+00 0.000000e+00 9.933278e-01 6.672226e-03 0.000000e+00 0.000000e+00 0.000000e+00 0.000000e+00
 0.000000e+00 0.000000e+00 0.000000e+00 9.624139e-01 3.758613e-02 0.000000e+00 0.000000e+00 0.000000e+00
 0.000000e+00 0.000000e+00 0.000000e+00 0.000000e+00 1.737353e-02 9.826264e-01 0.000000e+00 0.000000e+00
 0.000000e+00 0.000000e+00 0.000000e+00 0.000000e+00 0.000000e+00 9.695229e-01 3.047712e-02 0.000000e+00
 0.000000e+00 0.000000e+00 0.000000e+00 0.000000e+00 0.000000e+00 0.000000e+00 9.287184e-01 7.128151e-02
 0.000000e+00 0.000000e+00 0.000000e+00 0.000000e+00 0.000000e+00 0.000000e+00 0.000000e+00 0.000000e+00
<ENDHMM>
~h "sil"
<BEGINHMM>
<NUMSTATES> 8
<STATE> 2
<MEAN> 1
 -2.690838e+00
<VARIANCE> 1
 2.835757e+00
<GCONST> 2.880186e+00
<STATE> 3
<MEAN> 1
 3.085787e+00
<VARIANCE> 1
 1.525395e+01
<GCONST> 4.562716e+00
<STATE> 4
<MEAN> 1
 1.092444e+01
<VARIANCE> 1
 4.358475e+00
<GCONST> 3.309999e+00
<STATE> 5
<MEAN> 1
 7.100844e+00
<VARIANCE> 1
 4.341583e+00
<GCONST> 3.306116e+00
<STATE> 6
<MEAN> 1
 3.212021e+00
<VARIANCE> 1
 2.382913e+00
<GCONST> 2.706201e+00
<STATE> 7
<MEAN> 1
 8.051246e-02
<VARIANCE> 1
 1.153308e+00
<GCONST> 1.980512e+00
<TRANSP> 8
 0.000000e+00 1.000000e+00 0.000000e+00 0.000000e+00 0.000000e+00 0.000000e+00 0.000000e+00 0.000000e+00
 0.000000e+00 9.679406e-01 3.205938e-02 0.000000e+00 0.000000e+00 0.000000e+00 0.000000e+00 0.000000e+00
 0.000000e+00 0.000000e+00 0.000000e+00 1.000000e+00 0.000000e+00 0.000000e+00 0.000000e+00 0.000000e+00
 0.000000e+00 0.000000e+00 0.000000e+00 9.740963e-01 2.590370e-02 0.000000e+00 0.000000e+00 0.000000e+00
 0.000000e+00 0.000000e+00 0.000000e+00 0.000000e+00 9.335995e-01 6.640047e-02 0.000000e+00 0.000000e+00
 0.000000e+00 0.000000e+00 0.000000e+00 0.000000e+00 0.000000e+00 9.014624e-01 9.853762e-02 0.000000e+00
 0.000000e+00 0.000000e+00 0.000000e+00 0.000000e+00 0.000000e+00 0.000000e+00 9.550613e-01 4.493866e-02
 0.000000e+00 0.000000e+00 0.000000e+00 0.000000e+00 0.000000e+00 0.000000e+00 0.000000e+00 0.000000e+00
<ENDHMM>
