~o
<STREAMINFO> 1 26
<VECSIZE> 26<NULLD><MFCC_E_D><DIAGC>
~h "V"
<BEGINHMM>
<NUMSTATES> 5
<STATE> 2
<MEAN> 26
 6.312943e-01 -8.458755e+00 -4.363286e+00 -1.239248e+01 -1.322066e+01 2.539226e+00 -1.196465e+01 -1.277941e+00 -3.455696e+00 1.351993e+00 -1.088851e+00 -4.360221e+00 7.930101e-01 5.078799e-01 -6.164544e-01 -3.694674e-02 -1.090637e-01 -3.647059e-01 2.945564e-01 -5.838434e-01 1.717131e-01 3.572803e-01 2.132736e-01 -2.887046e-01 -3.888360e-01 1.975659e-02
<VARIANCE> 26
 1.516964e+01 3.185065e+01 1.189605e+02 4.088052e+01 5.456388e+01 1.055973e+02 5.307789e+01 3.364666e+01 4.528665e+01 3.360508e+01 2.853003e+01 2.361222e+01 5.000000e-02 1.111782e+00 1.612674e+00 2.084610e+00 1.437510e+00 2.687513e+00 2.420344e+00 2.035066e+00 1.962099e+00 2.138545e+00 1.476180e+00 1.879370e+00 1.487651e+00 5.000000e-02
<GCONST> 9.356637e+01
<STATE> 3
<MEAN> 26
 1.501963e+00 -1.511932e+01 -6.467660e+00 -8.890016e+00 -1.466346e+01 1.516818e+00 -8.557608e+00 4.680779e+00 9.255114e-01 -9.546142e-01 -6.916953e+00 -6.792881e+00 8.412635e-01 -3.711180e-01 3.752927e-01 8.435663e-01 2.315757e-01 -1.735288e-01 -9.116678e-01 4.029506e-01 3.231485e-01 -2.710949e-01 -5.900465e-02 -2.083788e-01 5.413231e-01 -1.437171e-02
<VARIANCE> 26
 9.742355e+00 3.219044e+01 7.094571e+01 1.651953e+01 3.680257e+01 6.199424e+01 3.114951e+01 3.461528e+01 3.720028e+01 1.994870e+01 2.733611e+01 2.194410e+01 5.000000e-02 5.804351e-01 1.812564e+00 2.932171e+00 1.666425e+00 2.389365e+00 2.639519e+00 2.164964e+00 2.912982e+00 1.841548e+00 1.514182e+00 1.885538e+00 1.865090e+00 5.000000e-02
<GCONST> 8.993323e+01
<STATE> 4
<MEAN> 26
 -3.773549e+00 -6.383259e+00 2.551927e+00 -8.444233e+00 -1.391586e+01 -4.933582e+00 -6.560049e+00 7.561516e-01 -3.958004e+00 1.266088e-01 -4.335222e+00 -1.183613e+00 6.600207e-01 -1.953361e+00 2.164978e+00 -8.301986e-01 1.079340e+00 2.378496e+00 1.123667e-01 1.454845e+00 -1.259759e+00 2.486110e-01 3.258514e-02 1.140573e-01 3.873365e-01 -7.307680e-02
<VARIANCE> 26
 2.224155e+01 3.315920e+01 7.120154e+01 3.013402e+01 6.439834e+01 5.708357e+01 4.894325e+01 4.030792e+01 5.259202e+01 3.676669e+01 2.880299e+01 1.896261e+01 5.000000e-02 3.715882e+00 2.966617e+00 5.392311e+00 3.579944e+00 5.630781e+00 3.789096e+00 4.775925e+00 3.480179e+00 5.910747e+00 3.797703e+00 2.277544e+00 1.937998e+00 5.000000e-02
<GCONST> 1.015620e+02
<TRANSP> 5
 0.000000e+00 1.000000e+00 0.000000e+00 0.000000e+00 0.000000e+00
 0.000000e+00 6.912057e-01 3.087942e-01 0.000000e+00 0.000000e+00
 0.000000e+00 0.000000e+00 7.280992e-01 2.719008e-01 0.000000e+00
 0.000000e+00 0.000000e+00 0.000000e+00 5.320175e-01 4.679826e-01
 0.000000e+00 0.000000e+00 0.000000e+00 0.000000e+00 0.000000e+00
<ENDHMM>
