~o
<STREAMINFO> 1 1
<VECSIZE> 1<NULLD><USER><DIAGC>
~h "i"
<BEGINHMM>
<NUMSTATES> 8
<STATE> 2
<MEAN> 1
 -3.240901e+00
<VARIANCE> 1
 2.340310e+01
<GCONST> 4.990746e+00
<STATE> 3
<MEAN> 1
 -3.240901e+00
<VARIANCE> 1
 2.340310e+01
<GCONST> 4.990746e+00
<STATE> 4
<MEAN> 1
 -3.240901e+00
<VARIANCE> 1
 2.340310e+01
<GCONST> 4.990746e+00
<STATE> 5
<MEAN> 1
 -3.240901e+00
<VARIANCE> 1
 2.340310e+01
<GCONST> 4.990746e+00
<STATE> 6
<MEAN> 1
 -3.240901e+00
<VARIANCE> 1
 2.340310e+01
<GCONST> 4.990746e+00
<STATE> 7
<MEAN> 1
 -3.240901e+00
<VARIANCE> 1
 2.340310e+01
<GCONST> 4.990746e+00
<TRANSP> 8
 0.000000e+00 1.000000e+00 0.000000e+00 0.000000e+00 0.000000e+00 0.000000e+00 0.000000e+00 0.000000e+00
 0.000000e+00 5.000000e-01 5.000000e-01 0.000000e+00 0.000000e+00 0.000000e+00 0.000000e+00 0.000000e+00
 0.000000e+00 0.000000e+00 5.000000e-01 5.000000e-01 0.000000e+00 0.000000e+00 0.000000e+00 0.000000e+00
 0.000000e+00 0.000000e+00 0.000000e+00 5.000000e-01 5.000000e-01 0.000000e+00 0.000000e+00 0.000000e+00
 0.000000e+00 0.000000e+00 0.000000e+00 0.000000e+00 5.000000e-01 5.000000e-01 0.000000e+00 0.000000e+00
 0.000000e+00 0.000000e+00 0.000000e+00 0.000000e+00 0.000000e+00 5.000000e-01 5.000000e-01 0.000000e+00
 0.000000e+00 0.000000e+00 0.000000e+00 0.000000e+00 0.000000e+00 0.000000e+00 5.000000e-01 5.000000e-01
 0.000000e+00 0.000000e+00 0.000000e+00 0.000000e+00 0.000000e+00 0.000000e+00 0.000000e+00 0.000000e+00
<ENDHMM>
