~o
<STREAMINFO> 1 1
<VECSIZE> 1<NULLD><USER><DIAGC>
~h "m"
<BEGINHMM>
<NUMSTATES> 8
<STATE> 2
<MEAN> 1
 -1.379325e+00
<VARIANCE> 1
 1.693636e+01
<GCONST> 4.667340e+00
<STATE> 3
<MEAN> 1
 -1.379325e+00
<VARIANCE> 1
 1.693636e+01
<GCONST> 4.667340e+00
<STATE> 4
<MEAN> 1
 -1.379325e+00
<VARIANCE> 1
 1.693636e+01
<GCONST> 4.667340e+00
<STATE> 5
<MEAN> 1
 -1.379325e+00
<VARIANCE> 1
 1.693636e+01
<GCONST> 4.667340e+00
<STATE> 6
<MEAN> 1
 -1.379325e+00
<VARIANCE> 1
 1.693636e+01
<GCONST> 4.667340e+00
<STATE> 7
<MEAN> 1
 -1.379325e+00
<VARIANCE> 1
 1.693636e+01
<GCONST> 4.667340e+00
<TRANSP> 8
 0.000000e+00 1.000000e+00 0.000000e+00 0.000000e+00 0.000000e+00 0.000000e+00 0.000000e+00 0.000000e+00
 0.000000e+00 5.000000e-01 5.000000e-01 0.000000e+00 0.000000e+00 0.000000e+00 0.000000e+00 0.000000e+00
 0.000000e+00 0.000000e+00 5.000000e-01 5.000000e-01 0.000000e+00 0.000000e+00 0.000000e+00 0.000000e+00
 0.000000e+00 0.000000e+00 0.000000e+00 5.000000e-01 5.000000e-01 0.000000e+00 0.000000e+00 0.000000e+00
 0.000000e+00 0.000000e+00 0.000000e+00 0.000000e+00 5.000000e-01 5.000000e-01 0.000000e+00 0.000000e+00
 0.000000e+00 0.000000e+00 0.000000e+00 0.000000e+00 0.000000e+00 5.000000e-01 5.000000e-01 0.000000e+00
 0.000000e+00 0.000000e+00 0.000000e+00 0.000000e+00 0.000000e+00 0.000000e+00 5.000000e-01 5.000000e-01
 0.000000e+00 0.000000e+00 0.000000e+00 0.000000e+00 0.000000e+00 0.000000e+00 0.000000e+00 0.000000e+00
<ENDHMM>
