~o
<STREAMINFO> 1 20
<VECSIZE> 20<NULLD><USER><DIAGC>
~h "a"
<BEGINHMM>
<NUMSTATES> 14
<STATE> 2
<MEAN> 20
 4.279224e+03 3.426872e+00 0.000000e+00 0.000000e+00 0.000000e+00 0.000000e+00 0.000000e+00 0.000000e+00 0.000000e+00 5.169374e+01 1.925079e+01 7.425483e+01 2.049136e+03 1.055722e+03 5.832747e+02 2.986371e+02 2.405171e+02 1.163627e+01 1.914997e+00 0.000000e+00
<VARIANCE> 20
 1.407004e+07 4.651338e+01 1.000000e-02 1.000000e-02 1.000000e-02 1.000000e-02 1.000000e-02 1.000000e-02 1.000000e-02 4.676066e+03 2.518938e+03 5.167177e+03 9.360117e+06 2.993737e+06 1.125456e+06 1.871976e+05 1.980222e+05 4.719699e+02 3.271774e+01 1.000000e-02
<GCONST> 1.239260e+02
<STATE> 3
<MEAN> 20
 3.769650e+03 8.665474e+00 0.000000e+00 0.000000e+00 0.000000e+00 0.000000e+00 -1.003134e-30 2.819015e-29 -9.756170e-29 1.594841e+01 6.454025e+01 5.684064e+01 1.220710e+03 7.354862e+02 5.616245e+02 7.699954e+02 3.487560e+02 3.603975e+01 2.707982e-01 0.000000e+00
<VARIANCE> 20
 7.971988e+06 4.130666e+02 1.000000e-02 1.000000e-02 1.000000e-02 1.000000e-02 1.000000e-02 1.000000e-02 1.000000e-02 1.694678e+03 3.815283e+04 1.027290e+04 6.417264e+06 1.046993e+06 1.214584e+06 1.141091e+06 2.904435e+05 8.526463e+03 7.390630e-01 1.000000e-02
<GCONST> 1.278742e+02
<STATE> 4
<MEAN> 20
 3.933908e+03 1.273120e+02 0.000000e+00 0.000000e+00 1.874992e-01 2.062491e+00 2.124991e+01 1.874995e+01 1.762499e+01 9.442362e+01 1.122497e+02 2.079711e+02 1.061949e+03 1.139418e+03 1.038887e+03 4.589532e+02 1.604048e+02 3.287485e+01 2.812488e+00 0.000000e+00
<VARIANCE> 20
 1.047009e+07 7.833877e+04 1.000000e-02 1.000000e-02 5.273416e-01 6.380834e+01 6.164037e+03 2.953051e+03 1.729983e+03 1.755405e+04 3.281944e+04 1.648770e+05 4.919042e+06 1.920269e+06 5.175498e+06 2.945873e+05 6.100061e+04 9.465322e+03 1.186518e+02 1.000000e-02
<GCONST> 1.931282e+02
<STATE> 5
<MEAN> 20
 7.547891e+03 1.020859e+00 0.000000e+00 0.000000e+00 0.000000e+00 0.000000e+00 0.000000e+00 0.000000e+00 0.000000e+00 2.406600e+02 5.833466e-02 1.829337e+02 5.015132e+03 2.056173e+03 5.044067e+02 2.947447e+01 1.333331e+00 6.084053e-02 0.000000e+00 0.000000e+00
<VARIANCE> 20
 7.508280e+06 1.036230e+01 1.000000e-02 1.000000e-02 1.000000e-02 1.000000e-02 1.000000e-02 1.000000e-02 1.000000e-02 1.240440e+05 5.493175e-02 5.905327e+04 1.196452e+07 1.671272e+06 8.895955e+05 4.032971e+03 9.044653e+00 5.713897e-02 1.000000e-02 1.000000e-02
<GCONST> 8.526086e+01
<STATE> 6
<MEAN> 20
 2.589197e+03 1.844591e+02 1.499993e+00 0.000000e+00 0.000000e+00 0.000000e+00 2.416679e+00 2.041677e+00 3.874990e+00 3.454171e+01 4.450007e+01 8.941663e+01 1.693745e+02 8.003698e+02 1.080326e+03 3.847095e+02 1.661675e+02 5.870861e+01 2.087510e+01 3.583351e+00
<VARIANCE> 20
 5.302540e+06 5.168169e+04 5.174976e+01 1.000000e-02 1.000000e-02 1.000000e-02 1.045769e+02 4.687348e+01 1.421922e+02 6.949016e+03 6.538262e+03 3.477012e+04 1.277059e+05 1.189591e+06 2.035508e+06 2.681887e+05 3.334134e+04 8.922819e+03 1.647199e+03 1.084102e+02
<GCONST> 1.791438e+02
<STATE> 7
<MEAN> 20
 3.260900e+03 7.969260e+01 0.000000e+00 0.000000e+00 2.015841e-01 0.000000e+00 0.000000e+00 1.276687e+00 1.545458e+00 2.232350e+01 3.386599e+01 4.790955e+01 2.707253e+02 7.439739e+02 1.095188e+03 8.788085e+02 2.738246e+02 1.780564e+01 3.837762e+00 0.000000e+00
<VARIANCE> 20
 2.583718e+06 1.819105e+04 1.000000e-02 1.000000e-02 2.953376e-01 1.000000e-02 1.000000e-02 8.382006e+00 1.608994e+01 1.059640e+03 3.413721e+03 2.328657e+03 2.042535e+05 6.409988e+05 1.253423e+06 1.076679e+06 1.479792e+05 1.151372e+03 1.025105e+02 1.000000e-02
<GCONST> 1.419562e+02
<STATE> 8
<MEAN> 20
 4.089240e+03 2.442711e+01 0.000000e+00 0.000000e+00 0.000000e+00 0.000000e+00 3.300960e-01 3.878629e+00 2.285915e+01 1.302865e+02 2.961788e+02 1.714851e+02 3.590586e+02 9.740942e+02 6.972402e+02 1.375794e+03 3.574029e+02 1.988900e+01 1.765040e+01 2.228123e+00
<VARIANCE> 20
 3.555870e+06 2.345958e+03 1.000000e-02 1.000000e-02 1.000000e-02 1.000000e-02 1.211421e+00 5.006770e+01 2.509969e+03 2.750121e+04 2.146989e+05 4.562141e+04 2.206491e+05 1.181941e+06 3.994504e+05 2.415800e+06 2.666298e+05 2.809167e+03 3.303803e+03 3.703960e+01
<GCONST> 1.723732e+02
<STATE> 9
<MEAN> 20
 2.300390e+03 1.587014e+02 4.000036e-01 0.000000e+00 8.000071e-01 0.000000e+00 1.900017e+01 8.290073e+01 1.440013e+01 3.910012e+01 1.777016e+02 8.110035e+01 8.724955e+02 9.093953e+02 4.302988e+02 2.569996e+01 3.390011e+01 6.710048e+01 1.800011e+01 0.000000e+00
<VARIANCE> 20
 4.234963e+06 6.528076e+04 1.440011e+00 1.000000e-02 5.760046e+00 1.000000e-02 1.876213e+03 1.813419e+04 4.972426e+02 1.499492e+03 8.039784e+04 8.472530e+03 1.352207e+06 6.952039e+05 2.535270e+05 1.736609e+03 2.428688e+03 1.885922e+04 1.207009e+03 1.000000e-02
<GCONST> 1.748147e+02
<STATE> 10
<MEAN> 20
 4.802183e+03 3.612748e+00 0.000000e+00 0.000000e+00 -3.762022e-30 0.000000e+00 0.000000e+00 6.712220e-43 9.232580e-01 7.656367e+01 6.543092e+00 1.116483e+02 8.628096e+02 1.754135e+03 1.946646e+03 1.743439e+02 1.587780e+01 1.127975e+01 0.000000e+00 0.000000e+00
<VARIANCE> 20
 4.182012e+06 3.120953e+02 1.000000e-02 1.000000e-02 1.000000e-02 1.000000e-02 1.000000e-02 1.000000e-02 6.252666e+00 5.828023e+04 7.145402e+02 1.078109e+05 2.203957e+06 2.245448e+06 2.007345e+06 6.148741e+04 1.880311e+03 3.019899e+03 1.000000e-02 1.000000e-02
<GCONST> 1.221928e+02
<STATE> 11
<MEAN> 20
 9.502710e+03 1.689877e+00 0.000000e+00 0.000000e+00 0.000000e+00 0.000000e+00 0.000000e+00 0.000000e+00 0.000000e+00 1.723321e+02 0.000000e+00 3.730621e+02 5.454510e+03 2.948206e+03 3.363736e+02 1.123907e+02 2.036682e+02 2.013965e+02 4.313501e+01 3.989547e+00
<VARIANCE> 20
 5.795606e+06 5.909503e+01 1.000000e-02 1.000000e-02 1.000000e-02 1.000000e-02 1.000000e-02 1.000000e-02 1.000000e-02 3.179566e+04 1.000000e-02 8.630709e+05 4.684795e+06 1.264139e+06 6.014468e+04 4.752394e+03 1.419989e+04 1.688279e+04 3.392529e+03 6.526131e+01
<GCONST> 1.240867e+02
<STATE> 12
<MEAN> 20
 1.157335e+04 9.759925e-01 0.000000e+00 0.000000e+00 0.000000e+00 0.000000e+00 0.000000e+00 -3.919522e-33 3.828368e-01 2.233577e+02 9.641597e+00 7.615457e+02 6.389655e+03 3.433634e+03 3.974247e+02 1.641711e+02 3.646461e+02 2.071045e+02 6.222058e+01 8.027679e+00
<VARIANCE> 20
 2.633540e+06 1.057634e+01 1.000000e-02 1.000000e-02 1.000000e-02 1.000000e-02 1.000000e-02 1.000000e-02 1.764674e+00 3.156620e+04 8.901074e+02 7.945029e+05 4.330203e+06 2.289524e+06 3.628104e+04 2.737985e+03 2.490473e+04 6.199651e+03 5.375843e+03 1.858089e+02
<GCONST> 1.385821e+02
<STATE> 13
<MEAN> 20
 1.582807e+04 8.162718e+03 6.250061e+01 0.000000e+00 0.000000e+00 0.000000e+00 4.000040e+00 7.100070e+01 1.643750e+02 1.152569e+03 1.876968e+03 1.233443e+04 6.863193e+03 3.412889e+03 3.263267e+02 1.312825e+02 2.314629e+02 2.202150e+02 4.478174e+01 3.688680e+00
<VARIANCE> 20
 1.753645e+08 4.607601e+08 2.672373e+04 1.000000e-02 1.000000e-02 1.000000e-02 1.120010e+02 3.528730e+04 1.884796e+05 7.868986e+06 2.435940e+07 9.458742e+08 1.833798e+07 5.096458e+06 6.446414e+04 9.651766e+03 2.288654e+04 3.992790e+04 1.856551e+03 3.929652e+01
<GCONST> 2.372052e+02
<TRANSP> 14
 0.000000e+00 1.000000e+00 0.000000e+00 0.000000e+00 0.000000e+00 0.000000e+00 0.000000e+00 0.000000e+00 0.000000e+00 0.000000e+00 0.000000e+00 0.000000e+00 0.000000e+00 0.000000e+00
 0.000000e+00 1.936778e-01 8.063222e-01 0.000000e+00 0.000000e+00 0.000000e+00 0.000000e+00 0.000000e+00 0.000000e+00 0.000000e+00 0.000000e+00 0.000000e+00 0.000000e+00 0.000000e+00
 0.000000e+00 0.000000e+00 2.778726e-01 7.221274e-01 0.000000e+00 0.000000e+00 0.000000e+00 0.000000e+00 0.000000e+00 0.000000e+00 0.000000e+00 0.000000e+00 0.000000e+00 0.000000e+00
 0.000000e+00 0.000000e+00 0.000000e+00 4.999994e-01 5.000006e-01 0.000000e+00 0.000000e+00 0.000000e+00 0.000000e+00 0.000000e+00 0.000000e+00 0.000000e+00 0.000000e+00 0.000000e+00
 0.000000e+00 0.000000e+00 0.000000e+00 0.000000e+00 7.666626e-01 2.333373e-01 0.000000e+00 0.000000e+00 0.000000e+00 0.000000e+00 0.000000e+00 0.000000e+00 0.000000e+00 0.000000e+00
 0.000000e+00 0.000000e+00 0.000000e+00 0.000000e+00 0.000000e+00 6.666688e-01 3.333312e-01 0.000000e+00 0.000000e+00 0.000000e+00 0.000000e+00 0.000000e+00 0.000000e+00 0.000000e+00
 0.000000e+00 0.000000e+00 0.000000e+00 0.000000e+00 0.000000e+00 0.000000e+00 4.624473e-01 5.375527e-01 0.000000e+00 0.000000e+00 0.000000e+00 0.000000e+00 0.000000e+00 0.000000e+00
 0.000000e+00 0.000000e+00 0.000000e+00 0.000000e+00 0.000000e+00 0.000000e+00 0.000000e+00 3.398117e-01 6.601883e-01 0.000000e+00 0.000000e+00 0.000000e+00 0.000000e+00 0.000000e+00
 0.000000e+00 0.000000e+00 0.000000e+00 0.000000e+00 0.000000e+00 0.000000e+00 0.000000e+00 0.000000e+00 2.000018e-01 7.999982e-01 0.000000e+00 0.000000e+00 0.000000e+00 0.000000e+00
 0.000000e+00 0.000000e+00 0.000000e+00 0.000000e+00 0.000000e+00 0.000000e+00 0.000000e+00 0.000000e+00 0.000000e+00 6.788687e-01 3.211313e-01 0.000000e+00 0.000000e+00 0.000000e+00
 0.000000e+00 0.000000e+00 0.000000e+00 0.000000e+00 0.000000e+00 0.000000e+00 0.000000e+00 0.000000e+00 0.000000e+00 0.000000e+00 9.477152e-01 5.228486e-02 0.000000e+00 0.000000e+00
 0.000000e+00 0.000000e+00 0.000000e+00 0.000000e+00 0.000000e+00 0.000000e+00 0.000000e+00 0.000000e+00 0.000000e+00 0.000000e+00 0.000000e+00 3.890397e-01 6.109603e-01 0.000000e+00
 0.000000e+00 0.000000e+00 0.000000e+00 0.000000e+00 0.000000e+00 0.000000e+00 0.000000e+00 0.000000e+00 0.000000e+00 0.000000e+00 0.000000e+00 0.000000e+00 0.000000e+00 1.000000e+00
 0.000000e+00 0.000000e+00 0.000000e+00 0.000000e+00 0.000000e+00 0.000000e+00 0.000000e+00 0.000000e+00 0.000000e+00 0.000000e+00 0.000000e+00 0.000000e+00 0.000000e+00 0.000000e+00
<ENDHMM>
~h "b"
<BEGINHMM>
<NUMSTATES> 14
<STATE> 2
<MEAN> 20
 3.094770e+03 1.635478e+01 9.077517e+00 1.225645e+00 1.018825e+01 5.949253e+02 3.556607e+02 6.711326e+01 4.638037e+01 1.168388e+02 3.545924e+02 3.274967e+02 5.344023e+02 7.245253e+02 1.804438e+03 4.200417e+02 1.357388e+02 1.072441e+01 5.745243e-01 0.000000e+00
<VARIANCE> 20
 3.858384e+06 7.444112e+02 8.490600e+02 1.910406e+01 6.785513e+02 7.173689e+05 1.746911e+05 3.659119e+03 7.896198e+02 5.095897e+03 3.014563e+05 1.751641e+05 1.865369e+06 4.754291e+05 1.144227e+06 1.650804e+05 7.300330e+04 7.601780e+02 3.844812e+00 1.000000e-02
<GCONST> 2.164553e+02
<STATE> 3
<MEAN> 20
 5.540315e+03 1.105245e+00 -8.662107e-28 0.000000e+00 2.105269e-01 4.789446e+01 1.193159e+02 2.321048e+01 1.436835e+01 4.494659e+01 8.142123e+01 2.101537e+02 4.563136e+02 1.296422e+03 3.470740e+03 2.763158e+02 2.637631e-15 3.314284e-31 0.000000e+00 0.000000e+00
<VARIANCE> 20
 6.831034e+06 7.252049e+00 1.000000e-02 1.000000e-02 7.977860e-01 2.012599e+04 1.254357e+05 1.100272e+03 4.378102e+02 3.951977e+03 1.007162e+05 2.631419e+05 2.508768e+06 1.755030e+06 3.227724e+06 1.335120e+05 1.000000e-02 1.000000e-02 1.000000e-02 1.000000e-02
<GCONST> 1.495383e+02
<STATE> 4
<MEAN> 20
 4.056126e+03 1.600009e+01 8.317208e-17 8.317208e-17 3.333350e-01 4.918774e+02 1.963747e+02 6.566626e+01 6.474960e+01 1.874169e+02 5.854136e+01 3.493381e+02 1.088297e+03 1.193750e+03 1.858493e+03 4.200421e+02 1.070006e+02 3.083352e+00 -9.813182e-31 -1.543036e-31
<VARIANCE> 20
 6.371353e+06 1.779257e+03 1.000000e-02 1.000000e-02 1.055560e+00 3.632325e+05 4.621112e+04 6.038955e+03 5.461192e+03 4.300013e+04 6.663939e+03 1.348671e+05 3.874548e+06 9.731922e+05 1.924121e+06 2.061696e+05 4.008461e+04 3.932657e+01 1.000000e-02 1.000000e-02
<GCONST> 1.836182e+02
<STATE> 5
<MEAN> 20
 7.798740e+03 1.720535e+02 6.666585e+00 1.777738e+00 5.055498e+00 9.233934e+02 2.323890e+02 7.966603e+01 7.905476e+01 3.722751e+02 2.140553e+02 6.769440e+02 2.681455e+03 2.174993e+03 3.010402e+03 5.649988e+02 3.132237e+02 3.077803e+01 3.055539e+00 1.166672e+00
<VARIANCE> 20
 2.155069e+07 3.986875e+04 1.493312e+02 4.406082e+01 5.427394e+01 1.174563e+06 9.461573e+04 1.017875e+04 1.446827e+04 2.907733e+05 5.010669e+04 5.693511e+05 1.190304e+07 2.812962e+06 1.581496e+07 1.302422e+05 1.546726e+05 2.598200e+03 2.838548e+01 6.916739e+00
<GCONST> 2.425059e+02
<STATE> 6
<MEAN> 20
 8.900904e+03 3.442864e+01 4.373992e-30 0.000000e+00 -4.590275e-30 1.025831e+03 1.849037e+02 1.005233e+02 1.039758e+02 6.753087e+02 7.690470e+00 4.968297e+02 5.495375e+03 2.364119e+03 1.763839e+03 6.214520e+02 2.725470e+02 3.952278e+00 7.142878e-02 -2.501612e-30
<VARIANCE> 20
 6.246088e+06 2.172109e+03 1.000000e-02 1.000000e-02 1.000000e-02 8.959885e+05 5.607071e+04 1.287436e+04 9.268544e+03 2.982077e+05 2.218335e+02 2.885586e+05 1.767506e+07 1.831579e+06 5.513260e+06 2.314655e+05 2.125449e+05 2.291817e+02 2.091842e-01 1.000000e-02
<GCONST> 1.906054e+02
<STATE> 7
<MEAN> 20
 7.927954e+03 2.937496e+01 5.750046e+00 1.125010e+00 3.500031e+00 5.644930e+02 3.338762e+02 1.036249e+02 1.072495e+02 5.414952e+02 2.138758e+02 8.914972e+02 5.268580e+03 2.197491e+03 6.197547e+02 3.422461e+02 7.387337e+01 1.112470e+01 0.000000e+00 0.000000e+00
<VARIANCE> 20
 1.319243e+07 1.319992e+03 1.286884e+02 8.859442e+00 3.650021e+01 4.637681e+05 2.272896e+05 2.238240e+04 2.408685e+04 2.589858e+05 1.385634e+05 6.304815e+05 1.208988e+07 2.066239e+06 4.470944e+05 1.966067e+05 2.102689e+04 8.228398e+02 1.000000e-02 1.000000e-02
<GCONST> 2.176233e+02
<STATE> 8
<MEAN> 20
 8.686528e+03 1.933610e+01 -0.000000e+00 0.000000e+00 5.024483e-02 1.494247e+03 2.325954e+02 1.382225e+02 1.494735e+02 8.487566e+02 8.913351e+01 9.693058e+02 6.473273e+03 2.408094e+03 3.697771e+02 6.925255e+02 4.856297e+02 4.966837e+01 2.061811e+01 1.118350e+01
<VARIANCE> 20
 6.346490e+06 5.432424e+03 1.000000e-02 1.000000e-02 4.772028e-02 6.360208e+05 1.328581e+04 4.486226e+03 4.002498e+03 1.007177e+05 5.748946e+04 4.256661e+05 5.763428e+06 1.033599e+06 5.613370e+04 1.570727e+05 1.767965e+05 4.422488e+03 2.107202e+03 9.024350e+02
<GCONST> 2.110210e+02
<STATE> 9
<MEAN> 20
 9.621466e+03 3.014215e+01 2.500011e-01 0.000000e+00 2.125010e+00 1.866820e+03 3.303385e+02 1.766149e+02 1.802904e+02 1.127850e+03 1.190683e+02 1.276348e+03 7.646926e+03 2.182383e+03 5.148733e+02 1.028253e+03 5.368256e+02 3.121956e+01 0.000000e+00 0.000000e+00
<VARIANCE> 20
 8.427710e+06 1.423097e+03 4.375017e-01 1.000000e-02 1.410942e+01 1.733192e+06 2.540272e+04 1.081562e+04 1.404124e+04 4.982469e+05 3.474296e+04 6.250266e+05 1.043093e+07 1.312882e+06 2.542717e+05 6.879279e+05 2.967559e+05 2.244931e+03 1.000000e-02 1.000000e-02
<GCONST> 2.046893e+02
<STATE> 10
<MEAN> 20
 8.892343e+03 1.368780e+01 6.042868e-02 0.000000e+00 0.000000e+00 1.503846e+03 2.243107e+02 1.224905e+02 1.326626e+02 8.042598e+02 2.518280e+01 4.466076e+02 5.214489e+03 4.069228e+03 6.670532e+02 6.070280e+02 5.173898e+02 8.280823e+01 5.238039e+01 1.149388e+01
<VARIANCE> 20
 4.173033e+06 8.434187e+02 1.172056e-01 1.000000e-02 1.000000e-02 6.524188e+05 1.858522e+04 5.013161e+03 4.755409e+03 1.599233e+05 5.599897e+03 5.279442e+05 5.745719e+06 2.948577e+06 2.834351e+05 9.201838e+04 1.650644e+05 7.717958e+03 5.603250e+03 7.441138e+02
<GCONST> 2.120341e+02
<STATE> 11
<MEAN> 20
 7.857396e+03 6.168549e+01 1.415359e+01 2.923076e+00 4.537292e+00 1.810213e+03 4.718917e+02 2.242416e+02 1.915839e+02 1.156219e+03 1.772337e+02 1.468536e+03 6.479517e+03 1.896853e+03 4.202837e+02 7.119434e+02 5.485972e+02 7.642699e+01 1.530079e+01 1.537767e-01
<VARIANCE> 20
 1.145655e+07 5.989795e+03 5.220513e+02 4.235968e+01 6.314618e+01 1.232938e+06 1.378768e+05 2.701836e+04 1.810140e+04 4.817092e+05 4.809355e+04 1.578114e+06 9.741403e+06 2.115987e+06 1.234318e+05 4.237154e+05 2.288720e+05 2.016595e+04 2.046780e+03 2.839062e-01
<GCONST> 2.438184e+02
<STATE> 12
<MEAN> 20
 9.902896e+03 2.165663e+01 2.062106e+00 5.990871e-01 1.199698e+00 1.452058e+03 4.044633e+02 2.097160e+02 2.155010e+02 1.303317e+03 1.993560e+01 9.968052e+02 8.166805e+03 2.782908e+03 5.462650e+02 9.407954e+02 4.681758e+01 9.536641e+00 3.534559e+00 6.668980e-02
<VARIANCE> 20
 4.377894e+06 1.977517e+03 1.534710e+01 1.171587e+00 7.229192e+00 1.033922e+06 1.688403e+05 3.034086e+04 2.403866e+04 3.121115e+05 6.939150e+02 1.347727e+06 3.478654e+06 2.522519e+06 2.390910e+05 4.421200e+05 1.118746e+04 1.272793e+03 1.748385e+02 6.224227e-02
<GCONST> 2.181528e+02
<STATE> 13
<MEAN> 20
 9.999502e+03 1.164207e+00 0.000000e+00 0.000000e+00 1.940379e-01 6.091777e+02 1.357359e+02 8.579115e+01 1.054757e+02 8.401058e+02 1.413740e+00 8.533660e+02 8.119247e+03 2.095455e+03 2.329265e+02 3.334186e+02 1.188716e+02 9.748793e+00 1.089268e+01 1.806720e+00
<VARIANCE> 20
 6.931374e+06 7.182127e+00 1.000000e-02 1.000000e-02 5.444630e-01 3.304062e+05 1.119954e+04 3.396379e+03 4.998405e+03 1.625101e+05 1.282596e+01 1.635086e+06 6.328305e+06 1.512616e+06 2.761481e+04 1.144932e+05 2.691292e+04 2.091317e+02 7.204374e+02 1.832568e+01
<GCONST> 1.889944e+02
<TRANSP> 14
 0.000000e+00 1.000000e+00 0.000000e+00 0.000000e+00 0.000000e+00 0.000000e+00 0.000000e+00 0.000000e+00 0.000000e+00 0.000000e+00 0.000000e+00 0.000000e+00 0.000000e+00 0.000000e+00
 0.000000e+00 6.935870e-01 3.064130e-01 0.000000e+00 0.000000e+00 0.000000e+00 0.000000e+00 0.000000e+00 0.000000e+00 0.000000e+00 0.000000e+00 0.000000e+00 0.000000e+00 0.000000e+00
 0.000000e+00 0.000000e+00 5.789484e-01 4.210515e-01 0.000000e+00 0.000000e+00 0.000000e+00 0.000000e+00 0.000000e+00 0.000000e+00 0.000000e+00 0.000000e+00 0.000000e+00 0.000000e+00
 0.000000e+00 0.000000e+00 0.000000e+00 6.666662e-01 3.333338e-01 0.000000e+00 0.000000e+00 0.000000e+00 0.000000e+00 0.000000e+00 0.000000e+00 0.000000e+00 0.000000e+00 0.000000e+00
 0.000000e+00 0.000000e+00 0.000000e+00 0.000000e+00 5.555512e-01 4.444488e-01 0.000000e+00 0.000000e+00 0.000000e+00 0.000000e+00 0.000000e+00 0.000000e+00 0.000000e+00 0.000000e+00
 0.000000e+00 0.000000e+00 0.000000e+00 0.000000e+00 0.000000e+00 8.095238e-01 1.904761e-01 0.000000e+00 0.000000e+00 0.000000e+00 0.000000e+00 0.000000e+00 0.000000e+00 0.000000e+00
 0.000000e+00 0.000000e+00 0.000000e+00 0.000000e+00 0.000000e+00 0.000000e+00 0.000000e+00 1.000000e+00 0.000000e+00 0.000000e+00 0.000000e+00 0.000000e+00 0.000000e+00 0.000000e+00
 0.000000e+00 0.000000e+00 0.000000e+00 0.000000e+00 0.000000e+00 0.000000e+00 0.000000e+00 5.980449e-01 4.019551e-01 0.000000e+00 0.000000e+00 0.000000e+00 0.000000e+00 0.000000e+00
 0.000000e+00 0.000000e+00 0.000000e+00 0.000000e+00 0.000000e+00 0.000000e+00 0.000000e+00 0.000000e+00 0.000000e+00 1.000000e+00 0.000000e+00 0.000000e+00 0.000000e+00 0.000000e+00
 0.000000e+00 0.000000e+00 0.000000e+00 0.000000e+00 0.000000e+00 0.000000e+00 0.000000e+00 0.000000e+00 0.000000e+00 7.582866e-01 2.417134e-01 0.000000e+00 0.000000e+00 0.000000e+00
 0.000000e+00 0.000000e+00 0.000000e+00 0.000000e+00 0.000000e+00 0.000000e+00 0.000000e+00 0.000000e+00 0.000000e+00 0.000000e+00 3.848962e-01 6.151038e-01 0.000000e+00 0.000000e+00
 0.000000e+00 0.000000e+00 0.000000e+00 0.000000e+00 0.000000e+00 0.000000e+00 0.000000e+00 0.000000e+00 0.000000e+00 0.000000e+00 0.000000e+00 4.664647e-01 5.335353e-01 0.000000e+00
 0.000000e+00 0.000000e+00 0.000000e+00 0.000000e+00 0.000000e+00 0.000000e+00 0.000000e+00 0.000000e+00 0.000000e+00 0.000000e+00 0.000000e+00 0.000000e+00 4.825684e-01 5.174316e-01
 0.000000e+00 0.000000e+00 0.000000e+00 0.000000e+00 0.000000e+00 0.000000e+00 0.000000e+00 0.000000e+00 0.000000e+00 0.000000e+00 0.000000e+00 0.000000e+00 0.000000e+00 0.000000e+00
<ENDHMM>
~h "c"
<BEGINHMM>
<NUMSTATES> 14
<STATE> 2
<MEAN> 20
 6.372659e+03 4.732288e+00 3.640222e-01 0.000000e+00 0.000000e+00 0.000000e+00 0.000000e+00 0.000000e+00 0.000000e+00 1.206498e+02 9.646586e+00 2.429268e+01 2.766303e+03 3.162978e+03 5.142845e+02 1.989928e+01 1.001069e+00 7.765996e-42 0.000000e+00 0.000000e+00
<VARIANCE> 20
 5.202652e+06 2.236845e+02 1.323576e+00 1.000000e-02 1.000000e-02 1.000000e-02 1.000000e-02 1.000000e-02 1.000000e-02 8.963298e+04 9.294817e+02 4.551007e+03 2.064661e+06 1.506285e+06 8.160397e+04 5.424820e+02 3.639184e+00 1.000000e-02 1.000000e-02 1.000000e-02
<GCONST> 9.079064e+01
<STATE> 3
<MEAN> 20
 4.978142e+03 1.092879e+02 3.115482e+02 0.000000e+00 0.000000e+00 0.000000e+00 0.000000e+00 0.000000e+00 0.000000e+00 3.490724e+01 0.000000e+00 2.421052e+00 1.788424e+03 2.328991e+03 1.075801e+03 2.309516e+02 6.413356e+00 8.835263e-01 -8.231392e-08 0.000000e+00
<VARIANCE> 20
 8.199990e+06 5.071564e+04 4.378609e+05 1.000000e-02 1.000000e-02 1.000000e-02 1.000000e-02 1.000000e-02 1.000000e-02 3.221024e+03 1.000000e-02 4.013850e+01 1.934485e+06 1.899248e+06 6.328277e+04 1.518055e+05 3.432824e+02 2.872472e+00 1.000000e-02 1.000000e-02
<GCONST> 1.056359e+02
<STATE> 4
<MEAN> 20
 2.649838e+03 1.335923e+02 0.000000e+00 0.000000e+00 0.000000e+00 0.000000e+00 4.049579e-17 -3.737474e-17 3.661667e-18 4.235880e+01 2.166915e+00 1.093311e+01 4.458713e+02 7.188295e+02 3.458358e+02 1.023730e+03 2.630506e+02 1.281102e+01 2.560899e+00 0.000000e+00
<VARIANCE> 20
 6.370873e+06 6.665282e+04 1.000000e-02 1.000000e-02 1.000000e-02 1.000000e-02 1.000000e-02 1.000000e-02 1.000000e-02 7.676086e+03 4.297662e+01 2.922810e+02 1.423884e+06 1.979912e+06 1.935033e+05 1.195937e+06 3.960498e+04 5.878298e+02 2.752145e+01 1.000000e-02
<GCONST> 1.201880e+02
<STATE> 5
<MEAN> 20
 3.677129e+03 1.080960e+02 2.727403e+01 9.091341e-02 0.000000e+00 0.000000e+00 0.000000e+00 0.000000e+00 0.000000e+00 3.272890e+00 4.091095e+00 3.536520e+01 2.710132e+02 1.037089e+03 1.995924e+03 3.700110e+02 1.003684e+02 1.454614e+00 5.454805e-01 0.000000e+00
<VARIANCE> 20
 5.666412e+06 1.515990e+04 4.852939e+03 8.264816e-02 1.000000e-02 1.000000e-02 1.000000e-02 1.000000e-02 1.000000e-02 1.007483e+02 6.717590e+01 3.520871e+03 4.462724e+05 1.713274e+06 3.880019e+06 1.248157e+05 3.331715e+04 1.406668e+01 2.975334e+00 1.000000e-02
<GCONST> 1.257001e+02
<STATE> 6
<MEAN> 20
 3.096800e+03 2.990889e+01 0.000000e+00 0.000000e+00 0.000000e+00 0.000000e+00 0.000000e+00 0.000000e+00 1.272719e+00 8.590858e+01 2.545437e+00 1.872715e+01 3.086346e+02 9.208116e+02 1.417170e+03 3.025431e+02 1.709995e+02 4.064072e+01 1.845462e+01 1.336356e+01
<VARIANCE> 20
 9.201406e+06 3.121158e+03 1.000000e-02 1.000000e-02 1.000000e-02 1.000000e-02 1.000000e-02 1.000000e-02 8.925569e+00 2.242144e+04 6.479298e+01 6.849236e+02 5.095453e+05 1.259074e+06 3.872188e+06 6.113206e+04 9.371757e+04 6.999596e+03 1.406786e+03 1.656766e+03
<GCONST> 1.444552e+02
<STATE> 7
<MEAN> 20
 3.042593e+03 1.608591e+02 4.285760e-01 0.000000e+00 0.000000e+00 0.000000e+00 5.428629e+00 1.671446e+01 4.428618e+00 4.285765e+01 3.200034e+01 7.114363e+01 2.807176e+02 9.821516e+02 1.309297e+03 1.495730e+02 1.630011e+02 2.318530e+02 5.200039e+01 1.571427e+00
<VARIANCE> 20
 3.679159e+06 9.404273e+04 1.102051e+00 1.000000e-02 1.000000e-02 1.000000e-02 7.367393e+01 1.578504e+03 1.011029e+02 3.352714e+03 2.652589e+03 1.576938e+04 2.132428e+05 1.278364e+06 1.432356e+06 1.849284e+04 7.606431e+04 7.482954e+04 6.134638e+03 7.387845e+00
<GCONST> 1.750706e+02
<STATE> 8
<MEAN> 20
 2.492620e+03 5.383754e+02 3.425005e+01 2.500004e-01 1.225002e+01 7.500012e-01 2.797504e+02 7.262508e+01 1.387501e+01 6.687492e+01 6.228753e+02 1.159998e+02 3.178746e+02 9.787479e+02 6.166221e+02 3.238754e+02 2.683754e+02 2.183753e+02 4.850007e+01 3.750006e-01
<VARIANCE> 20
 4.516492e+06 2.676550e+05 6.674197e+03 4.375006e-01 4.164380e+02 3.937506e+00 1.489688e+05 6.369990e+03 9.246108e+02 3.116610e+03 3.581873e+05 9.576745e+03 3.930692e+05 1.944436e+06 1.119273e+06 1.840286e+05 9.072502e+04 3.399721e+04 2.261750e+03 9.843764e-01
<GCONST> 2.204315e+02
<STATE> 9
<MEAN> 20
 7.419484e+03 3.945515e+02 1.685723e+03 7.241354e-01 0.000000e+00 0.000000e+00 0.000000e+00 0.000000e+00 0.000000e+00 8.627596e+01 0.000000e+00 3.815863e+02 6.586034e+03 2.023621e+03 5.753803e+02 1.982762e+01 3.103455e-01 0.000000e+00 0.000000e+00 0.000000e+00
<VARIANCE> 20
 6.299356e+06 4.212094e+04 9.049434e+05 9.992826e+00 1.000000e-02 1.000000e-02 1.000000e-02 1.000000e-02 1.000000e-02 2.625817e+04 1.000000e-02 1.203722e+05 1.587876e+07 5.955709e+05 8.774485e+05 8.825585e+02 6.967906e-01 1.000000e-02 1.000000e-02 1.000000e-02
<GCONST> 1.094909e+02
<STATE> 10
<MEAN> 20
 6.685754e+03 2.400606e+02 8.436706e+02 1.339252e+01 3.754946e-01 0.000000e+00 4.255605e+00 1.264165e+01 8.135716e+00 2.271727e+02 1.364295e+01 4.838365e+02 4.217333e+03 1.316124e+03 1.854814e+03 1.489594e+02 7.496695e-01 0.000000e+00 0.000000e+00 0.000000e+00
<VARIANCE> 20
 5.663586e+06 5.060243e+04 8.241698e+05 1.253640e+03 9.854877e-01 1.000000e-02 7.926808e+01 1.019868e+03 4.015512e+02 7.691630e+04 5.109127e+02 3.659815e+05 2.174682e+07 4.014413e+05 3.674643e+06 2.982397e+04 1.188977e+00 1.000000e-02 1.000000e-02 1.000000e-02
<GCONST> 1.684431e+02
<STATE> 11
<MEAN> 20
 5.265764e+03 2.696396e+02 9.906108e+02 5.987414e-01 0.000000e+00 0.000000e+00 1.995808e+00 1.995808e+00 8.981135e+00 2.127527e+02 2.454844e+01 5.006223e+02 4.377694e+03 9.793142e+02 2.361096e+02 5.069141e+02 1.251393e+02 1.397065e+00 3.991615e-01 1.995808e-01
<VARIANCE> 20
 1.410154e+07 4.997178e+04 7.977489e+05 1.437733e+00 1.000000e-02 1.000000e-02 6.394951e+00 5.995790e+00 2.731960e+02 9.507765e+04 1.230524e+03 3.998045e+05 2.180932e+07 1.178204e+06 1.473708e+05 8.143885e+05 4.665827e+04 2.239405e+00 6.389931e-01 1.597483e-01
<GCONST> 1.751770e+02
<STATE> 12
<MEAN> 20
 7.202475e+03 4.200487e+02 1.817991e+03 3.790552e+00 0.000000e+00 0.000000e+00 0.000000e+00 0.000000e+00 0.000000e+00 1.081004e+02 0.000000e+00 2.858425e+02 6.547310e+03 2.315422e+03 1.620726e+02 1.197712e+02 1.189436e+02 3.016319e+00 2.746768e-02 0.000000e+00
<VARIANCE> 20
 7.058666e+06 7.405484e+03 3.803719e+05 1.012162e+02 1.000000e-02 1.000000e-02 1.000000e-02 1.000000e-02 1.000000e-02 3.157561e+04 1.000000e-02 7.405206e+04 9.955069e+06 1.457945e+06 2.380133e+04 7.804502e+04 1.115521e+05 9.612112e+01 2.671321e-02 1.000000e-02
<GCONST> 1.324539e+02
<STATE> 13
<MEAN> 20
 3.518477e+03 1.628847e+02 6.476727e+02 0.000000e+00 0.000000e+00 0.000000e+00 3.333337e-01 5.555562e-01 0.000000e+00 4.127094e+01 3.888893e+00 1.052977e+02 2.074726e+03 1.357322e+03 5.449109e+02 1.160080e+02 6.389738e+01 7.349738e+01 3.060080e+01 1.045211e+00
<VARIANCE> 20
 1.000493e+07 4.011382e+04 8.574083e+05 1.000000e-02 1.000000e-02 1.000000e-02 8.888899e-01 2.469138e+00 1.000000e-02 1.699813e+03 1.209878e+02 1.499509e+04 9.039849e+06 2.369015e+06 5.624668e+05 1.926991e+04 5.621773e+03 1.678684e+04 2.245529e+03 3.508305e+00
<GCONST> 1.624882e+02
<TRANSP> 14
 0.000000e+00 1.000000e+00 0.000000e+00 0.000000e+00 0.000000e+00 0.000000e+00 0.000000e+00 0.000000e+00 0.000000e+00 0.000000e+00 0.000000e+00 0.000000e+00 0.000000e+00 0.000000e+00
 0.000000e+00 6.359755e-01 3.640244e-01 0.000000e+00 0.000000e+00 0.000000e+00 0.000000e+00 0.000000e+00 0.000000e+00 0.000000e+00 0.000000e+00 0.000000e+00 0.000000e+00 0.000000e+00
 0.000000e+00 0.000000e+00 4.903070e-01 5.096930e-01 0.000000e+00 0.000000e+00 0.000000e+00 0.000000e+00 0.000000e+00 0.000000e+00 0.000000e+00 0.000000e+00 0.000000e+00 0.000000e+00
 0.000000e+00 0.000000e+00 0.000000e+00 6.060129e-01 3.939871e-01 0.000000e+00 0.000000e+00 0.000000e+00 0.000000e+00 0.000000e+00 0.000000e+00 0.000000e+00 0.000000e+00 0.000000e+00
 0.000000e+00 0.000000e+00 0.000000e+00 0.000000e+00 6.363466e-01 3.636534e-01 0.000000e+00 0.000000e+00 0.000000e+00 0.000000e+00 0.000000e+00 0.000000e+00 0.000000e+00 0.000000e+00
 0.000000e+00 0.000000e+00 0.000000e+00 0.000000e+00 0.000000e+00 6.363664e-01 3.636335e-01 0.000000e+00 0.000000e+00 0.000000e+00 0.000000e+00 0.000000e+00 0.000000e+00 0.000000e+00
 0.000000e+00 0.000000e+00 0.000000e+00 0.000000e+00 0.000000e+00 0.000000e+00 4.285658e-01 5.714342e-01 0.000000e+00 0.000000e+00 0.000000e+00 0.000000e+00 0.000000e+00 0.000000e+00
 0.000000e+00 0.000000e+00 0.000000e+00 0.000000e+00 0.000000e+00 0.000000e+00 0.000000e+00 5.000008e-01 4.999992e-01 0.000000e+00 0.000000e+00 0.000000e+00 0.000000e+00 0.000000e+00
 0.000000e+00 0.000000e+00 0.000000e+00 0.000000e+00 0.000000e+00 0.000000e+00 0.000000e+00 0.000000e+00 8.620688e-01 1.379312e-01 0.000000e+00 0.000000e+00 0.000000e+00 0.000000e+00
 0.000000e+00 0.000000e+00 0.000000e+00 0.000000e+00 0.000000e+00 0.000000e+00 0.000000e+00 0.000000e+00 0.000000e+00 4.993423e-01 5.006577e-01 0.000000e+00 0.000000e+00 0.000000e+00
 0.000000e+00 0.000000e+00 0.000000e+00 0.000000e+00 0.000000e+00 0.000000e+00 0.000000e+00 0.000000e+00 0.000000e+00 0.000000e+00 2.016794e-01 7.983205e-01 0.000000e+00 0.000000e+00
 0.000000e+00 0.000000e+00 0.000000e+00 0.000000e+00 0.000000e+00 0.000000e+00 0.000000e+00 0.000000e+00 0.000000e+00 0.000000e+00 0.000000e+00 8.901286e-01 1.098714e-01 0.000000e+00
 0.000000e+00 0.000000e+00 0.000000e+00 0.000000e+00 0.000000e+00 0.000000e+00 0.000000e+00 0.000000e+00 0.000000e+00 0.000000e+00 0.000000e+00 0.000000e+00 5.555562e-01 4.444438e-01
 0.000000e+00 0.000000e+00 0.000000e+00 0.000000e+00 0.000000e+00 0.000000e+00 0.000000e+00 0.000000e+00 0.000000e+00 0.000000e+00 0.000000e+00 0.000000e+00 0.000000e+00 0.000000e+00
<ENDHMM>
~h "d"
<BEGINHMM>
<NUMSTATES> 14
<STATE> 2
<MEAN> 20
 1.222516e+04 2.079551e+01 -1.401298e-44 0.000000e+00 0.000000e+00 0.000000e+00 0.000000e+00 0.000000e+00 0.000000e+00 1.512150e+02 1.118336e+00 1.599450e+02 6.254900e+03 4.699538e+03 4.773807e+02 1.904048e+02 3.209688e+02 2.183291e+02 6.488609e+01 9.695905e+00
<VARIANCE> 20
 4.366728e+06 1.852521e+03 1.000000e-02 1.000000e-02 1.000000e-02 1.000000e-02 1.000000e-02 1.000000e-02 1.000000e-02 1.422445e+04 1.838230e+01 1.149341e+05 5.840937e+06 3.033164e+06 7.244598e+04 5.642942e+03 1.431000e+04 1.728595e+04 3.971097e+03 3.083105e+02
<GCONST> 1.351399e+02
<STATE> 3
<MEAN> 20
 1.333014e+04 1.989231e+01 3.457408e-02 0.000000e+00 0.000000e+00 0.000000e+00 0.000000e+00 0.000000e+00 0.000000e+00 2.426390e+02 -2.497260e-10 1.624220e+02 7.316833e+03 5.006467e+03 3.592980e+02 1.465889e+02 1.495191e+02 3.480465e+02 9.617116e+01 7.363655e+00
<VARIANCE> 20
 4.980352e+06 9.723721e+02 3.337873e-02 1.000000e-02 1.000000e-02 1.000000e-02 1.000000e-02 1.000000e-02 1.000000e-02 1.990066e+04 1.000000e-02 7.602498e+04 6.603032e+06 2.739044e+06 1.302639e+04 5.045340e+03 1.060978e+04 2.663064e+04 7.600688e+03 9.517685e+01
<GCONST> 1.260378e+02
<STATE> 4
<MEAN> 20
 1.263792e+04 1.483242e+01 0.000000e+00 0.000000e+00 0.000000e+00 0.000000e+00 0.000000e+00 0.000000e+00 9.087498e-02 2.435603e+02 9.087560e+00 2.786927e+02 8.878400e+03 2.913717e+03 2.702672e+02 1.013358e+02 1.388072e+02 2.478705e+02 5.563619e+01 2.586117e+00
<VARIANCE> 20
 3.757460e+06 2.428701e+02 1.000000e-02 1.000000e-02 1.000000e-02 1.000000e-02 1.000000e-02 1.000000e-02 8.261672e-02 2.923932e+04 4.254079e+02 7.699777e+04 6.763954e+06 2.087092e+06 5.888273e+03 8.043549e+02 8.414350e+03 1.254540e+04 2.145682e+03 5.110300e+01
<GCONST> 1.305816e+02
<STATE> 5
<MEAN> 20
 1.152077e+04 1.270880e+00 9.609555e-28 0.000000e+00 0.000000e+00 0.000000e+00 0.000000e+00 0.000000e+00 0.000000e+00 2.596684e+02 -3.425969e-27 1.819875e+02 8.125042e+03 2.785021e+03 2.419261e+02 1.154024e+02 1.417408e+02 1.675224e+02 2.223722e+01 8.325929e-01
<VARIANCE> 20
 4.370504e+06 1.398883e+01 1.000000e-02 1.000000e-02 1.000000e-02 1.000000e-02 1.000000e-02 1.000000e-02 1.000000e-02 3.051177e+04 1.000000e-02 5.010968e+04 4.521943e+06 1.630815e+06 1.420056e+04 4.536495e+03 1.368898e+04 1.624702e+04 1.010539e+03 7.300530e+00
<GCONST> 1.147288e+02
<STATE> 6
<MEAN> 20
 1.223678e+04 2.759954e+01 0.000000e+00 0.000000e+00 0.000000e+00 0.000000e+00 0.000000e+00 0.000000e+00 1.199971e+00 3.929233e+02 2.399987e+00 5.707022e+02 9.580633e+03 1.825777e+03 2.489160e+02 1.183515e+02 1.312886e+02 1.601386e+02 1.939321e+01 8.999858e-01
<VARIANCE> 20
 2.786696e+06 1.216635e+03 1.000000e-02 1.000000e-02 1.000000e-02 1.000000e-02 1.000000e-02 1.000000e-02 5.959870e+00 2.000820e+03 4.303992e+01 1.523016e+05 3.366529e+06 1.609958e+06 9.517729e+03 9.316483e+03 4.964246e+03 6.393715e+03 3.414753e+02 7.289897e+00
<GCONST> 1.288672e+02
<STATE> 7
<MEAN> 20
 1.104100e+04 1.150578e+00 0.000000e+00 0.000000e+00 0.000000e+00 0.000000e+00 0.000000e+00 1.045931e-01 2.614828e-02 3.528150e+02 2.091863e-01 4.014929e+02 7.749056e+03 2.441452e+03 2.618332e+02 1.236767e+02 1.703241e+02 2.059542e+02 3.855941e+01 2.536701e+00
<VARIANCE> 20
 1.915390e+06 8.456050e+00 1.000000e-02 1.000000e-02 1.000000e-02 1.000000e-02 1.000000e-02 4.074330e-01 2.546456e-02 4.954419e+04 1.002173e+00 5.583054e+05 2.125783e+06 1.343665e+06 9.184979e+03 2.844328e+03 1.008993e+04 1.259299e+04 1.397925e+03 2.670326e+01
<GCONST> 1.247558e+02
<STATE> 8
<MEAN> 20
 1.113097e+04 1.288662e+00 0.000000e+00 0.000000e+00 0.000000e+00 0.000000e+00 0.000000e+00 0.000000e+00 3.891118e-01 5.200184e+02 -1.752086e-17 1.061623e+03 8.977376e+03 1.003796e+03 2.052734e+02 1.130975e+02 1.462990e+02 1.393692e+02 5.831569e+00 -1.539898e-16
<VARIANCE> 20
 1.985369e+06 1.168881e+01 1.000000e-02 1.000000e-02 1.000000e-02 1.000000e-02 1.000000e-02 1.000000e-02 6.074378e+00 4.305050e+04 1.000000e-02 7.369828e+05 1.436186e+06 5.054318e+05 1.971270e+04 7.851622e+03 1.848974e+04 1.403048e+04 1.285269e+02 1.000000e-02
<GCONST> 1.132589e+02
<STATE> 9
<MEAN> 20
 1.075825e+04 9.804885e+00 0.000000e+00 0.000000e+00 0.000000e+00 0.000000e+00 0.000000e+00 0.000000e+00 0.000000e+00 7.807620e+02 1.776435e-01 1.522433e+03 8.503521e+03 7.976251e+02 1.993700e+02 1.189669e+02 2.043145e+02 1.899010e+02 1.039171e+01 2.120127e+00
<VARIANCE> 20
 1.640005e+06 4.967698e+02 1.000000e-02 1.000000e-02 1.000000e-02 1.000000e-02 1.000000e-02 1.000000e-02 1.000000e-02 1.514839e+05 8.566598e-01 9.413576e+05 1.273513e+06 3.259673e+05 7.513849e+03 3.711795e+03 1.905192e+04 1.285504e+04 2.580051e+02 2.362487e+01
<GCONST> 1.224956e+02
<STATE> 10
<MEAN> 20
 7.800417e+03 3.235100e-01 0.000000e+00 0.000000e+00 0.000000e+00 0.000000e+00 0.000000e+00 0.000000e+00 0.000000e+00 4.113062e+02 4.037600e-30 1.041946e+03 5.567674e+03 9.761339e+02 2.011617e+02 1.028053e+02 1.142014e+02 1.567420e+02 4.905680e+01 2.324474e+00
<VARIANCE> 20
 8.749355e+06 1.832472e+00 1.000000e-02 1.000000e-02 1.000000e-02 1.000000e-02 1.000000e-02 1.000000e-02 1.000000e-02 1.023598e+05 1.000000e-02 5.818488e+05 6.500810e+06 1.014782e+06 1.469520e+04 3.288675e+03 1.053873e+04 2.360027e+04 8.538796e+03 3.996416e+01
<GCONST> 1.205999e+02
<STATE> 11
<MEAN> 20
 5.503135e+03 5.988193e+01 7.647022e-01 1.176466e-01 8.235265e-01 5.764685e+00 1.117643e+01 8.470558e+00 7.117622e+00 2.775905e+02 1.129403e+01 4.859460e+02 2.347077e+03 1.673881e+03 1.151939e+03 1.042941e+02 4.735318e+01 4.105900e+01 1.199995e+01 0.000000e+00
<VARIANCE> 20
 9.279181e+06 2.315954e+04 6.650497e+00 2.214526e-01 1.085117e+01 4.762961e+02 9.793188e+02 5.682473e+02 3.955143e+02 1.642287e+05 4.492636e+02 7.675469e+05 1.006152e+07 7.532000e+05 1.016145e+06 6.774204e+03 4.208141e+03 3.349248e+03 7.052916e+02 1.000000e-02
<GCONST> 1.933891e+02
<STATE> 12
<MEAN> 20
 3.766668e+03 6.985694e+01 2.807133e+01 9.857105e+00 8.507111e+01 9.007109e+01 4.276412e+02 2.564280e+01 1.249997e+01 3.968606e+02 6.813546e+02 6.442199e+02 2.413093e+03 5.437147e+02 4.787141e+02 9.257163e+01 2.735747e+01 3.085749e+01 7.142830e-02 2.857132e-01
<VARIANCE> 20
 1.451450e+07 1.202452e+04 1.690634e+03 4.335497e+02 1.035491e+04 1.114605e+04 2.157852e+05 8.475181e+02 2.045360e+02 2.111710e+05 3.433694e+05 6.271313e+05 1.100249e+07 2.956157e+05 2.718165e+05 8.749207e+03 3.208406e+03 5.374027e+03 6.632631e-02 1.061221e+00
<GCONST> 2.218220e+02
<STATE> 13
<MEAN> 20
 5.665380e+03 1.300012e+01 0.000000e+00 0.000000e+00 8.909049e+00 1.081813e+01 2.699987e+01 1.909082e+00 3.424089e-25 3.714583e+02 7.409058e+01 5.710968e+02 2.794754e+03 7.192716e+02 9.291732e+02 8.656323e+02 7.609135e+01 5.754596e+01 9.090930e+00 1.727264e+00
<VARIANCE> 20
 1.117323e+07 8.678283e+02 1.000000e-02 1.000000e-02 7.937158e+02 1.170326e+03 7.289970e+03 3.644613e+01 1.000000e-02 2.859623e+05 5.299875e+04 7.565935e+05 1.361092e+07 6.671009e+05 1.128040e+06 1.177337e+06 5.033755e+03 7.097932e+03 3.213546e+02 2.983459e+01
<GCONST> 1.934587e+02
<TRANSP> 14
 0.000000e+00 1.000000e+00 0.000000e+00 0.000000e+00 0.000000e+00 0.000000e+00 0.000000e+00 0.000000e+00 0.000000e+00 0.000000e+00 0.000000e+00 0.000000e+00 0.000000e+00 0.000000e+00
 0.000000e+00 8.793574e-01 1.206426e-01 0.000000e+00 0.000000e+00 0.000000e+00 0.000000e+00 0.000000e+00 0.000000e+00 0.000000e+00 0.000000e+00 0.000000e+00 0.000000e+00 0.000000e+00
 0.000000e+00 0.000000e+00 7.234066e-01 2.765934e-01 0.000000e+00 0.000000e+00 0.000000e+00 0.000000e+00 0.000000e+00 0.000000e+00 0.000000e+00 0.000000e+00 0.000000e+00 0.000000e+00
 0.000000e+00 0.000000e+00 0.000000e+00 2.729972e-01 7.270028e-01 0.000000e+00 0.000000e+00 0.000000e+00 0.000000e+00 0.000000e+00 0.000000e+00 0.000000e+00 0.000000e+00 0.000000e+00
 0.000000e+00 0.000000e+00 0.000000e+00 0.000000e+00 8.951745e-01 1.048256e-01 0.000000e+00 0.000000e+00 0.000000e+00 0.000000e+00 0.000000e+00 0.000000e+00 0.000000e+00 0.000000e+00
 0.000000e+00 0.000000e+00 0.000000e+00 0.000000e+00 0.000000e+00 2.000136e-01 7.999864e-01 0.000000e+00 0.000000e+00 0.000000e+00 0.000000e+00 0.000000e+00 0.000000e+00 0.000000e+00
 0.000000e+00 0.000000e+00 0.000000e+00 0.000000e+00 0.000000e+00 0.000000e+00 7.908127e-01 2.091872e-01 0.000000e+00 0.000000e+00 0.000000e+00 0.000000e+00 0.000000e+00 0.000000e+00
 0.000000e+00 0.000000e+00 0.000000e+00 0.000000e+00 0.000000e+00 0.000000e+00 0.000000e+00 8.054429e-01 1.945571e-01 0.000000e+00 0.000000e+00 0.000000e+00 0.000000e+00 0.000000e+00
 0.000000e+00 0.000000e+00 0.000000e+00 0.000000e+00 0.000000e+00 0.000000e+00 0.000000e+00 0.000000e+00 8.578844e-01 1.421156e-01 0.000000e+00 0.000000e+00 0.000000e+00 0.000000e+00
 0.000000e+00 0.000000e+00 0.000000e+00 0.000000e+00 0.000000e+00 0.000000e+00 0.000000e+00 0.000000e+00 0.000000e+00 5.738989e-01 4.261011e-01 0.000000e+00 0.000000e+00 0.000000e+00
 0.000000e+00 0.000000e+00 0.000000e+00 0.000000e+00 0.000000e+00 0.000000e+00 0.000000e+00 0.000000e+00 0.000000e+00 0.000000e+00 5.294102e-01 4.705898e-01 0.000000e+00 0.000000e+00
 0.000000e+00 0.000000e+00 0.000000e+00 0.000000e+00 0.000000e+00 0.000000e+00 0.000000e+00 0.000000e+00 0.000000e+00 0.000000e+00 0.000000e+00 4.285698e-01 5.714303e-01 0.000000e+00
 0.000000e+00 0.000000e+00 0.000000e+00 0.000000e+00 0.000000e+00 0.000000e+00 0.000000e+00 0.000000e+00 0.000000e+00 0.000000e+00 0.000000e+00 0.000000e+00 2.727259e-01 7.272741e-01
 0.000000e+00 0.000000e+00 0.000000e+00 0.000000e+00 0.000000e+00 0.000000e+00 0.000000e+00 0.000000e+00 0.000000e+00 0.000000e+00 0.000000e+00 0.000000e+00 0.000000e+00 0.000000e+00
<ENDHMM>
~h "e"
<BEGINHMM>
<NUMSTATES> 14
<STATE> 2
<MEAN> 20
 8.141437e+03 7.297227e-02 0.000000e+00 0.000000e+00 0.000000e+00 1.348642e+03 1.953450e+02 1.156514e+02 1.285985e+02 9.558881e+02 1.286401e+00 5.037314e+02 6.548436e+03 2.343547e+03 3.653637e+02 6.858001e+02 3.089390e+02 6.724102e+01 5.196521e+01 9.326835e+00
<VARIANCE> 20
 6.168697e+06 1.844033e-01 1.000000e-02 1.000000e-02 1.000000e-02 4.325415e+05 1.802135e+04 4.327707e+03 3.059190e+03 1.191063e+05 8.689827e+00 2.616914e+05 3.644006e+06 2.949038e+06 3.547231e+04 1.258322e+05 5.077512e+04 4.196011e+03 6.217550e+03 3.668854e+02
<GCONST> 1.884287e+02
<STATE> 3
<MEAN> 20
 1.022783e+04 2.469521e+01 4.875659e-02 5.965427e-25 2.437829e-02 8.837640e+02 2.155663e+02 1.247258e+02 1.425837e+02 1.071538e+03 6.192082e+00 5.706492e+02 9.084890e+03 2.052641e+03 3.714601e+02 5.430951e+02 6.167586e+01 1.706481e-01 0.000000e+00 0.000000e+00
<VARIANCE> 20
 6.250896e+06 2.046478e+03 4.637938e-02 1.000000e-02 2.378400e-02 3.755916e+05 3.186664e+04 6.534702e+03 5.252844e+03 1.605761e+05 1.020771e+02 3.538574e+05 3.362593e+06 1.582976e+06 3.816954e+04 1.660838e+05 1.097988e+04 3.365537e-01 1.000000e-02 1.000000e-02
<GCONST> 1.694383e+02
<STATE> 4
<MEAN> 20
 1.254836e+04 2.660523e+01 -0.000000e+00 0.000000e+00 0.000000e+00 8.391450e+02 1.369534e+02 8.225872e+01 1.040463e+02 1.060745e+03 8.312553e+00 3.605609e+02 1.072282e+04 2.666453e+03 3.539856e+02 4.928447e+02 1.227163e+02 4.937399e+01 1.976130e+01 1.280919e+00
<VARIANCE> 20
 5.917088e+06 1.936767e+03 1.000000e-02 1.000000e-02 1.000000e-02 2.557571e+05 5.578971e+03 1.364214e+03 1.734260e+03 1.297093e+05 5.005933e+02 1.574038e+05 6.513667e+06 2.075065e+06 2.096462e+04 7.097545e+04 1.554251e+04 3.742625e+03 8.906981e+02 7.073700e+00
<GCONST> 1.897979e+02
<STATE> 5
<MEAN> 20
 1.057747e+04 3.593454e+01 3.121823e-01 2.230059e-02 1.338035e-01 1.257254e+03 2.965061e+02 1.584207e+02 1.761294e+02 1.535311e+03 1.743584e+01 9.853441e+02 9.892896e+03 1.789057e+03 5.189577e+02 6.623511e+02 1.672057e+02 4.250658e+00 0.000000e+00 0.000000e+00
<VARIANCE> 20
 5.660208e+06 7.807791e+03 9.729038e-01 2.180327e-02 4.281084e-01 4.879402e+05 5.576179e+04 1.012765e+04 7.521762e+03 3.776288e+05 6.039489e+02 7.990418e+05 6.861298e+06 3.399776e+06 4.960984e+04 1.905487e+05 4.455042e+04 1.163698e+02 1.000000e-02 1.000000e-02
<GCONST> 1.915806e+02
<STATE> 6
<MEAN> 20
 1.152140e+04 3.240041e+01 6.569722e-01 0.000000e+00 0.000000e+00 1.084516e+03 1.859365e+02 1.088884e+02 1.331917e+02 1.622297e+03 8.790780e+00 9.883986e+02 1.054572e+04 1.838996e+03 4.602899e+02 6.151300e+02 1.477186e+02 6.387869e+01 1.884120e+01 1.521348e+00
<VARIANCE> 20
 3.520009e+06 1.109271e+03 7.901264e+00 1.000000e-02 1.000000e-02 3.182730e+05 1.602338e+04 3.319084e+03 3.540875e+03 6.565349e+05 1.234036e+02 8.076429e+05 3.445740e+06 1.929178e+06 2.047065e+04 1.090439e+05 1.153615e+04 4.556651e+03 9.483854e+02 2.361757e+01
<GCONST> 2.009896e+02
<STATE> 7
<MEAN> 20
 7.730409e+03 2.432934e+00 0.000000e+00 0.000000e+00 8.437880e-02 1.023444e+03 2.037539e+02 1.252639e+02 1.449461e+02 1.648094e+03 2.560065e+00 1.401224e+03 7.947948e+03 4.895836e+02 3.322425e+02 6.047975e+02 8.758418e+01 1.229575e+01 1.935536e-01 0.000000e+00
<VARIANCE> 20
 8.122570e+06 4.032238e+01 1.000000e-02 1.000000e-02 2.460164e-01 3.832504e+05 3.032944e+04 7.682608e+03 7.425021e+03 4.493344e+05 2.487482e+01 9.145831e+05 6.076836e+06 1.038292e+05 3.916246e+04 1.781213e+05 1.628928e+04 1.144991e+03 3.215179e-01 1.000000e-02
<GCONST> 1.775809e+02
<STATE> 8
<MEAN> 20
 9.952622e+03 3.923105e+01 3.770210e-02 0.000000e+00 0.000000e+00 1.014223e+03 1.498323e+02 9.453792e+01 1.223864e+02 2.219174e+03 1.209865e+01 2.422939e+03 9.417453e+03 5.708523e+02 3.860215e+02 5.577064e+02 1.599092e+02 5.066024e+01 1.370691e+01 6.974890e-01
<VARIANCE> 20
 3.512123e+06 3.304032e+03 7.398280e-02 1.000000e-02 1.000000e-02 1.620602e+05 1.135779e+04 2.531656e+03 3.272559e+03 6.545419e+05 4.637224e+02 1.303307e+06 3.728690e+06 6.695067e+04 1.947755e+04 5.830970e+04 1.416028e+04 3.086734e+03 5.222981e+02 4.848365e+00
<GCONST> 1.915164e+02
<STATE> 9
<MEAN> 20
 8.691820e+03 7.070924e+01 4.425628e+00 0.000000e+00 2.824874e-01 1.212455e+03 2.477664e+02 1.660357e+02 1.807453e+02 2.249019e+03 2.274108e+01 2.792833e+03 7.756862e+03 7.586124e+02 5.578524e+02 6.488798e+02 2.048098e+02 4.403867e+01 3.455726e+01 2.071505e+00
<VARIANCE> 20
 8.690272e+06 8.364447e+03 1.057439e+02 1.000000e-02 8.618253e-01 4.518290e+05 4.395448e+04 1.210256e+04 8.760280e+03 6.501748e+05 1.146753e+03 2.434896e+06 8.228392e+06 1.392527e+05 1.126512e+05 9.692711e+04 4.734791e+04 4.435254e+03 9.074173e+03 3.826875e+01
<GCONST> 2.218017e+02
<STATE> 10
<MEAN> 20
 4.404871e+03 2.043585e+01 1.135326e+01 3.993215e+00 6.467442e+01 2.862653e+02 3.907252e+02 1.061078e+02 8.605650e+01 7.516078e+02 5.588289e+02 9.812522e+02 3.126456e+03 7.927394e+02 4.771282e+02 1.645983e+02 2.261082e+01 1.380327e+00 3.131933e-01 7.829832e-01
<VARIANCE> 20
 1.026318e+07 1.170187e+03 1.243908e+03 1.651583e+02 2.050797e+04 1.376767e+05 2.104908e+05 1.122635e+04 8.252812e+03 5.366358e+05 7.392530e+05 1.051865e+06 1.059445e+07 4.365081e+05 2.335197e+05 6.257693e+04 1.337939e+03 6.924749e+00 5.282965e-01 3.458450e+00
<GCONST> 2.274390e+02
<STATE> 11
<MEAN> 20
 6.018821e+03 1.430878e+02 3.319705e+01 0.000000e+00 8.999296e-01 2.491800e+02 3.119741e+02 9.929343e+01 8.009551e+01 9.140468e+02 1.611889e+02 1.210036e+03 3.894660e+03 1.030722e+03 5.908600e+02 3.143779e+02 3.400746e+02 2.315824e+02 6.429506e+01 1.279897e+01
<VARIANCE> 20
 9.069013e+06 1.117664e+05 4.565468e+03 1.000000e-02 5.689639e+00 1.078339e+05 1.677524e+05 1.433759e+04 7.942325e+03 1.128626e+06 9.720679e+04 1.631392e+06 1.311895e+07 1.214087e+06 4.427400e+05 5.417944e+04 2.981867e+05 2.053165e+05 1.329074e+04 3.455466e+02
<GCONST> 2.463347e+02
<STATE> 12
<MEAN> 20
 4.803568e+03 1.065023e+02 9.928886e+01 5.285938e+00 2.021548e+01 4.255979e+02 1.391508e+02 6.014544e+01 6.921712e+01 8.919011e+02 1.400075e+02 8.619008e+02 2.833915e+03 1.012685e+03 1.395846e+03 2.976585e+02 6.578864e+01 1.264330e+01 4.285983e-01 0.000000e+00
<VARIANCE> 20
 8.379398e+06 2.374078e+04 2.825579e+04 8.334932e+01 3.803234e+03 5.933787e+05 4.396637e+04 8.051657e+03 1.213593e+04 1.396819e+06 1.234537e+05 1.401006e+06 1.364482e+07 8.014916e+05 1.126142e+06 1.324137e+05 1.057109e+04 1.068253e+03 8.163663e-01 1.000000e-02
<GCONST> 2.352805e+02
<STATE> 13
<MEAN> 20
 3.810441e+03 1.708295e+01 -4.346937e-32 0.000000e+00 0.000000e+00 7.966769e+01 2.183361e+01 2.750034e+01 2.450031e+01 4.401724e+02 2.750032e+00 7.363370e+02 2.017943e+03 4.450806e+02 9.909226e+02 1.664164e+02 3.258348e+01 1.208319e+01 6.499872e+00 1.058309e+01
<VARIANCE> 20
 9.291201e+06 1.223886e+03 1.000000e-02 1.000000e-02 1.000000e-02 6.777219e+04 1.836490e+03 2.041599e+03 1.555428e+03 4.475000e+05 3.885455e+01 1.465425e+06 9.311593e+06 1.002333e+05 1.172428e+06 2.018175e+04 4.752962e+03 3.992372e+02 1.587470e+02 1.033221e+03
<GCONST> 1.884888e+02
<TRANSP> 14
 0.000000e+00 1.000000e+00 0.000000e+00 0.000000e+00 0.000000e+00 0.000000e+00 0.000000e+00 0.000000e+00 0.000000e+00 0.000000e+00 0.000000e+00 0.000000e+00 0.000000e+00 0.000000e+00
 0.000000e+00 8.832433e-01 1.167567e-01 0.000000e+00 0.000000e+00 0.000000e+00 0.000000e+00 0.000000e+00 0.000000e+00 0.000000e+00 0.000000e+00 0.000000e+00 0.000000e+00 0.000000e+00
 0.000000e+00 0.000000e+00 8.049746e-01 1.950255e-01 0.000000e+00 0.000000e+00 0.000000e+00 0.000000e+00 0.000000e+00 0.000000e+00 0.000000e+00 0.000000e+00 0.000000e+00 0.000000e+00
 0.000000e+00 0.000000e+00 0.000000e+00 8.320113e-01 1.679886e-01 0.000000e+00 0.000000e+00 0.000000e+00 0.000000e+00 0.000000e+00 0.000000e+00 0.000000e+00 0.000000e+00 0.000000e+00
 0.000000e+00 0.000000e+00 0.000000e+00 0.000000e+00 8.215962e-01 1.784038e-01 0.000000e+00 0.000000e+00 0.000000e+00 0.000000e+00 0.000000e+00 0.000000e+00 0.000000e+00 0.000000e+00
 0.000000e+00 0.000000e+00 0.000000e+00 0.000000e+00 0.000000e+00 7.233927e-01 2.766074e-01 0.000000e+00 0.000000e+00 0.000000e+00 0.000000e+00 0.000000e+00 0.000000e+00 0.000000e+00
 0.000000e+00 0.000000e+00 0.000000e+00 0.000000e+00 0.000000e+00 0.000000e+00 7.749909e-01 2.250091e-01 0.000000e+00 0.000000e+00 0.000000e+00 0.000000e+00 0.000000e+00 0.000000e+00
 0.000000e+00 0.000000e+00 0.000000e+00 0.000000e+00 0.000000e+00 0.000000e+00 0.000000e+00 8.491920e-01 1.508080e-01 0.000000e+00 0.000000e+00 0.000000e+00 0.000000e+00 0.000000e+00
 0.000000e+00 0.000000e+00 0.000000e+00 0.000000e+00 0.000000e+00 0.000000e+00 0.000000e+00 0.000000e+00 6.233528e-01 3.766472e-01 0.000000e+00 0.000000e+00 0.000000e+00 0.000000e+00
 0.000000e+00 0.000000e+00 0.000000e+00 0.000000e+00 0.000000e+00 0.000000e+00 0.000000e+00 0.000000e+00 0.000000e+00 3.736165e-01 6.263835e-01 0.000000e+00 0.000000e+00 0.000000e+00
 0.000000e+00 0.000000e+00 0.000000e+00 0.000000e+00 0.000000e+00 0.000000e+00 0.000000e+00 0.000000e+00 0.000000e+00 0.000000e+00 2.000621e-01 7.999380e-01 0.000000e+00 0.000000e+00
 0.000000e+00 0.000000e+00 0.000000e+00 0.000000e+00 0.000000e+00 0.000000e+00 0.000000e+00 0.000000e+00 0.000000e+00 0.000000e+00 0.000000e+00 4.285384e-01 5.714617e-01 0.000000e+00
 0.000000e+00 0.000000e+00 0.000000e+00 0.000000e+00 0.000000e+00 0.000000e+00 0.000000e+00 0.000000e+00 0.000000e+00 0.000000e+00 0.000000e+00 0.000000e+00 3.333286e-01 6.666714e-01
 0.000000e+00 0.000000e+00 0.000000e+00 0.000000e+00 0.000000e+00 0.000000e+00 0.000000e+00 0.000000e+00 0.000000e+00 0.000000e+00 0.000000e+00 0.000000e+00 0.000000e+00 0.000000e+00
<ENDHMM>
~h "f"
<BEGINHMM>
<NUMSTATES> 14
<STATE> 2
<MEAN> 20
 6.734437e+03 4.935524e+02 7.784016e+02 0.000000e+00 0.000000e+00 0.000000e+00 0.000000e+00 0.000000e+00 1.249907e-01 1.873648e+02 3.837220e+01 4.637855e+02 3.236874e+03 2.525264e+03 1.831501e+03 9.139098e+01 5.205754e+00 1.338844e+00 7.413255e-02 7.413255e-02
<VARIANCE> 20
 7.548905e+06 1.542665e+05 8.001056e+05 1.000000e-02 1.000000e-02 1.000000e-02 1.000000e-02 1.000000e-02 1.093680e-01 7.786202e+04 3.192610e+03 1.691616e+05 1.271815e+07 2.605056e+06 3.342054e+06 1.485594e+04 6.512487e+01 1.186111e+01 6.863692e-02 6.863692e-02
<GCONST> 1.413159e+02
<STATE> 3
<MEAN> 20
 6.240274e+03 3.621381e+02 1.545119e+03 1.064029e-01 0.000000e+00 0.000000e+00 0.000000e+00 0.000000e+00 0.000000e+00 1.568105e+02 -0.000000e+00 4.829427e+02 4.759910e+03 2.796346e+03 2.519146e+02 1.264417e+01 6.916001e-01 1.115165e-09 0.000000e+00 0.000000e+00
<VARIANCE> 20
 3.745596e+06 2.407686e+04 3.696751e+05 2.014842e-01 1.000000e-02 1.000000e-02 1.000000e-02 1.000000e-02 1.000000e-02 3.729918e+04 1.000000e-02 1.700408e+05 1.597389e+06 1.123656e+06 1.136228e+05 2.512583e+02 4.628899e+00 1.000000e-02 1.000000e-02 1.000000e-02
<GCONST> 1.012404e+02
<STATE> 4
<MEAN> 20
 8.761654e+03 3.511105e+02 1.097673e+03 1.111101e-01 0.000000e+00 0.000000e+00 0.000000e+00 0.000000e+00 0.000000e+00 1.315570e+02 2.122199e+01 3.152225e+02 5.597883e+03 3.881223e+03 4.665558e+02 4.300011e+01 1.033328e+01 6.111028e+00 5.555495e-01 0.000000e+00
<VARIANCE> 20
 5.288808e+06 1.373951e+05 7.561681e+05 9.876465e-02 1.000000e-02 1.000000e-02 1.000000e-02 1.000000e-02 1.000000e-02 2.395503e+04 3.560806e+03 6.612572e+04 2.276196e+06 4.578815e+05 1.801918e+04 6.639930e+02 6.466604e+01 7.632021e+01 1.580235e+00 1.000000e-02
<GCONST> 1.299518e+02
<STATE> 5
<MEAN> 20
 6.604266e+03 3.396944e+02 1.578390e+03 0.000000e+00 0.000000e+00 0.000000e+00 0.000000e+00 0.000000e+00 0.000000e+00 1.315595e+02 0.000000e+00 1.934692e+02 4.471818e+03 3.636347e+03 3.234285e+02 2.734852e+01 1.498268e+00 -1.151029e-13 0.000000e+00 0.000000e+00
<VARIANCE> 20
 8.739992e+05 1.284461e+04 1.884786e+05 1.000000e-02 1.000000e-02 1.000000e-02 1.000000e-02 1.000000e-02 1.000000e-02 1.381161e+04 1.000000e-02 1.356456e+04 9.719126e+05 2.648309e+05 3.054453e+04 8.568146e+02 6.617133e+00 1.000000e-02 1.000000e-02 1.000000e-02
<GCONST> 9.028625e+01
<STATE> 6
<MEAN> 20
 9.124732e+03 1.377804e+02 5.274619e+02 1.149065e-43 0.000000e+00 0.000000e+00 0.000000e+00 0.000000e+00 0.000000e+00 1.742119e+02 0.000000e+00 2.541971e+02 5.875385e+03 3.480742e+03 3.063406e+02 3.772790e+01 9.120868e+00 6.528289e-01 2.040093e-02 0.000000e+00
<VARIANCE> 20
 1.872714e+06 2.871343e+04 5.771662e+05 1.000000e-02 1.000000e-02 1.000000e-02 1.000000e-02 1.000000e-02 1.000000e-02 3.411728e+04 1.000000e-02 1.467029e+05 1.804563e+06 1.439250e+06 5.863170e+04 1.721036e+03 2.521102e+02 1.491500e+00 1.998474e-02 1.000000e-02
<GCONST> 1.092558e+02
<STATE> 7
<MEAN> 20
 8.197619e+03 3.173917e+02 1.465897e+03 8.999780e+00 0.000000e+00 0.000000e+00 0.000000e+00 0.000000e+00 0.000000e+00 1.594425e+02 0.000000e+00 5.426186e+02 6.812810e+03 2.599202e+03 1.336094e+02 4.077732e+01 1.233312e+01 5.166568e+00 1.944408e+00 8.888720e-01
<VARIANCE> 20
 1.955051e+06 2.615655e+04 6.082111e+05 3.225494e+02 1.000000e-02 1.000000e-02 1.000000e-02 1.000000e-02 1.000000e-02 5.759152e+04 1.000000e-02 1.170671e+05 9.161021e+05 1.238238e+06 2.113782e+03 1.838038e+03 2.009987e+02 6.080492e+01 2.127436e+01 6.876429e+00
<GCONST> 1.328368e+02
<STATE> 8
<MEAN> 20
 9.640752e+03 2.875000e+02 1.353999e+03 1.049995e+01 0.000000e+00 0.000000e+00 0.000000e+00 0.000000e+00 0.000000e+00 2.507499e+02 0.000000e+00 9.587493e+02 8.348250e+03 2.093752e+03 1.067500e+02 2.700002e+01 7.000002e+00 1.500003e+00 5.000008e-01 0.000000e+00
<VARIANCE> 20
 3.131320e+06 1.832229e+04 5.650466e+05 1.822494e+02 1.000000e-02 1.000000e-02 1.000000e-02 1.000000e-02 1.000000e-02 6.474520e+04 1.000000e-02 3.305776e+05 1.846260e+05 2.598425e+06 5.886888e+02 5.994995e+02 1.095000e+02 2.750004e+00 2.500000e-01 1.000000e-02
<GCONST> 1.155228e+02
<STATE> 9
<MEAN> 20
 8.591359e+03 3.057832e+02 1.318101e+03 1.467865e+00 0.000000e+00 0.000000e+00 0.000000e+00 0.000000e+00 0.000000e+00 3.170054e+02 0.000000e+00 1.090476e+03 8.015569e+03 1.316928e+03 9.010535e+01 1.616220e+01 4.153011e+00 3.222170e-01 0.000000e+00 0.000000e+00
<VARIANCE> 20
 3.825281e+06 4.720979e+04 8.496072e+05 1.707080e+01 1.000000e-02 1.000000e-02 1.000000e-02 1.000000e-02 1.000000e-02 5.908939e+04 1.000000e-02 5.509064e+05 1.517031e+06 9.238839e+05 3.007448e+03 3.824283e+02 5.679065e+01 1.006035e+00 1.000000e-02 1.000000e-02
<GCONST> 1.125011e+02
<STATE> 10
<MEAN> 20
 9.425872e+03 3.848679e+02 1.626035e+03 5.371975e+01 0.000000e+00 0.000000e+00 0.000000e+00 0.000000e+00 0.000000e+00 6.519371e+02 7.081360e+00 2.437864e+03 9.091402e+03 5.247567e+02 6.693321e+01 1.263282e+01 1.699166e+00 6.266653e-02 0.000000e+00 0.000000e+00
<VARIANCE> 20
 2.473112e+06 1.376016e+04 2.323844e+05 2.150309e+03 1.000000e-02 1.000000e-02 1.000000e-02 1.000000e-02 1.000000e-02 5.108655e+04 2.561078e+02 3.418514e+05 1.384139e+06 1.071498e+05 2.485584e+03 4.685289e+02 2.703345e+01 5.873943e-02 1.000000e-02 1.000000e-02
<GCONST> 1.180833e+02
<STATE> 11
<MEAN> 20
 8.443018e+03 3.469677e+02 1.603392e+03 1.043847e+02 0.000000e+00 0.000000e+00 0.000000e+00 0.000000e+00 0.000000e+00 8.820855e+02 2.095618e-01 3.180488e+03 7.636648e+03 4.269532e+02 9.590015e+01 3.443095e+01 4.590415e+00 5.227412e-01 1.047807e-01 0.000000e+00
<VARIANCE> 20
 1.291466e+06 1.010920e+04 2.568833e+05 1.987873e+04 1.000000e-02 1.000000e-02 1.000000e-02 1.000000e-02 1.000000e-02 1.805388e+05 2.704264e-01 1.078580e+06 6.863279e+05 3.284555e+04 7.570688e+02 7.923962e+02 5.176898e+01 1.192509e+00 1.985825e-01 1.000000e-02
<GCONST> 1.191094e+02
<STATE> 12
<MEAN> 20
 8.623271e+03 3.225154e+02 9.475980e+02 3.423261e+02 0.000000e+00 0.000000e+00 0.000000e+00 0.000000e+00 0.000000e+00 8.241088e+02 2.992944e-01 3.548007e+03 6.926511e+03 4.786792e+02 6.620911e+01 2.531832e+01 1.120033e+01 3.294460e+00 1.995296e-01 9.976479e-02
<VARIANCE> 20
 2.744688e+06 1.934840e+04 2.873491e+05 7.794538e+04 1.000000e-02 1.000000e-02 1.000000e-02 1.000000e-02 1.000000e-02 7.049467e+04 8.083060e-01 1.732539e+06 1.961725e+06 1.201997e+05 1.158394e+03 7.273696e+02 2.278411e+02 2.795728e+01 3.592471e-01 8.981177e-02
<GCONST> 1.327310e+02
<STATE> 13
<MEAN> 20
 9.575641e+03 1.600956e+02 5.563981e+02 2.948555e+00 0.000000e+00 0.000000e+00 0.000000e+00 0.000000e+00 0.000000e+00 6.229788e+02 1.053059e+00 1.672672e+03 8.377662e+03 7.449042e+02 7.594467e+01 2.567536e+01 1.394044e+01 5.209846e+00 8.424446e-01 1.579581e-01
<VARIANCE> 20
 3.391425e+06 3.375542e+04 5.702114e+05 5.922802e+01 1.000000e-02 1.000000e-02 1.000000e-02 1.000000e-02 1.000000e-02 1.397933e+05 1.995225e+01 8.380979e+05 2.658236e+06 2.949089e+05 4.962997e+03 4.677896e+02 1.980486e+02 4.122570e+01 3.607812e+00 2.383125e-01
<GCONST> 1.359125e+02
<TRANSP> 14
 0.000000e+00 1.000000e+00 0.000000e+00 0.000000e+00 0.000000e+00 0.000000e+00 0.000000e+00 0.000000e+00 0.000000e+00 0.000000e+00 0.000000e+00 0.000000e+00 0.000000e+00 0.000000e+00
 0.000000e+00 5.000376e-01 4.999624e-01 0.000000e+00 0.000000e+00 0.000000e+00 0.000000e+00 0.000000e+00 0.000000e+00 0.000000e+00 0.000000e+00 0.000000e+00 0.000000e+00 0.000000e+00
 0.000000e+00 0.000000e+00 8.935974e-01 1.064026e-01 0.000000e+00 0.000000e+00 0.000000e+00 0.000000e+00 0.000000e+00 0.000000e+00 0.000000e+00 0.000000e+00 0.000000e+00 0.000000e+00
 0.000000e+00 0.000000e+00 0.000000e+00 5.555608e-01 4.444392e-01 0.000000e+00 0.000000e+00 0.000000e+00 0.000000e+00 0.000000e+00 0.000000e+00 0.000000e+00 0.000000e+00 0.000000e+00
 0.000000e+00 0.000000e+00 0.000000e+00 0.000000e+00 8.749307e-01 1.250693e-01 0.000000e+00 0.000000e+00 0.000000e+00 0.000000e+00 0.000000e+00 0.000000e+00 0.000000e+00 0.000000e+00
 0.000000e+00 0.000000e+00 0.000000e+00 0.000000e+00 0.000000e+00 9.183965e-01 8.160351e-02 0.000000e+00 0.000000e+00 0.000000e+00 0.000000e+00 0.000000e+00 0.000000e+00 0.000000e+00
 0.000000e+00 0.000000e+00 0.000000e+00 0.000000e+00 0.000000e+00 0.000000e+00 7.777825e-01 2.222176e-01 0.000000e+00 0.000000e+00 0.000000e+00 0.000000e+00 0.000000e+00 0.000000e+00
 0.000000e+00 0.000000e+00 0.000000e+00 0.000000e+00 0.000000e+00 0.000000e+00 0.000000e+00 0.000000e+00 1.000000e+00 0.000000e+00 0.000000e+00 0.000000e+00 0.000000e+00 0.000000e+00
 0.000000e+00 0.000000e+00 0.000000e+00 0.000000e+00 0.000000e+00 0.000000e+00 0.000000e+00 0.000000e+00 8.567927e-01 1.432073e-01 0.000000e+00 0.000000e+00 0.000000e+00 0.000000e+00
 0.000000e+00 0.000000e+00 0.000000e+00 0.000000e+00 0.000000e+00 0.000000e+00 0.000000e+00 0.000000e+00 0.000000e+00 7.493324e-01 2.506676e-01 0.000000e+00 0.000000e+00 0.000000e+00
 0.000000e+00 0.000000e+00 0.000000e+00 0.000000e+00 0.000000e+00 0.000000e+00 0.000000e+00 0.000000e+00 0.000000e+00 0.000000e+00 7.904377e-01 2.095622e-01 0.000000e+00 0.000000e+00
 0.000000e+00 0.000000e+00 0.000000e+00 0.000000e+00 0.000000e+00 0.000000e+00 0.000000e+00 0.000000e+00 0.000000e+00 0.000000e+00 0.000000e+00 6.009423e-01 3.990577e-01 0.000000e+00
 0.000000e+00 0.000000e+00 0.000000e+00 0.000000e+00 0.000000e+00 0.000000e+00 0.000000e+00 0.000000e+00 0.000000e+00 0.000000e+00 0.000000e+00 0.000000e+00 7.893884e-01 2.106116e-01
 0.000000e+00 0.000000e+00 0.000000e+00 0.000000e+00 0.000000e+00 0.000000e+00 0.000000e+00 0.000000e+00 0.000000e+00 0.000000e+00 0.000000e+00 0.000000e+00 0.000000e+00 0.000000e+00
<ENDHMM>
~h "g"
<BEGINHMM>
<NUMSTATES> 14
<STATE> 2
<MEAN> 20
 6.192040e+03 6.204163e+01 8.986297e+01 0.000000e+00 4.348182e-02 1.192626e+03 1.945744e+02 1.228754e+02 1.443960e+02 1.971131e+03 2.174013e+00 1.656770e+03 5.981312e+03 7.905427e+02 6.299379e+02 7.012836e+02 1.211736e+02 5.700344e+01 2.608899e+01 3.304604e+00
<VARIANCE> 20
 8.723266e+06 1.927038e+04 1.597834e+05 1.000000e-02 4.159114e-02 8.667425e+05 5.144433e+04 1.413320e+04 1.391386e+04 1.335179e+06 1.023133e+01 1.196384e+06 7.857448e+06 6.302942e+05 3.683983e+05 2.210777e+05 1.388245e+04 4.619449e+03 1.812786e+03 4.804081e+01
<GCONST> 2.245496e+02
<STATE> 3
<MEAN> 20
 4.568123e+03 1.183417e+02 1.449579e+02 8.606112e-32 0.000000e+00 4.097217e+00 4.218874e+00 3.531711e+00 6.903852e+00 1.355724e+02 4.474096e+00 2.139011e+02 1.225655e+03 2.185361e+03 1.277829e+03 5.614357e+01 1.980303e+01 2.527898e+00 5.272907e-02 6.868895e-29
<VARIANCE> 20
 5.903628e+06 3.875755e+04 1.451156e+05 1.000000e-02 1.000000e-02 1.372387e+02 2.053304e+02 1.202930e+02 2.871011e+02 1.191641e+05 1.005700e+02 3.545068e+05 3.885296e+06 2.071702e+06 1.308028e+06 1.206905e+04 3.739712e+03 3.816024e+01 4.994872e-02 1.000000e-02
<GCONST> 1.728280e+02
<STATE> 4
<MEAN> 20
 4.246759e+03 2.679176e+02 4.834195e+02 1.067507e+02 7.025029e+01 1.902505e+02 1.229177e+02 5.891718e+01 3.200026e+01 2.030851e+02 2.358353e+02 4.796708e+02 1.062593e+03 1.708014e+03 1.645991e+03 5.359141e+02 9.866669e+01 1.141672e+01 3.000018e+00 1.166677e+00
<VARIANCE> 20
 2.666506e+06 1.765746e+04 2.957039e+05 4.333766e+04 1.453426e+04 9.141766e+04 3.321993e+04 9.474136e+03 2.996187e+03 1.310056e+05 9.793278e+04 6.329344e+05 3.704174e+06 2.103749e+06 1.439064e+06 2.980995e+05 2.160912e+04 9.019172e+02 6.316719e+01 6.972273e+00
<GCONST> 2.491615e+02
<STATE> 5
<MEAN> 20
 3.991546e+03 2.117146e+02 1.567691e+02 6.709589e+00 7.253494e+00 7.525604e+00 8.123893e+01 3.653983e+01 3.391066e+01 1.003721e+02 1.750812e+02 1.340109e+02 8.682637e+02 1.339599e+03 1.576941e+03 5.019622e+02 3.155560e+01 3.536154e+00 1.541397e+00 1.088042e+00
<VARIANCE> 20
 1.113255e+07 8.167586e+04 9.323855e+04 4.514911e+02 2.440542e+02 2.009591e+02 3.289470e+04 2.356807e+03 2.837562e+03 3.446428e+04 1.241505e+05 4.761417e+04 3.884419e+06 2.821374e+06 4.095934e+06 3.192465e+05 1.297498e+03 3.981260e+01 7.688502e+00 5.525754e+00
<GCONST> 2.242400e+02
<STATE> 6
<MEAN> 20
 3.200385e+03 9.592856e+01 1.604165e+02 4.576966e+01 3.381069e+01 1.684279e+02 2.561003e+01 7.764374e+00 5.134456e+00 3.162029e+01 2.016197e+01 6.850061e+01 1.200938e+02 4.920565e+02 2.267112e+03 6.789634e+02 1.046249e+02 2.009856e+01 2.254031e+00 1.001786e+00
<VARIANCE> 20
 3.864359e+06 1.302217e+04 1.227851e+05 5.222460e+03 2.876177e+03 5.862672e+04 3.090629e+03 1.819064e+02 6.129688e+01 4.291479e+03 1.152943e+03 9.715538e+03 1.622367e+04 5.808235e+05 2.928679e+06 3.239110e+05 4.291505e+04 2.502452e+03 2.059029e+01 6.384610e+00
<GCONST> 2.164881e+02
<STATE> 7
<MEAN> 20
 4.257605e+03 1.342593e+02 6.299783e+01 7.947401e+00 5.631593e+00 7.210168e+00 2.615685e+01 1.810519e+01 4.526419e+01 4.405273e+01 1.158952e+02 4.257743e+01 3.348988e+02 1.857779e+03 1.639503e+03 5.635770e+02 5.336857e+01 1.631622e+00 0.000000e+00 0.000000e+00
<VARIANCE> 20
 4.944996e+06 5.607013e+04 1.257238e+04 4.212062e+02 2.327584e+02 1.762696e+02 2.749685e+03 9.365303e+02 2.650731e+04 4.365849e+03 1.006369e+05 3.380439e+03 6.775730e+05 4.937678e+06 2.209647e+06 5.811055e+05 1.514791e+04 2.654914e+01 1.000000e-02 1.000000e-02
<GCONST> 2.025974e+02
<STATE> 8
<MEAN> 20
 3.780560e+03 7.040076e+01 2.700033e+00 1.500018e-01 5.500067e-01 0.000000e+00 1.500018e-01 5.000061e-02 1.300005e+00 2.504988e+01 1.795022e+01 3.800046e+01 2.752967e+02 7.698976e+02 1.878913e+03 8.545518e+02 4.590032e+01 3.999975e-01 0.000000e+00 0.000000e+00
<VARIANCE> 20
 2.877967e+06 6.540389e+04 7.741085e+01 4.275047e-01 5.747565e+00 1.000000e-02 4.275047e-01 4.750055e-02 1.821016e+01 1.893428e+03 2.382473e+03 2.184295e+04 3.317130e+05 1.025397e+06 3.396760e+06 7.985070e+05 7.500557e+03 9.400049e-01 1.000000e-02 1.000000e-02
<GCONST> 1.425122e+02
<STATE> 9
<MEAN> 20
 7.127445e+03 7.639583e+00 0.000000e+00 0.000000e+00 0.000000e+00 0.000000e+00 0.000000e+00 0.000000e+00 0.000000e+00 7.555476e+01 0.000000e+00 3.900452e+01 3.043546e+03 1.953071e+03 1.850475e+03 3.136445e+02 1.006579e+01 7.623475e-01 6.924035e-02 0.000000e+00
<VARIANCE> 20
 1.738552e+07 6.089584e+02 1.000000e-02 1.000000e-02 1.000000e-02 1.000000e-02 1.000000e-02 1.000000e-02 1.000000e-02 2.117903e+04 1.000000e-02 1.804546e+04 1.480784e+07 5.821021e+06 3.255296e+06 1.403413e+05 3.554764e+02 6.093185e+00 6.444611e-02 1.000000e-02
<GCONST> 1.020293e+02
<STATE> 10
<MEAN> 20
 8.498282e+03 1.537122e+00 0.000000e+00 0.000000e+00 0.000000e+00 0.000000e+00 0.000000e+00 0.000000e+00 0.000000e+00 5.445001e+01 7.123250e-01 3.928836e+01 4.706258e+03 3.664254e+03 1.214242e+02 1.247836e+01 6.106470e+00 2.923108e+00 7.498140e-01 7.498068e-02
<VARIANCE> 20
 3.868032e+06 2.406826e+01 1.000000e-02 1.000000e-02 1.000000e-02 1.000000e-02 1.000000e-02 1.000000e-02 1.000000e-02 4.835653e+03 7.178195e+00 2.822033e+04 5.366295e+06 4.692479e+06 2.010943e+04 2.312246e+02 7.343243e+01 2.638978e+01 2.587011e+00 6.935857e-02
<GCONST> 9.563394e+01
<STATE> 11
<MEAN> 20
 9.700776e+03 0.000000e+00 0.000000e+00 0.000000e+00 0.000000e+00 0.000000e+00 0.000000e+00 0.000000e+00 0.000000e+00 1.157398e+02 0.000000e+00 4.406046e+02 7.422688e+03 1.843302e+03 1.012183e+02 7.808668e+00 8.411199e-01 5.336177e-02 0.000000e+00 0.000000e+00
<VARIANCE> 20
 5.448689e+06 1.000000e-02 1.000000e-02 1.000000e-02 1.000000e-02 1.000000e-02 1.000000e-02 1.000000e-02 1.000000e-02 2.528169e+04 1.000000e-02 5.833263e+05 6.085668e+06 3.052152e+06 2.435866e+04 1.656335e+02 6.140910e+00 7.719516e-02 1.000000e-02 1.000000e-02
<GCONST> 7.004266e+01
<STATE> 12
<MEAN> 20
 1.017295e+04 3.999924e+00 0.000000e+00 0.000000e+00 0.000000e+00 0.000000e+00 0.000000e+00 0.000000e+00 0.000000e+00 4.504646e+01 1.428539e+00 2.474343e+02 6.524135e+03 3.216140e+03 1.669035e+02 4.957146e+01 1.452296e+01 1.857159e+00 0.000000e+00 0.000000e+00
<VARIANCE> 20
 1.453322e+06 5.599903e+01 1.000000e-02 1.000000e-02 1.000000e-02 1.000000e-02 1.000000e-02 1.000000e-02 1.000000e-02 3.218905e+03 1.224466e+01 2.558630e+05 5.101106e+06 4.857228e+06 2.120685e+04 2.082010e+03 5.544973e+02 9.265377e+00 1.000000e-02 1.000000e-02
<GCONST> 9.354845e+01
<STATE> 13
<MEAN> 20
 9.155070e+03 0.000000e+00 0.000000e+00 0.000000e+00 0.000000e+00 0.000000e+00 0.000000e+00 0.000000e+00 0.000000e+00 3.510898e+01 1.055326e-28 2.787439e+02 7.048845e+03 1.728947e+03 1.054014e+02 2.442112e+01 3.596021e+00 1.610388e-01 6.442317e-02 0.000000e+00
<VARIANCE> 20
 1.777481e+06 1.000000e-02 1.000000e-02 1.000000e-02 1.000000e-02 1.000000e-02 1.000000e-02 1.000000e-02 1.000000e-02 5.064632e+03 1.000000e-02 3.712382e+05 3.512080e+06 2.381702e+06 6.120923e+03 7.496191e+02 5.723368e+01 5.215895e-01 2.535422e-01 1.000000e-02
<GCONST> 7.356931e+01
<TRANSP> 14
 0.000000e+00 1.000000e+00 0.000000e+00 0.000000e+00 0.000000e+00 0.000000e+00 0.000000e+00 0.000000e+00 0.000000e+00 0.000000e+00 0.000000e+00 0.000000e+00 0.000000e+00 0.000000e+00
 0.000000e+00 6.956317e-01 3.043683e-01 0.000000e+00 0.000000e+00 0.000000e+00 0.000000e+00 0.000000e+00 0.000000e+00 0.000000e+00 0.000000e+00 0.000000e+00 0.000000e+00 0.000000e+00
 0.000000e+00 0.000000e+00 6.315553e-01 3.684448e-01 0.000000e+00 0.000000e+00 0.000000e+00 0.000000e+00 0.000000e+00 0.000000e+00 0.000000e+00 0.000000e+00 0.000000e+00 0.000000e+00
 0.000000e+00 0.000000e+00 0.000000e+00 4.166694e-01 5.833306e-01 0.000000e+00 0.000000e+00 0.000000e+00 0.000000e+00 0.000000e+00 0.000000e+00 0.000000e+00 0.000000e+00 0.000000e+00
 0.000000e+00 0.000000e+00 0.000000e+00 0.000000e+00 3.653122e-01 6.346879e-01 0.000000e+00 0.000000e+00 0.000000e+00 0.000000e+00 0.000000e+00 0.000000e+00 0.000000e+00 0.000000e+00
 0.000000e+00 0.000000e+00 0.000000e+00 0.000000e+00 0.000000e+00 5.617193e-01 4.382807e-01 0.000000e+00 0.000000e+00 0.000000e+00 0.000000e+00 0.000000e+00 0.000000e+00 0.000000e+00
 0.000000e+00 0.000000e+00 0.000000e+00 0.000000e+00 0.000000e+00 0.000000e+00 6.315739e-01 3.684261e-01 0.000000e+00 0.000000e+00 0.000000e+00 0.000000e+00 0.000000e+00 0.000000e+00
 0.000000e+00 0.000000e+00 0.000000e+00 0.000000e+00 0.000000e+00 0.000000e+00 0.000000e+00 6.500006e-01 3.499994e-01 0.000000e+00 0.000000e+00 0.000000e+00 0.000000e+00 0.000000e+00
 0.000000e+00 0.000000e+00 0.000000e+00 0.000000e+00 0.000000e+00 0.000000e+00 0.000000e+00 0.000000e+00 8.384368e-01 1.615632e-01 0.000000e+00 0.000000e+00 0.000000e+00 0.000000e+00
 0.000000e+00 0.000000e+00 0.000000e+00 0.000000e+00 0.000000e+00 0.000000e+00 0.000000e+00 0.000000e+00 0.000000e+00 7.375668e-01 2.624332e-01 0.000000e+00 0.000000e+00 0.000000e+00
 0.000000e+00 0.000000e+00 0.000000e+00 0.000000e+00 0.000000e+00 0.000000e+00 0.000000e+00 0.000000e+00 0.000000e+00 0.000000e+00 9.066183e-01 9.338170e-02 0.000000e+00 0.000000e+00
 0.000000e+00 0.000000e+00 0.000000e+00 0.000000e+00 0.000000e+00 0.000000e+00 0.000000e+00 0.000000e+00 0.000000e+00 0.000000e+00 0.000000e+00 0.000000e+00 1.000000e+00 0.000000e+00
 0.000000e+00 0.000000e+00 0.000000e+00 0.000000e+00 0.000000e+00 0.000000e+00 0.000000e+00 0.000000e+00 0.000000e+00 0.000000e+00 0.000000e+00 0.000000e+00 8.872612e-01 1.127389e-01
 0.000000e+00 0.000000e+00 0.000000e+00 0.000000e+00 0.000000e+00 0.000000e+00 0.000000e+00 0.000000e+00 0.000000e+00 0.000000e+00 0.000000e+00 0.000000e+00 0.000000e+00 0.000000e+00
<ENDHMM>
~h "h"
<BEGINHMM>
<NUMSTATES> 14
<STATE> 2
<MEAN> 20
 5.488287e+03 4.000022e+00 5.714317e-01 0.000000e+00 3.285732e+00 1.028577e+01 1.115720e+02 8.100044e+01 8.671387e+01 1.557268e+03 8.284201e+02 9.939907e+02 2.673135e+03 1.054860e+03 1.646151e+03 6.985703e+01 2.628555e+01 4.485688e+01 4.857104e+00 5.714288e-01
<VARIANCE> 20
 1.133068e+07 3.114294e+01 1.959193e+00 1.000000e-02 1.734697e+01 2.990623e+02 2.870033e+04 9.381443e+03 1.015838e+04 7.771166e+06 2.436892e+06 1.948707e+06 1.373310e+07 6.138686e+05 2.259761e+06 4.090709e+03 1.028199e+03 5.481253e+03 4.783630e+01 1.102045e+00
<GCONST> 2.069723e+02
<STATE> 3
<MEAN> 20
 7.648540e+03 0.000000e+00 0.000000e+00 0.000000e+00 0.000000e+00 0.000000e+00 0.000000e+00 0.000000e+00 0.000000e+00 4.320770e+02 0.000000e+00 8.104617e+02 4.060231e+03 2.098539e+03 9.070001e+02 1.023841e+02 2.423078e+01 7.046156e+01 7.307694e+00 0.000000e+00
<VARIANCE> 20
 7.486622e+06 1.000000e-02 1.000000e-02 1.000000e-02 1.000000e-02 1.000000e-02 1.000000e-02 1.000000e-02 1.000000e-02 2.198233e+05 1.000000e-02 7.310816e+05 1.371561e+07 3.118486e+06 8.626785e+05 3.074473e+04 1.373716e+03 1.188210e+04 2.279053e+02 1.000000e-02
<GCONST> 1.097625e+02
<STATE> 4
<MEAN> 20
 4.439562e+03 8.482845e+01 1.600027e+01 0.000000e+00 3.466729e+01 2.483378e+01 2.178357e+02 7.000111e+01 3.166724e+01 1.881698e+02 1.099984e+02 3.148366e+02 2.285038e+03 1.369854e+03 7.293377e+02 2.596682e+02 2.466711e+01 1.300023e+01 1.166687e+00 0.000000e+00
<VARIANCE> 20
 1.601196e+07 1.758799e+04 7.483428e+02 1.000000e-02 6.008975e+03 3.083516e+03 2.003748e+05 2.285934e+04 4.826958e+03 8.256170e+04 2.932569e+04 1.194686e+05 1.504563e+07 2.715164e+06 9.289618e+05 1.517609e+05 1.145898e+03 7.233430e+02 6.805651e+00 1.000000e-02
<GCONST> 2.138475e+02
<STATE> 5
<MEAN> 20
 4.135770e+03 2.926679e+02 1.916633e+01 1.549971e+01 6.183219e+01 5.466569e+01 1.824983e+02 8.483197e+01 2.383298e+01 1.708307e+02 5.956600e+02 3.514963e+02 1.884634e+03 3.561654e+02 1.442144e+03 3.746623e+02 1.499976e+01 8.666511e+00 6.666546e+00 6.499885e+00
<VARIANCE> 20
 8.233109e+06 1.852666e+05 7.647975e+02 6.205762e+02 8.530718e+03 5.038515e+03 6.323957e+04 1.397165e+04 6.431389e+02 2.050650e+04 4.499534e+05 8.280673e+04 1.267217e+07 3.713977e+04 7.445778e+05 1.359638e+05 2.543322e+02 2.532188e+02 1.515535e+02 1.422481e+02
<GCONST> 2.300623e+02
<STATE> 6
<MEAN> 20
 3.419864e+03 4.940003e+01 0.000000e+00 0.000000e+00 0.000000e+00 0.000000e+00 1.333337e-01 2.000005e-01 6.666683e-02 2.633318e+01 6.000015e-01 6.666626e+01 7.854613e+02 5.555976e+02 1.675671e+03 3.729342e+02 2.780005e+01 8.800013e+00 1.600004e+00 8.666689e-01
<VARIANCE> 20
 4.856426e+06 1.499240e+04 1.000000e-02 1.000000e-02 1.000000e-02 1.000000e-02 2.488894e-01 5.600013e-01 6.222236e-02 8.268969e+03 2.373338e+00 4.780152e+04 4.987634e+06 6.437082e+05 1.313305e+06 1.112452e+05 3.943768e+03 3.778941e+02 2.317338e+01 6.515569e+00
<GCONST> 1.329965e+02
<STATE> 7
<MEAN> 20
 9.430035e+03 7.674151e-02 0.000000e+00 0.000000e+00 0.000000e+00 0.000000e+00 0.000000e+00 0.000000e+00 0.000000e+00 1.949312e+02 0.000000e+00 3.086404e+02 5.848526e+03 2.372542e+03 1.041429e+03 4.423741e+01 7.442990e+00 2.033629e+00 1.534827e-01 3.836997e-02
<VARIANCE> 20
 1.373441e+07 1.475938e-01 1.000000e-02 1.000000e-02 1.000000e-02 1.000000e-02 1.000000e-02 1.000000e-02 1.000000e-02 5.105111e+04 1.000000e-02 1.554424e+05 1.663033e+07 2.424475e+06 2.935858e+06 3.446755e+03 3.717355e+02 6.773212e+01 3.601504e-01 3.689774e-02
<GCONST> 9.741138e+01
<STATE> 8
<MEAN> 20
 9.746252e+03 0.000000e+00 0.000000e+00 0.000000e+00 0.000000e+00 0.000000e+00 0.000000e+00 0.000000e+00 0.000000e+00 2.443475e+02 0.000000e+00 9.189053e+02 7.649356e+03 1.290496e+03 1.057911e+02 2.081189e+01 3.732124e+00 1.363090e+00 1.434835e-01 0.000000e+00
<VARIANCE> 20
 5.335458e+06 1.000000e-02 1.000000e-02 1.000000e-02 1.000000e-02 1.000000e-02 1.000000e-02 1.000000e-02 1.000000e-02 1.003777e+05 1.000000e-02 6.813261e+05 3.841400e+06 8.578493e+05 5.435303e+03 6.228782e+02 6.442242e+01 1.500123e+01 1.228960e-01 1.000000e-02
<GCONST> 7.977993e+01
<STATE> 9
<MEAN> 20
 9.584915e+03 0.000000e+00 0.000000e+00 0.000000e+00 0.000000e+00 0.000000e+00 0.000000e+00 0.000000e+00 0.000000e+00 3.822339e+02 0.000000e+00 6.338333e+02 8.370637e+03 9.140188e+02 4.461661e+01 4.043420e+00 0.000000e+00 0.000000e+00 0.000000e+00 0.000000e+00
<VARIANCE> 20
 5.397628e+06 1.000000e-02 1.000000e-02 1.000000e-02 1.000000e-02 1.000000e-02 1.000000e-02 1.000000e-02 1.000000e-02 6.989476e+04 1.000000e-02 2.338412e+05 3.291583e+06 5.891639e+05 2.812824e+03 3.602804e+01 1.000000e-02 1.000000e-02 1.000000e-02 1.000000e-02
<GCONST> 5.572851e+01
<STATE> 10
<MEAN> 20
 9.887115e+03 0.000000e+00 0.000000e+00 0.000000e+00 0.000000e+00 0.000000e+00 0.000000e+00 0.000000e+00 0.000000e+00 1.982131e+02 0.000000e+00 9.437064e+02 8.157536e+03 8.037526e+02 1.336345e+02 3.539899e+01 4.771139e+00 6.528922e+00 0.000000e+00 0.000000e+00
<VARIANCE> 20
 1.242902e+06 1.000000e-02 1.000000e-02 1.000000e-02 1.000000e-02 1.000000e-02 1.000000e-02 1.000000e-02 1.000000e-02 4.643785e+04 1.000000e-02 2.392515e+05 1.459874e+05 2.240221e+05 5.781674e+03 1.256419e+03 1.161014e+02 2.968771e+02 1.000000e-02 1.000000e-02
<GCONST> 7.372179e+01
<STATE> 11
<MEAN> 20
 1.162624e+04 1.449985e+01 0.000000e+00 0.000000e+00 0.000000e+00 0.000000e+00 0.000000e+00 0.000000e+00 0.000000e+00 2.902502e+02 2.299976e+01 9.592448e+02 1.010324e+04 6.657524e+02 1.272504e+02 5.075012e+01 1.750003e+00 0.000000e+00 0.000000e+00 0.000000e+00
<VARIANCE> 20
 5.522972e+06 6.307454e+02 1.000000e-02 1.000000e-02 1.000000e-02 1.000000e-02 1.000000e-02 1.000000e-02 1.000000e-02 9.371473e+04 1.586989e+03 5.633422e+05 3.126232e+06 1.672666e+05 1.984065e+04 3.769682e+03 3.687494e+00 1.000000e-02 1.000000e-02 1.000000e-02
<GCONST> 9.115427e+01
<STATE> 12
<MEAN> 20
 1.054732e+04 0.000000e+00 0.000000e+00 0.000000e+00 0.000000e+00 0.000000e+00 0.000000e+00 0.000000e+00 0.000000e+00 6.542869e+01 0.000000e+00 1.488220e+03 8.247344e+03 8.018295e+02 6.447601e+01 1.082405e+01 5.850800e-02 0.000000e+00 0.000000e+00 0.000000e+00
<VARIANCE> 20
 7.070337e+06 1.000000e-02 1.000000e-02 1.000000e-02 1.000000e-02 1.000000e-02 1.000000e-02 1.000000e-02 1.000000e-02 1.208184e+04 1.000000e-02 7.617410e+05 3.783715e+06 1.619649e+05 3.440019e+03 3.104782e+02 5.508482e-02 1.000000e-02 1.000000e-02 1.000000e-02
<GCONST> 5.833355e+01
<STATE> 13
<MEAN> 20
 1.040048e+04 0.000000e+00 0.000000e+00 0.000000e+00 0.000000e+00 0.000000e+00 0.000000e+00 0.000000e+00 0.000000e+00 4.387840e+02 0.000000e+00 1.859356e+03 8.606259e+03 3.552483e+02 1.723769e+01 1.159720e+00 -0.000000e+00 0.000000e+00 0.000000e+00 0.000000e+00
<VARIANCE> 20
 1.809789e+06 1.000000e-02 1.000000e-02 1.000000e-02 1.000000e-02 1.000000e-02 1.000000e-02 1.000000e-02 1.000000e-02 7.831971e+04 1.000000e-02 9.332735e+05 8.541764e+05 4.571819e+04 5.302578e+02 1.231098e+01 1.000000e-02 1.000000e-02 1.000000e-02 1.000000e-02
<GCONST> 4.948605e+01
<TRANSP> 14
 0.000000e+00 1.000000e+00 0.000000e+00 0.000000e+00 0.000000e+00 0.000000e+00 0.000000e+00 0.000000e+00 0.000000e+00 0.000000e+00 0.000000e+00 0.000000e+00 0.000000e+00 0.000000e+00
 0.000000e+00 4.285738e-01 5.714262e-01 0.000000e+00 0.000000e+00 0.000000e+00 0.000000e+00 0.000000e+00 0.000000e+00 0.000000e+00 0.000000e+00 0.000000e+00 0.000000e+00 0.000000e+00
 0.000000e+00 0.000000e+00 6.923079e-01 3.076922e-01 0.000000e+00 0.000000e+00 0.000000e+00 0.000000e+00 0.000000e+00 0.000000e+00 0.000000e+00 0.000000e+00 0.000000e+00 0.000000e+00
 0.000000e+00 0.000000e+00 0.000000e+00 3.333218e-01 6.666782e-01 0.000000e+00 0.000000e+00 0.000000e+00 0.000000e+00 0.000000e+00 0.000000e+00 0.000000e+00 0.000000e+00 0.000000e+00
 0.000000e+00 0.000000e+00 0.000000e+00 0.000000e+00 3.333462e-01 6.666539e-01 0.000000e+00 0.000000e+00 0.000000e+00 0.000000e+00 0.000000e+00 0.000000e+00 0.000000e+00 0.000000e+00
 0.000000e+00 0.000000e+00 0.000000e+00 0.000000e+00 0.000000e+00 7.333354e-01 2.666645e-01 0.000000e+00 0.000000e+00 0.000000e+00 0.000000e+00 0.000000e+00 0.000000e+00 0.000000e+00
 0.000000e+00 0.000000e+00 0.000000e+00 0.000000e+00 0.000000e+00 0.000000e+00 8.465185e-01 1.534815e-01 0.000000e+00 0.000000e+00 0.000000e+00 0.000000e+00 0.000000e+00 0.000000e+00
 0.000000e+00 0.000000e+00 0.000000e+00 0.000000e+00 0.000000e+00 0.000000e+00 0.000000e+00 7.130346e-01 2.869655e-01 0.000000e+00 0.000000e+00 0.000000e+00 0.000000e+00 0.000000e+00
 0.000000e+00 0.000000e+00 0.000000e+00 0.000000e+00 0.000000e+00 0.000000e+00 0.000000e+00 0.000000e+00 8.098362e-01 1.901638e-01 0.000000e+00 0.000000e+00 0.000000e+00 0.000000e+00
 0.000000e+00 0.000000e+00 0.000000e+00 0.000000e+00 0.000000e+00 0.000000e+00 0.000000e+00 0.000000e+00 0.000000e+00 4.977757e-01 5.022243e-01 0.000000e+00 0.000000e+00 0.000000e+00
 0.000000e+00 0.000000e+00 0.000000e+00 0.000000e+00 0.000000e+00 0.000000e+00 0.000000e+00 0.000000e+00 0.000000e+00 0.000000e+00 0.000000e+00 1.000000e+00 0.000000e+00 0.000000e+00
 0.000000e+00 0.000000e+00 0.000000e+00 0.000000e+00 0.000000e+00 0.000000e+00 0.000000e+00 0.000000e+00 0.000000e+00 0.000000e+00 0.000000e+00 7.659655e-01 2.340345e-01 0.000000e+00
 0.000000e+00 0.000000e+00 0.000000e+00 0.000000e+00 0.000000e+00 0.000000e+00 0.000000e+00 0.000000e+00 0.000000e+00 0.000000e+00 0.000000e+00 0.000000e+00 9.213079e-01 7.869207e-02
 0.000000e+00 0.000000e+00 0.000000e+00 0.000000e+00 0.000000e+00 0.000000e+00 0.000000e+00 0.000000e+00 0.000000e+00 0.000000e+00 0.000000e+00 0.000000e+00 0.000000e+00 0.000000e+00
<ENDHMM>
~h "i"
<BEGINHMM>
<NUMSTATES> 14
<STATE> 2
<MEAN> 20
 5.144017e+03 6.083898e+01 -6.861498e-31 0.000000e+00 0.000000e+00 -1.173730e-25 3.086668e-27 5.886647e-01 -1.985152e-28 1.799565e+02 1.864105e+00 4.873149e+02 2.051848e+03 1.180462e+03 1.422473e+03 1.489548e+02 4.730105e+01 2.997544e+01 8.437528e+00 6.769644e+00
<VARIANCE> 20
 7.065460e+06 6.225525e+04 1.000000e-02 1.000000e-02 1.000000e-02 1.000000e-02 1.000000e-02 6.717448e+00 1.000000e-02 1.737810e+05 6.736107e+01 1.065027e+06 9.026078e+06 1.282539e+06 1.418820e+06 6.045720e+04 1.086446e+04 4.518736e+03 5.513210e+02 8.883825e+02
<GCONST> 1.540611e+02
<STATE> 3
<MEAN> 20
 4.254124e+03 7.156275e+01 1.218754e+01 1.375004e+00 2.856258e+01 3.587510e+01 1.764380e+02 4.512514e+01 1.775006e+01 2.262237e+02 3.271259e+02 5.995432e+02 1.870674e+03 7.115358e+02 1.048575e+03 1.657694e+02 6.962523e+01 4.950016e+01 2.068756e+01 6.187519e+00
<VARIANCE> 20
 1.070538e+07 1.692340e+04 8.425292e+02 2.835945e+01 5.356509e+03 9.850633e+03 1.153616e+05 7.838875e+03 1.727441e+03 2.081350e+05 3.453018e+05 8.804089e+05 8.712308e+06 1.702717e+06 1.238107e+06 3.200071e+04 1.196263e+04 1.340916e+04 4.716601e+03 2.279028e+02
<GCONST> 2.448179e+02
<STATE> 4
<MEAN> 20
 5.827793e+03 1.808340e+01 0.000000e+00 0.000000e+00 -3.505931e-32 5.269380e-27 2.200011e+01 3.883352e+01 4.208353e+01 3.998989e+02 1.471674e+02 9.003468e+02 2.619706e+03 1.060451e+03 1.362236e+03 1.037198e+02 1.001528e+02 4.607999e+01 7.333372e+00 1.500008e+00
<VARIANCE> 20
 8.428907e+06 2.765757e+03 1.000000e-02 1.000000e-02 1.000000e-02 1.000000e-02 3.306515e+03 7.644171e+03 8.114775e+03 2.471446e+05 8.085745e+04 1.603839e+06 1.193472e+07 1.188176e+06 1.825899e+06 1.553821e+04 4.031256e+04 5.234000e+03 3.317237e+02 2.191677e+01
<GCONST> 1.886724e+02
<STATE> 5
<MEAN> 20
 5.589422e+03 2.500015e+00 0.000000e+00 0.000000e+00 3.200019e+00 1.000006e+00 5.380032e+01 1.830011e+01 8.300049e+00 3.180781e+02 8.410050e+01 9.240974e+02 2.804556e+03 7.642015e+02 1.327453e+03 4.834302e+01 2.544459e+01 1.590440e+01 5.000031e-01 0.000000e+00
<VARIANCE> 20
 1.006045e+07 5.625032e+01 1.000000e-02 1.000000e-02 9.216048e+01 5.800029e+00 1.395402e+04 1.432016e+03 2.796113e+02 1.433347e+05 3.229584e+04 1.560010e+06 1.179912e+07 1.074029e+06 1.729193e+06 7.841307e+03 5.265338e+03 2.243674e+03 2.250012e+00 1.000000e-02
<GCONST> 1.789334e+02
<STATE> 6
<MEAN> 20
 7.566839e+03 2.905165e+02 6.014750e+01 1.202969e-01 0.000000e+00 0.000000e+00 7.217957e-01 7.217945e-01 5.172780e+00 3.654973e+02 1.708218e+01 1.022200e+03 5.367552e+03 8.674456e+02 9.162518e+02 9.314767e+01 5.878150e+00 1.804476e-01 0.000000e+00 0.000000e+00
<VARIANCE> 20
 1.681676e+07 6.597658e+05 2.423910e+04 2.261225e-01 1.000000e-02 1.000000e-02 8.140562e+00 6.817269e+00 3.188556e+02 2.033650e+05 3.065085e+03 1.367199e+06 2.310336e+07 5.874401e+05 1.483641e+06 2.883199e+04 7.311857e+01 1.478863e-01 1.000000e-02 1.000000e-02
<GCONST> 1.582424e+02
<STATE> 7
<MEAN> 20
 6.598736e+03 4.039997e+00 0.000000e+00 0.000000e+00 0.000000e+00 0.000000e+00 0.000000e+00 0.000000e+00 0.000000e+00 3.250045e+02 -8.932718e-28 8.690090e+02 3.839055e+03 1.155754e+03 9.079214e+02 8.992033e+01 4.988006e+01 1.620006e+01 4.000024e-02 -1.031615e-29
<VARIANCE> 20
 5.108902e+06 1.328388e+02 1.000000e-02 1.000000e-02 1.000000e-02 1.000000e-02 1.000000e-02 1.000000e-02 1.000000e-02 1.928112e+05 1.000000e-02 1.048288e+06 1.132863e+07 1.190025e+06 1.421355e+06 2.746931e+04 8.899649e+03 1.335366e+03 3.840023e-02 1.000000e-02
<GCONST> 1.093301e+02
<STATE> 8
<MEAN> 20
 5.434788e+03 6.666622e-01 1.548195e-22 0.000000e+00 0.000000e+00 0.000000e+00 0.000000e+00 6.666712e+00 1.600011e+01 1.985502e+02 2.611076e+01 7.396511e+02 2.488901e+03 1.281446e+03 1.024784e+03 8.244498e+01 9.555618e+00 3.666690e+00 1.111118e-01 0.000000e+00
<VARIANCE> 20
 9.124568e+06 1.777779e+00 1.000000e-02 1.000000e-02 1.000000e-02 1.000000e-02 1.000000e-02 3.555577e+02 2.048012e+03 8.789603e+04 2.420958e+03 1.620092e+06 1.039049e+07 1.542704e+06 1.236500e+06 5.194254e+04 7.304733e+02 1.075562e+02 9.876601e-02 1.000000e-02
<GCONST> 1.369483e+02
<STATE> 9
<MEAN> 20
 4.785880e+03 2.375561e+02 6.322243e+01 3.555568e+00 5.933353e+01 3.155566e+01 4.734460e+02 9.166698e+01 5.566684e+01 3.205562e+02 7.895582e+02 6.086642e+02 1.670936e+03 1.490444e+03 9.957249e+02 2.388336e+02 1.588334e+02 1.046113e+02 6.266684e+01 2.166662e+00
<VARIANCE> 20
 7.430076e+06 3.649881e+05 2.300479e+04 9.102494e+01 1.384759e+04 5.897819e+03 6.017367e+05 1.869648e+04 5.256562e+03 6.221807e+04 1.647774e+06 8.335439e+05 7.248978e+06 1.544371e+06 7.179708e+05 6.120494e+04 9.487388e+04 7.354759e+04 2.358840e+04 2.347226e+01
<GCONST> 2.592997e+02
<STATE> 10
<MEAN> 20
 5.209290e+03 5.814801e-10 0.000000e+00 0.000000e+00 0.000000e+00 0.000000e+00 0.000000e+00 6.411787e+00 3.941190e+00 1.677040e+02 4.117661e+00 3.557614e+02 1.972349e+03 1.043882e+03 1.761357e+03 9.670524e+01 5.346947e+01 6.505767e+01 3.246985e+01 2.176399e+00
<VARIANCE> 20
 5.136786e+06 1.000000e-02 1.000000e-02 1.000000e-02 1.000000e-02 1.000000e-02 1.000000e-02 5.413028e+02 1.066439e+02 5.968867e+04 1.389278e+02 5.859747e+05 9.554691e+06 1.396104e+06 2.202325e+06 6.180743e+04 2.404343e+04 3.274003e+04 9.658350e+03 7.579005e+01
<GCONST> 1.545999e+02
<STATE> 11
<MEAN> 20
 5.447943e+03 7.272651e+00 0.000000e+00 0.000000e+00 1.045429e+01 5.636227e+00 1.530872e+02 2.127229e+01 1.418156e+01 2.544569e+02 1.820865e+02 5.214572e+02 2.880398e+03 5.624570e+02 1.244277e+03 2.040885e+02 1.694510e+02 9.990737e+01 4.772712e+01 2.454486e+00
<VARIANCE> 20
 7.587394e+06 1.974693e+02 1.000000e-02 1.000000e-02 1.092951e+03 1.436832e+02 2.005030e+05 2.395967e+03 7.319528e+02 4.683746e+04 2.519984e+05 4.761559e+05 1.027057e+07 6.628056e+05 3.337157e+06 9.429999e+04 1.515921e+05 2.309177e+04 8.326256e+03 6.024662e+01
<GCONST> 2.146157e+02
<STATE> 12
<MEAN> 20
 5.129039e+03 1.280021e+01 1.000016e+00 0.000000e+00 0.000000e+00 0.000000e+00 4.799903e+00 1.446650e+01 6.466632e+00 3.390685e+02 4.733404e+00 6.216727e+02 2.902844e+03 3.907363e+02 8.751315e+02 3.977274e+02 1.177315e+02 7.106580e+01 1.137322e+02 1.226646e+01
<VARIANCE> 20
 8.572779e+06 2.169126e+03 1.400021e+01 1.000000e-02 1.000000e-02 1.000000e-02 2.142895e+02 1.218497e+03 1.301143e+02 1.165648e+05 1.736644e+02 6.257698e+05 1.195947e+07 3.866224e+05 1.375503e+06 3.028423e+05 2.983279e+04 1.558164e+04 6.393826e+04 6.597850e+02
<GCONST> 1.901708e+02
<STATE> 13
<MEAN> 20
 7.135834e+03 1.115058e-27 0.000000e+00 0.000000e+00 0.000000e+00 0.000000e+00 0.000000e+00 0.000000e+00 0.000000e+00 2.094474e+02 0.000000e+00 1.158233e+03 5.603909e+03 2.967614e+02 2.781474e+02 8.230412e+00 -4.309201e-28 0.000000e+00 0.000000e+00 0.000000e+00
<VARIANCE> 20
 4.619223e+06 1.000000e-02 1.000000e-02 1.000000e-02 1.000000e-02 1.000000e-02 1.000000e-02 1.000000e-02 1.000000e-02 6.350652e+04 1.000000e-02 8.030724e+05 6.312732e+06 1.765731e+05 6.581954e+05 1.309818e+03 1.000000e-02 1.000000e-02 1.000000e-02 1.000000e-02
<GCONST> 6.520562e+01
<TRANSP> 14
 0.000000e+00 1.000000e+00 0.000000e+00 0.000000e+00 0.000000e+00 0.000000e+00 0.000000e+00 0.000000e+00 0.000000e+00 0.000000e+00 0.000000e+00 0.000000e+00 0.000000e+00 0.000000e+00
 0.000000e+00 5.585036e-01 4.414963e-01 0.000000e+00 0.000000e+00 0.000000e+00 0.000000e+00 0.000000e+00 0.000000e+00 0.000000e+00 0.000000e+00 0.000000e+00 0.000000e+00 0.000000e+00
 0.000000e+00 0.000000e+00 4.375012e-01 5.624988e-01 0.000000e+00 0.000000e+00 0.000000e+00 0.000000e+00 0.000000e+00 0.000000e+00 0.000000e+00 0.000000e+00 0.000000e+00 0.000000e+00
 0.000000e+00 0.000000e+00 0.000000e+00 2.500012e-01 7.499987e-01 0.000000e+00 0.000000e+00 0.000000e+00 0.000000e+00 0.000000e+00 0.000000e+00 0.000000e+00 0.000000e+00 0.000000e+00
 0.000000e+00 0.000000e+00 0.000000e+00 0.000000e+00 1.000008e-01 8.999992e-01 0.000000e+00 0.000000e+00 0.000000e+00 0.000000e+00 0.000000e+00 0.000000e+00 0.000000e+00 0.000000e+00
 0.000000e+00 0.000000e+00 0.000000e+00 0.000000e+00 0.000000e+00 4.586568e-01 5.413432e-01 0.000000e+00 0.000000e+00 0.000000e+00 0.000000e+00 0.000000e+00 0.000000e+00 0.000000e+00
 0.000000e+00 0.000000e+00 0.000000e+00 0.000000e+00 0.000000e+00 0.000000e+00 6.400003e-01 3.599996e-01 0.000000e+00 0.000000e+00 0.000000e+00 0.000000e+00 0.000000e+00 0.000000e+00
 0.000000e+00 0.000000e+00 0.000000e+00 0.000000e+00 0.000000e+00 0.000000e+00 0.000000e+00 2.467222e-20 1.000000e+00 0.000000e+00 0.000000e+00 0.000000e+00 0.000000e+00 0.000000e+00
 0.000000e+00 0.000000e+00 0.000000e+00 0.000000e+00 0.000000e+00 0.000000e+00 0.000000e+00 0.000000e+00 5.000017e-01 4.999983e-01 0.000000e+00 0.000000e+00 0.000000e+00 0.000000e+00
 0.000000e+00 0.000000e+00 0.000000e+00 0.000000e+00 0.000000e+00 0.000000e+00 0.000000e+00 0.000000e+00 0.000000e+00 4.705899e-01 5.294101e-01 0.000000e+00 0.000000e+00 0.000000e+00
 0.000000e+00 0.000000e+00 0.000000e+00 0.000000e+00 0.000000e+00 0.000000e+00 0.000000e+00 0.000000e+00 0.000000e+00 0.000000e+00 1.818138e-01 8.181862e-01 0.000000e+00 0.000000e+00
 0.000000e+00 0.000000e+00 0.000000e+00 0.000000e+00 0.000000e+00 0.000000e+00 0.000000e+00 0.000000e+00 0.000000e+00 0.000000e+00 0.000000e+00 3.999942e-01 6.000057e-01 0.000000e+00
 0.000000e+00 0.000000e+00 0.000000e+00 0.000000e+00 0.000000e+00 0.000000e+00 0.000000e+00 0.000000e+00 0.000000e+00 0.000000e+00 0.000000e+00 0.000000e+00 8.732312e-01 1.267688e-01
 0.000000e+00 0.000000e+00 0.000000e+00 0.000000e+00 0.000000e+00 0.000000e+00 0.000000e+00 0.000000e+00 0.000000e+00 0.000000e+00 0.000000e+00 0.000000e+00 0.000000e+00 0.000000e+00
<ENDHMM>
~h "j"
<BEGINHMM>
<NUMSTATES> 14
<STATE> 2
<MEAN> 20
 8.221977e+03 5.202784e-16 0.000000e+00 0.000000e+00 0.000000e+00 0.000000e+00 0.000000e+00 0.000000e+00 0.000000e+00 4.075345e+02 -8.255797e-25 1.188717e+03 6.403215e+03 6.398230e+02 2.598397e+02 8.585197e+01 3.448657e+01 1.728880e+01 2.894649e-01 0.000000e+00
<VARIANCE> 20
 5.383724e+06 1.000000e-02 1.000000e-02 1.000000e-02 1.000000e-02 1.000000e-02 1.000000e-02 1.000000e-02 1.000000e-02 1.319822e+05 1.000000e-02 9.650169e+05 6.490344e+06 2.490190e+05 4.063076e+05 3.337339e+04 3.290045e+03 1.334591e+03 1.100380e+00 1.000000e-02
<GCONST> 9.860722e+01
<STATE> 3
<MEAN> 20
 1.031003e+04 5.003619e+01 3.999905e-01 0.000000e+00 0.000000e+00 0.000000e+00 0.000000e+00 0.000000e+00 0.000000e+00 2.519722e+02 6.499934e-01 1.149137e+03 8.316077e+03 9.239070e+02 1.127119e+02 6.878563e+01 2.867051e+01 1.160006e+01 8.999858e-01 0.000000e+00
<VARIANCE> 20
 7.970413e+06 3.194934e+04 3.039932e+00 1.000000e-02 1.000000e-02 1.000000e-02 1.000000e-02 1.000000e-02 1.000000e-02 7.374241e+04 4.027444e+00 1.067264e+06 4.640382e+06 8.070408e+05 7.132020e+04 4.455587e+04 8.031420e+03 1.209332e+03 6.489933e+00 1.000000e-02
<GCONST> 1.271685e+02
<STATE> 4
<MEAN> 20
 1.017092e+04 1.753815e+00 0.000000e+00 0.000000e+00 0.000000e+00 0.000000e+00 0.000000e+00 0.000000e+00 0.000000e+00 2.254012e+02 0.000000e+00 1.130538e+03 8.514399e+03 6.769591e+02 5.555373e+01 1.508282e+01 4.247375e+00 1.290524e+00 0.000000e+00 0.000000e+00
<VARIANCE> 20
 2.936132e+06 7.201876e+01 1.000000e-02 1.000000e-02 1.000000e-02 1.000000e-02 1.000000e-02 1.000000e-02 1.000000e-02 5.662575e+04 1.000000e-02 7.120116e+05 2.936207e+06 2.001883e+05 2.293757e+03 3.613160e+02 8.857541e+01 2.689269e+01 1.000000e-02 1.000000e-02
<GCONST> 8.279848e+01
<STATE> 5
<MEAN> 20
 9.202400e+03 0.000000e+00 0.000000e+00 0.000000e+00 0.000000e+00 0.000000e+00 0.000000e+00 0.000000e+00 0.000000e+00 1.577343e+02 1.500023e-01 8.961272e+02 7.681479e+03 7.428524e+02 3.690286e+01 2.622844e+00 -3.514748e-24 0.000000e+00 0.000000e+00 0.000000e+00
<VARIANCE> 20
 2.901682e+06 1.000000e-02 1.000000e-02 1.000000e-02 1.000000e-02 1.000000e-02 1.000000e-02 1.000000e-02 1.000000e-02 3.079163e+04 4.275061e-01 9.561117e+05 1.930916e+06 3.227136e+05 1.360011e+03 4.196830e+01 1.000000e-02 1.000000e-02 1.000000e-02 1.000000e-02
<GCONST> 5.774232e+01
<STATE> 6
<MEAN> 20
 9.197166e+03 0.000000e+00 0.000000e+00 0.000000e+00 0.000000e+00 0.000000e+00 0.000000e+00 0.000000e+00 0.000000e+00 2.451562e+02 0.000000e+00 9.805328e+02 7.760650e+03 6.452145e+02 4.936208e+01 6.293054e+00 2.543338e-01 3.096415e-03 3.096415e-03 9.289244e-03
<VARIANCE> 20
 2.062424e+06 1.000000e-02 1.000000e-02 1.000000e-02 1.000000e-02 1.000000e-02 1.000000e-02 1.000000e-02 1.000000e-02 4.880254e+04 1.000000e-02 6.253956e+05 1.256652e+06 2.099418e+05 3.017954e+03 1.569788e+02 1.709243e+00 1.000000e-02 1.000000e-02 2.778147e-02
<GCONST> 6.110139e+01
<STATE> 7
<MEAN> 20
 1.173034e+04 1.991771e+01 0.000000e+00 0.000000e+00 0.000000e+00 0.000000e+00 0.000000e+00 0.000000e+00 2.001810e-01 5.131088e+02 1.211063e+01 1.685250e+03 9.649475e+03 8.433753e+02 5.553628e+01 1.525739e+01 2.395472e+00 1.667738e-01 0.000000e+00 0.000000e+00
<VARIANCE> 20
 8.148198e+06 2.289354e+03 1.000000e-02 1.000000e-02 1.000000e-02 1.000000e-02 1.000000e-02 1.000000e-02 1.161013e+00 2.007878e+05 2.201677e+03 2.042858e+06 6.643114e+06 4.637848e+05 4.145116e+03 6.180130e+02 2.538682e+01 2.723711e-01 1.000000e-02 1.000000e-02
<GCONST> 1.035977e+02
<STATE> 8
<MEAN> 20
 9.791310e+03 0.000000e+00 0.000000e+00 0.000000e+00 0.000000e+00 0.000000e+00 0.000000e+00 0.000000e+00 0.000000e+00 3.212331e+02 1.420644e-02 1.064779e+03 8.145780e+03 7.941554e+02 9.031395e+01 1.608957e+01 1.382262e+00 2.848682e-02 0.000000e+00 0.000000e+00
<VARIANCE> 20
 1.848955e+06 1.000000e-02 1.000000e-02 1.000000e-02 1.000000e-02 1.000000e-02 1.000000e-02 1.000000e-02 1.000000e-02 1.168076e+05 2.821102e-02 8.317738e+05 1.876210e+06 3.046675e+05 9.756688e+04 7.375118e+02 8.713140e+00 4.189079e-02 1.000000e-02 1.000000e-02
<GCONST> 7.102297e+01
<STATE> 9
<MEAN> 20
 1.091471e+04 1.088967e+00 0.000000e+00 0.000000e+00 0.000000e+00 0.000000e+00 0.000000e+00 0.000000e+00 0.000000e+00 2.479148e+02 -7.494086e-23 5.136099e+02 8.119974e+03 2.255232e+03 2.215159e+02 4.348963e+01 8.715864e+00 1.071248e+00 1.053840e-01 0.000000e+00
<VARIANCE> 20
 3.009334e+06 1.455145e+01 1.000000e-02 1.000000e-02 1.000000e-02 1.000000e-02 1.000000e-02 1.000000e-02 1.000000e-02 5.566849e+04 1.000000e-02 3.042217e+05 4.633028e+06 2.072025e+06 9.807706e+04 1.166124e+03 7.881940e+01 3.401365e+00 1.996617e-01 1.000000e-02
<GCONST> 8.888651e+01
<STATE> 10
<MEAN> 20
 9.299396e+03 0.000000e+00 0.000000e+00 0.000000e+00 0.000000e+00 0.000000e+00 0.000000e+00 0.000000e+00 0.000000e+00 1.800065e+02 0.000000e+00 3.288333e+02 6.703012e+03 2.279861e+03 1.434748e+02 2.262978e+01 1.591036e+00 0.000000e+00 0.000000e+00 0.000000e+00
<VARIANCE> 20
 2.403637e+06 1.000000e-02 1.000000e-02 1.000000e-02 1.000000e-02 1.000000e-02 1.000000e-02 1.000000e-02 1.000000e-02 4.759695e+04 1.000000e-02 1.528703e+05 3.514760e+06 2.394933e+06 1.338615e+04 6.433176e+02 1.059231e+01 1.000000e-02 1.000000e-02 1.000000e-02
<GCONST> 6.698594e+01
<STATE> 11
<MEAN> 20
 8.285748e+03 3.897087e+00 0.000000e+00 0.000000e+00 0.000000e+00 0.000000e+00 0.000000e+00 1.948541e-02 5.845623e-02 1.846392e+02 2.533107e-01 1.530025e+02 4.101304e+03 3.719640e+03 4.678380e+02 2.856110e+01 3.317615e+00 4.075204e-01 1.948560e-02 1.948560e-02
<VARIANCE> 20
 1.227582e+07 1.404238e+02 1.000000e-02 1.000000e-02 1.000000e-02 1.000000e-02 1.000000e-02 1.910574e-02 1.719515e-01 6.889802e+04 2.371510e+00 2.294365e+05 8.670398e+06 5.904678e+06 2.584437e+05 1.285272e+03 4.787737e+01 2.267945e+00 1.910591e-02 1.910591e-02
<GCONST> 1.015883e+02
<STATE> 12
<MEAN> 20
 4.666936e+03 7.147739e+01 1.657522e+01 2.716354e+00 2.325535e+01 2.080097e+02 1.659789e+02 4.335172e+01 1.546789e+01 1.366624e+02 3.815399e+02 2.660002e+02 1.698147e+03 1.493385e+03 1.084131e+03 3.545744e+02 6.386786e+01 8.785794e+00 0.000000e+00 0.000000e+00
<VARIANCE> 20
 1.121426e+07 3.396332e+04 1.998616e+03 1.169085e+02 4.994769e+03 9.465446e+05 1.822592e+05 7.151010e+03 1.165114e+03 3.919889e+04 4.146813e+05 2.818613e+05 7.336718e+06 2.456362e+06 1.544782e+06 3.750940e+05 4.746212e+04 1.996380e+03 1.000000e-02 1.000000e-02
<GCONST> 2.289356e+02
<STATE> 13
<MEAN> 20
 9.159975e+03 1.690522e+01 4.740042e-01 3.577393e-02 5.187193e-01 4.774363e+02 1.249144e+02 6.878189e+01 7.493764e+01 6.618818e+02 5.091495e+01 9.128676e+02 6.419205e+03 1.717295e+03 9.418932e+02 4.324444e+02 8.945111e+01 1.606525e+01 5.643330e+00 8.049098e-02
<VARIANCE> 20
 1.749733e+07 3.875435e+03 5.669070e+00 8.815515e-02 8.102001e+00 3.768471e+05 3.680505e+04 4.954427e+03 4.528043e+03 4.775662e+05 3.422762e+04 1.723631e+06 2.189104e+07 1.772743e+06 1.962904e+06 1.602539e+05 8.103952e+04 8.769275e+03 2.395188e+03 2.528813e-01
<GCONST> 2.258044e+02
<TRANSP> 14
 0.000000e+00 1.000000e+00 0.000000e+00 0.000000e+00 0.000000e+00 0.000000e+00 0.000000e+00 0.000000e+00 0.000000e+00 0.000000e+00 0.000000e+00 0.000000e+00 0.000000e+00 0.000000e+00
 0.000000e+00 4.737046e-01 5.262955e-01 0.000000e+00 0.000000e+00 0.000000e+00 0.000000e+00 0.000000e+00 0.000000e+00 0.000000e+00 0.000000e+00 0.000000e+00 0.000000e+00 0.000000e+00
 0.000000e+00 0.000000e+00 0.000000e+00 1.000000e+00 0.000000e+00 0.000000e+00 0.000000e+00 0.000000e+00 0.000000e+00 0.000000e+00 0.000000e+00 0.000000e+00 0.000000e+00 0.000000e+00
 0.000000e+00 0.000000e+00 0.000000e+00 5.837017e-01 4.162982e-01 0.000000e+00 0.000000e+00 0.000000e+00 0.000000e+00 0.000000e+00 0.000000e+00 0.000000e+00 0.000000e+00 0.000000e+00
 0.000000e+00 0.000000e+00 0.000000e+00 0.000000e+00 0.000000e+00 1.000000e+00 0.000000e+00 0.000000e+00 0.000000e+00 0.000000e+00 0.000000e+00 0.000000e+00 0.000000e+00 0.000000e+00
 0.000000e+00 0.000000e+00 0.000000e+00 0.000000e+00 0.000000e+00 9.380719e-01 6.192812e-02 0.000000e+00 0.000000e+00 0.000000e+00 0.000000e+00 0.000000e+00 0.000000e+00 0.000000e+00
 0.000000e+00 0.000000e+00 0.000000e+00 0.000000e+00 0.000000e+00 0.000000e+00 3.327387e-01 6.672613e-01 0.000000e+00 0.000000e+00 0.000000e+00 0.000000e+00 0.000000e+00 0.000000e+00
 0.000000e+00 0.000000e+00 0.000000e+00 0.000000e+00 0.000000e+00 0.000000e+00 0.000000e+00 8.579360e-01 1.420640e-01 0.000000e+00 0.000000e+00 0.000000e+00 0.000000e+00 0.000000e+00
 0.000000e+00 0.000000e+00 0.000000e+00 0.000000e+00 0.000000e+00 0.000000e+00 0.000000e+00 0.000000e+00 6.487196e-01 3.512804e-01 0.000000e+00 0.000000e+00 0.000000e+00 0.000000e+00
 0.000000e+00 0.000000e+00 0.000000e+00 0.000000e+00 0.000000e+00 0.000000e+00 0.000000e+00 0.000000e+00 0.000000e+00 8.962368e-01 1.037632e-01 0.000000e+00 0.000000e+00 0.000000e+00
 0.000000e+00 0.000000e+00 0.000000e+00 0.000000e+00 0.000000e+00 0.000000e+00 0.000000e+00 0.000000e+00 0.000000e+00 0.000000e+00 6.102934e-01 3.897066e-01 0.000000e+00 0.000000e+00
 0.000000e+00 0.000000e+00 0.000000e+00 0.000000e+00 0.000000e+00 0.000000e+00 0.000000e+00 0.000000e+00 0.000000e+00 0.000000e+00 0.000000e+00 4.456436e-01 5.543564e-01 0.000000e+00
 0.000000e+00 0.000000e+00 0.000000e+00 0.000000e+00 0.000000e+00 0.000000e+00 0.000000e+00 0.000000e+00 0.000000e+00 0.000000e+00 0.000000e+00 0.000000e+00 8.211321e-01 1.788679e-01
 0.000000e+00 0.000000e+00 0.000000e+00 0.000000e+00 0.000000e+00 0.000000e+00 0.000000e+00 0.000000e+00 0.000000e+00 0.000000e+00 0.000000e+00 0.000000e+00 0.000000e+00 0.000000e+00
<ENDHMM>
~h "sil"
<BEGINHMM>
<NUMSTATES> 14
<STATE> 2
<MEAN> 20
 8.721129e+03 4.529087e-02 0.000000e+00 0.000000e+00 0.000000e+00 0.000000e+00 0.000000e+00 0.000000e+00 0.000000e+00 5.983136e+01 0.000000e+00 2.867917e+01 2.645655e+03 4.595579e+03 1.311229e+03 1.382483e+02 3.877819e+01 1.643604e+01 5.675903e+00 7.246665e-01
<VARIANCE> 20
 3.779442e+06 4.323960e-02 1.000000e-02 1.000000e-02 1.000000e-02 1.000000e-02 1.000000e-02 1.000000e-02 1.000000e-02 4.149815e+03 1.000000e-02 5.187578e+03 5.109642e+06 3.242949e+06 8.444039e+05 9.075479e+03 7.344007e+02 1.193181e+02 3.474367e+01 2.282905e+00
<GCONST> 9.775774e+01
<STATE> 3
<MEAN> 20
 8.232041e+03 0.000000e+00 0.000000e+00 0.000000e+00 0.000000e+00 0.000000e+00 0.000000e+00 0.000000e+00 0.000000e+00 1.917936e+01 0.000000e+00 1.097457e+01 3.057424e+03 4.178423e+03 8.791613e+02 7.973992e+01 3.268818e+01 1.149105e+01 1.224079e+00 9.415831e-02
<VARIANCE> 20
 3.704460e+06 1.000000e-02 1.000000e-02 1.000000e-02 1.000000e-02 1.000000e-02 1.000000e-02 1.000000e-02 1.000000e-02 6.696379e+02 1.000000e-02 1.168415e+03 2.947703e+06 2.625380e+06 7.003780e+05 2.059391e+03 4.686674e+02 7.979003e+01 3.362251e+00 8.529254e-02
<GCONST> 8.405325e+01
<STATE> 4
<MEAN> 20
 8.069291e+03 0.000000e+00 0.000000e+00 0.000000e+00 0.000000e+00 0.000000e+00 0.000000e+00 0.000000e+00 0.000000e+00 2.607589e+01 0.000000e+00 -1.617211e-09 4.210638e+03 3.413869e+03 3.857677e+02 5.945943e+01 2.048979e+01 4.758571e+00 3.835102e-01 0.000000e+00
<VARIANCE> 20
 1.921903e+06 1.000000e-02 1.000000e-02 1.000000e-02 1.000000e-02 1.000000e-02 1.000000e-02 1.000000e-02 1.000000e-02 2.213953e+03 1.000000e-02 1.000000e-02 1.763499e+06 9.207768e+05 1.420389e+05 6.679157e+02 1.146946e+02 2.002152e+01 5.641544e-01 1.000000e-02
<GCONST> 6.192249e+01
<STATE> 5
<MEAN> 20
 8.855723e+03 0.000000e+00 0.000000e+00 0.000000e+00 0.000000e+00 0.000000e+00 0.000000e+00 0.000000e+00 0.000000e+00 5.004574e+01 0.000000e+00 3.874578e+01 5.733331e+03 2.782402e+03 2.781788e+02 5.908847e+01 1.209894e+01 1.891001e+00 3.267315e-02 0.000000e+00
<VARIANCE> 20
 3.777112e+06 1.000000e-02 1.000000e-02 1.000000e-02 1.000000e-02 1.000000e-02 1.000000e-02 1.000000e-02 1.000000e-02 3.335314e+03 1.000000e-02 3.614781e+03 3.619330e+06 8.747315e+05 2.504285e+05 7.752387e+03 8.109325e+01 7.063245e+00 3.160562e-02 1.000000e-02
<GCONST> 7.522165e+01
<STATE> 6
<MEAN> 20
 7.588036e+03 2.481981e+01 0.000000e+00 0.000000e+00 0.000000e+00 0.000000e+00 0.000000e+00 0.000000e+00 0.000000e+00 3.550139e+01 0.000000e+00 6.367596e+01 5.023917e+03 2.328453e+03 1.787019e+02 4.101553e+01 1.087776e+01 1.716561e+00 0.000000e+00 0.000000e+00
<VARIANCE> 20
 4.990572e+06 6.391824e+03 1.000000e-02 1.000000e-02 1.000000e-02 1.000000e-02 1.000000e-02 1.000000e-02 1.000000e-02 2.128798e+03 1.000000e-02 1.343704e+04 4.118988e+06 1.220383e+06 4.485362e+04 2.039275e+03 2.137154e+02 1.318011e+01 1.000000e-02 1.000000e-02
<GCONST> 8.758141e+01
<STATE> 7
<MEAN> 20
 8.849267e+03 0.000000e+00 0.000000e+00 0.000000e+00 0.000000e+00 0.000000e+00 0.000000e+00 0.000000e+00 0.000000e+00 6.130055e+01 0.000000e+00 1.836375e+02 6.231561e+03 2.326505e+03 1.308973e+02 3.459247e+01 3.314242e+00 5.981793e-02 0.000000e+00 0.000000e+00
<VARIANCE> 20
 1.280175e+06 1.000000e-02 1.000000e-02 1.000000e-02 1.000000e-02 1.000000e-02 1.000000e-02 1.000000e-02 1.000000e-02 4.282457e+03 1.000000e-02 6.886319e+04 1.161801e+06 6.070094e+05 2.744633e+03 3.455948e+02 1.435476e+01 8.546062e-02 1.000000e-02 1.000000e-02
<GCONST> 6.091415e+01
<STATE> 8
<MEAN> 20
 9.770669e+03 0.000000e+00 0.000000e+00 0.000000e+00 0.000000e+00 0.000000e+00 0.000000e+00 0.000000e+00 0.000000e+00 2.528793e+02 0.000000e+00 5.064940e+02 6.928406e+03 2.438743e+03 1.132602e+02 3.078523e+01 5.446647e+00 3.847284e-01 2.924599e-02 0.000000e+00
<VARIANCE> 20
 3.320219e+06 1.000000e-02 1.000000e-02 1.000000e-02 1.000000e-02 1.000000e-02 1.000000e-02 1.000000e-02 1.000000e-02 3.246000e+04 1.000000e-02 2.736881e+05 2.136310e+06 8.344194e+05 2.302151e+03 4.053232e+02 3.727818e+01 1.053875e+00 2.839066e-02 1.000000e-02
<GCONST> 7.069343e+01
<STATE> 9
<MEAN> 20
