~o
<STREAMINFO> 1 1
<VECSIZE> 1<NULLD><USER><DIAGC>
~h "a"
<BEGINHMM>
<NUMSTATES> 8
<STATE> 2
<MEAN> 1
 -9.444180e-01
<VARIANCE> 1
 5.649544e-01
<GCONST> 1.266867e+00
<STATE> 3
<MEAN> 1
 7.186523e-01
<VARIANCE> 1
 1.612599e-01
<GCONST> 1.313937e-02
<STATE> 4
<MEAN> 1
 8.962581e-02
<VARIANCE> 1
 7.987748e-02
<GCONST> -6.893842e-01
<STATE> 5
<MEAN> 1
 1.648069e+00
<VARIANCE> 1
 2.233867e-01
<GCONST> 3.390263e-01
<STATE> 6
<MEAN> 1
 3.605444e+00
<VARIANCE> 1
 5.571774e-01
<GCONST> 1.253006e+00
<STATE> 7
<MEAN> 1
 7.837374e+00
<VARIANCE> 1
 3.782641e+00
<GCONST> 3.168299e+00
<TRANSP> 8
 0.000000e+00 1.000000e+00 0.000000e+00 0.000000e+00 0.000000e+00 0.000000e+00 0.000000e+00 0.000000e+00
 0.000000e+00 9.075936e-01 9.240641e-02 0.000000e+00 0.000000e+00 0.000000e+00 0.000000e+00 0.000000e+00
 0.000000e+00 0.000000e+00 3.648961e-01 6.351039e-01 0.000000e+00 0.000000e+00 0.000000e+00 0.000000e+00
 0.000000e+00 0.000000e+00 0.000000e+00 9.534329e-01 4.656702e-02 0.000000e+00 0.000000e+00 0.000000e+00
 0.000000e+00 0.000000e+00 0.000000e+00 0.000000e+00 9.763238e-01 2.367621e-02 0.000000e+00 0.000000e+00
 0.000000e+00 0.000000e+00 0.000000e+00 0.000000e+00 0.000000e+00 9.805064e-01 1.949364e-02 0.000000e+00
 0.000000e+00 0.000000e+00 0.000000e+00 0.000000e+00 0.000000e+00 0.000000e+00 9.905958e-01 9.404280e-03
 0.000000e+00 0.000000e+00 0.000000e+00 0.000000e+00 0.000000e+00 0.000000e+00 0.000000e+00 0.000000e+00
<ENDHMM>
~h "e"
<BEGINHMM>
<NUMSTATES> 8
<STATE> 2
<MEAN> 1
 2.055014e+00
<VARIANCE> 1
 1.223050e+00
<GCONST> 2.039225e+00
<STATE> 3
<MEAN> 1
 5.784558e+00
<VARIANCE> 1
 9.779969e+00
<GCONST> 4.118214e+00
<STATE> 4
<MEAN> 1
 -1.955718e-03
<VARIANCE> 1
 1.000000e-02
<GCONST> -2.767293e+00
<STATE> 5
<MEAN> 1
 -7.508720e-01
<VARIANCE> 1
 1.266013e-01
<GCONST> -2.288353e-01
<STATE> 6
<MEAN> 1
 -2.140540e+00
<VARIANCE> 1
 1.859008e-01
<GCONST> 1.553348e-01
<STATE> 7
<MEAN> 1
 -3.785493e+00
<VARIANCE> 1
 2.435369e-01
<GCONST> 4.253904e-01
<TRANSP> 8
 0.000000e+00 1.000000e+00 0.000000e+00 0.000000e+00 0.000000e+00 0.000000e+00 0.000000e+00 0.000000e+00
 0.000000e+00 9.795194e-01 2.048055e-02 0.000000e+00 0.000000e+00 0.000000e+00 0.000000e+00 0.000000e+00
 0.000000e+00 0.000000e+00 9.481910e-01 5.180895e-02 0.000000e+00 0.000000e+00 0.000000e+00 0.000000e+00
 0.000000e+00 0.000000e+00 0.000000e+00 9.779940e-01 2.200605e-02 0.000000e+00 0.000000e+00 0.000000e+00
 0.000000e+00 0.000000e+00 0.000000e+00 0.000000e+00 9.702307e-01 2.976929e-02 0.000000e+00 0.000000e+00
 0.000000e+00 0.000000e+00 0.000000e+00 0.000000e+00 0.000000e+00 9.732910e-01 2.670891e-02 0.000000e+00
 0.000000e+00 0.000000e+00 0.000000e+00 0.000000e+00 0.000000e+00 0.000000e+00 9.649414e-01 3.505856e-02
 0.000000e+00 0.000000e+00 0.000000e+00 0.000000e+00 0.000000e+00 0.000000e+00 0.000000e+00 0.000000e+00
<ENDHMM>
~h "i"
<BEGINHMM>
<NUMSTATES> 8
<STATE> 2
<MEAN> 1
 -5.622541e+00
<VARIANCE> 1
 3.980553e-01
<GCONST> 9.167126e-01
<STATE> 3
<MEAN> 1
 -5.439969e+00
<VARIANCE> 1
 2.623173e+00
<GCONST> 2.802262e+00
<STATE> 4
<MEAN> 1
 -7.944551e+00
<VARIANCE> 1
 1.013143e+00
<GCONST> 1.850934e+00
<STATE> 5
<MEAN> 1
 -4.687889e+00
<VARIANCE> 1
 8.363379e-01
<GCONST> 1.659155e+00
<STATE> 6
<MEAN> 1
 -5.703011e+00
<VARIANCE> 1
 5.702157e-01
<GCONST> 1.276136e+00
<STATE> 7
<MEAN> 1
 -3.236279e+00
<VARIANCE> 1
 3.864029e-01
<GCONST> 8.870023e-01
<TRANSP> 8
 0.000000e+00 1.000000e+00 0.000000e+00 0.000000e+00 0.000000e+00 0.000000e+00 0.000000e+00 0.000000e+00
 0.000000e+00 9.680043e-01 3.199574e-02 0.000000e+00 0.000000e+00 0.000000e+00 0.000000e+00 0.000000e+00
 0.000000e+00 0.000000e+00 0.000000e+00 1.000000e+00 0.000000e+00 0.000000e+00 0.000000e+00 0.000000e+00
 0.000000e+00 0.000000e+00 0.000000e+00 9.848553e-01 1.514469e-02 0.000000e+00 0.000000e+00 0.000000e+00
 0.000000e+00 0.000000e+00 0.000000e+00 0.000000e+00 8.510753e-01 1.489247e-01 0.000000e+00 0.000000e+00
 0.000000e+00 0.000000e+00 0.000000e+00 0.000000e+00 0.000000e+00 9.671745e-01 3.282545e-02 0.000000e+00
 0.000000e+00 0.000000e+00 0.000000e+00 0.000000e+00 0.000000e+00 0.000000e+00 9.610437e-01 3.895627e-02
 0.000000e+00 0.000000e+00 0.000000e+00 0.000000e+00 0.000000e+00 0.000000e+00 0.000000e+00 0.000000e+00
<ENDHMM>
~h "m"
<BEGINHMM>
<NUMSTATES> 8
<STATE> 2
<MEAN> 1
 -1.244311e+00
<VARIANCE> 1
 3.152653e-01
<GCONST> 6.835363e-01
<STATE> 3
<MEAN> 1
 -5.706512e-03
<VARIANCE> 1
 1.000000e-02
<GCONST> -2.767293e+00
<STATE> 4
<MEAN> 1
 8.926719e-02
<VARIANCE> 1
 1.000000e-02
<GCONST> -2.767293e+00
<STATE> 5
<MEAN> 1
 1.410362e-01
<VARIANCE> 1
 1.000000e-02
<GCONST> -2.767293e+00
<STATE> 6
<MEAN> 1
 1.908764e-01
<VARIANCE> 1
 1.419399e-02
<GCONST> -2.417060e+00
<STATE> 7
<MEAN> 1
 4.377551e-01
<VARIANCE> 1
 2.594174e-02
<GCONST> -1.814025e+00
<TRANSP> 8
 0.000000e+00 1.000000e+00 0.000000e+00 0.000000e+00 0.000000e+00 0.000000e+00 0.000000e+00 0.000000e+00
 0.000000e+00 9.617482e-01 3.825177e-02 0.000000e+00 0.000000e+00 0.000000e+00 0.000000e+00 0.000000e+00
 0.000000e+00 0.000000e+00 9.791866e-01 2.081340e-02 0.000000e+00 0.000000e+00 0.000000e+00 0.000000e+00
 0.000000e+00 0.000000e+00 0.000000e+00 0.000000e+00 1.000000e+00 0.000000e+00 0.000000e+00 0.000000e+00
 0.000000e+00 0.000000e+00 0.000000e+00 0.000000e+00 0.000000e+00 1.000000e+00 0.000000e+00 0.000000e+00
 0.000000e+00 0.000000e+00 0.000000e+00 0.000000e+00 0.000000e+00 0.000000e+00 1.000000e+00 0.000000e+00
 0.000000e+00 0.000000e+00 0.000000e+00 0.000000e+00 0.000000e+00 0.000000e+00 9.331560e-01 6.684405e-02
 0.000000e+00 0.000000e+00 0.000000e+00 0.000000e+00 0.000000e+00 0.000000e+00 0.000000e+00 0.000000e+00
<ENDHMM>
~h "sil"
<BEGINHMM>
<NUMSTATES> 8
<STATE> 2
<MEAN> 1
 1.647142e-01
<VARIANCE> 1
 2.315254e+00
<GCONST> 2.677397e+00
<STATE> 3
<MEAN> 1
 -3.340153e+00
<VARIANCE> 1
 1.029259e+00
<GCONST> 1.866716e+00
<STATE> 4
<MEAN> 1
 3.375439e-01
<VARIANCE> 1
 4.285377e+00
<GCONST> 3.293086e+00
<STATE> 5
<MEAN> 1
 9.221577e+00
<VARIANCE> 1
 1.021540e+01
<GCONST> 4.161773e+00
<STATE> 6
<MEAN> 1
 1.601112e+00
<VARIANCE> 1
 1.152207e+00
<GCONST> 1.979556e+00
<STATE> 7
<MEAN> 1
 1.821626e-01
<VARIANCE> 1
 1.493499e+00
<GCONST> 2.238999e+00
<TRANSP> 8
 0.000000e+00 1.000000e+00 0.000000e+00 0.000000e+00 0.000000e+00 0.000000e+00 0.000000e+00 0.000000e+00
 0.000000e+00 9.600558e-01 3.994421e-02 0.000000e+00 0.000000e+00 0.000000e+00 0.000000e+00 0.000000e+00
 0.000000e+00 0.000000e+00 9.785251e-01 2.147496e-02 0.000000e+00 0.000000e+00 0.000000e+00 0.000000e+00
 0.000000e+00 0.000000e+00 0.000000e+00 0.000000e+00 1.000000e+00 0.000000e+00 0.000000e+00 0.000000e+00
 0.000000e+00 0.000000e+00 0.000000e+00 0.000000e+00 9.411869e-01 5.881316e-02 0.000000e+00 0.000000e+00
 0.000000e+00 0.000000e+00 0.000000e+00 0.000000e+00 0.000000e+00 9.298132e-01 7.018678e-02 0.000000e+00
 0.000000e+00 0.000000e+00 0.000000e+00 0.000000e+00 0.000000e+00 0.000000e+00 0.000000e+00 1.000000e+00
 0.000000e+00 0.000000e+00 0.000000e+00 0.000000e+00 0.000000e+00 0.000000e+00 0.000000e+00 0.000000e+00
<ENDHMM>
