~o
<STREAMINFO> 1 1
<VECSIZE> 1<NULLD><USER><DIAGC>
~h "a"
<BEGINHMM>
<NUMSTATES> 8
<STATE> 2
<MEAN> 1
 3.103801e+00
<VARIANCE> 1
 2.674890e+00
<GCONST> 2.821785e+00
<STATE> 3
<MEAN> 1
 9.240452e+00
<VARIANCE> 1
 2.870767e+00
<GCONST> 2.892456e+00
<STATE> 4
<MEAN> 1
 5.284965e+00
<VARIANCE> 1
 1.554247e+00
<GCONST> 2.278868e+00
<STATE> 5
<MEAN> 1
 2.205085e+00
<VARIANCE> 1
 2.501526e-01
<GCONST> 4.521930e-01
<STATE> 6
<MEAN> 1
 3.178549e+00
<VARIANCE> 1
 7.223442e-01
<GCONST> 1.512623e+00
<STATE> 7
<MEAN> 1
 8.357932e-01
<VARIANCE> 1
 1.558497e-01
<GCONST> -2.098632e-02
<TRANSP> 8
 0.000000e+00 1.000000e+00 0.000000e+00 0.000000e+00 0.000000e+00 0.000000e+00 0.000000e+00 0.000000e+00
 0.000000e+00 9.495373e-01 5.046261e-02 0.000000e+00 0.000000e+00 0.000000e+00 0.000000e+00 0.000000e+00
 0.000000e+00 0.000000e+00 9.831684e-01 1.683164e-02 0.000000e+00 0.000000e+00 0.000000e+00 0.000000e+00
 0.000000e+00 0.000000e+00 0.000000e+00 9.729627e-01 2.703731e-02 0.000000e+00 0.000000e+00 0.000000e+00
 0.000000e+00 0.000000e+00 0.000000e+00 0.000000e+00 9.471126e-01 5.288740e-02 0.000000e+00 0.000000e+00
 0.000000e+00 0.000000e+00 0.000000e+00 0.000000e+00 0.000000e+00 9.137477e-01 8.625226e-02 0.000000e+00
 0.000000e+00 0.000000e+00 0.000000e+00 0.000000e+00 0.000000e+00 0.000000e+00 9.335288e-01 6.647116e-02
 0.000000e+00 0.000000e+00 0.000000e+00 0.000000e+00 0.000000e+00 0.000000e+00 0.000000e+00 0.000000e+00
<ENDHMM>
~h "e"
<BEGINHMM>
<NUMSTATES> 8
<STATE> 2
<MEAN> 1
 -1.452944e-03
<VARIANCE> 1
 1.000000e-02
<GCONST> -2.767293e+00
<STATE> 3
<MEAN> 1
 5.408824e+00
<VARIANCE> 1
 1.808805e+01
<GCONST> 4.733129e+00
<STATE> 4
<MEAN> 1
 -8.332386e-01
<VARIANCE> 1
 1.665914e-01
<GCONST> 4.566586e-02
<STATE> 5
<MEAN> 1
 -1.621350e+00
<VARIANCE> 1
 3.118037e-02
<GCONST> -1.630090e+00
<STATE> 6
<MEAN> 1
 -2.748511e+00
<VARIANCE> 1
 5.496992e-01
<GCONST> 1.239493e+00
<STATE> 7
<MEAN> 1
 -5.501382e+00
<VARIANCE> 1
 6.165133e-01
<GCONST> 1.354202e+00
<TRANSP> 8
 0.000000e+00 1.000000e+00 0.000000e+00 0.000000e+00 0.000000e+00 0.000000e+00 0.000000e+00 0.000000e+00
 0.000000e+00 9.930894e-01 6.910586e-03 0.000000e+00 0.000000e+00 0.000000e+00 0.000000e+00 0.000000e+00
 0.000000e+00 0.000000e+00 8.780581e-01 1.219420e-01 0.000000e+00 0.000000e+00 0.000000e+00 0.000000e+00
 0.000000e+00 0.000000e+00 0.000000e+00 9.645200e-01 3.548008e-02 0.000000e+00 0.000000e+00 0.000000e+00
 0.000000e+00 0.000000e+00 0.000000e+00 0.000000e+00 0.000000e+00 1.000000e+00 0.000000e+00 0.000000e+00
 0.000000e+00 0.000000e+00 0.000000e+00 0.000000e+00 0.000000e+00 9.687309e-01 3.126913e-02 0.000000e+00
 0.000000e+00 0.000000e+00 0.000000e+00 0.000000e+00 0.000000e+00 0.000000e+00 9.671196e-01 3.288041e-02
 0.000000e+00 0.000000e+00 0.000000e+00 0.000000e+00 0.000000e+00 0.000000e+00 0.000000e+00 0.000000e+00
<ENDHMM>
~h "i"
<BEGINHMM>
<NUMSTATES> 8
<STATE> 2
<MEAN> 1
 -7.382642e+00
<VARIANCE> 1
 2.646529e+00
<GCONST> 2.811126e+00
<STATE> 3
<MEAN> 1
 -9.869988e+00
<VARIANCE> 1
 9.660462e-01
<GCONST> 1.803333e+00
<STATE> 4
<MEAN> 1
 -7.337059e+00
<VARIANCE> 1
 7.713742e-01
<GCONST> 1.578295e+00
<STATE> 5
<MEAN> 1
 -4.312851e+00
<VARIANCE> 1
 4.773270e-01
<GCONST> 1.098324e+00
<STATE> 6
<MEAN> 1
 -2.422029e+00
<VARIANCE> 1
 1.753216e-01
<GCONST> 9.674370e-02
<STATE> 7
<MEAN> 1
 -1.242218e+00
<VARIANCE> 1
 8.402988e-02
<GCONST> -6.387057e-01
<TRANSP> 8
 0.000000e+00 1.000000e+00 0.000000e+00 0.000000e+00 0.000000e+00 0.000000e+00 0.000000e+00 0.000000e+00
 0.000000e+00 9.411483e-01 5.885173e-02 0.000000e+00 0.000000e+00 0.000000e+00 0.000000e+00 0.000000e+00
 0.000000e+00 0.000000e+00 9.828659e-01 1.713413e-02 0.000000e+00 0.000000e+00 0.000000e+00 0.000000e+00
 0.000000e+00 0.000000e+00 0.000000e+00 9.771602e-01 2.283989e-02 0.000000e+00 0.000000e+00 0.000000e+00
 0.000000e+00 0.000000e+00 0.000000e+00 0.000000e+00 9.510883e-01 4.891167e-02 0.000000e+00 0.000000e+00
 0.000000e+00 0.000000e+00 0.000000e+00 0.000000e+00 0.000000e+00 9.247680e-01 7.523200e-02 0.000000e+00
 0.000000e+00 0.000000e+00 0.000000e+00 0.000000e+00 0.000000e+00 0.000000e+00 8.853155e-01 1.146845e-01
 0.000000e+00 0.000000e+00 0.000000e+00 0.000000e+00 0.000000e+00 0.000000e+00 0.000000e+00 0.000000e+00
<ENDHMM>
~h "m"
<BEGINHMM>
<NUMSTATES> 8
<STATE> 2
<MEAN> 1
 -4.729852e-01
<VARIANCE> 1
 3.007209e-02
<GCONST> -1.666281e+00
<STATE> 3
<MEAN> 1
 1.107979e-03
<VARIANCE> 1
 1.000000e-02
<GCONST> -2.767293e+00
<STATE> 4
<MEAN> 1
 7.038791e-01
<VARIANCE> 1
 1.005588e-01
<GCONST> -4.591353e-01
<STATE> 5
<MEAN> 1
 1.751441e+00
<VARIANCE> 1
 1.363786e-01
<GCONST> -1.544436e-01
<STATE> 6
<MEAN> 1
 3.300165e+00
<VARIANCE> 1
 3.837529e-01
<GCONST> 8.801206e-01
<STATE> 7
<MEAN> 1
 6.573946e+00
<VARIANCE> 1
 2.309046e+00
<GCONST> 2.674711e+00
<TRANSP> 8
 0.000000e+00 1.000000e+00 0.000000e+00 0.000000e+00 0.000000e+00 0.000000e+00 0.000000e+00 0.000000e+00
 0.000000e+00 8.081450e-01 1.918550e-01 0.000000e+00 0.000000e+00 0.000000e+00 0.000000e+00 0.000000e+00
 0.000000e+00 0.000000e+00 9.932111e-01 6.788903e-03 0.000000e+00 0.000000e+00 0.000000e+00 0.000000e+00
 0.000000e+00 0.000000e+00 0.000000e+00 9.508935e-01 4.910649e-02 0.000000e+00 0.000000e+00 0.000000e+00
 0.000000e+00 0.000000e+00 0.000000e+00 0.000000e+00 9.397392e-01 6.026087e-02 0.000000e+00 0.000000e+00
 0.000000e+00 0.000000e+00 0.000000e+00 0.000000e+00 0.000000e+00 9.545573e-01 4.544275e-02 0.000000e+00
 0.000000e+00 0.000000e+00 0.000000e+00 0.000000e+00 0.000000e+00 0.000000e+00 9.599528e-01 4.004719e-02
 0.000000e+00 0.000000e+00 0.000000e+00 0.000000e+00 0.000000e+00 0.000000e+00 0.000000e+00 0.000000e+00
<ENDHMM>
~h "sil"
<BEGINHMM>
<NUMSTATES> 8
<STATE> 2
<MEAN> 1
 -2.896609e+00
<VARIANCE> 1
 3.035580e+00
<GCONST> 2.948279e+00
<STATE> 3
<MEAN> 1
 3.083016e+00
<VARIANCE> 1
 1.592127e+01
<GCONST> 4.605534e+00
<STATE> 4
<MEAN> 1
 1.069884e+01
<VARIANCE> 1
 4.611398e+00
<GCONST> 3.366408e+00
<STATE> 5
<MEAN> 1
 5.904546e+00
<VARIANCE> 1
 4.092848e+00
<GCONST> 3.247118e+00
<STATE> 6
<MEAN> 1
 2.110134e+00
<VARIANCE> 1
 7.769564e+00
<GCONST> 3.888091e+00
<STATE> 7
<MEAN> 1
 1.504568e-01
<VARIANCE> 1
 9.717019e-01
<GCONST> 1.809171e+00
<TRANSP> 8
 0.000000e+00 1.000000e+00 0.000000e+00 0.000000e+00 0.000000e+00 0.000000e+00 0.000000e+00 0.000000e+00
 0.000000e+00 9.689665e-01 3.103353e-02 0.000000e+00 0.000000e+00 0.000000e+00 0.000000e+00 0.000000e+00
 0.000000e+00 0.000000e+00 0.000000e+00 1.000000e+00 0.000000e+00 0.000000e+00 0.000000e+00 0.000000e+00
 0.000000e+00 0.000000e+00 0.000000e+00 9.778074e-01 2.219256e-02 0.000000e+00 0.000000e+00 0.000000e+00
 0.000000e+00 0.000000e+00 0.000000e+00 0.000000e+00 9.089772e-01 9.102280e-02 0.000000e+00 0.000000e+00
 0.000000e+00 0.000000e+00 0.000000e+00 0.000000e+00 0.000000e+00 1.256322e-02 9.874368e-01 0.000000e+00
 0.000000e+00 0.000000e+00 0.000000e+00 0.000000e+00 0.000000e+00 0.000000e+00 9.636675e-01 3.633258e-02
 0.000000e+00 0.000000e+00 0.000000e+00 0.000000e+00 0.000000e+00 0.000000e+00 0.000000e+00 0.000000e+00
<ENDHMM>
