~o
<STREAMINFO> 1 1
<VECSIZE> 1<NULLD><USER><DIAGC>
~h "a"
<BEGINHMM>
<NUMSTATES> 8
<STATE> 2
<MEAN> 1
 -1.588087e+00
<VARIANCE> 1
 1.266487e+01
<GCONST> 4.376709e+00
<STATE> 3
<MEAN> 1
 8.924982e+00
<VARIANCE> 1
 5.078251e+00
<GCONST> 3.462844e+00
<STATE> 4
<MEAN> 1
 5.444421e+00
<VARIANCE> 1
 2.306886e+00
<GCONST> 2.673776e+00
<STATE> 5
<MEAN> 1
 1.963272e+00
<VARIANCE> 1
 7.589828e-01
<GCONST> 1.562101e+00
<STATE> 6
<MEAN> 1
 3.551802e+00
<VARIANCE> 1
 1.304624e+00
<GCONST> 2.103792e+00
<STATE> 7
<MEAN> 1
 4.761195e-02
<VARIANCE> 1
 2.418989e-01
<GCONST> 4.186418e-01
<TRANSP> 8
 0.000000e+00 1.000000e+00 0.000000e+00 0.000000e+00 0.000000e+00 0.000000e+00 0.000000e+00 0.000000e+00
 0.000000e+00 9.712882e-01 2.871182e-02 0.000000e+00 0.000000e+00 0.000000e+00 0.000000e+00 0.000000e+00
 0.000000e+00 0.000000e+00 9.721266e-01 2.787340e-02 0.000000e+00 0.000000e+00 0.000000e+00 0.000000e+00
 0.000000e+00 0.000000e+00 0.000000e+00 9.624213e-01 3.757868e-02 0.000000e+00 0.000000e+00 0.000000e+00
 0.000000e+00 0.000000e+00 0.000000e+00 0.000000e+00 9.568897e-01 4.311032e-02 0.000000e+00 0.000000e+00
 0.000000e+00 0.000000e+00 0.000000e+00 0.000000e+00 0.000000e+00 9.375738e-01 6.242618e-02 0.000000e+00
 0.000000e+00 0.000000e+00 0.000000e+00 0.000000e+00 0.000000e+00 0.000000e+00 9.852129e-01 1.478706e-02
 0.000000e+00 0.000000e+00 0.000000e+00 0.000000e+00 0.000000e+00 0.000000e+00 0.000000e+00 0.000000e+00
<ENDHMM>
