~o
<STREAMINFO> 1 1
<VECSIZE> 1<NULLD><USER><DIAGC>
~h "a"
<BEGINHMM>
<NUMSTATES> 8
<STATE> 2
<MEAN> 1
 -4.246134e+00
<VARIANCE> 1
 6.806437e+00
<GCONST> 3.755746e+00
<STATE> 3
<MEAN> 1
 5.032386e+00
<VARIANCE> 1
 7.718090e+00
<GCONST> 3.881444e+00
<STATE> 4
<MEAN> 1
 7.855695e-02
<VARIANCE> 1
 2.615514e-01
<GCONST> 4.967525e-01
<STATE> 5
<MEAN> 1
 1.575356e+00
<VARIANCE> 1
 3.903666e-01
<GCONST> 8.972081e-01
<STATE> 6
<MEAN> 1
 3.247831e+00
<VARIANCE> 1
 7.613546e-01
<GCONST> 1.565221e+00
<STATE> 7
<MEAN> 1
 7.114256e+00
<VARIANCE> 1
 7.442861e+00
<GCONST> 3.845132e+00
<TRANSP> 8
 0.000000e+00 1.000000e+00 0.000000e+00 0.000000e+00 0.000000e+00 0.000000e+00 0.000000e+00 0.000000e+00
 0.000000e+00 9.678698e-01 3.213020e-02 0.000000e+00 0.000000e+00 0.000000e+00 0.000000e+00 0.000000e+00
 0.000000e+00 0.000000e+00 9.620758e-01 3.792421e-02 0.000000e+00 0.000000e+00 0.000000e+00 0.000000e+00
 0.000000e+00 0.000000e+00 0.000000e+00 9.749705e-01 2.502956e-02 0.000000e+00 0.000000e+00 0.000000e+00
 0.000000e+00 0.000000e+00 0.000000e+00 0.000000e+00 9.584113e-01 4.158868e-02 0.000000e+00 0.000000e+00
 0.000000e+00 0.000000e+00 0.000000e+00 0.000000e+00 0.000000e+00 9.630469e-01 3.695310e-02 0.000000e+00
 0.000000e+00 0.000000e+00 0.000000e+00 0.000000e+00 0.000000e+00 0.000000e+00 9.631890e-01 3.681104e-02
 0.000000e+00 0.000000e+00 0.000000e+00 0.000000e+00 0.000000e+00 0.000000e+00 0.000000e+00 0.000000e+00
<ENDHMM>
