~o
<STREAMINFO> 1 1
<VECSIZE> 1<NULLD><USER><DIAGC>
~h "e"
<BEGINHMM>
<NUMSTATES> 8
<STATE> 2
<MEAN> 1
 3.170488e+00
<VARIANCE> 1
 2.678951e+00
<GCONST> 2.823302e+00
<STATE> 3
<MEAN> 1
 8.295241e+00
<VARIANCE> 1
 4.469339e+00
<GCONST> 3.335118e+00
<STATE> 4
<MEAN> 1
 -8.713151e-03
<VARIANCE> 1
 5.553401e-01
<GCONST> 1.249702e+00
<STATE> 5
<MEAN> 1
 4.365726e+00
<VARIANCE> 1
 5.331717e+00
<GCONST> 3.511550e+00
<STATE> 6
<MEAN> 1
 -2.115122e+00
<VARIANCE> 1
 2.085697e+00
<GCONST> 2.572980e+00
<STATE> 7
<MEAN> 1
 -6.220821e+00
<VARIANCE> 1
 8.829101e+00
<GCONST> 4.015930e+00
<TRANSP> 8
 0.000000e+00 1.000000e+00 0.000000e+00 0.000000e+00 0.000000e+00 0.000000e+00 0.000000e+00 0.000000e+00
 0.000000e+00 9.598551e-01 4.014496e-02 0.000000e+00 0.000000e+00 0.000000e+00 0.000000e+00 0.000000e+00
 0.000000e+00 0.000000e+00 9.765196e-01 2.348041e-02 0.000000e+00 0.000000e+00 0.000000e+00 0.000000e+00
 0.000000e+00 0.000000e+00 0.000000e+00 9.772944e-01 2.270563e-02 0.000000e+00 0.000000e+00 0.000000e+00
 0.000000e+00 0.000000e+00 0.000000e+00 0.000000e+00 9.372894e-01 6.271062e-02 0.000000e+00 0.000000e+00
 0.000000e+00 0.000000e+00 0.000000e+00 0.000000e+00 0.000000e+00 9.646500e-01 3.534997e-02 0.000000e+00
 0.000000e+00 0.000000e+00 0.000000e+00 0.000000e+00 0.000000e+00 0.000000e+00 9.496287e-01 5.037135e-02
 0.000000e+00 0.000000e+00 0.000000e+00 0.000000e+00 0.000000e+00 0.000000e+00 0.000000e+00 0.000000e+00
<ENDHMM>
