~o
<STREAMINFO> 1 1
<VECSIZE> 1<NULLD><USER><DIAGC>
~h "e"
<BEGINHMM>
<NUMSTATES> 8
<STATE> 2
<MEAN> 1
 2.096707e-03
<VARIANCE> 1
 1.942403e-01
<GCONST> 1.992176e-01
<STATE> 3
<MEAN> 1
 6.625392e+00
<VARIANCE> 1
 7.991001e+00
<GCONST> 3.916193e+00
<STATE> 4
<MEAN> 1
 6.573098e-02
<VARIANCE> 1
 1.455204e+00
<GCONST> 2.213023e+00
<STATE> 5
<MEAN> 1
 -3.190556e-01
<VARIANCE> 1
 9.381652e+00
<GCONST> 4.076633e+00
<STATE> 6
<MEAN> 1
 -3.130993e+00
<VARIANCE> 1
 3.530443e+00
<GCONST> 3.099300e+00
<STATE> 7
<MEAN> 1
 -8.400204e+00
<VARIANCE> 1
 5.460980e+00
<GCONST> 3.535505e+00
<TRANSP> 8
 0.000000e+00 1.000000e+00 0.000000e+00 0.000000e+00 0.000000e+00 0.000000e+00 0.000000e+00 0.000000e+00
 0.000000e+00 9.869288e-01 1.307118e-02 0.000000e+00 0.000000e+00 0.000000e+00 0.000000e+00 0.000000e+00
 0.000000e+00 0.000000e+00 9.753723e-01 2.462767e-02 0.000000e+00 0.000000e+00 0.000000e+00 0.000000e+00
 0.000000e+00 0.000000e+00 0.000000e+00 9.613612e-01 3.863884e-02 0.000000e+00 0.000000e+00 0.000000e+00
 0.000000e+00 0.000000e+00 0.000000e+00 0.000000e+00 0.000000e+00 1.000000e+00 0.000000e+00 0.000000e+00
 0.000000e+00 0.000000e+00 0.000000e+00 0.000000e+00 0.000000e+00 9.592816e-01 4.071843e-02 0.000000e+00
 0.000000e+00 0.000000e+00 0.000000e+00 0.000000e+00 0.000000e+00 0.000000e+00 9.719014e-01 2.809863e-02
 0.000000e+00 0.000000e+00 0.000000e+00 0.000000e+00 0.000000e+00 0.000000e+00 0.000000e+00 0.000000e+00
<ENDHMM>
