~o
<STREAMINFO> 1 1
<VECSIZE> 1<NULLD><USER><DIAGC>
~h "i"
<BEGINHMM>
<NUMSTATES> 8
<STATE> 2
<MEAN> 1
 1.814825e+00
<VARIANCE> 1
 2.406007e+01
<GCONST> 5.018431e+00
<STATE> 3
<MEAN> 1
 -9.607026e+00
<VARIANCE> 1
 1.983244e+00
<GCONST> 2.522611e+00
<STATE> 4
<MEAN> 1
 -6.781038e+00
<VARIANCE> 1
 1.696239e+00
<GCONST> 2.366290e+00
<STATE> 5
<MEAN> 1
 -4.298223e+00
<VARIANCE> 1
 1.583252e+00
<GCONST> 2.297358e+00
<STATE> 6
<MEAN> 1
 -1.975592e+00
<VARIANCE> 1
 1.047271e+00
<GCONST> 1.884065e+00
<STATE> 7
<MEAN> 1
 -5.424036e-02
<VARIANCE> 1
 2.225466e-01
<GCONST> 3.352585e-01
<TRANSP> 8
 0.000000e+00 1.000000e+00 0.000000e+00 0.000000e+00 0.000000e+00 0.000000e+00 0.000000e+00 0.000000e+00
 0.000000e+00 9.722480e-01 2.775203e-02 0.000000e+00 0.000000e+00 0.000000e+00 0.000000e+00 0.000000e+00
 0.000000e+00 0.000000e+00 9.767370e-01 2.326302e-02 0.000000e+00 0.000000e+00 0.000000e+00 0.000000e+00
 0.000000e+00 0.000000e+00 0.000000e+00 9.674429e-01 3.255705e-02 0.000000e+00 0.000000e+00 0.000000e+00
 0.000000e+00 0.000000e+00 0.000000e+00 0.000000e+00 9.375415e-01 6.245844e-02 0.000000e+00 0.000000e+00
 0.000000e+00 0.000000e+00 0.000000e+00 0.000000e+00 0.000000e+00 9.412276e-01 5.877249e-02 0.000000e+00
 0.000000e+00 0.000000e+00 0.000000e+00 0.000000e+00 0.000000e+00 0.000000e+00 9.837099e-01 1.629009e-02
 0.000000e+00 0.000000e+00 0.000000e+00 0.000000e+00 0.000000e+00 0.000000e+00 0.000000e+00 0.000000e+00
<ENDHMM>
