~o
<STREAMINFO> 1 1
<VECSIZE> 1<NULLD><USER><DIAGC>
~h "i"
<BEGINHMM>
<NUMSTATES> 8
<STATE> 2
<MEAN> 1
 5.903602e+00
<VARIANCE> 1
 1.300122e+01
<GCONST> 4.402920e+00
<STATE> 3
<MEAN> 1
 -1.903785e+00
<VARIANCE> 1
 1.222523e+01
<GCONST> 4.341379e+00
<STATE> 4
<MEAN> 1
 -6.781821e+00
<VARIANCE> 1
 6.278730e+00
<GCONST> 3.675045e+00
<STATE> 5
<MEAN> 1
 -9.664574e-01
<VARIANCE> 1
 1.333020e+00
<GCONST> 2.125324e+00
<STATE> 6
<MEAN> 1
 -6.199732e+00
<VARIANCE> 1
 2.188092e+00
<GCONST> 2.620907e+00
<STATE> 7
<MEAN> 1
 -3.129125e+00
<VARIANCE> 1
 1.558490e+00
<GCONST> 2.281594e+00
<TRANSP> 8
 0.000000e+00 1.000000e+00 0.000000e+00 0.000000e+00 0.000000e+00 0.000000e+00 0.000000e+00 0.000000e+00
 0.000000e+00 9.668556e-01 3.314444e-02 0.000000e+00 0.000000e+00 0.000000e+00 0.000000e+00 0.000000e+00
 0.000000e+00 0.000000e+00 0.000000e+00 1.000000e+00 0.000000e+00 0.000000e+00 0.000000e+00 0.000000e+00
 0.000000e+00 0.000000e+00 0.000000e+00 9.473363e-01 5.266368e-02 0.000000e+00 0.000000e+00 0.000000e+00
 0.000000e+00 0.000000e+00 0.000000e+00 0.000000e+00 9.814126e-01 1.858737e-02 0.000000e+00 0.000000e+00
 0.000000e+00 0.000000e+00 0.000000e+00 0.000000e+00 0.000000e+00 9.781121e-01 2.188790e-02 0.000000e+00
 0.000000e+00 0.000000e+00 0.000000e+00 0.000000e+00 0.000000e+00 0.000000e+00 9.616252e-01 3.837482e-02
 0.000000e+00 0.000000e+00 0.000000e+00 0.000000e+00 0.000000e+00 0.000000e+00 0.000000e+00 0.000000e+00
<ENDHMM>
