~o
<STREAMINFO> 1 1
<VECSIZE> 1<NULLD><USER><DIAGC>
~h "m"
<BEGINHMM>
<NUMSTATES> 8
<STATE> 2
<MEAN> 1
 -5.162847e+00
<VARIANCE> 1
 4.993537e+00
<GCONST> 3.446022e+00
<STATE> 3
<MEAN> 1
 5.128893e-02
<VARIANCE> 1
 3.828329e-01
<GCONST> 8.777202e-01
<STATE> 4
<MEAN> 1
 -2.926440e-01
<VARIANCE> 1
 9.161296e+00
<GCONST> 4.052865e+00
<STATE> 5
<MEAN> 1
 -2.589493e-01
<VARIANCE> 1
 9.201193e+00
<GCONST> 4.057210e+00
<STATE> 6
<MEAN> 1
 -2.252519e-01
<VARIANCE> 1
 9.243046e+00
<GCONST> 4.061749e+00
<STATE> 7
<MEAN> 1
 4.016239e+00
<VARIANCE> 1
 1.057564e+01
<GCONST> 4.196431e+00
<TRANSP> 8
 0.000000e+00 1.000000e+00 0.000000e+00 0.000000e+00 0.000000e+00 0.000000e+00 0.000000e+00 0.000000e+00
 0.000000e+00 9.864760e-01 1.352401e-02 0.000000e+00 0.000000e+00 0.000000e+00 0.000000e+00 0.000000e+00
 0.000000e+00 0.000000e+00 9.844573e-01 1.554266e-02 0.000000e+00 0.000000e+00 0.000000e+00 0.000000e+00
 0.000000e+00 0.000000e+00 0.000000e+00 0.000000e+00 1.000000e+00 0.000000e+00 0.000000e+00 0.000000e+00
 0.000000e+00 0.000000e+00 0.000000e+00 0.000000e+00 0.000000e+00 1.000000e+00 0.000000e+00 0.000000e+00
 0.000000e+00 0.000000e+00 0.000000e+00 0.000000e+00 0.000000e+00 0.000000e+00 1.000000e+00 0.000000e+00
 0.000000e+00 0.000000e+00 0.000000e+00 0.000000e+00 0.000000e+00 0.000000e+00 9.707332e-01 2.926681e-02
 0.000000e+00 0.000000e+00 0.000000e+00 0.000000e+00 0.000000e+00 0.000000e+00 0.000000e+00 0.000000e+00
<ENDHMM>
