~o
<STREAMINFO> 1 1
<VECSIZE> 1<NULLD><USER><DIAGC>
~h "m"
<BEGINHMM>
<NUMSTATES> 8
<STATE> 2
<MEAN> 1
 -3.261238e+00
<VARIANCE> 1
 1.708922e+01
<GCONST> 4.676325e+00
<STATE> 3
<MEAN> 1
 -1.966160e-03
<VARIANCE> 1
 1.161115e-02
<GCONST> -2.617913e+00
<STATE> 4
<MEAN> 1
 8.340177e-01
<VARIANCE> 1
 3.220152e-01
<GCONST> 7.047205e-01
<STATE> 5
<MEAN> 1
 -5.226565e+00
<VARIANCE> 1
 6.632436e+00
<GCONST> 3.729849e+00
<STATE> 6
<MEAN> 1
 2.874774e+00
<VARIANCE> 1
 1.875951e+00
<GCONST> 2.466993e+00
<STATE> 7
<MEAN> 1
 7.164912e+00
<VARIANCE> 1
 7.895933e+00
<GCONST> 3.904225e+00
<TRANSP> 8
 0.000000e+00 1.000000e+00 0.000000e+00 0.000000e+00 0.000000e+00 0.000000e+00 0.000000e+00 0.000000e+00
 0.000000e+00 9.714572e-01 2.854280e-02 0.000000e+00 0.000000e+00 0.000000e+00 0.000000e+00 0.000000e+00
 0.000000e+00 0.000000e+00 9.887697e-01 1.123034e-02 0.000000e+00 0.000000e+00 0.000000e+00 0.000000e+00
 0.000000e+00 0.000000e+00 0.000000e+00 9.521537e-01 4.784637e-02 0.000000e+00 0.000000e+00 0.000000e+00
 0.000000e+00 0.000000e+00 0.000000e+00 0.000000e+00 9.404516e-01 5.954836e-02 0.000000e+00 0.000000e+00
 0.000000e+00 0.000000e+00 0.000000e+00 0.000000e+00 0.000000e+00 9.579962e-01 4.200378e-02 0.000000e+00
 0.000000e+00 0.000000e+00 0.000000e+00 0.000000e+00 0.000000e+00 0.000000e+00 9.456701e-01 5.432997e-02
 0.000000e+00 0.000000e+00 0.000000e+00 0.000000e+00 0.000000e+00 0.000000e+00 0.000000e+00 0.000000e+00
<ENDHMM>
