~o
<STREAMINFO> 1 1
<VECSIZE> 1<NULLD><USER><DIAGC>
~h "sil"
<BEGINHMM>
<NUMSTATES> 8
<STATE> 2
<MEAN> 1
 -2.648353e+00
<VARIANCE> 1
 3.315639e+00
<GCONST> 3.036527e+00
<STATE> 3
<MEAN> 1
 3.821398e+00
<VARIANCE> 1
 2.600308e+01
<GCONST> 5.096092e+00
<STATE> 4
<MEAN> 1
 1.099409e+01
<VARIANCE> 1
 3.381574e+00
<GCONST> 3.056218e+00
<STATE> 5
<MEAN> 1
 7.678752e+00
<VARIANCE> 1
 5.964886e+00
<GCONST> 3.623767e+00
<STATE> 6
<MEAN> 1
 3.225815e+00
<VARIANCE> 1
 3.676054e+00
<GCONST> 3.139717e+00
<STATE> 7
<MEAN> 1
 1.418643e-01
<VARIANCE> 1
 1.259352e+00
<GCONST> 2.068474e+00
<TRANSP> 8
 0.000000e+00 1.000000e+00 0.000000e+00 0.000000e+00 0.000000e+00 0.000000e+00 0.000000e+00 0.000000e+00
 0.000000e+00 9.715315e-01 2.846851e-02 0.000000e+00 0.000000e+00 0.000000e+00 0.000000e+00 0.000000e+00
 0.000000e+00 0.000000e+00 0.000000e+00 1.000000e+00 0.000000e+00 0.000000e+00 0.000000e+00 0.000000e+00
 0.000000e+00 0.000000e+00 0.000000e+00 9.858614e-01 1.413860e-02 0.000000e+00 0.000000e+00 0.000000e+00
 0.000000e+00 0.000000e+00 0.000000e+00 0.000000e+00 9.663426e-01 3.365738e-02 0.000000e+00 0.000000e+00
 0.000000e+00 0.000000e+00 0.000000e+00 0.000000e+00 0.000000e+00 9.619614e-01 3.803853e-02 0.000000e+00
 0.000000e+00 0.000000e+00 0.000000e+00 0.000000e+00 0.000000e+00 0.000000e+00 9.746785e-01 2.532156e-02
 0.000000e+00 0.000000e+00 0.000000e+00 0.000000e+00 0.000000e+00 0.000000e+00 0.000000e+00 0.000000e+00
<ENDHMM>
