~o
<STREAMINFO> 1 1
<VECSIZE> 1<NULLD><USER><DIAGC>
~h "sil"
<BEGINHMM>
<NUMSTATES> 8
<STATE> 2
<MEAN> 1
 1.148622e-01
<VARIANCE> 1
 2.044987e+00
<GCONST> 2.553268e+00
<STATE> 3
<MEAN> 1
 -3.077904e+00
<VARIANCE> 1
 1.152488e+00
<GCONST> 1.979800e+00
<STATE> 4
<MEAN> 1
 6.810828e-01
<VARIANCE> 1
 9.807549e+00
<GCONST> 4.121029e+00
<STATE> 5
<MEAN> 1
 9.699629e+00
<VARIANCE> 1
 7.902968e+00
<GCONST> 3.905115e+00
<STATE> 6
<MEAN> 1
 3.270328e+00
<VARIANCE> 1
 2.265894e+00
<GCONST> 2.655847e+00
<STATE> 7
<MEAN> 1
 1.499616e+00
<VARIANCE> 1
 1.558644e+01
<GCONST> 4.584278e+00
<TRANSP> 8
 0.000000e+00 1.000000e+00 0.000000e+00 0.000000e+00 0.000000e+00 0.000000e+00 0.000000e+00 0.000000e+00
 0.000000e+00 9.908617e-01 9.138370e-03 0.000000e+00 0.000000e+00 0.000000e+00 0.000000e+00 0.000000e+00
 0.000000e+00 0.000000e+00 9.813816e-01 1.861840e-02 0.000000e+00 0.000000e+00 0.000000e+00 0.000000e+00
 0.000000e+00 0.000000e+00 0.000000e+00 0.000000e+00 1.000000e+00 0.000000e+00 0.000000e+00 0.000000e+00
 0.000000e+00 0.000000e+00 0.000000e+00 0.000000e+00 9.575914e-01 4.240857e-02 0.000000e+00 0.000000e+00
 0.000000e+00 0.000000e+00 0.000000e+00 0.000000e+00 0.000000e+00 9.626799e-01 3.732015e-02 0.000000e+00
 0.000000e+00 0.000000e+00 0.000000e+00 0.000000e+00 0.000000e+00 0.000000e+00 0.000000e+00 1.000000e+00
 0.000000e+00 0.000000e+00 0.000000e+00 0.000000e+00 0.000000e+00 0.000000e+00 0.000000e+00 0.000000e+00
<ENDHMM>
