~o
<STREAMINFO> 1 1
<VECSIZE> 1<NULLD><USER><DIAGC>
~h "a"
<BEGINHMM>
<NUMSTATES> 8
<STATE> 2
<MEAN> 1
 -9.360433e-01
<VARIANCE> 1
 4.910082e-01
<GCONST> 1.126583e+00
<STATE> 3
<MEAN> 1
 4.456348e-01
<VARIANCE> 1
 2.096702e-01
<GCONST> 2.756575e-01
<STATE> 4
<MEAN> 1
 1.721604e-01
<VARIANCE> 1
 8.081010e-02
<GCONST> -6.777763e-01
<STATE> 5
<MEAN> 1
 1.581599e+00
<VARIANCE> 1
 2.738957e-01
<GCONST> 5.428693e-01
<STATE> 6
<MEAN> 1
 3.460509e+00
<VARIANCE> 1
 5.013298e-01
<GCONST> 1.147386e+00
<STATE> 7
<MEAN> 1
 7.823138e+00
<VARIANCE> 1
 3.253929e+00
<GCONST> 3.017740e+00
<TRANSP> 8
 0.000000e+00 1.000000e+00 0.000000e+00 0.000000e+00 0.000000e+00 0.000000e+00 0.000000e+00 0.000000e+00
 0.000000e+00 9.111615e-01 8.883851e-02 0.000000e+00 0.000000e+00 0.000000e+00 0.000000e+00 0.000000e+00
 0.000000e+00 0.000000e+00 6.350747e-02 9.364926e-01 0.000000e+00 0.000000e+00 0.000000e+00 0.000000e+00
 0.000000e+00 0.000000e+00 0.000000e+00 9.625912e-01 3.740885e-02 0.000000e+00 0.000000e+00 0.000000e+00
 0.000000e+00 0.000000e+00 0.000000e+00 0.000000e+00 9.794370e-01 2.056300e-02 0.000000e+00 0.000000e+00
 0.000000e+00 0.000000e+00 0.000000e+00 0.000000e+00 0.000000e+00 9.801710e-01 1.982904e-02 0.000000e+00
 0.000000e+00 0.000000e+00 0.000000e+00 0.000000e+00 0.000000e+00 0.000000e+00 9.899098e-01 1.009019e-02
 0.000000e+00 0.000000e+00 0.000000e+00 0.000000e+00 0.000000e+00 0.000000e+00 0.000000e+00 0.000000e+00
<ENDHMM>
~h "e"
<BEGINHMM>
<NUMSTATES> 8
<STATE> 2
<MEAN> 1
 2.577823e+00
<VARIANCE> 1
 1.945519e+00
<GCONST> 2.503406e+00
<STATE> 3
<MEAN> 1
 6.611490e+00
<VARIANCE> 1
 1.247312e+01
<GCONST> 4.361453e+00
<STATE> 4
<MEAN> 1
 -9.638264e-03
<VARIANCE> 1
 1.624900e-02
<GCONST> -2.281847e+00
<STATE> 5
<MEAN> 1
 -8.183914e-01
<VARIANCE> 1
 1.082126e-01
<GCONST> -3.857801e-01
<STATE> 6
<MEAN> 1
 -2.159805e+00
<VARIANCE> 1
 1.945043e-01
<GCONST> 2.005758e-01
<STATE> 7
<MEAN> 1
 -3.866750e+00
<VARIANCE> 1
 2.654954e-01
<GCONST> 5.117193e-01
<TRANSP> 8
 0.000000e+00 1.000000e+00 0.000000e+00 0.000000e+00 0.000000e+00 0.000000e+00 0.000000e+00 0.000000e+00
 0.000000e+00 9.789402e-01 2.105976e-02 0.000000e+00 0.000000e+00 0.000000e+00 0.000000e+00 0.000000e+00
 0.000000e+00 0.000000e+00 9.566541e-01 4.334596e-02 0.000000e+00 0.000000e+00 0.000000e+00 0.000000e+00
 0.000000e+00 0.000000e+00 0.000000e+00 9.807043e-01 1.929567e-02 0.000000e+00 0.000000e+00 0.000000e+00
 0.000000e+00 0.000000e+00 0.000000e+00 0.000000e+00 9.662218e-01 3.377818e-02 0.000000e+00 0.000000e+00
 0.000000e+00 0.000000e+00 0.000000e+00 0.000000e+00 0.000000e+00 9.738433e-01 2.615662e-02 0.000000e+00
 0.000000e+00 0.000000e+00 0.000000e+00 0.000000e+00 0.000000e+00 0.000000e+00 9.663387e-01 3.366126e-02
 0.000000e+00 0.000000e+00 0.000000e+00 0.000000e+00 0.000000e+00 0.000000e+00 0.000000e+00 0.000000e+00
<ENDHMM>
~h "i"
<BEGINHMM>
<NUMSTATES> 8
<STATE> 2
<MEAN> 1
 -5.649002e+00
<VARIANCE> 1
 3.852004e-01
<GCONST> 8.838855e-01
<STATE> 3
<MEAN> 1
 -5.454517e+00
<VARIANCE> 1
 2.659702e+00
<GCONST> 2.816091e+00
<STATE> 4
<MEAN> 1
 -7.965878e+00
<VARIANCE> 1
 1.004490e+00
<GCONST> 1.842357e+00
<STATE> 5
<MEAN> 1
 -4.835336e+00
<VARIANCE> 1
 1.653995e+00
<GCONST> 2.341071e+00
<STATE> 6
<MEAN> 1
 -5.753949e+00
<VARIANCE> 1
 5.462817e-01
<GCONST> 1.233257e+00
<STATE> 7
<MEAN> 1
 -3.390072e+00
<VARIANCE> 1
 4.164659e-01
<GCONST> 9.619263e-01
<TRANSP> 8
 0.000000e+00 1.000000e+00 0.000000e+00 0.000000e+00 0.000000e+00 0.000000e+00 0.000000e+00 0.000000e+00
 0.000000e+00 9.667789e-01 3.322110e-02 0.000000e+00 0.000000e+00 0.000000e+00 0.000000e+00 0.000000e+00
 0.000000e+00 0.000000e+00 0.000000e+00 1.000000e+00 0.000000e+00 0.000000e+00 0.000000e+00 0.000000e+00
 0.000000e+00 0.000000e+00 0.000000e+00 9.845871e-01 1.541293e-02 0.000000e+00 0.000000e+00 0.000000e+00
 0.000000e+00 0.000000e+00 0.000000e+00 0.000000e+00 7.010875e-01 2.989125e-01 0.000000e+00 0.000000e+00
 0.000000e+00 0.000000e+00 0.000000e+00 0.000000e+00 0.000000e+00 9.685190e-01 3.148107e-02 0.000000e+00
 0.000000e+00 0.000000e+00 0.000000e+00 0.000000e+00 0.000000e+00 0.000000e+00 9.623898e-01 3.761024e-02
 0.000000e+00 0.000000e+00 0.000000e+00 0.000000e+00 0.000000e+00 0.000000e+00 0.000000e+00 0.000000e+00
<ENDHMM>
~h "m"
<BEGINHMM>
<NUMSTATES> 8
<STATE> 2
<MEAN> 1
 -1.299296e+00
<VARIANCE> 1
 3.504085e-01
<GCONST> 7.892213e-01
<STATE> 3
<MEAN> 1
 -8.611701e-03
<VARIANCE> 1
 1.000000e-02
<GCONST> -2.767293e+00
<STATE> 4
<MEAN> 1
 7.344273e-02
<VARIANCE> 1
 1.000000e-02
<GCONST> -2.767293e+00
<STATE> 5
<MEAN> 1
 1.250112e-01
<VARIANCE> 1
 1.052480e-02
<GCONST> -2.716144e+00
<STATE> 6
<MEAN> 1
 1.747316e-01
<VARIANCE> 1
 1.457175e-02
<GCONST> -2.390794e+00
<STATE> 7
<MEAN> 1
 2.500791e-01
<VARIANCE> 1
 5.477903e-02
<GCONST> -1.066571e+00
<TRANSP> 8
 0.000000e+00 1.000000e+00 0.000000e+00 0.000000e+00 0.000000e+00 0.000000e+00 0.000000e+00 0.000000e+00
 0.000000e+00 9.636195e-01 3.638049e-02 0.000000e+00 0.000000e+00 0.000000e+00 0.000000e+00 0.000000e+00
 0.000000e+00 0.000000e+00 9.786720e-01 2.132804e-02 0.000000e+00 0.000000e+00 0.000000e+00 0.000000e+00
 0.000000e+00 0.000000e+00 0.000000e+00 0.000000e+00 1.000000e+00 0.000000e+00 0.000000e+00 0.000000e+00
 0.000000e+00 0.000000e+00 0.000000e+00 0.000000e+00 0.000000e+00 1.000000e+00 0.000000e+00 0.000000e+00
 0.000000e+00 0.000000e+00 0.000000e+00 0.000000e+00 0.000000e+00 0.000000e+00 1.000000e+00 0.000000e+00
 0.000000e+00 0.000000e+00 0.000000e+00 0.000000e+00 0.000000e+00 0.000000e+00 8.801070e-01 1.198930e-01
 0.000000e+00 0.000000e+00 0.000000e+00 0.000000e+00 0.000000e+00 0.000000e+00 0.000000e+00 0.000000e+00
<ENDHMM>
~h "sil"
<BEGINHMM>
<NUMSTATES> 8
<STATE> 2
<MEAN> 1
 1.932394e-01
<VARIANCE> 1
 2.559112e+00
<GCONST> 2.777537e+00
<STATE> 3
<MEAN> 1
 -3.337465e+00
<VARIANCE> 1
 1.028312e+00
<GCONST> 1.865795e+00
<STATE> 4
<MEAN> 1
 3.276249e-01
<VARIANCE> 1
 4.271393e+00
<GCONST> 3.289817e+00
<STATE> 5
<MEAN> 1
 9.203979e+00
<VARIANCE> 1
 1.028012e+01
<GCONST> 4.168089e+00
<STATE> 6
<MEAN> 1
 1.470814e+00
<VARIANCE> 1
 1.083416e+00
<GCONST> 1.917996e+00
<STATE> 7
<MEAN> 1
 1.823491e-01
<VARIANCE> 1
 1.486777e+00
<GCONST> 2.234488e+00
<TRANSP> 8
 0.000000e+00 1.000000e+00 0.000000e+00 0.000000e+00 0.000000e+00 0.000000e+00 0.000000e+00 0.000000e+00
 0.000000e+00 9.553250e-01 4.467499e-02 0.000000e+00 0.000000e+00 0.000000e+00 0.000000e+00 0.000000e+00
 0.000000e+00 0.000000e+00 9.785755e-01 2.142455e-02 0.000000e+00 0.000000e+00 0.000000e+00 0.000000e+00
 0.000000e+00 0.000000e+00 0.000000e+00 0.000000e+00 1.000000e+00 0.000000e+00 0.000000e+00 0.000000e+00
 0.000000e+00 0.000000e+00 0.000000e+00 0.000000e+00 9.413791e-01 5.862087e-02 0.000000e+00 0.000000e+00
 0.000000e+00 0.000000e+00 0.000000e+00 0.000000e+00 0.000000e+00 9.376283e-01 6.237172e-02 0.000000e+00
 0.000000e+00 0.000000e+00 0.000000e+00 0.000000e+00 0.000000e+00 0.000000e+00 0.000000e+00 1.000000e+00
 0.000000e+00 0.000000e+00 0.000000e+00 0.000000e+00 0.000000e+00 0.000000e+00 0.000000e+00 0.000000e+00
<ENDHMM>
