~o
<STREAMINFO> 1 1
<VECSIZE> 1<NULLD><USER><DIAGC>
~h "a"
<BEGINHMM>
<NUMSTATES> 8
<STATE> 2
<MEAN> 1
 3.142719e+00
<VARIANCE> 1
 2.695136e+00
<GCONST> 2.829326e+00
<STATE> 3
<MEAN> 1
 9.268457e+00
<VARIANCE> 1
 2.830604e+00
<GCONST> 2.878367e+00
<STATE> 4
<MEAN> 1
 5.328804e+00
<VARIANCE> 1
 1.591074e+00
<GCONST> 2.302286e+00
<STATE> 5
<MEAN> 1
 2.193942e+00
<VARIANCE> 1
 2.554804e-01
<GCONST> 4.732674e-01
<STATE> 6
<MEAN> 1
 3.173344e+00
<VARIANCE> 1
 7.174835e-01
<GCONST> 1.505872e+00
<STATE> 7
<MEAN> 1
 8.305409e-01
<VARIANCE> 1
 1.540618e-01
<GCONST> -3.252459e-02
<TRANSP> 8
 0.000000e+00 1.000000e+00 0.000000e+00 0.000000e+00 0.000000e+00 0.000000e+00 0.000000e+00 0.000000e+00
 0.000000e+00 9.504689e-01 4.953113e-02 0.000000e+00 0.000000e+00 0.000000e+00 0.000000e+00 0.000000e+00
 0.000000e+00 0.000000e+00 9.829618e-01 1.703825e-02 0.000000e+00 0.000000e+00 0.000000e+00 0.000000e+00
 0.000000e+00 0.000000e+00 0.000000e+00 9.734809e-01 2.651912e-02 0.000000e+00 0.000000e+00 0.000000e+00
 0.000000e+00 0.000000e+00 0.000000e+00 0.000000e+00 9.466915e-01 5.330854e-02 0.000000e+00 0.000000e+00
 0.000000e+00 0.000000e+00 0.000000e+00 0.000000e+00 0.000000e+00 9.165664e-01 8.343363e-02 0.000000e+00
 0.000000e+00 0.000000e+00 0.000000e+00 0.000000e+00 0.000000e+00 0.000000e+00 9.330635e-01 6.693646e-02
 0.000000e+00 0.000000e+00 0.000000e+00 0.000000e+00 0.000000e+00 0.000000e+00 0.000000e+00 0.000000e+00
<ENDHMM>
~h "e"
<BEGINHMM>
<NUMSTATES> 8
<STATE> 2
<MEAN> 1
 -1.552992e-03
<VARIANCE> 1
 1.000000e-02
<GCONST> -2.767293e+00
<STATE> 3
<MEAN> 1
 5.407114e+00
<VARIANCE> 1
 1.809508e+01
<GCONST> 4.733517e+00
<STATE> 4
<MEAN> 1
 -8.583429e-01
<VARIANCE> 1
 1.797380e-01
<GCONST> 1.216220e-01
<STATE> 5
<MEAN> 1
 -1.694523e+00
<VARIANCE> 1
 3.234375e-02
<GCONST> -1.593457e+00
<STATE> 6
<MEAN> 1
 -2.839919e+00
<VARIANCE> 1
 5.890276e-01
<GCONST> 1.308595e+00
<STATE> 7
<MEAN> 1
 -5.617193e+00
<VARIANCE> 1
 5.769805e-01
<GCONST> 1.287930e+00
<TRANSP> 8
 0.000000e+00 1.000000e+00 0.000000e+00 0.000000e+00 0.000000e+00 0.000000e+00 0.000000e+00 0.000000e+00
 0.000000e+00 9.930915e-01 6.908469e-03 0.000000e+00 0.000000e+00 0.000000e+00 0.000000e+00 0.000000e+00
 0.000000e+00 0.000000e+00 8.780854e-01 1.219146e-01 0.000000e+00 0.000000e+00 0.000000e+00 0.000000e+00
 0.000000e+00 0.000000e+00 0.000000e+00 9.658948e-01 3.410514e-02 0.000000e+00 0.000000e+00 0.000000e+00
 0.000000e+00 0.000000e+00 0.000000e+00 0.000000e+00 0.000000e+00 1.000000e+00 0.000000e+00 0.000000e+00
 0.000000e+00 0.000000e+00 0.000000e+00 0.000000e+00 0.000000e+00 9.692486e-01 3.075142e-02 0.000000e+00
 0.000000e+00 0.000000e+00 0.000000e+00 0.000000e+00 0.000000e+00 0.000000e+00 9.665391e-01 3.346088e-02
 0.000000e+00 0.000000e+00 0.000000e+00 0.000000e+00 0.000000e+00 0.000000e+00 0.000000e+00 0.000000e+00
<ENDHMM>
~h "i"
<BEGINHMM>
<NUMSTATES> 8
<STATE> 2
<MEAN> 1
 -7.373327e+00
<VARIANCE> 1
 2.843690e+00
<GCONST> 2.882979e+00
<STATE> 3
<MEAN> 1
 -9.875726e+00
<VARIANCE> 1
 9.670868e-01
<GCONST> 1.804410e+00
<STATE> 4
<MEAN> 1
 -7.389664e+00
<VARIANCE> 1
 7.731357e-01
<GCONST> 1.580576e+00
<STATE> 5
<MEAN> 1
 -4.340674e+00
<VARIANCE> 1
 5.035578e-01
<GCONST> 1.151820e+00
<STATE> 6
<MEAN> 1
 -2.347121e+00
<VARIANCE> 1
 2.019070e-01
<GCONST> 2.379289e-01
<STATE> 7
<MEAN> 1
 -1.107351e+00
<VARIANCE> 1
 8.296772e-02
<GCONST> -6.514266e-01
<TRANSP> 8
 0.000000e+00 1.000000e+00 0.000000e+00 0.000000e+00 0.000000e+00 0.000000e+00 0.000000e+00 0.000000e+00
 0.000000e+00 9.348686e-01 6.513138e-02 0.000000e+00 0.000000e+00 0.000000e+00 0.000000e+00 0.000000e+00
 0.000000e+00 0.000000e+00 9.827580e-01 1.724197e-02 0.000000e+00 0.000000e+00 0.000000e+00 0.000000e+00
 0.000000e+00 0.000000e+00 0.000000e+00 9.773633e-01 2.263675e-02 0.000000e+00 0.000000e+00 0.000000e+00
 0.000000e+00 0.000000e+00 0.000000e+00 0.000000e+00 9.530384e-01 4.696159e-02 0.000000e+00 0.000000e+00
 0.000000e+00 0.000000e+00 0.000000e+00 0.000000e+00 0.000000e+00 9.303748e-01 6.962521e-02 0.000000e+00
 0.000000e+00 0.000000e+00 0.000000e+00 0.000000e+00 0.000000e+00 0.000000e+00 8.832196e-01 1.167804e-01
 0.000000e+00 0.000000e+00 0.000000e+00 0.000000e+00 0.000000e+00 0.000000e+00 0.000000e+00 0.000000e+00
<ENDHMM>
~h "m"
<BEGINHMM>
<NUMSTATES> 8
<STATE> 2
<MEAN> 1
 -3.883624e-01
<VARIANCE> 1
 1.996829e-02
<GCONST> -2.075732e+00
<STATE> 3
<MEAN> 1
 1.391651e-03
<VARIANCE> 1
 1.000000e-02
<GCONST> -2.767293e+00
<STATE> 4
<MEAN> 1
 7.100652e-01
<VARIANCE> 1
 1.014004e-01
<GCONST> -4.508009e-01
<STATE> 5
<MEAN> 1
 1.752103e+00
<VARIANCE> 1
 1.311998e-01
<GCONST> -1.931570e-01
<STATE> 6
<MEAN> 1
 3.264885e+00
<VARIANCE> 1
 3.672577e-01
<GCONST> 8.361855e-01
<STATE> 7
<MEAN> 1
 6.558308e+00
<VARIANCE> 1
 2.353282e+00
<GCONST> 2.693688e+00
<TRANSP> 8
 0.000000e+00 1.000000e+00 0.000000e+00 0.000000e+00 0.000000e+00 0.000000e+00 0.000000e+00 0.000000e+00
 0.000000e+00 7.498011e-01 2.501989e-01 0.000000e+00 0.000000e+00 0.000000e+00 0.000000e+00 0.000000e+00
 0.000000e+00 0.000000e+00 9.932033e-01 6.796673e-03 0.000000e+00 0.000000e+00 0.000000e+00 0.000000e+00
 0.000000e+00 0.000000e+00 0.000000e+00 9.511206e-01 4.887940e-02 0.000000e+00 0.000000e+00 0.000000e+00
 0.000000e+00 0.000000e+00 0.000000e+00 0.000000e+00 9.385165e-01 6.148354e-02 0.000000e+00 0.000000e+00
 0.000000e+00 0.000000e+00 0.000000e+00 0.000000e+00 0.000000e+00 9.539667e-01 4.603335e-02 0.000000e+00
 0.000000e+00 0.000000e+00 0.000000e+00 0.000000e+00 0.000000e+00 0.000000e+00 9.597771e-01 4.022295e-02
 0.000000e+00 0.000000e+00 0.000000e+00 0.000000e+00 0.000000e+00 0.000000e+00 0.000000e+00 0.000000e+00
<ENDHMM>
~h "sil"
<BEGINHMM>
<NUMSTATES> 8
<STATE> 2
<MEAN> 1
 -2.896604e+00
<VARIANCE> 1
 3.029487e+00
<GCONST> 2.946270e+00
<STATE> 3
<MEAN> 1
 3.076351e+00
<VARIANCE> 1
 1.586293e+01
<GCONST> 4.601862e+00
<STATE> 4
<MEAN> 1
 1.070392e+01
<VARIANCE> 1
 4.608768e+00
<GCONST> 3.365838e+00
<STATE> 5
<MEAN> 1
 5.953816e+00
<VARIANCE> 1
 4.074876e+00
<GCONST> 3.242717e+00
<STATE> 6
<MEAN> 1
 2.193578e+00
<VARIANCE> 1
 6.872117e+00
<GCONST> 3.765349e+00
<STATE> 7
<MEAN> 1
 1.451941e-01
<VARIANCE> 1
 9.624699e-01
<GCONST> 1.799625e+00
<TRANSP> 8
 0.000000e+00 1.000000e+00 0.000000e+00 0.000000e+00 0.000000e+00 0.000000e+00 0.000000e+00 0.000000e+00
 0.000000e+00 9.689743e-01 3.102575e-02 0.000000e+00 0.000000e+00 0.000000e+00 0.000000e+00 0.000000e+00
 0.000000e+00 0.000000e+00 0.000000e+00 1.000000e+00 0.000000e+00 0.000000e+00 0.000000e+00 0.000000e+00
 0.000000e+00 0.000000e+00 0.000000e+00 9.777589e-01 2.224106e-02 0.000000e+00 0.000000e+00 0.000000e+00
 0.000000e+00 0.000000e+00 0.000000e+00 0.000000e+00 9.095021e-01 9.049784e-02 0.000000e+00 0.000000e+00
 0.000000e+00 0.000000e+00 0.000000e+00 0.000000e+00 0.000000e+00 1.877467e-01 8.122534e-01 0.000000e+00
 0.000000e+00 0.000000e+00 0.000000e+00 0.000000e+00 0.000000e+00 0.000000e+00 9.637997e-01 3.620034e-02
 0.000000e+00 0.000000e+00 0.000000e+00 0.000000e+00 0.000000e+00 0.000000e+00 0.000000e+00 0.000000e+00
<ENDHMM>
