~o
<STREAMINFO> 1 1
<VECSIZE> 1<NULLD><USER><DIAGC>
~h "a"
<BEGINHMM>
<NUMSTATES> 8
<STATE> 2
<MEAN> 1
 -9.274967e-01
<VARIANCE> 1
 5.561655e-01
<GCONST> 1.251188e+00
<STATE> 3
<MEAN> 1
 6.812136e-01
<VARIANCE> 1
 1.917486e-01
<GCONST> 1.863067e-01
<STATE> 4
<MEAN> 1
 9.678917e-02
<VARIANCE> 1
 7.761355e-02
<GCONST> -7.181363e-01
<STATE> 5
<MEAN> 1
 1.638066e+00
<VARIANCE> 1
 2.326251e-01
<GCONST> 3.795501e-01
<STATE> 6
<MEAN> 1
 3.596102e+00
<VARIANCE> 1
 5.573615e-01
<GCONST> 1.253336e+00
<STATE> 7
<MEAN> 1
 7.778327e+00
<VARIANCE> 1
 3.387710e+00
<GCONST> 3.058031e+00
<TRANSP> 8
 0.000000e+00 1.000000e+00 0.000000e+00 0.000000e+00 0.000000e+00 0.000000e+00 0.000000e+00 0.000000e+00
 0.000000e+00 9.100200e-01 8.998000e-02 0.000000e+00 0.000000e+00 0.000000e+00 0.000000e+00 0.000000e+00
 0.000000e+00 0.000000e+00 2.110143e-01 7.889857e-01 0.000000e+00 0.000000e+00 0.000000e+00 0.000000e+00
 0.000000e+00 0.000000e+00 0.000000e+00 9.529567e-01 4.704334e-02 0.000000e+00 0.000000e+00 0.000000e+00
 0.000000e+00 0.000000e+00 0.000000e+00 0.000000e+00 9.770281e-01 2.297196e-02 0.000000e+00 0.000000e+00
 0.000000e+00 0.000000e+00 0.000000e+00 0.000000e+00 0.000000e+00 9.805875e-01 1.941244e-02 0.000000e+00
 0.000000e+00 0.000000e+00 0.000000e+00 0.000000e+00 0.000000e+00 0.000000e+00 9.901316e-01 9.868446e-03
 0.000000e+00 0.000000e+00 0.000000e+00 0.000000e+00 0.000000e+00 0.000000e+00 0.000000e+00 0.000000e+00
<ENDHMM>
~h "e"
<BEGINHMM>
<NUMSTATES> 8
<STATE> 2
<MEAN> 1
 2.105130e+00
<VARIANCE> 1
 1.348402e+00
<GCONST> 2.136797e+00
<STATE> 3
<MEAN> 1
 6.395980e+00
<VARIANCE> 1
 1.205681e+01
<GCONST> 4.327507e+00
<STATE> 4
<MEAN> 1
 -2.433004e-03
<VARIANCE> 1
 1.000000e-02
<GCONST> -2.767293e+00
<STATE> 5
<MEAN> 1
 -7.564977e-01
<VARIANCE> 1
 1.278132e-01
<GCONST> -2.193081e-01
<STATE> 6
<MEAN> 1
 -2.150450e+00
<VARIANCE> 1
 1.865343e-01
<GCONST> 1.587367e-01
<STATE> 7
<MEAN> 1
 -3.806121e+00
<VARIANCE> 1
 2.482372e-01
<GCONST> 4.445063e-01
<TRANSP> 8
 0.000000e+00 1.000000e+00 0.000000e+00 0.000000e+00 0.000000e+00 0.000000e+00 0.000000e+00 0.000000e+00
 0.000000e+00 9.791539e-01 2.084606e-02 0.000000e+00 0.000000e+00 0.000000e+00 0.000000e+00 0.000000e+00
 0.000000e+00 0.000000e+00 9.586688e-01 4.133115e-02 0.000000e+00 0.000000e+00 0.000000e+00 0.000000e+00
 0.000000e+00 0.000000e+00 0.000000e+00 9.780563e-01 2.194375e-02 0.000000e+00 0.000000e+00 0.000000e+00
 0.000000e+00 0.000000e+00 0.000000e+00 0.000000e+00 9.703000e-01 2.969996e-02 0.000000e+00 0.000000e+00
 0.000000e+00 0.000000e+00 0.000000e+00 0.000000e+00 0.000000e+00 9.734066e-01 2.659347e-02 0.000000e+00
 0.000000e+00 0.000000e+00 0.000000e+00 0.000000e+00 0.000000e+00 0.000000e+00 9.654156e-01 3.458438e-02
 0.000000e+00 0.000000e+00 0.000000e+00 0.000000e+00 0.000000e+00 0.000000e+00 0.000000e+00 0.000000e+00
<ENDHMM>
~h "i"
<BEGINHMM>
<NUMSTATES> 8
<STATE> 2
<MEAN> 1
 -5.621039e+00
<VARIANCE> 1
 3.975738e-01
<GCONST> 9.155023e-01
<STATE> 3
<MEAN> 1
 -5.443301e+00
<VARIANCE> 1
 2.657729e+00
<GCONST> 2.815349e+00
<STATE> 4
<MEAN> 1
 -7.949033e+00
<VARIANCE> 1
 1.011389e+00
<GCONST> 1.849202e+00
<STATE> 5
<MEAN> 1
 -4.756557e+00
<VARIANCE> 1
 1.089544e+00
<GCONST> 1.923636e+00
<STATE> 6
<MEAN> 1
 -5.706455e+00
<VARIANCE> 1
 5.640056e-01
<GCONST> 1.265186e+00
<STATE> 7
<MEAN> 1
 -3.284940e+00
<VARIANCE> 1
 4.020605e-01
<GCONST> 9.267244e-01
<TRANSP> 8
 0.000000e+00 1.000000e+00 0.000000e+00 0.000000e+00 0.000000e+00 0.000000e+00 0.000000e+00 0.000000e+00
 0.000000e+00 9.678540e-01 3.214603e-02 0.000000e+00 0.000000e+00 0.000000e+00 0.000000e+00 0.000000e+00
 0.000000e+00 0.000000e+00 0.000000e+00 1.000000e+00 0.000000e+00 0.000000e+00 0.000000e+00 0.000000e+00
 0.000000e+00 0.000000e+00 0.000000e+00 9.848017e-01 1.519828e-02 0.000000e+00 0.000000e+00 0.000000e+00
 0.000000e+00 0.000000e+00 0.000000e+00 0.000000e+00 8.028793e-01 1.971207e-01 0.000000e+00 0.000000e+00
 0.000000e+00 0.000000e+00 0.000000e+00 0.000000e+00 0.000000e+00 9.678108e-01 3.218928e-02 0.000000e+00
 0.000000e+00 0.000000e+00 0.000000e+00 0.000000e+00 0.000000e+00 0.000000e+00 9.616281e-01 3.837192e-02
 0.000000e+00 0.000000e+00 0.000000e+00 0.000000e+00 0.000000e+00 0.000000e+00 0.000000e+00 0.000000e+00
<ENDHMM>
~h "m"
<BEGINHMM>
<NUMSTATES> 8
<STATE> 2
<MEAN> 1
 -1.255949e+00
<VARIANCE> 1
 3.221186e-01
<GCONST> 7.050416e-01
<STATE> 3
<MEAN> 1
 -6.459414e-03
<VARIANCE> 1
 1.000000e-02
<GCONST> -2.767293e+00
<STATE> 4
<MEAN> 1
 8.131287e-02
<VARIANCE> 1
 1.000000e-02
<GCONST> -2.767293e+00
<STATE> 5
<MEAN> 1
 1.331714e-01
<VARIANCE> 1
 1.000000e-02
<GCONST> -2.767293e+00
<STATE> 6
<MEAN> 1
 1.832193e-01
<VARIANCE> 1
 1.372597e-02
<GCONST> -2.450589e+00
<STATE> 7
<MEAN> 1
 4.256121e-01
<VARIANCE> 1
 2.509422e-02
<GCONST> -1.847241e+00
<TRANSP> 8
 0.000000e+00 1.000000e+00 0.000000e+00 0.000000e+00 0.000000e+00 0.000000e+00 0.000000e+00 0.000000e+00
 0.000000e+00 9.621247e-01 3.787526e-02 0.000000e+00 0.000000e+00 0.000000e+00 0.000000e+00 0.000000e+00
 0.000000e+00 0.000000e+00 9.790956e-01 2.090434e-02 0.000000e+00 0.000000e+00 0.000000e+00 0.000000e+00
 0.000000e+00 0.000000e+00 0.000000e+00 0.000000e+00 1.000000e+00 0.000000e+00 0.000000e+00 0.000000e+00
 0.000000e+00 0.000000e+00 0.000000e+00 0.000000e+00 0.000000e+00 1.000000e+00 0.000000e+00 0.000000e+00
 0.000000e+00 0.000000e+00 0.000000e+00 0.000000e+00 0.000000e+00 0.000000e+00 1.000000e+00 0.000000e+00
 0.000000e+00 0.000000e+00 0.000000e+00 0.000000e+00 0.000000e+00 0.000000e+00 9.324735e-01 6.752643e-02
 0.000000e+00 0.000000e+00 0.000000e+00 0.000000e+00 0.000000e+00 0.000000e+00 0.000000e+00 0.000000e+00
<ENDHMM>
~h "sil"
<BEGINHMM>
<NUMSTATES> 8
<STATE> 2
<MEAN> 1
 1.630434e-01
<VARIANCE> 1
 2.330978e+00
<GCONST> 2.684165e+00
<STATE> 3
<MEAN> 1
 -3.340051e+00
<VARIANCE> 1
 1.028308e+00
<GCONST> 1.865792e+00
<STATE> 4
<MEAN> 1
 3.341119e-01
<VARIANCE> 1
 4.281776e+00
<GCONST> 3.292245e+00
<STATE> 5
<MEAN> 1
 9.216307e+00
<VARIANCE> 1
 1.023497e+01
<GCONST> 4.163688e+00
<STATE> 6
<MEAN> 1
 1.577071e+00
<VARIANCE> 1
 1.138354e+00
<GCONST> 1.967461e+00
<STATE> 7
<MEAN> 1
 1.813547e-01
<VARIANCE> 1
 1.489968e+00
<GCONST> 2.236632e+00
<TRANSP> 8
 0.000000e+00 1.000000e+00 0.000000e+00 0.000000e+00 0.000000e+00 0.000000e+00 0.000000e+00 0.000000e+00
 0.000000e+00 9.598026e-01 4.019740e-02 0.000000e+00 0.000000e+00 0.000000e+00 0.000000e+00 0.000000e+00
 0.000000e+00 0.000000e+00 9.785305e-01 2.146958e-02 0.000000e+00 0.000000e+00 0.000000e+00 0.000000e+00
 0.000000e+00 0.000000e+00 0.000000e+00 0.000000e+00 1.000000e+00 0.000000e+00 0.000000e+00 0.000000e+00
 0.000000e+00 0.000000e+00 0.000000e+00 0.000000e+00 9.412450e-01 5.875507e-02 0.000000e+00 0.000000e+00
 0.000000e+00 0.000000e+00 0.000000e+00 0.000000e+00 0.000000e+00 9.309946e-01 6.900543e-02 0.000000e+00
 0.000000e+00 0.000000e+00 0.000000e+00 0.000000e+00 0.000000e+00 0.000000e+00 0.000000e+00 1.000000e+00
 0.000000e+00 0.000000e+00 0.000000e+00 0.000000e+00 0.000000e+00 0.000000e+00 0.000000e+00 0.000000e+00
<ENDHMM>
