~o
<STREAMINFO> 1 1
<VECSIZE> 1<NULLD><USER><DIAGC>
~h "a"
<BEGINHMM>
<NUMSTATES> 8
<STATE> 2
<MEAN> 1
 3.106292e+00
<VARIANCE> 1
 2.678444e+00
<GCONST> 2.823113e+00
<STATE> 3
<MEAN> 1
 9.241870e+00
<VARIANCE> 1
 2.868744e+00
<GCONST> 2.891751e+00
<STATE> 4
<MEAN> 1
 5.287358e+00
<VARIANCE> 1
 1.554681e+00
<GCONST> 2.279147e+00
<STATE> 5
<MEAN> 1
 2.203761e+00
<VARIANCE> 1
 2.506505e-01
<GCONST> 4.541813e-01
<STATE> 6
<MEAN> 1
 3.177752e+00
<VARIANCE> 1
 7.214586e-01
<GCONST> 1.511397e+00
<STATE> 7
<MEAN> 1
 8.352045e-01
<VARIANCE> 1
 1.556605e-01
<GCONST> -2.220082e-02
<TRANSP> 8
 0.000000e+00 1.000000e+00 0.000000e+00 0.000000e+00 0.000000e+00 0.000000e+00 0.000000e+00 0.000000e+00
 0.000000e+00 9.495911e-01 5.040885e-02 0.000000e+00 0.000000e+00 0.000000e+00 0.000000e+00 0.000000e+00
 0.000000e+00 0.000000e+00 9.831587e-01 1.684129e-02 0.000000e+00 0.000000e+00 0.000000e+00 0.000000e+00
 0.000000e+00 0.000000e+00 0.000000e+00 9.729780e-01 2.702204e-02 0.000000e+00 0.000000e+00 0.000000e+00
 0.000000e+00 0.000000e+00 0.000000e+00 0.000000e+00 9.470481e-01 5.295191e-02 0.000000e+00 0.000000e+00
 0.000000e+00 0.000000e+00 0.000000e+00 0.000000e+00 0.000000e+00 9.141186e-01 8.588137e-02 0.000000e+00
 0.000000e+00 0.000000e+00 0.000000e+00 0.000000e+00 0.000000e+00 0.000000e+00 9.334771e-01 6.652285e-02
 0.000000e+00 0.000000e+00 0.000000e+00 0.000000e+00 0.000000e+00 0.000000e+00 0.000000e+00 0.000000e+00
<ENDHMM>
~h "e"
<BEGINHMM>
<NUMSTATES> 8
<STATE> 2
<MEAN> 1
 -1.471089e-03
<VARIANCE> 1
 1.000000e-02
<GCONST> -2.767293e+00
<STATE> 3
<MEAN> 1
 5.408463e+00
<VARIANCE> 1
 1.808934e+01
<GCONST> 4.733200e+00
<STATE> 4
<MEAN> 1
 -8.368557e-01
<VARIANCE> 1
 1.686855e-01
<GCONST> 5.815792e-02
<STATE> 5
<MEAN> 1
 -1.635436e+00
<VARIANCE> 1
 3.027344e-02
<GCONST> -1.659607e+00
<STATE> 6
<MEAN> 1
 -2.768253e+00
<VARIANCE> 1
 5.591518e-01
<GCONST> 1.256543e+00
<STATE> 7
<MEAN> 1
 -5.530558e+00
<VARIANCE> 1
 6.030428e-01
<GCONST> 1.332110e+00
<TRANSP> 8
 0.000000e+00 1.000000e+00 0.000000e+00 0.000000e+00 0.000000e+00 0.000000e+00 0.000000e+00 0.000000e+00
 0.000000e+00 9.930898e-01 6.910232e-03 0.000000e+00 0.000000e+00 0.000000e+00 0.000000e+00 0.000000e+00
 0.000000e+00 0.000000e+00 8.780638e-01 1.219362e-01 0.000000e+00 0.000000e+00 0.000000e+00 0.000000e+00
 0.000000e+00 0.000000e+00 0.000000e+00 9.648539e-01 3.514614e-02 0.000000e+00 0.000000e+00 0.000000e+00
 0.000000e+00 0.000000e+00 0.000000e+00 0.000000e+00 0.000000e+00 1.000000e+00 0.000000e+00 0.000000e+00
 0.000000e+00 0.000000e+00 0.000000e+00 0.000000e+00 0.000000e+00 9.688920e-01 3.110800e-02 0.000000e+00
 0.000000e+00 0.000000e+00 0.000000e+00 0.000000e+00 0.000000e+00 0.000000e+00 9.665798e-01 3.342021e-02
 0.000000e+00 0.000000e+00 0.000000e+00 0.000000e+00 0.000000e+00 0.000000e+00 0.000000e+00 0.000000e+00
<ENDHMM>
~h "i"
<BEGINHMM>
<NUMSTATES> 8
<STATE> 2
<MEAN> 1
 -7.380907e+00
<VARIANCE> 1
 2.672593e+00
<GCONST> 2.820926e+00
<STATE> 3
<MEAN> 1
 -9.871710e+00
<VARIANCE> 1
 9.653639e-01
<GCONST> 1.802627e+00
<STATE> 4
<MEAN> 1
 -7.346913e+00
<VARIANCE> 1
 7.712029e-01
<GCONST> 1.578073e+00
<STATE> 5
<MEAN> 1
 -4.326793e+00
<VARIANCE> 1
 4.878585e-01
<GCONST> 1.120147e+00
<STATE> 6
<MEAN> 1
 -2.406735e+00
<VARIANCE> 1
 1.794525e-01
<GCONST> 1.200323e-01
<STATE> 7
<MEAN> 1
 -1.214484e+00
<VARIANCE> 1
 8.444180e-02
<GCONST> -6.338158e-01
<TRANSP> 8
 0.000000e+00 1.000000e+00 0.000000e+00 0.000000e+00 0.000000e+00 0.000000e+00 0.000000e+00 0.000000e+00
 0.000000e+00 9.404404e-01 5.955964e-02 0.000000e+00 0.000000e+00 0.000000e+00 0.000000e+00 0.000000e+00
 0.000000e+00 0.000000e+00 9.828395e-01 1.716057e-02 0.000000e+00 0.000000e+00 0.000000e+00 0.000000e+00
 0.000000e+00 0.000000e+00 0.000000e+00 9.771708e-01 2.282919e-02 0.000000e+00 0.000000e+00 0.000000e+00
 0.000000e+00 0.000000e+00 0.000000e+00 0.000000e+00 9.521915e-01 4.780849e-02 0.000000e+00 0.000000e+00
 0.000000e+00 0.000000e+00 0.000000e+00 0.000000e+00 0.000000e+00 9.258534e-01 7.414657e-02 0.000000e+00
 0.000000e+00 0.000000e+00 0.000000e+00 0.000000e+00 0.000000e+00 0.000000e+00 8.856248e-01 1.143752e-01
 0.000000e+00 0.000000e+00 0.000000e+00 0.000000e+00 0.000000e+00 0.000000e+00 0.000000e+00 0.000000e+00
<ENDHMM>
~h "m"
<BEGINHMM>
<NUMSTATES> 8
<STATE> 2
<MEAN> 1
 -4.529155e-01
<VARIANCE> 1
 2.775322e-02
<GCONST> -1.746526e+00
<STATE> 3
<MEAN> 1
 1.166315e-03
<VARIANCE> 1
 1.000000e-02
<GCONST> -2.767293e+00
<STATE> 4
<MEAN> 1
 7.042569e-01
<VARIANCE> 1
 1.005991e-01
<GCONST> -4.587350e-01
<STATE> 5
<MEAN> 1
 1.751264e+00
<VARIANCE> 1
 1.358428e-01
<GCONST> -1.583796e-01
<STATE> 6
<MEAN> 1
 3.296884e+00
<VARIANCE> 1
 3.822029e-01
<GCONST> 8.760734e-01
<STATE> 7
<MEAN> 1
 6.571667e+00
<VARIANCE> 1
 2.313401e+00
<GCONST> 2.676596e+00
<TRANSP> 8
 0.000000e+00 1.000000e+00 0.000000e+00 0.000000e+00 0.000000e+00 0.000000e+00 0.000000e+00 0.000000e+00
 0.000000e+00 7.947354e-01 2.052647e-01 0.000000e+00 0.000000e+00 0.000000e+00 0.000000e+00 0.000000e+00
 0.000000e+00 0.000000e+00 9.932091e-01 6.790839e-03 0.000000e+00 0.000000e+00 0.000000e+00 0.000000e+00
 0.000000e+00 0.000000e+00 0.000000e+00 9.509074e-01 4.909258e-02 0.000000e+00 0.000000e+00 0.000000e+00
 0.000000e+00 0.000000e+00 0.000000e+00 0.000000e+00 9.396378e-01 6.036217e-02 0.000000e+00 0.000000e+00
 0.000000e+00 0.000000e+00 0.000000e+00 0.000000e+00 0.000000e+00 9.545246e-01 4.547538e-02 0.000000e+00
 0.000000e+00 0.000000e+00 0.000000e+00 0.000000e+00 0.000000e+00 0.000000e+00 9.599678e-01 4.003221e-02
 0.000000e+00 0.000000e+00 0.000000e+00 0.000000e+00 0.000000e+00 0.000000e+00 0.000000e+00 0.000000e+00
<ENDHMM>
~h "sil"
<BEGINHMM>
<NUMSTATES> 8
<STATE> 2
<MEAN> 1
 -2.896769e+00
<VARIANCE> 1
 3.035009e+00
<GCONST> 2.948092e+00
<STATE> 3
<MEAN> 1
 3.082394e+00
<VARIANCE> 1
 1.591671e+01
<GCONST> 4.605247e+00
<STATE> 4
<MEAN> 1
 1.069900e+01
<VARIANCE> 1
 4.611422e+00
<GCONST> 3.366413e+00
<STATE> 5
<MEAN> 1
 5.906816e+00
<VARIANCE> 1
 4.090869e+00
<GCONST> 3.246634e+00
<STATE> 6
<MEAN> 1
 2.114043e+00
<VARIANCE> 1
 7.711836e+00
<GCONST> 3.880633e+00
<STATE> 7
<MEAN> 1
 1.492563e-01
<VARIANCE> 1
 9.710191e-01
<GCONST> 1.808468e+00
<TRANSP> 8
 0.000000e+00 1.000000e+00 0.000000e+00 0.000000e+00 0.000000e+00 0.000000e+00 0.000000e+00 0.000000e+00
 0.000000e+00 9.689643e-01 3.103578e-02 0.000000e+00 0.000000e+00 0.000000e+00 0.000000e+00 0.000000e+00
 0.000000e+00 0.000000e+00 0.000000e+00 1.000000e+00 0.000000e+00 0.000000e+00 0.000000e+00 0.000000e+00
 0.000000e+00 0.000000e+00 0.000000e+00 9.778058e-01 2.219425e-02 0.000000e+00 0.000000e+00 0.000000e+00
 0.000000e+00 0.000000e+00 0.000000e+00 0.000000e+00 9.090160e-01 9.098401e-02 0.000000e+00 0.000000e+00
 0.000000e+00 0.000000e+00 0.000000e+00 0.000000e+00 0.000000e+00 2.581480e-02 9.741852e-01 0.000000e+00
 0.000000e+00 0.000000e+00 0.000000e+00 0.000000e+00 0.000000e+00 0.000000e+00 9.636908e-01 3.630923e-02
 0.000000e+00 0.000000e+00 0.000000e+00 0.000000e+00 0.000000e+00 0.000000e+00 0.000000e+00 0.000000e+00
<ENDHMM>
