~o
<STREAMINFO> 1 1
<VECSIZE> 1<NULLD><USER><DIAGC>
~h "a"
<BEGINHMM>
<NUMSTATES> 8
<STATE> 2
<MEAN> 1
 8.721851e+00
<VARIANCE> 1
 1.774884e+00
<GCONST> 2.411612e+00
<STATE> 3
<MEAN> 1
 1.442866e+01
<VARIANCE> 1
 3.626042e+00
<GCONST> 3.126019e+00
<STATE> 4
<MEAN> 1
 1.085702e+01
<VARIANCE> 1
 1.516602e+00
<GCONST> 2.254349e+00
<STATE> 5
<MEAN> 1
 8.312481e+00
<VARIANCE> 1
 1.100123e+00
<GCONST> 1.933299e+00
<STATE> 6
<MEAN> 1
 6.527065e+00
<VARIANCE> 1
 1.341920e+00
<GCONST> 2.131978e+00
<STATE> 7
<MEAN> 1
 3.092565e+00
<VARIANCE> 1
 1.218843e+00
<GCONST> 2.035779e+00
<TRANSP> 8
 0.000000e+00 1.000000e+00 0.000000e+00 0.000000e+00 0.000000e+00 0.000000e+00 0.000000e+00 0.000000e+00
 0.000000e+00 9.466506e-01 5.334945e-02 0.000000e+00 0.000000e+00 0.000000e+00 0.000000e+00 0.000000e+00
 0.000000e+00 0.000000e+00 9.719226e-01 2.807741e-02 0.000000e+00 0.000000e+00 0.000000e+00 0.000000e+00
 0.000000e+00 0.000000e+00 0.000000e+00 9.468463e-01 5.315371e-02 0.000000e+00 0.000000e+00 0.000000e+00
 0.000000e+00 0.000000e+00 0.000000e+00 0.000000e+00 0.000000e+00 1.000000e+00 0.000000e+00 0.000000e+00
 0.000000e+00 0.000000e+00 0.000000e+00 0.000000e+00 0.000000e+00 9.121029e-01 8.789707e-02 0.000000e+00
 0.000000e+00 0.000000e+00 0.000000e+00 0.000000e+00 0.000000e+00 0.000000e+00 8.760482e-01 1.239517e-01
 0.000000e+00 0.000000e+00 0.000000e+00 0.000000e+00 0.000000e+00 0.000000e+00 0.000000e+00 0.000000e+00
<ENDHMM>
~h "e"
<BEGINHMM>
<NUMSTATES> 8
<STATE> 2
<MEAN> 1
 4.989545e+00
<VARIANCE> 1
 3.520596e+01
<GCONST> 5.399093e+00
<STATE> 3
<MEAN> 1
 -3.092391e-01
<VARIANCE> 1
 4.225009e-01
<GCONST> 9.763134e-01
<STATE> 4
<MEAN> 1
 -1.962386e+00
<VARIANCE> 1
 4.947381e-02
<GCONST> -1.168435e+00
<STATE> 5
<MEAN> 1
 -2.427883e+00
<VARIANCE> 1
 1.087717e-01
<GCONST> -3.806269e-01
<STATE> 6
<MEAN> 1
 -5.967383e+00
<VARIANCE> 1
 2.406630e+00
<GCONST> 2.716105e+00
<STATE> 7
<MEAN> 1
 -3.915493e+00
<VARIANCE> 1
 1.084538e+00
<GCONST> 1.919031e+00
<TRANSP> 8
 0.000000e+00 1.000000e+00 0.000000e+00 0.000000e+00 0.000000e+00 0.000000e+00 0.000000e+00 0.000000e+00
 0.000000e+00 7.756086e-01 2.243914e-01 0.000000e+00 0.000000e+00 0.000000e+00 0.000000e+00 0.000000e+00
 0.000000e+00 0.000000e+00 9.535400e-01 4.646005e-02 0.000000e+00 0.000000e+00 0.000000e+00 0.000000e+00
 0.000000e+00 0.000000e+00 0.000000e+00 0.000000e+00 1.000000e+00 0.000000e+00 0.000000e+00 0.000000e+00
 0.000000e+00 0.000000e+00 0.000000e+00 0.000000e+00 0.000000e+00 1.000000e+00 0.000000e+00 0.000000e+00
 0.000000e+00 0.000000e+00 0.000000e+00 0.000000e+00 0.000000e+00 9.493223e-01 5.067766e-02 0.000000e+00
 0.000000e+00 0.000000e+00 0.000000e+00 0.000000e+00 0.000000e+00 0.000000e+00 9.523284e-01 4.767155e-02
 0.000000e+00 0.000000e+00 0.000000e+00 0.000000e+00 0.000000e+00 0.000000e+00 0.000000e+00 0.000000e+00
<ENDHMM>
~h "i"
<BEGINHMM>
<NUMSTATES> 8
<STATE> 2
<MEAN> 1
 -7.696729e+00
<VARIANCE> 1
 1.918926e+00
<GCONST> 2.489642e+00
<STATE> 3
<MEAN> 1
 -3.040922e+00
<VARIANCE> 1
 1.383881e+00
<GCONST> 2.162769e+00
<STATE> 4
<MEAN> 1
 1.448481e+00
<VARIANCE> 1
 3.614935e+00
<GCONST> 3.122951e+00
<STATE> 5
<MEAN> 1
 -7.067524e-02
<VARIANCE> 1
 7.912605e-02
<GCONST> -6.988361e-01
<STATE> 6
<MEAN> 1
 -3.824584e+00
<VARIANCE> 1
 6.607939e+00
<GCONST> 3.726149e+00
<STATE> 7
<MEAN> 1
 3.389508e+00
<VARIANCE> 1
 8.693453e+00
<GCONST> 4.000447e+00
<TRANSP> 8
 0.000000e+00 1.000000e+00 0.000000e+00 0.000000e+00 0.000000e+00 0.000000e+00 0.000000e+00 0.000000e+00
 0.000000e+00 9.721556e-01 2.784438e-02 0.000000e+00 0.000000e+00 0.000000e+00 0.000000e+00 0.000000e+00
 0.000000e+00 0.000000e+00 9.247003e-01 7.529978e-02 0.000000e+00 0.000000e+00 0.000000e+00 0.000000e+00
 0.000000e+00 0.000000e+00 0.000000e+00 8.829068e-01 1.170931e-01 0.000000e+00 0.000000e+00 0.000000e+00
 0.000000e+00 0.000000e+00 0.000000e+00 0.000000e+00 9.321800e-01 6.781997e-02 0.000000e+00 0.000000e+00
 0.000000e+00 0.000000e+00 0.000000e+00 0.000000e+00 0.000000e+00 8.837116e-01 1.162884e-01 0.000000e+00
 0.000000e+00 0.000000e+00 0.000000e+00 0.000000e+00 0.000000e+00 0.000000e+00 8.412099e-01 1.587900e-01
 0.000000e+00 0.000000e+00 0.000000e+00 0.000000e+00 0.000000e+00 0.000000e+00 0.000000e+00 0.000000e+00
<ENDHMM>
~h "m"
<BEGINHMM>
<NUMSTATES> 8
<STATE> 2
<MEAN> 1
 -9.001515e-01
<VARIANCE> 1
 8.361979e-01
<GCONST> 1.658987e+00
<STATE> 3
<MEAN> 1
 1.357799e+00
<VARIANCE> 1
 4.544861e-01
<GCONST> 1.049289e+00
<STATE> 4
<MEAN> 1
 2.256961e+00
<VARIANCE> 1
 1.230584e+00
<GCONST> 2.045366e+00
<STATE> 5
<MEAN> 1
 2.916584e+00
<VARIANCE> 1
 1.905872e+00
<GCONST> 2.482817e+00
<STATE> 6
<MEAN> 1
 9.528238e+00
<VARIANCE> 1
 1.326900e+01
<GCONST> 4.423307e+00
<STATE> 7
<MEAN> 1
 4.952373e+00
<VARIANCE> 1
 1.918285e+00
<GCONST> 2.489308e+00
<TRANSP> 8
 0.000000e+00 1.000000e+00 0.000000e+00 0.000000e+00 0.000000e+00 0.000000e+00 0.000000e+00 0.000000e+00
 0.000000e+00 9.154930e-01 8.450704e-02 0.000000e+00 0.000000e+00 0.000000e+00 0.000000e+00 0.000000e+00
 0.000000e+00 0.000000e+00 8.964922e-01 1.035078e-01 0.000000e+00 0.000000e+00 0.000000e+00 0.000000e+00
 0.000000e+00 0.000000e+00 0.000000e+00 0.000000e+00 1.000000e+00 0.000000e+00 0.000000e+00 0.000000e+00
 0.000000e+00 0.000000e+00 0.000000e+00 0.000000e+00 0.000000e+00 1.000000e+00 0.000000e+00 0.000000e+00
 0.000000e+00 0.000000e+00 0.000000e+00 0.000000e+00 0.000000e+00 8.897653e-01 1.102347e-01 0.000000e+00
 0.000000e+00 0.000000e+00 0.000000e+00 0.000000e+00 0.000000e+00 0.000000e+00 9.150792e-01 8.492083e-02
 0.000000e+00 0.000000e+00 0.000000e+00 0.000000e+00 0.000000e+00 0.000000e+00 0.000000e+00 0.000000e+00
<ENDHMM>
~h "sil"
<BEGINHMM>
<NUMSTATES> 8
<STATE> 2
<MEAN> 1
 4.164241e-01
<VARIANCE> 1
 5.799733e-01
<GCONST> 1.293104e+00
<STATE> 3
<MEAN> 1
 2.946283e+00
<VARIANCE> 1
 1.296496e+00
<GCONST> 2.097543e+00
<STATE> 4
<MEAN> 1
 5.751048e+00
<VARIANCE> 1
 2.392500e+00
<GCONST> 2.710216e+00
<STATE> 5
<MEAN> 1
 2.196388e+00
<VARIANCE> 1
 1.815375e+01
<GCONST> 4.736754e+00
<STATE> 6
<MEAN> 1
 4.611516e+00
<VARIANCE> 1
 1.541304e+01
<GCONST> 4.573091e+00
<STATE> 7
<MEAN> 1
 1.054571e+01
<VARIANCE> 1
 1.388829e+01
<GCONST> 4.468923e+00
<TRANSP> 8
 0.000000e+00 1.000000e+00 0.000000e+00 0.000000e+00 0.000000e+00 0.000000e+00 0.000000e+00 0.000000e+00
 0.000000e+00 9.335725e-01 6.642751e-02 0.000000e+00 0.000000e+00 0.000000e+00 0.000000e+00 0.000000e+00
 0.000000e+00 0.000000e+00 9.133781e-01 8.662183e-02 0.000000e+00 0.000000e+00 0.000000e+00 0.000000e+00
 0.000000e+00 0.000000e+00 0.000000e+00 9.137794e-01 8.622064e-02 0.000000e+00 0.000000e+00 0.000000e+00
 0.000000e+00 0.000000e+00 0.000000e+00 0.000000e+00 5.147945e-01 4.852055e-01 0.000000e+00 0.000000e+00
 0.000000e+00 0.000000e+00 0.000000e+00 0.000000e+00 0.000000e+00 0.000000e+00 1.000000e+00 0.000000e+00
 0.000000e+00 0.000000e+00 0.000000e+00 0.000000e+00 0.000000e+00 0.000000e+00 9.022614e-01 9.773855e-02
 0.000000e+00 0.000000e+00 0.000000e+00 0.000000e+00 0.000000e+00 0.000000e+00 0.000000e+00 0.000000e+00
<ENDHMM>
