~o
<STREAMINFO> 1 1
<VECSIZE> 1<NULLD><USER><DIAGC>
~h "a"
<BEGINHMM>
<NUMSTATES> 8
<STATE> 2
<MEAN> 1
 8.978857e+00
<VARIANCE> 1
 1.636211e+00
<GCONST> 2.330260e+00
<STATE> 3
<MEAN> 1
 1.445045e+01
<VARIANCE> 1
 3.599533e+00
<GCONST> 3.118681e+00
<STATE> 4
<MEAN> 1
 1.098471e+01
<VARIANCE> 1
 1.410829e+00
<GCONST> 2.182055e+00
<STATE> 5
<MEAN> 1
 8.541871e+00
<VARIANCE> 1
 1.212073e+00
<GCONST> 2.030210e+00
<STATE> 6
<MEAN> 1
 6.785847e+00
<VARIANCE> 1
 1.669988e+00
<GCONST> 2.350693e+00
<STATE> 7
<MEAN> 1
 3.046923e+00
<VARIANCE> 1
 1.443518e+00
<GCONST> 2.204960e+00
<TRANSP> 8
 0.000000e+00 1.000000e+00 0.000000e+00 0.000000e+00 0.000000e+00 0.000000e+00 0.000000e+00 0.000000e+00
 0.000000e+00 9.440637e-01 5.593630e-02 0.000000e+00 0.000000e+00 0.000000e+00 0.000000e+00 0.000000e+00
 0.000000e+00 0.000000e+00 9.718374e-01 2.816258e-02 0.000000e+00 0.000000e+00 0.000000e+00 0.000000e+00
 0.000000e+00 0.000000e+00 0.000000e+00 9.430576e-01 5.694244e-02 0.000000e+00 0.000000e+00 0.000000e+00
 0.000000e+00 0.000000e+00 0.000000e+00 0.000000e+00 0.000000e+00 1.000000e+00 0.000000e+00 0.000000e+00
 0.000000e+00 0.000000e+00 0.000000e+00 0.000000e+00 0.000000e+00 9.209172e-01 7.908284e-02 0.000000e+00
 0.000000e+00 0.000000e+00 0.000000e+00 0.000000e+00 0.000000e+00 0.000000e+00 8.877221e-01 1.122779e-01
 0.000000e+00 0.000000e+00 0.000000e+00 0.000000e+00 0.000000e+00 0.000000e+00 0.000000e+00 0.000000e+00
<ENDHMM>
~h "e"
<BEGINHMM>
<NUMSTATES> 8
<STATE> 2
<MEAN> 1
 5.198347e+00
<VARIANCE> 1
 2.633112e+01
<GCONST> 5.108629e+00
<STATE> 3
<MEAN> 1
 -1.720656e-01
<VARIANCE> 1
 1.862317e-01
<GCONST> 1.571136e-01
<STATE> 4
<MEAN> 1
 -1.422544e+00
<VARIANCE> 1
 5.918894e-02
<GCONST> -9.891436e-01
<STATE> 5
<MEAN> 1
 -1.876177e+00
<VARIANCE> 1
 1.212045e-01
<GCONST> -2.723994e-01
<STATE> 6
<MEAN> 1
 -5.798312e+00
<VARIANCE> 1
 3.092162e+00
<GCONST> 2.966747e+00
<STATE> 7
<MEAN> 1
 -3.612533e+00
<VARIANCE> 1
 1.237844e+00
<GCONST> 2.051248e+00
<TRANSP> 8
 0.000000e+00 1.000000e+00 0.000000e+00 0.000000e+00 0.000000e+00 0.000000e+00 0.000000e+00 0.000000e+00
 0.000000e+00 6.038293e-01 3.961706e-01 0.000000e+00 0.000000e+00 0.000000e+00 0.000000e+00 0.000000e+00
 0.000000e+00 0.000000e+00 9.452083e-01 5.479174e-02 0.000000e+00 0.000000e+00 0.000000e+00 0.000000e+00
 0.000000e+00 0.000000e+00 0.000000e+00 0.000000e+00 1.000000e+00 0.000000e+00 0.000000e+00 0.000000e+00
 0.000000e+00 0.000000e+00 0.000000e+00 0.000000e+00 0.000000e+00 1.000000e+00 0.000000e+00 0.000000e+00
 0.000000e+00 0.000000e+00 0.000000e+00 0.000000e+00 0.000000e+00 9.518873e-01 4.811270e-02 0.000000e+00
 0.000000e+00 0.000000e+00 0.000000e+00 0.000000e+00 0.000000e+00 0.000000e+00 9.568965e-01 4.310343e-02
 0.000000e+00 0.000000e+00 0.000000e+00 0.000000e+00 0.000000e+00 0.000000e+00 0.000000e+00 0.000000e+00
<ENDHMM>
~h "i"
<BEGINHMM>
<NUMSTATES> 8
<STATE> 2
<MEAN> 1
 -7.601432e+00
<VARIANCE> 1
 1.995971e+00
<GCONST> 2.529007e+00
<STATE> 3
<MEAN> 1
 -2.668464e+00
<VARIANCE> 1
 2.216068e+00
<GCONST> 2.633611e+00
<STATE> 4
<MEAN> 1
 1.624866e+00
<VARIANCE> 1
 3.707111e+00
<GCONST> 3.148130e+00
<STATE> 5
<MEAN> 1
 -6.677323e-03
<VARIANCE> 1
 1.000000e-02
<GCONST> -2.767293e+00
<STATE> 6
<MEAN> 1
 -3.261979e+00
<VARIANCE> 1
 7.549956e+00
<GCONST> 3.859419e+00
<STATE> 7
<MEAN> 1
 3.595386e+00
<VARIANCE> 1
 7.874566e+00
<GCONST> 3.901515e+00
<TRANSP> 8
 0.000000e+00 1.000000e+00 0.000000e+00 0.000000e+00 0.000000e+00 0.000000e+00 0.000000e+00 0.000000e+00
 0.000000e+00 9.733722e-01 2.662775e-02 0.000000e+00 0.000000e+00 0.000000e+00 0.000000e+00 0.000000e+00
 0.000000e+00 0.000000e+00 9.414188e-01 5.858119e-02 0.000000e+00 0.000000e+00 0.000000e+00 0.000000e+00
 0.000000e+00 0.000000e+00 0.000000e+00 8.969615e-01 1.030385e-01 0.000000e+00 0.000000e+00 0.000000e+00
 0.000000e+00 0.000000e+00 0.000000e+00 0.000000e+00 9.338105e-01 6.618948e-02 0.000000e+00 0.000000e+00
 0.000000e+00 0.000000e+00 0.000000e+00 0.000000e+00 0.000000e+00 8.561992e-01 1.438008e-01 0.000000e+00
 0.000000e+00 0.000000e+00 0.000000e+00 0.000000e+00 0.000000e+00 0.000000e+00 8.320920e-01 1.679080e-01
 0.000000e+00 0.000000e+00 0.000000e+00 0.000000e+00 0.000000e+00 0.000000e+00 0.000000e+00 0.000000e+00
<ENDHMM>
~h "m"
<BEGINHMM>
<NUMSTATES> 8
<STATE> 2
<MEAN> 1
 -8.106749e-01
<VARIANCE> 1
 9.038219e-01
<GCONST> 1.736754e+00
<STATE> 3
<MEAN> 1
 1.430530e+00
<VARIANCE> 1
 4.734418e-01
<GCONST> 1.090151e+00
<STATE> 4
<MEAN> 1
 2.409175e+00
<VARIANCE> 1
 1.336040e+00
<GCONST> 2.127587e+00
<STATE> 5
<MEAN> 1
 3.065873e+00
<VARIANCE> 1
 2.186043e+00
<GCONST> 2.619970e+00
<STATE> 6
<MEAN> 1
 9.649523e+00
<VARIANCE> 1
 1.270478e+01
<GCONST> 4.379855e+00
<STATE> 7
<MEAN> 1
 5.217411e+00
<VARIANCE> 1
 2.020421e+00
<GCONST> 2.541183e+00
<TRANSP> 8
 0.000000e+00 1.000000e+00 0.000000e+00 0.000000e+00 0.000000e+00 0.000000e+00 0.000000e+00 0.000000e+00
 0.000000e+00 8.884719e-01 1.115281e-01 0.000000e+00 0.000000e+00 0.000000e+00 0.000000e+00 0.000000e+00
 0.000000e+00 0.000000e+00 8.927943e-01 1.072057e-01 0.000000e+00 0.000000e+00 0.000000e+00 0.000000e+00
 0.000000e+00 0.000000e+00 0.000000e+00 0.000000e+00 1.000000e+00 0.000000e+00 0.000000e+00 0.000000e+00
 0.000000e+00 0.000000e+00 0.000000e+00 0.000000e+00 0.000000e+00 1.000000e+00 0.000000e+00 0.000000e+00
 0.000000e+00 0.000000e+00 0.000000e+00 0.000000e+00 0.000000e+00 8.958618e-01 1.041382e-01 0.000000e+00
 0.000000e+00 0.000000e+00 0.000000e+00 0.000000e+00 0.000000e+00 0.000000e+00 9.169716e-01 8.302837e-02
 0.000000e+00 0.000000e+00 0.000000e+00 0.000000e+00 0.000000e+00 0.000000e+00 0.000000e+00 0.000000e+00
<ENDHMM>
~h "sil"
<BEGINHMM>
<NUMSTATES> 8
<STATE> 2
<MEAN> 1
 6.325659e-01
<VARIANCE> 1
 7.321206e-01
<GCONST> 1.526067e+00
<STATE> 3
<MEAN> 1
 3.098085e+00
<VARIANCE> 1
 1.210321e+00
<GCONST> 2.028762e+00
<STATE> 4
<MEAN> 1
 5.873294e+00
<VARIANCE> 1
 2.437768e+00
<GCONST> 2.728960e+00
<STATE> 5
<MEAN> 1
 1.232948e-01
<VARIANCE> 1
 2.203910e+01
<GCONST> 4.930696e+00
<STATE> 6
<MEAN> 1
 4.571580e+00
<VARIANCE> 1
 1.516673e+01
<GCONST> 4.556981e+00
<STATE> 7
<MEAN> 1
 1.054579e+01
<VARIANCE> 1
 1.530059e+01
<GCONST> 4.565768e+00
<TRANSP> 8
 0.000000e+00 1.000000e+00 0.000000e+00 0.000000e+00 0.000000e+00 0.000000e+00 0.000000e+00 0.000000e+00
 0.000000e+00 9.216669e-01 7.833309e-02 0.000000e+00 0.000000e+00 0.000000e+00 0.000000e+00 0.000000e+00
 0.000000e+00 0.000000e+00 9.068947e-01 9.310526e-02 0.000000e+00 0.000000e+00 0.000000e+00 0.000000e+00
 0.000000e+00 0.000000e+00 0.000000e+00 9.171704e-01 8.282957e-02 0.000000e+00 0.000000e+00 0.000000e+00
 0.000000e+00 0.000000e+00 0.000000e+00 0.000000e+00 7.878692e-01 2.121309e-01 0.000000e+00 0.000000e+00
 0.000000e+00 0.000000e+00 0.000000e+00 0.000000e+00 0.000000e+00 0.000000e+00 1.000000e+00 0.000000e+00
 0.000000e+00 0.000000e+00 0.000000e+00 0.000000e+00 0.000000e+00 0.000000e+00 8.917999e-01 1.082001e-01
 0.000000e+00 0.000000e+00 0.000000e+00 0.000000e+00 0.000000e+00 0.000000e+00 0.000000e+00 0.000000e+00
<ENDHMM>
