~o
<STREAMINFO> 1 1
<VECSIZE> 1<NULLD><USER><DIAGC>
~h "a"
<BEGINHMM>
<NUMSTATES> 8
<STATE> 2
<MEAN> 1
 3.111791e+00
<VARIANCE> 1
 2.684905e+00
<GCONST> 2.825522e+00
<STATE> 3
<MEAN> 1
 9.245302e+00
<VARIANCE> 1
 2.864624e+00
<GCONST> 2.890314e+00
<STATE> 4
<MEAN> 1
 5.292785e+00
<VARIANCE> 1
 1.556445e+00
<GCONST> 2.280282e+00
<STATE> 5
<MEAN> 1
 2.201681e+00
<VARIANCE> 1
 2.515674e-01
<GCONST> 4.578328e-01
<STATE> 6
<MEAN> 1
 3.176547e+00
<VARIANCE> 1
 7.200292e-01
<GCONST> 1.509413e+00
<STATE> 7
<MEAN> 1
 8.342984e-01
<VARIANCE> 1
 1.553652e-01
<GCONST> -2.409983e-02
<TRANSP> 8
 0.000000e+00 1.000000e+00 0.000000e+00 0.000000e+00 0.000000e+00 0.000000e+00 0.000000e+00 0.000000e+00
 0.000000e+00 9.496991e-01 5.030088e-02 0.000000e+00 0.000000e+00 0.000000e+00 0.000000e+00 0.000000e+00
 0.000000e+00 0.000000e+00 9.831332e-01 1.686680e-02 0.000000e+00 0.000000e+00 0.000000e+00 0.000000e+00
 0.000000e+00 0.000000e+00 0.000000e+00 9.730219e-01 2.697808e-02 0.000000e+00 0.000000e+00 0.000000e+00
 0.000000e+00 0.000000e+00 0.000000e+00 0.000000e+00 9.469345e-01 5.306553e-02 0.000000e+00 0.000000e+00
 0.000000e+00 0.000000e+00 0.000000e+00 0.000000e+00 0.000000e+00 9.147431e-01 8.525691e-02 0.000000e+00
 0.000000e+00 0.000000e+00 0.000000e+00 0.000000e+00 0.000000e+00 0.000000e+00 9.333976e-01 6.660236e-02
 0.000000e+00 0.000000e+00 0.000000e+00 0.000000e+00 0.000000e+00 0.000000e+00 0.000000e+00 0.000000e+00
<ENDHMM>
~h "e"
<BEGINHMM>
<NUMSTATES> 8
<STATE> 2
<MEAN> 1
 -1.491216e-03
<VARIANCE> 1
 1.000000e-02
<GCONST> -2.767293e+00
<STATE> 3
<MEAN> 1
 5.408053e+00
<VARIANCE> 1
 1.809116e+01
<GCONST> 4.733300e+00
<STATE> 4
<MEAN> 1
 -8.422028e-01
<VARIANCE> 1
 1.713212e-01
<GCONST> 7.366180e-02
<STATE> 5
<MEAN> 1
 -1.651759e+00
<VARIANCE> 1
 3.103988e-02
<GCONST> -1.634605e+00
<STATE> 6
<MEAN> 1
 -2.791226e+00
<VARIANCE> 1
 5.710859e-01
<GCONST> 1.277661e+00
<STATE> 7
<MEAN> 1
 -5.557104e+00
<VARIANCE> 1
 5.891863e-01
<GCONST> 1.308864e+00
<TRANSP> 8
 0.000000e+00 1.000000e+00 0.000000e+00 0.000000e+00 0.000000e+00 0.000000e+00 0.000000e+00 0.000000e+00
 0.000000e+00 9.930904e-01 6.909600e-03 0.000000e+00 0.000000e+00 0.000000e+00 0.000000e+00 0.000000e+00
 0.000000e+00 0.000000e+00 8.780705e-01 1.219295e-01 0.000000e+00 0.000000e+00 0.000000e+00 0.000000e+00
 0.000000e+00 0.000000e+00 0.000000e+00 9.651943e-01 3.480574e-02 0.000000e+00 0.000000e+00 0.000000e+00
 0.000000e+00 0.000000e+00 0.000000e+00 0.000000e+00 0.000000e+00 1.000000e+00 0.000000e+00 0.000000e+00
 0.000000e+00 0.000000e+00 0.000000e+00 0.000000e+00 0.000000e+00 9.690673e-01 3.093274e-02 0.000000e+00
 0.000000e+00 0.000000e+00 0.000000e+00 0.000000e+00 0.000000e+00 0.000000e+00 9.662976e-01 3.370245e-02
 0.000000e+00 0.000000e+00 0.000000e+00 0.000000e+00 0.000000e+00 0.000000e+00 0.000000e+00 0.000000e+00
<ENDHMM>
~h "i"
<BEGINHMM>
<NUMSTATES> 8
<STATE> 2
<MEAN> 1
 -7.374675e+00
<VARIANCE> 1
 2.717052e+00
<GCONST> 2.837425e+00
<STATE> 3
<MEAN> 1
 -9.874307e+00
<VARIANCE> 1
 9.652599e-01
<GCONST> 1.802519e+00
<STATE> 4
<MEAN> 1
 -7.361108e+00
<VARIANCE> 1
 7.733265e-01
<GCONST> 1.580823e+00
<STATE> 5
<MEAN> 1
 -4.332447e+00
<VARIANCE> 1
 4.941587e-01
<GCONST> 1.132978e+00
<STATE> 6
<MEAN> 1
 -2.389290e+00
<VARIANCE> 1
 1.849108e-01
<GCONST> 1.499951e-01
<STATE> 7
<MEAN> 1
 -1.183592e+00
<VARIANCE> 1
 8.450576e-02
<GCONST> -6.330585e-01
<TRANSP> 8
 0.000000e+00 1.000000e+00 0.000000e+00 0.000000e+00 0.000000e+00 0.000000e+00 0.000000e+00 0.000000e+00
 0.000000e+00 9.390351e-01 6.096495e-02 0.000000e+00 0.000000e+00 0.000000e+00 0.000000e+00 0.000000e+00
 0.000000e+00 0.000000e+00 9.827963e-01 1.720362e-02 0.000000e+00 0.000000e+00 0.000000e+00 0.000000e+00
 0.000000e+00 0.000000e+00 0.000000e+00 9.772966e-01 2.270336e-02 0.000000e+00 0.000000e+00 0.000000e+00
 0.000000e+00 0.000000e+00 0.000000e+00 0.000000e+00 9.526510e-01 4.734908e-02 0.000000e+00 0.000000e+00
 0.000000e+00 0.000000e+00 0.000000e+00 0.000000e+00 0.000000e+00 9.270894e-01 7.291060e-02 0.000000e+00
 0.000000e+00 0.000000e+00 0.000000e+00 0.000000e+00 0.000000e+00 0.000000e+00 8.854187e-01 1.145813e-01
 0.000000e+00 0.000000e+00 0.000000e+00 0.000000e+00 0.000000e+00 0.000000e+00 0.000000e+00 0.000000e+00
<ENDHMM>
~h "m"
<BEGINHMM>
<NUMSTATES> 8
<STATE> 2
<MEAN> 1
 -4.312983e-01
<VARIANCE> 1
 2.509962e-02
<GCONST> -1.847025e+00
<STATE> 3
<MEAN> 1
 1.228400e-03
<VARIANCE> 1
 1.000000e-02
<GCONST> -2.767293e+00
<STATE> 4
<MEAN> 1
 7.050361e-01
<VARIANCE> 1
 1.006908e-01
<GCONST> -4.578240e-01
<STATE> 5
<MEAN> 1
 1.751111e+00
<VARIANCE> 1
 1.349772e-01
<GCONST> -1.647725e-01
<STATE> 6
<MEAN> 1
 3.291354e+00
<VARIANCE> 1
 3.795500e-01
<GCONST> 8.691080e-01
<STATE> 7
<MEAN> 1
 6.568856e+00
<VARIANCE> 1
 2.320949e+00
<GCONST> 2.679853e+00
<TRANSP> 8
 0.000000e+00 1.000000e+00 0.000000e+00 0.000000e+00 0.000000e+00 0.000000e+00 0.000000e+00 0.000000e+00
 0.000000e+00 7.801135e-01 2.198865e-01 0.000000e+00 0.000000e+00 0.000000e+00 0.000000e+00 0.000000e+00
 0.000000e+00 0.000000e+00 9.932075e-01 6.792463e-03 0.000000e+00 0.000000e+00 0.000000e+00 0.000000e+00
 0.000000e+00 0.000000e+00 0.000000e+00 9.509369e-01 4.906311e-02 0.000000e+00 0.000000e+00 0.000000e+00
 0.000000e+00 0.000000e+00 0.000000e+00 0.000000e+00 9.394574e-01 6.054261e-02 0.000000e+00 0.000000e+00
 0.000000e+00 0.000000e+00 0.000000e+00 0.000000e+00 0.000000e+00 9.544678e-01 4.553217e-02 0.000000e+00
 0.000000e+00 0.000000e+00 0.000000e+00 0.000000e+00 0.000000e+00 0.000000e+00 9.599803e-01 4.001972e-02
 0.000000e+00 0.000000e+00 0.000000e+00 0.000000e+00 0.000000e+00 0.000000e+00 0.000000e+00 0.000000e+00
<ENDHMM>
~h "sil"
<BEGINHMM>
<NUMSTATES> 8
<STATE> 2
<MEAN> 1
 -2.896894e+00
<VARIANCE> 1
 3.033975e+00
<GCONST> 2.947751e+00
<STATE> 3
<MEAN> 1
 3.081184e+00
<VARIANCE> 1
 1.590681e+01
<GCONST> 4.604625e+00
<STATE> 4
<MEAN> 1
 1.069944e+01
<VARIANCE> 1
 4.611389e+00
<GCONST> 3.366406e+00
<STATE> 5
<MEAN> 1
 5.912175e+00
<VARIANCE> 1
 4.086610e+00
<GCONST> 3.245593e+00
<STATE> 6
<MEAN> 1
 2.122952e+00
<VARIANCE> 1
 7.592080e+00
<GCONST> 3.864983e+00
<STATE> 7
<MEAN> 1
 1.476655e-01
<VARIANCE> 1
 9.696848e-01
<GCONST> 1.807093e+00
<TRANSP> 8
 0.000000e+00 1.000000e+00 0.000000e+00 0.000000e+00 0.000000e+00 0.000000e+00 0.000000e+00 0.000000e+00
 0.000000e+00 9.689631e-01 3.103688e-02 0.000000e+00 0.000000e+00 0.000000e+00 0.000000e+00 0.000000e+00
 0.000000e+00 0.000000e+00 0.000000e+00 1.000000e+00 0.000000e+00 0.000000e+00 0.000000e+00 0.000000e+00
 0.000000e+00 0.000000e+00 0.000000e+00 9.778014e-01 2.219864e-02 0.000000e+00 0.000000e+00 0.000000e+00
 0.000000e+00 0.000000e+00 0.000000e+00 0.000000e+00 9.090998e-01 9.090024e-02 0.000000e+00 0.000000e+00
 0.000000e+00 0.000000e+00 0.000000e+00 0.000000e+00 0.000000e+00 5.217460e-02 9.478254e-01 0.000000e+00
 0.000000e+00 0.000000e+00 0.000000e+00 0.000000e+00 0.000000e+00 0.000000e+00 9.637341e-01 3.626589e-02
 0.000000e+00 0.000000e+00 0.000000e+00 0.000000e+00 0.000000e+00 0.000000e+00 0.000000e+00 0.000000e+00
<ENDHMM>
