~o
<STREAMINFO> 1 1
<VECSIZE> 1<NULLD><USER><DIAGC>
~h "a"
<BEGINHMM>
<NUMSTATES> 8
<STATE> 2
<MEAN> 1
 -9.246297e-01
<VARIANCE> 1
 5.470820e-01
<GCONST> 1.234720e+00
<STATE> 3
<MEAN> 1
 6.463569e-01
<VARIANCE> 1
 2.034025e-01
<GCONST> 2.453084e-01
<STATE> 4
<MEAN> 1
 1.058392e-01
<VARIANCE> 1
 8.009572e-02
<GCONST> -6.866558e-01
<STATE> 5
<MEAN> 1
 1.623737e+00
<VARIANCE> 1
 2.458253e-01
<GCONST> 4.347430e-01
<STATE> 6
<MEAN> 1
 3.570904e+00
<VARIANCE> 1
 5.523056e-01
<GCONST> 1.244223e+00
<STATE> 7
<MEAN> 1
 7.793086e+00
<VARIANCE> 1
 3.310677e+00
<GCONST> 3.035030e+00
<TRANSP> 8
 0.000000e+00 1.000000e+00 0.000000e+00 0.000000e+00 0.000000e+00 0.000000e+00 0.000000e+00 0.000000e+00
 0.000000e+00 9.104142e-01 8.958574e-02 0.000000e+00 0.000000e+00 0.000000e+00 0.000000e+00 0.000000e+00
 0.000000e+00 0.000000e+00 1.290079e-01 8.709921e-01 0.000000e+00 0.000000e+00 0.000000e+00 0.000000e+00
 0.000000e+00 0.000000e+00 0.000000e+00 9.534923e-01 4.650760e-02 0.000000e+00 0.000000e+00 0.000000e+00
 0.000000e+00 0.000000e+00 0.000000e+00 0.000000e+00 9.778777e-01 2.212220e-02 0.000000e+00 0.000000e+00
 0.000000e+00 0.000000e+00 0.000000e+00 0.000000e+00 0.000000e+00 9.807313e-01 1.926868e-02 0.000000e+00
 0.000000e+00 0.000000e+00 0.000000e+00 0.000000e+00 0.000000e+00 0.000000e+00 9.900382e-01 9.961872e-03
 0.000000e+00 0.000000e+00 0.000000e+00 0.000000e+00 0.000000e+00 0.000000e+00 0.000000e+00 0.000000e+00
<ENDHMM>
~h "e"
<BEGINHMM>
<NUMSTATES> 8
<STATE> 2
<MEAN> 1
 2.201430e+00
<VARIANCE> 1
 1.505894e+00
<GCONST> 2.247264e+00
<STATE> 3
<MEAN> 1
 6.451381e+00
<VARIANCE> 1
 1.231034e+01
<GCONST> 4.348317e+00
<STATE> 4
<MEAN> 1
 -3.779141e-03
<VARIANCE> 1
 1.000000e-02
<GCONST> -2.767293e+00
<STATE> 5
<MEAN> 1
 -7.690877e-01
<VARIANCE> 1
 1.264466e-01
<GCONST> -2.300582e-01
<STATE> 6
<MEAN> 1
 -2.157565e+00
<VARIANCE> 1
 1.871760e-01
<GCONST> 1.621714e-01
<STATE> 7
<MEAN> 1
 -3.824097e+00
<VARIANCE> 1
 2.526942e-01
<GCONST> 4.623019e-01
<TRANSP> 8
 0.000000e+00 1.000000e+00 0.000000e+00 0.000000e+00 0.000000e+00 0.000000e+00 0.000000e+00 0.000000e+00
 0.000000e+00 9.787219e-01 2.127807e-02 0.000000e+00 0.000000e+00 0.000000e+00 0.000000e+00 0.000000e+00
 0.000000e+00 0.000000e+00 9.587414e-01 4.125860e-02 0.000000e+00 0.000000e+00 0.000000e+00 0.000000e+00
 0.000000e+00 0.000000e+00 0.000000e+00 9.784670e-01 2.153298e-02 0.000000e+00 0.000000e+00 0.000000e+00
 0.000000e+00 0.000000e+00 0.000000e+00 0.000000e+00 9.699064e-01 3.009352e-02 0.000000e+00 0.000000e+00
 0.000000e+00 0.000000e+00 0.000000e+00 0.000000e+00 0.000000e+00 9.734367e-01 2.656331e-02 0.000000e+00
 0.000000e+00 0.000000e+00 0.000000e+00 0.000000e+00 0.000000e+00 0.000000e+00 9.657254e-01 3.427459e-02
 0.000000e+00 0.000000e+00 0.000000e+00 0.000000e+00 0.000000e+00 0.000000e+00 0.000000e+00 0.000000e+00
<ENDHMM>
~h "i"
<BEGINHMM>
<NUMSTATES> 8
<STATE> 2
<MEAN> 1
 -5.627224e+00
<VARIANCE> 1
 3.956024e-01
<GCONST> 9.105315e-01
<STATE> 3
<MEAN> 1
 -5.447592e+00
<VARIANCE> 1
 2.670939e+00
<GCONST> 2.820307e+00
<STATE> 4
<MEAN> 1
 -7.954340e+00
<VARIANCE> 1
 1.008987e+00
<GCONST> 1.846824e+00
<STATE> 5
<MEAN> 1
 -4.786512e+00
<VARIANCE> 1
 1.328574e+00
<GCONST> 2.121984e+00
<STATE> 6
<MEAN> 1
 -5.709869e+00
<VARIANCE> 1
 5.620136e-01
<GCONST> 1.261648e+00
<STATE> 7
<MEAN> 1
 -3.316640e+00
<VARIANCE> 1
 4.057229e-01
<GCONST> 9.357921e-01
<TRANSP> 8
 0.000000e+00 1.000000e+00 0.000000e+00 0.000000e+00 0.000000e+00 0.000000e+00 0.000000e+00 0.000000e+00
 0.000000e+00 9.676227e-01 3.237734e-02 0.000000e+00 0.000000e+00 0.000000e+00 0.000000e+00 0.000000e+00
 0.000000e+00 0.000000e+00 0.000000e+00 1.000000e+00 0.000000e+00 0.000000e+00 0.000000e+00 0.000000e+00
 0.000000e+00 0.000000e+00 0.000000e+00 9.847370e-01 1.526303e-02 0.000000e+00 0.000000e+00 0.000000e+00
 0.000000e+00 0.000000e+00 0.000000e+00 0.000000e+00 7.583120e-01 2.416880e-01 0.000000e+00 0.000000e+00
 0.000000e+00 0.000000e+00 0.000000e+00 0.000000e+00 0.000000e+00 9.683779e-01 3.162204e-02 0.000000e+00
 0.000000e+00 0.000000e+00 0.000000e+00 0.000000e+00 0.000000e+00 0.000000e+00 9.617534e-01 3.824667e-02
 0.000000e+00 0.000000e+00 0.000000e+00 0.000000e+00 0.000000e+00 0.000000e+00 0.000000e+00 0.000000e+00
<ENDHMM>
~h "m"
<BEGINHMM>
<NUMSTATES> 8
<STATE> 2
<MEAN> 1
 -1.269699e+00
<VARIANCE> 1
 3.300665e-01
<GCONST> 7.294159e-01
<STATE> 3
<MEAN> 1
 -7.521625e-03
<VARIANCE> 1
 1.000000e-02
<GCONST> -2.767293e+00
<STATE> 4
<MEAN> 1
 7.462627e-02
<VARIANCE> 1
 1.000000e-02
<GCONST> -2.767293e+00
<STATE> 5
<MEAN> 1
 1.264238e-01
<VARIANCE> 1
 1.000000e-02
<GCONST> -2.767293e+00
<STATE> 6
<MEAN> 1
 1.764389e-01
<VARIANCE> 1
 1.366341e-02
<GCONST> -2.455157e+00
<STATE> 7
<MEAN> 1
 4.013536e-01
<VARIANCE> 1
 2.536717e-02
<GCONST> -1.836422e+00
<TRANSP> 8
 0.000000e+00 1.000000e+00 0.000000e+00 0.000000e+00 0.000000e+00 0.000000e+00 0.000000e+00 0.000000e+00
 0.000000e+00 9.625493e-01 3.745065e-02 0.000000e+00 0.000000e+00 0.000000e+00 0.000000e+00 0.000000e+00
 0.000000e+00 0.000000e+00 9.789714e-01 2.102864e-02 0.000000e+00 0.000000e+00 0.000000e+00 0.000000e+00
 0.000000e+00 0.000000e+00 0.000000e+00 0.000000e+00 1.000000e+00 0.000000e+00 0.000000e+00 0.000000e+00
 0.000000e+00 0.000000e+00 0.000000e+00 0.000000e+00 0.000000e+00 1.000000e+00 0.000000e+00 0.000000e+00
 0.000000e+00 0.000000e+00 0.000000e+00 0.000000e+00 0.000000e+00 0.000000e+00 1.000000e+00 0.000000e+00
 0.000000e+00 0.000000e+00 0.000000e+00 0.000000e+00 0.000000e+00 0.000000e+00 9.317477e-01 6.825229e-02
 0.000000e+00 0.000000e+00 0.000000e+00 0.000000e+00 0.000000e+00 0.000000e+00 0.000000e+00 0.000000e+00
<ENDHMM>
~h "sil"
<BEGINHMM>
<NUMSTATES> 8
<STATE> 2
<MEAN> 1
 1.583884e-01
<VARIANCE> 1
 2.406472e+00
<GCONST> 2.716039e+00
<STATE> 3
<MEAN> 1
 -3.339479e+00
<VARIANCE> 1
 1.028746e+00
<GCONST> 1.866217e+00
<STATE> 4
<MEAN> 1
 3.383349e-01
<VARIANCE> 1
 4.281150e+00
<GCONST> 3.292099e+00
<STATE> 5
<MEAN> 1
 9.211664e+00
<VARIANCE> 1
 1.024621e+01
<GCONST> 4.164785e+00
<STATE> 6
<MEAN> 1
 1.535713e+00
<VARIANCE> 1
 1.123265e+00
<GCONST> 1.954116e+00
<STATE> 7
<MEAN> 1
 1.816736e-01
<VARIANCE> 1
 1.487745e+00
<GCONST> 2.235138e+00
<TRANSP> 8
 0.000000e+00 1.000000e+00 0.000000e+00 0.000000e+00 0.000000e+00 0.000000e+00 0.000000e+00 0.000000e+00
 0.000000e+00 9.584473e-01 4.155270e-02 0.000000e+00 0.000000e+00 0.000000e+00 0.000000e+00 0.000000e+00
 0.000000e+00 0.000000e+00 9.785409e-01 2.145911e-02 0.000000e+00 0.000000e+00 0.000000e+00 0.000000e+00
 0.000000e+00 0.000000e+00 0.000000e+00 0.000000e+00 1.000000e+00 0.000000e+00 0.000000e+00 0.000000e+00
 0.000000e+00 0.000000e+00 0.000000e+00 0.000000e+00 9.413010e-01 5.869894e-02 0.000000e+00 0.000000e+00
 0.000000e+00 0.000000e+00 0.000000e+00 0.000000e+00 0.000000e+00 9.332982e-01 6.670174e-02 0.000000e+00
 0.000000e+00 0.000000e+00 0.000000e+00 0.000000e+00 0.000000e+00 0.000000e+00 0.000000e+00 1.000000e+00
 0.000000e+00 0.000000e+00 0.000000e+00 0.000000e+00 0.000000e+00 0.000000e+00 0.000000e+00 0.000000e+00
<ENDHMM>
