~o
<STREAMINFO> 1 26
<VECSIZE> 26<NULLD><MFCC_E_D><DIAGC>
~h "L"
<BEGINHMM>
<NUMSTATES> 5
<STATE> 2
<MEAN> 26
 2.149096e+00 -2.388686e+00 -8.618950e+00 -1.729226e+01 -1.145470e+01 2.900716e+00 -8.978629e+00 -1.653731e+00 -4.556158e+00 -8.867775e-01 -1.488207e+00 -7.905869e-01 7.533557e-01 6.055236e-01 -3.248353e-01 -2.948633e-01 -7.771235e-01 -1.749679e-01 5.235395e-01 -4.598193e-01 3.581913e-01 1.057495e-01 -3.612221e-01 2.345446e-01 8.476213e-02 1.950927e-02
<VARIANCE> 26
 9.945707e+00 4.373888e+01 5.094002e+01 7.038789e+01 4.371580e+01 6.138943e+01 4.226380e+01 3.018772e+01 4.324249e+01 3.741703e+01 2.144922e+01 1.443514e+01 5.000000e-02 1.240808e+00 2.543360e+00 3.379615e+00 2.442017e+00 3.803981e+00 3.227912e+00 2.259899e+00 2.772231e+00 3.403746e+00 3.019745e+00 2.277214e+00 1.052082e+00 5.000000e-02
<GCONST> 9.503046e+01
<STATE> 3
<MEAN> 26
 3.151238e+00 -9.150867e+00 -9.350353e+00 -9.455647e+00 -1.216734e+01 -2.347562e+00 -1.197863e+01 4.262768e+00 -1.254680e+00 -2.403646e+00 -5.673658e-01 -9.842016e-01 7.853991e-01 -2.926977e-01 -1.553807e-01 1.764533e-01 3.465554e-01 -3.193018e-01 1.100551e-01 6.125702e-01 -2.754395e-01 -8.260726e-02 2.641627e-01 1.366943e-01 -2.957138e-01 -3.158781e-03
<VARIANCE> 26
 8.362119e+00 3.607231e+01 8.505706e+01 6.844735e+01 3.773447e+01 9.763536e+01 3.450066e+01 5.256504e+01 4.136900e+01 3.589829e+01 1.553323e+01 1.286640e+01 5.000000e-02 4.645097e-01 2.208780e+00 1.824298e+00 2.503232e+00 3.680352e+00 3.350325e+00 2.158532e+00 2.031227e+00 1.968799e+00 1.583317e+00 1.675710e+00 1.546701e+00 5.000000e-02
<GCONST> 9.211151e+01
<STATE> 4
<MEAN> 26
 -1.265662e+00 -5.131334e+00 -4.236066e+00 -9.744414e+00 -1.111709e+01 -2.240709e+00 -9.054294e+00 -1.737299e+00 -3.334186e+00 1.316749e+00 -2.035226e+00 -1.348904e+00 6.935507e-01 -1.779693e+00 4.007472e-01 8.959733e-01 1.142924e+00 7.171688e-01 -1.068190e+00 9.989882e-01 -4.838998e-01 7.244405e-02 3.186027e-01 -1.944547e-01 5.411294e-02 -3.161776e-02
<VARIANCE> 26
 2.605099e+01 4.629173e+01 1.026349e+02 6.144279e+01 7.475693e+01 7.833144e+01 4.571690e+01 6.444967e+01 4.753189e+01 2.811679e+01 3.024804e+01 1.884371e+01 5.000000e-02 4.067563e+00 5.091162e+00 1.859089e+00 4.344636e+00 6.999759e+00 7.733618e+00 5.529757e+00 3.687451e+00 4.198999e+00 2.100001e+00 3.156752e+00 2.901899e+00 5.000000e-02
<GCONST> 1.043624e+02
<TRANSP> 5
 0.000000e+00 1.000000e+00 0.000000e+00 0.000000e+00 0.000000e+00
 0.000000e+00 6.410031e-01 3.589968e-01 0.000000e+00 0.000000e+00
 0.000000e+00 0.000000e+00 5.676504e-01 4.323495e-01 0.000000e+00
 0.000000e+00 0.000000e+00 0.000000e+00 3.822214e-01 6.177786e-01
 0.000000e+00 0.000000e+00 0.000000e+00 0.000000e+00 0.000000e+00
<ENDHMM>
