~o
<STREAMINFO> 1 26
<VECSIZE> 26<NULLD><MFCC_E_D><DIAGC>
~h "N"
<BEGINHMM>
<NUMSTATES> 5
<STATE> 2
<MEAN> 26
 -3.135495e+00 -4.691803e+00 2.864399e+00 -6.374758e-01 -1.133215e+01 1.166683e+00 -9.206998e+00 -7.035419e+00 -5.428020e+00 6.249250e-02 -5.638429e+00 3.269415e-02 4.599191e-01 -1.380423e-01 6.927374e-01 1.266341e-02 9.855441e-01 4.614666e-02 6.414395e-01 8.012477e-02 -2.298111e+00 -9.898068e-01 3.633013e-01 2.146286e-01 8.399298e-01 -1.909713e-02
<VARIANCE> 26
 3.409718e+00 1.233117e+01 1.446659e+01 3.292140e+01 2.522629e+01 2.119428e+01 2.370508e+01 4.693082e+01 2.834253e+01 2.759212e+01 1.521360e+01 1.689490e+01 5.000000e-02 1.564402e+00 1.550204e+00 1.470276e+00 2.677736e+00 2.642631e+00 2.219833e+00 3.713046e+00 3.047662e+00 3.771038e+00 2.779934e+00 2.413281e+00 1.788645e+00 5.000000e-02
<GCONST> 8.746909e+01
<STATE> 3
<MEAN> 26
 -4.133138e+00 -1.479733e+00 1.346540e+00 -1.663635e+00 -1.127671e+01 1.283269e+00 -6.834529e+00 -9.331062e+00 -5.521016e+00 -5.851281e-01 -6.392983e+00 3.692865e+00 4.270687e-01 -6.446784e-01 5.025254e-01 -1.243649e+00 -7.618234e-01 7.301061e-01 -6.889015e-01 1.033283e+00 1.216388e+00 1.151075e+00 -1.066275e+00 1.027539e-01 -2.240362e-02 -4.016940e-03
<VARIANCE> 26
 3.321559e+00 3.623383e+01 1.853282e+01 2.290061e+01 2.180225e+01 1.557085e+01 3.191525e+01 3.964837e+01 2.635659e+01 1.664858e+01 1.738403e+01 1.464779e+01 5.000000e-02 3.360152e+00 2.790562e+00 2.388849e+00 4.416244e+00 3.979969e+00 2.267476e+00 2.372928e+00 3.667246e+00 1.760006e+00 1.159272e+00 1.429410e+00 1.595227e+00 5.000000e-02
<GCONST> 8.772411e+01
<STATE> 4
<MEAN> 26
 -4.685131e+00 -3.777228e+00 -4.560817e+00 -5.198802e+00 -8.624688e+00 -1.737559e-01 -5.320961e+00 -4.074458e+00 -2.012923e+00 -2.670061e+00 -4.152989e+00 -1.944193e-02 4.776529e-01 -5.817187e-01 -1.139817e+00 -2.803837e+00 -2.613285e+00 7.427744e-01 -1.639830e-01 3.680878e-01 2.305981e+00 2.544153e+00 -8.631161e-01 3.461404e-01 -1.278252e+00 4.202229e-02
<VARIANCE> 26
 4.449847e+01 2.792151e+01 5.065438e+01 5.521287e+01 2.036930e+01 2.100479e+01 2.019032e+01 3.992892e+01 2.112314e+01 1.786240e+01 2.154148e+01 7.487709e+00 5.000000e-02 7.442433e+00 3.851340e+00 4.275351e+00 3.224550e+00 4.450654e+00 5.394935e+00 3.090483e+00 6.329709e+00 3.511495e+00 1.450565e+00 2.332349e+00 1.552915e+00 5.000000e-02
<GCONST> 9.566817e+01
<TRANSP> 5
 0.000000e+00 1.000000e+00 0.000000e+00 0.000000e+00 0.000000e+00
 0.000000e+00 6.831930e-01 3.168070e-01 0.000000e+00 0.000000e+00
 0.000000e+00 0.000000e+00 4.681112e-01 5.318888e-01 0.000000e+00
 0.000000e+00 0.000000e+00 0.000000e+00 3.154601e-01 6.845400e-01
 0.000000e+00 0.000000e+00 0.000000e+00 0.000000e+00 0.000000e+00
<ENDHMM>
