~o
<STREAMINFO> 1 1
<VECSIZE> 1<NULLD><USER><DIAGC>
~h "a"
<BEGINHMM>
<NUMSTATES> 8
<STATE> 2
<MEAN> 1
 3.238841e+00
<VARIANCE> 1
 4.168668e+00
<GCONST> 3.265474e+00
<STATE> 3
<MEAN> 1
 9.232162e+00
<VARIANCE> 1
 2.845206e+00
<GCONST> 2.883512e+00
<STATE> 4
<MEAN> 1
 5.527228e+00
<VARIANCE> 1
 1.548440e+00
<GCONST> 2.275125e+00
<STATE> 5
<MEAN> 1
 2.043268e+00
<VARIANCE> 1
 3.595358e-01
<GCONST> 8.149357e-01
<STATE> 6
<MEAN> 1
 3.550285e+00
<VARIANCE> 1
 1.391750e+00
<GCONST> 2.168439e+00
<STATE> 7
<MEAN> 1
 6.607118e-01
<VARIANCE> 1
 1.153665e-01
<GCONST> -3.217645e-01
<TRANSP> 8
 0.000000e+00 1.000000e+00 0.000000e+00 0.000000e+00 0.000000e+00 0.000000e+00 0.000000e+00 0.000000e+00
 0.000000e+00 8.204386e-01 1.795614e-01 0.000000e+00 0.000000e+00 0.000000e+00 0.000000e+00 0.000000e+00
 0.000000e+00 0.000000e+00 9.834582e-01 1.654181e-02 0.000000e+00 0.000000e+00 0.000000e+00 0.000000e+00
 0.000000e+00 0.000000e+00 0.000000e+00 9.730259e-01 2.697413e-02 0.000000e+00 0.000000e+00 0.000000e+00
 0.000000e+00 0.000000e+00 0.000000e+00 0.000000e+00 9.648402e-01 3.515983e-02 0.000000e+00 0.000000e+00
 0.000000e+00 0.000000e+00 0.000000e+00 0.000000e+00 0.000000e+00 9.390236e-01 6.097644e-02 0.000000e+00
 0.000000e+00 0.000000e+00 0.000000e+00 0.000000e+00 0.000000e+00 0.000000e+00 9.156191e-01 8.438088e-02
 0.000000e+00 0.000000e+00 0.000000e+00 0.000000e+00 0.000000e+00 0.000000e+00 0.000000e+00 0.000000e+00
<ENDHMM>
~h "e"
<BEGINHMM>
<NUMSTATES> 8
<STATE> 2
<MEAN> 1
 -5.858161e-03
<VARIANCE> 1
 1.000000e-02
<GCONST> -2.767293e+00
<STATE> 3
<MEAN> 1
 5.850469e+00
<VARIANCE> 1
 1.595436e+01
<GCONST> 4.607609e+00
<STATE> 4
<MEAN> 1
 -9.689922e-01
<VARIANCE> 1
 2.159316e-01
<GCONST> 3.050835e-01
<STATE> 5
<MEAN> 1
 -1.774249e+00
<VARIANCE> 1
 6.685593e-02
<GCONST> -8.673382e-01
<STATE> 6
<MEAN> 1
 -3.211123e+00
<VARIANCE> 1
 9.270970e-01
<GCONST> 1.762180e+00
<STATE> 7
<MEAN> 1
 -6.890774e+00
<VARIANCE> 1
 1.743247e+00
<GCONST> 2.393626e+00
<TRANSP> 8
 0.000000e+00 1.000000e+00 0.000000e+00 0.000000e+00 0.000000e+00 0.000000e+00 0.000000e+00 0.000000e+00
 0.000000e+00 9.931515e-01 6.848436e-03 0.000000e+00 0.000000e+00 0.000000e+00 0.000000e+00 0.000000e+00
 0.000000e+00 0.000000e+00 8.699195e-01 1.300804e-01 0.000000e+00 0.000000e+00 0.000000e+00 0.000000e+00
 0.000000e+00 0.000000e+00 0.000000e+00 9.665307e-01 3.346927e-02 0.000000e+00 0.000000e+00 0.000000e+00
 0.000000e+00 0.000000e+00 0.000000e+00 0.000000e+00 0.000000e+00 1.000000e+00 0.000000e+00 0.000000e+00
 0.000000e+00 0.000000e+00 0.000000e+00 0.000000e+00 0.000000e+00 9.725595e-01 2.744047e-02 0.000000e+00
 0.000000e+00 0.000000e+00 0.000000e+00 0.000000e+00 0.000000e+00 0.000000e+00 9.589257e-01 4.107431e-02
 0.000000e+00 0.000000e+00 0.000000e+00 0.000000e+00 0.000000e+00 0.000000e+00 0.000000e+00 0.000000e+00
<ENDHMM>
~h "i"
<BEGINHMM>
<NUMSTATES> 8
<STATE> 2
<MEAN> 1
 -5.356002e+00
<VARIANCE> 1
 4.632351e+00
<GCONST> 3.370942e+00
<STATE> 3
<MEAN> 1
 -9.777220e+00
<VARIANCE> 1
 1.058731e+00
<GCONST> 1.894948e+00
<STATE> 4
<MEAN> 1
 -6.899232e+00
<VARIANCE> 1
 9.305686e-01
<GCONST> 1.765918e+00
<STATE> 5
<MEAN> 1
 -4.299261e+00
<VARIANCE> 1
 4.858642e-01
<GCONST> 1.116051e+00
<STATE> 6
<MEAN> 1
 -2.079956e+00
<VARIANCE> 1
 3.362581e-01
<GCONST> 7.480007e-01
<STATE> 7
<MEAN> 1
 -6.605867e-01
<VARIANCE> 1
 6.115397e-02
<GCONST> -9.564834e-01
<TRANSP> 8
 0.000000e+00 1.000000e+00 0.000000e+00 0.000000e+00 0.000000e+00 0.000000e+00 0.000000e+00 0.000000e+00
 0.000000e+00 5.867864e-01 4.132136e-01 0.000000e+00 0.000000e+00 0.000000e+00 0.000000e+00 0.000000e+00
 0.000000e+00 0.000000e+00 9.841321e-01 1.586788e-02 0.000000e+00 0.000000e+00 0.000000e+00 0.000000e+00
 0.000000e+00 0.000000e+00 0.000000e+00 9.805389e-01 1.946109e-02 0.000000e+00 0.000000e+00 0.000000e+00
 0.000000e+00 0.000000e+00 0.000000e+00 0.000000e+00 9.544883e-01 4.551170e-02 0.000000e+00 0.000000e+00
 0.000000e+00 0.000000e+00 0.000000e+00 0.000000e+00 0.000000e+00 9.455226e-01 5.447743e-02 0.000000e+00
 0.000000e+00 0.000000e+00 0.000000e+00 0.000000e+00 0.000000e+00 0.000000e+00 8.596967e-01 1.403033e-01
 0.000000e+00 0.000000e+00 0.000000e+00 0.000000e+00 0.000000e+00 0.000000e+00 0.000000e+00 0.000000e+00
<ENDHMM>
~h "m"
<BEGINHMM>
<NUMSTATES> 8
<STATE> 2
<MEAN> 1
 -2.281531e-01
<VARIANCE> 1
 1.000000e-02
<GCONST> -2.767293e+00
<STATE> 3
<MEAN> 1
 1.732882e-03
<VARIANCE> 1
 1.000000e-02
<GCONST> -2.767293e+00
<STATE> 4
<MEAN> 1
 9.000040e-01
<VARIANCE> 1
 2.122583e-01
<GCONST> 2.879256e-01
<STATE> 5
<MEAN> 1
 1.523395e+00
<VARIANCE> 1
 3.096929e-01
<GCONST> 6.657029e-01
<STATE> 6
<MEAN> 1
 3.037206e+00
<VARIANCE> 1
 8.384914e-01
<GCONST> 1.661726e+00
<STATE> 7
<MEAN> 1
 6.189330e+00
<VARIANCE> 1
 2.813149e+00
<GCONST> 2.872181e+00
<TRANSP> 8
 0.000000e+00 1.000000e+00 0.000000e+00 0.000000e+00 0.000000e+00 0.000000e+00 0.000000e+00 0.000000e+00
 0.000000e+00 1.415585e-01 8.584415e-01 0.000000e+00 0.000000e+00 0.000000e+00 0.000000e+00 0.000000e+00
 0.000000e+00 0.000000e+00 9.932150e-01 6.784987e-03 0.000000e+00 0.000000e+00 0.000000e+00 0.000000e+00
 0.000000e+00 0.000000e+00 0.000000e+00 9.636811e-01 3.631888e-02 0.000000e+00 0.000000e+00 0.000000e+00
 0.000000e+00 0.000000e+00 0.000000e+00 0.000000e+00 3.726689e-02 9.627331e-01 0.000000e+00 0.000000e+00
 0.000000e+00 0.000000e+00 0.000000e+00 0.000000e+00 0.000000e+00 9.699384e-01 3.006157e-02 0.000000e+00
 0.000000e+00 0.000000e+00 0.000000e+00 0.000000e+00 0.000000e+00 0.000000e+00 9.489493e-01 5.105080e-02
 0.000000e+00 0.000000e+00 0.000000e+00 0.000000e+00 0.000000e+00 0.000000e+00 0.000000e+00 0.000000e+00
<ENDHMM>
~h "sil"
<BEGINHMM>
<NUMSTATES> 8
<STATE> 2
<MEAN> 1
 -2.726753e+00
<VARIANCE> 1
 3.249063e+00
<GCONST> 3.016244e+00
<STATE> 3
<MEAN> 1
 3.114212e+00
<VARIANCE> 1
 1.505088e+01
<GCONST> 4.549314e+00
<STATE> 4
<MEAN> 1
 1.083789e+01
<VARIANCE> 1
 4.559427e+00
<GCONST> 3.355074e+00
<STATE> 5
<MEAN> 1
 6.642774e+00
<VARIANCE> 1
 4.284584e+00
<GCONST> 3.292901e+00
<STATE> 6
<MEAN> 1
 3.108175e+00
<VARIANCE> 1
 2.041583e+00
<GCONST> 2.551603e+00
<STATE> 7
<MEAN> 1
 9.733137e-02
<VARIANCE> 1
 1.054280e+00
<GCONST> 1.890735e+00
<TRANSP> 8
 0.000000e+00 1.000000e+00 0.000000e+00 0.000000e+00 0.000000e+00 0.000000e+00 0.000000e+00 0.000000e+00
 0.000000e+00 9.710304e-01 2.896965e-02 0.000000e+00 0.000000e+00 0.000000e+00 0.000000e+00 0.000000e+00
 0.000000e+00 0.000000e+00 0.000000e+00 1.000000e+00 0.000000e+00 0.000000e+00 0.000000e+00 0.000000e+00
 0.000000e+00 0.000000e+00 0.000000e+00 9.762552e-01 2.374483e-02 0.000000e+00 0.000000e+00 0.000000e+00
 0.000000e+00 0.000000e+00 0.000000e+00 0.000000e+00 9.410443e-01 5.895568e-02 0.000000e+00 0.000000e+00
 0.000000e+00 0.000000e+00 0.000000e+00 0.000000e+00 0.000000e+00 8.961610e-01 1.038390e-01 0.000000e+00
 0.000000e+00 0.000000e+00 0.000000e+00 0.000000e+00 0.000000e+00 0.000000e+00 9.573278e-01 4.267221e-02
 0.000000e+00 0.000000e+00 0.000000e+00 0.000000e+00 0.000000e+00 0.000000e+00 0.000000e+00 0.000000e+00
<ENDHMM>
