~o
<STREAMINFO> 1 1
<VECSIZE> 1<NULLD><USER><DIAGC>
~h "a"
<BEGINHMM>
<NUMSTATES> 8
<STATE> 2
<MEAN> 1
 -9.131519e-01
<VARIANCE> 1
 2.494572e-01
<GCONST> 4.494091e-01
<STATE> 3
<MEAN> 1
 -3.198835e-01
<VARIANCE> 1
 4.040763e-01
<GCONST> 9.317255e-01
<STATE> 4
<MEAN> 1
 7.682489e-02
<VARIANCE> 1
 7.319139e-02
<GCONST> -7.768004e-01
<STATE> 5
<MEAN> 1
 1.626833e+00
<VARIANCE> 1
 2.530822e-01
<GCONST> 4.638360e-01
<STATE> 6
<MEAN> 1
 3.339693e+00
<VARIANCE> 1
 4.178336e-01
<GCONST> 9.652050e-01
<STATE> 7
<MEAN> 1
 7.260595e+00
<VARIANCE> 1
 2.925028e+00
<GCONST> 2.911181e+00
<TRANSP> 8
 0.000000e+00 1.000000e+00 0.000000e+00 0.000000e+00 0.000000e+00 0.000000e+00 0.000000e+00 0.000000e+00
 0.000000e+00 8.583347e-01 1.416653e-01 0.000000e+00 0.000000e+00 0.000000e+00 0.000000e+00 0.000000e+00
 0.000000e+00 0.000000e+00 1.581718e-01 8.418282e-01 0.000000e+00 0.000000e+00 0.000000e+00 0.000000e+00
 0.000000e+00 0.000000e+00 0.000000e+00 9.839205e-01 1.607948e-02 0.000000e+00 0.000000e+00 0.000000e+00
 0.000000e+00 0.000000e+00 0.000000e+00 0.000000e+00 9.784960e-01 2.150406e-02 0.000000e+00 0.000000e+00
 0.000000e+00 0.000000e+00 0.000000e+00 0.000000e+00 0.000000e+00 9.785549e-01 2.144507e-02 0.000000e+00
 0.000000e+00 0.000000e+00 0.000000e+00 0.000000e+00 0.000000e+00 0.000000e+00 9.863068e-01 1.369325e-02
 0.000000e+00 0.000000e+00 0.000000e+00 0.000000e+00 0.000000e+00 0.000000e+00 0.000000e+00 0.000000e+00
<ENDHMM>
~h "e"
<BEGINHMM>
<NUMSTATES> 8
<STATE> 2
<MEAN> 1
 3.256114e+00
<VARIANCE> 1
 1.802029e+00
<GCONST> 2.426790e+00
<STATE> 3
<MEAN> 1
 8.787097e+00
<VARIANCE> 1
 4.883818e+00
<GCONST> 3.423804e+00
<STATE> 4
<MEAN> 1
 1.175124e-03
<VARIANCE> 1
 2.479685e-01
<GCONST> 4.434235e-01
<STATE> 5
<MEAN> 1
 2.179286e+00
<VARIANCE> 1
 3.430984e+00
<GCONST> 3.070724e+00
<STATE> 6
<MEAN> 1
 -1.989963e+00
<VARIANCE> 1
 4.507847e-01
<GCONST> 1.041112e+00
<STATE> 7
<MEAN> 1
 -4.171551e+00
<VARIANCE> 1
 3.699183e-01
<GCONST> 8.434039e-01
<TRANSP> 8
 0.000000e+00 1.000000e+00 0.000000e+00 0.000000e+00 0.000000e+00 0.000000e+00 0.000000e+00 0.000000e+00
 0.000000e+00 9.753693e-01 2.463070e-02 0.000000e+00 0.000000e+00 0.000000e+00 0.000000e+00 0.000000e+00
 0.000000e+00 0.000000e+00 9.767585e-01 2.324151e-02 0.000000e+00 0.000000e+00 0.000000e+00 0.000000e+00
 0.000000e+00 0.000000e+00 0.000000e+00 9.859422e-01 1.405782e-02 0.000000e+00 0.000000e+00 0.000000e+00
 0.000000e+00 0.000000e+00 0.000000e+00 0.000000e+00 8.862507e-01 1.137494e-01 0.000000e+00 0.000000e+00
 0.000000e+00 0.000000e+00 0.000000e+00 0.000000e+00 0.000000e+00 9.818225e-01 1.817751e-02 0.000000e+00
 0.000000e+00 0.000000e+00 0.000000e+00 0.000000e+00 0.000000e+00 0.000000e+00 9.649780e-01 3.502201e-02
 0.000000e+00 0.000000e+00 0.000000e+00 0.000000e+00 0.000000e+00 0.000000e+00 0.000000e+00 0.000000e+00
<ENDHMM>
~h "i"
<BEGINHMM>
<NUMSTATES> 8
<STATE> 2
<MEAN> 1
 -4.353238e+00
<VARIANCE> 1
 1.403057e+00
<GCONST> 2.176530e+00
<STATE> 3
<MEAN> 1
 -4.393218e+00
<VARIANCE> 1
 1.481577e+00
<GCONST> 2.230984e+00
<STATE> 4
<MEAN> 1
 -8.182260e+00
<VARIANCE> 1
 1.760351e+00
<GCONST> 2.403390e+00
<STATE> 5
<MEAN> 1
 -2.162904e+00
<VARIANCE> 1
 2.599791e+00
<GCONST> 2.793308e+00
<STATE> 6
<MEAN> 1
 -6.416167e+00
<VARIANCE> 1
 9.649343e-01
<GCONST> 1.802182e+00
<STATE> 7
<MEAN> 1
 -3.169495e+00
<VARIANCE> 1
 7.293789e-01
<GCONST> 1.522315e+00
<TRANSP> 8
 0.000000e+00 1.000000e+00 0.000000e+00 0.000000e+00 0.000000e+00 0.000000e+00 0.000000e+00 0.000000e+00
 0.000000e+00 3.742184e-02 9.625781e-01 0.000000e+00 0.000000e+00 0.000000e+00 0.000000e+00 0.000000e+00
 0.000000e+00 0.000000e+00 0.000000e+00 1.000000e+00 0.000000e+00 0.000000e+00 0.000000e+00 0.000000e+00
 0.000000e+00 0.000000e+00 0.000000e+00 9.738844e-01 2.611558e-02 0.000000e+00 0.000000e+00 0.000000e+00
 0.000000e+00 0.000000e+00 0.000000e+00 0.000000e+00 7.845158e-01 2.154842e-01 0.000000e+00 0.000000e+00
 0.000000e+00 0.000000e+00 0.000000e+00 0.000000e+00 0.000000e+00 9.877814e-01 1.221859e-02 0.000000e+00
 0.000000e+00 0.000000e+00 0.000000e+00 0.000000e+00 0.000000e+00 0.000000e+00 9.736744e-01 2.632559e-02
 0.000000e+00 0.000000e+00 0.000000e+00 0.000000e+00 0.000000e+00 0.000000e+00 0.000000e+00 0.000000e+00
<ENDHMM>
~h "m"
<BEGINHMM>
<NUMSTATES> 8
<STATE> 2
<MEAN> 1
 -2.296655e+00
<VARIANCE> 1
 2.335643e+00
<GCONST> 2.686164e+00
<STATE> 3
<MEAN> 1
 -4.556123e-02
<VARIANCE> 1
 8.147077e-02
<GCONST> -6.696339e-01
<STATE> 4
<MEAN> 1
 -8.260853e-01
<VARIANCE> 1
 4.290968e-01
<GCONST> 9.918042e-01
<STATE> 5
<MEAN> 1
 -7.619284e-01
<VARIANCE> 1
 3.935329e-01
<GCONST> 9.052864e-01
<STATE> 6
<MEAN> 1
 -6.975594e-01
<VARIANCE> 1
 3.608072e-01
<GCONST> 8.184655e-01
<STATE> 7
<MEAN> 1
 -6.585144e-01
<VARIANCE> 1
 3.048295e-01
<GCONST> 6.498744e-01
<TRANSP> 8
 0.000000e+00 1.000000e+00 0.000000e+00 0.000000e+00 0.000000e+00 0.000000e+00 0.000000e+00 0.000000e+00
 0.000000e+00 8.279511e-01 1.720489e-01 0.000000e+00 0.000000e+00 0.000000e+00 0.000000e+00 0.000000e+00
 0.000000e+00 0.000000e+00 9.744489e-01 2.555113e-02 0.000000e+00 0.000000e+00 0.000000e+00 0.000000e+00
 0.000000e+00 0.000000e+00 0.000000e+00 0.000000e+00 1.000000e+00 0.000000e+00 0.000000e+00 0.000000e+00
 0.000000e+00 0.000000e+00 0.000000e+00 0.000000e+00 0.000000e+00 1.000000e+00 0.000000e+00 0.000000e+00
 0.000000e+00 0.000000e+00 0.000000e+00 0.000000e+00 0.000000e+00 0.000000e+00 1.000000e+00 0.000000e+00
 0.000000e+00 0.000000e+00 0.000000e+00 0.000000e+00 0.000000e+00 0.000000e+00 2.630742e-01 7.369258e-01
 0.000000e+00 0.000000e+00 0.000000e+00 0.000000e+00 0.000000e+00 0.000000e+00 0.000000e+00 0.000000e+00
<ENDHMM>
~h "sil"
<BEGINHMM>
<NUMSTATES> 8
<STATE> 2
<MEAN> 1
 2.815863e-01
<VARIANCE> 1
 2.137544e+00
<GCONST> 2.597534e+00
<STATE> 3
<MEAN> 1
 -3.189383e+00
<VARIANCE> 1
 1.163802e+00
<GCONST> 1.989570e+00
<STATE> 4
<MEAN> 1
 4.559225e-01
<VARIANCE> 1
 4.071615e+00
<GCONST> 3.241917e+00
<STATE> 5
<MEAN> 1
 9.416211e+00
<VARIANCE> 1
 9.543540e+00
<GCONST> 4.093741e+00
<STATE> 6
<MEAN> 1
 2.104960e+00
<VARIANCE> 1
 1.526142e+00
<GCONST> 2.260620e+00
<STATE> 7
<MEAN> 1
 2.550942e-01
<VARIANCE> 1
 1.238842e+00
<GCONST> 2.052054e+00
<TRANSP> 8
 0.000000e+00 1.000000e+00 0.000000e+00 0.000000e+00 0.000000e+00 0.000000e+00 0.000000e+00 0.000000e+00
 0.000000e+00 9.658705e-01 3.412950e-02 0.000000e+00 0.000000e+00 0.000000e+00 0.000000e+00 0.000000e+00
 0.000000e+00 0.000000e+00 9.805660e-01 1.943401e-02 0.000000e+00 0.000000e+00 0.000000e+00 0.000000e+00
 0.000000e+00 0.000000e+00 0.000000e+00 0.000000e+00 1.000000e+00 0.000000e+00 0.000000e+00 0.000000e+00
 0.000000e+00 0.000000e+00 0.000000e+00 0.000000e+00 9.388707e-01 6.112927e-02 0.000000e+00 0.000000e+00
 0.000000e+00 0.000000e+00 0.000000e+00 0.000000e+00 0.000000e+00 8.994557e-01 1.005443e-01 0.000000e+00
 0.000000e+00 0.000000e+00 0.000000e+00 0.000000e+00 0.000000e+00 0.000000e+00 0.000000e+00 1.000000e+00
 0.000000e+00 0.000000e+00 0.000000e+00 0.000000e+00 0.000000e+00 0.000000e+00 0.000000e+00 0.000000e+00
<ENDHMM>
