~o
<STREAMINFO> 1 1
<VECSIZE> 1<NULLD><USER><DIAGC>
~h "a"
<BEGINHMM>
<NUMSTATES> 8
<STATE> 2
<MEAN> 1
 -9.245908e-01
<VARIANCE> 1
 5.259851e-01
<GCONST> 1.195395e+00
<STATE> 3
<MEAN> 1
 5.806006e-01
<VARIANCE> 1
 2.047793e-01
<GCONST> 2.520545e-01
<STATE> 4
<MEAN> 1
 1.293881e-01
<VARIANCE> 1
 8.545101e-02
<GCONST> -6.219351e-01
<STATE> 5
<MEAN> 1
 1.610341e+00
<VARIANCE> 1
 2.610664e-01
<GCONST> 4.948965e-01
<STATE> 6
<MEAN> 1
 3.513505e+00
<VARIANCE> 1
 5.251670e-01
<GCONST> 1.193838e+00
<STATE> 7
<MEAN> 1
 7.818888e+00
<VARIANCE> 1
 3.259588e+00
<GCONST> 3.019478e+00
<TRANSP> 8
 0.000000e+00 1.000000e+00 0.000000e+00 0.000000e+00 0.000000e+00 0.000000e+00 0.000000e+00 0.000000e+00
 0.000000e+00 9.111476e-01 8.885239e-02 0.000000e+00 0.000000e+00 0.000000e+00 0.000000e+00 0.000000e+00
 0.000000e+00 0.000000e+00 8.201185e-02 9.179882e-01 0.000000e+00 0.000000e+00 0.000000e+00 0.000000e+00
 0.000000e+00 0.000000e+00 0.000000e+00 9.553814e-01 4.461865e-02 0.000000e+00 0.000000e+00 0.000000e+00
 0.000000e+00 0.000000e+00 0.000000e+00 0.000000e+00 9.788086e-01 2.119143e-02 0.000000e+00 0.000000e+00
 0.000000e+00 0.000000e+00 0.000000e+00 0.000000e+00 0.000000e+00 9.804523e-01 1.954770e-02 0.000000e+00
 0.000000e+00 0.000000e+00 0.000000e+00 0.000000e+00 0.000000e+00 0.000000e+00 9.899341e-01 1.006586e-02
 0.000000e+00 0.000000e+00 0.000000e+00 0.000000e+00 0.000000e+00 0.000000e+00 0.000000e+00 0.000000e+00
<ENDHMM>
~h "e"
<BEGINHMM>
<NUMSTATES> 8
<STATE> 2
<MEAN> 1
 2.382187e+00
<VARIANCE> 1
 1.728436e+00
<GCONST> 2.385094e+00
<STATE> 3
<MEAN> 1
 6.462789e+00
<VARIANCE> 1
 1.218458e+01
<GCONST> 4.338048e+00
<STATE> 4
<MEAN> 1
 -7.186055e-03
<VARIANCE> 1
 1.119580e-02
<GCONST> -2.654340e+00
<STATE> 5
<MEAN> 1
 -7.965762e-01
<VARIANCE> 1
 1.181917e-01
<GCONST> -2.975700e-01
<STATE> 6
<MEAN> 1
 -2.160538e+00
<VARIANCE> 1
 1.896340e-01
<GCONST> 1.752174e-01
<STATE> 7
<MEAN> 1
 -3.844424e+00
<VARIANCE> 1
 2.585751e-01
<GCONST> 4.853079e-01
<TRANSP> 8
 0.000000e+00 1.000000e+00 0.000000e+00 0.000000e+00 0.000000e+00 0.000000e+00 0.000000e+00 0.000000e+00
 0.000000e+00 9.783660e-01 2.163402e-02 0.000000e+00 0.000000e+00 0.000000e+00 0.000000e+00 0.000000e+00
 0.000000e+00 0.000000e+00 9.592174e-01 4.078264e-02 0.000000e+00 0.000000e+00 0.000000e+00 0.000000e+00
 0.000000e+00 0.000000e+00 0.000000e+00 9.796562e-01 2.034388e-02 0.000000e+00 0.000000e+00 0.000000e+00
 0.000000e+00 0.000000e+00 0.000000e+00 0.000000e+00 9.681903e-01 3.180969e-02 0.000000e+00 0.000000e+00
 0.000000e+00 0.000000e+00 0.000000e+00 0.000000e+00 0.000000e+00 9.735652e-01 2.643487e-02 0.000000e+00
 0.000000e+00 0.000000e+00 0.000000e+00 0.000000e+00 0.000000e+00 0.000000e+00 9.660805e-01 3.391945e-02
 0.000000e+00 0.000000e+00 0.000000e+00 0.000000e+00 0.000000e+00 0.000000e+00 0.000000e+00 0.000000e+00
<ENDHMM>
~h "i"
<BEGINHMM>
<NUMSTATES> 8
<STATE> 2
<MEAN> 1
 -5.637019e+00
<VARIANCE> 1
 3.920151e-01
<GCONST> 9.014220e-01
<STATE> 3
<MEAN> 1
 -5.452253e+00
<VARIANCE> 1
 2.673280e+00
<GCONST> 2.821183e+00
<STATE> 4
<MEAN> 1
 -7.959519e+00
<VARIANCE> 1
 1.006855e+00
<GCONST> 1.844709e+00
<STATE> 5
<MEAN> 1
 -4.817111e+00
<VARIANCE> 1
 1.500895e+00
<GCONST> 2.243939e+00
<STATE> 6
<MEAN> 1
 -5.727391e+00
<VARIANCE> 1
 5.544311e-01
<GCONST> 1.248064e+00
<STATE> 7
<MEAN> 1
 -3.350430e+00
<VARIANCE> 1
 4.097834e-01
<GCONST> 9.457505e-01
<TRANSP> 8
 0.000000e+00 1.000000e+00 0.000000e+00 0.000000e+00 0.000000e+00 0.000000e+00 0.000000e+00 0.000000e+00
 0.000000e+00 9.673014e-01 3.269859e-02 0.000000e+00 0.000000e+00 0.000000e+00 0.000000e+00 0.000000e+00
 0.000000e+00 0.000000e+00 0.000000e+00 1.000000e+00 0.000000e+00 0.000000e+00 0.000000e+00 0.000000e+00
 0.000000e+00 0.000000e+00 0.000000e+00 9.846713e-01 1.532874e-02 0.000000e+00 0.000000e+00 0.000000e+00
 0.000000e+00 0.000000e+00 0.000000e+00 0.000000e+00 7.287252e-01 2.712748e-01 0.000000e+00 0.000000e+00
 0.000000e+00 0.000000e+00 0.000000e+00 0.000000e+00 0.000000e+00 9.684379e-01 3.156216e-02 0.000000e+00
 0.000000e+00 0.000000e+00 0.000000e+00 0.000000e+00 0.000000e+00 0.000000e+00 9.619527e-01 3.804727e-02
 0.000000e+00 0.000000e+00 0.000000e+00 0.000000e+00 0.000000e+00 0.000000e+00 0.000000e+00 0.000000e+00
<ENDHMM>
~h "m"
<BEGINHMM>
<NUMSTATES> 8
<STATE> 2
<MEAN> 1
 -1.283863e+00
<VARIANCE> 1
 3.400955e-01
<GCONST> 7.593483e-01
<STATE> 3
<MEAN> 1
 -9.542907e-03
<VARIANCE> 1
 1.000000e-02
<GCONST> -2.767293e+00
<STATE> 4
<MEAN> 1
 7.536989e-02
<VARIANCE> 1
 1.000000e-02
<GCONST> -2.767293e+00
<STATE> 5
<MEAN> 1
 1.272358e-01
<VARIANCE> 1
 1.000000e-02
<GCONST> -2.767293e+00
<STATE> 6
<MEAN> 1
 1.770393e-01
<VARIANCE> 1
 1.409210e-02
<GCONST> -2.424264e+00
<STATE> 7
<MEAN> 1
 3.595464e-01
<VARIANCE> 1
 2.788520e-02
<GCONST> -1.741782e+00
<TRANSP> 8
 0.000000e+00 1.000000e+00 0.000000e+00 0.000000e+00 0.000000e+00 0.000000e+00 0.000000e+00 0.000000e+00
 0.000000e+00 9.630789e-01 3.692107e-02 0.000000e+00 0.000000e+00 0.000000e+00 0.000000e+00 0.000000e+00
 0.000000e+00 0.000000e+00 9.786500e-01 2.135000e-02 0.000000e+00 0.000000e+00 0.000000e+00 0.000000e+00
 0.000000e+00 0.000000e+00 0.000000e+00 0.000000e+00 1.000000e+00 0.000000e+00 0.000000e+00 0.000000e+00
 0.000000e+00 0.000000e+00 0.000000e+00 0.000000e+00 0.000000e+00 1.000000e+00 0.000000e+00 0.000000e+00
 0.000000e+00 0.000000e+00 0.000000e+00 0.000000e+00 0.000000e+00 0.000000e+00 1.000000e+00 0.000000e+00
 0.000000e+00 0.000000e+00 0.000000e+00 0.000000e+00 0.000000e+00 0.000000e+00 9.278375e-01 7.216249e-02
 0.000000e+00 0.000000e+00 0.000000e+00 0.000000e+00 0.000000e+00 0.000000e+00 0.000000e+00 0.000000e+00
<ENDHMM>
~h "sil"
<BEGINHMM>
<NUMSTATES> 8
<STATE> 2
<MEAN> 1
 1.548081e-01
<VARIANCE> 1
 2.482137e+00
<GCONST> 2.746997e+00
<STATE> 3
<MEAN> 1
 -3.338521e+00
<VARIANCE> 1
 1.029300e+00
<GCONST> 1.866756e+00
<STATE> 4
<MEAN> 1
 3.384858e-01
<VARIANCE> 1
 4.281472e+00
<GCONST> 3.292174e+00
<STATE> 5
<MEAN> 1
 9.208970e+00
<VARIANCE> 1
 1.025391e+01
<GCONST> 4.165536e+00
<STATE> 6
<MEAN> 1
 1.495880e+00
<VARIANCE> 1
 1.107863e+00
<GCONST> 1.940310e+00
<STATE> 7
<MEAN> 1
 1.821445e-01
<VARIANCE> 1
 1.487333e+00
<GCONST> 2.234862e+00
<TRANSP> 8
 0.000000e+00 1.000000e+00 0.000000e+00 0.000000e+00 0.000000e+00 0.000000e+00 0.000000e+00 0.000000e+00
 0.000000e+00 9.570253e-01 4.297466e-02 0.000000e+00 0.000000e+00 0.000000e+00 0.000000e+00 0.000000e+00
 0.000000e+00 0.000000e+00 9.785556e-01 2.144443e-02 0.000000e+00 0.000000e+00 0.000000e+00 0.000000e+00
 0.000000e+00 0.000000e+00 0.000000e+00 0.000000e+00 1.000000e+00 0.000000e+00 0.000000e+00 0.000000e+00
 0.000000e+00 0.000000e+00 0.000000e+00 0.000000e+00 9.413315e-01 5.866852e-02 0.000000e+00 0.000000e+00
 0.000000e+00 0.000000e+00 0.000000e+00 0.000000e+00 0.000000e+00 9.357045e-01 6.429543e-02 0.000000e+00
 0.000000e+00 0.000000e+00 0.000000e+00 0.000000e+00 0.000000e+00 0.000000e+00 0.000000e+00 1.000000e+00
 0.000000e+00 0.000000e+00 0.000000e+00 0.000000e+00 0.000000e+00 0.000000e+00 0.000000e+00 0.000000e+00
<ENDHMM>
