~o
<STREAMINFO> 1 1
<VECSIZE> 1<NULLD><USER><DIAGC>
~h "a"
<BEGINHMM>
<NUMSTATES> 8
<STATE> 2
<MEAN> 1
 3.122860e+00
<VARIANCE> 1
 2.692514e+00
<GCONST> 2.828352e+00
<STATE> 3
<MEAN> 1
 9.253341e+00
<VARIANCE> 1
 2.855181e+00
<GCONST> 2.887012e+00
<STATE> 4
<MEAN> 1
 5.304922e+00
<VARIANCE> 1
 1.564184e+00
<GCONST> 2.285241e+00
<STATE> 5
<MEAN> 1
 2.198490e+00
<VARIANCE> 1
 2.530962e-01
<GCONST> 4.638913e-01
<STATE> 6
<MEAN> 1
 3.174986e+00
<VARIANCE> 1
 7.183242e-01
<GCONST> 1.507043e+00
<STATE> 7
<MEAN> 1
 8.328544e-01
<VARIANCE> 1
 1.548839e-01
<GCONST> -2.720249e-02
<TRANSP> 8
 0.000000e+00 1.000000e+00 0.000000e+00 0.000000e+00 0.000000e+00 0.000000e+00 0.000000e+00 0.000000e+00
 0.000000e+00 9.499544e-01 5.004558e-02 0.000000e+00 0.000000e+00 0.000000e+00 0.000000e+00 0.000000e+00
 0.000000e+00 0.000000e+00 9.830725e-01 1.692748e-02 0.000000e+00 0.000000e+00 0.000000e+00 0.000000e+00
 0.000000e+00 0.000000e+00 0.000000e+00 9.731743e-01 2.682568e-02 0.000000e+00 0.000000e+00 0.000000e+00
 0.000000e+00 0.000000e+00 0.000000e+00 0.000000e+00 9.467777e-01 5.322229e-02 0.000000e+00 0.000000e+00
 0.000000e+00 0.000000e+00 0.000000e+00 0.000000e+00 0.000000e+00 9.156618e-01 8.433820e-02 0.000000e+00
 0.000000e+00 0.000000e+00 0.000000e+00 0.000000e+00 0.000000e+00 0.000000e+00 9.332691e-01 6.673087e-02
 0.000000e+00 0.000000e+00 0.000000e+00 0.000000e+00 0.000000e+00 0.000000e+00 0.000000e+00 0.000000e+00
<ENDHMM>
~h "e"
<BEGINHMM>
<NUMSTATES> 8
<STATE> 2
<MEAN> 1
 -1.517334e-03
<VARIANCE> 1
 1.000000e-02
<GCONST> -2.767293e+00
<STATE> 3
<MEAN> 1
 5.407571e+00
<VARIANCE> 1
 1.809292e+01
<GCONST> 4.733397e+00
<STATE> 4
<MEAN> 1
 -8.492985e-01
<VARIANCE> 1
 1.749727e-01
<GCONST> 9.475148e-02
<STATE> 5
<MEAN> 1
 -1.671522e+00
<VARIANCE> 1
 3.167222e-02
<GCONST> -1.614438e+00
<STATE> 6
<MEAN> 1
 -2.813834e+00
<VARIANCE> 1
 5.796123e-01
<GCONST> 1.292481e+00
<STATE> 7
<MEAN> 1
 -5.582478e+00
<VARIANCE> 1
 5.810594e-01
<GCONST> 1.294975e+00
<TRANSP> 8
 0.000000e+00 1.000000e+00 0.000000e+00 0.000000e+00 0.000000e+00 0.000000e+00 0.000000e+00 0.000000e+00
 0.000000e+00 9.930909e-01 6.909139e-03 0.000000e+00 0.000000e+00 0.000000e+00 0.000000e+00 0.000000e+00
 0.000000e+00 0.000000e+00 8.780787e-01 1.219213e-01 0.000000e+00 0.000000e+00 0.000000e+00 0.000000e+00
 0.000000e+00 0.000000e+00 0.000000e+00 9.655272e-01 3.447284e-02 0.000000e+00 0.000000e+00 0.000000e+00
 0.000000e+00 0.000000e+00 0.000000e+00 0.000000e+00 0.000000e+00 1.000000e+00 0.000000e+00 0.000000e+00
 0.000000e+00 0.000000e+00 0.000000e+00 0.000000e+00 0.000000e+00 9.691669e-01 3.083305e-02 0.000000e+00
 0.000000e+00 0.000000e+00 0.000000e+00 0.000000e+00 0.000000e+00 0.000000e+00 9.663166e-01 3.368345e-02
 0.000000e+00 0.000000e+00 0.000000e+00 0.000000e+00 0.000000e+00 0.000000e+00 0.000000e+00 0.000000e+00
<ENDHMM>
~h "i"
<BEGINHMM>
<NUMSTATES> 8
<STATE> 2
<MEAN> 1
 -7.370596e+00
<VARIANCE> 1
 2.797170e+00
<GCONST> 2.866485e+00
<STATE> 3
<MEAN> 1
 -9.876829e+00
<VARIANCE> 1
 9.661105e-01
<GCONST> 1.803400e+00
<STATE> 4
<MEAN> 1
 -7.378315e+00
<VARIANCE> 1
 7.748725e-01
<GCONST> 1.582820e+00
<STATE> 5
<MEAN> 1
 -4.335444e+00
<VARIANCE> 1
 4.985087e-01
<GCONST> 1.141743e+00
<STATE> 6
<MEAN> 1
 -2.369554e+00
<VARIANCE> 1
 1.922151e-01
<GCONST> 1.887370e-01
<STATE> 7
<MEAN> 1
 -1.148301e+00
<VARIANCE> 1
 8.406413e-02
<GCONST> -6.382983e-01
<TRANSP> 8
 0.000000e+00 1.000000e+00 0.000000e+00 0.000000e+00 0.000000e+00 0.000000e+00 0.000000e+00 0.000000e+00
 0.000000e+00 9.366807e-01 6.331934e-02 0.000000e+00 0.000000e+00 0.000000e+00 0.000000e+00 0.000000e+00
 0.000000e+00 0.000000e+00 9.827445e-01 1.725557e-02 0.000000e+00 0.000000e+00 0.000000e+00 0.000000e+00
 0.000000e+00 0.000000e+00 0.000000e+00 9.774929e-01 2.250709e-02 0.000000e+00 0.000000e+00 0.000000e+00
 0.000000e+00 0.000000e+00 0.000000e+00 0.000000e+00 9.528262e-01 4.717376e-02 0.000000e+00 0.000000e+00
 0.000000e+00 0.000000e+00 0.000000e+00 0.000000e+00 0.000000e+00 9.285705e-01 7.142948e-02 0.000000e+00
 0.000000e+00 0.000000e+00 0.000000e+00 0.000000e+00 0.000000e+00 0.000000e+00 8.846532e-01 1.153469e-01
 0.000000e+00 0.000000e+00 0.000000e+00 0.000000e+00 0.000000e+00 0.000000e+00 0.000000e+00 0.000000e+00
<ENDHMM>
~h "m"
<BEGINHMM>
<NUMSTATES> 8
<STATE> 2
<MEAN> 1
 -4.102280e-01
<VARIANCE> 1
 2.247425e-02
<GCONST> -1.957508e+00
<STATE> 3
<MEAN> 1
 1.302880e-03
<VARIANCE> 1
 1.000000e-02
<GCONST> -2.767293e+00
<STATE> 4
<MEAN> 1
 7.066853e-01
<VARIANCE> 1
 1.009004e-01
<GCONST> -4.557443e-01
<STATE> 5
<MEAN> 1
 1.751248e+00
<VARIANCE> 1
 1.335900e-01
<GCONST> -1.751029e-01
<STATE> 6
<MEAN> 1
 3.281168e+00
<VARIANCE> 1
 3.747086e-01
<GCONST> 8.562705e-01
<STATE> 7
<MEAN> 1
 6.565484e+00
<VARIANCE> 1
 2.333746e+00
<GCONST> 2.685352e+00
<TRANSP> 8
 0.000000e+00 1.000000e+00 0.000000e+00 0.000000e+00 0.000000e+00 0.000000e+00 0.000000e+00 0.000000e+00
 0.000000e+00 7.657059e-01 2.342941e-01 0.000000e+00 0.000000e+00 0.000000e+00 0.000000e+00 0.000000e+00
 0.000000e+00 0.000000e+00 9.932055e-01 6.794436e-03 0.000000e+00 0.000000e+00 0.000000e+00 0.000000e+00
 0.000000e+00 0.000000e+00 0.000000e+00 9.509941e-01 4.900588e-02 0.000000e+00 0.000000e+00 0.000000e+00
 0.000000e+00 0.000000e+00 0.000000e+00 0.000000e+00 9.391348e-01 6.086516e-02 0.000000e+00 0.000000e+00
 0.000000e+00 0.000000e+00 0.000000e+00 0.000000e+00 0.000000e+00 9.542913e-01 4.570870e-02 0.000000e+00
 0.000000e+00 0.000000e+00 0.000000e+00 0.000000e+00 0.000000e+00 0.000000e+00 9.599373e-01 4.006270e-02
 0.000000e+00 0.000000e+00 0.000000e+00 0.000000e+00 0.000000e+00 0.000000e+00 0.000000e+00 0.000000e+00
<ENDHMM>
~h "sil"
<BEGINHMM>
<NUMSTATES> 8
<STATE> 2
<MEAN> 1
 -2.896986e+00
<VARIANCE> 1
 3.031925e+00
<GCONST> 2.947075e+00
<STATE> 3
<MEAN> 1
 3.079074e+00
<VARIANCE> 1
 1.588901e+01
<GCONST> 4.603505e+00
<STATE> 4
<MEAN> 1
 1.070062e+01
<VARIANCE> 1
 4.610903e+00
<GCONST> 3.366301e+00
<STATE> 5
<MEAN> 1
 5.925009e+00
<VARIANCE> 1
 4.079734e+00
<GCONST> 3.243909e+00
<STATE> 6
<MEAN> 1
 2.144249e+00
<VARIANCE> 1
 7.347110e+00
<GCONST> 3.832184e+00
<STATE> 7
<MEAN> 1
 1.463514e-01
<VARIANCE> 1
 9.672055e-01
<GCONST> 1.804533e+00
<TRANSP> 8
 0.000000e+00 1.000000e+00 0.000000e+00 0.000000e+00 0.000000e+00 0.000000e+00 0.000000e+00 0.000000e+00
 0.000000e+00 9.689642e-01 3.103581e-02 0.000000e+00 0.000000e+00 0.000000e+00 0.000000e+00 0.000000e+00
 0.000000e+00 0.000000e+00 0.000000e+00 1.000000e+00 0.000000e+00 0.000000e+00 0.000000e+00 0.000000e+00
 0.000000e+00 0.000000e+00 0.000000e+00 9.777900e-01 2.221002e-02 0.000000e+00 0.000000e+00 0.000000e+00
 0.000000e+00 0.000000e+00 0.000000e+00 0.000000e+00 9.092563e-01 9.074368e-02 0.000000e+00 0.000000e+00
 0.000000e+00 0.000000e+00 0.000000e+00 0.000000e+00 0.000000e+00 1.021032e-01 8.978968e-01 0.000000e+00
 0.000000e+00 0.000000e+00 0.000000e+00 0.000000e+00 0.000000e+00 0.000000e+00 9.637630e-01 3.623703e-02
 0.000000e+00 0.000000e+00 0.000000e+00 0.000000e+00 0.000000e+00 0.000000e+00 0.000000e+00 0.000000e+00
<ENDHMM>
