~o
<STREAMINFO> 1 1
<VECSIZE> 1<NULLD><USER><DIAGC>
~h "a"
<BEGINHMM>
<NUMSTATES> 8
<STATE> 2
<MEAN> 1
 8.770754e+00
<VARIANCE> 1
 1.780044e+00
<GCONST> 2.414515e+00
<STATE> 3
<MEAN> 1
 1.443266e+01
<VARIANCE> 1
 3.628424e+00
<GCONST> 3.126675e+00
<STATE> 4
<MEAN> 1
 1.089304e+01
<VARIANCE> 1
 1.453839e+00
<GCONST> 2.212085e+00
<STATE> 5
<MEAN> 1
 8.398705e+00
<VARIANCE> 1
 1.139751e+00
<GCONST> 1.968687e+00
<STATE> 6
<MEAN> 1
 6.634071e+00
<VARIANCE> 1
 1.474523e+00
<GCONST> 2.226212e+00
<STATE> 7
<MEAN> 1
 3.126308e+00
<VARIANCE> 1
 1.234061e+00
<GCONST> 2.048188e+00
<TRANSP> 8
 0.000000e+00 1.000000e+00 0.000000e+00 0.000000e+00 0.000000e+00 0.000000e+00 0.000000e+00 0.000000e+00
 0.000000e+00 9.463837e-01 5.361626e-02 0.000000e+00 0.000000e+00 0.000000e+00 0.000000e+00 0.000000e+00
 0.000000e+00 0.000000e+00 9.720283e-01 2.797166e-02 0.000000e+00 0.000000e+00 0.000000e+00 0.000000e+00
 0.000000e+00 0.000000e+00 0.000000e+00 9.460179e-01 5.398211e-02 0.000000e+00 0.000000e+00 0.000000e+00
 0.000000e+00 0.000000e+00 0.000000e+00 0.000000e+00 0.000000e+00 1.000000e+00 0.000000e+00 0.000000e+00
 0.000000e+00 0.000000e+00 0.000000e+00 0.000000e+00 0.000000e+00 9.166061e-01 8.339384e-02 0.000000e+00
 0.000000e+00 0.000000e+00 0.000000e+00 0.000000e+00 0.000000e+00 0.000000e+00 8.768492e-01 1.231508e-01
 0.000000e+00 0.000000e+00 0.000000e+00 0.000000e+00 0.000000e+00 0.000000e+00 0.000000e+00 0.000000e+00
<ENDHMM>
~h "e"
<BEGINHMM>
<NUMSTATES> 8
<STATE> 2
<MEAN> 1
 5.537158e+00
<VARIANCE> 1
 2.370847e+01
<GCONST> 5.003710e+00
<STATE> 3
<MEAN> 1
 -2.813907e-01
<VARIANCE> 1
 3.903219e-01
<GCONST> 8.970936e-01
<STATE> 4
<MEAN> 1
 -1.846802e+00
<VARIANCE> 1
 6.613804e-02
<GCONST> -8.781340e-01
<STATE> 5
<MEAN> 1
 -2.308946e+00
<VARIANCE> 1
 1.273628e-01
<GCONST> -2.228386e-01
<STATE> 6
<MEAN> 1
 -5.989066e+00
<VARIANCE> 1
 2.673643e+00
<GCONST> 2.821319e+00
<STATE> 7
<MEAN> 1
 -3.815336e+00
<VARIANCE> 1
 1.244274e+00
<GCONST> 2.056429e+00
<TRANSP> 8
 0.000000e+00 1.000000e+00 0.000000e+00 0.000000e+00 0.000000e+00 0.000000e+00 0.000000e+00 0.000000e+00
 0.000000e+00 6.697433e-01 3.302567e-01 0.000000e+00 0.000000e+00 0.000000e+00 0.000000e+00 0.000000e+00
 0.000000e+00 0.000000e+00 9.526326e-01 4.736737e-02 0.000000e+00 0.000000e+00 0.000000e+00 0.000000e+00
 0.000000e+00 0.000000e+00 0.000000e+00 0.000000e+00 1.000000e+00 0.000000e+00 0.000000e+00 0.000000e+00
 0.000000e+00 0.000000e+00 0.000000e+00 0.000000e+00 0.000000e+00 1.000000e+00 0.000000e+00 0.000000e+00
 0.000000e+00 0.000000e+00 0.000000e+00 0.000000e+00 0.000000e+00 9.507057e-01 4.929424e-02 0.000000e+00
 0.000000e+00 0.000000e+00 0.000000e+00 0.000000e+00 0.000000e+00 0.000000e+00 9.552011e-01 4.479891e-02
 0.000000e+00 0.000000e+00 0.000000e+00 0.000000e+00 0.000000e+00 0.000000e+00 0.000000e+00 0.000000e+00
<ENDHMM>
~h "i"
<BEGINHMM>
<NUMSTATES> 8
<STATE> 2
<MEAN> 1
 -7.665078e+00
<VARIANCE> 1
 1.923898e+00
<GCONST> 2.492230e+00
<STATE> 3
<MEAN> 1
 -2.951711e+00
<VARIANCE> 1
 1.666653e+00
<GCONST> 2.348694e+00
<STATE> 4
<MEAN> 1
 1.231374e+00
<VARIANCE> 1
 3.614017e+00
<GCONST> 3.122697e+00
<STATE> 5
<MEAN> 1
 -2.073270e-02
<VARIANCE> 1
 1.760980e-02
<GCONST> -2.201423e+00
<STATE> 6
<MEAN> 1
 -3.353246e+00
<VARIANCE> 1
 7.007822e+00
<GCONST> 3.784904e+00
<STATE> 7
<MEAN> 1
 3.546587e+00
<VARIANCE> 1
 8.139247e+00
<GCONST> 3.934575e+00
<TRANSP> 8
 0.000000e+00 1.000000e+00 0.000000e+00 0.000000e+00 0.000000e+00 0.000000e+00 0.000000e+00 0.000000e+00
 0.000000e+00 9.723240e-01 2.767604e-02 0.000000e+00 0.000000e+00 0.000000e+00 0.000000e+00 0.000000e+00
 0.000000e+00 0.000000e+00 9.324168e-01 6.758316e-02 0.000000e+00 0.000000e+00 0.000000e+00 0.000000e+00
 0.000000e+00 0.000000e+00 0.000000e+00 8.967254e-01 1.032746e-01 0.000000e+00 0.000000e+00 0.000000e+00
 0.000000e+00 0.000000e+00 0.000000e+00 0.000000e+00 9.341908e-01 6.580926e-02 0.000000e+00 0.000000e+00
 0.000000e+00 0.000000e+00 0.000000e+00 0.000000e+00 0.000000e+00 8.620101e-01 1.379898e-01 0.000000e+00
 0.000000e+00 0.000000e+00 0.000000e+00 0.000000e+00 0.000000e+00 0.000000e+00 8.397573e-01 1.602427e-01
 0.000000e+00 0.000000e+00 0.000000e+00 0.000000e+00 0.000000e+00 0.000000e+00 0.000000e+00 0.000000e+00
<ENDHMM>
~h "m"
<BEGINHMM>
<NUMSTATES> 8
<STATE> 2
<MEAN> 1
 -8.450514e-01
<VARIANCE> 1
 8.220332e-01
<GCONST> 1.641903e+00
<STATE> 3
<MEAN> 1
 1.385576e+00
<VARIANCE> 1
 4.460047e-01
<GCONST> 1.030451e+00
<STATE> 4
<MEAN> 1
 2.302838e+00
<VARIANCE> 1
 1.169165e+00
<GCONST> 1.994167e+00
<STATE> 5
<MEAN> 1
 2.960872e+00
<VARIANCE> 1
 1.930214e+00
<GCONST> 2.495508e+00
<STATE> 6
<MEAN> 1
 9.632301e+00
<VARIANCE> 1
 1.319930e+01
<GCONST> 4.418040e+00
<STATE> 7
<MEAN> 1
 5.006887e+00
<VARIANCE> 1
 1.925413e+00
<GCONST> 2.493018e+00
<TRANSP> 8
 0.000000e+00 1.000000e+00 0.000000e+00 0.000000e+00 0.000000e+00 0.000000e+00 0.000000e+00 0.000000e+00
 0.000000e+00 8.986122e-01 1.013877e-01 0.000000e+00 0.000000e+00 0.000000e+00 0.000000e+00 0.000000e+00
 0.000000e+00 0.000000e+00 8.943276e-01 1.056724e-01 0.000000e+00 0.000000e+00 0.000000e+00 0.000000e+00
 0.000000e+00 0.000000e+00 0.000000e+00 0.000000e+00 1.000000e+00 0.000000e+00 0.000000e+00 0.000000e+00
 0.000000e+00 0.000000e+00 0.000000e+00 0.000000e+00 0.000000e+00 1.000000e+00 0.000000e+00 0.000000e+00
 0.000000e+00 0.000000e+00 0.000000e+00 0.000000e+00 0.000000e+00 8.924801e-01 1.075199e-01 0.000000e+00
 0.000000e+00 0.000000e+00 0.000000e+00 0.000000e+00 0.000000e+00 0.000000e+00 9.145067e-01 8.549327e-02
 0.000000e+00 0.000000e+00 0.000000e+00 0.000000e+00 0.000000e+00 0.000000e+00 0.000000e+00 0.000000e+00
<ENDHMM>
~h "sil"
<BEGINHMM>
<NUMSTATES> 8
<STATE> 2
<MEAN> 1
 4.963589e-01
<VARIANCE> 1
 6.607828e-01
<GCONST> 1.423547e+00
<STATE> 3
<MEAN> 1
 2.942238e+00
<VARIANCE> 1
 1.280161e+00
<GCONST> 2.084863e+00
<STATE> 4
<MEAN> 1
 5.721165e+00
<VARIANCE> 1
 2.350431e+00
<GCONST> 2.692476e+00
<STATE> 5
<MEAN> 1
 7.383861e-02
<VARIANCE> 1
 2.291745e+01
<GCONST> 4.969775e+00
<STATE> 6
<MEAN> 1
 4.543255e+00
<VARIANCE> 1
 1.500839e+01
<GCONST> 4.546486e+00
<STATE> 7
<MEAN> 1
 1.051995e+01
<VARIANCE> 1
 1.463568e+01
<GCONST> 4.521339e+00
<TRANSP> 8
 0.000000e+00 1.000000e+00 0.000000e+00 0.000000e+00 0.000000e+00 0.000000e+00 0.000000e+00 0.000000e+00
 0.000000e+00 9.206156e-01 7.938445e-02 0.000000e+00 0.000000e+00 0.000000e+00 0.000000e+00 0.000000e+00
 0.000000e+00 0.000000e+00 9.126058e-01 8.739419e-02 0.000000e+00 0.000000e+00 0.000000e+00 0.000000e+00
 0.000000e+00 0.000000e+00 0.000000e+00 9.132256e-01 8.677445e-02 0.000000e+00 0.000000e+00 0.000000e+00
 0.000000e+00 0.000000e+00 0.000000e+00 0.000000e+00 7.771873e-01 2.228128e-01 0.000000e+00 0.000000e+00
 0.000000e+00 0.000000e+00 0.000000e+00 0.000000e+00 0.000000e+00 0.000000e+00 1.000000e+00 0.000000e+00
 0.000000e+00 0.000000e+00 0.000000e+00 0.000000e+00 0.000000e+00 0.000000e+00 8.973958e-01 1.026042e-01
 0.000000e+00 0.000000e+00 0.000000e+00 0.000000e+00 0.000000e+00 0.000000e+00 0.000000e+00 0.000000e+00
<ENDHMM>
