~o
<STREAMINFO> 1 26
<VECSIZE> 26<NULLD><MFCC_E_D><DIAGC>
~h "N"
<BEGINHMM>
<NUMSTATES> 5
<STATE> 2
<MEAN> 26
 -3.088734e+00 -5.734144e+00 3.179394e+00 -8.017403e-01 -1.160263e+01 1.172673e+00 -9.816503e+00 -6.362814e+00 -4.872107e+00 -2.287025e-01 -5.822271e+00 4.574161e-02 4.697347e-01 -3.142960e-02 6.253693e-01 1.463821e-01 1.088682e+00 1.105729e-02 7.628175e-01 -1.306555e-01 -2.303028e+00 -1.239484e+00 3.961665e-01 2.415632e-01 9.042239e-01 -2.073429e-02
<VARIANCE> 26
 3.385730e+00 1.537004e+01 1.417228e+01 2.526478e+01 2.809096e+01 1.867374e+01 2.616949e+01 5.276120e+01 2.813752e+01 2.770389e+01 1.355357e+01 1.753892e+01 5.000000e-02 1.740524e+00 1.774510e+00 1.939831e+00 2.641166e+00 3.282830e+00 2.098307e+00 3.798938e+00 3.577680e+00 4.305960e+00 2.721448e+00 2.824479e+00 1.954603e+00 5.000000e-02
<GCONST> 8.871918e+01
<STATE> 3
<MEAN> 26
 -3.971992e+00 -2.767159e+00 2.281902e+00 -1.283635e+00 -1.197812e+01 1.384120e+00 -7.957675e+00 -8.464434e+00 -5.114514e+00 -1.442455e+00 -7.015547e+00 3.984120e+00 4.300610e-01 -3.742153e-01 3.867454e-01 -1.194588e+00 -1.002734e+00 6.528007e-01 -6.865721e-01 7.909331e-01 1.339960e+00 1.292655e+00 -1.245501e+00 2.474576e-01 6.297085e-02 5.516042e-03
<VARIANCE> 26
 2.612329e+00 3.191423e+01 1.460874e+01 1.789083e+01 1.949831e+01 1.584032e+01 2.585480e+01 3.760646e+01 2.612568e+01 2.019102e+01 1.461569e+01 1.242157e+01 5.000000e-02 2.143429e+00 2.885597e+00 2.287528e+00 4.026503e+00 3.937847e+00 2.314637e+00 2.252980e+00 4.584803e+00 1.481337e+00 1.156666e+00 1.804047e+00 1.822102e+00 5.000000e-02
<GCONST> 8.618069e+01
<STATE> 4
<MEAN> 26
 -4.873234e+00 -4.969821e+00 -3.448633e+00 -6.508961e+00 -9.411824e+00 -8.987947e-01 -5.215936e+00 -2.059096e+00 -9.069460e-01 -3.953279e+00 -4.265933e+00 3.140118e-01 5.118514e-01 -5.431007e-01 -6.920775e-01 -2.616147e+00 -2.693800e+00 3.455476e-01 -1.545212e-01 6.309844e-01 1.675252e+00 2.329586e+00 -4.998184e-01 6.428345e-01 -1.160638e+00 4.900351e-02
<VARIANCE> 26
 4.937847e+01 3.330382e+01 4.927239e+01 4.999768e+01 3.093248e+01 2.505501e+01 2.537166e+01 4.262382e+01 2.205071e+01 2.461990e+01 1.973528e+01 8.357207e+00 5.000000e-02 7.417719e+00 2.558426e+00 4.106189e+00 2.046287e+00 5.521357e+00 4.486711e+00 2.410733e+00 5.211608e+00 3.379377e+00 1.099382e+00 3.002147e+00 1.986544e+00 5.000000e-02
<GCONST> 9.595972e+01
<TRANSP> 5
 0.000000e+00 1.000000e+00 0.000000e+00 0.000000e+00 0.000000e+00
 0.000000e+00 6.925179e-01 3.074821e-01 0.000000e+00 0.000000e+00
 0.000000e+00 0.000000e+00 5.146196e-01 4.853804e-01 0.000000e+00
 0.000000e+00 0.000000e+00 0.000000e+00 4.074180e-01 5.925819e-01
 0.000000e+00 0.000000e+00 0.000000e+00 0.000000e+00 0.000000e+00
<ENDHMM>
