~o
<STREAMINFO> 1 26
<VECSIZE> 26<NULLD><MFCC_E_D><DIAGC>
~h "V"
<BEGINHMM>
<NUMSTATES> 5
<STATE> 2
<MEAN> 26
 5.330570e-01 -7.964975e+00 -4.466592e+00 -1.294545e+01 -1.300836e+01 2.441640e+00 -1.185946e+01 -1.012099e+00 -3.499973e+00 6.782948e-01 -1.253696e+00 -3.382631e+00 7.951860e-01 4.965483e-01 -5.653703e-01 -3.872811e-02 -7.519852e-02 -4.094897e-01 3.125150e-01 -5.245526e-01 1.768062e-01 3.894653e-01 1.861804e-01 -1.631868e-01 -3.198817e-01 1.582653e-02
<VARIANCE> 26
 1.737149e+01 3.286142e+01 1.247059e+02 4.677566e+01 5.600174e+01 1.041006e+02 5.358113e+01 3.405792e+01 4.284333e+01 3.497097e+01 2.348932e+01 2.383274e+01 5.000000e-02 1.485019e+00 1.693054e+00 2.403334e+00 1.785148e+00 2.940770e+00 2.484330e+00 2.337715e+00 2.209872e+00 2.670330e+00 1.748438e+00 1.686906e+00 1.519977e+00 5.000000e-02
<GCONST> 9.512309e+01
<STATE> 3
<MEAN> 26
 1.460095e+00 -1.499418e+01 -6.535146e+00 -8.896389e+00 -1.462841e+01 1.856784e+00 -8.443476e+00 4.358609e+00 7.951416e-01 -7.622563e-01 -6.757019e+00 -6.786398e+00 8.449768e-01 -3.575477e-01 3.742363e-01 8.489280e-01 2.310666e-01 -1.840466e-01 -8.307178e-01 4.480071e-01 3.585815e-01 -2.523460e-01 9.643103e-03 -1.909269e-01 5.006933e-01 -1.548074e-02
<VARIANCE> 26
 1.156990e+01 3.502607e+01 7.185587e+01 1.817421e+01 3.835996e+01 5.881665e+01 3.137690e+01 3.459541e+01 3.857346e+01 2.012925e+01 2.722256e+01 2.368262e+01 5.000000e-02 6.669292e-01 2.024251e+00 2.900922e+00 1.733851e+00 2.403611e+00 2.798133e+00 2.225584e+00 2.538933e+00 1.852940e+00 1.647171e+00 1.944621e+00 2.004440e+00 5.000000e-02
<GCONST> 9.083672e+01
<STATE> 4
<MEAN> 26
 -5.364137e+00 -5.261145e+00 2.261281e+00 -7.959800e+00 -1.237451e+01 -4.636824e+00 -5.514530e+00 1.022002e+00 -3.350021e+00 -3.963783e-02 -3.950217e+00 -1.043319e+00 6.197280e-01 -2.245301e+00 1.826593e+00 -8.713782e-01 1.028919e+00 2.381774e+00 4.340217e-02 1.351104e+00 -1.194564e+00 3.049048e-01 2.139476e-02 2.260054e-01 2.692858e-01 -7.312943e-02
<VARIANCE> 26
 3.744102e+01 3.717603e+01 6.080437e+01 3.610754e+01 6.792094e+01 5.089083e+01 4.724582e+01 4.080236e+01 4.700815e+01 3.636795e+01 2.649531e+01 1.812718e+01 5.000000e-02 4.884672e+00 3.215805e+00 5.280223e+00 3.826206e+00 5.592974e+00 4.398512e+00 5.022749e+00 3.855931e+00 6.055578e+00 3.255538e+00 2.471607e+00 1.742388e+00 5.000000e-02
<GCONST> 1.024243e+02
<TRANSP> 5
 0.000000e+00 1.000000e+00 0.000000e+00 0.000000e+00 0.000000e+00
 0.000000e+00 7.321499e-01 2.678501e-01 0.000000e+00 0.000000e+00
 0.000000e+00 0.000000e+00 7.186214e-01 2.813786e-01 0.000000e+00
 0.000000e+00 0.000000e+00 0.000000e+00 6.189564e-01 3.810436e-01
 0.000000e+00 0.000000e+00 0.000000e+00 0.000000e+00 0.000000e+00
<ENDHMM>
