~o
<STREAMINFO> 1 1
<VECSIZE> 1<NULLD><USER><DIAGC>
~h "a"
<BEGINHMM>
<NUMSTATES> 8
<STATE> 2
<MEAN> 1
 3.102457e+00
<VARIANCE> 1
 2.672460e+00
<GCONST> 2.820876e+00
<STATE> 3
<MEAN> 1
 9.239750e+00
<VARIANCE> 1
 2.872233e+00
<GCONST> 2.892967e+00
<STATE> 4
<MEAN> 1
 5.283463e+00
<VARIANCE> 1
 1.554084e+00
<GCONST> 2.278764e+00
<STATE> 5
<MEAN> 1
 2.206904e+00
<VARIANCE> 1
 2.497378e-01
<GCONST> 4.505332e-01
<STATE> 6
<MEAN> 1
 3.179543e+00
<VARIANCE> 1
 7.231747e-01
<GCONST> 1.513773e+00
<STATE> 7
<MEAN> 1
 8.366717e-01
<VARIANCE> 1
 1.561474e-01
<GCONST> -1.907754e-02
<TRANSP> 8
 0.000000e+00 1.000000e+00 0.000000e+00 0.000000e+00 0.000000e+00 0.000000e+00 0.000000e+00 0.000000e+00
 0.000000e+00 9.494921e-01 5.050790e-02 0.000000e+00 0.000000e+00 0.000000e+00 0.000000e+00 0.000000e+00
 0.000000e+00 0.000000e+00 9.831718e-01 1.682819e-02 0.000000e+00 0.000000e+00 0.000000e+00 0.000000e+00
 0.000000e+00 0.000000e+00 0.000000e+00 9.729463e-01 2.705370e-02 0.000000e+00 0.000000e+00 0.000000e+00
 0.000000e+00 0.000000e+00 0.000000e+00 0.000000e+00 9.471830e-01 5.281695e-02 0.000000e+00 0.000000e+00
 0.000000e+00 0.000000e+00 0.000000e+00 0.000000e+00 0.000000e+00 9.133317e-01 8.666833e-02 0.000000e+00
 0.000000e+00 0.000000e+00 0.000000e+00 0.000000e+00 0.000000e+00 0.000000e+00 9.336061e-01 6.639384e-02
 0.000000e+00 0.000000e+00 0.000000e+00 0.000000e+00 0.000000e+00 0.000000e+00 0.000000e+00 0.000000e+00
<ENDHMM>
~h "e"
<BEGINHMM>
<NUMSTATES> 8
<STATE> 2
<MEAN> 1
 -1.427052e-03
<VARIANCE> 1
 1.000000e-02
<GCONST> -2.767293e+00
<STATE> 3
<MEAN> 1
 5.408973e+00
<VARIANCE> 1
 1.808669e+01
<GCONST> 4.733053e+00
<STATE> 4
<MEAN> 1
 -8.173469e-01
<VARIANCE> 1
 1.563550e-01
<GCONST> -1.774943e-02
<STATE> 5
<MEAN> 1
 -1.589081e+00
<VARIANCE> 1
 3.249022e-02
<GCONST> -1.588939e+00
<STATE> 6
<MEAN> 1
 -2.685354e+00
<VARIANCE> 1
 5.308418e-01
<GCONST> 1.204586e+00
<STATE> 7
<MEAN> 1
 -5.442294e+00
<VARIANCE> 1
 6.476689e-01
<GCONST> 1.403501e+00
<TRANSP> 8
 0.000000e+00 1.000000e+00 0.000000e+00 0.000000e+00 0.000000e+00 0.000000e+00 0.000000e+00 0.000000e+00
 0.000000e+00 9.930887e-01 6.911336e-03 0.000000e+00 0.000000e+00 0.000000e+00 0.000000e+00 0.000000e+00
 0.000000e+00 0.000000e+00 8.780565e-01 1.219435e-01 0.000000e+00 0.000000e+00 0.000000e+00 0.000000e+00
 0.000000e+00 0.000000e+00 0.000000e+00 9.635498e-01 3.645021e-02 0.000000e+00 0.000000e+00 0.000000e+00
 0.000000e+00 0.000000e+00 0.000000e+00 0.000000e+00 0.000000e+00 1.000000e+00 0.000000e+00 0.000000e+00
 0.000000e+00 0.000000e+00 0.000000e+00 0.000000e+00 0.000000e+00 9.684504e-01 3.154965e-02 0.000000e+00
 0.000000e+00 0.000000e+00 0.000000e+00 0.000000e+00 0.000000e+00 0.000000e+00 9.675278e-01 3.247217e-02
 0.000000e+00 0.000000e+00 0.000000e+00 0.000000e+00 0.000000e+00 0.000000e+00 0.000000e+00 0.000000e+00
<ENDHMM>
~h "i"
<BEGINHMM>
<NUMSTATES> 8
<STATE> 2
<MEAN> 1
 -7.385980e+00
<VARIANCE> 1
 2.572049e+00
<GCONST> 2.782580e+00
<STATE> 3
<MEAN> 1
 -9.864990e+00
<VARIANCE> 1
 9.675274e-01
<GCONST> 1.804865e+00
<STATE> 4
<MEAN> 1
 -7.307202e+00
<VARIANCE> 1
 7.731358e-01
<GCONST> 1.580576e+00
<STATE> 5
<MEAN> 1
 -4.299841e+00
<VARIANCE> 1
 4.608125e-01
<GCONST> 1.063113e+00
<STATE> 6
<MEAN> 1
 -2.459317e+00
<VARIANCE> 1
 1.658190e-01
<GCONST> 4.101884e-02
<STATE> 7
<MEAN> 1
 -1.306599e+00
<VARIANCE> 1
 8.380829e-02
<GCONST> -6.413465e-01
<TRANSP> 8
 0.000000e+00 1.000000e+00 0.000000e+00 0.000000e+00 0.000000e+00 0.000000e+00 0.000000e+00 0.000000e+00
 0.000000e+00 9.433207e-01 5.667929e-02 0.000000e+00 0.000000e+00 0.000000e+00 0.000000e+00 0.000000e+00
 0.000000e+00 0.000000e+00 9.829439e-01 1.705603e-02 0.000000e+00 0.000000e+00 0.000000e+00 0.000000e+00
 0.000000e+00 0.000000e+00 0.000000e+00 9.770768e-01 2.292321e-02 0.000000e+00 0.000000e+00 0.000000e+00
 0.000000e+00 0.000000e+00 0.000000e+00 0.000000e+00 9.503725e-01 4.962743e-02 0.000000e+00 0.000000e+00
 0.000000e+00 0.000000e+00 0.000000e+00 0.000000e+00 0.000000e+00 9.219918e-01 7.800821e-02 0.000000e+00
 0.000000e+00 0.000000e+00 0.000000e+00 0.000000e+00 0.000000e+00 0.000000e+00 8.846688e-01 1.153312e-01
 0.000000e+00 0.000000e+00 0.000000e+00 0.000000e+00 0.000000e+00 0.000000e+00 0.000000e+00 0.000000e+00
<ENDHMM>
~h "m"
<BEGINHMM>
<NUMSTATES> 8
<STATE> 2
<MEAN> 1
 -5.138630e-01
<VARIANCE> 1
 3.572438e-02
<GCONST> -1.494045e+00
<STATE> 3
<MEAN> 1
 9.779847e-04
<VARIANCE> 1
 1.000000e-02
<GCONST> -2.767293e+00
<STATE> 4
<MEAN> 1
 7.035087e-01
<VARIANCE> 1
 1.005358e-01
<GCONST> -4.593647e-01
<STATE> 5
<MEAN> 1
 1.751795e+00
<VARIANCE> 1
 1.371015e-01
<GCONST> -1.491567e-01
<STATE> 6
<MEAN> 1
 3.304796e+00
<VARIANCE> 1
 3.859754e-01
<GCONST> 8.858953e-01
<STATE> 7
<MEAN> 1
 6.578183e+00
<VARIANCE> 1
 2.303571e+00
<GCONST> 2.672337e+00
<TRANSP> 8
 0.000000e+00 1.000000e+00 0.000000e+00 0.000000e+00 0.000000e+00 0.000000e+00 0.000000e+00 0.000000e+00
 0.000000e+00 8.291747e-01 1.708253e-01 0.000000e+00 0.000000e+00 0.000000e+00 0.000000e+00 0.000000e+00
 0.000000e+00 0.000000e+00 9.932153e-01 6.784686e-03 0.000000e+00 0.000000e+00 0.000000e+00 0.000000e+00
 0.000000e+00 0.000000e+00 0.000000e+00 9.508837e-01 4.911633e-02 0.000000e+00 0.000000e+00 0.000000e+00
 0.000000e+00 0.000000e+00 0.000000e+00 0.000000e+00 9.398635e-01 6.013650e-02 0.000000e+00 0.000000e+00
 0.000000e+00 0.000000e+00 0.000000e+00 0.000000e+00 0.000000e+00 9.546207e-01 4.537932e-02 0.000000e+00
 0.000000e+00 0.000000e+00 0.000000e+00 0.000000e+00 0.000000e+00 0.000000e+00 9.599245e-01 4.007545e-02
 0.000000e+00 0.000000e+00 0.000000e+00 0.000000e+00 0.000000e+00 0.000000e+00 0.000000e+00 0.000000e+00
<ENDHMM>
~h "sil"
<BEGINHMM>
<NUMSTATES> 8
<STATE> 2
<MEAN> 1
 -2.896229e+00
<VARIANCE> 1
 3.036204e+00
<GCONST> 2.948485e+00
<STATE> 3
<MEAN> 1
 3.083641e+00
<VARIANCE> 1
 1.592634e+01
<GCONST> 4.605851e+00
<STATE> 4
<MEAN> 1
 1.069874e+01
<VARIANCE> 1
 4.611342e+00
<GCONST> 3.366396e+00
<STATE> 5
<MEAN> 1
 5.902778e+00
<VARIANCE> 1
 4.094406e+00
<GCONST> 3.247499e+00
<STATE> 6
<MEAN> 1
 2.107055e+00
<VARIANCE> 1
 7.817585e+00
<GCONST> 3.894253e+00
<STATE> 7
<MEAN> 1
 1.521678e-01
<VARIANCE> 1
 9.723113e-01
<GCONST> 1.809798e+00
<TRANSP> 8
 0.000000e+00 1.000000e+00 0.000000e+00 0.000000e+00 0.000000e+00 0.000000e+00 0.000000e+00 0.000000e+00
 0.000000e+00 9.689724e-01 3.102764e-02 0.000000e+00 0.000000e+00 0.000000e+00 0.000000e+00 0.000000e+00
 0.000000e+00 0.000000e+00 0.000000e+00 1.000000e+00 0.000000e+00 0.000000e+00 0.000000e+00 0.000000e+00
 0.000000e+00 0.000000e+00 0.000000e+00 9.778084e-01 2.219168e-02 0.000000e+00 0.000000e+00 0.000000e+00
 0.000000e+00 0.000000e+00 0.000000e+00 0.000000e+00 9.089469e-01 9.105314e-02 0.000000e+00 0.000000e+00
 0.000000e+00 0.000000e+00 0.000000e+00 0.000000e+00 0.000000e+00 1.400495e-03 9.985995e-01 0.000000e+00
 0.000000e+00 0.000000e+00 0.000000e+00 0.000000e+00 0.000000e+00 0.000000e+00 9.636436e-01 3.635639e-02
 0.000000e+00 0.000000e+00 0.000000e+00 0.000000e+00 0.000000e+00 0.000000e+00 0.000000e+00 0.000000e+00
<ENDHMM>
