~o
<STREAMINFO> 1 1
<VECSIZE> 1<NULLD><USER><DIAGC>
~h "a"
<BEGINHMM>
<NUMSTATES> 8
<STATE> 2
<MEAN> 1
 -9.392186e-01
<VARIANCE> 1
 5.569851e-01
<GCONST> 1.252660e+00
<STATE> 3
<MEAN> 1
 8.290238e-01
<VARIANCE> 1
 4.775704e-02
<GCONST> -1.203752e+00
<STATE> 4
<MEAN> 1
 7.765786e-02
<VARIANCE> 1
 9.668013e-02
<GCONST> -4.984703e-01
<STATE> 5
<MEAN> 1
 1.758445e+00
<VARIANCE> 1
 1.791942e-01
<GCONST> 1.185917e-01
<STATE> 6
<MEAN> 1
 3.614387e+00
<VARIANCE> 1
 5.532198e-01
<GCONST> 1.245877e+00
<STATE> 7
<MEAN> 1
 7.881440e+00
<VARIANCE> 1
 3.828881e+00
<GCONST> 3.180449e+00
<TRANSP> 8
 0.000000e+00 1.000000e+00 0.000000e+00 0.000000e+00 0.000000e+00 0.000000e+00 0.000000e+00 0.000000e+00
 0.000000e+00 9.092553e-01 9.074466e-02 0.000000e+00 0.000000e+00 0.000000e+00 0.000000e+00 0.000000e+00
 0.000000e+00 0.000000e+00 9.110450e-01 8.895505e-02 0.000000e+00 0.000000e+00 0.000000e+00 0.000000e+00
 0.000000e+00 0.000000e+00 0.000000e+00 9.505113e-01 4.948875e-02 0.000000e+00 0.000000e+00 0.000000e+00
 0.000000e+00 0.000000e+00 0.000000e+00 0.000000e+00 9.718226e-01 2.817736e-02 0.000000e+00 0.000000e+00
 0.000000e+00 0.000000e+00 0.000000e+00 0.000000e+00 0.000000e+00 9.803801e-01 1.961995e-02 0.000000e+00
 0.000000e+00 0.000000e+00 0.000000e+00 0.000000e+00 0.000000e+00 0.000000e+00 9.904527e-01 9.547335e-03
 0.000000e+00 0.000000e+00 0.000000e+00 0.000000e+00 0.000000e+00 0.000000e+00 0.000000e+00 0.000000e+00
<ENDHMM>
~h "e"
<BEGINHMM>
<NUMSTATES> 8
<STATE> 2
<MEAN> 1
 1.970893e+00
<VARIANCE> 1
 1.073564e+00
<GCONST> 1.908861e+00
<STATE> 3
<MEAN> 1
 5.480476e+00
<VARIANCE> 1
 8.084544e+00
<GCONST> 3.927831e+00
<STATE> 4
<MEAN> 1
 -1.811124e-03
<VARIANCE> 1
 1.000000e-02
<GCONST> -2.767293e+00
<STATE> 5
<MEAN> 1
 -7.378807e-01
<VARIANCE> 1
 1.213369e-01
<GCONST> -2.713072e-01
<STATE> 6
<MEAN> 1
 -2.108562e+00
<VARIANCE> 1
 1.825810e-01
<GCONST> 1.373158e-01
<STATE> 7
<MEAN> 1
 -3.736556e+00
<VARIANCE> 1
 2.427287e-01
<GCONST> 4.220663e-01
<TRANSP> 8
 0.000000e+00 1.000000e+00 0.000000e+00 0.000000e+00 0.000000e+00 0.000000e+00 0.000000e+00 0.000000e+00
 0.000000e+00 9.778663e-01 2.213369e-02 0.000000e+00 0.000000e+00 0.000000e+00 0.000000e+00 0.000000e+00
 0.000000e+00 0.000000e+00 9.576367e-01 4.236329e-02 0.000000e+00 0.000000e+00 0.000000e+00 0.000000e+00
 0.000000e+00 0.000000e+00 0.000000e+00 9.779441e-01 2.205590e-02 0.000000e+00 0.000000e+00 0.000000e+00
 0.000000e+00 0.000000e+00 0.000000e+00 0.000000e+00 9.697374e-01 3.026268e-02 0.000000e+00 0.000000e+00
 0.000000e+00 0.000000e+00 0.000000e+00 0.000000e+00 0.000000e+00 9.729585e-01 2.704147e-02 0.000000e+00
 0.000000e+00 0.000000e+00 0.000000e+00 0.000000e+00 0.000000e+00 0.000000e+00 9.644610e-01 3.553892e-02
 0.000000e+00 0.000000e+00 0.000000e+00 0.000000e+00 0.000000e+00 0.000000e+00 0.000000e+00 0.000000e+00
<ENDHMM>
~h "i"
<BEGINHMM>
<NUMSTATES> 8
<STATE> 2
<MEAN> 1
 -5.702724e+00
<VARIANCE> 1
 4.199428e-01
<GCONST> 9.702404e-01
<STATE> 3
<MEAN> 1
 -5.408300e+00
<VARIANCE> 1
 2.608801e+00
<GCONST> 2.796768e+00
<STATE> 4
<MEAN> 1
 -7.934607e+00
<VARIANCE> 1
 1.022622e+00
<GCONST> 1.860247e+00
<STATE> 5
<MEAN> 1
 -4.643133e+00
<VARIANCE> 1
 4.586275e-01
<GCONST> 1.058360e+00
<STATE> 6
<MEAN> 1
 -5.630250e+00
<VARIANCE> 1
 6.202149e-01
<GCONST> 1.360188e+00
<STATE> 7
<MEAN> 1
 -3.091240e+00
<VARIANCE> 1
 3.376266e-01
<GCONST> 7.520623e-01
<TRANSP> 8
 0.000000e+00 1.000000e+00 0.000000e+00 0.000000e+00 0.000000e+00 0.000000e+00 0.000000e+00 0.000000e+00
 0.000000e+00 9.701457e-01 2.985433e-02 0.000000e+00 0.000000e+00 0.000000e+00 0.000000e+00 0.000000e+00
 0.000000e+00 0.000000e+00 0.000000e+00 1.000000e+00 0.000000e+00 0.000000e+00 0.000000e+00 0.000000e+00
 0.000000e+00 0.000000e+00 0.000000e+00 9.849591e-01 1.504096e-02 0.000000e+00 0.000000e+00 0.000000e+00
 0.000000e+00 0.000000e+00 0.000000e+00 0.000000e+00 9.172302e-01 8.276975e-02 0.000000e+00 0.000000e+00
 0.000000e+00 0.000000e+00 0.000000e+00 0.000000e+00 0.000000e+00 9.614856e-01 3.851436e-02 0.000000e+00
 0.000000e+00 0.000000e+00 0.000000e+00 0.000000e+00 0.000000e+00 0.000000e+00 9.591621e-01 4.083787e-02
 0.000000e+00 0.000000e+00 0.000000e+00 0.000000e+00 0.000000e+00 0.000000e+00 0.000000e+00 0.000000e+00
<ENDHMM>
~h "m"
<BEGINHMM>
<NUMSTATES> 8
<STATE> 2
<MEAN> 1
 -1.208291e+00
<VARIANCE> 1
 2.931441e-01
<GCONST> 6.107861e-01
<STATE> 3
<MEAN> 1
 -5.097905e-03
<VARIANCE> 1
 1.000000e-02
<GCONST> -2.767293e+00
<STATE> 4
<MEAN> 1
 9.731825e-02
<VARIANCE> 1
 1.000000e-02
<GCONST> -2.767293e+00
<STATE> 5
<MEAN> 1
 1.488716e-01
<VARIANCE> 1
 1.003671e-02
<GCONST> -2.763629e+00
<STATE> 6
<MEAN> 1
 1.983339e-01
<VARIANCE> 1
 1.486072e-02
<GCONST> -2.371157e+00
<STATE> 7
<MEAN> 1
 4.004770e-01
<VARIANCE> 1
 1.985137e-02
<GCONST> -2.081605e+00
<TRANSP> 8
 0.000000e+00 1.000000e+00 0.000000e+00 0.000000e+00 0.000000e+00 0.000000e+00 0.000000e+00 0.000000e+00
 0.000000e+00 9.604178e-01 3.958219e-02 0.000000e+00 0.000000e+00 0.000000e+00 0.000000e+00 0.000000e+00
 0.000000e+00 0.000000e+00 9.792402e-01 2.075974e-02 0.000000e+00 0.000000e+00 0.000000e+00 0.000000e+00
 0.000000e+00 0.000000e+00 0.000000e+00 0.000000e+00 1.000000e+00 0.000000e+00 0.000000e+00 0.000000e+00
 0.000000e+00 0.000000e+00 0.000000e+00 0.000000e+00 0.000000e+00 1.000000e+00 0.000000e+00 0.000000e+00
 0.000000e+00 0.000000e+00 0.000000e+00 0.000000e+00 0.000000e+00 0.000000e+00 1.000000e+00 0.000000e+00
 0.000000e+00 0.000000e+00 0.000000e+00 0.000000e+00 0.000000e+00 0.000000e+00 9.193734e-01 8.062659e-02
 0.000000e+00 0.000000e+00 0.000000e+00 0.000000e+00 0.000000e+00 0.000000e+00 0.000000e+00 0.000000e+00
<ENDHMM>
~h "sil"
<BEGINHMM>
<NUMSTATES> 8
<STATE> 2
<MEAN> 1
 1.793426e-01
<VARIANCE> 1
 2.181993e+00
<GCONST> 2.618115e+00
<STATE> 3
<MEAN> 1
 -3.340981e+00
<VARIANCE> 1
 1.031974e+00
<GCONST> 1.869351e+00
<STATE> 4
<MEAN> 1
 3.402381e-01
<VARIANCE> 1
 4.288850e+00
<GCONST> 3.293896e+00
<STATE> 5
<MEAN> 1
 9.231547e+00
<VARIANCE> 1
 1.018109e+01
<GCONST> 4.158409e+00
<STATE> 6
<MEAN> 1
 1.739808e+00
<VARIANCE> 1
 1.024310e+00
<GCONST> 1.861896e+00
<STATE> 7
<MEAN> 1
 1.993898e-01
<VARIANCE> 1
 1.518913e+00
<GCONST> 2.255872e+00
<TRANSP> 8
 0.000000e+00 1.000000e+00 0.000000e+00 0.000000e+00 0.000000e+00 0.000000e+00 0.000000e+00 0.000000e+00
 0.000000e+00 9.624577e-01 3.754233e-02 0.000000e+00 0.000000e+00 0.000000e+00 0.000000e+00 0.000000e+00
 0.000000e+00 0.000000e+00 9.784958e-01 2.150415e-02 0.000000e+00 0.000000e+00 0.000000e+00 0.000000e+00
 0.000000e+00 0.000000e+00 0.000000e+00 0.000000e+00 1.000000e+00 0.000000e+00 0.000000e+00 0.000000e+00
 0.000000e+00 0.000000e+00 0.000000e+00 0.000000e+00 9.410746e-01 5.892544e-02 0.000000e+00 0.000000e+00
 0.000000e+00 0.000000e+00 0.000000e+00 0.000000e+00 0.000000e+00 9.377971e-01 6.220280e-02 0.000000e+00
 0.000000e+00 0.000000e+00 0.000000e+00 0.000000e+00 0.000000e+00 0.000000e+00 0.000000e+00 1.000000e+00
 0.000000e+00 0.000000e+00 0.000000e+00 0.000000e+00 0.000000e+00 0.000000e+00 0.000000e+00 0.000000e+00
<ENDHMM>
