~o
<STREAMINFO> 1 1
<VECSIZE> 1<NULLD><USER><DIAGC>
~h "a"
<BEGINHMM>
<NUMSTATES> 8
<STATE> 2
<MEAN> 1
 7.921395e+00
<VARIANCE> 1
 5.520826e+00
<GCONST> 3.546404e+00
<STATE> 3
<MEAN> 1
 1.444285e+01
<VARIANCE> 1
 3.768924e+00
<GCONST> 3.164667e+00
<STATE> 4
<MEAN> 1
 1.065817e+01
<VARIANCE> 1
 1.646759e+00
<GCONST> 2.336686e+00
<STATE> 5
<MEAN> 1
 8.234309e+00
<VARIANCE> 1
 1.178258e+00
<GCONST> 2.001915e+00
<STATE> 6
<MEAN> 1
 6.174656e+00
<VARIANCE> 1
 2.006484e+00
<GCONST> 2.534261e+00
<STATE> 7
<MEAN> 1
 1.954818e+00
<VARIANCE> 1
 4.915266e+00
<GCONST> 3.430223e+00
<TRANSP> 8
 0.000000e+00 1.000000e+00 0.000000e+00 0.000000e+00 0.000000e+00 0.000000e+00 0.000000e+00 0.000000e+00
 0.000000e+00 9.001756e-01 9.982443e-02 0.000000e+00 0.000000e+00 0.000000e+00 0.000000e+00 0.000000e+00
 0.000000e+00 0.000000e+00 9.718742e-01 2.812575e-02 0.000000e+00 0.000000e+00 0.000000e+00 0.000000e+00
 0.000000e+00 0.000000e+00 0.000000e+00 9.527536e-01 4.724638e-02 0.000000e+00 0.000000e+00 0.000000e+00
 0.000000e+00 0.000000e+00 0.000000e+00 0.000000e+00 0.000000e+00 1.000000e+00 0.000000e+00 0.000000e+00
 0.000000e+00 0.000000e+00 0.000000e+00 0.000000e+00 0.000000e+00 9.317549e-01 6.824514e-02 0.000000e+00
 0.000000e+00 0.000000e+00 0.000000e+00 0.000000e+00 0.000000e+00 0.000000e+00 8.396812e-01 1.603188e-01
 0.000000e+00 0.000000e+00 0.000000e+00 0.000000e+00 0.000000e+00 0.000000e+00 0.000000e+00 0.000000e+00
<ENDHMM>
~h "e"
<BEGINHMM>
<NUMSTATES> 8
<STATE> 2
<MEAN> 1
 7.133090e+00
<VARIANCE> 1
 2.401318e+01
<GCONST> 5.016479e+00
<STATE> 3
<MEAN> 1
 -4.502536e-01
<VARIANCE> 1
 7.580901e-01
<GCONST> 1.560924e+00
<STATE> 4
<MEAN> 1
 -2.670516e+00
<VARIANCE> 1
 2.225763e-01
<GCONST> 3.353918e-01
<STATE> 5
<MEAN> 1
 -3.149578e+00
<VARIANCE> 1
 3.624079e-01
<GCONST> 8.228921e-01
<STATE> 6
<MEAN> 1
 -6.588712e+00
<VARIANCE> 1
 1.947892e+00
<GCONST> 2.504625e+00
<STATE> 7
<MEAN> 1
 -3.754208e+00
<VARIANCE> 1
 1.326576e+00
<GCONST> 2.120478e+00
<TRANSP> 8
 0.000000e+00 1.000000e+00 0.000000e+00 0.000000e+00 0.000000e+00 0.000000e+00 0.000000e+00 0.000000e+00
 0.000000e+00 7.336623e-01 2.663377e-01 0.000000e+00 0.000000e+00 0.000000e+00 0.000000e+00 0.000000e+00
 0.000000e+00 0.000000e+00 9.590946e-01 4.090536e-02 0.000000e+00 0.000000e+00 0.000000e+00 0.000000e+00
 0.000000e+00 0.000000e+00 0.000000e+00 0.000000e+00 1.000000e+00 0.000000e+00 0.000000e+00 0.000000e+00
 0.000000e+00 0.000000e+00 0.000000e+00 0.000000e+00 0.000000e+00 1.000000e+00 0.000000e+00 0.000000e+00
 0.000000e+00 0.000000e+00 0.000000e+00 0.000000e+00 0.000000e+00 9.654977e-01 3.450232e-02 0.000000e+00
 0.000000e+00 0.000000e+00 0.000000e+00 0.000000e+00 0.000000e+00 0.000000e+00 9.331005e-01 6.689955e-02
 0.000000e+00 0.000000e+00 0.000000e+00 0.000000e+00 0.000000e+00 0.000000e+00 0.000000e+00 0.000000e+00
<ENDHMM>
~h "i"
<BEGINHMM>
<NUMSTATES> 8
<STATE> 2
<MEAN> 1
 -7.595989e+00
<VARIANCE> 1
 2.717840e+00
<GCONST> 2.837714e+00
<STATE> 3
<MEAN> 1
 -3.169171e+00
<VARIANCE> 1
 9.414419e-01
<GCONST> 1.777534e+00
<STATE> 4
<MEAN> 1
 2.116729e+00
<VARIANCE> 1
 5.388360e+00
<GCONST> 3.522118e+00
<STATE> 5
<MEAN> 1
 -3.081481e-01
<VARIANCE> 1
 5.082362e-01
<GCONST> 1.161068e+00
<STATE> 6
<MEAN> 1
 -4.486788e+00
<VARIANCE> 1
 5.454496e+00
<GCONST> 3.534317e+00
<STATE> 7
<MEAN> 1
 3.456906e+00
<VARIANCE> 1
 1.216882e+01
<GCONST> 4.336754e+00
<TRANSP> 8
 0.000000e+00 1.000000e+00 0.000000e+00 0.000000e+00 0.000000e+00 0.000000e+00 0.000000e+00 0.000000e+00
 0.000000e+00 9.640554e-01 3.594459e-02 0.000000e+00 0.000000e+00 0.000000e+00 0.000000e+00 0.000000e+00
 0.000000e+00 0.000000e+00 9.298524e-01 7.014756e-02 0.000000e+00 0.000000e+00 0.000000e+00 0.000000e+00
 0.000000e+00 0.000000e+00 0.000000e+00 8.373809e-01 1.626191e-01 0.000000e+00 0.000000e+00 0.000000e+00
 0.000000e+00 0.000000e+00 0.000000e+00 0.000000e+00 9.536715e-01 4.632845e-02 0.000000e+00 0.000000e+00
 0.000000e+00 0.000000e+00 0.000000e+00 0.000000e+00 0.000000e+00 8.811364e-01 1.188637e-01 0.000000e+00
 0.000000e+00 0.000000e+00 0.000000e+00 0.000000e+00 0.000000e+00 0.000000e+00 7.712169e-01 2.287831e-01
 0.000000e+00 0.000000e+00 0.000000e+00 0.000000e+00 0.000000e+00 0.000000e+00 0.000000e+00 0.000000e+00
<ENDHMM>
~h "m"
<BEGINHMM>
<NUMSTATES> 8
<STATE> 2
<MEAN> 1
 -1.004899e+00
<VARIANCE> 1
 2.502749e+00
<GCONST> 2.755267e+00
<STATE> 3
<MEAN> 1
 6.351607e-01
<VARIANCE> 1
 1.131768e+00
<GCONST> 1.961658e+00
<STATE> 4
<MEAN> 1
 2.210848e+00
<VARIANCE> 1
 1.801332e+00
<GCONST> 2.426403e+00
<STATE> 5
<MEAN> 1
 2.889624e+00
<VARIANCE> 1
 2.614500e+00
<GCONST> 2.798950e+00
<STATE> 6
<MEAN> 1
 9.652730e+00
<VARIANCE> 1
 1.362623e+01
<GCONST> 4.449874e+00
<STATE> 7
<MEAN> 1
 5.348193e+00
<VARIANCE> 1
 2.841675e+00
<GCONST> 2.882271e+00
<TRANSP> 8
 0.000000e+00 1.000000e+00 0.000000e+00 0.000000e+00 0.000000e+00 0.000000e+00 0.000000e+00 0.000000e+00
 0.000000e+00 5.901823e-01 4.098177e-01 0.000000e+00 0.000000e+00 0.000000e+00 0.000000e+00 0.000000e+00
 0.000000e+00 0.000000e+00 9.438477e-01 5.615225e-02 0.000000e+00 0.000000e+00 0.000000e+00 0.000000e+00
 0.000000e+00 0.000000e+00 0.000000e+00 0.000000e+00 1.000000e+00 0.000000e+00 0.000000e+00 0.000000e+00
 0.000000e+00 0.000000e+00 0.000000e+00 0.000000e+00 0.000000e+00 1.000000e+00 0.000000e+00 0.000000e+00
 0.000000e+00 0.000000e+00 0.000000e+00 0.000000e+00 0.000000e+00 8.688233e-01 1.311767e-01 0.000000e+00
 0.000000e+00 0.000000e+00 0.000000e+00 0.000000e+00 0.000000e+00 0.000000e+00 9.271249e-01 7.287504e-02
 0.000000e+00 0.000000e+00 0.000000e+00 0.000000e+00 0.000000e+00 0.000000e+00 0.000000e+00 0.000000e+00
<ENDHMM>
~h "sil"
<BEGINHMM>
<NUMSTATES> 8
<STATE> 2
<MEAN> 1
 7.810875e-01
<VARIANCE> 1
 8.307148e-01
<GCONST> 1.652408e+00
<STATE> 3
<MEAN> 1
 3.487128e+00
<VARIANCE> 1
 1.414564e+00
<GCONST> 2.184699e+00
<STATE> 4
<MEAN> 1
 5.954632e+00
<VARIANCE> 1
 2.430854e+00
<GCONST> 2.726120e+00
<STATE> 5
<MEAN> 1
 8.554017e+00
<VARIANCE> 1
 4.289207e+00
<GCONST> 3.293979e+00
<STATE> 6
<MEAN> 1
 5.856825e+00
<VARIANCE> 1
 2.395548e+01
<GCONST> 5.014074e+00
<STATE> 7
<MEAN> 1
 1.142742e+01
<VARIANCE> 1
 9.203277e+00
<GCONST> 4.057437e+00
<TRANSP> 8
 0.000000e+00 1.000000e+00 0.000000e+00 0.000000e+00 0.000000e+00 0.000000e+00 0.000000e+00 0.000000e+00
 0.000000e+00 9.434180e-01 5.658195e-02 0.000000e+00 0.000000e+00 0.000000e+00 0.000000e+00 0.000000e+00
 0.000000e+00 0.000000e+00 9.089403e-01 9.105967e-02 0.000000e+00 0.000000e+00 0.000000e+00 0.000000e+00
 0.000000e+00 0.000000e+00 0.000000e+00 9.037196e-01 9.628038e-02 0.000000e+00 0.000000e+00 0.000000e+00
 0.000000e+00 0.000000e+00 0.000000e+00 0.000000e+00 9.079421e-01 9.205785e-02 0.000000e+00 0.000000e+00
 0.000000e+00 0.000000e+00 0.000000e+00 0.000000e+00 0.000000e+00 0.000000e+00 1.000000e+00 0.000000e+00
 0.000000e+00 0.000000e+00 0.000000e+00 0.000000e+00 0.000000e+00 0.000000e+00 8.988758e-01 1.011243e-01
 0.000000e+00 0.000000e+00 0.000000e+00 0.000000e+00 0.000000e+00 0.000000e+00 0.000000e+00 0.000000e+00
<ENDHMM>
