~o
<STREAMINFO> 1 1
<VECSIZE> 1<NULLD><USER><DIAGC>
~h "a"
<BEGINHMM>
<NUMSTATES> 8
<STATE> 2
<MEAN> 1
 -9.659162e-01
<VARIANCE> 1
 3.878739e-01
<GCONST> 8.908021e-01
<STATE> 3
<MEAN> 1
 8.758974e-02
<VARIANCE> 1
 2.189144e-01
<GCONST> 3.188027e-01
<STATE> 4
<MEAN> 1
 1.038579e-01
<VARIANCE> 1
 4.415747e-02
<GCONST> -1.282116e+00
<STATE> 5
<MEAN> 1
 1.524250e+00
<VARIANCE> 1
 3.129157e-01
<GCONST> 6.760554e-01
<STATE> 6
<MEAN> 1
 3.382819e+00
<VARIANCE> 1
 4.349002e-01
<GCONST> 1.005238e+00
<STATE> 7
<MEAN> 1
 7.555203e+00
<VARIANCE> 1
 2.946670e+00
<GCONST> 2.918553e+00
<TRANSP> 8
 0.000000e+00 1.000000e+00 0.000000e+00 0.000000e+00 0.000000e+00 0.000000e+00 0.000000e+00 0.000000e+00
 0.000000e+00 9.149308e-01 8.506915e-02 0.000000e+00 0.000000e+00 0.000000e+00 0.000000e+00 0.000000e+00
 0.000000e+00 0.000000e+00 1.226902e-01 8.773097e-01 0.000000e+00 0.000000e+00 0.000000e+00 0.000000e+00
 0.000000e+00 0.000000e+00 0.000000e+00 9.722991e-01 2.770089e-02 0.000000e+00 0.000000e+00 0.000000e+00
 0.000000e+00 0.000000e+00 0.000000e+00 0.000000e+00 9.808229e-01 1.917704e-02 0.000000e+00 0.000000e+00
 0.000000e+00 0.000000e+00 0.000000e+00 0.000000e+00 0.000000e+00 9.787257e-01 2.127424e-02 0.000000e+00
 0.000000e+00 0.000000e+00 0.000000e+00 0.000000e+00 0.000000e+00 0.000000e+00 9.887740e-01 1.122596e-02
 0.000000e+00 0.000000e+00 0.000000e+00 0.000000e+00 0.000000e+00 0.000000e+00 0.000000e+00 0.000000e+00
<ENDHMM>
~h "e"
<BEGINHMM>
<NUMSTATES> 8
<STATE> 2
<MEAN> 1
 3.015692e+00
<VARIANCE> 1
 2.046571e+00
<GCONST> 2.554043e+00
<STATE> 3
<MEAN> 1
 8.035378e+00
<VARIANCE> 1
 1.031720e+01
<GCONST> 4.171690e+00
<STATE> 4
<MEAN> 1
 -8.880245e-03
<VARIANCE> 1
 7.771026e-02
<GCONST> -7.168911e-01
<STATE> 5
<MEAN> 1
 -7.957997e-01
<VARIANCE> 1
 9.922403e-02
<GCONST> -4.724979e-01
<STATE> 6
<MEAN> 1
 -2.022417e+00
<VARIANCE> 1
 2.811280e-01
<GCONST> 5.689318e-01
<STATE> 7
<MEAN> 1
 -4.241474e+00
<VARIANCE> 1
 5.140423e-01
<GCONST> 1.172427e+00
<TRANSP> 8
 0.000000e+00 1.000000e+00 0.000000e+00 0.000000e+00 0.000000e+00 0.000000e+00 0.000000e+00 0.000000e+00
 0.000000e+00 9.790987e-01 2.090126e-02 0.000000e+00 0.000000e+00 0.000000e+00 0.000000e+00 0.000000e+00
 0.000000e+00 0.000000e+00 9.671366e-01 3.286343e-02 0.000000e+00 0.000000e+00 0.000000e+00 0.000000e+00
 0.000000e+00 0.000000e+00 0.000000e+00 9.831585e-01 1.684156e-02 0.000000e+00 0.000000e+00 0.000000e+00
 0.000000e+00 0.000000e+00 0.000000e+00 0.000000e+00 9.278868e-01 7.211327e-02 0.000000e+00 0.000000e+00
 0.000000e+00 0.000000e+00 0.000000e+00 0.000000e+00 0.000000e+00 9.775794e-01 2.242068e-02 0.000000e+00
 0.000000e+00 0.000000e+00 0.000000e+00 0.000000e+00 0.000000e+00 0.000000e+00 9.748297e-01 2.517029e-02
 0.000000e+00 0.000000e+00 0.000000e+00 0.000000e+00 0.000000e+00 0.000000e+00 0.000000e+00 0.000000e+00
<ENDHMM>
~h "i"
<BEGINHMM>
<NUMSTATES> 8
<STATE> 2
<MEAN> 1
 -5.393904e+00
<VARIANCE> 1
 7.278543e-01
<GCONST> 1.520223e+00
<STATE> 3
<MEAN> 1
 -4.886068e+00
<VARIANCE> 1
 1.771531e+00
<GCONST> 2.409721e+00
<STATE> 4
<MEAN> 1
 -7.930775e+00
<VARIANCE> 1
 1.218696e+00
<GCONST> 2.035659e+00
<STATE> 5
<MEAN> 1
 -5.066328e+00
<VARIANCE> 1
 2.364297e+00
<GCONST> 2.698358e+00
<STATE> 6
<MEAN> 1
 -6.085609e+00
<VARIANCE> 1
 6.341534e-01
<GCONST> 1.382413e+00
<STATE> 7
<MEAN> 1
 -3.481576e+00
<VARIANCE> 1
 4.625553e-01
<GCONST> 1.066888e+00
<TRANSP> 8
 0.000000e+00 1.000000e+00 0.000000e+00 0.000000e+00 0.000000e+00 0.000000e+00 0.000000e+00 0.000000e+00
 0.000000e+00 6.917171e-01 3.082828e-01 0.000000e+00 0.000000e+00 0.000000e+00 0.000000e+00 0.000000e+00
 0.000000e+00 0.000000e+00 0.000000e+00 1.000000e+00 0.000000e+00 0.000000e+00 0.000000e+00 0.000000e+00
 0.000000e+00 0.000000e+00 0.000000e+00 9.837320e-01 1.626795e-02 0.000000e+00 0.000000e+00 0.000000e+00
 0.000000e+00 0.000000e+00 0.000000e+00 0.000000e+00 4.492504e-01 5.507496e-01 0.000000e+00 0.000000e+00
 0.000000e+00 0.000000e+00 0.000000e+00 0.000000e+00 0.000000e+00 9.799676e-01 2.003243e-02 0.000000e+00
 0.000000e+00 0.000000e+00 0.000000e+00 0.000000e+00 0.000000e+00 0.000000e+00 9.664888e-01 3.351115e-02
 0.000000e+00 0.000000e+00 0.000000e+00 0.000000e+00 0.000000e+00 0.000000e+00 0.000000e+00 0.000000e+00
<ENDHMM>
~h "m"
<BEGINHMM>
<NUMSTATES> 8
<STATE> 2
<MEAN> 1
 -1.469023e+00
<VARIANCE> 1
 2.795879e-01
<GCONST> 5.634384e-01
<STATE> 3
<MEAN> 1
 -6.228623e-03
<VARIANCE> 1
 1.229527e-02
<GCONST> -2.560664e+00
<STATE> 4
<MEAN> 1
 -2.761718e-01
<VARIANCE> 1
 9.747022e-02
<GCONST> -4.903314e-01
<STATE> 5
<MEAN> 1
 -2.211821e-01
<VARIANCE> 1
 7.979108e-02
<GCONST> -6.904666e-01
<STATE> 6
<MEAN> 1
 -1.657176e-01
<VARIANCE> 1
 6.674954e-02
<GCONST> -8.689308e-01
<STATE> 7
<MEAN> 1
 -3.958189e-01
<VARIANCE> 1
 6.337764e-02
<GCONST> -9.207671e-01
<TRANSP> 8
 0.000000e+00 1.000000e+00 0.000000e+00 0.000000e+00 0.000000e+00 0.000000e+00 0.000000e+00 0.000000e+00
 0.000000e+00 9.586122e-01 4.138772e-02 0.000000e+00 0.000000e+00 0.000000e+00 0.000000e+00 0.000000e+00
 0.000000e+00 0.000000e+00 9.789065e-01 2.109349e-02 0.000000e+00 0.000000e+00 0.000000e+00 0.000000e+00
 0.000000e+00 0.000000e+00 0.000000e+00 0.000000e+00 1.000000e+00 0.000000e+00 0.000000e+00 0.000000e+00
 0.000000e+00 0.000000e+00 0.000000e+00 0.000000e+00 0.000000e+00 1.000000e+00 0.000000e+00 0.000000e+00
 0.000000e+00 0.000000e+00 0.000000e+00 0.000000e+00 0.000000e+00 0.000000e+00 1.000000e+00 0.000000e+00
 0.000000e+00 0.000000e+00 0.000000e+00 0.000000e+00 0.000000e+00 0.000000e+00 7.454390e-01 2.545610e-01
 0.000000e+00 0.000000e+00 0.000000e+00 0.000000e+00 0.000000e+00 0.000000e+00 0.000000e+00 0.000000e+00
<ENDHMM>
~h "sil"
<BEGINHMM>
<NUMSTATES> 8
<STATE> 2
<MEAN> 1
 2.991311e-01
<VARIANCE> 1
 2.164534e+00
<GCONST> 2.610082e+00
<STATE> 3
<MEAN> 1
 -3.321974e+00
<VARIANCE> 1
 1.043922e+00
<GCONST> 1.880862e+00
<STATE> 4
<MEAN> 1
 3.265052e-01
<VARIANCE> 1
 4.230308e+00
<GCONST> 3.280152e+00
<STATE> 5
<MEAN> 1
 9.232918e+00
<VARIANCE> 1
 1.017890e+01
<GCONST> 4.158194e+00
<STATE> 6
<MEAN> 1
 1.572288e+00
<VARIANCE> 1
 1.099164e+00
<GCONST> 1.932427e+00
<STATE> 7
<MEAN> 1
 1.715303e-01
<VARIANCE> 1
 1.432284e+00
<GCONST> 2.197148e+00
<TRANSP> 8
 0.000000e+00 1.000000e+00 0.000000e+00 0.000000e+00 0.000000e+00 0.000000e+00 0.000000e+00 0.000000e+00
 0.000000e+00 9.617928e-01 3.820718e-02 0.000000e+00 0.000000e+00 0.000000e+00 0.000000e+00 0.000000e+00
 0.000000e+00 0.000000e+00 9.787852e-01 2.121476e-02 0.000000e+00 0.000000e+00 0.000000e+00 0.000000e+00
 0.000000e+00 0.000000e+00 0.000000e+00 0.000000e+00 1.000000e+00 0.000000e+00 0.000000e+00 0.000000e+00
 0.000000e+00 0.000000e+00 0.000000e+00 0.000000e+00 9.410640e-01 5.893601e-02 0.000000e+00 0.000000e+00
 0.000000e+00 0.000000e+00 0.000000e+00 0.000000e+00 0.000000e+00 9.328145e-01 6.718558e-02 0.000000e+00
 0.000000e+00 0.000000e+00 0.000000e+00 0.000000e+00 0.000000e+00 0.000000e+00 0.000000e+00 1.000000e+00
 0.000000e+00 0.000000e+00 0.000000e+00 0.000000e+00 0.000000e+00 0.000000e+00 0.000000e+00 0.000000e+00
<ENDHMM>
