~o
<STREAMINFO> 1 1
<VECSIZE> 1<NULLD><USER><DIAGC>
~h "a"
<BEGINHMM>
<NUMSTATES> 8
<STATE> 2
<MEAN> 1
 3.430168e+00
<VARIANCE> 1
 2.346430e+00
<GCONST> 2.690772e+00
<STATE> 3
<MEAN> 1
 9.305434e+00
<VARIANCE> 1
 2.788731e+00
<GCONST> 2.863463e+00
<STATE> 4
<MEAN> 1
 5.427216e+00
<VARIANCE> 1
 1.620698e+00
<GCONST> 2.320734e+00
<STATE> 5
<MEAN> 1
 2.163903e+00
<VARIANCE> 1
 2.643008e-01
<GCONST> 5.072094e-01
<STATE> 6
<MEAN> 1
 3.304129e+00
<VARIANCE> 1
 8.869196e-01
<GCONST> 1.717876e+00
<STATE> 7
<MEAN> 1
 8.038899e-01
<VARIANCE> 1
 1.437142e-01
<GCONST> -1.020517e-01
<TRANSP> 8
 0.000000e+00 1.000000e+00 0.000000e+00 0.000000e+00 0.000000e+00 0.000000e+00 0.000000e+00 0.000000e+00
 0.000000e+00 9.517136e-01 4.828634e-02 0.000000e+00 0.000000e+00 0.000000e+00 0.000000e+00 0.000000e+00
 0.000000e+00 0.000000e+00 9.827331e-01 1.726697e-02 0.000000e+00 0.000000e+00 0.000000e+00 0.000000e+00
 0.000000e+00 0.000000e+00 0.000000e+00 9.729103e-01 2.708967e-02 0.000000e+00 0.000000e+00 0.000000e+00
 0.000000e+00 0.000000e+00 0.000000e+00 0.000000e+00 9.531857e-01 4.681420e-02 0.000000e+00 0.000000e+00
 0.000000e+00 0.000000e+00 0.000000e+00 0.000000e+00 0.000000e+00 9.193968e-01 8.060315e-02 0.000000e+00
 0.000000e+00 0.000000e+00 0.000000e+00 0.000000e+00 0.000000e+00 0.000000e+00 9.306247e-01 6.937532e-02
 0.000000e+00 0.000000e+00 0.000000e+00 0.000000e+00 0.000000e+00 0.000000e+00 0.000000e+00 0.000000e+00
<ENDHMM>
~h "e"
<BEGINHMM>
<NUMSTATES> 8
<STATE> 2
<MEAN> 1
 -1.746741e-03
<VARIANCE> 1
 1.000000e-02
<GCONST> -2.767293e+00
<STATE> 3
<MEAN> 1
 5.581572e+00
<VARIANCE> 1
 1.674366e+01
<GCONST> 4.655896e+00
<STATE> 4
<MEAN> 1
 -9.150151e-01
<VARIANCE> 1
 2.078184e-01
<GCONST> 2.667866e-01
<STATE> 5
<MEAN> 1
 -1.784838e+00
<VARIANCE> 1
 3.681291e-02
<GCONST> -1.464030e+00
<STATE> 6
<MEAN> 1
 -2.985126e+00
<VARIANCE> 1
 6.185134e-01
<GCONST> 1.357441e+00
<STATE> 7
<MEAN> 1
 -5.958972e+00
<VARIANCE> 1
 7.735578e-01
<GCONST> 1.581122e+00
<TRANSP> 8
 0.000000e+00 1.000000e+00 0.000000e+00 0.000000e+00 0.000000e+00 0.000000e+00 0.000000e+00 0.000000e+00
 0.000000e+00 9.930939e-01 6.906128e-03 0.000000e+00 0.000000e+00 0.000000e+00 0.000000e+00 0.000000e+00
 0.000000e+00 0.000000e+00 8.757983e-01 1.242016e-01 0.000000e+00 0.000000e+00 0.000000e+00 0.000000e+00
 0.000000e+00 0.000000e+00 0.000000e+00 9.677885e-01 3.221150e-02 0.000000e+00 0.000000e+00 0.000000e+00
 0.000000e+00 0.000000e+00 0.000000e+00 0.000000e+00 0.000000e+00 1.000000e+00 0.000000e+00 0.000000e+00
 0.000000e+00 0.000000e+00 0.000000e+00 0.000000e+00 0.000000e+00 9.700574e-01 2.994261e-02 0.000000e+00
 0.000000e+00 0.000000e+00 0.000000e+00 0.000000e+00 0.000000e+00 0.000000e+00 9.718809e-01 2.811915e-02
 0.000000e+00 0.000000e+00 0.000000e+00 0.000000e+00 0.000000e+00 0.000000e+00 0.000000e+00 0.000000e+00
<ENDHMM>
~h "i"
<BEGINHMM>
<NUMSTATES> 8
<STATE> 2
<MEAN> 1
 -6.575791e+00
<VARIANCE> 1
 5.893912e+00
<GCONST> 3.611797e+00
<STATE> 3
<MEAN> 1
 -9.791089e+00
<VARIANCE> 1
 1.072397e+00
<GCONST> 1.907773e+00
<STATE> 4
<MEAN> 1
 -7.419470e+00
<VARIANCE> 1
 8.465725e-01
<GCONST> 1.671318e+00
<STATE> 5
<MEAN> 1
 -4.349157e+00
<VARIANCE> 1
 4.817290e-01
<GCONST> 1.107503e+00
<STATE> 6
<MEAN> 1
 -2.239212e+00
<VARIANCE> 1
 2.478698e-01
<GCONST> 4.430252e-01
<STATE> 7
<MEAN> 1
 -9.034575e-01
<VARIANCE> 1
 7.159723e-02
<GCONST> -7.988219e-01
<TRANSP> 8
 0.000000e+00 1.000000e+00 0.000000e+00 0.000000e+00 0.000000e+00 0.000000e+00 0.000000e+00 0.000000e+00
 0.000000e+00 8.199795e-01 1.800205e-01 0.000000e+00 0.000000e+00 0.000000e+00 0.000000e+00 0.000000e+00
 0.000000e+00 0.000000e+00 9.838142e-01 1.618578e-02 0.000000e+00 0.000000e+00 0.000000e+00 0.000000e+00
 0.000000e+00 0.000000e+00 0.000000e+00 9.769596e-01 2.304044e-02 0.000000e+00 0.000000e+00 0.000000e+00
 0.000000e+00 0.000000e+00 0.000000e+00 0.000000e+00 9.507515e-01 4.924847e-02 0.000000e+00 0.000000e+00
 0.000000e+00 0.000000e+00 0.000000e+00 0.000000e+00 0.000000e+00 9.374446e-01 6.255545e-02 0.000000e+00
 0.000000e+00 0.000000e+00 0.000000e+00 0.000000e+00 0.000000e+00 0.000000e+00 8.715662e-01 1.284338e-01
 0.000000e+00 0.000000e+00 0.000000e+00 0.000000e+00 0.000000e+00 0.000000e+00 0.000000e+00 0.000000e+00
<ENDHMM>
~h "m"
<BEGINHMM>
<NUMSTATES> 8
<STATE> 2
<MEAN> 1
 -3.020402e-01
<VARIANCE> 1
 1.173536e-02
<GCONST> -2.607272e+00
<STATE> 3
<MEAN> 1
 1.933443e-03
<VARIANCE> 1
 1.000000e-02
<GCONST> -2.767293e+00
<STATE> 4
<MEAN> 1
 8.211738e-01
<VARIANCE> 1
 1.707836e-01
<GCONST> 7.051897e-02
<STATE> 5
<MEAN> 1
 1.742500e+00
<VARIANCE> 1
 1.078452e-01
<GCONST> -3.891816e-01
<STATE> 6
<MEAN> 1
 3.056762e+00
<VARIANCE> 1
 4.214295e-01
<GCONST> 9.737742e-01
<STATE> 7
<MEAN> 1
 6.527833e+00
<VARIANCE> 1
 2.268772e+00
<GCONST> 2.657115e+00
<TRANSP> 8
 0.000000e+00 1.000000e+00 0.000000e+00 0.000000e+00 0.000000e+00 0.000000e+00 0.000000e+00 0.000000e+00
 0.000000e+00 6.649559e-01 3.350441e-01 0.000000e+00 0.000000e+00 0.000000e+00 0.000000e+00 0.000000e+00
 0.000000e+00 0.000000e+00 9.931989e-01 6.801094e-03 0.000000e+00 0.000000e+00 0.000000e+00 0.000000e+00
 0.000000e+00 0.000000e+00 0.000000e+00 9.587487e-01 4.125127e-02 0.000000e+00 0.000000e+00 0.000000e+00
 0.000000e+00 0.000000e+00 0.000000e+00 0.000000e+00 8.948091e-01 1.051909e-01 0.000000e+00 0.000000e+00
 0.000000e+00 0.000000e+00 0.000000e+00 0.000000e+00 0.000000e+00 9.561051e-01 4.389497e-02 0.000000e+00
 0.000000e+00 0.000000e+00 0.000000e+00 0.000000e+00 0.000000e+00 0.000000e+00 9.594126e-01 4.058738e-02
 0.000000e+00 0.000000e+00 0.000000e+00 0.000000e+00 0.000000e+00 0.000000e+00 0.000000e+00 0.000000e+00
<ENDHMM>
~h "sil"
<BEGINHMM>
<NUMSTATES> 8
<STATE> 2
<MEAN> 1
 -2.900907e+00
<VARIANCE> 1
 3.023627e+00
<GCONST> 2.944334e+00
<STATE> 3
<MEAN> 1
 3.061595e+00
<VARIANCE> 1
 1.581370e+01
<GCONST> 4.598753e+00
<STATE> 4
<MEAN> 1
 1.072597e+01
<VARIANCE> 1
 4.595232e+00
<GCONST> 3.362896e+00
<STATE> 5
<MEAN> 1
 6.129874e+00
<VARIANCE> 1
 4.097661e+00
<GCONST> 3.248293e+00
<STATE> 6
<MEAN> 1
 2.609676e+00
<VARIANCE> 1
 4.206756e+00
<GCONST> 3.274569e+00
<STATE> 7
<MEAN> 1
 1.244445e-01
<VARIANCE> 1
 9.173717e-01
<GCONST> 1.751634e+00
<TRANSP> 8
 0.000000e+00 1.000000e+00 0.000000e+00 0.000000e+00 0.000000e+00 0.000000e+00 0.000000e+00 0.000000e+00
 0.000000e+00 9.689006e-01 3.109942e-02 0.000000e+00 0.000000e+00 0.000000e+00 0.000000e+00 0.000000e+00
 0.000000e+00 0.000000e+00 0.000000e+00 1.000000e+00 0.000000e+00 0.000000e+00 0.000000e+00 0.000000e+00
 0.000000e+00 0.000000e+00 0.000000e+00 9.775524e-01 2.244759e-02 0.000000e+00 0.000000e+00 0.000000e+00
 0.000000e+00 0.000000e+00 0.000000e+00 0.000000e+00 9.098920e-01 9.010798e-02 0.000000e+00 0.000000e+00
 0.000000e+00 0.000000e+00 0.000000e+00 0.000000e+00 0.000000e+00 5.790145e-01 4.209855e-01 0.000000e+00
 0.000000e+00 0.000000e+00 0.000000e+00 0.000000e+00 0.000000e+00 0.000000e+00 9.643694e-01 3.563059e-02
 0.000000e+00 0.000000e+00 0.000000e+00 0.000000e+00 0.000000e+00 0.000000e+00 0.000000e+00 0.000000e+00
<ENDHMM>
