~o
<STREAMINFO> 1 1
<VECSIZE> 1<NULLD><USER><DIAGC>
~h "m"
<BEGINHMM>
<NUMSTATES> 8
<STATE> 2
<MEAN> 1
 -1.991693e+00
<VARIANCE> 1
 9.242142e+00
<GCONST> 4.061651e+00
<STATE> 3
<MEAN> 1
 2.561295e+00
<VARIANCE> 1
 5.787340e+00
<GCONST> 3.593550e+00
<STATE> 4
<MEAN> 1
 4.180472e+00
<VARIANCE> 1
 1.488196e+01
<GCONST> 4.538027e+00
<STATE> 5
<MEAN> 1
 4.646626e+00
<VARIANCE> 1
 1.644216e+01
<GCONST> 4.637726e+00
<STATE> 6
<MEAN> 1
 1.196150e+01
<VARIANCE> 1
 2.785061e+01
<GCONST> 5.164732e+00
<STATE> 7
<MEAN> 1
 8.430490e+00
<VARIANCE> 1
 8.162990e+00
<GCONST> 3.937488e+00
<TRANSP> 8
 0.000000e+00 1.000000e+00 0.000000e+00 0.000000e+00 0.000000e+00 0.000000e+00 0.000000e+00 0.000000e+00
 0.000000e+00 9.630696e-01 3.693046e-02 0.000000e+00 0.000000e+00 0.000000e+00 0.000000e+00 0.000000e+00
 0.000000e+00 0.000000e+00 9.452866e-01 5.471340e-02 0.000000e+00 0.000000e+00 0.000000e+00 0.000000e+00
 0.000000e+00 0.000000e+00 0.000000e+00 0.000000e+00 1.000000e+00 0.000000e+00 0.000000e+00 0.000000e+00
 0.000000e+00 0.000000e+00 0.000000e+00 0.000000e+00 0.000000e+00 1.000000e+00 0.000000e+00 0.000000e+00
 0.000000e+00 0.000000e+00 0.000000e+00 0.000000e+00 0.000000e+00 9.341693e-01 6.583073e-02 0.000000e+00
 0.000000e+00 0.000000e+00 0.000000e+00 0.000000e+00 0.000000e+00 0.000000e+00 9.270142e-01 7.298579e-02
 0.000000e+00 0.000000e+00 0.000000e+00 0.000000e+00 0.000000e+00 0.000000e+00 0.000000e+00 0.000000e+00
<ENDHMM>
