~o
<STREAMINFO> 1 26
<VECSIZE> 26<NULLD><MFCC_E_D><DIAGC>
~h "S"
<BEGINHMM>
<NUMSTATES> 5
<STATE> 2
<MEAN> 26
 -1.315608e+01 -6.934283e+00 -9.495336e+00 -9.694171e+00 -1.910308e+00 -1.724187e-01 -3.775247e+00 1.922297e+00 2.772973e+00 -1.177893e-01 -6.290562e+00 -3.203680e+00 1.681426e-01 1.050078e-01 -1.162178e-01 -4.380433e-01 2.836713e-01 2.145954e-01 1.049124e+00 2.194840e-02 -1.432968e-01 -4.153704e-01 1.252676e-01 1.230292e-01 1.344023e-01 -3.529361e-02
<VARIANCE> 26
 2.862013e+01 3.228572e+01 1.914546e+01 3.225183e+01 2.336682e+01 3.972031e+01 2.819678e+01 2.340324e+01 1.327346e+01 1.256958e+01 2.677705e+01 5.855503e+01 5.000000e-02 3.512730e+00 2.048589e+00 1.401105e+00 2.293652e+00 1.679867e+00 3.165232e+00 2.260804e+00 3.184428e+00 9.130213e-01 1.472677e+00 2.697071e+00 3.156669e+00 5.000000e-02
<GCONST> 9.007121e+01
<STATE> 3
<MEAN> 26
 -1.655401e+01 -1.907825e+00 -7.337444e+00 -5.579755e+00 -2.785028e+00 1.440067e-02 -7.630988e-01 1.485936e+00 -1.328184e+00 -5.667779e-01 -1.802320e+00 -3.999873e-01 -6.582952e-02 1.045910e-01 2.663200e-01 1.754437e-01 1.027671e-01 -3.339693e-01 9.619159e-02 3.423924e-02 -8.667748e-02 -1.339347e-01 -1.113862e-01 4.126816e-02 -9.294966e-02 -3.674745e-03
<VARIANCE> 26
 8.036212e+00 5.678312e+00 1.115624e+01 1.902058e+01 1.666296e+01 1.278586e+01 1.306750e+01 1.807479e+01 1.204158e+01 1.448805e+01 1.781724e+01 1.155620e+01 5.000000e-02 4.879334e-01 5.393193e-01 9.112387e-01 1.410888e+00 1.199938e+00 1.121722e+00 1.291418e+00 1.957124e+00 1.359318e+00 1.442061e+00 1.823847e+00 1.401845e+00 5.000000e-02
<GCONST> 7.403910e+01
<STATE> 4
<MEAN> 26
 -1.228572e+01 -2.500594e+00 -2.698500e+00 -1.005773e+01 -8.760481e+00 1.208809e+00 -2.135751e+00 1.613134e+00 -3.870435e+00 -2.148690e+00 -2.383384e+00 -2.077898e+00 1.870944e-01 4.991352e-01 -5.392868e-01 5.350401e-01 -7.513064e-01 -8.264084e-02 5.021201e-01 -8.204975e-01 -1.211806e-02 -3.869841e-01 -5.259686e-01 -1.900099e-01 -2.367192e-01 7.392732e-02
<VARIANCE> 26
 4.307583e+01 2.505106e+01 5.715697e+01 2.595522e+01 4.177261e+01 3.644846e+01 2.871371e+01 3.818219e+01 3.951205e+01 1.981242e+01 1.379417e+01 2.141160e+01 7.337491e-02 5.335335e+00 2.571786e+00 4.169108e+00 2.568323e+00 2.993718e+00 1.862896e+00 2.250423e+00 3.340512e+00 2.426172e+00 1.833190e+00 1.486132e+00 2.043138e+00 5.000000e-02
<GCONST> 9.447077e+01
<TRANSP> 5
 0.000000e+00 1.000000e+00 0.000000e+00 0.000000e+00 0.000000e+00
 0.000000e+00 6.418251e-01 3.581749e-01 0.000000e+00 0.000000e+00
 0.000000e+00 0.000000e+00 8.881580e-01 1.118420e-01 0.000000e+00
 0.000000e+00 0.000000e+00 0.000000e+00 6.879274e-01 3.120726e-01
 0.000000e+00 0.000000e+00 0.000000e+00 0.000000e+00 0.000000e+00
<ENDHMM>
