~o
<STREAMINFO> 1 26
<VECSIZE> 26<NULLD><MFCC_E_D><DIAGC>
~h "S"
<BEGINHMM>
<NUMSTATES> 5
<STATE> 2
<MEAN> 26
 -1.278298e+01 -7.368010e+00 -9.771702e+00 -9.416287e+00 -1.757253e+00 9.499962e-01 -3.479062e+00 2.282384e+00 2.852529e+00 2.524276e-02 -6.466082e+00 -3.306989e+00 1.596935e-01 -9.719588e-02 -1.160336e-01 -4.327664e-01 2.908979e-01 2.880788e-01 1.055049e+00 2.072085e-01 -7.358699e-02 -5.078858e-01 8.523910e-02 8.267708e-02 2.340569e-01 -3.074653e-02
<VARIANCE> 26
 2.816337e+01 3.288129e+01 2.088137e+01 3.698629e+01 2.419439e+01 3.143073e+01 3.029167e+01 2.404385e+01 1.362673e+01 1.340228e+01 2.850791e+01 6.048313e+01 5.000000e-02 2.904329e+00 2.182099e+00 1.453604e+00 1.958268e+00 1.335191e+00 3.004554e+00 1.712773e+00 3.294218e+00 9.129146e-01 1.535209e+00 2.345831e+00 2.737182e+00 5.000000e-02
<GCONST> 8.936753e+01
<STATE> 3
<MEAN> 26
 -1.655752e+01 -1.972304e+00 -7.321550e+00 -5.608621e+00 -2.713399e+00 6.177525e-02 -7.608490e-01 1.578722e+00 -1.337576e+00 -5.370978e-01 -1.804785e+00 -3.466011e-01 -6.813470e-02 9.857190e-02 2.477752e-01 1.867400e-01 1.015222e-01 -3.345242e-01 9.723662e-02 2.508074e-02 -9.986311e-02 -1.287244e-01 -1.192857e-01 3.528504e-02 -1.079560e-01 -4.544171e-03
<VARIANCE> 26
 8.068134e+00 5.331160e+00 1.111554e+01 1.896495e+01 1.642155e+01 1.233533e+01 1.321686e+01 1.722847e+01 1.204536e+01 1.449008e+01 1.802558e+01 1.150885e+01 5.000000e-02 4.959115e-01 5.151491e-01 9.048913e-01 1.429055e+00 1.214679e+00 1.127761e+00 1.295228e+00 1.952960e+00 1.369048e+00 1.442086e+00 1.839413e+00 1.393910e+00 5.000000e-02
<GCONST> 7.389886e+01
<STATE> 4
<MEAN> 26
 -1.296096e+01 -1.921385e+00 -1.525823e+00 -9.413279e+00 -8.608518e+00 3.226544e-01 -1.468726e+00 2.029490e+00 -4.618720e+00 -2.094865e+00 -2.246412e+00 -2.146137e+00 1.461185e-01 4.488650e-01 -3.539506e-01 6.471094e-01 -6.123431e-01 -1.903004e-01 1.933354e-01 -6.690599e-01 4.406166e-02 -4.253922e-01 -5.036207e-01 -2.266131e-01 -2.133246e-01 6.708843e-02
<VARIANCE> 26
 2.810014e+01 2.211367e+01 5.280611e+01 2.029382e+01 3.525244e+01 2.668186e+01 2.552971e+01 4.874612e+01 4.348003e+01 1.668011e+01 1.209803e+01 2.207507e+01 5.727909e-02 4.706265e+00 2.699632e+00 2.382789e+00 2.292950e+00 2.983273e+00 1.251228e+00 2.304885e+00 3.091897e+00 2.487692e+00 1.508895e+00 1.421356e+00 1.919239e+00 5.000000e-02
<GCONST> 9.133252e+01
<TRANSP> 5
 0.000000e+00 1.000000e+00 0.000000e+00 0.000000e+00 0.000000e+00
 0.000000e+00 6.073643e-01 3.926357e-01 0.000000e+00 0.000000e+00
 0.000000e+00 0.000000e+00 8.868826e-01 1.131174e-01 0.000000e+00
 0.000000e+00 0.000000e+00 0.000000e+00 6.587228e-01 3.412772e-01
 0.000000e+00 0.000000e+00 0.000000e+00 0.000000e+00 0.000000e+00
<ENDHMM>
