~o
<STREAMINFO> 1 1
<VECSIZE> 1<NULLD><USER><DIAGC>
~h "e"
<BEGINHMM>
<NUMSTATES> 8
<STATE> 2
<MEAN> 1
 8.728152e+00
<VARIANCE> 1
 2.019475e+01
<GCONST> 4.843300e+00
<STATE> 3
<MEAN> 1
 -4.903936e-01
<VARIANCE> 1
 2.302562e+00
<GCONST> 2.671899e+00
<STATE> 4
<MEAN> 1
 -2.481184e+00
<VARIANCE> 1
 1.599863e+01
<GCONST> 4.610380e+00
<STATE> 5
<MEAN> 1
 -2.822834e+00
<VARIANCE> 1
 1.640947e+01
<GCONST> 4.635736e+00
<STATE> 6
<MEAN> 1
 -6.834951e+00
<VARIANCE> 1
 3.777613e+00
<GCONST> 3.166969e+00
<STATE> 7
<MEAN> 1
 -1.769939e+00
<VARIANCE> 1
 9.318201e+00
<GCONST> 4.069847e+00
<TRANSP> 8
 0.000000e+00 1.000000e+00 0.000000e+00 0.000000e+00 0.000000e+00 0.000000e+00 0.000000e+00 0.000000e+00
 0.000000e+00 9.423509e-01 5.764911e-02 0.000000e+00 0.000000e+00 0.000000e+00 0.000000e+00 0.000000e+00
 0.000000e+00 0.000000e+00 9.420326e-01 5.796738e-02 0.000000e+00 0.000000e+00 0.000000e+00 0.000000e+00
 0.000000e+00 0.000000e+00 0.000000e+00 0.000000e+00 1.000000e+00 0.000000e+00 0.000000e+00 0.000000e+00
 0.000000e+00 0.000000e+00 0.000000e+00 0.000000e+00 0.000000e+00 1.000000e+00 0.000000e+00 0.000000e+00
 0.000000e+00 0.000000e+00 0.000000e+00 0.000000e+00 0.000000e+00 9.652892e-01 3.471074e-02 0.000000e+00
 0.000000e+00 0.000000e+00 0.000000e+00 0.000000e+00 0.000000e+00 0.000000e+00 9.081511e-01 9.184890e-02
 0.000000e+00 0.000000e+00 0.000000e+00 0.000000e+00 0.000000e+00 0.000000e+00 0.000000e+00 0.000000e+00
<ENDHMM>
