~o
<STREAMINFO> 1 1
<VECSIZE> 1<NULLD><USER><DIAGC>
~h "sil"
<BEGINHMM>
<NUMSTATES> 8
<STATE> 2
<MEAN> 1
 1.120226e+00
<VARIANCE> 1
 9.549648e-01
<GCONST> 1.791796e+00
<STATE> 3
<MEAN> 1
 3.884882e+00
<VARIANCE> 1
 1.154613e+00
<GCONST> 1.981642e+00
<STATE> 4
<MEAN> 1
 6.360387e+00
<VARIANCE> 1
 7.634717e-01
<GCONST> 1.567998e+00
<STATE> 5
<MEAN> 1
 8.847751e+00
<VARIANCE> 1
 1.577866e+00
<GCONST> 2.293950e+00
<STATE> 6
<MEAN> 1
 8.327857e+00
<VARIANCE> 1
 1.093092e+01
<GCONST> 4.229473e+00
<STATE> 7
<MEAN> 1
 1.298713e+01
<VARIANCE> 1
 5.652163e+00
<GCONST> 3.569915e+00
<TRANSP> 8
 0.000000e+00 1.000000e+00 0.000000e+00 0.000000e+00 0.000000e+00 0.000000e+00 0.000000e+00 0.000000e+00
 0.000000e+00 9.387755e-01 6.122450e-02 0.000000e+00 0.000000e+00 0.000000e+00 0.000000e+00 0.000000e+00
 0.000000e+00 0.000000e+00 9.409006e-01 5.909944e-02 0.000000e+00 0.000000e+00 0.000000e+00 0.000000e+00
 0.000000e+00 0.000000e+00 0.000000e+00 9.146342e-01 8.536586e-02 0.000000e+00 0.000000e+00 0.000000e+00
 0.000000e+00 0.000000e+00 0.000000e+00 0.000000e+00 9.296089e-01 7.039105e-02 0.000000e+00 0.000000e+00
 0.000000e+00 0.000000e+00 0.000000e+00 0.000000e+00 0.000000e+00 0.000000e+00 1.000000e+00 0.000000e+00
 0.000000e+00 0.000000e+00 0.000000e+00 0.000000e+00 0.000000e+00 0.000000e+00 9.371884e-01 6.281157e-02
 0.000000e+00 0.000000e+00 0.000000e+00 0.000000e+00 0.000000e+00 0.000000e+00 0.000000e+00 0.000000e+00
<ENDHMM>
