~o
<STREAMINFO> 1 20
<VECSIZE> 20<NULLD><USER><DIAGC>
~h "a"
<BEGINHMM>
<NUMSTATES> 14
<STATE> 2
<MEAN> 20
 4.288667e+03 3.401449e+00 0.000000e+00 0.000000e+00 0.000000e+00 0.000000e+00 0.000000e+00 0.000000e+00 0.000000e+00 4.999593e+01 1.910848e+01 6.522876e+01 2.009582e+03 1.103178e+03 5.958991e+02 2.965742e+02 2.389911e+02 1.160207e+01 1.900843e+00 0.000000e+00
<VARIANCE> 20
 1.451833e+07 4.625478e+01 1.000000e-02 1.000000e-02 1.000000e-02 1.000000e-02 1.000000e-02 1.000000e-02 1.000000e-02 4.751064e+03 2.503039e+03 5.129165e+03 9.006316e+06 3.064972e+06 1.109162e+06 1.864954e+05 1.968713e+05 4.686381e+02 3.250282e+01 1.000000e-02
<GCONST> 1.239011e+02
<STATE> 3
<MEAN> 20
 3.882088e+03 8.723825e+00 0.000000e+00 0.000000e+00 0.000000e+00 0.000000e+00 0.000000e+00 -0.000000e+00 -0.000000e+00 7.839090e+00 6.497425e+01 4.252861e+01 1.248040e+03 8.027778e+02 5.749097e+02 7.776495e+02 3.512374e+02 3.626115e+01 2.726192e-01 0.000000e+00
<VARIANCE> 20
 9.033127e+06 4.153369e+02 1.000000e-02 1.000000e-02 1.000000e-02 1.000000e-02 1.000000e-02 1.000000e-02 1.000000e-02 2.865789e+02 3.838120e+04 6.760831e+03 6.708000e+06 1.158554e+06 1.213731e+06 1.141187e+06 2.914750e+05 8.576229e+03 7.435366e-01 1.000000e-02
<GCONST> 1.259753e+02
<STATE> 4
<MEAN> 20
 4.004875e+03 1.273128e+02 0.000000e+00 0.000000e+00 1.875005e-01 2.062506e+00 2.125006e+01 1.875005e+01 1.762505e+01 8.187527e+01 1.122503e+02 1.895630e+02 1.074933e+03 1.191690e+03 1.048127e+03 4.613120e+02 1.603750e+02 3.287509e+01 2.812508e+00 0.000000e+00
<VARIANCE> 20
 1.135042e+07 7.833926e+04 1.000000e-02 1.000000e-02 5.273450e-01 6.380877e+01 6.164079e+03 2.953070e+03 1.729988e+03 1.520988e+04 3.281962e+04 1.615405e+05 5.106220e+06 1.953609e+06 5.159730e+06 2.927066e+05 6.100965e+04 9.465384e+03 1.186527e+02 1.000000e-02
<GCONST> 1.930904e+02
<STATE> 5
<MEAN> 20
 7.611820e+03 9.210410e-01 0.000000e+00 0.000000e+00 0.000000e+00 0.000000e+00 0.000000e+00 0.000000e+00 0.000000e+00 2.254213e+02 5.263165e-02 1.830000e+02 5.127502e+03 1.947765e+03 5.426583e+02 3.486846e+01 2.236847e+00 7.894745e-02 0.000000e+00 0.000000e+00
<VARIANCE> 20
 7.774766e+06 9.441002e+00 1.000000e-02 1.000000e-02 1.000000e-02 1.000000e-02 1.000000e-02 1.000000e-02 1.000000e-02 1.157577e+05 4.986154e-02 5.670306e+04 1.230725e+07 1.654695e+06 9.622031e+05 4.730336e+03 3.028609e+01 7.271474e-02 1.000000e-02 1.000000e-02
<GCONST> 8.670184e+01
<STATE> 6
<MEAN> 20
 2.561956e+03 1.924788e+02 1.565215e+00 0.000000e+00 0.000000e+00 0.000000e+00 2.521746e+00 2.130441e+00 4.043476e+00 3.604352e+01 4.643484e+01 9.330438e+01 1.767391e+02 8.331736e+02 1.000913e+03 3.912614e+02 1.721304e+02 6.126105e+01 2.178267e+01 3.739141e+00
<VARIANCE> 20
 5.515281e+06 5.238498e+04 5.389783e+01 1.000000e-02 1.000000e-02 1.000000e-02 1.088586e+02 4.872224e+01 1.476936e+02 7.197009e+03 6.732688e+03 3.591921e+04 1.319572e+05 1.215498e+06 1.972636e+06 2.788182e+05 3.393735e+04 9.154382e+03 1.699043e+03 1.125409e+02
<GCONST> 1.796245e+02
<STATE> 7
<MEAN> 20
 3.174581e+03 8.420613e+01 0.000000e+00 0.000000e+00 2.129952e-01 0.000000e+00 0.000000e+00 1.349001e+00 1.633004e+00 1.696136e+01 3.578359e+01 5.062259e+01 2.177549e+02 6.557958e+02 1.111520e+03 9.153726e+02 2.787964e+02 1.111135e+01 2.186116e+00 0.000000e+00
<VARIANCE> 20
 2.591036e+06 1.884130e+04 1.000000e-02 1.000000e-02 3.096233e-01 1.000000e-02 1.000000e-02 8.759199e+00 1.685834e+01 5.832325e+02 3.538375e+03 2.323162e+03 1.634740e+05 5.322221e+05 1.319450e+06 1.112690e+06 1.558987e+05 3.805566e+02 5.742273e+01 1.000000e-02
<GCONST> 1.396096e+02
<STATE> 8
<MEAN> 20
 4.132222e+03 2.291837e+01 0.000000e+00 0.000000e+00 0.000000e+00 0.000000e+00 3.097076e-01 3.639064e+00 2.144724e+01 1.294658e+02 2.778841e+02 1.608910e+02 4.113695e+02 1.056059e+03 7.040242e+02 1.305208e+03 3.468162e+02 2.706070e+01 1.859866e+01 2.090525e+00
<VARIANCE> 20
 3.364273e+06 2.235637e+03 1.000000e-02 1.000000e-02 1.000000e-02 1.000000e-02 1.142912e+00 4.784703e+01 2.385222e+03 2.581289e+04 2.065217e+05 4.450678e+04 2.485894e+05 1.210973e+06 3.754763e+05 2.342270e+06 2.518638e+05 3.416947e+03 3.113435e+03 3.503996e+01
<GCONST> 1.720629e+02
<STATE> 9
<MEAN> 20
 2.300390e+03 1.587009e+02 4.000022e-01 0.000000e+00 8.000044e-01 0.000000e+00 1.900010e+01 8.290046e+01 1.440008e+01 3.910014e+01 1.777010e+02 8.110034e+01 8.724998e+02 9.093945e+02 4.302960e+02 2.570006e+01 3.390010e+01 6.710033e+01 1.800008e+01 0.000000e+00
<VARIANCE> 20
 4.234952e+06 6.528063e+04 1.440007e+00 1.000000e-02 5.760028e+00 1.000000e-02 1.876208e+03 1.813415e+04 4.972416e+02 1.499490e+03 8.039768e+04 8.472507e+03 1.352209e+06 6.951985e+05 2.535228e+05 1.736610e+03 2.428691e+03 1.885917e+04 1.207005e+03 1.000000e-02
<GCONST> 1.748147e+02
<STATE> 10
<MEAN> 20
 4.804448e+03 3.607299e+00 0.000000e+00 0.000000e+00 -0.000000e+00 0.000000e+00 0.000000e+00 0.000000e+00 9.218652e-01 7.664449e+01 6.533221e+00 1.115279e+02 8.674337e+02 1.755059e+03 1.943831e+03 1.741112e+02 1.586242e+01 1.126277e+01 0.000000e+00 0.000000e+00
<VARIANCE> 20
 4.179078e+06 3.116442e+02 1.000000e-02 1.000000e-02 1.000000e-02 1.000000e-02 1.000000e-02 1.000000e-02 6.244517e+00 5.819725e+04 7.135269e+02 1.076582e+05 2.214680e+06 2.242616e+06 2.009543e+06 6.143020e+04 1.877663e+03 3.015542e+03 1.000000e-02 1.000000e-02
<GCONST> 1.221860e+02
<STATE> 11
<MEAN> 20
 9.350776e+03 1.690603e+00 0.000000e+00 0.000000e+00 0.000000e+00 0.000000e+00 0.000000e+00 0.000000e+00 0.000000e+00 1.766925e+02 0.000000e+00 3.919011e+02 5.349431e+03 2.890962e+03 3.391700e+02 1.098359e+02 2.048703e+02 1.943798e+02 4.522762e+01 3.381429e+00
<VARIANCE> 20
 5.635452e+06 6.122670e+01 1.000000e-02 1.000000e-02 1.000000e-02 1.000000e-02 1.000000e-02 1.000000e-02 1.000000e-02 3.294260e+04 1.000000e-02 9.041216e+05 4.719274e+06 1.250971e+06 6.383007e+04 4.786354e+03 1.500358e+04 1.613141e+04 3.857962e+03 5.788000e+01
<GCONST> 1.242575e+02
<STATE> 12
<MEAN> 20
 1.152667e+04 9.393031e-01 0.000000e+00 0.000000e+00 0.000000e+00 0.000000e+00 0.000000e+00 0.000000e+00 3.926815e-01 2.189150e+02 9.659647e+00 7.883254e+02 6.502440e+03 3.327009e+03 3.641823e+02 1.548048e+02 3.539560e+02 1.939176e+02 4.733935e+01 5.285490e+00
<VARIANCE> 20
 2.731153e+06 1.038761e+01 1.000000e-02 1.000000e-02 1.000000e-02 1.000000e-02 1.000000e-02 1.000000e-02 1.805048e+00 3.365974e+04 9.090558e+02 7.877842e+05 4.595986e+06 2.315467e+06 3.140544e+04 2.831626e+03 2.529979e+04 3.007685e+03 2.639628e+03 1.000746e+02
<GCONST> 1.366223e+02
<STATE> 13
<MEAN> 20
 1.595197e+04 8.163109e+03 6.250104e+01 0.000000e+00 0.000000e+00 0.000000e+00 4.000066e+00 7.100117e+01 1.643755e+02 1.154626e+03 1.877809e+03 1.234228e+04 7.178839e+03 3.250354e+03 3.125519e+02 1.170976e+02 2.410539e+02 2.114410e+02 3.786314e+01 2.299165e+00
<VARIANCE> 20
 1.741898e+08 4.607572e+08 2.672388e+04 1.000000e-02 1.000000e-02 1.000000e-02 1.120016e+02 3.528750e+04 1.884809e+05 7.864514e+06 2.435644e+07 9.456883e+08 1.740256e+07 4.825373e+06 6.378779e+04 7.717022e+03 2.362967e+04 3.770882e+04 1.472331e+03 2.457516e+01
<GCONST> 2.361298e+02
<TRANSP> 14
 0.000000e+00 1.000000e+00 0.000000e+00 0.000000e+00 0.000000e+00 0.000000e+00 0.000000e+00 0.000000e+00 0.000000e+00 0.000000e+00 0.000000e+00 0.000000e+00 0.000000e+00 0.000000e+00
 0.000000e+00 1.996487e-01 8.003513e-01 0.000000e+00 0.000000e+00 0.000000e+00 0.000000e+00 0.000000e+00 0.000000e+00 0.000000e+00 0.000000e+00 0.000000e+00 0.000000e+00 0.000000e+00
 0.000000e+00 0.000000e+00 2.730184e-01 7.269816e-01 0.000000e+00 0.000000e+00 0.000000e+00 0.000000e+00 0.000000e+00 0.000000e+00 0.000000e+00 0.000000e+00 0.000000e+00 0.000000e+00
 0.000000e+00 0.000000e+00 0.000000e+00 5.000007e-01 4.999993e-01 0.000000e+00 0.000000e+00 0.000000e+00 0.000000e+00 0.000000e+00 0.000000e+00 0.000000e+00 0.000000e+00 0.000000e+00
 0.000000e+00 0.000000e+00 0.000000e+00 0.000000e+00 7.894744e-01 2.105256e-01 0.000000e+00 0.000000e+00 0.000000e+00 0.000000e+00 0.000000e+00 0.000000e+00 0.000000e+00 0.000000e+00
 0.000000e+00 0.000000e+00 0.000000e+00 0.000000e+00 0.000000e+00 6.521754e-01 3.478247e-01 0.000000e+00 0.000000e+00 0.000000e+00 0.000000e+00 0.000000e+00 0.000000e+00 0.000000e+00
 0.000000e+00 0.000000e+00 0.000000e+00 0.000000e+00 0.000000e+00 0.000000e+00 4.320013e-01 5.679988e-01 0.000000e+00 0.000000e+00 0.000000e+00 0.000000e+00 0.000000e+00 0.000000e+00
 0.000000e+00 0.000000e+00 0.000000e+00 0.000000e+00 0.000000e+00 0.000000e+00 0.000000e+00 3.805875e-01 6.194126e-01 0.000000e+00 0.000000e+00 0.000000e+00 0.000000e+00 0.000000e+00
 0.000000e+00 0.000000e+00 0.000000e+00 0.000000e+00 0.000000e+00 0.000000e+00 0.000000e+00 0.000000e+00 2.000011e-01 7.999989e-01 0.000000e+00 0.000000e+00 0.000000e+00 0.000000e+00
 0.000000e+00 0.000000e+00 0.000000e+00 0.000000e+00 0.000000e+00 0.000000e+00 0.000000e+00 0.000000e+00 0.000000e+00 6.793525e-01 3.206474e-01 0.000000e+00 0.000000e+00 0.000000e+00
 0.000000e+00 0.000000e+00 0.000000e+00 0.000000e+00 0.000000e+00 0.000000e+00 0.000000e+00 0.000000e+00 0.000000e+00 0.000000e+00 9.448148e-01 5.518520e-02 0.000000e+00 0.000000e+00
 0.000000e+00 0.000000e+00 0.000000e+00 0.000000e+00 0.000000e+00 0.000000e+00 0.000000e+00 0.000000e+00 0.000000e+00 0.000000e+00 0.000000e+00 3.739375e-01 6.260624e-01 0.000000e+00
 0.000000e+00 0.000000e+00 0.000000e+00 0.000000e+00 0.000000e+00 0.000000e+00 0.000000e+00 0.000000e+00 0.000000e+00 0.000000e+00 0.000000e+00 0.000000e+00 0.000000e+00 1.000000e+00
 0.000000e+00 0.000000e+00 0.000000e+00 0.000000e+00 0.000000e+00 0.000000e+00 0.000000e+00 0.000000e+00 0.000000e+00 0.000000e+00 0.000000e+00 0.000000e+00 0.000000e+00 0.000000e+00
<ENDHMM>
~h "b"
<BEGINHMM>
<NUMSTATES> 14
<STATE> 2
<MEAN> 20
 3.089155e+03 1.645846e+01 9.135021e+00 1.233420e+00 1.025281e+01 5.987120e+02 3.579012e+02 6.747047e+01 4.653089e+01 1.167096e+02 3.568398e+02 3.292949e+02 5.359661e+02 7.161340e+02 1.806161e+03 4.211911e+02 1.366013e+02 1.079243e+01 5.781655e-01 0.000000e+00
<VARIANCE> 20
 3.873511e+06 7.474241e+02 8.539131e+02 1.921554e+01 6.821877e+02 7.196614e+05 1.750023e+05 3.661809e+03 7.896068e+02 5.072402e+03 3.025636e+05 1.757460e+05 1.876449e+06 4.565539e+05 1.150847e+06 1.650912e+05 7.335003e+04 7.642627e+02 3.867061e+00 1.000000e-02
<GCONST> 2.164753e+02
<STATE> 3
<MEAN> 20
 5.540305e+03 1.105254e+00 0.000000e+00 0.000000e+00 2.105279e-01 4.789508e+01 1.193165e+02 2.321051e+01 1.436841e+01 4.494643e+01 8.142162e+01 2.101494e+02 4.562885e+02 1.296426e+03 3.470754e+03 2.763173e+02 -9.647480e-37 -0.000000e+00 0.000000e+00 0.000000e+00
<VARIANCE> 20
 6.831050e+06 7.252087e+00 1.000000e-02 1.000000e-02 7.977896e-01 2.012613e+04 1.254362e+05 1.100270e+03 4.378111e+02 3.952007e+03 1.007166e+05 2.631398e+05 2.508626e+06 1.755033e+06 3.227689e+06 1.335121e+05 1.000000e-02 1.000000e-02 1.000000e-02 1.000000e-02
<GCONST> 1.495383e+02
<STATE> 4
<MEAN> 20
 4.056126e+03 1.600016e+01 -3.298616e-37 -3.298616e-37 3.333353e-01 4.918754e+02 1.963761e+02 6.566712e+01 6.475050e+01 1.874178e+02 5.854214e+01 3.493317e+02 1.088280e+03 1.193759e+03 1.858509e+03 4.200414e+02 1.070000e+02 3.083344e+00 -0.000000e+00 -0.000000e+00
<VARIANCE> 20
 6.371256e+06 1.779266e+03 1.000000e-02 1.000000e-02 1.055565e+00 3.632328e+05 4.621196e+04 6.039100e+03 5.461309e+03 4.300078e+04 6.664138e+03 1.348452e+05 3.874441e+06 9.731947e+05 1.924147e+06 2.061686e+05 4.008462e+04 3.932670e+01 1.000000e-02 1.000000e-02
<GCONST> 1.836182e+02
<STATE> 5
<MEAN> 20
 7.798785e+03 1.720567e+02 6.666711e+00 1.777790e+00 5.055576e+00 9.233871e+02 2.323881e+02 7.966701e+01 7.905602e+01 3.722779e+02 2.140555e+02 6.769354e+02 2.681429e+03 2.175011e+03 3.010463e+03 5.650012e+02 3.132225e+02 3.077769e+01 3.055560e+00 1.166672e+00
<VARIANCE> 20
 2.155061e+07 3.986936e+04 1.493341e+02 4.406203e+01 5.427495e+01 1.174548e+06 9.461445e+04 1.017893e+04 1.446857e+04 2.907791e+05 5.010602e+04 5.693298e+05 1.190292e+07 2.812970e+06 1.581523e+07 1.302405e+05 1.546724e+05 2.598161e+03 2.838592e+01 6.916701e+00
<GCONST> 2.425060e+02
<STATE> 6
<MEAN> 20
 8.900911e+03 3.442878e+01 0.000000e+00 0.000000e+00 -0.000000e+00 1.025839e+03 1.849052e+02 1.005241e+02 1.039766e+02 6.753124e+02 7.690485e+00 4.968303e+02 5.495392e+03 2.364124e+03 1.763832e+03 6.214554e+02 2.725499e+02 3.952417e+00 7.142913e-02 0.000000e+00
<VARIANCE> 20
 6.246086e+06 2.172112e+03 1.000000e-02 1.000000e-02 1.000000e-02 8.959868e+05 5.607071e+04 1.287434e+04 9.268516e+03 2.982067e+05 2.218322e+02 2.885544e+05 1.767500e+07 1.831581e+06 5.513255e+06 2.314647e+05 2.125457e+05 2.291901e+02 2.091852e-01 1.000000e-02
<GCONST> 1.906054e+02
<STATE> 7
<MEAN> 20
 7.927982e+03 2.937531e+01 5.750107e+00 1.125021e+00 3.500066e+00 5.645043e+02 3.338805e+02 1.036265e+02 1.072514e+02 5.415024e+02 2.138792e+02 8.914908e+02 5.268588e+03 2.197525e+03 6.197610e+02 3.422515e+02 7.387621e+01 1.112522e+01 0.000000e+00 0.000000e+00
<VARIANCE> 20
 1.319257e+07 1.319993e+03 1.286892e+02 8.859515e+00 3.650045e+01 4.637701e+05 2.272905e+05 2.238249e+04 2.408696e+04 2.589887e+05 1.385642e+05 6.304674e+05 1.209003e+07 2.066213e+06 4.470956e+05 1.966070e+05 2.102769e+04 8.228730e+02 1.000000e-02 1.000000e-02
<GCONST> 2.176234e+02
<STATE> 8
<MEAN> 20
 8.687830e+03 1.932600e+01 0.000000e+00 0.000000e+00 5.021596e-02 1.494260e+03 2.325613e+02 1.382145e+02 1.494715e+02 8.488322e+02 8.908228e+01 9.690717e+02 6.474755e+03 2.408229e+03 3.697921e+02 6.925253e+02 4.855866e+02 4.969418e+01 2.062867e+01 1.118098e+01
<VARIANCE> 20
 6.346564e+06 5.429476e+03 1.000000e-02 1.000000e-02 4.769431e-02 6.356860e+05 1.328086e+04 4.483776e+03 4.000221e+03 1.006708e+05 5.746096e+04 4.255241e+05 5.764194e+06 1.033116e+06 5.610421e+04 1.570081e+05 1.767278e+05 4.426670e+03 2.107144e+03 9.022592e+02
<GCONST> 2.110157e+02
<STATE> 9
<MEAN> 20
 9.621327e+03 3.013899e+01 2.500035e-01 0.000000e+00 2.125032e+00 1.866719e+03 3.303469e+02 1.766179e+02 1.803013e+02 1.128189e+03 1.190733e+02 1.276464e+03 7.647276e+03 2.182139e+03 5.148526e+02 1.028194e+03 5.367936e+02 3.122305e+01 0.000000e+00 0.000000e+00
<VARIANCE> 20
 8.427096e+06 1.423079e+03 4.375052e-01 1.000000e-02 1.410952e+01 1.733278e+06 2.540002e+04 1.081519e+04 1.404037e+04 4.983068e+05 3.474177e+04 6.248311e+05 1.043248e+07 1.312530e+06 2.542819e+05 6.879902e+05 2.967412e+05 2.244760e+03 1.000000e-02 1.000000e-02
<GCONST> 2.046887e+02
<STATE> 10
<MEAN> 20
 8.891657e+03 1.369240e+01 6.044940e-02 0.000000e+00 0.000000e+00 1.503874e+03 2.243273e+02 1.224900e+02 1.326565e+02 8.041181e+02 2.518978e+01 4.465208e+02 5.213082e+03 4.069792e+03 6.671533e+02 6.070161e+02 5.174371e+02 8.280374e+01 5.238540e+01 1.149571e+01
<VARIANCE> 20
 4.172734e+06 8.436573e+02 1.172447e-01 1.000000e-02 1.000000e-02 6.526124e+05 1.859025e+04 5.014838e+03 4.756874e+03 1.598999e+05 5.601669e+03 5.280547e+05 5.741666e+06 2.948616e+06 2.835005e+05 9.202762e+04 1.651025e+05 7.717315e+03 5.604551e+03 7.441786e+02
<GCONST> 2.120363e+02
<STATE> 11
<MEAN> 20
 7.857380e+03 6.168597e+01 1.415371e+01 2.923095e+00 4.537328e+00 1.810216e+03 4.718925e+02 2.242420e+02 1.915839e+02 1.156212e+03 1.772350e+02 1.468514e+03 6.479500e+03 1.896869e+03 4.202828e+02 7.119395e+02 5.486044e+02 7.642788e+01 1.530096e+01 1.537784e-01
<VARIANCE> 20
 1.145656e+07 5.989829e+03 5.220552e+02 4.236009e+01 6.314674e+01 1.232925e+06 1.378761e+05 2.701822e+04 1.810125e+04 4.817057e+05 4.809381e+04 1.578065e+06 9.741474e+06 2.115993e+06 1.234312e+05 4.237089e+05 2.288705e+05 2.016610e+04 2.046800e+03 2.839091e-01
<GCONST> 2.438184e+02
<STATE> 12
<MEAN> 20
 9.902881e+03 2.165689e+01 2.062180e+00 5.990988e-01 1.199707e+00 1.452071e+03 4.044651e+02 2.097170e+02 2.155022e+02 1.303321e+03 1.993563e+01 9.967840e+02 8.166807e+03 2.782920e+03 5.462672e+02 9.408044e+02 4.681802e+01 9.537013e+00 3.534696e+00 6.669240e-02
<VARIANCE> 20
 4.377967e+06 1.977517e+03 1.534769e+01 1.171608e+00 7.229195e+00 1.033914e+06 1.688398e+05 3.034072e+04 2.403851e+04 3.121143e+05 6.939130e+02 1.347683e+06 3.478662e+06 2.522493e+06 2.390903e+05 4.421178e+05 1.118749e+04 1.272838e+03 1.748449e+02 6.224451e-02
<GCONST> 2.181529e+02
<STATE> 13
<MEAN> 20
 1.000277e+04 1.169820e+00 0.000000e+00 0.000000e+00 1.949702e-01 6.084980e+02 1.355380e+02 8.571815e+01 1.053908e+02 8.396528e+02 1.419901e+00 8.566033e+02 8.123655e+03 2.090365e+03 2.326841e+02 3.334080e+02 1.182653e+02 9.783297e+00 1.093774e+01 1.814603e+00
<VARIANCE> 20
 6.959752e+06 7.210199e+00 1.000000e-02 1.000000e-02 5.468970e-01 3.318017e+05 1.124127e+04 3.410740e+03 5.019866e+03 1.632104e+05 1.287762e+01 1.640287e+06 6.351753e+06 1.513632e+06 2.771421e+04 1.149321e+05 2.694262e+04 2.098309e+02 7.232891e+02 1.839848e+01
<GCONST> 1.890589e+02
<TRANSP> 14
 0.000000e+00 1.000000e+00 0.000000e+00 0.000000e+00 0.000000e+00 0.000000e+00 0.000000e+00 0.000000e+00 0.000000e+00 0.000000e+00 0.000000e+00 0.000000e+00 0.000000e+00 0.000000e+00
 0.000000e+00 6.916483e-01 3.083517e-01 0.000000e+00 0.000000e+00 0.000000e+00 0.000000e+00 0.000000e+00 0.000000e+00 0.000000e+00 0.000000e+00 0.000000e+00 0.000000e+00 0.000000e+00
 0.000000e+00 0.000000e+00 5.789496e-01 4.210504e-01 0.000000e+00 0.000000e+00 0.000000e+00 0.000000e+00 0.000000e+00 0.000000e+00 0.000000e+00 0.000000e+00 0.000000e+00 0.000000e+00
 0.000000e+00 0.000000e+00 0.000000e+00 6.666667e-01 3.333333e-01 0.000000e+00 0.000000e+00 0.000000e+00 0.000000e+00 0.000000e+00 0.000000e+00 0.000000e+00 0.000000e+00 0.000000e+00
 0.000000e+00 0.000000e+00 0.000000e+00 0.000000e+00 5.555580e-01 4.444421e-01 0.000000e+00 0.000000e+00 0.000000e+00 0.000000e+00 0.000000e+00 0.000000e+00 0.000000e+00 0.000000e+00
 0.000000e+00 0.000000e+00 0.000000e+00 0.000000e+00 0.000000e+00 8.095241e-01 1.904759e-01 0.000000e+00 0.000000e+00 0.000000e+00 0.000000e+00 0.000000e+00 0.000000e+00 0.000000e+00
 0.000000e+00 0.000000e+00 0.000000e+00 0.000000e+00 0.000000e+00 0.000000e+00 0.000000e+00 1.000000e+00 0.000000e+00 0.000000e+00 0.000000e+00 0.000000e+00 0.000000e+00 0.000000e+00
 0.000000e+00 0.000000e+00 0.000000e+00 0.000000e+00 0.000000e+00 0.000000e+00 0.000000e+00 5.982791e-01 4.017210e-01 0.000000e+00 0.000000e+00 0.000000e+00 0.000000e+00 0.000000e+00
 0.000000e+00 0.000000e+00 0.000000e+00 0.000000e+00 0.000000e+00 0.000000e+00 0.000000e+00 0.000000e+00 0.000000e+00 1.000000e+00 0.000000e+00 0.000000e+00 0.000000e+00 0.000000e+00
 0.000000e+00 0.000000e+00 0.000000e+00 0.000000e+00 0.000000e+00 0.000000e+00 0.000000e+00 0.000000e+00 0.000000e+00 7.582052e-01 2.417948e-01 0.000000e+00 0.000000e+00 0.000000e+00
 0.000000e+00 0.000000e+00 0.000000e+00 0.000000e+00 0.000000e+00 0.000000e+00 0.000000e+00 0.000000e+00 0.000000e+00 0.000000e+00 3.848948e-01 6.151052e-01 0.000000e+00 0.000000e+00
 0.000000e+00 0.000000e+00 0.000000e+00 0.000000e+00 0.000000e+00 0.000000e+00 0.000000e+00 0.000000e+00 0.000000e+00 0.000000e+00 0.000000e+00 4.664678e-01 5.335322e-01 0.000000e+00
 0.000000e+00 0.000000e+00 0.000000e+00 0.000000e+00 0.000000e+00 0.000000e+00 0.000000e+00 0.000000e+00 0.000000e+00 0.000000e+00 0.000000e+00 0.000000e+00 4.800867e-01 5.199133e-01
 0.000000e+00 0.000000e+00 0.000000e+00 0.000000e+00 0.000000e+00 0.000000e+00 0.000000e+00 0.000000e+00 0.000000e+00 0.000000e+00 0.000000e+00 0.000000e+00 0.000000e+00 0.000000e+00
<ENDHMM>
~h "c"
<BEGINHMM>
<NUMSTATES> 14
<STATE> 2
<MEAN> 20
 6.518299e+03 4.753358e+00 3.656429e-01 0.000000e+00 0.000000e+00 0.000000e+00 0.000000e+00 0.000000e+00 0.000000e+00 1.241293e+02 9.689538e+00 2.435345e+01 2.889352e+03 3.179944e+03 5.149838e+02 2.763502e+01 1.590136e+00 0.000000e+00 0.000000e+00 0.000000e+00
<VARIANCE> 20
 5.274634e+06 2.245802e+02 1.328877e+00 1.000000e-02 1.000000e-02 1.000000e-02 1.000000e-02 1.000000e-02 1.000000e-02 8.936612e+04 9.332038e+02 4.570353e+03 2.043329e+06 1.511156e+06 8.003556e+04 8.753430e+02 6.234182e+00 1.000000e-02 1.000000e-02 1.000000e-02
<GCONST> 9.180782e+01
<STATE> 3
<MEAN> 20
 5.219312e+03 8.660146e+01 2.470718e+02 0.000000e+00 0.000000e+00 0.000000e+00 0.000000e+00 0.000000e+00 0.000000e+00 2.794899e+01 0.000000e+00 1.976023e+00 1.896912e+03 2.558406e+03 9.376794e+02 1.800667e+02 5.093830e+00 8.003578e-01 4.419384e-30 0.000000e+00
<VARIANCE> 20
 6.754105e+06 4.218993e+04 3.631738e+05 1.000000e-02 1.000000e-02 1.000000e-02 1.000000e-02 1.000000e-02 1.000000e-02 2.741281e+03 1.000000e-02 3.324752e+01 1.596890e+06 1.695038e+06 1.327784e+05 1.198671e+05 3.247374e+01 2.382935e+00 1.000000e-02 1.000000e-02
<GCONST> 1.023755e+02
<STATE> 4
<MEAN> 20
 2.580756e+03 1.354173e+02 0.000000e+00 0.000000e+00 0.000000e+00 0.000000e+00 1.219210e-38 -4.954670e-39 1.776373e-39 4.291019e+01 2.195402e+00 1.107682e+01 4.096435e+02 6.727354e+02 3.385728e+02 1.042052e+03 2.672403e+02 1.297283e+01 2.594566e+00 0.000000e+00
<VARIANCE> 20
 6.169672e+06 6.727477e+04 1.000000e-02 1.000000e-02 1.000000e-02 1.000000e-02 1.000000e-02 1.000000e-02 1.000000e-02 7.753432e+03 4.347906e+01 2.945310e+02 1.373033e+06 1.890542e+06 1.949965e+05 1.197923e+06 3.906283e+04 5.935103e+02 2.779592e+01 1.000000e-02
<GCONST> 1.201270e+02
<STATE> 5
<MEAN> 20
 3.678223e+03 1.082962e+02 2.732474e+01 9.108244e-02 0.000000e+00 0.000000e+00 0.000000e+00 0.000000e+00 0.000000e+00 3.278974e+00 4.098708e+00 3.543103e+01 2.715171e+02 1.036480e+03 1.996637e+03 3.704921e+02 1.005550e+02 1.457319e+00 5.464947e-01 0.000000e+00
<VARIANCE> 20
 5.674910e+06 1.516648e+04 4.860576e+03 8.278643e-02 1.000000e-02 1.000000e-02 1.000000e-02 1.000000e-02 1.000000e-02 1.009156e+02 6.726966e+01 3.525097e+03 4.469653e+05 1.711798e+06 3.886315e+06 1.249061e+05 3.336033e+04 1.408890e+01 2.980311e+00 1.000000e-02
<GCONST> 1.257171e+02
<STATE> 6
<MEAN> 20
 3.096802e+03 2.990887e+01 0.000000e+00 0.000000e+00 0.000000e+00 0.000000e+00 0.000000e+00 0.000000e+00 1.272718e+00 8.590853e+01 2.545436e+00 1.872714e+01 3.086345e+02 9.208119e+02 1.417171e+03 3.025432e+02 1.709994e+02 4.064069e+01 1.845461e+01 1.336355e+01
<VARIANCE> 20
 9.201405e+06 3.121157e+03 1.000000e-02 1.000000e-02 1.000000e-02 1.000000e-02 1.000000e-02 1.000000e-02 8.925566e+00 2.242143e+04 6.479296e+01 6.849232e+02 5.095450e+05 1.259074e+06 3.872188e+06 6.113206e+04 9.371755e+04 6.999591e+03 1.406785e+03 1.656766e+03
<GCONST> 1.444552e+02
<STATE> 7
<MEAN> 20
 3.042594e+03 1.608590e+02 4.285758e-01 0.000000e+00 0.000000e+00 0.000000e+00 5.428627e+00 1.671445e+01 4.428616e+00 4.285762e+01 3.200032e+01 7.114359e+01 2.807175e+02 9.821528e+02 1.309299e+03 1.495730e+02 1.630009e+02 2.318527e+02 5.200034e+01 1.571425e+00
<VARIANCE> 20
 3.679158e+06 9.404265e+04 1.102050e+00 1.000000e-02 1.000000e-02 1.000000e-02 7.367391e+01 1.578503e+03 1.011029e+02 3.352712e+03 2.652588e+03 1.576937e+04 2.132427e+05 1.278364e+06 1.432356e+06 1.849282e+04 7.606426e+04 7.482951e+04 6.134634e+03 7.387839e+00
<GCONST> 1.750706e+02
<STATE> 8
<MEAN> 20
 2.492623e+03 5.383751e+02 3.425002e+01 2.500002e-01 1.225001e+01 7.500005e-01 2.797502e+02 7.262503e+01 1.387501e+01 6.687496e+01 6.228751e+02 1.159999e+02 3.178747e+02 9.787492e+02 6.166239e+02 3.238752e+02 2.683752e+02 2.183752e+02 4.850003e+01 3.750002e-01
<VARIANCE> 20
 4.516498e+06 2.676549e+05 6.674191e+03 4.375002e-01 4.164377e+02 3.937502e+00 1.489687e+05 6.369987e+03 9.246099e+02 3.116610e+03 3.581871e+05 9.576747e+03 3.930690e+05 1.944436e+06 1.119276e+06 1.840284e+05 9.072499e+04 3.399723e+04 2.261750e+03 9.843756e-01
<GCONST> 2.204315e+02
<STATE> 9
<MEAN> 20
 7.419482e+03 3.945516e+02 1.685724e+03 7.241371e-01 0.000000e+00 0.000000e+00 0.000000e+00 0.000000e+00 0.000000e+00 8.627588e+01 0.000000e+00 3.815862e+02 6.586033e+03 2.023621e+03 5.753799e+02 1.982760e+01 3.103449e-01 0.000000e+00 0.000000e+00 0.000000e+00
<VARIANCE> 20
 6.299353e+06 4.212095e+04 9.049433e+05 9.992856e+00 1.000000e-02 1.000000e-02 1.000000e-02 1.000000e-02 1.000000e-02 2.625813e+04 1.000000e-02 1.203721e+05 1.587875e+07 5.955705e+05 8.774478e+05 8.825575e+02 6.967896e-01 1.000000e-02 1.000000e-02 1.000000e-02
<GCONST> 1.094909e+02
<STATE> 10
<MEAN> 20
 6.685758e+03 2.400608e+02 8.436721e+02 1.339257e+01 3.754940e-01 0.000000e+00 4.255599e+00 1.264163e+01 8.135704e+00 2.271732e+02 1.364294e+01 4.838377e+02 4.217341e+03 1.316123e+03 1.854812e+03 1.489592e+02 7.496704e-01 0.000000e+00 0.000000e+00 0.000000e+00
<VARIANCE> 20
 5.663586e+06 5.060239e+04 8.241701e+05 1.253644e+03 9.854862e-01 1.000000e-02 7.926798e+01 1.019866e+03 4.015507e+02 7.691639e+04 5.109120e+02 3.659821e+05 2.174684e+07 4.014413e+05 3.674642e+06 2.982396e+04 1.188979e+00 1.000000e-02 1.000000e-02 1.000000e-02
<GCONST> 1.684431e+02
<STATE> 11
<MEAN> 20
 5.265765e+03 2.696398e+02 9.906118e+02 5.987409e-01 0.000000e+00 0.000000e+00 1.995806e+00 1.995806e+00 8.981128e+00 2.127526e+02 2.454842e+01 5.006224e+02 4.377699e+03 9.793137e+02 2.361093e+02 5.069136e+02 1.251392e+02 1.397064e+00 3.991612e-01 1.995806e-01
<VARIANCE> 20
 1.410153e+07 4.997177e+04 7.977492e+05 1.437732e+00 1.000000e-02 1.000000e-02 6.394950e+00 5.995789e+00 2.731958e+02 9.507762e+04 1.230523e+03 3.998042e+05 2.180932e+07 1.178202e+06 1.473707e+05 8.143880e+05 4.665825e+04 2.239405e+00 6.389928e-01 1.597482e-01
<GCONST> 1.751770e+02
<STATE> 12
<MEAN> 20
 7.208700e+03 4.204324e+02 1.822053e+03 3.729729e+00 0.000000e+00 0.000000e+00 0.000000e+00 0.000000e+00 0.000000e+00 1.080810e+02 0.000000e+00 2.830539e+02 6.552726e+03 2.326270e+03 1.622163e+02 1.184597e+02 1.172435e+02 3.000006e+00 2.702699e-02 0.000000e+00
<VARIANCE> 20
 6.947762e+06 7.295706e+03 3.752792e+05 9.981884e+01 1.000000e-02 1.000000e-02 1.000000e-02 1.000000e-02 1.000000e-02 3.106909e+04 1.000000e-02 7.334068e+04 9.797110e+06 1.441768e+06 2.342065e+04 7.689799e+04 1.099390e+05 9.459480e+01 2.629654e-02 1.000000e-02
<GCONST> 1.322655e+02
<STATE> 13
<MEAN> 20
 3.583441e+03 1.685553e+02 6.554436e+02 0.000000e+00 0.000000e+00 0.000000e+00 3.333335e-01 5.555559e-01 0.000000e+00 3.455557e+01 3.888891e+00 1.076666e+02 2.113108e+03 1.380888e+03 5.465558e+02 1.202223e+02 6.455558e+01 7.422226e+01 3.066669e+01 1.111111e+00
<VARIANCE> 20
 1.059377e+07 4.375709e+04 8.803844e+05 1.000000e-02 1.000000e-02 1.000000e-02 8.888894e-01 2.469137e+00 1.000000e-02 1.456914e+03 1.209877e+02 1.510644e+04 9.429926e+06 2.453891e+06 5.612747e+05 1.886441e+04 5.560916e+03 1.669063e+04 2.241556e+03 3.432101e+00
<GCONST> 1.625257e+02
<TRANSP> 14
 0.000000e+00 1.000000e+00 0.000000e+00 0.000000e+00 0.000000e+00 0.000000e+00 0.000000e+00 0.000000e+00 0.000000e+00 0.000000e+00 0.000000e+00 0.000000e+00 0.000000e+00 0.000000e+00
 0.000000e+00 6.343562e-01 3.656438e-01 0.000000e+00 0.000000e+00 0.000000e+00 0.000000e+00 0.000000e+00 0.000000e+00 0.000000e+00 0.000000e+00 0.000000e+00 0.000000e+00 0.000000e+00
 0.000000e+00 0.000000e+00 5.957933e-01 4.042067e-01 0.000000e+00 0.000000e+00 0.000000e+00 0.000000e+00 0.000000e+00 0.000000e+00 0.000000e+00 0.000000e+00 0.000000e+00 0.000000e+00
 0.000000e+00 0.000000e+00 0.000000e+00 6.008353e-01 3.991648e-01 0.000000e+00 0.000000e+00 0.000000e+00 0.000000e+00 0.000000e+00 0.000000e+00 0.000000e+00 0.000000e+00 0.000000e+00
 0.000000e+00 0.000000e+00 0.000000e+00 0.000000e+00 6.356701e-01 3.643299e-01 0.000000e+00 0.000000e+00 0.000000e+00 0.000000e+00 0.000000e+00 0.000000e+00 0.000000e+00 0.000000e+00
 0.000000e+00 0.000000e+00 0.000000e+00 0.000000e+00 0.000000e+00 6.363662e-01 3.636338e-01 0.000000e+00 0.000000e+00 0.000000e+00 0.000000e+00 0.000000e+00 0.000000e+00 0.000000e+00
 0.000000e+00 0.000000e+00 0.000000e+00 0.000000e+00 0.000000e+00 0.000000e+00 4.285654e-01 5.714346e-01 0.000000e+00 0.000000e+00 0.000000e+00 0.000000e+00 0.000000e+00 0.000000e+00
 0.000000e+00 0.000000e+00 0.000000e+00 0.000000e+00 0.000000e+00 0.000000e+00 0.000000e+00 5.000004e-01 4.999996e-01 0.000000e+00 0.000000e+00 0.000000e+00 0.000000e+00 0.000000e+00
 0.000000e+00 0.000000e+00 0.000000e+00 0.000000e+00 0.000000e+00 0.000000e+00 0.000000e+00 0.000000e+00 8.620689e-01 1.379311e-01 0.000000e+00 0.000000e+00 0.000000e+00 0.000000e+00
 0.000000e+00 0.000000e+00 0.000000e+00 0.000000e+00 0.000000e+00 0.000000e+00 0.000000e+00 0.000000e+00 0.000000e+00 4.993423e-01 5.006577e-01 0.000000e+00 0.000000e+00 0.000000e+00
 0.000000e+00 0.000000e+00 0.000000e+00 0.000000e+00 0.000000e+00 0.000000e+00 0.000000e+00 0.000000e+00 0.000000e+00 0.000000e+00 2.016792e-01 7.983208e-01 0.000000e+00 0.000000e+00
 0.000000e+00 0.000000e+00 0.000000e+00 0.000000e+00 0.000000e+00 0.000000e+00 0.000000e+00 0.000000e+00 0.000000e+00 0.000000e+00 0.000000e+00 8.918918e-01 1.081082e-01 0.000000e+00
 0.000000e+00 0.000000e+00 0.000000e+00 0.000000e+00 0.000000e+00 0.000000e+00 0.000000e+00 0.000000e+00 0.000000e+00 0.000000e+00 0.000000e+00 0.000000e+00 5.555559e-01 4.444441e-01
 0.000000e+00 0.000000e+00 0.000000e+00 0.000000e+00 0.000000e+00 0.000000e+00 0.000000e+00 0.000000e+00 0.000000e+00 0.000000e+00 0.000000e+00 0.000000e+00 0.000000e+00 0.000000e+00
<ENDHMM>
~h "d"
<BEGINHMM>
<NUMSTATES> 14
<STATE> 2
<MEAN> 20
 1.146138e+04 1.553654e+01 0.000000e+00 0.000000e+00 0.000000e+00 0.000000e+00 0.000000e+00 0.000000e+00 0.000000e+00 1.325905e+02 1.660978e+00 2.359009e+02 5.371961e+03 4.612263e+03 5.344399e+02 1.900626e+02 3.234566e+02 2.494487e+02 7.811229e+01 1.220446e+01
<VARIANCE> 20
 4.732832e+06 1.657599e+03 1.000000e-02 1.000000e-02 1.000000e-02 1.000000e-02 1.000000e-02 1.000000e-02 1.000000e-02 1.415815e+04 3.057450e+01 1.881092e+05 6.101420e+06 4.213721e+06 1.117218e+05 7.246115e+03 1.520217e+04 2.105365e+04 5.647808e+03 4.692870e+02
<GCONST> 1.381916e+02
<STATE> 3
<MEAN> 20
 1.306668e+04 1.854296e+01 1.662563e-02 0.000000e+00 0.000000e+00 0.000000e+00 0.000000e+00 0.000000e+00 0.000000e+00 1.915427e+02 -1.539754e-31 8.639320e+01 7.002344e+03 5.032981e+03 3.837121e+02 1.753913e+02 2.362068e+02 2.813281e+02 6.896644e+01 9.458593e+00
<VARIANCE> 20
 3.585997e+06 1.317334e+03 1.634922e-02 1.000000e-02 1.000000e-02 1.000000e-02 1.000000e-02 1.000000e-02 1.000000e-02 1.629973e+04 1.000000e-02 3.867661e+04 4.016871e+06 1.739906e+06 1.563707e+04 4.777178e+03 1.792738e+04 2.648932e+04 4.930012e+03 1.207404e+02
<GCONST> 1.239252e+02
<STATE> 4
<MEAN> 20
 1.297846e+04 2.494597e+01 0.000000e+00 0.000000e+00 0.000000e+00 0.000000e+00 0.000000e+00 0.000000e+00 5.551825e-02 2.354176e+02 6.106946e+00 2.622162e+02 9.140069e+03 2.962701e+03 3.021873e+02 1.158771e+02 1.571241e+02 2.337578e+02 5.656684e+01 2.276146e+00
<VARIANCE> 20
 3.105269e+06 9.020650e+02 1.000000e-02 1.000000e-02 1.000000e-02 1.000000e-02 1.000000e-02 1.000000e-02 5.243598e-02 2.795045e+04 2.768274e+02 6.239644e+04 5.459625e+06 1.412396e+06 5.625070e+03 1.235904e+03 9.757953e+03 9.522220e+03 1.927824e+03 3.529005e+01
<GCONST> 1.297377e+02
<STATE> 5
<MEAN> 20
 1.153503e+04 1.296397e+00 0.000000e+00 0.000000e+00 0.000000e+00 0.000000e+00 0.000000e+00 0.000000e+00 0.000000e+00 2.538201e+02 -0.000000e+00 1.829505e+02 8.124781e+03 2.786950e+03 2.434328e+02 1.164828e+02 1.426316e+02 1.693977e+02 2.266838e+01 8.494287e-01
<VARIANCE> 20
 4.435888e+06 1.423666e+01 1.000000e-02 1.000000e-02 1.000000e-02 1.000000e-02 1.000000e-02 1.000000e-02 1.000000e-02 2.939234e+04 1.000000e-02 5.093521e+04 4.632408e+06 1.667383e+06 1.451170e+04 4.538684e+03 1.382050e+04 1.635680e+04 1.021684e+03 7.430497e+00
<GCONST> 1.148536e+02
<STATE> 6
<MEAN> 20
 1.228043e+04 2.759972e+01 0.000000e+00 0.000000e+00 0.000000e+00 0.000000e+00 0.000000e+00 0.000000e+00 1.199971e+00 3.981756e+02 2.399896e+00 5.733265e+02 9.555263e+03 1.895505e+03 2.517820e+02 1.170015e+02 1.284880e+02 1.633565e+02 1.938149e+01 8.999926e-01
<VARIANCE> 20
 2.691191e+06 1.216635e+03 1.000000e-02 1.000000e-02 1.000000e-02 1.000000e-02 1.000000e-02 1.000000e-02 5.959915e+00 2.230274e+03 4.303824e+01 1.498107e+05 3.429550e+06 1.723003e+06 8.982854e+03 9.452969e+03 4.884027e+03 5.986063e+03 3.418904e+02 7.289947e+00
<GCONST> 1.288866e+02
<STATE> 7
<MEAN> 20
 1.108303e+04 1.257295e+00 0.000000e+00 0.000000e+00 0.000000e+00 0.000000e+00 0.000000e+00 1.142896e-01 2.857240e-02 3.933594e+02 2.285792e-01 4.481267e+02 7.720781e+03 2.499086e+03 2.735850e+02 1.274693e+02 1.791237e+02 1.862911e+02 4.084252e+01 2.257150e+00
<VARIANCE> 20
 1.986010e+06 9.106566e+00 1.000000e-02 1.000000e-02 1.000000e-02 1.000000e-02 1.000000e-02 4.440965e-01 2.775603e-02 4.461223e+04 1.090649e+00 5.868858e+05 2.245248e+06 1.424654e+06 8.468914e+03 2.930262e+03 1.013070e+04 1.046819e+04 1.468752e+03 2.847668e+01
<GCONST> 1.250629e+02
<STATE> 8
<MEAN> 20
 1.113664e+04 1.327294e+00 0.000000e+00 0.000000e+00 0.000000e+00 0.000000e+00 0.000000e+00 0.000000e+00 4.007326e-01 5.258187e+02 -7.645470e-40 1.086053e+03 8.967654e+03 1.007457e+03 2.058403e+02 1.127909e+02 1.465185e+02 1.337751e+02 4.096414e+00 -4.782936e-37
<VARIANCE> 20
 2.115963e+06 1.198702e+01 1.000000e-02 1.000000e-02 1.000000e-02 1.000000e-02 1.000000e-02 1.000000e-02 6.251133e+00 4.373956e+04 1.000000e-02 7.280412e+05 1.492696e+06 5.366531e+05 2.020769e+04 8.119574e+03 1.912825e+04 1.451646e+04 7.325055e+01 1.000000e-02
<GCONST> 1.130428e+02
<STATE> 9
<MEAN> 20
 1.083973e+04 1.163683e+01 0.000000e+00 0.000000e+00 0.000000e+00 0.000000e+00 0.000000e+00 0.000000e+00 0.000000e+00 8.412933e+02 2.127430e-01 1.574265e+03 8.441876e+03 8.973509e+02 2.155408e+02 1.282895e+02 2.192084e+02 2.020820e+02 1.189328e+01 1.936111e+00
<VARIANCE> 20
 1.781953e+06 5.740867e+02 1.000000e-02 1.000000e-02 1.000000e-02 1.000000e-02 1.000000e-02 1.000000e-02 1.000000e-02 1.504824e+05 1.018455e+00 1.088898e+06 1.475855e+06 3.997021e+05 7.194354e+03 3.806110e+03 1.982931e+04 1.278136e+04 2.978268e+02 1.661176e+01
<GCONST> 1.231938e+02
<STATE> 10
<MEAN> 20
 8.993553e+03 3.228394e-01 0.000000e+00 0.000000e+00 0.000000e+00 0.000000e+00 0.000000e+00 0.000000e+00 0.000000e+00 3.822523e+02 0.000000e+00 9.211558e+02 6.934100e+03 9.351571e+02 1.699540e+02 9.146671e+01 1.148071e+02 1.754439e+02 3.140188e+01 2.641240e+00
<VARIANCE> 20
 6.796492e+06 1.686062e+00 1.000000e-02 1.000000e-02 1.000000e-02 1.000000e-02 1.000000e-02 1.000000e-02 1.000000e-02 8.255847e+04 1.000000e-02 5.470702e+05 6.041540e+06 7.499229e+05 9.921045e+03 2.188279e+03 8.330747e+03 2.064909e+04 5.150303e+03 3.910157e+01
<GCONST> 1.179154e+02
<STATE> 11
<MEAN> 20
 5.503098e+03 5.988263e+01 7.647089e-01 1.176475e-01 8.235325e-01 5.764727e+00 1.117651e+01 8.470619e+00 7.117673e+00 2.775850e+02 1.129417e+01 4.859347e+02 2.347035e+03 1.673887e+03 1.151945e+03 1.042939e+02 4.735242e+01 4.105839e+01 1.200004e+01 0.000000e+00
<VARIANCE> 20
 9.279069e+06 2.315971e+04 6.650541e+00 2.214540e-01 1.085125e+01 4.762992e+02 9.793247e+02 5.682510e+02 3.955169e+02 1.642244e+05 4.492680e+02 7.675321e+05 1.006135e+07 7.531931e+05 1.016146e+06 6.774200e+03 4.208042e+03 3.349194e+03 7.052964e+02 1.000000e-02
<GCONST> 1.933890e+02
<STATE> 12
<MEAN> 20
 3.766619e+03 6.985749e+01 2.807156e+01 9.857189e+00 8.507183e+01 9.007185e+01 4.276449e+02 2.564300e+01 1.250006e+01 3.968531e+02 6.813605e+02 6.442070e+02 2.413050e+03 5.437153e+02 4.787158e+02 9.257124e+01 2.735674e+01 3.085681e+01 7.142891e-02 2.857156e-01
<VARIANCE> 20
 1.451438e+07 1.202458e+04 1.690642e+03 4.335526e+02 1.035494e+04 1.114608e+04 2.157854e+05 8.475173e+02 2.045363e+02 2.111675e+05 3.433682e+05 6.271172e+05 1.100238e+07 2.956169e+05 2.718181e+05 8.749280e+03 3.208327e+03 5.373941e+03 6.632681e-02 1.061229e+00
<GCONST> 2.218219e+02
<STATE> 13
<MEAN> 20
 5.665346e+03 1.299976e+01 0.000000e+00 0.000000e+00 8.909144e+00 1.081825e+01 2.700016e+01 1.909102e+00 0.000000e+00 3.714505e+02 7.409131e+01 5.710848e+02 2.794704e+03 7.192724e+02 9.291873e+02 8.656403e+02 7.609010e+01 5.754485e+01 9.090870e+00 1.727283e+00
<VARIANCE> 20
 1.117322e+07 8.677985e+02 1.000000e-02 1.000000e-02 7.937233e+02 1.170337e+03 7.290041e+03 3.644649e+01 1.000000e-02 2.859580e+05 5.299930e+04 7.565845e+05 1.361087e+07 6.671118e+05 1.128062e+06 1.177344e+06 5.033651e+03 7.097843e+03 3.213558e+02 2.983487e+01
<GCONST> 1.934587e+02
<TRANSP> 14
 0.000000e+00 1.000000e+00 0.000000e+00 0.000000e+00 0.000000e+00 0.000000e+00 0.000000e+00 0.000000e+00 0.000000e+00 0.000000e+00 0.000000e+00 0.000000e+00 0.000000e+00 0.000000e+00
 0.000000e+00 7.798131e-01 2.201869e-01 0.000000e+00 0.000000e+00 0.000000e+00 0.000000e+00 0.000000e+00 0.000000e+00 0.000000e+00 0.000000e+00 0.000000e+00 0.000000e+00 0.000000e+00
 0.000000e+00 0.000000e+00 8.669961e-01 1.330039e-01 0.000000e+00 0.000000e+00 0.000000e+00 0.000000e+00 0.000000e+00 0.000000e+00 0.000000e+00 0.000000e+00 0.000000e+00 0.000000e+00
 0.000000e+00 0.000000e+00 0.000000e+00 5.558585e-01 4.441415e-01 0.000000e+00 0.000000e+00 0.000000e+00 0.000000e+00 0.000000e+00 0.000000e+00 0.000000e+00 0.000000e+00 0.000000e+00
 0.000000e+00 0.000000e+00 0.000000e+00 0.000000e+00 8.930603e-01 1.069397e-01 0.000000e+00 0.000000e+00 0.000000e+00 0.000000e+00 0.000000e+00 0.000000e+00 0.000000e+00 0.000000e+00
 0.000000e+00 0.000000e+00 0.000000e+00 0.000000e+00 0.000000e+00 2.000183e-01 7.999817e-01 0.000000e+00 0.000000e+00 0.000000e+00 0.000000e+00 0.000000e+00 0.000000e+00 0.000000e+00
 0.000000e+00 0.000000e+00 0.000000e+00 0.000000e+00 0.000000e+00 0.000000e+00 7.714226e-01 2.285773e-01 0.000000e+00 0.000000e+00 0.000000e+00 0.000000e+00 0.000000e+00 0.000000e+00
 0.000000e+00 0.000000e+00 0.000000e+00 0.000000e+00 0.000000e+00 0.000000e+00 0.000000e+00 7.996354e-01 2.003646e-01 0.000000e+00 0.000000e+00 0.000000e+00 0.000000e+00 0.000000e+00
 0.000000e+00 0.000000e+00 0.000000e+00 0.000000e+00 0.000000e+00 0.000000e+00 0.000000e+00 0.000000e+00 8.298070e-01 1.701930e-01 0.000000e+00 0.000000e+00 0.000000e+00 0.000000e+00
 0.000000e+00 0.000000e+00 0.000000e+00 0.000000e+00 0.000000e+00 0.000000e+00 0.000000e+00 0.000000e+00 0.000000e+00 7.652053e-01 2.347946e-01 0.000000e+00 0.000000e+00 0.000000e+00
 0.000000e+00 0.000000e+00 0.000000e+00 0.000000e+00 0.000000e+00 0.000000e+00 0.000000e+00 0.000000e+00 0.000000e+00 0.000000e+00 5.294138e-01 4.705862e-01 0.000000e+00 0.000000e+00
 0.000000e+00 0.000000e+00 0.000000e+00 0.000000e+00 0.000000e+00 0.000000e+00 0.000000e+00 0.000000e+00 0.000000e+00 0.000000e+00 0.000000e+00 4.285734e-01 5.714266e-01 0.000000e+00
 0.000000e+00 0.000000e+00 0.000000e+00 0.000000e+00 0.000000e+00 0.000000e+00 0.000000e+00 0.000000e+00 0.000000e+00 0.000000e+00 0.000000e+00 0.000000e+00 2.727289e-01 7.272712e-01
 0.000000e+00 0.000000e+00 0.000000e+00 0.000000e+00 0.000000e+00 0.000000e+00 0.000000e+00 0.000000e+00 0.000000e+00 0.000000e+00 0.000000e+00 0.000000e+00 0.000000e+00 0.000000e+00
<ENDHMM>
~h "e"
<BEGINHMM>
<NUMSTATES> 14
<STATE> 2
<MEAN> 20
 8.142655e+03 7.289524e-02 0.000000e+00 0.000000e+00 0.000000e+00 1.348018e+03 1.953272e+02 1.156367e+02 1.285935e+02 9.558698e+02 1.285171e+00 5.033460e+02 6.549100e+03 2.344452e+03 3.652808e+02 6.854323e+02 3.088761e+02 6.717250e+01 5.191168e+01 9.317167e+00
<VARIANCE> 20
 6.163930e+06 1.842138e-01 1.000000e-02 1.000000e-02 1.000000e-02 4.324613e+05 1.800306e+04 4.323437e+03 3.056125e+03 1.189877e+05 8.682405e+00 2.615623e+05 3.641031e+06 2.946747e+06 3.544512e+04 1.258487e+05 5.072881e+04 4.195995e+03 6.213667e+03 3.665883e+02
<GCONST> 1.884168e+02
<STATE> 3
<MEAN> 20
 1.022788e+04 2.469428e+01 4.875566e-02 -1.121039e-44 2.437737e-02 8.837523e+02 2.155642e+02 1.247249e+02 1.425830e+02 1.071531e+03 6.191897e+00 5.706862e+02 9.084922e+03 2.052617e+03 3.714556e+02 5.430865e+02 6.167570e+01 1.706462e-01 0.000000e+00 0.000000e+00
<VARIANCE> 20
 6.250939e+06 2.046425e+03 4.637855e-02 1.000000e-02 2.378312e-02 3.755963e+05 3.186632e+04 6.534677e+03 5.252826e+03 1.605763e+05 1.020752e+02 3.539137e+05 3.362613e+06 1.582963e+06 3.817052e+04 1.660851e+05 1.097995e+04 3.365525e-01 1.000000e-02 1.000000e-02
<GCONST> 1.694384e+02
<STATE> 4
<MEAN> 20
 1.255698e+04 2.685969e+01 0.000000e+00 0.000000e+00 0.000000e+00 8.360935e+02 1.368390e+02 8.215214e+01 1.040888e+02 1.071663e+03 8.433241e+00 3.668210e+02 1.075786e+04 2.644721e+03 3.534873e+02 4.914425e+02 1.220131e+02 4.902520e+01 1.961198e+01 1.266371e+00
<VARIANCE> 20
 5.869900e+06 1.954697e+03 1.000000e-02 1.000000e-02 1.000000e-02 2.540676e+05 5.572945e+03 1.354740e+03 1.723518e+03 1.403718e+05 4.995393e+02 1.620050e+05 6.548548e+06 2.093118e+06 2.079886e+04 7.046119e+04 1.542764e+04 3.719542e+03 8.839843e+02 7.011786e+00
<GCONST> 1.898527e+02
<STATE> 5
<MEAN> 20
 1.056786e+04 3.621169e+01 3.151112e-01 2.251152e-02 1.350673e-01 1.262946e+03 2.976450e+02 1.589713e+02 1.764282e+02 1.530999e+03 1.740030e+01 9.922581e+02 9.864508e+03 1.799705e+03 5.208534e+02 6.640519e+02 1.684774e+02 4.283694e+00 0.000000e+00 0.000000e+00
<VARIANCE> 20
 5.655556e+06 7.874918e+03 9.811580e-01 2.200474e-02 4.319836e-01 4.881707e+05 5.608682e+04 1.017371e+04 7.569889e+03 3.773285e+05 6.073627e+02 8.069176e+05 6.809556e+06 3.419248e+06 4.963948e+04 1.915471e+05 4.477901e+04 1.172910e+02 1.000000e-02 1.000000e-02
<GCONST> 1.916638e+02
<STATE> 6
<MEAN> 20
 1.149795e+04 3.176209e+01 6.634074e-01 0.000000e+00 0.000000e+00 1.089543e+03 1.872612e+02 1.095636e+02 1.337666e+02 1.617611e+03 8.825006e+00 9.790312e+02 1.051934e+04 1.848536e+03 4.614590e+02 6.179620e+02 1.483808e+02 6.415004e+01 1.889828e+01 1.536139e+00
<VARIANCE> 20
 3.527524e+06 1.063964e+03 7.973877e+00 1.000000e-02 1.000000e-02 3.193177e+05 1.609319e+04 3.342874e+03 3.569144e+03 6.606354e+05 1.222015e+02 8.097212e+05 3.399938e+06 1.938708e+06 2.050453e+04 1.097584e+05 1.160879e+04 4.584628e+03 9.556244e+02 2.382447e+01
<GCONST> 2.010094e+02
<STATE> 7
<MEAN> 20
 7.742101e+03 2.519914e+00 0.000000e+00 0.000000e+00 8.416389e-02 1.020443e+03 2.033724e+02 1.250314e+02 1.447854e+02 1.648561e+03 2.554002e+00 1.399377e+03 7.959277e+03 4.903882e+02 3.322594e+02 6.038450e+02 8.704102e+01 1.196616e+01 1.896720e-01 0.000000e+00
<VARIANCE> 20
 8.112178e+06 4.182645e+01 1.000000e-02 1.000000e-02 2.454082e-01 3.799342e+05 3.028005e+04 7.666045e+03 7.388204e+03 4.478372e+05 2.483332e+01 9.129501e+05 6.083024e+06 1.037401e+05 3.904614e+04 1.771478e+05 1.623094e+04 1.095578e+03 3.153139e-01 1.000000e-02
<GCONST> 1.775140e+02
<STATE> 8
<MEAN> 20
 9.947896e+03 3.918707e+01 3.765897e-02 0.000000e+00 0.000000e+00 1.015627e+03 1.499167e+02 9.462152e+01 1.225291e+02 2.219473e+03 1.208490e+01 2.421892e+03 9.414813e+03 5.708032e+02 3.861121e+02 5.583901e+02 1.599969e+02 5.080569e+01 1.369355e+01 6.966914e-01
<VARIANCE> 20
 3.527820e+06 3.302096e+03 7.389975e-02 1.000000e-02 1.000000e-02 1.636027e+05 1.135105e+04 2.534877e+03 3.286687e+03 6.538781e+05 4.633584e+02 1.302815e+06 3.730550e+06 6.687702e+04 1.946265e+04 5.865270e+04 1.415129e+04 3.101875e+03 5.218593e+02 4.843368e+00
<GCONST> 1.915383e+02
<STATE> 9
<MEAN> 20
 8.688795e+03 7.067152e+01 4.423273e+00 0.000000e+00 2.823330e-01 1.211936e+03 2.477284e+02 1.659989e+02 1.807354e+02 2.248659e+03 2.273306e+01 2.792051e+03 7.754513e+03 7.583866e+02 5.576000e+02 6.485800e+02 2.047373e+02 4.401924e+01 3.453960e+01 2.070495e+00
<VARIANCE> 20
 8.702920e+06 8.362533e+03 1.056981e+02 1.000000e-02 8.613932e-01 4.520931e+05 4.393405e+04 1.209875e+04 8.755864e+03 6.500620e+05 1.146256e+03 2.434747e+06 8.234514e+06 1.392783e+05 1.127111e+05 9.704737e+04 4.733171e+04 4.433709e+03 9.070077e+03 3.825231e+01
<GCONST> 2.218018e+02
<STATE> 10
<MEAN> 20
 4.406080e+03 2.045376e+01 1.136321e+01 3.996715e+00 6.473111e+01 2.863116e+02 3.909150e+02 1.061170e+02 8.599057e+01 7.508916e+02 5.593118e+02 9.809417e+02 3.126258e+03 7.931474e+02 4.774759e+02 1.646728e+02 2.256882e+01 1.376314e+00 3.134679e-01 7.836696e-01
<VARIANCE> 20
 1.027010e+07 1.170847e+03 1.244885e+03 1.652890e+02 2.052228e+04 1.377934e+05 2.106341e+05 1.123606e+04 8.254994e+03 5.365150e+05 7.396346e+05 1.052684e+06 1.060347e+07 4.367030e+05 2.335859e+05 6.262453e+04 1.337069e+03 6.912210e+00 5.286736e-01 3.460944e+00
<GCONST> 2.274476e+02
<STATE> 11
<MEAN> 20
 6.018765e+03 1.430931e+02 3.319784e+01 0.000000e+00 8.999409e-01 2.491809e+02 3.119799e+02 9.929466e+01 8.009621e+01 9.140342e+02 1.611911e+02 1.210009e+03 3.894593e+03 1.030743e+03 5.908674e+02 3.143807e+02 3.400780e+02 2.315848e+02 6.429578e+01 1.279916e+01
<VARIANCE> 20
 9.068773e+06 1.117706e+05 4.565534e+03 1.000000e-02 5.689679e+00 1.078334e+05 1.677548e+05 1.433769e+04 7.942348e+03 1.128621e+06 9.720735e+04 1.631346e+06 1.311871e+07 1.214121e+06 4.427416e+05 5.417918e+04 2.981881e+05 2.053177e+05 1.329081e+04 3.455481e+02
<GCONST> 2.463347e+02
<STATE> 12
<MEAN> 20
 4.803518e+03 1.065048e+02 9.929173e+01 5.286014e+00 2.021547e+01 4.255852e+02 1.391486e+02 6.014399e+01 6.921532e+01 8.918845e+02 1.400072e+02 8.618728e+02 2.833833e+03 1.012700e+03 1.395867e+03 2.976529e+02 6.578889e+01 1.264355e+01 4.285838e-01 0.000000e+00
<VARIANCE> 20
 8.379244e+06 2.374117e+04 2.825649e+04 8.335036e+01 3.803230e+03 5.933616e+05 4.396602e+04 8.051413e+03 1.213557e+04 1.396806e+06 1.234536e+05 1.400968e+06 1.364469e+07 8.015029e+05 1.126142e+06 1.324102e+05 1.057128e+04 1.068286e+03 8.163411e-01 1.000000e-02
<GCONST> 2.352804e+02
<STATE> 13
<MEAN> 20
 3.810371e+03 1.708351e+01 0.000000e+00 0.000000e+00 0.000000e+00 7.966748e+01 2.183343e+01 2.749995e+01 2.449994e+01 4.401645e+02 2.749955e+00 7.363159e+02 2.017875e+03 4.450851e+02 9.909255e+02 1.664183e+02 3.258367e+01 1.208346e+01 6.500065e+00 1.058344e+01
<VARIANCE> 20
 9.291002e+06 1.223919e+03 1.000000e-02 1.000000e-02 1.000000e-02 6.777207e+04 1.836487e+03 2.041582e+03 1.555413e+03 4.474970e+05 3.885329e+01 1.465403e+06 9.311393e+06 1.002332e+05 1.172420e+06 2.018150e+04 4.752950e+03 3.992456e+02 1.587512e+02 1.033253e+03
<GCONST> 1.884888e+02
<TRANSP> 14
 0.000000e+00 1.000000e+00 0.000000e+00 0.000000e+00 0.000000e+00 0.000000e+00 0.000000e+00 0.000000e+00 0.000000e+00 0.000000e+00 0.000000e+00 0.000000e+00 0.000000e+00 0.000000e+00
 0.000000e+00 8.833688e-01 1.166312e-01 0.000000e+00 0.000000e+00 0.000000e+00 0.000000e+00 0.000000e+00 0.000000e+00 0.000000e+00 0.000000e+00 0.000000e+00 0.000000e+00 0.000000e+00
 0.000000e+00 0.000000e+00 8.049756e-01 1.950244e-01 0.000000e+00 0.000000e+00 0.000000e+00 0.000000e+00 0.000000e+00 0.000000e+00 0.000000e+00 0.000000e+00 0.000000e+00 0.000000e+00
 0.000000e+00 0.000000e+00 0.000000e+00 8.339204e-01 1.660797e-01 0.000000e+00 0.000000e+00 0.000000e+00 0.000000e+00 0.000000e+00 0.000000e+00 0.000000e+00 0.000000e+00 0.000000e+00
 0.000000e+00 0.000000e+00 0.000000e+00 0.000000e+00 8.199099e-01 1.800900e-01 0.000000e+00 0.000000e+00 0.000000e+00 0.000000e+00 0.000000e+00 0.000000e+00 0.000000e+00 0.000000e+00
 0.000000e+00 0.000000e+00 0.000000e+00 0.000000e+00 0.000000e+00 7.207054e-01 2.792946e-01 0.000000e+00 0.000000e+00 0.000000e+00 0.000000e+00 0.000000e+00 0.000000e+00 0.000000e+00
 0.000000e+00 0.000000e+00 0.000000e+00 0.000000e+00 0.000000e+00 0.000000e+00 7.755653e-01 2.244348e-01 0.000000e+00 0.000000e+00 0.000000e+00 0.000000e+00 0.000000e+00 0.000000e+00
 0.000000e+00 0.000000e+00 0.000000e+00 0.000000e+00 0.000000e+00 0.000000e+00 0.000000e+00 8.493656e-01 1.506345e-01 0.000000e+00 0.000000e+00 0.000000e+00 0.000000e+00 0.000000e+00
 0.000000e+00 0.000000e+00 0.000000e+00 0.000000e+00 0.000000e+00 0.000000e+00 0.000000e+00 0.000000e+00 6.235509e-01 3.764491e-01 0.000000e+00 0.000000e+00 0.000000e+00 0.000000e+00
 0.000000e+00 0.000000e+00 0.000000e+00 0.000000e+00 0.000000e+00 0.000000e+00 0.000000e+00 0.000000e+00 0.000000e+00 3.730722e-01 6.269278e-01 0.000000e+00 0.000000e+00 0.000000e+00
 0.000000e+00 0.000000e+00 0.000000e+00 0.000000e+00 0.000000e+00 0.000000e+00 0.000000e+00 0.000000e+00 0.000000e+00 0.000000e+00 2.000633e-01 7.999367e-01 0.000000e+00 0.000000e+00
 0.000000e+00 0.000000e+00 0.000000e+00 0.000000e+00 0.000000e+00 0.000000e+00 0.000000e+00 0.000000e+00 0.000000e+00 0.000000e+00 0.000000e+00 4.285440e-01 5.714560e-01 0.000000e+00
 0.000000e+00 0.000000e+00 0.000000e+00 0.000000e+00 0.000000e+00 0.000000e+00 0.000000e+00 0.000000e+00 0.000000e+00 0.000000e+00 0.000000e+00 0.000000e+00 3.333361e-01 6.666638e-01
 0.000000e+00 0.000000e+00 0.000000e+00 0.000000e+00 0.000000e+00 0.000000e+00 0.000000e+00 0.000000e+00 0.000000e+00 0.000000e+00 0.000000e+00 0.000000e+00 0.000000e+00 0.000000e+00
<ENDHMM>
~h "f"
<BEGINHMM>
<NUMSTATES> 14
<STATE> 2
<MEAN> 20
 6.536499e+03 4.876250e+02 7.703741e+02 0.000000e+00 0.000000e+00 0.000000e+00 0.000000e+00 0.000000e+00 1.249999e-01 1.870000e+02 3.837501e+01 4.626250e+02 3.078247e+03 2.478375e+03 1.835626e+03 8.450005e+01 3.500002e+00 3.750002e-01 -6.405276e-19 -6.405276e-19
<VARIANCE> 20
 7.309556e+06 1.542846e+05 7.784464e+05 1.000000e-02 1.000000e-02 1.000000e-02 1.000000e-02 1.000000e-02 1.093749e-01 7.800420e+04 3.192736e+03 1.699318e+05 1.169144e+07 2.555452e+06 3.329200e+06 1.530426e+04 4.075002e+01 9.843755e-01 1.000000e-02 1.000000e-02
<GCONST> 1.343749e+02
<STATE> 3
<MEAN> 20
 6.245616e+03 3.607298e+02 1.536512e+03 1.081086e-01 0.000000e+00 0.000000e+00 0.000000e+00 0.000000e+00 0.000000e+00 1.593240e+02 0.000000e+00 4.885683e+02 4.750755e+03 2.797616e+03 2.519450e+02 1.270252e+01 7.026793e-01 7.798996e-31 0.000000e+00 0.000000e+00
<VARIANCE> 20
 3.803833e+06 2.433714e+04 3.709068e+05 2.045297e-01 1.000000e-02 1.000000e-02 1.000000e-02 1.000000e-02 1.000000e-02 3.749662e+04 1.000000e-02 1.707608e+05 1.617685e+06 1.141566e+06 1.154441e+05 2.550675e+02 4.695289e+00 1.000000e-02 1.000000e-02 1.000000e-02
<GCONST> 1.013680e+02
<STATE> 4
<MEAN> 20
 8.761645e+03 3.511105e+02 1.097678e+03 1.111093e-01 0.000000e+00 0.000000e+00 0.000000e+00 0.000000e+00 0.000000e+00 1.315576e+02 2.122184e+01 3.152227e+02 5.597878e+03 3.881223e+03 4.665559e+02 4.300019e+01 1.033326e+01 6.110999e+00 5.555460e-01 0.000000e+00
<VARIANCE> 20
 5.288785e+06 1.373941e+05 7.561666e+05 9.876401e-02 1.000000e-02 1.000000e-02 1.000000e-02 1.000000e-02 1.000000e-02 2.395494e+04 3.560783e+03 6.612526e+04 2.276182e+06 4.578784e+05 1.801906e+04 6.639899e+02 6.466580e+01 7.632016e+01 1.580226e+00 1.000000e-02
<GCONST> 1.299517e+02
<STATE> 5
<MEAN> 20
 6.604267e+03 3.396945e+02 1.578391e+03 0.000000e+00 0.000000e+00 0.000000e+00 0.000000e+00 0.000000e+00 0.000000e+00 1.315595e+02 0.000000e+00 1.934693e+02 4.471819e+03 3.636347e+03 3.234284e+02 2.734853e+01 1.498269e+00 -1.454022e-34 0.000000e+00 0.000000e+00
<VARIANCE> 20
 8.739995e+05 1.284461e+04 1.884786e+05 1.000000e-02 1.000000e-02 1.000000e-02 1.000000e-02 1.000000e-02 1.000000e-02 1.381161e+04 1.000000e-02 1.356457e+04 9.719132e+05 2.648310e+05 3.054451e+04 8.568141e+02 6.617140e+00 1.000000e-02 1.000000e-02 1.000000e-02
<GCONST> 9.028625e+01
<STATE> 6
<MEAN> 20
 9.124732e+03 1.377804e+02 5.274619e+02 0.000000e+00 0.000000e+00 0.000000e+00 0.000000e+00 0.000000e+00 0.000000e+00 1.742119e+02 0.000000e+00 2.541971e+02 5.875385e+03 3.480742e+03 3.063406e+02 3.772790e+01 9.120868e+00 6.528289e-01 2.040093e-02 0.000000e+00
<VARIANCE> 20
 1.872714e+06 2.871343e+04 5.771664e+05 1.000000e-02 1.000000e-02 1.000000e-02 1.000000e-02 1.000000e-02 1.000000e-02 3.411727e+04 1.000000e-02 1.467029e+05 1.804564e+06 1.439249e+06 5.863169e+04 1.721036e+03 2.521103e+02 1.491500e+00 1.998474e-02 1.000000e-02
<GCONST> 1.092558e+02
<STATE> 7
<MEAN> 20
 8.197618e+03 3.173918e+02 1.465898e+03 8.999804e+00 0.000000e+00 0.000000e+00 0.000000e+00 0.000000e+00 0.000000e+00 1.594424e+02 0.000000e+00 5.426185e+02 6.812810e+03 2.599201e+03 1.336094e+02 4.077730e+01 1.233311e+01 5.166564e+00 1.944406e+00 8.888709e-01
<VARIANCE> 20
 1.955050e+06 2.615653e+04 6.082106e+05 3.225502e+02 1.000000e-02 1.000000e-02 1.000000e-02 1.000000e-02 1.000000e-02 5.759146e+04 1.000000e-02 1.170669e+05 9.161012e+05 1.238237e+06 2.113782e+03 1.838036e+03 2.009985e+02 6.080487e+01 2.127434e+01 6.876421e+00
<GCONST> 1.328368e+02
<STATE> 8
<MEAN> 20
 9.640750e+03 2.875001e+02 1.354000e+03 1.049999e+01 0.000000e+00 0.000000e+00 0.000000e+00 0.000000e+00 0.000000e+00 2.507496e+02 0.000000e+00 9.587492e+02 8.348250e+03 2.093750e+03 1.067500e+02 2.699998e+01 6.999985e+00 1.500001e+00 5.000000e-01 0.000000e+00
<VARIANCE> 20
 3.131319e+06 1.832228e+04 5.650465e+05 1.822500e+02 1.000000e-02 1.000000e-02 1.000000e-02 1.000000e-02 1.000000e-02 6.474507e+04 1.000000e-02 3.305770e+05 1.846258e+05 2.598423e+06 5.886880e+02 5.994990e+02 1.094998e+02 2.750004e+00 2.500000e-01 1.000000e-02
<GCONST> 1.155228e+02
<STATE> 9
<MEAN> 20
 8.405298e+03 3.286485e+02 1.393152e+03 1.331842e+00 0.000000e+00 0.000000e+00 0.000000e+00 0.000000e+00 0.000000e+00 3.206367e+02 0.000000e+00 1.194162e+03 7.905815e+03 1.240135e+03 8.975056e+01 1.514299e+01 3.768146e+00 2.923564e-01 0.000000e+00 0.000000e+00
<VARIANCE> 20
 3.846836e+06 4.803107e+04 8.262052e+05 1.567007e+01 1.000000e-02 1.000000e-02 1.000000e-02 1.000000e-02 1.000000e-02 6.179115e+04 1.000000e-02 6.228306e+05 1.523864e+06 8.970462e+05 2.745094e+03 3.577651e+02 5.297796e+01 9.215342e-01 1.000000e-02 1.000000e-02
<GCONST> 1.122377e+02
<STATE> 10
<MEAN> 20
 9.514010e+03 3.810007e+02 1.630418e+03 5.376372e+01 0.000000e+00 0.000000e+00 0.000000e+00 0.000000e+00 0.000000e+00 7.207480e+02 7.024158e+00 2.505213e+03 9.179307e+03 5.318260e+02 6.264769e+01 1.217749e+01 1.681894e+00 6.216057e-02 0.000000e+00 0.000000e+00
<VARIANCE> 20
 2.003818e+06 1.221889e+04 2.330037e+05 2.111170e+03 1.000000e-02 1.000000e-02 1.000000e-02 1.000000e-02 1.000000e-02 5.570112e+04 2.544406e+02 3.492109e+05 1.024385e+06 1.083970e+05 2.677947e+03 4.681399e+02 2.683605e+01 5.829663e-02 1.000000e-02 1.000000e-02
<GCONST> 1.176090e+02
<STATE> 11
<MEAN> 20
 8.463987e+03 3.506990e+02 1.593698e+03 1.038938e+02 0.000000e+00 0.000000e+00 0.000000e+00 0.000000e+00 0.000000e+00 9.018553e+02 2.095543e-01 3.203261e+03 7.647502e+03 4.326168e+02 9.097933e+01 3.435613e+01 4.582581e+00 5.218343e-01 1.047771e-01 0.000000e+00
<VARIANCE> 20
 1.183916e+06 1.184838e+04 2.466512e+05 1.974775e+04 1.000000e-02 1.000000e-02 1.000000e-02 1.000000e-02 1.000000e-02 1.590269e+05 2.704184e-01 1.021449e+06 6.644775e+05 3.495959e+04 1.106049e+03 7.958006e+02 5.172225e+01 1.192517e+00 1.985759e-01 1.000000e-02
<GCONST> 1.193651e+02
<STATE> 12
<MEAN> 20
 8.545932e+03 3.097830e+02 8.773580e+02 3.426193e+02 0.000000e+00 0.000000e+00 0.000000e+00 0.000000e+00 0.000000e+00 8.562359e+02 2.988006e-01 3.521453e+03 6.801317e+03 5.053461e+02 6.211343e+01 2.600909e+01 1.170003e+01 3.390308e+00 1.992004e-01 9.960020e-02
<VARIANCE> 20
 2.968560e+06 1.567361e+04 1.680251e+05 7.785873e+04 1.000000e-02 1.000000e-02 1.000000e-02 1.000000e-02 1.000000e-02 7.930402e+04 8.071200e-01 1.775904e+06 1.904415e+06 1.182111e+05 1.229427e+03 7.136082e+02 2.185466e+02 2.735380e+01 3.587199e-01 8.967999e-02
<GCONST> 1.321298e+02
<STATE> 13
<MEAN> 20
 9.499084e+03 1.661608e+02 5.138378e+02 2.700199e+00 0.000000e+00 0.000000e+00 0.000000e+00 0.000000e+00 0.000000e+00 5.954515e+02 1.000075e+00 1.591933e+03 8.196834e+03 8.550746e+02 8.384308e+01 2.939901e+01 1.324938e+01 4.950014e+00 8.000593e-01 1.500110e-01
<VARIANCE> 20
 3.333079e+06 3.319725e+04 4.961676e+05 5.601357e+01 1.000000e-02 1.000000e-02 1.000000e-02 1.000000e-02 1.000000e-02 1.559500e+05 1.900134e+01 8.818444e+05 2.924713e+06 4.036446e+05 4.597366e+03 4.800382e+02 1.975604e+02 4.044868e+01 3.460207e+00 2.275149e-01
<GCONST> 1.360441e+02
<TRANSP> 14
 0.000000e+00 1.000000e+00 0.000000e+00 0.000000e+00 0.000000e+00 0.000000e+00 0.000000e+00 0.000000e+00 0.000000e+00 0.000000e+00 0.000000e+00 0.000000e+00 0.000000e+00 0.000000e+00
 0.000000e+00 5.000005e-01 4.999996e-01 0.000000e+00 0.000000e+00 0.000000e+00 0.000000e+00 0.000000e+00 0.000000e+00 0.000000e+00 0.000000e+00 0.000000e+00 0.000000e+00 0.000000e+00
 0.000000e+00 0.000000e+00 8.918915e-01 1.081085e-01 0.000000e+00 0.000000e+00 0.000000e+00 0.000000e+00 0.000000e+00 0.000000e+00 0.000000e+00 0.000000e+00 0.000000e+00 0.000000e+00
 0.000000e+00 0.000000e+00 0.000000e+00 5.555635e-01 4.444365e-01 0.000000e+00 0.000000e+00 0.000000e+00 0.000000e+00 0.000000e+00 0.000000e+00 0.000000e+00 0.000000e+00 0.000000e+00
 0.000000e+00 0.000000e+00 0.000000e+00 0.000000e+00 8.749306e-01 1.250694e-01 0.000000e+00 0.000000e+00 0.000000e+00 0.000000e+00 0.000000e+00 0.000000e+00 0.000000e+00 0.000000e+00
 0.000000e+00 0.000000e+00 0.000000e+00 0.000000e+00 0.000000e+00 9.183964e-01 8.160361e-02 0.000000e+00 0.000000e+00 0.000000e+00 0.000000e+00 0.000000e+00 0.000000e+00 0.000000e+00
 0.000000e+00 0.000000e+00 0.000000e+00 0.000000e+00 0.000000e+00 0.000000e+00 7.777825e-01 2.222175e-01 0.000000e+00 0.000000e+00 0.000000e+00 0.000000e+00 0.000000e+00 0.000000e+00
 0.000000e+00 0.000000e+00 0.000000e+00 0.000000e+00 0.000000e+00 0.000000e+00 0.000000e+00 0.000000e+00 1.000000e+00 0.000000e+00 0.000000e+00 0.000000e+00 0.000000e+00 0.000000e+00
 0.000000e+00 0.000000e+00 0.000000e+00 0.000000e+00 0.000000e+00 0.000000e+00 0.000000e+00 0.000000e+00 8.700638e-01 1.299362e-01 0.000000e+00 0.000000e+00 0.000000e+00 0.000000e+00
 0.000000e+00 0.000000e+00 0.000000e+00 0.000000e+00 0.000000e+00 0.000000e+00 0.000000e+00 0.000000e+00 0.000000e+00 7.513572e-01 2.486428e-01 0.000000e+00 0.000000e+00 0.000000e+00
 0.000000e+00 0.000000e+00 0.000000e+00 0.000000e+00 0.000000e+00 0.000000e+00 0.000000e+00 0.000000e+00 0.000000e+00 0.000000e+00 7.904454e-01 2.095547e-01 0.000000e+00 0.000000e+00
 0.000000e+00 0.000000e+00 0.000000e+00 0.000000e+00 0.000000e+00 0.000000e+00 0.000000e+00 0.000000e+00 0.000000e+00 0.000000e+00 0.000000e+00 6.016015e-01 3.983985e-01 0.000000e+00
 0.000000e+00 0.000000e+00 0.000000e+00 0.000000e+00 0.000000e+00 0.000000e+00 0.000000e+00 0.000000e+00 0.000000e+00 0.000000e+00 0.000000e+00 0.000000e+00 7.999851e-01 2.000150e-01
 0.000000e+00 0.000000e+00 0.000000e+00 0.000000e+00 0.000000e+00 0.000000e+00 0.000000e+00 0.000000e+00 0.000000e+00 0.000000e+00 0.000000e+00 0.000000e+00 0.000000e+00 0.000000e+00
<ENDHMM>
~h "g"
<BEGINHMM>
<NUMSTATES> 14
<STATE> 2
<MEAN> 20
 6.290968e+03 3.698236e+01 3.575217e+00 0.000000e+00 3.844320e-02 1.056048e+03 1.744629e+02 1.117226e+02 1.311023e+02 1.792242e+03 4.116761e+00 1.431498e+03 5.437794e+03 1.269912e+03 6.172024e+02 6.419409e+02 1.151374e+02 5.266719e+01 2.379634e+01 3.075456e+00
<VARIANCE> 20
 9.183248e+06 8.309150e+03 3.197131e+02 1.000000e-02 3.696532e-02 9.086844e+05 4.867109e+04 1.349053e+04 1.373646e+04 1.460072e+06 1.168965e+02 1.281384e+06 9.225778e+06 2.159822e+06 3.249800e+05 2.231552e+05 1.266521e+04 4.247511e+03 1.645718e+03 4.305499e+01
<GCONST> 2.208482e+02
<STATE> 3
<MEAN> 20
 4.647073e+03 9.270736e+01 6.759178e+01 0.000000e+00 0.000000e+00 1.783743e+00 8.405991e-01 9.419026e-01 3.237748e+00 2.098799e+01 4.198257e+00 3.138408e+01 5.509889e+02 2.772045e+03 1.398470e+03 5.711428e+01 1.856147e+01 2.351453e+00 5.003091e-02 0.000000e+00
<VARIANCE> 20
 5.670940e+06 3.374778e+04 5.485782e+04 1.000000e-02 1.000000e-02 3.875809e+01 1.199251e+01 9.647803e+00 8.870055e+01 1.546407e+03 9.691507e+01 5.126503e+03 1.316242e+06 2.752516e+06 1.139351e+06 1.139640e+04 3.580147e+03 3.674679e+01 4.752782e-02 1.000000e-02
<GCONST> 1.541315e+02
<STATE> 4
<MEAN> 20
 4.068917e+03 2.871667e+02 3.642501e+02 1.090834e+02 7.108334e+01 1.911666e+02 1.296667e+02 6.733337e+01 3.616668e+01 9.650003e+01 2.375834e+02 2.568335e+02 4.963336e+02 2.056501e+03 1.724750e+03 5.350829e+02 9.866668e+01 1.141667e+01 3.000002e+00 1.166667e+00
<VARIANCE> 20
 1.657418e+06 3.116932e+04 1.576676e+05 4.292243e+04 1.442475e+04 9.107798e+04 3.206157e+04 9.261562e+03 2.920474e+03 1.339892e+04 9.714063e+04 1.040357e+05 2.975415e+05 3.204139e+06 1.268041e+06 2.988925e+05 2.160906e+04 9.019102e+02 6.316671e+01 6.972227e+00
<GCONST> 2.422021e+02
<STATE> 5
<MEAN> 20
 3.880892e+03 1.530241e+02 1.230908e+02 5.286539e+00 5.715189e+00 5.929506e+00 6.401014e+01 2.650418e+01 2.521825e+01 3.393394e+01 1.340212e+02 5.215112e+01 8.308455e+01 6.172340e+02 2.815812e+03 5.995844e+02 1.900298e+01 1.143035e+00 7.858368e-01 7.858369e-01
<VARIANCE> 20
 5.325800e+06 6.727726e+04 7.759884e+04 3.632563e+02 2.010879e+02 1.678014e+02 2.702150e+04 2.133332e+03 2.468312e+03 2.516426e+03 1.037886e+05 4.806596e+03 1.579845e+04 7.999613e+05 5.098289e+06 3.242668e+05 1.128548e+03 1.298141e+01 5.454836e+00 4.597559e+00
<GCONST> 2.086906e+02
<STATE> 6
<MEAN> 20
 2.115826e+03 1.276577e+02 2.134522e+02 6.089886e+01 4.498685e+01 2.241033e+02 3.407970e+01 1.033216e+01 6.832317e+00 4.207574e+01 2.682875e+01 9.115139e+01 1.368090e+02 4.183306e+02 1.420617e+03 6.307149e+02 1.290509e+02 2.374305e+01 1.916101e+00 1.083013e+00
<VARIANCE> 20
 1.416485e+06 1.327944e+04 1.520510e+05 6.027399e+03 3.324120e+03 6.552857e+04 3.823734e+03 2.155168e+02 6.996084e+01 5.270177e+03 1.355209e+03 1.086267e+04 1.382969e+04 1.366415e+05 4.360702e+05 3.653002e+05 5.394089e+04 3.195419e+03 1.640595e+01 7.907725e+00
<GCONST> 2.141794e+02
<STATE> 7
<MEAN> 20
 3.293929e+03 1.171294e+02 5.885012e+01 8.429358e+00 6.929218e+00 8.998970e+00 2.971164e+01 1.735718e+01 5.907615e+01 5.057206e+01 1.632982e+02 4.142263e+01 3.148007e+02 5.035217e+02 1.743123e+03 8.089573e+02 7.364519e+01 2.214494e+00 0.000000e+00 0.000000e+00
<VARIANCE> 20
 4.037166e+06 4.382972e+04 1.252062e+04 5.085716e+02 3.038045e+02 2.201521e+02 3.309009e+03 6.860082e+02 3.511428e+04 5.326598e+03 1.289253e+05 1.892473e+03 8.023807e+05 1.091890e+06 2.592289e+06 6.098127e+05 1.903153e+04 3.474260e+01 1.000000e-02 1.000000e-02
<GCONST> 2.022081e+02
<STATE> 8
<MEAN> 20
 3.966611e+03 7.477782e+01 2.888891e+00 1.666668e-01 6.111114e-01 0.000000e+00 1.666668e-01 5.555559e-02 3.888889e-01 2.311111e+01 1.405556e+01 4.055557e+01 3.010553e+02 8.223326e+02 1.943779e+03 8.967224e+02 4.983335e+01 4.444445e-01 0.000000e+00 0.000000e+00
<VARIANCE> 20
 2.779707e+06 7.237177e+04 8.554325e+01 4.722224e-01 6.348768e+00 1.000000e-02 4.722224e-01 5.246916e-02 1.904320e+00 1.865543e+03 2.183387e+03 2.417937e+04 3.619408e+05 1.110850e+06 3.694424e+06 8.581348e+05 8.166919e+03 1.024692e+00 1.000000e-02 1.000000e-02
<GCONST> 1.413129e+02
<STATE> 9
<MEAN> 20
 7.127481e+03 7.639565e+00 0.000000e+00 0.000000e+00 0.000000e+00 0.000000e+00 0.000000e+00 0.000000e+00 0.000000e+00 7.555575e+01 0.000000e+00 3.900504e+01 3.043576e+03 1.953089e+03 1.850467e+03 3.136418e+02 1.006581e+01 7.623584e-01 6.924079e-02 0.000000e+00
<VARIANCE> 20
 1.738560e+07 6.089565e+02 1.000000e-02 1.000000e-02 1.000000e-02 1.000000e-02 1.000000e-02 1.000000e-02 1.000000e-02 2.117927e+04 1.000000e-02 1.804570e+04 1.480791e+07 5.821056e+06 3.255296e+06 1.403402e+05 3.554768e+02 6.093270e+00 6.444646e-02 1.000000e-02
<GCONST> 1.020293e+02
<STATE> 10
<MEAN> 20
 8.498284e+03 1.537117e+00 0.000000e+00 0.000000e+00 0.000000e+00 0.000000e+00 0.000000e+00 0.000000e+00 0.000000e+00 5.445002e+01 7.123219e-01 3.928928e+01 4.706266e+03 3.664247e+03 1.214241e+02 1.247837e+01 6.106488e+00 2.923116e+00 7.498142e-01 7.498146e-02
<VARIANCE> 20
 3.868044e+06 2.406816e+01 1.000000e-02 1.000000e-02 1.000000e-02 1.000000e-02 1.000000e-02 1.000000e-02 1.000000e-02 4.835660e+03 7.178171e+00 2.822110e+04 5.366314e+06 4.692482e+06 2.010939e+04 2.312242e+02 7.343272e+01 2.638979e+01 2.586998e+00 6.935924e-02
<GCONST> 9.563399e+01
<STATE> 11
<MEAN> 20
 9.700784e+03 0.000000e+00 0.000000e+00 0.000000e+00 0.000000e+00 0.000000e+00 0.000000e+00 0.000000e+00 0.000000e+00 1.157405e+02 0.000000e+00 4.406109e+02 7.422688e+03 1.843304e+03 1.012183e+02 7.808668e+00 8.410985e-01 5.336089e-02 0.000000e+00 0.000000e+00
<VARIANCE> 20
 5.448689e+06 1.000000e-02 1.000000e-02 1.000000e-02 1.000000e-02 1.000000e-02 1.000000e-02 1.000000e-02 1.000000e-02 2.528187e+04 1.000000e-02 5.833353e+05 6.085666e+06 3.052144e+06 2.435857e+04 1.656317e+02 6.140772e+00 7.719399e-02 1.000000e-02 1.000000e-02
<GCONST> 7.004263e+01
<STATE> 12
<MEAN> 20
 1.017294e+04 4.000001e+00 0.000000e+00 0.000000e+00 0.000000e+00 0.000000e+00 0.000000e+00 0.000000e+00 0.000000e+00 4.504996e+01 1.428573e+00 2.474430e+02 6.524124e+03 3.216131e+03 1.669113e+02 4.957385e+01 1.452329e+01 1.857144e+00 0.000000e+00 0.000000e+00
<VARIANCE> 20
 1.453296e+06 5.600004e+01 1.000000e-02 1.000000e-02 1.000000e-02 1.000000e-02 1.000000e-02 1.000000e-02 1.000000e-02 3.219157e+03 1.224491e+01 2.558664e+05 5.101145e+06 4.857194e+06 2.120646e+04 2.081933e+03 5.544810e+02 9.265310e+00 1.000000e-02 1.000000e-02
<GCONST> 9.354846e+01
<STATE> 13
<MEAN> 20
 9.155209e+03 0.000000e+00 0.000000e+00 0.000000e+00 0.000000e+00 0.000000e+00 0.000000e+00 0.000000e+00 0.000000e+00 3.510819e+01 0.000000e+00 2.787523e+02 7.049052e+03 1.728879e+03 1.053934e+02 2.441922e+01 3.595733e+00 1.610274e-01 6.441785e-02 0.000000e+00
<VARIANCE> 20
 1.777722e+06 1.000000e-02 1.000000e-02 1.000000e-02 1.000000e-02 1.000000e-02 1.000000e-02 1.000000e-02 1.000000e-02 5.064446e+03 1.000000e-02 3.712219e+05 3.512524e+06 2.381580e+06 6.121165e+03 7.495978e+02 5.723050e+01 5.215530e-01 2.535218e-01 1.000000e-02
<GCONST> 7.356923e+01
<TRANSP> 14
 0.000000e+00 1.000000e+00 0.000000e+00 0.000000e+00 0.000000e+00 0.000000e+00 0.000000e+00 0.000000e+00 0.000000e+00 0.000000e+00 0.000000e+00 0.000000e+00 0.000000e+00 0.000000e+00
 0.000000e+00 7.308978e-01 2.691022e-01 0.000000e+00 0.000000e+00 0.000000e+00 0.000000e+00 0.000000e+00 0.000000e+00 0.000000e+00 0.000000e+00 0.000000e+00 0.000000e+00 0.000000e+00
 0.000000e+00 0.000000e+00 6.497825e-01 3.502175e-01 0.000000e+00 0.000000e+00 0.000000e+00 0.000000e+00 0.000000e+00 0.000000e+00 0.000000e+00 0.000000e+00 0.000000e+00 0.000000e+00
 0.000000e+00 0.000000e+00 0.000000e+00 4.166668e-01 5.833332e-01 0.000000e+00 0.000000e+00 0.000000e+00 0.000000e+00 0.000000e+00 0.000000e+00 0.000000e+00 0.000000e+00 0.000000e+00
 0.000000e+00 0.000000e+00 0.000000e+00 0.000000e+00 4.999205e-01 5.000796e-01 0.000000e+00 0.000000e+00 0.000000e+00 0.000000e+00 0.000000e+00 0.000000e+00 0.000000e+00 0.000000e+00
 0.000000e+00 0.000000e+00 0.000000e+00 0.000000e+00 0.000000e+00 4.168378e-01 5.831622e-01 0.000000e+00 0.000000e+00 0.000000e+00 0.000000e+00 0.000000e+00 0.000000e+00 0.000000e+00
 0.000000e+00 0.000000e+00 0.000000e+00 0.000000e+00 0.000000e+00 0.000000e+00 4.999534e-01 5.000466e-01 0.000000e+00 0.000000e+00 0.000000e+00 0.000000e+00 0.000000e+00 0.000000e+00
 0.000000e+00 0.000000e+00 0.000000e+00 0.000000e+00 0.000000e+00 0.000000e+00 0.000000e+00 6.111113e-01 3.888887e-01 0.000000e+00 0.000000e+00 0.000000e+00 0.000000e+00 0.000000e+00
 0.000000e+00 0.000000e+00 0.000000e+00 0.000000e+00 0.000000e+00 0.000000e+00 0.000000e+00 0.000000e+00 8.384383e-01 1.615617e-01 0.000000e+00 0.000000e+00 0.000000e+00 0.000000e+00
 0.000000e+00 0.000000e+00 0.000000e+00 0.000000e+00 0.000000e+00 0.000000e+00 0.000000e+00 0.000000e+00 0.000000e+00 7.375655e-01 2.624345e-01 0.000000e+00 0.000000e+00 0.000000e+00
 0.000000e+00 0.000000e+00 0.000000e+00 0.000000e+00 0.000000e+00 0.000000e+00 0.000000e+00 0.000000e+00 0.000000e+00 0.000000e+00 9.066186e-01 9.338141e-02 0.000000e+00 0.000000e+00
 0.000000e+00 0.000000e+00 0.000000e+00 0.000000e+00 0.000000e+00 0.000000e+00 0.000000e+00 0.000000e+00 0.000000e+00 0.000000e+00 0.000000e+00 0.000000e+00 1.000000e+00 0.000000e+00
 0.000000e+00 0.000000e+00 0.000000e+00 0.000000e+00 0.000000e+00 0.000000e+00 0.000000e+00 0.000000e+00 0.000000e+00 0.000000e+00 0.000000e+00 0.000000e+00 8.872689e-01 1.127311e-01
 0.000000e+00 0.000000e+00 0.000000e+00 0.000000e+00 0.000000e+00 0.000000e+00 0.000000e+00 0.000000e+00 0.000000e+00 0.000000e+00 0.000000e+00 0.000000e+00 0.000000e+00 0.000000e+00
<ENDHMM>
~h "h"
<BEGINHMM>
<NUMSTATES> 14
<STATE> 2
<MEAN> 20
 5.488284e+03 4.000004e+00 5.714292e-01 0.000000e+00 3.285718e+00 1.028572e+01 1.115715e+02 8.100008e+01 8.671427e+01 1.557284e+03 8.284280e+02 9.939988e+02 2.673139e+03 1.054858e+03 1.646145e+03 6.985713e+01 2.628569e+01 4.485709e+01 4.857140e+00 5.714288e-01
<VARIANCE> 20
 1.133073e+07 3.114287e+01 1.959185e+00 1.000000e-02 1.734695e+01 2.990614e+02 2.870026e+04 9.381432e+03 1.015848e+04 7.771253e+06 2.436918e+06 1.948723e+06 1.373311e+07 6.138684e+05 2.259761e+06 4.090698e+03 1.028203e+03 5.481260e+03 4.783670e+01 1.102042e+00
<GCONST> 2.069724e+02
<STATE> 3
<MEAN> 20
 7.648538e+03 0.000000e+00 0.000000e+00 0.000000e+00 0.000000e+00 0.000000e+00 0.000000e+00 0.000000e+00 0.000000e+00 4.320768e+02 0.000000e+00 8.104614e+02 4.060230e+03 2.098538e+03 9.070003e+02 1.023846e+02 2.423077e+01 7.046152e+01 7.307691e+00 0.000000e+00
<VARIANCE> 20
 7.486630e+06 1.000000e-02 1.000000e-02 1.000000e-02 1.000000e-02 1.000000e-02 1.000000e-02 1.000000e-02 1.000000e-02 2.198233e+05 1.000000e-02 7.310814e+05 1.371561e+07 3.118487e+06 8.626781e+05 3.074500e+04 1.373716e+03 1.188209e+04 2.279053e+02 1.000000e-02
<GCONST> 1.097625e+02
<STATE> 4
<MEAN> 20
 4.439566e+03 8.482829e+01 1.600026e+01 0.000000e+00 3.466726e+01 2.483376e+01 2.178355e+02 7.000105e+01 3.166721e+01 1.881697e+02 1.099983e+02 3.148363e+02 2.285036e+03 1.369853e+03 7.293424e+02 2.596700e+02 2.466709e+01 1.300022e+01 1.166686e+00 0.000000e+00
<VARIANCE> 20
 1.601193e+07 1.758799e+04 7.483423e+02 1.000000e-02 6.008971e+03 3.083515e+03 2.003746e+05 2.285933e+04 4.826955e+03 8.256166e+04 2.932568e+04 1.194686e+05 1.504562e+07 2.715163e+06 9.289691e+05 1.517622e+05 1.145898e+03 7.233426e+02 6.805647e+00 1.000000e-02
<GCONST> 2.138475e+02
<STATE> 5
<MEAN> 20
 4.135769e+03 2.926679e+02 1.916634e+01 1.549972e+01 6.183221e+01 5.466568e+01 1.824983e+02 8.483195e+01 2.383292e+01 1.708305e+02 5.956597e+02 3.514960e+02 1.884635e+03 3.561647e+02 1.442145e+03 3.746616e+02 1.499974e+01 8.666510e+00 6.666546e+00 6.499882e+00
<VARIANCE> 20
 8.233114e+06 1.852667e+05 7.647976e+02 6.205764e+02 8.530720e+03 5.038518e+03 6.323960e+04 1.397166e+04 6.431379e+02 2.050654e+04 4.499541e+05 8.280691e+04 1.267217e+07 3.714002e+04 7.445796e+05 1.359633e+05 2.543326e+02 2.532189e+02 1.515536e+02 1.422482e+02
<GCONST> 2.300623e+02
<STATE> 6
<MEAN> 20
 3.419866e+03 4.940000e+01 0.000000e+00 0.000000e+00 0.000000e+00 0.000000e+00 1.333334e-01 2.000001e-01 6.666670e-02 2.633328e+01 6.000003e-01 6.666652e+01 7.854651e+02 5.555998e+02 1.675667e+03 3.729335e+02 2.780001e+01 8.800001e+00 1.600001e+00 8.666671e-01
<VARIANCE> 20
 4.856441e+06 1.499238e+04 1.000000e-02 1.000000e-02 1.000000e-02 1.000000e-02 2.488890e-01 5.600002e-01 6.222225e-02 8.269006e+03 2.373335e+00 4.780172e+04 4.987655e+06 6.437121e+05 1.313308e+06 1.112453e+05 3.943762e+03 3.778936e+02 2.317335e+01 6.515559e+00
<GCONST> 1.329965e+02
<STATE> 7
<MEAN> 20
 9.171974e+03 9.197835e-02 0.000000e+00 0.000000e+00 0.000000e+00 0.000000e+00 0.000000e+00 0.000000e+00 0.000000e+00 2.039505e+02 0.000000e+00 3.273905e+02 5.745940e+03 2.053248e+03 1.199922e+03 3.995529e+01 6.936803e+00 2.393366e+00 1.839566e-01 4.598906e-02
<VARIANCE> 20
 1.540981e+07 1.754967e-01 1.000000e-02 1.000000e-02 1.000000e-02 1.000000e-02 1.000000e-02 1.000000e-02 1.000000e-02 5.679874e+04 1.000000e-02 1.768173e+05 1.957805e+07 2.197432e+06 3.366660e+06 3.718990e+03 4.224359e+02 8.036494e+01 4.260516e-01 4.387407e-02
<GCONST> 9.885303e+01
<STATE> 8
<MEAN> 20
 9.978838e+03 0.000000e+00 0.000000e+00 0.000000e+00 0.000000e+00 0.000000e+00 0.000000e+00 0.000000e+00 0.000000e+00 2.219182e+02 0.000000e+00 7.522424e+02 7.345655e+03 1.926704e+03 1.382864e+02 3.145221e+01 5.212608e+00 1.093195e+00 1.095502e-01 0.000000e+00
<VARIANCE> 20
 5.022107e+06 1.000000e-02 1.000000e-02 1.000000e-02 1.000000e-02 1.000000e-02 1.000000e-02 1.000000e-02 1.000000e-02 8.290612e+04 1.000000e-02 6.186358e+05 3.577112e+06 2.072502e+06 8.146074e+03 1.200140e+03 8.194620e+01 1.172987e+01 9.754896e-02 1.000000e-02
<GCONST> 8.106655e+01
<STATE> 9
<MEAN> 20
 9.585073e+03 0.000000e+00 0.000000e+00 0.000000e+00 0.000000e+00 0.000000e+00 0.000000e+00 0.000000e+00 0.000000e+00 3.822047e+02 0.000000e+00 6.339015e+02 8.370647e+03 9.140558e+02 4.462822e+01 4.045396e+00 0.000000e+00 0.000000e+00 0.000000e+00 0.000000e+00
<VARIANCE> 20
 5.397512e+06 1.000000e-02 1.000000e-02 1.000000e-02 1.000000e-02 1.000000e-02 1.000000e-02 1.000000e-02 1.000000e-02 6.989975e+04 1.000000e-02 2.338780e+05 3.291330e+06 5.891352e+05 2.814254e+03 3.607573e+01 1.000000e-02 1.000000e-02 1.000000e-02 1.000000e-02
<GCONST> 5.573042e+01
<STATE> 10
<MEAN> 20
 9.886813e+03 0.000000e+00 0.000000e+00 0.000000e+00 0.000000e+00 0.000000e+00 0.000000e+00 0.000000e+00 0.000000e+00 1.982494e+02 0.000000e+00 9.436045e+02 8.157486e+03 8.036469e+02 1.336238e+02 3.539995e+01 4.772048e+00 6.530169e+00 0.000000e+00 0.000000e+00
<VARIANCE> 20
 1.242687e+06 1.000000e-02 1.000000e-02 1.000000e-02 1.000000e-02 1.000000e-02 1.000000e-02 1.000000e-02 1.000000e-02 4.643982e+04 1.000000e-02 2.392450e+05 1.460041e+05 2.240094e+05 5.782227e+03 1.256656e+03 1.161192e+02 2.969257e+02 1.000000e-02 1.000000e-02
<GCONST> 7.372228e+01
<STATE> 11
<MEAN> 20
 1.162625e+04 1.449999e+01 0.000000e+00 0.000000e+00 0.000000e+00 0.000000e+00 0.000000e+00 0.000000e+00 0.000000e+00 2.902499e+02 2.299999e+01 9.592496e+02 1.010325e+04 6.657503e+02 1.272500e+02 5.074998e+01 1.749999e+00 0.000000e+00 0.000000e+00 0.000000e+00
<VARIANCE> 20
 5.523003e+06 6.307498e+02 1.000000e-02 1.000000e-02 1.000000e-02 1.000000e-02 1.000000e-02 1.000000e-02 1.000000e-02 9.371467e+04 1.587000e+03 5.633443e+05 3.126249e+06 1.672663e+05 1.984067e+04 3.769685e+03 3.687498e+00 1.000000e-02 1.000000e-02 1.000000e-02
<GCONST> 9.115430e+01
<STATE> 12
<MEAN> 20
 1.054745e+04 0.000000e+00 0.000000e+00 0.000000e+00 0.000000e+00 0.000000e+00 0.000000e+00 0.000000e+00 0.000000e+00 6.542415e+01 0.000000e+00 1.488247e+03 8.247463e+03 8.018134e+02 6.447176e+01 1.082330e+01 5.850431e-02 0.000000e+00 0.000000e+00 0.000000e+00
<VARIANCE> 20
 7.070060e+06 1.000000e-02 1.000000e-02 1.000000e-02 1.000000e-02 1.000000e-02 1.000000e-02 1.000000e-02 1.000000e-02 1.208118e+04 1.000000e-02 7.616989e+05 3.783646e+06 1.619578e+05 3.440062e+03 3.104645e+02 5.508156e-02 1.000000e-02 1.000000e-02 1.000000e-02
<GCONST> 5.833324e+01
<STATE> 13
<MEAN> 20
 1.040043e+04 0.000000e+00 0.000000e+00 0.000000e+00 0.000000e+00 0.000000e+00 0.000000e+00 0.000000e+00 0.000000e+00 4.388159e+02 0.000000e+00 1.859372e+03 8.606221e+03 3.552553e+02 1.723932e+01 1.160015e+00 0.000000e+00 0.000000e+00 0.000000e+00 0.000000e+00
<VARIANCE> 20
 1.809876e+06 1.000000e-02 1.000000e-02 1.000000e-02 1.000000e-02 1.000000e-02 1.000000e-02 1.000000e-02 1.000000e-02 7.831492e+04 1.000000e-02 9.333555e+05 8.542079e+05 4.572053e+04 5.303185e+02 1.231477e+01 1.000000e-02 1.000000e-02 1.000000e-02 1.000000e-02
<GCONST> 4.948663e+01
<TRANSP> 14
 0.000000e+00 1.000000e+00 0.000000e+00 0.000000e+00 0.000000e+00 0.000000e+00 0.000000e+00 0.000000e+00 0.000000e+00 0.000000e+00 0.000000e+00 0.000000e+00 0.000000e+00 0.000000e+00
 0.000000e+00 4.285719e-01 5.714281e-01 0.000000e+00 0.000000e+00 0.000000e+00 0.000000e+00 0.000000e+00 0.000000e+00 0.000000e+00 0.000000e+00 0.000000e+00 0.000000e+00 0.000000e+00
 0.000000e+00 0.000000e+00 6.923076e-01 3.076924e-01 0.000000e+00 0.000000e+00 0.000000e+00 0.000000e+00 0.000000e+00 0.000000e+00 0.000000e+00 0.000000e+00 0.000000e+00 0.000000e+00
 0.000000e+00 0.000000e+00 0.000000e+00 3.333215e-01 6.666784e-01 0.000000e+00 0.000000e+00 0.000000e+00 0.000000e+00 0.000000e+00 0.000000e+00 0.000000e+00 0.000000e+00 0.000000e+00
 0.000000e+00 0.000000e+00 0.000000e+00 0.000000e+00 3.333451e-01 6.666548e-01 0.000000e+00 0.000000e+00 0.000000e+00 0.000000e+00 0.000000e+00 0.000000e+00 0.000000e+00 0.000000e+00
 0.000000e+00 0.000000e+00 0.000000e+00 0.000000e+00 0.000000e+00 7.333339e-01 2.666661e-01 0.000000e+00 0.000000e+00 0.000000e+00 0.000000e+00 0.000000e+00 0.000000e+00 0.000000e+00
 0.000000e+00 0.000000e+00 0.000000e+00 0.000000e+00 0.000000e+00 0.000000e+00 8.160436e-01 1.839564e-01 0.000000e+00 0.000000e+00 0.000000e+00 0.000000e+00 0.000000e+00 0.000000e+00
 0.000000e+00 0.000000e+00 0.000000e+00 0.000000e+00 0.000000e+00 0.000000e+00 0.000000e+00 7.808998e-01 2.191003e-01 0.000000e+00 0.000000e+00 0.000000e+00 0.000000e+00 0.000000e+00
 0.000000e+00 0.000000e+00 0.000000e+00 0.000000e+00 0.000000e+00 0.000000e+00 0.000000e+00 0.000000e+00 8.098515e-01 1.901486e-01 0.000000e+00 0.000000e+00 0.000000e+00 0.000000e+00
 0.000000e+00 0.000000e+00 0.000000e+00 0.000000e+00 0.000000e+00 0.000000e+00 0.000000e+00 0.000000e+00 0.000000e+00 4.976792e-01 5.023208e-01 0.000000e+00 0.000000e+00 0.000000e+00
 0.000000e+00 0.000000e+00 0.000000e+00 0.000000e+00 0.000000e+00 0.000000e+00 0.000000e+00 0.000000e+00 0.000000e+00 0.000000e+00 0.000000e+00 1.000000e+00 0.000000e+00 0.000000e+00
 0.000000e+00 0.000000e+00 0.000000e+00 0.000000e+00 0.000000e+00 0.000000e+00 0.000000e+00 0.000000e+00 0.000000e+00 0.000000e+00 0.000000e+00 7.659827e-01 2.340173e-01 0.000000e+00
 0.000000e+00 0.000000e+00 0.000000e+00 0.000000e+00 0.000000e+00 0.000000e+00 0.000000e+00 0.000000e+00 0.000000e+00 0.000000e+00 0.000000e+00 0.000000e+00 9.213008e-01 7.869923e-02
 0.000000e+00 0.000000e+00 0.000000e+00 0.000000e+00 0.000000e+00 0.000000e+00 0.000000e+00 0.000000e+00 0.000000e+00 0.000000e+00 0.000000e+00 0.000000e+00 0.000000e+00 0.000000e+00
<ENDHMM>
~h "i"
<BEGINHMM>
<NUMSTATES> 14
<STATE> 2
<MEAN> 20
 5.147210e+03 6.017410e+01 -0.000000e+00 0.000000e+00 0.000000e+00 -0.000000e+00 0.000000e+00 5.823184e-01 0.000000e+00 1.798806e+02 1.844008e+00 4.830857e+02 2.077329e+03 1.168611e+03 1.418174e+03 1.473292e+02 4.678077e+01 2.964974e+01 8.346548e+00 6.696660e+00
<VARIANCE> 20
 6.998894e+06 6.162430e+04 1.000000e-02 1.000000e-02 1.000000e-02 1.000000e-02 1.000000e-02 6.648725e+00 1.000000e-02 1.719850e+05 6.667194e+01 1.053929e+06 9.076233e+06 1.280134e+06 1.432394e+06 6.004635e+04 1.077165e+04 4.479676e+03 5.461367e+02 8.792938e+02
<GCONST> 1.539693e+02
<STATE> 3
<MEAN> 20
 4.263046e+03 7.156272e+01 1.218768e+01 1.375020e+00 2.856292e+01 3.587553e+01 1.764401e+02 4.512561e+01 1.775026e+01 2.324884e+02 3.271297e+02 6.083966e+02 1.874298e+03 7.116056e+02 1.050595e+03 1.663886e+02 6.962550e+01 4.950030e+01 2.068778e+01 6.187580e+00
<VARIANCE> 20
 1.073154e+07 1.692349e+04 8.425374e+02 2.835976e+01 5.356563e+03 9.850734e+03 1.153626e+05 7.838948e+03 1.727458e+03 2.123569e+05 3.453048e+05 8.813158e+05 8.745671e+06 1.702743e+06 1.249299e+06 3.188851e+04 1.196269e+04 1.340925e+04 4.716654e+03 2.279052e+02
<GCONST> 2.448509e+02
<STATE> 4
<MEAN> 20
 5.838415e+03 1.808322e+01 0.000000e+00 0.000000e+00 0.000000e+00 -0.000000e+00 2.199997e+01 3.883330e+01 4.208336e+01 3.955265e+02 1.471666e+02 9.011259e+02 2.627448e+03 1.064074e+03 1.356703e+03 1.032213e+02 1.002621e+02 4.610701e+01 7.333270e+00 1.499990e+00
<VARIANCE> 20
 8.491738e+06 2.765721e+03 1.000000e-02 1.000000e-02 1.000000e-02 1.000000e-02 3.306477e+03 7.644093e+03 8.114705e+03 2.444061e+05 8.085675e+04 1.604174e+06 1.199969e+07 1.183341e+06 1.800356e+06 1.552383e+04 4.029085e+04 5.231462e+03 3.317198e+02 2.191649e+01
<GCONST> 1.886541e+02
<STATE> 5
<MEAN> 20
 5.575253e+03 2.499974e+00 0.000000e+00 0.000000e+00 3.199966e+00 9.999894e-01 5.379943e+01 1.829981e+01 8.299911e+00 3.139781e+02 8.409911e+01 9.137052e+02 2.799911e+03 7.589337e+02 1.328953e+03 4.900040e+01 2.535741e+01 1.587096e+01 4.999948e-01 0.000000e+00
<VARIANCE> 20
 1.000366e+07 5.624949e+01 1.000000e-02 1.000000e-02 9.215913e+01 5.799950e+00 1.395384e+04 1.431999e+03 2.796078e+02 1.424052e+05 3.229542e+04 1.561770e+06 1.176151e+07 1.078518e+06 1.737022e+06 7.936495e+03 5.268929e+03 2.244629e+03 2.249980e+00 1.000000e-02
<GCONST> 1.789410e+02
<STATE> 6
<MEAN> 20
 7.586556e+03 2.946238e+02 6.099889e+01 1.219974e-01 0.000000e+00 0.000000e+00 7.319579e-01 7.319601e-01 5.245863e+00 3.675611e+02 1.732360e+01 1.031378e+03 5.373546e+03 8.779752e+02 9.164082e+02 9.382417e+01 5.933253e+00 1.829940e-01 0.000000e+00 0.000000e+00
<VARIANCE> 20
 1.699265e+07 6.678816e+05 2.453028e+04 2.291114e-01 1.000000e-02 1.000000e-02 8.247734e+00 6.905807e+00 3.229791e+02 2.056587e+05 3.104229e+03 1.379668e+06 2.329050e+07 5.874648e+05 1.475336e+06 2.913331e+04 7.379385e+01 1.495072e-01 1.000000e-02 1.000000e-02
<GCONST> 1.583949e+02
<STATE> 7
<MEAN> 20
 6.598719e+03 4.040014e+00 0.000000e+00 0.000000e+00 0.000000e+00 0.000000e+00 0.000000e+00 0.000000e+00 0.000000e+00 3.249991e+02 0.000000e+00 8.689925e+02 3.839042e+03 1.155761e+03 9.079255e+02 8.991865e+01 4.987930e+01 1.619972e+01 3.999922e-02 -0.000000e+00
<VARIANCE> 20
 5.108908e+06 1.328388e+02 1.000000e-02 1.000000e-02 1.000000e-02 1.000000e-02 1.000000e-02 1.000000e-02 1.000000e-02 1.928088e+05 1.000000e-02 1.048258e+06 1.132868e+07 1.190028e+06 1.421361e+06 2.746877e+04 8.899509e+03 1.335339e+03 3.839929e-02 1.000000e-02
<GCONST> 1.093300e+02
<STATE> 8
<MEAN> 20
 5.434765e+03 6.666812e-01 -4.063766e-44 0.000000e+00 0.000000e+00 0.000000e+00 0.000000e+00 6.666558e+00 1.599974e+01 1.985503e+02 2.611125e+01 7.396480e+02 2.488887e+03 1.281446e+03 1.024781e+03 8.244310e+01 9.555397e+00 3.666606e+00 1.111093e-01 0.000000e+00
<VARIANCE> 20
 9.124584e+06 1.777806e+00 1.000000e-02 1.000000e-02 1.000000e-02 1.000000e-02 1.000000e-02 3.555505e+02 2.047971e+03 8.789790e+04 2.421004e+03 1.620106e+06 1.039045e+07 1.542676e+06 1.236499e+06 5.194150e+04 7.304587e+02 1.075540e+02 9.876402e-02 1.000000e-02
<GCONST> 1.369483e+02
<STATE> 9
<MEAN> 20
 4.785903e+03 2.375589e+02 6.322178e+01 3.555526e+00 5.933285e+01 3.155533e+01 4.734409e+02 9.166611e+01 5.566655e+01 3.205565e+02 7.895504e+02 6.086684e+02 1.670955e+03 1.490454e+03 9.957205e+02 2.388330e+02 1.588325e+02 1.046104e+02 6.266619e+01 2.166662e+00
<VARIANCE> 20
 7.430132e+06 3.649961e+05 2.300456e+04 9.102404e+01 1.384747e+04 5.897761e+03 6.017321e+05 1.869633e+04 5.256528e+03 6.221810e+04 1.647760e+06 8.335554e+05 7.249062e+06 1.544380e+06 7.179689e+05 6.120462e+04 9.487296e+04 7.354684e+04 2.358817e+04 2.347209e+01
<GCONST> 2.592996e+02
<STATE> 10
<MEAN> 20
 5.209306e+03 -3.050589e-32 0.000000e+00 0.000000e+00 0.000000e+00 0.000000e+00 0.000000e+00 6.411709e+00 3.941143e+00 1.677070e+02 4.117611e+00 3.557643e+02 1.972379e+03 1.043879e+03 1.761340e+03 9.670612e+01 5.347153e+01 6.505975e+01 3.247123e+01 2.176537e+00
<VARIANCE> 20
 5.136810e+06 1.000000e-02 1.000000e-02 1.000000e-02 1.000000e-02 1.000000e-02 1.000000e-02 5.412968e+02 1.066428e+02 5.968951e+04 1.389262e+02 5.859802e+05 9.554789e+06 1.396094e+06 2.202323e+06 6.180732e+04 2.404453e+04 3.274116e+04 9.658833e+03 7.579456e+01
<GCONST> 1.546001e+02
<STATE> 11
<MEAN> 20
 5.447889e+03 7.272858e+00 0.000000e+00 0.000000e+00 1.045474e+01 5.636469e+00 1.530938e+02 2.127304e+01 1.418199e+01 2.544550e+02 1.820943e+02 5.214489e+02 2.880365e+03 5.624498e+02 1.244259e+03 2.040920e+02 1.694571e+02 9.991019e+01 4.772709e+01 2.454591e+00
<VARIANCE> 20
 7.587320e+06 1.974737e+02 1.000000e-02 1.000000e-02 1.092994e+03 1.436880e+02 2.005107e+05 2.396055e+03 7.319781e+02 4.683714e+04 2.520078e+05 4.761430e+05 1.027043e+07 6.627888e+05 3.337068e+06 9.430166e+04 1.515976e+05 2.309232e+04 8.326089e+03 6.024894e+01
<GCONST> 2.146159e+02
<STATE> 12
<MEAN> 20
 5.128984e+03 1.279969e+01 9.999748e-01 0.000000e+00 0.000000e+00 0.000000e+00 4.800066e+00 1.446674e+01 6.466694e+00 3.390659e+02 4.733339e+00 6.216629e+02 2.902791e+03 3.907290e+02 8.751288e+02 3.977366e+02 1.177345e+02 7.106705e+01 1.137337e+02 1.226679e+01
<VARIANCE> 20
 8.572671e+06 2.169043e+03 1.399967e+01 1.000000e-02 1.000000e-02 1.000000e-02 2.142960e+02 1.218527e+03 1.301164e+02 1.165652e+05 1.736634e+02 6.257659e+05 1.195927e+07 3.866106e+05 1.375511e+06 3.028483e+05 2.983337e+04 1.558189e+04 6.393939e+04 6.598030e+02
<GCONST> 1.901709e+02
<STATE> 13
<MEAN> 20
 7.131928e+03 -0.000000e+00 0.000000e+00 0.000000e+00 0.000000e+00 0.000000e+00 0.000000e+00 0.000000e+00 0.000000e+00 2.093528e+02 0.000000e+00 1.158087e+03 5.599907e+03 2.966750e+02 2.783729e+02 8.238557e+00 -0.000000e+00 0.000000e+00 0.000000e+00 0.000000e+00
<VARIANCE> 20
 4.612950e+06 1.000000e-02 1.000000e-02 1.000000e-02 1.000000e-02 1.000000e-02 1.000000e-02 1.000000e-02 1.000000e-02 6.356085e+04 1.000000e-02 8.040298e+05 6.302818e+06 1.766795e+05 6.586309e+05 1.310712e+03 1.000000e-02 1.000000e-02 1.000000e-02 1.000000e-02
<GCONST> 6.520668e+01
<TRANSP> 14
 0.000000e+00 1.000000e+00 0.000000e+00 0.000000e+00 0.000000e+00 0.000000e+00 0.000000e+00 0.000000e+00 0.000000e+00 0.000000e+00 0.000000e+00 0.000000e+00 0.000000e+00 0.000000e+00
 0.000000e+00 5.632694e-01 4.367306e-01 0.000000e+00 0.000000e+00 0.000000e+00 0.000000e+00 0.000000e+00 0.000000e+00 0.000000e+00 0.000000e+00 0.000000e+00 0.000000e+00 0.000000e+00
 0.000000e+00 0.000000e+00 4.375041e-01 5.624959e-01 0.000000e+00 0.000000e+00 0.000000e+00 0.000000e+00 0.000000e+00 0.000000e+00 0.000000e+00 0.000000e+00 0.000000e+00 0.000000e+00
 0.000000e+00 0.000000e+00 0.000000e+00 2.499961e-01 7.500040e-01 0.000000e+00 0.000000e+00 0.000000e+00 0.000000e+00 0.000000e+00 0.000000e+00 0.000000e+00 0.000000e+00 0.000000e+00
 0.000000e+00 0.000000e+00 0.000000e+00 0.000000e+00 9.999829e-02 9.000017e-01 0.000000e+00 0.000000e+00 0.000000e+00 0.000000e+00 0.000000e+00 0.000000e+00 0.000000e+00 0.000000e+00
 0.000000e+00 0.000000e+00 0.000000e+00 0.000000e+00 0.000000e+00 4.510228e-01 5.489772e-01 0.000000e+00 0.000000e+00 0.000000e+00 0.000000e+00 0.000000e+00 0.000000e+00 0.000000e+00
 0.000000e+00 0.000000e+00 0.000000e+00 0.000000e+00 0.000000e+00 0.000000e+00 6.400001e-01 3.599999e-01 0.000000e+00 0.000000e+00 0.000000e+00 0.000000e+00 0.000000e+00 0.000000e+00
 0.000000e+00 0.000000e+00 0.000000e+00 0.000000e+00 0.000000e+00 0.000000e+00 0.000000e+00 2.964500e-37 1.000000e+00 0.000000e+00 0.000000e+00 0.000000e+00 0.000000e+00 0.000000e+00
 0.000000e+00 0.000000e+00 0.000000e+00 0.000000e+00 0.000000e+00 0.000000e+00 0.000000e+00 0.000000e+00 4.999948e-01 5.000052e-01 0.000000e+00 0.000000e+00 0.000000e+00 0.000000e+00
 0.000000e+00 0.000000e+00 0.000000e+00 0.000000e+00 0.000000e+00 0.000000e+00 0.000000e+00 0.000000e+00 0.000000e+00 4.705831e-01 5.294169e-01 0.000000e+00 0.000000e+00 0.000000e+00
 0.000000e+00 0.000000e+00 0.000000e+00 0.000000e+00 0.000000e+00 0.000000e+00 0.000000e+00 0.000000e+00 0.000000e+00 0.000000e+00 1.818209e-01 8.181791e-01 0.000000e+00 0.000000e+00
 0.000000e+00 0.000000e+00 0.000000e+00 0.000000e+00 0.000000e+00 0.000000e+00 0.000000e+00 0.000000e+00 0.000000e+00 0.000000e+00 0.000000e+00 4.000043e-01 5.999957e-01 0.000000e+00
 0.000000e+00 0.000000e+00 0.000000e+00 0.000000e+00 0.000000e+00 0.000000e+00 0.000000e+00 0.000000e+00 0.000000e+00 0.000000e+00 0.000000e+00 0.000000e+00 8.731344e-01 1.268656e-01
 0.000000e+00 0.000000e+00 0.000000e+00 0.000000e+00 0.000000e+00 0.000000e+00 0.000000e+00 0.000000e+00 0.000000e+00 0.000000e+00 0.000000e+00 0.000000e+00 0.000000e+00 0.000000e+00
<ENDHMM>
~h "j"
<BEGINHMM>
<NUMSTATES> 14
<STATE> 2
<MEAN> 20
 8.231184e+03 7.813493e-36 0.000000e+00 0.000000e+00 0.000000e+00 0.000000e+00 0.000000e+00 0.000000e+00 0.000000e+00 4.076261e+02 -2.101948e-44 1.188327e+03 6.411434e+03 6.412581e+02 2.598638e+02 8.586169e+01 3.448734e+01 1.728875e+01 2.894639e-01 0.000000e+00
<VARIANCE> 20
 5.373168e+06 1.000000e-02 1.000000e-02 1.000000e-02 1.000000e-02 1.000000e-02 1.000000e-02 1.000000e-02 1.000000e-02 1.319549e+05 1.000000e-02 9.650289e+05 6.503630e+06 2.481723e+05 4.063091e+05 3.337293e+04 3.290032e+03 1.334586e+03 1.100376e+00 1.000000e-02
<GCONST> 9.860368e+01
<STATE> 3
<MEAN> 20
 1.028757e+04 5.003848e+01 4.000048e-01 0.000000e+00 0.000000e+00 0.000000e+00 0.000000e+00 0.000000e+00 0.000000e+00 2.502145e+02 6.499978e-01 1.147516e+03 8.294772e+03 9.225983e+02 1.127299e+02 6.878619e+01 2.867149e+01 1.160025e+01 9.000055e-01 0.000000e+00
<VARIANCE> 20
 8.100434e+06 3.195031e+04 3.040035e+00 1.000000e-02 1.000000e-02 1.000000e-02 1.000000e-02 1.000000e-02 1.000000e-02 7.273170e+04 4.027507e+00 1.069237e+06 4.698734e+06 8.089816e+05 7.132012e+04 4.455753e+04 8.031658e+03 1.209347e+03 6.490061e+00 1.000000e-02
<GCONST> 1.271878e+02
<STATE> 4
<MEAN> 20
 1.017286e+04 1.753531e+00 0.000000e+00 0.000000e+00 0.000000e+00 0.000000e+00 0.000000e+00 0.000000e+00 0.000000e+00 2.265927e+02 0.000000e+00 1.130747e+03 8.517634e+03 6.766781e+02 5.553106e+01 1.507384e+01 4.247087e+00 1.290635e+00 0.000000e+00 0.000000e+00
<VARIANCE> 20
 2.928008e+06 7.202505e+01 1.000000e-02 1.000000e-02 1.000000e-02 1.000000e-02 1.000000e-02 1.000000e-02 1.000000e-02 5.710315e+04 1.000000e-02 7.113783e+05 2.930994e+06 2.003957e+05 2.297256e+03 3.614705e+02 8.858626e+01 2.689483e+01 1.000000e-02 1.000000e-02
<GCONST> 8.280471e+01
<STATE> 5
<MEAN> 20
 9.217256e+03 0.000000e+00 0.000000e+00 0.000000e+00 0.000000e+00 0.000000e+00 0.000000e+00 0.000000e+00 0.000000e+00 1.586048e+02 1.499910e-01 8.998387e+02 7.690448e+03 7.457521e+02 3.704047e+01 2.630761e+00 -0.000000e+00 0.000000e+00 0.000000e+00 0.000000e+00
<VARIANCE> 20
 2.841527e+06 1.000000e-02 1.000000e-02 1.000000e-02 1.000000e-02 1.000000e-02 1.000000e-02 1.000000e-02 1.000000e-02 3.090002e+04 4.274756e-01 9.529074e+05 1.906944e+06 3.220612e+05 1.355481e+03 4.189773e+01 1.000000e-02 1.000000e-02 1.000000e-02 1.000000e-02
<GCONST> 5.770192e+01
<STATE> 6
<MEAN> 20
 9.196793e+03 0.000000e+00 0.000000e+00 0.000000e+00 0.000000e+00 0.000000e+00 0.000000e+00 0.000000e+00 0.000000e+00 2.450320e+02 0.000000e+00 9.804891e+02 7.760490e+03 6.449434e+02 4.934122e+01 6.291053e+00 2.542935e-01 3.096035e-03 3.096035e-03 9.288092e-03
<VARIANCE> 20
 2.064219e+06 1.000000e-02 1.000000e-02 1.000000e-02 1.000000e-02 1.000000e-02 1.000000e-02 1.000000e-02 1.000000e-02 4.879133e+04 1.000000e-02 6.255168e+05 1.257194e+06 2.099298e+05 3.018120e+03 1.569538e+02 1.709123e+00 1.000000e-02 1.000000e-02 2.777791e-02
<GCONST> 6.110229e+01
<STATE> 7
<MEAN> 20
 1.173070e+04 1.991855e+01 0.000000e+00 0.000000e+00 0.000000e+00 0.000000e+00 0.000000e+00 0.000000e+00 2.001874e-01 5.132692e+02 1.211133e+01 1.685551e+03 9.649757e+03 8.433198e+02 5.552489e+01 1.526202e+01 2.395750e+00 1.668200e-01 0.000000e+00 0.000000e+00
<VARIANCE> 20
 8.145969e+06 2.289463e+03 1.000000e-02 1.000000e-02 1.000000e-02 1.000000e-02 1.000000e-02 1.000000e-02 1.161049e+00 2.008328e+05 2.201817e+03 2.042214e+06 6.641914e+06 4.638061e+05 4.144958e+03 6.182493e+02 2.538851e+01 2.724466e-01 1.000000e-02 1.000000e-02
<GCONST> 1.035981e+02
<STATE> 8
<MEAN> 20
 9.660632e+03 0.000000e+00 0.000000e+00 0.000000e+00 0.000000e+00 0.000000e+00 0.000000e+00 0.000000e+00 0.000000e+00 3.048420e+02 1.192922e-02 9.713923e+02 8.061550e+03 8.258748e+02 8.977824e+01 1.549158e+01 1.350363e+00 2.385844e-02 0.000000e+00 0.000000e+00
<VARIANCE> 20
 1.706765e+06 1.000000e-02 1.000000e-02 1.000000e-02 1.000000e-02 1.000000e-02 1.000000e-02 1.000000e-02 1.000000e-02 1.063953e+05 2.371614e-02 7.709372e+05 1.655408e+06 2.739119e+05 8.222385e+04 6.565688e+02 7.939235e+00 3.521838e-02 1.000000e-02 1.000000e-02
<GCONST> 6.981460e+01
<STATE> 9
<MEAN> 20
 1.086500e+04 2.022182e+00 0.000000e+00 0.000000e+00 0.000000e+00 0.000000e+00 0.000000e+00 0.000000e+00 0.000000e+00 2.448118e+02 2.963746e-42 5.037795e+02 8.063081e+03 2.269427e+03 2.218240e+02 4.382149e+01 8.720654e+00 1.072631e+00 1.055050e-01 0.000000e+00
<VARIANCE> 20
 3.367026e+06 6.106021e+01 1.000000e-02 1.000000e-02 1.000000e-02 1.000000e-02 1.000000e-02 1.000000e-02 1.000000e-02 5.576264e+04 1.000000e-02 3.025104e+05 4.851862e+06 2.037974e+06 9.805098e+04 1.161757e+03 7.867856e+01 3.403755e+00 1.998787e-01 1.000000e-02
<GCONST> 9.045460e+01
<STATE> 10
<MEAN> 20
 9.194944e+03 0.000000e+00 0.000000e+00 0.000000e+00 0.000000e+00 0.000000e+00 0.000000e+00 0.000000e+00 0.000000e+00 1.779841e+02 0.000000e+00 2.899392e+02 6.364064e+03 2.533225e+03 1.609939e+02 2.313630e+01 1.569827e+00 0.000000e+00 0.000000e+00 0.000000e+00
<VARIANCE> 20
 3.180949e+06 1.000000e-02 1.000000e-02 1.000000e-02 1.000000e-02 1.000000e-02 1.000000e-02 1.000000e-02 1.000000e-02 5.052221e+04 1.000000e-02 1.429586e+05 4.462224e+06 2.461277e+06 1.944958e+04 6.646032e+02 1.118272e+01 1.000000e-02 1.000000e-02 1.000000e-02
<GCONST> 6.798515e+01
<STATE> 11
<MEAN> 20
 8.621657e+03 3.972757e+00 0.000000e+00 0.000000e+00 0.000000e+00 0.000000e+00 0.000000e+00 2.702553e-02 8.107657e-02 1.859141e+02 3.513299e-01 1.985460e+02 4.048381e+03 3.986732e+03 5.390501e+02 3.386175e+01 4.134906e+00 5.405124e-01 2.702563e-02 2.702563e-02
<VARIANCE> 20
 1.441378e+07 1.241286e+02 1.000000e-02 1.000000e-02 1.000000e-02 1.000000e-02 1.000000e-02 2.629515e-02 2.366563e-01 6.680634e+04 3.254755e+00 3.101364e+05 9.692136e+06 7.299562e+06 3.170384e+05 1.488336e+03 5.995322e+01 3.059026e+00 2.629526e-02 2.629526e-02
<GCONST> 1.046889e+02
<STATE> 12
<MEAN> 20
 4.557659e+03 6.965530e+01 1.585694e+01 2.598629e+00 2.224745e+01 1.990029e+02 1.587875e+02 4.147366e+01 1.481555e+01 1.318273e+02 3.651757e+02 2.559364e+02 1.609826e+03 1.483967e+03 1.082038e+03 3.439280e+02 6.425847e+01 8.795043e+00 0.000000e+00 0.000000e+00
<VARIANCE> 20
 1.077213e+07 3.270135e+04 1.923398e+03 1.121476e+02 4.800712e+03 9.073158e+05 1.755016e+05 6.919016e+03 1.124068e+03 3.805696e+04 4.026235e+05 2.722178e+05 6.838478e+06 2.467618e+06 1.545771e+06 3.617999e+05 4.608064e+04 1.920288e+03 1.000000e-02 1.000000e-02
<GCONST> 2.283255e+02
<STATE> 13
<MEAN> 20
 9.244013e+03 1.669464e+01 4.803160e-01 3.625030e-02 5.256319e-01 4.837885e+02 1.265802e+02 6.971367e+01 7.596313e+01 6.704352e+02 5.153469e+01 9.237501e+02 6.498047e+03 1.725746e+03 9.409506e+02 4.366941e+02 8.956351e+01 1.614337e+01 5.718485e+00 8.156382e-02
<VARIANCE> 20
 1.707540e+07 3.878520e+03 5.741539e+00 8.931181e-02 8.206307e+00 3.787918e+05 3.708343e+04 4.954576e+03 4.509456e+03 4.783806e+05 3.465364e+04 1.737435e+06 2.162766e+07 1.756146e+06 1.966950e+06 1.611050e+05 8.189835e+04 8.882227e+03 2.426658e+03 2.561635e-01
<GCONST> 2.258851e+02
<TRANSP> 14
 0.000000e+00 1.000000e+00 0.000000e+00 0.000000e+00 0.000000e+00 0.000000e+00 0.000000e+00 0.000000e+00 0.000000e+00 0.000000e+00 0.000000e+00 0.000000e+00 0.000000e+00 0.000000e+00
 0.000000e+00 4.737090e-01 5.262911e-01 0.000000e+00 0.000000e+00 0.000000e+00 0.000000e+00 0.000000e+00 0.000000e+00 0.000000e+00 0.000000e+00 0.000000e+00 0.000000e+00 0.000000e+00
 0.000000e+00 0.000000e+00 0.000000e+00 1.000000e+00 0.000000e+00 0.000000e+00 0.000000e+00 0.000000e+00 0.000000e+00 0.000000e+00 0.000000e+00 0.000000e+00 0.000000e+00 0.000000e+00
 0.000000e+00 0.000000e+00 0.000000e+00 5.836682e-01 4.163318e-01 0.000000e+00 0.000000e+00 0.000000e+00 0.000000e+00 0.000000e+00 0.000000e+00 0.000000e+00 0.000000e+00 0.000000e+00
 0.000000e+00 0.000000e+00 0.000000e+00 0.000000e+00 0.000000e+00 1.000000e+00 0.000000e+00 0.000000e+00 0.000000e+00 0.000000e+00 0.000000e+00 0.000000e+00 0.000000e+00 0.000000e+00
 0.000000e+00 0.000000e+00 0.000000e+00 0.000000e+00 0.000000e+00 9.380798e-01 6.192018e-02 0.000000e+00 0.000000e+00 0.000000e+00 0.000000e+00 0.000000e+00 0.000000e+00 0.000000e+00
 0.000000e+00 0.000000e+00 0.000000e+00 0.000000e+00 0.000000e+00 0.000000e+00 3.327169e-01 6.672831e-01 0.000000e+00 0.000000e+00 0.000000e+00 0.000000e+00 0.000000e+00 0.000000e+00
 0.000000e+00 0.000000e+00 0.000000e+00 0.000000e+00 0.000000e+00 0.000000e+00 0.000000e+00 8.807089e-01 1.192911e-01 0.000000e+00 0.000000e+00 0.000000e+00 0.000000e+00 0.000000e+00
 0.000000e+00 0.000000e+00 0.000000e+00 0.000000e+00 0.000000e+00 0.000000e+00 0.000000e+00 0.000000e+00 6.483210e-01 3.516790e-01 0.000000e+00 0.000000e+00 0.000000e+00 0.000000e+00
 0.000000e+00 0.000000e+00 0.000000e+00 0.000000e+00 0.000000e+00 0.000000e+00 0.000000e+00 0.000000e+00 0.000000e+00 8.873518e-01 1.126482e-01 0.000000e+00 0.000000e+00 0.000000e+00
 0.000000e+00 0.000000e+00 0.000000e+00 0.000000e+00 0.000000e+00 0.000000e+00 0.000000e+00 0.000000e+00 0.000000e+00 0.000000e+00 4.594940e-01 5.405060e-01 0.000000e+00 0.000000e+00
 0.000000e+00 0.000000e+00 0.000000e+00 0.000000e+00 0.000000e+00 0.000000e+00 0.000000e+00 0.000000e+00 0.000000e+00 0.000000e+00 0.000000e+00 4.696721e-01 5.303279e-01 0.000000e+00
 0.000000e+00 0.000000e+00 0.000000e+00 0.000000e+00 0.000000e+00 0.000000e+00 0.000000e+00 0.000000e+00 0.000000e+00 0.000000e+00 0.000000e+00 0.000000e+00 8.187429e-01 1.812571e-01
 0.000000e+00 0.000000e+00 0.000000e+00 0.000000e+00 0.000000e+00 0.000000e+00 0.000000e+00 0.000000e+00 0.000000e+00 0.000000e+00 0.000000e+00 0.000000e+00 0.000000e+00 0.000000e+00
<ENDHMM>
~h "sil"
<BEGINHMM>
<NUMSTATES> 14
<STATE> 2
<MEAN> 20
 8.733496e+03 4.487418e-02 0.000000e+00 0.000000e+00 0.000000e+00 0.000000e+00 0.000000e+00 0.000000e+00 0.000000e+00 5.993726e+01 0.000000e+00 2.852129e+01 2.662573e+03 4.598870e+03 1.303902e+03 1.379378e+02 3.879042e+01 1.650290e+01 5.662728e+00 7.179867e-01
<VARIANCE> 20
 3.766961e+06 4.286048e-02 1.000000e-02 1.000000e-02 1.000000e-02 1.000000e-02 1.000000e-02 1.000000e-02 1.000000e-02 4.117682e+03 1.000000e-02 5.167696e+03 5.110268e+06 3.215219e+06 8.427318e+05 9.003346e+03 7.277557e+02 1.187874e+02 3.445864e+01 2.266695e+00
<GCONST> 9.768668e+01
<STATE> 3
<MEAN> 20
 8.095658e+03 0.000000e+00 0.000000e+00 0.000000e+00 0.000000e+00 0.000000e+00 0.000000e+00 0.000000e+00 0.000000e+00 1.952020e+01 0.000000e+00 1.209356e+01 2.992927e+03 4.093131e+03 8.957411e+02 7.737721e+01 3.182978e+01 1.074403e+01 1.230376e+00 1.036964e-01
<VARIANCE> 20
 3.796979e+06 1.000000e-02 1.000000e-02 1.000000e-02 1.000000e-02 1.000000e-02 1.000000e-02 1.000000e-02 1.000000e-02 6.841989e+02 1.000000e-02 1.273865e+03 3.108594e+06 2.793625e+06 7.618651e+05 2.179319e+03 5.061563e+02 8.011154e+01 3.519902e+00 9.294348e-02
<GCONST> 8.465453e+01
<STATE> 4
<MEAN> 20
 8.104936e+03 0.000000e+00 0.000000e+00 0.000000e+00 0.000000e+00 0.000000e+00 0.000000e+00 0.000000e+00 0.000000e+00 2.582574e+01 0.000000e+00 3.920720e-29 4.184452e+03 3.461773e+03 3.970912e+02 6.079741e+01 2.112990e+01 5.120687e+00 3.979012e-01 0.000000e+00
<VARIANCE> 20
 1.964583e+06 1.000000e-02 1.000000e-02 1.000000e-02 1.000000e-02 1.000000e-02 1.000000e-02 1.000000e-02 1.000000e-02 2.192702e+03 1.000000e-02 1.000000e-02 1.755497e+06 9.602196e+05 1.438545e+05 6.991548e+02 1.218831e+02 2.422730e+01 5.728328e-01 1.000000e-02
<GCONST> 6.229733e+01
<STATE> 5
<MEAN> 20
 8.851881e+03 0.000000e+00 0.000000e+00 0.000000e+00 0.000000e+00 0.000000e+00 0.000000e+00 0.000000e+00 0.000000e+00 5.005056e+01 0.000000e+00 3.844104e+01 5.726584e+03 2.785564e+03 2.782122e+02 5.912188e+01 1.205434e+01 1.920839e+00 3.260894e-02 0.000000e+00
<VARIANCE> 20
 3.773334e+06 1.000000e-02 1.000000e-02 1.000000e-02 1.000000e-02 1.000000e-02 1.000000e-02 1.000000e-02 1.000000e-02 3.328039e+03 1.000000e-02 3.627237e+03 3.626751e+06 8.814374e+05 2.498496e+05 7.734591e+03 8.117173e+01 7.054575e+00 3.154559e-02 1.000000e-02
<GCONST> 7.522482e+01
<STATE> 6
<MEAN> 20
 7.592981e+03 2.483342e+01 0.000000e+00 0.000000e+00 0.000000e+00 0.000000e+00 0.000000e+00 0.000000e+00 0.000000e+00 3.517749e+01 0.000000e+00 6.301768e+01 5.024288e+03 2.332503e+03 1.790307e+02 4.138533e+01 1.103083e+01 1.737149e+00 0.000000e+00 0.000000e+00
<VARIANCE> 20
 5.025747e+06 6.394992e+03 1.000000e-02 1.000000e-02 1.000000e-02 1.000000e-02 1.000000e-02 1.000000e-02 1.000000e-02 2.139521e+03 1.000000e-02 1.349030e+04 4.145708e+06 1.222540e+06 4.494543e+04 2.030094e+03 2.110870e+02 1.306304e+01 1.000000e-02 1.000000e-02
<GCONST> 8.758237e+01
<STATE> 7
<MEAN> 20
 8.790327e+03 0.000000e+00 0.000000e+00 0.000000e+00 0.000000e+00 0.000000e+00 0.000000e+00 0.000000e+00 0.000000e+00 5.956205e+01 0.000000e+00 1.776689e+02 6.207535e+03 2.298691e+03 1.288112e+02 3.378934e+01 3.339018e+00 5.443931e-02 0.000000e+00 0.000000e+00
<VARIANCE> 20
 1.312785e+06 1.000000e-02 1.000000e-02 1.000000e-02 1.000000e-02 1.000000e-02 1.000000e-02 1.000000e-02 1.000000e-02 4.193702e+03 1.000000e-02 6.658834e+04 1.186087e+06 6.169024e+05 2.710638e+03 3.461350e+02 1.455140e+01 7.749902e-02 1.000000e-02 1.000000e-02
<GCONST> 6.082655e+01
<STATE> 8
<MEAN> 20
 9.816352e+03 0.000000e+00 0.000000e+00 0.000000e+00 0.000000e+00 0.000000e+00 0.000000e+00 0.000000e+00 0.000000e+00 2.566297e+02 0.000000e+00 5.092175e+02 6.995688e+03 2.418968e+03 1.126766e+02 3.067109e+01 5.323159e+00 4.073542e-01 2.901956e-02 0.000000e+00
<VARIANCE> 20
 3.072128e+06 1.000000e-02 1.000000e-02 1.000000e-02 1.000000e-02 1.000000e-02 1.000000e-02 1.000000e-02 1.000000e-02 3.185587e+04 1.000000e-02 2.696257e+05 1.879280e+06 8.302988e+05 2.343171e+03 4.028185e+02 3.713583e+01 1.057467e+00 2.817743e-02 1.000000e-02
<GCONST> 7.045240e+01
<STATE> 9
<MEAN> 20
