~o
<STREAMINFO> 1 1
<VECSIZE> 1<NULLD><USER><DIAGC>
~h "a"
<BEGINHMM>
<NUMSTATES> 8
<STATE> 2
<MEAN> 1
 3.371649e+00
<VARIANCE> 1
 2.450469e+00
<GCONST> 2.734156e+00
<STATE> 3
<MEAN> 1
 9.292551e+00
<VARIANCE> 1
 2.801215e+00
<GCONST> 2.867930e+00
<STATE> 4
<MEAN> 1
 5.405355e+00
<VARIANCE> 1
 1.646556e+00
<GCONST> 2.336563e+00
<STATE> 5
<MEAN> 1
 2.179065e+00
<VARIANCE> 1
 2.643973e-01
<GCONST> 5.075746e-01
<STATE> 6
<MEAN> 1
 3.190518e+00
<VARIANCE> 1
 7.513347e-01
<GCONST> 1.551973e+00
<STATE> 7
<MEAN> 1
 8.119897e-01
<VARIANCE> 1
 1.467888e-01
<GCONST> -8.088338e-02
<TRANSP> 8
 0.000000e+00 1.000000e+00 0.000000e+00 0.000000e+00 0.000000e+00 0.000000e+00 0.000000e+00 0.000000e+00
 0.000000e+00 9.544138e-01 4.558619e-02 0.000000e+00 0.000000e+00 0.000000e+00 0.000000e+00 0.000000e+00
 0.000000e+00 0.000000e+00 9.828353e-01 1.716476e-02 0.000000e+00 0.000000e+00 0.000000e+00 0.000000e+00
 0.000000e+00 0.000000e+00 0.000000e+00 9.733714e-01 2.662854e-02 0.000000e+00 0.000000e+00 0.000000e+00
 0.000000e+00 0.000000e+00 0.000000e+00 0.000000e+00 9.489358e-01 5.106417e-02 0.000000e+00 0.000000e+00
 0.000000e+00 0.000000e+00 0.000000e+00 0.000000e+00 0.000000e+00 9.122348e-01 8.776521e-02 0.000000e+00
 0.000000e+00 0.000000e+00 0.000000e+00 0.000000e+00 0.000000e+00 0.000000e+00 9.313199e-01 6.868014e-02
 0.000000e+00 0.000000e+00 0.000000e+00 0.000000e+00 0.000000e+00 0.000000e+00 0.000000e+00 0.000000e+00
<ENDHMM>
~h "e"
<BEGINHMM>
<NUMSTATES> 8
<STATE> 2
<MEAN> 1
 -1.697391e-03
<VARIANCE> 1
 1.000000e-02
<GCONST> -2.767293e+00
<STATE> 3
<MEAN> 1
 5.581903e+00
<VARIANCE> 1
 1.674190e+01
<GCONST> 4.655791e+00
<STATE> 4
<MEAN> 1
 -9.012644e-01
<VARIANCE> 1
 2.001843e-01
<GCONST> 2.293602e-01
<STATE> 5
<MEAN> 1
 -1.766144e+00
<VARIANCE> 1
 3.488798e-02
<GCONST> -1.517736e+00
<STATE> 6
<MEAN> 1
 -2.950269e+00
<VARIANCE> 1
 6.090127e-01
<GCONST> 1.341961e+00
<STATE> 7
<MEAN> 1
 -5.842700e+00
<VARIANCE> 1
 6.790723e-01
<GCONST> 1.450849e+00
<TRANSP> 8
 0.000000e+00 1.000000e+00 0.000000e+00 0.000000e+00 0.000000e+00 0.000000e+00 0.000000e+00 0.000000e+00
 0.000000e+00 9.930939e-01 6.906079e-03 0.000000e+00 0.000000e+00 0.000000e+00 0.000000e+00 0.000000e+00
 0.000000e+00 0.000000e+00 8.757912e-01 1.242088e-01 0.000000e+00 0.000000e+00 0.000000e+00 0.000000e+00
 0.000000e+00 0.000000e+00 0.000000e+00 9.672337e-01 3.276634e-02 0.000000e+00 0.000000e+00 0.000000e+00
 0.000000e+00 0.000000e+00 0.000000e+00 0.000000e+00 0.000000e+00 1.000000e+00 0.000000e+00 0.000000e+00
 0.000000e+00 0.000000e+00 0.000000e+00 0.000000e+00 0.000000e+00 9.700344e-01 2.996561e-02 0.000000e+00
 0.000000e+00 0.000000e+00 0.000000e+00 0.000000e+00 0.000000e+00 0.000000e+00 9.708167e-01 2.918329e-02
 0.000000e+00 0.000000e+00 0.000000e+00 0.000000e+00 0.000000e+00 0.000000e+00 0.000000e+00 0.000000e+00
<ENDHMM>
~h "i"
<BEGINHMM>
<NUMSTATES> 8
<STATE> 2
<MEAN> 1
 -7.170697e+00
<VARIANCE> 1
 4.466563e+00
<GCONST> 3.334496e+00
<STATE> 3
<MEAN> 1
 -9.829253e+00
<VARIANCE> 1
 1.014551e+00
<GCONST> 1.852323e+00
<STATE> 4
<MEAN> 1
 -7.431919e+00
<VARIANCE> 1
 8.053365e-01
<GCONST> 1.621382e+00
<STATE> 5
<MEAN> 1
 -4.362951e+00
<VARIANCE> 1
 4.929467e-01
<GCONST> 1.130523e+00
<STATE> 6
<MEAN> 1
 -2.267799e+00
<VARIANCE> 1
 2.364224e-01
<GCONST> 3.957417e-01
<STATE> 7
<MEAN> 1
 -9.521549e-01
<VARIANCE> 1
 7.632294e-02
<GCONST> -7.349048e-01
<TRANSP> 8
 0.000000e+00 1.000000e+00 0.000000e+00 0.000000e+00 0.000000e+00 0.000000e+00 0.000000e+00 0.000000e+00
 0.000000e+00 8.899253e-01 1.100746e-01 0.000000e+00 0.000000e+00 0.000000e+00 0.000000e+00 0.000000e+00
 0.000000e+00 0.000000e+00 9.833375e-01 1.666243e-02 0.000000e+00 0.000000e+00 0.000000e+00 0.000000e+00
 0.000000e+00 0.000000e+00 0.000000e+00 9.768634e-01 2.313657e-02 0.000000e+00 0.000000e+00 0.000000e+00
 0.000000e+00 0.000000e+00 0.000000e+00 0.000000e+00 9.509909e-01 4.900915e-02 0.000000e+00 0.000000e+00
 0.000000e+00 0.000000e+00 0.000000e+00 0.000000e+00 0.000000e+00 9.358944e-01 6.410554e-02 0.000000e+00
 0.000000e+00 0.000000e+00 0.000000e+00 0.000000e+00 0.000000e+00 0.000000e+00 8.761784e-01 1.238216e-01
 0.000000e+00 0.000000e+00 0.000000e+00 0.000000e+00 0.000000e+00 0.000000e+00 0.000000e+00 0.000000e+00
<ENDHMM>
~h "m"
<BEGINHMM>
<NUMSTATES> 8
<STATE> 2
<MEAN> 1
 -3.205214e-01
<VARIANCE> 1
 1.329374e-02
<GCONST> -2.482585e+00
<STATE> 3
<MEAN> 1
 1.717138e-03
<VARIANCE> 1
 1.000000e-02
<GCONST> -2.767293e+00
<STATE> 4
<MEAN> 1
 7.573436e-01
<VARIANCE> 1
 1.294644e-01
<GCONST> -2.064724e-01
<STATE> 5
<MEAN> 1
 1.753458e+00
<VARIANCE> 1
 1.131218e-01
<GCONST> -3.414130e-01
<STATE> 6
<MEAN> 1
 3.150413e+00
<VARIANCE> 1
 3.652144e-01
<GCONST> 8.306062e-01
<STATE> 7
<MEAN> 1
 6.529035e+00
<VARIANCE> 1
 2.308214e+00
<GCONST> 2.674351e+00
<TRANSP> 8
 0.000000e+00 1.000000e+00 0.000000e+00 0.000000e+00 0.000000e+00 0.000000e+00 0.000000e+00 0.000000e+00
 0.000000e+00 6.851633e-01 3.148367e-01 0.000000e+00 0.000000e+00 0.000000e+00 0.000000e+00 0.000000e+00
 0.000000e+00 0.000000e+00 9.931974e-01 6.802650e-03 0.000000e+00 0.000000e+00 0.000000e+00 0.000000e+00
 0.000000e+00 0.000000e+00 0.000000e+00 9.545193e-01 4.548066e-02 0.000000e+00 0.000000e+00 0.000000e+00
 0.000000e+00 0.000000e+00 0.000000e+00 0.000000e+00 9.290968e-01 7.090326e-02 0.000000e+00 0.000000e+00
 0.000000e+00 0.000000e+00 0.000000e+00 0.000000e+00 0.000000e+00 9.535937e-01 4.640632e-02 0.000000e+00
 0.000000e+00 0.000000e+00 0.000000e+00 0.000000e+00 0.000000e+00 0.000000e+00 9.586300e-01 4.136994e-02
 0.000000e+00 0.000000e+00 0.000000e+00 0.000000e+00 0.000000e+00 0.000000e+00 0.000000e+00 0.000000e+00
<ENDHMM>
~h "sil"
<BEGINHMM>
<NUMSTATES> 8
<STATE> 2
<MEAN> 1
 -2.897414e+00
<VARIANCE> 1
 3.024949e+00
<GCONST> 2.944771e+00
<STATE> 3
<MEAN> 1
 3.066016e+00
<VARIANCE> 1
 1.581579e+01
<GCONST> 4.598886e+00
<STATE> 4
<MEAN> 1
 1.072322e+01
<VARIANCE> 1
 4.595556e+00
<GCONST> 3.362967e+00
<STATE> 5
<MEAN> 1
 6.085992e+00
<VARIANCE> 1
 4.096960e+00
<GCONST> 3.248122e+00
<STATE> 6
<MEAN> 1
 2.472811e+00
<VARIANCE> 1
 4.727720e+00
<GCONST> 3.391320e+00
<STATE> 7
<MEAN> 1
 1.378482e-01
<VARIANCE> 1
 9.357474e-01
<GCONST> 1.771467e+00
<TRANSP> 8
 0.000000e+00 1.000000e+00 0.000000e+00 0.000000e+00 0.000000e+00 0.000000e+00 0.000000e+00 0.000000e+00
 0.000000e+00 9.689637e-01 3.103619e-02 0.000000e+00 0.000000e+00 0.000000e+00 0.000000e+00 0.000000e+00
 0.000000e+00 0.000000e+00 0.000000e+00 1.000000e+00 0.000000e+00 0.000000e+00 0.000000e+00 0.000000e+00
 0.000000e+00 0.000000e+00 0.000000e+00 9.775789e-01 2.242099e-02 0.000000e+00 0.000000e+00 0.000000e+00
 0.000000e+00 0.000000e+00 0.000000e+00 0.000000e+00 9.106742e-01 8.932582e-02 0.000000e+00 0.000000e+00
 0.000000e+00 0.000000e+00 0.000000e+00 0.000000e+00 0.000000e+00 4.986721e-01 5.013279e-01 0.000000e+00
 0.000000e+00 0.000000e+00 0.000000e+00 0.000000e+00 0.000000e+00 0.000000e+00 9.643056e-01 3.569446e-02
 0.000000e+00 0.000000e+00 0.000000e+00 0.000000e+00 0.000000e+00 0.000000e+00 0.000000e+00 0.000000e+00
<ENDHMM>
