~o
<STREAMINFO> 1 1
<VECSIZE> 1<NULLD><USER><DIAGC>
~h "a"
<BEGINHMM>
<NUMSTATES> 8
<STATE> 2
<MEAN> 1
 -9.550935e-01
<VARIANCE> 1
 4.298986e-01
<GCONST> 9.936711e-01
<STATE> 3
<MEAN> 1
 2.001035e-01
<VARIANCE> 1
 2.118730e-01
<GCONST> 2.861087e-01
<STATE> 4
<MEAN> 1
 1.130235e-01
<VARIANCE> 1
 4.855027e-02
<GCONST> -1.187279e+00
<STATE> 5
<MEAN> 1
 1.523071e+00
<VARIANCE> 1
 3.076300e-01
<GCONST> 6.590196e-01
<STATE> 6
<MEAN> 1
 3.390417e+00
<VARIANCE> 1
 4.465125e-01
<GCONST> 1.031589e+00
<STATE> 7
<MEAN> 1
 7.680771e+00
<VARIANCE> 1
 3.101724e+00
<GCONST> 2.969835e+00
<TRANSP> 8
 0.000000e+00 1.000000e+00 0.000000e+00 0.000000e+00 0.000000e+00 0.000000e+00 0.000000e+00 0.000000e+00
 0.000000e+00 9.104323e-01 8.956767e-02 0.000000e+00 0.000000e+00 0.000000e+00 0.000000e+00 0.000000e+00
 0.000000e+00 0.000000e+00 8.969682e-02 9.103032e-01 0.000000e+00 0.000000e+00 0.000000e+00 0.000000e+00
 0.000000e+00 0.000000e+00 0.000000e+00 9.699436e-01 3.005641e-02 0.000000e+00 0.000000e+00 0.000000e+00
 0.000000e+00 0.000000e+00 0.000000e+00 0.000000e+00 9.806494e-01 1.935065e-02 0.000000e+00 0.000000e+00
 0.000000e+00 0.000000e+00 0.000000e+00 0.000000e+00 0.000000e+00 9.790137e-01 2.098630e-02 0.000000e+00
 0.000000e+00 0.000000e+00 0.000000e+00 0.000000e+00 0.000000e+00 0.000000e+00 9.894223e-01 1.057776e-02
 0.000000e+00 0.000000e+00 0.000000e+00 0.000000e+00 0.000000e+00 0.000000e+00 0.000000e+00 0.000000e+00
<ENDHMM>
~h "e"
<BEGINHMM>
<NUMSTATES> 8
<STATE> 2
<MEAN> 1
 2.947679e+00
<VARIANCE> 1
 2.086180e+00
<GCONST> 2.573212e+00
<STATE> 3
<MEAN> 1
 7.692119e+00
<VARIANCE> 1
 1.180960e+01
<GCONST> 4.306789e+00
<STATE> 4
<MEAN> 1
 1.229372e-02
<VARIANCE> 1
 4.714291e-02
<GCONST> -1.216695e+00
<STATE> 5
<MEAN> 1
 -8.344890e-01
<VARIANCE> 1
 7.704279e-02
<GCONST> -7.255173e-01
<STATE> 6
<MEAN> 1
 -2.122084e+00
<VARIANCE> 1
 2.267154e-01
<GCONST> 3.538173e-01
<STATE> 7
<MEAN> 1
 -4.079027e+00
<VARIANCE> 1
 3.894817e-01
<GCONST> 8.949387e-01
<TRANSP> 8
 0.000000e+00 1.000000e+00 0.000000e+00 0.000000e+00 0.000000e+00 0.000000e+00 0.000000e+00 0.000000e+00
 0.000000e+00 9.797642e-01 2.023573e-02 0.000000e+00 0.000000e+00 0.000000e+00 0.000000e+00 0.000000e+00
 0.000000e+00 0.000000e+00 9.594014e-01 4.059852e-02 0.000000e+00 0.000000e+00 0.000000e+00 0.000000e+00
 0.000000e+00 0.000000e+00 0.000000e+00 9.813005e-01 1.869950e-02 0.000000e+00 0.000000e+00 0.000000e+00
 0.000000e+00 0.000000e+00 0.000000e+00 0.000000e+00 9.570589e-01 4.294112e-02 0.000000e+00 0.000000e+00
 0.000000e+00 0.000000e+00 0.000000e+00 0.000000e+00 0.000000e+00 9.754052e-01 2.459473e-02 0.000000e+00
 0.000000e+00 0.000000e+00 0.000000e+00 0.000000e+00 0.000000e+00 0.000000e+00 9.708020e-01 2.919797e-02
 0.000000e+00 0.000000e+00 0.000000e+00 0.000000e+00 0.000000e+00 0.000000e+00 0.000000e+00 0.000000e+00
<ENDHMM>
~h "i"
<BEGINHMM>
<NUMSTATES> 8
<STATE> 2
<MEAN> 1
 -5.614962e+00
<VARIANCE> 1
 3.386057e-01
<GCONST> 7.549580e-01
<STATE> 3
<MEAN> 1
 -5.233081e+00
<VARIANCE> 1
 2.358766e+00
<GCONST> 2.696015e+00
<STATE> 4
<MEAN> 1
 -7.976949e+00
<VARIANCE> 1
 1.047000e+00
<GCONST> 1.883806e+00
<STATE> 5
<MEAN> 1
 -5.174771e+00
<VARIANCE> 1
 2.718425e+00
<GCONST> 2.837929e+00
<STATE> 6
<MEAN> 1
 -5.959202e+00
<VARIANCE> 1
 5.699761e-01
<GCONST> 1.275716e+00
<STATE> 7
<MEAN> 1
 -3.493501e+00
<VARIANCE> 1
 4.494162e-01
<GCONST> 1.038071e+00
<TRANSP> 8
 0.000000e+00 1.000000e+00 0.000000e+00 0.000000e+00 0.000000e+00 0.000000e+00 0.000000e+00 0.000000e+00
 0.000000e+00 9.373332e-01 6.266677e-02 0.000000e+00 0.000000e+00 0.000000e+00 0.000000e+00 0.000000e+00
 0.000000e+00 0.000000e+00 0.000000e+00 1.000000e+00 0.000000e+00 0.000000e+00 0.000000e+00 0.000000e+00
 0.000000e+00 0.000000e+00 0.000000e+00 9.840829e-01 1.591709e-02 0.000000e+00 0.000000e+00 0.000000e+00
 0.000000e+00 0.000000e+00 0.000000e+00 0.000000e+00 3.926433e-01 6.073568e-01 0.000000e+00 0.000000e+00
 0.000000e+00 0.000000e+00 0.000000e+00 0.000000e+00 0.000000e+00 9.759144e-01 2.408561e-02 0.000000e+00
 0.000000e+00 0.000000e+00 0.000000e+00 0.000000e+00 0.000000e+00 0.000000e+00 9.657959e-01 3.420416e-02
 0.000000e+00 0.000000e+00 0.000000e+00 0.000000e+00 0.000000e+00 0.000000e+00 0.000000e+00 0.000000e+00
<ENDHMM>
~h "m"
<BEGINHMM>
<NUMSTATES> 8
<STATE> 2
<MEAN> 1
 -1.393968e+00
<VARIANCE> 1
 3.253801e-01
<GCONST> 7.151157e-01
<STATE> 3
<MEAN> 1
 -7.449013e-03
<VARIANCE> 1
 1.000000e-02
<GCONST> -2.767293e+00
<STATE> 4
<MEAN> 1
 -1.275698e-01
<VARIANCE> 1
 5.612883e-02
<GCONST> -1.042229e+00
<STATE> 5
<MEAN> 1
 -7.632225e-02
<VARIANCE> 1
 4.534089e-02
<GCONST> -1.255669e+00
<STATE> 6
<MEAN> 1
 -2.476209e-02
<VARIANCE> 1
 3.879007e-02
<GCONST> -1.411714e+00
<STATE> 7
<MEAN> 1
 -3.157275e-01
<VARIANCE> 1
 9.342161e-02
<GCONST> -5.327556e-01
<TRANSP> 8
 0.000000e+00 1.000000e+00 0.000000e+00 0.000000e+00 0.000000e+00 0.000000e+00 0.000000e+00 0.000000e+00
 0.000000e+00 9.623327e-01 3.766737e-02 0.000000e+00 0.000000e+00 0.000000e+00 0.000000e+00 0.000000e+00
 0.000000e+00 0.000000e+00 9.787498e-01 2.125017e-02 0.000000e+00 0.000000e+00 0.000000e+00 0.000000e+00
 0.000000e+00 0.000000e+00 0.000000e+00 0.000000e+00 1.000000e+00 0.000000e+00 0.000000e+00 0.000000e+00
 0.000000e+00 0.000000e+00 0.000000e+00 0.000000e+00 0.000000e+00 1.000000e+00 0.000000e+00 0.000000e+00
 0.000000e+00 0.000000e+00 0.000000e+00 0.000000e+00 0.000000e+00 0.000000e+00 1.000000e+00 0.000000e+00
 0.000000e+00 0.000000e+00 0.000000e+00 0.000000e+00 0.000000e+00 0.000000e+00 7.254388e-01 2.745611e-01
 0.000000e+00 0.000000e+00 0.000000e+00 0.000000e+00 0.000000e+00 0.000000e+00 0.000000e+00 0.000000e+00
<ENDHMM>
~h "sil"
<BEGINHMM>
<NUMSTATES> 8
<STATE> 2
<MEAN> 1
 2.749045e-01
<VARIANCE> 1
 2.053520e+00
<GCONST> 2.557433e+00
<STATE> 3
<MEAN> 1
 -3.331335e+00
<VARIANCE> 1
 1.030833e+00
<GCONST> 1.868244e+00
<STATE> 4
<MEAN> 1
 3.118466e-01
<VARIANCE> 1
 4.241691e+00
<GCONST> 3.282839e+00
<STATE> 5
<MEAN> 1
 9.220490e+00
<VARIANCE> 1
 1.023467e+01
<GCONST> 4.163658e+00
<STATE> 6
<MEAN> 1
 1.490731e+00
<VARIANCE> 1
 1.081694e+00
<GCONST> 1.916405e+00
<STATE> 7
<MEAN> 1
 1.680129e-01
<VARIANCE> 1
 1.448291e+00
<GCONST> 2.208261e+00
<TRANSP> 8
 0.000000e+00 1.000000e+00 0.000000e+00 0.000000e+00 0.000000e+00 0.000000e+00 0.000000e+00 0.000000e+00
 0.000000e+00 9.636698e-01 3.633017e-02 0.000000e+00 0.000000e+00 0.000000e+00 0.000000e+00 0.000000e+00
 0.000000e+00 0.000000e+00 9.786705e-01 2.132953e-02 0.000000e+00 0.000000e+00 0.000000e+00 0.000000e+00
 0.000000e+00 0.000000e+00 0.000000e+00 0.000000e+00 1.000000e+00 0.000000e+00 0.000000e+00 0.000000e+00
 0.000000e+00 0.000000e+00 0.000000e+00 0.000000e+00 9.411911e-01 5.880886e-02 0.000000e+00 0.000000e+00
 0.000000e+00 0.000000e+00 0.000000e+00 0.000000e+00 0.000000e+00 9.379032e-01 6.209685e-02 0.000000e+00
 0.000000e+00 0.000000e+00 0.000000e+00 0.000000e+00 0.000000e+00 0.000000e+00 0.000000e+00 1.000000e+00
 0.000000e+00 0.000000e+00 0.000000e+00 0.000000e+00 0.000000e+00 0.000000e+00 0.000000e+00 0.000000e+00
<ENDHMM>
