~o
<STREAMINFO> 1 1
<VECSIZE> 1<NULLD><USER><DIAGC>
~h "a"
<BEGINHMM>
<NUMSTATES> 8
<STATE> 2
<MEAN> 1
 8.882834e+00
<VARIANCE> 1
 1.713977e+00
<GCONST> 2.376694e+00
<STATE> 3
<MEAN> 1
 1.444315e+01
<VARIANCE> 1
 3.610349e+00
<GCONST> 3.121682e+00
<STATE> 4
<MEAN> 1
 1.094339e+01
<VARIANCE> 1
 1.422271e+00
<GCONST> 2.190132e+00
<STATE> 5
<MEAN> 1
 8.504403e+00
<VARIANCE> 1
 1.191797e+00
<GCONST> 2.013340e+00
<STATE> 6
<MEAN> 1
 6.715008e+00
<VARIANCE> 1
 1.534906e+00
<GCONST> 2.266346e+00
<STATE> 7
<MEAN> 1
 3.112124e+00
<VARIANCE> 1
 1.386448e+00
<GCONST> 2.164622e+00
<TRANSP> 8
 0.000000e+00 1.000000e+00 0.000000e+00 0.000000e+00 0.000000e+00 0.000000e+00 0.000000e+00 0.000000e+00
 0.000000e+00 9.451501e-01 5.484984e-02 0.000000e+00 0.000000e+00 0.000000e+00 0.000000e+00 0.000000e+00
 0.000000e+00 0.000000e+00 9.719182e-01 2.808176e-02 0.000000e+00 0.000000e+00 0.000000e+00 0.000000e+00
 0.000000e+00 0.000000e+00 0.000000e+00 9.443899e-01 5.561012e-02 0.000000e+00 0.000000e+00 0.000000e+00
 0.000000e+00 0.000000e+00 0.000000e+00 0.000000e+00 0.000000e+00 1.000000e+00 0.000000e+00 0.000000e+00
 0.000000e+00 0.000000e+00 0.000000e+00 0.000000e+00 0.000000e+00 9.182186e-01 8.178141e-02 0.000000e+00
 0.000000e+00 0.000000e+00 0.000000e+00 0.000000e+00 0.000000e+00 0.000000e+00 8.838285e-01 1.161714e-01
 0.000000e+00 0.000000e+00 0.000000e+00 0.000000e+00 0.000000e+00 0.000000e+00 0.000000e+00 0.000000e+00
<ENDHMM>
~h "e"
<BEGINHMM>
<NUMSTATES> 8
<STATE> 2
<MEAN> 1
 5.542412e+00
<VARIANCE> 1
 2.483279e+01
<GCONST> 5.050042e+00
<STATE> 3
<MEAN> 1
 -1.759893e-01
<VARIANCE> 1
 2.181900e-01
<GCONST> 3.154881e-01
<STATE> 4
<MEAN> 1
 -1.536985e+00
<VARIANCE> 1
 6.474788e-02
<GCONST> -8.993771e-01
<STATE> 5
<MEAN> 1
 -1.995091e+00
<VARIANCE> 1
 1.304884e-01
<GCONST> -1.985936e-01
<STATE> 6
<MEAN> 1
 -5.869705e+00
<VARIANCE> 1
 2.992112e+00
<GCONST> 2.933856e+00
<STATE> 7
<MEAN> 1
 -3.681484e+00
<VARIANCE> 1
 1.254431e+00
<GCONST> 2.064559e+00
<TRANSP> 8
 0.000000e+00 1.000000e+00 0.000000e+00 0.000000e+00 0.000000e+00 0.000000e+00 0.000000e+00 0.000000e+00
 0.000000e+00 6.437653e-01 3.562347e-01 0.000000e+00 0.000000e+00 0.000000e+00 0.000000e+00 0.000000e+00
 0.000000e+00 0.000000e+00 9.468784e-01 5.312154e-02 0.000000e+00 0.000000e+00 0.000000e+00 0.000000e+00
 0.000000e+00 0.000000e+00 0.000000e+00 0.000000e+00 1.000000e+00 0.000000e+00 0.000000e+00 0.000000e+00
 0.000000e+00 0.000000e+00 0.000000e+00 0.000000e+00 0.000000e+00 1.000000e+00 0.000000e+00 0.000000e+00
 0.000000e+00 0.000000e+00 0.000000e+00 0.000000e+00 0.000000e+00 9.502298e-01 4.977026e-02 0.000000e+00
 0.000000e+00 0.000000e+00 0.000000e+00 0.000000e+00 0.000000e+00 0.000000e+00 9.570117e-01 4.298831e-02
 0.000000e+00 0.000000e+00 0.000000e+00 0.000000e+00 0.000000e+00 0.000000e+00 0.000000e+00 0.000000e+00
<ENDHMM>
~h "i"
<BEGINHMM>
<NUMSTATES> 8
<STATE> 2
<MEAN> 1
 -7.618333e+00
<VARIANCE> 1
 1.977011e+00
<GCONST> 2.519463e+00
<STATE> 3
<MEAN> 1
 -2.708577e+00
<VARIANCE> 1
 2.267171e+00
<GCONST> 2.656410e+00
<STATE> 4
<MEAN> 1
 1.590644e+00
<VARIANCE> 1
 3.744828e+00
<GCONST> 3.158253e+00
<STATE> 5
<MEAN> 1
 -6.744442e-03
<VARIANCE> 1
 1.000000e-02
<GCONST> -2.767293e+00
<STATE> 6
<MEAN> 1
 -3.255418e+00
<VARIANCE> 1
 7.514102e+00
<GCONST> 3.854659e+00
<STATE> 7
<MEAN> 1
 3.591072e+00
<VARIANCE> 1
 7.824471e+00
<GCONST> 3.895133e+00
<TRANSP> 8
 0.000000e+00 1.000000e+00 0.000000e+00 0.000000e+00 0.000000e+00 0.000000e+00 0.000000e+00 0.000000e+00
 0.000000e+00 9.730978e-01 2.690219e-02 0.000000e+00 0.000000e+00 0.000000e+00 0.000000e+00 0.000000e+00
 0.000000e+00 0.000000e+00 9.433830e-01 5.661701e-02 0.000000e+00 0.000000e+00 0.000000e+00 0.000000e+00
 0.000000e+00 0.000000e+00 0.000000e+00 8.974473e-01 1.025527e-01 0.000000e+00 0.000000e+00 0.000000e+00
 0.000000e+00 0.000000e+00 0.000000e+00 0.000000e+00 9.337781e-01 6.622188e-02 0.000000e+00 0.000000e+00
 0.000000e+00 0.000000e+00 0.000000e+00 0.000000e+00 0.000000e+00 8.571020e-01 1.428980e-01 0.000000e+00
 0.000000e+00 0.000000e+00 0.000000e+00 0.000000e+00 0.000000e+00 0.000000e+00 8.333736e-01 1.666264e-01
 0.000000e+00 0.000000e+00 0.000000e+00 0.000000e+00 0.000000e+00 0.000000e+00 0.000000e+00 0.000000e+00
<ENDHMM>
~h "m"
<BEGINHMM>
<NUMSTATES> 8
<STATE> 2
<MEAN> 1
 -8.061975e-01
<VARIANCE> 1
 8.948315e-01
<GCONST> 1.726757e+00
<STATE> 3
<MEAN> 1
 1.424876e+00
<VARIANCE> 1
 4.689071e-01
<GCONST> 1.080527e+00
<STATE> 4
<MEAN> 1
 2.389453e+00
<VARIANCE> 1
 1.323912e+00
<GCONST> 2.118468e+00
<STATE> 5
<MEAN> 1
 3.044501e+00
<VARIANCE> 1
 2.165027e+00
<GCONST> 2.610310e+00
<STATE> 6
<MEAN> 1
 9.643574e+00
<VARIANCE> 1
 1.285011e+01
<GCONST> 4.391230e+00
<STATE> 7
<MEAN> 1
 5.137732e+00
<VARIANCE> 1
 1.959834e+00
<GCONST> 2.510736e+00
<TRANSP> 8
 0.000000e+00 1.000000e+00 0.000000e+00 0.000000e+00 0.000000e+00 0.000000e+00 0.000000e+00 0.000000e+00
 0.000000e+00 8.879136e-01 1.120864e-01 0.000000e+00 0.000000e+00 0.000000e+00 0.000000e+00 0.000000e+00
 0.000000e+00 0.000000e+00 8.928987e-01 1.071014e-01 0.000000e+00 0.000000e+00 0.000000e+00 0.000000e+00
 0.000000e+00 0.000000e+00 0.000000e+00 0.000000e+00 1.000000e+00 0.000000e+00 0.000000e+00 0.000000e+00
 0.000000e+00 0.000000e+00 0.000000e+00 0.000000e+00 0.000000e+00 1.000000e+00 0.000000e+00 0.000000e+00
 0.000000e+00 0.000000e+00 0.000000e+00 0.000000e+00 0.000000e+00 8.950583e-01 1.049417e-01 0.000000e+00
 0.000000e+00 0.000000e+00 0.000000e+00 0.000000e+00 0.000000e+00 0.000000e+00 9.137751e-01 8.622485e-02
 0.000000e+00 0.000000e+00 0.000000e+00 0.000000e+00 0.000000e+00 0.000000e+00 0.000000e+00 0.000000e+00
<ENDHMM>
~h "sil"
<BEGINHMM>
<NUMSTATES> 8
<STATE> 2
<MEAN> 1
 6.233714e-01
<VARIANCE> 1
 7.279528e-01
<GCONST> 1.520358e+00
<STATE> 3
<MEAN> 1
 3.063469e+00
<VARIANCE> 1
 1.218702e+00
<GCONST> 2.035664e+00
<STATE> 4
<MEAN> 1
 5.797860e+00
<VARIANCE> 1
 2.421286e+00
<GCONST> 2.722176e+00
<STATE> 5
<MEAN> 1
 9.762198e-02
<VARIANCE> 1
 2.226331e+01
<GCONST> 4.940817e+00
<STATE> 6
<MEAN> 1
 4.554550e+00
<VARIANCE> 1
 1.504363e+01
<GCONST> 4.548831e+00
<STATE> 7
<MEAN> 1
 1.054138e+01
<VARIANCE> 1
 1.511320e+01
<GCONST> 4.553446e+00
<TRANSP> 8
 0.000000e+00 1.000000e+00 0.000000e+00 0.000000e+00 0.000000e+00 0.000000e+00 0.000000e+00 0.000000e+00
 0.000000e+00 9.211161e-01 7.888398e-02 0.000000e+00 0.000000e+00 0.000000e+00 0.000000e+00 0.000000e+00
 0.000000e+00 0.000000e+00 9.065526e-01 9.344739e-02 0.000000e+00 0.000000e+00 0.000000e+00 0.000000e+00
 0.000000e+00 0.000000e+00 0.000000e+00 9.154754e-01 8.452466e-02 0.000000e+00 0.000000e+00 0.000000e+00
 0.000000e+00 0.000000e+00 0.000000e+00 0.000000e+00 7.846143e-01 2.153856e-01 0.000000e+00 0.000000e+00
 0.000000e+00 0.000000e+00 0.000000e+00 0.000000e+00 0.000000e+00 0.000000e+00 1.000000e+00 0.000000e+00
 0.000000e+00 0.000000e+00 0.000000e+00 0.000000e+00 0.000000e+00 0.000000e+00 8.933088e-01 1.066912e-01
 0.000000e+00 0.000000e+00 0.000000e+00 0.000000e+00 0.000000e+00 0.000000e+00 0.000000e+00 0.000000e+00
<ENDHMM>
