~o
<STREAMINFO> 1 1
<VECSIZE> 1<NULLD><USER><DIAGC>
~h "a"
<BEGINHMM>
<NUMSTATES> 8
<STATE> 2
<MEAN> 1
 8.844185e+00
<VARIANCE> 1
 1.746283e+00
<GCONST> 2.395366e+00
<STATE> 3
<MEAN> 1
 1.444062e+01
<VARIANCE> 1
 3.614305e+00
<GCONST> 3.122777e+00
<STATE> 4
<MEAN> 1
 1.093073e+01
<VARIANCE> 1
 1.424582e+00
<GCONST> 2.191756e+00
<STATE> 5
<MEAN> 1
 8.490517e+00
<VARIANCE> 1
 1.184909e+00
<GCONST> 2.007543e+00
<STATE> 6
<MEAN> 1
 6.694997e+00
<VARIANCE> 1
 1.508531e+00
<GCONST> 2.249014e+00
<STATE> 7
<MEAN> 1
 3.142199e+00
<VARIANCE> 1
 1.331164e+00
<GCONST> 2.123931e+00
<TRANSP> 8
 0.000000e+00 1.000000e+00 0.000000e+00 0.000000e+00 0.000000e+00 0.000000e+00 0.000000e+00 0.000000e+00
 0.000000e+00 9.456722e-01 5.432788e-02 0.000000e+00 0.000000e+00 0.000000e+00 0.000000e+00 0.000000e+00
 0.000000e+00 0.000000e+00 9.719454e-01 2.805459e-02 0.000000e+00 0.000000e+00 0.000000e+00 0.000000e+00
 0.000000e+00 0.000000e+00 0.000000e+00 9.448293e-01 5.517066e-02 0.000000e+00 0.000000e+00 0.000000e+00
 0.000000e+00 0.000000e+00 0.000000e+00 0.000000e+00 0.000000e+00 1.000000e+00 0.000000e+00 0.000000e+00
 0.000000e+00 0.000000e+00 0.000000e+00 0.000000e+00 0.000000e+00 9.177733e-01 8.222667e-02 0.000000e+00
 0.000000e+00 0.000000e+00 0.000000e+00 0.000000e+00 0.000000e+00 0.000000e+00 8.811551e-01 1.188449e-01
 0.000000e+00 0.000000e+00 0.000000e+00 0.000000e+00 0.000000e+00 0.000000e+00 0.000000e+00 0.000000e+00
<ENDHMM>
~h "e"
<BEGINHMM>
<NUMSTATES> 8
<STATE> 2
<MEAN> 1
 5.630199e+00
<VARIANCE> 1
 2.441954e+01
<GCONST> 5.033261e+00
<STATE> 3
<MEAN> 1
 -1.804910e-01
<VARIANCE> 1
 2.433292e-01
<GCONST> 4.245372e-01
<STATE> 4
<MEAN> 1
 -1.619348e+00
<VARIANCE> 1
 6.999526e-02
<GCONST> -8.214507e-01
<STATE> 5
<MEAN> 1
 -2.078568e+00
<VARIANCE> 1
 1.389716e-01
<GCONST> -1.356084e-01
<STATE> 6
<MEAN> 1
 -5.901118e+00
<VARIANCE> 1
 2.943897e+00
<GCONST> 2.917611e+00
<STATE> 7
<MEAN> 1
 -3.710863e+00
<VARIANCE> 1
 1.272301e+00
<GCONST> 2.078704e+00
<TRANSP> 8
 0.000000e+00 1.000000e+00 0.000000e+00 0.000000e+00 0.000000e+00 0.000000e+00 0.000000e+00 0.000000e+00
 0.000000e+00 6.508595e-01 3.491405e-01 0.000000e+00 0.000000e+00 0.000000e+00 0.000000e+00 0.000000e+00
 0.000000e+00 0.000000e+00 9.479604e-01 5.203956e-02 0.000000e+00 0.000000e+00 0.000000e+00 0.000000e+00
 0.000000e+00 0.000000e+00 0.000000e+00 0.000000e+00 1.000000e+00 0.000000e+00 0.000000e+00 0.000000e+00
 0.000000e+00 0.000000e+00 0.000000e+00 0.000000e+00 0.000000e+00 1.000000e+00 0.000000e+00 0.000000e+00
 0.000000e+00 0.000000e+00 0.000000e+00 0.000000e+00 0.000000e+00 9.500222e-01 4.997786e-02 0.000000e+00
 0.000000e+00 0.000000e+00 0.000000e+00 0.000000e+00 0.000000e+00 0.000000e+00 9.568509e-01 4.314904e-02
 0.000000e+00 0.000000e+00 0.000000e+00 0.000000e+00 0.000000e+00 0.000000e+00 0.000000e+00 0.000000e+00
<ENDHMM>
~h "i"
<BEGINHMM>
<NUMSTATES> 8
<STATE> 2
<MEAN> 1
 -7.632142e+00
<VARIANCE> 1
 1.957612e+00
<GCONST> 2.509602e+00
<STATE> 3
<MEAN> 1
 -2.742757e+00
<VARIANCE> 1
 2.245848e+00
<GCONST> 2.646960e+00
<STATE> 4
<MEAN> 1
 1.523953e+00
<VARIANCE> 1
 3.788152e+00
<GCONST> 3.169755e+00
<STATE> 5
<MEAN> 1
 -6.851186e-03
<VARIANCE> 1
 1.000000e-02
<GCONST> -2.767293e+00
<STATE> 6
<MEAN> 1
 -3.251305e+00
<VARIANCE> 1
 7.486698e+00
<GCONST> 3.851005e+00
<STATE> 7
<MEAN> 1
 3.587866e+00
<VARIANCE> 1
 7.734080e+00
<GCONST> 3.883514e+00
<TRANSP> 8
 0.000000e+00 1.000000e+00 0.000000e+00 0.000000e+00 0.000000e+00 0.000000e+00 0.000000e+00 0.000000e+00
 0.000000e+00 9.728619e-01 2.713801e-02 0.000000e+00 0.000000e+00 0.000000e+00 0.000000e+00 0.000000e+00
 0.000000e+00 0.000000e+00 9.435797e-01 5.642037e-02 0.000000e+00 0.000000e+00 0.000000e+00 0.000000e+00
 0.000000e+00 0.000000e+00 0.000000e+00 8.984047e-01 1.015953e-01 0.000000e+00 0.000000e+00 0.000000e+00
 0.000000e+00 0.000000e+00 0.000000e+00 0.000000e+00 9.337145e-01 6.628550e-02 0.000000e+00 0.000000e+00
 0.000000e+00 0.000000e+00 0.000000e+00 0.000000e+00 0.000000e+00 8.577575e-01 1.422425e-01 0.000000e+00
 0.000000e+00 0.000000e+00 0.000000e+00 0.000000e+00 0.000000e+00 0.000000e+00 8.358089e-01 1.641911e-01
 0.000000e+00 0.000000e+00 0.000000e+00 0.000000e+00 0.000000e+00 0.000000e+00 0.000000e+00 0.000000e+00
<ENDHMM>
~h "m"
<BEGINHMM>
<NUMSTATES> 8
<STATE> 2
<MEAN> 1
 -8.028210e-01
<VARIANCE> 1
 8.865167e-01
<GCONST> 1.717422e+00
<STATE> 3
<MEAN> 1
 1.419403e+00
<VARIANCE> 1
 4.664942e-01
<GCONST> 1.075367e+00
<STATE> 4
<MEAN> 1
 2.374286e+00
<VARIANCE> 1
 1.317079e+00
<GCONST> 2.113294e+00
<STATE> 5
<MEAN> 1
 3.028522e+00
<VARIANCE> 1
 2.152064e+00
<GCONST> 2.604305e+00
<STATE> 6
<MEAN> 1
 9.651174e+00
<VARIANCE> 1
 1.294557e+01
<GCONST> 4.398631e+00
<STATE> 7
<MEAN> 1
 5.108108e+00
<VARIANCE> 1
 1.944233e+00
<GCONST> 2.502744e+00
<TRANSP> 8
 0.000000e+00 1.000000e+00 0.000000e+00 0.000000e+00 0.000000e+00 0.000000e+00 0.000000e+00 0.000000e+00
 0.000000e+00 8.875383e-01 1.124618e-01 0.000000e+00 0.000000e+00 0.000000e+00 0.000000e+00 0.000000e+00
 0.000000e+00 0.000000e+00 8.930464e-01 1.069536e-01 0.000000e+00 0.000000e+00 0.000000e+00 0.000000e+00
 0.000000e+00 0.000000e+00 0.000000e+00 0.000000e+00 1.000000e+00 0.000000e+00 0.000000e+00 0.000000e+00
 0.000000e+00 0.000000e+00 0.000000e+00 0.000000e+00 0.000000e+00 1.000000e+00 0.000000e+00 0.000000e+00
 0.000000e+00 0.000000e+00 0.000000e+00 0.000000e+00 0.000000e+00 8.942140e-01 1.057860e-01 0.000000e+00
 0.000000e+00 0.000000e+00 0.000000e+00 0.000000e+00 0.000000e+00 0.000000e+00 9.128247e-01 8.717535e-02
 0.000000e+00 0.000000e+00 0.000000e+00 0.000000e+00 0.000000e+00 0.000000e+00 0.000000e+00 0.000000e+00
<ENDHMM>
~h "sil"
<BEGINHMM>
<NUMSTATES> 8
<STATE> 2
<MEAN> 1
 6.042091e-01
<VARIANCE> 1
 7.178650e-01
<GCONST> 1.506403e+00
<STATE> 3
<MEAN> 1
 3.022863e+00
<VARIANCE> 1
 1.239577e+00
<GCONST> 2.052647e+00
<STATE> 4
<MEAN> 1
 5.765984e+00
<VARIANCE> 1
 2.400692e+00
<GCONST> 2.713634e+00
<STATE> 5
<MEAN> 1
 8.862653e-02
<VARIANCE> 1
 2.245374e+01
<GCONST> 4.949334e+00
<STATE> 6
<MEAN> 1
 4.548164e+00
<VARIANCE> 1
 1.498291e+01
<GCONST> 4.544787e+00
<STATE> 7
<MEAN> 1
 1.054209e+01
<VARIANCE> 1
 1.504107e+01
<GCONST> 4.548662e+00
<TRANSP> 8
 0.000000e+00 1.000000e+00 0.000000e+00 0.000000e+00 0.000000e+00 0.000000e+00 0.000000e+00 0.000000e+00
 0.000000e+00 9.198956e-01 8.010435e-02 0.000000e+00 0.000000e+00 0.000000e+00 0.000000e+00 0.000000e+00
 0.000000e+00 0.000000e+00 9.077175e-01 9.228248e-02 0.000000e+00 0.000000e+00 0.000000e+00 0.000000e+00
 0.000000e+00 0.000000e+00 0.000000e+00 9.147537e-01 8.524623e-02 0.000000e+00 0.000000e+00 0.000000e+00
 0.000000e+00 0.000000e+00 0.000000e+00 0.000000e+00 7.823506e-01 2.176494e-01 0.000000e+00 0.000000e+00
 0.000000e+00 0.000000e+00 0.000000e+00 0.000000e+00 0.000000e+00 0.000000e+00 1.000000e+00 0.000000e+00
 0.000000e+00 0.000000e+00 0.000000e+00 0.000000e+00 0.000000e+00 0.000000e+00 8.937944e-01 1.062056e-01
 0.000000e+00 0.000000e+00 0.000000e+00 0.000000e+00 0.000000e+00 0.000000e+00 0.000000e+00 0.000000e+00
<ENDHMM>
