~o
<STREAMINFO> 1 1
<VECSIZE> 1<NULLD><USER><DIAGC>
~h "sil"
<BEGINHMM>
<NUMSTATES> 8
<STATE> 2
<MEAN> 1
 6.963048e-02
<VARIANCE> 1
 1.503005e-01
<GCONST> -5.724156e-02
<STATE> 3
<MEAN> 1
 6.963048e-02
<VARIANCE> 1
 1.503005e-01
<GCONST> -5.724156e-02
<STATE> 4
<MEAN> 1
 6.963048e-02
<VARIANCE> 1
 1.503005e-01
<GCONST> -5.724156e-02
<STATE> 5
<MEAN> 1
 6.963048e-02
<VARIANCE> 1
 1.503005e-01
<GCONST> -5.724156e-02
<STATE> 6
<MEAN> 1
 6.963048e-02
<VARIANCE> 1
 1.503005e-01
<GCONST> -5.724156e-02
<STATE> 7
<MEAN> 1
 6.963048e-02
<VARIANCE> 1
 1.503005e-01
<GCONST> -5.724156e-02
<TRANSP> 8
 0.000000e+00 1.000000e+00 0.000000e+00 0.000000e+00 0.000000e+00 0.000000e+00 0.000000e+00 0.000000e+00
 0.000000e+00 5.000000e-01 5.000000e-01 0.000000e+00 0.000000e+00 0.000000e+00 0.000000e+00 0.000000e+00
 0.000000e+00 0.000000e+00 5.000000e-01 5.000000e-01 0.000000e+00 0.000000e+00 0.000000e+00 0.000000e+00
 0.000000e+00 0.000000e+00 0.000000e+00 5.000000e-01 5.000000e-01 0.000000e+00 0.000000e+00 0.000000e+00
 0.000000e+00 0.000000e+00 0.000000e+00 0.000000e+00 5.000000e-01 5.000000e-01 0.000000e+00 0.000000e+00
 0.000000e+00 0.000000e+00 0.000000e+00 0.000000e+00 0.000000e+00 5.000000e-01 5.000000e-01 0.000000e+00
 0.000000e+00 0.000000e+00 0.000000e+00 0.000000e+00 0.000000e+00 0.000000e+00 5.000000e-01 5.000000e-01
 0.000000e+00 0.000000e+00 0.000000e+00 0.000000e+00 0.000000e+00 0.000000e+00 0.000000e+00 0.000000e+00
<ENDHMM>
