~o
<STREAMINFO> 1 1
<VECSIZE> 1<NULLD><USER><DIAGC>
~h "e"
<BEGINHMM>
<NUMSTATES> 8
<STATE> 2
<MEAN> 1
 8.707451e+00
<VARIANCE> 1
 2.038081e+01
<GCONST> 4.852470e+00
<STATE> 3
<MEAN> 1
 -5.078715e-01
<VARIANCE> 1
 2.432796e+00
<GCONST> 2.726918e+00
<STATE> 4
<MEAN> 1
 -2.485073e+00
<VARIANCE> 1
 1.621038e+01
<GCONST> 4.623529e+00
<STATE> 5
<MEAN> 1
 -2.813292e+00
<VARIANCE> 1
 1.660371e+01
<GCONST> 4.647503e+00
<STATE> 6
<MEAN> 1
 -6.799283e+00
<VARIANCE> 1
 3.883527e+00
<GCONST> 3.194621e+00
<STATE> 7
<MEAN> 1
 -1.736795e+00
<VARIANCE> 1
 9.591543e+00
<GCONST> 4.098759e+00
<TRANSP> 8
 0.000000e+00 1.000000e+00 0.000000e+00 0.000000e+00 0.000000e+00 0.000000e+00 0.000000e+00 0.000000e+00
 0.000000e+00 9.424309e-01 5.756919e-02 0.000000e+00 0.000000e+00 0.000000e+00 0.000000e+00 0.000000e+00
 0.000000e+00 0.000000e+00 9.418572e-01 5.814278e-02 0.000000e+00 0.000000e+00 0.000000e+00 0.000000e+00
 0.000000e+00 0.000000e+00 0.000000e+00 0.000000e+00 1.000000e+00 0.000000e+00 0.000000e+00 0.000000e+00
 0.000000e+00 0.000000e+00 0.000000e+00 0.000000e+00 0.000000e+00 1.000000e+00 0.000000e+00 0.000000e+00
 0.000000e+00 0.000000e+00 0.000000e+00 0.000000e+00 0.000000e+00 9.655072e-01 3.449282e-02 0.000000e+00
 0.000000e+00 0.000000e+00 0.000000e+00 0.000000e+00 0.000000e+00 0.000000e+00 9.068326e-01 9.316741e-02
 0.000000e+00 0.000000e+00 0.000000e+00 0.000000e+00 0.000000e+00 0.000000e+00 0.000000e+00 0.000000e+00
<ENDHMM>
