~o
<STREAMINFO> 1 1
<VECSIZE> 1<NULLD><USER><DIAGC>
~h "sil"
<BEGINHMM>
<NUMSTATES> 8
<STATE> 2
<MEAN> 1
 1.125865e+00
<VARIANCE> 1
 9.762439e-01
<GCONST> 1.813834e+00
<STATE> 3
<MEAN> 1
 3.858699e+00
<VARIANCE> 1
 1.191742e+00
<GCONST> 2.013293e+00
<STATE> 4
<MEAN> 1
 6.339472e+00
<VARIANCE> 1
 8.396630e-01
<GCONST> 1.663122e+00
<STATE> 5
<MEAN> 1
 8.867914e+00
<VARIANCE> 1
 1.665363e+00
<GCONST> 2.347920e+00
<STATE> 6
<MEAN> 1
 8.293465e+00
<VARIANCE> 1
 1.092126e+01
<GCONST> 4.228588e+00
<STATE> 7
<MEAN> 1
 1.297884e+01
<VARIANCE> 1
 5.725203e+00
<GCONST> 3.582755e+00
<TRANSP> 8
 0.000000e+00 1.000000e+00 0.000000e+00 0.000000e+00 0.000000e+00 0.000000e+00 0.000000e+00 0.000000e+00
 0.000000e+00 9.386403e-01 6.135970e-02 0.000000e+00 0.000000e+00 0.000000e+00 0.000000e+00 0.000000e+00
 0.000000e+00 0.000000e+00 9.399722e-01 6.002776e-02 0.000000e+00 0.000000e+00 0.000000e+00 0.000000e+00
 0.000000e+00 0.000000e+00 0.000000e+00 9.172392e-01 8.276080e-02 0.000000e+00 0.000000e+00 0.000000e+00
 0.000000e+00 0.000000e+00 0.000000e+00 0.000000e+00 9.294748e-01 7.052524e-02 0.000000e+00 0.000000e+00
 0.000000e+00 0.000000e+00 0.000000e+00 0.000000e+00 0.000000e+00 0.000000e+00 1.000000e+00 0.000000e+00
 0.000000e+00 0.000000e+00 0.000000e+00 0.000000e+00 0.000000e+00 0.000000e+00 9.370142e-01 6.298576e-02
 0.000000e+00 0.000000e+00 0.000000e+00 0.000000e+00 0.000000e+00 0.000000e+00 0.000000e+00 0.000000e+00
<ENDHMM>
