~o
<STREAMINFO> 1 20
<VECSIZE> 20<NULLD><USER><DIAGC>
~h "a"
<BEGINHMM>
<NUMSTATES> 14
<STATE> 2
<MEAN> 20
 7.984750e+03 3.625000e+00 0.000000e+00 0.000000e+00 0.000000e+00 0.000000e+00 0.000000e+00 0.000000e+00 0.000000e+00 1.243750e+02 1.181250e+01 2.323750e+02 3.638562e+03 3.473500e+03 5.780000e+02 9.062501e+01 8.218750e+01 4.500000e+00 1.187500e+00 0.000000e+00
<VARIANCE> 20
 8.246349e+06 6.273438e+01 1.000000e-02 1.000000e-02 1.000000e-02 1.000000e-02 1.000000e-02 1.000000e-02 1.000000e-02 2.820885e+04 1.652027e+03 1.847695e+05 8.360378e+06 9.263618e+06 9.822115e+05 7.436510e+04 9.968588e+04 3.037500e+02 2.115234e+01 1.000000e-02
<GCONST> 1.270370e+02
<STATE> 3
<MEAN> 20
 5.233714e+03 7.928571e+00 0.000000e+00 0.000000e+00 0.000000e+00 0.000000e+00 2.142857e-01 9.285713e-01 5.000000e-01 7.314286e+01 7.614286e+01 2.618571e+02 2.572000e+03 6.057857e+02 7.716429e+02 7.435000e+02 2.550714e+02 3.021428e+01 2.142857e-01 0.000000e+00
<VARIANCE> 20
 1.240471e+07 3.994949e+02 1.000000e-02 1.000000e-02 1.000000e-02 1.000000e-02 5.969389e-01 1.120918e+01 3.250000e+00 9.273265e+03 3.648927e+04 2.481541e+05 1.106285e+07 6.375640e+05 2.341843e+06 1.212883e+06 2.554011e+05 6.909882e+03 5.969387e-01 1.000000e-02
<GCONST> 1.502312e+02
<STATE> 4
<MEAN> 20
 5.288438e+03 1.276875e+02 0.000000e+00 0.000000e+00 1.875000e-01 2.062500e+00 2.125000e+01 1.875000e+01 1.762500e+01 1.153750e+02 1.122500e+02 4.022500e+02 2.483562e+03 1.101938e+03 1.007937e+03 3.283125e+02 1.195000e+02 3.281250e+01 2.812500e+00 0.000000e+00
<VARIANCE> 20
 1.588958e+07 7.824573e+04 1.000000e-02 1.000000e-02 5.273438e-01 6.380859e+01 6.164062e+03 2.953062e+03 1.729984e+03 2.442061e+04 3.281956e+04 5.033099e+05 1.141530e+07 1.543955e+06 5.225940e+06 2.523248e+05 5.772950e+04 9.469398e+03 1.186523e+02 1.000000e-02
<GCONST> 1.954142e+02
<STATE> 5
<MEAN> 20
 7.833019e+03 5.185181e-01 0.000000e+00 0.000000e+00 0.000000e+00 0.000000e+00 0.000000e+00 0.000000e+00 0.000000e+00 2.175926e+02 1.018518e-01 3.118981e+02 4.778722e+03 2.557222e+03 3.761575e+02 2.507408e+01 1.944444e+00 9.259270e-03 1.618774e-20 0.000000e+00
<VARIANCE> 20
 3.772810e+06 7.601509e+00 1.000000e-02 1.000000e-02 1.000000e-02 1.000000e-02 1.000000e-02 1.000000e-02 1.000000e-02 6.629381e+04 4.988853e-01 2.151841e+05 6.766729e+06 2.139176e+06 5.328648e+05 1.127532e+03 2.110802e+01 1.000000e-02 1.000000e-02 1.000000e-02
<GCONST> 8.413015e+01
<STATE> 6
<MEAN> 20
 2.569953e+03 2.100952e+02 1.714285e+00 0.000000e+00 0.000000e+00 0.000000e+00 2.761905e+00 2.333333e+00 4.428571e+00 4.338095e+01 6.509524e+01 1.149524e+02 2.853333e+02 8.855237e+02 7.650476e+02 4.427143e+02 1.809524e+02 6.709524e+01 2.385714e+01 4.095238e+00
<VARIANCE> 20
 6.078036e+06 5.379752e+04 5.877551e+01 1.000000e-02 1.000000e-02 1.000000e-02 1.185624e+02 5.288890e+01 1.600544e+02 7.599568e+03 9.954563e+03 3.979576e+04 2.516285e+05 1.881813e+06 1.638537e+06 3.158438e+05 3.320423e+04 9.634750e+03 1.811361e+03 1.218005e+02
<GCONST> 1.818248e+02
<STATE> 7
<MEAN> 20
 3.067428e+03 8.171428e+01 0.000000e+00 0.000000e+00 7.142858e-02 0.000000e+00 -5.709544e-38 1.214286e+00 1.142857e+00 3.592857e+01 2.271428e+01 3.528571e+01 3.321429e+02 8.652142e+02 9.926429e+02 6.508571e+02 2.680714e+02 1.621428e+01 4.357142e+00 0.000000e+00
<VARIANCE> 20
 2.957438e+06 1.928520e+04 1.000000e-02 1.000000e-02 6.632654e-02 1.000000e-02 1.000000e-02 8.882652e+00 1.483674e+01 3.882352e+03 2.204918e+03 1.857919e+03 2.318091e+05 8.335874e+05 1.409551e+06 7.986424e+05 1.483119e+05 1.245311e+03 1.148010e+02 1.000000e-02
<GCONST> 1.416705e+02
<STATE> 8
<MEAN> 20
 4.036000e+03 2.466667e+01 0.000000e+00 0.000000e+00 0.000000e+00 0.000000e+00 3.250000e+00 2.550000e+01 4.033333e+01 1.655000e+02 3.375000e+02 1.560000e+02 3.550000e+02 8.708334e+02 7.729167e+02 1.396583e+03 3.650000e+02 2.166667e+01 1.750000e+01 2.250000e+00
<VARIANCE> 20
 3.966030e+06 2.363056e+03 1.000000e-02 1.000000e-02 1.000000e-02 1.000000e-02 9.285416e+01 5.005583e+03 5.109722e+03 3.287958e+04 2.351328e+05 1.937100e+04 2.112877e+05 1.063693e+06 4.839925e+05 2.400442e+06 2.650898e+05 2.687389e+03 3.333917e+03 3.735417e+01
<GCONST> 1.815618e+02
<STATE> 9
<MEAN> 20
 2.286100e+03 1.757000e+02 4.000000e-01 0.000000e+00 1.600000e+00 0.000000e+00 1.980000e+01 8.320000e+01 1.440000e+01 4.000000e+01 2.081000e+02 1.032000e+02 7.907000e+02 6.415000e+02 5.957000e+02 1.343000e+02 6.160000e+01 6.810000e+01 1.800000e+01 0.000000e+00
<VARIANCE> 20
 4.490022e+06 6.196541e+04 1.440000e+00 1.000000e-02 1.024000e+01 1.000000e-02 1.851560e+03 1.808516e+04 4.972399e+02 1.436400e+03 7.791070e+04 7.039960e+03 1.427102e+06 5.054947e+05 1.144544e+06 1.049066e+05 7.456240e+03 1.873389e+04 1.207000e+03 1.000000e-02
<GCONST> 1.815795e+02
<STATE> 10
<MEAN> 20
 3.497857e+03 4.942858e+00 0.000000e+00 0.000000e+00 5.714286e-02 0.000000e+00 5.021175e-35 0.000000e+00 7.428573e-01 5.291427e+01 1.997143e+01 1.044857e+02 3.715143e+02 1.110943e+03 1.485743e+03 3.803715e+02 7.368571e+01 9.799999e+00 -6.427104e-33 0.000000e+00
<VARIANCE> 20
 5.369356e+06 2.846253e+02 1.000000e-02 1.000000e-02 1.110204e-01 1.000000e-02 1.000000e-02 1.000000e-02 4.762449e+00 4.246648e+04 4.771057e+03 9.103419e+04 9.831834e+05 2.100596e+06 2.047917e+06 3.408653e+05 1.896901e+04 2.228732e+03 1.000000e-02 1.000000e-02
<GCONST> 1.287649e+02
<STATE> 11
<MEAN> 20
 9.219379e+03 1.831579e+00 0.000000e+00 0.000000e+00 0.000000e+00 0.000000e+00 0.000000e+00 0.000000e+00 0.000000e+00 1.962631e+02 0.000000e+00 4.956210e+02 5.259116e+03 2.782126e+03 3.548842e+02 1.104105e+02 1.797263e+02 1.791263e+02 5.441053e+01 2.052633e+00
<VARIANCE> 20
 7.385622e+06 6.651894e+01 1.000000e-02 1.000000e-02 1.000000e-02 1.000000e-02 1.000000e-02 1.000000e-02 1.000000e-02 3.643289e+04 1.000000e-02 1.307699e+06 5.535828e+06 1.471474e+06 9.835430e+04 4.405043e+03 1.174723e+04 1.443786e+04 4.559378e+03 3.543938e+01
<GCONST> 1.250728e+02
<STATE> 12
<MEAN> 20
 1.079854e+04 1.100000e+01 0.000000e+00 0.000000e+00 0.000000e+00 0.000000e+00 0.000000e+00 4.000001e-02 2.800000e-01 1.542000e+02 2.719999e+00 1.426600e+02 5.022580e+03 4.537680e+03 5.212600e+02 1.533800e+02 2.967000e+02 2.053600e+02 7.327999e+01 8.439999e+00
<VARIANCE> 20
 1.029984e+07 1.190920e+03 1.000000e-02 1.000000e-02 1.000000e-02 1.000000e-02 1.000000e-02 7.840001e-02 1.481600e+00 1.435896e+04 2.528016e+02 2.133350e+05 6.005658e+06 2.805314e+06 9.120380e+04 6.759636e+03 2.210269e+04 1.993019e+04 5.228881e+03 2.865663e+02
<GCONST> 1.470025e+02
<STATE> 13
<MEAN> 20
 1.363329e+04 4.656214e+03 3.557143e+01 0.000000e+00 0.000000e+00 0.000000e+00 2.285714e+00 4.057143e+01 9.378571e+01 7.347857e+02 1.070072e+03 7.185572e+03 7.392071e+03 2.853143e+03 2.302857e+02 8.578572e+01 2.068571e+02 1.305000e+02 3.578572e+01 6.428572e+00
<VARIANCE> 20
 1.079638e+08 2.796802e+08 1.623710e+04 1.000000e-02 1.000000e-02 1.000000e-02 6.791837e+01 2.139853e+04 1.143449e+05 4.738639e+06 1.478754e+07 5.756994e+08 1.167583e+07 3.177140e+06 1.149759e+05 2.901168e+03 2.200684e+04 1.136111e+04 4.376597e+03 2.298163e+02
<GCONST> 2.324998e+02
<TRANSP> 14
 0.000000e+00 1.000000e+00 0.000000e+00 0.000000e+00 0.000000e+00 0.000000e+00 0.000000e+00 0.000000e+00 0.000000e+00 0.000000e+00 0.000000e+00 0.000000e+00 0.000000e+00 0.000000e+00
 0.000000e+00 5.000000e-01 5.000000e-01 0.000000e+00 0.000000e+00 0.000000e+00 0.000000e+00 0.000000e+00 0.000000e+00 0.000000e+00 0.000000e+00 0.000000e+00 0.000000e+00 0.000000e+00
 0.000000e+00 0.000000e+00 4.285714e-01 5.714286e-01 0.000000e+00 0.000000e+00 0.000000e+00 0.000000e+00 0.000000e+00 0.000000e+00 0.000000e+00 0.000000e+00 0.000000e+00 0.000000e+00
 0.000000e+00 0.000000e+00 0.000000e+00 5.000000e-01 5.000000e-01 0.000000e+00 0.000000e+00 0.000000e+00 0.000000e+00 0.000000e+00 0.000000e+00 0.000000e+00 0.000000e+00 0.000000e+00
 0.000000e+00 0.000000e+00 0.000000e+00 0.000000e+00 9.259259e-01 7.407407e-02 0.000000e+00 0.000000e+00 0.000000e+00 0.000000e+00 0.000000e+00 0.000000e+00 0.000000e+00 0.000000e+00
 0.000000e+00 0.000000e+00 0.000000e+00 0.000000e+00 0.000000e+00 6.190476e-01 3.809524e-01 0.000000e+00 0.000000e+00 0.000000e+00 0.000000e+00 0.000000e+00 0.000000e+00 0.000000e+00
 0.000000e+00 0.000000e+00 0.000000e+00 0.000000e+00 0.000000e+00 0.000000e+00 4.285714e-01 5.714286e-01 0.000000e+00 0.000000e+00 0.000000e+00 0.000000e+00 0.000000e+00 0.000000e+00
 0.000000e+00 0.000000e+00 0.000000e+00 0.000000e+00 0.000000e+00 0.000000e+00 0.000000e+00 3.333333e-01 6.666667e-01 0.000000e+00 0.000000e+00 0.000000e+00 0.000000e+00 0.000000e+00
 0.000000e+00 0.000000e+00 0.000000e+00 0.000000e+00 0.000000e+00 0.000000e+00 0.000000e+00 0.000000e+00 2.000000e-01 8.000000e-01 0.000000e+00 0.000000e+00 0.000000e+00 0.000000e+00
 0.000000e+00 0.000000e+00 0.000000e+00 0.000000e+00 0.000000e+00 0.000000e+00 0.000000e+00 0.000000e+00 0.000000e+00 7.714286e-01 2.285714e-01 0.000000e+00 0.000000e+00 0.000000e+00
 0.000000e+00 0.000000e+00 0.000000e+00 0.000000e+00 0.000000e+00 0.000000e+00 0.000000e+00 0.000000e+00 0.000000e+00 0.000000e+00 9.157895e-01 8.421053e-02 0.000000e+00 0.000000e+00
 0.000000e+00 0.000000e+00 0.000000e+00 0.000000e+00 0.000000e+00 0.000000e+00 0.000000e+00 0.000000e+00 0.000000e+00 0.000000e+00 0.000000e+00 8.400000e-01 1.600000e-01 0.000000e+00
 0.000000e+00 0.000000e+00 0.000000e+00 0.000000e+00 0.000000e+00 0.000000e+00 0.000000e+00 0.000000e+00 0.000000e+00 0.000000e+00 0.000000e+00 0.000000e+00 4.285714e-01 5.714286e-01
 0.000000e+00 0.000000e+00 0.000000e+00 0.000000e+00 0.000000e+00 0.000000e+00 0.000000e+00 0.000000e+00 0.000000e+00 0.000000e+00 0.000000e+00 0.000000e+00 0.000000e+00 0.000000e+00
<ENDHMM>
