~o
<STREAMINFO> 1 20
<VECSIZE> 20<NULLD><USER><DIAGC>
~h "b"
<BEGINHMM>
<NUMSTATES> 14
<STATE> 2
<MEAN> 20
 4.774455e+03 2.568182e+01 9.409090e+00 2.727273e+00 1.895455e+01 5.581818e+02 2.937273e+02 4.190909e+01 2.450000e+01 1.340455e+02 3.079545e+02 3.410909e+02 1.837636e+03 1.626000e+03 1.224545e+03 3.910000e+02 1.480455e+02 5.909091e+00 1.409091e+00 0.000000e+00
<VARIANCE> 20
 1.291389e+07 3.162490e+03 6.702417e+02 5.283471e+01 3.337589e+03 8.176061e+05 1.593175e+05 2.789174e+03 8.535227e+02 1.521604e+04 3.771722e+05 2.146960e+05 6.437778e+06 3.525252e+06 1.127545e+06 2.064689e+05 9.291414e+04 2.044464e+02 1.915083e+01 1.000000e-02
<GCONST> 2.268350e+02
<STATE> 3
<MEAN> 20
 8.294790e+03 1.930232e+00 1.546510e+00 7.814933e-27 1.197674e+00 1.534885e+01 6.087214e+01 5.755813e+00 3.941861e+00 2.949535e+02 6.302327e+01 3.953490e+02 5.463442e+03 2.008523e+03 6.613488e+02 8.753487e+01 1.046512e+00 6.976742e-02 3.228826e-30 0.000000e+00
<VARIANCE> 20
 9.335408e+06 1.036231e+02 2.032944e+02 1.000000e-02 9.955394e+01 5.698949e+03 7.341186e+04 3.826500e+02 1.854965e+02 1.115564e+05 8.476694e+04 3.223141e+05 1.236774e+07 1.624191e+06 1.869691e+06 5.367421e+04 7.346679e+00 1.346674e-01 1.000000e-02 1.000000e-02
<GCONST> 1.761752e+02
<STATE> 4
<MEAN> 20
 4.719816e+03 1.491837e+01 1.020408e-01 6.122451e-02 4.489796e-01 3.141224e+02 1.344286e+02 5.357143e+01 4.759184e+01 1.326531e+02 7.273470e+01 1.981020e+02 7.052041e+02 1.637143e+03 2.436877e+03 3.021837e+02 6.312245e+01 2.285714e+00 4.081633e-02 2.040817e-02
<VARIANCE> 20
 6.353528e+06 1.448932e+03 3.365265e-01 9.829237e-02 2.941275e+00 2.688607e+05 3.491465e+04 5.269879e+03 3.565874e+03 2.814207e+04 1.566795e+04 5.799004e+04 2.084881e+06 1.423119e+06 3.167713e+06 1.356431e+05 2.238415e+04 2.783673e+01 3.915034e-02 1.999168e-02
<GCONST> 1.896491e+02
<STATE> 5
<MEAN> 20
 8.161435e+03 1.614783e+02 5.869565e+00 1.434783e+00 4.086957e+00 1.236609e+03 2.701304e+02 9.617391e+01 9.400000e+01 3.920000e+02 1.864348e+02 9.325651e+02 3.663652e+03 1.994522e+03 2.494652e+03 6.955217e+02 4.217826e+02 3.108696e+01 2.260870e+00 7.391304e-01
<VARIANCE> 20
 2.253758e+07 4.006591e+04 1.222874e+02 3.494139e+01 4.599245e+01 1.075089e+06 7.560934e+04 8.562318e+03 1.170791e+04 2.424086e+05 4.307468e+04 8.809326e+05 1.601071e+07 2.390915e+06 1.333467e+07 1.320056e+05 2.307908e+05 2.587384e+03 2.306238e+01 5.236295e+00
<GCONST> 2.412512e+02
<STATE> 6
<MEAN> 20
 1.024148e+04 2.320548e+01 2.739725e-02 -7.248011e-28 1.369862e-02 7.550686e+02 1.690411e+02 9.146574e+01 9.895890e+01 6.544520e+02 8.684933e+00 7.821097e+02 7.178479e+03 2.276452e+03 1.151589e+03 4.449314e+02 1.877534e+02 3.534246e+00 1.232877e-01 5.479451e-02
<VARIANCE> 20
 1.034723e+07 1.511286e+03 5.404390e-02 1.000000e-02 1.351098e-02 7.640867e+05 5.289223e+04 1.157554e+04 9.258698e+03 2.157049e+05 2.394213e+02 7.441952e+05 1.775420e+07 1.452138e+06 3.801722e+06 2.179053e+05 1.589198e+05 1.814819e+02 6.012394e-01 2.161755e-01
<GCONST> 1.960558e+02
<STATE> 7
<MEAN> 20
 9.325250e+03 2.887500e+01 5.500000e+00 1.125000e+00 3.375000e+00 5.588750e+02 2.246250e+02 6.275000e+01 6.912500e+01 4.551250e+02 2.090000e+02 4.497500e+02 5.759625e+03 2.677875e+03 1.132250e+03 4.217500e+02 7.050000e+01 1.387500e+01 0.000000e+00 0.000000e+00
<VARIANCE> 20
 1.343440e+07 1.321109e+03 1.310000e+02 8.859375e+00 3.723438e+01 3.223503e+05 1.422165e+05 2.357688e+03 3.341609e+03 1.630271e+05 1.404338e+05 2.015717e+05 1.996553e+07 8.078724e+05 1.908368e+06 1.441954e+05 2.108600e+04 8.146094e+02 1.000000e-02 1.000000e-02
<GCONST> 2.117283e+02
<STATE> 8
<MEAN> 20
 1.044800e+04 1.881818e+01 0.000000e+00 0.000000e+00 3.030303e-02 1.091758e+03 1.827273e+02 1.105454e+02 1.224848e+02 8.899697e+02 5.415152e+01 5.353030e+02 8.417272e+03 2.522030e+03 4.223939e+02 5.675758e+02 2.844849e+02 3.860606e+01 1.566667e+01 6.848485e+00
<VARIANCE> 20
 9.374658e+06 3.680634e+03 1.000000e-02 1.000000e-02 2.938476e-02 5.649607e+05 1.352959e+04 4.327764e+03 4.075461e+03 1.502610e+05 3.637480e+04 1.581616e+05 1.202635e+07 5.761425e+05 2.609492e+05 1.297538e+05 1.154778e+05 3.261754e+03 1.415192e+03 5.741895e+02
<GCONST> 2.092871e+02
<STATE> 9
<MEAN> 20
 9.676250e+03 2.250000e+01 2.500000e-01 0.000000e+00 2.125000e+00 1.564500e+03 2.698750e+02 1.501250e+02 1.692500e+02 1.135125e+03 1.148750e+02 6.097500e+02 8.012125e+03 2.447625e+03 4.827500e+02 8.685000e+02 4.232500e+02 2.975000e+01 1.375000e+00 0.000000e+00
<VARIANCE> 20
 1.492596e+07 1.516000e+03 4.375000e-01 1.000000e-02 1.410938e+01 1.802918e+06 3.220836e+04 1.200111e+04 1.469944e+04 5.085646e+05 3.559361e+04 2.610717e+05 1.571179e+07 6.591677e+05 2.756509e+05 5.845015e+05 3.453334e+05 2.195688e+03 1.323438e+01 1.000000e-02
<GCONST> 2.118782e+02
<STATE> 10
<MEAN> 20
 8.357600e+03 1.255000e+01 9.999999e-02 0.000000e+00 1.348151e-34 1.464800e+03 1.983000e+02 1.081000e+02 1.216000e+02 8.287500e+02 2.465000e+01 2.835500e+02 5.587350e+03 3.321350e+03 6.099000e+02 5.871500e+02 5.122500e+02 8.920000e+01 6.530000e+01 1.110000e+01
<VARIANCE> 20
 7.883362e+06 5.172476e+02 1.900000e-01 1.000000e-02 1.000000e-02 8.585167e+05 1.717151e+04 5.209890e+03 5.690240e+03 2.117872e+05 6.792229e+03 6.627885e+04 8.551895e+06 2.512413e+06 4.255041e+05 1.030971e+05 1.958684e+05 8.578460e+03 6.722711e+03 6.176900e+02
<GCONST> 2.125068e+02
<STATE> 11
<MEAN> 20
 8.713417e+03 6.741666e+01 1.416667e+01 2.916667e+00 2.500000e+00 1.801500e+03 4.064167e+02 2.027500e+02 1.947500e+02 1.050583e+03 1.294167e+02 1.073417e+03 7.125250e+03 2.307833e+03 3.890000e+02 6.634166e+02 6.381667e+02 1.127500e+02 1.700000e+01 1.666667e-01
<VARIANCE> 20
 2.008045e+07 5.765577e+03 5.658055e+02 4.590973e+01 2.341667e+01 7.017391e+05 1.056529e+05 2.075285e+04 1.161302e+04 3.667159e+05 2.402374e+04 5.040370e+05 1.397777e+07 3.051918e+06 6.739950e+04 1.968927e+05 2.259890e+05 2.297019e+04 2.184167e+03 3.055556e-01
<GCONST> 2.394765e+02
<STATE> 12
<MEAN> 20
 1.004268e+04 2.368421e+01 2.315789e+00 5.789474e-01 2.421052e+00 1.713158e+03 4.214737e+02 2.158421e+02 2.181579e+02 1.319737e+03 7.147368e+01 1.185210e+03 8.342632e+03 2.585368e+03 5.536316e+02 1.068158e+03 1.413158e+02 8.473684e+00 3.526316e+00 2.631579e-01
<VARIANCE> 20
 5.292478e+06 8.172686e+02 2.042659e+01 1.296399e+00 3.950693e+01 8.233288e+05 1.340585e+05 2.206119e+04 1.660971e+04 3.242493e+05 2.641931e+04 2.070691e+06 3.985216e+06 1.606461e+06 1.678579e+05 3.430942e+05 9.460526e+04 1.012144e+03 1.457229e+02 8.254848e-01
<GCONST> 2.258907e+02
<STATE> 13
<MEAN> 20
 9.945375e+03 1.416667e+00 0.000000e+00 0.000000e+00 6.250000e-02 1.150021e+03 1.816875e+02 1.103750e+02 1.284583e+02 9.572291e+02 1.583333e+00 6.580417e+02 7.663896e+03 2.802500e+03 3.962917e+02 5.749167e+02 2.809583e+02 4.260416e+01 4.385417e+01 9.979166e+00
<VARIANCE> 20
 5.917008e+06 3.653473e+01 1.000000e-02 1.000000e-02 1.835938e-01 4.060201e+05 1.040134e+04 2.215109e+03 1.769290e+03 1.016962e+05 1.249306e+01 7.223478e+05 5.074548e+06 2.274450e+06 5.030675e+04 1.201529e+05 5.805579e+04 2.182989e+03 5.581041e+03 4.191038e+02
<GCONST> 1.958565e+02
<TRANSP> 14
 0.000000e+00 1.000000e+00 0.000000e+00 0.000000e+00 0.000000e+00 0.000000e+00 0.000000e+00 0.000000e+00 0.000000e+00 0.000000e+00 0.000000e+00 0.000000e+00 0.000000e+00 0.000000e+00
 0.000000e+00 6.363636e-01 3.636364e-01 0.000000e+00 0.000000e+00 0.000000e+00 0.000000e+00 0.000000e+00 0.000000e+00 0.000000e+00 0.000000e+00 0.000000e+00 0.000000e+00 0.000000e+00
 0.000000e+00 0.000000e+00 9.069768e-01 9.302325e-02 0.000000e+00 0.000000e+00 0.000000e+00 0.000000e+00 0.000000e+00 0.000000e+00 0.000000e+00 0.000000e+00 0.000000e+00 0.000000e+00
 0.000000e+00 0.000000e+00 0.000000e+00 8.367347e-01 1.632653e-01 0.000000e+00 0.000000e+00 0.000000e+00 0.000000e+00 0.000000e+00 0.000000e+00 0.000000e+00 0.000000e+00 0.000000e+00
 0.000000e+00 0.000000e+00 0.000000e+00 0.000000e+00 6.521739e-01 3.478261e-01 0.000000e+00 0.000000e+00 0.000000e+00 0.000000e+00 0.000000e+00 0.000000e+00 0.000000e+00 0.000000e+00
 0.000000e+00 0.000000e+00 0.000000e+00 0.000000e+00 0.000000e+00 8.904110e-01 1.095890e-01 0.000000e+00 0.000000e+00 0.000000e+00 0.000000e+00 0.000000e+00 0.000000e+00 0.000000e+00
 0.000000e+00 0.000000e+00 0.000000e+00 0.000000e+00 0.000000e+00 0.000000e+00 0.000000e+00 1.000000e+00 0.000000e+00 0.000000e+00 0.000000e+00 0.000000e+00 0.000000e+00 0.000000e+00
 0.000000e+00 0.000000e+00 0.000000e+00 0.000000e+00 0.000000e+00 0.000000e+00 0.000000e+00 7.575758e-01 2.424242e-01 0.000000e+00 0.000000e+00 0.000000e+00 0.000000e+00 0.000000e+00
 0.000000e+00 0.000000e+00 0.000000e+00 0.000000e+00 0.000000e+00 0.000000e+00 0.000000e+00 0.000000e+00 0.000000e+00 1.000000e+00 0.000000e+00 0.000000e+00 0.000000e+00 0.000000e+00
 0.000000e+00 0.000000e+00 0.000000e+00 0.000000e+00 0.000000e+00 0.000000e+00 0.000000e+00 0.000000e+00 0.000000e+00 6.000000e-01 4.000000e-01 0.000000e+00 0.000000e+00 0.000000e+00
 0.000000e+00 0.000000e+00 0.000000e+00 0.000000e+00 0.000000e+00 0.000000e+00 0.000000e+00 0.000000e+00 0.000000e+00 0.000000e+00 3.333333e-01 6.666667e-01 0.000000e+00 0.000000e+00
 0.000000e+00 0.000000e+00 0.000000e+00 0.000000e+00 0.000000e+00 0.000000e+00 0.000000e+00 0.000000e+00 0.000000e+00 0.000000e+00 0.000000e+00 5.789474e-01 4.210526e-01 0.000000e+00
 0.000000e+00 0.000000e+00 0.000000e+00 0.000000e+00 0.000000e+00 0.000000e+00 0.000000e+00 0.000000e+00 0.000000e+00 0.000000e+00 0.000000e+00 0.000000e+00 8.333333e-01 1.666667e-01
 0.000000e+00 0.000000e+00 0.000000e+00 0.000000e+00 0.000000e+00 0.000000e+00 0.000000e+00 0.000000e+00 0.000000e+00 0.000000e+00 0.000000e+00 0.000000e+00 0.000000e+00 0.000000e+00
<ENDHMM>
