~o
<STREAMINFO> 1 20
<VECSIZE> 20<NULLD><USER><DIAGC>
~h "c"
<BEGINHMM>
<NUMSTATES> 14
<STATE> 2
<MEAN> 20
 8.091463e+03 1.129629e+00 7.407409e-02 0.000000e+00 0.000000e+00 0.000000e+00 0.000000e+00 0.000000e+00 0.000000e+00 1.245370e+02 1.962962e+00 1.363148e+02 4.889148e+03 3.002907e+03 1.691111e+02 1.651852e+01 1.240741e+00 0.000000e+00 0.000000e+00 0.000000e+00
<VARIANCE> 20
 1.483044e+06 5.029802e+01 2.908094e-01 1.000000e-02 1.000000e-02 1.000000e-02 1.000000e-02 1.000000e-02 1.000000e-02 3.131573e+04 2.042209e+02 4.404427e+04 1.090511e+06 1.194072e+06 3.030688e+04 3.483607e+02 6.405007e+00 1.000000e-02 1.000000e-02 1.000000e-02
<GCONST> 8.449200e+01
<STATE> 3
<MEAN> 20
 4.621944e+03 5.972222e+01 1.358333e+02 0.000000e+00 0.000000e+00 0.000000e+00 0.000000e+00 0.000000e+00 0.000000e+00 3.183333e+01 0.000000e+00 4.000000e+00 1.383667e+03 2.374167e+03 6.851667e+02 2.965555e+02 1.011667e+02 4.000000e+00 6.111111e-01 0.000000e+00
<VARIANCE> 20
 8.064312e+06 2.547653e+04 2.147730e+05 1.000000e-02 1.000000e-02 1.000000e-02 1.000000e-02 1.000000e-02 1.000000e-02 4.664139e+03 1.000000e-02 1.054444e+02 1.724028e+06 3.210100e+06 2.149807e+05 2.730180e+05 3.200558e+04 1.457778e+02 6.348767e+00 1.000000e-02
<GCONST> 1.226894e+02
<STATE> 4
<MEAN> 20
 4.419800e+03 2.278000e+02 0.000000e+00 0.000000e+00 0.000000e+00 0.000000e+00 7.400000e+00 2.480000e+01 1.040000e+01 1.062000e+02 2.380000e+01 3.660000e+01 9.712000e+02 2.416600e+03 4.408000e+02 7.262000e+02 1.644000e+02 1.380000e+01 3.000000e+00 0.000000e+00
<VARIANCE> 20
 1.083824e+07 1.134802e+05 1.000000e-02 1.000000e-02 1.000000e-02 1.000000e-02 2.190400e+02 2.460160e+03 4.326400e+02 2.041456e+04 1.412160e+03 1.714240e+03 2.298249e+06 5.817177e+06 1.561918e+05 1.827582e+06 4.024584e+04 7.617600e+02 3.600000e+01 1.000000e-02
<GCONST> 1.628837e+02
<STATE> 5
<MEAN> 20
 3.318143e+03 8.492857e+01 2.142857e+01 7.142857e-02 0.000000e+00 0.000000e+00 0.000000e+00 0.000000e+00 0.000000e+00 2.571429e+00 3.214286e+00 2.778572e+01 2.218572e+02 8.819285e+02 1.673928e+03 5.302858e+02 8.657143e+01 1.142857e+00 4.285714e-01 0.000000e+00
<VARIANCE> 20
 4.970032e+06 1.387835e+04 3.938102e+03 6.632654e-02 1.000000e-02 1.000000e-02 1.000000e-02 1.000000e-02 1.000000e-02 8.095923e+01 5.559694e+01 2.976883e+03 3.602273e+05 1.476423e+06 3.477580e+06 3.618107e+05 2.741453e+04 1.140816e+01 2.387755e+00 1.000000e-02
<GCONST> 1.244434e+02
<STATE> 6
<MEAN> 20
 3.096818e+03 2.990909e+01 -1.606408e-29 0.000000e+00 0.000000e+00 0.000000e+00 -3.442302e-30 0.000000e+00 1.272727e+00 8.590909e+01 2.545455e+00 1.872727e+01 3.086364e+02 9.208182e+02 1.417182e+03 3.025454e+02 1.710000e+02 4.063636e+01 1.845455e+01 1.336364e+01
<VARIANCE> 20
 9.201431e+06 3.121174e+03 1.000000e-02 1.000000e-02 1.000000e-02 1.000000e-02 1.000000e-02 1.000000e-02 8.925620e+00 2.242154e+04 6.479340e+01 6.849257e+02 5.095473e+05 1.259076e+06 3.872204e+06 6.113188e+04 9.371818e+04 6.996958e+03 1.406793e+03 1.656777e+03
<GCONST> 1.444548e+02
<STATE> 7
<MEAN> 20
 3.042572e+03 1.608571e+02 4.285714e-01 0.000000e+00 0.000000e+00 0.000000e+00 5.428571e+00 1.671428e+01 4.428571e+00 4.285714e+01 3.200000e+01 7.114286e+01 2.807143e+02 9.821429e+02 1.309286e+03 1.495714e+02 1.630000e+02 2.318571e+02 5.200000e+01 1.571429e+00
<VARIANCE> 20
 3.679172e+06 9.404183e+04 1.102041e+00 1.000000e-02 1.000000e-02 1.000000e-02 7.367346e+01 1.578490e+03 1.011020e+02 3.352694e+03 2.652572e+03 1.576927e+04 2.132410e+05 1.278361e+06 1.432359e+06 1.849282e+04 7.606343e+04 7.483070e+04 6.134571e+03 7.387755e+00
<GCONST> 1.750706e+02
<STATE> 8
<MEAN> 20
 2.492625e+03 5.383750e+02 3.425000e+01 2.500000e-01 1.225000e+01 7.500000e-01 2.797500e+02 7.262500e+01 1.387500e+01 6.687500e+01 6.228750e+02 1.160000e+02 3.178750e+02 9.787500e+02 6.166250e+02 3.238750e+02 2.683750e+02 2.183750e+02 4.850000e+01 3.750000e-01
<VARIANCE> 20
 4.516503e+06 2.676548e+05 6.674188e+03 4.375000e-01 4.164375e+02 3.937500e+00 1.489687e+05 6.369984e+03 9.246094e+02 3.116609e+03 3.581868e+05 9.576750e+03 3.930693e+05 1.944436e+06 1.119279e+06 1.840283e+05 9.072498e+04 3.399723e+04 2.261750e+03 9.843750e-01
<GCONST> 2.204315e+02
<STATE> 9
<MEAN> 20
 7.419483e+03 3.945517e+02 1.685724e+03 7.241380e-01 0.000000e+00 0.000000e+00 0.000000e+00 0.000000e+00 0.000000e+00 8.627585e+01 0.000000e+00 3.815862e+02 6.586034e+03 2.023621e+03 5.753793e+02 1.982759e+01 3.103448e-01 -4.928969e-36 0.000000e+00 0.000000e+00
<VARIANCE> 20
 6.299350e+06 4.212094e+04 9.049428e+05 9.992868e+00 1.000000e-02 1.000000e-02 1.000000e-02 1.000000e-02 1.000000e-02 2.625813e+04 1.000000e-02 1.203721e+05 1.587874e+07 5.955702e+05 8.774468e+05 8.825563e+02 6.967894e-01 1.000000e-02 1.000000e-02 1.000000e-02
<GCONST> 1.094909e+02
<STATE> 10
<MEAN> 20
 6.682125e+03 2.405000e+02 8.437500e+02 1.337500e+01 3.750000e-01 0.000000e+00 4.250000e+00 1.262500e+01 8.125000e+00 2.268750e+02 1.362500e+01 4.832500e+02 4.215750e+03 1.316875e+03 1.852875e+03 1.488750e+02 7.500000e-01 0.000000e+00 0.000000e+00 0.000000e+00
<VARIANCE> 20
 5.666183e+06 5.068225e+04 8.230917e+05 1.252234e+03 9.843750e-01 1.000000e-02 7.918750e+01 1.018734e+03 4.011094e+02 7.688311e+04 5.104844e+02 3.657647e+05 2.172020e+07 4.013443e+05 3.672655e+06 2.979011e+04 1.187500e+00 1.000000e-02 1.000000e-02 1.000000e-02
<GCONST> 1.684320e+02
<STATE> 11
<MEAN> 20
 5.268600e+03 2.690000e+02 9.908000e+02 6.000000e-01 0.000000e+00 0.000000e+00 2.000000e+00 2.000000e+00 9.000000e+00 2.132000e+02 2.460000e+01 5.016000e+02 4.380600e+03 9.774000e+02 2.358000e+02 5.078000e+02 1.254000e+02 1.400000e+00 4.000000e-01 2.000000e-01
<VARIANCE> 20
 1.412736e+07 4.988160e+04 7.994109e+05 1.440000e+00 1.000000e-02 1.000000e-02 6.400000e+00 6.000000e+00 2.736000e+02 9.518216e+04 1.231840e+03 4.001898e+05 2.185120e+07 1.178934e+06 1.476350e+05 8.157245e+05 4.672384e+04 2.240000e+00 6.400001e-01 1.600000e-01
<GCONST> 1.751976e+02
<STATE> 12
<MEAN> 20
 6.833286e+03 4.145238e+02 1.829976e+03 3.285715e+00 0.000000e+00 0.000000e+00 0.000000e+00 0.000000e+00 0.000000e+00 1.017857e+02 0.000000e+00 3.271190e+02 6.209500e+03 2.286548e+03 1.528333e+02 1.018333e+02 1.024524e+02 2.547618e+00 2.380952e-02 -1.129949e-28
<VARIANCE> 20
 6.641319e+06 7.374584e+03 3.268318e+05 8.939455e+01 1.000000e-02 1.000000e-02 1.000000e-02 1.000000e-02 1.000000e-02 2.230255e+04 1.000000e-02 7.289043e+04 9.136383e+06 1.313911e+06 2.216614e+04 6.950667e+04 9.844511e+04 8.458115e+01 2.324263e-02 1.000000e-02
<GCONST> 1.309804e+02
<STATE> 13
<MEAN> 20
 3.356778e+03 1.355556e+02 6.132222e+02 -8.765121e-32 0.000000e+00 0.000000e+00 3.333333e-01 5.555556e-01 0.000000e+00 1.106667e+02 3.888889e+00 1.662222e+02 2.059333e+03 1.168889e+03 5.260000e+02 1.233333e+02 6.488889e+01 7.300000e+01 3.055555e+01 1.000000e+00
<VARIANCE> 20
 9.065530e+06 2.465869e+04 7.891053e+05 1.000000e-02 1.000000e-02 1.000000e-02 8.888889e-01 2.469136e+00 1.000000e-02 4.580155e+04 1.209876e+02 7.221796e+04 8.260980e+06 1.912102e+06 5.753458e+05 1.794666e+04 5.528544e+03 1.685222e+04 2.248247e+03 3.555556e+00
<GCONST> 1.663347e+02
<TRANSP> 14
 0.000000e+00 1.000000e+00 0.000000e+00 0.000000e+00 0.000000e+00 0.000000e+00 0.000000e+00 0.000000e+00 0.000000e+00 0.000000e+00 0.000000e+00 0.000000e+00 0.000000e+00 0.000000e+00
 0.000000e+00 9.259259e-01 7.407407e-02 0.000000e+00 0.000000e+00 0.000000e+00 0.000000e+00 0.000000e+00 0.000000e+00 0.000000e+00 0.000000e+00 0.000000e+00 0.000000e+00 0.000000e+00
 0.000000e+00 0.000000e+00 7.777778e-01 2.222222e-01 0.000000e+00 0.000000e+00 0.000000e+00 0.000000e+00 0.000000e+00 0.000000e+00 0.000000e+00 0.000000e+00 0.000000e+00 0.000000e+00
 0.000000e+00 0.000000e+00 0.000000e+00 2.000000e-01 8.000000e-01 0.000000e+00 0.000000e+00 0.000000e+00 0.000000e+00 0.000000e+00 0.000000e+00 0.000000e+00 0.000000e+00 0.000000e+00
 0.000000e+00 0.000000e+00 0.000000e+00 0.000000e+00 7.142857e-01 2.857143e-01 0.000000e+00 0.000000e+00 0.000000e+00 0.000000e+00 0.000000e+00 0.000000e+00 0.000000e+00 0.000000e+00
 0.000000e+00 0.000000e+00 0.000000e+00 0.000000e+00 0.000000e+00 6.363636e-01 3.636364e-01 0.000000e+00 0.000000e+00 0.000000e+00 0.000000e+00 0.000000e+00 0.000000e+00 0.000000e+00
 0.000000e+00 0.000000e+00 0.000000e+00 0.000000e+00 0.000000e+00 0.000000e+00 4.285714e-01 5.714286e-01 0.000000e+00 0.000000e+00 0.000000e+00 0.000000e+00 0.000000e+00 0.000000e+00
 0.000000e+00 0.000000e+00 0.000000e+00 0.000000e+00 0.000000e+00 0.000000e+00 0.000000e+00 5.000000e-01 5.000000e-01 0.000000e+00 0.000000e+00 0.000000e+00 0.000000e+00 0.000000e+00
 0.000000e+00 0.000000e+00 0.000000e+00 0.000000e+00 0.000000e+00 0.000000e+00 0.000000e+00 0.000000e+00 8.620690e-01 1.379310e-01 0.000000e+00 0.000000e+00 0.000000e+00 0.000000e+00
 0.000000e+00 0.000000e+00 0.000000e+00 0.000000e+00 0.000000e+00 0.000000e+00 0.000000e+00 0.000000e+00 0.000000e+00 5.000000e-01 5.000000e-01 0.000000e+00 0.000000e+00 0.000000e+00
 0.000000e+00 0.000000e+00 0.000000e+00 0.000000e+00 0.000000e+00 0.000000e+00 0.000000e+00 0.000000e+00 0.000000e+00 0.000000e+00 2.000000e-01 8.000000e-01 0.000000e+00 0.000000e+00
 0.000000e+00 0.000000e+00 0.000000e+00 0.000000e+00 0.000000e+00 0.000000e+00 0.000000e+00 0.000000e+00 0.000000e+00 0.000000e+00 0.000000e+00 9.047619e-01 9.523809e-02 0.000000e+00
 0.000000e+00 0.000000e+00 0.000000e+00 0.000000e+00 0.000000e+00 0.000000e+00 0.000000e+00 0.000000e+00 0.000000e+00 0.000000e+00 0.000000e+00 0.000000e+00 5.555556e-01 4.444444e-01
 0.000000e+00 0.000000e+00 0.000000e+00 0.000000e+00 0.000000e+00 0.000000e+00 0.000000e+00 0.000000e+00 0.000000e+00 0.000000e+00 0.000000e+00 0.000000e+00 0.000000e+00 0.000000e+00
<ENDHMM>
