~o
<STREAMINFO> 1 20
<VECSIZE> 20<NULLD><USER><DIAGC>
~h "d"
<BEGINHMM>
<NUMSTATES> 14
<STATE> 2
<MEAN> 20
 1.260702e+04 1.753658e+01 0.000000e+00 0.000000e+00 0.000000e+00 0.000000e+00 0.000000e+00 0.000000e+00 0.000000e+00 1.517073e+02 6.585364e-01 1.695122e+02 6.689390e+03 4.755171e+03 4.107561e+02 1.846341e+02 2.343902e+02 2.711219e+02 5.143903e+01 9.195121e+00
<VARIANCE> 20
 3.350132e+06 1.159517e+03 1.000000e-02 1.000000e-02 1.000000e-02 1.000000e-02 1.000000e-02 1.000000e-02 1.000000e-02 1.316445e+04 8.273646e+00 1.346638e+05 4.729725e+06 3.405788e+06 5.559038e+04 6.069012e+03 1.315429e+04 2.295605e+04 2.374979e+03 1.631327e+02
<GCONST> 1.324507e+02
<STATE> 3
<MEAN> 20
 1.251479e+04 2.272414e+01 3.448275e-02 0.000000e+00 0.000000e+00 0.000000e+00 0.000000e+00 0.000000e+00 0.000000e+00 3.004138e+02 4.482759e-01 5.682758e+02 7.884345e+03 3.309759e+03 2.926896e+02 1.436207e+02 2.343793e+02 3.014828e+02 9.686208e+01 6.103449e+00
<VARIANCE> 20
 6.620963e+06 1.928062e+03 3.329369e-02 1.000000e-02 1.000000e-02 1.000000e-02 1.000000e-02 1.000000e-02 1.000000e-02 4.101852e+04 2.178359e+00 3.533454e+05 4.693924e+06 2.877668e+06 1.342525e+04 4.782788e+03 3.103017e+04 2.466418e+04 7.695774e+03 8.002380e+01
<GCONST> 1.351682e+02
<STATE> 4
<MEAN> 20
 1.257575e+04 1.008333e+01 0.000000e+00 0.000000e+00 0.000000e+00 0.000000e+00 0.000000e+00 0.000000e+00 8.333334e-02 2.525000e+02 8.166666e+00 3.056667e+02 9.271333e+03 2.484167e+03 2.285000e+02 1.009167e+02 1.639167e+02 2.231667e+02 4.858334e+01 4.000000e+00
<VARIANCE> 20
 4.364884e+06 1.107431e+02 1.000000e-02 1.000000e-02 1.000000e-02 1.000000e-02 1.000000e-02 1.000000e-02 7.638888e-02 2.935458e+04 3.988055e+02 7.185289e+04 4.583148e+06 1.242517e+06 4.997250e+03 9.210762e+02 9.859243e+03 1.002181e+04 1.615076e+03 8.016666e+01
<GCONST> 1.289016e+02
<STATE> 5
<MEAN> 20
 1.091596e+04 1.045455e+00 2.272728e-02 0.000000e+00 0.000000e+00 0.000000e+00 0.000000e+00 0.000000e+00 0.000000e+00 2.047500e+02 6.818183e-02 1.770909e+02 7.557193e+03 2.577784e+03 2.652614e+02 1.282954e+02 2.021591e+02 1.864205e+02 2.460227e+01 2.897727e+00
<VARIANCE> 20
 3.971790e+06 1.065702e+01 4.493797e-02 1.000000e-02 1.000000e-02 1.000000e-02 1.000000e-02 1.000000e-02 1.000000e-02 3.243553e+04 2.226238e-01 4.813771e+04 4.244533e+06 9.714126e+05 1.560108e+04 6.917684e+03 1.865502e+04 1.304432e+04 8.684213e+02 4.429632e+01
<GCONST> 1.206637e+02
<STATE> 6
<MEAN> 20
 1.230845e+04 4.490909e+01 0.000000e+00 0.000000e+00 0.000000e+00 0.000000e+00 0.000000e+00 0.000000e+00 4.545454e-01 3.004545e+02 5.818182e+00 5.878182e+02 8.977272e+03 2.246455e+03 3.025454e+02 1.512727e+02 1.714545e+02 1.872727e+02 2.354545e+01 8.181819e-01
<VARIANCE> 20
 2.546994e+06 2.424810e+03 1.000000e-02 1.000000e-02 1.000000e-02 1.000000e-02 1.000000e-02 1.000000e-02 2.066116e+00 2.844261e+04 9.323967e+01 1.552461e+05 3.880365e+06 1.548834e+06 1.549316e+04 8.498017e+03 1.156298e+04 1.397093e+04 5.424297e+02 6.694212e+00
<GCONST> 1.343575e+02
<STATE> 7
<MEAN> 20
 1.174746e+04 3.846154e+00 0.000000e+00 0.000000e+00 0.000000e+00 0.000000e+00 0.000000e+00 1.538461e-01 3.846154e-02 3.223077e+02 3.076923e-01 5.633461e+02 7.718808e+03 2.847615e+03 3.278846e+02 1.420769e+02 2.149615e+02 2.074231e+02 4.184615e+01 9.538463e+00
<VARIANCE> 20
 2.847885e+06 1.148225e+02 1.000000e-02 1.000000e-02 1.000000e-02 1.000000e-02 1.000000e-02 5.917157e-01 3.698223e-02 7.443936e+04 1.443786e+00 7.352211e+05 2.851647e+06 2.710289e+06 1.829025e+04 5.197225e+03 1.305219e+04 7.129628e+03 1.261207e+03 2.263255e+02
<GCONST> 1.335645e+02
<STATE> 8
<MEAN> 20
 1.211600e+04 2.148148e+00 0.000000e+00 0.000000e+00 0.000000e+00 0.000000e+00 0.000000e+00 0.000000e+00 8.518519e-01 3.653333e+02 7.407409e-02 7.368148e+02 8.527260e+03 2.591407e+03 2.492963e+02 1.287407e+02 1.234815e+02 1.185556e+02 8.444445e+00 2.592593e-01
<VARIANCE> 20
 2.469012e+06 3.027437e+01 1.000000e-02 1.000000e-02 1.000000e-02 1.000000e-02 1.000000e-02 1.000000e-02 1.057064e+01 5.450467e+04 1.426612e-01 8.797896e+05 4.111616e+06 2.907852e+06 9.832949e+03 3.646340e+03 1.450440e+04 1.470773e+04 1.999507e+02 1.006859e+00
<GCONST> 1.242509e+02
<STATE> 9
<MEAN> 20
 1.041876e+04 3.466667e+00 0.000000e+00 0.000000e+00 0.000000e+00 0.000000e+00 0.000000e+00 0.000000e+00 0.000000e+00 6.477333e+02 1.333334e-01 1.506200e+03 8.052880e+03 8.412534e+02 1.940267e+02 1.090934e+02 1.734400e+02 1.823600e+02 8.666666e+00 1.906666e+00
<VARIANCE> 20
 3.419792e+06 1.432621e+02 1.000000e-02 1.000000e-02 1.000000e-02 1.000000e-02 1.000000e-02 1.000000e-02 1.000000e-02 1.011066e+05 6.488881e-01 9.942999e+05 2.847975e+06 4.773310e+05 1.676688e+04 4.665952e+03 2.295104e+04 2.092868e+04 2.043823e+02 2.371128e+01
<GCONST> 1.240216e+02
<STATE> 10
<MEAN> 20
 9.704455e+03 6.136364e-01 0.000000e+00 0.000000e+00 0.000000e+00 0.000000e+00 0.000000e+00 0.000000e+00 0.000000e+00 2.763864e+02 6.136366e-01 1.813409e+02 5.412773e+03 3.572591e+03 3.630909e+02 1.024546e+02 1.301364e+02 1.940909e+02 2.331818e+01 1.045455e+00
<VARIANCE> 20
 5.652673e+06 4.237088e+00 1.000000e-02 1.000000e-02 1.000000e-02 1.000000e-02 1.000000e-02 1.000000e-02 1.000000e-02 3.640655e+04 1.619162e+01 1.931935e+05 6.835892e+06 1.827268e+06 3.802735e+04 3.547112e+03 1.032275e+04 2.628908e+04 1.181808e+03 4.997933e+00
<GCONST> 1.239501e+02
<STATE> 11
<MEAN> 20
 5.957632e+03 3.973684e+01 6.315790e-01 1.052632e-01 7.368420e-01 5.157894e+00 1.000000e+01 7.631579e+00 6.526316e+00 1.896316e+02 7.947368e+00 2.752632e+02 2.543684e+03 1.975158e+03 1.266947e+03 8.615790e+01 3.389474e+01 2.247368e+01 6.263158e+00 1.140353e-35
<VARIANCE> 20
 1.011951e+07 1.938947e+04 6.022163e+00 1.994459e-01 9.772855e+00 4.292909e+02 8.880000e+02 5.144433e+02 3.570914e+02 6.424391e+04 3.060498e+02 4.190305e+05 1.359675e+07 1.537320e+06 1.388313e+06 7.395606e+03 2.722094e+03 1.843828e+03 5.457731e+02 1.000000e-02
<GCONST> 1.907838e+02
<STATE> 12
<MEAN> 20
 3.812667e+03 5.077778e+01 3.088889e+01 1.100000e+01 8.561111e+01 8.516667e+01 4.188889e+02 3.705556e+01 2.027778e+01 2.231111e+02 6.422222e+02 4.076667e+02 2.511000e+03 5.524445e+02 5.025000e+02 7.922222e+01 4.116666e+01 3.794445e+01 4.999999e-01 7.777779e-01
<VARIANCE> 20
 1.739035e+07 9.614171e+03 2.574988e+03 4.917778e+02 1.232091e+04 1.063614e+04 2.326925e+05 2.860386e+03 1.795312e+03 9.999388e+04 4.253328e+05 2.654441e+05 1.402119e+07 3.995233e+05 2.139907e+05 7.387396e+03 4.984250e+03 5.797498e+03 3.361111e+00 5.839503e+00
<GCONST> 2.308059e+02
<STATE> 13
<MEAN> 20
 5.987846e+03 3.923077e+00 -9.259279e-36 -8.680574e-38 7.538462e+00 9.153846e+00 2.653847e+01 5.230769e+00 2.692308e+00 2.767692e+02 8.153847e+01 4.731539e+02 3.390846e+03 3.918462e+02 1.034923e+03 8.216923e+02 6.261538e+01 5.076923e+01 1.069231e+01 1.615385e+00
<VARIANCE> 20
 1.464715e+07 9.807099e+01 1.000000e-02 1.000000e-02 6.819407e+02 1.005515e+03 6.258249e+03 1.764852e+02 8.698225e+01 1.496663e+05 4.794900e+04 5.461212e+05 1.829689e+07 2.193238e+05 1.048754e+06 1.013002e+06 2.645929e+03 4.752793e+03 4.022131e+02 2.546745e+01
<GCONST> 1.986498e+02
<TRANSP> 14
 0.000000e+00 1.000000e+00 0.000000e+00 0.000000e+00 0.000000e+00 0.000000e+00 0.000000e+00 0.000000e+00 0.000000e+00 0.000000e+00 0.000000e+00 0.000000e+00 0.000000e+00 0.000000e+00
 0.000000e+00 8.048781e-01 1.951219e-01 0.000000e+00 0.000000e+00 0.000000e+00 0.000000e+00 0.000000e+00 0.000000e+00 0.000000e+00 0.000000e+00 0.000000e+00 0.000000e+00 0.000000e+00
 0.000000e+00 0.000000e+00 7.241379e-01 2.758621e-01 0.000000e+00 0.000000e+00 0.000000e+00 0.000000e+00 0.000000e+00 0.000000e+00 0.000000e+00 0.000000e+00 0.000000e+00 0.000000e+00
 0.000000e+00 0.000000e+00 0.000000e+00 3.333333e-01 6.666667e-01 0.000000e+00 0.000000e+00 0.000000e+00 0.000000e+00 0.000000e+00 0.000000e+00 0.000000e+00 0.000000e+00 0.000000e+00
 0.000000e+00 0.000000e+00 0.000000e+00 0.000000e+00 9.090909e-01 9.090909e-02 0.000000e+00 0.000000e+00 0.000000e+00 0.000000e+00 0.000000e+00 0.000000e+00 0.000000e+00 0.000000e+00
 0.000000e+00 0.000000e+00 0.000000e+00 0.000000e+00 0.000000e+00 2.727273e-01 7.272727e-01 0.000000e+00 0.000000e+00 0.000000e+00 0.000000e+00 0.000000e+00 0.000000e+00 0.000000e+00
 0.000000e+00 0.000000e+00 0.000000e+00 0.000000e+00 0.000000e+00 0.000000e+00 6.923077e-01 3.076923e-01 0.000000e+00 0.000000e+00 0.000000e+00 0.000000e+00 0.000000e+00 0.000000e+00
 0.000000e+00 0.000000e+00 0.000000e+00 0.000000e+00 0.000000e+00 0.000000e+00 0.000000e+00 7.037037e-01 2.962963e-01 0.000000e+00 0.000000e+00 0.000000e+00 0.000000e+00 0.000000e+00
 0.000000e+00 0.000000e+00 0.000000e+00 0.000000e+00 0.000000e+00 0.000000e+00 0.000000e+00 0.000000e+00 8.933333e-01 1.066667e-01 0.000000e+00 0.000000e+00 0.000000e+00 0.000000e+00
 0.000000e+00 0.000000e+00 0.000000e+00 0.000000e+00 0.000000e+00 0.000000e+00 0.000000e+00 0.000000e+00 0.000000e+00 8.181818e-01 1.818182e-01 0.000000e+00 0.000000e+00 0.000000e+00
 0.000000e+00 0.000000e+00 0.000000e+00 0.000000e+00 0.000000e+00 0.000000e+00 0.000000e+00 0.000000e+00 0.000000e+00 0.000000e+00 5.789474e-01 4.210526e-01 0.000000e+00 0.000000e+00
 0.000000e+00 0.000000e+00 0.000000e+00 0.000000e+00 0.000000e+00 0.000000e+00 0.000000e+00 0.000000e+00 0.000000e+00 0.000000e+00 0.000000e+00 5.555556e-01 4.444444e-01 0.000000e+00
 0.000000e+00 0.000000e+00 0.000000e+00 0.000000e+00 0.000000e+00 0.000000e+00 0.000000e+00 0.000000e+00 0.000000e+00 0.000000e+00 0.000000e+00 0.000000e+00 3.846154e-01 6.153846e-01
 0.000000e+00 0.000000e+00 0.000000e+00 0.000000e+00 0.000000e+00 0.000000e+00 0.000000e+00 0.000000e+00 0.000000e+00 0.000000e+00 0.000000e+00 0.000000e+00 0.000000e+00 0.000000e+00
<ENDHMM>
