~o
<STREAMINFO> 1 20
<VECSIZE> 20<NULLD><USER><DIAGC>
~h "e"
<BEGINHMM>
<NUMSTATES> 14
<STATE> 2
<MEAN> 20
 7.876981e+03 6.923075e-01 0.000000e+00 0.000000e+00 0.000000e+00 1.268154e+03 1.908654e+02 1.119038e+02 1.251923e+02 9.467500e+02 8.846154e-01 3.853077e+02 6.248442e+03 2.472404e+03 3.681154e+02 6.480961e+02 2.888846e+02 6.136538e+01 4.067308e+01 6.365385e+00
<VARIANCE> 20
 6.891929e+06 1.075149e+01 1.000000e-02 1.000000e-02 1.000000e-02 4.733460e+05 1.947320e+04 4.925972e+03 3.581694e+03 1.423273e+05 7.217453e+00 1.743687e+05 3.549146e+06 4.116867e+06 5.030407e+04 1.315452e+05 5.479434e+04 4.772846e+03 4.488604e+03 3.382704e+02
<GCONST> 1.931454e+02
<STATE> 3
<MEAN> 20
 1.021824e+04 2.696000e+01 6.000001e-02 2.000001e-02 4.000000e-02 1.055040e+03 2.844000e+02 1.564200e+02 1.678800e+02 1.078440e+03 7.180000e+00 4.649600e+02 8.641200e+03 2.684780e+03 4.613800e+02 6.443400e+02 8.332001e+01 3.399999e-01 0.000000e+00 0.000000e+00
<VARIANCE> 20
 5.807052e+06 2.278879e+03 5.639999e-02 1.960000e-02 3.840002e-02 4.897816e+05 4.837348e+04 9.390965e+03 6.035305e+03 1.427881e+05 1.497876e+02 1.546671e+05 4.385656e+06 2.856048e+06 5.889532e+04 1.838389e+05 2.478346e+04 9.844000e-01 1.000000e-02 1.000000e-02
<GCONST> 1.747210e+02
<STATE> 4
<MEAN> 20
 1.135038e+04 2.262500e+01 0.000000e+00 0.000000e+00 0.000000e+00 1.001531e+03 1.518438e+02 8.956250e+01 1.103750e+02 9.860312e+02 3.875000e+00 2.777812e+02 9.039062e+03 3.103469e+03 4.584688e+02 5.728125e+02 1.646875e+02 6.737500e+01 2.296875e+01 1.843750e+00
<VARIANCE> 20
 9.185471e+06 2.190172e+03 1.000000e-02 1.000000e-02 1.000000e-02 2.788746e+05 6.988511e+03 1.707434e+03 1.828484e+03 1.564650e+05 1.671094e+02 6.618848e+04 1.414019e+07 3.660816e+06 2.809246e+04 6.287196e+04 1.841522e+04 4.602984e+03 1.233717e+03 3.513184e+01
<GCONST> 1.929931e+02
<STATE> 5
<MEAN> 20
 9.843232e+03 2.862500e+01 2.500000e-01 1.785715e-02 1.071429e-01 9.987500e+02 2.309643e+02 1.277500e+02 1.458393e+02 1.491196e+03 1.351786e+01 8.691965e+02 9.841589e+03 1.072107e+03 4.064643e+02 5.645892e+02 9.696429e+01 2.303571e+00 -1.966681e-15 0.000000e+00
<VARIANCE> 20
 8.509631e+06 6.451799e+03 7.946429e-01 1.753827e-02 3.456635e-01 4.136498e+05 4.532696e+04 8.589401e+03 6.798671e+03 3.346428e+05 5.456782e+02 6.180109e+05 7.374116e+06 1.383319e+06 6.423293e+04 1.549275e+05 2.737340e+04 6.556854e+01 1.000000e-02 1.000000e-02
<GCONST> 1.882097e+02
<STATE> 6
<MEAN> 20
 1.163778e+04 3.466666e+01 1.055556e+00 0.000000e+00 0.000000e+00 1.049000e+03 1.778889e+02 1.058333e+02 1.391111e+02 1.909889e+03 9.166666e+00 1.511889e+03 1.066378e+04 1.597333e+03 4.829445e+02 6.424445e+02 9.000000e+01 3.816666e+01 1.683333e+01 2.666667e+00
<VARIANCE> 20
 4.343833e+06 1.429111e+03 1.227469e+01 1.000000e-02 1.000000e-02 2.133413e+05 1.846932e+04 3.346250e+03 4.863210e+03 7.047535e+05 1.449167e+02 8.005575e+05 5.055588e+06 2.017182e+06 2.379750e+04 1.107407e+05 6.171111e+03 1.630028e+03 7.886944e+02 4.088888e+01
<GCONST> 2.014889e+02
<STATE> 7
<MEAN> 20
 8.732473e+03 4.361111e+00 0.000000e+00 0.000000e+00 8.333333e-02 1.330000e+03 2.315278e+02 1.391667e+02 1.625556e+02 1.738278e+03 4.694445e+00 1.370222e+03 8.476194e+03 1.110333e+03 4.226111e+02 7.627222e+02 1.460278e+02 4.322222e+01 2.416667e+00 0.000000e+00
<VARIANCE> 20
 7.232159e+06 1.056751e+02 1.000000e-02 1.000000e-02 2.430556e-01 5.088835e+05 2.665447e+04 6.485583e+03 5.580747e+03 3.899258e+05 4.565664e+01 1.097548e+06 4.815472e+06 1.299205e+06 3.376757e+04 2.165219e+05 3.107353e+04 5.483561e+03 3.685419e+01 1.000000e-02
<GCONST> 1.880585e+02
<STATE> 8
<MEAN> 20
 1.034626e+04 3.829033e+01 3.225808e-02 0.000000e+00 0.000000e+00 1.076871e+03 1.584355e+02 9.975807e+01 1.267419e+02 2.054161e+03 1.083871e+01 2.305016e+03 9.631936e+03 7.116935e+02 3.894194e+02 6.282097e+02 1.638065e+02 4.527419e+01 1.364516e+01 7.096772e-01
<VARIANCE> 20
 3.985837e+06 2.952658e+03 6.347556e-02 1.000000e-02 1.000000e-02 1.503634e+05 1.022753e+04 2.303441e+03 3.147579e+03 6.283666e+05 4.021030e+02 2.223646e+06 4.095044e+06 2.083000e+05 1.593011e+04 7.298116e+04 1.444506e+04 3.231037e+03 6.464227e+02 4.528614e+00
<GCONST> 1.928777e+02
<STATE> 9
<MEAN> 20
 8.535000e+03 4.057895e+01 2.368421e+00 0.000000e+00 1.000000e+00 1.009947e+03 2.186316e+02 1.508947e+02 1.717368e+02 2.219474e+03 1.647368e+01 2.734158e+03 7.499210e+03 7.500526e+02 4.963684e+02 5.740000e+02 1.983684e+02 4.026316e+01 3.842105e+01 2.315789e+00
<VARIANCE> 20
 1.124283e+07 3.586033e+03 5.402217e+01 1.000000e-02 1.800000e+01 3.584938e+05 2.743013e+04 8.347358e+03 6.470299e+03 5.889102e+05 7.604598e+02 2.769942e+06 9.464381e+06 1.608823e+05 9.632812e+04 9.531221e+04 5.361339e+04 3.054721e+03 9.999400e+03 4.221605e+01
<GCONST> 2.218792e+02
<STATE> 10
<MEAN> 20
 4.394083e+03 1.858333e+01 1.208333e+01 4.250000e+00 6.883334e+01 2.285833e+02 3.983333e+02 1.052500e+02 8.100000e+01 7.941666e+02 5.966666e+02 7.873334e+02 3.017500e+03 9.958334e+02 5.570833e+02 1.197500e+02 2.466667e+01 5.166667e+00 3.333333e-01 8.333333e-01
<VARIANCE> 20
 1.056547e+07 1.255243e+03 1.315076e+03 1.746875e+02 2.154047e+04 7.178707e+04 2.238809e+05 1.148869e+04 7.418500e+03 8.971987e+05 7.632643e+05 6.765948e+05 1.313475e+07 6.480419e+05 2.327971e+05 2.105035e+04 2.289389e+03 1.804722e+02 5.555555e-01 3.638888e+00
<GCONST> 2.305471e+02
<STATE> 11
<MEAN> 20
 4.716733e+03 1.164000e+02 2.213333e+01 0.000000e+00 8.000000e-01 3.823333e+02 3.642000e+02 1.271333e+02 9.986667e+01 9.344667e+02 2.418000e+02 7.324667e+02 2.584600e+03 1.202733e+03 8.930667e+02 3.779333e+02 3.628667e+02 2.741333e+02 8.553333e+01 8.933333e+00
<VARIANCE> 20
 6.245588e+06 8.186184e+04 3.288782e+03 1.000000e-02 4.293334e+00 4.599466e+05 2.235718e+05 2.096958e+04 1.274078e+04 1.652368e+06 2.048927e+05 9.852441e+05 1.346262e+07 1.289990e+06 3.337154e+05 3.731620e+04 2.374437e+05 1.671453e+05 2.264092e+04 2.612622e+02
<GCONST> 2.475043e+02
<STATE> 12
<MEAN> 20
 4.261769e+03 1.375385e+02 1.089231e+02 5.076923e+00 2.292307e+01 2.265385e+02 1.256923e+02 4.946154e+01 4.161538e+01 6.830769e+02 1.709231e+02 6.615385e+02 1.844462e+03 1.045077e+03 1.619538e+03 2.513846e+02 4.753846e+01 1.738462e+01 4.769231e+00 0.000000e+00
<VARIANCE> 20
 6.565206e+06 2.577763e+04 2.923577e+04 8.914792e+01 4.042071e+03 2.874125e+05 4.070421e+04 4.659326e+03 3.878852e+03 1.289598e+06 1.289961e+05 1.005866e+06 1.170787e+07 8.263204e+05 1.191046e+06 9.875270e+04 9.205941e+03 1.596698e+03 2.729468e+02 1.000000e-02
<GCONST> 2.381401e+02
<STATE> 13
<MEAN> 20
 3.735944e+03 1.372222e+01 5.555554e-02 0.000000e+00 0.000000e+00 3.019723e+02 7.577776e+01 5.272222e+01 5.083334e+01 5.088611e+02 4.333333e+00 3.600000e+02 1.493417e+03 5.830555e+02 1.970333e+03 2.907222e+02 2.330555e+01 8.388889e+00 2.555555e+00 3.777777e+00
<VARIANCE> 20
 3.104453e+06 1.262202e+03 1.080246e-01 1.000000e-02 1.000000e-02 5.111442e+05 3.830811e+04 1.106437e+04 1.049919e+04 1.135321e+06 1.177778e+02 6.432773e+05 7.515734e+06 5.188526e+05 1.745613e+06 1.290675e+05 3.699379e+03 6.765710e+02 6.519129e+01 3.697283e+02
<GCONST> 2.017204e+02
<TRANSP> 14
 0.000000e+00 1.000000e+00 0.000000e+00 0.000000e+00 0.000000e+00 0.000000e+00 0.000000e+00 0.000000e+00 0.000000e+00 0.000000e+00 0.000000e+00 0.000000e+00 0.000000e+00 0.000000e+00
 0.000000e+00 8.461539e-01 1.538462e-01 0.000000e+00 0.000000e+00 0.000000e+00 0.000000e+00 0.000000e+00 0.000000e+00 0.000000e+00 0.000000e+00 0.000000e+00 0.000000e+00 0.000000e+00
 0.000000e+00 0.000000e+00 8.400000e-01 1.600000e-01 0.000000e+00 0.000000e+00 0.000000e+00 0.000000e+00 0.000000e+00 0.000000e+00 0.000000e+00 0.000000e+00 0.000000e+00 0.000000e+00
 0.000000e+00 0.000000e+00 0.000000e+00 7.500000e-01 2.500000e-01 0.000000e+00 0.000000e+00 0.000000e+00 0.000000e+00 0.000000e+00 0.000000e+00 0.000000e+00 0.000000e+00 0.000000e+00
 0.000000e+00 0.000000e+00 0.000000e+00 0.000000e+00 8.571429e-01 1.428571e-01 0.000000e+00 0.000000e+00 0.000000e+00 0.000000e+00 0.000000e+00 0.000000e+00 0.000000e+00 0.000000e+00
 0.000000e+00 0.000000e+00 0.000000e+00 0.000000e+00 0.000000e+00 5.555556e-01 4.444444e-01 0.000000e+00 0.000000e+00 0.000000e+00 0.000000e+00 0.000000e+00 0.000000e+00 0.000000e+00
 0.000000e+00 0.000000e+00 0.000000e+00 0.000000e+00 0.000000e+00 0.000000e+00 7.777778e-01 2.222222e-01 0.000000e+00 0.000000e+00 0.000000e+00 0.000000e+00 0.000000e+00 0.000000e+00
 0.000000e+00 0.000000e+00 0.000000e+00 0.000000e+00 0.000000e+00 0.000000e+00 0.000000e+00 8.709677e-01 1.290323e-01 0.000000e+00 0.000000e+00 0.000000e+00 0.000000e+00 0.000000e+00
 0.000000e+00 0.000000e+00 0.000000e+00 0.000000e+00 0.000000e+00 0.000000e+00 0.000000e+00 0.000000e+00 5.789474e-01 4.210526e-01 0.000000e+00 0.000000e+00 0.000000e+00 0.000000e+00
 0.000000e+00 0.000000e+00 0.000000e+00 0.000000e+00 0.000000e+00 0.000000e+00 0.000000e+00 0.000000e+00 0.000000e+00 3.333333e-01 6.666667e-01 0.000000e+00 0.000000e+00 0.000000e+00
 0.000000e+00 0.000000e+00 0.000000e+00 0.000000e+00 0.000000e+00 0.000000e+00 0.000000e+00 0.000000e+00 0.000000e+00 0.000000e+00 4.666667e-01 5.333334e-01 0.000000e+00 0.000000e+00
 0.000000e+00 0.000000e+00 0.000000e+00 0.000000e+00 0.000000e+00 0.000000e+00 0.000000e+00 0.000000e+00 0.000000e+00 0.000000e+00 0.000000e+00 3.846154e-01 6.153846e-01 0.000000e+00
 0.000000e+00 0.000000e+00 0.000000e+00 0.000000e+00 0.000000e+00 0.000000e+00 0.000000e+00 0.000000e+00 0.000000e+00 0.000000e+00 0.000000e+00 0.000000e+00 7.777778e-01 2.222222e-01
 0.000000e+00 0.000000e+00 0.000000e+00 0.000000e+00 0.000000e+00 0.000000e+00 0.000000e+00 0.000000e+00 0.000000e+00 0.000000e+00 0.000000e+00 0.000000e+00 0.000000e+00 0.000000e+00
<ENDHMM>
