~o
<STREAMINFO> 1 20
<VECSIZE> 20<NULLD><USER><DIAGC>
~h "f"
<BEGINHMM>
<NUMSTATES> 14
<STATE> 2
<MEAN> 20
 6.599154e+03 4.368462e+02 1.098923e+03 0.000000e+00 0.000000e+00 0.000000e+00 0.000000e+00 0.000000e+00 7.692308e-02 1.688462e+02 2.361538e+01 3.876923e+02 4.129462e+03 2.466923e+03 1.194154e+03 8.184615e+01 1.153846e+01 5.000000e+00 3.538462e+00 7.692308e-02
<VARIANCE> 20
 8.893534e+06 1.136757e+05 9.317582e+05 1.000000e-02 1.000000e-02 1.000000e-02 1.000000e-02 1.000000e-02 7.100592e-02 7.217520e+04 2.313313e+03 1.500422e+05 1.227290e+07 2.345112e+06 2.708132e+06 1.000613e+04 2.782485e+02 1.450769e+02 1.433255e+02 7.100591e-02
<GCONST> 1.512648e+02
<STATE> 3
<MEAN> 20
 6.504242e+03 3.603636e+02 1.479636e+03 1.212121e-01 0.000000e+00 0.000000e+00 0.000000e+00 0.000000e+00 0.000000e+00 1.663333e+02 0.000000e+00 4.562424e+02 4.732303e+03 3.001485e+03 3.047879e+02 1.469697e+01 1.121212e+00 6.060605e-02 0.000000e+00 0.000000e+00
<VARIANCE> 20
 3.829647e+06 2.767138e+04 3.868536e+05 2.277318e-01 1.000000e-02 1.000000e-02 1.000000e-02 1.000000e-02 1.000000e-02 3.944306e+04 1.000000e-02 1.856965e+05 1.794751e+06 1.101476e+06 1.267239e+05 3.538476e+02 1.119743e+01 1.175390e-01 1.000000e-02 1.000000e-02
<GCONST> 1.056092e+02
<STATE> 4
<MEAN> 20
 9.337714e+03 3.307143e+02 8.907143e+02 1.428571e-01 0.000000e+00 0.000000e+00 0.000000e+00 0.000000e+00 0.000000e+00 1.202857e+02 2.728572e+01 2.858571e+02 5.886857e+03 3.969286e+03 4.447143e+02 4.614286e+01 1.114286e+01 7.571429e+00 7.142857e-01 0.000000e+00
<VARIANCE> 20
 5.304316e+06 1.697645e+05 7.792636e+05 1.224490e-01 1.000000e-02 1.000000e-02 1.000000e-02 1.000000e-02 1.000000e-02 2.948478e+04 4.412776e+03 8.070469e+04 2.535754e+06 5.526428e+05 1.484706e+04 5.166939e+02 6.412245e+01 8.824490e+01 1.918367e+00 1.000000e-02
<GCONST> 1.312151e+02
<STATE> 5
<MEAN> 20
 6.897405e+03 3.195676e+02 1.471081e+03 0.000000e+00 0.000000e+00 0.000000e+00 0.000000e+00 0.000000e+00 0.000000e+00 1.392703e+02 0.000000e+00 2.060811e+02 4.752135e+03 3.539946e+03 3.006487e+02 2.702703e+01 1.486486e+00 0.000000e+00 0.000000e+00 0.000000e+00
<VARIANCE> 20
 1.565372e+06 1.732035e+04 3.354525e+05 1.000000e-02 1.000000e-02 1.000000e-02 1.000000e-02 1.000000e-02 1.000000e-02 1.292371e+04 1.000000e-02 2.495370e+04 1.353732e+06 3.355087e+05 3.018861e+04 7.632696e+02 6.141709e+00 1.000000e-02 1.000000e-02 1.000000e-02
<GCONST> 9.265365e+01
<STATE> 6
<MEAN> 20
 9.202743e+03 1.468461e+02 5.643334e+02 2.564103e-02 0.000000e+00 0.000000e+00 0.000000e+00 0.000000e+00 0.000000e+00 1.815385e+02 0.000000e+00 2.670769e+02 6.003103e+03 3.442949e+03 3.294615e+02 4.189744e+01 1.028205e+01 6.923077e-01 2.564103e-02 0.000000e+00
<VARIANCE> 20
 1.619291e+06 2.941531e+04 5.934484e+05 2.498356e-02 1.000000e-02 1.000000e-02 1.000000e-02 1.000000e-02 1.000000e-02 4.111348e+04 1.000000e-02 1.535990e+05 1.905549e+06 1.396587e+06 6.780209e+04 2.036400e+03 3.020486e+02 1.700197e+00 2.498355e-02 1.000000e-02
<GCONST> 1.111834e+02
<STATE> 7
<MEAN> 20
 7.716636e+03 3.430000e+02 1.648818e+03 1.463636e+01 0.000000e+00 0.000000e+00 0.000000e+00 0.000000e+00 0.000000e+00 1.861818e+02 0.000000e+00 6.408182e+02 6.752182e+03 2.297000e+03 1.406364e+02 5.263636e+01 1.581818e+01 6.454545e+00 2.272727e+00 1.454545e+00
<VARIANCE> 20
 1.235216e+06 1.685146e+04 3.147892e+05 4.460496e+02 1.000000e-02 1.000000e-02 1.000000e-02 1.000000e-02 1.000000e-02 6.053924e+04 1.000000e-02 8.932578e+04 1.276465e+06 6.246289e+05 6.887140e+03 2.466413e+03 2.494215e+02 8.370247e+01 3.238016e+01 1.042975e+01
<GCONST> 1.338777e+02
<STATE> 8
<MEAN> 20
 8.937500e+03 2.695000e+02 1.343250e+03 1.050000e+01 0.000000e+00 0.000000e+00 0.000000e+00 0.000000e+00 0.000000e+00 2.307500e+02 0.000000e+00 9.002500e+02 7.296250e+03 2.366500e+03 1.725000e+02 3.750000e+01 1.525000e+01 1.750000e+00 1.500000e+00 0.000000e+00
<VARIANCE> 20
 2.914035e+06 3.312825e+04 6.654586e+05 1.822500e+02 1.000000e-02 1.000000e-02 1.000000e-02 1.000000e-02 1.000000e-02 7.110119e+04 1.000000e-02 3.640572e+05 1.855168e+06 3.065896e+06 1.306025e+04 5.522500e+02 1.176875e+02 2.187500e+00 4.250000e+00 1.000000e-02
<GCONST> 1.245635e+02
<STATE> 9
<MEAN> 20
 8.026818e+03 3.680909e+02 1.690636e+03 3.636364e+00 0.000000e+00 0.000000e+00 0.000000e+00 0.000000e+00 0.000000e+00 3.660909e+02 0.000000e+00 1.121364e+03 7.960455e+03 1.237636e+03 1.017273e+02 2.681818e+01 6.818182e+00 4.545454e-01 0.000000e+00 0.000000e+00
<VARIANCE> 20
 1.058698e+06 1.772117e+04 3.318708e+05 3.550413e+01 1.000000e-02 1.000000e-02 1.000000e-02 1.000000e-02 1.000000e-02 7.935135e+04 1.000000e-02 2.323915e+05 2.354996e+06 1.510759e+06 4.616199e+03 5.823306e+02 8.814876e+01 6.115703e-01 1.000000e-02 1.000000e-02
<GCONST> 1.111830e+02
<STATE> 10
<MEAN> 20
 9.483846e+03 3.658462e+02 1.544692e+03 5.707692e+01 0.000000e+00 0.000000e+00 0.000000e+00 0.000000e+00 0.000000e+00 6.372308e+02 6.692309e+00 2.230231e+03 8.826000e+03 9.100770e+02 9.276923e+01 1.907692e+01 3.615385e+00 2.307692e-01 0.000000e+00 0.000000e+00
<VARIANCE> 20
 7.246399e+05 1.553398e+04 2.469913e+05 2.408532e+03 1.000000e-02 1.000000e-02 1.000000e-02 1.000000e-02 1.000000e-02 5.563771e+04 2.791361e+02 6.570049e+05 1.998226e+06 1.593314e+06 7.624794e+03 5.191479e+02 4.885207e+01 3.313609e-01 1.000000e-02 1.000000e-02
<GCONST> 1.245879e+02
<STATE> 11
<MEAN> 20
 8.332228e+03 3.499546e+02 1.635136e+03 9.631818e+01 0.000000e+00 0.000000e+00 0.000000e+00 0.000000e+00 0.000000e+00 8.558182e+02 1.818182e-01 3.059045e+03 7.472773e+03 5.999999e+02 1.025455e+02 3.045455e+01 3.909091e+00 4.545454e-01 9.090908e-02 0.000000e+00
<VARIANCE> 20
 9.268114e+05 8.085771e+03 2.344980e+05 1.798858e+04 1.000000e-02 1.000000e-02 1.000000e-02 1.000000e-02 1.000000e-02 1.772597e+05 2.396694e-01 1.292592e+06 1.075731e+06 5.113189e+05 1.213703e+03 8.136117e+02 4.790083e+01 1.066116e+00 1.735537e-01 1.000000e-02
<GCONST> 1.217737e+02
<STATE> 12
<MEAN> 20
 8.667091e+03 3.004546e+02 8.612727e+02 3.109091e+02 0.000000e+00 0.000000e+00 0.000000e+00 0.000000e+00 0.000000e+00 6.652727e+02 2.727273e-01 3.012727e+03 6.447909e+03 1.224727e+03 8.445454e+01 2.254545e+01 8.909090e+00 2.818182e+00 5.454546e-01 9.090909e-02
<VARIANCE> 20
 2.002913e+06 1.872516e+04 2.663791e+05 8.062591e+04 1.000000e-02 1.000000e-02 1.000000e-02 1.000000e-02 1.000000e-02 1.686408e+05 7.438017e-01 3.227030e+06 1.205627e+06 2.848877e+06 3.891521e+03 6.907934e+02 1.982645e+02 1.905785e+01 9.752066e-01 8.264464e-02
<GCONST> 1.379844e+02
<STATE> 13
<MEAN> 20
 8.544223e+03 2.920000e+02 1.022111e+03 5.444445e+00 0.000000e+00 0.000000e+00 0.000000e+00 0.000000e+00 0.000000e+00 4.790000e+02 2.222222e+00 1.974667e+03 7.062667e+03 1.165444e+03 8.944444e+01 2.466667e+01 1.544444e+01 6.555555e+00 1.333333e+00 3.333333e-01
<VARIANCE> 20
 9.013449e+05 4.698067e+04 6.600297e+05 1.082469e+02 1.000000e-02 1.000000e-02 1.000000e-02 1.000000e-02 1.000000e-02 8.428266e+04 3.950618e+01 9.787076e+05 8.810513e+05 1.308046e+06 8.538246e+03 7.891111e+02 3.195802e+02 5.513581e+01 5.555555e+00 4.444444e-01
<GCONST> 1.392745e+02
<TRANSP> 14
 0.000000e+00 1.000000e+00 0.000000e+00 0.000000e+00 0.000000e+00 0.000000e+00 0.000000e+00 0.000000e+00 0.000000e+00 0.000000e+00 0.000000e+00 0.000000e+00 0.000000e+00 0.000000e+00
 0.000000e+00 6.923077e-01 3.076923e-01 0.000000e+00 0.000000e+00 0.000000e+00 0.000000e+00 0.000000e+00 0.000000e+00 0.000000e+00 0.000000e+00 0.000000e+00 0.000000e+00 0.000000e+00
 0.000000e+00 0.000000e+00 8.787879e-01 1.212121e-01 0.000000e+00 0.000000e+00 0.000000e+00 0.000000e+00 0.000000e+00 0.000000e+00 0.000000e+00 0.000000e+00 0.000000e+00 0.000000e+00
 0.000000e+00 0.000000e+00 0.000000e+00 4.285714e-01 5.714286e-01 0.000000e+00 0.000000e+00 0.000000e+00 0.000000e+00 0.000000e+00 0.000000e+00 0.000000e+00 0.000000e+00 0.000000e+00
 0.000000e+00 0.000000e+00 0.000000e+00 0.000000e+00 8.918919e-01 1.081081e-01 0.000000e+00 0.000000e+00 0.000000e+00 0.000000e+00 0.000000e+00 0.000000e+00 0.000000e+00 0.000000e+00
 0.000000e+00 0.000000e+00 0.000000e+00 0.000000e+00 0.000000e+00 8.974359e-01 1.025641e-01 0.000000e+00 0.000000e+00 0.000000e+00 0.000000e+00 0.000000e+00 0.000000e+00 0.000000e+00
 0.000000e+00 0.000000e+00 0.000000e+00 0.000000e+00 0.000000e+00 0.000000e+00 6.363636e-01 3.636364e-01 0.000000e+00 0.000000e+00 0.000000e+00 0.000000e+00 0.000000e+00 0.000000e+00
 0.000000e+00 0.000000e+00 0.000000e+00 0.000000e+00 0.000000e+00 0.000000e+00 0.000000e+00 0.000000e+00 1.000000e+00 0.000000e+00 0.000000e+00 0.000000e+00 0.000000e+00 0.000000e+00
 0.000000e+00 0.000000e+00 0.000000e+00 0.000000e+00 0.000000e+00 0.000000e+00 0.000000e+00 0.000000e+00 6.363636e-01 3.636364e-01 0.000000e+00 0.000000e+00 0.000000e+00 0.000000e+00
 0.000000e+00 0.000000e+00 0.000000e+00 0.000000e+00 0.000000e+00 0.000000e+00 0.000000e+00 0.000000e+00 0.000000e+00 6.923077e-01 3.076923e-01 0.000000e+00 0.000000e+00 0.000000e+00
 0.000000e+00 0.000000e+00 0.000000e+00 0.000000e+00 0.000000e+00 0.000000e+00 0.000000e+00 0.000000e+00 0.000000e+00 0.000000e+00 8.181818e-01 1.818182e-01 0.000000e+00 0.000000e+00
 0.000000e+00 0.000000e+00 0.000000e+00 0.000000e+00 0.000000e+00 0.000000e+00 0.000000e+00 0.000000e+00 0.000000e+00 0.000000e+00 0.000000e+00 6.363636e-01 3.636364e-01 0.000000e+00
 0.000000e+00 0.000000e+00 0.000000e+00 0.000000e+00 0.000000e+00 0.000000e+00 0.000000e+00 0.000000e+00 0.000000e+00 0.000000e+00 0.000000e+00 0.000000e+00 5.555556e-01 4.444444e-01
 0.000000e+00 0.000000e+00 0.000000e+00 0.000000e+00 0.000000e+00 0.000000e+00 0.000000e+00 0.000000e+00 0.000000e+00 0.000000e+00 0.000000e+00 0.000000e+00 0.000000e+00 0.000000e+00
<ENDHMM>
