~o
<STREAMINFO> 1 20
<VECSIZE> 20<NULLD><USER><DIAGC>
~h "g"
<BEGINHMM>
<NUMSTATES> 14
<STATE> 2
<MEAN> 20
 8.084704e+03 7.296297e+01 1.267407e+02 4.313594e-23 1.111111e-01 9.625555e+02 1.572963e+02 9.770370e+01 1.154444e+02 1.828296e+03 4.592592e+00 2.035481e+03 7.666111e+03 5.671111e+02 3.683704e+02 5.797778e+02 1.437778e+02 5.585185e+01 2.185185e+01 2.888889e+00
<VARIANCE> 20
 8.708603e+06 2.156864e+04 2.063590e+05 1.000000e-02 1.728396e-01 6.539852e+05 4.126421e+04 1.094650e+04 1.072210e+04 1.052521e+06 1.566858e+02 9.294149e+05 4.438264e+06 4.281996e+04 4.447512e+04 1.917299e+05 1.191573e+04 3.271904e+03 1.506571e+03 4.202469e+01
<GCONST> 2.212275e+02
<STATE> 3
<MEAN> 20
 6.865729e+03 1.692500e+02 5.646459e+02 2.083333e-02 8.077936e-28 1.058333e+01 2.145834e+00 1.541667e+00 3.270833e+00 3.005625e+02 1.770834e+00 1.062417e+03 4.939063e+03 1.302500e+03 5.309791e+02 4.939583e+01 2.295833e+01 8.541670e+00 1.041667e-01 2.083332e-02
<VARIANCE> 20
 7.486056e+06 5.106135e+04 7.888522e+05 2.039931e-02 1.000000e-02 4.546989e+03 1.548328e+02 6.508158e+01 2.070724e+02 1.112961e+05 4.459332e+01 8.260125e+05 1.113280e+07 1.733043e+06 7.409541e+05 8.133114e+03 2.334957e+03 5.404157e+02 1.349828e-01 2.039932e-02
<GCONST> 1.817864e+02
<STATE> 4
<MEAN> 20
 5.070214e+03 2.204286e+02 3.957857e+02 7.578572e+01 3.900000e+01 9.407144e+01 1.024286e+02 5.721428e+01 2.921429e+01 2.597857e+02 2.356429e+02 6.210000e+02 2.102572e+03 1.731000e+03 1.050071e+03 3.765000e+02 9.435714e+01 7.692857e+01 5.335714e+01 2.500000e+00
<VARIANCE> 20
 2.990798e+06 2.647696e+04 3.887028e+05 3.869188e+04 1.099657e+04 4.775421e+04 3.086910e+04 8.619311e+03 2.716882e+03 9.951045e+04 9.209180e+04 6.098936e+05 5.726309e+06 1.685473e+06 1.110090e+06 2.386857e+05 1.417909e+04 1.810663e+04 1.070437e+04 2.696428e+01
<GCONST> 2.570693e+02
<STATE> 5
<MEAN> 20
 4.325667e+03 2.570667e+02 4.741334e+02 1.980000e+01 1.600000e+01 5.280001e+01 3.853334e+01 2.360000e+01 2.640000e+01 2.740667e+02 7.366667e+01 6.558000e+02 2.038600e+03 1.100333e+03 1.347800e+03 2.681333e+02 2.060000e+01 1.600000e+00 8.000000e-01 7.333332e-01
<VARIANCE> 20
 9.424657e+06 7.876446e+04 4.504680e+05 2.269360e+03 2.088933e+03 2.661363e+04 6.992250e+03 1.449707e+03 2.270374e+03 1.805042e+05 2.078982e+04 9.900444e+05 8.422541e+06 1.206897e+06 3.304158e+06 1.276289e+05 1.134373e+03 1.250667e+01 5.093333e+00 4.328889e+00
<GCONST> 2.317510e+02
<STATE> 6
<MEAN> 20
 3.813095e+03 9.052381e+01 1.336190e+02 3.280952e+01 2.995238e+01 1.150952e+02 3.366666e+01 8.523809e+00 3.000000e+00 2.585714e+01 6.152382e+01 3.342857e+01 1.899524e+02 9.967619e+02 2.401190e+03 4.861905e+02 9.819047e+01 1.614286e+01 1.952381e+00 8.095240e-01
<VARIANCE> 20
 4.388441e+06 1.444863e+04 1.030634e+05 4.451870e+03 3.344522e+03 5.913010e+04 1.628365e+04 6.192970e+02 3.133333e+01 3.850884e+03 6.122746e+04 3.597864e+03 1.039295e+05 1.543660e+06 2.786287e+06 2.584640e+05 3.823111e+04 1.966790e+03 1.690249e+01 5.011338e+00
<GCONST> 2.233934e+02
<STATE> 7
<MEAN> 20
 3.832333e+03 1.289583e+02 5.808333e+01 8.208333e+00 6.458333e+00 2.779167e+01 2.454167e+01 1.516667e+01 3.675000e+01 3.950000e+01 9.504169e+01 4.466667e+01 2.831250e+02 1.501042e+03 1.541042e+03 6.666251e+02 4.495833e+01 1.291667e+00 0.000000e+00 0.000000e+00
<VARIANCE> 20
 4.824706e+06 4.641820e+04 1.028316e+04 3.609151e+02 2.344149e+02 6.500747e+03 2.295581e+03 7.805554e+02 2.126619e+04 3.771667e+03 8.139320e+04 3.653889e+03 5.491280e+05 4.398330e+06 1.843931e+06 5.969096e+05 1.229179e+04 2.145660e+01 1.000000e-02 1.000000e-02
<GCONST> 2.038775e+02
<STATE> 8
<MEAN> 20
 3.780550e+03 7.040000e+01 2.700000e+00 1.500000e-01 5.500000e-01 0.000000e+00 1.500000e-01 5.000000e-02 1.300000e+00 2.505000e+01 1.795000e+01 3.800000e+01 2.753000e+02 7.699000e+02 1.878900e+03 8.545500e+02 4.590000e+01 4.000000e-01 1.482308e-22 0.000000e+00
<VARIANCE> 20
 2.877946e+06 6.540314e+04 7.740999e+01 4.275000e-01 5.747499e+00 1.000000e-02 4.275000e-01 4.750000e-02 1.821000e+01 1.893447e+03 2.382448e+03 2.184270e+04 3.317176e+05 1.025394e+06 3.396735e+06 7.985039e+05 7.500492e+03 9.399999e-01 1.000000e-02 1.000000e-02
<GCONST> 1.425121e+02
<STATE> 9
<MEAN> 20
 7.139675e+03 7.697674e+00 0.000000e+00 0.000000e+00 0.000000e+00 0.000000e+00 0.000000e+00 0.000000e+00 0.000000e+00 7.609303e+01 0.000000e+00 3.930233e+01 3.037814e+03 1.954837e+03 1.864512e+03 3.160232e+02 1.013954e+01 7.674419e-01 6.976745e-02 2.583061e-29
<VARIANCE> 20
 1.749466e+07 6.131409e+02 1.000000e-02 1.000000e-02 1.000000e-02 1.000000e-02 1.000000e-02 1.000000e-02 1.000000e-02 2.130101e+04 1.000000e-02 1.817175e+04 1.491528e+07 5.863056e+06 3.253922e+06 1.406563e+05 3.574225e+02 6.131962e+00 6.489998e-02 1.000000e-02
<GCONST> 1.020902e+02
<STATE> 10
<MEAN> 20
 8.462223e+03 1.518519e+00 0.000000e+00 0.000000e+00 0.000000e+00 0.000000e+00 0.000000e+00 0.000000e+00 0.000000e+00 5.385185e+01 7.037036e-01 3.881481e+01 4.695296e+03 3.640704e+03 1.200000e+02 1.233333e+01 6.037036e+00 2.888889e+00 7.407407e-01 7.407407e-02
<VARIANCE> 20
 3.932520e+06 2.380521e+01 1.000000e-02 1.000000e-02 1.000000e-02 1.000000e-02 1.000000e-02 1.000000e-02 1.000000e-02 4.808867e+03 7.097391e+00 2.789887e+04 5.312622e+06 4.683722e+06 2.003637e+04 2.301481e+02 7.299862e+01 2.617285e+01 2.562415e+00 6.858710e-02
<GCONST> 9.555602e+01
<STATE> 11
<MEAN> 20
 9.692404e+03 0.000000e+00 0.000000e+00 0.000000e+00 0.000000e+00 0.000000e+00 0.000000e+00 0.000000e+00 0.000000e+00 1.066667e+02 0.000000e+00 4.090952e+02 7.422488e+03 1.858822e+03 9.938094e+01 8.392858e+00 8.452383e-01 4.761903e-02 0.000000e+00 0.000000e+00
<VARIANCE> 20
 4.973446e+06 1.000000e-02 1.000000e-02 1.000000e-02 1.000000e-02 1.000000e-02 1.000000e-02 1.000000e-02 1.000000e-02 2.356347e+04 1.000000e-02 5.317746e+05 5.584416e+06 2.854540e+06 2.219485e+04 1.843814e+02 5.987950e+00 6.916090e-02 1.000000e-02 1.000000e-02
<GCONST> 6.951467e+01
<STATE> 12
<MEAN> 20
 1.029457e+04 4.000000e+00 0.000000e+00 0.000000e+00 0.000000e+00 0.000000e+00 0.000000e+00 0.000000e+00 0.000000e+00 4.714286e+01 1.428571e+00 2.760000e+02 6.971571e+03 2.870857e+03 1.678571e+02 4.257143e+01 1.357143e+01 1.857143e+00 7.043401e-33 0.000000e+00
<VARIANCE> 20
 1.166502e+06 5.600000e+01 1.000000e-02 1.000000e-02 1.000000e-02 1.000000e-02 1.000000e-02 1.000000e-02 1.000000e-02 3.089837e+03 1.224490e+01 2.465383e+05 5.004738e+06 5.449312e+06 2.115641e+04 2.361388e+03 5.745306e+02 9.265306e+00 1.000000e-02 1.000000e-02
<GCONST> 9.350556e+01
<STATE> 13
<MEAN> 20
 8.795177e+03 -3.771683e-28 0.000000e+00 0.000000e+00 0.000000e+00 0.000000e+00 0.000000e+00 0.000000e+00 0.000000e+00 1.254118e+02 2.352942e-01 5.625589e+02 6.046471e+03 2.157382e+03 1.236765e+02 2.544118e+01 4.352941e+00 3.235294e-01 1.470588e-01 0.000000e+00
<VARIANCE> 20
 1.263390e+06 1.000000e-02 1.000000e-02 1.000000e-02 1.000000e-02 1.000000e-02 1.000000e-02 1.000000e-02 1.000000e-02 2.894289e+04 1.826990e+00 8.556621e+05 3.201170e+06 3.494686e+06 8.832747e+03 1.017717e+03 7.828719e+01 9.835640e-01 4.783736e-01 1.000000e-02
<GCONST> 8.355946e+01
<TRANSP> 14
 0.000000e+00 1.000000e+00 0.000000e+00 0.000000e+00 0.000000e+00 0.000000e+00 0.000000e+00 0.000000e+00 0.000000e+00 0.000000e+00 0.000000e+00 0.000000e+00 0.000000e+00 0.000000e+00
 0.000000e+00 7.407407e-01 2.592593e-01 0.000000e+00 0.000000e+00 0.000000e+00 0.000000e+00 0.000000e+00 0.000000e+00 0.000000e+00 0.000000e+00 0.000000e+00 0.000000e+00 0.000000e+00
 0.000000e+00 0.000000e+00 8.541667e-01 1.458333e-01 0.000000e+00 0.000000e+00 0.000000e+00 0.000000e+00 0.000000e+00 0.000000e+00 0.000000e+00 0.000000e+00 0.000000e+00 0.000000e+00
 0.000000e+00 0.000000e+00 0.000000e+00 5.000000e-01 5.000000e-01 0.000000e+00 0.000000e+00 0.000000e+00 0.000000e+00 0.000000e+00 0.000000e+00 0.000000e+00 0.000000e+00 0.000000e+00
 0.000000e+00 0.000000e+00 0.000000e+00 0.000000e+00 5.333334e-01 4.666667e-01 0.000000e+00 0.000000e+00 0.000000e+00 0.000000e+00 0.000000e+00 0.000000e+00 0.000000e+00 0.000000e+00
 0.000000e+00 0.000000e+00 0.000000e+00 0.000000e+00 0.000000e+00 6.666667e-01 3.333333e-01 0.000000e+00 0.000000e+00 0.000000e+00 0.000000e+00 0.000000e+00 0.000000e+00 0.000000e+00
 0.000000e+00 0.000000e+00 0.000000e+00 0.000000e+00 0.000000e+00 0.000000e+00 7.083333e-01 2.916667e-01 0.000000e+00 0.000000e+00 0.000000e+00 0.000000e+00 0.000000e+00 0.000000e+00
 0.000000e+00 0.000000e+00 0.000000e+00 0.000000e+00 0.000000e+00 0.000000e+00 0.000000e+00 6.500000e-01 3.500000e-01 0.000000e+00 0.000000e+00 0.000000e+00 0.000000e+00 0.000000e+00
 0.000000e+00 0.000000e+00 0.000000e+00 0.000000e+00 0.000000e+00 0.000000e+00 0.000000e+00 0.000000e+00 8.372093e-01 1.627907e-01 0.000000e+00 0.000000e+00 0.000000e+00 0.000000e+00
 0.000000e+00 0.000000e+00 0.000000e+00 0.000000e+00 0.000000e+00 0.000000e+00 0.000000e+00 0.000000e+00 0.000000e+00 7.407407e-01 2.592593e-01 0.000000e+00 0.000000e+00 0.000000e+00
 0.000000e+00 0.000000e+00 0.000000e+00 0.000000e+00 0.000000e+00 0.000000e+00 0.000000e+00 0.000000e+00 0.000000e+00 0.000000e+00 9.166667e-01 8.333333e-02 0.000000e+00 0.000000e+00
 0.000000e+00 0.000000e+00 0.000000e+00 0.000000e+00 0.000000e+00 0.000000e+00 0.000000e+00 0.000000e+00 0.000000e+00 0.000000e+00 0.000000e+00 0.000000e+00 1.000000e+00 0.000000e+00
 0.000000e+00 0.000000e+00 0.000000e+00 0.000000e+00 0.000000e+00 0.000000e+00 0.000000e+00 0.000000e+00 0.000000e+00 0.000000e+00 0.000000e+00 0.000000e+00 7.941176e-01 2.058823e-01
 0.000000e+00 0.000000e+00 0.000000e+00 0.000000e+00 0.000000e+00 0.000000e+00 0.000000e+00 0.000000e+00 0.000000e+00 0.000000e+00 0.000000e+00 0.000000e+00 0.000000e+00 0.000000e+00
<ENDHMM>
