~o
<STREAMINFO> 1 20
<VECSIZE> 20<NULLD><USER><DIAGC>
~h "h"
<BEGINHMM>
<NUMSTATES> 14
<STATE> 2
<MEAN> 20
 4.020444e+03 3.111111e+00 4.444444e-01 0.000000e+00 2.555556e+00 8.000000e+00 9.500000e+01 7.655556e+01 7.777779e+01 1.194556e+03 6.443334e+02 7.542222e+02 1.207444e+03 7.345555e+02 1.794556e+03 2.700000e+02 3.122222e+01 3.733334e+01 4.333333e+00 4.444444e-01
<VARIANCE> 20
 8.026080e+06 2.698766e+01 1.580247e+00 1.000000e-02 1.535803e+01 2.508889e+02 2.358778e+04 8.192691e+03 8.661062e+03 6.532434e+06 2.014001e+06 1.844286e+06 7.218326e+06 6.546329e+05 1.604295e+06 2.115324e+05 1.295506e+03 5.529556e+03 4.622221e+01 9.135802e-01
<GCONST> 2.081037e+02
<STATE> 3
<MEAN> 20
 7.234643e+03 0.000000e+00 0.000000e+00 0.000000e+00 0.000000e+00 0.000000e+00 0.000000e+00 0.000000e+00 7.612958e-16 4.260000e+02 0.000000e+00 8.472857e+02 3.650500e+03 1.915786e+03 1.000143e+03 1.312857e+02 2.778572e+01 8.064286e+01 7.214285e+00 0.000000e+00
<VARIANCE> 20
 8.273820e+06 1.000000e-02 1.000000e-02 1.000000e-02 1.000000e-02 1.000000e-02 1.000000e-02 1.000000e-02 1.000000e-02 2.406401e+05 1.000000e-02 8.523894e+05 1.262870e+07 3.260355e+06 9.043503e+05 3.556449e+04 1.439883e+03 1.238094e+04 2.117398e+02 1.000000e-02
<GCONST> 1.102758e+02
<STATE> 4
<MEAN> 20
 3.218333e+03 7.877778e+01 1.588889e+01 0.000000e+00 4.622222e+01 3.444445e+01 2.077778e+02 9.533333e+01 3.200000e+01 1.253333e+02 3.444444e+02 1.473333e+02 3.474445e+02 1.082556e+03 1.625222e+03 2.983333e+02 8.222223e+00 5.555555e-01 2.941087e-24 1.470543e-24
<VARIANCE> 20
 5.036682e+06 1.438040e+04 6.625432e+02 1.000000e-02 5.163061e+03 4.160469e+03 1.406957e+05 2.581111e+04 3.380444e+03 1.608400e+04 2.398584e+05 4.291645e+04 4.371635e+05 2.139661e+06 3.307359e+06 1.271056e+05 4.935062e+02 2.469136e+00 1.000000e-02 1.000000e-02
<GCONST> 1.956398e+02
<STATE> 5
<MEAN> 20
 3.025000e+03 2.926667e+02 1.916667e+01 1.550000e+01 6.183333e+01 5.466666e+01 1.825000e+02 8.483334e+01 2.383333e+01 9.500000e+01 5.956667e+02 2.193333e+02 2.478333e+02 4.593333e+02 1.920167e+03 3.758333e+02 1.500000e+01 8.666667e+00 6.666667e+00 6.500000e+00
<VARIANCE> 20
 3.859250e+05 1.852699e+05 7.648057e+02 6.205833e+02 8.530806e+03 5.038555e+03 6.324058e+04 1.397181e+04 6.431390e+02 6.161333e+03 4.499595e+05 5.344456e+04 6.792013e+04 7.278455e+04 5.159228e+05 1.350988e+05 2.543333e+02 2.532222e+02 1.515556e+02 1.422500e+02
<GCONST> 2.204326e+02
<STATE> 6
<MEAN> 20
 3.154474e+03 5.426316e+01 0.000000e+00 0.000000e+00 0.000000e+00 0.000000e+00 1.052632e-01 1.578947e-01 5.263158e-02 8.263160e+00 4.736842e-01 9.473683e+00 1.935263e+02 6.534211e+02 1.983526e+03 3.440526e+02 2.400000e+01 6.894737e+00 1.263158e+00 6.842105e-01
<VARIANCE> 20
 1.661559e+06 1.524451e+04 1.000000e-02 1.000000e-02 1.000000e-02 1.000000e-02 1.994460e-01 4.487536e-01 4.986149e-02 8.193519e+02 1.933518e+00 3.455124e+02 1.476407e+05 6.014591e+05 1.347996e+06 9.806415e+04 3.258000e+03 3.075679e+02 1.872022e+01 5.268699e+00
<GCONST> 1.193191e+02
<STATE> 7
<MEAN> 20
 9.359844e+03 1.250000e-01 0.000000e+00 0.000000e+00 0.000000e+00 0.000000e+00 0.000000e+00 0.000000e+00 0.000000e+00 2.106875e+02 0.000000e+00 4.318125e+02 6.217750e+03 2.165219e+03 7.205938e+02 3.162500e+01 3.062500e+00 3.437500e-01 1.875000e-01 6.250001e-02
<VARIANCE> 20
 1.172970e+07 2.343750e-01 1.000000e-02 1.000000e-02 1.000000e-02 1.000000e-02 1.000000e-02 1.000000e-02 1.000000e-02 6.351435e+04 1.000000e-02 3.694063e+05 1.343996e+07 2.498280e+06 2.143362e+06 1.569922e+03 4.562109e+01 6.630859e-01 3.398438e-01 5.859375e-02
<GCONST> 9.119630e+01
<STATE> 8
<MEAN> 20
 1.008804e+04 0.000000e+00 0.000000e+00 0.000000e+00 0.000000e+00 0.000000e+00 0.000000e+00 0.000000e+00 0.000000e+00 3.526667e+02 0.000000e+00 8.237407e+02 8.776777e+03 7.525926e+02 7.329630e+01 1.225926e+01 1.740741e+00 2.962963e-01 0.000000e+00 0.000000e+00
<VARIANCE> 20
 1.645997e+06 1.000000e-02 1.000000e-02 1.000000e-02 1.000000e-02 1.000000e-02 1.000000e-02 1.000000e-02 1.000000e-02 1.102062e+05 1.000000e-02 3.911598e+05 9.298404e+05 2.428716e+05 3.127393e+03 1.607846e+02 1.411797e+01 6.529492e-01 1.000000e-02 1.000000e-02
<GCONST> 6.639376e+01
<STATE> 9
<MEAN> 20
 9.714107e+03 0.000000e+00 0.000000e+00 0.000000e+00 0.000000e+00 0.000000e+00 0.000000e+00 0.000000e+00 0.000000e+00 3.103571e+02 0.000000e+00 5.518929e+02 8.569143e+03 8.524999e+02 4.660714e+01 4.321429e+00 0.000000e+00 0.000000e+00 0.000000e+00 0.000000e+00
<VARIANCE> 20
 4.077766e+06 1.000000e-02 1.000000e-02 1.000000e-02 1.000000e-02 1.000000e-02 1.000000e-02 1.000000e-02 1.000000e-02 5.700694e+04 1.000000e-02 1.405360e+05 2.503327e+06 4.562664e+05 2.730310e+03 5.514669e+01 1.000000e-02 1.000000e-02 1.000000e-02 1.000000e-02
<GCONST> 5.460165e+01
<STATE> 10
<MEAN> 20
 1.002517e+04 0.000000e+00 0.000000e+00 0.000000e+00 0.000000e+00 0.000000e+00 0.000000e+00 0.000000e+00 0.000000e+00 2.538333e+02 0.000000e+00 7.480833e+02 8.528750e+03 8.688333e+02 1.064167e+02 2.550000e+01 1.333333e+00 8.333332e-02 0.000000e+00 0.000000e+00
<VARIANCE> 20
 5.616260e+05 1.000000e-02 1.000000e-02 1.000000e-02 1.000000e-02 1.000000e-02 1.000000e-02 1.000000e-02 1.000000e-02 7.302298e+04 1.000000e-02 1.345532e+05 2.606108e+05 1.914848e+05 5.350410e+03 3.877500e+02 6.555555e+00 7.638889e-02 1.000000e-02 1.000000e-02
<GCONST> 6.083453e+01
<STATE> 11
<MEAN> 20
 1.157175e+04 1.450000e+01 0.000000e+00 0.000000e+00 0.000000e+00 0.000000e+00 0.000000e+00 0.000000e+00 0.000000e+00 4.357500e+02 2.300000e+01 1.475500e+03 1.012050e+04 3.847500e+02 1.400000e+01 4.250000e+00 0.000000e+00 0.000000e+00 0.000000e+00 0.000000e+00
<VARIANCE> 20
 7.347962e+06 6.307500e+02 1.000000e-02 1.000000e-02 1.000000e-02 1.000000e-02 1.000000e-02 1.000000e-02 1.000000e-02 1.072477e+05 1.587000e+03 3.262512e+05 3.604347e+06 6.930669e+04 5.340000e+02 5.418750e+01 1.000000e-02 1.000000e-02 1.000000e-02 1.000000e-02
<GCONST> 7.652221e+01
<STATE> 12
<MEAN> 20
 9.896615e+03 0.000000e+00 0.000000e+00 0.000000e+00 0.000000e+00 0.000000e+00 0.000000e+00 0.000000e+00 0.000000e+00 1.085000e+02 0.000000e+00 1.282077e+03 8.158269e+03 5.095385e+02 4.761538e+01 7.423077e+00 1.923077e-01 0.000000e+00 0.000000e+00 0.000000e+00
<VARIANCE> 20
 2.052814e+06 1.000000e-02 1.000000e-02 1.000000e-02 1.000000e-02 1.000000e-02 1.000000e-02 1.000000e-02 1.000000e-02 1.400179e+04 1.000000e-02 5.555914e+05 6.197894e+05 7.961348e+04 2.442929e+03 1.565518e+02 3.860947e-01 1.000000e-02 1.000000e-02 1.000000e-02
<GCONST> 5.532967e+01
<STATE> 13
<MEAN> 20
 1.062764e+04 0.000000e+00 0.000000e+00 0.000000e+00 0.000000e+00 0.000000e+00 0.000000e+00 0.000000e+00 0.000000e+00 4.475454e+02 0.000000e+00 1.725682e+03 9.014000e+03 3.199545e+02 1.472727e+01 8.181818e-01 0.000000e+00 0.000000e+00 0.000000e+00 0.000000e+00
<VARIANCE> 20
 1.157387e+06 1.000000e-02 1.000000e-02 1.000000e-02 1.000000e-02 1.000000e-02 1.000000e-02 1.000000e-02 1.000000e-02 7.054134e+04 1.000000e-02 7.546602e+05 4.236175e+05 2.975677e+04 2.103801e+02 4.421486e+00 1.000000e-02 1.000000e-02 1.000000e-02 1.000000e-02
<GCONST> 4.564275e+01
<TRANSP> 14
 0.000000e+00 1.000000e+00 0.000000e+00 0.000000e+00 0.000000e+00 0.000000e+00 0.000000e+00 0.000000e+00 0.000000e+00 0.000000e+00 0.000000e+00 0.000000e+00 0.000000e+00 0.000000e+00
 0.000000e+00 5.555556e-01 4.444444e-01 0.000000e+00 0.000000e+00 0.000000e+00 0.000000e+00 0.000000e+00 0.000000e+00 0.000000e+00 0.000000e+00 0.000000e+00 0.000000e+00 0.000000e+00
 0.000000e+00 0.000000e+00 7.142857e-01 2.857143e-01 0.000000e+00 0.000000e+00 0.000000e+00 0.000000e+00 0.000000e+00 0.000000e+00 0.000000e+00 0.000000e+00 0.000000e+00 0.000000e+00
 0.000000e+00 0.000000e+00 0.000000e+00 5.555556e-01 4.444444e-01 0.000000e+00 0.000000e+00 0.000000e+00 0.000000e+00 0.000000e+00 0.000000e+00 0.000000e+00 0.000000e+00 0.000000e+00
 0.000000e+00 0.000000e+00 0.000000e+00 0.000000e+00 3.333333e-01 6.666667e-01 0.000000e+00 0.000000e+00 0.000000e+00 0.000000e+00 0.000000e+00 0.000000e+00 0.000000e+00 0.000000e+00
 0.000000e+00 0.000000e+00 0.000000e+00 0.000000e+00 0.000000e+00 7.894737e-01 2.105263e-01 0.000000e+00 0.000000e+00 0.000000e+00 0.000000e+00 0.000000e+00 0.000000e+00 0.000000e+00
 0.000000e+00 0.000000e+00 0.000000e+00 0.000000e+00 0.000000e+00 0.000000e+00 8.750000e-01 1.250000e-01 0.000000e+00 0.000000e+00 0.000000e+00 0.000000e+00 0.000000e+00 0.000000e+00
 0.000000e+00 0.000000e+00 0.000000e+00 0.000000e+00 0.000000e+00 0.000000e+00 0.000000e+00 8.518519e-01 1.481482e-01 0.000000e+00 0.000000e+00 0.000000e+00 0.000000e+00 0.000000e+00
 0.000000e+00 0.000000e+00 0.000000e+00 0.000000e+00 0.000000e+00 0.000000e+00 0.000000e+00 0.000000e+00 8.571429e-01 1.428571e-01 0.000000e+00 0.000000e+00 0.000000e+00 0.000000e+00
 0.000000e+00 0.000000e+00 0.000000e+00 0.000000e+00 0.000000e+00 0.000000e+00 0.000000e+00 0.000000e+00 0.000000e+00 6.666667e-01 3.333333e-01 0.000000e+00 0.000000e+00 0.000000e+00
 0.000000e+00 0.000000e+00 0.000000e+00 0.000000e+00 0.000000e+00 0.000000e+00 0.000000e+00 0.000000e+00 0.000000e+00 0.000000e+00 0.000000e+00 1.000000e+00 0.000000e+00 0.000000e+00
 0.000000e+00 0.000000e+00 0.000000e+00 0.000000e+00 0.000000e+00 0.000000e+00 0.000000e+00 0.000000e+00 0.000000e+00 0.000000e+00 0.000000e+00 8.461539e-01 1.538462e-01 0.000000e+00
 0.000000e+00 0.000000e+00 0.000000e+00 0.000000e+00 0.000000e+00 0.000000e+00 0.000000e+00 0.000000e+00 0.000000e+00 0.000000e+00 0.000000e+00 0.000000e+00 8.181818e-01 1.818182e-01
 0.000000e+00 0.000000e+00 0.000000e+00 0.000000e+00 0.000000e+00 0.000000e+00 0.000000e+00 0.000000e+00 0.000000e+00 0.000000e+00 0.000000e+00 0.000000e+00 0.000000e+00 0.000000e+00
<ENDHMM>
