~o
<STREAMINFO> 1 20
<VECSIZE> 20<NULLD><USER><DIAGC>
~h "i"
<BEGINHMM>
<NUMSTATES> 14
<STATE> 2
<MEAN> 20
 6.556369e+03 6.589472e+01 1.052632e-01 -3.985824e-29 -1.992912e-29 1.450000e+02 2.136842e+01 1.773684e+01 2.289474e+01 5.175263e+02 2.894737e+00 5.504210e+02 3.726263e+03 1.759737e+03 9.864737e+02 2.244211e+02 4.878947e+01 2.894737e+01 1.157895e+01 7.368419e+00
<VARIANCE> 20
 7.910668e+06 6.645315e+04 1.994459e-01 1.000000e-02 1.000000e-02 1.140706e+05 2.457601e+03 1.645457e+03 2.980725e+03 7.933453e+05 8.283102e+01 8.819122e+05 1.318139e+07 1.557166e+06 9.394281e+05 8.609025e+04 1.055301e+04 3.938155e+03 6.841385e+02 9.482326e+02
<GCONST> 2.061651e+02
<STATE> 3
<MEAN> 20
 4.373765e+03 5.252941e+01 1.982353e+01 1.764706e+00 2.747059e+01 2.903529e+02 2.102353e+02 6.741177e+01 5.235294e+01 4.228824e+02 3.068235e+02 3.726470e+02 3.138765e+03 6.307059e+02 7.217059e+02 2.050588e+02 7.311765e+01 4.458824e+01 1.970588e+01 5.470588e+00
<VARIANCE> 20
 1.438929e+07 1.429837e+04 1.415322e+03 2.912111e+01 5.059543e+03 4.900437e+05 1.125506e+05 1.294718e+04 1.167776e+04 6.953539e+05 3.315440e+05 2.112138e+05 1.434580e+07 1.227881e+06 6.470399e+05 1.200669e+05 1.099163e+04 1.205836e+04 4.453266e+03 2.195432e+02
<GCONST> 2.520259e+02
<STATE> 4
<MEAN> 20
 7.851423e+03 3.365385e+01 2.671933e-27 0.000000e+00 3.846154e-02 5.000000e-01 1.165385e+01 2.250000e+01 2.315385e+01 5.810000e+02 7.092307e+01 7.199231e+02 5.603923e+03 1.152115e+03 6.186154e+02 1.168846e+02 1.489615e+02 8.423077e+01 7.615385e+00 7.307692e-01
<VARIANCE> 20
 1.020390e+07 3.988610e+03 1.000000e-02 1.000000e-02 3.698224e-02 6.250000e+00 1.672150e+03 4.098327e+03 4.359823e+03 3.127395e+05 4.236884e+04 6.012492e+05 1.356714e+07 1.345955e+06 1.061799e+06 1.052703e+04 2.955135e+04 7.958641e+03 1.964675e+02 1.065828e+01
<GCONST> 1.918421e+02
<STATE> 5
<MEAN> 20
 6.703917e+03 2.416667e+00 1.682903e-28 0.000000e+00 2.666667e+00 8.333334e-01 4.483334e+01 1.525000e+01 6.916667e+00 4.557500e+02 7.008333e+01 8.145000e+02 4.679083e+03 7.944166e+02 7.095000e+02 6.341666e+01 5.300000e+01 4.800000e+01 5.833333e-01 -1.051815e-30
<VARIANCE> 20
 1.175517e+07 4.757639e+01 1.000000e-02 1.000000e-02 7.822221e+01 4.972222e+00 1.203031e+04 1.239854e+03 2.425764e+02 2.492193e+05 2.789541e+04 1.016747e+06 1.216467e+07 9.682189e+05 9.110675e+05 8.779743e+03 7.606333e+03 7.344833e+03 1.909723e+00 1.000000e-02
<GCONST> 1.789365e+02
<STATE> 6
<MEAN> 20
 9.540000e+03 1.103095e+02 8.857141e+00 4.761906e-02 0.000000e+00 0.000000e+00 2.857144e-01 3.095239e-01 2.452381e+00 4.271429e+02 8.571431e+00 7.942381e+02 7.947429e+03 9.727620e+02 3.112618e+02 4.419047e+01 6.833333e+00 4.119047e+00 5.289125e-29 0.000000e+00
<VARIANCE> 20
 1.003273e+07 2.801288e+05 2.151264e+03 9.297055e-02 1.000000e-02 1.000000e-02 3.346941e+00 2.832765e+00 1.376763e+02 1.342256e+05 1.330959e+03 6.015238e+05 1.169209e+07 4.581277e+05 5.015526e+05 1.263616e+04 3.096626e+02 5.093431e+02 1.000000e-02 1.000000e-02
<GCONST> 1.556297e+02
<STATE> 7
<MEAN> 20
 8.448982e+03 3.859648e+00 0.000000e+00 0.000000e+00 0.000000e+00 0.000000e+00 0.000000e+00 0.000000e+00 0.000000e+00 5.656666e+02 4.385964e-01 1.108912e+03 6.371228e+03 9.449299e+02 4.281053e+02 7.056140e+01 4.796491e+01 4.582454e+01 4.210525e-01 1.228070e-01
<VARIANCE> 20
 5.391872e+06 2.318397e+02 1.000000e-02 1.000000e-02 1.000000e-02 1.000000e-02 1.000000e-02 1.000000e-02 1.000000e-02 2.859406e+05 1.077256e+01 9.167901e+05 1.084651e+07 9.201061e+05 5.841821e+05 1.640731e+04 5.889680e+03 5.711332e+03 1.436749e+00 3.533394e-01
<GCONST> 1.237052e+02
<STATE> 8
<MEAN> 20
 7.189600e+03 1.430000e+01 6.400000e+00 -1.514613e-29 -6.058452e-29 -7.068194e-29 -1.130911e-27 6.000000e+00 1.440000e+01 3.229000e+02 1.050000e+01 1.073200e+03 4.693500e+03 9.664000e+02 7.168000e+02 7.930000e+01 1.050000e+01 3.300000e+00 1.000000e-01 1.767048e-29
<VARIANCE> 20
 8.890804e+06 6.096100e+02 3.206400e+02 1.000000e-02 1.000000e-02 1.000000e-02 1.000000e-02 3.240000e+02 1.866240e+03 9.024889e+04 9.922500e+02 1.059805e+06 1.409797e+07 1.481351e+06 1.132766e+06 4.670741e+04 6.478500e+02 9.801002e+01 8.999999e-02 1.000000e-02
<GCONST> 1.514243e+02
<STATE> 9
<MEAN> 20
 5.248100e+03 2.448500e+02 1.022500e+02 3.200000e+00 5.340001e+01 2.765000e+01 4.185500e+02 7.930000e+01 4.640000e+01 3.483000e+02 7.102499e+02 7.319000e+02 2.661300e+03 1.154450e+03 8.435500e+02 1.909500e+02 1.324000e+02 8.994999e+01 5.560000e+01 1.650000e+00
<VARIANCE> 20
 8.501675e+06 3.266325e+05 3.679979e+04 8.305999e+01 1.277964e+04 5.428429e+03 5.669724e+05 1.789601e+04 5.093041e+03 1.322653e+05 1.539593e+06 1.050340e+06 1.064594e+07 1.020197e+06 7.067841e+05 5.752204e+04 8.825245e+04 6.759795e+04 2.165655e+04 2.082750e+01
<GCONST> 2.598513e+02
<STATE> 10
<MEAN> 20
 4.644207e+03 6.206897e-01 0.000000e+00 0.000000e+00 0.000000e+00 0.000000e+00 0.000000e+00 5.724138e+00 3.379311e+00 1.807586e+02 7.482759e+00 3.058966e+02 1.483103e+03 1.118138e+03 1.627828e+03 1.297586e+02 5.662069e+01 5.724138e+01 4.651724e+01 2.103449e+00
<VARIANCE> 20
 7.119018e+06 8.580262e+00 1.000000e-02 1.000000e-02 1.000000e-02 1.000000e-02 1.000000e-02 3.908893e+02 7.885609e+01 1.121982e+05 6.281119e+02 6.713688e+05 9.129490e+06 1.362730e+06 1.782340e+06 5.842307e+04 1.727100e+04 2.213680e+04 1.511811e+04 5.519619e+01
<GCONST> 1.624005e+02
<STATE> 11
<MEAN> 20
 6.158727e+03 4.363636e+00 0.000000e+00 0.000000e+00 1.045455e+01 5.636364e+00 1.530909e+02 2.045455e+01 1.327273e+01 2.594545e+02 1.820909e+02 7.294545e+02 3.408545e+03 7.012727e+02 1.199182e+03 1.479091e+02 1.540000e+02 8.027272e+01 2.027273e+01 2.454545e+00
<VARIANCE> 20
 1.049474e+07 1.382314e+02 1.000000e-02 1.000000e-02 1.092975e+03 1.436859e+02 2.005073e+05 2.422793e+03 7.478346e+02 1.270726e+05 2.520037e+05 1.208994e+06 1.273938e+07 6.248346e+05 3.421370e+06 7.935662e+04 1.539667e+05 2.238874e+04 1.901835e+03 6.024792e+01
<GCONST> 2.150628e+02
<STATE> 12
<MEAN> 20
 5.360357e+03 2.171428e+01 1.071429e+00 0.000000e+00 0.000000e+00 0.000000e+00 5.142857e+00 1.200000e+01 4.214285e+00 2.345000e+02 2.000000e+00 7.568572e+02 2.966857e+03 4.252857e+02 8.257143e+02 3.884286e+02 1.145000e+02 5.971428e+01 8.778572e+01 1.185714e+01
<VARIANCE> 20
 9.450371e+06 2.971205e+03 1.492348e+01 1.000000e-02 1.000000e-02 1.000000e-02 2.278367e+02 1.221143e+03 1.143112e+02 7.311568e+04 3.100000e+01 1.621539e+06 1.132832e+07 4.178946e+05 1.417933e+06 3.139555e+05 3.107425e+04 1.466277e+04 5.840688e+04 7.044082e+02
<GCONST> 1.893883e+02
<STATE> 13
<MEAN> 20
 8.602771e+03 3.208555e-02 0.000000e+00 0.000000e+00 0.000000e+00 0.000000e+00 -1.064041e-25 7.318005e-25 -1.400982e-25 2.604599e+02 0.000000e+00 1.062208e+03 7.250272e+03 4.703796e+02 7.412296e+01 6.181818e+00 9.625662e-02 0.000000e+00 0.000000e+00 0.000000e+00
<VARIANCE> 20
 3.919014e+06 1.914840e-01 1.000000e-02 1.000000e-02 1.000000e-02 1.000000e-02 1.000000e-02 1.000000e-02 1.000000e-02 6.601613e+04 1.000000e-02 1.010443e+06 3.004421e+06 1.602915e+05 1.216295e+05 1.232877e+03 2.688095e-01 1.000000e-02 1.000000e-02 1.000000e-02
<GCONST> 6.896504e+01
<TRANSP> 14
 0.000000e+00 1.000000e+00 0.000000e+00 0.000000e+00 0.000000e+00 0.000000e+00 0.000000e+00 0.000000e+00 0.000000e+00 0.000000e+00 0.000000e+00 0.000000e+00 0.000000e+00 0.000000e+00
 0.000000e+00 5.263158e-01 4.736842e-01 0.000000e+00 0.000000e+00 0.000000e+00 0.000000e+00 0.000000e+00 0.000000e+00 0.000000e+00 0.000000e+00 0.000000e+00 0.000000e+00 0.000000e+00
 0.000000e+00 0.000000e+00 4.705882e-01 5.294118e-01 0.000000e+00 0.000000e+00 0.000000e+00 0.000000e+00 0.000000e+00 0.000000e+00 0.000000e+00 0.000000e+00 0.000000e+00 0.000000e+00
 0.000000e+00 0.000000e+00 0.000000e+00 6.538461e-01 3.461539e-01 0.000000e+00 0.000000e+00 0.000000e+00 0.000000e+00 0.000000e+00 0.000000e+00 0.000000e+00 0.000000e+00 0.000000e+00
 0.000000e+00 0.000000e+00 0.000000e+00 0.000000e+00 2.500000e-01 7.500000e-01 0.000000e+00 0.000000e+00 0.000000e+00 0.000000e+00 0.000000e+00 0.000000e+00 0.000000e+00 0.000000e+00
 0.000000e+00 0.000000e+00 0.000000e+00 0.000000e+00 0.000000e+00 7.857143e-01 2.142857e-01 0.000000e+00 0.000000e+00 0.000000e+00 0.000000e+00 0.000000e+00 0.000000e+00 0.000000e+00
 0.000000e+00 0.000000e+00 0.000000e+00 0.000000e+00 0.000000e+00 0.000000e+00 8.421053e-01 1.578947e-01 0.000000e+00 0.000000e+00 0.000000e+00 0.000000e+00 0.000000e+00 0.000000e+00
 0.000000e+00 0.000000e+00 0.000000e+00 0.000000e+00 0.000000e+00 0.000000e+00 0.000000e+00 9.999999e-02 9.000000e-01 0.000000e+00 0.000000e+00 0.000000e+00 0.000000e+00 0.000000e+00
 0.000000e+00 0.000000e+00 0.000000e+00 0.000000e+00 0.000000e+00 0.000000e+00 0.000000e+00 0.000000e+00 5.500000e-01 4.500000e-01 0.000000e+00 0.000000e+00 0.000000e+00 0.000000e+00
 0.000000e+00 0.000000e+00 0.000000e+00 0.000000e+00 0.000000e+00 0.000000e+00 0.000000e+00 0.000000e+00 0.000000e+00 6.896552e-01 3.103448e-01 0.000000e+00 0.000000e+00 0.000000e+00
 0.000000e+00 0.000000e+00 0.000000e+00 0.000000e+00 0.000000e+00 0.000000e+00 0.000000e+00 0.000000e+00 0.000000e+00 0.000000e+00 1.818182e-01 8.181818e-01 0.000000e+00 0.000000e+00
 0.000000e+00 0.000000e+00 0.000000e+00 0.000000e+00 0.000000e+00 0.000000e+00 0.000000e+00 0.000000e+00 0.000000e+00 0.000000e+00 0.000000e+00 3.571429e-01 6.428571e-01 0.000000e+00
 0.000000e+00 0.000000e+00 0.000000e+00 0.000000e+00 0.000000e+00 0.000000e+00 0.000000e+00 0.000000e+00 0.000000e+00 0.000000e+00 0.000000e+00 0.000000e+00 9.518716e-01 4.812834e-02
 0.000000e+00 0.000000e+00 0.000000e+00 0.000000e+00 0.000000e+00 0.000000e+00 0.000000e+00 0.000000e+00 0.000000e+00 0.000000e+00 0.000000e+00 0.000000e+00 0.000000e+00 0.000000e+00
<ENDHMM>
