~o
<STREAMINFO> 1 20
<VECSIZE> 20<NULLD><USER><DIAGC>
~h "j"
<BEGINHMM>
<NUMSTATES> 14
<STATE> 2
<MEAN> 20
 9.227622e+03 4.324324e-01 0.000000e+00 0.000000e+00 0.000000e+00 0.000000e+00 0.000000e+00 0.000000e+00 0.000000e+00 2.354865e+02 2.162163e-01 9.453784e+02 7.253946e+03 9.290540e+02 2.600811e+02 6.656757e+01 8.189189e+00 1.081081e-01 0.000000e+00 0.000000e+00
<VARIANCE> 20
 9.389775e+06 2.191380e+00 1.000000e-02 1.000000e-02 1.000000e-02 1.000000e-02 1.000000e-02 1.000000e-02 1.000000e-02 1.169025e+05 1.682980e+00 1.322134e+06 8.995702e+06 8.242002e+05 4.185625e+05 3.529749e+04 1.787180e+03 4.207450e-01 1.000000e-02 1.000000e-02
<GCONST> 9.810832e+01
<STATE> 3
<MEAN> 20
 1.031245e+04 4.615000e+01 4.000000e-01 0.000000e+00 0.000000e+00 0.000000e+00 0.000000e+00 0.000000e+00 0.000000e+00 3.062000e+02 9.000002e-01 1.421100e+03 8.159100e+03 8.602000e+02 1.310500e+02 6.474999e+01 2.305000e+01 4.600000e+00 4.500000e-01 0.000000e+00
<VARIANCE> 20
 6.775800e+06 3.183272e+04 3.040000e+00 1.000000e-02 1.000000e-02 1.000000e-02 1.000000e-02 1.000000e-02 1.000000e-02 1.736088e+05 1.539000e+01 2.549638e+06 3.494689e+06 5.259304e+05 7.082114e+04 4.480329e+04 7.566346e+03 3.840401e+02 3.847500e+00 1.000000e-02
<GCONST> 1.276273e+02
<STATE> 4
<MEAN> 20
 1.008195e+04 1.597701e+00 0.000000e+00 0.000000e+00 0.000000e+00 0.000000e+00 0.000000e+00 0.000000e+00 0.000000e+00 1.810919e+02 -4.723721e-40 1.339989e+03 8.291851e+03 5.671149e+02 5.372414e+01 1.063218e+01 1.298850e+00 3.448277e-02 0.000000e+00 0.000000e+00
<VARIANCE> 20
 2.394413e+06 4.619452e+01 1.000000e-02 1.000000e-02 1.000000e-02 1.000000e-02 1.000000e-02 1.000000e-02 1.000000e-02 5.605280e+04 1.000000e-02 1.373902e+06 2.026898e+06 1.969665e+05 2.974085e+03 2.208762e+02 1.094517e+01 3.329371e-02 1.000000e-02 1.000000e-02
<GCONST> 7.339316e+01
<STATE> 5
<MEAN> 20
 9.787000e+03 1.016440e-21 0.000000e+00 0.000000e+00 0.000000e+00 0.000000e+00 0.000000e+00 0.000000e+00 2.158000e-43 1.483500e+02 9.999999e-02 1.174050e+03 7.971450e+03 7.232000e+02 5.830000e+01 8.150000e+00 9.999999e-02 -1.975831e-43 0.000000e+00 0.000000e+00
<VARIANCE> 20
 3.787127e+06 1.000000e-02 1.000000e-02 1.000000e-02 1.000000e-02 1.000000e-02 1.000000e-02 1.000000e-02 1.000000e-02 2.092573e+04 1.900000e-01 7.518245e+05 3.389496e+06 3.535866e+05 2.770810e+03 1.474275e+02 9.000000e-02 1.000000e-02 1.000000e-02 1.000000e-02
<GCONST> 6.139041e+01
<STATE> 6
<MEAN> 20
 9.451526e+03 -3.718064e-25 0.000000e+00 0.000000e+00 0.000000e+00 0.000000e+00 0.000000e+00 0.000000e+00 3.598945e-38 2.353698e+02 1.439578e-37 1.232186e+03 7.740311e+03 6.590103e+02 4.776369e+01 7.291097e+00 3.356165e-01 3.598945e-38 0.000000e+00 0.000000e+00
<VARIANCE> 20
 2.193555e+06 1.000000e-02 1.000000e-02 1.000000e-02 1.000000e-02 1.000000e-02 1.000000e-02 1.000000e-02 1.000000e-02 5.712757e+04 1.000000e-02 8.367820e+05 1.473897e+06 2.239803e+05 1.851303e+03 1.796037e+02 2.490094e+00 1.000000e-02 1.000000e-02 1.000000e-02
<GCONST> 6.083633e+01
<STATE> 7
<MEAN> 20
 1.173275e+04 1.978125e+01 0.000000e+00 0.000000e+00 0.000000e+00 0.000000e+00 0.000000e+00 0.000000e+00 4.062500e-01 4.105000e+02 1.712500e+01 1.706375e+03 9.533688e+03 8.674687e+02 3.456250e+01 4.125000e+00 9.375001e-02 0.000000e+00 0.000000e+00 0.000000e+00
<VARIANCE> 20
 4.282910e+06 2.518733e+03 1.000000e-02 1.000000e-02 1.000000e-02 1.000000e-02 1.000000e-02 1.000000e-02 2.116211e+00 1.668634e+05 3.214672e+03 1.259544e+06 3.319127e+06 8.079647e+05 1.971496e+03 1.206719e+02 1.474609e-01 1.000000e-02 1.000000e-02 1.000000e-02
<GCONST> 9.239188e+01
<STATE> 8
<MEAN> 20
 9.869476e+03 2.195846e-31 0.000000e+00 0.000000e+00 0.000000e+00 0.000000e+00 0.000000e+00 0.000000e+00 0.000000e+00 3.131005e+02 1.587301e-02 1.085630e+03 8.231122e+03 7.856031e+02 6.428572e+01 1.398942e+01 1.830688e+00 1.005291e-01 0.000000e+00 0.000000e+00
<VARIANCE> 20
 1.658136e+06 1.000000e-02 1.000000e-02 1.000000e-02 1.000000e-02 1.000000e-02 1.000000e-02 1.000000e-02 1.000000e-02 1.163446e+05 2.620304e-02 8.994735e+05 1.428274e+06 2.118431e+05 1.972776e+03 2.705393e+02 1.598190e+01 3.020624e-01 1.000000e-02 1.000000e-02
<GCONST> 6.795656e+01
<STATE> 9
<MEAN> 20
 1.079030e+04 2.200000e-01 0.000000e+00 0.000000e+00 0.000000e+00 0.000000e+00 0.000000e+00 0.000000e+00 0.000000e+00 2.886400e+02 7.034518e-43 5.352000e+02 7.988900e+03 2.306860e+03 1.897200e+02 4.792000e+01 9.219999e+00 1.220000e+00 1.200000e-01 0.000000e+00
<VARIANCE> 20
 2.516526e+06 1.171600e+00 1.000000e-02 1.000000e-02 1.000000e-02 1.000000e-02 1.000000e-02 1.000000e-02 1.000000e-02 8.010319e+04 1.000000e-02 3.816999e+05 3.410236e+06 2.058516e+06 8.510279e+03 9.673535e+02 7.969157e+01 3.771601e+00 2.255996e-01 1.000000e-02
<GCONST> 8.407129e+01
<STATE> 10
<MEAN> 20
 9.164122e+03 0.000000e+00 0.000000e+00 0.000000e+00 0.000000e+00 0.000000e+00 0.000000e+00 0.000000e+00 0.000000e+00 9.849360e+01 4.763911e-27 3.716667e+02 6.658128e+03 2.112237e+03 1.027308e+02 1.664744e+01 1.205128e+00 0.000000e+00 0.000000e+00 0.000000e+00
<VARIANCE> 20
 3.228423e+06 1.000000e-02 1.000000e-02 1.000000e-02 1.000000e-02 1.000000e-02 1.000000e-02 1.000000e-02 1.000000e-02 3.037611e+04 1.000000e-02 1.981368e+05 3.957914e+06 1.388622e+06 5.504080e+03 3.649334e+02 6.355355e+00 1.000000e-02 1.000000e-02 1.000000e-02
<GCONST> 6.469842e+01
<STATE> 11
<MEAN> 20
 8.829541e+03 1.918919e+00 0.000000e+00 0.000000e+00 0.000000e+00 0.000000e+00 0.000000e+00 0.000000e+00 0.000000e+00 1.761081e+02 -8.006070e-38 2.229054e+02 5.650162e+03 2.855594e+03 2.473514e+02 2.893243e+01 2.527027e+00 9.459460e-02 6.825725e-42 0.000000e+00
<VARIANCE> 20
 7.526663e+06 7.147987e+01 1.000000e-02 1.000000e-02 1.000000e-02 1.000000e-02 1.000000e-02 1.000000e-02 1.000000e-02 5.122046e+04 1.000000e-02 2.022642e+05 6.427185e+06 3.276311e+06 1.147609e+05 1.237036e+03 3.333038e+01 8.564649e-02 1.000000e-02 1.000000e-02
<GCONST> 8.436874e+01
<STATE> 12
<MEAN> 20
 7.695728e+03 8.459090e+01 1.268182e+01 4.545454e-01 7.727274e-01 2.685909e+02 1.004091e+02 2.254545e+01 5.681818e+00 2.163182e+02 2.359091e+02 5.120455e+02 4.843909e+03 1.962318e+03 5.099091e+02 2.518636e+02 7.813637e+01 1.368182e+01 -1.121039e-44 0.000000e+00
<VARIANCE> 20
 1.145598e+07 5.246679e+04 1.698490e+03 4.338843e+00 7.084711e+00 1.514963e+06 1.841857e+05 3.738520e+03 1.967624e+02 6.566930e+04 2.980345e+05 3.632807e+05 1.095288e+07 2.810968e+06 6.374110e+05 3.232493e+05 7.203930e+04 3.186856e+03 1.000000e-02 1.000000e-02
<GCONST> 2.182568e+02
<STATE> 13
<MEAN> 20
 6.458069e+03 9.275862e+00 3.448275e-01 1.034483e-01 3.103448e-01 1.555173e+02 6.910345e+01 1.844828e+01 1.413793e+01 1.288621e+02 4.124138e+01 4.249655e+02 3.620655e+03 1.547241e+03 7.505173e+02 2.577931e+02 2.025862e+02 7.137930e+00 1.965518e+00 6.896550e-02
<VARIANCE> 20
 1.353294e+07 1.178682e+03 2.708679e+00 2.996430e-01 9.036858e-01 1.574125e+05 2.538804e+04 1.330593e+03 7.410153e+02 2.191571e+04 9.034317e+03 2.792896e+05 1.157544e+07 2.743706e+06 1.043569e+06 1.360351e+05 1.840316e+05 2.768087e+02 2.727469e+01 1.331748e-01
<GCONST> 2.032982e+02
<TRANSP> 14
 0.000000e+00 1.000000e+00 0.000000e+00 0.000000e+00 0.000000e+00 0.000000e+00 0.000000e+00 0.000000e+00 0.000000e+00 0.000000e+00 0.000000e+00 0.000000e+00 0.000000e+00 0.000000e+00
 0.000000e+00 4.594595e-01 5.405405e-01 0.000000e+00 0.000000e+00 0.000000e+00 0.000000e+00 0.000000e+00 0.000000e+00 0.000000e+00 0.000000e+00 0.000000e+00 0.000000e+00 0.000000e+00
 0.000000e+00 0.000000e+00 0.000000e+00 1.000000e+00 0.000000e+00 0.000000e+00 0.000000e+00 0.000000e+00 0.000000e+00 0.000000e+00 0.000000e+00 0.000000e+00 0.000000e+00 0.000000e+00
 0.000000e+00 0.000000e+00 0.000000e+00 7.701150e-01 2.298851e-01 0.000000e+00 0.000000e+00 0.000000e+00 0.000000e+00 0.000000e+00 0.000000e+00 0.000000e+00 0.000000e+00 0.000000e+00
 0.000000e+00 0.000000e+00 0.000000e+00 0.000000e+00 0.000000e+00 1.000000e+00 0.000000e+00 0.000000e+00 0.000000e+00 0.000000e+00 0.000000e+00 0.000000e+00 0.000000e+00 0.000000e+00
 0.000000e+00 0.000000e+00 0.000000e+00 0.000000e+00 0.000000e+00 9.315069e-01 6.849316e-02 0.000000e+00 0.000000e+00 0.000000e+00 0.000000e+00 0.000000e+00 0.000000e+00 0.000000e+00
 0.000000e+00 0.000000e+00 0.000000e+00 0.000000e+00 0.000000e+00 0.000000e+00 3.750000e-01 6.250000e-01 0.000000e+00 0.000000e+00 0.000000e+00 0.000000e+00 0.000000e+00 0.000000e+00
 0.000000e+00 0.000000e+00 0.000000e+00 0.000000e+00 0.000000e+00 0.000000e+00 0.000000e+00 8.941799e-01 1.058201e-01 0.000000e+00 0.000000e+00 0.000000e+00 0.000000e+00 0.000000e+00
 0.000000e+00 0.000000e+00 0.000000e+00 0.000000e+00 0.000000e+00 0.000000e+00 0.000000e+00 0.000000e+00 6.000000e-01 4.000000e-01 0.000000e+00 0.000000e+00 0.000000e+00 0.000000e+00
 0.000000e+00 0.000000e+00 0.000000e+00 0.000000e+00 0.000000e+00 0.000000e+00 0.000000e+00 0.000000e+00 0.000000e+00 8.717949e-01 1.282051e-01 0.000000e+00 0.000000e+00 0.000000e+00
 0.000000e+00 0.000000e+00 0.000000e+00 0.000000e+00 0.000000e+00 0.000000e+00 0.000000e+00 0.000000e+00 0.000000e+00 0.000000e+00 7.297298e-01 2.702703e-01 0.000000e+00 0.000000e+00
 0.000000e+00 0.000000e+00 0.000000e+00 0.000000e+00 0.000000e+00 0.000000e+00 0.000000e+00 0.000000e+00 0.000000e+00 0.000000e+00 0.000000e+00 9.090909e-02 9.090909e-01 0.000000e+00
 0.000000e+00 0.000000e+00 0.000000e+00 0.000000e+00 0.000000e+00 0.000000e+00 0.000000e+00 0.000000e+00 0.000000e+00 0.000000e+00 0.000000e+00 0.000000e+00 3.103448e-01 6.896552e-01
 0.000000e+00 0.000000e+00 0.000000e+00 0.000000e+00 0.000000e+00 0.000000e+00 0.000000e+00 0.000000e+00 0.000000e+00 0.000000e+00 0.000000e+00 0.000000e+00 0.000000e+00 0.000000e+00
<ENDHMM>
