~o
<STREAMINFO> 1 20
<VECSIZE> 20<NULLD><USER><DIAGC>
~h "sil"
<BEGINHMM>
<NUMSTATES> 14
<STATE> 2
<MEAN> 20
 9.140688e+03 6.250000e-02 0.000000e+00 0.000000e+00 0.000000e+00 0.000000e+00 0.000000e+00 0.000000e+00 0.000000e+00 7.562500e+01 0.000000e+00 6.250000e-02 2.006250e+03 5.563562e+03 1.388688e+03 1.750000e+02 5.156250e+01 2.243750e+01 7.812500e+00 9.999999e-01
<VARIANCE> 20
 8.306592e+05 5.859375e-02 1.000000e-02 1.000000e-02 1.000000e-02 1.000000e-02 1.000000e-02 1.000000e-02 1.000000e-02 4.611734e+03 1.000000e-02 5.859375e-02 7.682282e+05 3.320198e+05 3.143422e+05 6.269125e+03 3.727461e+02 3.087109e+01 3.127734e+01 2.875000e+00
<GCONST> 7.782433e+01
<STATE> 3
<MEAN> 20
 8.475972e+03 0.000000e+00 0.000000e+00 0.000000e+00 0.000000e+00 0.000000e+00 0.000000e+00 0.000000e+00 0.000000e+00 1.934286e+01 0.000000e+00 0.000000e+00 3.066257e+03 4.583057e+03 7.034000e+02 9.257143e+01 3.682857e+01 1.202857e+01 1.114286e+00 5.714286e-02
<VARIANCE> 20
 1.361396e+06 1.000000e-02 1.000000e-02 1.000000e-02 1.000000e-02 1.000000e-02 1.000000e-02 1.000000e-02 1.000000e-02 8.629684e+02 1.000000e-02 1.000000e-02 8.226771e+05 4.494142e+05 7.141077e+04 4.978449e+02 1.332849e+02 4.288489e+01 2.386938e+00 5.387753e-02
<GCONST> 6.221272e+01
<STATE> 4
<MEAN> 20
 8.160477e+03 0.000000e+00 0.000000e+00 0.000000e+00 0.000000e+00 0.000000e+00 0.000000e+00 0.000000e+00 0.000000e+00 2.893181e+01 0.000000e+00 0.000000e+00 4.693455e+03 3.180455e+03 2.361818e+02 5.625000e+01 1.913636e+01 3.590909e+00 3.409091e-01 0.000000e+00
<VARIANCE> 20
 1.075113e+06 1.000000e-02 1.000000e-02 1.000000e-02 1.000000e-02 1.000000e-02 1.000000e-02 1.000000e-02 1.000000e-02 2.495063e+03 1.000000e-02 1.000000e-02 6.911304e+05 4.469831e+05 1.248478e+04 3.241875e+02 4.889049e+01 9.923553e+00 5.428717e-01 1.000000e-02
<GCONST> 5.505423e+01
<STATE> 5
<MEAN> 20
 9.229050e+03 0.000000e+00 0.000000e+00 0.000000e+00 0.000000e+00 0.000000e+00 0.000000e+00 0.000000e+00 0.000000e+00 5.965000e+01 0.000000e+00 9.450000e+00 5.836650e+03 3.176950e+03 1.844500e+02 5.915000e+01 1.870000e+01 3.300000e+00 4.999999e-02 0.000000e+00
<VARIANCE> 20
 1.195881e+06 1.000000e-02 1.000000e-02 1.000000e-02 1.000000e-02 1.000000e-02 1.000000e-02 1.000000e-02 1.000000e-02 4.149827e+03 1.000000e-02 2.755475e+02 5.378596e+05 2.886898e+05 1.627548e+03 1.276275e+02 5.241000e+01 7.810000e+00 4.750000e-02 1.000000e-02
<GCONST> 5.962969e+01
<STATE> 6
<MEAN> 20
 9.120125e+03 7.500000e-01 0.000000e+00 0.000000e+00 0.000000e+00 0.000000e+00 0.000000e+00 0.000000e+00 0.000000e+00 6.725000e+01 0.000000e+00 4.687500e+01 5.910500e+03 2.982750e+03 1.846250e+02 5.350000e+01 9.750000e+00 1.250000e-01 0.000000e+00 0.000000e+00
<VARIANCE> 20
 1.037231e+06 3.937500e+00 1.000000e-02 1.000000e-02 1.000000e-02 1.000000e-02 1.000000e-02 1.000000e-02 1.000000e-02 7.669938e+03 1.000000e-02 1.749609e+03 6.801480e+05 6.458802e+05 5.907984e+03 4.005000e+02 1.843750e+01 1.093750e-01 1.000000e-02 1.000000e-02
<GCONST> 6.452728e+01
<STATE> 7
<MEAN> 20
 9.543952e+03 0.000000e+00 0.000000e+00 0.000000e+00 0.000000e+00 0.000000e+00 0.000000e+00 0.000000e+00 0.000000e+00 1.092381e+02 0.000000e+00 7.647619e+01 6.401190e+03 2.968762e+03 1.510000e+02 4.733333e+01 8.095238e+00 3.333334e-01 0.000000e+00 0.000000e+00
<VARIANCE> 20
 8.901734e+05 1.000000e-02 1.000000e-02 1.000000e-02 1.000000e-02 1.000000e-02 1.000000e-02 1.000000e-02 1.000000e-02 1.350637e+04 1.000000e-02 5.560439e+03 5.021972e+05 3.441442e+05 1.329619e+03 1.644127e+02 3.075283e+01 6.031744e-01 1.000000e-02 1.000000e-02
<GCONST> 5.902521e+01
<STATE> 8
<MEAN> 20
 8.981889e+03 0.000000e+00 0.000000e+00 0.000000e+00 0.000000e+00 0.000000e+00 0.000000e+00 0.000000e+00 0.000000e+00 4.566667e+01 0.000000e+00 9.588889e+01 6.580111e+03 2.177222e+03 1.255556e+02 3.922222e+01 9.111111e+00 4.444444e-01 0.000000e+00 0.000000e+00
<VARIANCE> 20
 1.243726e+06 1.000000e-02 1.000000e-02 1.000000e-02 1.000000e-02 1.000000e-02 1.000000e-02 1.000000e-02 1.000000e-02 1.130222e+03 1.000000e-02 1.043477e+04 7.504794e+05 1.605368e+05 3.240247e+02 4.506173e+01 1.232099e+01 4.691358e-01 1.000000e-02 1.000000e-02
<GCONST> 5.327539e+01
<STATE> 9
<MEAN> 20
 9.022920e+03 0.000000e+00 0.000000e+00 0.000000e+00 0.000000e+00 0.000000e+00 0.000000e+00 0.000000e+00 0.000000e+00 1.280800e+02 0.000000e+00 2.608800e+02 6.817760e+03 1.927560e+03 1.088000e+02 3.188000e+01 4.080000e+00 4.000000e-02 0.000000e+00 0.000000e+00
<VARIANCE> 20
 1.484893e+06 1.000000e-02 1.000000e-02 1.000000e-02 1.000000e-02 1.000000e-02 1.000000e-02 1.000000e-02 1.000000e-02 1.485799e+04 1.000000e-02 7.193267e+04 5.300690e+05 2.272382e+05 6.085599e+02 9.122559e+01 1.351360e+01 3.840001e-02 1.000000e-02 1.000000e-02
<GCONST> 5.688425e+01
<STATE> 10
<MEAN> 20
 9.410125e+03 2.500000e-01 0.000000e+00 0.000000e+00 0.000000e+00 0.000000e+00 0.000000e+00 0.000000e+00 0.000000e+00 6.100000e+01 0.000000e+00 1.933750e+02 7.233000e+03 1.894250e+03 1.111250e+02 3.350000e+01 5.250000e+00 8.749999e-01 0.000000e+00 0.000000e+00
<VARIANCE> 20
 1.939098e+06 4.375000e-01 1.000000e-02 1.000000e-02 1.000000e-02 1.000000e-02 1.000000e-02 1.000000e-02 1.000000e-02 6.094000e+03 1.000000e-02 6.985073e+04 1.017370e+06 1.994914e+05 1.576359e+03 1.772500e+02 1.468750e+01 2.609375e+00 1.000000e-02 1.000000e-02
<GCONST> 6.644886e+01
<STATE> 11
<MEAN> 20
 9.108677e+03 0.000000e+00 0.000000e+00 0.000000e+00 0.000000e+00 0.000000e+00 0.000000e+00 0.000000e+00 0.000000e+00 1.485882e+02 0.000000e+00 5.430882e+02 7.302088e+03 1.315647e+03 7.810294e+01 1.725000e+01 1.088235e+00 0.000000e+00 0.000000e+00 0.000000e+00
<VARIANCE> 20
 7.332501e+05 1.000000e-02 1.000000e-02 1.000000e-02 1.000000e-02 1.000000e-02 1.000000e-02 1.000000e-02 1.000000e-02 1.645424e+04 1.000000e-02 8.851238e+04 4.122202e+05 3.375217e+05 1.345622e+03 1.437757e+02 3.051037e+00 1.000000e-02 1.000000e-02 1.000000e-02
<GCONST> 5.504701e+01
<STATE> 12
<MEAN> 20
 9.259308e+03 0.000000e+00 0.000000e+00 0.000000e+00 0.000000e+00 0.000000e+00 0.000000e+00 0.000000e+00 0.000000e+00 1.200769e+02 0.000000e+00 2.710000e+02 6.515423e+03 2.417154e+03 1.419615e+02 3.180769e+01 2.038461e+00 1.628910e-22 0.000000e+00 0.000000e+00
<VARIANCE> 20
 1.068644e+06 1.000000e-02 1.000000e-02 1.000000e-02 1.000000e-02 1.000000e-02 1.000000e-02 1.000000e-02 1.000000e-02 1.059399e+04 1.000000e-02 6.340554e+04 4.458517e+05 1.759833e+05 1.673806e+03 2.690784e+02 1.034467e+01 1.000000e-02 1.000000e-02 1.000000e-02
<GCONST> 5.614295e+01
<STATE> 13
<MEAN> 20
 8.996044e+03 0.000000e+00 0.000000e+00 0.000000e+00 0.000000e+00 0.000000e+00 0.000000e+00 0.000000e+00 0.000000e+00 1.210435e+02 0.000000e+00 2.940000e+02 6.247826e+03 2.430174e+03 1.213043e+02 2.108696e+01 2.260870e+00 4.347826e-01 0.000000e+00 0.000000e+00
<VARIANCE> 20
 2.614296e+06 1.000000e-02 1.000000e-02 1.000000e-02 1.000000e-02 1.000000e-02 1.000000e-02 1.000000e-02 1.000000e-02 2.275187e+04 1.000000e-02 1.744317e+05 1.431688e+06 2.316701e+05 2.184472e+03 1.767751e+02 1.549717e+01 1.202268e+00 1.000000e-02 1.000000e-02
<GCONST> 6.529517e+01
<TRANSP> 14
 0.000000e+00 1.000000e+00 0.000000e+00 0.000000e+00 0.000000e+00 0.000000e+00 0.000000e+00 0.000000e+00 0.000000e+00 0.000000e+00 0.000000e+00 0.000000e+00 0.000000e+00 0.000000e+00
 0.000000e+00 6.250000e-01 3.750000e-01 0.000000e+00 0.000000e+00 0.000000e+00 0.000000e+00 0.000000e+00 0.000000e+00 0.000000e+00 0.000000e+00 0.000000e+00 0.000000e+00 0.000000e+00
 0.000000e+00 0.000000e+00 8.285714e-01 1.714286e-01 0.000000e+00 0.000000e+00 0.000000e+00 0.000000e+00 0.000000e+00 0.000000e+00 0.000000e+00 0.000000e+00 0.000000e+00 0.000000e+00
 0.000000e+00 0.000000e+00 0.000000e+00 8.636364e-01 1.363636e-01 0.000000e+00 0.000000e+00 0.000000e+00 0.000000e+00 0.000000e+00 0.000000e+00 0.000000e+00 0.000000e+00 0.000000e+00
 0.000000e+00 0.000000e+00 0.000000e+00 0.000000e+00 7.000000e-01 3.000000e-01 0.000000e+00 0.000000e+00 0.000000e+00 0.000000e+00 0.000000e+00 0.000000e+00 0.000000e+00 0.000000e+00
 0.000000e+00 0.000000e+00 0.000000e+00 0.000000e+00 0.000000e+00 2.500000e-01 7.500000e-01 0.000000e+00 0.000000e+00 0.000000e+00 0.000000e+00 0.000000e+00 0.000000e+00 0.000000e+00
 0.000000e+00 0.000000e+00 0.000000e+00 0.000000e+00 0.000000e+00 0.000000e+00 7.142857e-01 2.857143e-01 0.000000e+00 0.000000e+00 0.000000e+00 0.000000e+00 0.000000e+00 0.000000e+00
 0.000000e+00 0.000000e+00 0.000000e+00 0.000000e+00 0.000000e+00 0.000000e+00 0.000000e+00 3.333333e-01 6.666667e-01 0.000000e+00 0.000000e+00 0.000000e+00 0.000000e+00 0.000000e+00
 0.000000e+00 0.000000e+00 0.000000e+00 0.000000e+00 0.000000e+00 0.000000e+00 0.000000e+00 0.000000e+00 7.600000e-01 2.400000e-01 0.000000e+00 0.000000e+00 0.000000e+00 0.000000e+00
 0.000000e+00 0.000000e+00 0.000000e+00 0.000000e+00 0.000000e+00 0.000000e+00 0.000000e+00 0.000000e+00 0.000000e+00 2.500000e-01 7.500000e-01 0.000000e+00 0.000000e+00 0.000000e+00
 0.000000e+00 0.000000e+00 0.000000e+00 0.000000e+00 0.000000e+00 0.000000e+00 0.000000e+00 0.000000e+00 0.000000e+00 0.000000e+00 9.117647e-01 8.823530e-02 0.000000e+00 0.000000e+00
 0.000000e+00 0.000000e+00 0.000000e+00 0.000000e+00 0.000000e+00 0.000000e+00 0.000000e+00 0.000000e+00 0.000000e+00 0.000000e+00 0.000000e+00 7.692308e-01 2.307692e-01 0.000000e+00
 0.000000e+00 0.000000e+00 0.000000e+00 0.000000e+00 0.000000e+00 0.000000e+00 0.000000e+00 0.000000e+00 0.000000e+00 0.000000e+00 0.000000e+00 0.000000e+00 7.391304e-01 2.608696e-01
 0.000000e+00 0.000000e+00 0.000000e+00 0.000000e+00 0.000000e+00 0.000000e+00 0.000000e+00 0.000000e+00 0.000000e+00 0.000000e+00 0.000000e+00 0.000000e+00 0.000000e+00 0.000000e+00
<ENDHMM>
